9
-3
-2
2
-23
-80
-41
29
17
-4
-42
-8
-1
-31
-5
-21
12
-65
70
-24
-90
43
-21
-24
-18
-22
-28
43
10
29
-9
-6
62
39
48
-18
-1
43
61
-94
36
72
-25
-35
26
27
6
-41
-30
-21
-82
4
-22
13
15
-43
30
-38
-17
-37
50
-23
1
-12
-27
33
-7
43
13
-42
52
-5
4
2
70
-4
3
4
12
71
12
-64
3
40
40
12
-49
-18
-48
54
78
-4
37
34
75
-74
-64
-9
69
-53
18
46
-10
2
-91
-45
4
-10
-33
83
8
-9
3
34
20
-21
-19
10
-100
27
2
-102
-38
-37
43
2
-77
-72
-127
-35
23
-69
-18
60
-34
-34
-66
-11
-38
54
-31
-37
9
28
-52
-12
12
31
20
-23
42
-57
31
21
-13
12
22
-22
-62
-37
32
-13
-2
-22
1
-28
-39
-5
45
-33
85
-21
-45
-28
31
-2
35
-39
-20
-6
-31
-16
-9
25
-12
-34
39
9
-29
-55
15
-66
-12
80
6
26
-39
0
-9
83
66
26
-41
10
61
44
-79
-37
-44
37
-22
36
-89
8
30
-37
107
-34
-7
-22
-31
-49
-15
-21
-63
18
-61
-40
-23
2
-56
13
-6
91
77
-66
-10
-71
-22
-4
-66
-26
-50
34
85
-23
3
-22
55
-40
-30
-53
38
-6
-23
-22
-8
53
19
33
-82
-13
18
-22
0
7
-33
-30
1
-66
4
27
-24
-96
-73
-116
14
24
9
8
-50
74
-52
-24
-42
51
23
39
10
15
1
32
-43
33
13
12
-72
10
-75
-35
71
54
-4
12
-78
31
-20
-32
-9
-72
-55
-19
-74
-48
-2
-10
-33
-87
-31
11
1
-89
17
16
-17
-21
-99
-14
-18
-15
-12
-73
-12
-19
60
-19
-25
-66
-18
4
-8
3
24
-24
23
21
-57
-32
-8
-78
-36
-15
-15
-15
48
17
-41
15
27
-97
-4
51
-8
2
-20
-127
45
57
31
-37
-57
46
7
-83
24
3
-26
-14
-12
-12
-32
-59
-35
-74
35
32
75
-50
59
-76
15
36
-44
40
32
64
40
3
-56
71
41
77
-12
27
-37
-20
-28
-8
24
-27
-37
-6
-64
37
0
14
-95
-20
-14
-25
25
-59
-43
55
-16
21
42
-106
31
-2
13
-26
92
6
33
-2
44
-9
4
8
28
-70
10
41
61
15
15
63
-14
24
55
22
-17
2
-8
-50
14
-34
-51
-48
-19
-56
18
39
1
1
-112
-88
25
67
-16
-8
-37
-66
31
16
32
6
48
20
-7
-52
-6
13
-33
-92
56
84
31
34
-18
1
-16
8
23
75
-31
43
-10
-35
26
-14
40
-13
3
63
-29
-99
40
-31
-53
97
127
12
-7
-1
-2
31
11
-76
77
-27
28
-71
-123
-58
-30
-67
-21
-30
-16
46
2
-25
-27
43
46
31
-35
39
17
33
-55
-20
9
-16
-16
-35
-64
-3
74
-29
-72
-45
-43
28
-8
-10
-25
-66
15
-34
51
-20
17
-30
-5
-47
4
-2
-19
-31
-7
58
69
9
-4
-49
28
37
6
-108
-3
-32
32
50
28
-75
21
31
28
44
-37
-31
-60
-13
12
-51
-27
39
79
-4
-59
-40
33
43
48
-44
11
38
-78
6
21
-29
-39
1
-10
23
55
-32
-40
-14
-34
41
0
-68
69
79
-52
-71
-22
-28
-4
-16
-32
53
35
24
-17
2
-55
-40
-42
35
-38
-12
26
51
13
-25
59
63
-47
-52
3
-105
-15
-2
37
65
1
77
32
87
5
26
-18
-92
59
-25
-31
46
-39
12
12
-10
7
13
-29
-89
28
-4
-1
-4
68
-7
26
29
69
30
13
10
-29
-30
4
-30
52
-6
7
-24
-42
-32
-4
12
2
-2
-10
-12
59
39
-8
-67
-45
45
-65
-47
-127
34
25
-30
-67
-66
11
82
-14
76
24
14
-65
-98
-1
99
-30
22
-35
26
14
-85
4
8
35
27
-10
-13
-19
24
-8
-3
13
-29
-73
5
-22
-12
14
-49
-5
-39
31
-21
21
78
3
-17
-65
-7
86
1
54
-41
-66
-36
83
78
-23
65
21
51
-39
-64
-37
60
2
40
-25
10
0
-18
38
-3
-36
6
-59
-42
93
-20
-34
-39
17
23
-52
59
-8
-2
62
-34
-77
13
-42
15
42
31
20
-12
9
17
-30
7
-30
31
-50
-31
78
4
10
-8
-21
40
-32
23
22
-17
26
-40
3
-47
-24
-58
38
-27
12
5
27
90
-10
27
-37
17
7
22
-53
-12
-20
54
-82
85
13
8
-45
-4
-36
3
-13
19
8
-20
35
21
0
-1
-69
73
-66
-27
-51
-45
34
-36
85
-47
29
87
-21
66
30
34
-33
31
-24
48
-20
18
-31
-17
40
44
-33
-86
32
17
16
41
-15
-14
50
108
28
28
57
48
-2
-25
11
54
-20
27
-7
13
-70
-29
21
14
-73
-10
-6
78
49
-23
-33
-11
46
3
-63
-26
16
-13
-104
-6
127
-63
16
-51
40
-27
13
30
32
-68
-6
-40
-63
21
-63
-36
11
-8
-37
1
52
82
-22
24
6
-8
56
37
4
-48
15
16
29
-52
-28
-18
38
30
-87
18
40
-6
12
87
-60
-4
8
23
16
-2
86
-10
22
86
67
14
34
-21
78
-1
-42
41
58
61
-42
105
37
35
4
29
60
-33
-15
27
-12
25
-17
16
-17
-78
-18
21
6
41
-40
78
-20
-27
-20
-61
32
-37
27
-9
41
94
19
-3
94
78
-15
-10
-1
-25
97
16
64
-6
38
-82
12
26
41
-42
80
34
-8
-57
-57
14
32
18
81
23
-26
-35
-89
-17
23
29
47
18
103
50
41
106
6
0
50
6
-75
-9
-27
23
-45
55
34
29
-25
43
0
-127
-91
-60
-72
75
30
53
40
-48
-35
-35
97
4
-106
-9
-41
18
20
21
-30
-39
-32
-72
11
59
76
-48
103
42
35
-104
6
18
81
-14
-68
56
3
44
12
-23
-60
-20
-6
107
-58
75
13
-22
-36
-2
-47
113
-40
-9
4
-13
20
92
8
11
-39
36
59
-57
6
-11
-17
39
-25
62
16
-12
8
-58
24
20
2
-5
48
9
-18
-50
-30
-32
-35
50
49
-53
-1
94
79
90
10
-39
-39
47
14
73
25
29
35
-1
4
-19
-76
-21
-23
-13
19
3
-41
-16
21
-12
-33
48
51
-11
10
69
13
-65
8
-29
-25
7
-33
127
4
3
12
-74
59
-3
-6
-30
52
12
5
9
86
27
-23
-30
8
-35
32
-70
12
14
30
7
-1
-50
37
-41
-12
14
2
28
13
32
56
37
19
0
16
86
32
60
-39
-9
25
-19
-73
-3
-10
2
-15
-100
18
-19
31
6
43
61
24
-24
12
-4
48
54
36
87
13
-8
38
49
-8
8
-29
29
17
-41
-25
4
9
-47
35
-18
8
18
-29
-4
21
-8
59
-19
-33
-2
-23
-84
-59
-29
-15
15
49
30
-5
-58
-9
26
12
9
-61
10
75
-28
14
25
11
49
-84
-36
-60
105
4
-25
-18
27
10
-20
11
-53
-37
-16
11
-17
-60
-41
50
18
-55
-3
-15
21
68
5
-93
-36
41
16
52
-44
28
-85
58
-55
-5
23
-30
-53
-46
105
-5
72
-48
35
105
-50
7
-16
-73
-25
40
-53
32
82
-8
-62
104
19
-80
-87
2
-3
15
35
-44
27
-26
-15
-102
-15
-47
81
-20
-29
19
24
12
26
-38
-9
3
-78
45
-46
-66
-36
-103
-3
-27
124
-31
-107
-17
-122
11
1
34
-19
-30
0
3
-23
80
123
16
-76
15
-44
-5
9
74
65
32
58
-113
-38
-10
-29
-55
6
98
69
49
53
-33
5
-3
-17
-111
-57
16
-12
-78
-53
25
81
-127
28
35
-121
-43
-12
-76
6
18
-37
13
-29
-42
-40
-59
-24
-95
-6
-43
41
48
99
32
7
-10
11
61
-48
-99
22
7
-53
55
16
-21
-4
-44
-61
-97
41
-14
-58
-102
-82
-76
40
6
-13
-71
-7
75
-46
-4
67
3
2
-98
-53
-41
78
-7
-29
-97
-80
-34
-76
35
2
36
-45
-14
-44
-30
48
19
-23
-72
-15
-12
30
64
18
-34
59
78
38
28
3
-61
-8
10
-45
-37
10
-9
-21
0
-16
54
15
-42
-24
70
20
-3
-114
-67
-3
-78
-20
-65
-43
-11
4
20
2
71
-22
-4
14
73
33
47
-22
2
-53
25
8
-25
-38
-29
-16
-73
24
-36
49
35
62
-53
14
40
11
-6
72
63
76
51
-18
-5
79
71
-49
-99
-6
44
-3
-12
-43
-10
-79
-11
88
-51
55
127
28
1
32
5
-9
47
-5
-10
-44
104
-33
1
-60
-18
42
-53
123
44
-17
15
36
-49
-73
1
38
24
-86
24
-56
62
74
29
-10
-41
12
34
24
69
-26
-28
13
-56
-12
63
38
37
-59
51
66
17
-78
-58
-13
53
-2
36
30
77
33
24
-37
-25
120
78
32
46
-5
29
7
19
67
77
-40
19
7
51
-6
27
-40
12
-24
-29
28
-11
-27
-57
-6
-22
0
13
23
22
20
-5
-43
-52
27
-15
88
1
-43
-60
-28
84
-52
-4
54
6
56
12
-31
79
-11
-61
-2
0
56
101
-18
67
-54
4
-53
17
0
-8
-69
-53
-32
53
-16
-44
-57
-26
0
40
-20
96
-23
5
1
3
-16
14
-9
10
-33
-70
23
-1
-32
3
78
24
-74
-38
-48
-20
69
-21
17
48
-19
-7
60
-32
-42
-4
46
-17
0
-13
-41
27
-88
-53
-11
-22
27
-24
52
-40
73
7
-44
-83
-44
46
-36
10
74
14
-84
-42
0
-6
-32
50
35
5
-34
34
-28
-16
-4
-17
-11
58
-51
-1
-40
25
-62
-19
-19
127
8
11
-25
-8
20
24
49
-58
-56
102
34
-65
62
-27
-24
-115
76
59
53
32
110
31
76
-24
-23
-42
8
-38
-9
-66
33
11
-20
7
-5
70
-6
-56
12
-11
20
71
-64
10
-4
-35
127
64
33
50
16
-29
-1
-18
-64
-24
-71
-71
45
95
-9
-14
-65
-7
-16
51
-54
-15
54
51
-30
2
4
32
18
-21
16
-127
66
-8
19
-60
18
-76
31
26
-1
64
-73
-104
-55
-81
14
65
38
-39
13
-57
-42
120
10
4
49
-47
-54
12
4
-63
-28
-86
-20
27
17
-74
-67
17
-49
39
6
-16
-24
-26
-96
-44
-5
-27
-64
-24
102
-11
-22
42
56
-76
-31
-53
2
-41
-66
-38
-19
-57
49
27
30
-13
55
5
70
-39
14
-58
-49
-76
39
-58
11
-42
33
23
-13
64
-60
-15
-18
79
-12
19
42
-30
-77
-27
59
-38
-79
75
25
46
0
13
56
26
25
-69
24
5
52
-8
21
-76
32
-16
25
-21
-21
-37
13
13
29
-94
-34
23
37
-38
42
13
-18
25
2
-5
38
-81
25
-7
-13
1
-28
-14
28
-32
-26
-87
-60
43
-46
-16
39
5
0
60
11
-13
-18
28
-92
-19
34
-36
-8
8
-20
-17
-16
-74
-2
-17
-8
32
-9
-74
6
44
-6
-14
-10
43
-44
-24
5
31
-52
-36
43
-5
53
37
-87
77
-65
-51
5
-58
40
-14
20
51
47
-78
43
5
-10
104
11
59
55
96
-22
-26
-2
-41
28
3
-15
-17
-18
63
77
42
-11
10
19
59
88
-112
80
3
-39
15
51
6
35
-44
-86
102
13
12
74
40
-40
2
-11
-59
-81
18
-21
4
52
14
-43
37
-15
-123
30
-60
-74
78
-82
-35
-21
-2
-73
41
-26
-66
-53
58
40
-60
67
-37
53
43
-95
-26
-65
90
28
3
-52
-78
15
0
-46
28
-54
-62
-22
15
9
42
61
-11
-23
12
28
53
-14
-10
-7
-15
33
-48
-32
-45
-28
18
18
14
-15
-40
-39
-25
-33
-7
-2
127
-31
-79
-64
-62
16
-86
-21
55
117
-10
-27
7
-28
-14
19
-17
-6
-89
-4
-16
48
35
1
-18
55
-11
-2
23
-24
-41
-77
-23
12
18
53
25
-50
-41
-13
-40
28
-65
53
18
-8
-20
1
64
-22
-56
-90
-39
-20
-2
34
33
34
43
13
37
5
1
113
23
27
-6
-3
-20
-13
6
-28
-34
-5
39
5
-36
-2
-24
-41
8
2
10
75
-24
21
91
-64
65
11
63
6
-86
-14
-5
-23
19
-10
-50
-11
127
-43
8
8
-51
15
11
1
17
60
-19
-19
-38
-35
-24
7
40
68
76
19
12
13
-61
1
-5
26
-35
66
-41
-11
-8
-48
-4
30
18
-38
-8
16
5
16
87
75
-34
86
36
-9
13
-12
0
-7
-46
38
-34
-12
4
20
31
1
-37
-21
-5
15
71
-5
-22
-10
-11
10
-11
76
13
-49
-32
-1
-12
-27
59
8
9
43
-11
66
16
-65
-17
-3
38
62
3
46
-16
59
-71
40
-18
36
0
-21
72
5
6
-30
-7
-14
-3
19
2
27
-14
-40
3
22
63
-60
12
-6
11
48
18
-1
39
14
108
32
-1
4
-7
28
6
69
23
-6
-13
-47
-8
-11
44
4
-6
-20
47
67
7
98
-4
-43
-44
-26
-31
-4
-20
-18
31
67
22
-26
-2
53
4
-8
-63
15
-18
-18
-15
45
5
-12
-32
57
67
34
-23
-1
-40
22
-8
7
-48
-13
-19
38
37
61
-13
39
-5
53
0
24
12
-15
-39
-56
8
100
-45
33
42
10
-2
39
-11
65
25
0
43
4
26
10
33
11
-20
32
35
-127
-67
-33
25
-24
18
106
-52
43
-7
28
-30
-19
4
11
17
65
11
26
-7
17
35
-41
41
-21
48
-2
34
41
1
39
0
11
0
32
42
34
-11
-11
3
-42
-32
26
-34
54
-6
-54
-20
-24
-10
33
23
25
36
17
-23
-56
-65
-94
1
-48
20
-30
-22
43
-5
-46
5
-70
70
2
8
3
17
41
-37
56
-31
0
8
-12
78
-39
16
-3
7
-2
-16
-54
-93
-28
24
-15
-18
41
10
-24
-50
-33
-12
79
-7
6
35
-24
-38
-87
-27
-33
21
-43
-35
10
-3
-25
50
-38
2
-50
18
10
-27
-24
-37
16
20
13
14
-9
7
19
45
14
0
-56
1
-4
29
37
-12
5
71
46
34
-7
-67
-1
77
-13
49
64
-37
6
93
-12
46
27
1
24
-75
-42
2
95
15
9
4
60
17
-22
-44
-56
2
12
5
45
-35
83
62
17
2
74
37
-9
66
31
-4
17
-18
-41
95
6
77
-15
4
-25
10
13
-15
-14
-10
-42
56
1
-44
-7
-29
-26
-8
14
-7
-48
7
40
-45
2
104
-46
14
4
2
-1
27
-5
57
-54
8
-26
-35
-29
-32
24
68
-18
-2
7
10
6
33
-8
-14
-5
87
18
28
-31
30
32
54
35
34
29
-10
47
8
36
57
29
94
5
12
-16
-33
14
-38
-7
-28
45
55
19
-26
-15
38
33
27
-17
11
7
13
23
37
7
64
-10
-78
47
52
-13
-3
40
31
52
23
24
37
5
-34
-19
-18
-17
3
-10
-5
-38
-22
127
23
-14
-26
0
10
27
6
-14
-3
-28
-20
93
31
35
-48
-5
-12
61
7
36
21
-21
4
-4
-5
2
30
-75
-127
10
-9
1
-2
-15
3
-28
35
-2
-101
66
19
5
-5
-82
-13
92
62
29
-10
-4
26
5
-13
-85
-19
-33
50
8
-2
39
14
-2
-58
34
-8
19
-5
28
-38
6
-6
56
-47
-1
3
0
31
0
-49
17
-67
6
38
34
-21
-83
19
-3
-60
11
-31
-5
-49
-31
9
32
-47
25
6
8
-4
-34
28
9
-86
-9
-26
-5
-14
17
18
-46
-11
-3
14
-23
-39
-22
93
-33
8
40
62
-13
-59
2
-29
-73
-10
13
16
42
31
6
-11
-2
-100
16
8
-40
-79
0
71
31
-19
12
-41
10
-73
69
19
29
42
-102
-21
-19
-66
-118
-26
101
7
2
-25
-53
-8
-24
10
12
-25
-49
-19
21
92
58
-2
43
-58
40
86
-22
9
-12
24
-45
-11
-38
-37
-19
-9
-8
-2
-20
10
12
-83
-39
13
-119
-22
29
19
65
-59
-51
-49
4
33
-3
-37
-22
30
48
7
30
-8
2
0
-50
25
32
-55
9
39
-12
82
-63
-75
-53
32
69
-30
9
0
-42
-17
65
12
-76
-57
-4
-60
5
49
25
3
-94
-72
-47
31
-44
-14
-56
6
-73
-53
32
10
6
21
-51
47
-32
-15
6
-8
7
-49
-9
22
-48
-37
62
-62
-2
-69
-17
19
-1
-43
-27
-18
-37
-45
10
28
36
-60
-2
-31
-84
-24
-60
-25
60
-14
6
-58
-40
-127
-44
-16
-24
74
-12
43
-14
-32
-39
-9
-1
20
-79
1
-2
-7
-60
13
-13
-24
28
-52
85
20
41
-14
-20
11
-71
41
39
-27
-41
-7
-10
25
9
-26
52
17
-53
-57
47
8
9
-25
17
28
-19
85
31
27
67
2
16
-4
-16
-35
-3
26
-12
-11
-18
24
17
29
41
7
65
6
21
65
-31
-18
39
-26
28
36
6
3
-35
-41
11
33
38
-30
-63
-7
-8
3
1
-114
-25
-2
-68
-53
-6
-42
-50
-86
4
-18
27
-25
17
52
-39
35
72
45
-53
69
-26
-10
-13
-9
13
-10
-82
13
-40
28
-1
-8
22
-4
26
40
51
-24
84
51
-68
19
56
8
-12
76
-56
0
-18
11
23
28
-18
-80
25
-73
13
-18
-28
18
-33
36
-29
8
-17
-27
-8
-65
-74
52
-28
-52
127
-13
66
67
34
69
0
-4
-9
-113
-69
2
-21
-4
-53
0
-19
4
36
-9
-50
119
10
-31
-2
-63
-11
-28
1
27
-28
-75
54
33
-55
0
5
-15
2
-8
59
44
51
12
-66
-45
60
-94
-37
-19
-69
-70
2
-77
-9
49
-44
-13
67
32
-36
-9
-44
20
-2
37
66
-28
-21
1
87
-64
-80
-124
-15
81
-71
12
16
-104
-26
-58
72
-68
-6
-18
41
-24
-26
10
-21
-56
-113
40
25
-40
-53
-53
19
-6
-38
-39
-55
65
51
-4
66
-87
26
52
-25
16
38
-90
10
-69
3
16
27
79
62
23
15
35
-32
-69
-75
-61
-23
38
-4
11
12
-25
-109
20
89
4
52
-23
-63
42
46
-79
-29
-43
-7
21
2
19
13
25
-106
-13
-6
7
12
12
6
40
-46
75
-37
20
39
-26
44
82
6
6
-5
1
76
31
19
-4
-5
-104
-33
-10
-32
6
40
27
-2
-71
5
32
-58
-15
43
57
-38
63
-2
98
-56
31
16
35
-2
44
-43
-19
19
-10
-40
1
3
13
55
112
-1
4
55
-41
52
47
-18
6
14
3
52
-44
34
-69
-46
52
71
13
-2
-2
-73
3
11
18
34
23
-11
-2
-12
71
-44
-70
16
-27
26
26
-30
-41
-1
67
-9
-20
9
-40
-22
17
-56
15
-63
-3
-5
-28
-9
-24
58
34
-26
15
55
-50
-10
36
-21
-27
50
-41
28
5
-16
-13
51
-65
6
-74
22
36
-127
-6
-43
-23
70
-79
-11
-13
23
3
-61
-48
-55
78
-10
-22
-8
-9
0
-14
7
-35
-11
43
-26
-6
-25
-20
100
87
-80
15
42
1
-18
-5
63
79
29
42
0
-58
-37
-25
15
-10
-9
25
20
-13
50
127
22
33
-25
-42
-34
39
46
-29
-1
-121
38
-50
17
40
65
-34
84
63
-64
46
-37
-48
-14
40
85
34
24
-40
-40
80
9
0
76
17
99
76
87
-36
-14
-17
5
58
5
19
-45
-29
-52
-3
-1
-13
-33
35
-29
98
-49
27
52
6
83
57
24
-5
-20
39
27
-14
-12
81
-48
31
4
-51
-60
-21
17
81
-34
33
64
3
-10
-15
25
46
-11
65
-7
-38
117
47
-83
-57
-50
45
36
36
10
19
44
18
-29
45
4
84
30
-1
-66
48
26
51
34
-55
-38
-37
69
-12
11
59
25
99
4
-28
7
49
13
46
5
30
-68
29
-17
95
27
-53
-59
10
80
22
-18
49
19
-30
43
47
50
22
9
-39
-32
12
-39
-29
-48
61
-13
-33
87
46
4
-5
6
20
-74
28
-38
-22
-65
-18
56
8
-20
36
44
-10
-14
-84
-43
53
12
-54
-20
-17
2
-24
82
52
-70
-73
3
4
10
-41
-22
9
14
3
1
1
60
21
8
127
-14
29
31
-24
-2
-50
-3
-9
0
-26
10
14
-48
-73
-6
-23
-49
6
-7
25
11
39
-54
-30
-47
-10
-34
3
-24
12
14
-65
49
-53
2
70
4
-59
7
35
-2
9
-6
-5
-24
-10
31
49
26
2
-15
63
-14
7
19
-40
-28
-11
11
13
-21
59
38
33
-28
-10
37
-16
42
-40
14
3
27
10
35
49
40
-9
10
4
69
-19
34
-1
-26
-49
-37
-5
-34
26
42
-20
3
-4
-17
26
40
0
-33
-62
5
3
41
-13
17
11
-15
-20
9
-41
-37
-31
13
-9
-49
-31
-55
-13
-40
-1
40
0
-6
40
46
20
-14
-17
-9
-11
-14
72
34
-36
-57
60
19
-21
0
-11
37
36
26
-37
42
-28
-74
-26
25
40
-2
-34
76
20
37
11
-42
33
26
-30
-1
17
-47
58
45
44
36
-95
-103
77
-62
15
-68
-7
21
15
1
-38
99
15
-12
68
36
89
22
8
23
49
-18
82
-66
-68
-45
-127
-43
-20
-5
-35
3
-41
-14
61
4
37
-8
-1
-31
-22
-22
65
61
-61
-12
12
3
-42
-24
-40
79
-79
-44
61
-24
-23
-58
-51
46
-45
-114
-17
37
-85
-42
59
35
12
95
24
-71
-85
-66
12
-7
-34
-109
26
46
-98
-44
25
6
-64
-28
-52
5
9
55
66
-38
12
-65
3
-113
-82
-38
124
62
19
-38
7
-28
12
13
-56
-62
80
-63
-4
-42
84
-46
118
-23
24
13
-19
103
-10
6
12
27
41
-9
14
43
-61
38
17
-13
20
4
33
-13
-104
-21
53
71
-58
-46
46
-34
66
6
28
-3
13
-57
-36
51
70
43
12
-70
45
-25
48
67
37
31
-10
-91
-41
64
10
-61
-64
43
39
30
45
6
-93
-92
77
-40
-1
-11
78
16
74
110
60
-17
-33
-35
-3
-110
39
-18
-2
23
-17
60
-26
-16
17
9
-57
1
-33
-7
78
13
11
-2
-106
0
-24
99
-38
-58
-13
48
-12
90
94
69
67
17
66
-63
-41
-19
34
46
-41
8
75
-22
80
20
92
35
6
-57
13
-5
34
-16
27
2
-49
-65
-97
17
6
-1
-85
27
17
-45
82
-3
-38
-32
43
25
-26
6
55
14
36
66
54
-66
-24
41
75
-67
-46
-66
-50
4
-23
-36
-10
-8
49
24
-36
-25
-10
-47
79
26
11
-28
-42
-53
-29
20
41
-101
17
64
76
-21
-82
2
54
-6
-46
50
13
-4
-37
46
-3
-34
-47
7
34
-22
72
-64
11
10
-5
1
54
0
-47
-15
-28
-28
-36
-1
-14
10
20
42
64
-127
-61
5
34
-2
63
15
68
7
49
7
-86
4
66
-67
23
-44
-17
-18
-26
-19
-9
-26
26
-25
24
22
-14
-28
3
8
-26
27
-51
-20
-47
-15
118
126
33
89
45
12
-66
0
-56
-16
8
1
50
-24
6
-42
-34
-6
51
24
16
12
7
57
37
-19
-17
10
-60
-117
49
-31
-54
-37
-6
-11
-59
-36
-11
-30
5
-81
-24
16
-58
66
101
-56
73
10
2
50
41
-9
34
8
-20
16
9
20
-28
-17
-127
-38
-15
24
-76
62
2
74
68
-18
-31
-15
14
3
2
-11
50
-18
-73
-54
39
17
-1
14
41
64
3
-55
-11
5
92
-65
2
82
26
35
-16
-27
-80
-23
10
-24
-100
-22
-33
-2
3
30
-31
33
-3
-14
47
-23
-60
-24
1
42
-17
-59
-21
44
-11
-71
-76
11
-37
-31
45
91
39
-23
-1
-41
-55
14
30
23
-24
-31
5
38
42
-13
-9
-23
-77
-57
65
33
-10
-70
-46
40
-7
-11
12
12
17
49
10
-34
-10
13
33
15
25
-47
-29
27
-24
83
5
-77
-59
-61
-20
10
31
30
-64
-14
-28
-82
-11
41
23
-29
24
-41
-47
-28
-6
-16
-111
11
-37
10
8
0
31
-67
27
23
-1
6
4
-49
19
-27
-33
2
76
28
-21
3
59
-24
-55
-44
63
-9
49
4
-32
13
-41
-1
-65
-20
11
26
11
-73
-5
-10
6
-33
-37
-3
13
-25
-53
37
-7
53
-1
-1
-7
47
1
9
32
-25
-31
10
-41
-4
46
-4
9
-44
12
21
17
2
-14
23
27
-23
-29
-15
-11
2
-1
35
-31
12
-53
-63
-17
11
41
-98
4
-98
13
28
41
21
54
28
36
16
49
2
-11
-37
17
25
23
17
-10
-23
-24
40
-11
41
-36
-34
15
-40
-2
-14
33
2
72
17
-32
-102
37
10
-36
-23
27
31
63
-37
-50
-5
77
-45
3
-65
-15
47
-7
-57
-2
14
-42
10
-4
56
-36
-59
-38
50
54
15
-103
-7
-8
-42
30
19
-13
4
-73
7
-51
-11
-21
28
-15
-8
16
45
-3
28
72
-127
54
76
7
-43
-30
19
-15
-39
25
20
-53
-11
-1
11
-78
-17
-20
-1
18
-20
-23
118
-1
21
-42
-65
-91
-46
27
-71
-50
-44
33
-18
65
-9
20
-18
-47
-93
35
42
-33
7
-16
65
-61
23
4
-66
-46
-12
-12
70
60
-27
59
-48
32
22
28
80
-11
17
-20
8
30
-12
-1
31
-69
3
46
-100
-42
54
-45
-45
100
36
-14
1
-85
4
52
36
-12
74
-17
6
35
-59
115
40
25
96
35
-31
-33
-8
40
47
105
-42
-48
41
127
0
18
-51
104
-26
27
-26
23
23
-21
-29
-104
61
-59
-71
7
-52
11
121
22
-35
15
-12
-15
-4
17
77
-46
60
-11
-107
10
17
39
66
-50
-40
-70
-49
1
-55
4
-11
33
68
-18
-37
-1
20
52
-64
32
83
-81
14
-38
14
-33
-71
-3
-89
59
37
-34
-78
50
-68
-28
46
1
17
-15
11
72
-8
-76
76
0
-6
-9
-20
-83
37
57
19
11
45
70
-89
21
41
21
5
21
-60
-11
-70
-4
-66
-42
-62
14
-23
-10
-9
68
18
9
-23
-72
94
4
-5
-75
-70
-25
-10
34
-95
7
10
-42
66
-28
0
-17
26
-11
11
-35
-12
-14
70
37
10
57
0
4
-64
-9
-1
114
-11
-94
33
42
42
55
41
14
8
-50
98
-35
20
-17
-29
-2
-78
-30
27
69
32
-26
24
57
-17
2
6
98
-29
-8
67
10
42
-41
10
62
-25
-8
-59
8
30
-26
26
-34
-9
27
93
1
3
43
22
77
54
-13
-68
-41
57
-101
-19
56
-26
69
-18
38
3
-3
25
-47
40
-33
-38
4
-36
6
26
11
73
-20
-27
2
33
-57
-35
-49
75
-68
49
-24
-49
-69
-43
12
16
6
16
-7
-15
68
-51
52
31
-39
12
18
-1
-53
-21
-25
17
46
19
12
35
-41
-36
43
16
-24
-8
-58
19
-127
-1
2
-77
8
-2
45
28
-87
21
42
50
-58
-35
4
-8
31
83
-18
24
-26
1
48
-27
-23
65
-32
-72
18
34
0
34
-36
22
-67
-46
39
-46
-48
36
34
119
-25
-47
24
26
-24
-53
-26
-52
22
-46
40
47
-80
48
57
66
53
19
53
11
25
1
48
100
12
6
80
31
11
-10
-86
20
-40
50
21
-9
35
-8
12
19
36
101
-11
-50
73
-31
-24
15
-41
-31
83
27
-15
70
21
29
44
-9
-12
31
42
-55
30
-21
-36
-32
-17
-12
-112
3
31
35
46
-17
53
29
-6
-64
21
-28
60
60
127
-56
9
8
-58
-2
27
-15
21
-4
46
36
50
94
-101
-25
-67
31
-39
-19
49
-21
6
1
13
113
-12
49
4
-9
-8
29
-39
44
-19
21
51
-15
-2
-23
97
-23
-40
-28
27
-5
-73
-6
-8
-8
-114
-15
-16
-3
-9
16
19
19
-35
-7
46
39
0
10
76
-24
-38
10
-91
10
-2
-46
6
-9
89
-32
-37
68
-56
89
-33
-38
-17
31
8
50
-27
2
-3
54
24
20
1
48
58
56
18
-4
-22
-26
-4
-10
51
-32
-81
-37
-64
65
81
-18
31
-7
-28
-23
6
27
22
38
-16
-38
-10
-18
12
33
42
48
-5
44
-32
-13
-38
-127
69
-11
69
101
14
18
0
21
32
-33
23
37
-56
38
47
67
-48
-58
-29
-24
19
48
51
2
8
-31
44
-35
16
8
25
82
8
50
12
57
63
7
39
-3
-96
8
1
-17
72
25
-48
-39
-44
2
91
-20
-15
33
-21
-18
-47
-7
-61
76
75
-44
11
-6
45
-117
10
-75
49
108
71
73
-25
18
-28
-20
9
88
-35
-86
15
-69
-14
40
54
-50
54
4
49
-40
91
41
-5
-34
61
32
3
-8
-6
39
74
-31
-37
-56
-28
21
-15
38
11
22
-9
13
36
23
23
-67
24
67
67
18
-14
18
-57
-4
-3
-13
29
-13
-28
-19
15
-48
20
-21
14
20
17
90
3
-37
69
-93
78
12
-24
-30
-57
-5
-6
16
28
22
-1
-32
45
4
-21
-25
-37
-3
36
-19
-21
-66
-31
-32
34
-13
-43
-33
35
-48
8
55
-53
-21
30
-22
54
60
-21
35
-9
20
11
-7
-15
-26
-53
5
-19
-21
-20
-13
2
-45
-35
65
17
59
-55
-23
48
-37
-11
-29
-35
84
3
31
-45
37
12
-8
-7
-47
30
-63
3
-19
-70
30
41
-43
-37
38
-9
17
26
11
-14
32
-32
8
30
5
36
-18
4
79
-48
8
42
-13
-125
0
-23
11
-31
-21
-22
-10
26
-7
-11
-45
31
-36
45
-41
20
25
26
27
16
16
75
-17
-53
-88
-15
39
27
35
-12
71
27
-18
-25
38
-81
-2
-2
19
9
-23
48
25
-15
-10
28
-41
74
-48
38
16
52
-13
-67
-34
13
-4
-20
43
-26
48
-17
-63
30
66
8
28
-48
80
50
68
61
33
-50
37
17
31
-44
21
0
57
37
25
35
-22
80
-52
6
-1
-40
-26
-48
34
-36
-104
-39
-8
-38
-17
-28
38
33
-68
9
127
56
-4
47
-54
59
21
-9
-25
-38
14
6
-29
-40
-59
-11
4
104
-44
17
-39
11
-24
6
17
12
-38
39
2
-31
9
9
-29
-28
-14
-51
-52
30
-65
-18
0
51
7
-20
-2
55
-7
32
7
44
75
1
35
5
-17
-19
14
-38
-23
-26
8
49
-4
-31
-31
-6
27
31
9
-7
-25
-29
53
44
-46
10
38
44
-38
-1
61
41
24
-14
38
52
65
-61
47
-4
-10
22
76
-9
-15
-10
-22
-43
1
-19
-42
43
-37
45
38
38
-12
-56
-30
-63
-19
25
10
1
-81
13
-13
50
-22
30
-20
-49
5
13
-3
7
-8
-47
6
-74
64
-1
4
5
19
-38
23
-33
8
9
31
65
31
-23
-10
-2
25
-5
11
40
-12
29
48
-30
45
5
-33
61
40
-9
-26
-28
-22
-100
-26
12
-21
-32
-8
-5
27
-1
31
65
-1
-52
-127
42
-46
44
-47
32
9
-53
46
-27
14
39
6
-4
3
48
11
-30
24
-58
17
-14
-98
-49
-23
46
-26
127
-19
-45
48
-9
-32
-5
80
-71
-1
-39
-80
41
6
91
-114
-18
117
18
-28
-39
65
48
-18
51
-51
-103
-49
127
-75
-69
32
41
-12
-12
41
-42
-43
-5
-3
-68
-66
-1
-52
-58
-11
-61
37
-43
21
8
8
4
-36
-10
83
31
31
39
54
-80
2
-18
-70
0
8
-79
-71
-47
-83
-66
-100
47
72
-45
26
47
64
-11
7
50
45
22
-82
-78
10
-104
-11
-28
42
34
-45
22
-49
-14
115
-29
7
-98
63
-44
9
-12
10
-28
-49
-63
3
-50
11
76
-53
-13
-6
-32
-81
-16
-22
-37
1
89
52
-36
64
-11
-22
-63
6
7
42
-59
-39
11
86
3
-39
-48
-15
19
59
38
-30
-19
-43
43
68
-46
-43
11
-113
11
-70
-32
-18
-45
-23
9
-97
55
-22
1
-73
-42
32
41
-57
38
47
87
-50
-55
33
72
6
77
-46
-104
-24
85
41
79
-42
99
-41
-87
38
24
-76
-7
-2
-39
-48
13
-17
-92
11
-17
19
-1
17
-11
46
15
5
54
-60
-28
-21
26
52
11
-75
48
5
-18
83
43
69
-33
-19
39
15
-36
3
-27
46
-81
13
64
65
23
37
18
72
-20
-46
-69
-10
-52
33
36
56
-16
88
-15
-59
-19
-39
-83
2
-4
7
18
7
13
12
115
42
-28
39
-21
-12
-26
61
51
61
-68
84
-8
25
72
12
62
1
-2
-52
-12
-15
10
40
0
51
-14
0
3
-14
21
70
-40
-40
-16
73
-68
-64
-17
-15
25
32
7
2
7
-29
127
-7
71
41
-14
-54
-17
40
10
34
63
27
-7
76
22
-36
-4
68
49
18
-51
32
-42
8
15
-10
-23
-22
-9
63
-11
-23
-44
-81
-44
33
-50
37
1
-69
-5
19
-24
-38
38
-25
21
-13
-1
-48
-2
-83
25
42
-51
6
40
51
62
-59
-6
66
21
-32
23
-14
-1
14
-11
4
16
31
4
-47
21
35
41
4
-22
-51
5
79
-88
115
68
-76
-3
26
34
-50
16
14
-34
13
-24
-64
-3
105
-32
-15
42
-17
-5
-36
-70
-3
57
13
63
25
-63
62
36
37
25
37
-30
-23
22
71
78
-25
-67
-12
42
32
20
-43
84
-23
58
-1
-43
65
71
-17
87
-45
-11
35
55
-67
65
68
3
17
31
14
-1
14
29
20
41
69
-55
-86
-9
-29
-18
14
-10
5
29
17
42
58
127
26
46
-41
-42
23
-24
-64
22
92
-35
-17
46
44
41
92
-1
23
63
33
11
-33
-17
109
55
66
-21
-23
-13
-70
53
72
-47
41
-76
-1
-70
-47
24
32
82
-32
19
48
54
6
-47
29
90
27
-2
-52
-99
-30
73
17
-25
-30
-25
17
-99
13
8
11
-84
33
-6
8
-29
-32
1
-26
-68
52
-24
42
-26
32
-97
-10
-51
34
-27
48
53
58
-22
-37
62
-23
-21
23
8
-19
-16
-8
-29
7
31
51
32
-47
32
-40
-14
68
23
43
-25
-127
52
55
-41
-29
-14
58
-21
-14
-7
0
-46
7
62
-17
9
50
-23
17
-10
9
47
-30
-37
4
-6
33
6
-78
-15
-22
93
-47
-25
-16
-41
7
-59
75
9
-28
-45
-55
24
-14
11
15
0
8
28
-12
-24
3
-69
27
30
46
-23
63
74
34
-81
-40
-54
26
-56
23
31
31
-13
-51
-4
29
-26
15
38
29
1
13
-9
-50
10
-35
-53
31
-42
28
1
1
-26
-39
26
85
61
-5
11
7
5
40
-29
10
-31
-23
-62
-27
-10
-1
15
-64
61
17
-6
-34
48
-127
-1
-66
84
41
38
-9
27
38
-41
-41
57
-44
3
67
-53
-38
18
24
5
-12
-13
25
15
-16
-11
15
47
-56
-42
15
-14
40
7
34
-31
-16
14
37
7
-43
16
3
-14
37
0
3
39
20
-19
-8
27
25
50
-38
-22
-38
-1
28
17
-1
-62
17
-26
-26
-5
-6
22
-2
-31
-11
-52
-61
-12
16
-18
-31
70
-48
-93
-4
27
27
-8
-37
-12
-37
-27
30
-29
55
-29
-39
-14
55
0
34
-66
-44
-35
68
-13
57
-32
-7
19
-17
-25
6
-80
-38
-34
21
27
-30
-12
5
17
27
-94
-65
-41
9
-21
-1
33
-19
-21
-8
-12
18
-18
8
-26
32
-11
-34
127
-30
41
13
4
23
-7
-11
-17
-17
-14
8
-40
0
-14
14
12
11
2
33
40
-35
16
-67
-21
-11
-45
13
42
-16
0
-10
77
-2
-11
27
84
80
-25
10
-36
-90
14
18
-18
12
-20
57
-44
-20
58
-21
21
11
-8
22
-32
18
-31
1
-7
-5
8
13
14
4
15
4
18
-13
-52
-10
-41
-17
-11
5
17
-15
-58
-26
42
-23
13
-28
14
7
27
-2
2
-60
-26
35
-55
17
17
-38
6
-2
88
-28
-3
-25
-4
60
-33
30
7
-9
46
22
-36
-32
17
-13
51
-74
-2
47
56
-74
6
26
73
11
-3
16
100
63
35
-20
-8
13
-97
69
22
-24
-1
-56
75
-42
-49
-42
-32
46
-32
29
-6
109
100
41
4
42
46
-7
-13
12
37
35
49
28
36
15
17
-94
63
122
35
23
-7
78
5
127
-101
-17
-47
72
-60
-74
31
46
-5
50
-67
-25
50
-11
56
-29
63
-2
89
-83
-24
78
-8
-95
-14
-12
-35
40
-8
-59
10
-6
20
-67
-22
-12
118
3
18
-48
22
46
8
50
-2
-40
46
-15
-16
34
24
-40
60
-2
-30
-59
47
103
13
-57
38
12
60
10
-43
10
74
14
21
82
10
68
-3
-9
32
38
2
-4
-9
19
80
10
114
20
28
-6
-61
72
-12
84
39
36
3
30
24
48
-5
-86
-14
75
-86
-59
-1
53
-8
-51
-65
35
94
58
14
33
-20
49
-20
-70
-104
43
-13
18
-2
25
54
87
0
47
5
61
22
79
20
47
15
36
-26
8
23
-2
-46
13
30
80
98
-20
-56
-12
7
-53
9
-43
-38
-41
26
-33
7
-32
-13
24
-9
-9
4
-27
-21
-46
55
12
-50
9
21
17
48
-15
53
10
16
18
-2
38
53
0
-62
73
49
-1
45
-25
-4
37
30
-22
94
64
-8
29
1
37
38
1
30
122
-59
46
-50
-8
39
-8
4
16
10
33
37
-67
-45
-26
17
-87
62
25
-17
14
-19
-35
3
26
-9
12
71
6
-41
46
-10
7
-21
6
-21
-26
24
5
-6
-16
-50
-1
45
-57
25
0
41
-41
29
35
16
-5
39
47
41
4
40
-23
35
-33
28
-8
25
127
-50
13
-20
39
-117
94
13
-26
13
2
42
60
-47
-67
-37
49
-17
-16
-52
54
-27
-39
-29
10
16
-46
26
-20
-64
-3
-38
-28
-34
-1
-25
111
20
-7
8
-9
-12
23
-18
-31
0
54
-40
-31
24
49
-23
23
-32
-74
-39
45
-5
-16
-37
2
-6
-20
-17
20
1
-4
-11
56
2
39
-1
-56
-14
58
-7
-41
46
-39
-3
53
53
-17
-21
-86
-99
-46
17
28
45
25
-55
-13
-12
-102
-4
18
-27
38
-69
-31
-30
47
117
37
15
-102
15
-20
10
-114
-10
-47
18
-17
20
-15
70
3
20
12
33
-49
56
-53
-47
30
0
3
-12
33
-33
69
-11
-48
-3
35
-76
73
44
57
29
-1
-4
58
24
-63
20
-20
22
10
2
-46
9
63
34
-39
73
-7
-14
-8
105
22
39
-63
67
1
-124
35
0
3
-26
-56
75
-24
41
1
-42
-21
-74
34
-75
56
-12
-70
-9
-50
21
-20
-16
-17
32
-109
-24
-18
-3
27
-88
-57
-27
57
-93
-17
-55
10
-59
-34
-26
23
11
62
-83
-39
53
20
4
-13
7
5
13
-55
0
-30
14
-43
23
6
-42
-45
-17
48
55
-30
-127
2
94
-38
-52
-2
107
-31
22
6
-35
68
-16
-60
29
-76
-38
-75
21
47
80
-76
51
52
33
-6
27
-13
-73
-46
53
23
-67
-53
-50
-8
13
-1
35
-32
-48
83
101
-72
-23
-18
-26
-42
11
-11
8
-66
50
-55
-40
29
-107
19
47
44
-1
8
59
-11
-70
-37
-49
47
41
50
-16
-80
90
8
-34
-23
-24
-28
-22
-48
-7
-10
33
23
-50
-18
1
-76
-34
-16
-15
23
29
20
31
82
-3
82
12
127
-6
6
-9
-5
-69
21
-70
-48
52
111
65
-11
37
82
-47
39
14
33
25
29
-33
39
20
19
44
12
0
29
-43
-8
-20
-58
27
46
53
37
-24
-28
-5
14
-51
-3
55
13
-78
-27
-62
1
71
48
-9
24
0
1
-34
-14
5
-89
-65
65
49
9
58
56
20
17
-37
30
19
-67
-62
-61
-49
0
-23
-54
-87
24
30
-26
13
26
-10
33
59
46
11
-32
10
38
-21
-15
0
45
74
13
-12
-8
71
-23
-32
12
61
-41
-18
55
43
0
30
65
87
-31
2
-14
-26
39
75
-13
-4
-15
-11
48
53
14
6
-53
57
85
-49
-41
62
109
78
2
29
-91
37
10
26
27
-96
-60
46
6
4
-55
17
17
17
34
28
38
6
-51
-104
-7
-32
-24
-91
66
12
74
34
-64
88
16
-8
25
-8
2
11
-17
69
20
-13
-42
20
16
15
4
-7
54
-57
-61
13
-1
-4
30
-60
-22
-53
13
-3
-1
39
4
32
56
-1
6
15
-19
2
-5
7
-21
-45
-40
51
17
41
-31
28
-15
22
-22
61
22
48
-61
25
8
-25
-73
-14
3
119
71
18
39
29
39
-9
-11
-23
-61
-16
-12
-2
32
72
30
-17
58
47
4
5
49
-5
6
54
73
37
72
81
-42
-15
72
6
79
23
-82
44
17
-127
-49
-70
-20
-31
-7
-62
25
108
8
26
-17
30
-17
-54
51
-2
-38
16
-39
-37
53
55
117
5
-45
38
-23
-51
75
22
25
32
-5
-25
11
11
20
-26
-62
36
-30
36
61
56
9
73
54
52
23
-37
-5
-42
56
2
-27
-35
17
-50
24
76
28
27
38
-7
-56
52
-22
27
-45
-23
-11
10
33
52
56
60
6
-42
-55
67
-38
-19
0
-22
44
-9
-50
-4
8
-9
9
104
11
-70
-47
-48
-11
67
-47
10
81
-1
-48
6
43
-74
-33
34
52
-29
-20
45
-33
11
18
40
-20
-98
0
9
-32
19
-26
-28
-19
36
-15
-90
-37
-102
6
17
-51
-14
58
103
32
-61
22
20
61
37
80
46
-56
30
-77
-38
-18
-41
-54
44
26
-63
62
-43
33
-31
16
-7
90
44
28
21
-68
3
24
-26
25
36
34
43
-45
-44
35
-34
45
-26
-43
-47
-28
-57
52
-14
-55
-48
6
-32
44
-71
26
-63
-3
34
33
-21
-22
-70
65
74
-67
-50
-15
25
-21
56
6
20
-20
63
9
-8
-64
-50
-11
-9
-6
8
-39
29
64
-17
19
-53
-34
-5
43
5
-19
-23
44
127
25
89
20
-16
-5
56
-38
9
-11
-5
60
-1
13
-46
-26
59
3
2
22
56
-29
-57
23
-1
-29
56
-19
90
20
-42
20
-83
65
76
-1
25
-11
-101
-40
17
-5
-85
14
-23
81
-62
-93
15
40
38
40
-61
-100
68
-61
7
-50
-2
-14
43
38
27
-29
9
31
-22
-20
50
13
-12
-55
-58
4
-18
-3
79
28
11
-71
-3
46
-28
1
-16
11
-40
-12
-28
-35
-33
44
-78
-103
-17
0
43
-48
-13
-28
41
2
30
-21
55
-11
-10
53
-2
-28
-127
-3
6
6
-20
78
28
-6
13
5
-22
29
-39
65
68
-81
9
24
-7
-68
14
46
79
-82
0
79
50
47
2
-3
-40
7
20
-1
-20
-26
31
-27
36
-9
17
-21
61
25
-14
47
-58
26
-126
-9
-2
23
28
-33
-37
-12
63
-24
9
-7
-31
-33
-2
42
-73
-45
18
5
-4
31
53
31
-26
29
-6
-42
-19
-8
-83
-26
-16
41
-11
-58
-2
-28
9
70
64
-41
-36
-34
-86
-42
15
-26
-31
-97
-86
39
-12
77
2
-30
22
73
95
-8
-31
-13
66
-15
30
-2
-59
7
39
56
-9
-14
49
91
39
-25
49
1
54
-8
39
42
10
-21
-17
-22
-38
40
3
-22
-127
37
21
-39
-65
-27
-7
-1
39
68
-57
17
-38
-24
-16
-52
-28
-19
31
-2
44
-51
46
32
34
-19
59
60
-95
88
-37
63
13
-49
-107
-47
43
-11
-15
1
73
-73
0
-96
-84
32
-30
37
-38
10
-13
3
5
-37
44
9
-16
-35
27
5
21
47
6
-119
52
67
92
-24
-56
-14
-59
-7
18
-41
29
-60
28
-91
2
-20
57
-8
-27
29
17
-3
26
14
107
-108
-19
4
-48
25
-65
3
-74
9
46
-3
52
23
9
21
-58
13
-42
-26
69
45
25
-25
32
33
71
11
36
-126
-49
67
13
28
65
-14
-14
-46
-7
48
8
47
9
-46
-34
43
-16
15
-13
36
49
27
15
36
-10
-5
14
-64
5
60
55
8
-19
-37
20
34
-15
-56
27
22
-61
-8
-27
-20
70
21
74
-38
-32
19
-37
47
2
-8
3
13
-102
26
-100
-23
5
39
9
78
-2
-25
-50
-83
48
-12
-84
-12
0
65
38
24
91
64
-16
-8
-51
24
-21
17
31
20
14
-28
45
-69
24
6
-58
11
42
-1
66
-87
-45
11
-16
-44
24
-47
29
12
-8
50
2
-4
-123
-55
30
-63
-22
20
-19
-18
59
12
25
-75
40
53
-21
41
-12
-6
14
-19
0
12
10
-82
30
51
-35
8
3
-51
-2
-43
-7
13
50
22
-58
34
-42
6
25
-19
12
-8
-68
-16
4
-1
58
-6
66
-31
-62
27
127
-61
-31
-4
-42
-19
-3
37
39
5
31
3
-2
-94
-22
-8
1
15
-18
-21
55
-1
22
3
-7
38
-88
54
10
-7
7
70
37
7
-23
28
25
8
-13
-37
33
0
37
16
38
14
-52
-2
-30
-93
77
92
118
47
109
-28
30
24
-21
-15
40
38
47
24
-22
22
-45
19
31
41
39
-43
36
-4
106
22
-58
-34
-48
10
-54
37
37
16
23
26
84
-59
-47
7
-19
43
37
27
73
24
-58
-77
54
-75
-27
-21
1
-35
108
15
0
-49
61
-22
11
-69
59
-18
25
-78
41
-11
69
-11
-42
42
77
10
-88
14
-19
-19
-28
-37
-9
-3
4
16
17
67
48
-37
-3
-76
18
-46
-61
-18
-36
-49
-34
-23
-9
48
89
53
105
16
32
-10
-81
-24
-35
58
65
37
34
2
43
-18
90
116
23
43
-8
-1
32
34
53
61
26
27
63
26
13
71
55
35
17
12
101
-6
-35
61
-22
27
89
-40
14
38
5
-23
62
24
7
-39
-14
1
26
-67
-24
29
42
-31
12
20
21
58
4
3
4
67
127
22
35
-17
34
27
-85
-13
58
104
-25
-9
28
6
50
-4
74
42
31
-4
40
-7
-72
51
35
-23
-1
75
43
0
-16
-51
-71
21
-26
-66
-70
-65
9
34
-32
60
99
-35
62
-1
-4
-51
29
-29
-51
31
20
-3
-34
42
-6
-27
-16
40
-11
19
-14
-32
-21
-30
-32
55
82
39
45
-44
-13
-36
-36
-36
-14
-6
-88
0
-127
-46
-17
40
-25
44
41
8
-11
-44
29
-59
6
11
74
-45
-10
3
30
57
46
-6
34
-5
-11
22
-51
19
51
1
-22
-6
22
43
16
-17
-54
7
-22
-8
-61
55
-5
41
19
-31
82
-52
33
-60
-5
-16
38
56
86
-23
21
9
32
3
-54
-59
4
-54
32
-56
-44
72
68
51
-10
-37
-14
-67
20
48
91
-74
-58
90
24
-7
12
-64
47
-44
-79
12
10
18
-76
-47
29
-11
-65
12
9
-35
-19
-6
44
55
18
-13
38
83
-2
-27
17
40
63
-21
-33
-27
5
27
-65
-4
78
-41
70
-47
12
-31
54
33
-19
1
-75
42
-28
10
-10
3
-13
41
-31
-19
-75
-37
-7
32
40
-11
-62
-3
-11
36
22
27
8
-16
-35
2
-13
33
23
24
-55
-30
-37
12
-54
-10
69
24
-64
-91
51
38
-4
-46
-31
-11
-3
19
-26
-13
21
-13
-31
17
75
-1
-47
-47
-17
28
87
-10
-29
1
-2
-1
77
52
82
20
4
44
-61
-76
-32
42
-50
-22
62
63
-37
-1
12
-10
78
-50
-2
25
-6
27
34
2
-37
6
23
-10
-74
-52
-11
20
-83
55
46
68
-50
-17
-78
-28
19
-12
-26
-7
-66
9
20
50
-45
22
-26
24
-39
-20
6
-47
-19
-58
-71
10
25
56
46
-18
-43
-40
-44
-3
6
30
-45
44
5
40
-8
-53
25
6
7
-17
-24
-4
-15
34
-15
-38
33
33
-2
-1
37
54
7
-62
-24
-8
-14
-12
15
10
-9
17
-43
73
4
-53
-101
17
62
11
-1
-57
46
-76
-8
-39
43
-53
9
-52
17
46
-9
16
7
11
-58
-39
6
-17
-18
-127
24
3
40
-19
-5
19
