62
-15
43
10
-55
-20
-73
-5
-39
-57
-40
-125
-127
-66
127
-83
37
44
22
56
50
18
-89
14
86
-91
-10
-127
-69
-45
34
-51
127
24
-127
-113
96
-59
51
4
29
-64
11
-127
-25
127
-123
-56
-37
48
23
88
51
27
-28
-13
-82
68
-19
-108
-123
58
36
-7
-30
22
26
-8
49
18
-35
48
-13
-124
127
-33
-16
28
-2
-58
-17
-22
-65
-46
-89
-30
-13
80
-9
-47
-127
-59
-9
81
-11
-42
-123
45
127
-22
127
-67
-127
36
-110
127
-52
-56
-68
81
-22
124
-110
28
57
-62
-16
4
73
-38
116
-108
58
-12
-120
12
66
-103
-34
-18
-106
-16
-107
-74
-72
62
0
-74
-18
-28
-13
-60
-13
-34
42
-68
-9
-59
-63
36
-33
-39
-9
-11
127
-67
-95
-127
-46
-127
127
-111
20
-6
35
111
20
-1
-71
-75
-26
-98
115
-23
-42
30
59
36
-50
-88
114
-24
127
-95
61
-4
-25
11
-50
2
-88
-5
-3
-13
-93
-40
-60
127
-90
-9
80
57
51
-40
108
-59
-111
21
25
-107
7
127
127
41
39
-127
-76
83
19
-104
68
8
73
-13
35
47
25
39
-9
99
26
5
127
-51
-20
-6
1
2
127
-43
-127
127
50
-127
-46
1
-38
127
-107
89
52
127
-3
33
-78
79
-124
-127
9
-63
-75
-54
15
-59
127
-127
-75
34
-114
71
127
-23
-72
-52
104
-14
-99
127
57
-35
51
-95
-58
66
127
-64
-1
61
14
-71
-17
-93
77
1
73
-37
28
61
-33
-58
-31
-26
-71
-12
116
-79
-95
-53
-33
127
76
-50
-51
-78
-31
-95
127
-100
-82
86
-101
67
45
-127
127
-44
65
-127
-54
-50
-79
4
21
-28
27
30
-4
-42
-45
43
31
-9
30
-28
127
75
-26
34
12
13
-43
-82
-91
-65
-121
-17
-41
28
-16
47
-27
69
-79
-6
-2
2
-24
70
-41
127
77
-32
5
-6
20
-58
-107
-38
-71
-91
72
-30
81
58
-63
-46
-35
69
-9
-58
38
-4
-67
78
7
56
43
89
-68
-91
-34
-90
-127
-45
-39
-97
-127
1
42
-13
-81
30
84
127
17
127
-20
-5
24
-22
-80
-4
-7
-78
-94
-127
-71
1
119
-13
-9
127
