20750
12665
-11983
-5179
16786
16208
4119
-873
-7855
13300
4756
7394
-3479
20978
10232
3159
6748
7361
13937
17818
7887
8113
6274
-493
6838
3258
-916
3770
-478
7889
601
-3148
6096
12865
2897
2076
1397
8240
700
-814
14461
506
14506
8483
23261
-2738
-5895
3462
-1717
7820
3256
8633
10996
1751
-2981
-2221
12196
6575
-1052
4529
6734
32767
4928
5689
2946
11715
7856
-8624
8095
626
-32768
-11619
2751
-8222
27982
3771
12242
315
1471
-1308
7003
3674
3934
8881
6797
16915
12352
14593
-241
-8792
6015
18864
8274
5877
13009
272
10675
10200
-32768
5319
2746
12509
6448
407
2341
2473
14430
-1333
2388
-32768
6886
8227
-12422
-10734
615
-1139
6503
4275
-7959
1820
3221
-20018
6688
18171
9275
-10567
1688
15093
809
-12431
7513
23783
6379
4166
5043
496
-9893
6491
449
3693
-1191
9061
7965
-24094
8047
4892
24613
12857
32767
3385
6593
14885
10895
8189
6734
9284
6662
28727
11485
-872
3040
4942
7886
13223
19596
3382
-17722
6424
2594
8282
-2914
-1962
5105
-2682
5093
18957
14842
11099
15141
-54
1842
-1
-2613
4797
15560
10315
28298
6693
10922
-1895
4917
24709
