-73
-19
-30
-120
41
15
27
-21
-41
-61
-109
90
-22
39
-121
-127
-80
-26
60
15
-106
-4
-16
-24
17
-30
-48
-88
-9
-36
12
-12
4
17
-108
-12
-64
70
-47
-36
-31
-75
26
71
-7
48
-17
-70
-12
4
127
83
51
18
-24
-58
120
76
-8
32
-1
47
65
-12
-63
17
-57
21
-55
-15
-32
-111
13
9
-18
39
38
-110
-7
22
32
60
127
12
127
-37
-52
-17
-8
62
28
-19
55
-16
49
-67
57
-36
36
12
-80
-86
58
19
4
105
-23
35
89
-53
16
127
-92
72
-20
56
63
58
-127
-80
52
125
127
40
-3
116
5
-120
-34
0
-51
31
-24
37
85
-7
127
3
21
-67
5
61
77
-113
25
-71
20
-10
30
-49
69
-28
60
17
-10
60
48
-33
28
-21
-12
-74
-56
-30
80
127
-127
18
127
61
27
-42
59
-80
82
0
-41
-22
13
25
-20
-22
127
-55
-13
-74
-65
-4
63
-4
72
5
-7
-33
-41
-70
72
-12
-31
-71
-125
-98
-109
-82
-71
100
-15
-42
-38
-21
-127
12
50
73
-20
61
55
-16
-78
-127
33
81
-23
12
-36
-122
-10
43
-46
-92
15
-77
-77
55
6
69
-56
-59
-77
-54
68
-105
70
102
102
54
42
42
101
81
-78
22
-127
-25
4
-92
50
44
-112
-7
-49
-32
42
-23
-31
-54
-52
103
63
-116
-22
-70
-2
100
58
48
82
24
-62
-51
51
-29
33
31
67
105
6
-45
108
-10
-4
47
-49
-127
13
-16
-83
24
70
7
28
47
127
114
54
33
-41
-44
127
-104
-73
61
127
117
84
55
-127
-9
22
-21
7
9
-47
-47
52
-77
18
-11
119
-3
50
-69
121
-30
-35
-19
-2
-117
2
45
35
-103
78
82
12
15
38
88
83
33
127
127
-85
-58
-95
5
67
108
-70
64
80
69
-14
-38
85
10
96
61
-39
-55
14
-20
86
30
-50
11
-7
39
8
81
-27
21
91
2
-16
-5
-7
127
13
34
-56
-109
-127
-64
-20
-127
-127
63
99
44
42
-13
36
-24
59
-54
-57
50
80
-127
-54
-78
79
-18
-50
-127
38
9
76
127
1
-20
12
-63
4
8
-20
-66
-53
-58
39
-13
127
-127
37
-43
30
14
35
25
-127
-61
-81
-18
-103
-127
-78
-46
31
13
-65
127
-26
-12
102
-89
-17
20
27
-79
10
-119
-97
-117
21
-58
33
127
36
73
6
-1
-65
40
103
-29
50
70
49
0
15
11
35
-13
65
-37
-91
-51
0
-47
78
60
-8
-39
-92
124
-2
8
-39
-97
7
-50
-60
68
71
121
7
77
-9
-125
17
-1
61
-67
-22
70
22
12
-79
23
58
4
-3
-39
93
-43
-61
78
-34
-88
-67
-16
-14
-23
-30
63
-42
59
56
43
28
-28
-45
42
37
21
13
79
58
-8
22
51
77
-72
-113
5
-11
-40
-37
-41
-39
-42
-127
-15
-47
99
-57
19
14
-70
7
-7
-51
55
30
26
-107
70
69
-121
-95
27
66
24
-67
127
-92
118
61
-39
12
-40
4
126
90
52
-127
-62
-60
-127
-83
-84
14
-45
-71
-106
41
5
92
71
-127
12
-69
79
-127
-110
-116
127
53
-13
-109
66
127
-77
-15
110
-47
-121
-122
60
-86
-86
104
40
27
99
56
20
51
-127
-93
58
-92
-46
-29
-127
34
-27
107
90
28
38
64
40
16
127
47
105
68
2
63
-81
-127
-45
-75
39
90
-38
-1
9
22
-46
97
-52
53
-12
-127
-26
127
13
63
97
35
-61
8
96
-93
-75
-127
-23
-36
18
-34
101
-102
-100
-100
-114
-68
-50
-61
36
68
-127
-31
1
68
-18
21
-69
-70
-37
-114
-14
21
127
-127
-64
98
-127
-26
-73
-3
62
0
-127
127
54
97
14
19
51
89
-124
-93
67
57
74
-127
38
55
95
-104
-109
42
19
60
-81
-49
-66
115
-10
-113
-27
70
-52
71
58
119
8
127
-39
3
-127
6
-105
64
-1
-65
127
91
-60
63
-33
108
12
-97
112
127
77
-107
-37
127
28
-85
127
-112
127
61
113
-109
-37
-121
102
-69
-89
-127
98
92
34
38
-70
74
56
-116
-127
-35
-127
-28
46
24
113
-127
-30
18
-127
19
29
-12
121
-127
127
-118
32
67
51
127
29
61
118
8
-48
82
127
-127
35
-127
-17
71
127
29
45
-127
62
77
-18
38
5
89
127
53
81
83
-38
41
-127
-3
-82
82
-27
81
73
-73
-64
20
-93
77
-85
43
-75
14
-56
73
-93
-46
-68
-95
53
88
-123
48
72
-127
127
70
58
-97
34
-73
28
-62
26
-85
88
72
-112
-127
-55
127
-127
113
72
103
-127
-123
-127
9
125
-90
-70
13
51
-108
-127
-83
127
78
-105
40
127
8
14
103
127
127
125
48
31
85
127
-27
102
-11
113
-54
-127
17
59
127
-124
103
-126
22
40
-127
-127
98
-127
49
90
-104
127
55
8
31
26
-127
-127
127
42
14
94
-2
91
124
-100
78
-127
-43
116
55
-71
-52
-17
73
108
-127
39
-68
30
66
69
-113
-71
-93
92
-83
-81
43
101
96
101
-127
-127
96
84
-99
-53
109
-36
127
-28
-112
126
-54
-127
123
-91
-20
-50
66
116
-120
90
-122
86
5
-127
87
-127
-13
-39
-127
38
127
78
-55
81
-53
-12
127
29
-88
127
0
-127
-71
42
52
-19
99
-114
14
88
54
127
98
-72
25
27
50
-110
59
63
36
-127
-80
-31
44
-127
97
-75
-119
-127
35
-127
110
32
-106
32
75
-46
-11
127
-64
108
28
-110
-87
66
-51
78
-57
111
102
-127
26
-68
-21
-52
75
41
-36
-15
74
-66
-90
-43
-110
56
-58
35
-127
80
-127
-123
-127
69
-127
71
13
64
-110
127
127
59
34
-19
54
-63
-37
72
68
127
-104
40
-34
-126
41
-127
-126
-36
94
-127
-127
-88
-38
-56
-38
-21
-127
113
-86
68
23
-127
29
102
-19
-8
55
41
23
-41
79
-68
-82
70
-127
69
51
-69
62
-1
20
-114
37
53
36
-52
67
29
-85
-127
-18
16
127
-4
81
-10
86
-101
-127
-63
-89
72
-55
54
-15
88
-23
3
-60
12
11
-117
-95
33
31
16
-44
48
-55
-127
37
38
82
-59
-94
-6
-93
44
70
-31
50
-82
-3
18
-57
-38
9
-62
28
-29
127
-3
54
9
31
-86
15
85
22
-7
-42
-30
8
-44
6
-44
-127
-29
127
-1
-99
76
12
51
-40
98
30
4
-28
-79
103
4
127
5
127
-63
-88
53
-46
-70
-29
-31
-1
-65
14
-127
-29
-127
32
-61
-52
-119
-37
-122
-32
4
28
-14
-38
-14
41
127
-127
-50
6
-45
7
-77
-8
-25
-3
30
-68
34
25
16
8
-102
0
19
64
0
39
45
12
-127
-57
87
93
18
17
10
-49
60
-35
61
-36
14
-89
-84
50
-72
59
24
73
-77
-46
-22
7
59
82
2
17
-25
-127
-38
0
-89
11
-47
127
-65
127
-12
-6
127
-110
15
107
-124
96
105
60
-111
10
60
51
-116
61
26
55
-42
-127
22
91
39
127
7
-30
-127
-70
62
83
96
44
32
-127
-92
-119
2
54
112
15
51
-12
31
118
-27
-61
109
-46
-97
51
69
124
-127
6
-20
-91
-57
96
3
22
5
122
39
1
-49
-8
10
80
41
41
92
-25
-5
-90
-127
57
-72
127
-72
54
22
-32
-91
102
-86
50
-127
-21
127
-127
127
-127
10
-116
127
127
-110
70
-32
89
-68
20
-106
-11
-127
-127
127
-15
-32
-32
4
-74
-96
-20
62
-112
-20
-6
-127
-30
-127
21
28
127
-84
-3
-127
-65
-106
-7
5
-58
-108
51
-121
-102
-119
-93
127
70
53
-119
-16
-39
1
4
10
-67
48
2
-28
109
78
31
81
-67
23
127
-14
80
125
-127
27
-89
99
-25
26
119
-127
127
-127
-117
44
-44
-86
60
-22
-57
127
-60
65
9
-41
-114
-108
-110
-89
76
-127
86
-90
49
57
127
-17
-20
-15
27
-117
91
-11
96
-127
-97
13
15
-69
-87
48
56
15
-109
-53
-22
61
57
31
-64
44
-39
-16
85
-10
-1
21
-50
-81
48
39
71
88
-127
127
55
-49
106
-69
-65
53
-47
99
62
40
127
41
85
-61
-35
-69
39
48
-27
90
123
5
66
1
-6
-79
44
37
-60
22
22
-66
-127
84
127
-56
92
-114
66
2
-18
67
14
-85
52
23
-36
-23
-90
25
-90
-15
-127
76
8
-125
4
-83
-36
-62
107
-45
21
-65
-77
94
78
-38
-41
30
-25
-38
27
81
2
83
-65
-79
-41
-99
123
-58
35
-1
-17
-43
-76
-6
-127
-93
90
-89
-9
32
-127
-17
-10
58
-39
-15
-4
-26
-69
21
-26
115
-36
-26
-127
33
-21
-7
93
14
-33
-88
-80
-88
120
20
-87
55
16
69
-68
-75
-16
-14
51
-11
-85
-127
105
-126
92
44
-97
69
-72
102
-25
-77
-47
10
26
-55
3
-75
