25
38
2
-14
-29
127
-98
-59
54
-31
-33
-51
56
-121
126
-79
36
98
-113
-15
-67
30
75
41
55
-49
41
56
56
35
105
-4
74
73
-65
-34
53
-19
-7
-48
40
-7
-21
124
-1
-26
10
-6
-64
-91
-61
-26
0
-18
52
-104
-25
-87
11
50
18
15
-87
48
20
1
-6
54
64
-36
25
39
-57
45
-45
5
52
53
-52
53
14
24
-15
23
-26
-81
14
57
-28
-7
44
-30
28
-11
-11
43
-54
-63
45
57
31
-29
-23
-79
5
44
112
14
-30
-70
55
3
21
-36
32
24
-12
-2
45
33
113
79
-11
-25
-9
20
-28
10
-1
-47
-28
91
-26
127
23
-45
-39
-16
59
-120
3
-83
-26
-83
16
39
14
1
-54
-11
-34
-40
-82
-36
127
-2
51
-9
-55
-12
62
-90
-40
36
-45
-29
-19
-30
45
84
62
13
28
62
-14
62
10
-57
-85
-17
51
105
42
-34
-38
41
-1
53
89
50
-20
-65
-29
-31
42
-85
-7
-69
-32
-47
-24
-57
20
-11
110
-44
89
77
38
8
-11
13
1
22
23
32
-50
-34
34
27
-49
30
40
28
26
32
-25
-35
-8
81
20
44
47
4
24
-44
-44
17
-50
22
-14
45
-60
26
-14
14
66
-28
15
48
-22
19
41
-35
18
-85
-15
-35
19
-39
48
68
-56
62
-1
-4
-7
19
-53
9
13
-24
-17
16
12
52
-127
-33
28
-42
-41
-45
-11
-95
54
-16
71
11
-36
51
0
4
-59
-11
-64
6
-62
-9
20
3
42
-25
8
-4
-100
-111
-27
-2
-5
40
4
-17
9
61
-20
-10
-3
13
-74
-38
-53
64
11
-76
-18
3
49
63
-62
64
25
-60
-53
78
-61
12
-50
-103
15
-9
6
-10
-5
95
127
-38
-69
-11
82
-22
-63
8
97
-57
41
-29
-40
65
-6
-3
58
-55
21
44
66
0
-67
41
-31
-57
-9
-18
-40
-83
8
29
-1
-14
17
-23
-30
43
-63
-3
-23
17
-1
-16
12
52
9
26
-70
-13
-8
127
-23
8
-71
50
-14
-7
27
9
11
6
-5
4
52
-21
23
19
-3
-124
91
6
47
61
49
-33
44
24
80
62
-77
-44
53
3
100
0
100
-76
82
41
49
99
-28
5
109
90
37
12
38
76
-99
-67
-81
13
-48
74
-28
32
125
92
-53
45
52
-68
21
63
65
20
-75
56
19
-113
53
-86
-39
-21
26
-5
60
52
-24
74
48
99
43
56
108
61
-9
-16
38
10
-66
-51
-18
40
8
1
127
-89
96
120
-33
111
-27
-8
-15
26
-21
-32
23
-27
-24
39
-17
109
91
16
-11
-30
-79
-12
-48
-74
-39
-34
113
57
-15
-28
53
-27
73
68
-41
-58
-32
-37
13
82
-4
-5
-83
-2
127
-124
-10
-23
78
-3
81
-20
30
2
17
-5
66
-63
43
-74
0
-48
27
86
-1
42
32
-37
-17
-4
-11
27
6
-88
5
2
-6
-15
-88
33
-62
-86
-33
-79
42
-13
12
34
-57
-7
-15
-82
-23
-42
43
-10
-29
4
-12
10
38
-111
5
37
17
-45
3
89
90
48
8
125
-19
-25
-40
35
3
20
20
-94
44
-48
30
76
6
35
0
11
-87
20
-90
-12
9
42
83
-36
53
38
-12
-127
75
44
-76
37
-9
-74
-98
-76
50
-30
9
-46
-13
-25
-63
10
-7
36
-79
10
-24
-60
-60
-17
21
47
-32
4
24
41
-16
27
-16
11
9
-15
37
-34
-28
24
-37
32
14
23
-10
-46
47
18
-48
-31
-50
8
22
20
-35
1
33
21
21
29
-38
10
35
-12
32
-33
43
7
-56
-14
14
-10
18
16
-20
35
-47
13
-127
-3
-10
4
-61
-41
36
46
12
96
14
-80
-66
76
2
-29
-33
-114
-68
77
14
-105
52
-57
39
-16
26
65
11
-5
65
14
-17
3
0
49
4
29
-3
6
-90
-12
-7
-40
43
-2
85
-18
8
-47
105
-54
104
55
-127
-52
39
-87
-21
-60
-18
-46
9
93
26
-99
-53
51
-16
34
63
-2
14
7
-7
32
65
27
-15
-56
3
2
51
-25
-8
-29
-26
-16
-22
10
-16
34
49
18
-23
-72
-3
127
-15
-10
-60
77
-56
-21
-24
-6
-9
26
5
-3
-7
27
45
-23
20
-31
21
-13
-3
-19
-42
-46
15
15
16
22
-68
-24
1
39
34
12
43
-48
-43
31
-12
60
-7
56
-59
-24
-15
-22
-91
23
-78
51
54
-13
79
6
-33
56
50
6
5
-2
29
-4
-21
87
-51
72
-13
-10
5
-36
127
102
7
8
1
45
-103
3
12
-79
-56
77
15
26
17
27
106
12
-9
-99
42
64
-70
6
-61
-78
59
-15
4
32
23
-6
-40
23
-7
-49
-28
-57
27
-37
60
70
-10
23
5
-34
22
-9
4
34
-61
6
29
49
61
-13
-2
-1
21
64
14
-6
6
52
-3
32
-13
62
-15
-44
-62
127
45
-31
-49
5
-13
-28
1
-71
-6
2
14
72
2
13
104
-51
4
-56
-1
-30
1
113
28
62
-66
33
17
10
-2
-27
-22
-12
38
106
87
-42
-1
51
38
-59
-32
-32
12
70
14
32
22
-104
43
10
62
37
-25
-24
9
-53
-30
-64
62
-54
-7
9
56
-8
-7
12
-20
95
-43
-53
-88
29
-25
127
66
-44
69
38
79
44
-106
-91
68
9
21
124
-83
-4
-78
1
-61
-112
-85
-120
-43
-41
-1
-11
-75
3
-38
-32
7
-30
85
102
44
-117
3
114
17
56
-56
-78
-22
112
92
-99
28
-52
43
94
-113
9
13
87
0
26
-20
16
-14
-49
-27
13
30
-19
-58
39
-55
44
60
-31
127
27
118
48
62
-75
-65
-29
-77
5
-67
-119
-14
48
41
72
78
-3
100
52
-26
-71
73
-1
49
10
42
55
68
77
-19
-35
23
11
-37
28
-31
-30
-1
-67
-35
-68
93
2
23
24
6
84
30
43
10
-33
-27
14
33
36
2
-33
11
-35
51
-36
-101
-67
-60
32
-87
25
-63
-98
30
24
-44
-39
-62
-19
-78
-41
67
12
111
-98
-53
64
-40
-68
33
45
-45
42
-28
13
-54
-25
70
20
-39
6
-26
51
-52
27
46
-73
19
-127
-21
23
13
6
60
1
36
15
-16
35
-101
61
50
-28
5
-17
-22
-113
2
-22
-27
-24
12
-60
-90
-16
-95
-98
-11
38
-18
57
-32
97
106
-69
-26
-17
-88
51
6
-38
-21
-53
-26
-5
8
0
-12
-3
-27
-23
-26
11
-27
-41
22
-9
-16
29
23
71
-9
16
-53
25
-127
45
-26
-2
17
-58
19
-69
63
11
-69
38
59
-54
38
2
-66
25
99
8
-125
37
65
1
18
-80
16
16
57
-4
35
-45
13
-32
-45
-52
-4
-23
36
31
61
-27
-28
15
-60
50
7
-51
65
86
-45
5
68
-20
-27
-6
-81
-36
37
41
-22
38
10
-8
3
-51
-29
-104
14
-13
-1
-16
36
-50
-19
41
23
127
-42
-87
-31
7
83
-53
-60
-76
-53
-25
4
-10
-4
-41
-23
61
-26
-7
42
-50
34
32
42
48
11
48
-11
-9
44
-57
-64
23
-14
16
41
27
3
4
-95
53
39
-47
-3
-15
43
-50
29
26
-20
-24
-17
32
-21
-47
108
-43
74
43
53
76
-9
16
56
2
-71
-57
-62
-69
7
2
-74
5
36
18
85
-19
-19
68
44
-77
67
50
47
93
50
65
13
39
-15
51
2
127
56
-48
-10
-55
53
-1
-32
-21
-71
-4
-31
-31
-8
-31
43
127
13
-25
36
-21
-4
-62
91
74
-58
-92
37
17
-70
-39
31
-48
47
-53
35
18
-39
-25
-49
20
48
-45
-7
61
10
-33
-9
10
33
36
-7
39
24
-47
47
-7
37
5
36
37
68
-18
-72
67
56
-11
-21
54
48
-35
-28
40
22
38
-23
23
34
-13
-43
87
-41
6
-26
-2
8
-4
127
60
23
37
-45
53
-13
0
16
-19
-26
-18
-23
-4
26
52
40
23
8
-35
16
-45
26
7
5
5
45
-9
44
15
30
-55
29
43
-16
59
27
-37
35
2
30
25
-60
-14
26
-10
-22
7
17
16
-12
41
14
-24
-4
2
41
-4
34
-39
25
-22
23
5
-13
17
-60
-9
-18
-9
20
-27
-55
-3
-4
-2
-10
-104
-47
-35
-76
26
45
-94
6
89
2
-24
40
-29
-95
-9
68
-40
-19
18
-11
5
79
29
10
34
-30
-79
6
-14
-93
-44
-76
-19
-4
26
53
-20
-58
70
61
-62
77
-81
-127
32
54
-30
-39
76
75
-52
32
-18
35
-15
51
12
50
48
15
27
-67
-41
0
36
-5
7
46
97
-26
-30
-73
-10
61
-3
90
45
25
22
15
-19
0
-43
82
51
85
18
-14
-42
10
-79
75
2
-28
29
64
46
59
-25
-11
46
-23
24
-30
32
56
-25
26
24
-36
35
29
14
-45
82
100
-28
38
37
-57
-26
31
19
58
15
-5
43
-60
-127
2
-27
-51
-33
-14
38
72
-51
-49
-17
32
40
106
71
-66
29
36
17
-54
127
8
9
-72
38
-77
6
1
20
53
-51
-33
-29
-22
50
-34
-70
26
-6
-41
-45
-23
15
14
-24
-47
32
-127
-37
-65
-48
53
-50
-119
-7
105
25
-93
-9
95
39
61
-71
24
-91
19
30
-33
-9
-21
-64
38
53
12
-16
-7
-31
-29
-26
38
-25
2
19
-30
-35
9
51
11
6
10
-40
21
54
-62
94
-70
-61
-28
-30
14
43
-77
1
-12
-90
49
13
13
64
-15
-97
49
-14
-15
124
64
-72
19
22
15
67
-68
18
38
-8
-1
3
15
55
-7
2
-17
31
32
-127
-20
-76
-35
-82
-12
12
-7
-24
65
48
-9
-18
25
-57
-61
58
38
40
-127
-51
-21
8
25
11
30
-73
9
45
-12
-83
39
-1
-18
-89
45
14
-22
8
85
-68
-30
-51
11
-62
0
0
-70
31
41
31
-79
25
-85
20
-8
-40
-33
12
22
-13
53
-25
-12
2
-40
59
24
-15
62
-6
-33
-67
-4
27
-4
89
-70
24
-13
-18
4
103
-13
49
31
16
15
44
84
1
-14
-16
-48
-14
0
20
53
-39
44
0
-17
-6
-50
-4
-6
-45
0
-53
92
89
-19
-10
-22
8
84
-69
-71
-41
-11
25
8
-25
-33
14
-25
26
47
-46
-69
-23
46
2
-59
-72
-22
-47
-7
1
-112
-47
44
-51
-26
4
-22
-22
-127
-7
-122
-30
37
15
9
-58
6
37
41
-31
-29
53
18
-58
22
-46
-111
38
-91
-30
40
-39
43
35
-10
29
55
29
55
26
5
-49
-29
-21
-2
94
8
-27
-70
-29
29
-30
63
-2
17
11
12
-57
55
-50
127
-14
-36
-13
34
-13
-4
-52
86
-3
38
-13
-1
-52
66
21
83
-23
50
32
74
68
51
32
5
23
14
33
13
-45
12
-100
20
-56
-12
39
-39
90
-47
39
-72
-60
11
13
-51
96
-30
1
7
54
10
-39
19
-51
58
73
-33
82
-16
25
-55
12
-42
5
-3
-61
25
11
27
34
-127
33
63
-5
-99
56
62
-9
18
-24
54
-23
124
8
-56
-50
-51
50
57
-33
-3
-23
-29
16
-13
5
65
10
-41
99
-78
49
74
-83
25
-62
7
40
49
30
-11
-35
-32
-50
-29
-20
-59
1
-63
18
-28
-42
19
11
-36
-8
48
-8
-59
-43
48
88
-21
53
4
74
-46
74
24
-27
-54
-43
-7
118
-25
-66
45
42
-16
51
19
52
-14
47
-66
12
19
34
-127
-10
35
-6
-75
57
-63
-56
-11
-27
-8
40
-10
-11
-3
30
62
-64
34
-21
14
-26
39
-6
-29
-51
57
-2
-47
-11
14
-70
8
61
-28
36
-46
-48
-59
0
-47
36
-50
21
-48
-3
35
30
-20
79
-25
-46
-25
-41
-29
127
10
-91
7
31
63
50
-50
7
63
-62
19
1
37
64
-2
3
-4
-13
-22
-64
11
5
-34
-45
4
51
11
-25
87
51
99
-14
-2
-20
21
-29
-56
67
-111
13
21
44
46
25
-21
-112
39
38
29
18
19
-33
11
14
-64
-4
-79
-34
74
7
-90
68
81
-55
38
-105
-30
35
99
-111
14
-43
-21
-53
-59
-35
0
-76
-87
50
-9
-74
-61
-24
6
-30
-26
41
-3
54
23
-21
15
39
16
30
-127
93
0
-10
68
-80
67
83
-5
82
8
6
5
-40
-23
-63
54
79
-24
-6
-62
47
14
-23
45
30
118
-58
-40
80
-81
-30
35
-103
-10
33
-27
11
-64
-24
68
-36
14
-3
53
59
100
13
28
52
41
53
48
-1
120
-2
-22
4
57
-10
-36
27
41
-1
41
65
-16
-127
100
2
-11
62
-46
-46
-10
50
-43
6
35
127
47
-35
-36
-86
43
43
27
1
99
-76
-1
-13
-100
-39
-46
-14
-81
42
40
82
-45
-4
32
103
-92
-90
40
7
-55
58
-9
46
-35
-58
-85
62
-76
10
11
21
37
18
-42
48
-32
21
-66
-93
-23
-46
95
-31
21
39
52
14
-36
-22
52
-119
-32
-35
57
-60
-30
-5
-12
-22
5
0
-76
5
-113
28
-106
-114
-83
-21
112
-13
-120
4
0
-75
31
60
-107
-110
-27
14
83
-30
31
55
-4
-81
16
103
76
-67
-73
-108
-127
15
14
46
-104
-121
-10
37
-27
-28
34
0
-42
-11
-93
69
39
6
23
66
8
5
-96
45
-70
52
60
-69
-2
40
23
-3
22
-3
108
58
40
69
-9
-78
92
-3
-49
-58
-109
109
99
-31
17
44
-87
-9
11
19
30
-24
24
24
36
-54
-14
12
-98
108
-6
-23
-107
-29
5
-45
113
16
87
-14
-41
-47
-53
37
-62
19
-38
-94
104
-114
-105
-46
-51
-20
-77
33
60
16
45
49
24
-29
54
33
-108
61
-60
12
-84
2
22
6
13
-127
64
-61
39
62
-93
1
-59
21
-42
-32
-19
-7
10
51
-107
43
37
58
19
31
116
113
35
-127
29
79
-43
-26
-29
-98
13
38
105
-107
65
-31
15
-28
16
79
-73
-58
-36
-5
-93
-34
-3
21
-42
-10
52
9
9
-6
20
31
69
-11
14
47
21
86
41
-9
31
63
-30
-18
-70
74
-38
49
-80
40
27
2
-68
-38
108
-46
-17
-127
48
-18
34
120
43
42
62
-24
-29
21
-35
-55
37
94
69
10
71
71
61
-119
58
96
14
-37
-36
119
-18
60
-4
12
-39
-61
-63
32
-35
26
31
-31
9
8
-46
4
40
-14
83
36
33
46
38
-16
-52
-2
-10
126
124
-50
7
50
74
24
-60
58
21
-1
66
29
16
14
-127
19
17
8
-64
27
-27
-55
42
-37
10
48
34
-32
3
-29
-37
-75
-24
14
-66
-14
23
70
84
-17
33
-56
86
-88
43
2
49
29
25
69
-13
-17
-46
-18
-4
34
-1
-84
41
-97
-37
-65
-22
38
27
-59
-56
0
60
56
-27
-81
4
36
-53
-20
-67
-57
-6
52
-33
62
23
-67
-10
41
-51
-50
-117
-34
75
-7
-43
-60
18
-11
8
-17
27
-45
55
43
-21
1
-16
-2
-61
-103
54
-1
-78
33
-30
-3
10
-56
43
-37
-39
-26
-37
51
-8
-17
3
32
21
50
-110
-64
-48
-39
-32
14
13
5
-46
17
-114
-46
127
-69
-18
-25
19
-3
-5
-9
22
-2
-50
-5
-36
14
-23
46
-19
-78
20
51
15
3
-16
37
59
-37
-17
-3
-30
10
25
32
-89
-20
-11
78
55
9
-15
46
-93
31
-83
-32
43
1
-16
16
-70
33
33
39
-45
-53
-42
15
-2
-20
24
37
-9
55
-55
49
22
31
44
112
-24
-45
31
24
7
-51
48
-76
-56
13
8
-105
-35
-24
30
-127
-22
-57
50
-4
-44
71
-39
-14
13
61
34
-90
-30
-34
-66
-71
45
-51
-16
7
127
27
-34
14
11
-13
-61
-24
82
-92
-7
80
-43
-42
41
-38
63
14
-18
-95
62
87
-9
11
76
45
-3
56
-29
-56
-42
42
-22
53
15
-105
13
8
-68
-13
-24
11
-41
6
-30
8
54
27
-30
-17
-58
-47
-37
7
41
-22
-36
62
-29
9
7
-42
108
50
-18
52
2
-49
-51
30
-16
-50
7
-24
-55
-16
55
52
-16
0
92
10
-66
32
-70
7
-27
-18
-107
-79
49
-20
-96
-30
-47
50
51
8
30
-20
-57
-41
-8
-26
48
-92
18
10
46
56
-78
70
13
-82
32
-70
7
-16
17
-35
29
49
30
-45
-127
107
3
6
29
15
96
-55
-64
-45
-9
4
-119
26
17
-88
-62
38
-127
-81
-29
-32
-17
5
23
-38
-2
-79
14
38
120
-49
30
51
-17
34
35
-12
-44
39
-74
68
-58
37
-33
12
-127
-4
43
32
-31
-32
-28
5
-58
-65
44
-70
23
-69
44
-1
43
19
34
-35
-21
-122
-9
-9
-106
-13
18
62
-46
69
-55
5
28
-31
88
55
25
56
13
23
-12
78
60
-37
27
-12
127
74
-38
-35
7
-20
-59
6
-34
-51
-2
32
-2
49
2
43
67
59
-41
40
14
19
-56
-89
-34
-58
100
11
50
-6
13
-21
-22
25
22
27
2
-48
-46
-38
11
-18
18
53
-55
-35
-32
12
-34
2
-70
-3
64
-12
-4
-17
25
37
0
126
-68
-64
-29
-30
12
-3
-16
44
4
-2
1
4
23
35
25
-24
-17
17
56
-82
87
73
51
-50
64
-54
61
39
65
-93
-53
-16
-43
-6
-49
69
121
-11
9
-3
-38
-48
-37
-42
7
4
5
28
53
-12
12
-28
-65
-127
20
-19
6
37
8
-12
0
-1
-27
22
9
21
-23
-63
1
4
-21
16
-9
-127
-58
17
-59
-48
-58
35
55
-35
-77
-28
-25
-94
34
19
-43
-3
-1
17
-12
30
-50
94
11
-48
-40
46
-12
-3
-19
13
21
-38
34
-53
22
10
46
-35
62
78
-76
84
1
43
-11
24
-40
-53
-18
77
25
30
2
6
17
-1
39
-58
80
12
48
-16
24
43
18
-37
-18
32
-12
-93
-27
-24
-27
109
67
-36
-21
85
-99
-9
-1
49
-12
19
-3
43
34
-20
18
-41
-34
-8
-1
-13
9
-127
43
-33
18
11
6
5
14
-71
58
47
0
-89
-31
33
-77
35
19
-10
63
12
69
20
-55
-34
11
93
-17
24
50
9
12
9
14
-78
-10
49
71
27
11
3
108
-17
-43
75
44
34
-101
-40
-21
-28
30
-46
39
33
27
-26
-34
-4
8
-127
-3
56
-97
-119
14
12
-49
-47
-46
69
24
-34
67
27
52
19
-39
81
-19
5
25
19
-126
37
62
-31
33
73
19
63
-16
-37
-9
63
-4
-2
50
-39
-5
-37
-41
28
16
15
-8
37
-45
0
24
27
15
-40
22
33
36
25
17
-77
-1
26
30
7
26
-54
36
37
1
9
-35
25
41
-36
-16
79
26
-43
5
32
-94
-102
-3
33
-127
-1
28
40
47
-59
26
18
43
83
47
-31
-26
12
113
-32
28
22
61
33
35
-7
7
-33
6
6
-38
12
14
66
19
34
1
53
62
17
-26
24
41
-49
43
-13
-11
-7
2
11
-14
-19
5
-26
61
-3
-127
18
0
-20
3
22
24
-22
34
17
7
-2
-5
15
5
-46
34
7
-10
44
21
14
4
62
16
-2
7
-14
2
-28
-14
10
41
6
-28
8
50
5
-8
-18
-9
-28
17
-4
17
-21
-18
-18
-45
18
43
15
19
26
30
-43
0
-10
-70
35
-15
37
15
-30
7
-59
62
69
28
-69
44
101
-1
-28
13
22
40
-2
-34
0
-3
15
73
-58
28
1
-24
29
67
-44
7
127
37
-99
3
74
-54
22
-26
-33
-40
8
-38
-65
-83
33
15
48
0
26
3
-26
61
97
38
-49
53
6
-12
13
-86
24
40
5
46
-3
-30
66
-52
69
-100
23
-10
31
40
85
53
32
13
5
95
127
-4
31
-10
-1
2
-18
4
-9
14
-23
80
64
-22
36
-40
4
-41
35
-18
-24
54
73
-9
20
74
-39
49
19
-58
-26
-12
25
5
9
-25
-30
85
61
19
2
-13
15
-24
4
-40
-70
-9
-4
45
-73
-27
47
13
-6
-23
-28
-30
72
-60
10
14
7
45
0
-10
32
28
-29
-24
1
10
-52
31
127
-46
52
-4
108
-17
96
-21
0
38
16
88
23
0
41
-23
54
-19
-36
9
-18
57
-18
36
-24
15
-84
20
-13
5
-35
10
74
53
-13
13
-8
-5
49
-11
-14
78
-23
-21
-6
33
41
42
47
-7
46
45
22
52
45
-15
-29
-2
57
6
-61
-13
15
33
-84
26
54
-9
24
-39
75
-22
27
-55
-78
21
86
107
32
-11
5
-46
-57
102
8
-69
-123
-26
51
-7
-35
-13
-16
-36
63
40
27
13
-24
-37
54
78
-31
116
37
-58
-37
28
-14
-69
114
45
10
123
-35
-5
-25
-32
-3
-32
-95
70
-4
-127
4
21
60
-62
106
-48
-12
21
23
-28
-19
32
-15
-43
31
-31
-12
-74
6
46
-3
-34
-114
-45
11
2
34
-52
-24
67
-127
-5
63
-12
-62
6
-4
-42
17
-7
-15
6
6
-27
68
-27
-61
-16
-19
44
-35
14
-45
-77
-46
71
-77
12
-1
-69
33
-36
0
4
-11
-82
54
83
53
63
83
-66
-14
10
95
-36
5
82
-15
4
-4
-51
-16
76
-22
71
8
-13
-20
-47
-41
-55
77
6
-17
7
-10
30
78
-61
-37
31
-37
80
-14
37
-27
42
-18
41
-74
8
72
-40
-35
8
56
28
23
76
49
0
20
36
84
78
-11
-10
-9
-127
33
20
29
21
-107
51
30
-32
-5
4
-42
30
2
-34
-18
41
19
-16
69
-21
40
24
-20
3
-26
-5
14
58
82
44
3
-12
63
-27
38
77
-69
36
-39
124
-32
43
11
-29
18
-10
0
-49
-23
-127
43
-20
-41
26
108
-60
55
-61
-101
38
38
-23
-47
62
1
76
-66
-56
-26
83
-48
-50
22
-73
-29
54
7
-109
-47
-13
-36
0
-82
16
-42
26
-24
-25
3
-15
11
-29
33
-23
-48
95
13
7
-37
-21
-54
14
-16
-16
-37
-62
-14
-3
-29
-17
-23
-11
13
-40
-61
-24
6
-12
-33
-2
-5
56
-12
11
-15
36
-21
-2
-32
-32
-11
26
-63
-42
-35
-26
-14
7
-41
-16
-60
19
-42
-41
-127
1
19
-29
42
11
-4
-12
-7
-17
53
-16
-26
-31
-20
-8
-13
22
10
-19
-3
-13
27
-25
-40
76
0
-50
-40
36
6
10
28
-66
-49
-53
-29
64
17
-37
13
-62
57
13
-40
-23
93
-63
-50
-8
56
-127
88
-40
-30
-49
46
-14
-24
-54
43
-37
36
-12
1
21
-29
-44
-69
67
-39
4
53
12
66
44
91
47
22
37
-5
6
11
-24
-33
-20
-5
-102
69
53
34
-35
-84
10
-112
29
-76
13
38
-13
97
19
7
-3
-38
127
0
-56
-19
2
-21
-9
56
-17
-112
6
36
16
73
3
51
-18
24
27
40
-12
-13
83
13
13
84
65
-81
36
-88
8
5
4
-52
-79
-39
-1
-11
59
-14
-86
41
22
30
13
-76
-18
-15
-14
-79
-109
109
9
-2
-14
-87
-1
-47
28
55
-106
-8
-45
-2
-32
-62
-53
55
-69
42
-125
-78
-70
1
34
-30
9
38
-37
-18
20
109
-54
-81
-21
60
62
-18
7
30
-16
-89
-3
65
-33
-53
-22
-69
-126
-2
64
75
-94
-60
-10
83
9
-22
11
0
-32
58
39
41
77
-73
-9
127
17
0
-31
67
14
29
10
-74
51
50
-43
-49
55
46
49
-54
45
72
75
0
42
19
-63
-78
-22
72
-28
-62
-6
-46
-73
7
-47
-127
29
-18
57
5
-16
56
-12
-77
65
-28
-66
-29
8
-64
-20
46
-30
-30
-28
14
44
5
40
26
38
66
87
-43
-7
-3
86
-54
9
-44
43
-77
-8
-29
37
25
21
4
2
-38
-42
22
43
3
75
31
-34
25
13
46
-19
70
-76
-25
54
-5
61
25
-32
-32
-107
44
-106
-82
26
-5
20
-53
-115
-94
-111
26
0
11
-35
-13
14
31
-60
25
-3
-86
5
76
6
-57
-62
41
-99
45
127
78
79
12
25
-5
4
22
82
75
30
-43
-4
90
-1
62
-9
-43
114
24
-8
72
-19
48
-9
48
-14
73
-26
-67
75
-29
-13
0
58
22
-127
-32
39
55
-49
72
20
34
-33
-94
-13
23
-30
-4
-3
20
20
36
0
-59
-89
17
19
-26
-46
-12
15
60
12
-66
54
8
44
-42
32
8
-61
-1
54
-13
18
25
19
70
27
-8
-47
-73
20
3
-60
-24
99
16
-3
-4
-39
-4
15
16
-14
77
32
7
-68
0
-81
-7
26
5
41
16
82
-46
-13
1
84
45
-8
72
9
-39
-5
-75
-17
6
-5
2
33
1
7
-36
-68
-37
25
48
-85
-38
-18
-25
-1
-57
20
0
56
81
49
-25
-28
39
31
-16
-9
50
38
40
-62
3
13
-11
-31
-45
59
-64
100
33
62
-72
14
3
-77
35
18
73
-127
5
-69
-16
28
-99
42
13
14
37
27
-65
-38
50
-6
48
11
16
9
-13
44
-64
9
-39
-77
22
17
2
-28
-25
50
1
-50
65
0
-2
-65
-26
-127
16
-16
-15
-31
23
6
-9
9
14
-34
-26
-39
43
1
-22
-55
9
61
2
-8
34
37
19
-109
12
-14
-12
6
-44
-3
-21
-43
24
-13
-63
-28
17
-27
-90
-33
-97
52
20
-39
-23
-106
21
-47
-55
-61
-38
-11
18
30
33
-70
-65
35
-45
-25
-28
-50
-31
24
-68
-28
-38
30
29
90
-61
-37
16
14
-86
-43
-46
-90
54
-58
27
75
-17
-72
-2
34
0
14
32
-59
21
-20
-34
77
45
-47
29
-19
-5
-22
-1
-55
34
66
-83
9
83
-36
-72
-70
127
-13
53
24
-20
-121
64
53
-9
-49
-2
50
31
-34
29
-25
-26
-1
-47
-23
-7
-19
28
3
-56
92
2
16
16
29
-35
-28
33
12
3
43
98
-20
19
27
-30
-24
-50
-41
-55
-77
-3
-8
14
-27
18
-70
-25
-34
-7
-33
-34
19
69
5
-26
-8
-8
-65
-10
127
58
45
80
-11
-83
-15
-6
-4
68
-16
-23
6
-78
-9
-76
-51
-16
-58
29
29
-25
41
3
19
110
-6
-14
-15
26
68
73
-8
-33
4
10
-54
-48
14
-3
-127
-119
-30
35
-6
-4
94
53
-11
-46
-25
61
48
-49
14
-72
-47
64
1
49
54
-98
1
98
-126
6
23
-11
70
-19
43
-15
-22
91
-10
-64
-17
25
60
3
-55
-20
-24
-10
-12
60
-36
66
-16
-1
47
2
-9
-28
-21
4
7
17
0
18
55
35
30
54
-13
-25
15
63
-5
-111
-25
22
9
-10
-17
43
31
-24
-24
-81
-45
-63
69
-78
19
-26
5
35
-46
-13
53
32
3
-12
-15
30
-18
51
-35
-10
-30
49
27
3
-18
0
25
6
28
20
-127
-2
20
6
23
-47
