1298
-1064
580
-800
61
487
1987
516
-2141
466
823
-722
2084
506
-418
-68
2274
3593
-2147
-1201
-905
42
-337
886
-683
1353
2658
1326
749
-25
1693
-1511
1028
35
895
1194
240
-94
989
1049
-1610
271
104
2791
323
-156
-708
-1695
-962
357
-4832
-501
-922
71
757
-1905
748
1007
-230
1033
-1374
-2686
2092
-1498
-3130
-1438
1199
261
-3314
-1444
986
340
1978
717
850
-1241
84
-100
1
-5022
-561
2565
-260
2297
902
590
2261
-152
6
-755
1150
-2055
526
-1877
-946
498
1226
3671
416
-511
1124
-269
308
1092
-641
984
-460
-104
-1285
962
1171
772
2779
-1284
743
1271
480
780
1545
-4129
-1716
-3186
-1122
2484
202
88
604
-614
4004
3384
-745
1268
301
-116
1402
2670
529
1925
980
3978
-220
180
1484
-1777
-4
542
-1190
585
22
815
5532
555
1387
1617
1031
-787
-3545
878
1043
2175
-1998
-3555
788
748
-1286
-5148
857
-979
-2157
462
1657
-326
-3775
183
-1471
68
173
1143
764
-401
-3506
994
440
1822
-1998
-1079
-3242
372
-1665
-807
2298
-3606
-1937
2317
-427
-553
-1231
3162
1383
-5116
-1349
-176
-47
3339
-602
2120
2084
-1698
1264
-2352
1363
-3428
1589
-60
13
5355
645
2935
4283
-1633
637
-1545
589
423
842
1956
2535
-155
504
495
-91
-1086
-4963
1295
4371
2970
787
40
-799
447
448
-604
-21
-2457
-1442
354
3775
1219
776
1189
-1038
938
-1434
103
-2489
342
-1836
-1154
922
535
1035
-287
-778
-2459
-6952
943
1716
-1770
518
-2310
580
1839
-107
879
606
148
-170
631
1208
-284
-223
-1761
643
3557
3873
-637
-142
-1088
