-3
20
-41
-7
-23
-13
-12
-65
3
-64
-18
-41
21
30
-6
-48
25
-57
-39
-108
19
-124
-19
-37
-14
-127
10
41
-61
24
2
-90
-85
-34
-10
30
17
106
2
58
1
-76
-28
-9
-47
50
-35
-57
6
60
-14
-10
-118
-66
62
-81
-20
37
17
-61
17
4
45
97
42
-32
-85
-46
-60
-72
-46
70
-10
71
-110
7
-32
58
-31
-40
81
-17
-35
2
-16
3
9
27
-3
7
-2
2
43
-36
-6
52
-17
-93
61
-11
43
-57
76
3
-56
2
-9
-3
-38
-37
0
-67
-3
-36
41
15
11
-15
66
18
127
-7
-22
49
-14
15
-39
21
42
37
42
-57
-30
71
-65
16
-38
76
4
-27
-14
24
9
9
62
-1
-34
-10
-34
65
-66
13
45
-81
-40
19
-19
19
-68
-79
87
-17
-82
-29
100
33
3
1
41
-63
65
18
-12
-58
-18
8
-42
21
127
-46
-66
-32
42
-51
-61
29
73
-30
-14
-1
54
-52
-19
-28
1
-51
21
-5
-46
-4
35
54
24
-25
-18
-4
-2
-20
-49
39
-50
69
-4
85
0
-22
57
-54
-50
74
53
83
13
-41
-22
-63
-27
36
-39
-12
72
49
28
11
-75
11
88
36
6
-42
97
16
-32
77
-24
19
-26
97
111
10
27
15
-127
63
-45
-79
-24
3
67
-40
-24
13
-82
19
-34
10
-7
-98
66
-4
30
-13
3
40
-11
-83
45
46
8
-22
36
-55
-59
-23
-6
8
-77
77
-35
-8
9
20
-101
-58
-54
-2
-3
-44
64
-17
32
78
-16
-17
14
57
-57
-35
-25
-51
12
-54
-73
-8
-36
0
60
36
-113
7
20
-49
51
-105
-14
27
-54
45
13
-4
-124
-90
-2
-34
-96
-26
30
39
-47
-98
24
59
-127
1
2
-36
-40
2
34
-65
107
-3
29
3
-101
34
20
6
91
9
25
-14
8
28
36
-72
17
61
16
-7
41
27
-29
26
-35
42
-15
15
-51
-36
-53
11
58
-8
12
-2
-35
5
27
-26
-34
7
22
-59
-30
-22
54
32
-20
11
20
9
-5
-81
-1
3
-46
-43
-68
127
33
-3
-1
-55
3
-44
-48
-3
-27
-4
-17
34
-51
-44
22
18
-48
-13
-1
-51
-14
-19
4
21
12
-11
-13
-48
-41
15
-28
-9
65
17
47
29
19
-127
-24
28
-2
-75
16
-29
55
12
-64
115
16
-32
29
-15
-96
-5
10
-37
-2
-55
18
-9
-22
9
84
31
-57
-20
-2
25
-3
-62
-4
-41
-32
-58
63
-38
12
37
-72
17
-40
72
53
-31
66
13
15
-5
-25
87
4
26
52
21
127
13
-88
78
28
78
-41
-7
-25
-49
-52
3
1
19
35
-6
26
-25
-25
14
46
-86
-12
22
43
-16
17
22
51
-21
23
38
84
-33
95
-22
-21
46
-19
-6
-27
-15
-37
-90
2
-25
71
-11
75
-43
48
-39
-6
-38
-12
22
71
106
46
-1
-54
65
-35
-22
31
-33
40
-31
-24
-11
-11
15
47
-24
-27
-72
-20
-4
70
88
-78
-37
12
-35
5
-8
63
-39
-81
75
-99
-110
28
-17
-39
-28
34
84
-65
36
31
57
-101
127
-36
-36
-67
21
-61
15
2
28
28
34
-30
-31
-41
-16
72
-4
-3
-28
-36
-73
117
-63
-83
-99
-17
43
-62
-36
-24
-51
50
-68
24
-93
-39
80
-21
28
11
4
23
-49
29
-29
29
3
-1
-59
-43
93
57
-4
-87
-9
-35
-32
-32
38
16
49
44
8
-41
95
18
47
-4
-44
-43
20
96
-127
-30
3
9
-31
-26
-29
-25
-66
-27
37
-11
-5
-30
-29
-77
21
40
-36
28
9
15
86
23
-13
-73
25
51
72
26
26
23
24
94
-41
32
35
-2
-103
41
-31
8
-41
27
-29
-17
45
-32
0
14
-14
-75
-37
43
-99
51
18
-33
-28
-31
30
-24
40
-36
-32
3
45
-53
-37
-74
2
-105
0
33
-5
13
-5
-5
-32
-9
-73
-70
81
13
60
-70
68
-92
127
14
-85
-20
55
-51
69
62
-12
-46
-23
-14
9
-88
17
-121
-21
-23
-11
73
-20
71
70
8
69
-22
23
24
-77
26
26
-1
-4
127
-30
21
-40
63
6
48
26
-28
-6
-20
25
-2
0
9
-35
-3
-71
38
-27
-54
-4
-92
-46
-72
3
-20
9
25
24
35
-4
-34
28
-39
1
17
117
-25
-4
-53
10
-58
-6
-74
-62
-33
-24
-7
-21
-15
-52
-1
-4
52
-11
10
25
5
38
83
30
40
15
12
-40
72
-49
11
58
13
40
-32
22
6
12
-93
8
-74
17
21
41
-53
59
127
89
-22
60
53
-15
23
115
9
-29
4
13
27
3
65
28
-61
43
-15
-65
31
-58
54
37
-64
-60
-17
23
-89
78
24
-38
63
-45
-79
-57
67
-9
-46
-1
39
42
48
-36
-15
-17
-14
-4
37
121
-22
-25
-71
49
-13
127
-5
-82
71
14
10
62
5
37
35
2
20
21
47
21
-60
-17
5
98
13
-17
17
78
-43
20
-62
62
-36
33
34
-83
7
-71
-47
45
-91
6
25
56
25
-35
53
18
-6
-60
-59
19
4
-61
37
36
-68
-48
-37
15
81
27
33
32
-2
35
51
-68
-96
93
13
49
65
-34
24
-5
5
-15
-20
127
36
-29
-9
-8
-24
87
-56
13
86
35
35
-22
-54
-17
75
-31
57
-85
30
-105
-9
108
9
-37
44
-21
28
20
41
19
-56
12
-5
-52
-27
-60
-9
15
-11
23
-72
-25
18
24
-25
-25
-24
-66
33
10
-70
36
36
-67
-21
43
39
-12
-45
-25
-46
-13
-80
-3
-11
-1
-32
-3
-45
48
31
74
-26
-39
13
-25
-105
120
-32
-18
-16
34
62
-84
-28
97
25
29
72
-84
30
25
27
27
-52
-50
81
50
-18
-60
86
11
61
-55
-45
-45
-57
-13
15
1
5
-127
41
-42
4
5
-33
-5
-2
38
14
-1
10
74
26
6
-59
-12
-25
-54
-17
-69
14
34
21
60
53
-73
10
-44
-5
-46
-37
9
53
71
-36
29
-5
-9
-50
-41
-75
-70
0
39
-16
-61
-6
52
6
2
-31
51
-35
19
-73
-9
30
-54
-127
49
-97
6
8
35
-19
8
-14
-4
-13
7
16
2
-26
11
-18
18
55
56
10
23
25
-15
-72
-8
-11
-59
38
-67
34
63
-22
76
-20
-4
-48
-5
18
-42
6
-53
22
-20
-42
-21
38
27
-55
-48
64
-11
-41
76
-44
-85
-5
40
28
-20
77
52
40
33
14
61
17
-15
79
-1
-80
18
-17
-53
-24
-127
-28
-74
12
-25
-5
-28
-13
-40
-7
23
8
-22
25
-4
-13
-31
47
6
-41
63
-52
32
-16
-2
6
-4
56
58
8
43
4
67
-21
12
25
-77
-105
46
-3
21
-59
29
-9
-12
63
-59
20
42
-73
-14
-18
11
32
-21
-63
-24
29
-22
-29
-19
-34
-18
27
69
-13
72
127
-90
-89
-22
49
-36
0
52
26
-27
-23
-57
56
25
24
27
-21
-36
67
9
7
49
81
-32
57
-57
-27
68
-7
51
24
68
-25
38
24
20
-23
-17
-80
-22
83
-47
-97
2
27
-65
-54
16
71
67
-75
17
-17
-71
24
-17
16
-49
-38
25
61
-33
22
89
7
27
65
101
-31
24
-35
81
-33
5
-112
-2
-24
-13
-39
-62
46
-37
-14
40
29
113
16
55
-27
70
-46
-25
-90
42
-36
84
-37
-40
22
-94
-69
13
77
-75
0
127
-8
-71
-1
23
52
118
11
46
-26
-32
64
-13
18
1
45
36
20
9
-22
-58
-2
12
-27
-106
-23
11
24
5
-22
69
40
35
18
51
40
-15
-4
17
-64
-1
34
54
-23
1
-41
-8
0
-71
-55
89
35
-30
56
-38
16
-70
-40
-79
127
-25
-32
105
-77
29
-89
43
-17
-75
43
-63
38
-25
35
-23
-7
66
61
-36
12
-48
-127
23
-39
63
-12
-13
21
-40
15
30
-22
41
-99
6
-33
-16
-26
21
28
1
36
-10
-3
-40
63
-38
13
52
19
-64
71
4
-60
-81
32
-35
-99
-34
-45
13
-35
-68
-19
39
-50
-87
7
-50
20
-53
1
16
-56
0
-97
31
-5
-55
70
-14
-14
-52
60
-13
-29
5
-9
30
67
74
80
-41
-4
28
78
-79
-64
19
-14
40
-59
68
35
-23
-17
-122
18
26
-46
79
76
25
-54
45
-3
24
-60
34
-19
-16
-46
97
0
-20
-61
-64
19
69
-10
-33
57
-11
26
63
-54
126
-84
50
-48
34
8
-17
-2
116
-6
25
47
-45
96
8
-97
60
-41
90
-86
127
-57
56
73
-1
-26
113
46
-13
-27
-83
56
-19
103
-46
31
-54
-14
63
-70
-33
-66
-103
81
64
-106
-9
41
36
-115
-18
6
46
58
23
-17
4
-72
19
43
58
7
109
-51
-6
-82
-17
-19
-105
-32
97
27
-4
102
22
2
63
-68
-127
54
61
0
27
-87
-7
-115
-97
13
96
-16
-43
-46
23
87
-37
57
7
73
29
45
-43
-44
-2
67
-78
52
-30
47
120
12
54
-17
-69
-18
-39
-45
17
-44
96
-28
-8
-72
30
37
16
-15
27
-25
46
-54
-29
26
72
-77
-1
-23
-10
-58
12
62
-59
33
12
-24
34
-38
43
-38
40
-40
57
44
71
61
23
-26
20
-33
-30
-20
32
25
-24
-15
70
-24
127
31
22
6
50
35
-21
-58
79
-27
78
-44
-27
-10
-99
-25
-33
-14
58
-9
-46
-22
13
69
-37
-56
-35
-18
-12
-68
-38
14
-32
44
-5
-37
18
101
-112
-72
28
11
-56
30
61
0
-21
-102
-67
29
0
77
-53
66
-74
24
99
-11
-30
-54
-29
15
-34
0
37
24
11
-19
-11
39
58
0
-61
-6
32
-43
13
127
-37
32
-27
-127
55
19
-8
72
32
21
-13
67
40
-27
-20
-54
8
54
28
-19
27
29
47
-43
-16
28
41
-27
-35
79
-53
-11
-23
-26
-10
-23
-97
-35
-12
-97
11
-20
46
-28
-39
-38
-15
-33
-54
-60
-76
42
-84
-69
52
43
121
-67
44
87
-3
29
-28
74
-28
31
113
-20
53
-30
-22
-100
-9
32
-42
60
-97
14
-5
0
30
83
8
30
-38
-3
-61
-77
-30
-75
43
-21
26
-75
15
-42
-6
-64
66
-14
59
9
-35
15
52
-46
-2
-65
50
-35
-46
28
-33
-19
36
-19
51
-25
-2
83
16
-127
-42
101
-1
25
-34
-39
-103
27
-5
-51
-1
-22
-46
11
26
-21
75
-4
5
33
6
-55
-1
-61
23
27
-37
14
83
-43
107
-107
-13
-97
-58
42
-73
18
-34
-53
81
82
-107
21
-68
37
33
-28
-19
-59
-54
-50
26
28
-9
-41
-28
-77
46
6
-66
45
-46
-79
-6
-9
81
-44
65
-87
77
67
-5
-32
41
13
127
92
43
42
-39
-98
24
-6
47
2
70
-11
-13
24
-91
67
8
85
36
54
-13
-71
50
13
49
-8
-22
36
-51
-27
97
-52
12
-8
8
29
21
25
21
94
40
127
-8
77
-37
26
-9
67
-52
-2
-22
4
-7
87
-36
-35
4
-41
-63
42
-17
7
-43
-14
-1
3
-40
6
-9
-24
-45
55
-14
-5
54
23
65
-12
-59
27
61
34
64
22
-22
-49
-10
-83
39
-60
-30
-79
-11
-38
-57
-50
72
77
-21
-28
-38
23
-45
-32
68
8
-26
-12
-92
-31
54
20
53
-7
-41
-91
23
-68
28
5
42
61
-32
-88
86
32
5
95
-62
-16
-11
-114
-12
-43
-9
-9
26
21
-31
81
-38
-54
3
-51
62
50
53
-41
-15
127
-84
48
-29
-11
-13
30
15
46
29
-77
-59
15
18
23
44
-9
23
22
34
-127
20
31
9
-42
24
31
-18
-37
-27
42
-44
41
39
-61
-44
23
0
-42
-12
24
17
4
4
12
60
12
38
77
39
48
40
-21
35
17
102
23
-8
37
-27
-4
5
0
-79
46
-10
64
-13
16
26
-45
45
-10
75
-62
-16
-115
-33
-35
13
33
-26
34
7
46
-14
-20
45
32
39
29
114
-127
12
-18
-3
-61
41
33
-17
30
-44
-14
15
29
-7
34
-9
-44
-1
-12
9
48
-14
-31
-53
-1
-32
11
-34
63
75
76
19
22
-9
-35
7
15
30
-58
1
-20
7
-22
5
-31
-21
37
-32
54
-25
61
26
-59
19
-21
18
49
-11
-67
-77
37
-7
94
60
24
86
34
17
-3
-32
-46
-17
-111
-48
-45
-48
7
29
75
-83
32
36
-22
-35
-25
6
-13
-61
-87
-21
54
23
3
-15
-83
55
-9
-9
20
-47
79
-11
23
46
9
33
-25
1
25
48
12
95
-36
11
-28
-18
-69
37
-27
-33
-36
-63
124
-7
-80
31
-109
64
-57
127
-63
-27
17
-29
69
76
56
13
-45
13
-15
16
-30
18
-57
-10
-2
9
69
24
-53
-18
-14
-36
32
-26
-38
36
69
-38
25
-39
11
37
-7
20
73
-26
7
-18
46
-32
88
-52
-39
45
-13
-6
25
2
-19
-73
-7
-39
55
-98
-83
15
-63
-127
-14
4
-73
-31
60
-5
9
94
72
21
51
-9
70
-116
-77
58
-13
58
-30
-49
-82
79
-38
32
-121
86
-12
-14
40
6
-42
64
116
-33
55
-22
-16
32
-102
-64
48
-62
-98
-20
-10
9
28
87
20
-47
18
5
-38
35
-30
-1
-17
56
29
50
-79
-68
35
-24
-47
87
23
-36
46
19
-3
-83
52
-86
45
-86
125
7
-42
-19
-17
-28
28
60
-103
-100
-40
-26
14
26
31
127
97
-95
-16
-86
-51
61
-24
110
11
-25
-51
52
-68
42
3
26
-8
0
-6
48
26
-11
74
-2
-14
27
30
-35
14
-52
89
-10
-45
102
10
37
55
-6
60
-41
-37
24
-27
-53
19
41
74
-27
43
39
19
37
-22
-10
50
-3
22
88
-15
-127
19
-38
-23
8
-64
-10
116
54
-113
-49
24
-98
-20
50
71
-40
28
12
-67
-49
34
-21
-11
-31
2
-127
-32
10
-38
-23
10
18
-49
-50
-48
27
-22
-35
43
-10
-54
28
-1
-70
-34
102
27
74
44
29
71
1
-24
15
79
64
19
27
16
1
-8
14
-8
-12
-61
-41
-12
-31
32
-18
-54
42
-4
6
4
81
29
-65
45
27
66
10
56
-47
-24
-80
-1
120
-91
16
-77
83
8
-63
-30
91
19
11
64
1
-25
-29
1
-40
-84
-6
108
2
-33
-44
-16
-25
26
-78
-9
42
69
-68
-54
-45
-13
-28
-23
52
-31
22
-38
-64
30
36
-8
-31
12
-25
-24
-69
102
22
55
-10
-110
7
-63
58
-81
94
-127
13
-40
39
-74
23
3
43
34
-34
14
27
94
-21
78
74
-40
-26
91
-24
-53
-47
46
-127
94
42
-42
29
-59
-67
-29
-100
-98
-17
-23
80
-9
96
-59
28
1
28
-51
87
11
93
-49
106
64
8
-106
77
11
31
-2
16
-5
31
-107
-82
61
-25
61
-70
-13
-109
80
-22
-67
76
36
-53
3
-24
6
-86
8
-26
41
15
87
74
-48
-76
-11
-118
23
-1
-6
19
60
-5
0
-26
7
7
-43
127
47
-28
3
82
-68
41
79
-108
-43
-62
-31
-20
-41
11
0
-46
-5
2
30
-22
66
-80
70
-4
72
116
50
92
45
31
13
19
37
-8
-38
44
-70
114
-63
97
-78
-26
20
-77
-26
62
-55
31
16
67
81
61
0
-11
21
-52
-16
31
10
44
-3
103
-61
-11
49
-116
-45
-7
-30
-36
28
32
33
-10
19
3
-7
-127
16
-13
-92
-14
-54
26
-17
-29
-11
38
-18
-22
76
31
25
102
18
11
-43
52
17
23
-49
53
11
-10
18
-68
-60
-7
83
20
71
13
70
11
-24
33
-10
27
-70
70
31
13
16
-64
-50
25
11
37
39
32
9
37
-1
-31
27
8
-5
18
124
-12
9
-16
-90
-29
15
80
-74
-98
-56
89
0
-70
52
68
-60
39
-30
2
-30
16
-22
-75
25
-69
5
54
-57
-11
48
-15
-80
-73
-4
-79
-41
-82
-105
31
62
-127
44
67
-37
-20
-4
-27
-33
27
89
47
87
72
31
17
-32
50
-13
-30
4
-78
-65
64
-29
100
-34
56
14
-13
48
-42
-97
-30
79
-73
54
-53
4
-47
-127
-68
-22
-6
-3
-13
-5
-64
-4
78
-84
21
-13
46
-91
-3
7
-1
-13
60
-11
91
-118
-29
-50
-12
-38
8
3
-106
14
-46
-25
-31
-46
4
0
-102
-34
-45
-17
-30
-18
-41
-40
36
-96
-52
-1
3
12
36
83
43
-94
38
1
117
-67
-36
34
-125
31
-22
-7
32
17
-30
-44
22
55
79
-87
-70
-3
-7
-42
-21
79
25
34
63
-39
-17
70
-2
-127
-12
15
-29
-87
84
-49
-11
-38
-14
34
-15
16
26
-69
-57
-20
31
70
-14
88
11
-49
-29
-72
-14
-15
98
-17
-54
-3
96
24
-9
-117
10
-39
110
104
-14
45
-27
-35
-7
-41
26
1
30
-64
13
-7
27
-8
-10
9
-29
23
-5
0
15
43
-17
-31
32
-19
43
-46
-32
-11
-36
7
-45
-8
-1
41
-33
-5
13
-81
-6
-23
48
-48
0
-16
-7
-59
-15
-31
-53
-27
-11
-28
127
52
37
-18
23
32
1
15
-42
28
-39
14
-22
40
-23
14
9
-8
39
46
28
68
6
-22
-12
-25
7
-18
-7
-28
-77
19
-24
40
-42
-76
20
-41
16
-65
-25
-98
-9
-102
63
-23
-68
42
52
-63
35
-15
28
12
31
-3
5
71
1
-42
57
5
-49
-15
-33
35
66
-18
-97
80
-55
-13
-14
25
-19
19
2
19
-53
58
-127
23
-51
-49
-16
37
38
38
-34
55
77
-32
47
55
50
-6
-59
9
15
-21
84
38
-5
69
38
-9
-66
16
55
4
-29
-2
62
-12
-38
127
22
17
-19
-23
30
-6
31
73
-77
27
-14
12
25
-16
44
87
21
47
-4
21
-16
-17
-53
-63
41
2
-16
26
-41
-10
-22
-4
-48
-14
69
34
17
12
-2
15
12
-37
33
-27
-21
16
-28
12
10
61
-37
53
14
-23
55
-52
19
1
-102
80
-127
-62
-10
-18
-62
-85
67
-89
55
-24
42
-17
30
38
0
-70
-18
10
45
-60
77
31
67
96
79
93
9
38
13
68
70
-110
-81
10
50
-117
-34
-24
-37
-43
79
-14
-110
11
38
-87
-44
-22
35
-88
37
-22
-88
7
-52
124
-3
-21
35
56
-40
-19
-35
86
9
76
28
6
31
11
41
-49
-15
16
2
25
12
-38
20
75
80
9
16
83
78
-34
51
7
10
-65
52
-8
34
-5
-41
-127
15
-1
-117
24
-26
2
-64
22
7
29
-33
-44
28
3
-33
18
-9
-84
35
36
71
37
-35
81
16
33
-20
69
3
-29
-38
-41
7
-93
21
28
-88
13
-56
-11
37
32
31
4
91
7
-45
-20
15
18
-10
-127
11
44
25
45
-6
0
91
63
39
-29
-57
-17
-38
-8
-19
71
19
-90
-19
-57
-33
-54
10
54
-19
-38
-15
-67
21
-30
0
-3
33
-1
47
-59
7
2
-30
-87
3
17
-40
58
27
28
42
80
25
52
-34
-2
-86
-26
28
53
-64
-34
-27
-28
-27
-5
36
31
7
45
-48
6
17
-38
-25
5
2
38
43
28
-9
11
52
-22
25
56
-10
95
-59
-47
14
-2
16
-38
2
-15
-127
33
-54
22
-22
1
-27
55
41
112
41
33
-40
47
-3
2
14
-105
-6
9
61
-17
-11
-12
35
2
26
35
22
-29
76
21
-53
-69
-40
92
-34
33
0
12
73
-50
-24
-56
99
18
-12
-81
-14
-67
-50
30
-33
12
76
116
33
-32
100
12
63
-16
-77
13
-34
54
-44
53
-5
73
3
-50
-13
-101
-120
-4
14
24
-80
-32
-127
-85
-18
-25
54
59
14
-46
17
-22
-52
-70
105
116
19
60
19
17
0
77
-85
39
4
39
-30
-56
-16
27
23
-24
-13
-15
29
-43
22
-15
-89
11
-45
-13
3
-21
-39
-7
-59
-13
31
-17
-68
25
-59
-84
43
5
37
63
-4
-33
7
-20
-15
87
-5
13
25
21
28
0
-7
-75
-37
-127
-26
27
-32
-21
-118
-27
-74
-22
13
-15
4
-13
-6
-7
-1
-19
5
2
-74
7
-34
-10
-4
-10
-4
8
65
-31
30
-19
46
-15
-40
52
3
-12
5
71
57
-33
-40
-21
14
61
37
-83
-21
-18
-24
-57
-103
32
34
-92
112
28
9
13
-58
17
-69
38
-42
-58
102
-98
32
-6
-58
-127
-8
-67
4
-46
-113
4
-33
52
-29
-10
-4
-16
-40
5
13
74
35
44
16
33
-3
9
67
-125
-49
-11
37
-11
35
-114
25
87
114
-97
-63
14
-35
-44
-33
31
58
-36
-69
-13
82
-65
30
-32
18
-111
32
23
-59
-25
14
-113
51
32
-45
119
66
13
-46
-20
50
-43
33
1
51
27
10
38
88
-123
-47
-76
-30
-37
28
14
-1
32
14
65
-127
40
-38
4
89
-28
21
-77
3
-1
-43
-60
-78
-3
90
24
27
70
23
6
46
-24
18
-55
-23
32
7
-16
-41
-16
-35
36
-5
10
111
-73
5
55
82
-45
10
2
-6
-13
-9
91
-111
-32
11
107
-55
39
-12
-127
4
25
-24
41
8
20
-53
-18
101
112
12
-63
-23
-4
-5
-8
-91
-26
8
83
25
71
-78
-45
1
59
-8
-83
-4
-50
30
123
74
37
97
72
6
-30
-21
50
29
-31
1
-15
-11
31
21
10
-27
43
108
-18
-75
-40
5
-35
-50
-33
-29
-14
-23
-33
-3
-22
17
39
-6
10
-25
0
24
66
40
-50
8
-31
21
-83
52
-24
-11
-7
-51
19
69
-60
21
6
-14
127
-6
-29
81
18
-16
-14
52
-51
-1
31
11
47
-14
-85
-68
-4
-29
69
29
7
-26
-45
9
-49
22
-39
-42
12
39
42
55
-12
30
64
-46
-5
69
11
-6
-15
-1
-34
11
51
-74
-31
10
61
-55
64
-49
44
30
68
-30
30
-89
46
7
23
2
-11
25
29
26
13
43
-65
87
5
-23
99
-11
4
127
-14
-16
21
14
-70
-52
-116
-8
52
-94
-20
39
10
41
-11
1
43
-10
33
28
-36
1
-3
-10
-63
-28
5
-103
-70
-40
-32
-40
29
-22
-10
-46
16
22
15
55
61
19
-127
39
9
21
-72
93
48
4
86
24
11
58
-77
32
47
118
38
-22
-16
-18
-52
14
0
31
-31
-13
35
-52
55
-30
-61
42
46
-73
-62
-25
6
-28
95
13
4
7
42
-48
-25
91
26
18
-34
-24
-2
-33
15
42
53
-33
19
11
-108
9
-17
25
-8
-69
-32
33
-56
-52
31
44
-103
39
4
-13
-7
27
-15
-87
44
-15
19
32
-52
35
33
-43
-127
12
-82
-42
-66
-44
-56
20
67
-37
-7
53
30
11
69
-43
22
90
-10
32
24
21
-30
57
-67
32
13
23
-4
18
-52
21
10
38
26
38
-4
-52
63
-13
13
-75
113
37
127
19
-22
-52
-7
11
-47
-57
9
-10
-108
-22
40
7
-5
8
-42
32
0
-1
-66
43
62
42
-18
18
-54
19
31
38
19
24
-55
30
14
17
-47
-13
16
-12
11
4
-17
-73
-10
24
-2
-9
22
1
-30
-32
26
-50
9
-37
-6
63
27
100
6
26
-85
22
36
-83
-9
18
84
-24
28
-31
-52
-15
54
37
-52
-50
8
42
-127
-46
50
38
-77
56
3
9
-7
-18
-23
-3
-7
-31
-52
76
-65
105
-30
9
-46
18
-25
-24
18
-22
-75
-72
88
-31
-11
-50
-54
-20
24
-24
23
3
-44
-88
69
5
58
67
14
88
-7
30
-26
24
-52
47
-37
59
-91
-27
-1
-38
-31
-11
-40
37
0
55
69
-41
16
-6
28
-3
-66
-1
2
-27
-21
-23
26
-24
53
-12
-28
29
58
-94
-29
0
5
-40
-35
-3
19
58
-4
-36
41
12
-45
9
76
-76
-19
39
-26
20
-67
-17
25
25
-39
-52
-127
88
-45
49
-50
44
-57
-44
17
8
-12
11
-14
32
35
3
-28
41
111
38
7
64
103
36
-32
1
6
22
21
15
-105
-42
31
33
-6
-4
54
42
-116
70
13
-12
-32
49
-8
25
-8
-54
-75
40
-76
-53
-4
-58
-70
-42
-77
-54
-13
-20
-127
107
-40
-26
-12
-63
12
-21
-55
-13
66
92
127
-58
-23
15
48
17
-37
-11
-56
18
3
39
3
-11
-4
-7
25
-127
83
-6
-62
7
-18
23
-36
-5
-37
-82
-3
40
-64
-17
-10
65
-49
27
121
43
35
18
-22
20
-81
4
-17
43
-58
-47
-6
-88
24
-36
19
-59
6
-64
59
53
52
-42
-2
-38
-18
20
41
-24
-77
-25
-45
103
-54
-15
-32
35
4
-21
74
-40
-27
94
-28
40
10
-44
85
-6
67
81
57
71
-78
-65
-3
42
-36
36
80
-114
32
-127
-104
36
75
-47
84
-22
-59
110
85
103
119
-57
-4
24
15
-5
110
97
-35
98
38
-79
-10
112
-49
10
15
36
31
18
-42
22
-73
-48
73
36
34
-26
105
-58
72
-14
-68
109
-54
-38
-97
-4
-19
33
45
-77
27
-40
17
-2
-58
-24
1
127
47
-70
70
66
40
51
33
42
-14
-13
-80
34
-35
84
-77
-27
-23
36
-12
-30
-30
40
-93
10
-19
72
0
8
8
-28
36
-87
-41
41
-87
38
23
20
-67
-61
6
-32
-29
-66
-75
66
24
-14
50
115
43
-26
24
24
-70
47
32
2
49
32
42
-25
-33
45
-21
50
43
-35
66
6
-44
-85
-9
-29
-33
36
-23
0
11
15
-55
64
10
-1
24
-53
-14
76
29
-12
-32
43
5
-76
110
-4
-34
-32
103
-104
-60
-13
33
18
33
-65
70
-97
56
-57
64
26
-44
-13
84
30
88
37
27
106
-18
-47
55
24
23
105
-28
-53
15
76
-6
-63
-127
14
40
-24
5
-15
4
-20
7
56
-12
-34
33
-45
-7
-32
8
71
37
53
-8
-8
-61
25
14
-12
21
14
-8
14
-23
12
-29
-127
97
33
-10
23
72
-42
-30
90
16
37
-5
24
50
-42
43
-42
57
3
15
37
85
-9
80
76
72
63
40
-4
7
4
84
24
-36
-18
14
75
-5
-9
-96
44
-53
-39
1
-8
19
0
111
38
22
-8
-36
8
-16
-58
58
-63
-26
7
-52
19
-32
46
6
-26
-15
71
24
-62
-24
-44
-12
-127
-10
2
93
-55
84
3
49
63
60
51
10
-20
-28
24
82
-54
49
35
-5
-55
-11
54
6
103
46
105
18
-25
20
31
37
72
20
6
-74
13
-79
-60
-86
119
-3
-90
18
-1
48
10
123
28
21
8
27
63
11
-14
-56
41
2
-9
-104
-42
-68
-80
-43
-22
14
-3
90
2
-24
54
127
65
22
-11
-18
23
46
-29
21
73
-30
-14
-35
-23
-46
-15
3
-48
-40
-28
7
-60
-1
3
0
-8
71
49
8
73
28
-52
-11
61
-20
0
-7
36
-51
-23
78
-26
8
-22
-71
-38
-13
23
