120
-17
-16
27
-34
-106
-26
-75
-75
47
-27
-20
-21
99
67
-87
-108
-11
-55
87
74
-3
-36
-40
30
-37
-7
-23
32
12
22
-89
-79
-82
71
-32
-70
-46
-57
-50
29
34
-6
34
55
-40
-99
-32
-97
-22
36
28
127
-39
37
42
-37
-20
-31
23
-33
19
-42
-103
10
52
13
18
-47
-50
19
-40
-22
-48
44
-88
-45
43
21
-16
19
21
-127
102
-5
1
33
40
96
-24
36
17
-14
28
37
44
-3
-11
17
17
34
40
-45
34
50
-19
-14
-14
-39
-5
-2
-28
-61
-4
-93
-76
-44
51
79
-39
-3
-65
-7
-68
-86
-30
-15
4
-50
-6
-19
-6
26
23
0
40
-27
21
-37
-44
-44
-17
18
-12
15
-52
-19
32
-23
6
-19
-31
-127
17
-39
-24
63
-11
20
41
9
-23
57
28
-35
81
-16
31
-17
-27
59
74
19
23
-35
16
-22
-13
-5
16
-48
68
-28
-40
57
-3
-31
-15
-14
-24
23
-33
-8
-32
-32
-61
-22
5
27
-26
-78
-14
51
5
-10
33
-22
22
-12
11
-45
28
-63
-38
-29
42
14
-38
6
54
-15
12
-9
38
-65
6
-32
-10
-46
26
-22
-10
6
-24
0
-40
13
-4
62
127
17
21
-30
-3
13
-12
60
-56
6
-54
-90
-47
-50
-53
11
37
-14
21
34
-3
16
-46
-20
10
-42
-39
-53
-61
-10
-23
-6
29
-23
3
-53
-22
47
2
-50
42
-64
-54
-127
48
-64
-66
65
-64
-17
-57
-40
125
-78
80
20
-9
-1
-86
26
-43
-29
23
12
-20
-69
18
-5
39
46
-60
76
-18
-28
40
23
30
-10
-34
59
-28
7
-45
114
38
-20
-20
-20
26
94
35
46
68
23
-22
-65
6
38
-8
38
-52
-43
-20
0
5
-14
38
-93
41
55
-87
-12
-12
-36
52
11
3
-63
24
14
-85
-90
-7
127
58
-46
-16
-38
-116
-7
38
-53
15
11
-66
-59
-11
34
114
-10
39
-24
7
-22
-34
18
4
-71
125
-23
-55
60
78
-68
41
8
82
40
-59
-26
-15
3
37
7
-22
63
-32
-14
-71
-17
-8
32
64
69
84
13
-127
-17
27
86
-2
33
-56
33
26
-13
-53
-86
-20
100
-26
-90
12
18
29
54
16
-47
35
-29
-34
41
73
-14
-102
-5
2
21
-93
-3
84
1
-14
92
-52
12
-9
50
52
-127
13
-25
51
13
61
-27
24
82
39
35
-8
-84
10
-58
-101
40
-14
-70
29
-10
42
-56
41
99
42
30
-15
-32
9
25
-13
19
-29
28
45
-5
-7
60
-55
49
30
78
-2
-40
-23
-56
-35
-22
-22
87
-27
13
13
127
19
-16
-51
-57
-74
0
28
24
35
-5
68
-20
28
22
-54
-4
-6
32
-49
-51
17
-73
-9
-43
42
-87
-18
-67
-85
-7
69
1
2
75
80
10
-8
17
7
4
66
39
-21
-32
8
-2
25
119
-30
1
-92
35
10
89
122
5
85
71
-94
31
-5
45
-15
55
-32
5
-49
-10
-46
89
-41
22
5
28
20
-30
48
127
14
-51
-32
55
2
-93
24
20
-68
-55
-17
22
17
5
79
-33
-28
-32
-52
18
47
-64
-91
53
-73
-55
-14
-38
-2
-12
99
-31
-67
1
-49
-57
6
31
5
-56
5
50
-12
-6
1
16
59
-39
-14
87
-78
93
-83
-2
39
-10
-12
124
63
-127
-38
63
59
35
6
36
123
94
-40
-36
52
-70
-6
-42
-75
-22
-107
-3
8
85
-49
-24
3
57
60
-45
61
-13
48
-35
-47
10
-48
72
29
-11
20
1
62
48
-47
80
-97
-8
55
114
-6
29
15
43
125
14
59
9
9
-2
-22
-7
8
-9
-38
-6
-77
-16
-6
-33
-31
29
13
0
-127
-18
61
-11
23
1
21
2
-31
0
-6
-19
-2
-4
-13
-2
-17
39
24
0
41
9
-12
-60
28
16
3
-79
-10
-43
-21
-2
-35
29
29
40
-24
-58
7
-45
17
53
3
-39
-36
-20
-15
15
86
-16
-30
-52
-55
104
4
-19
56
39
-2
-38
-47
98
-37
59
-67
-51
91
6
31
0
14
-92
10
33
-47
34
-36
-47
47
-59
-36
34
66
14
45
-11
127
56
-59
85
-4
60
12
-64
-27
-41
-64
-28
25
-7
2
-5
-68
20
-41
-27
-10
-94
25
-51
-67
-23
-33
-41
15
-3
72
69
-127
56
-2
88
36
-13
-34
-64
17
8
-2
2
-27
-80
4
-17
-8
9
110
25
-55
41
19
-14
38
-44
-49
-5
26
13
30
105
45
21
-20
-32
25
28
-72
28
65
52
-3
13
70
3
28
2
-14
29
-18
-45
-48
-46
8
-89
61
10
-49
4
-126
-17
32
56
3
-7
69
-10
127
45
-60
51
-61
12
52
-17
-77
50
49
48
-90
32
42
-25
-6
16
-49
-41
-27
-9
-3
-72
6
-69
-62
-50
-5
-11
-58
11
-2
-2
55
-27
-36
-97
46
-40
-67
49
17
44
69
-8
6
31
51
-22
64
-11
-51
7
-15
28
-19
-112
-55
37
37
-52
-18
-5
-19
-26
-32
71
-70
-24
-47
-49
38
18
-63
16
-39
-94
52
-28
5
-2
11
-127
-36
0
83
-6
23
42
57
5
-3
-41
-77
106
8
39
77
-115
-13
-20
-28
-56
71
-35
-64
-2
-18
52
45
2
-43
24
-11
-53
-55
83
57
-19
88
22
83
63
-16
-3
77
52
79
10
-30
-78
113
50
43
41
45
-112
70
-21
92
14
51
18
51
50
-31
19
-1
-21
-67
94
53
15
-34
127
95
66
-65
15
-52
98
-112
61
-20
45
32
68
-28
-3
0
-12
-29
-32
38
6
-63
28
-113
-14
15
47
-5
37
-37
-53
-51
-29
-18
-59
5
-13
24
26
-2
62
127
4
-15
-40
44
-52
48
8
13
24
-57
-1
43
-12
-5
-15
41
50
9
-7
93
-13
-1
-72
-30
6
-45
-38
30
-51
-6
56
-35
-25
45
-53
-1
22
-9
23
12
-31
23
-4
-46
-31
-17
-21
-23
-81
30
38
-12
16
94
27
-47
53
-35
68
-29
-18
95
-35
-10
-125
59
85
-45
37
21
-37
47
-68
62
-59
19
-64
-48
68
29
43
17
6
109
-78
-22
-9
-76
-25
-4
-16
42
47
10
-7
82
72
42
-6
-10
44
14
-96
34
4
-51
-79
-75
127
-16
-20
20
23
-51
39
-74
-74
18
-20
35
-30
-41
31
21
18
-40
39
69
-37
-28
-41
4
-1
26
-28
37
-11
-41
55
-5
-24
-15
32
50
-11
-11
5
127
-42
-15
-58
20
-36
-3
-44
-20
-49
71
8
-9
-12
33
-47
-13
75
-52
-14
75
51
-85
30
-39
0
-24
-47
-5
63
-88
-89
41
-48
9
86
-83
-2
-24
78
20
-26
50
-49
-28
3
57
21
-14
-114
54
0
-30
30
63
-69
35
9
9
25
6
27
-52
33
55
14
-36
37
114
93
-108
-92
-8
30
32
-13
-1
72
11
54
-127
-56
5
25
84
55
-56
-25
-46
-22
4
-38
-46
-54
-25
-7
-26
40
21
-23
-26
-10
23
12
-22
-17
24
-35
28
-47
-35
20
-24
69
46
-29
0
-6
-4
-95
62
2
-72
19
-10
-87
-87
-42
28
-71
-12
-15
-3
13
-17
-16
-23
24
43
-29
-21
26
127
-40
-40
-21
-11
51
19
-6
24
-16
-59
13
-67
-51
63
20
-54
-9
-8
-18
64
-12
20
-56
-98
85
68
-80
0
3
31
-54
-7
-12
-6
48
53
12
-127
16
19
-39
-15
27
-29
13
42
-5
-28
-54
-24
11
-5
34
-9
30
70
-21
34
10
-11
-24
26
34
-36
43
-113
-48
-20
-19
57
17
32
-50
4
51
40
-13
38
-2
81
23
38
28
2
-42
33
-88
-89
9
-58
-127
-94
-116
32
-8
-119
-1
-67
-50
-40
83
44
71
-15
63
19
-3
65
-12
34
-56
-9
-44
-1
66
-96
-41
65
-78
-53
-50
-112
94
11
-46
79
24
67
1
25
-50
16
11
-77
14
3
14
-45
-18
7
-85
27
-37
-26
-26
-44
-127
2
35
-57
9
-23
68
19
-39
75
1
-41
1
-70
44
-21
-42
19
18
-14
21
48
17
-12
-27
-1
-14
60
15
50
46
63
-8
15
-3
38
-71
45
22
37
57
28
-33
110
48
-9
22
-68
-77
-70
-125
30
29
-64
-109
-1
30
-33
-14
-24
-57
83
63
69
-10
-41
-74
-24
1
-42
-5
-104
-33
-41
22
16
-4
-20
-67
36
56
-83
-11
-33
3
37
-73
-74
-53
-60
2
-13
42
-8
-22
34
1
70
71
-3
25
6
127
32
30
27
-31
53
-62
-6
-43
-16
9
56
-24
-13
-24
-70
67
10
7
-34
-24
-28
-4
111
18
47
-26
74
-57
19
12
-19
-12
-75
46
-55
-95
65
72
46
-4
54
-7
-35
-9
26
6
-8
14
37
53
-12
-19
-50
-2
49
51
-20
65
-12
31
121
-98
23
66
26
40
-52
30
41
-18
7
-17
-10
-127
-24
-28
30
-3
-25
74
-28
-30
-88
-79
-35
7
-47
-17
-40
-20
87
42
-49
35
-9
8
25
-66
3
7
85
-8
1
62
-91
-8
37
21
-91
11
18
89
-78
62
-72
-25
127
-43
-11
53
13
8
46
41
34
49
25
3
-11
30
-66
74
-20
-35
-41
56
-45
8
-12
-42
2
28
-21
-6
-2
-71
45
-22
4
-12
-10
-53
-3
90
-33
54
-2
-4
13
-42
81
-21
6
4
55
-15
-16
-55
6
-50
10
58
-56
49
-4
44
29
-21
-3
37
54
11
-33
13
12
100
41
-19
39
12
-65
-16
77
10
36
-7
-57
10
9
-11
-17
-58
99
-34
-36
5
-52
-64
-127
88
8
-20
-5
119
-51
-32
12
5
31
15
-52
16
112
-78
11
93
-49
-8
125
42
-2
-104
16
94
40
-37
-114
-33
-46
17
79
-43
-117
43
29
13
3
49
96
30
37
-43
-21
45
15
-39
-25
84
-104
46
63
-62
-30
86
32
21
13
-36
-127
-63
114
-67
92
42
75
78
12
81
-34
-18
-17
-47
27
75
-5
-15
-10
-52
58
54
28
-15
-88
-35
50
-3
-39
-31
-3
47
-21
-16
-6
-17
15
-42
-15
-14
-37
57
-33
84
8
37
-24
-9
-56
57
127
89
42
-59
-1
8
-22
19
19
-20
-46
-39
-7
-26
76
-2
-32
-9
-81
44
-29
19
-27
24
17
53
52
-5
-72
-10
-46
38
-55
-12
-84
-5
66
84
70
-65
41
-59
41
-44
40
-77
68
27
-16
-45
47
-58
34
-26
23
127
-32
-59
24
1
70
-19
-35
27
-68
-49
51
-65
41
-63
-4
-48
50
-32
32
34
13
-3
46
9
74
35
21
47
-63
-14
-67
-62
-9
19
-40
-45
4
17
-42
-58
-35
97
-30
-21
1
-37
61
26
47
-7
-37
-69
47
-29
30
72
-5
12
11
6
87
2
79
8
28
38
14
64
-16
35
127
-85
-11
3
-42
8
-64
122
48
26
26
-2
54
2
8
-37
-2
-10
7
-95
-5
-48
14
-6
31
-37
-5
-76
10
-7
14
-36
36
-100
-67
66
33
20
-34
3
112
-120
-25
15
13
-15
-30
0
-96
-16
47
-8
81
90
43
-46
-90
22
-125
-21
22
-20
-54
86
61
-14
-26
-40
15
17
104
41
25
-1
26
77
-48
-100
22
-21
29
-10
77
83
14
-16
-127
63
-5
8
37
-16
48
82
79
-2
-91
-2
-69
-21
-12
-17
-24
-22
0
62
-127
-21
14
-28
45
-1
30
-32
13
-70
66
-35
-26
44
-57
24
6
24
21
-16
50
89
-21
-65
35
-69
55
-22
-41
51
-3
-55
50
59
96
-63
-46
26
27
-41
33
-9
26
1
-67
-7
-16
-8
-86
-80
-35
127
110
91
-106
38
98
101
77
-20
-43
79
0
112
20
-20
0
56
122
-70
-8
-102
0
7
6
-57
42
58
63
-47
42
45
-9
-74
57
36
-9
54
11
-20
32
39
-38
-35
-74
-49
33
79
25
58
15
-51
65
-42
-39
-51
67
-27
-15
-4
7
43
-77
16
15
-45
-20
19
96
-96
-21
0
26
-48
8
81
10
-32
-26
-18
-69
69
-13
44
-48
-27
-4
80
45
53
97
50
17
66
98
0
2
69
9
106
-3
-33
26
-18
-76
88
50
-29
22
-51
7
55
13
-45
-10
15
28
12
127
21
-8
4
4
58
-30
27
3
-61
-13
-70
48
27
54
-80
-69
36
59
-29
-44
70
0
-2
13
66
-39
85
-36
-12
-21
-2
7
68
-11
45
13
6
67
12
75
-42
-31
-86
48
-6
-32
21
4
-44
-29
37
83
30
99
-32
30
43
-127
-19
-67
-84
45
20
-30
5
-11
70
-29
70
-23
82
9
-79
123
14
2
-66
19
0
-12
37
78
42
-55
-59
35
3
-8
-39
-58
70
-88
-41
-58
-23
22
19
127
18
-46
24
-58
5
43
-43
-17
47
-6
51
6
-50
27
-93
41
70
18
-70
-23
12
-40
32
-34
-21
-2
33
7
-41
114
13
-40
77
-59
30
5
45
14
60
60
-11
8
65
-7
50
-95
115
-51
-44
-6
-96
4
-75
26
88
25
17
-12
0
45
-12
-24
-48
77
-43
-101
-57
13
-106
23
-65
-50
29
-37
-10
50
-4
46
-73
-42
52
-49
8
-44
127
46
17
-24
-10
-112
-13
-65
18
62
5
46
78
-10
-77
-22
-24
82
-15
-2
-14
75
23
21
-34
11
-14
-50
14
-53
-37
57
64
11
-38
-12
-36
-30
-25
22
-47
-58
-92
46
42
22
-13
-11
-62
-46
19
8
116
45
74
79
-92
1
100
32
71
-88
86
76
77
5
1
18
-127
-59
-105
-14
18
37
-96
35
0
70
-61
29
-36
9
6
89
47
-4
-9
125
69
-16
-64
-25
-35
22
56
-33
3
-8
-28
-31
-37
-28
9
-6
-59
58
-4
1
37
18
21
13
40
-80
-27
26
-22
36
22
28
50
-47
36
53
-38
56
-2
-50
19
-43
-1
30
-75
37
-11
-36
79
2
-69
-34
8
123
127
-36
25
-60
-25
-42
2
29
50
29
5
64
5
30
17
-8
-30
-91
-48
3
52
36
55
29
-36
-40
-30
-25
101
-86
43
46
127
7
25
65
73
-115
5
12
-28
-5
39
91
33
-12
-24
-26
-16
-59
-51
-78
71
-79
60
11
-63
-20
-89
20
57
-23
-43
60
37
-61
26
-103
-114
56
50
50
15
-15
32
3
59
54
-62
110
-22
-41
-16
59
-3
30
-14
49
27
17
-15
-24
54
32
-6
69
77
24
-31
80
58
14
52
89
16
-34
27
-23
-9
83
6
-52
-18
-25
100
-127
31
41
35
26
78
-47
-6
8
-24
-75
-6
-11
42
-40
-31
46
66
-31
-17
-63
-2
1
33
-58
46
-70
55
0
-42
81
16
7
-9
-14
37
22
-15
76
88
-16
-2
97
-123
3
2
11
-52
24
68
53
4
33
32
57
-84
18
31
-47
-4
-6
45
-82
40
-1
13
-2
14
-33
-47
-70
-127
14
-15
-93
9
-4
66
-32
7
77
-36
73
74
3
-4
97
21
53
-4
49
-84
90
-32
-16
-31
95
5
86
75
-9
-40
13
-94
22
73
18
118
73
54
103
-7
-63
11
6
70
32
-11
-67
118
-40
23
-37
-9
83
-58
-32
8
-40
23
-21
-127
41
89
-57
41
-26
-80
-66
88
72
85
-120
69
52
-46
89
-56
-27
89
-39
-60
-53
36
21
99
-69
7
34
19
-28
7
-4
-109
-88
29
31
-3
-23
15
-21
-37
95
14
-84
122
-31
34
25
-90
-51
9
15
80
-49
-10
106
-38
2
10
48
-37
-109
-86
-34
-16
1
-127
47
-57
-90
-13
19
-53
-82
-17
-27
-43
-6
26
74
-24
-43
-8
-7
36
15
51
-32
-35
55
58
-56
13
45
-16
54
3
-24
-127
26
-76
-42
-70
13
33
50
-3
14
-31
64
-31
-14
9
67
25
-60
-30
-11
47
15
42
25
-100
8
17
51
-5
75
-38
-4
66
7
69
-2
-53
55
18
-43
-15
-26
12
-14
-1
41
9
45
12
-50
-5
22
16
-60
-10
31
-5
-40
5
30
-62
-47
6
0
33
-10
-23
51
30
21
-60
-32
-10
20
-23
-6
-23
5
-25
45
0
21
42
-58
-9
64
127
-2
-15
1
-45
-29
-33
-15
-61
17
2
-48
54
-20
-67
67
6
51
-51
-65
45
-42
-52
33
-56
-3
55
-26
-87
-75
127
100
-10
-17
15
-50
-105
37
20
15
27
-33
-42
-55
16
64
3
16
-13
13
-24
-58
-76
-40
7
5
-80
6
11
20
53
-44
-21
78
-26
32
-7
12
28
43
22
-35
-25
-99
34
66
-23
58
-42
-123
12
-14
-44
44
65
17
-98
18
44
38
-49
-29
18
2
-1
19
18
28
-15
94
-5
1
-91
-30
61
-49
69
-27
-14
35
94
63
-9
-12
34
-6
88
51
77
63
-43
24
11
71
21
24
8
51
63
0
35
61
55
107
-15
38
-64
11
33
-5
-27
-9
12
-12
59
-127
21
-37
-105
86
30
-47
12
-127
-78
65
25
68
-32
36
-51
-42
-46
-3
11
43
-76
29
-33
-61
-71
-7
1
-17
7
-18
26
77
61
-29
-33
-55
85
28
72
-4
-56
41
-40
-25
39
-64
-74
-27
-40
-97
125
95
-19
-11
-22
-17
-64
23
34
-22
-70
-66
-79
84
46
-80
-34
27
-9
5
-4
-41
-9
-2
-1
3
-50
59
-18
-22
-48
23
-18
30
-29
-48
37
-50
42
-45
-11
89
-30
-4
30
-23
-1
-69
63
-127
-12
-14
26
-7
65
-3
76
78
-18
21
-31
-44
45
3
32
-14
56
23
-32
76
-14
16
-39
-24
-47
-49
-21
2
43
9
-24
48
84
26
-102
20
22
12
34
13
37
9
127
-120
-5
-36
61
81
-19
-24
20
27
-60
31
1
-65
-54
34
-7
-45
-66
6
26
42
-97
15
31
-66
60
-36
-72
-32
24
-63
-114
5
7
-36
-69
47
-27
94
-4
-60
-20
51
-47
-8
105
-5
-28
-41
4
3
-9
-58
38
-40
-4
30
-11
-53
-48
-114
20
-69
18
19
-9
82
78
-28
-42
-57
-24
27
30
32
92
15
-25
2
-15
-2
-83
-25
-31
-23
84
58
46
54
98
55
-127
39
-18
27
38
-45
-42
-120
-70
-43
32
-71
-49
55
-98
5
-16
68
-22
-113
-38
41
-81
-13
4
47
-29
1
-1
46
-11
-56
66
-25
44
-38
127
-45
22
-46
-22
44
43
35
-68
-64
52
14
87
17
22
-32
47
-17
-2
-56
18
4
83
36
-25
-85
-20
-118
-118
-41
-7
-4
42
-50
69
20
36
45
-83
11
-67
-9
-75
86
-12
-102
85
52
-64
18
45
5
12
13
65
-46
-78
-113
30
58
-53
-57
11
-53
115
-14
-47
85
-52
-87
-35
6
5
-44
-27
127
-36
-2
11
76
-102
-7
-39
33
-6
79
25
31
-97
-1
-15
57
-86
55
-57
-62
-60
-13
47
-66
27
4
-21
46
1
7
-18
-33
-86
-21
4
-61
8
-41
-7
-33
-35
112
-35
31
-42
43
-39
-14
39
-39
-4
50
-20
-54
3
-37
61
-12
-59
35
-69
-100
-125
87
40
-54
-47
-3
-81
43
-9
20
-58
10
-1
-52
103
55
-32
-51
-35
-19
68
22
-21
11
7
127
17
-60
-65
-5
8
-48
-10
7
-2
-71
-75
18
16
5
81
49
-6
28
-46
27
-41
50
127
-64
20
-18
24
6
11
-46
8
4
37
53
-60
37
-52
-72
-114
8
34
-8
-114
22
77
-29
-68
-57
-60
-76
57
-112
45
73
-16
8
51
-121
54
55
12
-22
-119
-5
-46
-47
-4
62
33
26
53
85
7
26
10
66
-99
2
-51
-120
40
3
56
49
-6
10
52
-127
77
-43
15
75
10
22
20
-1
8
14
-6
-46
26
38
28
-16
-44
76
-27
21
-65
-27
-35
39
5
-14
13
29
-26
28
17
-96
-35
70
4
34
16
-15
78
13
-12
-46
2
-19
29
24
-80
-45
-45
-12
-91
8
38
27
-9
19
-51
73
23
-56
-6
-16
53
49
6
13
48
102
-7
-74
-45
-92
-16
69
30
1
103
-13
-40
15
-55
25
-59
51
-21
-31
-43
-50
-38
62
-79
-80
-10
-30
7
-122
-46
19
-5
20
37
-71
-22
-44
27
127
5
82
17
-22
-15
7
0
58
22
-68
-34
4
13
47
48
-54
71
-35
-43
-78
52
40
-84
-20
18
-25
105
4
-6
65
-45
12
-9
43
41
-9
-40
92
1
-32
17
94
-81
9
40
-10
-49
59
56
78
-55
-6
-6
7
-51
-16
41
-88
-61
-16
53
-16
-17
43
-22
1
41
-39
-38
-37
-79
28
-20
-127
-20
-21
-16
-90
85
-121
56
-30
4
-21
-14
2
118
-34
1
-121
-30
5
62
104
-62
-16
-20
-26
-54
-26
-121
44
-99
-57
-63
-30
-1
39
124
-27
69
49
86
0
-15
127
107
4
-3
-9
-57
-18
0
62
-74
10
-31
-31
99
76
30
27
-84
43
112
-76
-9
-24
106
71
47
-116
78
27
110
-45
-98
50
45
-42
-43
21
57
90
44
2
43
95
-63
25
-27
-38
27
-98
-60
52
-52
-14
-60
56
69
-118
92
83
3
-6
-48
84
-31
-29
56
-50
-56
-53
19
-82
17
-12
46
13
-91
58
-92
30
31
4
-21
127
38
-81
22
34
-68
-57
26
-65
