-44
49
5
-39
-81
4
88
40
76
-95
-34
-25
-12
27
-21
5
54
-64
127
127
-7
5
-4
-11
0
-16
-19
18
69
5
-33
-10
-12
-3
-47
-58
104
-11
67
-48
-12
-48
-13
33
0
-61
68
14
-14
38
105
-8
-70
-14
-17
-8
-86
127
-42
61
-18
52
-127
83
-101
-91
127
53
80
-113
127
27
41
40
62
-49
-39
-38
-67
-37
31
-71
49
-17
-124
-21
42
-26
121
-95
48
56
12
-52
-20
-13
3
-63
-1
-31
32
-61
-76
-14
-79
30
-70
-34
39
-23
48
26
-14
-26
-43
-49
-40
-71
127
-95
-32
16
-127
-5
77
25
20
-86
-88
-42
46
27
-127
-55
-78
-127
-2
-34
-76
48
38
20
-41
-21
44
40
3
-127
-72
127
15
-62
44
-127
-97
127
84
-56
-5
34
127
-38
18
87
-116
-127
22
-78
-9
127
-43
-127
-67
-127
-54
127
-38
-57
127
-21
24
57
30
-44
-28
14
-6
-30
-5
-127
66
-10
29
-127
-28
-43
-51
2
10
-46
127
92
46
-10
-110
-65
-21
56
-63
-126
125
103
-99
47
108
-127
-54
-58
42
-31
-127
6
65
49
1
28
-40
-72
-99
46
-84
-45
-63
-103
-11
126
19
27
-67
-17
-1
-30
-19
-19
85
30
-41
-42
-118
-48
-123
-48
-22
-127
84
-93
-127
16
-87
-38
-34
73
-120
-58
17
-17
38
-38
-117
-74
-123
-95
-83
17
-85
94
-38
-127
-124
112
-99
-83
-121
-78
41
-37
16
-61
-40
-89
31
-21
-125
-66
-87
-44
-57
33
37
60
35
76
38
43
109
7
-69
55
51
-17
-71
12
127
-77
2
-70
-46
-75
-41
-11
83
57
-79
-120
-16
42
51
24
-10
-14
29
-24
-51
3
93
-48
30
-59
-1
-13
80
-1
-73
-84
15
74
-9
119
48
25
-42
-112
-37
-92
-5
-40
-30
-19
-74
113
20
-57
-127
-97
-43
-15
127
-127
-41
31
-59
114
127
121
-118
78
-21
-64
-50
29
-80
-88
5
-62
0
-71
77
-51
-99
-80
-48
-3
103
-48
65
-127
-45
124
0
-127
91
54
31
-103
20
-14
61
16
127
-84
82
-14
-127
11
-11
-28
101
31
53
35
66
18
-72
39
-89
-127
80
-3
-127
30
-89
-68
-127
-82
35
51
-60
2
77
64
-67
-106
-58
-109
-105
116
-127
-127
-68
-127
-50
-27
-34
54
-78
-23
-5
-28
27
-20
127
42
-67
-33
5
-127
-52
-25
-100
-112
127
-65
-13
-127
127
-44
-31
9
-8
127
-2
22
15
-72
-84
-127
-127
-127
-112
-64
-127
-13
-73
-46
-50
122
13
89
-121
-97
32
-127
87
-36
-1
-89
-50
78
-57
-31
-21
-97
-80
-55
25
71
29
33
10
-30
56
-57
-15
11
-4
-29
-62
40
12
-14
127
-101
-123
-18
-58
-14
20
9
-62
-113
-127
-60
20
18
84
-82
43
-127
-36
-5
-39
-72
44
31
18
62
-26
-28
-53
2
-91
-5
34
127
27
109
-59
-79
-63
92
-77
-127
74
-6
-60
-13
34
-127
-81
86
-38
12
52
-121
-127
-111
-127
-105
52
127
-76
-5
-91
-108
-23
-77
-127
-77
-127
-127
5
-29
14
-64
-62
-91
-127
-24
127
-63
-54
-69
-107
-81
62
-103
50
-102
5
-104
127
16
7
-19
120
-32
22
127
-48
-62
12
-5
93
-17
82
54
1
1
-66
-21
-127
91
-47
-64
-123
13
-99
-24
