2
51
-13
-69
-4
-20
8
42
38
20
-38
48
31
37
71
28
-42
48
0
51
42
-50
0
-46
-62
-29
-23
6
-83
-47
-2
-89
53
63
117
30
31
-35
42
-50
-42
8
0
81
82
23
21
53
-46
0
0
43
-74
-45
28
6
2
4
-26
-11
-48
-114
64
127
-49
67
-55
-32
23
68
60
-31
-62
-29
78
88
43
33
-25
54
-19
-119
12
3
58
25
100
24
-15
-28
51
-11
35
-10
23
3
-17
-6
-47
-42
10
12
127
-5
-38
12
35
40
39
-7
-13
-75
19
42
43
-119
-23
87
36
-57
29
68
-23
6
33
84
45
42
61
-79
-26
60
-19
24
0
-22
-23
6
-7
64
-103
34
96
-7
-66
11
-57
-38
-9
-48
98
13
33
31
44
23
-31
-39
55
25
-28
-49
29
-12
1
-35
48
58
127
-24
14
46
14
70
-34
22
71
-44
-36
-41
-34
-18
3
101
-63
117
10
-27
-45
-117
-6
-22
-21
-77
-14
24
-68
59
7
-99
-110
-5
-4
9
-74
-27
31
-12
76
-81
-68
10
41
5
16
33
71
57
-86
5
43
60
30
0
25
49
23
-41
-69
-17
4
-58
-83
-17
-62
-54
-21
-3
75
20
-14
22
-45
66
5
-6
61
5
6
127
13
-26
-28
-16
31
111
-33
63
-11
66
51
82
108
127
32
-25
94
-31
66
-2
-65
68
26
9
17
2
-26
-4
66
15
-4
9
22
-31
66
79
6
40
1
40
24
-127
8
-20
26
-20
66
34
-13
4
-16
-24
-19
18
-32
16
-13
-16
-11
9
-30
14
10
-8
22
11
-11
-19
13
-5
79
7
-39
41
-26
29
-7
-58
-74
19
49
-10
14
29
4
-11
-22
-14
21
2
2
-42
85
39
3
24
-89
-7
2
15
5
-29
55
-3
20
-3
37
58
28
1
-9
31
127
-60
32
-77
-56
20
-59
-40
-17
-71
61
-23
75
-80
29
22
-1
-15
-111
107
-39
-11
-18
55
-18
-8
68
-7
4
-12
1
11
80
72
6
20
-56
-60
-65
-81
-35
25
105
60
-40
65
2
-3
27
-31
-11
-32
53
21
34
11
1
1
-9
-56
27
28
-8
70
-27
-62
-40
-30
-54
-2
-37
53
127
18
69
-27
-4
25
-6
-8
-2
35
2
36
51
65
28
-7
-30
-33
-81
65
1
-43
100
56
-7
-5
-54
5
-70
-78
58
11
13
-12
12
8
13
60
-28
69
-24
17
-82
-23
-66
23
-40
-20
78
31
-5
70
27
-97
-29
1
-50
15
-91
-20
62
-15
53
-76
17
-26
-31
-30
-60
53
20
-17
-39
1
-19
-35
1
-51
59
16
-64
-19
24
-34
-62
-7
-127
56
31
-1
-45
7
-45
-74
34
40
93
-51
9
43
-4
3
-13
-6
21
18
-81
-3
-1
7
-41
38
32
5
-45
11
60
41
-49
-22
39
73
-38
-7
-7
67
-18
38
-114
31
89
11
10
1
48
-12
22
8
106
95
-6
-6
24
51
-22
-41
-8
4
8
-8
-1
-7
9
-10
-1
-4
12
56
-38
-61
-27
21
-8
22
2
-39
8
-71
23
26
-34
22
2
-18
2
13
45
127
-29
-54
16
-9
50
35
-6
72
40
-18
-4
9
53
20
-34
-17
-6
-6
-31
27
23
-2
-19
-36
89
47
32
73
70
-23
-13
-47
9
-33
-3
-9
-107
44
-77
9
-45
-72
21
4
-10
20
96
19
-56
12
-42
19
-27
-71
-40
69
23
7
107
-54
28
-2
60
-8
-46
103
10
-24
-1
28
-14
29
-5
5
42
-3
10
28
-5
-23
-95
-37
-55
-127
-35
52
-65
14
-57
18
17
-90
9
101
75
-114
-9
-8
-79
-21
28
-98
81
27
36
-6
-35
-77
49
-42
-48
2
13
-29
5
27
-9
78
28
61
-124
-52
-90
-45
1
3
-8
46
111
-12
127
26
-22
26
-18
1
-35
-97
-19
37
11
112
-55
52
-31
13
35
89
14
-27
70
-80
-34
94
2
61
-25
31
-12
12
35
-6
16
-5
-22
28
-22
36
120
-42
23
55
31
-26
82
36
87
68
28
-64
-30
37
-26
20
-52
72
-85
-26
-127
-8
83
54
-32
12
61
-56
36
-71
2
40
-45
-39
22
-30
25
11
46
33
123
-20
13
0
25
-21
45
-33
60
-35
34
18
0
38
-38
-4
-57
-59
21
80
-7
21
96
32
67
23
9
15
72
23
6
-8
67
-62
63
-55
-60
-64
3
25
31
-23
65
-48
127
29
71
-45
54
59
54
22
31
19
-55
31
14
69
-61
46
61
-52
-45
-20
-34
-99
27
-21
-25
-29
-22
45
36
18
34
13
30
3
48
28
-73
42
33
26
40
36
71
-65
2
41
1
-31
-51
-63
-42
63
0
63
67
-85
-83
81
63
-51
-74
122
-28
-98
12
-34
-72
-22
-19
-14
19
32
127
-100
5
51
18
-6
6
50
-11
14
25
7
-8
-2
-122
64
17
-69
55
43
-7
-11
66
-23
65
25
7
29
-30
35
-22
-11
69
26
29
-28
-98
-72
-4
2
-54
11
-19
-16
-16
105
-26
-58
-44
-68
23
59
7
4
-16
-54
30
111
5
-31
-41
15
-21
0
17
21
80
24
-35
41
-32
76
46
-19
55
12
44
6
-65
-34
-41
-21
-2
5
21
9
18
31
55
-34
-49
11
-51
-6
36
27
-35
27
6
28
43
18
-20
19
55
-52
1
-3
5
-15
11
-22
66
-7
-112
66
127
17
-2
-21
79
26
-10
-11
-27
-21
34
4
84
-13
42
-24
6
23
-41
-46
47
79
-22
-22
-28
-31
-20
51
1
-52
-35
-4
8
26
-18
-10
-33
12
94
-32
-11
-44
-9
-2
-58
0
-79
-3
-43
82
21
8
41
56
-19
9
39
-35
-14
-11
-2
2
4
-1
56
30
-41
-15
59
27
61
-20
-16
20
-43
-15
-25
-21
-45
-55
-7
1
-58
24
-4
39
-47
-59
127
49
20
90
13
-24
31
-9
-35
-6
-8
-12
-16
4
71
-50
101
-26
-4
-18
-26
-68
-31
-39
-2
127
10
-3
37
17
-28
4
-85
14
19
-31
-13
89
-14
-66
-34
19
-32
-12
-19
-54
-14
0
12
60
-6
-78
-24
1
-11
-26
-30
39
-63
-60
-69
8
-26
-1
-54
-1
83
-20
55
40
-86
24
-24
-5
-17
-11
-44
59
12
-50
-12
-46
-74
-21
-59
77
1
-2
25
-67
-51
27
-32
127
13
16
-72
60
69
-93
-16
-40
-16
-10
-72
106
78
-100
38
14
26
-1
78
63
21
41
31
14
4
7
49
-87
-54
10
-42
38
-81
10
-67
-15
23
37
-27
33
-23
31
41
-17
103
63
68
67
-1
-34
-109
-42
26
-45
35
33
-26
-24
33
-55
-44
-1
-5
-20
-1
16
4
49
-5
-12
-2
106
-12
24
-20
-11
26
-20
10
23
-8
-66
-36
-18
-34
-5
127
-10
62
63
45
-11
-71
-12
19
-91
-17
-42
2
28
5
18
-49
38
52
-6
-28
-40
32
112
19
-69
-51
53
-64
1
41
-72
-37
56
2
-76
-25
-37
29
-22
-22
-59
33
-58
43
40
12
90
24
45
38
62
-43
37
-4
8
-73
-78
89
80
-39
8
120
88
-5
30
-33
99
78
-53
-104
104
42
-35
12
79
-8
-82
-24
-56
-8
13
27
-37
51
-32
54
109
-6
0
-3
6
-28
-45
-126
-14
69
-19
11
-53
-47
48
57
-126
-43
-127
-24
55
4
54
-8
15
-72
-33
-31
69
-69
15
99
35
-36
40
-78
35
-48
10
-9
-33
85
66
43
17
3
25
52
-86
-36
43
63
127
9
32
-60
-73
56
-25
10
-43
-18
74
31
43
32
92
53
33
53
-11
62
46
34
79
20
-43
-44
-67
28
-23
35
87
34
14
94
33
-59
-22
35
2
-3
77
69
5
-47
27
3
-15
-57
-25
4
-3
30
-85
0
-19
-16
-25
21
20
77
55
6
22
24
-49
-12
0
-35
69
-23
64
9
39
-49
20
-7
-24
-23
-12
3
127
17
16
-32
16
63
-1
-30
-65
-44
23
0
-6
6
15
-8
-8
-110
-44
-10
-16
-7
-72
-25
49
-71
-38
76
-91
-33
-20
13
-76
-80
9
-74
-21
-42
23
-4
-51
21
26
42
32
-18
-8
11
127
-48
-33
-27
-48
-3
36
81
-2
-7
-67
9
-48
-22
-37
48
-2
-17
92
2
49
20
-80
48
-78
32
9
-26
26
-80
-97
46
-13
37
-68
-18
-1
-79
-28
-35
68
49
-85
-94
-9
38
50
86
-16
58
43
-72
-40
8
68
20
85
34
57
2
26
7
35
18
64
-95
32
17
-3
32
90
-78
-26
11
-92
-100
-100
40
74
59
-10
-10
9
39
-127
-48
-44
-9
-74
-18
4
15
-3
15
-84
64
-11
-31
24
15
-50
30
47
66
101
0
-27
108
85
59
-16
-25
-7
-2
-41
-11
112
3
16
37
-38
4
56
72
-66
54
68
-17
65
118
-78
105
62
31
-46
-20
-89
44
53
1
-63
32
73
10
105
32
30
49
17
-39
22
-67
46
-20
-32
-27
-20
32
-58
-7
74
83
1
54
-65
-24
17
-78
15
-87
4
-15
34
0
58
-88
49
-93
-7
-50
125
-21
56
-95
-67
-43
-20
71
-60
-74
69
51
127
-3
44
-44
-59
79
-39
43
31
-72
68
-9
3
23
33
76
0
30
38
0
-46
27
-46
4
5
-58
-23
17
24
-1
68
-13
-20
-20
-48
-29
-21
27
12
37
61
63
-27
9
88
-53
-8
-47
24
-19
0
-42
24
-11
74
-47
11
-43
-40
-13
-21
-11
-48
-37
-23
61
100
14
58
20
-127
63
-23
26
-73
-20
33
6
-44
26
-38
46
26
-51
30
-20
45
70
28
26
85
-5
0
15
70
-64
57
-52
-39
1
-25
-43
-39
-96
16
-97
-65
-34
-63
54
9
13
-87
8
-54
74
-90
45
23
-40
71
20
-11
-88
8
-36
2
-74
-7
13
36
45
36
-28
4
108
-58
28
4
35
-64
-7
-10
62
107
77
8
-47
80
49
9
6
93
-19
-109
5
-127
-33
80
-41
61
4
3
55
-57
-25
-18
-27
11
56
29
53
-19
-10
-33
-18
50
13
21
-31
2
-46
-55
-60
-50
-61
-24
13
-8
58
26
-69
30
36
-19
15
63
2
-54
-25
-62
-49
89
11
-13
52
33
43
-18
-83
-46
12
-127
-64
-37
-47
41
-38
21
29
-46
-39
8
-37
-13
-9
60
-47
-50
-7
-32
-42
16
-22
12
-29
63
-18
-59
88
40
-45
36
-4
-31
-38
40
85
-31
-90
58
-3
-85
-89
23
-63
-69
-72
-24
65
64
13
67
87
44
76
-17
22
90
31
36
-28
-33
-62
-11
61
123
-127
89
-108
11
13
19
85
81
-14
-8
60
85
49
28
21
-31
16
35
37
-21
-127
-25
-3
-25
-63
-2
109
39
44
29
45
-60
-75
-53
38
-77
1
-28
41
14
62
36
30
-73
-78
-5
114
34
-20
49
72
27
-23
-27
15
26
22
46
-9
-75
51
27
-40
15
-40
40
21
-8
87
-3
-11
-44
-66
-6
10
34
-26
-46
-47
15
-42
-34
-35
-127
-10
27
99
-50
-22
-12
-21
-44
-76
-12
60
-32
-64
27
-55
-38
-34
-10
-38
-81
35
20
-16
-45
68
26
-16
-41
8
-49
-21
75
35
-6
-26
-31
-21
17
-18
-55
-41
-26
37
44
-29
37
38
-12
-41
23
79
-49
33
12
-3
36
4
-5
-49
23
-28
-48
-98
-42
40
61
53
-7
-49
2
29
84
20
27
-54
127
92
53
-54
1
30
-30
55
52
20
68
57
-17
25
17
-96
38
17
38
4
6
43
-5
1
4
10
65
21
2
-51
9
16
-29
13
28
36
-52
-24
34
-6
-2
74
30
36
-18
-16
2
-50
-14
93
2
-35
-31
-8
-17
49
83
-59
59
-107
-41
-56
-78
-44
9
9
-1
33
43
-41
22
62
-127
-60
11
47
-21
-90
-25
27
-92
25
-88
16
34
-13
2
29
11
23
14
-11
-10
108
16
24
19
-83
-73
121
14
57
42
-96
15
-25
-101
-2
14
-47
-63
116
-11
-13
111
-25
-11
-21
12
2
-54
23
-35
18
-68
-68
27
-79
-15
-35
7
-44
-24
16
127
-1
-64
-126
19
19
34
-75
-4
88
-15
6
68
4
-8
-96
-22
33
76
53
-3
43
42
-81
-84
-4
27
-47
2
-30
-33
24
-23
66
55
46
42
116
-101
9
-15
-27
30
15
-54
-21
-10
-7
-8
16
63
46
48
91
-47
37
20
-51
73
42
-44
-1
27
50
-32
-2
-29
117
14
97
-74
38
-30
3
-101
-23
4
-100
-36
48
30
16
-69
24
127
-22
-32
89
39
-37
66
39
8
-19
-78
30
-4
-65
-5
-1
-25
22
22
-84
-1
2
20
53
-1
11
41
42
43
57
43
-36
8
-6
7
-107
63
-110
-84
-2
-71
124
8
-36
66
-12
-34
-46
57
38
-20
-54
-52
8
-41
79
-18
67
20
98
120
-5
-35
8
50
-3
51
-6
-43
21
10
41
66
-127
67
54
41
-46
22
-2
58
1
-109
-58
54
33
-23
-26
-79
-50
-79
-47
39
109
-46
-20
-37
-122
-4
-1
-100
-106
127
17
45
-7
5
20
-106
-19
-7
-24
-58
24
36
18
19
-48
15
24
-5
-56
41
13
57
12
-44
44
-67
12
33
56
7
-7
8
13
-34
-39
-28
-53
-83
-56
0
-53
-31
-68
-7
115
-33
-41
-83
-2
43
-5
38
60
73
28
91
19
23
84
-12
0
-10
-20
-5
68
11
-76
37
43
43
56
-58
28
-91
-94
-41
-53
-70
57
-23
-41
-17
21
-42
-16
54
-2
50
-33
-35
75
73
-39
-69
-49
53
-127
18
-30
-97
60
-4
26
83
-23
27
-45
-8
54
55
89
-11
80
72
-25
-32
-49
-18
48
-53
13
94
-36
-97
-3
-42
0
-67
5
94
33
-11
1
-23
-89
-46
11
-16
-21
94
40
-7
9
-50
-17
44
65
57
43
-43
42
11
-127
-1
-49
-43
-4
24
58
-22
-29
55
18
39
-34
83
-27
-3
-43
-85
17
-44
50
108
102
-82
-55
54
43
65
36
-5
21
78
46
-10
-46
65
-49
3
11
52
46
1
34
29
43
-37
-32
-66
-65
-85
-3
70
-5
48
0
-4
-47
-99
-64
29
-12
1
72
36
-6
-93
42
-25
-41
23
-16
-32
-23
-1
-17
-48
37
-27
77
-25
-91
-1
30
-4
41
-32
-53
-79
-25
-8
86
26
24
48
-25
-7
14
-13
43
-22
46
19
-31
24
-3
11
-38
127
16
1
50
13
14
3
-47
-37
-22
-6
-14
50
-60
25
-36
-4
-70
-6
-25
-47
24
-8
52
40
48
-11
14
-39
-54
35
-66
-23
5
8
-41
8
-51
-24
16
3
16
-54
-18
-53
30
-8
-22
-18
35
-32
20
69
-10
-16
-28
11
36
-11
-18
-18
-14
44
-92
-15
6
-6
-51
10
72
3
-43
-22
100
-5
-60
127
-49
26
30
65
-17
42
25
-13
-26
5
-23
7
-66
-8
-11
-7
-30
81
63
-28
28
67
75
-39
70
-30
-127
-43
-45
70
-74
-117
-28
-36
-41
15
-33
-96
-61
2
11
26
-33
-2
107
-59
-45
-24
29
36
-5
16
24
-1
-76
76
63
1
-3
-32
82
15
22
-57
97
52
-15
64
-15
42
54
29
19
120
-13
-67
-64
-13
1
26
-11
-14
17
-37
-20
68
80
85
15
-10
0
1
-32
2
-63
127
-3
33
9
-2
17
37
65
-61
13
72
-65
92
52
-49
16
-4
-4
-18
-15
-18
46
23
-42
-43
-9
-37
113
-53
-17
-8
-38
-52
-22
-45
-63
-36
-92
30
-66
42
-80
-35
17
-22
-7
107
-107
29
-72
-48
-40
8
4
-15
37
51
71
35
-15
-74
84
16
-30
7
-12
-62
34
1
-16
52
61
29
29
8
-6
-24
-42
-100
-59
82
14
5
-101
86
41
-26
30
-48
26
-25
127
5
-4
31
39
-20
54
-35
11
68
6
-9
-3
24
12
-81
2
-49
-15
-25
80
-54
24
26
-4
-19
-52
-18
22
52
2
-2
-39
-86
6
9
-55
6
-14
-20
-14
18
59
-31
-52
-32
54
52
24
-14
-12
2
-5
-51
13
20
52
-58
23
81
82
-58
-34
75
35
-32
51
-68
-3
67
-13
31
-83
13
58
-43
-57
48
-22
-2
-21
-73
25
62
127
64
28
67
30
69
86
38
-8
84
41
-3
-3
62
27
-3
31
-33
25
27
-19
61
63
-39
-14
-28
-54
-44
3
47
-13
-32
48
-25
46
-45
-2
-7
-37
-75
69
18
33
19
-25
-62
-13
-32
32
71
-3
18
-26
-13
5
-10
-71
70
-18
-102
-10
-39
32
57
8
8
-21
29
-27
-42
-2
-68
-5
9
-40
-18
81
-28
-10
7
44
-78
2
-39
-38
-11
-60
8
18
-127
-54
71
9
0
-8
24
59
16
-41
-11
-26
6
-1
-12
67
-19
-30
6
56
32
-66
-53
35
8
5
-43
-17
13
8
-43
10
5
77
-8
-5
-6
2
-45
-16
39
70
-21
-32
15
30
-4
40
30
37
82
59
16
-82
-31
14
64
36
-62
-78
-34
-22
38
-2
-101
-53
5
-26
30
89
-52
-15
7
-58
-127
3
-33
41
67
25
54
-17
32
28
-98
23
1
41
-70
104
6
90
-25
4
8
-26
49
-53
7
24
19
53
56
42
-91
-49
35
-16
26
-37
52
-27
-27
-21
-28
15
53
19
-15
1
-17
-32
35
117
52
68
114
-6
55
-65
44
-78
-127
-74
-36
-6
81
-32
66
-29
-49
19
-34
14
19
27
1
-18
-34
4
44
71
22
-29
3
-51
-26
37
91
67
-91
-2
-50
40
7
-98
-48
17
26
-86
-117
60
83
78
-107
-61
44
63
-58
-5
7
-30
38
39
25
58
26
-87
-40
-4
-30
-47
73
100
99
-30
12
-102
-92
-37
56
24
-90
-107
-80
-43
29
-56
-74
-127
-100
-56
-37
5
38
-26
-63
20
-117
30
-70
-9
-12
5
79
-33
-44
-69
59
13
16
-63
-113
30
36
18
39
-8
-80
105
-43
-41
27
-20
7
10
-24
-8
-37
42
-51
28
-2
41
-25
-63
2
-37
-11
20
1
29
22
28
51
79
96
76
-26
-25
-59
-11
40
7
24
-20
-11
21
-50
-40
10
62
-30
-127
26
89
-23
47
4
-2
-10
-66
72
-31
65
64
1
-89
110
-62
-37
-18
96
43
-31
71
26
24
63
1
1
-8
40
-14
-77
-16
-50
-20
-17
19
1
85
39
-45
20
28
87
76
-8
52
-25
-3
6
-56
-27
-81
18
-39
96
14
8
-34
11
43
25
-6
-32
49
2
-15
50
18
48
-104
-82
-36
-74
-127
1
97
-55
75
-71
-66
-9
101
-37
-56
-31
-39
12
-5
-40
-3
29
-6
-2
49
40
30
41
-3
-15
-70
14
-43
7
-23
42
-21
-5
-11
13
-30
-30
-11
0
27
-58
68
-39
47
-16
-44
-79
17
44
68
-50
-8
-69
29
-17
-89
-32
-31
-109
-104
15
-13
-49
-127
6
-113
-49
-47
-35
-51
0
54
10
-61
61
-84
-42
16
51
49
-52
-85
-42
124
23
-40
19
-40
68
-16
-50
-13
32
-85
51
2
-52
-59
-47
43
6
-43
20
27
-76
-27
-3
-49
-85
12
33
3
57
-10
91
35
127
-24
37
-17
-54
-29
99
97
-15
-46
48
38
100
29
49
114
41
-35
19
-16
-2
-64
13
39
45
101
3
56
49
-49
-125
101
24
37
-49
20
46
-26
26
-24
-52
-92
38
5
-61
16
47
77
-49
78
-75
-80
-4
85
15
17
-5
51
-91
-15
43
62
25
42
-3
21
43
63
-82
3
-48
51
-18
-65
-65
39
-31
-43
19
-7
-21
46
33
18
-17
0
-34
-60
-42
58
63
-127
-45
-53
-3
55
14
18
-29
-55
-51
-17
59
-58
17
12
1
-1
27
9
-2
-43
104
0
36
-12
-15
-53
-30
20
-87
70
26
38
-65
-28
29
-13
-101
16
27
-90
120
-26
-31
80
-51
72
-58
15
38
27
-74
-127
-18
101
59
42
-84
-40
8
53
-10
-9
30
5
-5
-84
-6
11
77
33
-40
-21
69
-86
1
-29
-5
26
48
78
38
110
114
-9
-99
-16
-27
-40
-8
-26
-56
-1
-1
-2
-75
-65
-35
28
-22
40
50
-47
-45
-27
-42
-27
-19
-60
21
-32
-34
-10
-28
-60
51
15
-46
40
-40
-20
35
-13
-59
33
-40
17
14
-25
-8
47
6
-3
-32
-11
23
-27
-127
-17
12
0
-32
3
23
-39
28
32
11
-9
1
1
-5
14
-3
28
9
-48
-14
-5
12
36
6
-13
32
10
-59
98
73
-98
57
4
40
89
20
-79
-25
24
-51
8
63
75
17
16
-40
0
36
-107
74
17
-80
-87
108
48
-26
9
16
14
-49
5
15
-7
-28
13
-63
82
-2
25
8
-47
-16
-30
26
127
-73
13
-61
21
-7
-20
-76
-54
-59
72
2
-18
65
-66
-123
-42
-23
-14
-19
-63
-39
27
36
66
-21
40
-73
-20
-20
-73
-4
14
-44
16
-29
109
73
10
35
55
73
81
77
37
-32
-96
2
6
31
37
-30
32
15
1
32
-53
10
40
76
-21
-27
46
-34
104
-67
3
92
82
91
53
11
50
68
-127
-57
-45
-25
-37
-10
65
9
-70
68
34
-15
-50
49
-27
-30
41
-34
9
-79
-5
-53
49
-7
-19
-21
2
-34
15
-50
70
-79
-12
-30
22
44
-88
7
-48
20
-7
-2
1
-127
-38
38
-87
-65
95
-9
-13
89
38
-18
84
44
-37
33
-79
62
2
73
-19
-7
-61
-6
-82
54
76
36
-48
16
-29
16
-18
-48
66
21
-35
23
-14
-38
-26
-57
-20
-13
-8
10
92
14
14
25
66
28
-36
-102
-33
-16
-59
59
90
-24
-19
64
46
16
-98
-19
30
-10
-110
41
18
-77
-46
-22
-49
-35
42
52
-65
47
56
-42
-2
117
58
-6
-105
-104
-26
-29
11
-35
-59
127
43
17
-69
25
-11
-20
-47
-91
-18
4
68
0
62
-28
19
-38
-54
28
-11
-49
-31
-69
-30
94
-12
10
62
45
-30
74
-127
3
1
-1
11
-57
-17
36
-24
2
52
36
-31
-21
89
-11
-45
-26
-40
-104
-64
-31
29
59
84
-63
76
-13
53
-18
76
-29
-4
-44
48
-51
95
-3
-4
57
-18
-15
80
-80
-96
-118
-83
-54
-81
-19
-4
10
-49
106
18
-107
-11
-39
5
58
-41
-85
48
-33
73
-87
-51
-47
64
7
-98
-27
-8
-20
-26
33
-11
-3
8
3
-2
-38
17
21
1
-14
-3
-30
-36
89
-2
-30
12
-4
-1
-55
-18
8
47
-15
-3
-86
-32
-41
0
-54
-20
17
19
13
88
56
-30
-65
68
-127
-38
-91
9
41
-36
97
35
10
-62
49
-12
5
-22
-17
21
-10
29
-21
-34
21
-63
-40
6
77
37
5
78
-52
33
26
-28
57
-38
15
-99
-91
23
61
66
-1
6
-12
-35
-83
-31
11
-2
-43
-51
24
-56
52
37
-15
-30
-127
70
-2
19
-7
-57
-31
-47
-64
-62
23
-34
-4
9
-56
-65
19
61
65
26
-12
81
6
-32
68
20
-13
26
65
-6
73
-72
-2
30
-12
26
70
7
28
47
-1
-24
21
-38
1
-29
-53
48
25
-15
15
44
-52
-32
3
-37
31
-45
31
127
-39
-4
71
-113
-61
-26
-47
-86
-30
15
-42
-56
66
-68
-26
-12
90
67
52
-30
-42
45
17
39
-20
-46
106
58
-73
-37
-62
-37
48
-37
-44
-33
-118
-24
-9
74
-17
-2
-97
-26
-46
-53
45
-14
-105
10
44
-92
0
-34
34
5
-11
26
39
-105
7
37
-61
2
-80
-30
-48
-49
17
10
-62
10
-53
23
7
27
33
47
-87
62
-55
-127
-3
25
-11
29
-26
10
-41
-4
39
14
85
23
18
-1
96
-60
-30
8
-23
35
-122
34
84
5
-20
-22
-58
-74
7
64
32
-14
-6
60
3
56
12
51
-24
15
-52
-16
78
60
-63
55
-19
-45
61
71
25
-70
35
-30
-26
4
4
13
52
1
27
7
-68
-35
-7
-22
27
10
68
-20
-22
-5
-5
95
-10
-43
37
3
-12
-18
-9
52
44
-42
-40
58
66
-4
37
-61
4
-40
-17
-64
24
38
58
33
-13
52
127
-34
-48
14
-30
28
62
41
16
1
18
8
-39
30
6
8
0
20
-59
23
40
5
55
-10
45
-39
-37
-53
27
54
79
34
38
127
-104
-37
-3
37
10
-24
65
-34
-95
5
14
-20
-12
23
32
-44
59
0
-43
25
15
-21
-30
15
29
-35
71
43
0
-73
-24
-21
59
-22
91
53
41
41
24
12
-45
72
4
-28
39
23
7
7
19
32
-44
31
10
-54
-40
59
-8
-4
26
-8
-47
-49
-15
1
-52
27
23
34
5
80
-45
24
-4
-25
-26
-37
22
21
-51
-55
26
-31
-42
8
-35
7
-5
22
-18
-27
13
56
3
-54
-26
-12
-11
37
-50
-22
35
75
2
1
26
38
-7
-48
-41
15
-19
-47
47
14
16
-50
-40
127
64
-52
124
-20
15
29
-30
-3
18
-30
-15
15
-4
62
70
-23
63
36
-35
22
-76
-6
53
-86
-11
14
74
-79
-35
-31
-20
-3
-89
4
-33
-33
-76
29
30
17
-62
-14
25
20
7
-81
51
63
29
57
3
-76
3
57
7
-31
-3
-23
-43
-55
57
0
-4
-15
-32
7
25
-36
-67
24
-6
33
46
13
-79
-84
72
-26
39
-21
-15
127
20
-32
-35
-105
-71
57
-75
56
62
-109
-25
-31
-58
13
3
6
-47
-62
-4
-97
-127
-23
-119
-21
-47
-8
-4
46
-10
-13
34
12
-5
72
7
26
13
13
38
31
-19
12
-4
-38
50
-32
-108
-4
-18
-35
-47
-49
14
-114
-21
90
-75
26
-25
-20
7
48
-104
-3
-30
104
41
12
41
83
15
-42
5
-21
-17
-1
29
29
-29
-18
0
0
-127
-71
43
39
41
47
-19
42
35
59
-20
0
5
-14
-71
-16
11
8
-23
-56
-21
-51
6
-33
-23
-12
78
37
-15
55
-43
-19
-32
92
-62
-21
2
50
43
-30
69
7
6
-1
-5
-35
31
48
-14
10
5
-19
-57
0
-10
-24
54
42
38
-22
-16
63
29
40
-61
-21
-42
42
1
4
72
-26
5
-44
0
-23
-7
-127
60
-32
74
-12
-42
-5
-80
-3
58
-83
-1
-66
27
-20
-51
6
-4
35
-37
-23
-65
-42
88
41
24
-14
-65
57
-16
-94
-33
14
-15
-58
-39
-23
-10
-35
-6
26
-50
-57
-20
51
-48
-19
4
-17
-11
-35
-5
-30
42
82
-36
-50
71
53
-5
-1
-8
-20
-46
74
27
18
-41
72
45
-14
2
-42
60
66
-127
63
42
85
-43
23
50
77
19
-51
71
31
-76
-30
14
53
-9
15
80
-39
-108
-66
-8
12
-29
-48
34
7
-103
-15
-11
-13
-9
4
-2
-47
95
-120
-96
-28
6
40
-45
28
-7
-36
85
18
-63
-9
-13
39
-74
3
49
