6439
-760
8340
-5368
3917
2714
3611
3421
647
-2808
-4042
1014
2972
4832
2860
1303
-887
-6343
2039
383
-6987
1767
-3495
1800
-3099
2824
-1455
-7310
1420
-3027
1133
-2046
3843
-1059
-1471
-2136
2540
3855
1799
-3064
262
-368
-244
2884
-3810
1946
-3431
2097
6015
4363
8610
-6569
3294
-2590
1163
1890
-3360
1973
3763
49
-3251
1280
1450
870
4815
-2700
-1486
-5199
3171
-2302
-5327
3371
2212
-976
-1933
-1903
-5053
4210
-3831
6900
4954
2695
-44
5095
-7351
-13593
-1982
-2291
906
-1594
-1959
1014
825
-2112
-3455
746
-32
188
1917
5904
1985
-129
-695
2255
4151
-215
148
6167
3729
1327
1699
4433
-1046
-808
-1117
1830
-5702
-2551
-6361
6047
2901
-563
-3131
-1518
-4147
-2565
1300
-5573
-3046
1005
4984
769
340
-1808
9422
143
3112
-634
3745
2238
-1897
2236
-1836
1321
1480
1929
1622
-3236
-6028
1642
-1657
-60
-3510
-3266
721
2995
1393
-570
-1103
-3211
6130
5043
-785
-10498
-8369
-4342
799
3533
2179
4024
-2691
-5664
-6043
3310
-5125
-724
1392
-2583
612
1128
3535
-2801
6376
1394
3889
3415
2892
1654
-405
-1595
-618
2640
6956
-5139
2691
2037
-4480
7439
-2681
1081
-2107
-2565
-2328
6
2290
4364
4347
-6745
-733
-903
820
-1498
-194
-4108
-796
-2728
4644
-1321
2340
2981
-851
4912
6280
-7560
4330
-3338
2605
2619
835
-1092
6168
1703
-1976
3992
-749
-2960
-1556
-3124
-420
1457
-507
-2517
6329
-2462
-1332
-979
-4578
-369
-4949
3687
4564
-3119
3372
54
1710
-896
