27
127
21
-38
-75
29
-47
47
75
47
-20
-33
18
17
-94
-60
-11
-6
-28
-25
-66
22
-32
2
-28
45
1
12
43
-41
-38
43
59
-6
2
-90
14
-1
-13
86
-37
13
-82
-111
9
-3
2
61
0
75
-30
7
17
-78
-21
46
-25
-84
15
50
-1
20
-17
-9
-13
-14
34
-21
-20
-11
33
-72
13
-77
-18
-15
-69
6
25
24
-52
30
24
-21
-9
15
33
-57
54
39
11
-61
24
69
-20
-10
89
-127
40
1
-14
-10
-53
-78
50
6
52
-56
30
-20
-30
-1
-50
-7
-19
-2
-80
19
58
-51
-61
-15
-67
10
-87
-44
-27
8
-13
-13
-127
36
-4
-53
5
47
11
52
68
2
-19
9
-7
38
-47
-43
12
95
30
0
2
-6
62
5
38
-67
2
-26
-3
42
-21
-42
-3
31
-13
-21
-2
6
-44
3
19
7
-20
-15
-9
53
10
-8
-16
-11
42
-117
-10
-22
-36
17
-110
-31
-2
29
2
-3
-74
16
10
42
6
-7
23
-42
17
-127
30
93
58
52
65
75
-37
7
-25
-5
43
24
-59
73
28
-35
-89
56
-63
110
-32
-1
24
-105
-15
-11
-26
34
63
35
-27
1
106
-86
21
-71
-29
69
21
39
25
-96
-58
55
67
-11
37
29
26
39
-38
32
35
44
67
15
21
1
-36
22
-7
-16
15
-8
96
9
49
-56
-127
-30
21
-63
51
-1
-20
38
37
107
-53
-36
69
16
-92
-16
-6
43
71
13
-21
39
20
-7
-53
16
-17
-78
-98
-56
-78
-53
18
-9
38
-3
7
-48
-55
-37
12
2
23
-13
29
125
-16
29
1
8
-12
31
62
-21
26
-12
87
-57
10
-25
-55
-14
-26
-78
39
10
-56
-25
29
-88
42
18
-52
-7
105
-31
25
107
-6
-70
-88
67
5
19
-63
-59
5
-127
44
52
40
10
-15
-32
-54
21
-15
42
34
37
-110
72
-92
9
40
39
-27
-60
35
31
52
-54
-57
-67
-16
0
87
31
-35
77
-19
-106
-48
10
-4
-68
64
-1
-94
126
-34
67
30
82
-9
-21
19
-62
-53
-42
-43
25
-47
-28
-6
-11
92
16
-70
26
-48
73
-47
-30
96
84
-19
-9
59
9
-73
-48
-11
-53
-42
51
-74
3
28
-46
22
91
45
-28
45
48
-93
127
36
62
18
-30
21
68
-31
40
-42
54
-11
-70
42
-72
-24
38
-29
35
23
20
5
-47
-79
-1
59
-29
-23
-4
52
-32
-28
-48
-34
-37
2
-13
-29
-127
-20
55
-5
-9
-28
-15
-8
5
2
-63
-14
73
58
41
-36
-61
-26
-44
1
35
-75
-29
50
11
42
46
-29
-70
106
-48
-35
45
47
-2
-74
34
31
27
-8
12
-23
-56
0
-117
-48
-61
29
59
26
83
-38
-82
-46
43
-127
83
-17
-58
17
-10
10
42
-20
-18
-68
-13
-54
46
9
80
-55
-31
-6
2
127
26
-27
-59
71
59
-43
-30
-34
-126
51
126
-20
-11
58
113
27
-15
55
94
56
28
-19
-56
29
75
2
53
-90
123
-91
-27
-23
-27
15
44
15
-63
127
-51
31
-41
95
-52
-4
8
-7
6
-86
14
24
-97
-90
107
-70
-71
48
2
-25
-30
-67
25
34
-17
2
-55
-24
-48
4
-37
71
6
54
76
-38
-84
-12
76
24
40
11
-28
-41
10
-110
32
-45
-56
1
24
-74
52
0
39
-61
-1
111
-67
-76
63
-1
-1
47
-45
-43
6
9
-48
8
-6
9
-3
10
62
65
41
50
76
-9
-57
48
-55
-29
57
23
16
-60
-1
-22
-93
-5
78
127
-31
51
36
-40
-48
-24
70
47
81
0
60
-39
14
39
-15
-2
22
60
25
20
-39
-56
34
10
48
81
-127
-8
-7
-22
-64
-25
28
-7
-25
-8
-38
-106
55
41
-49
-58
39
30
-25
-32
-34
-41
44
73
5
49
-47
-49
45
-45
1
7
38
0
19
55
-8
6
41
-15
-66
-6
-42
2
-41
-43
-38
100
1
-21
-57
57
-51
91
46
-63
-13
-14
-70
-41
39
-80
-104
50
81
-21
18
7
-22
69
-26
22
14
-51
78
92
-65
-3
59
20
34
-9
7
118
78
29
80
-21
23
3
-127
-11
-40
-40
-24
108
45
21
87
53
-97
106
-54
-39
61
-41
27
37
86
21
25
-14
41
-34
40
87
7
11
54
-3
24
-112
-54
7
-66
-40
-19
-45
51
38
54
-43
14
-8
127
40
43
-79
23
-8
49
16
79
48
48
-92
31
27
3
38
66
15
-21
-69
5
-17
56
40
64
-14
106
-50
-98
79
104
-60
26
-14
-9
0
33
73
4
4
47
15
-20
-79
-1
61
10
80
45
-55
-85
-40
-77
18
35
-23
-16
21
43
-31
55
42
-91
51
127
-8
-31
54
80
38
39
6
28
41
-8
-36
89
-41
-26
24
48
-22
44
-76
-8
7
44
-52
-18
106
-72
98
-63
41
1
-12
-40
-40
61
74
-61
39
37
-33
-37
-42
-3
5
12
87
10
-29
115
-5
-56
-89
-107
94
-18
12
39
-43
-24
-10
-126
2
-21
52
-55
5
-57
-63
-65
-110
45
-12
-14
127
-1
-43
4
-45
33
-87
16
-42
47
-49
-66
-40
44
-104
-64
-21
-91
-96
-110
27
-24
39
-64
-8
1
-58
-44
50
36
-43
-96
-7
47
77
30
36
-5
-10
80
74
-32
-75
-100
-54
-12
-34
19
57
-89
21
-35
-60
-127
-110
50
41
2
-11
-81
-79
48
-38
-29
111
29
41
-55
42
26
23
-30
120
-37
19
-24
16
-55
42
48
-63
20
-84
98
-12
-3
44
40
79
-80
3
-6
47
23
68
-30
17
14
-44
-43
-44
25
-25
-7
14
90
2
57
54
16
-11
5
-38
-25
5
3
92
71
-23
5
0
-16
46
-44
-11
-64
27
5
-5
9
0
12
16
-82
-50
-58
-20
74
60
6
63
44
82
16
34
-47
19
-43
7
-37
-24
18
20
-91
12
51
23
-127
70
-5
77
35
36
-57
-10
16
37
5
77
22
53
58
18
101
1
-4
-52
-11
29
-7
30
-8
14
11
0
41
56
67
42
-48
-2
-45
-19
-43
7
18
-33
-14
95
34
52
-29
-27
72
-18
-11
-58
54
-5
102
-53
9
127
-42
14
13
35
9
-10
38
40
-93
37
31
11
-43
77
32
-11
63
-31
-9
105
-60
-75
20
-25
37
-97
85
-100
-87
-69
-56
-66
-48
-37
-17
7
-55
-101
108
46
81
34
31
47
63
-69
-62
-53
17
-44
39
5
-14
-53
85
-127
15
-47
49
22
-25
-8
-15
-5
59
31
32
-11
32
-44
-84
31
98
-52
-32
26
-26
4
104
47
52
1
10
60
-9
51
-11
-23
-34
-9
-22
16
-13
31
21
18
-43
81
60
33
13
81
-21
5
57
-27
-48
-54
105
80
12
15
-44
-36
-23
24
11
68
68
-12
77
17
22
-47
70
-32
-6
-90
127
-84
28
50
-4
2
-11
23
-27
-17
-22
9
-53
-2
-35
28
46
29
50
46
-42
-2
52
-25
-17
-27
127
-14
-18
-3
43
-52
-15
-6
-97
36
8
-15
-61
-2
-23
-3
-15
30
43
-1
66
-11
6
-99
54
36
58
9
25
43
31
27
25
-12
-28
23
-38
-56
-34
21
27
-42
-38
16
27
-14
-20
8
84
38
36
-73
60
-6
-52
17
11
63
101
-72
26
4
66
81
-22
-59
29
15
66
82
33
58
-5
-76
64
107
-19
-10
104
-61
5
45
31
89
-68
-43
101
104
-127
74
-44
-96
-27
-3
-13
-17
41
42
110
-24
22
121
-3
-39
-4
-13
-38
16
22
7
-55
-13
24
47
54
55
-2
26
81
-42
-32
-27
-45
78
67
-43
25
36
-31
-12
-58
-34
-20
22
29
39
-39
10
39
25
48
36
-58
3
20
-127
19
-66
-24
38
-116
45
-38
-52
-27
-12
62
36
-25
-78
-12
-16
-42
22
18
-13
14
-26
23
23
50
32
24
-12
-25
-27
47
-25
-41
-49
70
12
27
85
5
-58
-54
96
-32
4
34
-27
-127
-50
-19
59
78
21
34
48
-89
-20
74
-31
-42
-27
-4
-78
-73
-45
60
118
20
12
-9
-55
-11
46
13
14
45
-41
-33
49
1
-79
32
29
-34
-51
-88
73
-31
72
-55
88
-45
-4
17
-87
-24
33
-40
34
-18
-48
-25
15
41
74
-23
89
28
-1
-36
62
27
-91
12
-17
60
6
87
-13
9
-45
-81
8
81
54
-21
36
-47
-61
-70
-50
63
7
-26
-87
-57
-3
60
45
-2
-51
5
46
-84
25
-63
0
-3
-72
78
73
-27
-3
-1
71
-25
-80
-33
40
127
40
80
33
-13
13
10
-43
-84
26
9
61
73
-78
20
36
-28
48
-31
-45
-43
18
-73
45
23
57
127
-67
27
45
-38
-1
68
-32
61
6
-17
-2
61
29
-9
-15
-52
-13
14
-47
-10
-52
44
6
18
15
13
19
-57
-55
55
-26
20
23
-100
37
43
-26
-20
75
-34
-22
-45
58
-27
-30
86
-10
-47
-63
-34
-63
-48
32
-47
17
39
2
14
-41
-35
-48
3
54
58
-15
-80
-64
45
-114
44
-93
94
13
13
-127
55
-47
-10
-61
29
72
-63
66
-34
59
-35
-69
-63
-28
-3
-65
-21
-39
-1
-1
-66
-23
-36
-43
-11
67
-109
-20
31
-30
-10
-22
-52
-100
25
-15
72
-53
-8
71
105
-7
17
-53
-5
52
92
-117
92
34
100
-78
-32
2
47
-127
-26
52
28
60
60
-44
-113
74
-40
51
3
-16
48
71
47
58
-38
59
-61
-53
41
-42
9
85
96
3
4
54
119
-19
-1
68
27
58
-54
63
-10
10
42
-46
-13
-106
-51
-91
-71
7
-127
11
-46
-116
12
-51
82
-89
-40
-8
-11
25
-64
107
-38
11
38
67
-112
70
-28
1
-80
103
63
36
77
6
2
-48
-45
-15
3
-42
-8
-8
9
-19
20
5
-45
27
-53
1
-21
18
17
40
-70
-124
-65
13
125
-112
-8
9
-10
73
10
-92
-85
-10
-42
79
11
-17
18
27
10
5
-95
-19
-43
-3
-77
1
-23
-13
-21
1
-99
-127
37
-23
39
-50
-33
-101
-44
-49
-16
-27
-35
17
-21
14
-2
32
-24
-92
33
-78
-3
-76
-55
-59
8
-11
46
20
-10
-30
75
-37
-71
-30
-62
9
-16
-57
-6
-65
-83
27
45
32
-2
-52
-7
25
0
45
-54
-57
45
-118
127
50
103
1
-17
-83
49
-15
43
0
21
-22
2
-5
76
-4
-126
-14
16
1
-55
32
16
-44
-52
32
-89
31
-26
18
34
-48
46
56
-35
16
-1
40
-44
-18
-39
32
-14
-42
19
-23
31
-6
74
-18
-51
67
54
-13
19
24
-48
100
88
-40
90
-37
35
-1
56
-115
7
30
109
-90
37
-3
-21
50
43
-69
-28
-4
127
-60
26
45
-93
11
54
-6
40
-75
-34
-72
-21
-5
-34
60
53
-15
54
111
4
63
-42
76
45
-37
-56
32
25
-11
23
63
-44
-78
36
56
-16
5
13
9
-75
38
103
-26
16
21
-89
-40
-11
18
-24
-2
-3
-3
-46
10
72
-22
75
-27
-4
-20
-83
-127
55
36
-43
-7
45
-42
10
32
-72
19
57
12
31
-117
-51
0
-32
3
65
-36
62
-42
-43
-58
2
18
58
62
64
93
-48
-95
-9
42
58
-36
39
-17
12
79
-32
-35
-85
9
-13
-93
16
36
-64
-74
-92
-48
-55
18
-34
-49
45
29
12
-72
52
-59
-10
11
81
18
-127
9
17
-12
-70
56
60
5
-64
3
-92
4
27
-19
50
-51
86
-48
117
-113
-35
34
-56
-16
-66
-15
-35
-17
-10
22
-64
-35
7
31
-54
-20
-28
-49
-94
36
48
78
-13
20
5
0
42
-10
-7
-8
-8
-63
45
5
65
1
63
70
-72
2
-46
-10
40
-28
-17
-108
-34
28
75
69
-14
-22
7
-67
-16
-103
32
-49
13
40
-29
-59
-127
-20
-69
-126
95
-106
-1
-45
30
15
-94
-2
8
54
-27
23
-29
79
-63
28
-2
1
-83
-4
5
-1
-29
36
10
33
-19
-2
3
-14
-27
19
30
-22
67
56
8
127
-37
-44
-54
-10
25
35
74
-54
-6
-29
-82
-63
-25
-91
-29
-52
32
20
32
-93
1
78
26
-52
-17
-84
-45
-49
14
-23
14
-5
25
33
49
29
28
-71
-49
-50
21
-80
-40
-32
-62
-16
-47
-16
-43
48
9
-42
-73
10
-28
-39
70
-24
4
-46
-29
-3
75
2
29
-7
-14
50
-45
-5
8
-21
-60
-7
-42
25
-127
-11
-30
42
-50
-74
-95
-51
52
-30
-40
-9
-84
79
-11
-18
-10
-12
43
18
-23
-51
-11
-2
-9
20
-46
10
33
-77
27
-37
28
44
35
34
-105
-28
11
-33
5
21
-49
63
-18
-27
3
-4
62
-51
-105
71
2
64
-4
33
-12
15
127
50
-27
-44
20
-20
-6
-25
-29
-35
-4
34
-12
14
11
-1
-3
17
-6
-45
118
-8
-3
-57
-58
-31
-46
41
-28
-50
-63
-19
-26
-17
2
-21
2
28
-47
40
22
-15
-11
34
127
27
22
-42
1
1
-6
30
-4
-37
48
49
22
3
-6
-62
-86
26
-5
13
13
1
39
2
5
0
15
12
-18
23
-4
-13
-5
-44
27
67
-38
-88
-1
3
-34
-42
39
-20
11
23
-16
3
57
-5
14
-18
22
-43
17
-39
-20
-43
40
-5
0
-35
46
-86
10
29
11
-53
70
-95
-17
-33
3
6
-12
48
-56
-44
16
40
5
4
-92
30
-42
45
-54
13
-56
36
7
2
-36
27
75
74
85
-62
-21
127
-60
54
-48
28
-46
-17
-34
-44
1
-50
33
56
44
41
-50
23
5
104
57
42
-127
-45
-12
-6
11
-67
13
-83
37
-40
0
-24
18
-21
35
-59
-27
39
18
7
6
-14
-38
104
-60
-1
-36
32
21
-45
-14
55
93
-83
-38
-36
-34
-34
7
69
60
-13
61
-24
-52
31
-62
-2
-41
97
-50
20
-26
39
45
-97
53
-10
-15
-4
26
0
24
35
-32
-19
12
-12
-6
6
10
5
-35
-11
-2
-17
-77
22
29
-23
76
-24
13
-51
-24
-39
13
7
51
18
-20
-27
25
-6
-14
73
-5
-21
58
62
25
-127
16
-20
11
32
4
-41
-60
31
18
-67
14
28
-8
42
-5
-5
5
23
-17
21
-72
-6
39
-5
22
77
-11
15
-27
-24
-12
-37
-26
-53
73
-30
32
98
-39
112
-84
-80
5
15
-40
30
-9
27
23
-9
-17
3
-7
-48
127
30
-21
-13
-38
-11
15
-9
9
-28
-60
1
-48
-60
-34
-10
-10
-22
-63
-35
-73
-69
-27
-27
-70
10
-112
-38
-16
-45
-19
10
-41
127
35
60
-10
-23
15
13
7
33
44
-3
-17
65
0
-47
8
-19
72
86
-6
-37
25
47
-11
-4
-46
70
-41
22
27
100
-28
-60
-17
-22
-36
-51
22
8
-11
-70
7
-16
33
-25
16
-10
-70
-43
86
-67
-11
65
18
46
-41
28
26
-13
58
-113
-38
80
10
71
88
-67
-127
-53
9
-1
-9
59
-32
51
6
77
-38
83
-32
17
-25
16
4
86
89
-44
-84
65
-113
69
-51
65
6
53
-19
28
46
-77
3
-14
22
-78
62
-24
-2
24
-34
-24
26
11
14
45
41
-22
79
-5
4
17
-28
110
-35
-5
79
-20
6
67
3
65
16
24
-9
-42
42
-14
-18
35
-16
39
-51
-72
74
-102
23
-46
81
18
2
-54
73
-5
-127
-40
35
51
-27
48
-23
7
30
52
-26
-73
7
65
20
-61
-82
-28
23
-43
9
-51
45
11
18
-10
50
-94
41
2
-11
-39
37
-96
-56
20
18
57
-71
-22
43
22
73
8
-29
-43
30
48
68
1
-5
-127
-22
40
-42
61
-72
14
25
18
-36
-3
-10
38
-121
53
7
51
-9
-93
113
-46
-40
-25
65
-35
6
-101
100
-40
31
-72
16
113
106
-17
-57
-24
-126
102
-12
-77
116
-11
109
19
-42
38
-59
-64
-115
-7
-11
108
-8
-15
-103
-67
82
-26
-78
52
-20
35
106
27
-59
60
-7
85
-100
6
31
-5
-101
103
9
-71
-66
72
120
-83
-36
-42
10
-21
68
69
-15
-69
-64
3
46
81
-51
-88
127
-63
7
-42
61
100
-14
-91
70
-47
105
19
52
17
-15
-37
-82
-40
-57
-23
70
-32
-26
-14
-10
-42
78
-2
12
19
-2
45
12
45
2
49
-10
41
44
-7
-14
40
50
-59
-127
-16
24
24
-1
-53
62
16
-1
3
-14
5
9
-6
-29
-4
-44
-39
103
-68
3
-84
24
-67
-83
4
10
-47
-83
-32
-36
-69
14
15
-11
-56
2
58
6
67
-30
28
-69
-127
-13
-29
52
43
105
90
-38
53
50
-35
22
-1
-58
-24
-48
-47
8
69
18
-42
-7
-17
-58
-68
39
-107
-40
-8
-62
-13
-49
-74
58
14
2
25
-3
-12
-122
30
-22
-13
50
99
46
-78
-26
50
-2
-3
-5
9
72
10
29
73
46
12
3
4
-28
43
53
7
-35
-32
-1
55
44
23
-77
15
71
-56
-62
4
-64
127
-5
-31
-77
17
2
-10
-8
-16
-44
29
20
44
-30
-57
-21
-65
-61
-16
7
-19
-56
-20
79
-12
-30
-93
67
-54
58
13
-64
41
-24
-1
-32
-105
-17
-11
7
-17
-89
27
-50
-14
29
12
5
-24
4
-7
29
29
-29
3
-24
-2
-82
24
18
-29
-18
10
2
-24
81
-35
71
-48
-22
57
-39
-39
-20
-57
-22
-27
34
-33
-28
-5
4
11
-127
28
-3
26
-27
86
-36
13
-56
-40
56
-41
12
41
-68
-49
-6
-39
34
26
-5
-28
-24
36
9
76
0
65
68
30
20
-24
-49
88
-31
-10
10
-35
21
-60
-6
-47
20
9
2
74
4
36
-121
-127
-21
58
-39
32
15
-41
38
-52
-67
-14
-17
22
-10
-15
-64
45
-24
5
-32
-49
-20
6
-54
9
19
-23
20
10
30
-71
5
73
6
80
69
35
-63
25
48
-79
-27
44
53
77
72
-94
-62
-64
-24
93
-107
14
-77
34
12
16
-39
-104
-50
17
-60
31
-37
-77
13
29
-77
-46
33
18
-2
-13
-54
-72
2
-27
-17
-8
11
41
127
20
-20
-20
-18
-69
60
36
-23
-10
87
-4
5
-9
-49
-12
57
-120
73
-17
6
72
11
41
-21
13
-47
34
-25
49
58
42
93
-3
-32
55
-41
-21
16
-58
0
64
-4
-32
-17
-27
54
12
15
17
3
40
-20
-4
7
78
12
22
-24
5
48
-10
1
31
29
8
58
5
-46
-29
-4
57
4
5
-18
41
50
-9
5
18
-90
32
49
127
25
-9
-2
50
-54
-11
41
-38
-37
19
45
43
-44
24
-32
59
46
-60
-48
31
50
-53
-9
49
-43
53
-26
-36
-30
34
109
-6
-82
1
2
-43
78
46
19
18
-7
-48
-6
-32
-17
49
-21
2
18
-26
-25
-81
36
-107
-39
1
-5
-49
20
16
-5
-127
-65
54
-99
-47
-14
50
-11
11
89
26
18
-35
-50
3
3
25
9
-9
-79
23
33
-15
-127
-11
-29
-33
1
-44
22
-26
18
-12
-48
-91
-51
79
-57
9
1
-13
-30
-6
-49
30
10
6
36
11
-33
-9
-86
2
20
-76
-29
-90
20
-35
35
-23
15
-34
66
18
-55
-37
76
-31
-11
5
-31
55
17
40
16
14
15
-13
-7
-34
-71
-13
29
-2
127
-25
-47
-18
-26
-79
-24
-59
79
109
-102
-53
-80
-19
15
-62
56
101
-21
5
-19
-11
-1
-5
92
39
39
14
40
21
-38
-7
33
-14
-28
30
-21
-83
101
90
18
37
-36
17
37
51
117
24
-15
-20
-2
59
-92
-103
-38
-72
-16
56
64
127
-86
9
122
-71
-42
-10
5
39
-67
28
34
23
-11
7
51
22
-94
30
2
-53
23
28
-17
-103
-65
86
29
31
-1
-34
-64
-17
-107
19
-6
-33
-107
69
49
-62
23
37
46
52
-49
81
-6
33
-74
-54
-58
47
2
69
34
1
127
-38
-50
-112
27
-25
-112
-31
36
23
-4
29
-85
-30
21
-101
-48
11
-36
44
23
-25
-41
20
-37
-12
-13
4
47
-92
-12
47
27
19
94
-3
-53
7
8
74
65
14
81
-21
26
-34
-81
-61
-56
-65
86
13
-91
72
-4
68
99
-24
15
49
74
-1
79
7
91
19
40
-60
-48
-75
-76
-4
-47
-12
-2
-22
78
-34
4
67
10
-42
28
25
-127
-99
76
110
-55
-69
39
-11
11
9
101
8
1
7
7
98
-31
-72
-25
-27
-25
30
-46
-61
-39
-78
-32
-36
31
51
-69
11
10
37
78
-77
-77
8
-67
5
-20
68
-29
21
-57
8
-49
8
-11
-21
46
-80
57
-7
54
-16
-20
29
-11
76
-10
-7
-17
-53
108
77
-22
2
20
29
-40
17
-11
0
-11
30
127
23
-21
-29
66
-28
9
25
-31
-15
115
41
-18
-29
-34
-24
-89
-59
-2
-32
-15
66
-43
55
38
19
3
-66
35
45
-15
-79
-61
-56
20
83
-56
-34
-12
-20
52
-39
106
24
-17
55
-58
48
-28
65
-24
26
-103
-16
-11
60
-7
22
-83
38
-4
-15
-28
10
64
-25
16
51
-32
-35
-2
-11
-39
1
19
-23
-3
-48
21
5
-30
-40
-127
46
-11
54
3
31
37
4
-86
44
55
-42
-61
91
32
-47
93
-64
-21
-44
-71
75
-54
7
78
12
25
-103
-22
93
9
-102
95
48
-3
51
-9
23
68
-6
81
-55
-71
-45
-54
39
51
28
-16
44
-44
24
-42
29
-20
-58
127
14
-40
-91
-17
-81
-50
-4
1
41
38
75
-59
123
-49
28
57
-8
59
-67
-1
-23
-66
25
-75
-47
20
25
1
-4
42
-13
-15
9
24
-76
-71
45
-33
39
-14
-15
-4
-10
-54
3
-49
-38
1
25
19
32
-21
31
-12
7
8
36
-23
-15
21
-6
19
-51
-19
30
-28
1
33
30
2
51
-31
-7
7
-8
-100
-38
48
59
2
127
-37
6
29
75
12
21
-1
73
-20
-7
-36
30
2
64
-28
-5
39
-29
-31
-53
-78
31
17
-17
-61
-11
-52
29
76
26
16
32
-37
-26
-43
-62
24
-24
15
-21
-17
-8
8
-7
57
-93
-66
-127
50
16
6
2
49
-43
33
-19
-40
-69
-31
22
2
15
1
-44
-42
5
-19
-10
-73
-31
-62
29
-5
4
108
-71
49
60
127
0
-23
3
-54
-5
85
-48
17
-29
-21
94
-70
-19
-14
-23
-67
19
-19
47
-67
15
68
44
80
30
67
-65
56
-6
-12
-30
-47
0
2
-22
-41
35
5
-72
-8
-29
34
32
-53
85
-12
-6
22
65
58
56
10
43
-87
-73
-20
81
57
49
22
-24
49
43
92
-112
37
36
39
8
-58
53
-9
-3
-31
17
102
38
23
127
-114
-8
57
34
4
-60
-24
9
-48
-67
43
28
14
-79
14
45
-1
0
-80
71
18
76
23
0
5
87
40
-43
-23
-4
-2
-23
54
-79
-48
27
55
-40
-38
-80
-10
88
63
127
-51
-54
-18
-37
-35
-38
4
23
-36
-27
8
70
-15
15
-90
-10
-50
45
11
-53
-54
13
-33
76
27
29
-31
-40
-43
-72
-35
43
25
45
8
44
26
-1
-10
23
5
26
22
17
-8
-14
14
34
-66
-3
-91
-50
-57
-25
-4
31
5
-58
-43
-41
28
59
-88
-7
127
30
-5
84
-63
-95
60
105
-54
-37
-21
46
-9
-88
-28
53
-74
-12
3
-35
-15
48
19
0
-50
-11
-21
-19
29
-43
-25
-43
35
-28
11
86
-1
-28
-75
-6
-29
27
-18
-3
36
-66
8
-49
-50
8
63
-76
-10
-33
-22
82
-56
-14
-28
-31
-36
26
-28
-1
-72
-23
-50
-25
-24
-9
30
5
24
4
-33
43
-23
56
34
-58
37
-1
33
94
-28
-61
41
18
55
-26
112
-27
-102
-5
25
36
20
78
16
-5
85
63
-3
127
57
75
27
-15
58
49
-33
-3
102
-36
35
59
73
-58
-39
-27
-5
