-36
9
36
-51
60
-43
80
-12
-52
-23
-20
-61
9
62
19
3
7
13
1
-59
-5
-33
72
-12
1
29
46
7
36
10
52
9
27
20
12
-60
-15
-32
70
44
-53
-34
-34
-94
-100
-54
12
-14
81
24
-35
34
3
-127
48
-62
-58
-7
-12
-40
-69
-14
-59
-68
-22
-33
-107
44
14
-33
-9
20
111
80
9
26
23
-88
59
-2
-21
64
2
73
85
-27
-78
2
23
-10
-36
-89
37
6
6
18
16
8
49
30
34
-17
52
-3
85
17
-30
7
-3
29
-21
60
43
-45
65
-31
21
79
-127
-16
-9
-66
122
-31
-49
-11
-16
43
-98
63
-51
25
90
124
-122
-53
-104
34
-9
103
-2
-52
127
77
-34
53
-4
-57
77
54
-38
39
54
-95
58
20
-26
-74
9
-76
20
9
-87
47
-1
16
58
-93
-32
13
34
69
6
-54
-7
20
-30
-22
-19
117
109
5
-123
-25
-53
118
-6
12
-27
26
-126
-10
42
-24
12
14
-123
-14
34
14
81
-14
-60
-57
78
25
39
-32
-68
75
39
-94
29
-12
35
18
-3
113
13
-14
-72
28
34
3
38
-23
-42
54
38
8
92
29
57
-37
-19
-2
-2
51
41
77
25
0
-54
-113
17
-62
32
17
-18
-52
127
43
-65
-52
18
53
102
63
-54
37
24
97
-55
-34
-8
-69
-32
-62
-17
-71
-64
28
-49
34
-92
50
12
93
21
65
39
-13
8
-127
-61
-3
-12
34
52
-55
44
34
35
67
-47
113
45
-28
3
-40
88
32
94
58
-44
28
5
-85
24
24
-57
16
20
67
17
34
-15
23
-8
-2
-1
-25
98
-79
12
16
48
3
41
16
34
-46
-9
67
-77
-14
33
47
-18
99
-127
-6
14
24
-42
-26
12
28
1
57
14
-24
-34
-36
16
-39
69
17
-44
84
70
84
15
54
0
21
-5
104
-115
-56
10
-30
-4
-64
-2
-37
114
-22
31
39
48
23
100
-39
-30
46
41
-46
21
-11
23
20
-19
94
1
7
-56
46
-91
-6
-17
4
10
16
3
-47
-65
-101
-32
-4
-24
-14
18
21
29
74
-31
12
-5
-2
-96
-25
17
-35
10
-54
-104
21
-41
16
-84
16
-12
84
-7
-40
-100
-66
73
-12
0
87
76
-46
17
-27
127
51
127
70
-4
-32
-13
28
-27
-13
-3
-51
31
-33
61
-52
49
19
-93
-49
77
20
20
10
4
9
-59
-30
-64
26
-6
73
12
12
57
46
62
12
38
27
-60
38
56
4
69
2
13
89
14
61
35
-11
73
-1
-81
67
14
26
-2
-8
-47
-16
-26
-18
-35
-6
-16
10
2
-20
73
1
-32
-60
24
-90
79
23
41
21
0
39
-127
61
-40
-44
40
33
-10
-59
17
-1
-25
13
-80
-40
40
-5
-16
-82
27
-34
49
32
35
-7
-27
-7
-39
-50
31
0
113
46
-84
6
19
-94
36
-72
-28
-93
39
60
21
90
-89
32
-35
-37
127
91
44
-39
82
35
-9
-70
7
14
-34
-57
49
-25
-15
45
-54
-68
-45
21
-58
31
51
9
-2
25
-75
-36
-22
-3
38
-11
25
22
23
-13
83
6
3
-39
34
-80
-101
36
57
97
42
-5
83
90
-18
-93
-65
-14
-63
-30
-6
66
-4
-4
-11
38
12
-23
-29
-50
65
19
-72
-6
31
26
-44
45
2
30
-41
82
-7
-69
127
26
70
2
-35
45
1
-4
4
2
-49
28
-7
-22
-22
75
-54
-10
-71
-32
-6
-3
-30
-30
7
3
16
20
-87
-5
-58
-8
-32
15
-16
14
35
31
62
36
48
-52
29
16
-1
-69
48
31
37
44
75
-52
16
-21
54
42
47
-93
54
-72
-37
47
-94
-9
-11
-127
101
94
-78
-15
5
3
-37
6
-76
-30
-16
27
35
62
22
-64
69
-59
-40
-21
-30
34
45
-72
-33
19
-26
-36
0
114
68
77
-83
-1
36
-62
105
-5
16
-11
62
-73
63
10
75
2
-86
30
44
-19
-21
58
-77
-52
82
-48
35
45
28
-106
-19
66
-68
12
29
16
-16
49
91
14
65
46
23
-73
26
-46
75
-52
105
0
-25
18
-17
-12
38
33
-39
15
2
34
-7
-23
24
44
-50
70
-89
38
60
-127
0
19
-54
4
-43
12
63
25
7
-28
37
2
30
47
54
15
71
19
-32
-25
-53
41
-5
23
-37
23
-54
36
-21
-28
48
90
-1
38
-44
43
23
84
-6
19
21
-40
-64
-23
-26
-31
-18
55
-17
11
-10
-24
0
-88
60
-5
-15
-127
6
7
34
-34
-45
5
32
62
-34
-4
-30
-59
-40
4
-7
44
-78
7
-120
-15
27
-127
-52
-18
-17
-14
-71
-82
16
71
80
-103
4
-58
-18
-6
-56
-77
-20
-14
9
53
41
48
-15
35
59
36
-106
39
2
-11
-66
-119
23
-10
-119
-9
29
-91
-48
-71
-92
-68
-16
16
31
14
20
-2
-63
2
-71
-9
-37
-71
-27
8
-49
46
-104
21
-96
46
26
31
-19
37
-4
-45
-32
67
-17
14
32
-28
31
2
-58
-98
31
-22
-49
55
84
-49
66
10
-33
-50
-22
45
5
34
90
-50
-76
35
-29
74
-127
43
10
33
-20
-89
39
24
33
20
-15
116
79
-50
-38
75
41
15
-81
-7
22
-76
-98
3
-76
11
52
-124
-44
-94
-66
50
35
80
-107
27
34
-76
37
18
-37
-22
-3
101
45
23
12
-127
0
-92
-15
27
-116
8
-70
0
51
-30
-50
-23
115
-36
10
-114
-40
27
-23
23
-77
31
58
65
-21
42
-25
-70
32
-57
-37
9
64
92
28
80
-60
119
18
37
-26
-46
69
-35
9
35
0
-4
91
0
-40
34
74
13
-36
46
-61
51
8
-54
-36
-5
39
33
-5
-58
-1
-12
-38
26
16
-4
-10
-61
-40
83
23
83
-5
-48
60
-3
-74
2
-87
57
-2
-14
-31
-28
-40
-16
-48
-15
11
-3
28
79
127
-12
-60
-25
50
36
72
-50
12
39
62
29
101
-108
7
-18
95
-5
-30
127
-85
35
-2
-51
11
15
-70
106
-27
-20
-25
8
11
63
-34
-10
20
4
-22
-46
-20
-34
-37
-13
-30
34
121
2
-4
89
16
31
67
72
35
68
7
-30
-82
11
44
-36
47
22
19
12
30
32
36
-68
-72
16
-19
91
-38
51
-52
14
-36
-12
-92
-57
46
-9
62
-83
71
60
5
-38
50
26
33
36
60
10
52
-66
26
-19
-54
2
-24
62
87
-22
-15
-27
53
-85
38
12
-22
-54
20
21
-69
-43
33
-45
127
21
-17
29
-95
61
-56
-76
-17
-37
-33
68
-91
-4
70
-57
-22
-55
10
76
-88
-124
-6
-30
-28
46
30
7
-38
-92
19
-35
-32
105
-21
-45
21
127
-63
61
38
-15
-53
-75
-27
24
87
25
67
86
20
48
8
32
50
31
41
-27
30
36
-5
58
22
-89
-8
31
-14
20
-47
28
-27
-59
29
64
-41
-43
20
8
-5
61
3
-61
20
30
21
-55
-82
-30
-127
5
-58
96
-75
14
29
17
5
40
12
47
25
-36
62
-54
17
40
-11
-37
18
29
-31
-8
-28
-52
-88
29
-49
50
-47
16
-15
-20
44
-8
-33
37
-5
21
9
-8
25
-35
-25
45
-17
80
20
20
-15
43
-15
-33
10
-18
23
26
-22
-40
11
20
-21
-48
5
0
-86
-39
-87
45
-31
-30
21
50
-12
5
-62
-43
-33
46
2
21
-29
55
61
-46
21
16
-25
-6
-17
-37
-19
127
-19
5
22
20
23
2
5
52
-39
49
-10
-54
12
-79
-23
18
76
-39
-40
-26
32
-46
-47
-38
-71
57
-18
-43
-37
41
-23
53
35
45
32
8
-25
-17
98
15
-94
97
-51
-69
126
76
-13
-85
72
19
39
-36
56
25
-84
3
52
59
-51
-15
33
86
34
-73
-19
94
-46
4
5
-12
-65
-8
15
-118
29
105
99
35
2
-46
-47
43
-22
84
-45
102
-127
-18
-61
-44
-34
41
-42
3
-54
44
22
-67
-18
69
2
-63
-48
46
67
71
34
-89
22
-20
11
-52
51
-33
36
-14
27
127
-38
-63
5
-19
-114
21
-15
-5
-53
-11
-84
56
-71
5
-36
-77
-64
-42
42
25
-45
83
77
25
65
97
105
-78
77
54
-20
26
-82
-10
76
61
70
8
-58
-14
-1
25
-11
-31
34
-19
-88
48
-45
55
84
2
96
52
-37
1
-93
-37
-19
-28
-101
20
-127
-34
0
83
4
-9
-91
-44
44
25
55
-21
95
58
0
-27
-14
-24
80
42
-92
34
6
-41
23
-66
13
-24
82
-44
74
-17
3
-71
106
22
39
-93
-56
-9
-25
-58
124
25
23
-27
7
11
-15
-11
-122
-58
-23
-13
31
-38
-15
-60
-23
4
-73
76
5
1
-55
104
-12
-65
14
41
94
-43
-55
33
-54
106
-9
44
-11
-61
-53
23
-12
-26
64
29
17
75
10
-43
9
127
102
-53
-75
-119
-3
30
-75
-52
-19
26
57
11
9
29
-35
50
27
-4
20
26
5
-53
7
51
3
48
38
18
102
-51
8
12
62
-31
-69
-27
30
-29
-12
127
24
38
46
-59
-69
38
25
-17
-8
-43
60
-4
19
-29
-11
4
38
40
-67
45
71
-3
112
35
-59
-21
-5
17
-9
-89
-83
45
115
-41
6
116
-76
-66
-7
-50
37
36
-21
-84
61
-40
-13
28
66
-67
23
-112
-44
-14
18
127
-15
-99
-57
19
-67
66
67
-127
20
-12
13
-18
82
-64
-34
-31
90
20
29
61
-18
73
-28
-21
65
17
57
-68
-60
-17
-38
25
86
-7
-10
-53
47
-46
113
-22
47
5
-76
43
-87
-92
71
96
25
46
-127
-32
27
-41
-41
-102
-54
55
60
-75
13
17
16
-80
6
13
-4
-86
36
60
32
-9
-64
-42
-36
-20
-63
-3
-44
31
-23
-39
-31
-52
68
34
-99
-95
38
45
10
24
-14
27
-3
104
-60
-39
-33
-63
38
77
-38
33
38
58
3
-20
70
52
-31
34
0
-7
100
-32
63
-4
-1
-57
-41
-28
30
-22
0
23
55
104
-12
98
-16
-44
41
-8
-53
80
87
55
45
-35
127
97
-91
43
6
-13
-8
22
16
36
37
-24
62
-34
-1
81
19
46
-63
-18
-96
-47
7
35
2
65
-42
-92
-31
16
-1
-58
42
-27
8
59
-36
19
-28
23
-38
89
-4
-25
7
-39
1
-7
20
-43
-86
35
23
26
-17
127
7
24
-37
22
-18
23
43
-94
-42
63
-46
-8
-10
3
48
-22
-75
47
-45
-20
-41
-29
95
82
-27
30
22
13
61
22
11
-56
23
35
14
58
-2
70
-34
36
12
-86
-5
29
108
-92
-15
-32
47
-17
43
20
-35
18
-20
-8
30
-36
3
8
51
53
35
-31
-5
-49
63
12
52
-2
30
-14
36
-30
9
127
9
40
9
-79
4
17
46
18
-15
-1
17
-9
62
-60
-32
-40
8
-60
-3
-51
-39
9
-57
15
15
-31
93
-50
25
-75
-32
-78
26
-21
21
-1
70
-4
-5
-30
-38
-25
10
-9
33
10
57
-50
-22
127
56
53
-9
-45
-17
57
19
14
24
-68
-19
29
16
36
76
37
87
-48
-61
49
12
71
10
-38
-18
43
1
-32
99
-43
58
-27
7
-4
-91
21
-8
30
-24
-19
75
-23
-23
-11
42
-11
6
34
25
37
-1
-56
-41
-1
24
-43
-56
1
37
-30
9
-60
-3
1
-26
15
-44
5
-58
-10
21
-71
92
-42
22
-30
30
-23
-57
7
26
-73
-66
-24
0
-6
108
26
-51
32
-32
-24
54
25
-45
-10
-25
-37
-17
-27
10
-127
-71
5
11
24
61
-1
9
16
-24
47
38
30
-22
25
56
-12
29
-48
25
58
34
-5
-36
26
30
-4
1
76
-38
-79
-44
116
16
51
52
-88
-107
-7
-10
7
-127
32
16
-43
-15
-62
-47
-14
14
34
-59
53
50
-54
-23
18
-98
-43
-37
-86
-11
-22
-42
-46
39
-1
27
-55
-22
-26
22
66
99
22
-46
-40
62
-79
-19
7
-40
62
17
-3
14
-33
-46
-28
-15
-97
38
-2
74
94
-23
-127
2
-47
50
0
28
-28
-2
-31
2
-4
-30
-31
35
46
-38
24
3
-2
-10
2
-7
-11
-62
21
23
-2
19
36
-46
-35
-70
29
-32
50
27
-69
-33
-3
-73
1
-36
15
-43
-29
-32
45
105
-69
127
51
-65
23
38
-106
13
41
-8
-30
17
30
-77
-25
-120
60
30
-15
-4
14
71
40
6
-3
-95
55
9
-121
-66
38
-10
-24
-85
-125
41
25
15
-25
28
59
12
17
5
19
-56
70
35
24
-21
45
82
-21
-24
36
58
-36
6
50
-17
37
-18
31
-32
-24
37
-30
25
-60
-9
-36
-85
51
-11
-34
-23
-3
-59
-117
-32
6
7
-9
-50
18
-33
-60
-69
-29
74
-12
7
58
-71
-47
70
108
16
73
-116
-43
29
-67
-36
-20
24
-19
-30
25
-11
-127
27
5
-5
-58
-3
-64
-57
2
28
54
58
72
-127
31
-54
-22
-22
-38
55
64
-58
-19
35
15
-34
-8
-37
-79
-20
11
-43
-8
-89
10
21
9
41
-64
8
61
-78
53
-45
93
25
12
-18
49
46
-14
-5
14
-29
34
-57
-2
59
111
11
-14
10
-15
8
-33
30
-72
38
-24
-63
-23
-76
18
52
-19
19
-101
-95
-74
15
77
-31
-15
1
-27
-49
9
-13
17
-4
16
-4
109
20
-32
3
14
4
-30
-41
-38
6
57
98
26
-18
40
-1
-47
-96
-40
-37
98
23
20
-37
-28
30
-72
-37
-13
-8
0
68
48
127
-52
50
69
75
58
-19
-14
127
-45
51
34
56
13
9
-9
36
40
12
-15
-58
-1
-19
-32
9
74
47
-1
40
28
38
53
40
38
71
-59
28
-71
15
-111
21
-10
61
-35
-19
23
104
-63
-3
4
-13
-47
-11
93
16
2
-9
9
33
-11
26
35
-22
-77
-81
55
13
12
-18
-110
-10
105
127
-52
-17
25
-95
4
-8
53
40
-11
49
-61
90
63
66
-19
-41
107
5
-7
-32
-21
-76
-10
-100
-50
23
4
9
-51
63
62
11
-66
108
2
92
-66
56
6
-26
12
-20
28
30
27
-19
-84
-18
-111
-34
24
-10
-34
-13
21
55
-26
10
-12
78
41
-10
-4
41
25
-41
-38
1
87
-8
12
-45
-91
-45
-21
10
-26
69
53
20
28
9
-42
23
-36
-33
6
-32
-27
-40
28
31
9
8
-17
-36
-14
42
-55
19
57
-10
-26
10
-12
30
1
51
41
-65
-33
4
-127
11
-73
40
-13
2
-40
5
-1
1
8
57
41
60
-39
38
-53
-34
-91
103
-26
-59
51
-29
-15
29
20
-83
-102
101
31
-76
59
-105
-4
28
17
-113
-3
22
81
-55
50
17
35
-56
-41
-50
-51
0
8
-73
42
99
82
64
81
-31
82
-7
-19
93
-10
-102
-23
-112
-26
28
-31
82
-53
-27
-73
-38
-127
120
40
52
-17
-80
45
127
-63
-8
-31
-20
1
42
-37
-5
33
87
-30
-14
-5
-1
32
-45
-49
19
17
-63
76
12
-31
-31
-15
83
123
-36
58
50
-123
-93
24
-23
63
-84
8
25
-37
64
-27
20
-44
-61
-20
21
12
58
40
-5
-3
-84
16
-70
-96
41
-39
-52
72
-114
-31
-49
-37
34
3
80
9
126
40
-11
92
-99
2
-14
46
6
-109
47
12
17
61
-51
41
75
35
16
-15
59
4
4
11
10
-7
-53
65
-85
71
-39
72
-5
7
45
70
-127
-59
-58
83
-79
108
-4
100
40
-41
7
-3
30
-2
-30
-76
66
-27
-22
-70
29
8
-68
-57
30
-107
119
48
96
84
50
-23
58
95
40
-16
5
22
-61
61
-68
-25
29
19
-19
127
78
-3
27
21
-9
27
-48
-30
-62
-18
9
68
-32
37
39
66
23
62
-2
20
-69
-57
-5
-36
42
18
2
15
-7
-42
26
-64
19
-51
-3
-5
31
73
28
14
97
59
17
-48
127
-28
85
-62
91
35
-16
91
-56
51
-47
0
47
31
47
105
-66
-87
-13
-27
-48
42
36
-11
10
42
-57
18
41
-55
44
68
-67
15
92
-17
-24
56
2
66
-33
65
-38
51
7
-7
-15
11
58
-5
-40
-19
-20
-23
-54
-6
-49
-91
-38
32
26
80
67
97
-47
-62
-4
-66
76
80
8
-10
0
21
104
20
28
79
86
20
40
113
61
-14
19
-11
2
11
-87
41
76
-25
65
-7
63
62
-2
-12
-43
34
-15
60
-4
22
37
-38
5
-127
-62
57
61
-21
4
-46
6
-18
25
-33
-15
-29
-34
19
9
56
27
-89
-30
66
63
-48
16
-11
-4
-8
57
127
-70
-34
16
-2
-106
-29
9
-8
18
12
-41
-24
35
23
-5
-82
-26
-42
-32
-90
61
50
-77
-12
-54
47
55
44
52
-47
12
-38
48
87
72
-25
11
-5
-23
22
47
-32
9
-25
-28
72
16
31
41
-81
-32
74
-21
23
-7
29
2
-54
13
5
31
-34
33
-84
62
41
-89
3
-47
-92
127
38
-15
-39
54
-14
-9
-103
10
-37
-32
-33
41
16
-14
82
-60
75
44
-29
42
-48
-65
23
80
15
-13
22
-47
45
50
-55
-37
-59
-25
-97
-38
-3
-75
41
32
-34
38
61
-31
23
-20
1
90
82
-64
-40
-127
-91
13
27
-8
12
17
-7
-70
-69
-95
-84
-17
-1
33
-40
15
52
107
-9
64
-40
-5
-42
1
-1
-55
57
-20
28
8
-66
-31
-11
-60
-36
38
-51
19
-21
61
31
4
117
-29
23
-9
-46
-27
75
-8
42
-2
59
-48
-32
62
60
-24
-20
5
9
-38
96
-1
-31
-61
2
16
-127
-25
70
-61
-34
-34
-43
-11
-5
-68
-18
43
-3
4
-64
-28
14
15
29
67
-18
38
15
-30
12
-11
3
8
7
-57
-34
-4
19
41
-7
-18
48
14
-34
-15
20
-43
7
44
19
-32
-34
2
-22
12
36
67
-22
-4
-34
-9
24
-16
-11
-8
-74
-50
-35
80
9
13
39
-47
44
-20
11
40
86
54
17
74
31
42
-31
33
67
-23
-33
-49
38
-77
5
33
16
13
-48
22
20
1
4
54
127
-16
5
-34
-63
7
3
-33
13
-2
-8
64
68
46
-21
-61
25
-17
32
-94
1
33
29
51
-40
-9
-45
72
20
80
-54
-5
54
3
-20
56
38
39
17
-48
-43
33
51
29
-29
83
16
66
-62
65
-6
-104
-70
15
-47
109
-118
-48
-22
-20
52
-26
-15
-26
-127
60
-44
-23
-61
-80
94
-3
-95
-3
-112
4
-77
65
-40
12
-7
44
-44
41
17
-5
21
16
-37
26
36
-39
31
21
-16
20
53
36
0
-27
28
2
-35
-17
-31
-24
23
-87
-51
-17
127
-47
43
16
-26
-59
-4
1
-18
59
-43
-35
-27
27
19
7
23
-22
92
33
-64
-18
-52
23
-3
-57
-15
13
-49
33
48
36
-45
-39
22
41
40
70
16
114
-33
-29
23
-20
-83
-47
-57
-49
-60
80
20
15
59
21
34
-9
-7
34
-32
6
7
40
-114
-13
-25
-69
45
-36
25
46
-7
-107
-1
18
-71
-4
39
39
62
127
-84
46
12
14
53
88
0
-111
-81
15
-75
32
36
-34
-3
14
54
9
-59
-67
4
-6
-50
-6
64
43
19
-32
-75
33
-81
6
-28
9
-20
24
31
-20
14
19
-18
0
35
-3
33
-11
-3
127
-45
-19
-17
17
-47
65
55
30
-6
-15
-84
6
51
35
89
50
-18
-48
-50
92
59
34
-34
-26
10
6
-40
-44
-69
45
8
6
28
-83
-28
-60
-39
9
-13
-85
57
3
-56
-60
-45
-19
10
22
-48
66
29
40
24
-55
17
-44
18
-29
33
85
90
-51
67
61
-49
28
-49
89
-54
-83
-25
-54
-7
127
-22
-62
52
23
60
49
-9
-29
-27
84
45
-41
51
50
-29
-32
-39
-57
-102
54
8
48
79
-56
56
90
63
102
73
33
-21
127
37
57
27
25
-82
64
-42
24
61
4
3
-88
64
10
91
37
-30
18
-38
-64
58
70
-5
-29
-78
18
52
-32
-65
51
-77
-22
99
-28
85
9
7
-5
-62
53
-8
77
49
-55
-48
-34
6
35
-26
47
3
-65
-39
33
-19
-16
8
-45
60
30
63
6
-11
-45
6
-89
-27
-79
16
-51
5
-16
-36
-62
-14
-75
1
57
-72
-37
53
9
-28
-61
-111
-97
68
24
96
60
-58
-4
13
-33
127
8
-26
-29
-84
-40
-54
26
-23
50
28
-11
-46
-6
84
49
0
-44
38
18
-24
28
37
27
8
29
-7
17
-42
27
127
-63
-40
33
-19
-38
-21
102
-72
108
13
67
-15
-7
-26
-40
-114
-3
72
61
-28
45
27
-37
84
-30
22
-16
15
6
105
17
-26
-21
-17
44
76
-85
83
19
-35
118
-81
-112
-2
1
59
17
31
43
-14
-16
112
71
-51
-37
-65
11
11
-59
34
-41
-20
10
-32
-48
-6
25
72
83
7
85
17
11
-18
0
64
-70
29
-25
15
19
76
-61
83
-60
-10
-23
10
86
-51
-8
84
-81
-6
-86
-4
-91
22
-32
-40
-97
53
76
21
-98
127
120
-14
14
49
-80
16
24
-37
4
8
-80
-28
30
30
-14
3
107
77
-6
-1
