-26
-47
117
-7
19
44
26
-89
46
36
45
6
97
-34
3
-42
-8
21
-54
-7
-53
-61
22
-72
17
-47
7
32
79
41
-14
-86
44
-9
40
-9
-19
24
-22
-6
-11
62
-63
14
-35
-127
-6
-38
-25
-63
-126
18
24
27
17
11
-61
56
-7
25
20
19
36
8
-20
9
-73
32
-13
-53
-34
0
-2
-116
55
1
-33
8
19
-55
102
-38
45
-50
51
-45
39
-39
23
102
9
16
-23
-37
-30
-68
-34
-27
-19
5
32
-17
-12
-104
46
-57
104
-127
31
-33
27
-23
50
119
30
33
-40
-87
-38
-62
-92
-105
-108
27
-62
22
-14
-16
-64
-4
127
-48
-63
9
127
-18
64
39
22
-7
-26
-42
-10
0
19
-75
-2
11
-122
73
-48
22
69
-43
55
-69
38
-36
25
4
-45
64
-49
32
-127
-13
-111
10
-19
-18
23
33
-124
60
-15
-42
42
-46
6
-60
42
-127
48
-6
-9
58
-23
-30
-64
-4
-42
18
-71
-90
-55
22
-124
5
-41
22
43
-100
88
-23
-57
-121
64
-2
-31
75
-45
-63
20
-2
-30
54
-17
53
87
-1
44
-47
56
12
81
-46
122
39
65
-26
-69
-15
-87
71
-127
23
-56
-56
-27
-90
0
25
-35
69
127
-9
37
-8
9
-39
80
26
-99
-72
2
13
-100
57
-56
76
-6
-76
-11
-92
-81
17
-73
40
14
76
72
61
-76
63
12
14
-45
-74
59
-2
-24
-36
-83
56
10
-41
41
-127
10
-52
5
13
-82
112
10
-47
127
-75
109
18
17
-18
-35
-127
28
73
-51
64
-47
-63
-47
-92
-16
-73
-27
40
30
127
94
-52
49
36
107
-7
-127
-62
-22
-97
51
103
12
55
-120
-77
-127
-58
-78
-127
-127
127
-4
-52
64
-16
-41
35
74
-27
39
-39
59
-86
52
51
46
101
-53
-22
-9
-99
21
-86
-11
24
-124
93
-101
-13
103
-90
97
-37
-26
-45
-43
-59
54
69
-119
28
-15
18
-42
-45
-14
-76
19
79
-86
10
-82
-75
76
8
66
-74
-85
-66
-89
-14
40
127
-42
-18
-92
14
-57
-45
-33
-112
-68
34
17
23
-76
15
78
-127
116
-76
-72
-48
-46
25
107
71
-28
20
-106
42
-3
-39
-40
51
89
-2
-13
46
11
-77
36
-40
95
57
53
32
14
-15
-70
-22
-105
47
-53
-33
-11
-18
-127
46
25
38
-87
63
5
-72
-15
21
49
75
-30
-51
45
-1
-127
43
-57
61
-69
38
24
-9
-49
34
-28
5
44
3
6
-2
-48
-1
10
59
-4
39
45
1
-113
13
-86
57
-13
15
-34
-53
29
0
1
5
-61
20
-88
-127
56
-21
113
83
56
123
-41
-40
-123
98
-30
24
-57
-10
-73
-30
-12
19
-41
31
-1
53
-70
-118
16
19
97
1
-30
-17
40
-56
-106
40
27
88
3
68
-32
-42
-6
10
-105
64
87
103
-16
-54
-19
-61
24
20
24
18
78
-69
-113
-10
23
127
-5
48
-15
-36
-17
-5
-41
-22
-7
82
-100
-67
58
4
88
-19
16
42
-19
-32
10
25
-124
0
-30
2
-72
-3
21
17
-25
40
-36
18
-94
-41
66
-17
36
-15
-105
18
-17
-28
-1
17
-60
5
-53
67
-98
-30
-58
-6
-84
81
51
44
-127
-20
36
-15
30
19
7
-7
12
-53
2
-63
6
23
-15
20
-67
20
