1
-127
11
-17
-84
-46
72
7
90
104
4
50
20
-61
-125
-69
-88
-23
-81
-39
-97
-72
-109
-102
-35
127
-30
48
0
19
-15
-9
30
35
23
76
11
-8
-26
-73
-21
-38
-39
-20
-43
20
-103
-71
34
-37
-25
-71
-86
-63
73
127
-44
40
-36
97
71
5
57
62
-25
-38
82
-48
-3
-61
-61
-6
-33
-3
31
-34
60
-90
-12
-89
66
-51
-63
10
127
44
5
-40
95
3
22
-17
5
49
-13
-23
-19
10
-25
88
-17
-70
-19
-45
-51
-38
-97
-53
-42
25
-41
-5
-66
16
-31
-50
-25
-71
-10
127
38
-116
-16
-47
45
-15
37
12
41
60
8
127
44
65
-64
31
-79
54
-35
31
-59
31
87
51
41
-71
43
-76
-38
3
-90
-52
-72
-73
45
-6
-71
-26
-71
-17
-3
114
31
2
-70
-32
-9
127
35
84
-17
5
15
-27
-126
-68
50
125
-81
43
-127
-24
11
-43
20
19
-47
-12
49
13
77
82
-74
95
87
-53
-8
85
-34
39
95
-79
-53
49
47
-44
-28
-97
71
96
-57
-19
17
127
84
-111
28
31
14
-19
-41
-53
24
-21
25
-31
-96
117
95
37
-64
0
-24
-63
-32
-127
38
69
57
84
112
63
26
-127
-72
18
-6
106
100
-4
0
-69
89
-46
2
-30
74
-41
-63
-35
24
63
-30
21
-48
-100
-88
86
35
32
41
-127
91
107
69
-39
-127
-89
-64
-67
-43
23
-2
65
59
76
-76
-88
4
13
-10
-95
45
19
-64
127
11
-3
4
106
-25
30
64
89
68
-38
-93
-40
125
-67
7
79
15
-77
-64
61
90
-25
11
54
47
102
26
44
-87
-30
66
89
11
5
127
-26
8
35
42
102
-37
120
124
-44
-54
-30
-58
73
28
-42
3
114
0
-24
-75
-84
8
127
-26
-52
56
-2
-95
41
79
29
2
0
77
-80
-41
46
78
37
-119
-22
24
103
102
74
-46
21
69
-42
0
127
-30
35
-74
104
-10
62
106
-22
121
-13
-2
127
-68
-73
-14
-47
-9
116
125
24
-110
8
86
-57
-29
2
15
54
72
112
-79
-16
-111
-127
-41
43
2
8
-90
-60
3
-85
-3
64
-17
-13
4
11
28
-95
14
16
3
10
59
35
-37
31
-24
127
19
46
-77
-2
-41
27
-34
-35
-26
59
-23
-30
-14
-16
-55
-33
47
-75
12
-90
-81
44
36
26
72
-106
-127
5
19
-30
-46
-16
28
-54
6
81
-21
-116
36
60
78
-30
8
-74
-88
58
-14
-127
71
34
108
120
-9
-15
-23
48
54
-44
-4
58
11
-99
-127
-30
11
-36
-55
58
-10
-57
-99
29
-18
98
-53
-127
52
35
-63
-9
43
-64
-16
-72
22
2
96
26
0
-42
-44
33
-82
55
-41
-85
-23
65
10
-2
1
-127
-42
-18
-33
23
-17
11
-70
-2
-75
32
-36
16
123
30
-95
-66
25
34
-29
127
90
-83
83
-5
-25
21
-54
67
83
-14
-63
-6
-32
-9
-71
-108
14
53
6
-20
127
-89
64
34
100
-70
0
77
58
-108
88
-81
66
-31
73
97
88
32
-111
39
122
56
-113
51
-127
84
-16
-63
4
-69
51
25
75
-112
77
-57
89
37
-41
-64
-27
90
28
127
99
7
-63
-18
33
63
-60
30
-62
71
44
62
12
-26
-58
-25
-15
50
49
36
-127
-63
44
0
10
86
37
-36
-26
14
52
96
43
15
51
-42
11
-44
30
-4
40
53
25
-95
-40
57
33
127
33
-72
31
-100
18
-7
-4
51
-57
-41
38
-38
-62
-91
65
-76
62
-16
46
-15
3
43
82
-16
-39
-30
-50
-82
38
-127
-71
-61
72
-42
64
-119
-11
22
-79
-37
-84
95
63
43
-102
-60
118
-86
-46
117
40
-21
84
-51
-9
127
-113
-13
-47
96
-41
87
71
58
-45
-7
-40
121
-15
-69
7
21
-101
-79
2
30
-28
11
-71
-127
-99
15
-64
12
73
-57
28
9
101
-60
93
-105
-58
-48
-58
13
-28
-33
68
-60
80
-49
-18
60
65
-28
73
127
35
50
-26
96
4
25
9
-59
-7
119
107
32
-17
-91
-41
-26
48
-68
58
6
-1
53
20
1
70
-20
-43
-21
-56
-40
-127
-64
-16
16
71
-8
2
20
61
-20
23
-44
-25
127
-3
27
1
-46
-71
40
-41
-5
18
8
-31
12
27
98
-77
-101
50
73
-5
15
-82
111
75
-30
31
-71
-127
52
-84
-110
111
-92
-75
-90
-8
54
35
20
-126
-50
-102
-82
-103
1
28
49
-22
-127
-97
-42
-37
-19
-3
86
23
27
-73
-45
117
45
84
104
2
-82
-10
95
-96
80
-50
-16
8
-43
41
-24
46
-25
1
9
-64
-98
127
25
-71
-78
-127
21
-3
-27
-28
80
-98
-90
62
-23
-34
-107
32
-117
-31
-92
-8
60
-104
-6
-31
-41
86
53
83
-97
39
43
-57
74
77
-9
-33
-119
-127
90
87
-54
73
-24
61
-41
19
5
-98
-94
-67
25
59
64
-42
44
-4
-39
-27
43
-39
-101
61
52
-127
-31
-81
-46
-81
-108
-116
-31
-80
51
-52
17
12
104
71
8
18
-60
-16
68
56
95
99
78
-127
107
57
5
-13
71
35
-1
30
72
-6
-26
5
-76
24
-84
-15
-20
-8
58
-69
127
7
112
37
6
-101
32
-66
28
-17
26
-57
-36
20
46
-21
79
27
-8
-127
62
24
-83
-20
-30
119
44
122
-106
23
25
-17
66
-79
-62
-95
-63
28
-54
21
25
22
-48
-5
124
86
12
14
127
-61
38
18
-95
-81
46
-2
10
63
21
112
-59
-4
-20
92
75
6
108
10
24
-3
1
22
53
-85
120
26
56
-47
-66
2
74
-31
32
-78
-5
40
127
-40
31
-46
-97
10
-102
22
-57
-14
30
-48
-18
74
10
62
59
-102
59
-74
-127
-25
121
13
33
16
69
-70
74
-17
9
-34
71
73
-2
41
-28
-52
57
-18
-19
-34
127
52
75
-6
-10
-97
-55
-21
96
31
-13
-59
31
63
-84
-48
48
-72
25
-62
-68
-120
-31
111
-69
3
0
-104
127
65
95
127
-48
-82
-85
24
-27
-50
99
4
45
-88
78
58
-29
-59
-82
46
-106
59
59
43
-74
46
-65
-80
31
-52
114
35
127
45
-17
-25
73
96
-21
47
-110
105
-50
2
-42
-69
112
-121
20
-96
-37
-71
-74
-2
-88
57
34
-19
-38
10
-107
33
-103
90
43
127
5
3
-9
-39
-11
28
-78
0
-81
51
59
25
84
17
-25
-71
20
-127
-48
-22
87
-49
-17
42
-19
-46
-60
16
73
12
-80
8
-85
111
71
-30
111
-53
-30
-2
75
127
111
-89
-73
27
48
42
-13
33
-56
122
58
33
50
-118
15
29
32
-33
-22
-24
95
-53
127
8
126
-60
54
59
-55
-97
-55
40
-127
87
-81
-54
126
-72
50
39
80
-31
2
3
-2
-50
-9
118
-54
61
-127
-32
-20
-17
-86
29
42
-97
17
-36
30
7
10
53
-51
36
92
38
42
91
-36
-47
-127
-22
65
50
17
-15
-67
-96
-32
49
-59
-96
-31
-48
-19
-9
80
37
-5
82
-114
21
-2
10
7
69
90
-127
39
-6
43
26
12
-98
60
52
18
39
57
41
-106
-57
-86
-55
-107
60
-85
9
-72
-67
-119
-17
5
54
109
127
16
32
98
-88
40
26
29
126
-93
-1
-96
-72
1
-98
-99
-2
-105
-59
-46
-17
35
94
31
-127
-85
-5
-95
-32
-72
0
29
-127
-40
7
13
-54
94
-32
-14
-16
-36
81
66
83
56
-17
-21
45
49
28
8
76
8
56
-54
19
49
-60
24
-127
4
33
-47
-13
23
-13
-21
-33
3
-13
-103
76
-45
-37
-57
55
-56
86
-55
-40
-62
19
113
-108
15
-26
67
9
-48
17
-127
3
-42
32
-27
40
83
-45
-3
85
41
-63
54
-86
-88
-31
-70
55
-127
-26
-71
28
-59
-70
-32
-69
-45
-15
23
-15
-36
57
-108
-31
-22
-121
36
-127
-6
103
111
53
26
-18
7
51
-38
13
-9
-80
51
31
50
4
45
43
-24
46
13
0
-15
-10
-82
57
-69
12
23
-70
12
67
-51
65
-120
-26
20
-40
-13
58
0
-75
73
10
127
20
-1
48
26
-54
88
59
12
127
-32
-40
-3
46
-26
-80
103
17
67
34
-57
-9
50
-118
55
-65
-38
7
9
-26
125
-119
-34
-2
101
-66
-14
-50
-73
-41
59
25
-51
103
114
62
-72
23
-28
127
-6
8
-99
-40
-1
62
3
55
-36
42
-127
44
-27
-21
-61
-78
-18
121
-15
-62
24
-15
-63
18
36
-14
43
42
47
-123
-28
66
-7
-68
54
127
-115
-123
-37
33
54
-78
83
111
11
-24
-121
-73
-9
-72
26
-33
-124
90
-7
18
79
-5
127
24
92
100
22
9
65
-13
-51
54
36
59
-9
54
-38
64
29
-84
127
-79
31
90
-46
1
44
-9
72
-97
-103
16
12
24
-120
39
-62
-30
23
19
-10
