35
-365
-30
1222
1463
1864
148
1491
1486
890
1542
2463
1154
542
1502
554
336
-1531
-44
2513
-507
1743
1171
2692
60
335
-455
930
1373
89
-3090
747
651
1791
1548
-829
2400
2173
-530
1279
1348
863
1672
119
3450
-279
704
481
1136
1212
-288
681
833
2629
521
1482
1155
888
-31
929
-516
601
194
2830
759
893
727
2347
1478
1352
373
1723
529
86
-425
2652
-431
330
202
972
928
2351
800
1044
1094
1125
-324
1196
355
2047
278
422
1717
996
-48
1468
-418
-2080
-662
940
1602
-1524
544
393
1238
1525
1935
1561
-377
623
780
2671
561
306
360
-1597
1832
-1352
1035
1893
661
-629
617
1474
-1211
-385
1792
-369
1090
-945
489
-3177
784
670
304
642
604
356
723
613
491
-284
-213
391
2499
1773
1787
410
135
2216
-543
-442
946
2162
-448
1473
1598
1151
-405
687
-1259
-163
999
-616
232
99
-248
659
702
-1106
1217
-1536
-1891
-2205
1862
-288
-202
-3
443
2238
79
1213
203
976
1179
171
920
-501
1309
2532
-321
2364
-73
95
-311
688
-709
2544
-2386
-422
1338
989
1119
-71
-299
18
1121
849
2276
-322
664
-283
271
27
-1345
1816
-11
721
3356
710
1659
-34
2057
393
1910
364
-261
1145
-482
626
1556
1083
573
334
200
885
-343
2270
280
-541
1240
2218
-650
716
1769
3353
1625
88
1894
-39
2688
2121
1971
1730
1800
1408
558
1857
1001
159
-146
213
1096
-1039
1152
-172
1417
408
660
-307
1230
1918
519
551
1148
1011
1431
-413
2519
527
-127
2623
971
1038
1172
741
508
559
-805
1494
1242
745
1548
681
1129
863
-437
3070
209
1120
117
1302
833
1344
1576
807
1241
1560
634
1543
758
-441
74
1427
1095
-1653
793
1015
1953
-649
-189
1067
-110
663
854
1515
-1923
733
1084
2833
252
-2707
-513
-1318
-690
493
1614
687
-1280
2725
1065
2050
1094
573
961
-861
523
634
-181
1154
681
-657
-2871
-1032
2099
628
-590
-130
437
2725
-82
-1031
26
1330
-725
1163
1690
1459
1423
1098
-143
-209
1019
36
1228
2526
51
452
1493
1140
917
1818
-257
474
-137
329
1601
1761
791
1481
55
-236
930
44
1112
1362
612
1703
741
1465
