387
-1194
715
548
1141
-957
-732
439
1167
2051
-279
602
-255
86
-286
495
581
2430
1928
2267
572
1083
1753
-1171
-1394
710
-259
404
-264
1787
42
1143
329
578
543
1466
129
1181
444
1793
739
609
285
565
633
660
645
2468
-1867
-2948
-221
56
-1502
330
638
1001
1102
-258
-743
-580
-966
817
757
400
535
1130
12
815
899
1992
-467
720
223
-234
66
149
531
1602
582
-88
341
-213
751
741
1404
-243
-2581
305
-531
482
-92
-1165
-1831
-1320
-592
799
864
-228
-372
1025
838
11
809
415
993
273
-1953
227
471
839
98
-1057
406
1316
757
1049
1607
1288
1208
1273
-64
91
137
-571
445
-808
-924
654
168
1778
-51
1470
104
1991
1048
266
-357
1296
-1126
926
-592
902
1530
-117
1323
-838
-195
-487
954
537
648
-613
1231
536
574
-443
-328
-664
742
427
1434
-326
-905
21
1616
-4549
229
553
1584
1374
141
1300
-405
1546
-20
1665
-207
551
303
171
82
251
-807
1259
1457
725
1148
-612
-729
4542
455
608
654
-186
225
-447
333
113
-146
1174
253
-22
1110
-161
1757
2942
-125
1283
-453
-915
-1744
-99
1488
695
1001
2109
-343
-1
434
153
249
570
38
1067
514
-71
1483
-256
1363
3152
2319
-739
1369
1301
-1056
1269
653
969
25
686
200
-20
1403
-537
-223
1075
-1869
604
-212
1685
1428
-42
-532
250
1963
2023
924
760
-119
1013
2618
564
1779
491
1301
-237
134
305
-1066
1602
-410
740
-197
384
393
1060
591
733
163
807
222
-207
566
-196
707
2539
1367
664
-576
165
1171
177
379
644
17
333
343
309
172
-1248
-1139
917
510
-584
695
-581
-209
264
1233
-1325
1014
1861
1133
-460
1712
289
-1702
-430
442
252
527
1151
4457
257
401
491
1039
1894
1104
2145
-4273
544
1610
-526
2149
-187
1193
2204
222
-268
-225
-233
157
250
1395
-423
811
399
-100
-268
846
334
-302
24
1086
1089
3030
806
575
-2160
856
793
-266
-918
294
-273
389
399
-5761
1518
604
158
1651
375
742
396
1044
-131
1458
-138
456
1284
1366
315
1447
1249
1064
910
354
77
702
-108
261
-423
337
255
-236
1650
-631
866
