-1287
8946
1824
9457
1677
-1947
-673
4233
-7386
4147
5349
875
3555
-5062
-1026
2855
5716
-3044
2521
-1047
-4342
3567
3630
8207
-10292
3233
-7273
3131
-10454
506
-4585
-1904
-4254
-1162
7376
-1778
-9979
-447
4827
-2825
2523
-9789
4969
6578
1030
2007
-436
-3224
-48
6622
65
7762
4784
-3707
-276
-9167
-8318
6028
-903
10719
11068
-2349
-5156
627
-9016
-2458
-2612
-3324
-6962
-1174
4463
-2386
222
-9695
-3690
-3441
-10649
-7376
-9488
-2962
-4349
1433
-3978
-4139
4932
-3399
-8354
-6659
4999
3343
4722
-9524
12505
-4261
1781
-4891
-3116
5958
-4653
-4678
1984
7859
-6342
8785
3328
1010
-5025
-4122
320
5530
-3938
190
12835
2024
6967
1359
-4375
5906
-1182
-337
-4695
-3736
-4896
3463
-2845
-8461
-12028
-11088
-4879
726
1441
-1795
2878
-3766
8365
-3117
10375
-7646
-5004
1140
1379
8691
1468
-10934
5214
2884
6213
1196
10154
-6267
-2245
-3080
-1547
-7839
-2452
944
-678
2643
-1807
705
5124
-5289
1808
10046
39
-1637
-7571
509
-5003
-5899
551
1583
-6614
281
11385
-3173
2056
-2338
1555
8031
-1983
-11152
-2512
-2962
7301
4375
-1939
-2392
2994
-14957
5911
-11835
16694
7463
3417
701
4465
-1518
9811
-3321
