-13790
-18364
8687
1159
7673
5416
2370
11847
-14293
-3143
-6721
9588
-3786
-1719
-11242
13618
-4492
-1467
18343
-1903
10045
-2334
26733
12226
2971
18634
1724
-165
16989
14712
21740
-352
-5871
8554
9878
-15211
-7184
-9940
-3551
-5901
62
-6943
-2456
-4588
2122
12441
2667
-3302
-14433
6946
1821
-3603
-15446
309
-22131
-14702
-4775
-175
-15923
11768
16600
3290
6693
-30414
-16102
-3686
-14201
16122
-552
-2253
-5980
-3415
4073
-27889
10096
-7586
11781
14421
-32768
2157
5362
10235
-31
-7628
-17288
8342
-8847
-6304
-4112
5544
13242
18689
16290
-4741
7523
2414
-10280
6187
-23599
-18818
7465
7877
-12308
12432
-11680
-15482
-25382
-8436
-9647
-26297
2792
-27256
-8226
10661
-3888
-10757
2775
-3929
-15391
-8614
-3962
8766
2923
7594
-18700
1703
293
-12996
16573
5230
-16731
4474
394
6379
32393
-3381
29518
4636
502
-18893
2127
-7083
11539
11749
1241
4035
1657
-28112
8701
-14878
-4652
1357
-13692
21442
-12126
-1521
-3354
-6956
13377
-5509
7414
-13004
8697
10368
-5193
-17994
-1893
2449
119
-16193
-2879
4446
8972
-1388
-2081
1620
19439
-2255
-342
15617
-2532
-4751
18310
-7747
-7296
13990
-368
-17227
11164
-25122
1072
30496
8210
-10015
-13975
14604
16562
18310
-15657
4160
