-70
30
10
22
-25
96
-8
37
-97
58
-111
-127
19
-28
-67
-94
-54
52
15
-55
63
24
3
-46
-53
-99
-28
-67
-4
25
-72
79
85
47
13
-13
-85
21
-116
-19
-65
-127
-9
-86
-57
26
41
-101
51
-82
5
-127
103
86
60
66
43
18
-127
-29
-12
-7
98
31
-71
-6
-19
-3
-111
102
-41
17
64
-91
28
64
-127
60
-70
49
-36
107
37
14
-6
17
-127
-114
30
18
1
-49
-56
15
-59
41
73
-6
-9
-114
-46
-36
60
-89
25
0
-18
-104
-27
-12
-7
30
-127
-9
42
-24
-30
2
-58
5
-12
54
127
59
-120
-1
120
-4
-75
32
-62
83
68
127
33
-8
72
-53
-127
-87
-127
80
-105
3
-127
-27
11
32
-103
120
29
119
-56
75
52
-76
9
57
-119
-65
-54
42
48
-61
89
-109
11
-21
-93
-127
-127
-55
45
-126
-74
93
109
127
38
-31
-4
-51
-127
-36
-31
-106
-70
-127
-47
-46
17
-58
68
59
38
-109
121
54
40
98
-15
63
-68
-34
-69
-27
-16
85
73
28
127
4
-127
-42
-2
82
90
-93
14
-50
-62
55
-61
63
19
-48
-62
26
-13
7
-21
-116
13
-116
-6
18
32
127
0
1
5
35
-7
-95
-64
-61
52
113
42
54
-64
127
-37
45
60
-92
-76
27
-46
8
121
57
-60
2
42
9
105
76
-126
-24
35
-127
-7
53
-77
113
52
-40
124
-43
127
120
-106
-45
-26
0
-87
29
-31
-24
-3
56
-79
85
45
127
28
61
85
-61
19
-69
22
-72
56
-25
-64
-77
35
15
0
-71
-127
-17
-127
70
127
-48
-59
-23
-3
44
96
-48
-23
8
-21
-49
-25
-85
-46
-111
-54
-85
-122
64
82
83
-64
71
18
-22
1
30
-57
-127
-105
-21
69
-70
-14
56
51
1
-43
69
-49
-80
58
-9
50
-127
-7
11
-40
-17
-39
127
67
-96
-127
17
79
16
84
-64
-16
-127
-17
48
127
18
12
47
-89
-39
53
-127
-30
-31
-34
127
27
9
-119
56
9
27
118
-78
-4
-127
-34
-127
110
-112
-26
-68
90
11
1
-28
38
-45
-127
-125
-42
25
11
35
-68
-88
25
-127
66
85
-20
-8
-42
-11
-127
102
-23
-35
-8
22
28
90
68
6
-127
39
-74
-104
19
-109
-100
-89
-127
-78
-79
-19
44
17
-6
45
85
-49
98
33
-5
-95
-100
74
-59
-33
-19
-25
-76
17
-85
113
-113
-47
-56
-43
-97
6
90
-85
-127
-93
13
3
11
32
28
53
127
73
84
25
-11
-7
127
-23
-108
59
-105
-44
-37
112
-41
22
108
-5
74
103
22
127
-8
88
-108
-102
49
107
-127
14
-5
-107
127
-107
41
20
-6
-57
-127
-62
53
64
-93
34
68
-53
52
-78
8
122
-46
-73
-69
-18
-16
75
-122
38
45
42
-60
-49
-90
-38
-37
127
77
67
-127
13
64
62
-127
20
-114
-15
-10
42
76
-23
11
-80
-76
-67
-87
-120
-79
-33
-26
-71
-47
93
-80
127
84
53
-64
127
63
-88
90
16
-127
-102
-47
-16
-116
-77
-40
-127
-25
127
-1
-96
98
-127
82
-10
-78
120
-54
88
71
5
-127
-72
-72
127
-127
79
-127
-30
127
-69
49
-127
-73
123
48
-3
-85
10
84
127
-33
51
96
39
64
-10
-45
5
-62
27
23
48
-5
36
-4
101
127
103
46
108
-47
34
101
71
-82
-62
-77
99
-22
19
92
-127
-3
-71
-114
89
-27
64
6
-57
-57
127
-65
-8
-61
-58
-59
2
9
44
-104
45
-127
54
87
-34
-47
-39
7
37
19
80
-52
-29
47
62
-6
104
-85
-95
-21
31
20
127
-102
35
39
-52
127
-83
92
125
-81
-54
86
-127
102
76
16
-2
76
68
21
86
60
7
31
20
127
35
72
-92
40
-13
63
-78
-127
-127
-119
82
4
6
-55
-18
33
81
56
42
-41
-5
-34
80
127
14
-69
-63
-25
-19
26
54
-125
-86
-37
-44
-76
-87
-56
52
-127
52
-79
-127
87
8
13
-30
-49
54
62
-127
-73
45
14
-127
102
127
103
-91
127
73
19
82
32
-51
-113
-50
40
123
127
-19
34
111
110
39
-58
-65
0
-47
-127
127
79
9
10
1
-103
-20
27
-105
-127
-127
-91
109
-9
71
-127
51
20
18
127
-3
6
-104
-90
-86
127
52
-18
-92
127
43
-99
60
-28
-127
-60
-23
12
93
32
27
17
-15
-5
-23
-50
127
-92
-117
59
-39
118
127
-45
-111
16
77
-75
38
109
-21
-96
-12
-24
-126
-119
-127
-29
-88
-81
-95
30
12
13
0
61
-2
37
-42
-87
62
-18
-71
3
57
-97
54
-9
38
-36
17
-93
20
-37
-38
-90
10
-76
-24
90
-10
-20
-16
30
96
-32
27
41
-9
80
25
4
-127
-50
-8
57
4
-50
-2
-95
-51
-11
106
-23
6
71
-57
79
127
117
84
28
-23
11
-42
-9
-96
-86
-94
51
4
116
1
12
86
7
-76
-50
-126
72
63
-125
49
2
52
-49
-11
-127
70
-81
-111
-29
-13
16
23
-76
36
-54
44
-74
-63
58
-89
-107
37
-96
71
-70
28
49
24
-98
-31
-57
-88
-111
0
10
-40
82
-37
-44
-23
-60
-87
-6
-47
-62
-127
-127
127
127
-49
127
-51
-45
51
24
-22
-127
48
-30
-127
-63
-127
-32
-3
-82
-40
127
28
53
-40
-103
-56
5
47
-127
127
-127
106
43
127
-33
-16
-12
-5
73
19
-78
-79
90
-127
127
28
18
127
36
9
-127
-70
70
8
-27
39
41
-76
-127
0
-59
-127
-77
-86
-41
73
121
127
-45
29
34
39
127
69
25
-76
-127
-27
-92
-40
51
-82
53
-127
51
-121
25
-42
-101
91
-35
44
-26
-127
-40
127
-127
45
-21
12
-127
-97
-107
91
-55
-24
-11
31
122
-127
-62
23
-127
35
-110
0
127
-127
-22
25
-50
127
-90
-28
-9
32
58
96
-127
-20
93
-14
33
-118
90
56
-118
-70
44
-30
93
77
-12
-45
65
20
1
5
31
-20
-52
-40
42
115
-122
56
43
26
43
-65
-11
-83
-127
114
114
-49
56
-21
-96
21
29
127
15
60
14
54
36
56
-66
-127
-56
-4
66
111
-38
-77
-28
-38
58
50
-61
-42
-95
13
-56
-126
127
-17
24
-34
-24
-110
-39
-69
-101
7
-127
-101
88
104
65
88
17
127
4
-13
83
-35
-6
-66
-47
-2
-18
127
76
-127
56
-105
-122
-100
23
-43
-110
34
43
-5
-3
-70
-127
-30
-58
-26
-86
-62
-17
-9
-113
127
-32
3
48
127
100
-72
-26
-72
-106
-70
48
127
88
-43
34
21
-101
14
8
-10
-46
29
34
37
33
-127
127
-80
5
-54
-94
72
-22
-127
17
-98
36
34
