53
83
44
2
9
22
-2
21
8
35
-12
10
-18
-59
-21
-127
3
10
-47
-74
11
26
-29
-13
22
39
-29
-84
18
32
-4
28
-12
-30
1
41
45
30
-7
39
-8
-34
45
30
24
-14
-57
-127
-49
-20
58
-12
-7
89
1
-14
39
-55
21
-70
-16
-71
-52
28
43
-116
95
46
127
-13
54
52
120
-54
12
-78
35
47
52
-69
-5
-116
127
-89
10
-61
20
-20
1
1
84
67
45
-78
17
79
-41
-13
58
-42
-12
79
127
-27
76
-87
52
-21
-45
-70
88
51
-70
-84
56
62
-69
-28
71
24
109
3
-48
59
-4
83
-2
-47
58
50
-22
82
-73
2
107
48
24
127
97
-58
-53
-33
94
90
-29
-126
13
-13
-41
-17
-8
-3
7
5
29
-63
42
66
4
34
-4
127
67
46
69
75
-30
116
-19
53
35
127
-5
37
107
-108
-29
-3
13
-10
-50
21
-80
6
-7
48
-2
-31
39
-66
-33
44
-12
-52
-35
-20
41
6
15
-9
34
-36
4
-38
-30
-96
80
127
34
-2
-4
-2
-18
-8
-45
-32
28
-13
-75
-73
-4
-8
84
34
-117
-6
-14
-45
52
11
-52
-48
-23
-17
-12
-115
70
127
27
-40
71
-54
-127
-79
-105
-118
30
43
-17
-15
-3
4
-3
-43
-29
-110
-62
27
-31
34
28
91
-30
-73
31
-6
28
-110
36
-87
-42
118
32
43
83
127
101
35
41
22
54
14
42
6
99
5
-98
-28
-73
67
-3
11
-28
34
29
54
-38
-3
0
-20
-15
-1
-61
-20
39
-6
-6
-127
36
13
-40
-38
-2
26
12
-25
15
103
-106
-3
-127
-66
-54
15
-67
-7
-70
9
4
14
75
17
66
-7
14
1
23
-29
127
72
-64
38
-4
-25
87
11
-84
-46
-19
104
-33
-15
98
-95
-75
87
-22
23
99
-77
34
-75
25
-47
22
44
-15
-2
-36
41
127
-55
76
-12
-9
40
-21
38
-6
78
34
17
-28
39
-51
21
-49
82
32
19
-51
-75
-12
-68
65
21
-127
-103
-52
-44
96
59
22
-101
36
6
39
25
-83
-43
22
69
13
19
11
-66
-53
36
81
-10
-39
11
54
58
-43
24
127
11
63
-48
79
110
21
34
-59
48
24
10
60
127
27
93
77
78
-8
97
-21
8
25
-51
-65
-86
-45
38
-55
15
-81
82
70
8
-10
-91
-32
5
8
-78
-67
18
-93
-66
-60
-51
6
38
32
8
9
-34
127
30
16
-1
-45
4
54
-3
-8
2
-15
91
56
-55
-49
-80
33
32
4
-117
-28
-44
-13
-61
127
102
42
-110
20
18
-24
32
-18
-79
72
-104
31
-50
80
28
25
-33
127
-18
-41
-83
-40
51
-77
-38
7
-46
-16
-127
15
66
-20
-46
23
95
13
31
27
-25
21
-6
21
9
-43
15
31
46
-25
22
-120
49
6
109
120
12
-127
34
-52
4
43
-68
-53
-71
-120
74
-92
-19
-93
-17
61
-28
-70
-50
52
-65
-47
-68
-44
-37
61
95
-6
-106
127
27
-21
24
80
-28
35
26
-8
-76
-75
64
-72
-14
31
-2
-15
127
-65
-9
80
-47
-30
-36
35
-34
26
15
-15
4
36
33
20
-89
59
-42
-12
-40
-25
-39
4
-60
76
-102
-10
94
-98
-16
2
34
-39
-126
-43
86
-127
75
51
-29
47
-3
21
27
74
31
-109
-104
-52
108
-95
-49
21
-52
26
127
-124
-41
37
-80
7
12
-24
111
51
-53
-13
-23
-14
46
50
1
64
105
105
8
-19
2
-79
-127
-14
12
-29
-61
-67
44
106
-17
47
-44
43
28
39
-127
26
-7
-19
39
16
-9
9
-65
78
-93
-24
14
-49
-7
67
4
10
-56
-14
-7
3
41
2
19
53
-89
-2
19
-127
-75
-78
-121
-39
-37
2
-43
-29
-3
90
-16
-47
16
34
3
27
36
90
-75
-64
-7
6
78
16
68
37
-61
27
-66
8
-120
127
53
29
20
5
42
-18
71
32
62
-82
60
15
16
-53
124
-22
-31
8
127
-24
-43
32
-30
9
35
-59
70
22
106
-14
-50
-1
66
-1
2
-3
15
31
41
14
-78
20
81
33
9
-31
-13
-102
-104
-11
18
-127
-13
-59
-32
57
17
66
3
-37
37
11
-40
-4
-37
57
-84
-27
67
64
51
-40
-3
84
43
-8
-110
-18
55
-127
-64
44
8
-30
3
8
-127
7
13
14
-45
-54
-6
13
4
60
65
-91
19
29
-4
68
-54
41
50
-70
58
4
90
-71
-47
-12
-4
-127
41
-7
17
44
88
32
61
-116
106
19
-22
41
-28
-7
18
76
-94
-17
-58
-6
41
127
-38
77
117
47
49
74
-12
-13
110
3
-120
-116
18
-29
12
-11
75
1
28
-18
-57
10
9
12
-53
127
17
28
84
5
-40
38
-66
-31
-34
35
15
-68
-26
63
-2
124
-53
12
-31
-74
-76
-52
50
18
-16
2
127
1
14
-25
-44
21
70
-1
-20
-30
40
89
-4
56
-105
-58
-3
84
54
-45
-127
-48
-61
70
-123
-58
34
-11
24
-3
68
34
3
18
-61
-46
29
31
-70
35
-22
106
22
-46
16
-27
65
-14
-49
-22
60
-57
127
23
-21
70
-36
46
47
46
37
83
8
24
-33
100
-55
43
-18
68
-127
1
26
-25
-72
-7
-44
-78
-13
94
77
12
-29
9
-104
-19
26
108
-6
2
-73
-2
-40
-18
-56
-127
-5
5
41
15
43
-86
23
-15
33
-25
-20
15
20
61
-69
-32
72
-36
-20
127
-33
28
55
-64
-9
-27
-18
-38
8
-78
-8
-33
-26
-34
4
34
35
17
-32
58
-49
51
-6
-41
65
89
61
1
-3
124
-104
5
113
113
-69
-20
-17
-127
118
13
21
46
-114
-79
-7
17
-77
-37
-3
55
-127
-10
-64
-3
-52
-40
-73
112
-1
-78
53
-45
23
-17
22
-34
-7
127
31
109
-61
-34
-109
24
17
-51
-31
-25
-1
17
-116
-20
-17
98
35
45
-20
-22
-25
17
22
33
-24
68
-42
-26
49
-80
14
47
11
-14
37
9
-36
-1
27
19
-10
127
33
73
-10
46
40
71
58
7
-30
93
35
-15
33
72
74
36
95
105
38
-6
-90
-127
78
51
-10
-50
-11
32
1
73
-72
-45
-38
-6
-6
45
-9
-43
14
11
122
-50
-18
-18
22
62
127
10
-35
-95
-25
-28
-42
-74
18
-81
37
42
51
31
-28
68
24
-34
127
-38
17
1
16
-38
11
-7
96
-34
-1
74
50
-36
-69
21
127
1
1
-21
87
-2
51
8
-31
3
-101
1
-17
-68
-4
1
17
-48
-62
-94
-19
54
45
-51
22
-95
111
40
-84
-77
-57
-56
-55
-31
-4
104
127
-30
11
37
-66
-70
98
-30
-55
-27
8
-17
27
20
-22
127
-79
19
10
1
13
-4
-14
17
4
-51
-40
-101
22
5
38
7
-57
30
42
-127
37
-10
60
53
35
42
-73
88
-21
7
57
68
15
-8
-40
-4
-52
-25
46
4
78
-106
-33
7
-20
96
86
-11
120
32
102
-71
37
127
-26
-16
-108
-22
-4
-28
16
84
34
-84
26
30
31
46
17
36
-4
-12
127
47
-3
21
-28
12
-47
-76
76
-44
37
52
34
-22
12
-2
-24
26
-32
12
44
17
42
28
-24
30
-127
13
-72
-37
30
4
-22
-50
16
19
12
-5
-31
38
-95
-10
21
-48
64
-16
-37
-127
62
16
-67
10
-60
-67
76
-64
105
-26
19
-46
7
-48
-77
116
41
-119
2
107
22
-30
109
-13
0
13
21
-103
9
127
12
-16
6
-76
-55
-84
37
42
-23
94
50
-107
127
-25
26
41
-29
-33
37
46
-102
-41
-118
-12
11
34
-16
51
-109
-12
-71
-12
-11
-60
-19
14
6
-25
47
52
-25
13
-78
15
8
18
16
3
51
-45
127
55
32
-15
-51
0
17
11
-58
-81
-61
9
64
8
35
36
-20
51
10
52
-9
76
35
47
-127
31
-30
-116
-47
-121
-101
-14
47
-56
61
-56
13
127
-22
-70
66
60
-23
-70
16
-19
-36
-8
-52
47
-90
19
-72
-61
15
109
-92
81
-9
-13
27
120
-5
-89
-5
28
-99
31
124
68
-53
87
-93
-108
-50
18
127
9
-19
-20
-36
65
59
-12
-16
-127
-30
-91
-36
-91
-45
-86
10
-117
-4
-4
47
-6
-49
8
-66
-13
-69
88
65
-49
-13
107
-54
61
-13
-95
38
38
19
-59
-127
-46
3
-71
-18
42
19
103
-13
14
-11
-47
49
14
64
38
68
-127
16
-11
-12
-23
-7
-67
-9
-47
76
57
55
8
41
37
-36
-84
-61
-19
-95
-33
-5
-15
41
48
-100
-14
-46
44
-25
44
30
121
-43
-111
31
-35
1
-27
10
65
127
102
-14
-127
-51
76
65
31
-24
34
-68
37
-94
-64
45
4
-33
-15
-38
-109
14
-126
21
16
86
1
-5
96
43
105
6
-34
-46
43
76
60
49
4
8
69
72
119
-71
-33
-3
127
26
-86
51
27
0
-9
-56
-34
26
127
-15
23
-53
-7
67
-20
16
75
-49
-46
45
13
-31
-83
9
38
-27
63
-49
13
88
-25
97
-1
-11
-88
-19
52
-50
70
59
10
104
6
-127
-38
-36
-5
-91
-68
-82
-2
-16
-4
-64
-22
127
-51
-61
-70
36
-17
18
-14
13
-40
-64
1
39
-39
13
-5
-65
-68
-8
83
22
-114
-24
-7
41
71
-22
51
-34
75
27
83
19
-9
-25
-42
-69
11
26
-127
19
53
22
114
66
-11
23
-49
99
-38
89
-67
59
-12
-33
-17
127
-19
90
16
34
38
-118
-56
36
-23
-15
55
-17
-16
-14
-47
14
21
-14
-35
9
63
13
75
55
42
0
14
-127
-54
-88
-18
-30
-66
-52
127
21
27
-45
80
-60
-62
-78
-35
-41
36
-42
-22
37
-18
-10
43
-68
14
28
-45
-17
-71
-59
69
74
-44
79
8
-4
24
2
15
-64
113
-37
40
-49
-41
38
-63
-83
10
-127
-98
-60
4
-64
-44
-2
71
75
50
16
5
-80
-43
30
19
-18
-64
-72
-77
-30
-127
7
67
78
118
-61
17
-72
-53
13
-84
52
-9
13
-2
94
-44
73
69
59
-81
67
2
-32
33
33
18
-127
-22
88
31
19
56
-14
-92
-55
127
-49
-53
-68
22
22
38
21
-17
-28
-28
-30
-42
48
-31
27
-55
-39
-3
-18
-22
56
-47
-24
122
-33
46
-90
-25
-77
-82
-32
-65
-126
30
-39
-4
-83
-14
114
127
-34
-67
-81
-34
-6
64
127
-59
94
-26
-75
-20
68
60
-27
71
16
-90
-36
63
42
54
-9
-43
-91
37
19
45
10
-15
76
-23
-16
-44
27
1
41
46
23
19
127
-9
60
-82
7
28
-20
90
-18
-57
7
-3
-114
89
32
-33
14
30
47
0
32
-61
-91
-19
127
-53
-14
28
57
-53
3
-24
10
4
43
63
-43
40
16
-4
-9
127
-79
-33
102
58
-4
53
-78
10
-40
-35
-76
-4
57
16
93
14
-27
-15
32
-78
11
-56
41
10
-23
-41
3
127
-12
-34
-30
-71
21
1
-11
-67
-60
36
-64
-15
5
48
-41
-59
87
-17
85
5
-38
-39
52
51
11
38
-29
-65
28
103
12
-44
-18
-22
-127
-62
20
26
-35
-104
-44
85
-15
22
85
50
-77
66
28
-73
-66
127
62
20
15
64
3
-21
6
43
45
47
-13
-127
-61
-1
14
-6
107
38
-54
107
-12
5
-40
20
-57
79
33
-60
-5
-27
66
-51
-8
58
70
-68
-22
-40
127
12
68
-36
75
7
38
-55
-79
11
-37
-7
-52
-88
-38
56
-6
-56
-53
0
-32
11
-29
-23
58
-1
-112
6
101
103
-47
83
7
-48
-61
-45
-64
-34
127
46
33
-13
13
58
-126
-127
-35
-75
-14
-60
-41
65
-119
13
-44
10
-66
-41
4
51
-2
-55
-22
-7
69
-127
-8
4
55
-71
-14
-17
50
105
6
11
44
-18
75
46
127
42
9
-55
-40
74
15
-80
37
1
13
-69
66
13
35
88
59
96
-37
-35
78
14
-38
-67
-11
-120
-29
-127
116
19
17
90
-62
-110
27
-64
-125
41
32
7
-22
51
36
39
-9
-100
-9
57
44
15
-37
73
-28
-46
79
86
127
-29
-18
10
15
-44
43
-1
-51
26
-9
37
38
-8
-6
-24
-104
68
-74
-12
-20
-29
-60
-7
7
127
11
7
25
-69
-10
38
109
-41
-28
-127
14
-77
-82
-90
12
-119
120
-52
-78
103
-58
-37
44
79
-22
-40
-37
-41
96
-49
-3
118
28
-25
63
75
17
19
-69
5
-72
-95
36
31
-15
-82
-55
127
-30
103
-51
5
-72
-5
-4
75
-127
97
84
112
101
10
70
91
-101
-62
16
-40
75
28
-31
81
53
49
110
34
-101
-83
-69
55
13
-112
127
-94
43
53
94
-34
-12
-21
66
16
26
43
76
22
-51
34
14
17
11
-5
-3
55
-56
21
22
43
-26
28
-16
-33
-49
-127
-35
-13
20
-48
-27
47
-18
116
-35
-2
25
-23
-9
69
-43
61
30
57
-7
-30
-91
127
-47
-52
-45
-88
-18
-109
4
70
28
68
-54
2
-127
6
-44
36
-1
73
4
43
16
66
-28
78
16
-46
-99
-13
94
-35
22
-65
16
46
10
127
37
45
1
-49
-66
91
-65
-38
-109
-103
-95
-122
-88
47
-11
-112
-15
-8
-23
-30
120
36
-7
7
59
-9
71
90
-37
6
38
114
-127
68
-14
-31
39
61
79
91
-116
-83
62
-42
-106
14
-14
127
36
9
11
-9
-8
-15
-4
66
55
72
-9
41
21
17
-11
-25
54
46
42
-60
-27
-92
-32
68
90
-41
90
20
24
-14
61
10
-119
3
-15
-8
15
79
-127
11
-47
1
-36
25
-104
3
31
53
33
2
81
10
95
56
3
40
54
-39
-35
77
62
127
18
-97
-73
61
-1
-121
-69
100
-39
29
28
37
-28
66
-66
25
111
118
-40
-39
-23
12
-50
-72
36
-101
80
-127
-103
-74
22
58
-61
-9
36
-8
-18
127
-62
68
37
46
-32
-4
34
-2
-5
-76
-15
-103
-14
26
-45
39
124
116
-28
34
-9
61
-127
-3
-36
-33
20
0
123
85
-72
-70
67
-18
-53
54
-57
31
-31
14
22
-37
-7
-22
5
81
-46
-18
70
-39
-125
-41
2
-9
-91
20
69
-2
-127
117
97
-98
24
-55
-49
73
-54
-42
85
46
39
108
-79
-41
-36
29
-127
-16
56
86
-49
-104
-2
56
-55
66
-64
-17
29
-86
58
7
-60
-102
127
20
91
-23
55
-5
-17
-127
86
-33
37
-26
4
30
-97
-51
-92
-66
-28
1
-13
13
-65
37
-58
22
-39
-14
14
49
-105
39
3
-6
-127
115
56
-55
-83
-3
101
-46
41
-62
-45
-42
4
24
1
-2
-53
-21
123
127
-69
-32
-3
-69
-5
-51
77
-19
20
-25
-35
18
17
-33
-37
22
31
107
-122
51
-75
-127
-14
36
38
-8
57
-92
-105
-12
75
70
-42
17
-2
-12
31
-127
-14
-15
7
-107
-44
120
95
16
-78
94
16
-19
25
95
75
-70
44
35
-112
-60
-2
-65
-52
-15
-95
127
71
-94
-46
-15
-47
114
-6
-52
-13
101
17
-64
44
19
-116
-49
18
-14
-16
91
68
126
59
-13
-124
109
-59
28
127
-11
35
47
-17
49
121
46
72
115
63
-53
-101
-111
29
-58
-55
41
-28
127
0
18
-12
39
-44
18
-22
-67
-14
36
46
-20
-80
1
44
73
44
45
40
60
19
95
-127
68
77
46
30
3
31
-39
-60
-50
-54
22
47
39
-10
4
9
26
-57
-5
35
20
50
5
-47
-5
-76
-60
127
-35
82
55
-39
61
28
-5
-45
-14
-57
86
11
-52
17
-123
-20
-40
27
86
16
79
-12
41
13
-5
-76
-20
26
60
63
71
-19
-20
-42
-127
108
-48
111
29
-9
22
85
27
-33
57
-5
127
-38
5
-59
-13
16
12
-22
-50
37
-71
-8
-30
-8
-44
55
53
4
6
43
77
-124
78
-18
-44
40
-18
-78
19
27
4
11
-33
3
3
127
-81
2
-37
23
61
-118
70
0
-19
127
71
-6
-115
127
-83
54
44
0
-6
-67
-95
-34
-45
38
51
29
27
-79
-38
33
-89
-1
-2
76
97
30
62
24
-65
62
14
-66
-32
-59
-37
-6
37
40
-52
-72
32
-67
67
34
-27
-127
40
-30
12
10
-118
120
-38
4
-83
12
-48
-20
47
127
-9
-49
64
-124
43
-47
57
15
56
16
-24
42
-28
31
31
11
-33
14
-54
75
62
-28
78
31
-127
-45
-52
81
13
-78
31
20
-100
21
52
57
-127
21
46
-39
-104
3
-80
1
-51
-45
-127
-13
7
32
63
-51
-21
-113
31
33
38
-52
-54
-49
56
89
-26
-50
-21
83
45
-78
-86
-92
-6
-127
8
55
49
95
46
-36
-47
36
-4
19
5
127
-24
-48
54
3
-7
-24
-9
13
13
104
-125
-122
28
-64
6
-46
-32
-51
66
-15
59
-7
-40
-11
-76
26
22
-82
-54
-22
27
-99
-28
-7
-27
-127
-65
58
21
33
-31
113
29
37
87
72
-23
70
60
100
-10
86
13
-15
-48
35
-6
-4
2
71
58
127
-26
-5
18
37
29
-89
-30
-45
21
-15
-35
-60
-60
-3
127
10
30
99
106
-101
60
47
-69
71
-75
13
-3
74
-36
53
24
42
-51
35
71
-33
13
8
-68
-18
-10
-111
-58
41
-73
-81
86
56
79
-106
-35
-72
13
-127
88
87
14
-1
2
34
34
17
-52
-21
-21
33
22
-127
33
-45
-37
9
-4
5
7
-16
48
-21
-53
-34
-76
24
-43
127
0
-12
66
-3
12
118
-13
-51
-34
-22
5
-13
-10
62
9
-8
-30
-7
-14
-12
-59
42
100
12
-94
79
102
19
-76
-39
-88
-31
-7
127
-53
-82
63
34
68
13
113
-48
-21
-43
-3
-55
-14
-51
-59
-97
-75
61
92
-20
127
39
-2
1
0
-60
-25
62
-68
71
18
57
-80
-52
45
-7
47
53
-34
53
-92
32
-49
-20
-66
-49
-127
43
-64
-74
19
76
30
-41
22
-23
-52
-26
-48
-66
45
27
63
80
-56
-127
-93
-49
40
-115
103
103
24
-95
48
-2
44
84
52
-22
-88
-12
-102
-97
-32
-59
-67
-13
-33
-72
127
31
7
-87
57
-39
67
59
-71
30
-40
116
67
11
-85
37
86
-38
-43
-13
16
-12
-9
42
43
-26
2
14
89
-74
127
38
21
-53
-63
34
-24
71
86
38
-43
-15
-37
23
-50
15
71
73
-99
98
-21
-10
10
111
50
86
-127
-75
46
42
34
47
-4
-74
8
10
-11
-64
127
14
-39
-91
-12
-15
19
-34
-64
-85
-112
-16
36
14
-26
75
10
-41
-98
20
45
7
-89
-100
28
-74
-63
12
52
81
50
-28
-127
-56
80
-126
-24
-40
17
8
27
7
105
110
79
-62
-3
-49
21
-51
126
-11
14
-81
100
-32
98
-64
110
-8
-2
9
59
-122
-127
-53
-103
-76
76
-2
31
97
127
-77
-10
-126
-94
-87
54
-67
29
9
30
99
-59
-55
18
-22
-70
-105
-23
-60
-39
127
-2
3
0
17
92
13
-1
60
-10
15
-28
-28
8
8
26
-5
7
-58
54
31
-66
39
-44
-25
-49
45
58
38
-1
16
58
-67
0
-3
-3
19
-11
127
-55
-5
47
-24
-92
-117
16
-37
51
-99
64
2
19
24
20
-50
77
-127
-56
-48
39
58
-2
14
12
9
-68
-27
-4
-4
-74
-61
-5
-105
-46
-105
-121
6
50
23
70
28
88
-50
13
-127
-113
-34
14
30
57
48
-19
75
18
69
-44
127
-17
70
0
-19
-23
35
-59
60
-19
-83
-30
-58
19
-47
9
-10
-64
-60
11
-14
-19
2
67
-60
-3
-24
-39
58
-14
19
-8
-36
-1
82
-12
80
66
127
63
-70
39
-21
-12
-49
47
-37
-3
-76
34
9
5
-32
-43
7
90
127
43
-61
33
-74
14
45
0
19
14
-62
119
5
49
32
24
-28
-81
-106
38
-1
66
-69
96
-37
104
-76
65
-26
9
98
-22
-127
-122
57
21
89
-8
31
127
-26
-48
122
-17
-109
-69
117
-83
100
69
89
-56
-34
60
92
-55
-19
-34
-113
45
-65
10
-81
-15
-35
-54
17
12
-23
-9
-18
70
-18
55
-37
26
-71
49
-33
28
-65
-98
-72
-127
36
-10
-26
0
63
-43
-80
-5
-39
23
41
63
43
-33
23
-35
27
1
-48
-49
-31
-62
-109
92
127
-66
-24
-2
-64
8
-15
10
25
-49
-41
-76
-73
66
-86
-65
-97
0
89
31
-22
9
-22
76
-127
-36
32
30
-19
-100
80
-49
18
50
15
-20
59
94
2
-107
52
35
-99
34
-31
69
-127
-60
-30
37
44
84
-17
-96
-9
74
-73
101
2
47
107
81
50
27
-35
127
26
-9
-76
42
79
33
-44
9
45
-46
-27
110
40
10
-4
-57
-28
12
25
-5
43
71
31
-32
-49
127
-44
-39
-61
-74
9
-23
1
-25
-52
-32
15
-36
-44
6
93
-11
28
116
-44
33
66
14
-49
-25
-60
-101
-101
-4
127
-99
-65
-37
49
-91
-29
127
-16
-79
-46
-21
-110
-49
-27
-98
-77
-44
-12
-13
-75
-67
-99
-59
-12
-14
-36
60
-39
0
-3
54
74
73
-23
-2
-83
99
30
-37
113
127
47
24
-102
76
-56
-106
-48
-16
13
45
-48
-36
25
-80
7
42
-80
54
-97
25
46
-113
69
41
-121
49
-43
37
27
-127
-38
58
-20
6
6
-27
12
63
3
56
40
-25
16
-16
-45
-112
17
-127
16
-79
15
-47
19
3
-10
-30
-11
-2
51
-62
-127
-79
41
-60
77
-110
62
-112
84
11
78
-53
-40
25
58
53
-46
20
74
71
-88
85
-81
-45
-19
44
67
-20
-6
97
-42
-33
22
-37
-52
59
49
-52
60
-91
27
-127
-31
-41
45
-21
-64
32
52
-37
-63
72
16
58
-52
36
-16
108
60
-78
3
42
-100
0
-19
-127
8
33
29
-86
-45
127
56
-21
7
-122
-76
-48
82
-47
-27
9
-8
-96
-39
-4
-8
10
99
68
-18
28
-12
19
-27
82
7
32
4
-27
67
-127
22
-31
42
17
-11
-45
-64
-32
66
-106
-20
110
-25
-26
73
90
-36
-1
-34
127
-68
67
-21
21
-46
-31
-119
-34
-44
56
60
-71
-2
9
35
-37
93
29
-5
83
-70
55
70
53
29
95
-35
-31
-1
16
-56
-65
99
-42
-126
-101
-73
-67
-25
-2
6
63
127
71
125
-117
-103
-22
-32
-72
82
-60
28
87
1
34
13
48
58
-1
53
-121
-62
94
127
-94
37
25
-49
-26
-6
1
-25
6
-39
-13
39
33
-13
-15
40
-61
21
-12
19
5
37
13
32
0
127
-37
-71
-16
115
6
59
8
27
-16
-86
-91
21
-114
22
17
0
-30
107
29
18
-22
-82
-61
-127
27
-23
-105
-15
-15
-36
-30
44
127
-18
19
58
-61
4
-14
-20
37
39
-4
3
52
68
-98
26
92
-127
-12
67
-106
3
111
33
99
82
75
-112
97
-74
100
8
-58
-16
-31
-10
-44
44
-73
-2
80
24
33
-4
48
2
33
53
23
4
10
-37
-23
-27
127
-27
-31
-25
-60
-15
-60
-1
34
49
78
-12
-12
32
-19
-15
87
-70
-16
19
23
-43
75
-23
20
19
-127
-20
-27
12
-30
-55
14
22
68
-66
-35
-52
-35
-51
-14
49
45
35
89
19
100
124
-58
1
3
-73
100
45
127
28
13
60
7
-68
82
-60
19
-35
-92
-37
45
-29
-1
-7
36
-79
35
-3
118
84
-24
10
15
35
44
127
49
-63
64
-61
-29
27
47
-33
-18
-14
97
51
127
24
85
-13
-67
-50
-59
-40
-39
-85
-96
-103
-32
-10
-62
-37
-77
54
60
127
18
23
61
-32
-99
-14
23
2
77
-14
21
-66
-18
20
-14
-58
38
8
6
41
38
-15
-64
-16
53
-46
-25
16
-13
3
65
12
-29
-30
6
-89
-6
-74
-42
-127
