26
17
-115
77
-101
-64
9
37
113
-44
-127
-127
69
-26
-60
49
-127
110
-64
20
36
-31
-73
-24
-38
-78
57
2
-46
-127
24
86
86
8
-92
-67
127
35
-101
16
29
-16
-31
11
16
46
-52
-100
-12
64
35
21
-4
43
-45
13
70
-37
-36
-29
-127
2
-83
-36
-6
-127
-44
-127
-96
-14
-127
-49
-73
101
93
20
-105
37
-56
-125
52
-28
-33
102
13
-51
-88
39
46
-69
-86
-88
127
-2
-33
18
-37
-89
-56
30
3
14
-99
-68
79
-34
35
43
-44
-119
-110
-127
-39
15
-127
0
46
21
-36
-17
-105
-127
117
-127
-90
-127
46
79
-57
39
-19
20
-75
127
74
-5
-111
-127
2
-101
-2
92
-36
98
-71
-71
-127
24
21
-73
-127
44
-49
52
-31
48
48
-127
-47
-27
20
-127
-39
-93
-22
-54
-26
-67
17
-57
-20
50
-75
-127
123
-116
-99
-3
12
17
-110
-35
14
-127
49
-114
-37
34
-18
14
-24
127
-69
-49
-66
3
2
86
25
-15
-111
51
-13
-46
-42
-37
-125
90
-54
127
-121
-36
-26
-44
-86
-36
-107
-61
127
-11
-46
12
56
69
49
-18
6
-85
101
-80
101
59
-39
-35
-32
-11
-30
-7
2
1
57
26
62
-32
-10
6
30
-17
21
-28
-21
-99
-23
-75
-65
-46
121
11
43
82
78
49
-62
26
1
-4
-9
-51
-127
31
-9
-127
-53
2
-14
68
-31
-127
0
83
65
-20
-5
33
82
48
-79
-15
3
65
-28
-15
-127
-62
-19
15
11
62
-11
71
19
-30
-84
-74
-127
-27
-52
-56
16
-90
13
-31
-30
4
114
-93
-8
41
-5
16
84
115
-73
10
13
44
13
67
-37
-35
108
-42
39
-22
-54
80
74
-54
-119
15
-60
-11
67
-33
-76
-45
-101
25
-81
-67
35
26
87
20
-64
-95
-127
-95
-70
-52
-107
-47
58
18
-51
-40
11
-74
73
-68
-77
-73
-53
-42
-36
-97
14
-126
-88
-68
-6
-127
-117
58
-25
82
-21
-127
-101
83
-38
17
41
-85
-32
43
-42
-55
-52
31
34
29
-28
-76
-108
126
-77
53
-95
-85
-34
-33
-63
67
127
4
41
-37
-30
72
103
-30
85
-82
-35
-127
-106
-116
127
11
-36
-68
-53
-127
32
-27
-12
-72
21
-20
-93
45
-104
13
-6
-127
102
-2
107
77
-18
63
48
-118
-112
20
127
56
6
-95
-107
1
-28
-60
-92
127
-13
-127
-21
-91
68
3
52
-113
-124
-70
76
93
-95
-110
41
7
-24
-127
21
-92
-76
60
-39
32
37
109
-99
-127
-14
-21
40
-99
-6
-127
68
6
-53
-127
-70
71
-6
-90
-101
-17
-127
57
127
-110
58
127
48
-20
-92
43
-77
26
-51
-127
-9
18
-110
72
4
72
-65
19
-20
-127
97
61
70
85
-95
-13
-127
-23
-127
32
107
-106
-127
-127
-44
-65
-67
-82
6
-127
5
37
-78
-78
-80
-102
-127
8
127
-101
-110
36
-127
-51
-7
-34
-120
-127
-32
-9
-49
-60
45
-85
58
-4
127
-12
-1
-53
-3
-23
17
-31
-28
-4
92
26
-87
-54
-36
-28
-127
93
12
-66
5
0
62
-9
6
-17
57
-34
49
-57
-32
-62
7
-67
-82
-56
-110
80
98
18
-14
94
36
24
-26
24
-58
-1
8
-127
-100
-36
10
44
-127
127
-50
43
71
9
-112
-41
-120
-74
-127
37
33
2
-109
24
-14
69
17
-37
-4
49
36
-24
23
-96
77
1
-101
-127
-105
-5
-96
4
47
-84
-91
16
-127
127
-44
80
1
-80
-39
-62
12
-8
-27
-97
-59
-76
-57
40
-106
47
-61
27
73
4
-47
-9
86
-7
88
4
-19
-32
4
36
40
21
127
-35
-83
34
46
-8
-123
-64
-91
72
20
-27
-16
-43
-127
-127
-38
14
74
-59
-75
-40
78
31
-26
2
12
-59
-101
23
6
-126
-27
-31
-65
3
-56
-119
-19
90
102
-60
-45
2
-23
24
42
101
-48
-12
-127
-5
-46
43
107
-127
85
23
-26
98
-5
118
-127
-110
77
0
3
-47
-127
-58
66
127
114
87
64
-3
-33
-61
-56
-56
3
11
56
-106
127
11
16
53
4
-69
-43
50
26
57
-63
-94
-127
-20
4
-45
23
73
1
46
87
40
-79
-59
51
48
-54
-127
-101
101
127
-22
50
-45
-60
-53
-44
-11
-32
14
53
20
-97
107
22
-25
-94
53
30
48
48
60
-11
39
92
-2
114
-9
49
-41
-68
-6
-75
-64
5
76
-8
-19
-32
-127
6
-108
-83
83
-53
107
-26
-65
47
-53
20
-65
-47
64
-89
-41
108
127
-127
-94
-83
93
28
-33
17
17
-127
23
118
40
1
3
-49
7
-27
-61
1
99
36
-29
14
8
32
-43
-127
-16
29
79
16
-36
-19
-42
16
5
-51
-127
53
3
27
-71
69
-49
-16
-47
-12
-21
-93
-112
-99
-126
-26
-7
15
21
92
-38
-14
-1
29
23
109
34
51
-113
30
-63
-46
-80
-48
-77
-43
-11
-34
18
-49
12
-28
1
14
96
57
19
59
-8
91
-87
-34
15
-96
-30
13
65
-35
-20
-127
-29
67
-84
-127
-127
45
45
35
18
47
127
-115
-82
-127
-38
110
-127
39
-127
96
52
-41
66
-87
-101
-26
40
59
16
-60
62
55
-42
28
-92
-28
9
9
34
11
127
-13
96
-42
95
8
53
75
-7
-117
-5
94
-5
68
2
-12
-61
17
-28
-6
30
-80
-32
2
91
-127
21
-36
24
-118
-119
35
-10
-127
127
-46
-26
8
-127
-39
-2
78
-124
-10
-2
-67
-99
-127
0
-127
29
-127
55
-127
4
58
-29
101
20
50
-47
-15
80
-20
-49
127
-18
-35
-8
-44
-101
-30
-9
-41
-44
5
-4
31
-78
-101
-11
-4
59
127
33
18
44
-127
-102
18
63
-9
5
2
104
107
127
-87
86
14
-127
-125
-45
70
-127
-50
10
50
-53
65
17
-55
127
-23
-108
1
58
-36
-26
3
-112
37
127
43
-40
54
108
-78
-90
-127
49
3
-110
-122
38
-127
-121
-31
-46
127
-61
-52
-127
-1
-70
-127
-53
-85
-15
-54
-117
79
-92
-37
44
43
-51
1
120
-96
-127
1
-28
18
63
53
95
31
74
60
42
-32
-101
-38
-127
-58
-106
7
-29
21
-69
41
-127
-80
-21
-9
64
-127
-83
-92
-43
5
-46
127
-25
10
-51
-82
42
-32
-57
127
104
-99
-20
-38
-54
11
-28
-49
-2
122
-127
4
-75
-119
58
40
19
127
-68
80
106
10
-34
-95
-13
-118
-76
13
-2
41
3
-110
66
-5
9
-82
86
-38
-70
-91
-99
-70
-127
-48
48
-24
52
-123
6
15
14
50
-39
122
-41
107
69
14
119
127
46
-117
-33
28
-110
-17
-72
-127
47
116
-127
-120
15
-94
-8
-127
-127
105
-97
-30
-100
51
102
-42
-74
-39
-73
35
-127
-127
-58
17
-127
80
-3
-88
48
-43
-28
84
46
-11
-35
38
95
-127
-111
-124
-32
-67
86
-126
-22
-8
-85
0
-66
-53
67
63
-43
122
12
127
41
21
35
-73
-127
44
-23
-112
31
42
-127
-15
35
-10
22
-84
127
-71
-127
-16
6
24
5
-29
-19
-54
71
49
-19
17
35
54
24
-37
63
-3
43
29
28
18
8
-127
31
127
-38
44
127
57
-3
-97
-3
5
4
9
-127
-63
118
-15
-76
-17
-127
51
-115
-71
65
-127
-18
78
78
-107
-5
-104
-31
-30
80
22
-37
91
-97
-5
-127
21
-13
61
21
53
-117
-127
47
127
23
-69
-23
-122
-51
28
4
72
0
-118
47
-5
-35
-12
127
-22
-86
-74
14
-59
-7
45
73
-114
15
13
-127
-10
27
40
-67
-13
2
31
10
-32
29
71
-28
13
-127
27
-31
-49
-11
-4
-4
127
-58
11
83
-39
-57
-86
102
113
67
-87
-33
-12
-18
-127
-64
-56
-74
-127
-127
-26
-80
91
62
73
27
-127
97
58
-32
73
127
127
-115
-46
32
-101
-25
14
-19
-113
95
-87
34
-10
-72
80
-127
-47
-25
-44
123
-49
9
77
38
66
-18
-33
3
-3
79
-72
45
51
88
-120
-24
-31
-105
-127
30
-34
-72
67
78
-112
-30
-19
-127
-39
16
127
31
73
127
27
-100
-98
-4
127
74
-35
-127
-24
71
-80
-127
37
42
127
92
-52
63
-127
-127
-127
-101
94
-54
-68
-8
-127
30
105
-18
14
-49
-17
61
-99
127
55
14
-127
2
-19
-127
-17
-127
-14
127
127
25
-18
-73
-127
22
11
42
14
-63
-52
36
5
-26
-72
-120
-127
-35
39
14
127
-127
75
-46
127
-4
-11
-62
1
-127
-22
-127
-68
-114
28
-110
77
-32
54
7
17
111
127
-127
67
-104
37
-62
-127
85
106
18
-1
31
-11
-127
-52
-16
89
-29
-48
-40
51
44
53
8
-120
28
-81
127
65
102
58
-4
-95
-14
56
11
-25
58
94
-76
-48
10
-16
50
-40
121
37
50
64
0
-15
-43
-127
-67
-32
-127
127
-5
-127
-127
-69
30
6
-127
69
-9
-78
-2
-46
-36
-127
-55
91
65
122
-16
