-127
6
61
-57
-127
-12
-44
30
10
-101
-68
-127
50
-44
65
-106
-39
-126
-88
-86
-6
4
-87
53
-21
-117
80
-104
10
-79
-58
22
-2
25
18
-36
40
127
32
-89
95
74
-76
-127
105
-71
115
20
127
-95
72
35
19
0
-12
32
-56
-17
127
-8
-15
-127
-62
57
-32
24
101
-6
-70
81
-40
-61
67
-59
79
-12
-114
-60
-127
-81
-37
14
-7
-72
-3
-24
50
-52
127
-127
-99
44
3
124
92
-104
-26
72
127
-72
-70
-84
57
87
-69
22
-33
123
51
-19
-107
83
-30
114
38
-31
-127
-86
-82
127
-31
-19
31
116
-77
-28
76
29
127
71
-40
-86
-43
-127
-91
-9
-7
-113
19
-10
-106
-127
24
39
-18
92
53
28
-20
38
-119
108
-106
-35
-38
42
86
127
44
-127
-87
127
125
-25
-87
56
48
-89
6
-92
-127
13
-57
-127
-3
-8
11
-125
-95
69
-27
19
-9
-87
-107
-62
11
127
3
34
-14
100
-56
-107
-89
-15
-60
-48
-127
-76
127
93
39
28
-127
-127
-76
-67
88
48
127
-45
-27
-56
-78
-127
-47
13
-116
16
-127
-20
-23
15
-32
115
-78
33
-17
-127
-17
-9
-73
-69
100
-127
30
-87
21
-127
-57
-25
-27
-121
22
-113
-117
37
-127
-127
-79
22
83
-18
-63
-71
81
-103
17
-68
-8
-127
-88
78
-107
-64
101
43
127
-105
-29
65
-65
39
-127
-1
35
-82
6
-55
32
127
-56
-127
-34
83
10
-41
-64
-39
-30
-127
-68
-53
-22
-77
-47
40
-100
14
70
-127
-65
33
-115
90
72
110
-127
-61
47
-100
-1
31
-5
36
18
-46
-2
-92
-4
-34
-127
47
-58
-36
-74
-95
-50
-42
-44
31
-73
-53
-109
-75
108
-127
-10
49
4
-57
117
-71
-91
-127
0
-127
-57
49
31
-121
33
-110
-69
127
10
-45
49
71
13
45
-86
38
-114
127
25
-108
-15
-82
-104
24
-46
32
-31
14
-45
65
-4
-54
51
-14
-127
-28
-18
-112
-126
48
84
-46
-17
-90
38
8
-127
-14
127
44
-122
-127
-31
2
-51
-45
-64
-13
41
-122
-88
-127
-21
-97
-21
-36
-125
-113
-85
55
20
-104
57
18
-57
-15
32
-1
-6
-55
-104
68
-8
13
7
56
-94
-110
61
-26
-15
-127
127
24
-33
-65
3
-86
-1
-43
89
-80
-33
13
57
54
34
44
-27
22
81
-127
-95
-66
-61
-78
45
-104
-127
-1
-52
-105
-127
-123
106
17
44
-13
-29
-122
8
-63
-46
58
22
-4
-43
0
29
-3
75
10
1
55
73
88
-43
-75
24
30
-26
-38
34
-32
-32
-110
10
15
13
127
41
-87
-62
54
60
-5
-81
19
-75
-110
28
47
-69
-19
-127
-15
37
-27
-58
-37
-113
-20
-56
-84
3
50
-7
1
7
-46
50
20
-4
-108
-31
42
-37
17
90
96
-98
-2
-127
-90
-103
26
-35
-52
-67
4
31
-63
-69
55
66
-43
7
-14
-54
-127
-79
-127
-14
1
-21
19
17
5
-40
68
4
71
-54
-38
26
8
-81
20
36
-4
37
-68
-127
-93
23
-13
-9
56
-34
-1
56
8
-48
-73
-12
-26
26
-102
-68
38
75
77
-16
23
-81
-120
-8
-7
4
-20
-15
45
17
-127
-47
-22
-41
-7
8
40
-17
-83
-17
-127
-100
-72
91
53
2
-75
24
-26
-82
-112
-60
-126
-53
-17
111
-22
-86
-110
-76
-11
93
24
7
-38
-35
49
-17
-127
-30
-31
-101
-35
36
10
60
-17
15
-127
56
-19
11
25
-62
-55
-127
-49
44
-89
-7
2
40
-89
-5
-91
-13
-119
20
-24
-103
52
-55
6
46
-86
-95
20
-14
-103
-43
-99
-58
-1
-77
-127
-42
-33
4
11
33
-127
-16
34
-49
-29
127
18
29
-127
-106
-33
-90
-10
-49
35
-67
-102
-18
-70
71
47
-81
126
-127
-47
-82
-91
27
-127
16
-60
-66
1
42
-66
-10
-88
-102
38
-49
-42
-67
-127
-41
-29
-101
-127
-102
20
-72
-45
-50
-16
-127
-32
35
-19
40
-43
-95
-8
-56
34
-14
-7
20
-127
-82
61
57
-125
-20
-127
-40
-127
3
30
5
19
27
-86
7
-114
4
-127
44
-59
-29
1
58
18
-122
-111
63
-24
-31
-127
-127
-123
39
-100
-33
108
-3
13
-127
55
-50
-127
-94
-106
-119
-127
28
-94
-59
59
-86
-127
114
-60
127
43
-37
-87
127
-114
59
-125
28
34
-9
-28
-35
41
29
-98
104
-51
72
42
-127
127
-25
-125
31
127
-48
55
53
-88
-127
7
-3
-127
-112
-127
-1
-127
20
-127
127
7
-15
-60
17
-98
29
-127
-96
42
-9
-34
-127
-38
-38
-92
23
107
71
-127
13
127
-69
-78
-61
-101
-49
24
109
-127
-63
-11
56
-95
25
66
49
58
-127
0
-39
-73
-127
-21
-78
-57
-127
103
-41
127
-22
94
52
-37
74
-127
-27
-96
-112
-71
124
-89
31
-60
-4
-127
-13
-14
-44
-7
-72
-61
-119
37
-44
7
-57
-62
-92
-105
-91
45
-25
-6
-92
-19
-100
64
6
16
33
-40
123
-46
-29
-107
-101
-80
12
-127
27
-97
67
18
-127
64
22
82
-18
-42
50
10
85
-127
12
-28
-127
-127
-54
-23
37
25
-127
90
-62
127
26
39
33
-101
-21
-127
-19
-121
-108
-127
4
87
-15
-127
-122
-61
107
-124
-48
-42
88
58
33
53
-41
-116
25
-71
-104
17
-50
-109
-84
35
-127
-96
19
-91
26
-127
-85
1
-83
-60
-73
127
-47
45
79
-127
-118
-62
-110
-110
35
80
-127
38
-120
-48
-127
17
-56
-113
-84
-15
-110
56
-47
-127
100
-54
48
-127
26
63
-25
-68
-71
-127
127
-127
-72
4
127
-94
-32
-105
-127
12
75
-127
-93
34
-127
-52
127
44
77
78
118
66
-127
-101
-50
78
-111
2
-4
-12
6
55
78
1
-127
127
-127
-127
-87
108
-74
14
38
-40
-53
-127
-49
19
-107
-65
-45
81
47
116
-127
103
-11
-16
-19
-84
54
39
-74
79
-26
106
-127
-17
-127
-125
-109
31
-127
59
-102
-72
-75
-92
-127
-94
-120
-96
-127
-88
-124
97
-114
-25
-102
41
107
-54
-127
-127
-34
-5
-95
127
-127
-96
-107
-30
-10
-127
33
42
-76
-108
-53
40
-11
109
30
-127
-127
-127
-61
-9
18
-3
88
34
85
22
31
-24
7
-34
-3
-2
-55
-27
-88
-30
-21
-52
47
49
7
-54
-95
-17
-97
34
-43
-92
-92
-24
7
-60
115
-93
-41
-4
-84
-28
97
-63
-106
81
5
-34
-86
-20
-18
-45
-24
-19
-108
-74
65
-47
-21
-25
117
-64
22
10
-32
-13
76
109
12
-45
-84
25
-17
73
-65
8
-86
24
-30
30
-75
-78
-2
-98
-115
-67
-58
-81
-33
-24
21
-85
-36
17
127
-43
-67
-6
-76
20
76
-12
127
-127
40
-101
76
-127
-66
-26
26
58
-76
-47
37
-63
-107
-36
-15
127
-101
-30
47
-87
-90
-72
-65
-57
-4
-33
124
23
-127
10
118
4
57
43
-21
-46
-35
-70
-80
6
-63
-46
27
-21
-44
-93
-2
-14
-2
-11
-74
-103
39
23
-45
118
49
-49
-83
35
-73
9
-25
-115
-107
19
83
26
-127
89
22
-90
-89
-42
67
7
-106
-81
-73
8
66
-127
-7
-6
-21
34
-48
-82
-66
-19
-55
-49
6
-98
-51
39
-59
-62
61
56
-127
-10
-81
-72
-33
-127
59
-8
-99
0
56
-102
33
50
44
-46
-16
-122
-52
-25
34
-127
-127
-39
39
-45
-32
61
-65
50
-82
-4
49
-46
9
-8
-74
19
95
-105
-32
-58
-75
-54
-87
-103
-45
-19
-115
-62
-127
46
-40
0
-126
-67
37
-13
-73
-127
26
-127
55
63
-50
11
-62
84
-111
-127
15
41
36
-49
30
40
-113
7
-12
92
41
-59
-41
-119
12
-9
-80
19
-9
30
36
-60
-127
-110
-127
-55
63
-73
-47
-24
-83
-28
-78
-53
99
56
-127
-21
29
55
22
70
-84
-18
-19
-88
-22
22
-61
26
108
-127
20
-22
-127
35
-91
29
34
-26
21
-5
-88
-76
19
-52
-23
-119
-84
-56
-10
-48
-46
-35
-60
-106
93
-85
-78
-16
-5
-29
19
-72
30
-79
-127
2
26
31
-63
0
21
127
-100
45
6
56
14
63
-77
-107
86
-30
30
25
30
-3
8
2
-38
70
-82
-127
22
-123
-61
-13
-23
13
-96
-39
-127
0
-11
46
-65
53
-74
-109
45
54
2
-50
-58
-12
-54
-57
63
22
42
-2
-4
-58
-3
-58
-14
-40
20
-42
48
-127
40
-31
39
2
3
79
20
92
-43
54
-1
39
-20
-69
-93
-29
-55
40
-61
-62
-25
-87
-99
-16
64
-34
-127
-82
-68
-86
-24
-79
-29
13
64
-80
26
-22
38
-38
0
-119
62
-61
-49
61
75
23
-52
45
-6
-47
-12
-6
-99
31
-54
-55
-27
42
-78
55
-49
0
19
-26
31
58
120
-7
-51
-124
-59
-35
49
-31
0
-35
25
-2
-14
35
-53
-35
-115
-62
-110
-31
-22
-42
-25
-54
-48
-48
7
-39
-32
8
-20
-54
26
-97
-113
-81
-77
72
-58
1
-127
37
-45
-35
-1
-32
-127
61
49
44
-9
25
14
7
1
-21
-22
-47
32
37
-53
-127
-92
33
-17
-30
51
-11
-31
8
3
-4
-27
-42
-70
-19
-127
-47
-40
127
1
7
-97
-74
-35
-48
-15
70
-107
37
65
11
4
-39
-34
-7
84
25
44
-41
-109
-80
69
-100
-13
-6
-10
-52
65
45
-52
-44
42
-32
-49
29
-70
85
22
29
-32
-37
16
84
-18
93
24
39
-127
75
102
-53
-58
-3
-6
-3
-74
28
-37
-26
89
-1
8
-49
-100
-35
-47
61
80
66
-56
-20
0
-58
6
-70
-72
78
79
7
62
-3
14
2
38
-38
127
-11
25
34
-51
-68
-22
-85
-127
-1
5
-25
58
-2
-127
-24
27
-36
89
-49
-2
7
-39
-45
-103
-83
-55
-48
-3
-12
-66
37
35
-6
19
3
-15
20
-57
-1
-3
11
-62
-38
-50
-48
-77
-53
53
-18
-26
8
-6
-110
-29
-60
62
43
-67
-85
-45
17
-109
-40
52
-57
16
-42
70
2
-42
-14
11
13
22
18
-14
-66
15
-53
-23
-127
15
0
-71
-12
-39
-73
-62
-6
-127
-120
18
-19
34
-47
-23
-118
-65
-15
-4
-88
31
-48
-98
-40
-93
46
-2
-47
66
-1
42
-24
0
-39
44
-51
20
-20
52
7
1
-72
25
-24
-127
-14
-85
-73
-59
-81
-21
-1
23
-44
-31
-40
21
3
-34
-28
72
52
30
-27
59
-23
-113
-55
-124
-127
17
-5
-43
-31
-33
-42
11
-32
-63
45
-54
-84
-78
-45
-17
-53
-55
-127
-44
-69
111
-58
-17
-127
-127
-90
127
-76
11
-11
-96
17
-33
-119
-36
-45
-33
-19
44
-32
-58
-11
-69
-106
5
-72
-50
42
-68
-29
-127
-85
4
-5
-113
30
-106
-97
-49
-102
-127
-104
-14
-34
10
-125
57
-32
-51
-35
-127
7
25
62
33
0
26
94
-127
57
-105
-121
-47
-15
23
-93
103
-5
4
-15
-24
-24
-118
3
-1
-10
18
-32
-105
31
-6
-127
34
-92
-17
127
14
36
5
-52
-127
-54
-55
-28
2
-76
61
45
-3
66
56
127
54
37
-23
-104
18
-33
47
-73
-72
-27
-8
-92
-60
-127
127
41
-127
-15
-115
-29
28
-85
-127
-63
-51
-127
24
-55
0
-93
72
15
-127
19
-4
18
-87
-80
65
42
-127
4
-17
-91
-27
-103
67
-102
103
44
2
54
9
-108
54
-68
127
-38
-127
-80
-36
7
-65
-121
84
-16
11
58
-49
-72
29
17
15
37
-8
107
-127
-42
-58
1
74
-61
19
47
53
-27
-42
38
-80
-87
-48
-45
37
-18
-21
80
-73
-124
42
-55
-26
-17
-101
-90
-81
104
-90
35
46
-67
-29
-18
-14
39
60
-96
-115
75
-80
52
89
-107
-3
-30
-84
33
27
-26
-114
-79
-127
-103
-83
-119
-66
56
-6
-28
6
19
-61
-85
53
1
70
-106
33
21
-13
-51
-30
-53
-39
-29
-127
-8
-40
19
23
-127
-69
-27
-18
-53
27
-68
-16
-77
87
127
21
-35
127
38
-107
-101
57
127
39
32
-28
-14
-63
127
-54
32
-79
39
-34
-52
-63
13
-71
-28
31
-83
-113
-117
52
4
16
11
-90
30
104
24
-24
-43
21
127
-11
-76
-23
123
8
43
-116
37
-47
20
-28
13
127
-80
-67
31
77
-85
38
-79
-13
-17
-127
-38
-38
-127
97
127
48
1
-23
46
25
-78
79
-77
15
-127
-75
-27
-15
-27
35
19
28
-11
-1
10
-106
58
-31
-55
-17
-9
-50
43
39
44
-77
29
43
-127
-39
33
41
74
63
31
-121
-94
-62
2
34
42
-127
23
-84
-127
38
64
-34
-113
-127
55
-127
42
-127
-43
-35
-18
-127
-55
-25
-74
-18
40
-53
-127
103
-100
22
11
-72
-112
-59
-80
-91
71
-27
-127
-127
-127
27
70
16
-72
34
6
-72
6
-81
-18
17
104
-127
46
-74
57
-43
54
-21
-74
-100
108
30
2
-2
127
-54
0
-127
55
-71
-8
-51
-127
-5
-127
-95
127
40
-9
18
-106
-85
70
15
-34
51
-20
-39
29
77
101
-56
114
97
75
-75
-119
127
-122
-127
-54
-89
44
2
-127
27
-127
-17
-127
-91
-99
69
-34
117
50
-110
-9
107
-73
101
127
-50
-127
-24
-101
-89
-56
55
-8
76
-62
74
-98
-102
-127
-73
-29
-89
5
49
-125
69
36
-102
-72
-127
4
-127
-9
-14
-125
-127
71
41
127
-89
77
-72
18
-127
62
103
-110
-127
-60
-43
-127
-81
-74
-127
-127
-12
-63
-88
-127
-73
56
-17
-53
43
-95
-51
127
-127
-45
13
-26
-76
-29
-118
-127
39
-109
25
-72
-121
-106
120
50
127
61
86
-120
-87
-127
18
-39
-20
0
-43
-61
-64
-26
127
60
-127
127
-52
-127
-18
63
-51
-19
-55
-127
74
-104
-107
27
-127
-51
-127
127
-127
54
25
-127
-83
11
-13
56
-52
127
85
-37
-85
-100
8
-31
36
2
-127
-76
-120
56
-116
-123
-74
44
34
-28
-109
45
-127
-127
101
127
33
102
-117
-88
59
-12
-39
43
-127
122
-16
78
-70
-107
-13
93
70
-17
-12
-53
-127
-66
-26
35
73
-84
-56
-44
-84
45
-127
-57
-69
-30
-59
-99
-105
7
-127
16
-54
-120
34
77
37
-34
16
-10
-127
-127
-69
-81
-77
-96
14
-94
43
-92
-121
-59
119
100
-127
-65
127
-127
77
-30
-77
-35
-48
110
-13
82
20
-127
-33
120
-72
93
19
22
67
-84
-10
27
-127
34
-9
45
-127
-127
88
-114
-101
41
-116
-43
-117
-56
-49
-57
-125
-46
-127
-70
-73
-28
-98
28
-127
-127
-9
50
-60
2
48
52
44
79
-2
80
127
-67
17
127
-94
106
-25
-15
-4
10
66
0
-32
36
-8
-47
-77
15
-99
-72
29
35
93
12
-23
40
21
14
-17
-51
14
67
-27
-16
-57
-81
-93
-127
-29
-27
-69
-79
-109
-60
-84
85
-91
-39
39
-24
-24
127
-12
-73
45
-34
-58
-127
-127
-45
84
-87
42
8
21
-127
-19
-23
-45
-28
-127
-93
39
67
-78
-47
-82
27
-27
-127
-91
72
-15
-43
-100
6
-92
92
-6
-74
4
-105
-127
-14
16
-36
7
97
-127
-35
-8
-48
-127
68
-93
-127
-127
-44
-30
-24
-93
50
-37
-24
-41
-89
-21
-35
10
-46
7
-53
-106
-38
-73
127
-30
-16
-42
-106
-64
-16
-84
-66
-95
10
-118
-33
24
29
-81
-37
-30
-86
-106
-80
-127
-127
-127
28
40
-127
27
-23
-127
-51
-31
20
-36
17
-113
-12
-83
12
-103
32
-38
109
-42
62
-61
-31
-69
-84
-14
67
-127
-103
-12
-63
-97
-104
-47
-127
-6
33
30
48
-127
-55
-3
-23
23
-111
-8
46
-13
46
16
-83
26
-17
-39
-102
18
45
42
-66
-127
31
74
127
-6
-34
-85
28
-16
25
-24
48
18
-127
-40
-97
75
-10
-40
25
11
-93
-127
44
-127
-2
65
-82
127
10
-78
98
-49
-40
-87
106
-55
79
-127
24
92
-17
45
63
53
46
63
-127
19
20
-58
74
-109
35
-94
11
-69
-57
-29
-2
39
-19
28
2
-52
-101
13
-94
48
-105
-17
84
-43
98
23
0
-105
-3
-50
0
-10
-29
12
102
63
-41
55
12
-12
-91
-60
-127
-23
32
5
-107
70
3
-82
-88
-59
-119
13
43
-127
-61
-87
21
-52
-57
-94
7
-61
13
-34
-127
-81
-2
-84
19
-84
-41
-127
-127
127
-63
21
122
-97
-61
-79
82
-106
-14
71
-89
62
-127
14
45
-58
47
9
127
-42
-36
72
108
-60
-25
-26
7
-53
68
49
-8
92
-102
-18
-33
3
7
127
-105
-84
-18
-126
-60
-127
-67
6
-104
49
-89
-46
34
2
-1
-77
110
19
-116
-87
-83
-46
79
11
-51
19
7
-1
-1
36
-36
-61
104
-127
-39
-109
127
127
104
53
49
32
98
127
2
-127
-127
-108
-112
-40
40
-53
-104
-100
125
127
-127
81
17
-20
-108
13
-127
-53
-86
-127
-15
-12
-49
-127
-13
-97
-127
-127
14
-84
85
-46
-47
7
51
-127
-127
-83
-20
-98
-94
-109
-13
-70
41
-112
-30
19
63
-106
4
39
-91
-90
-95
-6
12
-64
-21
-42
127
36
-104
41
-31
127
-72
-70
85
-87
26
-100
127
10
-82
86
-27
-127
-23
-4
94
-122
-127
-36
-40
-87
14
-127
-9
-5
-99
22
29
-118
-38
104
22
-127
-123
-99
-89
-96
-1
-113
-78
127
-9
-23
31
40
-34
67
-57
-30
-123
127
-49
68
-111
-127
-127
127
-49
-127
-59
-87
30
-110
-2
-124
-125
38
9
-117
-14
0
-65
-73
-127
38
-127
21
7
-105
63
-35
66
-13
104
0
66
-102
66
25
-97
-95
-116
70
-121
19
-95
-53
45
-71
-82
127
-81
-63
-55
-124
-17
-104
-119
-91
-68
-3
-9
44
127
-50
-127
57
-10
29
-2
-72
-1
-119
-65
-31
-106
31
-8
125
7
2
-87
-127
-76
-69
-121
-127
127
86
-86
-64
39
69
-127
23
-38
-127
-114
-110
10
-61
108
-80
-101
-76
-32
-127
21
64
47
2
-103
-75
-124
74
24
31
-70
56
27
-127
-127
73
-94
-8
-123
-114
-27
-38
-48
-67
-92
-127
-127
-127
28
21
-81
55
43
-127
-124
71
-105
26
-77
26
29
-75
100
-71
-35
13
-114
-99
-101
-112
-127
19
14
29
-94
-124
127
62
-51
19
-26
-28
127
-78
52
86
80
-127
22
71
-127
-123
-24
-101
4
-87
-74
64
-110
-73
96
-127
-82
-84
-96
-115
-98
-9
10
-127
-127
-24
8
125
-127
38
41
-40
16
-127
51
-100
93
15
43
-11
5
-96
74
-122
68
16
114
-77
47
-28
16
-127
-42
-69
39
53
-52
95
-66
9
48
-14
2
71
1
118
-127
-7
-68
-127
-87
-118
-88
-75
63
38
57
-116
67
32
34
-127
10
-14
-88
-59
-127
-127
34
-75
-103
-80
-28
105
-113
-68
51
