18
6
31
-28
-65
-35
7
-65
8
57
39
9
45
-54
-37
-23
-45
-36
-51
75
-18
-16
4
-11
-18
44
-34
54
41
23
-47
11
1
-27
-24
-47
51
-2
-127
15
-5
-86
-29
17
-54
22
38
14
-22
-74
-5
16
17
-18
27
-36
-31
13
65
-42
39
56
42
16
8
-69
-33
41
23
34
-8
127
48
41
-7
11
-12
7
-3
-64
-46
50
51
-31
-5
108
-34
-16
-19
15
-60
29
-10
-10
47
32
43
-14
16
41
38
10
-75
38
-29
-17
9
-36
0
24
40
-32
19
9
10
-17
32
-33
-25
-45
-32
22
-8
-8
1
26
15
43
-30
11
23
11
26
24
-37
57
39
21
90
-26
-43
-3
-3
21
-38
16
53
80
15
-1
-36
5
-8
30
-50
-23
-48
8
-31
19
-70
-35
-1
-3
6
-39
-7
-35
15
0
-8
53
43
54
-7
75
-79
-6
-51
-77
-15
-127
15
5
51
-126
-62
-66
20
-48
37
-80
49
-64
55
-8
-66
-25
-21
0
9
40
-30
-10
-40
6
18
-85
-36
-42
-107
-6
-2
-6
7
-88
7
24
-86
23
-50
-34
27
-64
-109
-28
11
8
64
-10
-29
99
-70
11
15
57
79
28
92
-39
-51
-84
-101
-26
68
-69
38
-47
-8
12
-23
46
-7
34
-19
127
64
6
63
24
73
16
-4
78
60
35
44
-6
-22
2
30
16
-67
25
24
56
-71
110
5
11
13
1
-38
30
-58
54
52
68
108
-49
19
38
45
-22
-58
84
12
-26
9
50
68
70
82
-19
8
-16
43
-127
57
-45
12
1
5
18
-5
-35
-24
25
93
103
21
-28
55
-50
-58
58
7
-27
-48
-89
-9
-49
122
-17
-31
-55
-8
-47
-62
-8
22
-59
72
-32
106
20
9
-44
-54
32
4
80
-17
4
68
-6
-3
57
21
127
-1
81
18
38
27
-17
41
2
50
-27
-3
8
81
23
-40
-1
14
39
-24
-16
-97
-17
42
62
-17
7
-21
34
-33
29
11
-51
29
-41
-53
-19
13
-7
47
-1
-49
7
-6
30
0
18
59
-23
10
42
41
67
14
16
-60
16
30
-51
-9
-42
-10
127
-58
-12
64
-23
-17
-47
26
7
-58
7
-5
-57
65
21
-51
-21
-56
-38
38
-31
35
-26
29
17
59
-27
-16
45
63
-16
-14
45
66
-1
7
-38
11
-29
11
73
25
127
59
-6
-27
-54
80
-37
16
46
32
-24
27
-29
73
36
-16
4
49
-67
36
-39
-88
-21
21
-2
10
56
-7
14
-5
-35
-19
-87
-16
-4
30
74
-79
75
-8
-9
26
-13
-44
68
51
-67
-27
-69
-49
-55
24
28
-12
58
-65
-9
6
-85
12
-72
76
-41
-40
-40
-27
7
18
53
75
-28
-22
28
121
18
-55
14
-4
-7
-8
127
21
-53
70
-29
-27
1
-57
-94
-16
5
65
-70
-51
0
-76
61
-48
-9
56
45
-85
-9
42
84
28
-58
9
-51
-9
-54
38
-75
-13
-50
24
2
-127
53
32
-1
8
26
-8
27
14
77
19
-18
-46
-29
-47
-70
15
-33
4
-28
54
-80
-88
10
61
-15
20
60
38
-53
18
-47
-63
-23
8
45
11
-3
64
32
-25
-27
-21
-96
-30
-101
10
-8
-46
32
17
65
77
-18
-88
55
13
18
-35
12
39
46
24
-16
-21
114
-18
-94
-73
-107
25
-82
13
18
21
-5
-15
-56
-20
-23
106
-114
-53
-12
-8
-111
46
-127
-60
-13
-34
10
-65
-74
95
-88
54
-39
73
-7
-29
20
-42
-3
52
28
55
66
-103
-22
-88
-62
15
-2
41
33
50
-85
-114
-68
-38
-65
-34
-9
5
16
34
-18
2
21
-58
13
5
-44
-12
20
98
-36
-109
-62
13
-53
-46
0
10
-68
-61
-5
21
43
-11
-34
3
-83
32
-45
-25
-20
-13
1
16
-47
54
94
-127
10
19
63
-4
14
14
-2
21
31
-43
-13
12
4
52
-13
-8
-7
-66
21
-7
-33
-13
12
17
-16
35
-127
40
-121
59
-61
-100
45
1
103
-22
-56
16
-58
103
-64
3
29
-126
-87
118
-14
-21
26
1
-101
114
-44
-124
-61
-126
-13
-118
5
36
73
-50
-27
-90
36
55
32
74
-32
61
-57
6
1
-35
9
11
-13
18
-27
-37
-1
41
67
58
15
23
57
-10
30
-38
24
-28
49
11
95
41
44
25
30
-8
6
14
-10
50
26
31
-54
56
127
9
-50
62
-53
-6
61
30
33
-55
64
-28
-42
36
32
-38
-82
-7
-39
8
-17
66
-15
0
-26
-1
-53
-26
35
29
11
-51
29
-33
-45
-1
-11
-37
23
20
-49
17
-22
-101
67
121
90
17
35
18
94
-15
82
99
-26
-17
-51
-50
-123
62
-29
33
-63
110
67
77
-16
-34
-52
-85
75
-23
68
-35
7
-21
46
35
33
3
108
127
-87
26
-32
-43
-63
-17
-52
-72
4
37
35
-42
102
-26
-30
19
22
-18
-31
44
38
-35
-52
-55
-65
-8
-19
-59
-48
-4
-73
48
-35
-96
-2
27
-21
-40
-30
4
48
-101
-40
-59
45
-98
-58
-75
38
-36
8
-84
-28
-50
69
62
-47
-31
121
-28
96
9
-76
-24
-1
35
15
-32
41
-75
-6
3
47
0
20
-29
-90
91
-71
-74
32
-30
127
17
-13
-67
62
-24
-4
