-42
-24
45
119
-90
106
34
-66
-77
-26
95
47
-106
74
-96
-127
28
40
17
63
-55
80
100
88
4
11
66
-7
-56
-61
-84
-82
-82
42
-48
-13
45
38
-30
23
-24
-15
103
127
11
-24
71
-41
87
-25
-75
-13
1
35
-62
37
-80
-28
-127
14
44
45
-33
54
-14
75
35
-20
46
2
50
11
36
125
-5
92
43
-19
-35
5
-127
-18
-56
-30
-76
-23
-66
1
-32
95
7
120
-5
-115
-37
-20
-123
-108
-69
50
-29
94
-50
-30
-49
-39
-14
-87
-114
41
-23
-11
-46
51
-14
-26
-74
-127
-76
-22
22
15
26
-2
-17
-76
-22
-82
-37
22
96
-19
-47
-13
-127
-46
71
45
-58
24
-23
-8
44
11
98
-48
-33
76
-127
80
14
93
23
-89
51
-59
16
74
-3
12
99
45
-58
-57
-3
-41
39
-75
103
-44
63
-3
-2
-72
-23
-21
37
-20
18
-33
-2
8
-23
-44
-127
115
-70
38
-84
-10
72
41
-127
-34
80
21
10
-91
36
40
5
-6
-1
-23
13
-105
8
-7
-4
-22
41
-8
-37
9
34
32
44
-4
-24
-56
68
82
-11
56
-11
29
-83
-38
-31
-18
-18
13
127
43
-16
-7
-65
2
107
59
-23
79
29
9
-78
48
-33
-30
8
56
-25
10
-127
-41
8
5
-39
-24
-60
-24
65
-28
51
25
-9
-62
-39
-68
-19
-5
-25
39
44
-127
-4
-72
81
73
-2
-6
20
111
25
57
73
57
-2
54
-16
105
11
63
72
39
42
3
-33
-61
7
-127
-35
-20
31
31
-25
23
34
32
-31
105
33
31
65
-49
68
17
-9
-28
14
-49
-33
-38
-34
46
50
-7
39
-70
46
73
-19
-40
-81
-42
43
127
-21
-27
30
43
11
-43
39
24
-6
26
4
-55
14
-41
-21
-34
-29
72
-94
127
26
-55
77
10
-38
46
72
34
-39
13
28
-104
-65
-2
36
-127
81
-14
-3
68
22
-37
12
24
-38
-112
50
74
12
-40
-25
34
-42
14
-29
92
-1
41
37
81
-45
-127
120
47
44
2
-77
65
-64
60
15
-51
-6
36
-26
-68
-65
-14
-69
65
-16
-44
-6
47
-8
-33
-127
-71
-16
18
73
-43
-23
-30
37
-12
-1
49
45
78
70
-56
90
-47
52
49
78
-91
-43
127
-97
-66
-9
46
-23
104
-72
-72
-7
75
-16
-30
87
-28
4
-95
-117
-45
127
33
-50
-69
-51
53
-93
-12
120
45
36
16
-83
-32
89
-21
-16
104
-10
-57
-57
-51
60
-26
-127
82
-31
60
46
7
34
-53
-62
65
13
-31
31
43
-38
-62
-48
37
-63
82
-54
-100
87
30
53
-14
14
40
-33
29
-64
127
2
66
22
-79
-8
-17
-32
23
-16
102
106
-30
42
-7
-113
-127
53
-47
76
-75
5
-84
-94
65
33
18
52
-82
26
-119
-61
83
-24
-16
2
-68
-80
-24
-52
83
44
64
-3
-60
-19
-19
-21
-7
127
-89
4
25
-35
6
-5
15
