6
74
-64
79
-12
8
-3
-62
-2
41
127
-46
32
62
58
5
-19
-47
54
89
-49
9
-8
-35
77
-54
-7
-42
-48
-15
25
-63
40
44
-61
6
-15
-5
71
-19
-44
107
31
-10
-69
-68
-103
15
2
-68
58
19
13
93
12
-17
-22
-26
-18
-1
3
-17
-19
16
-28
90
38
-86
25
2
6
-15
63
-57
39
-2
30
-8
8
-34
-17
29
-50
-8
-35
-47
-9
-61
83
51
121
31
-19
19
-56
60
-13
41
-59
70
85
-67
50
46
-5
36
-1
-23
27
39
-36
37
-24
7
-3
-58
-10
-17
12
-90
-18
55
61
20
64
61
31
-57
55
95
18
-2
8
-51
-54
-26
36
86
38
25
7
-17
8
13
89
30
108
12
38
7
-11
-53
-51
20
-46
11
22
-21
77
-35
-16
-37
73
2
1
51
-83
25
-23
30
-25
7
23
-58
4
-42
-34
29
-26
28
-29
23
33
49
31
-12
-1
35
-39
50
12
34
-11
127
-38
12
13
-35
8
-8
-28
36
20
-31
33
9
35
1
2
-43
-22
40
-18
20
-45
23
8
37
27
-59
-44
9
-59
-33
-14
-33
19
37
8
-53
-2
-82
52
-62
21
18
-3
-11
7
-2
-57
32
-29
73
-7
0
-5
21
-21
-10
-55
-24
-10
48
20
-12
-33
16
-34
65
-26
-77
-18
-19
17
81
-28
-36
-29
-51
-3
28
11
33
-14
-74
44
77
3
5
-58
23
24
13
-32
12
30
-24
7
-29
60
36
-64
-9
41
44
-95
13
20
89
-79
43
23
28
-54
21
-14
17
-50
24
-58
-55
75
62
44
-10
-5
68
79
51
-45
-32
28
23
51
3
67
68
-6
47
70
-11
21
22
-27
36
30
13
-32
31
8
19
-3
0
70
-26
-17
-34
6
8
73
-42
55
19
47
13
29
-7
8
-44
-46
30
-11
-28
79
24
22
-50
-33
-63
102
5
43
-7
83
-2
-30
43
-11
-9
-29
10
-20
15
65
-70
26
11
19
-12
-44
-6
-22
-23
66
-19
-27
66
-19
51
-20
33
25
-17
55
-99
2
-72
21
-9
-35
61
6
-3
-41
50
-23
-37
-35
65
9
-99
4
48
-54
29
-8
15
22
19
32
-9
-24
-13
24
-51
43
4
-37
3
55
26
-11
-25
-6
30
-72
-33
25
80
50
3
-49
-13
46
-53
-22
-67
1
-127
-32
-10
-39
2
-15
1
-27
-28
47
-53
2
-3
19
-8
-25
33
30
18
14
27
65
-44
0
-16
-12
-24
-21
16
49
-2
30
111
27
-25
1
-24
-31
-3
7
48
-2
-8
-23
0
-16
3
-7
-6
8
13
-54
-15
-17
-57
20
-63
26
-31
8
-8
16
34
-49
70
30
-32
65
26
-71
-64
-47
5
-19
23
13
43
-49
35
-73
76
0
-84
-66
-25
50
-34
-12
-65
-39
-16
8
40
38
-16
-8
-54
3
3
-26
68
-26
-31
-108
19
36
6
-10
-69
37
-10
-23
-40
20
-77
-18
30
85
-70
41
9
21
17
24
-10
48
47
16
-15
51
56
-22
21
-15
11
-10
-17
56
20
31
-47
-69
8
102
106
53
-23
45
-34
-19
-38
0
-33
22
-12
29
53
-25
3
18
22
-12
-3
6
50
77
60
44
-32
65
74
-17
17
35
12
-4
-67
25
30
-11
10
-84
84
47
-6
-6
9
-30
-4
109
119
6
-40
16
-35
28
52
-74
27
36
33
45
103
-50
25
0
-53
29
-53
44
-8
3
-31
67
-77
-9
11
1
-4
38
91
-40
23
19
5
-41
-8
5
-30
-12
22
22
-15
17
12
-127
31
-43
-7
53
9
35
-116
-45
6
61
3
-29
60
43
44
-47
-14
-31
20
-16
-3
110
1
64
50
-89
-48
24
15
-58
37
-29
71
3
-14
2
-3
72
18
-4
-17
-33
83
-1
10
11
-36
-8
45
-4
-4
-13
-9
5
2
-22
40
-24
33
-61
9
-10
-23
37
-23
13
-44
-103
-68
73
-21
-57
-5
13
-9
20
15
-80
50
127
14
24
-25
-20
10
-14
23
-80
37
22
-45
-10
-16
-37
-90
-60
45
78
-33
-48
35
-33
-46
-8
73
-59
74
-31
26
-111
12
-48
33
103
40
46
10
-64
99
-27
53
17
-68
37
93
-32
-64
-23
47
-71
-23
80
-39
36
6
-77
39
-55
-66
61
50
19
-29
-19
-9
-21
71
-22
22
33
-112
-111
-10
0
2
-47
27
61
-33
-84
56
-26
3
-95
-16
48
4
32
-84
-26
40
27
72
-33
6
-69
-36
-67
-2
64
114
-14
42
53
-55
99
-77
-59
22
-38
-71
53
-32
53
-57
-100
-59
31
10
65
-12
-52
-59
56
-1
-72
0
56
55
-6
-65
42
19
-53
-9
-96
-19
-40
-11
-1
29
-20
-86
8
42
-10
-23
-8
-58
54
50
-33
-57
-22
84
116
-12
-17
15
66
-63
54
18
-26
8
84
81
105
5
-69
27
-70
-46
36
-51
56
-14
97
60
-43
8
-48
46
-46
32
-1
49
13
42
-62
110
87
-67
-3
72
7
-98
9
-44
-6
-55
-100
18
-16
-16
32
-21
18
-64
49
-87
-41
-35
-18
-118
71
13
68
116
-3
-28
-42
-41
0
5
-25
82
7
-15
1
-91
-28
13
88
29
51
63
31
127
-18
27
26
21
66
-6
62
16
-34
119
-43
25
16
-110
-51
-45
12
-1
96
-8
-3
-30
-6
-25
-73
-2
24
38
-21
35
114
-4
-90
-65
31
-9
-35
90
31
40
-65
29
-70
44
-61
-9
78
47
27
42
18
37
50
-41
16
-19
78
-24
79
-4
-15
-52
-11
17
38
-115
-15
5
-3
51
-20
10
-4
15
20
58
9
-16
-36
-114
47
-30
15
-56
-19
-11
9
92
-34
-62
-78
24
94
-31
21
-51
35
10
-63
-62
70
-38
66
45
49
-58
-80
36
56
21
21
-58
17
2
-52
-63
-39
-22
3
-31
30
-35
-72
97
-25
12
85
-78
-26
27
45
-43
-29
-26
-46
-2
45
-5
34
-66
-48
-47
18
-93
-10
58
33
-45
26
60
37
98
-8
-37
-11
-5
-87
-4
-30
52
-43
12
-10
-10
17
12
42
59
-63
-12
-27
-25
-78
-72
-30
61
13
4
52
-28
-55
-87
-27
6
44
30
-26
-49
-58
-29
48
-62
50
6
-38
32
51
51
-5
79
21
4
-34
-27
2
31
-13
-126
-7
-46
-112
-56
16
-43
13
53
41
24
-16
28
30
-71
31
0
-5
97
-20
-85
31
-21
-86
-52
-13
-25
30
-22
34
-7
-7
-37
47
-59
-37
50
36
40
-94
22
-80
42
-27
-87
-25
45
-61
-37
-8
-61
127
-46
53
-57
-86
-39
-29
59
-14
6
26
-29
60
37
51
12
-4
11
-64
48
-12
-77
22
-8
-77
-35
-77
-24
27
-56
31
-89
-51
-49
-24
-14
-23
9
-68
-4
-33
-32
-16
27
40
51
-25
29
-9
-38
-120
-75
27
48
29
-90
-24
3
-2
-48
-24
35
-80
43
75
4
9
8
-67
29
-56
79
-42
42
-18
-4
53
1
-8
15
-34
54
-87
18
-9
-45
3
-26
4
22
-41
-29
1
-13
-47
52
-38
46
20
-69
9
58
-38
31
-42
-20
-23
62
88
48
-48
-3
46
-14
-6
19
-36
18
58
26
-28
46
-51
-10
-66
-49
3
-13
127
21
-25
34
-6
13
24
4
51
-30
-3
36
-10
-27
87
43
-61
3
-65
18
-51
15
-20
-26
76
-48
41
-34
47
12
30
-34
-40
19
-54
-5
-32
-8
26
24
0
23
55
9
-26
13
-60
45
-78
-42
11
20
34
-40
-3
-13
39
53
-30
54
27
42
49
-5
-8
26
-40
3
-19
67
30
10
-38
-58
-32
7
-2
-31
53
65
-55
57
-13
-33
-16
35
-26
-21
9
26
-27
-19
45
9
-8
-19
84
-4
-1
-47
-46
-18
4
6
28
35
17
-40
26
-22
-32
-12
57
-15
69
-28
50
9
-12
56
38
-26
108
26
-36
41
-12
5
4
-3
71
8
-17
-52
-31
-52
-61
29
-54
29
-50
17
36
22
-58
58
-7
36
-73
37
15
-14
-49
52
-26
-24
10
1
-27
-95
-39
25
115
49
56
-3
-42
-22
33
-28
22
-28
3
-13
30
36
28
42
-48
-11
80
-72
-91
64
57
20
-77
72
32
73
-46
27
-30
-98
-13
53
53
9
-86
37
6
-45
34
-3
-13
44
73
-33
-20
103
-43
33
23
54
18
105
-114
56
-34
51
-46
28
46
9
-51
-87
21
-7
-18
69
84
-90
43
-13
-4
31
-30
16
45
-127
-34
-8
52
-27
-41
-36
40
15
-24
29
26
-60
0
-94
-26
-14
64
-99
7
58
73
-54
-22
29
-60
-74
34
-49
20
84
20
22
52
-67
76
-40
34
15
-10
2
-61
75
24
-13
-3
-72
107
-38
-47
-23
99
32
103
81
16
-70
-6
61
39
-3
-69
42
66
-107
-55
-44
3
29
41
-19
22
-123
-2
119
-18
-30
65
-67
80
-30
-34
58
-12
-21
7
60
-16
120
0
-36
12
-7
-86
12
13
31
-28
-86
-99
26
-29
28
-41
-16
28
9
-71
-8
-19
49
-49
31
-1
-1
49
-7
21
20
-29
-36
-42
-18
-37
7
26
-15
-72
-84
65
-54
16
7
20
5
-41
5
-65
-28
-3
13
-127
-74
29
-12
-9
57
0
-18
27
10
29
-6
-3
-61
-44
64
-6
30
51
-4
-99
43
-2
70
-44
-8
61
-40
-52
7
50
8
-91
-4
51
68
-15
1
82
-126
-23
11
42
-76
-78
54
55
22
-32
43
-37
-62
-93
-21
-10
9
-9
-14
-23
18
6
-38
-3
-69
41
31
-38
-8
5
-1
-46
-30
-43
-11
17
40
-78
-46
-100
15
56
53
7
60
-34
30
63
-104
-7
-50
-5
-3
-55
-6
34
-11
39
79
-10
-71
54
65
-8
-48
-91
30
-22
4
-11
-5
-77
38
61
51
-23
-46
-22
51
33
-31
4
-40
5
51
11
-17
44
-65
-107
43
-53
-23
-114
36
-46
50
5
42
21
36
20
26
-127
15
49
11
12
31
-56
-46
-26
-23
-53
11
19
-52
-21
70
-2
-26
-37
-22
87
5
2
-8
10
20
44
42
-8
-17
16
30
66
65
9
16
-15
15
-4
-88
-11
-56
36
-50
89
11
15
-30
-38
29
22
51
-4
4
-4
-40
22
62
12
-97
-49
4
-8
31
9
0
11
17
10
69
16
-24
-83
9
-34
-9
-51
21
57
10
26
-55
5
51
28
-9
-15
-6
-86
-26
8
-16
78
-11
15
-26
25
41
-13
57
48
9
-1
19
60
-16
-8
43
30
19
23
49
29
78
-19
8
38
-6
4
-16
33
23
11
1
-16
24
-24
-13
-45
30
-9
9
84
37
-39
22
0
-26
8
50
9
5
38
-18
-8
-14
-10
-17
-21
-61
-72
18
-56
27
0
40
-55
17
33
-30
-29
-18
-64
-64
33
-36
17
54
17
-2
13
-53
1
22
28
-10
-50
-2
36
18
-108
13
23
13
23
-17
-93
-8
69
-48
-64
-30
-13
24
-7
28
-88
-26
10
-2
-33
-9
37
4
29
-61
21
3
-21
-28
-9
40
37
70
-41
4
29
7
34
-33
-21
-27
-46
34
52
2
12
-30
31
-10
6
-43
35
47
56
-7
50
-48
25
-28
43
-6
-3
59
22
-32
-24
-37
22
-17
27
-25
-29
-22
-17
5
2
-32
-24
49
-33
7
83
68
-24
56
-15
-1
25
-26
-58
101
62
2
1
122
-37
-33
4
27
-18
-36
58
62
21
-4
30
34
-31
-23
-24
64
-14
-6
38
-62
24
-48
41
-13
33
31
-48
28
3
2
-33
38
-55
102
-15
30
-5
69
58
1
-9
-32
22
-25
35
25
-29
18
-70
-39
10
-38
30
-56
68
34
10
10
2
4
56
18
22
27
35
-5
41
-48
56
17
0
41
-38
12
-14
49
-12
1
26
-45
-57
31
-22
-61
21
127
34
-47
18
17
-62
-69
53
61
0
-43
-48
35
-48
-55
21
-25
46
26
-53
3
11
-10
127
-8
76
-20
-60
31
-2
74
78
-10
10
-21
64
10
23
-14
-41
10
-8
26
-5
-60
-47
-10
43
21
-55
19
83
31
-26
-24
19
-39
38
58
28
-48
-13
-40
-29
2
30
25
-56
-23
4
115
14
-47
83
10
52
39
-52
-42
-25
34
-78
-1
-40
14
-6
35
11
-25
63
-59
-114
4
58
14
-21
1
80
-82
39
-28
91
-65
-12
3
-53
-61
25
-8
-18
5
-12
62
-91
-10
-14
-9
-38
-77
-74
16
39
-52
-12
-6
17
33
-5
11
-14
24
4
-22
39
-112
3
61
20
43
27
22
20
54
57
-9
-17
28
-4
3
-4
17
-46
7
-2
38
-35
-15
-23
19
15
44
-20
-64
44
54
-28
-48
-11
-13
-57
6
39
3
-26
-72
-96
-58
10
20
10
88
-91
-9
64
41
-62
115
13
-11
55
6
11
-71
-29
-13
92
-17
-27
-28
-19
-33
-10
-49
91
-19
-11
-52
-14
-31
47
33
15
-73
-1
-21
37
8
-38
38
17
32
-49
30
-34
44
-22
-24
-74
-52
-31
-127
11
-71
-20
13
-14
4
-3
-52
29
-85
-34
-8
-27
-51
3
-47
-54
-64
-5
44
-28
39
-18
-19
-15
43
-46
-69
-28
23
-26
-39
-98
23
17
-21
-11
25
40
7
-55
68
-40
-2
67
1
-21
48
-28
18
-9
-53
-15
-41
58
0
44
-44
-9
-80
5
52
-22
6
-26
-30
-72
8
-21
4
0
-55
2
1
-17
-55
-32
22
-37
-32
-15
-39
-42
-29
59
25
-64
-64
28
17
-76
13
-27
44
71
-9
-10
-73
-38
4
-60
-45
36
-11
29
35
-77
-66
-67
37
-59
14
-23
17
-2
18
-24
-51
-59
-37
-40
-18
-5
-1
-12
-25
-33
-42
77
-105
-3
-93
-46
0
-30
-59
5
-28
-3
3
24
-1
9
-26
12
-2
30
19
22
23
-58
-13
-16
-47
-49
41
-36
-63
-76
94
-72
7
-59
4
30
-10
52
31
28
-26
-22
-62
20
21
22
-98
12
-58
-5
-11
-34
-6
-33
46
27
18
13
48
38
-9
-45
-51
-46
-30
73
60
63
-41
-3
29
56
46
87
39
-3
7
-15
-41
-36
-85
18
2
25
63
-26
40
-52
59
30
-18
32
-30
94
9
-40
16
103
46
-33
36
-31
15
-32
8
-20
-73
-45
-20
-94
11
1
-10
40
-13
-29
-41
-28
-35
-13
-83
53
-49
43
118
-85
60
40
-12
-69
85
-74
46
-18
-82
2
-16
-56
3
29
-102
93
-73
-26
-49
-4
41
98
-10
28
22
63
28
-76
-23
29
-42
-52
7
64
11
18
6
-127
-40
7
36
95
15
-20
-89
-61
0
-36
-40
-22
-45
-58
24
-12
-26
-32
-15
-34
12
67
46
21
21
31
16
38
21
-43
-85
40
-23
-37
-63
64
30
17
-10
-48
47
36
37
-109
-42
18
31
-52
21
-26
-29
45
-49
52
-33
-20
-81
-30
39
-47
12
12
25
11
-64
7
-27
46
-117
-35
-9
-20
56
90
-111
48
-18
-3
13
19
88
0
-24
-41
71
26
-53
10
-13
48
44
-43
-13
2
-32
6
-39
-75
-13
51
59
-23
15
24
12
-37
38
8
47
-26
74
-60
-14
-41
22
-21
48
76
10
-32
12
79
59
-32
-24
-30
-72
69
-15
103
34
-14
-6
-54
79
60
10
46
11
-31
32
16
90
22
52
8
15
27
92
-11
76
26
-56
-15
6
116
-73
48
-44
-15
20
5
18
11
-103
9
-11
-70
-37
15
49
30
-13
0
72
-50
-35
-17
80
-28
-32
59
21
-39
-14
5
-23
63
69
45
66
59
48
54
47
-2
77
-12
73
-20
-14
61
43
-75
67
4
32
-48
-5
-36
-34
-106
38
-36
10
127
-4
-43
-13
-13
27
-18
50
-7
26
-15
40
10
32
-70
-4
-4
85
13
-11
-84
58
73
-42
-18
71
-14
-58
19
-65
-68
2
-10
1
46
89
79
-15
0
67
-54
-60
-75
-11
21
67
23
37
53
-29
39
-3
43
-51
28
-15
-43
-1
0
-39
17
14
59
26
1
84
49
46
-11
31
-1
-10
-65
-55
47
-30
11
71
44
32
16
0
16
-77
34
-13
14
112
-10
-27
13
-12
37
-1
3
-40
28
28
-6
-32
40
-11
13
-16
18
26
6
31
57
29
-43
8
-44
0
-31
-32
7
23
-23
-41
-44
-75
-65
65
-53
17
37
-3
18
8
-37
-15
7
-29
-1
15
-25
14
-84
17
-87
-9
-54
14
66
-45
27
7
-31
-11
-36
-8
-40
-46
34
4
15
24
-39
-23
20
-64
-13
8
10
39
-56
87
-60
79
7
-67
4
-10
9
-38
-1
38
18
-3
-24
52
21
57
-19
17
-15
10
61
30
26
-95
-1
1
-20
-78
-42
9
32
53
84
66
39
-7
5
-66
16
40
-62
-51
-127
72
-49
83
25
17
31
-13
-5
-32
-82
21
-31
38
22
-22
-34
6
-50
-49
29
77
8
39
0
43
-14
-22
53
7
-31
-4
15
5
-7
-27
39
-22
-84
31
9
-40
-101
5
-26
-79
-58
-9
34
66
-58
90
33
34
117
9
5
-34
23
10
95
-29
-8
1
56
65
49
-6
49
0
7
7
67
-3
5
-46
63
-14
-1
12
31
67
0
-8
6
30
79
-14
-5
25
-45
-25
39
15
60
54
63
-22
15
2
13
50
28
55
-5
-12
50
-25
-127
39
4
-86
42
38
31
-82
19
52
-44
-22
29
5
-2
-4
-10
32
-13
24
-41
-30
13
60
27
-72
34
-43
19
32
-37
6
-15
64
-40
-7
29
-103
41
-71
57
-53
37
38
-16
0
-14
17
-41
31
13
17
83
68
6
30
99
-48
56
-20
-49
24
50
-82
41
50
-11
-61
-4
9
-58
-12
-69
-52
20
-34
16
18
-15
-39
-18
29
-21
20
79
9
-36
-3
-64
-32
81
18
-62
28
-2
-76
-43
-47
-32
-39
15
20
-8
-12
-57
10
-57
3
-42
0
5
-10
-34
17
68
-118
-12
8
-38
47
-14
47
40
5
41
56
15
6
-15
-1
0
81
-1
34
-3
53
22
32
-30
-20
-42
-21
10
23
-54
26
70
44
-51
7
-23
-85
29
-24
25
0
-37
32
-27
11
14
25
-44
55
99
13
25
-24
127
-53
34
12
40
47
-14
10
25
11
5
31
27
-2
13
-24
85
15
28
51
-50
19
21
-8
48
19
42
-44
-5
-78
38
45
19
36
18
0
64
5
35
29
7
15
10
59
10
33
14
-27
61
-19
-6
37
25
-9
35
-40
30
85
-13
-58
63
27
1
-64
73
-18
12
-51
-25
-18
5
41
-14
24
-11
2
32
33
49
-12
3
23
4
-30
7
23
-58
38
-34
6
22
3
15
33
8
39
-36
21
50
-4
-26
18
10
-11
81
-32
-19
38
40
12
14
29
-16
12
-16
34
19
27
40
3
24
-30
41
-7
9
40
-19
28
38
6
55
0
0
-9
-26
22
-1
66
5
-39
4
-19
-6
-9
-2
3
-54
15
-23
1
-7
-9
-42
8
31
11
-2
-38
-27
-41
-42
5
-6
25
31
33
-7
-63
-9
38
-29
8
34
-63
-19
-13
-10
21
42
-2
-35
-6
-42
16
-4
6
4
-39
19
-1
-78
-34
34
10
-18
5
44
15
-2
5
-28
7
-57
-65
26
34
-45
16
-31
-36
-29
-41
-3
-22
-45
6
-7
9
11
14
22
-3
8
-13
-41
-2
9
-6
-23
-42
-23
41
-51
-71
11
57
17
-53
-86
5
-17
-28
-2
-23
25
-37
-41
7
-25
-68
13
-5
-127
23
14
40
-33
-1
-28
44
6
-35
-51
-49
-23
-17
1
-25
-94
-37
-12
-34
3
41
-6
23
10
3
-13
-10
-1
-25
46
33
-34
19
2
-13
50
37
43
-4
24
-24
-17
-17
-47
-3
1
15
-52
2
-61
-30
-25
50
-42
-21
43
-23
41
-11
33
-22
4
-3
-51
-65
-15
-9
-30
3
9
-21
-61
-15
26
-22
70
-69
-14
-15
38
-49
15
13
38
-13
29
16
-19
-27
-63
29
18
-25
-38
-11
123
-21
72
-71
-32
56
22
-17
-2
30
28
36
2
-31
36
-49
-10
26
84
49
-22
-5
-37
-49
42
-12
8
-59
-21
48
10
5
-64
-68
-2
14
-38
-44
-38
-32
-8
-14
0
16
-56
-92
34
24
70
-18
86
-30
46
72
-69
40
33
66
-37
99
60
-9
-2
-38
-68
14
-9
39
-36
-12
-29
34
12
-18
43
-76
-1
22
-48
-37
20
39
52
-2
-51
-61
-48
10
81
39
-25
24
-42
34
-18
-13
1
0
-6
-29
-53
15
73
5
56
47
55
-19
59
-2
36
17
5
-27
-25
23
-13
21
15
-11
-63
-71
-37
-5
5
-32
-45
-5
127
-70
-47
51
-58
-18
-86
34
16
-19
40
26
-17
9
-29
8
21
5
-8
32
0
-44
9
10
25
69
12
77
-44
5
-20
61
102
-46
28
56
-53
61
-14
-9
-28
48
27
55
-24
18
57
-52
79
-10
-16
14
-22
21
16
2
-22
43
-12
41
2
27
24
-18
-4
3
22
-15
15
-10
26
-22
27
56
14
23
19
-2
47
-27
-64
5
27
2
-38
-76
49
-20
-26
29
10
5
6
-12
-38
-17
19
-42
-39
-8
-20
9
-88
-1
-20
-20
46
-40
-28
-127
-51
-2
11
-3
9
17
24
-28
-35
28
31
-28
-35
50
51
26
37
28
-51
-15
37
9
-22
26
-32
43
-44
-20
-6
-57
-11
-28
42
-43
49
-61
1
-38
34
-15
-6
-14
50
2
-32
8
33
7
68
-22
-37
1
10
1
-7
32
10
-17
-56
-12
15
-29
32
57
-70
-54
-15
9
-25
18
-16
11
55
35
-74
-93
-35
11
74
50
-42
31
98
-5
-65
13
-67
0
37
-6
29
24
68
36
-15
20
-57
12
16
29
-29
-12
12
-32
-58
-19
-9
-75
7
56
75
-89
9
47
3
-15
-44
59
-29
57
43
-22
-33
1
54
17
5
-3
-17
36
-42
-8
-53
11
48
-46
-49
9
51
-31
6
-22
120
-6
-91
118
29
-32
55
17
46
-30
0
-10
-55
-1
-62
42
-76
-18
61
9
33
-30
-85
-21
-71
49
66
9
-68
55
87
23
39
-28
14
-90
-31
-6
34
6
-65
26
60
-18
9
-21
-44
-37
120
73
90
-48
-24
-52
-47
-58
35
39
61
-4
-15
17
82
-46
-33
-5
-14
-39
63
29
-107
38
11
-47
31
3
26
112
31
-70
-33
-13
-16
81
19
26
28
-66
-35
-34
27
-34
-26
21
-93
-98
-2
-81
69
2
-77
41
19
-98
37
-23
38
-9
66
52
52
23
27
-10
47
-22
24
6
55
40
-6
-44
-57
26
121
15
4
27
-18
60
65
17
-1
1
-12
9
71
41
13
90
67
-32
60
35
10
-46
29
-5
49
1
-51
127
86
78
14
87
-105
-54
28
-54
27
-66
-100
-87
-28
-44
112
-3
67
-86
17
11
-13
-75
-41
50
93
-49
-50
-40
59
82
-9
40
-25
11
-12
-18
58
19
52
-106
-8
16
127
17
-5
-8
35
7
-9
-26
-4
-32
35
-27
-17
-35
-9
-40
-37
0
12
7
-29
9
5
-6
16
-33
-8
15
5
2
-18
-33
-22
-23
15
6
45
1
42
84
-32
-44
-37
4
28
2
47
78
-21
6
-92
82
14
-82
-33
-70
-43
-28
97
92
-40
-15
2
-18
21
-12
-4
-32
-52
4
30
35
-5
-45
-1
25
-46
63
-9
-68
-15
32
-81
16
-51
5
12
6
-3
10
-18
-42
27
10
-6
-17
-4
12
5
-18
5
61
-36
24
-81
52
-1
19
-20
-1
15
-8
5
-14
-20
-4
-26
24
3
-26
-39
14
25
-22
-11
18
0
-12
-43
-41
-82
28
-35
-58
41
19
59
-56
-10
3
-21
0
0
31
34
5
-15
47
42
39
0
-38
-32
-20
6
-21
-48
60
-20
-17
37
48
12
-34
-30
6
93
-13
5
39
-5
22
8
-38
-31
-16
-3
39
32
26
-14
-35
50
-13
-36
16
-67
38
-25
37
-17
51
25
-49
-26
49
-31
-31
7
-43
28
-11
-51
51
2
59
-30
15
92
-75
80
2
83
55
127
38
27
30
2
-30
-35
16
-31
-29
34
-23
-72
63
-34
-15
-6
-19
3
15
32
-3
-70
56
-41
-83
-31
-1
104
-35
77
-15
56
51
-25
99
27
-45
-108
106
37
107
20
40
27
-14
0
45
-24
-68
66
-22
-47
34
-22
-80
27
33
-10
-27
73
-1
91
-19
32
-5
-23
39
-66
-14
1
-7
-5
12
-41
-9
-4
68
89
-48
86
40
94
-4
-8
45
22
-26
50
23
-18
-38
23
15
-22
60
-35
18
-21
-16
-66
49
-19
29
-18
72
-24
-3
76
-7
5
63
-48
-58
-63
-31
4
1
0
19
87
1
1
40
63
1
-5
17
30
-47
2
-20
27
24
35
-42
-9
15
5
45
122
-43
0
-4
-40
77
-26
-14
8
51
107
-7
12
-21
50
-26
9
4
-9
58
-95
34
83
17
53
-48
-39
-22
36
-14
-34
-7
13
57
-24
-5
6
-50
-11
5
9
-18
-34
-5
49
-62
-25
28
3
52
-44
-35
-45
-24
-91
21
7
39
44
-75
56
48
-65
73
45
-63
101
42
3
26
27
9
-56
25
56
76
79
13
51
116
17
1
73
3
-14
-5
-22
64
0
-30
-44
-47
-18
-32
-66
-68
-20
58
5
100
68
-81
-44
-59
-31
-8
33
-35
-8
75
-39
-4
-29
-1
45
-55
23
-32
-38
-6
11
11
76
102
2
75
33
38
52
-87
-22
-2
-84
-62
80
-36
-35
-15
-27
127
-6
-35
42
9
20
33
25
-49
-53
-57
90
0
37
-1
10
6
28
9
9
-38
-41
-99
11
-17
-60
-51
-46
35
-39
-34
25
-30
3
26
-58
21
-6
-10
0
47
-1
-47
89
-10
2
-38
-45
14
30
14
48
-11
-57
19
33
-3
32
-30
-38
-23
25
46
-22
18
-9
1
68
-17
66
97
-47
91
-108
20
20
-1
35
35
-6
-41
58
-23
-36
-54
-36
103
34
23
11
22
17
-31
-41
7
-13
-9
38
-86
31
-19
5
77
84
57
0
-49
21
-108
-5
54
25
-35
86
-33
-29
48
48
56
108
37
-22
-68
-39
-21
-49
67
46
36
-31
10
-16
99
-2
37
37
-53
34
-19
22
112
36
32
51
23
9
-22
14
-26
-54
-19
-17
127
-8
-9
-44
-55
28
-2
13
10
98
51
-118
3
-60
51
25
9
34
-116
-100
74
72
-35
47
-27
24
47
69
11
68
-2
-90
-42
26
-5
-35
49
-43
-15
24
67
10
44
-21
42
67
33
23
45
-31
-43
16
10
-14
-21
56
-8
21
-17
-31
-14
-29
-21
36
-14
-67
31
-26
2
-37
62
4
-9
96
45
-4
0
-22
51
47
109
20
-122
23
4
16
30
11
115
-22
-16
12
29
37
17
28
12
9
-8
44
75
7
-80
-52
11
-11
68
33
35
21
-2
17
31
-18
5
12
-9
-28
-26
-8
-1
22
-26
-45
12
3
-22
2
-1
-20
31
-32
4
87
1
12
12
39
-43
17
-57
-56
-21
23
3
-67
-33
-13
2
20
-43
27
-20
22
56
28
7
-28
-17
-7
29
-9
-10
-21
-11
-15
-27
-29
-69
-27
0
-12
-54
-28
-6
-27
23
-2
59
0
-50
6
67
-16
-1
-1
15
33
-4
31
38
48
-63
6
127
-40
40
-9
30
11
24
11
12
5
-36
-22
22
-44
20
-4
31
28
18
-57
45
1
-2
5
-13
13
-28
-36
20
13
-8
-32
-11
-49
-19
29
-4
-4
-28
34
2
23
-14
-43
0
-33
24
16
-15
40
28
23
-31
44
-60
85
35
-32
20
1
35
24
29
-17
38
-75
14
31
1
18
4
-80
12
45
-38
10
0
-4
25
-27
-9
-40
-24
-10
-2
12
-13
-9
-19
-26
24
-5
-20
11
21
-10
-1
-7
15
-20
19
-62
-15
25
-10
5
-37
54
-14
-8
63
-8
-13
50
4
16
33
-53
24
29
-37
27
18
17
46
4
16
-14
-25
14
6
-15
-110
44
-46
-26
-62
-8
-32
4
63
-57
46
24
39
-13
-38
17
1
-12
26
30
3
-102
80
65
-39
-42
61
-2
7
-23
19
-9
-35
26
72
69
36
70
127
-25
35
56
-39
-12
8
-7
88
107
-4
86
48
3
-70
-36
-49
42
19
46
4
-7
-45
-91
-50
45
-10
48
5
47
14
-67
35
-74
85
-12
-47
49
43
44
43
-19
-21
56
6
25
115
-42
71
117
-30
30
20
-30
89
57
-84
-5
64
55
72
-32
65
-30
27
116
83
-20
19
49
-3
52
-70
-38
-82
-39
12
21
13
-33
-11
88
-11
-23
-111
-15
-64
-58
3
-59
-35
-23
-28
-15
40
-36
9
35
-65
44
-8
-22
-53
-6
36
-74
-1
-106
13
-30
32
-24
-50
17
122
72
75
-60
61
-53
57
98
18
37
39
-119
53
61
44
-71
14
-82
45
11
42
-2
-43
-49
8
-6
-54
-41
-27
-17
22
-25
4
42
-15
5
-22
-47
56
-21
69
-50
-34
3
-4
-54
21
55
-38
22
32
-37
11
50
27
-14
18
27
-2
13
8
38
-27
-62
-41
16
-4
-63
24
-38
21
33
-42
0
-32
7
-47
-24
-37
11
-29
-1
35
-87
4
38
-40
4
-25
-37
-26
-22
23
-31
-7
48
24
-100
17
-28
-43
-20
-58
-39
-8
-44
73
-18
31
60
42
24
6
22
39
8
-8
-1
-31
32
-74
-47
-35
5
-60
19
17
-33
82
-74
-46
-45
-31
42
-8
-57
-20
-54
-24
10
-32
15
-30
-57
-16
39
-38
-60
-30
-84
31
-11
0
61
-35
-15
12
-28
16
0
61
32
18
55
-12
-27
24
16
-4
5
-51
24
-50
33
-65
-15
30
13
-29
-47
-15
20
-14
-3
22
34
24
47
5
-29
17
-37
-15
-4
17
-25
-48
22
56
28
-9
-8
-18
-1
-40
-11
-127
98
-35
-1
34
77
34
-28
-24
30
56
-10
27
18
-27
-1
-19
26
-23
22
35
9
-10
47
-45
-4
-13
47
89
76
-60
-6
-62
14
-12
-20
-33
-53
63
55
13
-4
55
127
25
23
-39
0
-24
55
23
-34
44
64
78
-14
-11
-41
-39
-8
-23
59
19
-20
-1
-62
85
-20
-16
2
91
28
-12
54
113
-31
-17
-33
26
18
0
-15
73
27
35
30
119
-58
22
-7
14
-18
-21
26
-3
-43
-62
-32
-20
-27
-8
-35
45
35
-10
4
8
23
-89
-54
-50
0
20
-10
-2
-34
-16
-14
-28
-67
25
75
-3
78
33
89
-108
-35
16
27
30
-47
59
55
21
16
-33
-8
-72
-20
-18
90
25
-12
-8
21
-15
1
-41
1
-12
-17
22
53
1
81
15
-2
40
38
-15
-10
9
-5
14
-24
-8
-26
-1
-49
-21
4
-33
-83
-53
-39
-23
16
59
-38
3
57
22
-4
-1
34
-8
12
-9
-34
-18
37
-51
-31
7
-28
-1
-13
-95
-16
-77
-16
59
-58
-66
-20
-43
37
-5
-34
103
-3
77
92
-96
-12
-66
-30
-9
-33
-90
43
-52
-42
-65
68
-10
-3
11
28
-23
-29
59
45
4
-39
4
34
-36
-31
1
-29
18
-40
-8
-40
95
28
16
46
-66
-51
-30
58
-7
-1
75
0
78
-26
-34
-43
-54
127
15
43
-69
21
-51
-71
-2
-68
-16
20
79
31
-14
21
44
39
-83
-54
33
-43
43
-31
105
33
33
-11
-14
-4
30
-6
44
78
85
-8
-23
75
6
39
-4
-4
10
36
12
92
-3
89
-4
48
-22
-18
86
10
-49
-5
126
-32
-37
-12
-8
-88
31
68
-82
71
96
20
71
88
-46
-23
44
17
-55
44
96
-62
-22
51
-5
-121
-15
67
12
-93
-38
-111
13
40
-18
-5
-101
6
-15
-58
-22
-14
-71
-46
3
18
-47
7
-11
-22
-61
25
75
94
66
-34
-57
-76
-8
33
3
10
-35
-70
-58
36
-34
51
-62
2
-26
-32
47
-30
-45
48
23
57
-17
15
14
61
21
-28
11
87
37
-2
-13
23
63
5
5
-99
55
18
39
-20
81
18
-7
51
15
57
41
48
66
-119
59
-7
27
-53
-8
21
38
38
-22
80
-52
36
-26
65
27
-27
6
-18
90
-25
13
22
-28
-46
40
20
-68
-12
-29
34
-22
-25
21
63
-100
14
-62
-57
-9
-5
-49
-40
84
18
55
43
-53
127
-29
-34
125
42
-10
-71
-43
40
26
-111
1
35
-32
-43
76
63
-64
-8
-62
77
3
16
5
35
51
-54
39
13
14
-56
0
-52
-28
-47
5
-17
-74
-25
17
84
54
-15
98
-33
16
-54
-56
-13
18
-28
13
45
-31
101
-15
-15
-10
94
-23
-10
39
-29
27
-105
-5
-65
33
22
-98
-17
2
-105
-34
-30
-45
17
-21
8
43
-26
23
35
33
-49
-19
-31
-17
3
-3
-42
17
-7
60
36
12
17
-67
4
30
-19
-54
41
38
-29
-10
21
18
-34
-9
-60
-34
65
13
83
-38
-4
7
118
47
126
7
-100
81
-12
-101
82
-57
-8
-10
-7
-32
42
-79
-42
-77
-1
23
47
119
-56
80
-12
-57
34
-17
-34
-18
87
-63
-39
-116
29
-14
30
82
-64
121
31
-67
38
-57
7
-64
69
-27
104
-36
79
38
29
-63
-28
52
61
35
70
-16
-83
73
-2
102
17
-69
-16
40
18
-40
-30
-48
26
-53
-22
122
-34
-93
-47
34
16
41
-7
68
34
41
49
95
26
-10
-39
-2
-20
-26
-24
-77
7
-9
-80
108
64
62
84
75
85
83
28
7
-1
49
75
17
46
-35
73
29
8
2
-24
-27
-79
-28
57
-4
3
-7
-42
12
-26
3
-5
57
-26
45
57
67
127
-51
30
115
22
95
8
82
2
-13
27
-16
-83
24
-4
-25
-44
53
7
-59
25
-38
-40
-12
-64
81
89
6
70
-7
71
15
-80
13
-59
14
10
66
56
-32
-8
88
36
7
5
23
81
46
29
-12
-8
71
29
-37
22
-31
-66
-18
-9
44
-12
65
10
-13
-16
-1
4
-49
13
48
28
-59
-21
8
52
-7
51
-73
22
-40
-67
39
42
29
46
-43
-10
60
82
116
24
97
62
67
4
-12
49
38
39
33
69
-37
-23
-8
-16
68
-84
22
69
-17
40
-7
81
67
29
24
-35
15
-41
-7
-30
10
56
64
-7
33
0
59
-44
20
3
-5
-77
-15
58
83
-14
-63
10
-73
-60
3
15
1
10
63
68
41
84
-12
-68
47
0
-9
60
-78
9
44
26
-33
7
27
-15
98
0
23
101
32
-2
35
-4
-25
-33
-2
47
-10
127
64
-71
-1
53
21
82
-45
16
-18
-54
-11
-4
-13
-23
-15
13
14
61
42
41
-80
-99
6
-27
15
30
87
14
-22
-68
18
-4
-27
-30
48
-32
-26
12
13
42
111
28
3
-21
8
58
-23
-24
-43
14
-26
-6
-18
-26
6
26
-53
34
45
-10
42
15
-2
-47
-45
9
36
48
27
34
-1
-59
-33
-50
-70
32
49
-12
54
46
-23
18
-24
-49
-3
91
31
-11
-6
67
-6
9
34
107
-115
86
20
42
67
91
-29
-59
-43
82
-27
-44
28
-38
-14
-49
39
-26
-13
22
61
21
6
23
-105
14
-3
40
-59
85
-6
-10
48
15
-18
39
-78
-61
11
-54
49
18
2
-87
66
-58
41
-9
-5
-10
-20
40
24
18
-103
39
123
-37
43
60
21
27
-24
87
-24
-38
23
38
24
29
-1
-6
-87
-47
-10
-42
87
29
-107
36
37
47
18
-80
-37
2
62
90
21
-6
-9
-2
127
47
34
-55
-64
24
-14
-20
23
64
30
46
-1
14
74
75
-33
-26
-14
-33
85
-19
-14
-68
103
64
53
18
48
-91
-68
62
-10
-17
-31
43
-66
-75
23
-106
-5
14
54
65
-40
-22
-11
-31
50
-21
32
-35
44
-45
35
-30
-13
84
-22
77
3
17
-10
11
20
-5
72
-65
32
33
-33
-21
-47
-6
69
68
97
-70
-32
-58
-57
5
-95
59
78
-32
-7
-67
-45
77
-100
-48
-6
45
-23
-21
-52
-36
-39
13
-21
22
-5
-23
-21
43
65
-124
-73
-31
-9
20
-32
-13
-26
-24
28
61
-35
-89
51
41
39
-4
18
-40
-35
-41
-14
27
33
39
33
-56
-57
47
-3
34
54
-12
37
54
14
-41
104
112
-22
64
78
38
82
-34
-13
86
-52
80
-6
-24
106
-69
-70
41
-71
-10
27
33
2
65
55
53
-3
1
-57
84
41
40
-19
-7
-37
-2
39
16
43
59
3
-36
0
-3
20
5
13
-98
15
102
-64
-11
7
93
26
-59
69
-59
-27
-12
27
-42
-61
-43
-10
20
12
-10
62
-1
30
-41
-76
105
48
2
61
-3
-19
-14
-15
-30
7
37
-53
24
48
10
-127
-77
39
19
-23
8
-77
-96
-35
6
22
-41
25
-11
-39
-17
-57
21
33
-10
-12
-63
40
55
40
-38
94
-38
-50
15
-62
57
101
90
-42
26
90
-15
55
-29
-17
52
62
-9
-12
-20
-25
-92
-22
-16
8
-46
-18
37
-6
-89
82
3
-49
53
-25
23
-4
-2
-17
-14
-5
-25
13
-57
39
46
0
69
2
-33
-6
-37
21
-73
57
10
-7
22
-21
-71
24
38
113
77
-26
59
0
-18
115
61
-105
22
-76
-45
14
-16
-8
-65
34
3
60
36
-5
-28
27
105
10
62
-4
60
49
10
65
93
13
-4
47
85
18
36
84
21
24
55
50
75
126
-1
57
27
7
-48
20
25
61
42
-126
-118
124
47
76
-3
64
-70
-24
12
34
12
-10
45
-44
47
-12
-13
12
-103
56
100
21
48
87
122
-21
54
24
-68
33
-47
-24
-104
29
8
51
35
-48
-19
-13
59
-61
79
-91
45
-53
-75
127
-18
48
36
-17
57
-19
30
42
-8
-68
-3
-11
-14
59
-32
-7
1
8
40
12
-6
50
22
74
58
-44
-52
8
-93
-61
47
-23
38
-13
-6
21
-17
61
-7
16
-118
2
-2
16
-21
10
11
47
-45
0
-18
-66
-99
33
-27
-10
35
-9
-68
10
-17
85
28
-55
-12
20
6
-95
-40
-76
-50
41
-59
-41
-47
1
7
-13
21
-63
-77
39
-47
85
18
-19
-41
18
-10
67
51
6
-8
-44
42
8
12
-91
-29
21
49
-91
6
-68
52
33
-36
37
-65
-127
-11
65
6
-53
127
-50
-2
-10
39
48
44
-9
-18
-3
64
-66
27
15
-19
3
42
-39
-75
72
0
30
-10
22
-72
-51
25
4
11
-93
15
52
9
9
-48
1
-1
-14
31
62
-29
24
33
-50
90
30
-30
33
-27
-7
24
0
49
24
33
-9
38
49
22
-26
-53
-17
-45
-110
-70
-96
-5
-55
39
-3
-59
-55
-36
-36
27
98
33
-31
-43
30
-24
-71
61
-37
-12
-79
-4
-49
-62
0
-66
57
73
31
79
1
-23
25
-11
-6
26
-45
-92
-23
32
-21
17
18
-61
28
-13
-34
-11
-27
-35
-24
-13
37
59
8
-83
-44
-11
-15
13
58
-78
45
5
20
28
50
-108
43
1
-30
31
-38
3
127
-21
6
26
68
39
28
-89
20
56
-21
-5
-59
9
-9
-11
-4
15
-6
25
2
-23
-27
28
-39
29
-13
46
-3
-15
-5
-64
11
55
-5
-81
-89
-17
-87
-18
-19
-31
9
108
-21
-11
-20
-51
-73
-28
-28
1
-21
-47
76
-46
3
36
-24
-4
16
52
45
-3
10
-18
-64
-11
-44
-12
1
57
-80
52
5
-16
3
-19
53
31
9
-34
-53
-32
23
21
-55
-38
-16
-11
22
-32
-14
25
-17
-51
-16
-79
34
44
38
-22
-39
-53
21
-7
11
-19
35
-33
-37
13
12
6
16
15
-56
0
-81
-8
0
-51
20
59
-26
-16
-59
-19
21
-9
-22
60
-14
62
-21
30
-22
-6
26
14
-35
2
-21
-53
-54
15
-97
68
-26
63
-27
-10
-52
-72
-99
-60
6
32
-32
10
-25
23
48
13
-57
6
44
-10
-59
74
-1
87
-60
33
-38
-83
7
-63
27
68
2
26
-21
18
-18
-19
5
-76
7
31
-49
-55
-13
31
-15
1
-24
13
12
-86
48
-67
11
11
-48
42
-10
14
-66
-39
5
-104
0
11
-89
-95
15
20
-25
-22
40
-40
54
-24
-34
-69
-33
-60
84
-34
10
-24
-48
109
36
-41
-117
33
-45
40
28
22
50
15
32
62
49
-13
-90
-92
-81
-4
-85
-89
-42
8
-69
-77
-42
-54
9
-60
42
33
-24
17
-37
-39
-89
-63
-10
-70
-78
-2
18
-13
-70
-100
-86
-32
-12
69
5
-80
55
-6
-42
-18
93
-8
-29
-1
-52
-11
-30
-15
-49
-59
3
-50
30
21
45
-11
73
17
-67
16
22
-77
-27
-6
16
44
-7
-57
24
50
1
-57
18
-1
-92
127
-42
48
21
-29
-16
63
70
-49
-43
-40
-62
-3
16
74
-79
-83
51
-4
39
17
26
-17
29
-46
-72
57
-45
-77
10
-46
-40
-39
-1
-101
-26
-49
-10
48
4
-24
21
-22
-49
0
20
45
22
-44
44
-21
10
97
-16
6
-11
-25
-38
74
-10
22
8
24
40
-14
-21
-62
27
49
36
80
-46
25
23
-1
-10
-20
4
38
34
18
47
39
-21
-63
-71
-127
-49
85
78
-62
8
12
-8
2
16
-31
-46
-83
-40
40
-54
-10
-2
-41
72
29
18
-46
-4
-39
-19
-56
-67
24
40
-43
25
35
6
81
-125
-12
-10
-42
6
-10
-39
94
-42
-26
23
-59
-2
18
-56
-93
33
26
100
-15
-62
-44
33
0
-7
-11
-9
-6
14
-40
-6
-62
-78
23
20
-44
-7
-50
-10
-6
15
25
11
50
81
25
-1
-43
37
52
61
-27
41
27
-4
46
-50
79
23
-5
-57
-48
16
-35
38
-57
-33
-71
11
-41
20
9
-43
69
2
31
-59
45
15
-60
-90
7
59
-20
-40
38
-7
-53
-74
-48
-50
59
-26
9
27
109
-40
114
18
-4
-61
59
40
9
-19
4
51
-28
18
-39
-120
-69
10
33
-72
5
-17
-4
-20
-9
28
-4
-13
-49
26
-45
18
-45
44
1
50
-3
52
21
42
-26
-13
-3
-15
-39
-5
-15
19
-19
34
-66
-38
52
-65
9
11
-41
24
-1
55
-60
48
-52
55
-12
63
47
51
-1
-104
-47
56
27
-47
-25
-73
30
-28
14
58
51
1
-28
39
35
-39
-26
62
63
-30
14
6
14
-44
-63
24
-30
-49
38
-80
2
-75
0
-10
-10
-9
64
39
8
53
-45
7
127
-77
-53
10
56
-97
42
-80
-54
17
-75
-4
1
-47
36
16
-55
51
35
22
-17
2
19
-78
11
-15
-21
15
-55
-26
13
-19
-54
-34
-8
-7
-73
-75
-13
21
-73
-1
-19
-26
32
-92
-42
80
23
6
36
-63
22
-29
12
10
100
8
8
-73
-49
79
-9
23
38
49
-62
-24
-31
7
5
-35
66
-48
-8
-12
-46
-60
-19
24
-18
71
21
28
14
-34
-45
10
-60
-65
-82
-75
0
-91
-4
-84
-26
-63
11
-87
-108
113
-14
94
-14
48
-5
15
-38
-45
64
-37
-68
74
120
125
67
-58
25
-21
25
-116
-26
-14
0
68
68
51
-51
67
-48
43
-28
-49
-19
-38
-115
-11
-47
-35
-26
-96
-95
-38
48
-19
-15
51
-3
0
-98
66
8
5
-17
22
-15
0
23
-26
71
-25
-66
-13
22
17
-1
17
24
79
44
63
32
-28
-29
1
8
-36
10
-43
-16
-2
-28
-76
-37
-23
-67
0
-25
25
-85
-68
-7
-10
66
21
-33
-93
8
-68
-46
-1
49
-30
-58
119
-22
-57
-26
-93
20
73
39
-20
22
-27
38
2
59
17
-12
104
-97
43
-58
36
14
45
-71
19
-19
-127
12
-16
6
46
27
14
-17
-20
2
6
49
17
18
-3
-16
-52
-37
116
87
-30
-4
-3
80
62
66
-78
2
-25
115
87
30
-38
-32
27
-67
14
92
54
66
-104
-28
-18
-50
-32
63
-1
-20
-83
33
58
34
-50
64
44
-75
31
-63
-25
1
13
48
4
-28
-51
16
-69
25
55
-36
-30
17
6
48
-33
-11
1
40
0
50
56
-36
30
-4
18
16
0
-13
7
-49
4
60
7
30
-26
-46
-23
22
-40
-64
25
-17
-38
19
-12
-39
-59
28
-7
-17
1
-56
-4
38
-43
80
-40
-3
-17
18
31
-17
-9
-120
65
-27
-54
-20
-37
17
-34
45
-17
1
46
1
-21
53
80
9
-47
-8
-13
1
4
46
76
-24
14
44
15
8
-2
16
1
5
-127
-35
72
-9
-16
12
27
115
53
77
-10
-47
11
32
2
27
-64
2
17
-48
-103
15
-26
18
6
-37
-68
-2
60
33
-122
56
2
-23
-49
-23
29
-68
17
-70
-18
95
-14
46
0
-17
-21
-10
50
-33
61
-16
77
-51
106
-12
77
-29
76
-25
-65
41
14
-37
-29
-15
-22
15
18
41
53
24
-61
15
23
-44
-22
-32
13
-23
-33
-81
34
-17
28
10
-17
-48
51
-37
23
5
-12
17
-39
-13
-6
-36
4
20
18
-43
18
-46
-21
44
7
19
35
34
10
3
-6
32
-8
-61
26
-3
-6
-39
44
-87
47
-37
-46
9
27
-41
-22
-23
-53
15
-5
-21
7
3
-16
11
-17
52
-19
7
-89
-9
-10
29
36
28
34
-48
-52
-5
27
37
36
28
11
-61
-32
82
29
10
-16
36
19
33
3
15
-41
27
-63
-61
13
19
41
21
-59
38
35
-50
-38
0
-29
-38
-83
51
-1
-26
-8
-28
-9
36
-28
50
-17
127
-33
-24
-33
-28
-12
-33
10
54
11
24
10
56
-14
-56
30
-14
-32
33
-16
-63
64
-33
57
-29
-35
-15
77
30
32
-49
19
-28
-62
-26
36
4
66
-3
-33
37
18
58
-58
11
-64
65
25
-19
69
41
-24
58
8
-68
-10
36
1
22
44
48
-18
18
-13
-23
-48
-36
-17
35
120
-18
44
-6
109
-37
15
-63
74
48
60
9
66
-8
-73
-93
-28
-18
-29
1
-38
62
-26
-42
-68
-49
40
96
26
13
-93
54
-58
47
-22
-11
21
32
35
-27
-4
58
7
19
18
46
-47
1
-19
-56
-46
39
-3
16
27
-85
41
97
74
1
-32
-4
-23
0
60
-1
18
16
-26
-10
3
16
-11
26
-9
-96
3
64
-25
-79
54
-59
65
33
8
64
21
28
-52
-14
10
14
-14
-48
16
33
-22
30
-35
8
27
-109
29
23
-1
14
-14
19
-112
24
-45
4
-5
-30
-76
-39
127
40
-51
17
38
-56
26
36
14
-31
-51
-1
25
-54
-59
12
31
-4
0
-2
-52
5
9
-6
-48
30
-28
6
-55
-43
4
-43
-27
47
-17
52
-21
-10
-17
60
-57
28
-27
-15
-15
-28
70
-14
13
-3
-62
-27
-6
-33
-48
56
-75
12
24
-50
19
-14
33
21
-69
44
-13
-28
-25
-17
-26
-58
-45
-44
21
-4
25
-97
15
1
-87
41
59
22
-31
-41
12
-8
-3
21
-8
-40
-3
-105
-35
23
-35
-82
92
-17
21
19
24
64
-45
71
52
-8
-11
51
-4
-50
32
10
22
49
6
71
-103
21
37
26
-83
-5
-16
32
-15
-30
51
-3
76
-6
-21
102
18
-24
10
-51
-2
-31
42
-67
3
-74
42
-38
-12
-29
-16
-23
-22
-47
55
-31
-32
18
8
-51
-53
35
78
-69
15
-2
-21
-48
94
5
-84
-34
-61
-32
61
44
103
41
-58
-25
-60
-11
27
33
42
17
29
0
-33
37
49
-34
-23
26
-9
24
-43
17
-55
43
-41
-56
36
-96
-27
-36
-11
-91
24
-39
-35
-20
10
-30
-3
-14
23
42
27
-21
3
127
-64
50
-3
-29
-5
22
54
15
25
42
-30
-7
-93
65
18
-61
4
-70
-1
25
90
1
-11
-5
-115
-78
9
2
-100
-8
72
-1
-11
2
34
39
24
31
-63
-49
16
-88
-13
15
14
-36
1
-16
-82
11
-64
6
62
