16
-51
99
-127
-127
-127
1
-24
127
127
-94
-53
127
-43
-24
-41
-70
-125
-5
-105
-113
-10
-35
47
-89
31
10
-80
127
-127
-13
-110
38
-127
-26
-127
-127
-100
-68
-71
-69
-32
-35
-30
-70
16
-81
-43
-125
-32
-98
-14
-59
-45
37
63
-99
-105
-30
-53
90
-127
85
2
29
-20
35
45
-53
-19
127
-74
-32
-13
99
91
-53
37
-65
45
37
-14
-127
-127
59
108
-127
13
127
-52
27
-86
41
-75
22
-127
48
8
-98
-39
-93
49
-104
-111
-37
-127
-34
25
-9
36
23
-111
22
-14
41
-58
-1
19
106
-90
-44
-50
-35
-34
9
-45
-35
35
-30
-97
-11
-3
49
49
-74
13
-27
-29
-76
-26
71
-59
-36
-32
-64
-90
3
-62
-79
14
-72
-6
3
-127
-68
-115
93
-61
-17
91
-93
-52
-5
43
-92
6
-26
-59
-4
-50
-51
-15
-37
28
-15
35
-127
-36
-67
-45
-73
79
-55
-15
-82
-92
45
-78
-31
-69
73
2
-11
-48
5
-54
4
-15
51
84
-56
-96
80
-3
-60
28
-75
38
-127
6
-24
-33
-71
60
-79
-76
123
-45
96
-63
-67
-24
-29
-65
31
104
-26
25
-86
75
-59
-62
4
30
-50
57
38
-41
-10
-7
72
-38
-5
-39
-19
8
15
41
-89
-29
38
47
-10
-13
44
60
-110
-61
-106
88
-14
63
-73
111
-56
-45
-114
8
105
40
127
-66
-127
-109
-30
-85
49
40
-2
-127
-34
-2
-127
10
64
-104
63
30
-12
-37
-49
40
-76
32
-28
-127
-121
-16
-45
-122
-96
76
27
58
-92
-43
-15
-16
53
-119
-48
9
120
-41
-69
-102
127
-65
127
-10
-86
4
57
0
127
8
-42
127
59
-7
127
-24
127
-112
25
21
-95
-78
-48
-48
-127
40
-69
27
-6
127
13
-98
-127
-79
-98
-44
-87
-74
-36
-127
-67
-59
-127
-63
-25
-94
-127
-61
-9
-61
44
-127
-116
-21
-19
31
-127
-127
120
-106
-77
69
54
-71
-42
127
-101
40
-46
6
127
-43
-90
-90
26
86
77
18
24
-78
-60
-127
-14
-116
51
-109
38
-99
-127
-19
-63
41
-127
34
27
-32
21
7
3
-53
85
-36
-55
-61
-4
-100
-41
-77
-6
57
-62
-30
-94
-97
-3
-86
21
-66
-105
-35
-48
-41
127
61
-93
18
-87
11
-48
-62
-47
4
40
-35
-75
127
-64
-4
69
-92
-82
-127
5
127
5
21
-114
-52
50
-34
-52
-26
78
127
10
127
-94
-7
45
-110
50
-127
-26
-46
-43
-64
-16
-37
37
20
-97
106
-12
-50
4
51
-71
12
-30
-55
-102
-67
-127
-38
-48
23
-127
-62
50
-15
-94
55
-4
-65
-73
-9
-18
15
45
34
82
25
-103
20
-20
-2
4
16
-54
-11
9
-33
-85
-110
-45
127
-71
127
-7
-14
-6
5
79
-126
33
20
-59
-71
-100
73
-74
-25
-40
15
-28
-58
36
94
11
-4
19
-70
-26
127
21
-20
-72
4
-99
7
-26
-28
-64
25
-22
5
-23
-25
-22
-17
-33
-39
47
115
-35
127
-68
6
-127
-72
-85
-15
-76
30
-48
-20
-103
127
-9
-30
-47
9
-32
-13
-73
-68
-16
50
61
-117
127
-59
12
74
48
9
-25
127
-73
11
77
42
-75
16
-41
-127
18
23
127
-23
-60
-12
2
-12
-25
72
82
-30
-36
30
34
-71
111
74
41
-20
43
4
-95
5
-92
22
-14
17
12
127
-113
50
25
-127
-54
-58
-48
-107
-71
27
127
-112
103
-15
-75
-17
47
20
42
-68
-20
-27
-77
57
-49
44
-50
-90
-52
127
31
-119
-83
-11
-13
50
-108
74
-74
127
127
-41
-10
-6
-122
31
-75
-97
-88
-45
-23
28
-113
-60
46
-40
-43
56
-68
126
-76
-57
-60
-25
-13
-127
-127
-59
-67
-57
-52
15
-101
-11
-17
11
-1
-40
-16
54
-14
45
5
-127
-82
12
-76
-8
-36
26
-80
127
127
-83
-30
-127
-79
-57
73
-69
-6
-31
-38
66
-90
-84
-65
-37
-41
127
88
-122
-39
48
-112
15
127
-67
28
-64
-118
-64
57
127
94
96
-127
-72
-88
-98
-22
5
-19
-77
-50
-91
78
-10
-93
38
-116
89
-33
2
-34
-105
-16
-118
127
55
-127
-108
87
-127
-127
79
-124
82
-127
-4
-53
26
127
-55
28
50
-123
-93
23
-127
66
127
-122
-78
-18
127
40
-96
54
-69
73
-7
-23
31
-86
51
15
-21
37
-52
-26
83
-50
12
-125
-108
43
-57
-50
14
45
-34
-71
6
-22
3
-127
127
59
120
-33
-44
127
17
21
-91
-127
-36
-125
-94
-25
-45
-49
-35
-127
-100
-24
45
-125
23
-1
-127
32
35
35
-94
79
0
24
-70
63
-69
-108
24
38
-49
-36
73
-13
9
-5
22
-24
47
-80
0
-67
9
32
81
-74
-127
-127
-24
25
14
-11
28
-1
-7
67
-15
-18
-112
-127
-127
-127
73
-55
15
80
48
-53
14
-13
4
-43
30
47
-15
-74
-5
-39
127
-127
-17
-67
40
-69
-13
-119
-127
4
88
-51
-40
-25
-108
20
31
78
-14
-74
16
-70
-2
-36
-103
-48
-31
-18
-10
-88
-127
-123
41
-23
34
18
-113
-66
2
-50
-42
-58
118
42
-17
-14
-38
54
39
57
35
-14
3
5
-62
-41
17
-83
-92
-41
-85
16
28
51
45
22
1
-60
-1
-21
23
57
-3
-125
-127
-103
-54
15
22
-18
-127
57
31
-98
11
-127
-85
-48
-61
-65
83
-115
72
65
103
-77
29
43
-124
63
4
73
-76
79
-56
5
127
16
-127
27
43
-20
-74
-89
43
-1
113
-103
89
-127
94
17
-127
-127
-127
-1
13
-109
-16
-42
59
58
-101
-90
7
-127
-85
-127
-14
-39
-61
-63
-127
-127
127
-127
-97
-113
-7
-38
76
72
-97
-54
2
62
-88
-99
-73
58
-30
1
35
-111
-35
-53
-26
-18
-77
-92
-94
53
57
-61
-105
-48
-127
-127
-73
91
-14
115
-112
80
-32
-58
-61
-53
-84
127
-110
78
127
86
6
75
-116
-123
-127
127
-105
-127
-86
127
7
-127
-127
