1
-5
-30
5
-40
56
-57
-52
-50
58
29
127
-42
-29
-52
14
-53
-67
-44
99
-4
46
116
85
43
36
-127
-13
-113
-15
127
95
-127
-44
-62
-8
-53
-32
31
57
-122
127
63
15
127
-109
-20
-40
23
-76
59
99
0
-127
89
77
20
124
127
-5
-98
-4
-48
10
-127
29
13
36
19
-30
41
-54
-5
46
67
82
-104
35
54
85
-9
-27
35
54
-59
-6
-52
50
18
8
55
60
127
46
14
-127
-13
3
-17
20
-42
10
-9
-47
-83
-75
-10
127
115
-47
-66
-24
-77
-125
127
-28
31
-19
18
76
-51
66
38
-52
-16
-45
-127
4
-48
30
-28
-4
46
-26
-30
-98
67
-73
14
-71
-64
-58
-3
35
-32
17
-127
-60
61
64
37
-69
23
-34
6
54
-96
1
-35
-110
0
79
13
127
-35
-61
-7
-31
-19
79
73
115
13
-127
-70
-108
-16
-94
6
122
54
78
127
-33
-127
-5
-73
18
-5
8
-94
-15
-39
-27
46
76
-25
-2
3
-85
-24
77
-6
-91
54
85
-51
15
30
-103
-93
72
-99
29
26
113
14
41
97
127
62
-51
5
105
1
55
-88
5
89
10
-127
36
-76
-62
-37
-36
20
-127
40
127
-31
-38
76
-63
-34
-22
28
-114
55
10
105
-78
90
-68
-24
-101
55
59
35
-32
4
38
70
127
-50
-13
32
83
-85
-67
31
127
-127
127
87
27
-127
-67
2
8
-127
7
96
-102
-37
2
53
19
112
38
-116
-3
-24
-127
59
7
-127
1
-113
14
18
42
-127
-122
-4
-70
6
-127
-11
38
18
-4
-13
-127
-64
-25
-26
-127
-55
127
-95
127
-56
30
52
-40
-127
-103
15
-127
58
32
-127
-64
94
-5
-95
-93
-8
-13
-97
-34
-127
-97
-57
-127
-41
95
-26
101
-78
-65
-62
-16
127
3
-24
-26
5
51
-52
-30
-87
-37
48
-84
84
-83
-61
-127
-30
-46
-6
-13
-16
80
-52
-118
-96
-12
-38
-14
-12
-95
-46
-56
-16
25
-127
-127
-98
44
127
-28
-127
-117
51
-33
-7
-75
44
27
-67
-10
-8
-82
15
119
-62
10
-19
35
-63
-127
-60
-29
88
-95
-27
-28
127
57
-88
-10
-18
-49
-15
-41
-52
12
-17
-113
93
-45
-41
-77
-119
-10
82
-50
6
-83
-4
30
127
-13
-5
11
65
3
-12
-31
-57
-11
-35
17
79
-26
47
-117
89
-127
-127
0
68
-85
47
-93
96
-120
-54
5
-29
29
-63
-100
-75
57
31
-76
-29
127
-54
33
25
-97
-73
82
8
83
32
4
16
-30
-10
-29
52
9
-116
-12
-127
11
118
-127
27
-122
-78
41
56
-41
-93
32
-32
40
-127
127
-47
45
-119
-69
-67
-28
45
-19
-121
-55
123
35
78
-24
-35
-127
99
-127
-111
-127
9
28
-45
50
57
79
-8
3
-30
-16
-49
-35
-109
-47
64
127
9
28
127
73
-37
-55
53
58
127
8
-84
-114
1
-99
-106
-78
15
-97
-11
127
42
36
23
-54
