-8
-44
-5
-33
-41
-66
48
-37
-24
64
24
-16
-9
-35
27
-15
-5
41
-21
15
-3
-41
-76
4
-64
24
-14
-64
-15
-127
-31
10
0
22
81
-38
123
-24
-1
-39
72
-70
22
44
37
-22
92
-11
14
-75
-20
68
7
-48
105
-67
89
71
9
-44
-74
-27
-42
-115
-14
31
-25
-26
-11
-48
-97
-19
120
-14
53
-4
-5
-2
-12
42
122
13
100
-26
-85
41
-32
-127
-3
-45
38
-17
122
-86
-52
-24
56
11
51
-36
3
-3
18
38
-10
23
16
85
-5
22
-35
-32
8
-27
-72
13
-41
-76
81
-25
-8
-52
-57
111
-5
1
-44
11
-107
23
-41
30
36
-105
33
-12
-13
-58
36
3
28
-114
88
-127
20
40
-18
16
-108
-12
38
-31
92
-37
-118
42
35
2
1
-26
12
51
83
-71
-65
-2
13
7
-108
9
56
73
-28
-28
99
87
56
24
-12
10
75
86
-53
-57
-22
127
28
90
11
-27
48
28
-75
-53
124
12
-61
53
127
-62
-50
-91
20
-31
19
7
76
107
-120
-49
-30
-22
67
123
60
-21
-35
-16
-37
65
76
-85
-32
64
-33
3
-58
-57
-76
-12
-85
35
4
114
63
-39
-9
23
-14
-29
-11
-23
40
74
-94
50
21
23
45
-1
48
-19
-33
86
-78
-10
127
88
-30
-42
-12
-104
7
115
-8
16
21
71
4
72
21
-31
28
21
-40
56
20
-40
26
4
-57
-28
27
3
-4
-39
-13
-40
8
-45
118
-70
-45
127
19
50
-40
-55
46
73
28
15
30
35
-15
14
3
5
37
67
115
-61
-5
91
12
27
127
-62
-20
26
1
-36
17
28
-2
92
-63
-43
-92
-16
-84
13
10
8
-40
-79
122
50
-54
2
-1
33
2
109
2
-4
-50
40
-46
-66
-45
-58
-48
-2
-36
-40
-31
36
109
-45
22
-76
55
18
18
127
-3
52
-7
-3
41
-11
-12
-21
17
-20
-86
-12
43
-52
-6
-73
-122
-115
-2
-93
42
-5
-54
-38
-20
-78
-44
106
19
48
23
56
-52
-36
18
-11
50
94
59
-27
-119
55
62
5
0
28
94
-83
-60
33
-127
-36
-17
-32
19
86
33
12
98
-44
93
-50
-67
-109
-32
3
-46
23
-33
14
61
17
-60
29
100
65
47
22
-17
-31
-17
2
39
-37
-127
-32
-43
-54
-47
113
-61
105
-47
27
-58
23
29
-58
-34
120
-30
-69
15
-37
56
-2
24
-75
-9
62
51
44
30
-5
3
-22
1
-72
7
43
-64
-8
44
93
2
126
88
-83
77
1
29
39
-80
-55
48
78
19
-7
-50
-31
-9
-15
-2
-38
-31
6
21
85
68
54
10
-9
-9
-69
-19
-127
-23
24
55
-12
48
-51
-83
-61
57
37
-45
21
73
-59
-14
-51
24
-53
15
90
-4
50
-27
29
65
16
7
37
-13
-13
73
53
-9
127
32
-42
118
53
-41
42
-100
14
-63
37
-47
-9
-43
64
11
-11
-70
-31
-40
32
-113
83
26
-6
-107
28
2
65
24
-74
17
54
-18
59
-80
21
112
127
-59
-54
-18
-26
-46
39
54
9
43
16
63
-62
72
75
16
86
4
43
106
-43
-26
-36
-38
56
2
-22
-3
27
13
-18
-61
-33
54
64
-4
127
23
47
-30
-24
38
-21
-46
-50
58
16
-55
-62
-26
-40
29
13
20
-52
-44
45
-46
-57
94
23
-8
-6
-9
31
-21
55
-78
29
77
68
20
69
-36
-36
-79
50
-19
9
-15
24
73
62
-127
-47
50
-13
17
-41
-55
-29
58
54
-16
-12
-38
40
12
32
-20
-19
14
-30
-12
-6
1
35
53
-33
-38
86
-36
33
-66
-34
-17
45
-6
-32
-60
40
72
-12
4
-98
44
-43
33
100
42
-84
-50
-39
51
-23
-105
-92
-33
73
127
15
89
116
-22
-1
-30
15
46
-30
18
30
-9
7
16
-10
8
-42
-69
-31
-37
106
-67
47
11
-45
-40
79
41
-26
69
-61
-73
89
95
-25
61
-116
-10
58
2
96
-28
-5
-11
12
36
15
24
-5
-108
-45
57
97
-2
-89
34
80
119
-14
14
57
6
80
92
69
111
-28
43
93
-62
119
-50
85
-1
-10
-127
24
-7
19
13
-44
32
32
55
67
-62
17
55
54
-23
-49
96
-52
-42
-2
69
-66
94
-85
-34
2
-50
-88
37
-7
11
-57
-15
-5
-84
-102
-43
5
51
8
47
54
111
-21
-12
127
-51
-99
68
-63
99
-9
108
52
34
53
21
-48
46
124
-43
9
81
-54
-20
-33
23
-18
-5
22
40
-32
-8
-20
7
-25
65
-3
-85
-58
-25
-57
9
57
-26
-45
49
-58
-48
-31
-127
-38
-103
74
-22
62
-13
-39
27
-14
-15
-79
-27
-90
-49
-42
-45
-41
-64
11
41
-8
8
4
-18
18
-94
66
-44
107
0
9
127
-53
-24
27
40
-5
49
71
52
42
25
34
41
36
-93
-78
-55
43
40
39
-78
-91
-18
-40
-6
111
29
-36
-12
-25
-55
106
-103
-81
-51
27
-12
-21
3
45
70
127
-29
-28
17
64
2
28
-30
-65
42
74
37
19
81
52
43
42
10
32
3
9
-5
71
-43
69
16
-96
-7
-24
-43
-99
-53
44
-91
105
-13
3
30
101
-30
8
-37
32
-127
32
-92
-77
14
33
73
0
47
-15
-29
-38
-12
52
64
61
111
0
-107
-28
22
28
76
101
-4
33
34
53
-39
64
51
96
4
87
60
-51
-103
-89
14
59
-2
-21
90
0
-29
39
-12
-46
47
69
84
15
-32
-12
-127
53
-79
-46
21
-18
34
-33
-29
-17
-24
-100
-22
-91
23
-20
-31
43
-32
-9
-52
-31
14
-3
74
83
7
-47
-65
-27
-28
48
48
-36
-51
6
84
-25
-22
-71
-75
-41
53
-120
50
-60
-51
-66
0
62
117
18
67
2
127
-9
-76
7
0
3
45
55
-47
-55
103
-123
13
77
-49
34
26
81
42
-7
-71
-76
-56
-72
46
5
-16
35
86
-19
-1
-46
12
26
-29
50
-18
127
-15
-48
16
26
46
-4
-14
-26
0
5
-44
4
-15
14
61
-32
-9
-23
-3
-37
60
37
-6
49
16
13
11
-8
26
98
27
14
-17
-24
-4
2
10
-30
21
-41
35
-25
92
50
65
69
-35
16
62
-12
36
91
16
125
-56
25
-76
-7
23
61
-127
-9
94
51
-11
-74
34
52
-47
13
-6
60
94
-14
51
-34
-35
-22
85
-48
-9
-30
-23
-68
28
9
5
110
9
-10
40
0
19
-35
71
-102
37
-42
6
-69
67
39
4
73
14
61
88
-10
-18
-25
-33
41
89
-46
-8
-76
-79
24
13
-43
-11
-13
127
-74
24
25
-65
-77
-60
-24
-10
-18
63
80
25
73
2
-104
13
89
56
67
-37
49
-38
-36
-127
33
-6
80
-92
46
25
13
25
-40
-34
-8
-43
16
-34
4
31
74
17
-15
-10
-9
-20
-2
88
55
29
7
9
45
34
57
43
-14
73
-32
-23
54
41
-26
-8
-72
-4
4
103
-127
19
20
21
-33
-17
-22
-12
-5
-53
-29
5
-23
-30
11
26
-16
-16
-21
-32
14
-12
1
-10
-16
-42
-87
65
-57
-22
-42
6
8
8
65
14
45
-10
-11
2
46
-16
-95
-10
-14
49
-7
8
-11
78
80
38
-127
-37
-41
-42
-14
87
21
13
-7
-20
4
-9
35
6
21
-34
-20
-13
62
112
23
47
-5
-19
-104
-87
-6
3
-5
-14
21
-63
-24
-82
-31
4
87
-58
13
58
111
29
-8
40
4
-43
-12
30
-72
-40
91
50
-54
-37
-29
-72
-70
14
24
-103
-60
33
36
62
27
-27
-48
4
-127
101
64
-19
-42
-14
-2
-28
-22
81
-44
55
-36
-20
94
-109
16
-20
-8
-49
48
70
-1
12
-47
89
23
18
-62
-41
-49
-7
18
127
45
-61
-39
0
-43
-13
26
48
1
-20
1
-79
-45
3
-4
45
55
-75
-91
-46
1
-4
-11
-40
50
-70
62
16
25
-34
-76
-89
6
-66
-99
112
-40
-20
-127
-32
33
9
33
-28
5
-74
-12
59
-52
-71
-122
50
114
35
31
41
89
-126
99
-7
-14
-64
-2
-62
62
-67
-43
22
-87
24
-42
-1
-34
21
100
-77
126
29
24
15
-47
9
-36
78
-24
-65
-12
-96
-73
-69
77
-25
-27
-36
-72
-21
-113
27
38
-67
74
-24
-78
-8
0
86
13
53
127
13
2
22
-49
-39
-25
5
-1
31
-20
-42
-11
71
-11
8
15
-27
13
-49
19
19
117
31
75
-26
11
-53
-127
-55
15
77
1
68
11
-24
13
12
22
62
26
30
6
-5
-13
28
-41
54
75
-26
-43
98
-19
48
16
53
53
-23
3
13
70
73
-42
-104
49
-17
-3
40
-47
14
-38
-22
89
-1
-21
52
23
44
14
10
64
14
-32
-23
19
-47
-63
27
87
34
8
-92
6
50
62
127
-91
51
62
-21
110
-13
25
-49
33
-24
-25
-58
67
-10
50
0
-18
33
-84
10
-55
27
2
-20
-3
7
-37
13
13
-40
-92
30
70
44
-6
-44
25
40
-3
-52
-44
17
56
-127
11
-7
16
9
-59
2
-41
-21
31
37
-88
-5
54
-38
14
21
66
45
62
37
13
72
-23
30
-1
16
-38
50
26
-84
-23
-16
-51
18
2
-35
-52
105
-89
-127
-75
-45
20
39
-20
38
23
-27
-8
-44
-79
-22
54
19
-23
15
-11
9
-21
-14
13
70
49
81
12
-57
-51
28
34
62
36
-1
28
39
10
53
21
84
-6
-31
68
7
-3
-92
-21
-34
-68
97
21
15
26
121
75
-84
-43
114
27
-12
-15
-26
40
-93
43
56
-49
-20
73
34
-24
66
-46
127
-49
95
-112
-51
-27
-46
-51
-52
-6
15
67
85
32
15
53
25
-9
37
-21
34
2
35
-14
-23
-44
-20
13
-79
-96
11
38
46
-102
-54
-29
-5
-35
-47
-17
-66
48
-16
-127
-108
116
83
81
33
-31
-37
-82
85
-88
-18
-60
-37
0
58
55
-1
-19
11
-81
-29
-7
-53
-49
18
70
-1
63
-106
24
43
-14
31
22
-36
19
50
7
15
-19
52
-69
66
5
99
-29
18
7
-44
2
-16
-8
19
127
-60
-40
55
23
-44
113
-60
43
-24
-43
-23
40
-107
-17
-4
14
30
43
28
-21
-17
41
-51
-80
-45
93
-61
27
86
67
7
61
-6
-37
-7
7
1
77
44
120
-29
-52
-53
-71
127
87
56
5
-46
-87
-48
63
95
79
-83
-28
83
6
77
-27
-35
-124
99
60
108
-95
53
79
-37
6
-44
-3
2
-18
-38
-36
24
115
96
-7
7
13
17
-42
68
21
-116
27
5
-89
47
127
-102
-100
-22
-91
28
118
-28
-35
43
-7
5
-27
-19
28
11
31
-18
-3
108
-39
36
-73
-49
-78
37
-100
-54
8
-44
-25
-45
-33
63
21
-7
22
1
94
-45
68
85
127
-48
-78
36
-7
-16
-10
84
58
-10
47
-57
8
74
-107
-87
-36
-68
-105
9
17
-12
31
20
40
38
102
7
-36
90
113
-26
1
81
-40
-91
53
77
-23
-49
-14
31
-55
-51
3
-127
21
92
58
-82
59
-59
49
-49
38
50
30
56
33
-11
17
-25
-3
-51
34
64
-11
-44
-18
24
-29
-27
50
-50
28
29
61
-21
-48
-97
20
74
12
114
82
-79
-5
109
67
-73
2
66
114
19
110
-57
24
14
73
-45
71
31
-37
-33
-32
-127
-29
24
32
-50
-95
101
-16
-52
18
30
39
-6
-69
64
17
92
118
-83
0
97
14
73
-6
76
2
-53
-16
-24
16
-68
-115
127
-29
-116
-19
-127
66
11
55
-15
21
5
-35
-87
10
-115
-14
-87
-41
-44
88
-95
-2
-115
15
16
-28
20
46
-127
-16
10
38
-26
-102
-23
-11
35
61
-13
10
19
91
-31
-65
-52
34
83
-78
-64
-32
72
-54
-13
-23
-39
36
75
13
66
85
63
30
30
-31
-113
-8
12
-1
-43
25
76
6
59
-14
21
11
-10
104
63
-58
26
-1
-73
31
-14
34
-55
-39
11
39
69
47
-18
-4
42
39
42
58
32
27
13
-26
37
19
-12
68
37
-43
17
36
-5
-127
-70
18
38
72
-3
70
-4
-20
36
68
59
-88
19
16
-16
-61
33
52
-15
61
-24
71
8
22
-29
37
35
-63
30
32
9
-43
31
19
43
47
53
-63
28
14
25
37
-88
-20
18
11
-61
-127
-3
45
-16
38
2
77
-74
36
40
32
-7
-61
0
63
-17
-1
98
41
92
-35
-120
-101
-5
-113
-56
-42
-29
-30
91
-8
-15
-63
-33
67
43
58
16
126
89
70
-34
-93
-14
-53
-127
0
-41
-14
28
65
-18
43
72
-33
-55
-6
-14
35
10
-81
-5
39
57
12
-75
-87
37
-22
-41
-95
33
25
-10
79
-88
-23
-24
-35
32
-15
-42
13
11
-49
19
21
15
25
0
20
-57
36
2
9
-65
-6
-42
28
53
59
44
15
31
-127
-40
47
-27
66
-32
114
-29
62
-94
-69
-89
28
48
-17
76
-50
10
-18
24
94
-8
5
36
42
53
-58
4
-5
127
-32
20
46
-14
50
42
-56
100
14
58
-60
10
-14
33
-38
-1
-39
111
-127
-1
-15
-29
30
43
88
70
14
33
32
27
-99
-127
-48
-31
9
27
-4
-63
14
-27
-17
-14
-25
16
35
-54
28
8
0
-5
-15
65
-2
84
-15
-10
-41
-2
39
112
56
-10
-25
124
71
-116
91
-42
84
17
21
-35
-89
18
-84
75
53
-84
-40
-7
101
-26
34
48
-55
44
-23
-7
-33
-113
20
70
-33
-23
-53
-35
27
-62
-49
75
-64
10
-30
8
-13
-127
-111
36
-15
5
-20
-17
24
-58
84
86
34
27
26
-10
31
34
-97
24
-1
-74
-28
30
-17
-21
19
-50
54
73
0
19
36
-2
50
-39
58
33
-1
-23
34
7
-29
127
-15
20
23
65
97
-98
-11
20
-4
2
-17
12
2
-17
53
-27
-112
-52
-108
-127
63
23
23
-70
-42
-49
-21
109
-21
-30
26
120
57
109
42
-43
73
53
68
4
-96
40
-62
-52
94
-66
-68
-79
-78
104
-32
-65
-52
5
8
-117
-108
28
87
-66
-54
68
30
50
54
32
-52
-50
55
97
-47
50
-4
-18
80
-127
-26
-69
-39
-16
86
-25
-87
116
-12
63
-57
36
46
-43
-20
111
-24
-16
74
-59
48
21
79
-11
-19
13
20
-100
15
69
-37
-28
35
3
-74
-73
2
127
42
51
52
-55
59
-74
-38
-17
67
-87
35
-24
-37
-35
-38
32
-13
-17
66
78
6
19
-14
38
-12
101
64
28
-13
27
6
93
-31
44
-16
38
-24
-76
-45
115
42
34
-69
13
-98
30
-35
76
-64
-65
61
74
5
48
-7
16
-74
-5
46
-92
97
44
99
-35
-74
41
11
9
-26
-31
-49
-38
127
0
-53
105
19
-54
31
-15
20
-51
21
-34
48
1
20
7
-7
19
-35
-58
-87
33
-22
15
-63
-127
-40
3
58
6
-32
41
-44
1
9
17
16
-11
-2
40
-14
-31
-27
1
50
-95
-50
-73
-33
7
-122
-17
88
-11
5
-8
-44
84
10
53
77
33
-35
-17
-11
32
-32
54
-39
-37
3
-52
105
-25
78
-52
43
-5
-17
-30
24
15
61
99
35
38
-65
-19
24
4
-25
49
-53
-32
3
67
64
10
13
46
-76
0
0
-127
-9
-11
-83
-30
73
-35
91
-17
-32
-78
3
-39
-19
-54
-63
33
33
32
-19
45
-33
42
31
-23
-38
-8
40
-55
-38
35
32
31
-31
16
-32
-63
-6
68
51
-5
-52
-33
52
28
-87
29
30
-15
-5
16
42
16
-127
-66
-51
52
22
20
62
32
-19
48
-127
18
-33
2
71
-25
-37
28
101
62
-12
-45
-22
-3
43
-49
41
-22
-56
11
-33
-10
44
-40
47
-62
51
24
-70
16
100
-97
30
-51
-10
-66
-14
16
30
-41
5
-19
127
-13
-65
-1
1
-31
-10
2
17
82
16
14
15
48
33
3
38
-127
-54
-1
-35
44
-1
-17
-8
5
22
18
-105
26
18
14
35
1
40
-20
-17
6
-5
2
-20
11
-59
-25
-19
1
59
-18
20
20
-13
-98
-50
-27
-33
-72
-89
7
64
-7
-7
92
24
73
19
-2
15
-86
-47
32
48
-11
-19
-56
-27
45
82
-76
47
-17
127
35
2
74
124
-64
61
-39
10
-56
-1
51
-23
-51
5
-29
33
16
-43
55
13
-127
-85
76
-69
-29
30
36
-45
-92
31
103
-20
15
-73
0
99
-19
50
50
-3
-38
5
56
22
47
26
-85
-42
-3
-66
-44
54
-31
-8
51
-57
-52
-13
-41
-43
21
50
-10
12
-114
38
8
-1
127
121
-117
-78
9
-61
5
-4
74
43
22
-20
-78
-125
-5
-61
-45
-33
-50
59
51
0
45
57
28
-71
-62
-45
-81
35
-103
-8
17
-80
57
29
-15
-35
77
37
39
-79
19
-67
60
1
62
-26
-43
-81
-9
116
-28
5
39
96
-88
-60
-10
-46
15
-32
49
35
72
98
-95
4
47
-104
-55
63
55
-16
-70
-127
15
5
35
-15
4
48
84
49
-18
-12
62
-61
-69
-56
114
-45
3
45
16
-72
-80
-76
-26
-11
29
91
-9
17
-21
-18
-48
30
6
11
-12
3
-7
-28
24
12
-5
27
-55
-76
60
12
33
20
-6
71
14
28
-27
-127
58
17
-108
-21
-51
27
21
24
13
-10
-69
12
-92
34
-18
44
-31
-64
-37
-5
68
-4
-23
12
74
-3
-34
-83
-15
-13
23
38
-11
13
98
70
-5
-4
127
3
-16
15
-67
9
-5
20
43
-24
12
41
34
-70
-17
-19
6
-18
-4
-41
-75
101
-8
63
-60
-10
53
20
18
48
35
43
-4
-29
-22
-4
29
73
-3
48
-6
14
39
50
-79
0
13
6
28
25
49
20
127
-50
-10
68
-77
14
70
-32
49
35
44
-66
-81
5
13
-8
-60
46
-15
8
-9
53
55
-46
-86
-47
105
-45
-44
4
-43
-28
51
70
17
59
83
38
-9
-32
-11
14
-9
-4
101
-23
65
-3
-74
4
73
34
127
-38
115
7
-41
-52
-113
-96
-86
37
-31
-40
-97
10
-88
51
125
-23
-66
-69
74
3
96
-63
44
86
34
24
-127
-68
-61
-42
-75
16
102
-1
74
4
-46
-10
46
39
31
98
105
-16
-61
109
-51
-104
73
63
-6
-15
39
-124
-59
41
81
111
73
-106
26
96
-9
24
9
-20
36
-49
15
18
-37
44
-71
73
16
4
13
29
100
10
-15
14
14
1
-15
-58
127
-27
35
47
-33
47
-43
-24
-41
-66
38
73
15
-19
2
-68
-5
5
-12
-4
-49
-10
-69
68
31
-6
37
-33
-20
17
10
-22
13
-40
-30
9
-24
3
11
-1
-127
-3
57
24
9
-30
-11
-15
-13
-46
51
55
42
8
-22
20
-18
0
-32
27
-27
-15
7
1
-20
5
-5
-26
-13
-7
-14
40
-59
-63
72
101
-11
0
28
-54
26
40
24
35
27
64
5
-61
47
-6
28
83
-1
-2
-127
-34
103
-47
23
38
66
-23
18
-6
-39
38
-41
-8
-95
98
36
33
-22
-16
46
-56
-48
-92
-86
-13
115
62
-111
56
-20
10
20
-38
21
61
-88
48
-44
34
-67
-74
-8
37
103
75
-21
-32
43
65
-71
72
61
126
-9
-22
-2
-102
-56
37
-127
25
66
77
21
41
-55
-44
-109
-56
36
-17
-17
-45
-17
-34
40
16
-42
6
27
-7
-47
-39
17
28
-23
-10
-5
49
-28
48
-1
-10
20
18
-15
15
27
-2
53
127
-14
17
12
65
-88
-47
-21
50
-16
18
-31
-9
-79
31
79
0
-34
-36
-6
21
-28
-66
-36
-22
-60
84
-26
9
-39
-28
-3
58
34
-3
-79
8
17
-43
-35
39
-109
76
39
9
-30
-10
-32
9
-6
8
7
-4
127
48
3
0
22
-50
16
22
-56
26
59
-78
-38
41
13
102
8
74
-11
-49
-78
-41
98
-127
79
-19
59
-126
61
-39
-17
57
-5
43
-27
-58
14
-20
33
-22
-20
-1
-25
-17
-115
-51
-12
23
76
-29
-6
-74
13
-72
-51
8
-39
5
-52
-24
69
87
70
-7
-51
-85
79
1
20
59
127
-76
39
27
65
-76
-34
9
-74
-11
80
89
44
-17
-80
10
40
30
64
29
-32
55
-52
-87
67
38
24
14
126
-58
-72
-27
-22
-46
19
66
-21
78
9
-22
-9
20
-32
62
40
121
-5
127
42
55
-11
-19
-47
8
-68
49
15
-46
-111
-19
-13
36
-35
-63
14
-44
31
33
-29
-11
101
-34
59
-9
3
-33
-95
-20
33
71
22
-7
32
106
51
-87
-3
55
-108
-25
70
16
-2
-44
81
36
44
-38
-27
17
-50
16
-65
-29
41
-22
-45
-80
14
73
50
-52
-74
-3
33
35
-38
-20
37
-12
11
-11
-49
-62
0
19
82
-96
62
-10
-11
-64
98
-7
42
-127
-3
-86
75
-21
-12
15
-10
-1
44
124
115
83
-24
22
-33
29
-39
30
-21
78
-65
-35
-83
-89
49
-53
55
9
-60
-20
-53
-12
30
115
-8
65
9
64
9
56
46
35
-127
4
-104
95
79
-73
66
-9
-73
-64
-17
-54
-20
44
-81
99
-69
-75
69
-46
37
-20
-62
94
50
55
-127
5
-30
31
110
44
1
77
-33
53
56
1
48
16
-29
9
35
51
28
-21
-19
52
-22
-5
-40
-17
18
21
71
8
51
7
-52
-70
43
-59
-45
-69
-73
-66
-15
-7
-19
-26
-59
6
2
-11
127
87
0
15
6
93
-13
-3
51
1
-24
23
-43
-46
38
-58
-19
-24
14
31
-36
9
-1
-67
54
50
-12
-63
54
-5
-2
-28
-20
-4
45
62
-15
-31
-6
27
-22
53
-65
-57
-98
21
81
50
65
-10
38
-64
-5
126
31
127
-17
19
71
41
51
58
18
101
43
-37
-64
6
-33
-8
44
-27
-2
79
16
44
12
-51
39
-30
2
-67
-50
49
-8
-46
4
56
-1
30
4
51
13
98
-29
56
127
-25
-3
48
76
60
-7
21
4
52
20
-3
0
-10
77
-54
39
40
-4
-18
-80
-12
12
17
-25
0
2
28
-37
43
24
-123
24
0
-89
-41
103
-79
-61
55
61
-127
-2
93
-55
3
-48
61
90
70
44
33
-126
50
76
47
-59
-42
-9
-37
-32
1
58
-20
11
-60
66
70
17
-7
60
-27
-25
-18
14
-9
-5
17
127
-14
-8
19
25
-23
57
23
43
4
9
6
-1
-53
-34
-103
-53
-88
49
43
-3
-80
-34
16
-31
-73
-6
11
-7
-24
-67
24
14
-6
-4
49
57
-40
110
-42
-52
-32
20
-50
69
-81
5
-72
110
45
-107
-30
50
1
-119
-36
76
32
-20
26
73
-127
68
-61
-52
-18
73
-4
-24
-104
102
97
-104
3
99
-25
-49
67
-13
26
81
9
-12
33
62
64
1
49
69
-67
-77
85
37
-64
89
28
22
-6
14
-61
-4
29
54
24
10
38
28
-9
-75
-12
1
23
-17
71
5
50
60
-78
-127
5
14
-5
39
31
20
-54
26
6
-73
-26
-9
3
21
-57
29
-11
34
3
77
-21
33
-35
-48
70
-34
11
-4
100
-37
49
-33
47
-26
-25
-42
27
11
22
-18
56
31
24
20
-17
3
14
2
-1
36
127
90
18
41
57
60
-19
55
42
-32
60
23
38
-22
-27
23
30
-28
10
-34
63
2
62
-87
74
105
-81
-51
-66
-62
28
-29
-30
62
32
123
-6
44
99
-66
-11
-50
-42
-30
102
112
-35
-127
-34
-99
127
-7
46
33
67
-51
92
-114
62
-46
-4
-6
62
25
60
-48
-27
-115
-35
109
-8
39
28
26
13
-29
-60
59
6
22
-41
17
-48
-38
-47
6
-31
22
127
-55
-62
13
-61
25
-28
41
-49
5
5
-38
56
27
18
19
39
30
22
10
9
-40
-31
-58
20
50
-14
-22
-58
-40
-10
25
65
17
-27
34
33
-28
4
110
7
53
-14
-38
-127
30
-24
-92
-16
-64
35
22
-48
71
0
-110
66
-17
86
15
3
13
6
27
19
-55
-35
-48
-28
73
69
61
10
-2
46
-29
14
17
-3
-51
-14
53
40
-15
33
3
-36
7
-25
21
-33
-56
69
-20
-5
7
5
-32
-3
-32
-6
17
-5
-40
2
29
127
27
-77
38
78
-33
15
-59
13
22
-1
34
31
-51
48
6
18
-31
-73
43
26
8
-10
37
-12
33
-60
-24
23
-53
52
-37
127
26
-42
62
-2
-62
-84
-49
27
88
30
27
40
-61
23
33
36
54
86
-104
-50
63
-14
-41
-36
-22
-47
55
99
34
-27
8
-59
-40
-30
14
-28
89
19
-17
89
48
51
-20
-52
-3
-30
3
10
-103
-21
-74
-79
54
-14
44
-96
-113
117
126
-70
-4
-55
86
17
15
70
-38
-80
42
-89
25
75
29
40
34
-69
-19
-31
57
28
-50
48
-127
-94
-32
-15
22
45
-41
-69
-21
-68
-83
-8
50
-32
44
8
56
9
-19
-29
79
-20
34
103
40
-41
10
39
55
10
35
13
-6
-55
57
8
-69
27
0
-34
-56
39
34
15
10
-55
-127
46
24
1
2
-38
-37
69
53
-57
-40
35
43
62
24
-57
-7
-2
-10
-92
127
-16
-83
-23
71
-58
-73
9
35
54
-108
-20
-50
36
29
11
-75
2
19
-62
-5
50
47
-16
67
31
37
11
67
-11
-2
-29
11
73
8
-55
-80
75
58
-25
-48
-127
14
-47
58
-77
98
57
-7
92
47
-52
-26
89
49
-29
-58
32
-39
-22
-33
-44
29
-50
-45
77
18
-55
11
3
-53
15
34
38
-42
12
20
67
59
-22
21
-76
-16
84
8
-4
-3
71
39
-19
-45
32
-20
-46
-31
26
3
29
53
59
-70
39
39
-5
51
66
72
16
21
21
54
42
40
57
30
26
47
54
-40
-72
-127
-21
-26
27
-19
28
4
114
-21
-51
10
4
58
123
5
121
16
11
-74
46
-62
-114
-29
-7
-63
-13
9
9
-54
64
6
11
-1
45
53
-34
62
34
-34
48
26
27
127
98
53
-35
53
-5
-41
19
92
-25
21
58
36
97
9
-25
-25
-75
-51
-16
59
-87
-119
46
37
-118
-51
17
47
72
127
36
-52
28
25
-103
-56
2
117
-47
-107
-118
-93
-60
13
-28
-65
-41
82
-110
37
-118
44
-75
-3
14
108
51
29
69
30
-96
-9
5
8
-4
-39
73
75
58
-29
-50
-17
-56
72
49
75
101
9
127
38
21
-11
-6
-11
29
-89
35
-30
42
26
-58
7
-103
6
59
-28
-48
-45
22
-43
45
88
57
-48
-22
76
76
110
-68
19
43
-57
-26
-14
-38
61
-85
22
6
77
-105
-26
-60
-39
-94
60
-2
36
23
-62
-36
-88
9
16
40
-122
50
-54
21
3
31
-14
-44
31
-127
13
-34
17
-15
9
-35
66
29
20
-32
45
-78
-27
-83
74
-88
23
43
8
-1
0
90
127
-17
3
-48
-55
43
-75
26
79
75
73
-61
-58
109
-49
14
28
66
11
17
47
-13
38
2
-63
-7
-16
25
39
7
-21
26
-50
-14
-18
-3
59
51
-72
-55
13
-85
93
-84
-32
-127
-49
120
-27
57
-50
-44
43
42
-46
-18
-58
-21
124
35
-44
14
-61
-13
-68
122
10
-68
-48
-38
-40
-33
-100
-52
-58
-106
13
27
-6
-3
-61
4
-51
24
48
60
49
53
-45
-74
-10
-41
20
52
1
-9
-16
0
2
-7
11
-26
-18
-43
-4
45
-46
-14
-17
-18
-17
-34
-41
-127
-46
33
-125
-69
-32
-21
71
-36
48
-52
-12
14
20
-23
29
-1
29
10
8
-6
35
10
-1
-61
77
8
9
105
96
103
73
89
-45
-66
-118
-85
52
23
-91
61
48
-73
-38
53
37
22
35
23
-9
-40
60
67
1
120
-7
48
93
83
85
-43
-21
-78
-111
32
127
-57
70
11
-8
-90
-9
42
-74
-41
-16
-10
-72
72
-3
-29
-49
39
-75
-47
-23
-84
-85
103
61
40
-23
-44
38
39
21
-59
66
-38
34
-3
67
-54
-78
-19
-12
-23
103
127
44
119
-46
-79
-4
-63
-36
16
-28
-58
8
39
40
70
-22
40
21
34
32
42
32
-32
127
-8
91
18
-97
-29
116
-6
-60
32
-70
-30
-57
-67
5
-54
-66
23
-42
83
93
1
-61
42
56
53
38
-41
55
-5
-12
-9
-34
-70
-26
-63
88
14
-69
39
76
56
75
39
15
-9
9
94
54
40
44
68
60
53
-68
-47
27
-14
66
22
-38
87
64
-82
109
89
40
16
49
-90
-87
53
-28
-60
-100
127
-47
11
-48
0
-20
67
-14
-38
16
4
-20
3
21
-72
75
-1
-17
-59
-2
-30
-15
28
-33
40
81
66
-38
63
21
51
-10
102
25
-43
-40
-66
127
90
76
3
71
-60
-65
55
-40
-65
-75
36
-28
2
-80
23
44
117
22
2
7
18
23
-36
41
-13
35
27
-74
-5
-36
-9
8
-11
1
3
34
-16
37
62
8
-99
37
-92
12
9
-45
64
-32
23
-27
-127
12
39
-43
-35
-31
12
-3
25
10
-10
-45
-60
-60
11
8
50
-8
-5
-88
6
42
-52
-55
-67
-36
-32
20
49
-74
40
66
-15
-7
-70
1
10
68
91
-80
118
8
-37
66
-55
82
-24
56
105
-15
28
127
55
1
22
13
-7
-16
13
11
60
-3
-100
54
33
-8
35
-31
-39
-43
-110
-51
38
-33
-21
63
9
9
89
-74
50
127
70
-56
-55
15
83
-19
-49
104
34
54
-62
63
40
6
-28
-47
29
-68
60
-77
-13
56
93
-70
39
-27
-9
49
38
-9
-88
28
-42
-32
-25
36
22
34
37
33
-36
-2
27
3
19
93
22
11
-34
21
-49
-115
29
34
15
-46
-71
-6
-48
-18
-9
-14
49
-53
-127
-31
-20
6
-62
-30
-10
84
78
-9
43
-41
-25
35
68
-49
63
-61
-30
-21
29
99
-8
-104
-23
109
-63
120
-28
67
16
52
-75
-77
118
65
-60
-66
22
39
64
-7
31
-16
37
16
105
21
-36
2
114
-78
46
-103
125
-99
8
-126
86
-65
127
-19
3
2
6
-39
-34
21
-91
-111
-89
9
-43
29
-12
71
-11
20
12
50
28
25
127
-10
0
25
74
-7
-34
8
17
1
-65
110
-85
-26
11
-38
-44
-75
-40
50
63
66
-71
-92
82
-19
83
-17
-6
-67
22
11
2
-48
77
11
-12
-25
19
-9
-56
-18
-51
55
-23
-16
100
-40
-127
-66
23
48
-88
-75
-22
-48
75
13
34
-18
-15
5
13
-4
-13
71
-59
33
-13
50
31
38
-64
12
-90
-67
-127
79
21
-75
32
-14
-110
-28
65
110
-98
29
53
43
-10
-32
4
54
-15
89
20
-23
83
-63
30
-59
-4
40
-115
47
-35
-21
89
-95
-50
-39
60
-35
-13
-44
2
-67
-25
12
112
41
-57
63
-58
-36
79
58
-56
84
89
19
35
3
-6
-127
80
-100
-60
31
0
51
-7
-38
-31
-40
-58
22
-30
0
33
25
46
-78
-6
-55
-69
81
82
-16
30
52
-46
-60
-25
50
-22
77
-60
-84
-105
22
34
127
-74
-41
-60
33
-31
-31
-19
85
-44
38
-29
-56
52
-25
44
27
-54
32
-32
27
23
30
-23
-48
21
57
-34
27
65
27
8
17
-3
-12
55
18
-59
-6
-58
-16
29
-12
-47
37
-68
-17
3
-20
2
-15
-66
-30
7
3
17
-30
14
28
18
10
15
5
-6
28
-22
54
127
18
-51
98
-26
68
32
5
16
-5
-6
3
62
-17
27
-52
-16
-58
-42
-46
-16
34
-24
-27
-4
-21
-13
7
27
-23
56
-24
50
-7
4
59
-67
-81
-4
11
25
-7
-4
73
69
68
-27
-68
-48
40
5
-113
127
-24
47
16
-50
32
9
20
71
-4
-36
30
53
-74
-49
4
46
53
56
-14
77
81
-31
26
50
1
52
-54
40
39
-29
26
-27
0
33
28
36
14
20
-16
-15
67
-127
83
-27
27
5
-42
32
58
84
69
-50
36
-16
-24
97
-65
37
-8
72
-29
-45
-25
13
5
40
-29
69
-8
-35
76
5
18
-51
23
-85
-17
47
-41
51
52
29
24
0
6
-69
-92
-72
0
49
-40
-61
57
11
-36
-70
-38
-54
-37
33
-114
-47
81
11
75
-4
20
14
91
46
-28
-106
-6
-127
43
-60
80
-10
27
36
-12
-40
6
-119
24
-37
87
-43
40
-122
70
59
75
-50
-36
-8
-8
-9
-76
29
-65
-91
-30
-127
-32
-63
-12
-73
-26
39
-39
-62
-51
-71
-76
-29
-19
38
26
-9
-34
-28
-29
-53
-77
1
-30
15
-15
127
-27
-83
-1
33
20
-16
-82
-22
64
6
115
55
25
-20
-46
64
-32
-114
-45
-17
-83
-92
-47
-72
-37
-29
-64
-50
50
-41
65
-43
-52
38
-60
121
48
8
-49
-72
72
-30
-19
-89
33
107
52
-65
21
-25
68
-20
7
-40
9
28
-71
61
-27
34
-14
-28
82
33
-62
37
25
-58
100
95
60
-11
90
-22
-88
15
26
12
-61
15
101
-55
-18
-127
-55
51
37
-45
-53
33
66
11
7
9
56
10
-90
-11
29
53
40
20
36
50
117
-7
29
55
66
49
-50
-33
53
77
84
-2
33
-77
-73
-40
8
-18
-15
49
81
12
37
-77
-101
28
-55
90
-113
-27
-118
-127
-55
88
-20
-39
8
-15
-26
63
-6
-49
2
43
34
11
12
-7
-46
-25
41
-12
-15
-41
-30
41
-41
-127
50
52
-18
45
-11
-44
-5
-54
18
5
44
-5
4
-45
7
5
63
92
-15
-11
-45
29
91
-43
68
-4
-20
-40
57
73
9
20
-63
31
-28
-35
40
-1
106
78
46
-52
-29
-39
-15
17
-78
-40
-88
-8
16
-90
84
-41
-64
37
-22
-1
49
82
-65
-10
-42
-17
-23
17
107
13
88
-127
-48
-96
20
16
24
-17
41
42
-47
31
12
-93
-48
127
-41
-48
74
17
32
57
-73
-40
46
15
-5
32
-62
10
4
-58
24
-36
75
-50
-108
-17
76
-92
4
-9
-19
126
52
27
31
-31
60
-104
7
63
-96
7
71
-25
35
-32
-81
-84
25
98
86
70
73
-33
-11
41
-68
16
-100
-79
43
43
-114
-53
-30
2
-73
-65
-7
59
116
-54
-27
-61
91
-3
4
56
95
-6
4
31
-4
-127
-31
-83
70
19
-18
25
1
-127
-59
24
20
82
57
60
78
47
25
49
-65
-5
-63
5
126
58
8
-47
28
-12
5
-61
-13
-14
-5
122
-25
62
29
104
-34
-17
22
105
-52
-11
-55
-18
-87
32
13
46
-39
-124
-53
37
12
15
18
13
32
-2
-29
1
-55
-23
22
-54
6
-127
61
52
-8
61
30
-15
49
67
-13
-17
-48
22
-37
38
-18
58
-21
-67
-1
-86
109
27
-74
-8
-64
81
9
-23
-5
21
-56
-3
1
94
22
43
-105
-46
19
-23
94
-52
47
35
58
0
-117
-34
-88
-57
52
8
1
34
-72
-25
-42
76
4
52
22
19
-12
127
-44
-66
80
20
-3
-30
13
-45
68
-71
-17
28
23
15
9
36
-28
13
-2
-31
-37
76
9
-58
74
-109
7
-64
6
-10
-113
19
-37
-37
127
-27
55
-11
-30
-63
1
-20
33
-96
30
9
0
47
-56
-110
17
-53
-71
-8
78
6
-9
-63
-78
-15
48
84
20
-23
-22
-74
108
39
-96
-23
23
-18
7
65
74
32
-45
40
-59
-63
-53
-48
-27
-51
4
75
-127
-115
-12
30
-46
-24
2
-19
-30
-15
-41
-5
4
-13
-54
28
57
-78
53
13
12
-30
-7
-41
20
2
-7
19
-44
-24
31
47
17
92
-51
80
-39
-57
-11
30
-1
-98
-8
-22
42
15
89
40
11
127
-38
8
15
15
113
-16
65
79
9
87
73
-15
112
-35
25
72
60
-112
-49
-66
120
100
-8
14
9
100
-81
-66
-1
20
9
-28
-15
-92
-5
14
-6
-41
-20
-47
33
27
-32
2
-39
-6
65
3
-52
-44
16
17
-23
-24
-1
-4
45
16
-46
-85
-25
-127
-117
-48
-52
27
11
47
-1
18
-39
53
-12
36
127
42
8
-62
-29
16
95
44
-4
-54
51
-63
-98
-5
10
-71
-40
20
71
-33
44
-24
75
-91
-68
39
-30
-66
54
-3
10
-11
-49
24
3
42
18
-40
5
-8
25
-62
-35
79
68
-49
53
-78
66
-10
-61
-32
127
-12
-42
-89
-86
-5
-2
98
-16
27
14
-54
23
-111
97
17
124
37
-32
11
39
-16
-8
1
3
45
-78
-19
-67
-43
-3
93
6
-8
23
-3
102
-40
93
-23
-13
-2
-25
-44
-90
-82
-25
95
-6
79
74
77
30
-26
39
-22
-94
8
-42
75
-15
-6
-63
17
-127
-120
29
29
-45
124
-36
-7
-29
-33
0
-60
123
38
40
0
27
-12
76
69
63
46
37
-34
34
15
29
88
96
24
-106
-21
47
1
35
51
64
-25
9
-3
-127
-127
24
-49
3
-8
10
14
105
-94
-64
43
5
-18
-35
-28
-80
111
-58
-17
-55
-4
-49
52
21
9
57
56
-2
15
50
17
20
-53
-81
-46
-56
33
8
50
-1
27
-8
7
-26
-61
33
80
15
-71
35
-22
4
-18
-55
-11
51
29
62
54
-63
127
43
-17
87
-14
33
27
12
76
-27
-24
-42
72
66
71
85
48
-26
93
-64
-7
100
2
1
-2
-4
11
73
1
14
35
44
-35
4
-9
-35
11
-127
-58
-52
-43
92
15
-11
26
-74
79
24
10
-14
-4
21
25
-3
40
-52
97
-39
15
-3
97
-50
-66
0
-76
46
39
76
15
21
22
66
16
-71
49
120
-31
-101
98
2
56
-66
50
1
-77
86
-23
-46
-90
-104
120
-30
-19
26
30
60
-36
-17
-87
-80
36
-51
-127
0
56
92
-8
31
-19
90
104
25
-19
-67
-120
28
-11
91
-2
20
-66
77
43
-43
-34
9
-58
-39
-71
-23
-84
-4
39
-42
-21
76
45
50
-20
-26
26
-18
-2
-73
26
40
47
90
23
-42
-29
-61
-1
-67
15
13
30
-37
-42
-18
-20
127
32
-18
-28
46
3
20
-24
-27
-52
34
-36
36
-95
79
47
12
-82
-76
27
-45
-105
19
-7
22
-24
22
67
-127
-84
28
51
70
8
5
1
33
90
54
-24
10
76
-78
-112
13
0
65
-38
47
-56
-29
-75
-2
82
-57
-53
54
53
43
43
-1
90
41
-1
-54
-55
-31
49
64
39
17
-16
-108
67
-46
-15
-46
-40
16
-91
-19
-127
-22
53
64
41
-11
25
103
-40
-52
10
40
35
-18
12
8
-64
-12
1
-59
76
53
25
74
-9
-87
25
16
58
-8
-25
-21
45
3
-15
-3
46
33
127
36
-63
20
-6
60
1
-16
14
-10
48
18
-58
57
60
60
37
63
19
-8
45
-55
59
-45
1
-7
-17
3
29
-3
9
-28
-26
-53
-19
-45
-9
-62
6
-96
39
47
39
34
-26
-20
127
-56
62
21
-25
116
19
52
51
-5
25
71
-14
8
60
47
-101
62
16
-19
64
46
68
-64
-18
2
33
-74
-42
23
24
14
43
-52
15
-34
28
54
82
-67
67
17
-127
15
106
6
-33
-33
11
33
27
21
32
-48
61
68
26
-10
117
43
-54
56
57
37
22
-8
36
16
43
37
79
-10
-72
-23
-14
71
58
-12
37
51
95
-21
-55
10
15
-5
5
-8
-108
36
16
-21
-53
17
-8
41
41
45
20
72
7
-6
44
50
127
-93
44
-73
24
-48
-3
8
-44
22
15
114
-74
-54
72
-54
46
60
6
-48
21
59
0
-42
67
-79
-54
27
-24
50
83
20
10
10
-38
70
-54
-7
17
7
17
-18
67
32
-39
-5
31
-32
44
44
36
-14
28
-50
-12
82
47
-46
-56
51
-62
4
-1
-43
-91
-20
-15
55
92
-44
21
78
127
-9
0
-71
-14
-1
-48
-8
-63
15
-38
40
-8
-37
-66
13
57
85
10
-36
-33
39
-57
38
15
14
25
43
-103
-2
3
29
-52
34
78
32
1
47
-16
-21
-53
-65
-63
-44
127
-15
100
9
3
77
39
-37
34
65
29
-45
-42
-14
32
-27
120
-48
10
-7
47
-19
-35
87
-5
22
-106
0
127
-14
44
95
12
23
44
14
-72
45
-21
-18
28
62
38
-45
31
67
-10
-89
-36
104
45
-8
37
40
27
4
45
16
9
-17
99
-117
6
11
95
-101
25
-48
49
63
60
-5
-62
98
74
35
-85
21
78
127
45
59
40
25
-85
-13
24
-70
53
32
-65
31
-51
-31
-56
-43
-51
-48
33
22
16
-41
15
-55
-51
76
19
-61
-62
-102
42
79
-20
38
-57
25
-32
26
-66
82
-14
127
85
-26
68
-13
28
24
-4
88
42
-83
-71
-42
-57
19
49
35
-30
61
4
93
-9
28
31
-56
-23
-4
78
-69
-9
38
-32
-35
-125
-16
-24
-58
0
-23
-79
-8
39
18
-24
46
-24
0
-19
56
-45
-110
42
127
-102
-3
-59
-19
-44
8
4
-28
-100
-24
-31
60
-67
-50
-37
78
-26
46
-11
-41
-52
-24
-74
-87
-22
20
-38
-6
22
-72
41
29
-6
-77
127
83
40
-55
-28
-5
-71
38
53
-74
89
23
-30
-23
-53
-19
-3
34
45
46
90
41
72
-14
5
13
-22
-35
-79
-108
-19
-5
42
-32
55
21
69
-15
20
-2
-84
-45
-71
51
68
-56
-67
118
120
-39
-60
6
14
78
24
72
-1
95
91
6
-3
119
-8
38
-127
28
75
-79
33
11
36
-31
116
25
82
-38
-79
-9
-106
40
1
-69
61
-34
-13
-52
-20
-3
18
10
82
-12
39
-96
38
-70
44
-102
-6
-20
27
32
-28
43
62
2
-72
-32
38
91
17
-10
81
73
-43
14
-41
-127
-16
-38
60
58
-52
23
-22
-16
36
34
35
-40
8
-39
-53
29
-95
30
-11
50
79
74
101
-44
-96
43
-55
-119
-57
7
4
-49
118
4
-71
-27
-43
102
-123
-11
-63
26
29
13
85
14
5
21
-48
18
42
45
31
-22
-43
-117
12
26
83
71
-56
-42
-127
16
2
-7
127
14
16
20
58
28
-17
-1
-40
-36
88
0
17
4
-41
-78
29
-41
1
-13
-6
-41
4
36
1
42
-8
31
-69
57
31
-18
53
11
2
61
20
-13
-21
35
-89
-18
-23
-32
-13
-62
-34
67
-28
-19
103
-76
55
30
-46
30
20
59
-53
18
-19
54
19
55
-69
-62
-24
35
41
-74
127
60
33
112
-126
29
27
24
74
20
15
-37
102
-15
-8
23
5
34
73
-51
54
11
21
51
-63
-4
-13
-29
-26
-72
26
-15
-31
-25
42
-9
-31
18
-10
-29
-34
-8
87
-84
-48
101
44
5
27
7
52
31
24
19
17
-87
-42
-67
-43
43
85
79
64
-72
58
-127
90
119
-47
-5
-40
35
-111
-12
12
-31
-58
73
-31
77
94
-29
-31
-15
25
-52
11
21
62
24
45
-58
-64
-60
-33
93
-43
-38
61
-7
-36
48
39
4
29
-52
14
-110
-75
-21
43
-24
48
-80
-48
-63
17
-7
127
63
127
87
-29
1
-22
25
-50
-50
-50
-53
33
-8
20
111
-57
-51
-41
89
-21
16
56
28
-111
30
-17
-6
-64
9
-59
-67
26
-17
-20
39
12
33
72
-52
-50
1
1
4
-15
91
90
-48
-103
55
46
-62
-29
73
-22
-34
-46
41
71
-16
-7
38
-22
62
-84
6
-104
-22
25
53
127
-42
-29
50
-50
31
-28
-9
50
-41
-9
12
-5
44
27
-71
-49
-26
81
22
-10
-56
-58
-5
15
-65
32
-127
85
-109
8
3
86
-122
-112
-42
-23
-81
99
-26
-39
9
-6
89
-12
5
53
24
66
66
107
-17
77
60
-66
68
-6
-50
58
61
68
-79
-26
27
-96
89
-19
45
60
30
-62
-83
46
92
62
60
38
-127
17
54
-21
-50
-18
52
19
21
-44
-59
-59
30
-59
-13
18
-32
-7
-8
-19
57
6
-17
61
-5
11
-27
39
-3
-12
8
23
-18
55
-28
-67
-15
48
2
-26
-63
56
14
0
-27
43
-12
-71
-27
45
3
50
-34
-70
-127
35
-75
114
83
25
3
-4
-112
-121
86
101
-78
78
-2
84
-41
-26
-29
-11
1
127
-44
-90
55
9
-43
-34
-85
26
31
-20
5
70
56
-108
-117
24
-70
-13
29
72
-10
98
-3
66
-108
-80
-48
1
47
-2
14
-51
108
5
-2
27
-127
-4
-6
-112
-7
86
-105
63
36
22
60
-89
69
-61
8
58
-54
76
-52
75
30
73
122
23
3
-62
51
33
108
-16
-12
40
-62
54
6
65
0
16
25
-55
67
-37
-84
21
-70
-16
71
57
-54
-127
-32
54
-1
21
-79
99
-5
86
46
8
87
1
64
111
-63
55
48
-8
6
11
43
70
-8
-5
50
34
50
-50
75
127
-100
3
74
7
-38
30
-17
-81
-122
102
-85
-34
14
-52
-10
-75
-14
27
-70
-52
23
79
-3
119
-15
5
75
-1
66
69
44
35
-50
7
-3
-25
31
27
-40
37
-48
-6
63
16
-16
124
-14
-71
32
-1
-54
-40
-50
-9
-3
36
71
-47
-8
102
-12
57
-73
-23
39
27
101
4
-57
-30
-2
52
-14
-42
127
-77
91
-5
-5
44
-21
-27
-75
67
88
97
38
24
-101
-50
4
19
-11
-4
22
-3
-56
-4
-19
-6
32
44
31
24
87
60
-64
-31
-104
33
80
-21
-26
-55
47
51
40
-8
-43
33
19
-33
42
-37
-4
39
-29
127
9
28
32
17
52
-3
-4
-66
-104
92
33
21
83
-59
25
89
-55
54
-2
-8
6
-6
6
-18
-44
57
21
24
38
-29
-35
12
19
32
-29
-44
29
-11
-74
-6
45
-2
33
23
-38
-41
58
10
37
-24
127
27
6
-37
6
-20
20
-19
-13
16
-4
-47
-36
78
-62
67
-14
25
-42
32
1
34
-127
57
2
2
-71
-19
65
-18
19
-1
-32
58
-1
14
19
33
68
69
-12
22
7
-10
-8
-9
26
37
10
21
42
-30
56
11
-50
-25
-21
11
-37
63
-30
-14
23
18
3
-57
-91
5
85
93
92
-30
-17
-28
85
-77
25
2
-19
-72
56
-30
-92
22
-10
-57
-21
-49
18
4
2
26
-44
127
-31
-40
-71
27
-29
-80
-39
-121
21
82
68
-54
85
-30
-60
-68
55
2
-48
11
26
5
-81
-65
-10
24
-1
22
41
55
-16
-26
30
118
61
-127
-48
-15
43
-27
9
10
-10
-29
-1
17
-23
-49
-47
8
-41
-31
53
55
33
19
26
-50
-78
-30
56
-92
101
39
-113
-69
-11
-24
-43
-71
8
33
32
-10
25
-10
11
-28
-7
-63
127
31
47
24
-97
78
16
3
42
-66
11
17
-96
-45
59
-61
-94
48
17
-51
65
29
75
-43
56
-91
39
-57
41
36
88
34
-61
-28
125
2
-81
60
-10
-17
22
36
5
-37
-34
-56
25
6
-72
-9
1
-5
-17
98
8
68
5
-78
51
-7
38
77
-19
65
57
64
1
-13
52
-17
90
-89
-30
81
-6
-25
60
127
31
31
-109
-41
69
59
-39
-40
21
60
13
43
-89
-63
-5
-127
-46
-71
-57
-14
4
9
-9
28
-38
47
48
77
21
91
1
40
-91
-72
-102
58
-69
-51
44
-23
29
50
50
49
-13
-39
-50
-59
-58
-47
-8
16
-32
25
94
3
41
-9
-19
-18
44
-13
-72
-20
124
46
1
10
-97
0
23
2
-44
-30
-43
-20
14
4
47
96
2
40
38
-127
70
78
-7
-84
-50
19
31
55
-22
51
7
-34
45
-72
53
1
19
-12
20
54
13
-4
20
-12
-70
27
-81
48
12
49
19
-60
28
39
-11
-11
24
54
98
90
-11
39
-10
-42
-10
69
-127
111
5
3
-58
-63
-45
19
-18
40
-13
-69
-2
-70
