-36
30
-95
60
45
58
-38
-108
-127
28
-21
-37
-76
-33
91
1
127
-76
-31
-12
-20
18
-36
72
29
-30
-101
-86
-7
-109
-11
-57
-127
3
45
63
-22
-52
-14
-60
-81
127
-21
13
-68
38
29
-37
127
-40
-74
127
-34
-114
-37
-59
126
101
-85
-43
20
-105
14
-127
92
64
-74
-2
15
39
42
-106
-95
-28
0
-45
-4
-42
22
-22
70
5
-21
127
-116
-19
11
-54
11
-127
-96
-122
67
-127
127
42
-83
45
-18
-127
-75
25
1
-91
65
127
-13
-36
-80
43
-62
-1
25
-127
10
-61
-3
-11
-67
-127
-2
40
-95
-69
-7
-49
-63
15
64
-31
57
58
-60
4
-82
-49
65
96
-31
73
-71
-21
36
-15
-50
-42
-10
61
-29
-45
-63
-56
55
45
-56
-53
84
-90
127
-122
4
-83
-46
-29
40
93
-68
46
-31
-35
30
-22
53
-23
-3
26
33
16
-22
38
-42
-7
-26
-106
-99
122
28
13
127
-66
48
89
-127
-37
-13
-47
-97
-20
127
-68
7
88
-29
55
-78
22
-117
-64
39
-87
23
127
-107
50
59
-4
-66
26
-127
-64
3
6
-113
-37
104
-100
-47
-31
-86
45
-127
-26
-108
122
-100
85
-35
-33
-13
-60
-57
-5
-67
43
-43
-54
-45
-84
-3
23
24
-99
127
-99
110
60
12
25
-127
-65
-40
41
-127
30
107
3
78
6
-79
35
-43
51
37
43
-8
-36
-37
27
78
-38
-100
-101
-32
-1
74
71
65
23
-79
-113
-58
78
-120
-5
5
127
120
24
-87
-62
9
-12
96
29
15
4
1
-12
127
9
-127
-79
-46
71
107
-47
26
-127
60
-87
-3
104
78
71
41
11
126
-116
1
112
-20
20
-16
-46
-77
-43
97
15
-101
-23
-74
-112
92
81
127
22
-112
4
-63
-64
-6
-22
127
115
52
-94
26
27
53
-33
17
-20
78
-7
33
54
40
-127
-8
43
24
78
-111
-127
-5
-37
83
46
-127
-15
56
-112
122
-9
-126
127
-65
-49
-125
-120
54
-75
-106
67
127
-49
-58
127
-6
-18
73
-38
50
103
23
-127
39
-120
-59
119
41
-119
127
14
127
-127
1
68
-71
35
-34
43
79
-127
40
49
-66
56
-127
-127
-127
-28
59
12
36
-104
-127
88
87
127
25
-76
15
55
17
-95
30
48
-43
-127
27
-79
57
26
23
14
-127
-127
-73
-7
35
-26
-68
-66
0
55
-14
10
127
-65
-28
-127
73
86
110
127
52
0
-68
64
-69
-9
-23
-34
-103
-127
35
-75
74
48
-56
127
-127
-76
-127
-127
14
3
127
93
-10
53
84
87
-127
-67
11
23
56
52
115
-21
49
-127
-127
38
-127
-7
-36
-91
-127
112
-127
127
-5
-42
-57
-31
7
127
-86
-109
-9
93
16
51
-34
-91
27
-76
11
-18
-16
-53
37
-6
-76
-50
-127
32
-74
-127
36
-2
94
127
-127
-127
-127
-36
-79
127
-127
-43
48
-28
-46
-117
-127
-103
51
36
-11
107
53
-34
-34
30
127
-13
-127
-121
-5
70
13
-21
-104
-82
6
10
-14
74
-19
55
-61
77
79
-6
-45
-39
-113
-40
49
-127
-85
-81
-56
43
-109
117
16
-61
36
76
73
9
-59
-47
-30
-16
60
-78
-69
-127
-38
64
-127
-53
-56
68
-62
-53
-60
-49
66
-51
-88
4
-20
46
-41
116
82
-48
-5
-127
24
-126
-5
-53
-87
1
123
-37
0
-73
-127
-32
105
41
49
1
-74
-20
25
7
-68
5
-70
-5
3
127
12
24
70
22
-73
-75
-61
56
36
-10
18
67
6
-24
-58
50
-57
78
0
96
30
-110
77
2
-91
-91
85
-39
-88
16
99
7
76
47
-62
-43
20
127
65
25
-59
-35
-47
60
-16
-44
-59
-37
-24
-22
6
-72
-44
127
-127
-32
5
-124
127
-106
-21
70
20
14
41
-59
73
52
11
-88
37
-49
-38
-34
-106
19
-17
109
4
-43
-23
-69
43
-22
93
46
-89
-42
29
-20
23
-65
-43
-46
109
63
6
43
25
-122
88
-122
-78
27
-33
-28
22
123
22
-80
-90
15
-23
109
-7
73
40
-7
-86
98
-93
-127
83
-1
-64
56
35
-43
11
71
-83
-127
10
44
3
-11
89
-95
-64
70
-42
-69
-61
-4
25
42
57
-34
-36
91
-31
34
38
-127
42
-127
-26
127
-12
-85
-60
-49
23
127
-30
-70
72
-32
-20
1
-127
-7
-70
-22
-44
-66
0
-104
-10
-95
2
69
-127
-67
87
3
32
-95
-20
10
94
-16
