-27
-60
-25
22
7
-89
-34
-20
-127
-63
-80
-48
-26
-20
-85
-18
3
-21
-65
7
110
-32
-29
-19
124
52
-13
-32
90
33
4
-38
-69
10
-45
77
14
91
35
8
-97
-8
25
31
110
-32
121
69
-2
-24
12
39
-89
20
-127
-40
-82
-127
-53
-63
-10
-105
6
23
19
-127
18
7
-68
-34
-7
29
-33
-41
25
-32
14
-106
-4
59
46
-2
-29
34
-33
-35
10
-105
63
-93
-76
-23
56
35
25
-24
-125
96
14
112
-58
40
111
-79
-50
-21
-8
28
109
-56
69
-26
-82
-48
6
7
-127
-77
72
13
-12
-63
-127
-50
-16
-127
-127
-27
-8
-36
-62
24
18
106
-95
20
-72
-30
127
-32
-29
-2
127
0
-104
-49
17
40
-59
-84
-4
-31
81
-55
-61
27
39
46
127
-104
-93
-73
-78
127
-19
24
-33
-63
23
-10
0
5
54
-64
-32
1
10
-13
40
-89
10
-50
-18
-84
-46
48
13
-61
-15
-111
-39
-12
-79
22
25
-111
-19
-119
127
76
-64
89
37
86
127
23
28
-127
125
-102
-127
-74
-48
19
-17
82
-29
-5
28
-79
-26
2
-37
-43
3
-85
-17
-15
84
-84
-111
127
-20
-76
-79
50
127
30
107
127
-127
-21
127
59
45
-20
10
13
27
-47
-59
127
127
11
-16
-20
127
-67
127
-122
-127
-127
-42
19
123
127
-45
48
-65
24
-17
111
-13
127
-80
-103
47
58
127
102
-100
108
-50
-127
-127
-127
-19
-127
127
114
108
-82
66
-13
-40
-124
-127
127
107
52
66
127
-80
-52
88
-47
-54
127
-7
34
-64
56
-63
6
-14
9
-15
-47
-112
-50
-48
-69
-10
-60
115
-7
-27
-26
-15
17
99
40
-52
116
34
20
-127
-29
52
42
127
-19
-92
118
39
58
-9
66
77
71
109
32
51
34
-127
-37
64
35
-127
24
-47
-88
30
-127
7
-17
127
-75
4
-127
12
-18
-39
-127
67
15
-102
127
-84
-1
-21
-24
79
127
-34
14
47
41
-10
1
118
12
-95
-17
11
-29
116
-127
-59
-17
12
-2
25
8
63
56
-98
-127
-37
-102
32
-77
-24
-3
69
44
-59
-89
23
-14
-91
-127
72
6
119
-81
-110
9
33
-86
52
19
93
61
33
16
105
-1
76
-24
-5
39
-91
-102
58
39
-72
-30
-53
-16
-43
-36
-108
40
112
127
-6
-98
46
-52
46
-102
-88
-4
-98
-61
8
83
65
29
90
-120
-127
-113
55
-30
-66
50
-23
6
-92
-42
-26
-50
-127
5
31
88
-35
79
-127
-34
7
-92
11
-32
17
124
-31
47
17
62
-101
1
46
23
-37
-88
67
20
5
24
-105
-14
-28
127
72
-70
-14
7
-44
-76
-27
-127
8
-88
-33
-35
13
22
113
127
-44
-127
-38
-97
4
-127
127
8
45
-43
103
124
21
-127
-77
-44
-105
63
28
-53
10
-38
-55
-32
36
-112
113
-39
-102
36
13
-3
-5
-1
0
-127
127
-33
-11
-45
36
7
-50
-18
