49
-41
-108
-76
4
-33
3
4
59
45
28
-21
-42
15
-37
-23
-11
-23
83
52
68
-14
-12
-6
48
4
-38
-35
86
41
38
44
19
-2
-29
7
2
35
-107
44
39
31
66
52
26
97
-15
-34
-30
40
-1
39
74
-11
17
11
-26
51
47
13
-11
-57
-29
56
-38
-7
-42
8
23
-10
-6
-56
23
-25
9
-58
35
-42
-37
26
-33
-11
21
56
-9
-36
-3
11
-32
51
72
4
79
42
5
-22
8
-18
38
32
-59
59
19
68
86
-10
9
30
-32
-28
70
-11
-9
15
11
13
-2
-15
7
-45
-104
52
19
-27
-1
5
25
-38
-20
9
64
23
13
73
33
-57
-67
-53
1
-55
41
-11
11
59
13
41
4
-28
56
66
-29
-30
90
-10
13
79
3
33
-16
15
-71
-19
-12
16
9
27
-9
-65
59
0
127
46
45
-2
-33
-19
38
41
69
91
-48
7
-59
-38
-6
53
4
43
-3
-91
-13
81
38
-29
-22
6
46
-3
4
-3
-10
41
-23
19
2
41
-19
-38
26
-38
21
-5
-18
-26
-11
-16
-13
7
22
41
-17
-16
-30
125
48
5
-93
-127
39
21
-44
-57
-61
78
18
55
20
-13
-26
51
42
-8
1
60
-15
3
-40
7
4
60
-26
29
6
38
22
-22
11
4
-16
-16
-15
18
15
42
27
34
-79
11
-16
8
42
-41
-37
-36
6
-23
-7
-32
-25
35
42
-40
34
-96
-16
16
-29
79
32
52
33
13
19
42
-6
-3
17
13
-41
-6
-7
-29
-17
-31
-25
-14
-11
0
-15
22
47
10
19
23
-39
48
-6
-23
-21
-33
-25
78
56
-48
12
46
-18
39
-67
-26
-28
31
-44
-18
31
-3
-6
-21
24
36
45
-32
-6
-24
24
-8
1
-6
-42
-44
-3
-47
32
-13
10
25
27
-37
-26
-70
-2
-19
48
-16
3
-38
-21
16
7
-53
-96
32
-24
65
-31
1
13
37
-7
9
-13
-3
-28
-33
-1
-50
-22
82
86
-76
-9
16
-74
45
-5
-23
-43
-35
-77
18
-81
120
10
16
-21
18
-59
42
32
31
-72
-88
-19
1
6
-37
27
17
-32
-100
31
3
-37
29
-59
64
-25
127
35
44
39
-76
16
-59
27
-13
18
-46
22
-4
32
-36
3
12
-24
-11
8
4
-28
22
11
24
-82
54
25
-11
-51
-53
40
-94
-1
-7
9
12
113
-35
33
-123
25
13
21
-121
54
-23
11
-60
-28
25
-5
-32
83
76
-89
-74
-8
-19
38
-62
60
67
64
-6
-71
-47
30
21
4
-60
-10
-39
-34
61
102
36
40
-55
-30
9
-42
-83
-47
-37
33
106
42
17
-17
18
-7
16
-23
-73
-5
2
4
0
-72
14
21
15
38
-12
17
-63
-23
3
-3
-65
12
-4
-59
10
-53
-72
-9
3
16
53
-29
-23
21
77
-53
82
21
-29
-76
-21
-50
9
-33
71
9
37
11
103
-84
39
-46
0
101
-30
39
-5
-6
-46
7
28
84
-49
-18
14
42
-3
-6
11
-33
-35
94
7
-15
27
3
-7
-47
-7
81
25
-10
-41
-63
-2
15
23
-7
6
-64
14
3
-29
25
-33
34
-36
-4
-36
-1
-12
-78
-1
16
-78
-2
-46
-34
-71
30
28
57
-16
15
1
62
-45
59
-66
-5
17
29
-37
-24
-40
-127
15
-6
27
-20
-8
-43
41
-13
-39
-8
15
65
-65
2
-108
-12
21
-23
-92
-11
33
57
-40
-30
17
24
34
-15
67
-50
-7
18
-2
24
12
63
-10
83
-13
-6
99
-18
6
16
-21
59
11
-4
8
43
31
7
-76
30
-13
34
26
64
18
-29
-31
5
31
5
-35
16
-20
0
-28
-17
-6
29
-20
27
45
-40
-83
28
-70
-39
-17
-41
-61
-66
-59
-22
-55
-1
28
-6
10
-27
-47
25
1
2
86
-44
33
10
-13
6
47
28
-48
54
5
14
67
-35
10
-25
106
33
-23
-8
39
-45
-31
4
0
-17
8
-2
15
31
125
-33
-11
2
-66
17
-102
37
-4
10
20
-4
-62
9
-24
-15
-41
-8
-49
-99
-43
-38
-104
81
-7
-36
-31
-18
43
9
-42
35
-38
31
32
-7
-32
-26
-7
21
-33
-53
-6
-28
54
15
-127
-19
-2
-32
9
-19
-15
22
53
-13
-20
27
-119
-69
-12
-5
46
13
36
32
-38
-73
39
-61
-46
-50
-32
65
-43
50
8
95
29
116
-39
-12
-49
-18
-111
-1
-125
50
56
-43
67
25
-54
-23
-66
-22
-6
3
-58
-34
-54
-9
41
-9
5
87
16
-89
24
40
-18
-104
-20
-24
-83
40
-26
22
-7
-60
58
-4
115
-15
-24
-59
-2
-31
-98
-58
47
56
-44
35
-31
55
6
-53
23
40
-34
-31
-45
15
2
-8
-5
-38
40
-77
8
-34
-3
32
36
33
-7
-3
8
9
-22
-66
3
-5
-59
-35
-68
-52
-48
73
-33
64
-17
-27
-42
-75
12
23
-35
-98
-62
39
-58
-115
-22
35
44
43
-1
-31
-48
53
-46
-4
4
-39
22
4
-19
-16
4
-16
43
-24
60
-63
2
41
17
-26
42
-59
-105
11
-56
20
31
-31
-16
-57
-16
-20
-26
-33
-51
29
-88
0
-1
-56
-13
25
16
-20
15
12
-68
-68
11
-10
-34
62
23
29
-4
-54
-57
-5
-72
-30
1
-30
25
4
60
5
-5
-10
5
-36
-44
-10
-31
6
-13
-17
-11
26
15
-41
34
-56
-1
26
-1
127
-18
19
43
-45
1
50
-15
-8
-21
45
-19
-33
-61
-17
23
-17
21
26
-88
-26
-38
-16
-41
-4
-46
-2
-8
28
-2
-44
12
-22
29
15
17
14
48
22
-49
25
43
-2
-12
-45
-33
15
46
11
-31
22
-65
16
-60
-61
16
0
7
6
-31
-1
-27
22
-3
-4
68
-12
-23
-62
-17
7
0
-16
-4
-27
12
-89
-17
6
-17
-8
67
-2
-83
14
22
-31
-19
-54
24
17
-2
-7
6
-15
8
-123
15
7
-38
6
-49
-4
-40
-75
21
-17
-57
-41
8
24
41
-59
57
22
15
-10
17
-4
-38
-4
-7
41
-36
81
-11
-45
-5
8
23
80
29
15
8
48
-3
-59
-25
-2
-18
-97
100
14
-84
-21
33
39
27
-23
-74
21
-56
48
-17
7
124
7
4
-18
-25
-10
-35
-39
21
-8
29
58
33
-1
43
43
-27
52
8
-19
46
-51
-1
-30
24
-34
49
3
-50
-32
-74
12
-2
37
-34
2
24
65
0
108
86
-51
-40
36
35
-23
-122
-52
-41
44
97
-124
-62
9
30
-47
-67
-127
10
25
-8
41
-34
-12
19
11
-50
-38
32
-78
-80
13
47
-30
50
-50
-92
-32
16
8
-93
14
42
-16
-16
-21
-59
-16
69
45
-39
-52
73
52
-15
19
-11
15
-15
0
-33
-25
-84
-5
-35
-91
43
11
-3
27
-46
43
30
-95
48
32
-5
-68
59
53
-44
-29
-2
-27
-16
-23
-54
2
-24
-30
-44
3
-2
-6
85
50
26
97
34
11
-14
-38
46
31
-38
-22
-29
-28
10
-8
0
-38
20
32
30
9
-16
-13
-7
1
-34
44
-49
-16
3
20
28
66
-10
-48
13
26
13
73
-73
3
-34
-45
17
33
18
-5
-22
34
-12
31
1
22
13
-1
45
43
55
-25
-36
-17
-28
47
7
-32
-9
23
-5
-9
-20
-20
28
2
-50
-5
-44
-49
-30
38
11
9
21
-16
13
16
72
-64
5
23
3
-32
16
-27
29
25
-40
13
8
-13
53
-13
44
-49
-11
-17
-22
19
32
-58
-1
-9
-7
27
38
-105
-51
50
-23
49
-14
-14
-3
-14
35
-7
5
-59
-40
-29
-12
-62
-16
-22
-31
1
10
15
-4
-2
-60
-22
18
38
7
-15
-12
-35
-24
-16
21
-19
-19
45
-33
-41
7
-19
19
-5
-3
-70
-63
9
40
24
-18
41
14
63
44
-4
26
-16
15
17
-18
15
-29
-12
-9
-40
-15
15
-5
38
0
5
-9
-11
-13
44
-58
28
35
-5
8
0
127
-27
-36
-27
-21
50
6
65
-71
-43
-1
31
-16
-85
29
38
-49
28
-33
-88
-22
-26
24
0
-44
-27
-62
49
-79
54
40
-78
-26
-7
-14
-68
-90
-70
-70
19
-97
23
25
-18
-5
25
61
-31
-18
22
-4
57
-53
-54
-34
-48
-90
-85
-29
19
-106
-49
12
-19
29
-16
-36
-44
23
-16
35
40
0
-69
-64
-65
-26
-102
-66
-18
15
38
58
-8
54
17
-5
40
-35
62
-127
-88
-45
74
8
-38
1
45
9
41
-75
-4
7
74
67
-24
15
-67
-46
18
-53
-25
7
-90
24
-57
-34
-35
-72
-63
2
-30
-71
37
5
-55
52
40
-76
-7
-52
74
5
-20
25
-77
112
-83
47
46
-31
76
-47
-98
26
-23
-39
-35
30
55
2
-15
14
-117
12
0
-37
92
33
-11
19
-2
-52
-34
-36
-68
30
11
-22
83
41
-89
-111
-66
56
8
-51
72
-18
-42
67
-16
4
66
-32
16
-25
-89
-23
8
-15
-42
-46
-69
78
77
-31
-40
-34
42
49
-19
87
24
13
-60
59
34
-24
-87
64
50
53
32
-9
-54
21
-39
-22
65
60
-58
-16
-37
-9
27
10
34
16
-7
67
-14
-22
-6
-23
-19
14
7
12
-23
7
-77
-10
-42
29
7
-15
18
-11
92
0
61
7
-13
64
66
-18
-39
-16
-17
-23
36
7
27
40
47
-31
67
51
-21
48
-7
-48
-63
-12
-95
8
-75
-21
-10
62
-75
61
-38
76
13
13
9
-6
36
4
-35
87
23
-9
-70
-60
-43
-16
16
-51
36
-26
17
-22
-36
12
-28
68
-17
36
-15
56
37
24
-72
-59
1
-54
15
-35
57
65
-127
-40
-32
-40
20
46
7
-13
-66
-20
-17
89
7
-70
4
29
33
-64
31
-31
41
-10
-2
-32
14
4
0
10
-36
16
-2
3
48
-17
61
53
-8
-68
-80
-17
40
52
24
-32
-14
-21
-17
-10
47
-80
-17
-52
-3
61
33
15
-50
37
-9
-33
16
15
11
2
-42
30
-70
57
17
77
25
29
-53
-69
-41
69
-34
-31
9
-51
-4
-3
-15
51
-57
-63
-35
14
51
33
-78
-2
8
33
-8
60
-38
-21
-15
-22
41
-52
-5
-31
-34
-78
32
-15
-100
13
53
-18
39
-102
13
22
95
13
-38
-22
6
-10
-45
21
93
-68
13
-19
2
-4
13
-18
-5
-26
-32
2
-22
-74
8
19
83
-27
-19
-6
-54
68
53
-85
-3
-69
45
-3
-94
16
34
-38
-50
-32
-8
-4
-20
65
-40
-12
-62
-46
-7
-8
-9
-50
13
44
28
127
-27
-5
-41
-24
32
-49
24
-69
65
-3
-57
11
15
-54
24
66
0
-22
-24
-33
-35
38
61
26
-5
-16
101
44
48
22
-55
-68
-41
49
-66
28
-6
-4
-23
-3
17
-14
6
15
41
-64
-46
-7
44
-55
-12
-15
92
47
-38
19
-31
1
14
76
-86
-31
66
-14
46
-62
20
29
28
14
-7
-10
98
-47
45
6
-82
-69
-7
-4
90
8
-28
45
-76
34
43
1
-95
29
47
-19
3
-51
47
42
-51
40
10
-29
-1
-11
32
17
-73
20
30
64
-46
31
43
13
-47
-24
6
29
-34
14
-28
-12
-83
15
-8
-45
1
12
54
6
33
79
25
-27
-12
30
-56
3
-75
30
19
58
-80
42
53
14
-12
-13
-22
-57
-20
60
19
-34
-32
23
24
-8
-80
32
-16
8
-17
45
-51
-18
-30
36
3
-46
15
21
-16
37
26
-29
-43
-17
-58
21
-16
9
18
24
-8
-11
17
36
-4
-60
-48
-25
44
6
-9
-6
-77
-5
-79
-77
3
21
-40
-60
53
12
2
-30
-18
13
25
-21
-9
32
-31
-17
3
87
-21
34
-114
-5
19
-42
-31
-85
-9
-21
-14
-16
-28
0
-16
-41
27
-68
-7
7
19
81
19
-18
5
-31
127
48
68
-6
-46
-97
15
-25
-64
52
-93
-33
-14
-37
54
-13
-20
-83
-34
-40
-85
-14
31
10
-11
10
10
-17
5
3
-78
45
-9
-5
115
-2
57
27
-31
14
39
-4
-45
38
46
51
32
9
-25
30
-7
37
69
60
-62
-8
-62
-40
27
-121
-26
-71
22
20
45
72
92
4
-57
80
-35
-7
22
-46
-79
-113
-66
-69
18
29
22
36
23
67
42
14
38
12
30
8
45
-55
49
-127
60
-25
16
-59
-50
65
59
-20
37
-3
90
-61
28
-44
-17
-43
-100
-67
37
-30
-78
114
33
-64
92
87
-83
-19
5
-32
-60
-16
-43
46
-28
2
62
-20
80
-45
86
78
-86
-24
11
36
18
-11
34
22
13
78
-68
-21
85
13
95
55
-56
-87
125
-43
-26
-59
1
43
-7
30
41
-33
-26
32
-8
-115
26
110
-65
121
54
-33
-44
7
-30
-78
17
-68
28
-27
105
-73
123
23
-35
-39
-70
33
61
9
-46
-10
98
-9
-22
13
101
-8
87
74
-5
7
-93
15
90
19
4
-84
-65
40
-12
73
26
33
35
67
9
-11
9
-68
7
-14
60
16
-45
-3
30
-5
-23
39
-34
11
-46
-68
18
-9
-18
26
43
52
24
-12
-28
-20
53
58
-9
11
-20
-3
-30
-9
-43
18
-16
-46
-32
30
-53
17
-67
-28
-8
0
-51
4
18
21
-39
0
-22
-28
-21
-5
-43
-29
14
-11
16
-37
-46
-6
15
22
-38
-49
-9
-42
-4
7
-7
7
-40
-36
32
-29
-32
-13
15
-59
-16
-29
-30
-53
-24
44
29
7
-127
42
-16
11
-19
-17
-20
8
-11
-57
10
15
-20
-48
-22
13
46
-78
15
45
20
53
-18
-25
20
9
16
6
31
-44
14
31
40
-6
1
1
15
7
-65
-24
5
-18
-8
7
8
10
-25
-28
-90
30
-17
-17
-45
19
12
-54
15
27
34
-33
31
-28
-14
-11
7
-63
22
-19
-26
25
-11
-49
6
36
31
-18
19
15
-3
-9
-10
-19
-38
39
-9
-46
-73
37
-37
28
23
-25
-27
-3
13
-2
-2
9
-23
14
-5
-25
-42
14
-49
6
17
-63
73
95
-14
-14
-26
13
-1
49
45
-5
-44
3
19
61
-74
57
109
55
-78
-35
64
23
33
-11
47
28
6
7
-36
46
-8
-3
33
32
0
-22
5
-19
-57
38
-11
-11
-66
35
23
-95
1
45
-11
-66
21
31
-5
0
-54
-7
-38
-9
-32
19
-10
-36
60
26
-9
14
-5
48
-101
-99
-70
-4
-3
-52
36
-5
41
-10
-5
5
18
-12
45
5
70
-7
18
38
6
8
-15
-16
57
-47
-13
32
19
-30
38
50
-51
-9
112
-9
76
-27
-83
22
-26
-6
66
-18
61
49
-44
61
3
40
-28
92
16
50
-2
-38
59
-27
74
8
-27
-78
22
-2
-64
-7
48
-9
-6
-33
-12
51
19
-24
65
12
-7
-32
49
37
-29
-18
16
-14
12
-36
2
-3
-7
-54
-90
0
-13
5
-15
-7
-13
24
25
-41
27
35
66
-17
16
1
-23
101
2
-25
-31
11
-127
-28
18
-43
-17
-44
17
-58
-64
80
-47
-40
-107
-29
-28
25
-16
11
-41
46
-106
42
60
-42
-4
-35
-10
25
-83
-73
-62
0
-45
-127
9
19
19
27
-23
-7
-37
-70
-34
-93
-105
11
-53
-120
15
-43
27
-11
14
-2
-31
51
-5
22
48
-28
58
-25
-13
-18
-24
-15
49
-3
47
41
49
23
-5
-14
-14
17
-37
27
42
2
-42
21
-42
-16
-16
56
0
-3
-74
21
17
-32
-29
-71
57
4
-79
-60
-63
-12
30
2
18
-37
-4
-8
5
-67
-12
14
-18
13
-22
-41
-19
-42
14
16
37
-23
18
56
-47
5
19
-113
23
-9
-59
29
47
-3
10
19
-91
-86
-15
-26
-13
-65
-56
52
18
30
-7
32
-39
-44
52
19
-77
31
-5
-15
-85
25
95
-4
-59
-27
-34
21
29
-23
38
4
-51
32
3
-69
35
-71
-42
23
-3
-44
-17
-52
-18
-58
-68
-68
102
-13
-47
-31
21
24
-27
31
14
-14
-32
82
-34
-22
-12
46
71
-16
3
-3
7
15
-4
27
102
-34
-74
8
-19
-4
-4
-77
-72
-35
37
-15
72
15
-23
31
-91
-25
17
-84
31
-9
-51
-7
12
-6
-93
-2
-43
-21
-116
51
35
-50
-44
-3
-38
11
44
-33
-16
-27
35
-42
-8
-6
-29
30
-25
47
-41
-15
40
53
-64
11
65
-52
10
-6
8
-46
-108
-3
44
30
-23
13
33
-42
8
74
10
24
34
-3
-20
-74
-25
-15
-1
36
-13
-8
93
32
7
-39
9
49
-22
-18
32
-74
-74
-9
-37
-13
23
30
-24
-88
-37
-58
-127
-17
38
39
69
21
78
-9
-32
25
-56
26
-101
-5
39
101
8
-54
11
25
-39
46
-27
-45
-45
-49
-52
-24
-25
-24
-48
20
-1
29
22
-7
-19
-74
23
-18
62
-59
-33
-7
-17
-55
-63
-53
-63
-14
1
40
16
-8
-123
18
-32
-38
-31
-2
-24
-15
0
22
-42
-22
-109
63
4
-11
-51
-31
61
-15
-46
-55
-26
49
31
10
66
-90
-47
-23
-58
-31
-53
27
-3
-48
-61
-27
22
-5
51
-127
-4
1
50
-31
97
42
-84
-21
-4
-95
112
25
-64
-5
-28
59
-14
-83
-4
56
-120
39
-60
68
4
98
-76
-84
-19
32
30
26
34
-49
-38
54
-4
-62
-56
-7
5
-36
73
-6
50
60
20
-1
11
69
-32
-42
-37
-32
-58
-14
-100
-69
7
57
42
3
-12
-15
31
23
22
4
-55
-108
-15
11
19
39
-30
-80
-27
-33
72
-36
-34
69
-16
15
31
-31
-39
-49
-4
57
-54
-39
-29
40
57
-13
-45
102
-50
56
-45
10
58
-35
37
-100
28
-54
29
-4
-15
-9
17
-32
68
-33
-75
121
13
-38
-95
-16
-30
85
29
-84
21
16
55
-62
43
-4
-105
-63
44
48
-25
-97
5
26
-32
-10
22
15
45
111
42
122
49
73
23
5
4
67
69
86
-98
-66
52
-108
30
83
23
21
18
-28
-33
127
46
-5
34
-57
-48
-53
12
-83
6
44
30
-12
19
47
127
7
-27
18
-31
-93
-3
-6
-67
-42
-88
-102
23
-29
-85
20
37
48
5
-64
49
8
-21
-34
-29
49
-27
-51
36
122
8
21
60
8
68
28
57
-12
43
24
-29
-72
0
-61
56
13
44
-10
69
44
-12
-45
-6
55
-48
-38
-28
24
-70
35
117
-3
-13
11
-3
-59
58
-61
5
17
45
-43
-1
5
46
40
6
17
-33
-20
77
-11
-21
-41
10
19
-35
5
-11
-38
-73
-22
12
-26
-64
-8
-38
39
102
-20
-2
-22
-52
-77
53
-50
-12
3
-106
-24
41
8
-48
-48
-30
-21
44
-22
-7
-36
-4
47
17
-52
-12
8
42
61
-49
106
-65
10
-110
-43
124
-1
-67
-28
94
18
55
46
-25
61
-49
-48
27
1
-54
-12
33
-46
17
-104
-74
-30
1
22
-70
20
-24
-36
92
-50
-16
17
13
16
72
5
7
-60
-10
30
49
-48
-60
-28
72
-28
65
60
43
41
-24
31
-45
-57
-16
-19
-75
16
-52
59
-28
54
10
-14
-18
-35
59
-5
42
10
-13
-33
1
17
66
-33
80
3
16
127
-22
28
-40
-47
30
29
41
33
40
1
27
12
14
50
18
-13
41
-13
16
-33
12
-30
70
35
25
-40
-14
59
-75
-26
-7
44
-36
-7
-16
21
-5
35
20
-63
20
14
69
24
9
-41
-26
13
36
6
-19
-3
5
12
5
16
35
-13
37
67
-16
20
77
50
-50
-21
-25
0
-73
-48
-42
-61
-73
57
38
-10
64
-29
42
36
2
19
-13
18
-2
0
-58
-68
-11
-14
-36
-4
19
24
54
-38
31
-33
-49
16
71
-18
27
49
49
37
4
-50
44
23
-3
15
-21
6
27
-5
51
-37
-18
-75
12
79
-80
-76
30
-73
14
-85
-6
43
66
12
6
-100
21
-25
-3
2
112
-7
-54
-40
63
-42
-13
92
-19
47
7
-42
57
-18
-16
-74
-19
-35
-21
37
69
-36
-11
-13
15
23
-59
31
19
13
4
24
38
86
-28
-45
-68
16
-55
-27
111
-13
19
-43
-65
-28
33
17
69
-2
-23
46
69
91
28
-4
-3
-28
-32
22
15
-20
1
-31
-58
57
44
-6
-48
-10
37
12
60
52
-24
-23
75
16
-42
7
-52
39
-23
-39
10
55
-65
-6
-55
34
-25
4
33
-103
-6
-8
-6
-52
93
12
-71
-74
68
-12
-11
-76
71
29
-16
-46
-32
24
-20
122
69
33
101
-2
4
62
-34
70
-60
14
30
-9
-59
-75
-27
-83
-73
82
-43
40
3
-10
-77
-80
-82
-39
63
11
37
-44
56
-47
-36
36
30
8
-56
65
-49
24
22
-74
34
8
21
57
-54
-89
42
-4
-97
41
28
-18
22
5
-64
80
-28
22
58
82
-78
1
8
-57
-54
-52
-59
-3
66
6
-54
-81
93
29
45
23
34
25
-36
-27
10
8
110
-21
-15
-46
-1
-18
-71
-22
-29
9
-58
-25
61
-72
-58
-115
82
-84
19
-26
20
67
-127
14
-18
29
-17
-98
-11
4
18
15
28
45
-21
-94
-51
-19
-25
2
71
-31
52
-17
35
90
59
13
93
58
35
-71
-10
53
127
-50
5
-28
-18
-32
-21
32
-1
6
25
34
-30
42
68
20
12
-1
27
51
-36
-63
11
11
94
-17
-21
-23
32
5
54
50
38
-42
-29
45
-11
-1
-74
23
22
-48
50
15
28
-10
-46
28
-15
-34
-70
-2
-117
-56
-62
11
-25
9
11
41
14
72
-3
-19
-5
39
34
-11
39
15
-54
-19
-1
5
-3
33
1
68
-67
19
45
17
11
83
-13
34
5
86
6
8
40
-20
-36
27
-2
42
-22
0
-31
82
42
-5
12
-7
12
27
22
5
-88
62
0
24
59
-57
37
34
1
33
43
-37
90
47
21
7
40
1
10
-9
-40
-24
-13
41
-48
-21
21
-40
51
2
-22
37
67
-12
-51
63
-26
59
-27
-73
-29
-56
44
18
-20
68
-51
38
-22
-30
26
24
22
-106
19
46
67
127
18
56
-43
-15
-47
-31
15
-57
7
27
-16
-32
6
-17
34
-60
-19
-64
-67
-12
-39
-22
-61
7
-1
4
-75
16
57
-42
37
60
53
-25
-92
-11
-22
33
-13
-71
-33
-40
35
91
60
-46
7
72
-41
-66
-31
23
-31
27
-43
38
-7
-19
-12
-26
61
6
9
-2
-53
-47
-22
-23
-23
-83
-42
20
61
34
28
-19
-25
3
83
-18
-14
20
48
-17
24
-55
18
1
-69
-29
-50
-73
3
-73
2
18
-2
-8
37
-17
-11
-67
-72
-8
8
54
-31
18
44
29
10
-46
-20
-66
43
-62
-41
-7
-21
8
-5
28
-10
4
-50
40
-15
-25
-21
82
-61
-65
13
-5
61
7
-70
-27
15
27
28
-69
-15
-67
-61
-9
33
19
-33
-43
-6
14
-71
-4
7
34
9
46
63
35
-19
-55
2
60
14
24
-68
9
-1
-21
-17
-8
-15
-15
-56
-7
20
-45
-16
-40
89
-14
-39
35
-34
23
-58
-8
-11
-64
11
10
-29
32
-8
-56
36
56
-28
-5
35
-45
7
36
2
45
-84
24
-28
38
-3
-31
18
-27
-57
-15
-67
1
-17
-87
-23
48
-63
17
-36
-55
17
-22
-53
-64
-23
3
-19
27
1
34
-2
-34
-4
-12
-92
-23
20
1
31
-66
36
-64
-108
9
-41
31
-1
-65
-63
-91
-110
23
25
-16
15
-11
20
-107
-56
66
66
44
-4
-33
-32
86
-43
39
74
-33
16
-47
86
-36
28
-22
-42
-6
41
-82
50
-6
-34
-29
-3
5
25
-14
17
61
-82
18
19
27
57
-9
-8
63
-18
-20
-16
-16
-14
-34
-18
-84
-45
-48
-33
-51
29
37
45
-127
-5
71
25
5
-49
-46
-8
-72
-50
-61
82
-111
-44
-24
-23
-37
-56
18
-18
47
-81
-66
36
14
3
72
-40
-2
23
-25
-45
-46
-66
-7
35
-40
10
-19
34
21
32
15
-8
20
-19
54
-62
61
-42
-19
-22
-14
-98
29
-76
-32
9
24
-27
-38
-28
-32
-22
-38
25
-45
-23
45
-70
42
-4
74
-20
-31
70
-73
-19
15
39
-5
-53
-69
59
-18
127
-45
15
63
33
38
56
-14
-14
-32
-52
-106
2
33
10
41
-31
-1
49
16
9
-3
-42
-68
57
69
29
-45
23
17
-17
15
-12
-36
65
9
70
80
-26
39
-39
104
3
7
-54
43
18
-87
-34
30
-3
116
21
25
-15
-88
-4
74
-11
-79
9
0
-75
1
-93
67
-40
-26
81
23
57
-61
40
43
-49
26
62
28
-24
-51
22
82
-65
-15
93
56
-73
58
-11
-20
59
-28
86
64
31
-26
-54
-11
30
26
-71
-91
-19
2
75
-27
21
30
-31
-22
-27
29
28
-42
78
8
18
25
-65
8
-34
71
23
0
-71
53
-61
-9
65
14
21
4
-19
36
98
-44
91
21
8
54
17
34
29
71
-25
0
21
65
-22
74
81
34
43
107
51
71
40
-28
76
39
-31
-25
64
-47
-34
21
15
24
94
85
-52
41
-3
-1
20
-11
8
-28
23
30
-21
96
-1
-1
6
-14
-82
39
97
64
54
12
-38
4
57
37
-4
38
57
42
17
7
-36
42
12
36
4
35
-19
64
-47
-43
40
-42
8
14
-14
58
-30
48
13
-61
43
-14
44
21
44
-57
-59
58
127
32
91
-69
-37
51
-8
-18
34
-20
-55
71
-21
2
27
-49
16
-31
44
-11
17
59
33
37
53
-11
-26
-46
-41
59
9
73
-11
40
-25
-100
52
24
58
-7
-59
31
-73
21
10
26
-9
38
77
3
-4
37
29
70
-29
-75
-29
-24
-79
-3
-5
4
-23
-64
33
52
84
-49
39
-31
4
-29
0
-69
75
30
21
50
-34
-14
36
14
-88
14
93
35
32
55
47
9
-61
23
2
68
-6
73
8
-21
0
-2
-58
34
44
21
-53
56
-36
-61
61
48
67
41
80
20
-5
49
76
23
-5
17
-32
-47
36
24
54
34
6
-41
33
2
-5
68
-18
-5
1
-16
52
3
14
16
-17
-84
-9
25
45
-3
84
-18
76
-82
-28
0
25
-90
-13
-31
-19
-13
-43
61
10
-43
-25
1
21
6
-65
29
-40
65
-14
2
-109
39
-9
20
-10
-61
36
-8
10
8
-34
14
10
110
-19
-69
79
7
-3
-47
-62
17
13
-98
-41
-18
-37
-63
-40
-75
44
-59
-17
-25
26
31
30
-68
-4
-60
-70
38
-18
-4
-50
54
-55
46
90
48
48
9
67
38
85
48
-3
-58
7
78
-23
-33
-30
64
33
68
-19
-16
14
-31
-29
33
13
-58
20
5
56
127
-17
-31
33
41
-68
4
34
-60
23
62
-15
9
11
12
-54
8
-6
-12
-18
18
-16
12
-54
-12
95
48
-1
-33
2
74
55
75
87
14
80
-16
31
29
2
61
-18
-39
17
-48
4
7
54
-68
-10
-40
47
-40
-5
69
-46
63
-11
58
-84
-29
-52
-23
24
-9
-69
-23
2
-14
-33
-54
-50
43
-11
22
0
73
5
20
-32
-2
19
19
-26
31
79
-11
4
0
61
39
6
32
127
-12
0
34
-29
54
35
-15
38
-55
-56
21
-7
-2
-14
29
52
47
20
31
25
-28
56
-56
23
30
57
70
-20
35
27
-31
34
-49
35
41
20
16
11
25
6
26
-23
35
22
-34
-13
35
42
-21
20
36
3
22
-18
-37
22
12
-66
49
64
22
10
21
-38
34
64
-9
-36
-65
27
-28
-13
17
-34
-13
-43
50
61
23
29
-51
26
-12
32
-28
12
-8
5
22
2
7
3
11
-13
-12
20
-31
16
-16
-1
7
51
19
27
-17
-27
-37
-17
25
16
20
45
66
-23
-71
-5
-10
43
92
46
-46
-59
-7
-22
-27
20
32
-15
-1
-15
-79
84
61
13
100
-41
1
14
-44
76
15
118
-17
-15
19
-36
-21
-81
30
-54
-27
28
-73
38
-26
38
-2
-13
-42
-24
13
19
7
-4
-1
22
-38
-39
11
-14
43
42
-37
22
-19
-26
30
0
-29
26
-44
18
-38
-9
6
58
-1
-50
-100
3
-27
-12
1
11
-14
41
-23
-32
-59
-53
-52
84
-15
98
-2
93
-29
23
8
12
-38
-17
-51
30
-12
-77
-9
-19
20
-1
-70
-44
42
-95
-40
-24
1
58
-1
-80
-20
-37
-118
16
-51
-3
8
-4
-20
31
-50
32
0
-72
0
-35
-14
20
-69
44
-24
25
2
13
-18
-74
-47
-62
30
-16
29
28
35
-72
-36
35
38
9
22
38
-9
14
-22
58
-12
11
-38
43
45
66
-34
18
20
28
-2
-23
9
4
-3
63
66
-2
-27
-51
-92
36
100
-21
50
-42
-46
-15
-108
-51
1
24
-39
15
71
0
-52
25
22
37
-91
4
-32
7
-91
-3
-1
13
39
-8
11
18
-3
-32
-87
57
-18
-24
-25
38
0
-10
51
26
-81
-21
23
-48
43
-62
47
59
-30
13
-54
-47
28
26
-27
-33
6
-73
29
-127
-18
25
3
18
33
-93
6
-9
19
4
13
13
-8
3
91
-29
34
2
-16
17
39
-42
-30
25
-6
0
42
91
36
12
-44
13
-14
-1
-19
23
20
60
57
23
0
43
48
38
13
-37
30
-4
-28
-4
31
10
39
127
-25
13
17
57
-30
5
77
8
34
30
-2
0
24
50
29
-7
-20
-5
-14
-13
-27
42
30
-12
-19
10
-6
7
27
56
55
2
25
39
-9
-44
-2
19
6
13
-2
-13
-37
-29
72
-2
21
-6
-10
-7
23
-11
3
-32
-24
-6
19
61
-17
1
62
62
4
1
39
26
8
20
20
26
24
-50
-59
3
-20
7
-37
-23
28
8
-20
12
22
-11
23
-23
17
27
-44
-28
38
68
-50
-4
29
55
13
1
32
30
60
27
-40
0
-23
-9
-43
-37
12
-39
13
-26
49
-5
-35
35
49
0
29
31
58
48
-21
-42
23
2
43
3
70
34
24
0
15
45
-25
-20
51
-54
28
-19
14
24
-20
-12
27
-19
-30
-22
5
-25
-44
31
-21
51
-63
-85
-31
-27
58
-3
-7
-59
-19
-1
59
-37
-53
-4
68
50
-49
-28
26
17
-47
-10
-15
-52
61
5
-34
-90
30
4
75
-13
-13
19
-25
51
-13
3
10
57
27
-36
4
-46
-25
-10
-32
-29
21
8
10
40
-17
8
39
-11
48
-86
-49
-66
13
-30
-49
-83
-19
1
-28
48
-96
-88
32
-38
-8
-10
-62
36
-2
-16
-45
32
12
11
-7
-14
22
59
-61
53
51
-38
-54
60
56
-5
-12
-12
40
-63
23
-17
29
0
-1
-16
29
2
-36
-21
-47
24
27
-59
4
-23
13
10
-73
-6
64
75
27
49
112
-9
31
-59
-15
-25
-55
-95
-12
127
3
-95
-61
59
33
-3
-50
-22
80
-36
-2
51
18
2
23
-27
-29
-12
91
-51
-16
-22
-86
-12
28
-83
48
92
-19
19
-65
47
46
-59
-29
-63
-19
8
-31
-28
62
-5
11
-3
31
1
-12
-15
32
3
18
-26
75
92
25
-3
-6
90
-44
-42
-40
44
32
111
-64
18
32
127
60
49
-10
44
4
64
-21
19
66
9
-70
-42
69
-72
34
-45
-49
-30
81
52
-54
63
-42
3
22
-32
-36
87
52
30
-53
30
41
3
-88
-8
87
-61
85
37
39
15
-43
-13
-8
-38
-43
-55
51
59
29
-49
92
-38
-28
-61
-43
61
101
23
85
-6
-102
33
67
-6
7
49
-56
-4
-32
72
-42
-101
42
50
93
37
80
-62
-8
-22
60
-73
-39
26
-11
66
19
-55
14
5
-23
-54
23
-16
-54
61
-45
-20
50
46
-38
62
-22
88
-68
-11
23
48
53
-2
32
-19
-13
16
4
-31
-13
62
24
87
21
-84
10
55
95
-13
-76
-25
-29
25
12
60
39
8
-32
-36
-15
-45
28
4
-34
9
-81
-32
34
32
8
-91
7
-50
-43
48
11
31
22
36
89
-45
23
-55
-27
46
-18
23
-95
-45
-114
-22
-119
51
65
57
31
3
40
17
15
-73
46
-22
84
-34
50
-3
-24
10
-19
-24
8
-33
-2
-63
45
14
14
-21
32
2
-43
21
-62
-22
-15
-38
-25
-23
-26
-34
21
33
-57
70
-11
11
-29
-33
-34
-48
-39
-8
-4
13
-44
-2
-52
-48
-50
47
-68
-1
-92
14
8
29
-24
-14
-31
6
-3
11
24
-32
-45
13
-12
43
36
10
42
-35
24
-8
-38
-25
-2
53
-33
-94
75
12
16
-12
-2
-23
-3
-34
-127
-27
-93
-5
-35
20
-8
51
-4
-36
-25
-73
10
15
-43
68
70
4
27
2
0
2
97
-5
-57
18
9
46
-39
-33
-58
3
48
51
23
19
-11
-90
-40
-61
-37
27
41
37
-8
10
56
-21
16
-31
25
47
-65
-6
22
-59
-49
51
22
-39
-5
5
16
61
30
21
-45
35
60
36
-18
8
52
55
14
-37
-57
-124
-49
-17
24
32
-41
4
44
13
43
-9
42
25
41
49
-31
-31
-54
-38
-26
74
30
52
-100
-16
36
50
6
-51
35
-127
-18
-31
-8
6
-18
-60
-3
37
51
32
38
58
-18
-50
-41
13
13
-47
75
45
-3
-30
-38
26
-32
5
-31
34
-41
57
-6
-34
-30
-55
52
-12
8
59
46
34
-22
24
-60
2
31
27
-25
0
-75
-83
84
42
19
28
25
36
0
-69
-5
-3
31
15
-22
-13
-36
2
7
26
1
12
76
-25
-65
-45
-24
-24
-87
33
20
-47
-4
4
6
-27
-12
6
15
2
-5
-32
-54
38
-61
53
-22
21
24
-28
-6
0
-43
82
101
17
-36
-2
17
3
28
35
20
21
33
-1
53
-25
-74
-38
34
-28
91
4
18
-32
-13
39
-32
-31
-17
7
42
8
14
5
68
-43
88
2
37
-3
6
12
17
-20
3
-13
17
-73
4
-61
-36
-62
-34
75
-4
27
1
-20
-3
44
16
-53
46
-65
23
35
15
5
62
34
29
-37
112
-56
9
-11
-1
-72
-23
39
0
-40
45
72
-47
11
24
39
20
-76
1
-26
-67
-47
-14
36
-13
-29
-43
60
52
-127
30
6
-56
-49
-46
39
31
14
18
14
-20
4
-42
55
23
-14
51
-60
-114
62
8
-69
26
-40
36
-27
-113
-18
51
-3
-20
-27
-26
41
83
-21
-59
40
-62
-69
-45
59
-23
-45
12
81
-19
-97
88
30
-79
78
-114
-24
-8
-8
-8
0
-96
-4
23
56
63
18
-57
21
89
-48
84
32
51
0
56
26
39
15
-57
-25
-78
-31
-39
-12
21
-81
61
-8
97
55
-81
-4
18
24
3
72
-4
41
-25
55
116
11
-68
7
-70
8
-37
79
12
4
8
50
-14
-87
-19
32
-7
32
55
37
-12
52
121
97
0
21
-6
11
-107
-30
74
-15
75
63
-29
-20
-72
-5
4
-13
115
-88
0
-86
-2
23
71
-23
49
84
-24
4
13
-62
68
-112
55
10
25
-17
-1
40
26
-25
61
18
28
29
-74
39
-18
9
24
25
-12
30
51
-97
37
30
-31
-54
22
52
-7
2
27
-57
6
4
71
69
77
3
-52
40
104
-85
-19
41
27
-21
-24
-35
6
34
76
79
65
24
-3
-19
27
-32
9
-16
-73
59
-69
22
45
25
24
35
52
64
-5
13
10
-52
45
13
-50
-80
-1
-43
77
-6
50
124
-38
-76
9
28
20
-39
5
34
-35
25
-2
-93
-50
34
53
111
1
49
5
95
32
-19
-47
-56
29
87
5
-7
-71
6
24
-36
6
54
87
-79
-33
22
72
-3
32
92
-20
-65
-22
17
-45
19
-30
-42
10
73
-54
6
-1
-44
76
23
1
3
-30
30
9
38
6
34
-13
52
-46
27
28
46
-25
27
-21
60
-52
127
-15
-41
39
-36
22
-15
-15
-41
53
-3
5
-6
-13
-28
-6
-2
-4
71
37
-29
37
-25
25
88
45
17
20
53
4
42
-50
-23
45
72
-44
13
-10
-26
-34
17
-11
0
-83
-64
22
33
-1
4
-7
21
25
24
-8
-49
28
115
-63
50
-85
16
-88
62
-42
84
76
32
46
30
15
61
23
127
5
30
-53
-8
5
73
-10
18
23
47
12
42
-3
32
8
18
-43
71
-41
50
-61
17
-5
14
14
-33
72
-108
4
-16
6
-28
37
12
18
15
-43
42
-19
9
-44
16
83
-110
17
5
38
-26
36
-19
29
6
-1
-11
44
40
-69
-60
-10
-14
52
76
19
-47
-18
-38
-28
-40
46
39
55
-42
122
52
-8
-7
-51
-47
-2
-65
7
76
7
-75
49
41
-43
-4
-58
39
24
-35
-17
45
18
50
-78
-64
14
51
19
68
-20
-22
23
70
-22
-31
-18
-44
-22
-13
25
50
27
33
-19
-10
-91
-1
-37
-31
-60
54
-52
16
-51
12
27
31
58
10
-5
-20
4
40
-35
62
-60
-55
42
-1
-1
-59
32
30
43
-12
13
36
57
8
-29
-11
-58
-35
-45
7
17
-30
4
-31
-6
-9
-38
40
4
-39
-10
52
-17
2
-17
31
-83
-94
2
-17
-20
-59
23
-5
-11
-11
6
1
-84
-12
-9
16
37
-26
-46
-29
-49
-80
-42
26
-26
34
31
16
51
-53
-1
-6
-51
-39
-16
-86
31
-25
92
36
78
-33
-14
88
11
-34
-32
-34
38
-58
-11
-30
-6
-11
42
-1
-54
5
-39
-67
-58
62
-127
-56
58
29
-48
-30
-70
2
54
71
-42
-17
11
-2
30
-112
67
71
40
41
-34
58
34
-63
-55
-26
11
1
-12
1
25
33
-6
50
-55
4
4
-15
-21
-58
24
30
11
-23
2
-17
-11
22
-15
58
29
53
-16
5
-14
-93
-25
-84
-78
-8
79
-27
71
45
15
-22
35
-34
-13
-17
-74
59
-69
-5
14
4
34
-17
-70
-10
36
46
-7
34
-75
45
-81
-92
37
-3
65
-23
15
9
-59
-49
61
111
-30
-84
33
-22
-59
-8
-12
-19
37
-51
36
-53
43
-37
-13
23
21
4
-21
-67
33
-9
10
-42
21
-16
34
89
29
54
-69
-58
11
-17
1
-4
-36
-54
27
13
-96
-30
89
-21
8
-23
-18
73
1
-80
11
85
-45
-13
-64
-35
16
48
-35
-5
-23
-3
4
-14
-50
32
70
15
-64
-54
16
11
51
-40
15
-33
-27
38
-93
56
-36
49
3
21
-4
-8
-19
59
-73
6
25
-70
47
82
31
-29
16
4
-83
3
-26
27
11
38
7
36
67
67
-86
22
60
-33
-95
-13
-11
-61
-57
-50
107
-19
-3
50
-106
-48
-63
-17
7
19
-77
82
-6
55
-6
-118
-25
-19
59
70
-40
-3
-38
22
15
10
-56
-36
-3
70
54
92
-14
-8
2
4
-41
-38
-67
-40
-85
-3
-35
77
-51
-43
87
49
51
-51
31
9
-63
73
-26
-14
47
-20
17
11
91
-71
30
17
49
-41
62
-27
7
-91
4
82
79
4
-2
15
-45
40
-49
-37
8
-83
72
-23
74
22
71
127
-15
-63
-26
1
11
-13
25
8
-29
-6
-26
-30
37
-61
-30
71
-112
-62
-3
40
-14
25
28
-47
-30
5
15
-18
27
-83
-53
-60
-44
-55
-86
47
5
0
53
-31
-74
-4
11
-37
31
-45
53
-40
-61
-79
-22
-32
72
7
-5
-28
-23
-71
-25
-38
-24
11
-11
-42
86
-58
-97
77
-9
-17
87
17
-13
-62
-44
86
-22
-127
45
-8
51
-91
18
3
-6
8
2
-12
9
53
-26
-81
-23
-66
-16
78
-43
-69
-85
-10
26
-27
-64
28
23
-40
-49
83
10
-49
29
25
55
0
-15
-2
-26
-63
-109
27
40
-53
92
-9
-78
49
15
-16
37
29
-43
27
94
-37
8
-70
-19
28
-37
-79
-31
-97
1
-2
-24
-28
70
-66
-66
11
-80
-103
38
-32
-17
-46
-85
70
-49
60
-63
-60
49
-100
-30
-61
-9
24
49
48
-7
37
47
-63
4
-82
9
-2
-10
-34
-94
-17
5
2
22
6
-8
-20
-122
-79
33
-83
-19
-86
4
81
-37
-44
51
69
78
-43
-30
-36
-82
27
-19
-107
-29
11
-33
52
-4
-16
-29
-68
-14
53
-30
-36
74
-21
11
-45
41
24
-42
3
-35
73
-22
-12
14
19
-39
1
54
-32
29
-49
5
-31
39
5
105
-63
9
-6
-36
35
-73
-10
44
12
-30
-47
42
23
-8
39
-23
61
-56
-68
8
32
18
26
1
-69
32
-127
63
-12
-51
-27
-48
17
-56
-10
12
43
-69
25
-15
-5
23
-21
-8
73
17
0
37
21
45
-11
-18
-43
-42
89
-87
-31
28
16
14
-30
54
-45
68
4
31
-43
-37
-18
22
55
-11
-13
13
-16
23
18
-4
7
-28
-20
-21
-39
-88
-10
1
62
1
110
-37
-69
54
23
29
9
-37
-36
-33
-13
64
80
-102
67
4
26
-28
25
-13
15
53
-39
44
50
12
73
26
17
31
-36
28
-70
-11
-10
74
68
49
77
-84
63
31
-67
96
56
25
-22
46
-65
24
-14
46
-50
76
-16
-5
-33
0
52
-18
24
-97
-35
-24
21
4
-40
102
-60
-1
-10
-38
29
-2
-72
16
11
13
107
-53
5
-64
-34
-44
-52
-32
32
103
88
-49
-11
-3
-52
33
76
-45
14
69
81
-16
53
94
60
-37
36
-3
-89
-80
-17
-104
-31
28
-71
17
8
-25
-7
-64
-5
17
-4
33
-5
-33
11
24
-73
68
91
-5
-103
51
51
-9
57
-34
34
-52
-17
-94
18
-1
-36
38
42
-56
38
8
-43
81
72
-11
-10
18
40
-11
-21
-35
15
-103
-49
-28
-59
-41
4
-35
-76
-69
-77
62
25
-4
-12
-6
22
18
5
-89
-68
27
15
-56
32
-8
-38
-33
83
-4
56
67
-39
41
55
-46
-80
28
35
-9
11
31
62
9
33
40
24
17
16
-44
-16
-1
10
-108
-97
27
-32
-37
-5
-61
53
1
-43
79
-78
-29
13
98
-38
-58
-88
120
127
47
17
30
-49
8
-39
-2
15
-121
-14
-79
18
8
26
13
-24
17
47
-29
33
-36
45
-47
-43
-61
-57
-12
-75
73
44
-16
-13
-28
-50
100
15
15
-39
11
93
-83
16
-51
-24
-41
-127
-52
-18
65
33
24
-54
-44
45
23
39
-3
-13
9
42
9
56
70
-19
31
30
28
1
-30
-8
2
-21
-43
8
-3
17
-10
18
-28
-14
-84
20
22
18
5
-10
-56
55
43
56
-24
35
-89
-41
-102
-21
47
-3
18
34
-53
-20
-101
-39
5
24
64
-68
34
-12
7
72
-42
34
30
36
-68
-3
-42
-62
-23
-14
-13
-65
-64
-3
24
-12
18
-42
19
69
-9
-8
21
-4
106
-32
15
33
51
-72
-47
23
6
2
1
-54
21
-27
19
-38
-65
-34
25
-43
-29
-27
32
47
-8
83
-26
12
11
-15
37
-14
122
30
19
10
-37
4
62
64
62
7
4
20
5
28
-8
55
15
-5
11
-13
-42
-73
9
-14
-27
15
-26
60
36
66
-88
9
-26
30
19
27
6
-13
61
4
-38
14
-15
-46
8
30
5
36
43
-18
-30
11
-55
-6
-23
-14
-19
-45
22
32
-11
51
-19
2
-58
-77
42
45
30
-19
-49
-24
-39
-90
58
50
-51
34
4
-44
44
-77
-16
-31
-1
18
3
-7
28
-15
2
42
12
-14
34
37
-48
20
-19
10
27
-42
-4
51
-31
6
28
35
-5
35
-5
6
20
-127
38
-53
4
16
52
14
-7
-5
10
12
17
-7
55
-5
-29
2
5
8
-9
-69
-71
-33
-47
31
-8
-38
-9
-45
75
-24
-2
24
41
32
25
-17
-34
-44
12
-12
-97
24
-2
-48
52
-32
7
25
-22
66
-39
-39
-6
8
7
-9
18
-45
-27
-19
-23
17
-18
-43
44
-3
30
-15
24
98
-74
-8
-25
-31
11
-13
-9
-23
12
60
21
-11
25
34
24
-41
-47
-2
-10
-52
100
34
33
1
-31
-77
9
52
17
50
53
-58
-64
-11
-3
62
-1
43
6
37
-32
-6
73
31
32
3
4
-7
12
-18
17
53
-26
-24
-23
-2
31
-32
-68
2
49
-26
-4
-34
23
-98
68
53
18
30
61
-18
-59
36
-12
-22
39
33
26
-28
-11
-49
-35
-55
37
50
6
-75
-43
44
29
-70
-14
41
-94
-42
-114
-73
27
-38
127
22
58
42
-64
22
37
38
-81
-31
53
-15
-15
-15
18
-15
37
42
-19
2
-30
31
-122
-6
-56
-38
21
67
-37
-44
-8
23
10
9
21
-28
36
33
57
-41
-6
114
6
20
99
82
39
14
-20
60
44
-4
-18
6
-54
-21
-46
-20
35
-2
-23
76
21
-31
65
48
-38
-84
77
-8
-20
-8
-15
16
56
27
-35
-16
-43
-6
26
38
22
-14
27
-44
25
37
26
-21
40
17
19
-4
-53
0
-95
64
6
25
43
-32
-5
-19
25
3
63
24
-101
31
-75
-69
55
-78
27
12
17
5
-51
-18
54
-8
-66
-30
-2
0
-50
56
-16
-23
-28
-9
8
-54
30
-23
-10
27
-34
-49
2
-33
7
-44
-74
-26
38
-20
38
6
9
-19
-7
-23
-25
-20
9
-38
-7
-35
7
38
-8
48
16
33
-10
30
-30
9
-38
27
-12
20
17
-40
3
10
94
23
-17
28
-12
45
-1
-72
106
-38
41
-5
42
7
39
85
-16
-48
0
10
-31
34
19
14
-23
-39
-44
41
-8
-10
95
42
-14
67
26
-30
-13
-50
-21
17
-28
-9
12
77
-54
8
15
6
-6
-39
44
-6
6
-37
14
127
-51
20
-16
1
-11
8
-35
16
-39
-4
26
-63
1
73
45
-23
31
28
22
22
45
5
44
-65
-1
10
41
-13
-14
-4
26
6
-39
46
7
27
30
12
-71
-2
34
13
-52
29
47
-32
-10
-44
13
1
-72
-23
36
12
-60
39
66
17
28
-9
45
-34
28
-60
4
55
8
31
-30
-7
67
-28
4
4
82
-16
36
72
22
11
103
37
-34
56
5
-7
12
24
2
-28
51
-19
-20
67
37
18
31
10
-32
21
-23
-14
-34
20
-6
67
2
26
-35
-1
34
58
21
-49
-28
-7
15
56
-29
57
-60
-8
-69
-2
15
54
22
-1
9
1
10
-3
-12
21
8
23
-44
-69
14
34
9
20
0
27
3
68
-43
32
94
76
13
33
-14
6
9
-77
-14
-78
1
-55
48
0
-35
-1
-28
-22
-76
60
-10
-127
-43
17
-55
-13
19
56
-38
-16
14
-75
36
-57
-20
-23
-22
13
-15
40
23
25
8
-40
26
-5
34
87
91
39
29
83
53
-18
-4
-48
1
13
58
6
33
-118
28
-13
46
41
-23
25
-18
-41
-13
-3
-28
-48
33
-38
5
45
-42
11
10
-21
-72
44
44
-14
-28
-7
-14
25
6
-51
52
51
38
51
-19
-33
5
32
-30
65
1
-23
-2
-12
-17
-4
-19
-32
-14
44
7
-73
-32
37
8
-8
-63
39
50
59
-5
-51
44
52
-29
-65
17
-6
-52
43
43
28
-6
-32
-59
78
-25
16
-27
-26
4
49
-67
-14
-19
-52
76
46
-58
-23
48
38
-4
-38
-43
-7
48
22
-73
14
28
30
12
14
-55
-20
-79
84
59
-51
63
-47
-46
30
-59
-3
-9
-6
-15
-28
-44
-80
-5
58
94
-40
33
58
63
50
-20
-62
-108
23
60
12
-11
-69
-9
-44
-10
-80
26
-31
8
41
-51
33
35
81
-107
42
-11
26
15
127
-47
2
2
51
18
-22
-2
13
23
77
24
-9
-68
-18
33
17
-93
-18
9
21
-100
-18
-43
-35
3
-53
-70
-1
-96
-41
10
15
30
74
10
-10
26
-62
20
-86
27
120
-35
-49
-2
25
-15
7
-12
-63
-93
58
72
51
-61
40
-54
-4
23
71
62
50
42
-25
-32
-82
-34
26
85
37
2
15
-57
31
61
-72
38
-1
81
20
-21
-32
62
59
77
-34
33
-22
62
47
11
-55
55
-21
24
-2
-22
39
44
-29
-12
21
-13
-56
-50
-5
35
-91
-17
57
17
29
13
43
30
32
40
41
-5
-41
-59
0
12
49
-7
27
-8
-42
-19
48
-52
-27
-24
17
-7
-50
-16
-7
-10
-45
59
26
10
-7
3
96
73
-103
14
16
-1
-59
20
-17
81
28
37
71
-34
-18
-41
73
10
-8
25
-43
27
9
96
11
21
-49
-31
-30
40
-60
-37
-47
19
3
2
8
50
-34
32
-10
-68
-66
79
61
-23
-31
-16
-63
-7
-19
1
-13
-59
-127
-54
36
23
23
46
48
12
-39
-11
-40
-44
21
8
0
15
-20
-42
88
-20
-35
32
-64
-6
26
38
15
-37
-3
70
65
9
22
28
-41
-7
-11
14
-13
-16
-24
46
39
-34
46
-60
-42
65
18
-36
-40
19
76
-51
-37
33
-6
-7
-33
73
-73
-20
-67
-92
30
-75
34
8
121
24
-8
-32
4
27
-21
13
-23
-17
-2
-46
26
-57
-72
8
-72
22
-2
-21
24
7
-21
-2
-77
25
43
25
14
39
3
3
-9
45
-5
-35
30
33
-8
-3
-41
-45
-53
-45
-62
-58
6
1
35
-17
55
-11
66
35
19
10
-8
54
-75
-49
-17
-60
-7
49
36
-49
69
-7
-41
-19
-18
-28
14
-43
20
-29
6
5
-88
24
-8
5
30
-17
49
-14
-27
61
-8
0
8
-45
29
-1
10
-4
36
10
36
-36
17
16
14
4
5
-2
-23
-13
23
18
8
-21
69
33
20
32
24
25
20
9
19
19
54
47
-21
-2
-20
-3
-13
28
-43
-5
-8
15
-51
-40
41
-26
-4
-89
-32
-21
-41
-71
-18
55
58
20
42
-16
8
-25
26
-30
-63
20
23
-40
10
34
-29
4
67
-19
42
3
-6
-15
15
37
57
18
-36
19
-31
-49
-74
-21
-7
73
-56
23
-43
-64
16
-7
-65
59
6
-7
-1
63
84
-67
0
57
-1
17
-21
-66
127
-43
-82
22
11
-52
7
-35
-2
54
-7
41
36
-21
-28
11
15
9
17
-31
-68
-5
-89
-13
20
-33
38
-34
7
25
-45
81
28
68
6
58
-13
-28
-42
-20
18
-67
-39
71
28
-44
18
-110
79
-48
-86
8
10
-17
-27
74
3
66
-90
-8
-64
82
10
40
32
-21
-59
18
60
12
51
114
2
8
-19
-12
-38
4
-14
4
-32
25
-78
-87
-6
28
23
36
71
-92
19
67
26
15
27
-29
33
30
-10
51
9
-2
-12
-5
7
13
5
50
-59
11
-55
55
-8
51
38
-68
42
1
3
71
39
-16
32
46
-40
67
-111
13
-63
-6
8
3
-127
0
-37
6
-45
73
29
28
107
-48
-7
-77
-40
-37
70
-21
-38
79
-60
39
65
38
26
-13
26
-33
42
-33
-70
11
13
66
23
-24
-40
-8
21
-44
30
-28
-43
54
-72
-19
25
37
-56
18
48
-57
-50
-3
-9
16
32
-58
24
30
-41
-69
-69
-15
28
-127
-40
-40
-48
-46
-72
-36
40
-73
19
-56
12
49
-55
6
2
-33
49
-33
29
25
-36
-21
-117
-60
6
-9
-19
-54
-2
5
-83
72
20
-82
8
0
11
31
42
-41
-39
3
-2
-9
61
-2
-10
46
-1
-10
44
-91
-76
31
-27
-44
2
-53
15
27
-6
8
31
16
39
-40
81
2
-3
44
5
-26
-38
16
17
-60
33
-21
-16
-2
40
-30
84
-42
-24
19
24
4
-44
1
-10
-21
-30
21
-7
11
-18
15
26
24
17
1
-32
-15
-10
-3
34
24
39
29
29
17
41
51
-53
8
32
-39
-10
-26
-12
22
127
4
45
0
-5
-26
-30
8
-18
-35
-44
29
-34
35
23
-11
-7
61
-21
-30
-32
-26
34
2
-34
-6
-8
1
-58
-28
60
3
-2
3
11
8
-9
-14
-32
-33
0
-10
-15
-25
-1
60
-27
-36
10
52
11
4
4
-6
22
28
5
-38
-52
45
-34
16
25
-21
-24
-48
-28
14
38
2
33
-16
9
51
47
-4
47
12
0
56
50
11
39
-6
-21
3
-3
8
62
-24
45
9
-28
52
20
-30
98
39
-22
-13
7
27
25
22
91
-58
24
69
-20
-23
4
3
20
-28
-40
-41
-37
50
-23
9
6
51
43
-88
-6
16
-26
-40
-58
-39
6
-1
-22
47
17
-30
5
127
-17
-6
61
1
25
87
-26
-16
1
-28
-12
-31
33
17
-3
11
6
-18
9
6
97
17
23
1
27
-6
-9
15
42
-50
9
30
13
37
-19
-37
-23
-27
-30
-12
24
27
-1
23
28
-5
-31
11
-13
43
2
26
-16
-19
-7
-27
-54
-3
7
-6
-6
46
5
36
-42
65
-26
6
35
-20
-62
11
-27
-23
0
-7
121
26
-47
29
-50
25
-20
25
10
-72
28
22
-47
-19
35
-16
11
19
8
44
-54
-19
-41
3
-44
20
20
-4
71
-24
38
-22
24
-19
-39
54
4
-1
0
-50
8
10
39
10
25
-15
-56
-58
-64
-3
40
38
24
33
52
9
18
45
-22
84
5
-29
0
-31
38
34
74
-16
54
-57
-24
3
-34
-25
9
-51
25
-27
-23
15
21
14
8
20
25
-28
29
8
-30
-57
-61
6
-25
-74
-38
-5
24
-63
40
-17
-14
39
-1
-42
-12
-59
-20
-59
-40
-44
38
17
-28
34
35
-33
-58
-53
-1
-18
17
-15
-20
-97
9
33
59
24
29
10
29
-44
-27
27
-63
-72
-11
16
-5
26
-73
-46
23
-7
-24
30
4
28
11
-67
-55
-23
9
5
77
-51
-26
-9
13
25
-1
23
-35
-22
31
-54
-29
-32
19
14
127
-34
14
-4
40
31
80
8
46
2
-56
-10
-28
-13
69
-11
-8
12
-16
-63
6
-15
25
-29
-34
-14
-68
-42
-11
-22
-43
-66
-1
-21
-20
-59
-20
-78
-4
2
35
26
-6
-18
6
-69
31
-2
-34
6
20
-24
54
60
-5
16
31
-54
-91
-9
-37
12
-26
-43
-65
9
-10
-2
-1
22
24
49
63
35
15
-1
-51
55
-24
104
-13
-12
10
-36
34
-61
31
-73
-18
-52
7
13
-60
22
1
-10
-33
1
-40
-9
29
17
1
-41
57
8
4
-42
-73
66
-30
-15
-54
-33
90
106
-94
-9
40
-5
-56
56
-48
56
-77
55
-37
64
93
85
-66
105
49
-87
1
-54
45
91
43
-22
34
37
-84
48
-76
-11
-12
76
-51
-127
39
-63
41
-66
-81
-60
28
-44
51
55
-7
-99
40
-23
1
-42
10
32
30
-58
77
-35
16
44
-37
66
-68
-45
-5
0
86
-51
-39
1
-31
84
-104
-43
-101
-30
57
0
69
101
-70
-70
-54
-70
33
9
-4
-25
-32
26
-61
-17
66
-42
47
58
4
-62
87
17
16
6
54
-37
-32
-13
32
94
-53
-37
101
-77
9
1
38
-33
1
-18
43
-28
1
28
17
25
14
-33
-83
-40
-24
-10
55
0
-2
26
-38
4
-103
19
-6
-71
-3
-35
-15
0
36
44
-41
-6
-3
32
-40
-25
25
-43
82
-12
52
17
3
25
-70
117
36
-74
-35
-29
74
22
60
-75
-12
-1
-45
-32
-60
-13
-22
24
-20
0
-67
-64
40
67
16
1
92
-95
-17
-40
-22
-36
26
34
0
21
25
38
57
-55
-71
-20
-31
-43
0
-34
-41
-33
-87
-88
3
-78
-71
-79
-67
8
31
-59
29
-79
-33
58
13
-5
-45
-53
-22
-58
-27
-47
-12
-34
-55
-48
-23
-1
-33
17
-22
-38
-16
-35
20
-86
20
-18
-121
-18
11
30
-17
-5
17
-23
-39
-11
-61
-58
-19
16
-85
-29
28
6
27
16
-47
6
-37
-99
65
-62
74
-57
12
-53
5
39
-111
-91
29
-37
-31
-49
-11
-6
78
46
31
5
-47
32
78
-25
31
16
-15
44
-81
76
-30
-22
5
-112
9
70
-35
-17
-31
58
-48
-21
18
-41
-2
10
-69
7
12
-18
-71
-14
-2
-73
-71
-23
34
33
-14
-7
-31
78
-42
90
8
54
41
16
-76
46
127
-14
101
-36
77
59
-41
31
-19
59
29
-31
-12
6
-13
-65
-69
95
42
-40
-35
60
26
52
-28
-36
-21
15
37
9
-34
-27
-33
63
-3
-26
35
-48
29
-81
15
-19
39
0
-14
25
39
55
6
-18
19
-55
-81
3
-13
100
19
23
16
9
74
-55
14
1
-12
25
102
-55
-9
20
-81
-49
20
13
90
11
-44
-11
15
23
-3
-7
42
33
-6
29
28
-18
24
-11
-24
37
21
2
42
-20
-12
15
51
41
-19
2
-13
-25
-69
-11
38
2
-78
63
-49
-11
60
-33
12
-7
3
40
32
37
-74
-80
27
-15
0
-9
19
35
42
-6
25
48
9
-10
22
46
-52
-11
-8
-23
11
34
33
43
15
56
62
-2
15
-7
-33
34
38
-46
-36
40
21
-10
24
-29
-5
-16
-24
32
127
-71
97
5
88
-8
57
0
32
73
17
-63
-1
-39
37
8
-39
20
-7
-21
-2
79
9
35
-34
-31
24
-41
-29
65
-23
-4
-13
-11
-84
-30
-35
77
-9
-22
-36
-4
25
78
54
27
87
14
-10
108
-10
40
34
-29
41
28
-47
42
-16
-50
26
-6
65
-10
17
59
-30
45
8
-49
36
4
1
33
1
67
21
70
37
-25
-79
60
10
24
-5
34
27
54
-28
-42
-38
-69
11
-55
95
12
-1
-84
-52
-69
-49
9
22
7
-8
-9
8
-12
-54
26
-12
-38
-27
-23
-11
-33
59
-56
47
-19
-20
-33
-7
-32
-4
-36
-7
1
-41
8
-7
24
3
6
-21
-21
10
-2
52
-6
-59
-4
36
-17
-17
-16
-9
-20
-34
-3
-17
-31
67
-36
11
5
-60
55
-34
-41
-5
-26
2
-20
-85
-39
85
12
88
-32
2
24
-70
127
44
-34
19
35
4
69
25
14
-5
-18
-60
-64
59
-60
37
0
-60
58
117
31
46
-52
35
-49
1
-40
8
-1
-4
20
12
-2
16
-1
-64
65
-17
-24
-11
88
42
31
-28
58
-34
-27
52
57
-30
-8
-71
-72
17
-46
27
25
-2
-2
-2
-14
18
11
-38
25
74
12
-46
63
-32
95
-21
0
15
-66
6
6
-60
-25
14
-24
54
-70
19
108
-40
-61
65
-56
-97
85
37
-28
37
34
-15
6
32
20
25
0
19
-39
32
-32
14
-1
3
71
-11
5
39
28
74
47
-13
-30
-17
-3
-16
65
-53
-2
7
-15
0
-16
53
-40
72
-65
-62
30
-52
-5
26
24
-40
-5
-44
-7
-11
68
35
10
-21
-48
15
19
-45
7
39
-69
54
17
55
-10
51
49
28
-18
18
12
-86
-21
-122
-4
-29
40
127
41
-2
66
-32
-57
22
8
23
22
-33
12
-34
-24
6
-26
2
32
-11
-78
-50
-52
5
25
33
-34
-67
27
-31
-28
17
20
-17
-25
32
30
-7
-58
15
13
68
84
-57
-9
-16
18
-7
-71
-28
38
-16
-35
-10
45
18
-40
-46
13
-93
5
-49
-13
-12
-72
-32
8
-3
-8
-56
17
77
30
-7
3
48
19
27
40
-3
13
-7
70
-43
19
57
-17
-35
17
34
6
3
-105
23
-4
-42
26
74
22
4
9
70
-19
-37
-53
23
-5
9
71
-37
12
-16
-38
-14
36
-67
54
-9
-3
71
-2
13
-5
32
-75
-87
-49
21
19
24
-89
1
5
-66
103
-15
-25
-10
-27
-42
-62
-9
6
-28
57
20
-67
4
-58
63
18
10
26
18
17
-81
-3
-48
-44
-15
-35
59
-7
11
-42
-7
-65
-77
15
14
3
-68
-69
-37
-5
-3
-34
49
-30
-38
-17
-20
-54
99
-35
-60
-32
30
-15
1
63
31
65
122
-6
-49
-31
23
33
15
19
25
91
-24
32
33
-83
-60
9
-68
56
-44
-9
101
35
22
5
22
-68
0
-42
35
-50
-38
-117
-7
102
7
16
-2
-111
-25
29
56
-14
16
33
-56
15
27
21
17
-3
50
-12
70
20
-38
66
-59
-28
-106
62
-37
69
-61
-25
-31
9
40
58
4
60
-36
7
17
31
33
-127
-4
-17
-31
117
4
-14
-74
-46
3
-75
108
23
-1
-65
60
43
-7
27
-16
-38
4
-55
-109
-34
-21
38
28
3
-8
38
33
32
82
-7
6
-7
-27
-13
-26
-22
-7
-55
28
-28
22
-40
23
35
-21
-24
29
-33
0
-19
18
-29
0
-15
13
-38
-39
-23
42
24
52
-79
38
22
48
41
56
-52
62
4
9
-9
-27
18
37
-13
-55
9
-81
-2
-14
-40
69
-52
-19
5
28
-84
20
-96
-24
6
4
85
1
29
28
16
11
11
-15
25
-22
-23
14
7
21
6
2
-38
18
18
-127
-51
-70
-60
25
-50
-51
50
-41
31
-16
13
0
-1
27
38
90
-32
3
31
-7
-22
-9
-7
-15
34
44
6
25
0
-23
11
-10
-37
40
-21
2
-22
-3
5
-33
-27
-25
7
-65
0
-27
3
-30
-8
38
-28
36
64
-3
-22
-34
34
14
-76
26
-8
-45
1
6
-70
7
25
-9
65
-66
-28
39
12
4
-1
46
3
9
37
22
25
-37
50
-50
14
-39
13
-42
66
47
4
27
56
90
22
6
-9
-16
61
19
-11
1
54
28
-35
6
-36
36
33
1
-31
-52
17
75
0
-8
-88
-25
-41
-20
-20
-21
-35
43
-31
-64
-44
-33
-65
54
7
-34
50
28
-58
-80
25
9
77
7
19
-19
-31
-22
-40
11
-44
55
97
-31
34
10
-92
-55
-29
-12
-41
23
55
-47
-53
-11
67
-33
-2
-77
9
-13
30
-44
-29
-73
-6
21
91
10
29
12
-40
36
-47
2
57
57
91
-14
-87
-5
-24
85
48
25
-29
46
5
0
-43
-30
-3
-24
25
46
51
-81
-72
30
39
-64
12
-19
-31
-14
-60
-36
-102
-78
-33
35
-60
-5
-50
-6
-21
16
27
-86
16
11
-22
62
-37
111
3
-78
43
9
-58
-71
-42
32
61
-12
-44
-24
25
-31
26
11
-37
76
-110
-48
-49
49
-127
-66
-49
-30
-6
32
-19
62
-41
8
79
33
-48
14
24
-6
20
32
24
31
-49
0
-41
-20
27
-80
19
28
-115
-69
2
7
11
-96
-6
-1
-54
-30
17
51
46
-3
-69
-21
-64
8
17
-15
-30
34
-4
10
43
-17
-9
22
59
-27
-4
-29
52
49
47
34
40
-84
-1
13
47
-8
-46
45
43
37
-58
9
-7
-44
11
-21
-13
7
37
-2
24
-40
51
9
-53
64
12
59
43
19
50
24
93
45
85
-65
-50
19
31
36
-15
26
0
48
-11
59
37
51
5
13
-107
87
20
2
60
39
60
35
-64
-34
-50
-30
24
-35
8
-3
58
-24
23
39
51
4
29
-22
52
55
-29
67
2
-38
-8
7
37
24
8
-96
8
-55
-10
4
-21
10
-8
-12
-22
-9
21
-39
20
9
25
14
25
-26
11
-29
17
28
126
50
-14
51
-9
8
25
67
-19
19
3
-70
11
-43
-30
13
92
-1
-7
24
-37
127
7
85
11
58
24
-13
2
10
-26
-37
40
12
-58
2
-55
57
-45
15
31
-8
40
23
16
11
36
-73
-54
-7
-31
-34
-16
3
-35
7
-5
71
56
-18
-12
-52
-23
-4
53
-45
-5
43
8
-16
6
-8
-16
-19
48
66
50
57
-1
-21
29
-29
26
40
-13
-34
21
-26
-20
-10
6
27
-70
-3
45
2
-31
13
-32
31
44
5
2
37
-46
51
-66
-19
-40
9
46
22
-32
15
71
-7
25
-1
6
30
70
-53
9
48
-54
2
-17
13
-31
-1
21
57
3
53
85
-18
-22
-31
75
12
25
24
39
18
-20
27
-91
28
-57
-22
-7
-9
-18
-51
-46
6
-15
7
-12
14
15
-34
12
17
73
-4
-6
-85
-24
-12
-67
11
12
9
28
-59
-73
-40
-5
73
21
-4
9
-27
-22
-7
-3
31
-56
-46
51
28
-76
-22
5
12
-92
28
19
-11
-9
-37
4
20
-40
-19
48
7
14
25
10
-18
56
35
22
-11
36
-24
-7
8
-1
28
-5
18
22
21
60
-5
8
-43
-3
43
4
-36
-20
17
56
14
11
44
43
44
-15
16
36
127
0
43
33
14
-10
-29
-45
53
-32
-11
51
0
41
-49
-26
45
-23
-45
-53
4
-29
88
1
27
30
-5
1
127
34
76
15
16
-7
-55
-10
-11
-57
-57
-12
29
74
40
5
9
-24
39
4
22
-2
-89
-1
71
44
19
60
35
-12
-14
7
-50
-31
-24
5
36
69
-76
-58
43
-12
-48
-26
-54
-108
-48
13
30
1
7
-30
-23
-55
-47
-45
33
-28
-74
11
-29
-43
3
-43
12
-3
-19
69
88
-35
44
23
20
8
37
-28
53
-31
-28
43
-62
-73
-15
75
60
-91
56
91
53
3
11
20
28
-38
-22
38
33
7
14
28
58
42
-15
-54
-42
10
27
14
-16
17
14
-47
-74
14
8
-10
-19
-1
-43
-79
-48
-16
36
-34
11
42
102
43
-33
-5
-29
29
32
8
9
38
-25
36
0
27
-5
-50
-27
-6
-17
-24
-52
40
-28
-37
-86
1
24
-2
-24
78
-17
-19
17
109
-13
-20
55
76
0
-17
22
4
-60
-98
-43
-66
-23
-10
32
-11
3
22
12
-26
-13
51
70
44
45
-32
-1
3
13
-35
70
40
62
-22
-34
-38
31
43
48
-60
-19
-19
3
-12
-18
4
-17
60
8
-9
18
48
-52
117
18
72
36
-24
-18
-50
-7
-13
-71
-18
8
-3
7
83
-17
-38
6
15
75
-9
-28
24
-8
-52
60
15
10
2
22
49
-85
-12
-41
20
27
-22
-17
-40
-14
-47
6
28
-14
29
-16
-3
-26
-13
9
75
-125
-85
52
-32
-14
-92
-24
65
-26
-36
1
21
18
22
40
101
16
-4
-8
27
-58
4
15
3
26
81
-13
69
68
-6
-27
-22
19
-27
-39
41
8
28
31
-127
-2
1
-83
-80
-56
-29
-14
-88
20
-23
27
16
-64
-12
22
-6
-24
12
40
8
-3
-36
45
75
-46
22
90
-54
42
4
11
62
1
-2
-32
23
35
-15
36
-36
28
-9
-55
68
29
-42
0
54
48
-42
-29
26
-57
30
44
-48
49
51
-47
25
-31
9
-15
17
52
-41
-10
21
12
8
-34
-57
9
73
-35
0
8
-111
-50
19
84
88
1
-8
59
-26
-79
47
76
9
31
22
31
47
6
-39
47
-1
-27
55
65
-51
43
50
-58
2
17
30
74
-82
-22
-7
66
28
34
-9
3
21
-31
16
5
24
21
-61
44
-59
-23
-54
-54
-49
23
100
-65
-48
123
-21
-32
-28
56
7
38
-82
4
-35
14
58
67
-18
127
55
-3
84
5
-4
-7
30
49
35
-53
23
-52
-48
58
11
-17
98
-11
-38
52
-37
-8
-23
-52
-46
22
33
16
-27
55
86
35
97
-33
-62
60
51
26
-29
57
44
44
49
-44
54
44
-62
6
62
35
-54
-52
10
54
35
-58
55
12
73
-61
-26
80
-17
-15
-71
104
55
20
-13
-70
-16
-31
35
-14
-13
31
-41
53
-31
39
-8
8
37
78
44
52
-27
-90
68
3
19
-34
75
-13
-28
-7
28
46
-75
18
-44
29
-71
-4
22
40
110
18
69
-78
-3
-45
-2
-29
66
-12
38
14
-27
14
54
-1
1
-45
-127
-79
37
27
47
-7
44
38
-31
-17
-37
10
20
31
20
83
-5
-54
77
-24
-54
-8
6
25
19
-45
5
-23
-74
-7
38
-95
-109
-80
-59
0
-51
33
-38
7
0
-47
41
-2
-70
23
-26
38
-36
-31
-32
-7
-89
63
-39
104
-104
7
-25
-12
-11
14
19
-28
30
3
42
44
15
58
26
107
34
-31
105
-25
5
-49
-101
-48
-42
116
-49
10
17
-9
18
-38
67
0
32
117
74
8
13
44
-31
28
-25
43
-72
59
103
-42
-3
-33
-8
13
-48
15
40
59
-99
-32
42
8
27
-58
52
96
-68
-49
-48
113
-72
-110
-1
-7
-57
-27
-15
-78
-58
4
-9
97
32
85
84
90
38
24
-5
57
65
0
60
71
72
10
-11
-11
-59
-6
1
6
11
-79
-9
7
102
3
-25
6
39
-22
-22
21
-57
14
60
0
39
59
63
-45
-52
22
-12
2
81
-2
-127
83
-36
-21
63
1
79
71
-105
-36
66
83
37
-80
-39
-52
-25
2
-5
7
5
-41
41
24
-104
-47
32
86
-26
-14
-6
40
19
98
1
-63
-40
-46
-16
-67
46
9
59
40
17
46
-76
42
30
-25
-43
-86
-78
19
-7
-3
57
-1
76
-59
52
8
10
22
-14
-21
36
29
-37
41
9
-96
37
-41
-66
7
-42
-9
-8
-68
10
-55
-24
26
-44
-27
17
68
-8
-24
-28
-66
38
-3
-15
-63
-62
-30
-17
-16
-37
-60
-36
-14
-27
18
46
-4
-51
-9
-28
-1
11
-18
-26
107
62
7
33
-12
51
-23
-38
2
13
120
-18
63
-23
18
85
23
-4
-37
57
-15
2
24
17
-37
-30
59
73
11
-7
-87
33
-23
37
-22
-38
-37
-51
-88
54
-12
-9
-36
13
-30
-45
-40
11
47
23
1
-29
31
-82
91
-23
38
57
-82
26
28
5
48
-21
-6
-20
42
-30
-23
-33
-3
22
-58
22
27
-14
-56
31
1
21
52
24
6
-31
2
13
-15
9
47
-17
13
85
-54
14
8
-54
24
-29
69
30
6
76
39
16
37
65
60
17
0
12
43
-11
70
-16
21
77
20
-42
-20
10
25
-49
46
58
-61
-42
21
17
41
37
16
-33
-34
18
46
-39
-16
-66
7
-21
53
7
30
24
-6
29
-3
15
1
-21
34
55
-27
127
38
-6
67
33
-16
-17
14
48
38
-74
-42
-58
-24
-27
31
0
35
23
40
17
-50
23
-27
14
28
-59
-44
51
6
30
41
59
60
-104
-56
-75
-30
23
29
-71
-23
72
48
34
27
-2
21
53
-2
-17
-14
-26
46
-44
23
-35
18
-5
13
110
-6
-27
-46
-43
34
-31
-39
-9
48
3
-30
18
6
24
33
60
106
-2
30
-17
25
48
30
38
58
21
-45
-39
49
-5
40
-16
15
24
1
29
86
-72
7
40
24
-25
-45
3
17
-45
15
50
-19
69
-50
7
-2
-16
41
-21
94
22
-119
4
16
-83
-68
-11
-75
-76
-63
-72
20
63
-9
2
81
-61
18
-67
37
50
30
30
76
44
-22
15
-33
-18
12
72
-13
-54
-27
-52
37
27
10
-76
6
1
-4
-13
41
-90
51
81
-9
51
27
15
-46
-24
66
56
7
-26
8
-25
-22
31
-16
-25
79
12
-9
-18
-33
-69
51
-25
10
-30
5
43
-22
2
100
-10
-23
11
-6
82
-27
-58
-71
0
-65
69
34
-60
-3
29
52
-22
-88
23
15
-3
-51
64
-18
19
-83
-52
23
38
31
-69
-92
11
-85
6
56
88
0
101
-60
-19
74
-45
-47
-41
60
38
-35
-9
-8
26
12
38
56
-86
-78
-8
39
-71
12
-69
-16
-62
-127
-78
-2
-27
73
-31
8
41
70
61
59
47
-6
-41
22
-31
33
60
-7
8
-29
-21
64
-77
-4
-18
-30
30
-30
-30
51
-36
-5
-2
13
22
89
82
63
-71
-63
103
-25
17
-50
12
25
-51
-6
27
-32
23
-13
-32
-54
4
51
29
-1
-15
-67
-49
14
13
27
39
-56
42
-15
10
-49
-11
69
43
-60
-5
-82
-83
-53
36
-58
10
-89
5
127
67
-13
-53
-20
-41
-24
-11
-67
48
29
-10
-47
29
-12
51
44
51
-109
-20
13
-12
-4
-103
-20
15
-22
-52
-35
64
5
-52
-71
51
-26
26
-21
-4
3
52
56
6
39
-22
29
-74
72
-2
7
-66
-81
-47
3
5
-28
-4
44
59
-70
33
56
14
7
54
64
-22
8
-23
12
25
-6
1
-15
-14
-24
-39
-19
57
-3
26
-93
-48
-2
-11
1
-47
-16
-18
-9
17
-31
47
-63
-30
-55
-70
-71
-35
63
-10
47
-39
-4
66
-28
40
-24
-78
-13
-120
18
-32
-2
-35
29
-35
58
27
65
29
-42
-39
1
20
20
-11
-31
29
52
-18
30
2
-39
31
-69
-38
-17
-41
6
-77
-12
4
-28
-19
0
54
-35
-23
18
-120
