61
10
31
10
-45
-23
127
17
-37
21
-16
-3
47
-33
47
94
-58
-26
42
43
50
104
-36
-5
-53
-55
51
102
3
-27
-21
-8
-41
-8
-20
-43
39
74
19
127
2
77
34
-94
-3
-87
-29
10
-59
37
12
-2
87
-7
-9
-11
-84
21
-97
-13
55
-6
57
-109
56
-90
-81
-30
17
-13
-51
18
51
65
27
2
-4
-40
55
127
-70
7
34
-59
127
7
-9
-50
22
-78
-34
9
121
46
-31
27
-15
-127
85
11
53
77
62
-81
-47
76
30
96
-15
66
77
66
14
-59
44
-28
-13
-2
38
-60
63
62
-24
47
42
61
41
-25
-35
127
4
-83
-14
-55
-4
-9
19
-25
-42
-14
24
25
-76
101
44
-21
-25
33
7
-84
-21
88
85
-42
-5
-15
39
-7
-30
28
125
29
81
83
50
21
127
-10
-10
-77
47
-24
-25
-7
-57
-29
84
-13
-75
35
-15
-55
3
0
-18
-81
-98
90
3
-76
85
-24
14
48
1
-55
9
-38
38
32
43
47
39
97
50
-56
8
90
32
-73
58
33
25
-24
-57
111
8
-4
127
32
29
-69
-10
-54
8
-50
29
-47
-37
-72
-66
6
-118
73
83
-35
11
-80
36
-15
-32
-48
46
-51
26
38
19
52
-67
-54
27
127
-37
-94
-11
-52
-71
12
124
-47
48
-22
21
3
9
81
-2
58
-8
28
-40
-53
-22
-30
-48
-26
48
8
-1
30
-41
27
-30
-1
-38
79
127
35
20
1
-5
-46
53
-6
23
17
19
-18
9
64
-21
28
-86
127
30
10
-55
65
29
-12
29
38
-5
29
57
-12
4
84
87
60
-103
-36
51
-7
15
-29
40
17
84
47
-22
-55
-4
-9
9
-37
3
102
-7
94
-86
89
9
21
-75
-127
32
-1
-23
0
-70
-38
-25
-14
71
-113
-15
71
18
27
-72
35
8
-70
-53
-23
35
127
-111
-16
-35
38
47
-87
-34
91
56
-19
35
-16
105
59
-25
70
1
38
19
-63
33
-53
0
-6
91
-58
-34
71
-97
-11
26
2
-59
-85
2
74
60
-111
-1
-5
127
-53
47
24
21
-3
93
56
26
-62
8
18
-75
-98
2
55
4
48
86
27
35
-127
7
-69
44
-15
-32
80
-64
110
-52
-5
-77
-63
23
43
18
-9
22
73
-109
-9
-123
33
-73
-1
-31
-21
127
-77
43
61
-82
-18
-44
-42
26
-3
19
35
32
-64
-36
-29
42
-8
12
37
71
-6
6
46
116
73
-127
-45
22
-5
60
-35
-29
-80
20
-79
119
-57
97
116
72
83
6
64
-49
-99
-26
40
0
29
-37
-18
31
51
-69
-50
66
19
21
127
49
-65
-26
-81
-38
83
-15
4
104
58
-93
-53
-49
-8
59
-19
47
40
30
10
0
-98
27
91
37
-83
-32
-3
-127
-17
-41
-1
-45
8
75
13
0
15
-7
-67
41
39
60
24
-35
22
77
90
-20
-48
72
-78
18
-89
-25
-27
-43
26
-6
-24
-66
-25
-10
32
-34
-64
53
-15
-9
-1
-42
40
127
-11
-127
-109
81
-111
-3
105
38
-47
-18
-19
39
-106
1
59
57
-28
-3
26
-111
109
-79
-6
-12
-18
-34
-106
-76
0
49
-28
3
-32
-27
0
-107
-52
-55
-33
44
-17
-31
34
27
-12
86
-23
-70
-45
-46
-127
-127
-71
19
-8
40
11
11
-47
-64
24
-55
3
-37
57
16
-43
-92
-57
37
35
-43
-80
3
36
-40
-1
-3
8
14
95
-95
-51
3
-36
-57
-86
75
-66
-34
31
7
94
20
-14
-72
67
1
28
-126
114
-9
65
95
-13
72
-22
-57
32
-72
21
84
58
127
49
13
-13
-60
-100
56
-24
-70
-34
64
41
-22
51
14
24
-109
103
89
-11
36
33
-52
-17
-69
16
5
7
-30
-10
71
58
84
127
70
33
-58
-72
2
-2
29
-43
50
44
71
-25
97
-70
-13
127
22
-24
-15
18
-45
-17
-34
22
7
5
-67
-46
79
-41
-69
24
-16
102
-33
-73
54
17
54
114
-30
-77
-30
12
-5
91
-60
38
57
-127
41
-9
90
-96
-24
33
98
1
-44
-64
20
5
-4
-15
15
29
25
67
14
-45
-22
-127
-39
36
-32
-31
18
67
-49
8
-62
-42
111
73
31
17
13
-10
27
-16
-23
-52
17
101
-120
-26
-101
-8
-5
58
-22
-34
67
18
29
-6
-3
-28
-11
-56
-64
-64
-56
-21
31
103
-11
-22
-58
29
-23
5
-21
127
39
11
23
-13
-60
-40
74
-14
10
-127
54
3
100
64
-29
-25
-95
16
-34
9
5
5
66
-7
18
-12
23
-6
24
-9
-7
17
43
-27
59
46
41
40
-7
-13
37
2
-18
-62
115
23
-24
1
-33
127
-24
87
-81
36
44
77
-37
-16
-32
-22
12
9
14
-14
-29
-73
2
-17
-50
56
8
43
-20
-31
21
26
-15
-50
-3
-18
-27
88
-64
5
66
32
104
64
-1
-34
-29
13
94
-127
54
21
-39
-49
37
-59
10
-95
-23
-49
-33
-13
-22
27
94
53
38
3
63
14
21
-10
14
23
-9
-62
-8
91
94
127
69
-52
-80
-55
107
-35
-2
84
-13
15
39
1
36
-90
21
-83
63
25
30
-61
-62
47
34
-73
-12
-40
-79
27
23
12
36
-48
-60
127
91
28
-1
38
69
78
45
-6
92
-80
51
-60
-52
48
37
44
17
127
71
16
-60
21
78
30
58
-44
-13
-6
29
37
-71
98
5
6
59
14
88
5
45
25
-119
-117
-82
-27
53
0
66
47
64
48
48
-75
127
81
-39
21
-88
5
104
48
-61
90
10
11
35
-68
29
-88
-66
25
49
-5
-65
23
-22
-127
85
4
71
49
48
11
71
31
-22
45
51
-66
-53
-88
33
70
-63
-88
-58
32
-101
-18
-15
43
73
68
-27
-93
28
9
-88
-7
11
-64
65
-31
78
14
-43
76
-108
19
21
8
28
-34
5
10
14
83
-70
9
75
-21
126
-34
14
127
-74
-99
-29
-20
-4
82
-56
112
-9
48
127
-57
42
-41
-46
28
-56
75
70
8
87
-46
-71
37
2
41
-55
-68
4
17
40
-7
16
53
-20
33
-19
-75
32
-65
22
-54
49
28
0
-127
6
-45
26
-96
-76
55
4
-42
-12
97
57
-9
16
10
-67
31
12
29
71
-62
-15
-36
-36
-60
-80
5
5
127
-29
-45
-3
-15
-45
26
-77
19
101
63
83
0
-82
-23
-47
-6
-11
-56
16
-7
56
100
13
31
-71
-34
-66
48
-14
-8
30
-49
66
-33
-3
14
-46
49
27
58
104
17
32
-4
52
41
59
-127
-12
-84
42
87
-11
79
77
33
-54
-16
49
-6
78
-36
35
-50
-4
-95
-126
63
-56
69
40
14
64
116
2
-58
-73
36
-59
-50
37
127
-75
-104
8
-60
102
90
36
-41
-20
-40
-38
40
32
-2
43
82
127
118
-102
121
71
67
88
3
76
-101
-11
48
-16
29
45
-71
-22
113
41
-49
15
25
46
-19
1
-51
76
-48
76
-60
83
1
23
37
68
107
-32
127
21
32
92
14
-14
-85
-10
-2
-84
-50
-47
-28
125
6
38
45
4
-38
74
0
-40
-13
67
-31
16
3
-52
-4
8
46
31
-31
-18
6
-82
45
-106
-34
-80
-1
62
-12
24
17
-14
127
67
21
17
64
39
-127
-2
76
16
82
9
-49
-94
-81
52
-6
-64
-7
-9
0
46
92
27
76
-27
-14
-60
1
-125
-12
4
40
35
3
4
-46
16
46
-68
-127
8
42
-107
-15
44
-88
24
-35
-23
-57
-101
-24
-48
14
0
-7
-71
-19
47
90
28
-47
-6
12
-38
-20
-109
-30
-51
49
-116
34
91
-43
-22
-5
20
-127
86
-62
-52
-47
-103
-122
-58
25
-54
-19
-57
19
-40
-31
-17
10
44
13
-81
-42
-16
39
19
-39
27
-10
10
64
62
79
39
56
94
-73
-45
-19
116
-35
84
13
84
-100
60
-24
9
-19
80
13
127
-7
-45
-69
-31
-127
61
-24
-59
-26
42
62
-120
13
7
60
36
86
-40
4
5
74
-61
-14
-34
78
-46
-54
53
-122
62
-85
-7
-1
23
-32
-64
-60
-4
-49
-20
127
32
-87
-33
-80
13
-46
62
108
-38
19
-24
19
-89
-3
-58
-43
-17
-65
-1
-53
18
27
-47
-29
9
-50
-127
40
-121
-53
9
5
70
-18
-52
58
1
21
74
33
39
33
55
13
69
-45
-115
8
-82
-27
-52
16
-12
-88
92
-12
29
45
-14
7
-33
20
-3
68
-127
-13
-55
48
-27
-3
38
-26
101
5
-96
-59
-82
51
-31
78
-12
-86
1
-85
28
60
30
69
62
127
-51
20
35
-3
-25
63
-20
-52
-4
4
41
-33
0
42
-10
-8
-54
-2
-29
-60
-25
53
31
38
39
33
-34
44
29
63
39
21
-41
119
-13
38
-2
-66
25
3
55
47
77
-31
35
-84
-34
71
61
27
127
-2
39
10
107
61
26
50
60
49
66
14
31
8
7
17
-8
73
35
-20
5
-109
-12
66
-13
4
-67
-30
-34
43
-15
-55
23
29
121
-45
-36
0
51
-1
23
19
24
127
7
104
11
11
-17
-25
93
-2
70
-89
21
-42
14
-27
-11
50
-36
92
-50
-80
46
6
-12
-8
-17
-102
7
-55
-90
32
127
-90
105
-85
14
-27
-86
-20
25
58
-76
26
40
97
127
-62
75
55
-47
14
52
7
68
5
-67
-45
107
-68
-84
84
42
-48
77
-68
-71
0
-33
34
-61
33
-14
48
22
-30
60
-61
63
33
-2
77
76
-31
37
11
-60
-18
18
22
-55
-127
1
-47
-60
59
-66
-17
-37
-3
-43
65
-20
-34
-65
51
97
-122
-16
6
127
8
-36
38
32
29
-11
-63
-9
-15
47
45
-61
35
-60
-25
-26
-18
-21
17
-81
27
32
-66
-68
22
-39
102
-20
33
30
105
-64
0
58
54
-18
46
-69
-27
-7
127
-113
36
-8
-121
98
-1
-43
28
82
-101
15
5
98
-6
-104
24
-17
-26
21
107
81
-51
-31
-14
-58
5
-78
127
58
104
45
-23
-8
-64
-33
-12
-43
-28
-89
-106
84
-44
68
-20
52
24
23
44
-82
-94
-36
49
-44
96
-1
-18
54
32
-25
-83
46
30
-60
-71
-17
-19
127
59
68
41
-19
-44
-51
36
98
71
-26
32
70
-8
-25
7
12
-58
-23
40
-51
63
-42
45
48
-91
34
84
37
-58
-35
127
84
-70
-66
14
77
42
23
126
-63
-67
-18
-8
1
-67
64
47
-25
38
-2
15
11
-47
-72
40
-41
-58
21
-63
127
50
-18
-38
-41
-42
47
-48
36
60
34
30
-78
-12
57
-37
-37
97
21
-40
-90
23
-20
50
0
-88
20
-13
-59
127
-48
91
-66
53
-25
107
-22
-113
-62
106
96
-82
-65
-106
-7
-39
-127
-17
40
-10
-31
-3
70
-60
80
-8
83
32
28
-10
-63
-18
-16
53
-51
-37
-61
4
-50
23
-1
23
49
70
16
27
23
-46
-60
33
71
-84
-46
95
72
105
-76
-52
-115
-60
-48
80
6
-100
83
46
-37
-49
67
-96
49
-115
32
-127
99
-80
22
73
97
3
82
32
16
-36
84
38
-39
58
-6
-24
-6
-13
60
-3
-45
36
22
-2
7
127
32
28
-48
-22
22
67
-1
25
39
71
-69
-3
-58
18
27
63
-6
-22
19
109
-16
29
-19
2
-54
46
5
-61
87
21
127
19
-84
-24
69
59
-2
10
-19
98
31
1
-29
-113
-18
14
-101
93
40
-122
15
66
51
-22
-2
-22
32
103
-19
24
32
87
49
-24
-74
-77
73
27
58
127
65
-20
-6
46
-27
85
-94
5
-36
10
-5
-103
51
-74
43
-5
-41
69
45
-16
-3
-25
73
-49
77
61
-35
-38
-84
25
57
-31
6
-127
14
55
108
-16
1
45
-36
43
-3
40
3
75
-92
-20
-40
18
45
127
-12
-12
-2
-85
28
122
-37
63
-27
-57
-31
3
-45
-106
-73
-1
-89
-28
-30
-52
127
20
-22
2
75
19
43
-34
3
87
-67
-20
-122
66
26
43
85
-13
-4
-12
-15
-6
29
-28
51
-71
11
-124
-64
-62
-10
68
-2
94
-15
-44
-73
2
63
127
10
42
30
12
-5
-2
14
101
9
-19
7
7
42
-52
65
41
95
-18
13
22
17
-5
-5
35
-9
17
29
-16
-19
-22
-19
-10
67
59
-15
20
49
-40
127
90
12
-37
-8
75
123
-71
62
-45
13
1
33
25
31
71
44
18
79
-62
-32
-98
69
2
-43
-58
73
46
-19
-51
-112
-1
42
21
37
81
-19
43
17
-31
72
19
-69
-108
-42
127
66
-30
49
80
17
0
95
-29
35
-1
-43
64
-53
-74
15
-19
127
-63
22
17
-105
4
49
-84
-31
47
55
86
4
-39
-79
22
14
-14
-14
14
-21
81
-31
-13
125
-44
-45
-54
12
6
-12
42
-92
-13
-63
-125
58
-64
-19
29
7
26
34
14
46
-127
-70
61
-77
-65
57
-64
45
-54
-31
82
-88
101
43
24
-45
-66
-50
-60
-127
-10
85
-48
-28
12
-122
70
-59
22
-4
2
-4
-88
2
57
90
89
4
56
39
-103
97
43
-47
-126
127
11
58
-85
46
88
-3
-42
-65
49
45
-18
55
73
111
-61
19
111
-91
96
13
121
-97
33
49
-49
14
-39
69
127
83
-9
6
-55
-3
-46
26
-3
-72
66
26
31
-22
55
-43
55
-84
-122
31
-82
5
65
18
-7
-65
-49
45
95
-56
47
42
15
-104
65
24
-65
-17
73
91
-96
-25
-32
-23
-31
100
127
-53
48
-61
15
55
5
-43
-31
-29
52
0
79
-43
60
-127
-9
2
90
11
-89
6
-1
11
-10
-19
-8
105
11
34
-69
62
-13
-60
109
14
-45
100
-39
0
-33
56
44
8
-51
-11
-54
-11
78
-112
85
-43
3
70
33
-108
67
11
-17
21
67
88
-127
-16
-65
107
31
59
71
-111
23
126
-90
-106
-40
-23
-105
8
20
12
-61
-15
-33
-48
63
-27
13
1
-39
-15
-127
-93
-100
-49
-12
-27
-56
9
12
-48
100
-27
42
35
0
57
-16
-6
-59
-56
48
13
-11
-15
-66
-99
42
127
1
29
95
28
-82
-13
4
3
18
80
33
-21
23
21
28
71
-62
-28
26
14
36
19
-40
61
-56
-61
-3
15
5
67
15
-46
68
47
34
-45
30
35
104
28
65
35
-2
-8
-4
127
-67
34
54
18
71
-43
40
-26
-47
2
9
61
-65
-62
-25
60
46
-95
-58
-81
16
34
24
-33
64
-21
115
-81
25
36
-32
-32
28
13
-24
-32
13
-127
-1
-42
127
85
-64
-5
86
26
8
-110
70
22
-29
-107
20
97
28
-105
58
47
-63
-14
-2
82
106
3
82
-26
65
-59
-104
-41
-55
72
-91
-41
24
69
114
-16
16
-79
34
127
-82
28
54
8
24
52
124
20
-1
-8
-12
127
71
43
16
-45
-42
70
11
18
21
-21
8
58
5
-36
17
62
-27
-1
-57
-45
50
-73
0
-52
-76
-11
45
-62
1
-10
-25
16
-40
13
24
-33
127
14
-16
75
-1
29
38
-34
127
-73
-31
14
53
23
-41
-53
26
-22
74
50
-13
-10
17
45
-93
25
21
-50
-13
-4
-71
27
2
31
-59
65
18
-15
-32
49
77
10
-61
0
-78
59
76
43
-82
6
45
-35
22
-43
-40
74
-26
24
8
39
72
-5
16
-54
-120
127
-43
-48
-32
127
-72
4
96
26
-19
55
46
83
-2
-93
10
62
-109
-77
56
111
-42
68
75
24
66
-26
31
-82
-26
39
86
-81
-46
5
-16
-30
11
5
-54
-39
-25
70
127
-33
29
23
-95
-36
-24
9
90
6
10
-37
-8
22
39
-19
-12
-60
-90
-57
-36
-8
-10
-19
-21
14
-31
-38
-92
84
-72
-44
-94
73
-18
-26
97
41
-24
127
13
-33
46
-87
17
-36
-38
-70
14
-80
-6
30
-33
-10
22
-61
-2
-64
4
-52
-19
-21
87
-68
-67
5
-23
-63
-25
27
14
-15
72
18
29
-11
-27
41
-88
-62
32
-37
-87
127
-33
62
67
-45
33
-88
-96
9
-3
14
-15
-2
-11
-2
28
48
-91
-3
-9
-2
58
7
40
38
8
45
68
34
-48
11
-127
50
-65
-20
75
-96
47
0
-46
-39
10
36
-8
100
56
-126
-45
126
-15
20
14
-51
50
-69
-55
-72
33
104
-20
-62
4
85
-42
-127
-54
-9
102
48
1
-100
4
48
59
6
-24
22
-32
29
44
40
-8
54
53
-127
3
-62
68
53
21
21
-101
35
41
88
-4
-30
-55
26
48
-5
-9
-29
-25
-14
106
-20
-62
71
-106
-34
64
59
91
102
83
94
-21
-106
-48
23
-56
-69
28
19
28
20
-29
76
-58
-23
-127
-26
20
-88
32
-56
-54
71
-24
83
25
-16
23
18
0
-59
127
-86
-12
38
-119
-77
22
66
18
-57
-32
106
51
36
56
-66
50
6
-18
0
23
25
-37
-69
4
-13
-16
-95
19
-48
-1
96
-66
-68
-37
-63
22
-8
127
126
-58
-20
21
57
9
-50
19
44
15
88
-23
-54
-29
127
-17
-29
77
-79
106
-5
-71
-106
31
-6
-51
22
-34
-61
93
4
92
26
-58
81
46
44
61
-98
22
116
-52
9
-10
18
37
-45
-41
54
40
21
50
36
25
-87
-118
-127
91
13
-8
45
-46
35
31
-45
-40
13
-15
-1
-6
-49
-88
-27
19
-58
42
-12
-53
35
7
16
-78
72
-37
6
36
96
-3
-63
31
-37
53
54
-59
80
39
-20
22
76
-40
78
-127
-16
-75
5
-2
53
55
35
-78
13
22
52
-44
-58
-28
-55
117
-8
-4
-42
-36
4
-37
-127
46
-3
53
30
-4
-50
62
-74
43
36
14
21
-42
-68
1
-4
-62
34
-6
-82
7
-16
-19
27
10
12
-20
4
-82
-64
44
66
-2
-76
-19
24
18
6
-54
-17
-33
-7
49
-63
-3
-38
127
28
49
41
40
29
72
61
27
-5
-19
-13
10
87
4
-24
1
-47
86
-4
-12
10
58
-53
-36
-127
15
-34
-15
38
32
27
-35
-106
-99
68
-70
-21
62
-25
-22
-26
32
-48
65
-10
-33
38
-127
-22
65
-27
75
-73
28
46
33
-23
62
94
93
62
-1
22
-3
68
-16
-28
57
91
66
15
-75
-36
5
127
-17
-14
34
5
-65
-24
33
24
104
60
-31
-62
110
101
40
-62
53
-30
11
38
69
-70
-8
-10
-55
-14
94
86
56
-35
13
-20
-97
-95
-11
27
94
32
8
-39
127
25
37
54
-1
-22
-59
108
38
18
4
-106
125
-49
91
-8
-22
28
-127
59
-19
-34
23
-24
-72
-8
52
39
-15
-81
-23
28
52
29
3
-11
119
29
-8
19
42
-28
-1
7
5
80
-38
-18
-67
21
-68
-66
56
3
31
2
-127
15
49
-68
66
49
17
115
46
-89
-20
-102
74
-28
-4
28
-96
24
-80
1
64
-8
78
10
50
-78
29
-127
-106
-63
-6
-85
36
22
-117
-60
-25
-56
-63
-41
-110
63
-34
-73
38
17
-58
-50
60
35
51
63
40
-16
-93
-14
13
-25
-44
104
-18
60
0
-34
-102
-46
-85
1
-17
-67
13
-51
127
20
78
18
-21
-51
-32
-109
27
-6
-32
38
4
16
-57
-127
-118
-81
-58
75
18
36
12
52
68
61
-51
85
-47
-38
38
-10
-12
-59
42
66
-13
35
11
-64
49
22
52
-51
-26
51
27
50
57
37
29
-60
29
80
44
-20
-93
5
-23
-19
10
56
-64
18
23
-41
43
-42
0
32
4
-32
84
64
-127
-17
110
39
41
-7
-30
77
85
-2
-5
17
-4
127
73
-21
65
42
-9
-50
-14
-49
-91
-41
-9
16
-52
-27
13
-14
-12
13
-33
51
34
-95
-33
-127
46
43
-83
56
28
0
-51
98
-74
-79
30
-25
-64
3
-50
42
-19
113
-66
-18
-77
-24
70
30
-9
1
85
-7
12
-40
32
-20
-55
52
64
105
27
-21
29
15
-16
54
74
-26
74
39
-9
-99
19
-19
-74
11
-41
-14
25
-127
106
-55
75
41
1
-85
-4
43
-12
-21
-46
77
6
-16
30
50
-37
23
-3
-76
28
1
-46
47
16
-16
-5
-4
41
-8
-127
-18
8
60
22
-23
18
-93
2
-54
-9
-43
-19
45
87
36
-31
2
21
-51
-52
-106
-14
-17
24
-38
-85
-27
1
102
2
50
-65
-127
30
29
81
5
59
126
105
1
59
-65
76
91
-38
-51
-105
22
76
-67
-68
-127
-14
68
68
-7
6
-1
-115
-16
36
79
9
20
89
16
40
-19
-52
36
88
118
-67
-37
87
85
21
-41
-26
8
-75
127
5
-61
-1
15
3
-69
71
62
-6
-18
-103
-94
-112
-67
-23
26
-74
-17
-39
-27
-23
-1
13
0
78
53
-11
-21
107
-8
-67
-36
17
-4
16
36
24
-7
59
51
25
26
-127
-29
-29
-21
34
-29
17
-3
58
-78
26
-62
-31
30
-127
13
75
-122
39
41
-105
-27
60
-57
-34
-74
-99
-9
20
-5
20
-107
44
4
-74
-10
4
-17
34
-72
-44
-8
74
-15
-81
-65
-84
107
127
-16
-42
14
46
-35
-16
-123
3
28
18
-10
57
76
98
-90
7
39
-116
5
-22
-25
69
-46
-75
