-82
75
8
38
127
-58
76
76
-19
-16
38
-46
-4
-33
-60
-13
86
20
-44
60
96
-8
-83
-53
-75
-16
-89
58
-28
-9
0
-46
-10
-19
-21
-98
32
46
76
-90
-60
62
85
-16
15
-79
32
57
-4
85
-41
-44
59
-115
52
-61
-21
12
-9
-60
-78
-125
19
44
-91
5
-23
-90
5
11
33
-47
-12
-13
-65
-6
-55
16
57
32
-3
-127
-45
-83
18
-23
42
-43
-49
39
-45
-10
99
-86
45
-56
52
42
-35
-11
24
60
-15
-8
52
-19
38
26
-40
-63
18
-29
10
5
-25
-20
32
28
-36
-84
-72
41
-54
-18
13
-92
-15
-4
-81
16
54
3
27
0
27
-20
-56
23
12
41
62
-49
30
-127
-44
93
41
-44
-53
-51
-23
-52
-44
-26
27
-10
-63
2
86
-25
-63
-40
-51
-4
-20
-1
38
48
-127
-60
32
44
-40
-62
24
23
-37
-48
-13
21
-5
-22
-16
-18
20
24
-56
-32
36
62
93
-35
-77
2
17
11
-37
-4
-42
123
-111
-61
75
-1
34
-7
-52
8
-12
127
29
-26
-44
52
31
-27
-44
34
44
15
-98
80
99
-23
-7
-31
22
81
63
35
28
0
-72
-5
15
60
2
-1
-42
47
-44
94
-59
40
-19
-33
45
59
-99
-10
-5
-16
30
38
58
-55
-6
-17
-4
-15
-15
-20
-85
-69
52
4
-89
-99
48
-59
-110
35
-34
-22
29
68
-29
94
25
-27
-36
-58
127
-39
38
25
-12
-46
-86
19
-52
-42
3
-42
45
12
4
-108
-78
-48
55
76
-96
21
58
58
32
111
-55
-127
-57
38
78
36
-65
27
29
-64
-62
-40
85
36
-83
-88
-2
12
-69
-74
-65
-9
70
49
-21
71
98
43
62
-59
11
18
-15
19
-65
-59
0
11
31
24
18
15
64
-39
-54
13
42
-23
-10
-26
-7
127
-50
64
93
-93
33
-12
-7
-21
-44
-39
16
-24
10
16
-61
76
46
-86
-5
-12
-23
5
126
54
-87
86
7
52
30
61
-5
84
-4
20
-8
-49
56
34
-7
127
-65
64
-33
-12
-80
34
-83
33
94
-54
-30
8
-4
23
-35
-54
40
-75
-46
-42
26
9
-100
19
11
17
-9
29
-69
-60
-91
-71
-22
53
45
-29
-72
-106
12
-57
-6
-51
-3
52
48
-127
2
98
109
8
-32
-101
-3
97
53
-64
23
-126
-124
47
-30
44
72
-17
69
66
91
30
-17
6
-44
-52
-25
-43
-98
81
26
2
-74
-104
52
40
63
-74
-60
33
-18
26
-33
45
-42
-19
44
4
93
-19
26
29
-127
26
8
-70
68
-91
-58
-19
-56
-49
-9
-88
-5
8
48
33
85
36
75
76
-19
4
38
50
-41
14
30
-45
76
-43
110
-11
30
-43
-67
-114
-116
-30
76
69
59
24
101
-37
86
102
-27
-90
83
0
-59
-88
127
85
-67
-1
-13
14
-63
-84
-54
13
20
-2
-66
-8
77
101
-66
92
47
-7
-53
-106
107
-22
27
-25
13
2
-61
-20
-11
-27
5
-127
21
37
20
-35
-105
-104
34
-1
-66
-31
7
64
24
115
-3
5
-48
-21
-82
-44
-51
-32
-71
13
50
-27
51
-68
20
-2
82
3
65
-25
20
-57
-51
50
37
11
-63
30
3
32
10
38
-80
45
-71
-23
41
26
88
-33
-12
-34
-15
3
10
-3
13
24
33
61
-44
-27
5
-47
-81
81
39
-4
74
-127
108
-41
-7
24
42
10
14
17
37
-48
-37
-50
-25
52
55
-57
55
-76
-69
-94
-12
-19
54
-8
45
-13
51
13
-52
9
-38
-47
82
66
72
102
-14
1
-34
-2
-44
-27
25
-5
81
-23
1
96
-105
-68
-127
-72
111
79
-80
25
-115
86
-65
-23
97
18
27
127
-36
49
-23
-26
-35
64
60
-39
-36
61
29
14
39
39
0
6
22
-2
-36
50
-37
27
10
-2
18
32
7
72
-49
-88
-20
-1
62
-1
109
16
-109
43
29
51
13
0
21
73
-35
-39
-72
-62
-74
31
87
32
-34
47
-67
-44
-10
13
69
31
39
-69
5
-15
31
61
-1
20
-58
-2
29
37
34
-2
1
45
-88
-58
78
-127
66
-93
3
-5
23
3
-39
46
0
-22
-38
25
-44
95
37
-9
46
-98
3
5
55
-80
-67
70
43
-42
-14
-29
14
35
-28
34
35
48
-11
-90
-59
-47
-79
31
-65
73
-59
-37
-73
-7
85
-21
55
35
43
-19
-29
-11
15
-37
3
-22
38
-116
-2
127
-34
40
9
73
62
13
-12
68
37
-38
-50
17
-30
-7
-30
70
126
-61
-11
-9
-53
13
26
-38
31
-37
-27
106
127
58
54
125
21
87
98
-13
97
38
-69
-7
-86
-42
-80
-12
-71
-10
50
-77
31
1
-2
22
30
91
10
80
20
-113
1
-56
-69
16
-127
0
-12
42
58
-25
-2
-30
3
5
35
53
96
44
61
-8
-23
-29
-41
-52
48
-2
44
-38
-28
-16
-12
33
-11
23
-31
-12
-58
7
-16
-9
92
114
-8
-33
40
-65
-15
-21
32
-15
-116
102
-35
-43
7
-60
-82
13
-66
17
-10
16
-82
1
-27
81
-26
19
-26
-37
-17
4
93
127
15
-97
-54
-21
-36
-1
83
-22
94
-38
-18
-118
27
72
60
94
-40
-53
-11
14
46
-51
-5
54
21
69
82
119
13
76
58
49
-52
54
52
-33
-75
10
56
33
35
-29
71
-111
71
-11
23
75
-30
127
57
34
-25
28
-43
50
5
15
24
-65
-27
-28
-14
85
14
94
-54
127
-36
-63
11
94
47
40
26
95
-82
110
4
1
-72
-105
-12
33
49
-12
-26
54
91
-83
27
9
-89
-114
-43
-57
83
81
5
97
48
17
-45
-28
77
-16
-17
-59
12
-20
5
50
-43
-18
6
-27
-3
15
98
51
-106
-91
-26
-30
81
62
71
47
47
38
86
14
43
-39
63
-4
-69
52
53
-60
35
-51
-17
102
-44
48
-25
-28
-30
-98
-4
22
18
-16
28
-127
-84
-42
36
-47
17
65
-75
-15
-40
39
60
8
30
28
30
79
48
64
-40
16
-60
-45
61
8
34
-16
11
3
8
27
25
-46
-48
19
-88
-45
44
-46
23
0
-30
-41
-52
-44
-46
25
127
-58
6
24
-2
98
86
-4
-125
25
-3
48
-26
-2
8
4
-8
-55
-16
-46
-34
-50
29
13
28
127
-97
5
4
-59
18
-35
16
24
-37
70
-117
31
-8
109
-45
54
91
10
81
47
63
-37
114
15
69
-71
-1
-38
24
-53
-6
-28
-61
87
-55
56
55
-82
38
-44
4
-14
-53
30
33
22
29
-44
46
-48
-113
-2
-43
-26
17
40
0
-34
13
92
34
20
40
-1
-68
-49
-99
67
0
-127
-3
-33
-11
8
-127
-58
3
-9
34
-99
23
116
94
66
-32
-11
106
-86
-75
-60
-3
28
-38
-6
-36
85
-125
63
-29
7
-36
102
-22
-5
77
-46
118
52
15
-70
-13
50
-35
-5
-56
39
26
-77
55
68
-41
-114
-49
-87
-28
82
-26
48
-18
55
98
54
-15
73
82
-110
38
-121
4
107
38
-4
-64
77
-94
23
-43
73
69
18
-1
42
-62
76
84
21
-47
-48
-11
-9
-127
58
-6
72
8
-103
42
41
-13
-63
-25
44
86
38
0
-54
-24
-21
45
31
-32
10
15
-127
65
-58
23
-10
51
30
5
4
-2
41
6
-21
-36
-18
27
8
22
73
21
37
18
-30
54
-56
37
-71
61
-20
22
9
20
19
12
18
41
-7
12
82
-33
-55
5
22
89
7
-2
-87
82
21
-30
7
-2
-2
60
85
-1
21
-60
-36
-22
26
-50
-21
33
19
31
-15
-19
40
-127
-50
15
110
19
3
-77
-57
-69
53
22
64
82
-6
51
20
50
-87
-101
-4
33
55
55
86
43
38
48
-84
30
18
-113
-36
-9
-23
127
-43
24
-90
-12
-12
-26
43
112
66
-25
47
48
40
-18
-23
-61
119
22
-20
-3
-38
87
-95
-29
-92
6
31
5
100
7
29
60
-28
48
61
23
20
-127
-15
-25
-21
8
-8
4
19
-123
28
39
-48
1
-49
-1
62
10
6
-16
-60
45
-21
-31
49
1
-87
-64
21
-67
1
-63
-77
0
30
51
6
-14
11
-88
-1
75
14
-74
-13
-3
-43
127
84
37
16
60
18
-70
-43
12
-3
63
23
-11
52
-30
45
1
-16
57
-50
-55
64
90
-12
-38
11
53
-59
-65
70
-45
-32
7
-97
-14
-7
101
41
-10
-35
111
-62
-17
97
-48
-5
11
-38
95
2
34
-14
-12
58
125
23
46
23
-16
-10
69
7
6
28
85
66
86
-1
-127
-64
30
33
-5
-28
-96
76
4
-51
-32
103
-14
124
-26
-55
21
67
0
-28
39
-26
-47
-47
-65
9
-20
2
-124
43
33
2
-53
-47
32
-47
7
70
-16
-25
32
-27
-112
10
88
118
-34
-52
79
-54
-62
-28
-42
-30
127
21
22
43
70
40
-39
-36
18
-15
68
-20
-44
11
-9
25
32
-51
84
-105
-30
-80
72
32
5
29
5
25
-18
44
38
-2
-1
-8
27
-95
11
50
-22
13
32
77
17
-96
126
-62
-127
23
-27
41
18
35
59
22
47
-89
-27
79
90
-73
-66
-68
-29
-40
54
75
-46
-52
9
2
-49
-25
-10
-118
-34
-40
51
-70
-85
15
42
89
64
-30
5
41
74
80
-68
33
-11
-73
-50
17
10
-7
127
-105
-10
-68
-71
95
-13
-36
-11
8
-21
61
-54
-90
114
15
20
54
-19
-4
49
-2
-63
-70
33
47
-14
32
-28
6
51
7
73
-77
-48
-20
109
-76
34
17
5
68
22
-3
127
-74
-71
-13
-96
-18
-66
-87
60
61
8
43
-9
112
-37
34
-24
-51
73
15
56
-19
-17
5
34
-13
57
-4
66
20
118
20
37
7
-39
22
-39
-8
-89
-23
30
-72
-127
4
11
-19
16
107
-98
-4
14
-41
6
32
-39
3
-15
70
1
-38
3
-65
61
46
-94
36
-15
-26
-27
20
-78
-30
34
-13
93
89
-127
54
30
6
29
-69
-13
70
-127
-77
116
107
-99
41
100
123
3
57
-6
-43
79
24
1
75
-34
-11
53
-63
-119
126
-41
90
-8
127
94
-11
-53
46
-2
114
23
37
-59
85
15
-90
52
52
-45
73
80
22
14
65
3
40
-67
14
11
-54
34
16
4
-28
-1
-12
109
-17
48
-75
27
27
-13
-7
-96
68
-33
127
18
-56
-11
64
70
-14
-21
-54
57
-2
9
-20
-4
34
7
-16
68
42
-18
29
-65
-22
26
15
28
16
60
56
20
-5
24
17
36
-11
-15
50
10
0
27
-18
29
-1
13
111
18
-66
-12
-31
28
127
54
2
34
42
-54
15
22
34
44
-42
-4
93
-53
-23
30
11
-11
-62
53
80
92
8
-18
66
11
-8
-82
-31
127
-61
-43
11
57
-1
-21
59
-74
-21
61
-16
31
84
16
-73
-41
4
96
6
25
33
15
-79
26
-97
2
-127
-7
72
-31
-37
17
-13
-58
-84
11
-26
23
98
24
90
54
-99
66
3
-25
76
-56
-32
-37
47
1
-41
-23
27
33
-56
106
44
-23
103
-98
-13
23
51
-38
53
82
44
-92
28
-48
12
85
70
-31
-64
53
42
-12
55
6
-43
-18
48
-44
-40
-4
-2
-19
97
-53
-40
-15
-86
-54
-3
-1
37
18
-1
75
-5
-6
45
-36
-35
-14
2
-52
58
-127
-42
10
-86
61
-57
-33
-73
-1
-121
-52
-68
-86
40
-48
-26
-15
-56
83
-92
61
-23
-47
13
96
122
79
-9
-28
41
-21
127
-68
80
-32
47
-8
15
58
12
20
54
112
80
-64
-1
-29
58
-10
-68
21
44
-18
-60
74
48
109
-48
88
-67
33
83
28
38
64
-81
17
-22
-32
-31
3
41
127
-54
-11
33
37
-64
27
18
-21
-16
-34
-3
47
-17
-50
8
26
25
51
8
80
107
29
-97
-53
-7
24
72
30
56
-17
-97
30
-28
-37
-10
26
127
29
71
81
-63
-19
116
-105
-26
-17
-23
64
14
98
45
-32
28
-31
-43
-8
40
13
-20
54
32
-22
20
60
15
-17
-4
53
26
-18
-41
-55
31
-3
-17
30
68
45
-10
20
-4
24
32
-20
15
6
22
-21
3
34
22
32
1
15
52
-47
32
21
-1
12
-39
-10
-21
-47
18
40
-4
27
77
-32
3
23
-82
-11
-30
-4
127
-22
12
12
39
25
-46
31
-64
-10
-3
-11
-67
-2
-35
33
-11
30
35
27
-12
14
-57
-35
30
-12
-2
-68
6
91
-12
60
12
56
88
-21
127
71
-13
-53
-15
34
16
78
4
-107
-11
-35
-35
-1
22
-38
40
24
20
4
-15
41
108
15
-19
0
-3
96
-27
11
53
-8
-50
30
53
-40
16
2
-33
38
-5
94
21
8
30
-68
-23
51
-25
10
-99
43
-17
-32
-12
-28
-56
44
-48
58
127
105
-62
4
-41
36
-39
-7
5
54
-14
-88
-62
-77
62
-15
127
-26
12
32
-48
-21
109
-94
27
-65
-39
54
16
74
-15
-18
4
27
71
28
103
95
50
45
-51
49
14
-18
-19
3
0
101
-5
-41
-58
-77
34
-42
24
31
73
23
-3
62
-16
-11
64
13
-6
-52
2
106
21
127
21
-31
29
-23
-49
37
-28
12
24
-59
-39
53
-22
-22
-60
60
-27
-8
3
47
-88
41
6
-94
-7
-57
27
-47
16
-46
-118
-57
-34
5
-25
60
-32
13
43
-4
29
2
44
61
-31
-30
-16
44
-88
7
50
28
-52
-101
-6
6
28
-76
-5
-127
44
84
-6
95
9
57
-63
-49
52
22
-44
26
-19
44
28
-85
-38
-61
8
125
43
-30
-13
2
100
14
2
10
19
127
76
-41
-89
38
80
-44
14
22
10
77
-125
-1
-106
-123
-16
-32
-92
-10
23
-2
21
8
7
30
38
21
67
-123
3
12
34
0
-30
78
30
58
70
33
-78
84
-95
44
55
24
124
-44
30
-98
50
44
73
-41
-37
35
38
-34
-56
115
74
4
88
-60
-26
-43
74
-29
-71
-40
-33
-41
4
39
-3
24
51
127
7
41
118
16
85
-76
5
-6
-27
-29
-15
-32
-19
9
23
20
-22
11
57
-17
40
-43
-21
69
78
-113
-91
31
44
16
-11
-9
-12
-74
127
-13
68
-83
19
-20
14
-40
108
16
-34
107
65
-14
42
13
5
-35
-2
25
-4
-31
45
-81
34
-100
-28
24
56
-61
91
12
-23
-65
-26
101
36
-31
3
1
55
66
87
17
-32
58
-12
78
-40
89
39
16
18
84
38
-41
-72
65
60
-79
30
-15
0
-50
-28
87
127
107
1
-34
-53
73
-86
-15
39
14
-111
-38
70
-9
47
4
-10
33
11
-54
56
23
43
81
88
36
8
-38
10
73
24
14
13
-35
57
55
58
6
22
34
5
-29
-13
-88
-36
-17
-69
65
127
3
-41
0
-37
83
-39
54
-21
31
40
-15
42
41
-26
-27
-78
28
21
19
-77
-6
2
24
-60
127
45
8
45
67
0
125
70
-7
27
-58
12
70
-18
-94
-19
53
-95
78
-18
-19
33
58
44
-98
-18
31
50
12
-13
10
-1
56
49
-11
-2
87
55
-40
-11
-23
46
-22
-117
-24
100
-1
-15
-20
36
40
12
-83
75
73
66
88
-89
-68
-127
-31
-38
65
-27
-81
1
44
29
-55
56
-36
6
29
-24
-32
-25
-8
-30
-100
88
85
-74
-50
9
10
22
127
-72
33
0
-8
-55
10
48
-10
-1
-18
-63
63
35
11
-9
-19
73
-33
25
-47
-42
13
-46
-72
81
-9
-35
45
-120
60
-6
60
31
1
-111
-55
91
-12
37
-4
39
-49
116
-51
-8
-18
-5
111
26
-6
-77
37
-36
77
45
-40
29
36
-83
-38
-91
36
8
96
-8
-30
39
-111
68
-11
116
-32
-22
-99
-25
86
32
-18
36
-2
-64
78
25
12
-50
24
63
8
-127
-28
87
-59
-15
110
24
54
35
42
34
-54
-63
1
-127
26
0
18
15
93
-38
-61
18
9
-16
21
-77
-16
16
-86
14
2
-117
63
-16
59
-106
49
-5
-50
-38
29
39
124
47
-34
-9
3
11
33
54
53
-40
78
52
-64
-51
-29
-11
-20
-4
-29
-73
10
127
-44
-62
-29
-26
-41
21
24
31
9
5
69
36
10
5
88
24
116
-27
71
76
-70
-44
-19
41
47
-22
-30
2
-31
78
40
-26
24
-4
17
53
-40
-22
3
10
43
-48
20
16
-7
25
-37
29
48
-115
31
-51
-53
102
-46
12
-48
22
-127
66
-76
79
-70
-12
65
33
4
42
-44
26
79
-15
-3
-1
51
41
-56
25
52
-103
-18
13
94
9
2
-15
-4
-66
59
-64
26
4
63
-32
-45
-27
-41
-127
14
-37
-3
29
20
53
-42
45
-56
27
46
24
-57
30
16
-4
-3
30
57
35
70
-32
8
-33
8
-31
-25
-93
39
16
67
78
27
-19
7
-13
-8
49
-74
-101
13
32
7
14
47
17
4
-2
-61
-19
23
26
44
127
46
-1
10
-13
4
26
-5
-35
49
71
-20
41
-10
-2
-5
-8
5
69
67
35
-19
-2
-12
-56
31
22
-11
2
27
62
3
111
-56
-50
-59
21
-41
18
105
69
46
88
64
56
74
-65
79
36
-15
105
-4
29
66
-121
56
27
-1
-12
44
0
-42
33
-127
50
-90
-18
103
3
49
72
-24
60
-33
-27
-99
-61
-62
109
5
26
-38
38
-31
0
30
23
-58
37
-25
25
26
58
25
5
-102
53
14
-8
-24
127
90
16
55
-44
57
11
1
42
-20
-30
15
13
-24
-33
-7
-65
-81
9
-110
47
25
20
44
68
-64
-67
-7
-10
76
20
25
47
72
5
-3
17
-57
3
-65
-26
25
-15
40
-16
-20
65
14
29
-56
-7
40
-11
-103
75
-12
-23
-11
-43
-2
3
45
28
-10
-127
44
-41
29
-84
27
33
37
-29
41
65
46
18
-64
2
33
13
70
39
54
115
0
-80
-40
-37
51
-97
-6
91
29
-20
-4
0
51
-112
-10
-34
50
42
90
24
-41
51
-52
18
-113
-40
-62
-127
15
66
-12
-16
76
60
-13
0
20
40
-50
67
59
-47
53
-35
-9
-40
0
-5
-2
44
-35
93
121
2
-6
43
-19
-63
-66
58
83
19
50
10
13
-11
36
1
-12
-23
-34
-17
-10
-6
60
69
37
-19
-127
63
21
-32
-12
13
-75
2
-115
51
7
45
-118
-96
-57
-12
27
112
-76
127
-121
19
58
58
-107
1
51
1
113
80
54
37
-33
-16
-37
55
23
-40
-31
-13
29
23
-54
41
53
-88
-14
92
-40
66
-69
120
-16
11
1
-80
-23
26
10
-69
-50
55
2
-16
59
38
19
63
38
32
-48
22
-55
-63
68
-8
61
9
-53
59
70
-87
-29
37
-86
67
-36
127
4
-96
-32
-4
-1
94
-62
-83
-24
-43
17
-11
70
36
-127
-18
-15
81
-77
105
60
53
-37
101
-47
-7
52
-114
34
65
-31
83
-75
5
-53
-78
13
-63
-60
33
-50
82
13
-48
-17
-20
56
22
38
50
-62
-59
-79
15
-120
-1
125
-31
-33
1
-29
48
-29
-8
83
45
-10
91
-38
19
-68
2
24
9
-83
16
-29
-49
-8
-31
6
-39
-21
19
6
39
-74
60
99
-19
65
90
-68
-2
-62
-8
-8
68
127
29
-45
51
-35
-21
25
-42
30
-1
52
30
-73
9
-9
-18
41
-24
-11
21
30
20
-62
-47
-28
32
-38
44
58
-33
29
-19
-52
-66
52
-21
33
107
9
17
24
2
30
-17
-8
52
-21
-31
1
-30
-112
-35
-6
-2
-22
-11
-30
-127
-51
-52
20
-86
72
31
-63
-1
21
-7
21
-21
4
-28
-8
25
-18
18
-40
-29
2
47
-52
95
-2
28
57
10
15
-48
-6
7
22
-127
3
-91
28
57
-18
-65
-16
27
46
61
8
-92
25
46
-96
-36
-9
64
-89
70
56
-5
-127
-75
1
-38
-72
-68
-40
-15
-15
104
-11
81
57
26
56
39
-26
-8
-11
11
-121
37
104
-4
45
-19
71
106
47
10
17
46
-17
-47
63
-43
-5
-58
-5
-10
30
77
-30
-102
-9
-127
82
5
-9
-30
-4
-11
62
5
15
73
-12
-9
40
53
44
-42
-61
-14
109
-32
-93
-16
-105
-43
-87
-35
-1
-8
96
22
50
-114
-70
-26
12
73
-46
51
34
2
-44
35
-92
12
65
70
-4
-26
27
68
27
-127
17
-42
-117
-76
-23
6
74
37
-19
-37
17
51
-21
-69
1
17
61
81
2
-63
-32
8
16
1
93
-15
-13
66
1
-95
-92
43
10
79
14
-49
-62
-49
-100
-91
86
59
-48
-35
-6
12
49
-44
-29
-40
-61
3
-8
-37
-25
16
-17
18
-51
45
-44
66
-9
101
41
53
-127
-56
92
0
113
67
-4
-61
-3
31
1
-29
-74
90
44
86
47
44
-9
28
-45
2
77
14
59
-54
71
-22
29
-10
-71
52
26
-9
33
40
46
-54
-78
10
109
68
13
-104
2
-77
26
-56
-68
97
-34
-127
-11
2
26
-17
9
37
17
-27
84
48
91
-7
-4
86
-52
-4
-1
23
31
79
-123
-10
16
22
36
-36
36
42
-18
-9
28
10
-14
72
83
51
-52
-44
-12
-41
-32
-9
12
35
58
-40
84
67
35
52
11
14
25
17
-38
29
-12
38
-40
-54
-16
-70
127
7
-38
20
-107
14
-23
-107
-14
-27
-97
-53
-28
25
24
39
16
-96
-21
-121
60
26
-108
88
1
-9
-112
23
88
112
15
75
-57
-12
-63
27
96
-2
98
-23
55
-87
-127
-42
44
-68
56
-123
80
60
85
21
-34
-8
-122
-89
-17
-60
24
-38
98
-78
83
-6
62
70
20
-15
31
25
-26
109
82
14
19
-33
10
-96
-4
-42
-6
26
-37
0
-80
-74
-46
66
110
106
16
-127
26
-34
-91
60
117
50
14
4
26
-65
-7
-69
46
-34
-39
3
24
-127
-23
-53
11
63
15
33
16
-24
9
-3
-17
-35
18
33
-40
29
-48
-26
9
-65
38
-35
-11
-1
-19
2
0
-78
-21
-17
-1
11
43
-2
1
-53
-100
-30
-31
-43
68
31
-40
-57
-32
-15
-66
76
1
-26
24
66
-59
40
-26
26
23
109
24
46
-107
11
-40
-11
-18
-5
0
45
-52
-13
0
-50
84
21
17
70
10
127
13
42
-69
4
-16
1
57
71
-34
5
11
-82
5
-60
-18
-10
-59
-10
-43
-39
-46
-15
32
-2
63
-3
76
127
-28
-12
-21
-34
27
60
-15
3
-63
-37
30
-20
40
9
11
28
-12
-35
-46
-41
-49
-12
-5
-50
-45
-51
2
-127
-5
-5
-31
3
-50
-12
-64
41
-9
-47
1
-24
-33
-66
-4
-52
63
11
-7
-79
14
63
1
60
26
-24
20
-105
62
-13
6
23
-29
12
20
-64
21
31
-90
-42
-80
-24
27
-22
45
-15
-50
33
-83
1
-3
-66
49
-38
49
-24
54
45
-83
-71
64
-5
-56
-5
18
43
53
32
-71
2
-41
40
40
40
-43
-79
45
31
9
-13
-65
-97
127
30
7
30
-11
17
-84
-6
-32
-51
-20
40
-48
-17
-6
-38
58
-127
91
-64
65
22
76
-55
-44
-46
-17
-8
47
7
12
-14
-15
86
-29
-31
21
-44
19
89
-104
-8
-34
38
-8
0
-40
-73
-18
-41
-27
-39
39
68
-13
13
11
7
-6
64
-113
29
-46
41
35
38
41
32
-61
-47
-76
-35
43
25
-36
-16
28
21
-24
-26
45
84
-9
-25
116
-37
107
-8
39
13
8
-15
-40
-62
-16
-74
15
28
127
-26
-84
-25
91
100
-35
-30
-95
-70
4
-35
101
-112
-9
-47
-19
65
-41
17
-12
-43
28
38
-65
-65
-72
-59
86
14
86
-26
43
64
-78
56
41
58
-49
28
47
2
37
-5
-50
-48
18
-12
36
-127
-103
36
-57
20
76
-70
-22
75
-19
6
-54
-32
-31
66
-62
5
-25
61
25
103
21
-28
-79
-52
-93
-17
-76
-20
26
-13
36
54
4
-26
2
111
-37
-20
-20
33
-51
-84
-27
127
30
-48
-59
6
-11
78
-105
90
108
-102
-38
-15
-17
-21
24
60
-53
-94
40
45
-37
10
-6
-28
40
20
-59
7
48
-7
-5
9
20
24
-20
-27
44
42
-9
54
37
-88
32
127
-17
-7
-27
16
86
-34
50
8
27
-93
-38
4
-21
-4
24
28
17
-68
6
-26
-58
97
-37
-115
102
-34
77
42
-58
-26
127
25
90
88
-27
24
-73
-5
48
40
1
3
-7
103
-31
-69
29
-34
29
-20
13
-10
-7
17
-21
-17
-70
94
-87
29
-29
8
-77
54
-5
-13
20
61
3
31
-26
-12
32
-8
-24
-21
-56
3
-75
-5
-4
7
35
8
39
-32
15
35
13
-1
46
-21
6
-10
51
27
50
4
-42
-127
4
48
23
-3
-3
3
-69
11
-29
15
13
-4
-2
13
-51
-50
-103
55
18
40
-40
-83
-105
-60
-11
-88
15
67
-19
42
-33
-64
-52
20
1
53
-70
43
127
50
90
-15
-88
-124
-12
0
68
33
-29
15
-18
-5
-62
28
-3
77
1
-9
-70
-57
-27
68
9
9
75
-5
108
-110
34
-36
-8
35
-91
27
41
-19
-21
32
-6
-47
33
17
-56
-125
1
-1
51
12
6
-95
-66
-57
41
29
-40
20
29
-83
32
-127
32
12
91
44
-44
67
5
-56
-22
-85
36
-51
24
31
31
-127
-8
25
-68
-72
66
-16
65
43
11
-26
0
23
-27
-12
-66
-25
41
-13
35
-22
62
-123
-54
-12
-5
-104
10
-17
-66
-14
41
-72
12
5
16
40
-1
-2
-49
-3
-37
66
0
105
-41
-100
27
51
111
-47
-26
-45
-91
-62
-60
65
13
49
16
-19
88
48
43
-101
97
-53
-67
-26
-76
-85
80
115
28
-54
80
53
-16
-24
23
-38
26
-87
-127
29
-65
29
-73
-36
40
-56
115
-60
20
65
35
-40
-15
-48
-21
-114
-38
11
-47
-115
-70
11
-30
61
-36
-11
21
-20
-110
35
45
70
-59
-79
68
74
-8
24
102
30
-5
1
-42
-52
4
60
67
127
43
-71
90
9
67
-115
-28
81
-46
9
-8
-10
117
71
120
-45
-54
3
-16
-68
-55
-46
-48
35
-52
-7
-1
-19
13
1
-40
-2
-95
-19
122
3
76
44
-50
1
-46
-100
23
-45
-75
-6
-41
25
127
-67
108
-31
22
-25
7
-113
94
49
-34
63
-8
-63
50
48
-20
-38
30
-121
34
-26
-68
20
16
122
-82
71
-47
86
7
-55
-28
-97
-47
32
-81
119
88
87
48
-4
77
-1
10
30
-2
41
-2
-126
127
93
-9
-1
-72
79
-55
41
37
-37
126
-61
-54
47
19
31
-3
17
49
40
5
81
9
-46
-15
-64
-6
40
-28
29
11
15
97
36
-48
102
13
-24
83
-28
-29
26
-36
109
-21
-127
-20
29
84
-48
-43
-31
-77
57
102
52
111
-8
-16
-98
-52
-33
-1
-30
-72
-22
-70
-76
63
124
2
-28
-127
-25
74
-62
-14
99
-18
-94
32
44
21
-49
-97
-77
0
-114
-27
17
-74
21
61
-6
-14
-4
42
-3
26
105
-17
-9
31
2
-34
55
-24
-32
0
27
125
105
3
-11
-85
-41
68
-15
20
87
-4
44
30
4
90
52
81
-32
-33
-15
0
22
-5
-91
7
8
-3
75
25
-84
-20
-79
-8
-5
127
71
95
1
114
-17
35
-28
37
-46
3
-19
-127
-31
-4
-58
-13
53
-4
-15
52
-11
-39
-80
67
49
-3
-61
-38
-91
53
29
-99
-12
52
8
5
100
-5
11
3
-49
-41
-72
6
13
-6
37
-60
-35
10
52
-69
-56
28
127
-44
41
-1
-7
-17
70
9
18
98
-18
22
58
-16
-70
63
-14
-65
24
-35
32
-29
8
36
8
9
-58
0
-10
87
9
21
40
-121
-33
91
38
-53
-22
0
-9
-10
6
-50
60
-101
-1
127
-35
92
46
-12
-36
42
-12
-38
14
-34
-38
-16
-44
13
16
71
96
-28
-5
-64
117
-31
51
-42
43
27
-10
-62
28
-51
-49
111
45
98
17
-6
-36
16
41
5
-73
22
50
18
21
98
-2
-17
-74
85
40
-5
-61
46
-55
-40
3
52
38
80
57
1
42
14
-9
-7
-36
-11
8
-127
15
6
-62
38
-43
21
1
27
95
-57
67
33
27
30
50
27
22
-18
-3
62
17
32
-16
-20
46
-46
88
-50
27
-40
-32
37
-43
-2
-55
-3
38
-10
101
59
-17
-34
-34
17
42
-34
-35
45
-31
19
-23
-23
9
19
-67
-127
1
-55
79
-15
50
23
34
-98
-39
-8
18
-35
-8
-12
74
49
-1
-41
-84
-12
-40
-36
10
7
-33
28
49
21
54
1
24
89
6
57
30
45
-20
15
14
6
0
31
34
81
31
45
127
-81
-25
38
92
32
-20
15
37
-8
38
-78
45
41
-28
-12
118
-13
92
-79
127
-53
41
55
-58
-16
16
-20
81
-25
-22
-57
59
79
-26
-77
20
28
15
-40
62
76
65
-20
-5
27
-5
-84
33
-76
-70
87
-44
13
15
-45
23
-10
5
-94
-18
37
-21
114
86
0
-2
-3
-63
-20
37
16
28
35
-60
29
55
37
41
65
78
-5
-61
-16
-111
40
-38
13
-49
-87
79
63
37
49
3
-80
-26
-91
48
29
-55
-23
116
74
65
-73
-120
75
-70
127
7
-17
-20
35
8
26
67
22
-68
-16
-122
-48
-6
-2
-80
44
-19
-13
-55
-52
24
36
26
35
-16
9
72
-9
-13
-22
19
26
-47
42
-11
-7
-19
-5
-35
-42
38
39
89
9
-33
-35
127
-24
-4
-19
-18
127
74
7
-40
-29
-14
-16
1
-57
30
50
9
-14
3
38
-10
-26
0
-4
117
33
-70
45
-75
-35
32
42
-84
-30
32
-47
64
-82
54
30
-23
6
1
46
9
27
33
-61
-37
12
-28
-17
-5
27
78
19
29
24
-28
45
-11
40
-5
-88
5
-38
-38
-41
-20
20
63
10
-8
33
-76
-24
10
54
76
0
7
0
20
0
4
-127
5
0
27
31
5
-17
-6
-40
-3
17
-30
37
45
3
12
-10
45
-58
-101
57
-30
20
40
32
1
26
77
2
-3
-48
-26
-20
15
-70
22
-46
8
-47
54
-90
29
12
5
127
97
-14
18
-15
-31
12
10
54
57
-10
0
-38
-30
-52
-6
63
34
-56
-46
-39
63
-8
-53
11
31
-2
11
-11
-32
-27
127
-51
-61
-38
-25
53
21
-33
-17
-102
44
24
18
89
-24
49
-43
-10
46
-91
-50
-40
-36
45
30
64
15
-28
15
76
14
-1
-34
-20
55
-79
-40
81
7
107
-46
51
55
-79
29
58
-50
-47
-28
57
-22
-60
13
74
52
80
112
47
103
94
8
71
28
63
-38
127
-27
25
-77
-81
-101
51
116
60
-50
24
42
47
91
6
-37
16
-107
22
-119
47
105
82
-11
-49
1
-127
-44
-115
46
78
52
6
44
-35
-10
99
-87
76
58
2
-52
12
101
57
-34
7
37
3
43
33
-32
-32
39
42
86
56
-19
-10
36
33
20
-39
26
-50
33
-57
16
25
-43
32
23
-34
17
-89
10
-22
-45
90
-74
-5
89
-27
-12
62
-22
30
46
-13
-88
-46
12
24
74
12
-85
26
17
78
-80
-31
-54
-54
73
-3
-5
28
37
-88
21
-64
-32
-20
127
-88
25
-40
-72
48
-17
61
-12
-55
-81
1
-5
22
-1
-30
108
-8
31
44
-16
-29
56
-56
8
32
-80
-37
9
-13
16
-109
-80
42
-14
51
-39
77
-20
-88
-52
-20
67
114
-36
-127
16
-43
9
44
-68
-70
-127
45
96
-122
-21
49
101
38
50
-21
37
-27
-72
-26
-55
-1
17
-24
49
105
-47
-93
105
-78
-21
99
-52
-9
-2
68
1
70
79
13
-20
94
118
-17
41
44
0
-57
9
-5
66
-42
8
67
-44
-9
106
9
64
-84
3
-45
-9
22
13
-22
61
-82
-48
-41
-24
-50
-35
38
12
23
-32
14
-5
97
-12
-53
66
-50
-127
-3
-61
3
17
-34
70
17
-13
-9
38
10
60
-34
-33
-58
11
36
19
-12
37
-30
26
-9
-31
-23
-20
-68
37
93
113
-68
-32
-18
-5
-49
11
-49
-24
-20
-37
30
81
55
-70
-46
-96
-45
62
17
-34
-62
-37
-17
-40
-76
21
11
127
-65
38
-26
-87
68
-56
20
-83
57
-46
-55
7
-75
63
46
-15
64
-13
-31
-56
38
-22
55
57
82
-42
114
25
33
45
41
-79
-58
124
68
-27
30
10
-19
15
-127
65
85
64
44
25
-19
19
51
59
-42
85
9
-37
25
-23
19
-8
126
36
2
-14
-69
-9
-33
33
88
-17
-9
42
-26
42
-9
-85
-2
-127
-32
-6
-62
60
-57
-35
10
-82
-68
-3
5
-3
4
26
-32
-44
-37
84
1
10
5
-25
-68
-58
18
-42
-55
-65
-119
-27
126
96
-6
-25
72
40
-33
-74
-82
13
99
-21
18
69
-55
-75
2
-29
-17
16
-8
13
-31
-66
10
7
22
79
115
-62
-2
-127
-59
-14
-40
-62
-56
-38
-20
19
100
-50
7
-101
-23
50
-38
26
-100
3
10
2
35
50
18
74
-52
-127
27
-56
26
-49
-63
10
25
110
-54
40
-1
-78
59
13
91
9
36
10
26
107
36
78
13
-41
10
5
64
-8
69
-56
67
78
38
14
127
-77
-18
11
28
62
-4
-15
121
-61
-29
7
41
-42
22
-38
-24
103
-6
58
2
-76
-6
-29
-27
-62
67
45
16
-50
-49
17
79
-59
37
93
5
-32
7
96
100
18
-7
-42
103
0
65
23
25
-23
-16
-1
-27
-66
-14
-75
9
-127
9
-68
26
-18
-52
-64
-12
-20
65
24
16
23
8
29
18
13
60
38
-42
-60
43
-4
45
4
-106
-41
38
-15
-39
-43
98
91
44
-3
-74
-75
48
-40
10
-64
-77
-117
21
-56
43
4
75
7
53
-29
-35
58
19
-16
22
6
11
-52
3
-4
106
13
-51
-127
-65
24
-7
8
62
41
8
-96
-4
-4
-73
-8
-18
-28
-73
-91
-9
52
-23
3
-15
26
3
0
-48
35
44
-19
-18
-68
52
-86
48
86
27
-12
-20
82
26
2
-24
38
-56
34
-20
90
51
94
62
40
23
79
72
-20
33
78
-42
44
-86
17
-114
52
43
-42
-127
1
16
-11
46
-21
-30
-45
-27
-127
-50
-88
20
107
67
-46
70
9
-3
45
19
25
-17
5
-24
-33
60
-4
35
-111
-103
-55
-54
40
-41
-1
26
6
-4
-76
-85
-8
-54
10
42
-15
-6
-8
-4
3
29
-26
5
53
-6
-11
-1
1
-67
114
-3
-26
-40
107
-7
15
82
-27
-23
-1
55
71
-36
-28
-48
68
-125
74
-20
46
2
-45
-41
35
39
-8
69
-7
46
20
-70
-56
-62
6
-127
11
126
-117
1
6
-68
48
-11
-46
-30
32
-57
-24
6
-27
123
-17
-15
-56
46
18
-2
37
-19
59
32
115
69
34
-127
41
57
63
-20
36
-38
-61
-18
-79
-33
-103
-40
-56
3
79
-67
90
-97
30
-23
-54
27
34
48
25
-103
-48
17
-57
8
42
-3
56
-49
127
35
-12
11
12
-55
-57
14
29
9
0
63
-13
0
-62
-14
-23
-9
24
-49
34
-54
17
-77
-4
31
21
-7
-21
-24
-28
33
-11
12
56
-31
-62
-5
30
-89
59
65
25
-7
12
-34
-18
8
33
-53
-65
-39
-64
-39
-21
-9
-34
67
36
18
-30
-26
43
-2
127
-3
53
35
40
-77
-37
-5
-1
46
-20
87
6
22
-4
-35
38
-15
-19
33
-39
26
-20
-101
-53
-42
28
0
-29
62
76
127
-6
3
8
-9
-50
-119
-53
20
36
-4
87
-49
71
-62
-71
-5
74
-81
12
20
73
18
-63
-65
-16
-96
-37
19
117
-24
61
-35
48
-9
23
-93
53
-43
121
-21
-29
-54
-7
29
31
0
-127
-5
-24
-89
-42
-45
-50
42
-14
-54
16
59
107
111
-47
-4
-27
-70
23
-14
-63
-26
-1
-37
13
60
70
-30
-34
-27
7
13
-81
-27
0
-27
104
21
-52
93
-32
45
-37
-4
-57
29
-67
28
17
10
-4
39
51
-13
-95
-37
-3
44
17
36
61
-16
-85
3
-83
22
53
52
-94
41
39
-47
36
-104
14
-101
-39
68
64
-127
-44
-81
-73
-28
-14
32
-35
-50
-103
58
-5
-3
6
-14
12
16
-27
62
-2
-61
-38
35
82
23
106
-27
-40
-48
-14
23
-58
45
-43
9
-54
-46
-34
-70
62
10
-43
71
41
-21
-12
-127
33
-12
-6
57
39
-37
24
-2
89
39
13
-80
-65
-45
8
-62
22
-73
30
79
-6
19
-35
-17
-89
-25
-45
38
-93
4
-14
82
52
-44
5
65
54
52
98
-35
-29
49
-80
-2
127
11
31
-58
96
50
37
23
125
-31
-53
-47
-23
66
-20
18
-13
-41
22
61
58
11
13
9
15
34
-13
17
-13
9
-30
-49
-32
13
-4
111
-13
6
-44
20
-17
16
-39
-29
20
22
8
-127
-1
-46
106
105
51
-72
-63
9
82
21
-16
53
-127
-35
75
-33
-30
37
-59
-19
34
28
29
-7
114
1
-4
-32
17
-12
-24
-2
127
30
-16
81
-34
-16
-85
-21
59
-95
90
-16
50
55
3
-39
-14
81
-31
65
34
-62
-36
12
-21
-60
-9
28
2
7
18
-33
-5
-27
16
-7
20
2
-13
-122
-51
2
4
6
18
-42
3
35
15
0
4
3
-19
-100
35
-57
82
-58
4
66
-23
-50
0
37
-21
4
-56
-8
46
6
127
-19
-16
-31
-30
68
-27
22
20
14
58
20
-14
26
4
-44
-12
-1
23
12
75
34
4
-84
127
52
-14
-22
23
34
-6
-10
-5
11
-48
-37
62
47
-26
-18
9
24
72
61
81
-29
-51
-59
117
3
89
51
-21
53
-29
-127
-14
58
29
3
-36
45
-101
-54
7
-15
-21
38
-14
-2
77
-9
61
14
-14
55
35
-29
-38
16
-3
-30
40
-54
-25
33
-2
53
-18
-34
22
76
-5
7
-67
32
57
46
27
-101
4
-45
29
27
-61
-33
9
-20
-10
-35
39
-20
37
-72
22
3
40
-127
18
3
-27
24
81
-66
1
2
-11
48
9
56
32
-62
47
11
-31
15
25
-40
62
79
-30
19
-10
14
57
-12
-12
39
15
-4
26
-22
-20
-3
-24
38
67
-31
-37
-17
68
5
21
35
28
26
9
34
17
-127
-92
22
10
-46
46
63
22
-15
6
62
-57
-54
43
1
68
-51
47
8
30
13
-75
-4
-54
72
27
-28
-84
50
-25
-109
-44
20
18
-82
-10
-71
-38
-83
47
52
-10
-18
-88
3
57
127
113
-32
8
-37
13
64
33
54
117
-10
56
-110
18
78
-6
30
5
-30
11
-51
-48
-70
50
-9
-2
-126
1
42
18
-32
83
29
127
6
-41
-65
-8
56
-31
-77
61
54
48
-25
-59
-30
34
66
-20
-6
-31
-14
63
74
-97
-108
6
32
110
52
-72
-33
-89
-72
-16
12
-35
-22
-103
58
-37
-67
37
-40
26
-118
-78
-4
-116
-15
-9
-14
-12
54
12
-32
30
-8
-3
-8
30
74
-42
17
-60
46
24
-127
81
31
22
-22
-93
-5
-23
-94
-40
-1
5
1
21
20
53
84
65
72
29
67
-32
-16
-67
16
-43
-19
-70
37
-68
17
7
-43
-24
-25
78
90
24
31
57
23
-32
-60
22
-19
-4
-90
1
9
5
-12
14
-66
-21
-127
-5
-56
32
10
20
13
73
-76
-14
61
83
7
-72
-7
-34
-22
-5
12
-21
2
-109
-20
43
51
34
-33
127
21
117
-38
47
41
-20
-42
60
-15
-51
-31
-64
-42
-64
4
30
-49
-93
9
10
51
-14
98
81
-63
85
-48
44
-20
-30
57
125
110
-35
28
83
37
-34
-25
-127
-21
14
9
62
35
20
20
85
-56
21
3
-41
-57
15
-70
-6
7
43
38
43
42
15
59
-25
-28
-31
96
64
-50
102
28
-26
-4
39
47
-114
127
63
-12
19
24
15
-18
58
-1
67
-72
65
38
49
-17
-57
-43
-4
-5
42
-5
38
-40
28
-29
-85
15
63
-58
17
-56
13
-52
53
-26
-40
35
75
35
-97
36
62
35
-30
0
32
-8
14
47
-49
36
72
13
-22
21
54
-7
-27
-2
-127
-32
87
-32
-49
-37
54
-91
-55
-5
-37
86
29
24
11
-8
-58
-47
-59
49
-59
-37
-4
-22
60
36
-25
-29
-53
7
-4
-3
99
-127
4
16
4
10
-87
-42
-35
51
-18
40
-5
-48
96
-48
-2
3
-46
-40
-42
-22
79
-51
72
94
-28
43
-44
105
-124
46
83
6
-34
61
17
-19
36
10
46
127
67
-13
-34
-15
-64
-36
37
-50
-31
51
-26
55
10
-91
11
-63
-76
77
-10
85
41
-24
-4
-104
47
46
44
-103
-96
-49
-7
41
100
-55
58
-62
-53
42
76
4
-10
29
-27
37
7
-21
76
-56
66
25
30
-15
24
0
72
21
-51
7
28
-10
-59
123
-75
-30
-79
-20
23
-12
127
61
-24
5
-123
81
-13
-127
31
38
13
78
68
98
-12
67
-104
59
-28
-89
-11
-22
47
-47
53
1
-41
60
66
17
-10
-39
77
-10
62
72
-37
-12
9
-71
-43
-46
-87
72
-13
-54
-48
35
80
-34
-35
-14
-1
-24
16
-51
33
25
69
31
-36
102
-54
8
-47
-14
15
-61
13
-35
58
-17
100
99
35
-95
-58
53
-127
-1
-34
-55
74
48
16
-12
35
5
26
-17
23
11
-24
-71
-41
-40
21
14
3
-45
14
-6
-46
1
117
-39
-3
-16
-26
-76
39
-37
15
37
-20
-50
66
28
38
-17
-3
-27
-35
-99
76
-8
127
-96
117
87
86
77
-58
-4
18
-11
-47
51
-17
90
-5
42
61
-47
-11
-59
68
-8
-19
-12
53
12
40
37
-33
-63
-23
61
-5
9
-59
48
-61
31
44
61
64
10
-43
33
86
13
26
-121
19
-18
-73
54
38
-15
-65
85
8
63
-17
37
-58
-90
-36
27
-34
30
127
13
-10
-35
-55
35
23
-17
-12
79
79
-99
19
-68
6
-6
-62
35
115
10
35
73
73
5
71
-66
-11
-22
22
90
66
28
10
-13
-59
52
-108
-76
17
-59
84
-21
-47
127
53
6
-3
69
-53
-53
-3
17
-10
115
37
2
21
-78
-9
2
82
-127
40
82
29
-110
73
7
-22
-26
-41
13
-16
-24
-34
-116
-97
-16
88
-73
6
9
19
-34
-42
64
-34
-26
2
-9
26
70
-54
42
-23
-50
18
15
35
48
25
0
23
-127
-93
-14
46
-32
25
5
18
17
-11
-22
-16
-34
16
-49
0
40
14
44
30
-21
5
-32
7
-11
58
42
29
-27
-35
28
2
24
13
60
-52
34
-36
0
-64
-71
-35
4
62
9
3
17
21
-39
52
15
42
-17
-40
54
-2
17
-52
26
-39
23
66
73
46
36
25
65
43
4
18
-19
-33
-52
33
11
22
28
-27
54
18
59
32
-20
-37
-6
-33
-26
43
-17
5
-28
-127
-14
42
-11
-17
-5
-48
-95
-34
-22
66
41
-10
-17
-44
-49
-68
-98
37
-35
11
38
67
50
-20
-89
-16
23
38
-127
48
15
94
-14
-20
-61
-9
104
50
23
-50
-15
-80
-35
-93
-60
9
25
123
-88
68
-34
-25
39
8
61
6
-59
-69
40
53
-6
3
72
57
-41
-2
-14
51
48
49
-5
27
-17
-39
5
-119
-60
-53
-33
-6
6
2
-25
29
119
65
78
127
-1
6
50
-76
-84
-38
-12
75
24
-53
12
4
-8
103
-14
27
-71
-38
-14
33
-41
-28
-77
39
-39
14
-51
11
8
1
-57
101
12
-96
1
-41
25
-1
0
101
-19
45
63
-39
-26
69
-103
17
127
-46
7
1
-81
91
51
-89
18
-76
72
-6
-54
4
17
127
-47
95
-107
-12
13
-70
33
72
1
37
87
36
10
53
-40
30
-33
97
11
42
-2
16
69
-54
25
29
38
-119
3
63
-14
23
-2
76
12
63
-3
38
-69
66
32
60
-15
-18
-68
-29
-82
18
-9
-34
32
50
46
-94
-124
35
-81
-55
-9
-45
60
16
37
-21
11
32
-34
-22
25
66
24
-36
-84
-11
25
-85
127
89
86
70
74
33
-17
-54
-13
61
6
15
47
111
-29
66
-79
-74
91
36
67
4
-67
-13
42
33
-31
74
-2
-17
17
10
-18
-8
58
53
8
79
-2
26
-20
17
-17
-46
-21
2
15
48
-36
-26
30
-127
-37
8
109
-98
24
58
32
59
-38
-62
-44
122
21
-85
-47
59
19
-24
-22
-23
-62
75
-56
78
20
-45
-25
-34
26
-127
-80
88
-57
-54
48
8
-41
-42
11
82
-55
56
-55
-21
-20
12
26
-52
1
-5
-37
3
-82
-50
-47
-67
103
-82
0
-32
-47
2
-40
58
-9
-57
-29
-17
2
10
-35
-7
-36
-39
92
16
51
-17
4
19
-3
-32
-35
-22
11
37
-10
16
-127
60
89
-100
37
-54
-33
-68
29
-19
-29
-8
44
44
3
-18
-20
5
-29
36
25
-18
0
41
101
-86
-11
78
-25
27
-68
29
13
72
-39
34
26
57
8
3
45
38
-114
-111
-13
-32
-97
-21
-14
19
-16
-35
2
-45
35
-81
-107
-2
-37
-59
29
6
73
9
-50
15
-4
127
-16
64
-62
6
-43
50
45
-4
-36
34
-24
40
-24
-8
-36
29
-78
65
32
-44
45
127
12
-75
21
58
77
78
21
4
-10
35
-73
-1
83
37
60
-31
-53
3
29
-61
-17
-29
-32
-22
-30
28
-49
6
36
26
-52
39
46
-1
51
-57
-92
42
24
-17
81
16
-26
24
48
-28
-9
32
-20
-38
-55
2
68
24
12
-28
-3
-48
-11
-39
-98
-6
3
51
-4
-69
-30
127
-11
-49
-51
43
-3
104
11
49
87
82
-12
7
70
94
-67
17
-70
66
23
70
75
51
-96
-11
16
10
-50
-13
26
-76
43
-15
-19
-8
36
109
-10
-24
-89
5
21
-41
68
81
-15
-96
-99
109
59
-103
127
-65
-51
-90
22
-31
81
-8
22
45
-54
25
-45
5
-22
64
-26
55
19
-67
-87
-52
-86
42
1
5
18
-17
-7
-127
63
50
34
2
-1
1
-13
-9
67
97
-7
-25
31
-91
-67
-24
-22
115
70
-111
-59
10
-20
17
5
-55
-108
91
91
-43
-41
-67
-103
67
27
-58
44
-42
94
90
73
-20
-23
15
-10
-15
-127
-39
95
18
110
17
-31
-53
42
29
46
3
-5
-29
-2
-90
-65
99
44
-12
-99
5
22
-43
-11
76
31
-115
18
-7
14
-79
-127
-49
-70
-58
0
-23
66
71
8
21
63
31
13
4
7
47
-29
-3
6
62
-39
-20
-59
-9
-20
-51
-24
-16
69
-91
-76
30
84
14
48
-86
-59
-61
127
4
-33
70
-50
-41
43
43
-30
47
59
-28
-5
94
-44
-80
83
-31
-127
2
-4
-14
112
92
66
-19
-29
29
-79
-2
-13
13
1
20
-71
-55
-50
24
2
1
11
56
57
4
-50
58
23
-10
-33
-34
-32
-4
7
-14
31
30
48
-63
-65
-1
-19
-14
91
-2
-11
31
44
68
10
-76
-8
-1
43
-19
41
36
-6
103
26
-58
35
127
-21
-30
-12
12
45
-63
-36
16
28
-34
-44
37
-14
-66
15
31
-20
15
38
-9
43
43
21
15
-27
-14
-17
-63
-19
9
41
-9
-7
2
26
-53
41
102
-120
7
-13
-7
-75
88
-11
-127
6
46
-108
3
-21
6
27
0
46
-60
-5
-7
38
48
30
-9
8
-26
-69
-109
8
127
23
50
34
105
-68
-59
47
11
-2
-72
-44
-15
122
39
-39
59
-46
6
81
27
-71
42
-11
38
-62
69
82
-18
24
-64
66
57
-66
15
14
59
-3
5
-3
-73
62
-89
-41
55
