24
52
-41
-56
-94
-21
-49
-39
-56
93
-50
-1
-88
-99
62
-22
11
-127
-97
44
-43
-8
-68
-9
-40
51
-41
122
-28
-7
51
88
-127
-35
9
-12
-18
-14
-51
-26
6
-25
51
-30
-116
71
-56
-75
-32
-4
-6
26
-3
55
20
-57
-48
26
50
-76
38
54
3
77
5
31
15
48
64
-52
2
-107
-46
61
-67
-21
-100
-43
-86
-43
1
-5
-32
-7
127
42
-14
37
42
8
44
8
-21
60
-73
-81
-39
-57
-83
52
64
-1
-34
55
-99
76
57
12
-60
-44
-86
-54
-53
-72
86
63
-47
127
-88
6
47
-83
106
-29
52
-49
-60
40
-5
-97
-51
71
-37
49
-13
-25
-2
-73
8
-55
61
65
-8
-70
-23
127
-1
33
20
31
31
-37
12
-26
-49
25
95
34
-66
-48
-45
-49
-42
106
39
-102
92
-27
10
3
18
-71
127
-34
-89
11
37
101
23
-16
91
36
77
93
7
-73
-22
-18
31
107
48
40
4
-23
89
-40
-37
56
-36
114
-10
-22
-47
39
53
-39
100
27
11
-63
-51
3
6
4
-12
127
-66
-46
67
17
11
-102
14
-76
68
-76
68
56
17
-42
46
99
34
-59
17
-41
17
-51
-59
0
-64
103
-3
3
78
-57
36
40
-18
-100
-56
-40
-28
-127
69
-30
-18
22
28
44
103
17
90
5
-42
-22
-82
-56
26
-87
66
-65
61
-74
23
69
-45
-9
127
-52
29
33
10
-17
32
47
84
-1
22
-36
55
1
-13
-4
27
34
-34
-11
-54
27
25
-13
6
31
23
-10
-33
33
28
40
-127
-1
27
-77
-6
36
-19
-11
7
34
-4
-29
-29
-127
123
55
-60
76
117
24
-86
65
-57
-93
-69
73
21
-68
61
-6
-40
-92
12
43
-49
-66
-29
-61
105
-46
86
51
8
43
-73
-7
-76
-105
74
9
23
-53
-35
105
4
-16
25
97
72
-54
76
2
-41
31
62
47
109
-115
-11
120
-48
127
44
2
-77
29
-18
28
47
4
-3
22
32
-8
-87
-60
61
-75
36
-55
-25
-127
1
109
-25
-28
-6
8
-3
43
-103
51
-75
23
37
-2
-64
-5
34
65
10
127
100
-46
-19
-24
-92
-4
75
92
100
-8
34
-3
-48
-38
-33
-12
-12
80
27
-17
-109
17
-27
-65
44
-56
-17
26
-13
-44
-108
127
-7
16
4
-104
-84
-60
8
38
68
36
80
44
45
-54
15
-15
-19
-77
-65
-29
22
96
5
119
59
31
82
-64
8
-35
-52
32
57
68
98
-50
-41
-52
35
19
14
10
16
-36
21
-6
46
15
64
71
-98
4
1
40
127
68
52
106
-7
-41
-40
80
32
-106
11
-53
127
64
50
9
-15
68
-81
54
24
115
-126
79
26
52
56
-38
74
29
22
-116
-37
-9
122
36
46
46
-4
12
97
31
71
12
-127
-61
68
-2
-5
32
45
68
64
-45
24
23
22
-30
8
63
-19
-58
-43
-31
63
-33
-79
-72
84
-28
-29
-38
-60
22
-7
71
-61
-68
28
21
-24
20
-23
-18
-1
-16
71
37
127
42
14
107
39
-125
81
33
-40
0
-6
49
-80
-66
2
-4
28
76
-23
-79
-41
-34
-35
9
-32
22
51
-81
-82
-52
40
112
24
-28
81
-80
-79
96
-107
23
86
127
38
9
-56
17
59
-55
55
-107
56
-74
16
25
-39
-86
-93
95
69
6
-104
-36
-16
-127
56
68
63
-1
-48
-87
0
-98
19
52
-42
-12
-33
1
95
-45
27
-3
-50
93
-40
-56
-89
79
-26
-15
-127
-112
101
-20
-44
40
-15
42
-52
35
71
-5
65
-61
-55
7
93
15
-87
53
73
29
30
-49
-6
-75
-10
-16
-42
0
-127
-1
-45
-21
-62
-37
-15
42
39
69
-70
-51
57
-97
25
43
-26
-3
79
45
-26
-7
-68
16
79
52
22
40
-94
18
24
12
7
-54
-10
8
-37
38
-28
-26
55
31
-63
57
-54
-52
-86
7
127
14
72
-30
-14
-73
41
-16
127
34
-23
-60
38
19
40
-54
-23
-5
-16
35
-15
10
-6
11
42
-68
-38
-15
-40
69
-60
3
-36
-50
72
-78
-40
-33
-1
-2
40
-50
-56
14
-26
127
-14
-20
-64
-2
71
-64
-70
-85
-29
29
3
3
59
-33
-24
76
-16
-27
-2
45
50
18
78
20
-9
2
-35
-5
2
-8
4
-57
15
10
127
-12
-70
39
27
24
-18
73
-2
-55
-11
53
-31
-53
-25
66
-51
67
59
37
28
-19
78
72
27
-52
127
-52
66
117
90
17
-55
-5
104
120
-35
22
30
54
-20
-55
51
-34
13
1
-126
-51
-46
-65
94
15
-33
27
-15
-31
-1
21
114
3
-40
-70
-7
-26
-18
127
-58
-12
115
27
44
72
-10
-29
-87
75
-6
-83
51
51
-49
61
45
-41
-26
-36
47
11
31
40
27
40
-27
-46
32
51
127
-17
45
-79
29
1
36
70
-84
43
-32
75
59
10
-31
43
8
21
97
48
-78
-52
-36
25
-21
-9
49
-16
82
-15
-13
-53
-100
127
21
4
-50
89
-41
27
8
-50
-60
-49
6
7
-43
56
-33
-5
-70
-10
10
-74
-127
-72
-32
51
48
-2
41
-112
102
66
95
-35
-28
-118
30
85
-54
12
-22
-59
-20
127
19
37
29
-57
26
63
-42
-5
76
43
-56
-76
-20
40
0
8
-40
-14
77
-127
43
0
61
90
-13
48
88
48
87
-25
68
1
-36
-99
64
86
-4
9
-22
-7
81
76
54
36
4
-72
-32
-1
-46
-2
14
-21
-9
36
-98
76
20
-25
-67
42
39
-64
-70
-127
3
-30
-64
34
-58
-71
-95
-11
-99
-92
-111
-11
-32
53
-78
-20
-40
45
77
-27
-82
127
68
-65
41
48
24
-96
41
-1
0
19
26
10
33
-59
41
-66
11
43
-120
118
-41
40
23
-68
1
11
-48
119
44
-61
-36
52
-84
-22
-29
-55
7
55
54
13
-127
4
28
4
15
32
-11
8
-54
-33
-80
-106
-8
-23
-33
-26
-26
-32
-87
34
127
18
44
-46
-20
-60
57
2
-3
-57
13
-13
-5
93
8
-7
-12
-11
41
-17
-78
40
-91
65
-31
76
57
-45
-21
-44
7
44
85
-95
-127
4
68
-41
-106
-18
-86
11
25
92
-35
-91
127
47
51
58
-110
-75
6
117
75
-20
-31
-25
-23
-78
22
125
19
-22
127
-17
7
65
66
44
18
-16
-55
-72
3
82
5
26
-7
68
-67
-32
-14
16
-36
23
-55
-3
1
25
-55
17
0
-24
81
-36
45
15
-69
-52
-45
-90
-28
-118
-96
39
-22
-13
12
-127
29
-29
-44
-28
-102
47
81
81
-41
-24
61
-1
-97
71
-89
70
-66
-56
18
31
4
-58
19
60
-12
38
-47
111
-24
-25
-21
111
41
-127
57
-21
3
110
29
-29
-39
-33
-36
27
-8
116
50
74
-19
16
-58
7
39
-4
-31
23
-29
10
67
-6
84
-8
-42
75
-1
-14
-54
22
127
-13
89
82
-53
87
8
22
-35
6
-127
-26
22
54
-114
56
-36
35
48
-5
-54
-1
41
60
-35
-13
-21
62
-23
-58
18
50
-126
-26
-78
-54
1
35
80
50
11
-95
104
-53
-47
51
89
109
77
8
-30
-38
22
15
61
-20
16
127
51
-40
-16
33
-24
93
-24
-51
-14
-92
-20
-127
-15
-2
28
46
0
-29
-6
-11
-8
74
0
-4
20
1
36
-9
16
14
-62
-42
67
-33
-78
12
-42
15
-5
15
47
11
-47
-59
-18
-8
-1
2
25
7
22
-8
56
-77
-26
-86
-3
-47
11
-35
-67
20
-23
-55
-39
0
21
25
-58
-11
6
44
43
127
30
61
-85
-1
-44
61
19
51
-17
-31
23
41
-4
-22
-122
-17
-6
35
17
-36
-32
-16
-127
-47
42
11
9
19
15
56
23
38
66
16
74
78
-26
-12
-29
15
-122
52
36
-8
60
-1
14
-15
-36
68
48
19
-18
43
20
127
3
-39
-4
-2
-48
-86
10
-111
-96
108
-2
93
-15
-127
-16
-93
5
-4
35
-4
-32
24
-38
37
-104
90
-29
18
-13
50
109
34
13
16
10
-16
-94
33
-93
-44
59
-8
39
-31
25
-8
60
39
57
47
77
25
47
26
-68
-28
-55
127
-92
29
23
4
47
87
-68
-93
-28
-22
75
-4
-10
50
-31
-106
68
15
6
127
75
95
-17
-72
49
-43
82
-32
-40
102
-7
100
43
25
24
33
-17
52
-80
-101
-46
-5
-55
8
-107
-37
93
10
54
55
9
-41
57
45
104
21
-41
-9
2
34
-50
9
4
34
-15
25
39
-105
-23
12
6
-58
-113
59
-27
13
127
-84
1
31
-21
-70
-23
-70
-27
57
-88
75
17
80
-79
-68
-21
56
127
-87
72
28
-10
-55
-45
18
42
93
53
38
86
4
45
-69
30
11
-51
-38
7
54
-53
-1
-56
-55
86
-61
77
12
-52
24
115
-11
24
127
32
-93
-84
74
-13
27
-78
37
118
-23
34
-15
15
20
-60
71
10
2
-42
47
-55
22
65
26
17
-24
46
48
25
30
-2
18
58
71
-79
-4
53
36
-127
-39
46
-22
-14
-40
-73
-59
-8
61
25
-17
-19
-63
22
-42
-45
35
9
-12
44
-6
-44
-127
-74
102
-79
28
16
-95
-43
-57
-20
49
-85
86
91
40
4
-61
-69
-56
4
-26
26
29
127
-4
39
-2
15
-12
2
-31
-17
52
28
4
37
-11
73
-17
-39
-8
-67
-35
48
47
97
-34
127
35
-32
-21
-59
-15
46
39
-6
-16
33
14
-76
75
-9
52
22
65
-43
-27
17
51
-81
-2
33
-39
-18
-105
-23
-63
41
-41
-40
-52
-71
73
76
55
81
37
84
-115
-118
10
81
-18
11
61
-41
127
-49
44
-57
64
100
47
26
-84
19
-85
-75
-36
-21
-41
-24
26
25
10
22
-77
-22
24
-48
34
-29
-30
-68
28
-19
-45
50
-91
-5
33
41
67
-103
-127
87
-45
86
46
-24
-85
18
-98
36
4
17
24
45
2
-127
-78
51
89
-11
-24
-37
-14
13
71
-21
-38
-53
-76
21
-20
104
-23
54
35
-10
20
0
-45
-19
20
-114
-54
71
39
-1
37
33
55
-54
-35
-10
-62
-39
74
-65
-127
-10
8
91
95
-17
12
-65
43
-4
-65
-25
31
14
-7
25
-8
-24
-63
-28
39
127
86
66
-26
8
-27
-50
-113
18
-32
36
-20
-28
-75
48
124
1
8
103
-89
78
76
-46
1
-6
52
71
-47
53
96
29
15
-6
54
16
61
-122
-127
19
1
3
126
19
-47
86
78
-1
-27
-74
-3
-57
45
29
-108
73
1
-22
-71
4
-21
74
101
-127
-47
-53
-68
-27
116
7
-69
13
29
-36
19
-113
42
-24
-53
45
38
-10
-81
-43
-64
77
-49
-60
40
-28
35
-7
-77
5
-31
44
-63
1
46
99
86
41
-127
57
68
-14
-39
-49
6
-48
7
13
45
60
-23
-50
67
-60
-51
49
40
-67
-47
-40
-30
112
100
-77
80
18
25
68
56
-127
-77
12
46
35
7
49
-25
69
-47
-48
-35
-10
117
-39
29
-40
7
21
-9
-101
-25
-39
-8
-34
-4
-44
-53
-31
-94
-83
-17
30
-5
127
34
-34
23
26
92
54
-64
8
-48
52
34
-29
-33
117
97
-6
56
7
-17
1
-20
106
89
-97
22
-14
-81
67
59
24
51
8
-33
-62
36
-17
29
-25
35
-85
64
18
84
-28
-32
56
-32
-115
83
-127
-79
33
27
4
-84
28
37
48
16
10
16
-10
39
-15
-50
-63
113
-15
30
67
-2
46
5
68
107
-17
11
-13
15
-55
-127
-22
97
-36
-1
69
77
-45
78
-13
61
-57
-92
-82
34
-22
20
47
31
11
-48
127
-2
24
53
12
88
6
23
26
-24
17
102
-56
38
-32
-14
-77
-45
-51
90
63
43
-17
117
-49
-55
-127
-40
42
-5
-20
-9
105
87
-21
63
77
-116
-57
36
2
-91
-119
-4
5
93
-38
32
-68
-47
-79
-41
-76
95
-59
82
-127
-14
76
52
-4
-46
91
-40
-12
-44
54
-68
16
-12
74
116
72
-104
-80
40
77
-78
4
-91
-3
-108
-16
81
0
-46
15
-24
11
-45
25
-59
56
61
1
-48
98
-12
127
33
51
106
-40
-2
-8
-24
-65
-6
-23
115
44
-109
94
85
12
-103
-122
27
3
54
25
21
23
79
-1
-32
27
32
-58
-42
-3
-45
52
-12
-52
-49
6
-3
127
-24
-1
64
-5
47
3
-79
7
88
34
-11
-53
-76
56
-12
-56
43
-20
-10
-42
64
14
34
6
-17
47
-43
108
-5
69
-39
20
16
-20
21
127
-62
83
-87
-13
-98
-1
45
-17
-9
44
-55
-7
29
66
-24
-22
9
6
1
-48
-19
-127
-87
101
-21
-18
21
-1
-76
-22
-53
-3
67
-96
-54
-67
-38
-16
-75
-2
43
84
-21
-73
-47
-62
78
46
3
127
-68
96
113
-27
58
-37
-21
59
-109
120
-114
-99
-11
-101
25
-12
58
-68
-74
6
-60
-32
53
17
-12
-46
-18
-58
-4
-84
9
-28
-7
-7
-40
43
42
-127
-62
-48
1
-2
-41
1
12
16
-4
-90
-29
121
40
10
-12
-73
-84
11
4
-25
-8
-47
-43
-62
-97
-55
-93
15
4
-77
3
-72
-64
-127
99
68
9
-22
37
13
25
-117
-16
0
32
26
-28
-21
7
-92
38
25
54
-12
123
14
80
-118
89
-36
4
52
-94
26
68
127
-98
-45
-93
-37
0
67
-74
52
-18
-3
45
4
-126
82
-3
60
-4
127
26
-47
-91
26
27
-97
1
-35
-87
-30
62
34
54
68
5
6
10
-3
-3
32
-17
-2
103
-19
-2
-76
-54
-81
-15
-64
17
127
-49
1
-39
-26
-4
-3
27
-79
-103
106
26
88
8
-15
43
66
-74
20
78
35
16
37
66
13
78
-62
-28
20
60
-21
-30
33
0
27
-62
39
-56
22
51
-7
-19
-3
77
-27
127
15
-34
-45
12
-5
-53
48
-58
56
41
-126
-15
-5
-19
1
-48
63
1
26
-104
49
35
78
54
28
-18
41
51
-42
127
-10
-34
-35
117
9
33
-40
94
-35
-7
11
34
36
49
32
-127
75
-38
14
12
-29
-38
58
10
4
-35
-34
4
-30
-3
-61
-24
65
-44
2
-46
20
-14
-114
-19
0
-40
-109
-2
38
9
-26
-122
-78
4
-63
88
37
99
-88
-68
20
-127
-99
-26
-5
59
96
71
3
45
-25
52
88
-32
71
-86
-30
28
54
104
110
0
58
42
104
1
-63
-39
-55
-109
39
35
39
-35
-127
46
85
14
16
-24
27
54
-53
-2
-27
106
-28
-18
37
-34
1
-49
-105
64
54
-24
64
56
-78
-5
109
-78
-11
5
-36
45
-50
-8
127
50
115
44
37
11
38
-87
-7
106
-19
91
-35
-69
-5
-127
-39
-16
2
65
-74
-74
29
-62
69
99
-80
-22
21
-104
-29
18
-92
21
-62
-45
94
69
-17
-38
-19
97
-15
4
-55
112
-35
-20
-65
-110
67
127
64
62
-47
-21
-50
-67
46
30
9
122
-66
44
79
-40
-18
-62
20
-46
-18
-5
56
-13
94
27
-54
-14
-68
34
-67
-75
-60
-64
17
16
119
-127
52
43
-7
15
-4
-13
39
75
60
12
12
37
34
50
49
86
115
-10
72
82
-8
-36
75
50
-73
30
-113
17
7
-8
-12
-49
84
-28
-18
-30
-78
42
-32
-12
-46
-42
-27
-87
4
42
41
-81
-14
127
-29
74
83
41
38
-3
-4
-52
62
-21
-35
23
-3
61
117
13
67
10
127
102
14
32
75
100
73
-9
-5
103
42
-55
-19
74
46
22
55
-41
-26
87
55
-56
-19
-38
-5
-59
27
85
-21
77
-127
-107
28
9
-27
-98
12
-35
47
-12
76
-35
-31
55
51
1
-78
21
65
-77
-96
-62
11
-32
5
-42
26
30
-55
0
10
-127
-76
20
-38
60
-62
-1
103
80
64
-11
-24
55
72
-35
-4
-60
-99
29
-8
17
9
23
10
112
-81
-66
-8
36
7
-12
-5
-32
40
22
55
-19
2
-11
-103
35
53
127
31
127
17
-63
1
90
-38
7
-65
10
26
50
-20
-9
-105
-41
-93
43
-61
-127
-24
-48
44
-2
29
8
37
-1
7
45
4
1
-52
49
42
17
-32
-22
-86
35
-43
-78
-87
116
-27
-36
36
19
106
127
-2
3
-96
2
-78
96
98
-51
-10
40
49
34
108
-90
-7
115
-68
31
11
35
-26
-6
-3
-45
4
0
7
-5
70
-127
82
-26
-1
66
-32
-21
-35
-69
-1
5
-38
-67
21
-59
30
-21
60
12
-51
-26
-70
-11
-27
-55
76
-9
-102
38
-53
-88
59
-54
22
-3
-2
92
-47
108
-127
-32
-10
-44
43
-49
74
-73
-12
16
53
30
61
37
56
42
-31
31
-81
-37
-8
22
18
-33
-55
24
-41
-9
50
-40
-29
25
-26
-3
-18
-49
-2
39
25
-14
12
-12
23
6
-23
0
40
-23
4
61
127
32
6
-85
31
-3
41
-56
109
89
91
57
61
51
12
9
-103
89
-24
80
-25
-10
-61
-28
33
4
13
-66
-2
-88
3
-127
3
-47
14
72
-35
-54
-111
-8
-50
83
-2
29
53
-58
-77
-90
-3
-64
-9
-99
-10
-20
68
-43
48
24
-13
-29
-19
127
-34
-59
-56
6
-107
-43
-8
-37
38
12
-18
-33
-47
15
19
-41
-57
72
-48
60
40
51
17
90
-57
57
-127
-100
-39
-68
77
33
35
47
20
56
-76
-28
-126
-81
11
-5
-7
58
-2
-51
81
10
-25
-3
25
68
29
-93
-22
-48
64
28
-67
6
37
47
-17
-75
127
22
36
-3
22
-25
-30
-34
98
62
82
62
-103
-55
127
50
-59
-18
-73
-112
42
-19
127
-80
89
-74
43
69
58
-56
-1
-17
78
-19
13
29
-59
-62
4
68
-39
-28
67
-104
69
-50
-20
48
14
126
27
44
-73
127
50
45
-54
-10
-9
-29
-107
-95
-90
116
-52
-71
13
-3
38
63
15
54
-22
51
-102
36
-27
43
-127
0
-42
21
84
44
45
-19
23
12
26
-72
-3
10
9
-87
-10
-81
-54
-31
-16
1
-5
-46
18
-97
-68
-70
-7
103
-84
69
64
80
-33
-94
87
64
77
-37
50
44
-52
127
-39
-35
-17
29
-16
107
-17
-40
-8
-26
-7
22
-63
-51
-104
64
-67
-16
22
11
-85
-45
21
-16
24
11
66
-44
-10
34
123
22
-14
-16
4
-24
-71
127
95
37
78
-85
52
-9
70
1
-23
4
-69
-14
14
-6
7
93
-35
114
-119
88
74
124
-114
34
-37
-43
55
107
117
45
-34
-33
-53
-21
127
-27
-4
51
52
34
-110
25
-127
-95
41
23
-39
18
18
13
38
11
55
17
50
29
-64
-55
67
86
88
-31
23
-21
24
52
-41
15
-16
-22
-32
15
-102
77
-57
17
-43
63
-8
5
27
-2
-49
90
23
-98
-22
-48
6
17
-58
-27
2
13
61
23
-127
66
-78
-5
-31
-6
30
16
-26
-1
-8
-2
36
-40
21
64
-16
2
-70
12
-74
-41
-17
62
-50
-114
75
127
40
-28
14
-87
-52
-19
-37
-37
-60
-113
-10
13
40
127
42
49
-61
66
-37
-1
53
6
47
21
0
1
1
29
-105
-51
89
4
2
48
0
13
-55
-20
21
-67
-20
127
-42
32
-107
-2
-19
20
13
18
-123
-12
-13
18
36
55
-29
25
-9
-19
-45
-19
-31
81
0
-29
-26
-98
-107
-40
54
30
-31
3
-36
6
-7
-55
92
-13
4
-5
54
71
48
-80
8
-28
50
25
-127
-20
-8
7
28
-9
91
28
-67
48
2
-56
7
-7
64
8
-127
-48
-23
-44
-19
56
70
-5
-4
-37
-6
-33
82
57
-82
50
-22
68
99
-33
36
-52
17
-56
-56
66
4
45
23
-23
16
13
13
72
-89
-70
115
34
-91
-58
27
101
80
54
-64
-119
127
69
-82
38
-36
54
-18
49
95
-28
37
68
-4
-117
109
-16
-94
-40
33
-40
40
98
30
-60
37
47
-16
127
-16
28
-8
-58
36
59
14
-35
-43
-89
125
90
36
-44
50
22
-29
-73
37
-56
5
47
-36
-107
-22
41
-47
-52
-12
84
-26
32
-28
5
8
45
-71
-127
-17
38
-13
-21
-81
28
30
95
40
-59
67
-45
-95
92
69
93
-63
7
-12
120
-1
127
37
-27
-6
-6
29
-2
-69
-30
-25
12
-60
19
51
-84
-84
47
2
-45
-43
14
9
-18
-31
32
19
-90
-19
49
43
78
75
17
49
-75
-47
-127
-9
10
-73
44
-86
50
47
49
43
-51
122
-23
4
-13
-39
-4
-11
-41
93
-37
-13
10
75
127
83
-127
96
-92
-9
-27
-86
-75
-95
49
-22
-15
-1
-18
2
-43
-4
-66
112
-22
61
-3
-89
-64
67
-19
22
112
19
-69
14
78
62
-36
-10
-98
38
48
12
-91
118
-3
-94
61
60
-127
-79
20
52
-11
-19
-119
100
14
-49
-79
-50
-57
-86
-16
9
-37
-1
-31
49
119
5
2
-77
-25
56
83
33
34
-24
-41
28
65
-64
-59
-67
-67
18
127
87
-84
3
-28
28
-48
34
54
15
16
-41
23
-13
-21
-16
74
-57
-22
17
88
-30
-61
-23
-41
127
-65
35
-9
52
24
-119
29
2
-63
44
-48
-21
-48
17
-22
30
28
34
-88
127
42
-36
27
51
48
46
-87
14
-23
-25
31
-59
16
-37
9
15
49
39
-105
-76
79
-5
-90
-3
8
61
-18
-77
-89
-40
33
-100
-21
-29
-38
1
-35
93
-42
108
-56
0
28
-24
-50
-55
91
31
21
9
87
122
40
-15
127
28
26
-16
120
-41
31
3
-42
-64
-48
6
103
-90
-127
-73
-63
-37
-6
-65
23
38
9
98
36
-22
63
-93
-71
34
26
49
21
46
73
-58
-44
-61
31
80
3
47
51
1
71
30
-44
-113
-56
44
39
56
44
-30
27
114
125
66
-1
-100
31
-59
-109
61
-30
29
-99
-127
29
31
18
63
30
13
-68
10
-39
-127
12
62
-110
48
-25
5
-95
5
44
-26
-62
-2
34
13
-5
40
-4
-29
-26
-99
35
51
59
-40
43
3
47
-96
7
50
10
27
-35
-17
2
-4
-2
-42
49
22
27
8
37
57
-12
-14
-37
33
-69
-4
2
-88
127
-40
-14
3
49
-35
16
-99
24
-98
49
-59
-101
-74
-48
-65
127
-49
-34
77
9
21
-57
-80
-65
-124
47
79
-47
-59
2
67
-91
52
-55
-33
-9
-28
4
-3
38
78
-56
0
-7
-39
27
29
127
80
-28
45
-18
115
43
-5
27
-4
41
62
-23
20
-5
-30
41
-42
-115
-21
-110
-90
3
12
49
-31
50
4
41
25
-51
-41
-21
-71
103
103
103
29
15
56
81
-57
-43
22
-72
123
-36
-53
66
-127
18
-52
23
-35
-27
-31
85
43
24
42
-72
47
15
50
66
29
-20
-43
-21
14
82
22
21
-26
-14
-108
-39
35
-89
-49
-21
-127
7
-106
-8
-7
-89
-63
43
-8
-39
-41
58
-70
-70
-101
105
-27
-34
9
58
97
100
-29
24
37
-78
29
79
31
-1
-81
84
-127
13
17
-34
-10
13
-35
-46
76
-12
-3
-39
-20
-32
43
14
-127
-46
39
-32
53
21
-17
-19
-2
104
59
-76
-18
-37
-23
14
7
20
97
6
108
-33
-14
-16
15
33
78
25
-104
79
-54
-122
60
-127
88
-11
-3
-7
-66
89
93
-37
-39
5
-23
-79
-19
46
9
-7
63
50
49
35
-24
24
-20
-8
-18
42
-52
19
-51
53
25
127
-3
3
-7
-38
5
-54
-44
65
-50
-10
-40
-21
19
-39
8
-39
-10
-69
-7
60
-7
-18
-6
-48
110
-79
-27
-54
9
-11
-127
35
35
-8
-44
8
-21
-53
-14
66
89
-66
73
-26
-83
2
13
105
-1
-41
-127
-37
-17
-47
-18
8
56
36
59
-83
38
-19
13
-21
-18
4
-40
-40
64
29
-17
50
-35
43
-55
-24
123
-17
-42
113
-30
-55
25
-22
42
-29
-55
4
-45
125
65
-96
-12
80
-29
43
-4
-46
22
-17
103
-12
35
-47
90
-127
-86
68
63
84
14
-45
4
-127
-16
110
122
-53
44
-57
40
87
59
10
-3
27
-63
-28
2
34
54
1
32
-30
87
45
41
-59
-25
20
37
80
26
-49
-50
-127
-116
61
33
30
51
19
14
-95
58
-35
42
-53
16
-36
33
76
-24
-21
37
41
14
16
30
-13
29
21
-2
9
21
-24
60
5
4
66
-61
-37
-19
-90
51
27
-64
101
-12
127
-3
-43
-63
-68
120
43
119
36
51
68
-25
-2
-23
-34
-80
-9
-17
29
30
-23
-44
54
21
14
76
50
20
-7
-13
14
33
-2
19
69
27
-51
11
18
-7
-3
-127
-13
-24
6
-20
91
22
-68
35
-47
-26
-23
-7
10
37
-97
-7
78
10
27
32
-108
-65
54
1
-94
22
30
-63
-78
19
-20
-52
14
-115
28
73
-61
127
-78
60
108
-67
-86
30
36
64
44
-127
-50
49
31
-125
-3
27
-54
-29
-69
58
-27
126
-60
-97
-123
29
14
-50
-73
-60
-77
-35
109
-29
-58
-13
49
-77
12
20
47
-23
63
48
9
-28
-8
89
1
25
127
-14
-6
21
43
12
4
-31
-14
43
32
-72
3
-13
14
3
20
-85
26
18
-59
-6
-1
24
-2
36
-16
51
33
57
-21
-41
104
64
19
57
12
-29
40
99
127
50
-60
15
21
49
58
39
69
26
-33
-101
126
36
26
-87
-76
-38
114
40
-35
53
53
-42
30
-83
68
-29
24
85
-32
-74
39
127
98
-27
-53
-91
-50
33
51
108
43
91
-49
126
-46
89
91
56
81
-85
-64
-32
81
103
-1
77
-39
81
38
72
27
-100
23
3
2
66
-71
-30
-43
-127
-56
5
-67
44
1
127
0
14
-31
46
25
-2
-2
-23
-21
-61
14
-40
-26
27
-19
11
1
7
-40
48
63
-24
6
29
1
50
-41
-69
-89
91
-18
-20
-56
-63
-36
-87
123
20
43
77
-51
-50
-98
-82
115
24
-79
66
127
-121
59
36
30
56
-9
67
-14
-77
-3
-116
-12
39
-28
-66
-36
49
48
30
-54
-57
21
-75
-71
-97
-66
80
33
35
127
-47
80
-125
-74
59
-37
19
67
39
13
91
-73
48
57
88
17
33
-40
-20
-4
-6
-34
-41
-4
-39
65
-84
-7
92
-24
19
-45
-20
-92
-92
-74
1
-9
-26
-127
-23
14
81
-43
-15
33
-96
28
97
-1
26
-57
-76
-99
127
-59
0
103
7
40
-6
50
3
-39
85
30
-27
48
60
84
84
-2
-47
-16
19
41
50
69
11
12
-33
30
-30
-23
-65
10
10
-7
-59
39
-29
-26
-51
-47
-67
-48
-16
-127
-52
18
56
-34
24
12
27
58
-9
13
-70
-69
0
-30
45
55
-72
5
-66
127
-16
-11
-49
82
38
45
12
27
-16
-12
-8
1
-52
-1
13
13
-33
35
1
-12
12
-40
-70
-35
-29
-32
-15
66
-27
-23
4
-40
-111
-46
-5
-24
-102
6
127
66
19
-25
-48
36
-83
-18
62
2
-103
48
46
87
73
45
-57
-44
-40
-7
25
-48
18
-24
-25
83
83
14
-99
83
41
127
49
-100
26
6
34
-20
-9
-20
16
29
-33
-81
-14
-21
39
-111
71
121
12
127
-2
37
-85
-6
-66
88
-14
42
47
28
-105
-52
54
-85
-26
-95
-13
41
-51
-45
54
46
23
26
47
-57
10
-45
-24
-87
8
-64
-11
92
8
-53
-7
-12
9
90
-12
-32
-46
-104
-80
-17
63
12
-41
127
-31
19
-124
69
77
67
60
-45
-61
-102
104
-61
-5
58
79
74
-1
-7
-31
-82
-42
-27
127
-22
24
95
40
-8
36
-27
-107
-92
2
-40
-6
-26
36
-105
-18
53
-60
-8
-79
-62
-66
-31
-88
76
-67
-26
-32
64
9
40
5
-32
-85
-46
120
-18
-50
78
116
47
-38
45
-69
-5
-27
76
100
127
-70
33
53
-24
-44
-104
31
41
43
127
-50
-90
106
18
-2
5
46
53
-60
40
-103
16
49
93
19
42
-54
30
-12
-55
60
-31
-83
18
-55
-21
23
48
104
-127
35
-11
-46
-37
51
-58
-28
-3
-85
-75
39
-82
-90
-78
41
47
-4
30
39
-22
-58
-5
-59
10
53
0
30
-29
-1
43
39
120
43
-44
-4
48
-46
17
84
3
16
-23
-20
-79
-15
-6
4
-52
127
-19
-6
59
-40
76
-23
-6
64
-51
3
-79
-44
6
43
13
127
47
79
17
-13
-75
-68
-8
43
75
12
77
60
-19
-72
-49
38
43
-15
-91
-19
-25
-18
-27
-40
-51
118
66
-26
50
32
-97
82
58
5
-59
51
-47
25
0
-40
73
17
-40
-47
17
13
45
-127
-22
74
-34
-42
-80
20
0
-5
16
-7
-81
5
-33
-23
-15
7
26
-38
70
-46
-26
-52
-30
-56
124
20
49
-63
60
-23
39
-95
-12
-15
8
-4
46
-127
-65
-8
26
0
-37
0
-69
127
27
-27
-85
10
-21
0
5
-19
13
108
103
1
-35
-22
-87
1
18
-24
-17
-79
-13
6
-57
69
-69
3
-48
-74
85
2
27
-62
101
10
-55
56
-60
-107
41
-8
127
54
41
-36
107
47
55
88
20
15
-43
1
-83
20
-6
-89
-105
-101
82
60
63
-127
33
19
101
-13
-53
-29
-45
85
81
-5
-52
69
22
17
-80
-82
-53
13
66
-9
0
22
11
54
-70
-18
-37
5
7
21
-45
-107
-26
-4
-66
-75
89
37
-68
41
-6
43
-92
-4
12
-127
-12
-1
84
98
13
2
22
-115
77
34
17
30
63
-87
-29
-76
-49
-24
19
76
-57
-10
2
-58
74
-26
-112
12
58
-28
86
7
-83
-59
82
21
127
-93
59
-39
-54
-32
10
-47
-100
-86
83
1
-77
92
-16
127
-43
42
-57
75
19
114
-85
-35
56
-113
23
-1
49
-126
-3
14
31
-27
-36
64
-1
-38
-116
19
-48
99
-76
45
-77
39
22
-36
49
-20
-68
11
-23
-68
69
0
2
-51
-25
47
-16
83
-6
102
127
90
-74
30
-69
65
13
-65
35
-52
-8
-42
0
5
4
-38
-21
-14
34
-101
-68
49
32
4
-43
-46
-21
-41
-13
107
127
38
12
-80
120
-75
-109
47
29
127
12
2
-86
-77
5
-59
-2
3
-22
-24
41
-71
24
16
-44
12
59
64
127
92
-66
66
16
-49
-87
-20
4
68
13
-33
-92
-27
15
14
6
-51
-127
26
7
121
20
-91
-34
-91
59
-9
-80
-65
-9
-69
-61
-80
-118
-20
-54
32
110
-6
39
76
8
31
-24
-74
-94
-41
-106
-67
-36
-18
61
6
92
-16
0
21
-63
32
-4
54
-70
37
-78
-2
-3
17
74
87
-72
127
-42
12
-17
-111
18
-28
36
-30
32
-31
-68
71
-77
36
1
-4
66
-26
-11
9
-82
60
45
20
60
-28
-50
52
108
46
23
-82
-22
-20
-82
-127
-54
78
25
43
-18
5
15
-60
-58
-7
127
-4
49
21
-44
-44
-17
-47
83
37
37
42
-3
-49
-84
-1
-51
29
1
18
23
-41
15
-37
-6
-27
-14
-65
-58
-17
2
25
-125
126
63
31
17
75
-127
-45
-120
59
75
99
-52
-92
-47
14
113
9
31
66
75
-68
-83
-13
-34
-11
-33
14
-14
49
2
127
23
7
19
5
52
-32
-1
-94
21
1
19
20
23
-8
-35
22
-10
-13
-55
17
26
-20
-60
12
-6
-33
-46
-23
-46
3
-27
-71
94
-64
4
2
-13
-88
-58
16
0
-58
98
-21
-74
-39
-25
65
0
0
8
2
18
21
9
-127
65
-123
0
-101
-59
19
-42
57
0
-35
-127
19
99
-27
106
86
-22
-94
32
104
43
-63
30
-44
-49
24
-12
34
-79
62
-42
-22
-40
99
-94
4
-53
-96
35
-67
38
-20
13
56
-106
-52
-41
12
7
-77
-127
2
53
42
-38
8
-33
-55
-54
15
26
-58
-13
14
-19
23
-4
