56
8
23
12
127
121
21
107
13
-67
-30
-18
44
101
-8
-102
68
-2
36
14
60
-49
31
18
-34
-9
-6
-30
4
15
-127
57
-57
-41
-88
66
-106
-72
-11
71
71
-18
-127
-16
11
-12
17
-1
35
37
-67
-88
-49
-28
40
-2
-11
-78
-127
3
32
120
12
11
-117
-56
-36
15
72
127
-66
17
-122
-107
-66
-68
-25
-60
4
67
-46
33
55
32
57
127
-75
36
-127
-73
21
3
84
-3
-22
-59
-30
41
-75
-35
107
1
-102
-4
65
43
62
-22
28
127
-9
9
23
33
6
-71
-2
-18
4
-127
-23
-38
3
-17
86
-18
-36
40
-63
-9
23
-36
-100
47
73
-20
97
-127
22
18
-93
-26
66
-28
-103
82
67
-2
51
-23
14
-20
117
-6
40
-45
53
-127
-34
-24
44
-103
-119
-79
-127
-34
-61
-17
36
52
104
98
-59
52
122
-11
20
8
13
-5
-33
-127
-20
26
22
-14
28
48
-69
3
-31
-4
-57
1
-3
-53
55
66
68
-127
63
14
-13
-2
-5
-47
63
-53
-25
50
-21
-79
45
11
10
57
1
-28
-53
-97
1
76
-127
57
-42
-52
28
68
9
-123
69
15
-61
103
-36
-3
36
-127
-111
35
74
-44
24
-16
44
-127
-67
31
-66
18
-6
-44
-55
0
-25
-11
53
26
-21
-56
-108
-39
-4
64
-52
127
-58
-32
-55
-60
-16
111
-27
91
-45
-16
127
-34
-56
56
3
-34
56
-30
-1
8
9
55
-35
-27
-11
-50
-57
9
-27
-7
49
76
-32
-3
55
6
2
127
50
-127
-46
-23
72
-5
-47
55
-43
100
9
16
-93
58
-67
40
127
-21
-124
14
35
-105
-52
-112
-32
-12
-37
45
51
-41
0
-62
63
-56
66
-127
-74
45
12
5
-11
44
-19
-20
-1
-20
22
100
-127
49
39
12
6
-12
39
5
81
-37
-25
31
-59
-25
-8
-32
5
2
35
-8
109
-127
-35
20
21
-127
-8
63
72
-87
13
34
-73
-41
65
-127
43
108
117
2
108
57
9
-9
8
-55
-17
117
-22
-63
85
127
-31
-21
35
42
12
-119
-108
41
113
-17
117
92
23
-19
-14
-61
-127
61
8
117
94
126
29
-126
-27
-111
38
109
-52
42
49
-38
-44
-40
42
90
127
113
29
-43
-117
6
24
59
-127
8
-68
62
86
67
120
-33
88
38
-22
7
52
-7
0
-34
-116
0
-69
-24
80
-101
-98
76
48
52
37
91
28
-103
127
-31
-7
8
17
89
-2
78
49
-13
67
-26
56
-7
-56
-90
-64
-127
-29
-27
-70
50
-64
-17
-7
-12
-11
-8
7
-31
30
-82
-4
127
50
87
86
9
127
-32
-55
38
-12
44
-81
-65
-51
62
73
-116
-66
-72
6
-83
-37
25
14
-61
32
-28
12
-63
20
5
127
80
127
42
-9
98
34
-67
-28
-82
38
8
45
68
21
10
-67
7
127
-91
24
34
-7
-27
-90
59
-40
-2
-7
-127
-3
-8
-16
94
35
26
-12
38
-78
32
-102
-121
43
91
43
48
-125
54
127
-43
-3
26
33
-127
-119
8
58
-1
-42
-71
-33
-12
47
2
88
-14
127
71
1
-38
43
-39
61
-45
-45
125
70
-61
-39
-58
8
27
-127
93
10
16
27
-78
85
16
27
49
7
67
43
59
-85
33
25
-37
-29
14
-13
76
17
23
-61
-45
-27
-127
-50
-6
70
4
-34
-127
-11
49
-90
93
-114
-3
40
-70
106
97
-18
-94
53
68
74
112
-23
30
38
102
-7
-57
51
-12
127
55
4
93
-93
16
-18
15
8
18
32
60
-19
-18
-11
21
-1
-3
-5
-127
12
77
28
-89
-92
-25
-4
6
14
5
18
127
-29
29
-98
-3
3
-108
-34
-60
-50
46
108
-60
27
-25
127
-4
-20
69
-40
26
19
47
11
71
-59
-57
-92
37
-61
40
-96
126
-45
-91
110
25
76
-127
57
-45
49
-32
-78
0
95
3
36
4
29
107
8
-59
127
61
-22
53
-17
-33
27
61
39
-107
29
-44
48
64
-58
-127
-28
18
-31
127
13
-56
26
35
-32
-74
49
-17
-112
18
-78
60
-64
-49
29
-39
-51
-80
45
-2
92
-55
-70
95
-60
-44
16
127
-11
51
2
40
-63
63
86
-4
-99
-8
-127
-94
20
98
-18
34
51
-114
-80
-8
-4
-85
46
-11
91
-47
-103
-54
19
76
80
-127
51
-34
-54
28
21
64
-7
19
66
34
127
30
55
44
-73
-103
25
45
-103
19
26
56
7
-21
9
61
-84
-39
-127
29
-45
-43
-91
-43
-17
-25
10
-127
-16
66
-42
-9
52
39
7
-79
64
13
29
12
18
25
-4
-42
127
14
-9
70
101
41
-40
54
-9
-23
-31
-28
47
-31
-32
56
-19
7
127
-40
29
-99
-21
-5
-47
-118
51
16
6
57
6
-25
-72
91
12
-3
-18
47
127
-51
-19
35
-39
-125
34
-52
37
56
6
-127
19
-70
-18
-35
-36
-14
-12
-23
26
28
127
-68
-115
-99
51
47
-86
11
-25
99
110
24
30
-39
-68
46
-19
60
3
23
-26
32
-11
-29
-43
-23
93
28
19
127
73
-83
-5
-21
39
-66
85
-37
0
-13
-37
127
-41
38
114
34
-100
1
-56
-104
-127
-8
68
58
53
22
-96
-103
42
-109
-33
48
-71
105
