-51
85
95
50
-31
59
92
-109
-120
-65
-127
-127
-37
-118
-39
51
17
-8
46
41
18
-49
12
-37
127
-14
-16
-127
-22
-127
-14
23
-46
41
-8
23
-66
65
-111
-95
103
-43
126
52
105
-127
-127
-55
42
33
-127
-114
-106
-17
-33
18
-30
-127
-127
-127
-67
-85
77
-38
78
-96
-102
36
-78
-19
-120
-32
-127
16
-71
84
67
-22
-9
38
15
-85
80
88
111
-38
-42
-81
13
-76
33
66
-53
-86
-23
-58
-31
24
61
-66
127
-35
-127
55
127
-100
65
-76
-31
-52
-127
-51
105
-30
59
-22
127
25
32
-127
-76
-37
22
-98
-6
0
-22
-13
-101
-27
-25
-32
-33
-18
-12
-63
47
-65
26
7
-1
20
-54
-39
1
12
-127
87
-9
-127
53
-44
77
-9
-10
73
-47
7
-127
26
-62
-48
-38
-32
99
-127
-127
-40
-62
91
-77
108
56
-64
-26
-57
-127
-44
-67
42
-43
-61
-36
-27
63
-57
-28
-40
-100
-100
-15
19
-127
92
104
12
19
127
101
-90
-48
-33
-99
-92
-6
-70
-55
9
50
-107
-21
-4
-114
-82
-74
-6
18
-27
-127
-46
91
-9
10
-38
-8
127
29
-88
-105
-34
-26
-64
122
-24
-74
-21
-14
-99
27
-58
18
15
-25
-39
10
114
-127
1
-75
-109
-33
-69
-76
-60
40
-46
16
-89
-33
40
-21
-31
-65
11
-18
-4
-113
53
-65
31
30
-91
0
-127
81
75
67
58
-87
-127
-50
-85
-68
43
-11
-74
-47
-65
-94
6
127
-100
74
-11
-34
-108
55
-108
68
-36
82
28
-63
-51
-18
8
24
76
38
18
2
-10
-66
-104
-9
-8
41
59
110
-32
-35
-61
-29
10
-127
-9
-48
-17
126
-104
35
-27
-60
115
-56
-57
47
10
-65
54
-34
-87
127
73
-95
-62
-49
47
-106
-25
-18
-13
-53
58
-127
-23
110
-126
-18
-85
-12
-43
-127
65
38
-70
-127
21
-58
108
-62
49
-47
-64
-48
88
21
-54
81
-7
-9
-27
26
5
-65
84
16
-127
-74
20
80
-77
-127
103
-19
-68
28
-47
47
-51
127
-39
-53
-4
-115
86
-127
-8
-84
-127
-119
-69
127
-12
-2
-127
-57
101
127
-92
-99
-86
30
-7
122
-5
-109
-52
0
-22
-6
-21
62
9
-17
-103
87
-65
-83
4
-127
-104
-101
4
-14
-72
-127
-91
-38
-90
50
-8
108
-70
-115
17
-32
1
-53
9
-53
-9
71
-53
-45
-34
69
105
124
99
-127
38
-127
21
69
64
-77
89
-127
-116
-107
31
76
-95
-7
18
-82
-117
28
-127
102
19
70
-19
-29
-57
-120
-44
58
48
-111
-42
-23
9
3
-127
-30
127
-124
26
127
-76
87
-16
-23
-20
-125
32
-10
-40
99
69
97
-13
-19
80
-81
-112
-127
-17
5
4
-127
6
2
64
22
43
-55
-81
-127
116
-14
5
-89
-12
-26
39
-54
-2
-37
-127
1
-127
-79
55
37
-127
-127
47
22
85
-112
66
-127
-1
118
10
26
-48
-82
-14
-28
-12
127
-127
-102
-53
-30
17
-85
-14
22
-127
-45
-35
-126
-71
-25
-102
-93
11
-54
-38
53
-45
27
-127
57
-85
-9
-48
-31
-76
25
-66
-35
59
127
-35
0
112
46
43
-2
-127
-47
-47
56
84
-53
-41
-92
-127
-5
27
-6
-127
-14
-127
72
49
-31
-31
-17
-15
-72
-23
-40
-9
-10
45
-10
52
9
-16
91
-127
-8
50
-8
42
-12
58
-122
-36
-66
-3
-12
-96
115
35
54
-125
81
-127
-68
-4
-56
82
-89
-50
-41
-37
25
-127
-10
44
-14
95
83
-79
-47
-53
93
-54
-58
-125
-82
-116
-76
-15
-51
45
53
-63
-127
-42
-60
-79
-127
127
-17
68
-102
-121
14
-23
82
8
-80
-106
7
-98
127
-79
-59
-89
25
-63
-87
-16
10
112
-19
-31
34
-127
37
-83
-121
-10
80
78
-87
-35
-79
-64
-98
96
-84
-40
-64
41
-23
91
35
53
38
13
48
-73
-21
-127
-31
46
108
7
-9
-14
52
-45
-2
127
-127
-102
-55
63
-25
-65
-3
-44
80
15
-67
-22
-60
-35
-15
-28
-37
-63
12
-127
-17
-34
-127
-63
-96
-23
24
-127
-6
-17
-46
12
-5
-48
-14
-65
28
49
26
-14
29
-5
-21
-75
-119
-2
-63
-9
9
-105
-92
-42
13
-17
25
-22
-73
-23
-88
-34
-28
13
-45
4
-36
55
-32
-49
-18
-38
-127
-9
112
-34
36
30
87
-57
7
71
-127
-21
-58
-44
-41
10
-56
18
67
-81
18
25
16
-120
-113
-42
-127
-124
-58
95
-44
34
12
-62
7
35
36
5
15
51
-86
-27
-47
50
19
-53
-110
127
-69
-14
-124
39
60
-14
-20
-21
-82
-45
-4
-71
1
-4
-84
-87
-33
49
-46
88
36
63
-41
-69
6
77
-127
-51
-39
-58
87
20
14
68
-8
14
-19
28
-97
-45
-12
8
7
-6
-32
12
-97
74
-35
-127
-43
-4
27
-66
-25
42
-105
16
-12
-5
-31
15
-32
-47
-9
-70
-59
14
1
-14
-9
32
89
9
-74
127
-27
-32
-24
8
-16
-70
-98
66
-109
21
-62
127
32
49
-26
-127
-46
-120
28
4
1
-110
-127
101
25
-56
14
-33
-84
-124
41
123
66
-82
-78
73
111
-127
-78
-127
-32
30
-124
17
-127
-69
52
35
-32
9
127
10
5
17
74
31
-8
-127
-7
10
15
80
55
56
14
-14
-47
39
-21
-73
62
2
-64
48
38
4
17
15
-101
-60
28
-127
59
-40
-92
-127
37
-70
13
93
-92
40
107
-9
91
106
-30
-34
-127
-127
-24
-30
21
127
-19
-53
-11
-95
-83
23
-127
11
79
34
-21
-10
103
-14
-28
-53
-68
39
55
-79
-117
97
-114
-44
45
-127
42
94
-127
58
-108
58
0
-26
-24
102
-85
-39
-112
-94
-127
-125
-37
-5
4
-45
-43
70
-34
-11
127
82
-103
7
-22
76
18
2
-7
-58
-107
40
-121
102
-25
-81
-18
-64
-70
-6
-85
-58
-113
83
-119
41
-69
-54
5
-25
-28
-62
-6
14
53
17
40
-34
55
-10
-45
-54
-5
9
-127
-30
-88
47
75
12
-30
108
36
-2
-127
96
-107
127
-71
-98
29
-98
-96
60
-80
51
71
52
28
-122
-50
126
52
52
-38
-77
127
21
53
-126
-116
-79
59
6
-103
8
-11
-83
40
-127
104
-7
-27
-41
56
-21
0
106
48
-10
-26
-127
-34
-104
-8
127
4
26
127
-34
39
-118
63
66
-28
-21
-50
88
-89
61
47
19
-72
-46
-124
83
4
-101
5
-53
-127
-127
29
4
75
17
77
-61
26
-16
-107
5
64
7
-9
12
117
-127
58
-127
51
-127
-127
-96
-59
-127
-71
127
45
-82
112
61
-56
-67
-27
-49
-56
25
-73
-101
36
-51
42
-123
65
-52
127
-127
59
-127
118
-12
112
-54
-75
-92
70
127
-28
-74
-21
-84
-38
-127
-98
-127
49
-23
-54
-127
-80
-127
-117
83
-75
-13
-35
31
-29
-65
-103
-113
-127
56
29
-127
-64
-117
-116
122
123
127
-127
-70
-96
-127
-127
124
-38
-47
-111
30
23
-23
-61
-12
12
0
-125
119
63
-30
-73
-19
32
50
-6
-67
-51
35
-15
-62
88
-2
-53
-39
-52
-17
26
54
29
-11
77
-41
-6
106
-25
40
60
-10
-38
-89
-100
127
28
-35
-127
-108
64
-13
20
-96
86
70
-127
-15
-45
-85
-53
53
8
-15
31
-18
-59
127
-127
12
-80
42
118
35
127
-62
39
67
84
46
-104
-25
-127
75
-70
-40
-127
-114
-127
-77
-6
-34
-30
-91
-21
-51
82
-127
61
-34
37
-34
-41
49
-77
22
75
-66
-29
-46
127
64
-82
5
65
-36
-80
44
-127
-17
18
39
34
19
68
6
-110
19
32
-87
-63
19
-55
-21
15
-127
-34
-127
16
-72
33
-24
-27
43
25
-127
30
-89
-13
1
42
14
-43
-2
-78
-22
-33
-17
-44
-36
-34
-127
-28
102
-89
2
-115
-11
-127
12
43
14
-65
-2
-33
-85
-72
64
73
-20
-34
-124
-127
-1
12
14
-85
-100
-122
-101
58
-60
-11
-21
-24
-90
14
-127
-127
-25
-16
48
-127
30
21
-36
6
8
127
124
-92
-97
-11
2
64
-127
31
32
36
-29
46
-85
-92
-47
0
59
127
-8
-22
74
36
67
-24
-59
-127
-58
-127
-72
-30
-127
1
40
-5
-13
-42
-121
65
24
28
-25
9
-31
-55
111
12
19
127
3
-24
-94
29
50
-88
-127
-56
127
11
77
96
127
127
127
-20
-127
-67
49
-127
-58
-115
-70
-25
-127
-1
6
-89
68
120
-7
126
-21
51
-127
48
-3
-53
10
-56
80
12
-127
6
-63
87
5
-93
-24
-43
126
-20
-36
-44
-40
57
-107
-127
56
-9
-28
-127
23
-126
-36
-110
-26
-127
127
-53
-13
-85
-44
-127
-127
-68
49
-122
-5
-86
-109
-91
-127
55
127
18
57
-39
-32
-109
-24
60
88
-127
71
-57
-92
35
-25
127
-114
-88
-113
-118
-2
34
121
-127
111
-47
-127
-117
-61
30
9
-15
-64
-87
-127
-30
8
73
-127
-127
-2
-97
-93
76
27
72
-37
