10
38
-13
-6
17
57
23
13
54
-71
0
-44
-22
-41
-24
-13
2
16
29
-29
-20
-5
-12
4
66
31
26
24
57
0
-16
-19
92
70
-39
29
42
-1
-9
-38
27
-78
-2
19
-5
2
40
41
9
40
-57
-2
6
-27
-25
-17
-46
-67
40
6
19
-35
75
-41
-69
76
-9
-78
63
27
-36
-62
58
-71
-25
24
6
-26
-12
33
15
2
-6
-29
38
14
49
-35
-11
7
13
-35
56
-14
-38
-22
21
-53
7
37
27
-15
127
-14
29
-1
-72
13
42
-19
13
-18
-80
53
31
11
123
51
-40
16
13
31
-12
-14
-15
65
6
-37
-83
-71
77
-7
-27
67
100
-18
-8
32
41
-17
50
-21
17
13
-18
-34
9
44
-23
25
-12
38
-45
-53
-127
-48
9
-39
-38
4
-40
-16
-15
68
-24
34
-36
5
-3
13
36
-51
27
-24
-101
-34
32
41
-5
70
-69
78
49
-82
-6
55
-21
-8
-31
51
25
52
-51
32
10
-45
23
22
-6
21
-31
30
-38
31
35
-5
-7
-75
-29
-54
-36
-45
-79
35
-14
3
99
2
-34
54
-9
47
-38
68
21
-11
36
-50
-22
-4
26
53
0
-18
-49
-23
2
40
43
3
-18
36
-50
9
109
-22
22
-71
-54
12
19
-32
-42
-90
-39
-55
-80
-29
0
-34
-15
-22
-11
80
68
-5
-82
-76
-67
6
-23
-44
-5
-15
49
-13
-41
8
31
-99
42
16
-10
-44
-6
18
15
-27
28
4
-102
75
11
-2
-79
3
14
57
35
-49
-5
-29
-68
-24
-9
-33
4
-7
14
-34
-30
94
70
94
5
83
79
-7
-77
25
-65
87
-2
-50
32
41
75
53
20
45
102
-62
20
28
41
29
-69
-117
-87
-17
68
32
0
6
-2
-16
15
61
-4
18
29
-4
14
-20
22
-95
-7
-70
-3
-75
32
-48
-28
77
38
15
-89
21
49
66
-112
-9
45
42
104
-42
97
18
-8
25
40
-16
-25
-24
87
-39
56
-8
-15
-127
17
58
67
4
-38
56
-6
19
-12
46
78
12
-9
-31
-6
82
16
2
51
91
-3
-29
0
20
-18
-14
-42
35
1
74
-66
99
58
6
-79
-78
20
52
29
-87
77
30
45
38
29
27
33
94
67
44
-12
32
0
19
-25
8
-32
-23
-18
14
2
-10
-117
-38
19
5
7
-5
-24
81
56
56
-53
60
61
25
0
-93
19
-8
-37
-66
-51
-69
22
63
92
-39
-63
-25
31
48
-7
-50
-22
19
-13
48
36
-99
-61
-74
-9
-59
52
-13
-25
11
-29
34
47
6
-44
-61
-16
-36
70
-12
45
-49
-2
-58
2
-39
16
14
-127
-38
-16
-10
35
12
-70
-32
29
48
-14
38
5
17
-62
55
-15
7
62
11
27
36
3
9
22
-107
-82
-90
78
24
40
-20
22
-97
-5
-15
-45
66
35
-22
-14
86
-39
-51
-18
63
-8
-7
81
0
78
21
3
-1
-29
-22
8
42
-64
10
36
68
-58
-40
-11
44
37
53
30
-64
57
3
-35
51
12
-27
-34
-42
42
-14
-56
-24
6
-20
34
22
13
2
127
-46
-23
42
34
-25
-33
-18
4
-45
33
7
92
-29
-25
13
78
69
57
-7
87
-12
-11
-101
13
18
25
67
17
-87
-4
21
-30
7
41
-107
-18
53
42
9
82
-27
-13
28
26
-83
-1
22
-3
24
22
-12
-11
21
60
-23
-77
41
68
-72
-58
0
44
-7
-43
-24
-18
9
-43
-29
-21
45
51
-4
-15
-7
-61
-6
-65
-17
2
-68
-23
-16
-16
46
-38
57
26
52
9
-11
27
57
-9
35
-1
92
23
-48
-53
-32
-4
3
-39
5
93
18
3
8
-35
35
53
85
-52
47
36
56
41
17
38
-9
19
13
-13
-27
42
-29
-55
-23
-24
-30
-28
17
49
27
23
14
-19
49
22
20
-16
31
47
10
-26
48
-14
-20
-71
48
-30
21
-41
-40
-26
-18
59
-8
68
-6
29
-26
29
53
-35
-4
9
-24
17
27
-7
-77
-71
-67
9
-29
74
-31
-64
33
28
-10
19
-9
18
-59
-39
-38
49
30
65
-27
3
35
-12
37
-18
-81
-43
15
24
-2
35
15
54
12
77
53
15
9
27
20
2
4
26
-26
106
15
2
-45
31
-32
-8
-53
-47
13
46
-50
-25
7
127
41
67
25
-4
41
19
14
-39
37
-65
9
-35
22
34
-24
32
34
93
20
-41
-95
19
23
20
-3
-6
67
-35
88
29
-18
23
9
-11
20
-99
-21
21
-112
8
45
-23
11
-14
-46
22
-60
-33
5
-1
-50
3
-59
-24
-13
20
9
2
-6
-9
0
-14
-55
-34
-39
15
1
29
-27
86
68
-7
-16
31
46
-52
2
-1
14
13
-61
46
32
7
-15
66
-39
123
10
-6
14
29
13
51
-42
-4
75
-31
4
-39
-107
-79
13
60
17
11
-16
57
7
-3
-15
34
66
46
82
75
-33
-42
-70
-39
55
-31
-35
-78
9
-127
-21
-25
32
25
58
45
-1
-36
-49
10
-59
84
-2
5
71
-55
-37
8
77
-6
38
52
96
36
8
31
58
27
70
-35
17
-50
-28
-24
40
0
6
40
3
77
64
52
-14
43
-52
-3
8
41
14
7
-59
62
41
41
-57
-23
-28
-37
66
-12
44
-4
13
76
-64
14
8
-98
39
1
24
-4
-16
-25
47
-35
-2
-100
12
30
69
45
-12
65
18
79
22
41
-3
-1
-34
95
8
23
-26
-2
40
-30
8
-30
37
-18
61
24
-40
50
4
13
-23
-36
-36
59
-53
-27
-35
7
-21
49
46
-8
13
-13
41
-43
-61
-7
-120
20
-25
-37
-11
-29
103
42
-27
0
25
-46
-11
4
12
0
4
-27
23
18
12
8
24
15
-55
15
42
33
78
2
-72
22
-33
49
65
-28
-57
38
2
-17
19
45
-44
-33
-21
14
-19
52
64
-80
62
-8
30
-6
-78
28
-45
-37
40
18
9
127
1
10
0
-38
-27
-98
-4
-47
103
-5
7
-35
-7
-88
2
-127
0
-45
-58
49
-32
-3
8
-31
-47
2
18
-48
-60
11
-3
-35
45
-34
65
-38
-23
15
-8
-2
85
26
-57
9
-28
-45
-18
-22
40
25
-52
-32
3
5
10
-18
-9
33
-8
-6
67
78
-5
-44
-4
54
-38
15
12
13
14
-40
23
-68
-38
71
0
27
-47
-61
-8
3
15
-6
5
-37
24
52
-9
-7
50
-7
29
9
14
-26
29
30
-52
-11
11
6
5
3
23
49
-14
-53
0
10
-3
-23
-25
103
6
-11
-40
-24
1
-30
-3
-36
30
32
31
3
19
-64
13
-72
-4
-42
32
-10
-19
24
11
-10
8
22
-57
-34
25
-11
-44
-32
86
-23
46
52
4
-51
8
60
-39
36
90
-44
-34
-89
-56
59
-30
4
-61
-48
-14
37
4
7
-66
-13
99
-80
-10
46
-48
-45
-47
-5
40
28
7
36
37
-8
-69
-61
6
-1
-55
87
-34
51
61
46
-72
29
70
-78
-37
127
-108
44
-50
2
-28
20
-3
-16
13
82
23
20
4
56
23
-65
-26
17
-60
9
-22
16
-31
-10
-91
-24
-80
15
-1
-34
-69
89
-14
102
-14
25
-23
34
-7
52
22
-28
2
-4
-32
66
-52
-35
-70
-48
-33
-7
51
87
43
57
37
-41
3
68
-24
-56
-21
30
-42
0
80
-15
48
14
117
21
-29
-96
9
27
35
-26
42
-49
24
-57
-16
-17
-8
28
28
41
-27
57
-77
31
38
-23
84
-11
57
-83
28
6
6
-72
52
2
-21
56
-18
35
-86
46
-11
-121
2
35
10
-16
-24
-38
-4
53
37
3
-118
70
66
-17
-13
-9
-17
-50
5
-4
58
38
26
37
-50
-42
-62
-39
-2
1
32
36
73
16
-22
57
-53
-4
7
60
0
15
-26
-19
59
-95
-18
9
17
-53
-19
-63
-91
-49
-21
-14
-17
40
62
-41
-52
-2
62
-35
29
-67
26
-6
11
14
21
65
26
7
-66
9
12
-20
-11
7
-15
-25
-51
-125
-74
3
-3
9
-20
-8
-12
-31
33
18
-26
-9
88
45
-8
26
15
-57
-43
30
66
-35
11
15
-8
27
29
66
-3
-127
-49
-47
-20
96
84
-5
-28
-16
20
-93
0
-50
7
-16
32
-14
37
-116
0
-65
-20
-51
11
63
-2
11
-46
-32
-65
13
27
-28
-20
-20
-2
-24
27
-1
7
-97
-15
-12
30
15
37
7
-26
-6
16
-18
-70
4
-20
33
5
-26
32
5
7
3
-4
14
-30
17
11
77
-79
25
28
123
-27
-6
12
43
16
-44
54
-25
19
31
-2
14
-28
-36
1
-54
46
9
-29
-39
81
56
-7
-13
23
55
15
15
33
-67
-21
19
-127
-32
110
42
-58
18
5
66
-9
-27
29
-82
11
-12
-5
52
-26
25
-51
68
-10
-22
-2
-26
9
60
82
17
-26
-46
-15
-123
-47
4
7
-15
-44
15
30
-42
-17
27
-42
19
3
-46
-1
-14
-74
84
-47
61
118
-54
62
-52
23
-70
-29
-13
62
-37
59
-11
23
14
-49
30
-118
39
-2
37
8
27
34
-49
-28
-40
-35
-24
25
-20
11
5
-29
-8
-78
-42
-100
-95
-20
-56
9
56
-46
122
17
-16
-12
54
-11
-32
-22
-34
-1
19
-19
-29
-14
29
-61
-18
91
49
12
-62
108
-11
-11
37
-26
-73
39
-57
6
14
38
17
75
110
40
13
-15
12
52
-49
59
25
17
-10
-6
1
-127
33
-4
-18
15
-100
42
-60
-35
-34
-65
-60
27
-78
-89
55
72
-106
90
22
45
-76
69
-52
70
83
12
-59
58
11
47
-9
45
27
56
-8
12
29
59
50
13
-62
80
-14
-8
51
-93
13
19
61
5
-68
12
-74
9
-94
-84
-10
35
31
-81
19
-12
-16
-68
51
-48
-26
-51
-24
-10
-18
-6
-19
20
-73
13
7
41
0
7
-15
6
-33
-6
-61
13
-12
23
48
11
51
8
10
-11
-67
55
-54
-2
-19
12
91
29
35
32
106
-27
-45
-37
33
-21
1
25
21
8
7
19
11
26
43
116
-40
41
-65
-20
62
-6
-16
49
-53
39
-14
46
57
19
84
-1
30
-9
51
51
19
-7
-26
-19
127
13
27
-72
52
18
10
38
-19
47
-7
-28
-58
-32
24
29
38
-15
-30
-1
56
7
21
-24
49
111
3
-72
39
-60
9
-6
4
-34
77
34
-31
20
13
-28
-81
-6
64
-64
44
23
3
16
20
-44
8
-39
28
31
-65
3
-31
20
-55
-12
-3
-1
2
9
19
-9
33
25
-7
-59
14
4
-14
-10
52
24
6
-35
25
7
-93
-10
-9
16
5
-36
-27
-17
18
-80
-29
-73
26
52
-16
-3
57
40
5
15
66
-31
-13
-45
6
-39
9
-14
127
3
66
39
34
-14
44
-44
-10
58
-17
84
-7
4
-39
-7
-2
-22
-72
-26
-25
79
-27
14
-49
-1
16
17
12
67
33
-1
66
-4
23
-25
15
33
10
-26
-66
-48
-37
20
9
-11
-37
-15
-62
-33
2
40
-33
-10
-15
-26
6
13
-40
19
-47
35
6
-28
31
-23
-17
50
-8
-54
-26
-19
-44
24
-21
7
-16
14
-6
-32
28
-78
-65
13
29
-85
96
-22
35
-20
23
47
-37
-127
-25
65
19
19
20
87
16
62
-16
31
31
-50
17
6
31
41
53
70
-29
18
9
-54
-9
-49
20
100
9
-70
52
59
31
42
-15
-8
8
32
-47
-36
24
44
-50
-8
-68
24
30
18
52
-4
29
-66
56
-26
0
39
21
-47
30
-75
19
49
24
91
82
57
-7
-4
-72
-7
-22
50
-86
-76
-68
-69
66
13
-46
39
-52
22
5
3
11
12
36
61
2
-27
15
-28
38
-55
21
14
2
-3
-9
58
-37
55
53
55
-12
2
-6
22
2
-21
53
-36
1
-32
99
-29
37
1
-34
34
101
-84
93
-3
10
19
-23
15
-71
87
-43
-57
-89
5
-12
-28
40
-5
10
48
63
16
-33
-38
-38
-33
52
-27
64
6
37
16
8
9
-25
-39
-17
-21
72
19
-14
15
-9
73
23
-49
3
-30
41
-37
15
-25
-13
-39
-21
-51
-46
13
4
-6
-5
52
-2
-28
-39
-24
28
-43
-4
63
-2
-53
12
-15
20
-37
-71
13
38
36
-56
3
-45
-11
-18
3
-1
23
34
-20
-2
52
-57
19
-13
37
3
24
-64
-2
66
6
-77
7
-38
-4
29
-10
3
40
24
10
13
43
23
-65
-44
25
-16
11
-12
-28
9
-34
42
-1
58
62
-57
51
15
51
31
22
26
33
0
-26
6
-51
1
-6
10
0
85
22
53
20
-12
127
-20
41
-19
33
23
14
-6
-22
29
32
-1
21
40
-24
40
68
4
30
-2
-33
6
28
-42
-18
-2
-1
47
5
21
-38
-75
47
2
-40
55
70
20
1
33
36
59
34
-36
-40
-22
57
74
-13
15
52
57
-20
39
-91
12
-30
19
-49
22
19
-60
-8
42
-58
23
-61
73
19
31
54
33
-104
83
27
-4
-34
110
27
11
-4
83
-26
-18
11
47
9
-31
2
30
26
-49
-59
-2
-50
18
65
-14
-28
42
3
-14
-91
21
-127
2
-55
17
-32
-52
48
-59
-1
-6
70
-35
-51
-53
22
37
-8
-21
-15
8
35
-73
35
23
5
-44
-27
-11
51
-38
42
18
7
50
6
24
-19
-24
59
6
-26
-25
67
-61
37
24
78
51
-73
23
42
94
83
-23
-29
30
-23
16
-13
-51
-46
3
-41
82
62
41
37
9
10
-62
-43
31
25
46
1
63
9
73
53
-2
118
-56
-76
-25
-41
-3
-78
-1
-3
-56
-90
-46
-25
-5
64
15
6
-86
40
-90
-4
40
18
16
27
-33
2
5
-10
59
46
7
0
103
-56
-45
39
29
-26
-64
50
-20
-35
31
68
-49
42
51
-16
39
-59
-11
28
-24
31
-36
-35
-1
119
69
-95
-51
6
-69
21
-38
-44
-19
26
-1
-33
2
11
-68
120
31
53
19
7
44
-65
29
-69
-79
2
-62
-19
-46
102
71
-86
5
62
-69
-26
60
8
77
-37
69
-2
45
35
-19
28
-40
-25
-12
68
14
72
127
-55
31
31
-6
-1
-48
16
55
-21
-48
45
-17
-32
83
54
37
0
-51
68
120
12
-14
-1
46
-68
109
38
-43
-6
28
122
-5
-38
-30
-65
71
-28
-41
18
-9
-71
-18
-18
-43
16
-9
-27
25
-9
-26
7
43
-35
21
-81
-19
7
28
-38
12
-30
13
-64
-85
-44
63
31
-28
53
26
37
0
17
33
4
-6
19
24
25
-41
-63
41
-27
11
-40
-53
-28
127
14
-86
-33
-49
-15
-15
-9
6
8
27
15
-12
15
53
-47
19
6
-2
9
-16
14
8
-43
-23
19
34
50
20
10
-28
85
23
18
8
-60
20
38
6
-17
-2
36
88
-19
48
-13
50
78
1
124
-14
27
-23
13
-3
-17
10
-30
90
4
-74
67
33
16
-15
47
40
27
-108
-15
26
-38
13
58
0
-17
-11
48
60
-127
35
-15
-31
-30
24
-44
27
-38
35
-37
-18
-17
-38
22
-62
-4
-66
27
-26
-22
109
-45
49
36
27
22
39
68
-41
-14
49
-1
62
-127
48
23
49
0
48
-86
110
14
19
67
65
-16
107
-52
-49
-2
-31
-1
29
-101
-56
15
49
-28
17
7
21
-24
28
-43
17
85
20
77
75
-56
-38
-40
-39
72
-5
-52
-113
-2
-112
3
-6
29
31
59
47
-34
-50
-10
-58
-43
105
-55
-1
50
-55
-45
81
82
54
76
12
62
48
-11
-41
79
-1
86
-6
3
-35
53
-69
33
-36
-23
70
0
85
40
42
-53
47
-20
-37
22
-80
46
21
4
-89
-12
-23
-73
-78
-13
-35
35
-58
24
50
-68
25
15
3
-56
-71
34
14
15
30
5
84
-18
29
10
90
74
91
-48
22
87
27
-77
-15
-1
-22
-65
10
89
25
34
72
66
-77
-64
36
7
21
3
-10
16
-77
54
54
25
30
-104
71
-2
60
-87
-86
15
-81
6
43
-15
-38
56
-9
5
-29
15
92
-16
-12
29
-43
13
26
0
21
84
-112
-51
31
-26
40
14
-23
0
5
16
29
-127
-24
-63
-58
3
-85
-26
37
-94
-41
-1
-4
32
34
-26
-21
30
-47
60
-22
55
-62
-19
-11
79
-27
5
75
85
-33
-49
-38
49
45
56
17
-27
-66
-49
9
-102
44
-19
10
15
49
80
-27
17
-28
-10
-85
-37
-11
-5
30
-33
39
-13
-36
32
36
127
-35
32
27
51
-49
-21
31
7
20
6
-40
-55
9
36
-17
39
-38
21
-31
-72
-68
29
-26
-1
11
-25
24
31
-46
34
-14
-11
84
-55
-17
48
-54
8
-41
-20
1
16
3
-3
-14
-43
27
-10
21
93
23
8
-17
2
-19
36
10
65
29
28
-30
28
4
-19
20
22
-23
38
69
60
14
-11
28
2
7
-19
0
-4
-13
-38
45
-7
34
-22
-8
-27
51
7
2
23
-45
-10
-50
-51
-43
12
41
-9
17
55
-13
47
-17
-33
22
-19
-23
39
6
-3
25
-43
8
-7
51
-72
41
39
45
19
24
-69
8
-14
-76
0
60
18
-43
37
-14
68
51
-6
35
-60
-57
-58
44
19
-20
-2
31
62
20
58
-70
79
-20
63
3
-36
21
74
-55
2
-17
-39
-87
96
62
6
99
72
-2
35
24
-43
53
8
-19
-26
-12
-1
-57
59
29
30
100
89
33
-7
-14
-99
3
-54
-17
27
-50
-102
80
-35
110
47
88
-25
43
-8
-26
41
41
1
-12
57
-35
-81
-37
40
-21
-46
-16
99
-38
32
62
83
37
-49
24
40
43
26
19
-52
100
-9
67
-39
-63
-41
127
-37
-39
-45
-34
-31
-23
-84
-12
-43
19
20
-4
82
-8
104
-23
-127
-10
1
-65
1
31
-53
50
21
-40
-10
65
-62
-8
-17
37
-8
-13
-47
67
-6
63
15
25
-48
13
43
-10
-56
34
-78
41
-95
-57
28
-35
-106
-50
-33
4
-16
-88
-40
-9
34
-23
-8
25
-27
44
-4
-8
14
-2
22
-74
32
-60
-46
41
-82
40
-36
-8
-25
31
1
32
3
37
32
-12
-14
127
-13
44
108
56
77
31
-31
-10
-60
15
5
-16
70
46
-3
0
53
7
-15
7
4
-14
13
65
68
10
28
-75
-23
10
-25
-52
54
26
-40
-10
-5
86
44
2
44
-4
-9
3
-30
2
-75
35
5
-16
10
-56
-68
28
-70
-63
-55
24
-40
-65
46
-34
18
106
5
-11
-20
84
55
-3
-11
-19
50
34
-19
2
59
99
32
-28
38
83
-59
-33
-12
62
-47
86
32
-61
109
-61
22
33
8
6
-25
-16
-56
-28
-71
-52
-107
-2
-50
58
7
-75
7
5
-33
45
30
-5
-26
20
38
-9
41
59
3
20
-26
88
25
-90
72
30
29
12
-71
11
-51
-24
-74
-19
-33
7
-6
-34
63
-33
19
98
39
35
24
56
-37
6
-78
16
-127
92
21
-37
-6
35
-37
-10
66
31
12
116
-10
49
-78
10
-87
-32
38
56
-64
-11
77
-3
62
16
68
-33
10
21
84
69
56
-48
-21
-17
-43
-32
50
-14
-6
12
-1
-72
12
-7
-48
-104
-28
49
19
-110
-30
-14
-4
61
22
-50
-20
-35
-75
-29
-80
-17
-28
-75
-45
17
-28
-9
118
-11
8
-11
-39
-61
-43
-30
66
85
-108
17
24
22
-84
20
-46
-53
30
-59
65
-65
83
-39
-11
-19
-29
-31
15
-17
35
-23
39
30
-29
18
-18
-88
-127
62
-4
-19
-1
-47
-25
18
26
-11
52
-31
77
-67
-16
-67
-45
-17
-3
4
-9
-1
-53
25
-4
-50
-42
48
27
-17
42
6
61
9
-91
-2
-39
11
-14
28
13
-15
-10
-78
22
21
43
-87
-17
-27
69
11
2
46
2
-55
48
10
-62
-13
-9
10
91
-43
19
79
-29
-15
-14
38
12
-60
-22
-11
17
19
-3
-1
-61
64
0
92
22
-39
-57
-40
-9
9
-21
-30
42
-68
-21
-9
-4
-22
41
-14
33
-1
-30
-11
-21
-45
50
14
-34
22
32
-6
32
54
-2
-5
-21
-6
34
23
-16
-15
115
-36
69
-17
-4
48
-10
-58
-14
96
18
-28
-44
-17
-39
21
31
27
82
39
29
-30
52
35
4
-28
-10
-28
-50
-40
52
-8
25
-22
-54
-7
-2
-38
6
-1
43
-6
-57
-12
-7
-23
34
-67
-35
-65
16
15
17
-8
-46
31
0
-25
-29
52
-14
42
2
-47
2
-43
-10
39
27
7
53
-60
-40
-5
40
37
36
18
-28
-51
40
-58
-19
58
80
20
-3
52
127
13
30
54
8
10
5
-4
30
42
-11
-5
-17
10
0
31
37
17
-51
41
83
-37
-28
38
22
29
23
33
-10
-6
19
-40
7
35
-18
-17
-5
-30
15
-51
-46
13
-20
-21
-25
-16
-32
-14
-48
80
11
9
-13
10
-41
39
58
-34
27
1
3
81
-41
-68
-19
-1
-100
94
72
81
15
56
-15
-79
-52
19
-17
15
13
39
-43
90
42
-23
100
-26
-61
27
-9
-60
-36
-61
10
-34
-60
-9
-61
14
68
-17
57
-84
65
-83
-8
47
63
-36
-46
-11
12
-11
-4
-28
-3
8
47
109
-54
-75
35
22
38
-49
47
7
-34
33
48
-34
85
17
-99
30
-17
-19
71
-12
63
-39
27
58
74
28
-50
-122
53
-26
1
-11
-40
-26
36
5
-18
9
-4
-127
109
55
39
47
47
33
-95
43
-91
-103
-32
8
20
-44
102
73
-120
58
13
-91
19
58
23
51
-25
36
38
16
14
-13
11
-17
-69
-21
41
52
105
124
-51
10
78
-58
7
-40
-55
-114
34
-2
20
-24
-36
-46
-21
1
8
88
-68
-64
-23
58
0
-10
-11
-43
-51
12
27
13
-110
45
-15
-40
20
-10
6
-74
-69
-38
44
15
-39
118
-61
5
5
-32
85
-43
21
-23
-58
-42
55
-54
31
-28
-53
-10
7
-67
41
38
55
37
-24
10
66
-83
-43
14
4
-4
46
17
-26
-80
-8
43
-48
-60
-34
-6
115
7
52
-111
26
82
21
-36
27
-27
-57
26
13
7
22
-37
-105
-68
1
67
-14
3
12
93
94
20
6
22
-12
-6
-127
-69
-61
-8
-92
-26
-26
-62
81
31
-58
35
9
46
8
-65
-8
-62
-45
-15
-10
-59
-75
39
-44
-18
-26
-38
-19
67
-6
6
-10
42
14
-19
57
64
-31
33
-106
19
-24
-3
-23
118
-26
81
-12
67
37
-56
4
6
11
18
35
-2
-17
57
54
2
-5
-14
-70
10
-21
7
-45
-26
-29
-64
-127
-33
9
25
40
10
62
-3
-13
4
6
26
17
-11
76
22
-47
-55
-19
30
-29
-16
45
58
30
-68
20
13
-30
-19
60
34
-33
2
31
-65
17
-10
1
14
-10
-8
45
-44
8
9
17
-10
12
-33
-53
17
56
11
-19
30
-32
-10
88
-6
-30
-45
17
-74
15
-52
-1
30
28
81
2
63
-2
-88
14
-36
54
-3
12
14
8
36
-29
-69
-12
22
17
1
-27
28
59
86
35
-23
86
-33
39
16
-4
63
23
67
-24
9
87
63
-3
12
121
-45
-6
-57
-29
-75
-75
-42
61
10
3
-72
-71
-78
34
18
-49
-19
-53
-17
-41
-1
-16
28
32
43
-43
9
3
-30
-27
-86
28
-24
-89
-43
-31
1
-18
19
-30
60
-9
20
34
72
47
43
-23
39
-72
-41
39
-13
54
25
20
19
15
-17
32
-7
-105
50
0
64
48
28
6
11
26
95
-17
9
-42
-33
22
24
-30
-70
13
-27
-51
-2
-5
-19
21
3
2
11
79
17
-40
12
-13
-8
26
16
-15
53
-25
32
-70
-17
2
19
1
32
-5
7
-10
-127
-8
30
36
17
-15
-77
30
0
9
3
14
-33
24
-3
-39
-36
-16
7
-12
-54
-17
11
40
32
48
69
-2
-53
-37
49
19
13
20
4
22
13
47
-102
-1
-31
-36
33
-26
44
-62
-102
43
42
46
-21
19
-48
21
70
-18
30
-68
-10
-36
24
-5
-39
7
-11
29
-71
9
-23
-37
-9
-69
-15
12
-47
3
66
-48
-7
-36
32
52
-10
43
-11
-17
-18
46
5
-49
-37
-56
32
-30
-61
37
17
39
-4
-28
87
77
40
17
-15
38
-18
40
29
12
4
24
61
18
-25
54
-9
-4
11
47
11
48
27
34
-42
-108
13
-31
-41
127
16
18
1
46
-22
-18
53
77
14
-31
-6
-28
-63
19
-29
-44
12
-111
-5
94
-84
21
49
-44
-102
-7
-48
20
-33
30
-25
3
47
-57
30
18
10
-12
24
9
45
-46
-66
58
-37
-38
-57
-22
-25
44
0
-7
15
-27
3
3
-8
34
-77
19
16
-16
15
46
23
-10
-61
44
-127
-38
-28
-37
-34
3
-29
-7
34
46
18
4
3
-5
-27
-37
-47
-14
-2
-4
1
-28
16
-15
-22
-10
-30
3
40
0
14
-4
-29
73
-59
6
8
38
-15
-7
10
21
25
34
6
36
-21
-50
-19
-13
37
33
26
-3
35
-34
39
-32
-30
-11
-28
-73
42
29
3
-67
-24
17
-31
17
60
-1
-64
52
38
-57
21
-29
-9
-43
11
-46
-7
-5
-32
-16
-37
-22
-25
8
-53
26
19
41
21
-48
30
16
-27
33
-36
-12
21
-28
-10
-10
-36
-3
-4
22
8
-47
62
33
20
21
24
-25
64
-35
-85
19
113
32
-2
8
22
13
3
-79
-52
-31
-19
22
29
37
-44
3
23
-4
23
29
-26
52
-1
87
-8
-4
33
82
-31
-1
-67
-64
12
50
12
61
93
9
31
58
67
-5
-11
43
72
47
-43
-30
2
41
-6
-40
24
-31
-15
101
-33
-9
9
-9
-18
38
-127
15
66
-50
2
32
-7
26
57
25
9
-115
12
-30
-6
7
85
-95
-6
23
24
-11
-38
47
-37
29
-20
42
23
-70
10
76
98
-40
-36
-28
-9
9
83
33
-73
77
62
-58
41
26
15
-44
5
-90
-12
-6
19
-50
-42
95
-33
-29
34
-28
-23
-97
-9
-14
10
-80
12
59
-65
-30
-17
-49
-13
-63
-44
28
-13
-34
99
-24
41
66
-14
75
22
16
40
70
-11
-34
75
-9
22
-16
72
-29
33
54
25
35
-38
-23
-49
11
78
12
40
-45
21
70
-34
66
11
17
-51
-49
31
43
-5
69
32
-53
6
-59
25
63
-53
-20
-11
-50
-61
-11
-32
-28
73
-20
107
13
27
-21
77
-18
110
77
-20
-7
-27
-22
81
-1
-3
33
-1
-62
-8
24
22
-31
-64
72
-108
-2
-59
-51
50
80
64
-8
-30
95
28
-25
92
83
6
-2
-39
-33
55
48
-28
-8
-7
-4
38
-24
-54
38
-18
28
-20
-69
-29
35
21
-14
9
21
6
-49
-7
68
42
6
10
44
-9
22
-18
-60
78
36
-47
45
-8
-21
-9
-15
127
-22
13
-12
-43
13
-10
-61
-48
30
-8
-16
10
21
-84
-30
-7
-26
-33
-32
-43
19
38
-7
25
-83
19
49
37
-94
1
-5
-36
8
67
-58
-61
-8
4
20
-100
-25
-127
10
67
28
48
31
42
-48
-14
31
-34
32
-6
5
-3
18
-36
-27
34
49
94
-26
57
-14
95
-64
-9
21
0
-39
105
1
16
-8
-22
-31
-44
-26
-51
-12
16
4
-32
-18
-88
-17
39
35
71
109
54
21
-40
-16
11
-13
-20
-15
-78
-76
-12
-36
-38
11
24
-3
23
95
-37
-12
-65
-30
-51
32
42
-48
37
33
-39
5
88
12
29
117
63
-6
62
-125
-12
40
-12
34
-45
10
-24
83
-86
43
16
-22
-11
4
47
-11
3
10
-22
-55
26
-8
18
68
74
-5
6
-100
-33
-34
62
35
86
32
42
44
29
7
-60
-10
1
-20
77
72
-23
-5
28
38
20
-13
-85
-90
39
-75
-12
-27
-16
-31
-73
-90
-13
44
65
12
23
38
-57
7
-12
-6
53
-25
-27
66
-17
-104
-48
-29
5
-37
-69
33
66
56
-62
42
6
-37
-31
21
23
-36
23
30
-24
65
-54
-26
27
25
-4
3
-127
-37
81
-20
-108
-42
-30
-12
6
-8
-1
20
15
-2
-25
104
-12
-87
-27
-5
-29
65
-26
24
-19
32
16
-22
19
56
-43
-2
-30
40
33
35
29
-2
28
42
-5
-63
23
-13
66
-10
93
48
113
33
-61
69
-29
-2
6
24
18
17
32
-12
40
45
-30
6
-6
-127
24
34
-36
88
13
48
-72
20
-68
49
17
37
-20
27
1
-48
6
-106
89
0
54
5
25
11
30
-5
57
40
13
-5
-31
5
-36
-35
-40
12
45
-16
-63
-115
-31
8
-17
-38
114
3
15
32
-12
-1
9
10
13
1
63
10
11
9
14
23
35
68
50
-11
1
68
62
41
49
-19
-30
53
-67
-80
13
-43
11
19
79
21
11
65
9
-20
16
101
11
31
85
-59
-85
-111
51
-50
-43
22
-86
-8
-6
-27
-12
-53
-73
89
-84
20
0
-2
-27
51
-33
-1
-43
-13
-32
-53
50
45
38
78
91
-11
-7
42
41
96
-6
-7
-24
-35
28
67
-43
102
-34
13
46
-45
-10
92
24
19
3
37
31
-23
7
-13
-54
-100
-19
36
-13
57
-32
-5
-70
100
39
-19
-12
-60
-36
3
15
19
-37
26
-105
-38
67
40
-28
8
7
20
21
31
-12
-25
127
16
116
-56
5
14
0
37
-19
-9
48
18
30
40
-68
3
-13
70
-14
-11
-10
-60
10
-41
-78
68
-31
-77
23
-44
-37
41
11
0
57
-2
-13
-10
-29
-94
2
-48
19
22
-13
-7
-29
8
44
27
-20
-12
-9
-3
-15
10
5
-36
-11
53
-19
25
53
85
53
-43
0
44
-49
20
10
-24
-32
-17
4
55
48
-26
-43
31
-113
31
95
-5
-24
-7
-19
-10
12
14
-39
61
63
-9
-36
17
69
-49
-19
80
30
44
42
38
2
7
-28
-6
-31
1
-16
55
-94
-28
-41
20
-106
-13
-77
-67
-120
-14
59
-45
-83
19
-15
-43
104
1
15
-9
-14
24
3
52
-127
-17
-80
30
-9
8
57
66
15
-33
-1
-52
-44
15
-16
-22
54
-14
-40
35
-7
-35
-34
-10
52
-13
-17
78
12
-37
1
-17
5
-42
-9
49
-29
-45
-34
79
-12
19
72
5
36
17
-118
-2
-21
-13
11
-33
-15
82
68
78
6
30
30
-50
55
50
-4
7
-45
-98
-46
89
41
21
11
14
23
-53
-13
22
-63
13
-23
-12
67
-20
-89
-73
35
11
23
57
-34
2
14
52
-96
4
-22
-17
-110
-13
-29
56
-72
-94
3
-12
15
-63
11
26
18
12
-116
-29
-7
3
-14
27
93
-17
-6
-5
-17
-11
34
2
22
-9
-23
17
28
1
-17
-1
13
-28
34
8
-23
-3
-13
127
-8
-25
-10
-44
10
2
-12
-14
19
-78
-1
-2
-37
-9
7
-14
47
5
15
-30
8
-3
16
-88
-1
51
-1
-37
22
-28
39
-59
-28
-21
-4
40
-5
23
3
-6
-8
24
20
-1
-18
-17
8
39
-49
-29
-12
4
-3
-15
-29
-14
51
-6
-59
-1
-27
11
15
-1
22
47
24
12
25
5
33
-36
-10
-15
0
4
-48
-17
9
-16
-29
7
19
35
-10
14
8
71
4
22
6
-24
10
8
-8
-10
6
-18
57
10
30
9
24
37
-3
107
-12
16
-27
36
-7
-10
20
-7
32
-4
111
37
57
34
50
15
14
24
-23
-18
8
19
-109
55
-48
-18
-10
78
28
-31
-70
-31
6
-23
-22
88
-83
-17
1
86
89
40
1
7
-31
-65
76
-25
-52
-51
38
-47
9
-26
34
16
-100
25
-1
23
15
-17
2
22
-3
58
-10
-87
-2
-34
121
-21
31
-9
-24
-17
61
-31
-11
-19
-127
23
-26
4
-3
11
43
-43
7
-33
-66
-101
59
24
5
27
-13
32
0
18
45
1
-19
80
-18
-31
30
-29
-23
-32
20
-4
74
-4
35
20
-74
87
-52
-1
-12
-52
-10
-25
-13
74
85
49
-2
-61
45
30
44
4
-38
-7
-54
-57
-53
19
37
4
57
60
31
14
18
-42
48
5
-4
16
19
94
49
25
-37
-2
-70
91
-77
-95
6
9
7
-71
-18
-41
24
-75
33
10
8
-29
-17
28
-40
-26
-123
24
-107
-37
-106
1
35
66
-2
-52
-25
-57
-56
51
-1
-79
52
-26
-7
-4
-86
19
-31
39
-54
-2
-42
8
22
23
97
44
127
14
4
-105
-57
-67
19
78
3
-17
-12
87
-23
-4
12
35
-16
34
-41
-29
93
-28
-14
78
-82
-72
-57
51
10
26
81
-33
-19
-44
127
20
30
66
-6
56
27
-51
61
-22
-19
63
-19
33
-52
14
39
-91
-32
-25
1
6
-11
-73
-51
-15
12
-12
18
-88
-12
75
-2
-125
14
-65
34
-33
-2
-78
92
-10
-47
-66
9
-35
-85
32
17
13
112
-10
4
92
-8
-5
30
-36
-20
46
-48
67
14
-10
-12
10
-4
5
29
-29
-1
-36
35
-25
-45
31
-50
34
17
7
35
-31
44
51
88
35
-87
12
1
69
56
15
-2
15
46
-31
1
-50
0
33
-14
-79
-26
46
-16
48
37
8
44
-16
13
-15
-5
36
90
-20
26
9
10
-11
79
-21
7
-45
19
29
34
9
-18
-10
22
-9
-59
6
-30
0
-38
1
-10
-2
9
-11
48
20
11
27
67
-127
-15
-33
-11
-4
-30
45
-4
-60
-20
39
39
-30
7
35
8
0
16
15
-1
40
-1
-92
-41
3
-57
37
-39
42
35
-28
6
18
-26
-3
12
17
-60
48
30
-56
-20
18
-58
15
36
8
20
-75
-11
27
-41
-22
-33
35
10
56
12
-12
29
-5
-16
-29
-49
33
9
-22
-43
-2
-10
24
63
-58
-24
-7
-20
7
-23
-26
-34
-23
-65
-14
66
49
14
58
47
-9
-3
-60
11
-16
68
-36
8
2
31
-46
37
42
88
-39
92
-8
-48
27
-12
-40
-18
13
-20
33
41
8
6
107
-50
9
78
10
3
14
-1
-46
9
117
30
44
-29
-39
6
90
127
-27
-2
13
-41
-54
74
-5
66
69
-32
-28
-10
8
38
-8
-6
43
54
-14
15
29
73
20
3
-39
-73
-5
14
67
4
-19
18
56
6
-19
-32
62
46
-10
-7
83
-19
-7
-29
-23
32
-56
42
11
45
4
13
-48
81
21
103
-2
23
3
54
-27
27
-32
-40
0
45
-12
-54
-19
-22
12
7
-38
-55
-1
42
44
-2
28
26
-74
12
3
38
-43
77
-54
-58
47
4
-30
56
4
28
-117
-30
-5
-59
-2
45
31
36
34
-12
-14
-23
55
-82
-17
10
-27
43
45
-81
55
3
8
-14
-45
7
-23
86
-9
22
28
43
-45
45
-50
-6
127
81
17
-51
40
-60
33
-13
12
-38
11
-36
31
-38
-20
40
66
-1
-17
-20
46
68
45
54
-20
-98
8
59
-14
-91
35
32
15
9
19
-6
104
69
72
8
-91
57
39
-21
-5
-45
27
116
45
12
-3
-33
-29
-39
1
22
-56
-49
55
-54
33
64
8
-67
10
57
45
-29
-32
8
-38
62
-45
-72
-15
79
38
-46
-15
-3
-19
-62
-18
-27
14
-26
-2
-25
25
-88
-84
-56
24
19
-37
-84
-38
8
-53
75
-12
-18
14
39
45
-13
13
-83
-14
-63
-39
-49
-46
-69
43
29
-71
-1
-29
-47
12
-17
4
34
-22
-15
66
2
-3
-21
-28
-16
-6
26
24
-4
-29
25
38
-7
-19
27
5
-18
37
46
45
-53
7
35
13
62
-39
-40
30
-15
-9
-19
-10
-14
59
19
-37
-29
31
37
42
47
37
-17
-57
6
-53
-7
11
-64
5
14
9
27
-71
-23
-3
32
-10
-3
23
-29
42
-127
11
-43
40
11
-9
-26
32
-22
26
0
-6
-27
23
-61
25
17
24
-3
-10
0
38
-13
26
58
16
25
-17
-80
51
100
57
5
126
-22
-16
-29
12
-14
-68
-23
23
-48
-23
-62
-16
2
-6
80
17
4
-31
-4
81
99
68
-63
11
-55
1
-110
92
91
81
-52
-75
79
8
-108
-21
-65
58
46
-44
-55
28
34
33
25
100
-47
20
20
-116
-49
-30
-52
116
-18
66
-7
-37
64
-16
-14
-4
-16
55
5
114
-44
2
-25
1
69
12
67
-127
-70
5
-23
-13
-60
-90
23
45
13
1
86
91
-25
10
104
-2
-48
33
103
-65
27
8
49
16
78
-8
-53
-23
-20
25
33
56
-10
94
28
-9
-71
41
76
66
35
-33
14
41
4
39
64
-48
-122
28
37
22
64
-39
-49
-62
-27
57
21
-28
44
13
107
-25
84
47
50
127
36
27
30
-25
-45
-12
-49
17
11
-6
25
17
-17
20
-14
-11
-8
-73
-67
-42
-5
-44
38
-34
29
63
-55
76
20
-25
-57
-27
21
13
43
-20
26
-9
-48
-35
-56
-6
18
41
-36
-35
-39
-22
32
-68
11
25
-50
-24
68
-69
76
-42
-44
15
76
-15
-24
-76
37
-42
-3
45
-15
7
-9
-47
-30
47
-2
22
8
-19
35
25
-44
-22
-2
-33
-26
48
33
-81
22
-72
-51
0
-30
49
14
27
-32
-24
-16
29
14
45
-14
-60
-16
-75
65
-35
64
-2
-15
80
82
32
18
59
24
-13
-22
65
-68
17
12
-20
-12
-2
7
-78
-26
-50
1
46
-42
51
-13
-4
15
23
-12
-25
13
7
11
5
-27
-38
-106
27
-8
-14
-43
45
-11
-50
-60
9
-2
-100
-73
-2
-16
-20
-13
-31
-50
-44
83
21
-6
-77
-36
-85
52
31
46
-14
-40
-37
-40
53
1
25
81
-44
-41
0
-1
-34
-1
-11
25
50
1
27
-6
9
-22
-27
-32
17
1
27
49
-17
7
-69
79
36
-38
0
16
-1
7
4
-59
22
-12
4
61
-45
-63
-25
14
74
-28
-1
-53
94
77
-15
5
28
14
-1
11
36
-45
5
-8
-52
-41
77
63
32
29
4
90
29
-78
28
-11
-87
31
-34
26
-20
31
-51
-5
-24
-41
26
-10
-18
25
127
-9
-49
-56
-23
-94
-9
11
-26
-23
-53
45
35
-22
-19
-24
-16
34
-40
-72
24
11
12
-18
45
79
-33
24
-110
-5
-71
57
-15
127
-11
68
10
42
37
-71
-2
20
-20
72
45
16
-39
17
53
22
1
-44
-96
27
-30
31
-4
-3
-37
-84
-91
-37
38
42
63
-10
52
-25
25
20
15
46
-4
-43
28
-35
-63
-22
-38
29
13
-28
-14
20
25
-91
45
-47
-18
-20
45
43
-48
11
5
-82
7
-14
-49
-29
-28
9
-2
-79
-16
38
3
-45
-12
29
-53
6
55
14
-4
28
-20
-24
113
42
-71
-33
20
-72
58
-28
6
-28
30
66
5
46
-24
-29
-25
-47
29
-16
65
48
-11
45
49
-40
-87
50
-28
20
26
76
43
111
-10
-42
86
-19
-23
-9
39
24
55
54
12
9
29
-99
13
68
70
-100
7
-75
37
-92
-49
-18
7
-66
33
-89
-43
-92
42
68
-33
40
-8
30
-84
12
53
-6
13
-46
94
19
-2
-7
27
-33
112
21
40
50
61
22
-54
-46
-4
-57
-2
36
68
-9
-38
-8
-15
25
-12
-51
44
95
-31
47
51
59
-107
30
25
78
-83
37
-1
72
39
-3
13
-64
-35
105
15
14
-100
-8
3
-6
33
-41
33
-30
17
21
68
90
7
-5
6
0
-29
-127
12
-5
-95
-115
55
35
13
62
4
44
32
5
-5
-87
-41
19
-18
25
-13
13
-95
85
18
-6
-70
-39
-5
16
22
11
33
-32
-8
-38
-94
-72
-14
-29
-59
5
-20
-25
11
-6
2
24
15
21
-22
34
-38
-1
68
48
-65
-61
-45
-54
-15
-88
-14
-25
18
-55
-2
19
47
3
-27
56
-64
2
-34
-51
28
-36
-3
-25
7
4
-22
1
18
6
-4
-33
50
-45
1
38
18
29
-47
-98
-7
41
11
-12
28
7
14
0
39
-51
-3
-34
6
31
9
85
-7
-2
19
35
-73
50
-49
-71
59
41
127
3
18
-21
-27
38
-92
-6
-47
25
40
27
-9
55
57
-12
-18
-33
20
-27
5
29
-26
-109
-24
51
34
-34
58
23
0
-14
13
22
-11
3
-5
-33
7
33
41
-3
11
15
-11
54
-60
-59
-39
-59
-15
7
4
33
-72
5
-5
47
40
13
24
-37
11
-21
25
-22
-18
1
1
47
9
55
33
-18
-49
-15
20
-100
-18
-65
36
-13
14
-40
-23
-93
-5
-56
15
-100
-58
24
-14
29
27
-34
-69
18
74
-7
-37
27
-18
-41
41
10
63
5
16
10
63
24
-3
57
-19
-21
1
-29
14
-31
26
6
6
-2
-8
17
-73
25
6
-7
32
6
81
37
-15
-20
0
42
-11
-18
1
48
37
-21
-47
-2
16
-15
9
31
-21
-47
17
-6
25
20
51
-38
-11
78
3
-4
-11
2
34
34
-50
-18
45
22
-64
-48
47
56
-41
47
-15
-4
25
-31
-8
-86
-40
-1
-58
19
-24
2
-54
-26
11
-72
1
-1
7
17
16
39
-11
-37
1
-64
-85
-22
-10
-53
-127
-14
-49
-16
-31
-5
-25
41
-32
20
-44
51
-35
7
27
-58
13
-60
-80
-28
-20
9
-36
-16
10
-7
-66
59
-45
-8
-18
-22
-31
-45
-17
-20
-1
9
-46
-24
-58
42
37
-20
31
16
-30
-41
-1
-6
-20
55
14
22
25
-13
24
-39
46
-5
53
-40
-31
77
9
65
35
19
40
-44
12
-15
-3
-1
-42
-4
-43
15
51
-18
7
20
127
-53
10
-39
-58
27
10
24
40
-23
-52
-33
39
-23
-23
26
-85
31
2
52
15
40
11
-11
-9
39
23
36
-34
-26
-3
39
47
-27
35
12
-50
-42
-2
-6
-6
12
-6
-38
-9
14
10
-13
-63
-23
81
14
-54
21
-75
2
2
31
-59
28
25
-24
-6
-45
-27
-10
36
26
-9
77
23
3
28
-51
24
53
21
-35
5
-49
7
22
-95
8
-25
-28
-73
-16
-38
-36
21
-29
-30
-45
37
4
-60
15
-11
-22
30
87
-16
53
2
39
-98
-47
51
23
-12
49
14
93
5
50
-35
-59
33
48
32
-55
28
-66
33
-3
26
13
-12
127
-44
39
-57
3
-60
46
-4
-80
32
34
-77
-2
-95
20
66
35
21
20
-2
-1
-26
-50
-15
8
-42
-2
6
-59
21
29
-62
-9
-27
39
-12
40
-24
4
-22
1
6
3
21
51
-22
84
26
-20
104
-30
28
34
28
45
2
-16
38
-20
-84
39
-50
-35
48
-29
-74
94
-53
-21
86
-12
24
-20
-6
22
65
-53
-1
-2
-52
-47
19
3
30
-9
-4
39
-37
-6
127
8
37
48
-10
3
-5
0
38
47
-2
2
23
-24
-31
14
-23
2
-34
-8
-15
0
-19
9
-78
32
27
-20
60
24
-28
-64
-11
30
-35
-35
-36
-64
-29
-10
-48
26
1
13
-42
-25
-28
-29
-6
27
-18
28
-38
-23
-60
-67
-45
32
-18
1
13
46
60
34
-16
22
-60
-13
85
-23
7
-70
-59
-40
17
33
6
14
55
17
8
-31
-91
31
6
-15
26
54
-70
15
-77
-24
-3
10
19
-2
24
-7
13
-32
35
82
35
10
-24
-6
-96
76
-56
61
32
-31
34
-39
4
30
55
6
0
26
35
19
29
12
-2
5
53
24
-50
-23
-36
-5
24
1
50
24
12
44
11
53
-62
17
32
47
26
-63
-33
18
-73
14
12
24
-35
37
-64
-95
19
-112
-37
-17
-42
18
-60
-43
-19
-27
-37
127
0
-33
57
82
26
-17
-27
42
-48
16
-97
-122
112
51
50
44
26
-19
-25
24
1
16
-44
45
-73
-14
-44
-24
-22
77
22
42
16
31
3
49
-15
38
-39
-80
38
58
-78
-45
44
-10
55
9
-20
-92
-24
73
29
-25
35
-38
26
57
-37
53
75
61
21
-36
28
0
9
-20
46
-26
-53
-12
-31
-17
29
21
4
31
-13
-29
25
-34
-23
-17
-91
31
-26
-45
6
-24
20
71
-41
22
41
97
-82
-7
67
-33
-20
17
46
-96
70
67
-9
-116
61
108
57
-55
-73
28
-81
63
43
-36
33
43
-101
-23
13
-100
88
-59
18
-38
-22
-27
-15
-53
-38
-60
-22
24
-29
0
-46
22
-1
2
-51
6
75
-82
-75
37
-106
-68
44
35
1
-75
45
-79
101
-14
63
104
33
11
-17
-87
3
-42
-3
15
32
-10
32
12
67
20
53
-6
-9
-38
45
84
-93
-50
28
99
-45
22
-22
19
-67
69
69
4
2
15
7
-32
5
-99
19
-80
13
47
20
-4
49
14
-41
-61
19
99
54
-2
-40
-112
19
25
-83
-12
70
59
-38
34
39
-6
-12
-46
31
-104
53
5
55
61
8
-26
-13
44
-82
-127
78
-68
-38
25
-53
35
-4
-52
11
-12
-22
16
62
-62
-6
84
-27
44
24
-4
-78
2
29
21
-51
-84
20
-17
-9
-16
-92
18
25
55
-55
2
-10
-17
59
23
-11
-45
-20
2
-24
-21
18
-103
8
21
47
28
-24
-28
28
-18
10
-24
60
45
-50
-39
-26
127
-3
33
125
1
-14
79
25
-49
0
84
10
50
18
72
-42
52
-28
50
62
-63
-30
4
28
-49
-62
-63
28
-53
-39
58
0
12
73
-20
37
-1
54
-80
99
-37
-74
61
-36
48
-56
-71
-41
-62
-45
114
-27
-34
45
-42
5
6
5
-45
30
-54
17
40
-73
-71
-74
-82
28
23
47
-103
-51
-86
-19
19
-53
1
42
3
-121
-52
19
-77
10
-49
-15
-90
41
43
-34
46
47
-61
26
-23
0
19
54
-1
-5
-101
25
6
31
5
10
-21
-42
-41
-8
13
-47
22
-28
-12
3
-9
-12
36
46
27
-17
6
99
-54
20
50
69
26
37
-8
16
64
-55
73
-2
40
-3
71
26
-53
-40
-30
49
-97
-61
12
31
20
-8
7
6
-65
45
29
42
5
79
16
-24
40
-101
-33
32
-26
55
16
45
77
-66
-63
85
-37
28
-21
36
68
-3
26
57
-21
24
44
-68
43
-40
35
-22
22
90
-22
46
24
-4
-37
-18
-11
127
-19
27
1
-107
-52
6
-4
-19
-19
-5
-69
-22
42
113
13
67
-34
-61
6
-73
-83
-1
-93
26
-10
3
0
-69
10
-45
3
-20
-8
35
25
-20
-3
18
76
71
-6
-32
-15
-28
-15
2
4
75
74
-59
82
47
-14
50
-54
40
32
72
4
36
-52
70
3
-83
-42
-23
-40
-5
29
-27
57
-93
-1
-31
8
58
-28
27
5
3
-47
-38
-2
-20
-127
-22
-2
-46
-20
-31
-4
34
17
4
49
9
1
-18
37
-35
-1
-67
13
-59
25
-57
-8
42
-19
-9
51
-48
39
47
-36
97
33
-77
111
0
-8
51
25
35
-72
-36
-38
55
44
47
49
24
36
-11
-12
-108
54
12
-12
41
16
28
61
-11
-98
45
-7
-56
6
21
-32
-56
-27
96
-5
41
-35
-91
-29
24
-7
16
25
27
32
17
-24
103
-8
95
17
57
63
39
74
4
10
-6
-9
-27
23
37
28
16
-1
53
30
-21
77
10
14
8
-4
0
-11
20
-39
-34
9
43
5
50
23
40
13
-13
-6
-50
-37
30
33
9
-34
-23
-1
-3
-10
-3
3
-1
45
17
4
-12
18
-38
-127
7
-48
51
-17
92
41
3
26
5
38
-23
74
-61
14
3
51
-50
25
9
65
3
77
-18
-30
68
-39
-15
-19
19
-9
28
37
-29
-23
30
-33
12
80
-10
48
-22
23
-44
-13
83
-18
43
-6
-25
-23
12
103
-55
26
13
-41
-7
28
21
63
67
-10
-54
-18
38
13
32
-44
11
67
1
-9
6
24
-40
-17
-24
-37
-4
-27
38
-7
-39
36
88
14
29
9
92
13
-8
-39
0
-43
33
-10
-52
-14
-50
19
27
28
-31
43
-54
63
-42
17
20
13
16
5
14
-40
37
10
77
-2
33
20
-32
-27
-67
-75
-38
8
-40
22
20
10
55
29
0
19
-33
-7
-14
112
67
-69
46
-53
-14
6
-4
-28
-37
-9
5
-1
18
44
-32
11
-18
-11
-61
-16
40
73
33
-38
1
8
-9
-60
-72
1
-36
8
39
-2
13
-11
-25
-2
38
-15
-36
80
28
13
37
44
-3
127
0
-43
25
15
-85
-40
29
11
-104
15
32
49
76
42
4
8
11
6
-25
67
24
-25
2
97
-40
-16
55
54
59
12
23
-19
-45
8
-6
-83
-12
35
-40
-56
-25
-9
26
2
-14
-9
-32
54
-58
-4
-21
-3
-53
-35
16
40
-1
15
-2
-32
-47
0
10
-16
-35
-71
30
40
-63
4
9
13
-38
79
-47
-29
5
-47
21
36
-39
1
72
-26
43
5
-3
-17
-4
24
-17
15
-79
-27
-24
-127
101
-43
-50
-4
63
-16
-19
-1
3
8
-2
69
-71
2
47
55
17
101
-6
-12
44
-4
-7
-7
-17
-60
6
-55
-23
11
51
75
7
30
-35
48
9
-14
37
-40
-8
34
-53
0
18
-37
38
27
35
62
15
1
23
-17
-58
-49
-105
-48
23
-14
-4
-5
36
-99
0
15
76
11
31
18
11
96
-48
23
-2
26
-19
-11
-35
-13
49
-40
37
-74
49
35
29
38
26
-59
-17
19
27
-2
-21
5
24
90
-42
75
24
-70
39
35
-34
-35
4
-19
7
-11
-62
-22
8
-70
-27
-109
51
99
69
5
-32
-66
3
-46
47
-10
20
-33
-77
-14
-21
14
16
-6
-95
-60
-45
33
-8
-38
-28
-27
-56
-5
-41
-11
-105
-20
-13
7
-4
25
-42
-40
-36
-43
35
-29
-51
47
-115
-47
-49
-14
13
-26
43
-7
40
-26
38
3
-22
-20
9
-18
2
-35
27
29
-25
17
-50
25
54
5
-33
25
63
-46
20
-19
26
-69
35
127
5
-98
-58
-26
89
1
47
-67
21
73
0
5
38
14
-30
54
17
38
-28
-30
-11
-15
14
-25
-14
-23
22
81
22
-55
-59
4
-34
16
-40
8
16
23
-97
-67
25
-78
68
14
19
40
34
56
-22
-87
17
-64
9
14
-14
6
-71
19
-35
6
-53
-6
-49
19
-82
-39
32
-14
-6
8
13
110
15
-47
5
-33
-28
60
13
39
-14
-44
15
54
0
-39
6
17
-1
47
8
-7
-8
19
127
-14
-24
-28
-47
45
-30
19
-26
18
-41
0
-25
-32
40
-20
-33
50
13
-14
20
12
-11
26
-82
21
87
18
-72
23
-38
18
-103
-94
-42
-13
26
-38
11
-4
7
-24
8
11
1
-4
-17
-5
20
-33
-36
0
27
42
-2
-6
-55
119
-11
-74
-12
-89
-8
9
-36
-11
-10
-33
19
30
18
45
-4
-10
24
14
28
-60
-15
-18
-21
-37
40
55
23
-21
16
17
59
13
-25
1
6
-3
-22
-11
-23
-13
14
42
-28
54
-2
24
27
-22
99
-13
32
-26
14
19
1
-44
-38
50
22
54
23
-1
9
-15
6
28
-41
-62
10
-13
-80
38
74
14
14
-18
19
-62
-28
48
21
-32
7
25
-30
58
-31
45
33
-3
5
75
-20
-28
7
-57
71
-93
-87
36
-29
-35
61
-30
29
-6
65
-65
54
31
98
-10
44
28
-35
31
20
9
3
-6
-6
119
-90
-38
51
15
-65
-74
52
36
8
23
17
-50
68
27
-78
30
-59
-16
85
-31
32
-21
9
78
91
57
-78
-47
82
4
-20
-62
-42
-98
15
2
33
-7
-20
-54
114
14
111
27
74
1
-88
46
-40
-89
18
-64
-60
-35
29
29
-53
10
31
11
-45
14
52
-18
-31
18
61
49
72
-37
-32
-39
-79
-22
-25
21
127
109
-42
6
70
-58
40
34
43
-25
127
33
11
35
-3
20
21
-27
51
17
-34
10
-20
26
-11
29
-41
17
-18
-61
36
0
-36
-28
3
-48
7
-5
60
3
-7
33
38
-16
-13
1
13
-12
-23
8
-11
43
-66
-54
-17
48
-59
26
7
-51
-22
4
1
16
-12
-31
37
0
-1
25
41
-63
11
56
1
-43
2
-1
-78
-6
65
13
-7
12
-10
1
50
113
-46
4
2
-26
-67
42
-2
67
43
-51
13
5
45
-5
-25
0
-14
38
19
42
30
81
22
-10
-48
-73
42
-3
34
22
-14
17
52
-34
36
0
11
34
-14
15
95
7
-43
-12
-4
17
-78
-9
-7
-4
-35
-8
-41
79
15
22
30
0
10
78
6
-20
92
3
65
0
3
64
-42
-32
2
84
31
-25
-91
15
-23
-7
79
127
110
51
82
-106
69
-50
-49
-53
-26
-56
-28
-33
57
-3
32
-51
-15
-22
26
-45
-19
6
26
11
-60
-12
30
-2
-24
-99
-66
-17
73
47
56
-37
7
16
-8
-101
-104
47
6
-23
28
-6
4
6
-51
50
33
-1
88
-72
20
-31
16
14
58
30
-37
-16
21
-32
-55
-6
64
70
27
6
48
70
49
67
-21
-18
59
11
46
12
-3
-6
-29
56
42
21
-31
-3
-73
52
92
-57
-54
31
-39
67
2
67
-3
41
6
-21
-9
-17
-49
-29
-27
-29
-53
-20
-73
9
16
39
-52
8
-16
-2
-25
54
13
22
18
47
-28
-50
13
-5
22
25
66
-29
84
-38
-87
-70
7
-49
36
-49
-85
-90
70
30
-18
-59
-127
10
-54
106
22
-27
-22
109
18
-19
93
-54
-33
-89
-108
-3
-2
-39
-57
39
-31
7
-47
-23
117
4
-74
64
-49
-8
26
-80
-54
-43
17
-6
19
101
65
-37
-42
79
70
-61
34
-33
-117
-8
-85
-31
37
43
-26
-17
-62
-43
-30
-29
-41
60
-58
-37
6
64
58
14
10
-53
13
-94
-110
95
-60
-57
-91
57
-106
1
40
-46
-15
120
19
20
-6
44
35
22
29
-9
-59
79
29
25
0
27
-38
15
38
-11
5
84
21
112
30
-28
40
9
-35
43
-1
-73
66
75
81
9
-58
-6
-76
116
54
-110
54
13
-30
2
42
-43
-16
-101
-33
-42
-43
-76
-48
-22
-28
-127
-87
-53
-45
10
-5
-53
46
-23
-11
-28
40
-7
-12
39
-26
-3
13
25
12
-8
102
41
40
2
-18
15
-57
0
-20
-32
-34
40
9
-3
103
-31
14
73
-43
-2
54
0
16
27
62
39
-80
20
-37
27
-98
83
-3
-70
-33
14
-42
-3
37
54
-13
30
-37
-61
3
-4
-47
-34
-7
-14
-1
37
19
44
-4
6
13
2
-16
-15
3
1
-52
-44
73
34
-15
-6
32
23
-72
-10
18
-35
-42
0
9
14
-17
-48
-42
12
29
-20
7
-92
-34
-6
-31
-89
9
-15
-20
5
38
-29
51
15
2
-58
38
-43
-51
-3
42
10
-23
20
22
34
5
-6
34
-28
-38
-16
-5
-3
-6
-42
22
-7
9
-51
-7
-28
13
48
-98
-15
-86
43
-22
-2
13
-83
-9
-6
50
-8
28
57
4
-65
-117
-12
38
5
15
33
-14
39
-47
-92
80
-5
7
24
-70
7
24
-99
-6
-37
-39
41
11
36
14
62
14
38
30
-7
-29
42
-14
-11
89
-20
18
14
-5
-1
61
32
-91
-48
-23
35
18
-4
47
86
45
-39
-4
-85
41
-15
-18
71
-18
-127
-46
120
-106
-67
38
24
88
29
42
-69
9
-42
5
-11
-16
47
-13
-16
17
-20
30
97
2
7
-11
63
-21
-20
11
93
-43
-83
26
76
49
8
35
-65
-43
5
79
19
-16
22
-43
25
-1
26
-12
54
24
15
28
76
1
35
-71
23
-28
-19
-52
94
-23
49
5
68
6
-22
-10
-1
9
40
32
-4
-40
-4
32
17
-16
-14
-55
-10
26
31
-33
-37
-23
-40
-52
-40
0
-14
3
-14
42
-24
17
2
4
58
24
-3
63
5
-27
-68
-3
36
-30
-5
-10
-2
24
-64
50
24
-52
-38
27
34
-4
29
-10
-127
20
-26
-18
-21
-17
6
29
-11
-17
25
41
-44
-4
-28
-41
47
46
22
32
-6
-16
12
72
-7
2
-55
15
-12
8
-15
6
35
32
73
15
14
11
-51
-1
-25
14
-28
49
21
-10
9
3
-22
-40
-23
-28
4
0
56
49
42
16
-15
47
3
15
-9
0
36
4
10
-29
-3
49
87
-13
90
4
62
16
-53
-81
-101
-25
13
-66
114
-7
28
16
-56
21
-24
-3
-77
26
44
-42
29
35
-44
82
43
-93
-22
-79
-1
-100
4
56
-35
-36
-37
-25
-17
45
27
-27
-16
74
-61
75
-25
0
-29
-45
22
68
-14
7
2
53
-25
-76
-13
-21
41
28
-92
-10
8
-65
-76
-33
-7
74
36
8
34
30
-117
90
-71
0
-25
20
-72
-21
16
-50
-71
6
-47
12
-22
-19
-1
-6
-37
51
17
25
4
-52
67
-1
14
89
-1
26
-2
55
39
-13
33
23
-45
31
28
39
33
-34
-12
35
-7
-46
-12
-78
22
-12
-1
-54
68
-12
127
61
11
14
-29
-52
-64
48
38
-11
2
-20
15
-28
-28
-8
8
39
71
-14
6
21
-9
-20
52
44
31
-24
-11
25
30
-4
-21
-23
42
-34
65
28
-20
21
-7
100
-38
-29
-28
-43
45
-8
7
7
22
-62
-28
3
-6
36
1
-12
52
-14
-39
-36
11
-19
18
-98
-13
57
8
-38
14
-36
43
-58
-51
-43
23
72
-23
24
21
0
1
26
11
-7
-17
-4
7
12
-44
-30
31
28
21
-35
-62
-29
59
-24
-69
-27
-26
-22
42
-13
33
11
15
20
35
16
3
-37
-2
19
24
-35
-48
-24
-35
-45
-28
38
39
64
6
5
15
65
28
8
0
-34
24
-18
7
-3
5
9
44
33
57
-21
33
42
-2
127
-12
45
-17
31
-17
-6
-19
-8
5
-26
54
30
51
99
-12
-13
10
35
-122
-78
-47
49
49
9
-3
-22
-34
68
29
2
-49
-20
-7
-15
21
-78
36
20
-2
27
-46
4
-61
30
-64
1
-11
-84
-5
-23
-34
-45
11
-29
1
30
40
20
1
-50
25
-15
-29
-71
-57
22
58
35
1
21
-24
-42
16
19
-41
-66
40
71
54
8
47
10
21
52
60
23
-13
33
-13
6
9
-21
-8
29
-8
11
-27
66
-28
20
-57
-59
43
127
-18
-52
8
-8
-30
20
-11
42
43
-16
10
-43
36
35
-11
52
7
-3
-45
11
-73
-12
58
-24
56
23
26
27
19
-45
-14
-6
-35
14
-1
-44
-20
14
37
-73
-6
-28
33
10
21
44
44
-8
-83
-34
45
-26
36
-35
38
61
-39
51
-37
-7
-32
-4
-5
6
46
-63
8
-6
9
-55
-38
-41
-8
30
72
-47
25
13
-3
-15
44
46
-38
-26
-21
25
27
3
-6
50
39
-44
-18
-119
-31
14
24
-89
3
-51
-37
25
22
6
-16
-36
14
-32
16
16
38
-67
66
52
7
9
101
17
36
-3
61
10
47
8
-14
24
-9
1
-45
1
-49
3
-17
-7
2
7
40
13
40
49
-7
-2
59
-30
-28
-18
-14
-57
-26
53
-69
-26
-25
40
69
-29
-22
47
-10
31
28
39
-19
32
-60
-45
-51
24
21
25
43
64
66
-33
-28
28
0
11
-18
25
-37
3
0
-37
-22
46
-127
-4
-7
27
16
-125
-41
34
-63
-24
-20
-38
-13
98
-34
3
-71
3
-58
17
-30
52
-33
4
-55
55
22
6
6
0
-20
-35
9
32
60
16
16
-17
-33
-6
-28
15
-31
-67
43
37
18
-85
8
-13
17
-58
-29
83
-22
-26
28
22
-62
20
83
-4
-10
-20
30
0
-37
-61
45
9
105
-31
-34
107
28
-51
-21
-3
-22
73
104
-14
-28
34
14
-30
-37
-81
34
43
-2
33
-22
64
14
53
30
14
-9
58
29
-109
0
-39
46
-1
5
17
-26
-62
-10
12
53
59
3
6
-72
4
-28
-10
9
-1
31
-10
-25
-45
-54
127
-64
17
18
10
28
22
-75
1
22
-7
-29
2
56
-24
-5
5
-1
-28
-96
-6
4
-15
106
32
82
51
1
13
47
-47
8
12
-17
-25
5
38
-83
44
-20
-8
-47
26
66
-41
-71
-14
-25
42
10
80
-59
18
-45
-4
53
58
-2
11
2
-70
74
2
-27
-51
59
-11
98
-19
16
-41
-27
34
29
14
-38
17
-7
-16
0
58
-36
8
-10
-26
53
-35
30
-32
-14
27
-24
-10
6
-13
-127
-41
-30
-28
69
-9
26
-50
-56
-87
27
-81
-5
22
-25
-5
0
60
36
10
-2
25
5
9
-32
46
44
8
-14
-30
-6
-10
57
19
45
-5
7
42
-25
20
-26
-44
6
-58
6
78
12
-7
-10
1
32
11
37
-33
-37
21
-81
-26
-5
23
-31
19
86
26
5
39
34
-86
8
20
23
50
79
78
-18
127
-67
64
-36
-31
43
-22
-34
11
85
-2
-21
-29
-25
-19
42
53
24
100
15
42
1
39
3
1
-65
0
-40
-4
-10
67
-2
-14
-23
-45
-55
-50
-28
26
-21
15
16
-33
7
-42
-33
19
-88
-47
-59
35
28
10
14
-63
21
-17
-50
-13
43
-38
51
-19
6
-14
-46
-38
20
8
-19
64
-55
-61
8
-10
46
28
-25
-16
-43
20
-82
-4
52
92
46
0
32
102
54
42
35
54
-3
16
-41
-3
55
4
0
-46
36
36
19
12
-6
-20
11
114
-40
3
37
-14
18
12
33
13
46
26
-18
18
19
19
-2
6
19
-41
-27
-37
19
4
0
1
-5
-18
-3
-54
73
-8
57
-34
42
-58
59
39
-64
-10
-81
36
-22
-22
80
-24
2
-98
13
-21
1
-48
45
-57
-26
-48
-30
-13
1
-22
44
-13
8
-31
28
-32
26
54
29
-9
-18
-78
-51
14
-30
49
15
-30
-28
64
24
6
15
-5
24
-5
-21
-11
9
-15
12
29
51
51
22
46
2
-25
38
-36
7
20
48
4
45
14
40
4
-15
-12
-37
-58
-6
10
-11
15
-48
59
2
2
-35
47
36
-127
8
-25
30
14
-51
39
-17
-14
30
-63
-18
-19
15
38
63
-30
-102
65
2
57
4
-49
39
10
-62
38
-57
8
33
51
-66
-9
95
55
25
-59
76
-7
44
57
-52
-71
107
8
-21
-15
15
1
-31
16
67
-29
50
73
-70
20
3
16
-30
-6
46
-15
4
-15
-65
-35
30
-35
93
0
11
82
62
82
-71
17
61
-40
114
75
-1
-13
50
97
101
-64
-7
-115
105
-54
-72
-50
-85
-11
-94
-19
-31
58
18
8
32
63
-71
29
6
-16
21
-19
11
15
-18
-78
-30
-29
-3
-23
-42
32
48
8
-53
32
-32
13
23
29
26
-42
42
63
-1
90
-2
-77
15
-28
24
-57
-73
4
73
32
-18
-12
10
0
-43
73
6
17
-7
-38
10
96
35
-63
-12
2
-97
27
-20
48
53
21
-35
16
64
-23
-94
-2
-64
68
-5
44
64
-46
-16
32
-43
-84
5
63
112
-21
57
85
127
95
-12
85
-3
4
1
40
35
41
58
9
98
52
-5
1
47
-47
-48
39
-37
-42
-17
7
-2
-64
17
37
-20
-55
-19
38
-57
-22
-31
93
8
-32
-51
-12
-14
-13
7
-37
23
12
92
-55
-96
49
21
48
-68
-57
-13
-58
-47
-63
-39
-41
58
-6
-24
53
-8
5
58
110
-61
-83
73
-79
-25
7
4
-52
95
-51
-71
89
-6
-26
-57
46
58
52
11
-25
93
-67
-29
-17
45
-83
1
14
71
-11
-35
46
31
20
31
-18
72
94
48
9
-31
-97
-68
-29
-24
62
17
-29
-34
53
-29
37
-6
-2
-13
-26
70
33
-38
-31
-11
-32
43
-47
-45
-32
24
-22
40
2
-51
39
-31
28
-63
55
34
127
54
11
-81
31
-69
-18
48
47
55
-41
-10
42
54
77
17
-46
2
77
-20
-22
-25
-36
22
-76
27
3
-33
-4
4
8
14
-22
-50
52
64
-21
71
-5
-21
17
8
-58
76
1
-46
-36
-45
-7
0
-9
-30
9
49
-127
-5
-42
-61
-41
16
-46
38
31
4
37
83
54
-81
-106
82
-16
-33
16
11
-66
77
-54
-53
115
53
54
-3
-17
52
74
20
-11
-23
1
17
-25
-2
-35
15
18
56
-27
-28
45
-24
-5
43
-24
78
13
51
29
15
-56
-45
-17
-39
28
-68
19
-9
76
8
-32
25
-13
27
26
38
84
-21
65
-49
-7
16
-9
-75
62
9
-26
-12
49
-29
35
15
54
-50
-3
-6
74
29
-5
-62
40
-40
35
-3
32
15
-45
-24
69
-18
-64
-4
44
-108
30
-88
-77
-14
-20
9
-63
-11
-35
-24
-58
-17
-49
-38
-71
-66
-12
30
-14
-85
-1
-11
-39
54
-49
-71
1
18
39
-49
14
-56
40
12
-43
7
-32
38
0
-5
31
-65
59
41
8
-27
-20
127
-5
18
38
19
7
10
21
-47
20
23
0
23
-16
58
45
35
20
32
-29
-20
0
-36
21
60
53
-14
14
0
35
3
76
-33
10
26
-50
66
-81
43
27
-8
-41
-44
-26
34
-44
3
-53
41
-32
29
-14
-29
-17
22
2
-38
18
7
-2
17
-5
2
12
16
-4
13
8
46
64
39
-105
94
95
52
25
18
-26
70
-3
-53
2
8
-1
-7
42
51
-65
15
4
-43
-31
-38
-50
38
30
75
-12
13
33
-3
-63
17
73
38
-33
-35
59
37
0
-10
-46
31
-93
33
5
-6
37
14
97
-88
2
1
-53
38
-31
3
72
16
-112
-10
11
10
-13
31
-13
69
-48
23
-56
-17
-29
-24
-127
-51
33
6
17
46
-34
32
-35
15
-57
26
46
-6
-11
76
-10
42
51
36
20
-4
20
-27
58
-20
-27
-15
64
-39
-69
-76
-97
73
-69
-54
-47
-19
-12
44
-29
-11
62
33
46
33
-7
8
-13
11
-30
14
-22
-36
-13
3
-55
-55
5
29
24
21
52
-10
46
18
49
13
-20
32
-2
49
-12
-4
-15
39
65
42
-49
-3
-11
25
28
-8
31
-28
56
-12
26
23
24
-1
-53
-24
4
21
25
-4
27
-4
-28
35
-84
-56
-72
-10
16
-7
11
-82
-34
11
4
7
23
5
-33
40
119
-43
6
89
38
-114
-56
-1
28
-15
-34
-11
23
61
-93
-43
-46
-6
-24
-28
27
-37
48
-29
29
-16
1
9
-88
-45
-54
-9
-1
-18
28
37
19
85
-40
-36
-34
5
1
31
11
-84
-127
118
6
34
27
67
-21
-36
-4
37
39
17
25
-51
0
45
41
-41
-2
13
14
-7
-6
-45
34
46
-45
-23
-21
46
-11
38
20
2
-28
-49
-40
72
28
22
-70
-57
-31
19
-30
-13
-13
46
-1
112
-52
-63
-19
21
-6
-64
-19
-41
-59
27
-7
-60
-13
15
-21
-7
-10
-7
-68
-16
-29
107
53
-53
20
40
-1
-39
26
9
-35
-4
-53
9
11
3
2
17
-21
8
-61
-13
12
13
8
3
-8
-54
-37
11
-68
-10
-8
25
-25
34
-10
-8
-12
2
-44
1
-85
16
29
-69
42
-35
-13
51
-23
26
-39
33
-10
-76
9
28
2
-4
33
-45
71
59
62
-30
-49
125
-25
4
0
-41
54
38
21
21
-20
25
24
2
38
23
59
-30
-20
-7
-42
-35
-49
10
-12
-20
5
50
-44
-6
26
117
27
-37
17
26
-53
83
-25
-62
-127
-34
56
-28
-44
-7
1
14
8
-108
18
-58
3
0
115
10
-58
-9
18
-24
13
3
57
-5
-13
24
-28
-52
-81
-37
-51
3
-91
36
91
15
18
-43
15
-19
-41
77
-18
-100
67
-8
-16
0
-5
-5
58
-13
-102
-40
-38
-77
-67
-60
-2
21
40
9
57
-77
6
38
-1
22
-1
-41
49
-5
14
-67
39
-12
-47
17
56
16
103
56
-25
44
-45
-38
-42
-5
11
-30
-41
-22
40
2
-8
6
-14
-14
6
24
62
4
-39
54
-23
42
-30
29
-24
29
-103
-18
-74
-5
41
30
-17
44
-34
-44
24
-40
6
-62
37
25
14
127
6
121
24
23
28
44
20
-51
-24
-72
-19
5
61
-28
-118
-46
92
112
-33
-13
71
-1
-5
-47
-38
94
9
-20
-81
-42
-15
-18
-17
48
35
63
-24
-43
1
-12
-60
-20
90
-26
75
-46
-23
-17
48
-68
-84
16
-7
68
-57
0
-3
23
96
-30
54
29
-3
23
-17
-55
-4
127
5
-19
-53
20
-44
-6
85
64
120
22
79
-42
49
-2
9
-26
-43
-45
-29
-44
48
17
23
-36
-40
-18
-30
-7
52
-18
14
26
-91
15
-47
14
37
-67
-10
-64
54
-26
-7
-1
-12
20
-8
-12
-46
37
-53
42
-17
-80
5
-31
2
75
21
-17
51
-62
-58
-1
20
-2
31
22
11
-77
33
-89
-33
30
65
37
21
-5
118
21
-6
88
4
3
21
-7
28
-16
18
23
-11
46
50
24
33
32
-37
-2
87
-55
7
22
5
45
-2
57
-7
12
4
-31
18
39
6
-12
1
-3
36
-37
-70
27
-19
-14
2
-47
7
35
-66
87
83
12
6
-5
-38
-12
-25
11
-1
65
-10
-52
7
-48
-58
45
-17
45
-9
-5
64
60
42
-43
-23
14
-14
126
3
-21
36
24
127
1
-47
-8
-34
118
-42
-41
-36
1
-38
0
-27
-32
12
-8
-61
34
4
-41
-21
-21
-35
0
-80
28
14
42
-14
13
-13
26
-48
-66
-35
40
41
-24
11
-3
29
-15
-22
16
10
14
17
14
87
-68
-63
25
7
-6
-15
-52
-17
107
-26
-84
-29
-17
5
-54
24
24
18
8
5
6
47
54
-42
-14
2
-8
21
-40
-7
26
-11
-26
12
7
25
-24
36
21
67
37
11
25
-38
-32
7
2
-23
8
50
87
-29
40
21
60
73
-39
110
-22
-6
3
20
-21
29
20
-34
62
-21
-46
40
11
55
-49
91
49
-9
6
-47
-20
-28
6
33
91
4
18
27
14
-21
52
44
-14
14
19
9
56
-100
19
28
11
-4
29
88
-11
-27
-19
73
-16
-13
-16
-67
-35
18
-29
39
28
33
-33
-26
32
2
-76
-38
1
-12
-31
17
11
-27
21
1
29
17
-5
-28
58
51
38
40
-5
45
74
-21
-8
30
49
38
54
-25
44
26
59
59
-22
52
-32
24
58
31
-10
3
-59
31
14
-61
-6
-39
36
60
-7
-9
-24
-43
-2
-5
8
127
4
32
-39
-57
-85
-2
81
-1
-7
20
33
-4
47
-84
-44
32
-54
-23
-54
-33
9
-36
-4
-27
-38
-63
30
-78
19
-33
52
48
-17
-36
-59
-22
-9
57
-17
-27
11
45
-25
63
-49
2
3
7
3
38
57
-27
-56
40
41
1
-44
-47
15
27
68
-18
33
28
37
19
38
36
-42
18
-22
-17
-12
46
12
39
27
-48
-36
-54
32
116
0
-19
34
-17
-13
25
-38
22
9
-3
-23
12
58
42
-52
-27
56
16
-31
55
45
-31
5
-26
26
12
6
-32
-38
29
-52
4
-1
40
-1
-1
4
31
19
73
30
-49
46
127
-13
-23
83
-14
-75
-43
21
-26
-16
51
19
-25
49
37
-3
-56
-26
88
3
-49
-25
-8
31
37
-25
-18
9
12
-59
50
-18
51
56
-27
56
28
-40
-11
-16
14
24
-4
-24
7
18
22
12
27
72
-27
51
-39
-63
7
11
110
-73
62
-6
-6
61
-25
-36
8
93
-41
-44
-100
-23
-36
51
51
33
109
52
66
-53
12
33
46
-48
-23
-62
-33
-24
67
-2
34
-7
-62
-15
7
-11
58
2
-3
73
-9
19
6
-45
21
-117
-68
-56
48
21
-32
-32
-77
14
-38
-3
-54
61
7
45
-9
-41
-10
-43
21
41
43
-2
76
-42
-61
-4
18
-1
14
-18
25
-88
47
-127
-77
72
98
44
4
28
81
68
34
76
31
43
6
-50
-19
62
14
23
-45
14
24
45
51
-18
-44
29
127
-68
-41
24
-8
86
-25
45
8
109
47
-35
0
36
-14
-13
-20
-54
-38
-97
-31
34
-40
-32
30
-52
1
-8
-56
79
9
50
-2
31
-37
-31
5
-18
25
-2
-70
-71
26
-23
-12
-32
-34
-14
32
-121
-18
24
-56
0
18
10
-29
-53
-16
-21
4
20
-7
48
58
-13
-13
79
29
77
8
11
73
50
30
10
68
15
-20
21
22
16
5
5
25
-17
-40
-20
-8
66
4
11
59
5
3
-16
24
-31
-35
43
-50
42
-40
-34
-36
-22
-26
-13
16
20
27
3
-16
-34
26
57
-61
-7
-5
-38
-21
55
51
-17
22
-73
-50
36
-6
11
-8
-10
38
5
-14
26
-103
-30
-46
16
-28
-3
-30
1
-53
-47
-32
53
-12
-41
2
14
5
-11
-14
18
127
-36
-76
-6
84
2
12
26
21
8
-53
-38
8
44
-13
22
4
-23
-45
-7
-28
58
-13
-17
-5
-26
-37
29
-14
37
127
-23
-52
15
-20
-31
67
-50
23
-51
-33
0
-60
-37
-4
-33
-12
82
69
26
7
5
-40
-40
-34
-51
51
31
8
-32
-21
42
47
94
-42
49
-72
32
51
59
24
85
-34
48
-32
28
4
3
70
41
-32
-3
52
-18
68
70
-104
-36
36
-25
23
28
-77
-5
55
46
-39
-5
87
-4
13
-16
-24
19
48
10
-31
-13
21
-10
-20
-18
-11
-16
10
-64
-34
2
72
8
29
-7
-5
31
-16
-17
33
10
-56
-2
-30
-5
37
-26
17
34
-48
18
8
-27
-34
9
45
59
21
36
18
-69
53
-10
-71
21
67
-11
57
-12
41
-12
-35
47
-72
-82
43
54
85
30
54
-127
-20
-4
40
-69
35
-42
89
-77
-6
-94
45
-7
35
-17
-24
-1
43
-1
-21
-5
48
-16
-34
-54
32
9
-39
52
-44
-26
6
61
36
-32
21
26
55
19
38
35
-51
53
-25
-95
24
23
62
-83
-9
9
-40
-29
-44
-27
-20
43
-14
36
29
59
-42
-21
-22
-34
-17
21
-117
-47
-30
-46
-10
25
-47
83
-43
-13
-52
-6
-50
-30
-20
-27
7
-89
46
60
9
-5
-6
-7
46
-18
15
15
3
-108
-83
24
50
9
-41
-9
35
52
45
-63
26
-73
22
20
-64
58
1
-38
-69
1
-11
-37
25
-67
-42
115
29
-55
24
-72
63
-53
-32
-80
52
-10
-55
-43
-78
-19
-18
-18
98
14
-37
36
-25
-19
33
-24
100
14
36
-49
-37
-27
-38
-91
-47
-36
-16
-26
-46
-15
4
49
13
38
-17
-8
35
-20
60
2
-12
-43
-11
-19
13
79
16
-1
-28
16
-14
-105
-42
-4
8
11
-12
-56
40
2
18
57
59
27
19
41
-40
1
-47
-89
59
-19
23
0
-8
-19
43
-3
-53
13
28
-18
127
54
70
28
2
33
-14
50
-95
0
40
52
-41
38
-16
-9
46
-5
-21
55
74
30
65
1
39
-60
-12
34
-32
17
23
-22
18
-15
-20
1
-66
-45
40
25
56
17
74
-72
-31
-62
84
26
31
-69
-16
-59
0
-3
21
11
-70
-85
23
53
23
11
-3
-15
-70
-17
20
7
20
9
1
38
-75
56
2
53
68
50
38
81
22
72
-49
-23
-10
19
-54
112
41
91
11
8
-27
-105
-50
19
20
27
-3
41
-45
113
45
28
42
-21
-63
22
52
-8
-30
-34
4
-68
-120
-32
25
-9
54
-19
49
-70
71
-109
-7
61
15
-33
36
27
-26
-36
-5
74
-36
1
-22
57
-6
-51
9
-22
-71
-21
38
28
32
2
40
-34
41
-15
-75
0
-22
2
59
-6
43
17
27
40
37
13
-52
-5
28
-25
-6
-5
-3
-6
81
-1
-37
-25
39
-43
127
36
32
21
18
82
-14
80
-52
-115
80
1
-4
-42
32
47
-37
30
62
-50
-33
62
23
42
-2
89
23
55
-13
-14
32
-11
14
50
21
4
68
84
-27
15
60
-17
-51
65
-24
-55
71
27
17
35
-50
-19
11
30
19
5
54
3
-74
7
29
-59
-37
-7
-43
27
-8
-3
-11
-10
17
-38
-19
-25
-28
-23
45
49
-3
91
23
38
-37
-14
80
6
37
-5
51
-43
-8
-27
7
-114
54
-7
20
75
14
-69
33
13
9
4
-65
-16
-27
-2
-30
28
-24
15
30
76
39
-33
-67
-43
24
-7
-12
-52
-41
30
64
-86
-26
0
5
-33
21
-18
-20
4
-30
18
41
59
-39
-6
-24
36
-33
24
-12
-6
127
39
-26
-6
-40
-10
-81
-86
31
37
-35
-53
24
-47
-10
-111
9
-61
-23
53
-44
-4
81
-3
-53
0
13
28
-82
41
-117
-55
61
-110
-37
-36
53
-13
-37
70
95
9
13
44
-71
34
-8
-48
-29
19
-46
122
65
80
60
61
-26
-127
-60
57
-21
24
35
19
-31
24
76
-21
64
-36
-99
1
-14
2
5
-3
-16
-84
-80
-40
7
-38
52
45
30
-64
55
-98
-11
42
48
-40
8
-14
-5
21
-32
8
32
-10
23
91
-34
-75
33
23
16
-58
73
18
13
26
-20
-33
71
0
-57
16
-41
20
43
8
-22
0
-10
19
64
39
-99
-78
-5
-34
-18
-30
-47
-15
87
29
-60
-45
15
-107
116
3
49
46
-4
65
-73
75
-4
-47
77
41
8
-41
81
103
-74
32
62
-86
-27
68
-8
37
2
77
9
22
-20
20
25
-44
39
-19
41
-3
61
52
-16
47
47
-57
8
-21
25
-26
1
-34
22
-67
-48
-34
2
-10
20
25
17
-39
-50
17
30
9
8
-25
-45
11
32
-22
-62
60
33
-22
-12
35
28
-36
-11
-23
38
46
-15
-4
17
-30
15
-12
83
-2
36
-9
-36
-18
-7
-38
-27
34
9
15
48
-36
7
24
2
29
-29
2
2
-38
-46
-28
19
-13
17
15
3
-30
38
-7
2
-38
-20
-7
27
6
-11
-36
-14
44
87
-29
11
7
-17
33
33
16
1
-25
-22
-8
58
63
-24
-9
-16
-7
84
28
23
10
-18
1
-127
-1
-44
9
-38
-33
-5
0
68
-12
11
-13
-16
-15
-32
-16
-36
-38
-51
-21
-35
-40
-10
9
-72
36
-21
13
-17
2
-34
-14
-50
2
-55
58
-34
46
-4
-31
-3
38
-10
4
79
-40
41
-29
-5
29
-56
64
-46
-52
-102
17
19
-20
-10
-18
10
-83
38
-48
-12
-61
-17
10
21
-6
-46
-34
34
30
-100
11
-40
25
-54
56
-27
116
-22
25
57
-7
8
-13
-33
40
-60
-2
-10
70
38
19
-44
22
81
97
-13
37
48
61
39
-25
-20
-23
-1
12
-15
26
2
-46
-23
-20
-44
-27
-4
38
18
30
61
127
-2
65
-38
96
-23
7
7
17
-1
-30
-32
-73
-27
49
-21
-58
-63
-35
29
48
17
-38
46
-79
-31
25
94
33
16
83
-6
47
90
26
38
19
124
-19
-41
-26
-22
47
-10
30
-27
-33
38
-6
16
73
-32
37
40
-33
-21
-20
3
-12
19
33
26
24
-52
35
12
22
31
37
-55
-1
-40
55
31
49
-78
-26
-14
49
-39
75
2
-22
-6
67
-20
-42
34
-53
-61
-52
-39
-34
-37
55
17
-36
56
60
-3
28
-100
24
-38
47
48
-11
3
74
5
-36
-43
34
23
67
48
-1
-1
71
52
35
-108
127
127
65
13
26
-28
-104
-20
26
43
-27
9
-82
42
32
-1
-38
67
-19
-37
12
35
78
36
26
39
66
34
48
-36
-2
-47
-43
-16
4
-51
-2
68
-29
-29
47
3
30
36
-59
-27
-109
-39
-12
63
-74
42
-12
72
85
-12
51
-62
12
31
53
-53
50
-73
59
-51
60
-28
-16
80
-4
-40
65
35
-18
30
22
35
2
-6
-30
-6
-11
33
-39
-51
-27
46
-26
7
-16
-24
-75
14
31
1
-53
-14
-2
-15
12
-7
-31
-18
-28
26
0
50
-19
8
-127
-25
-36
-13
-7
8
28
-15
13
-53
-20
73
1
10
8
-27
-36
-20
-90
-13
-25
-3
55
18
34
-15
-40
-63
52
2
-85
-3
-13
19
34
27
7
-32
-25
32
31
44
-3
-3
-30
24
-19
-10
-48
1
-3
50
22
53
-40
10
2
-21
52
45
-33
-11
40
-85
-41
30
0
38
27
25
-49
-68
29
54
12
-21
15
-25
-9
-31
-66
26
17
-18
3
4
31
14
-16
-34
23
8
-61
12
-21
10
38
6
-34
-3
21
29
-31
-4
58
24
38
-37
-56
-8
-73
-64
-37
-5
-44
37
-35
-2
-17
0
-47
51
36
31
-23
-31
6
23
-37
60
24
-9
-32
-21
-127
-44
39
-44
-13
64
-65
-24
13
42
-31
-7
-40
4
-50
-32
-59
-19
-8
28
13
39
-69
-12
16
53
-2
-7
11
-25
27
-4
2
-25
7
-57
38
-2
35
-19
-4
63
-44
-34
-29
26
19
-19
-10
-15
-11
86
35
-35
36
-17
-13
17
-38
-5
-11
-41
32
33
-15
-39
49
7
0
24
69
-25
-61
31
-11
-9
14
-38
-21
-90
-10
28
21
-26
-23
-40
-31
-54
17
-20
-72
-30
-48
14
-2
-38
19
-6
-7
20
4
-22
-27
-19
-37
-13
-25
-41
14
-27
-2
23
17
15
1
42
27
-12
-14
-54
7
40
-32
3
0
-15
5
60
-56
-12
-16
-4
2
8
-82
-18
-3
-26
37
37
18
42
7
-46
2
22
75
19
0
49
-28
17
-118
19
-14
-13
35
-21
-27
61
-32
-55
-41
12
-17
22
13
17
-49
-50
-39
-47
-27
18
-32
-2
73
11
-82
43
-39
-15
3
4
-54
-16
-24
31
-77
-15
-25
34
-10
17
124
17
-47
32
-44
28
77
6
-47
-22
-39
-55
-5
127
-30
-17
-67
-85
-2
30
4
-35
-83
19
17
-20
-2
15
-35
-12
0
-13
-11
-38
40
-30
7
-31
47
-4
-40
9
-33
-15
40
-26
17
48
-12
12
-41
36
31
7
-21
51
-41
26
-29
-21
16
-52
-1
-42
22
-2
-36
-17
-67
17
-63
8
-23
25
-27
-4
15
41
-27
-127
-15
-8
-4
-2
12
-32
-63
37
-8
-6
-3
1
-78
17
36
38
41
-75
12
1
3
-17
-68
-2
21
16
-69
29
2
-17
28
-22
-26
-52
35
22
7
44
-6
-1
4
16
7
-77
-37
-39
-26
71
-33
5
14
2
12
-20
-25
-28
5
-36
9
-55
44
54
54
41
-21
-10
27
22
13
-8
20
11
1
9
-34
22
-2
-7
16
17
-26
0
-19
52
20
-14
-20
-10
-1
-13
27
-21
-31
-31
16
-46
23
41
8
44
-11
-60
16
-62
7
19
-27
-93
-21
95
-13
-21
20
15
-31
-22
-18
-2
-5
16
35
20
-50
-79
15
-39
4
-18
-2
50
44
-17
-1
-18
21
-4
1
63
78
-11
-38
-39
-65
-69
52
46
63
37
-62
16
96
6
-28
-61
34
-63
122
7
-22
29
-49
99
0
-51
-93
-99
86
-113
-9
17
25
-73
-20
-20
-17
36
68
-55
63
55
-56
-6
-14
17
-11
-86
20
-22
-51
-99
45
31
-61
44
-91
-45
97
-2
-44
75
-18
-4
-69
-2
-6
43
-49
36
31
96
-16
-4
-24
37
1
-72
-88
-12
86
-42
-127
-25
28
-52
6
-59
8
-18
-21
39
-45
32
31
-27
-40
-7
-2
52
-47
-9
6
-72
33
-41
42
-28
-35
19
-55
54
62
71
-39
-20
-66
16
0
-35
-7
79
111
27
93
-21
94
96
2
117
-38
-9
-17
69
21
-7
50
32
73
36
16
34
18
49
67
7
-47
9
58
0
31
38
-12
-43
-77
4
51
-4
6
-29
-1
-18
74
-10
-11
7
0
121
-78
-25
22
-49
2
-10
27
51
55
-56
46
12
-20
-13
-18
-44
36
-52
103
-44
50
3
39
-118
32
51
-48
-22
104
-83
26
-86
-28
-60
17
18
-19
7
78
31
4
-9
37
12
-54
-41
38
-3
-10
5
33
-24
-6
-65
-13
-39
64
23
-51
-13
9
-16
86
-43
61
19
19
-11
75
11
22
-3
14
-18
25
-3
-49
-49
-64
-48
-59
25
56
104
31
53
22
48
7
-16
27
-16
25
-16
5
64
3
39
79
124
1
-37
-42
27
20
63
-40
127
-56
21
-27
8
5
-27
3
-12
34
-37
-26
20
21
18
-98
-91
-21
-59
-43
-16
-41
-3
-62
-44
-9
-74
52
-41
-32
-20
12
-35
61
-38
-33
17
-38
-103
85
30
59
-99
-3
-22
26
15
-68
-20
109
-123
-12
-38
-58
-98
-27
-70
29
21
-7
21
32
-20
-14
-30
7
4
14
-12
1
-27
15
-6
92
62
35
31
-43
-21
66
-25
-25
13
1
-59
86
-27
-41
-5
-34
37
46
-50
-62
61
22
-15
15
-3
38
6
50
-14
-45
-19
-26
-71
-11
61
-91
-9
-40
62
55
10
-40
-26
20
-2
35
-5
22
-7
35
0
-19
13
-44
57
-63
12
-5
100
-31
-35
-19
42
-13
61
24
69
34
-65
-54
59
-9
5
-40
-10
-4
-113
3
127
-12
94
-12
40
-50
-38
62
-1
-73
26
116
-5
-7
-100
-32
1
27
71
65
127
59
81
-89
76
26
-38
-57
-36
-15
-8
-42
39
-61
36
-24
-37
-71
-24
-26
55
2
63
60
-31
-26
-50
-9
21
-77
-29
-90
69
2
26
28
-44
28
-66
-82
-68
41
7
11
-43
-56
-23
-9
-55
77
40
-37
35
-66
8
10
-1
30
45
33
-19
-17
55
-117
-80
40
67
50
-17
15
123
17
14
41
16
23
85
-23
43
-4
17
71
-59
65
52
40
-11
50
-75
0
55
-88
-31
15
-76
60
-15
46
-10
21
83
-35
-50
26
-51
-9
-33
-41
-19
-42
-49
5
16
-9
45
-32
4
21
-85
62
47
64
-57
40
-80
-52
17
125
4
-72
7
14
-73
-38
-65
-38
-12
-46
-25
57
-8
-75
44
26
30
41
108
15
-80
-42
-69
-58
-46
96
49
30
-20
91
4
-126
101
-28
34
53
-66
-16
20
-24
26
-43
48
-51
48
-12
-38
-27
18
-20
-16
21
16
76
42
68
-47
30
-99
66
23
4
-28
32
-39
71
127
22
-80
116
-4
51
-111
-54
-75
-40
16
16
-1
34
19
-3
50
17
55
-67
40
47
126
53
13
-75
-79
-4
-61
-79
105
45
-8
34
-9
36
89
46
21
-74
-103
84
-108
-84
-31
-62
-95
31
40
-35
24
-40
-114
-5
-64
-54
5
-50
-9
-6
-43
22
34
-46
-109
-52
-79
-54
-54
-23
66
38
-79
14
2
-6
-46
-49
24
-122
-15
-18
69
-6
32
-41
15
-90
-10
3
-44
-92
-16
37
-18
-13
-16
-68
-30
-10
35
-22
-97
-34
28
1
65
-32
14
-47
-17
13
11
5
83
61
-45
-18
-17
-10
-14
3
-18
8
15
-24
8
-33
12
-23
3
-18
15
-16
18
29
-19
-28
-25
84
-18
-9
-11
39
-10
-19
8
-18
-30
50
18
6
7
-29
-30
-61
24
15
26
-73
6
57
0
5
-10
3
-14
24
-8
-17
-8
-20
-67
-66
88
67
-45
19
3
58
43
-14
26
-52
-2
-5
-29
56
2
0
-22
-6
-10
0
48
-31
14
16
49
-27
-4
-72
-14
-119
-53
-33
-9
-25
-127
9
-48
20
-52
-30
16
-5
3
-55
-39
27
-22
-44
52
-62
6
-122
70
-73
-21
-75
-72
3
7
-12
-114
-121
-48
-33
-12
-54
-30
-74
37
19
-8
41
33
43
32
13
38
-84
23
-40
30
-38
58
54
-4
37
-33
83
-26
-10
59
27
-23
-29
-22
-8
36
-3
35
22
60
-37
61
1
73
-9
-30
62
-1
-26
-69
57
31
21
-119
40
-31
79
52
-6
16
16
-13
-115
28
-3
5
-72
37
-20
27
25
14
89
13
-86
5
75
-58
-32
-15
-1
-20
-51
70
-43
-33
25
45
43
-83
0
60
45
-34
14
-17
25
32
-47
-127
-29
-26
-42
17
-25
13
2
-42
-29
22
-86
-52
-30
61
-24
54
40
-86
-44
33
-42
-53
-19
85
26
-100
12
68
-50
34
21
19
-41
78
15
-44
48
-49
29
-25
-4
16
69
-22
16
-15
35
9
28
10
4
15
-49
-11
4
-89
34
-38
23
-16
28
-13
-63
-43
-7
-1
-37
-14
3
-44
-60
8
6
61
-4
-40
17
-61
44
-27
-49
-36
-19
1
-3
-22
16
17
-27
34
-9
56
2
20
-15
11
55
-12
72
-42
2
2
-22
37
23
50
25
39
3
45
45
9
-42
28
1
-27
41
-9
127
29
-38
36
-22
15
-26
-44
-11
-32
11
29
8
-3
5
12
-16
-8
-8
11
-29
37
-31
-2
-22
40
2
50
-36
-18
-48
-4
-6
50
30
0
6
6
-26
-76
0
-25
9
-34
4
-21
31
-9
23
45
-1
-8
0
9
-14
73
32
-35
-29
-26
-63
-12
-39
-27
-1
-33
-15
8
-22
-22
-24
-8
-61
-79
-36
27
-33
-93
-1
-10
8
20
25
18
22
-1
-10
-23
-22
51
3
56
-72
-41
-16
-45
11
5
-85
65
19
-9
-11
45
12
26
63
50
-70
-43
127
-55
18
35
-19
-46
93
-46
-13
10
36
-16
-74
20
33
63
-36
25
60
32
40
-28
-1
-45
-3
40
39
-62
-2
25
19
14
36
-28
0
-13
-28
-68
-59
-23
-38
-23
-28
62
6
-27
12
53
73
20
32
1
15
-57
75
13
9
82
3
-45
51
-36
-41
-4
-61
-4
-26
26
-26
31
36
27
-4
21
-3
38
-5
1
-93
36
-47
0
10
36
53
9
36
86
-35
17
-85
127
-13
-32
-49
-17
-51
37
-14
-52
-11
-20
-27
-5
-2
-20
15
-17
22
-12
-62
44
99
52
10
31
3
45
-15
1
-27
-2
17
-38
-9
47
49
69
14
45
51
-33
6
33
-65
32
-34
-80
-36
-21
21
-14
47
-24
73
18
43
48
-5
-27
44
24
-3
-12
21
-64
-13
-58
18
-28
19
-23
-10
52
43
-75
-86
19
-18
-11
-74
17
116
69
46
-19
114
33
12
17
1
39
5
39
0
3
15
31
11
-44
-17
22
-44
-47
-40
54
-56
8
-49
13
78
49
-44
-18
-26
51
-9
33
16
11
-11
-14
15
2
40
-42
-1
-9
-1
-5
-18
73
-22
51
-50
-7
-23
76
42
-75
9
-26
10
65
-68
85
23
-1
-43
-53
-9
30
71
-17
-83
47
-30
-24
31
-12
-9
-7
-1
-59
-2
40
121
125
-17
71
60
37
48
105
-62
34
47
-107
8
44
19
1
42
23
34
14
-2
37
-57
21
-97
30
-80
-49
33
-16
5
-10
40
11
-3
-8
39
65
122
-5
7
-113
41
-64
-61
-79
-29
90
-35
-65
-20
-54
11
13
-89
-3
99
-33
-127
0
27
48
88
-38
34
13
29
-73
5
-27
3
-38
-22
21
84
71
32
-102
26
-2
49
24
-43
56
-17
-13
-15
-44
59
14
17
-11
51
46
10
-35
-69
39
73
-6
-19
-13
13
-43
49
-41
61
-7
-113
94
-15
20
-10
-14
43
-54
78
-21
10
80
13
34
-51
30
33
-42
17
-41
-43
0
43
-4
86
72
-27
-23
0
-48
-95
-24
24
-12
-14
-8
-2
-42
74
-10
15
123
-15
-37
-35
-3
29
-43
21
3
-127
-115
-3
-17
16
-31
36
47
-41
20
-7
2
38
-16
31
-8
19
-79
23
-64
38
27
-16
41
70
-50
-64
35
13
-11
-8
113
-39
-63
-50
24
-16
70
59
-58
64
-22
49
32
21
-1
16
4
43
71
34
-118
-73
13
-57
26
-38
-92
-2
36
-33
-60
-49
0
-69
0
42
28
21
-82
71
-50
12
-57
-15
39
-47
28
-9
59
117
-101
3
71
-98
30
41
23
45
16
40
-26
20
21
-82
42
-50
39
39
-8
18
26
46
-24
65
48
55
-34
-47
22
-43
7
-35
48
-30
113
-26
-55
-81
-25
15
12
56
11
-10
76
44
32
13
72
79
-18
45
1
16
-102
39
49
11
-39
10
2
-16
4
-25
109
-42
-5
-21
64
-52
-86
-63
-32
-21
39
-16
45
-12
-9
1
33
-107
101
-88
74
26
123
-53
12
125
-44
22
3
-110
38
77
20
-127
-41
43
-23
-78
61
-44
32
-35
3
55
-43
54
15
1
46
66
37
-19
-23
-115
39
30
-30
-48
-30
-4
-31
43
13
-7
-3
-10
20
54
109
23
-34
-19
44
-70
-35
-55
73
30
115
13
-27
-34
45
-2
116
-44
-51
22
30
-10
65
49
-8
-42
-10
16
-27
10
82
32
44
-24
34
-99
11
37
32
89
-73
-27
41
-9
-6
-1
-29
56
42
-14
51
-108
-23
10
-22
-9
-62
-90
-23
37
-101
16
-16
-12
26
-2
4
20
-1
-6
-38
22
-35
29
10
-36
21
-12
-122
-88
-21
-98
-22
34
-66
9
50
-5
1
96
25
-89
-4
115
-54
-8
-59
-41
-49
110
-19
40
57
31
28
-35
-9
36
62
-75
-59
48
34
127
6
-31
-23
5
22
40
-96
-13
32
-11
-19
91
-36
82
-7
29
42
11
-10
-90
-22
-74
63
17
49
5
20
70
-69
-62
-61
-40
-10
66
37
46
40
-2
-20
48
-23
-86
0
18
8
-17
97
-41
-8
-14
123
-24
-31
11
37
2
28
-97
69
-39
60
10
-80
1
8
31
66
-29
127
-8
59
16
-10
22
11
-37
11
67
14
-24
-49
42
5
25
42
53
94
-1
80
-54
-3
-14
7
-18
-25
-34
13
1
48
-18
-46
-23
-60
-36
-2
-32
50
-18
14
-1
9
13
-12
-34
6
-65
11
-13
57
-10
15
12
0
-8
-12
-40
-102
22
-28
-34
23
-48
10
14
-16
13
-13
-33
31
-93
-13
-16
14
43
27
-21
-22
-32
-26
-67
-12
48
33
10
25
35
62
40
-12
46
39
21
42
-46
-32
-38
27
4
-6
33
51
31
16
33
-77
-1
37
-77
-38
12
-7
48
-47
53
-63
13
33
-33
-30
36
3
-54
-73
-46
-31
-24
-15
31
10
9
5
8
32
3
-73
45
10
23
-8
-1
-36
-38
-21
-18
85
-37
67
74
23
43
-14
-17
21
12
25
92
-2
0
-26
-33
5
53
-33
0
-58
72
35
-80
-19
-14
-53
-49
-70
38
4
24
48
25
19
11
43
67
3
8
29
-18
-32
67
-17
-7
-13
89
25
-31
40
-57
-30
-34
-89
-8
-15
-16
9
8
-11
22
57
-55
90
21
12
-8
113
52
4
10
120
12
-29
-16
-63
-17
104
72
-45
-22
29
-40
-13
39
15
127
-7
-1
-39
-60
34
67
-66
-94
77
63
20
0
31
82
38
49
-19
-63
22
23
53
-59
-21
27
52
3
-4
-54
-25
-25
-61
-20
60
-104
-89
6
-28
-69
-118
4
31
27
-38
44
-91
53
-29
-58
85
28
-11
33
-5
-56
-32
-35
46
-61
5
-49
26
-89
-54
-52
29
-62
-42
-76
-118
-47
41
39
-50
-10
-4
-47
-56
-8
25
-3
-46
-29
-6
22
42
-33
25
-122
58
10
21
-33
31
24
-79
-48
-68
-78
-50
42
6
48
29
-8
31
34
-50
-50
32
12
-23
-12
29
6
-123
-22
17
25
-25
-1
-34
11
-38
47
44
-35
-10
127
-31
-16
1
-2
-23
-36
25
57
-40
-46
10
56
5
26
-5
31
-60
18
50
-9
-66
-75
-79
2
105
-28
-46
42
17
44
-43
-45
32
-77
47
-11
27
42
-48
-50
-38
11
-29
-14
27
-82
-42
36
33
-49
43
-12
-2
-97
1
-14
64
-35
-45
-35
-42
-26
-67
3
14
49
-6
-68
-43
34
75
7
43
117
34
12
-123
-18
-11
41
-20
115
-17
62
-3
27
33
-4
-70
-53
10
50
55
-28
-46
40
57
5
-28
18
-84
-16
-55
34
-19
6
-76
-21
-28
-49
36
42
38
-28
90
19
-11
2
40
59
-11
-49
47
2
-52
-41
-18
37
-34
-25
-18
72
33
-109
5
-19
-72
-34
16
3
-13
13
1
-61
68
-19
15
-76
40
27
11
-69
-28
21
-1
-116
-8
0
-11
49
11
-6
0
-14
21
7
64
24
-101
-46
32
8
56
-34
-22
-5
-4
118
1
31
44
-53
27
16
40
-6
68
18
34
65
-14
-25
-87
22
-60
22
-1
100
2
93
40
-28
127
-27
34
1
75
28
-4
34
-39
-18
51
20
3
19
-21
-52
27
-71
-24
-82
-36
-17
-40
-21
21
-40
-48
-41
-9
20
55
-46
-19
-41
-28
-29
-21
32
-49
52
-3
-78
2
-77
-86
0
23
-36
-88
-5
-58
-43
-12
-73
25
-62
6
-2
-30
27
-59
-66
-5
9
-48
13
36
34
-49
-49
33
55
37
34
45
112
-77
-3
-12
-86
-8
114
27
-70
-23
43
15
-34
64
9
40
-3
-10
-38
-75
-127
2
39
65
-85
-19
102
-60
-3
4
70
-67
-69
16
-39
-33
9
-25
-57
-85
-18
33
22
-26
25
-42
-31
27
-30
10
-116
-2
67
93
64
-43
58
36
-24
-9
41
87
57
50
-30
62
20
-62
-88
-2
88
-82
26
38
-26
-41
-16
30
12
36
-23
81
-16
21
-6
98
-14
-18
35
31
-11
-49
-22
5
42
13
5
11
33
0
3
10
-45
35
25
-6
62
33
127
-86
45
23
13
17
4
17
-53
22
63
-20
-20
54
-38
9
51
35
28
-49
2
-78
11
-47
9
-5
-3
55
4
28
-10
-11
-1
35
10
-90
-26
-5
-7
-83
10
20
31
-26
-3
-35
-52
-59
-53
7
32
10
-38
39
-18
-54
-59
20
41
55
-4
35
30
-58
-37
61
28
-55
-28
-12
-32
16
13
6
13
-9
-67
71
8
69
-16
-64
-33
-43
6
-15
-1
9
35
53
0
2
17
-30
-32
33
-67
-9
28
5
-5
18
51
-54
-32
17
77
23
7
34
-48
-6
59
44
-96
30
-16
63
38
5
-33
-34
18
32
82
-41
21
-5
0
-22
-36
5
-34
-63
-5
-17
1
2
-46
-81
21
63
15
-41
95
127
-88
-20
45
49
76
-4
13
-6
100
-14
-7
-40
-2
36
-24
114
-9
-9
-33
-17
-26
-26
-39
-7
-9
36
64
6
-17
77
24
-3
32
-39
-40
-19
30
-28
10
-1
-64
-2
33
30
6
0
30
12
-26
22
-30
-8
25
-50
-43
-23
40
46
-19
-56
5
-12
-51
80
31
14
-3
-8
-31
15
46
23
-36
-58
10
6
-44
-37
-18
-24
0
-50
-92
37
1
-23
45
32
-23
-22
81
-50
-1
14
8
3
-32
-23
-15
-27
39
-20
-103
-16
40
-17
34
15
-30
-66
-35
-9
29
35
-28
34
54
-34
-10
21
35
46
-9
0
-9
-60
-11
-39
51
24
-31
127
-5
14
-24
89
15
10
-54
34
39
25
6
58
33
-26
101
49
-17
28
-97
75
-29
-7
5
-3
1
18
-9
45
-55
-26
-11
1
-23
-10
-23
107
21
0
10
16
30
-106
21
-24
14
-31
-48
-11
76
-53
-85
7
7
29
75
-40
-19
69
-64
-61
96
58
-9
-24
39
87
25
51
49
68
-82
53
-30
25
-12
59
-14
-111
13
-72
14
26
42
2
-23
-39
-8
-12
61
78
-3
-26
-20
-58
-64
2
-1
62
21
-74
35
-48
70
-56
-74
-33
-58
-50
-54
-62
-39
99
34
26
65
23
65
59
-49
4
74
-46
-14
-61
41
27
-82
-54
-6
48
-27
-8
-40
38
-81
30
-19
45
-22
8
-71
19
-17
33
50
-17
3
-23
-16
-93
-21
54
12
-18
-1
-15
18
-17
6
20
-63
-1
-18
73
44
65
60
-17
43
2
-81
-1
31
45
8
-9
25
-44
-32
-19
-31
22
30
-21
58
4
62
-95
11
22
-2
-57
-10
-63
-6
-39
-34
47
-29
-18
110
5
-17
-32
-2
-10
-30
34
-6
-36
-31
53
15
60
-15
31
62
-38
6
-16
-72
-15
-85
-79
-23
51
19
-8
-21
35
-8
-17
-79
53
-119
56
-8
-24
64
-8
-42
-41
60
-15
-7
66
-127
-53
80
4
-42
46
-22
32
-101
-34
-62
64
-52
-4
24
-27
24
-2
20
-7
-35
9
14
-10
24
-12
61
-56
5
27
-46
9
73
24
5
69
-40
0
0
12
3
-9
32
-74
17
-20
30
-2
3
-5
13
24
-48
-8
11
13
-48
30
17
37
44
36
-18
60
10
-27
-29
-23
-11
-82
60
-59
107
-10
-27
25
36
37
-2
5
104
-56
-8
-16
70
-33
72
-44
53
111
125
-37
7
-23
75
58
9
-26
-13
-29
-1
-46
-22
-53
-60
-23
21
-66
-43
42
-9
20
82
-1
97
9
98
-29
22
-58
57
-5
43
-6
5
-58
2
-23
43
-27
-76
5
-81
15
46
38
5
-1
-69
-67
17
6
-32
-32
20
28
78
32
16
51
14
127
-29
-28
-63
41
82
-13
-34
63
-56
10
-49
4
21
-51
27
37
41
3
-72
17
25
3
-74
21
2
17
17
-68
-50
21
-115
-63
11
-11
13
-12
-42
-58
21
-23
100
27
-21
23
86
15
-74
51
-1
39
-5
-55
65
0
-32
27
45
37
77
-69
-33
82
10
49
-70
-16
-105
25
-17
-8
-2
-36
18
11
8
58
62
36
16
-7
-34
-127
46
-52
-12
-102
-21
-14
-62
-6
16
73
65
-78
-122
72
-21
24
-100
-19
63
15
87
-1
95
31
5
-60
91
-54
-23
16
56
-13
29
-21
-19
-81
-2
-22
36
-4
-114
-2
80
-66
-33
-30
105
48
-33
-15
36
49
22
-51
60
114
-42
40
81
75
-2
23
-35
49
8
29
-84
76
10
17
-26
-38
-3
36
52
-66
54
76
37
-22
-11
39
33
-101
-23
36
46
-30
48
65
-2
-17
-18
39
70
-73
28
-35
17
-108
18
34
2
-43
-19
94
-62
34
-32
-17
-31
8
29
72
24
-38
28
63
3
-18
15
-14
84
-39
59
-5
56
-7
55
-127
-21
56
2
9
71
-24
47
-41
5
-30
1
79
27
4
67
-1
49
58
-13
4
-32
-34
-19
-16
10
-59
-9
36
-20
-43
-24
-61
41
-35
-29
-47
17
1
42
-41
34
24
68
40
84
43
12
-17
-35
-33
-26
-25
-18
-24
-54
-19
-74
20
46
67
17
9
-54
50
19
25
35
-30
15
23
10
43
10
-5
45
87
-10
-48
-57
-27
-30
64
-21
29
-22
10
-28
-12
29
14
45
2
-31
16
9
-15
36
-5
11
34
-4
6
18
12
43
-49
9
4
66
21
-40
2
40
-23
93
30
-7
13
27
107
-7
-43
-12
-34
87
-3
20
-23
-26
-51
18
-16
-36
20
-32
-34
54
21
-28
-34
-8
-25
25
-60
-15
62
6
-14
11
-41
29
-96
-61
-30
-6
41
-22
-6
8
-17
35
36
30
-27
9
0
-13
57
-56
-49
5
7
-12
1
-19
-12
109
-8
-66
-43
-41
7
-17
22
20
33
-8
-24
18
3
22
-68
-7
5
-26
-32
-44
3
6
20
-9
23
10
37
-1
26
-3
79
-6
-8
38
-35
25
4
22
-43
-24
-41
51
7
91
11
29
40
18
127
-14
50
-1
41
13
25
1
-40
15
9
-4
-36
-73
28
-71
-47
-46
45
-25
35
-38
-20
-109
-8
-127
-72
-60
-88
11
2
-1
1
-91
-55
27
44
-42
-59
-25
13
-3
35
-64
61
12
17
-5
41
45
77
42
-12
10
-43
-39
6
-32
-19
52
57
11
13
42
-40
12
8
4
55
-34
54
22
11
4
-50
91
-14
-26
-29
-28
-28
-35
19
-9
6
37
16
48
-19
-68
2
-14
11
2
0
-29
-18
40
-6
1
37
10
3
13
-33
-29
45
-5
-69
3
25
52
-34
-1
-4
19
6
-20
5
-56
-9
-13
-19
105
-54
-11
-58
-19
-4
-2
32
2
33
11
47
-33
-17
-48
-20
-27
12
-37
19
-4
-57
41
-16
-13
-38
-26
0
31
20
-28
-3
-22
54
-83
23
-4
57
45
-51
5
48
15
-53
0
22
21
69
40
6
3
35
64
39
17
68
-20
5
72
-11
8
86
48
-7
34
59
-3
-120
36
51
-32
62
-96
-39
-8
55
-5
38
-58
56
-42
-2
27
-2
-35
-17
-12
-23
-100
43
-9
72
44
6
45
46
-35
-7
33
91
-22
71
-51
-44
-36
4
8
-13
34
-24
35
-24
53
21
43
127
-8
2
14
66
71
-6
-31
69
-75
46
-32
-36
-23
43
66
-83
8
49
-57
-14
-25
70
32
127
16
-11
-39
-19
-98
-36
-29
11
-95
95
13
-41
66
32
-34
42
-42
7
-43
-50
-25
-13
48
-1
-42
29
46
-77
20
-5
78
36
16
-71
-54
-23
48
-12
-22
-42
27
-24
-1
47
-28
-14
25
-4
-71
24
-8
-21
-40
-2
48
1
-87
-28
-8
23
4
-8
30
7
32
-46
-13
15
19
-21
-44
0
33
-29
-36
-25
44
21
24
7
51
44
11
-27
73
22
-10
-23
37
60
-17
127
-2
-30
-39
-12
-21
4
53
-93
-32
35
-29
-35
-13
-15
32
69
-44
-58
28
59
-41
24
2
-37
2
16
4
-68
-36
21
-22
27
-14
31
11
-21
-29
-33
-18
26
-1
-22
-29
58
19
-2
-7
-24
-22
5
33
4
-12
-26
-58
-16
8
-28
-11
38
17
-15
40
7
-13
44
16
22
-53
69
-3
-3
-14
36
23
-14
17
61
53
-3
38
4
-19
25
69
46
-73
48
17
-65
-34
83
-59
37
-6
20
-21
30
4
-29
-5
-1
-26
-4
-1
-57
43
53
44
2
-34
52
10
78
15
-51
69
30
-23
18
-12
46
17
45
8
43
-14
95
-35
28
-37
-31
-6
-21
-7
-49
-9
13
3
2
54
-53
127
49
9
91
-35
24
78
23
11
20
16
-75
57
81
-13
67
79
30
1
40
35
-7
-3
27
-51
80
1
5
20
-34
-16
-30
38
43
37
27
43
50
-15
5
28
17
49
-7
62
-51
67
-31
-32
-15
-45
-56
-8
-28
-59
20
-21
39
25
-15
27
2
-22
19
56
-56
107
80
-18
10
27
0
-21
-37
7
-9
67
4
-90
-32
28
-84
4
39
50
-31
-52
-9
-21
-14
14
37
-26
69
93
22
30
-80
-75
-21
57
-25
108
-37
14
43
10
32
-61
-34
-15
-13
87
47
-19
8
0
77
25
-21
-54
-30
71
-45
-9
-6
-37
-68
-41
-52
-20
44
4
-30
37
63
-32
-31
26
-6
0
-30
22
100
38
-71
-6
8
26
-46
-84
-16
22
21
-81
11
-7
-48
-40
28
-13
-28
43
-45
-39
71
-83
-14
-43
17
15
35
-70
1
78
-28
-72
19
-35
-43
23
3
40
44
-25
-22
13
58
22
-79
-28
53
-51
66
-23
18
24
-9
33
3
13
-4
-33
-9
-20
84
-9
37
40
27
12
5
-22
-41
25
-10
55
5
127
9
71
31
3
108
-27
-8
-30
27
68
20
33
-51
-16
93
-13
53
18
34
70
1
-12
6
-47
1
-24
-45
-11
-36
-46
23
-22
46
92
-64
63
-19
-23
-59
-42
11
-102
-1
-72
20
-17
-23
39
-10
-50
13
-16
32
26
4
54
29
19
-49
-66
50
46
2
-16
-92
13
16
-29
28
12
-7
-5
-24
47
-19
88
-43
8
56
-22
9
42
-56
3
78
-12
53
16
-42
-49
36
-5
-42
-4
-18
-11
-39
14
-12
41
119
49
23
-81
2
64
6
0
-4
-121
-45
31
-16
-127
20
32
40
-22
66
-9
29
-14
-46
-61
-38
50
3
-41
8
-3
26
82
16
1
25
36
-15
12
-24
20
-25
-16
-6
15
29
-13
30
15
38
34
-4
42
-21
22
4
44
8
10
9
-12
-8
12
-3
-19
-50
-76
-18
1
-38
-64
-36
-19
20
-40
-27
-44
7
18
-20
-19
-62
62
-50
-45
15
-52
21
40
3
-4
-19
26
-50
-30
-76
-19
-57
-73
-29
-7
4
17
-17
-29
-75
-68
24
26
108
-15
6
30
-24
-24
11
-8
-38
16
33
48
0
26
-7
21
-2
-12
-11
30
105
4
24
-48
-30
-3
9
60
-65
-52
-18
25
19
-17
25
-4
9
26
-66
18
-6
-60
47
4
-36
-23
33
76
-13
-29
-63
-25
-12
17
-40
35
-2
-41
-65
63
-64
23
33
3
56
-23
-2
-17
45
-30
2
-1
3
43
-6
127
-15
-50
23
30
-15
60
-30
-3
9
-5
46
-16
30
21
-30
38
11
15
32
-36
9
-42
48
47
-20
-10
21
16
-17
74
50
19
-10
-34
16
32
-38
1
-28
14
-41
9
17
-24
8
-27
85
-35
-4
-34
-25
-23
10
19
-20
-1
-42
-5
-1
-38
-30
-8
3
34
-4
16
-46
23
6
48
-127
-4
41
-16
-49
-8
-54
45
-29
-66
-46
2
63
-5
10
47
38
-5
7
-7
-2
-38
-29
-15
-22
-15
-18
14
25
-10
-30
-12
-47
51
-19
-57
-4
-1
-7
45
-50
9
24
44
2
60
37
28
-29
1
-5
27
-3
-34
-56
15
-60
-5
10
51
51
13
25
0
39
45
-7
-13
21
17
-27
-11
27
1
1
32
27
-12
7
-7
23
-8
83
-11
52
-22
7
-44
14
-7
-16
27
15
127
111
21
4
72
-79
-42
-43
-8
-44
18
-17
111
17
34
31
25
-3
-48
-52
-25
-12
17
-43
47
-6
22
72
7
96
-15
-73
-43
-8
20
4
37
-37
2
3
-33
26
-8
47
16
50
-70
38
-105
8
11
9
6
28
-3
2
72
-82
85
10
0
11
57
-65
-63
-2
14
9
-60
25
-36
70
-3
35
19
31
-15
-54
-30
-19
59
62
-1
-19
30
-1
-11
26
27
-84
-31
-69
-61
-75
-14
24
35
103
-2
-31
-11
35
-86
77
13
6
69
-34
98
-50
122
22
-26
86
76
43
-32
60
37
-101
25
69
-106
-48
53
-46
36
-4
41
-28
20
-9
33
80
-31
64
16
52
8
82
33
-30
19
45
-24
-61
-61
44
-37
57
-2
90
-30
-42
-56
69
-43
66
-84
-60
15
-11
54
-96
-10
-80
22
-9
-69
65
-83
-33
-97
8
-74
73
8
27
-110
-89
54
16
-27
7
127
-49
46
-33
-35
49
54
51
-32
-55
12
-18
-51
-21
-50
-31
-11
74
29
-17
44
-55
-16
44
17
-24
-24
-43
-9
-30
-80
42
-2
-65
95
32
33
-76
-60
-42
-25
7
18
27
-1
1
6
-53
-50
61
40
-3
-16
-30
-47
-38
59
-52
-1
12
4
10
7
-13
6
-62
-44
26
-49
61
-29
-63
101
24
-1
47
2
-4
-81
41
-54
-2
62
52
16
-87
-77
-31
-6
-38
-62
27
35
-9
-54
-22
10
29
-19
19
71
31
72
-85
31
-36
32
48
-3
52
-31
21
-124
2
-58
-6
33
-43
66
12
-39
-32
-23
44
-37
-69
-6
-6
13
-23
25
14
10
-29
8
-19
16
-70
-31
41
-67
25
41
-36
38
-1
63
-3
25
47
15
14
-16
-3
-15
-5
-26
-1
36
10
-5
9
-40
34
-5
-4
34
-17
43
54
-35
-50
36
-4
76
64
48
19
-18
75
-44
36
-20
62
38
2
-62
15
-37
-24
21
-25
-32
38
-17
-33
62
73
40
8
8
15
-77
52
44
-44
10
-30
-12
81
-3
17
-27
-47
2
-14
-40
52
-25
-84
-50
3
9
88
-39
127
35
-105
-6
26
33
5
6
-74
-33
-11
32
-38
-5
-86
6
5
39
13
73
16
-103
-63
57
4
-31
-5
-47
58
-19
34
-127
-65
3
-4
-6
13
-24
-91
-116
6
-35
-10
-100
21
-34
25
82
-17
62
8
-7
-6
0
-7
-108
-63
-41
21
2
-70
-22
-11
48
-66
-11
-64
-38
31
14
-45
3
-58
-14
1
-7
10
-11
7
31
8
-27
50
-33
-19
43
27
-38
-31
10
59
-4
-61
56
29
1
46
69
27
27
61
-74
47
-6
6
-41
-7
-15
41
24
32
-8
19
7
-57
42
27
-40
-69
-61
-29
-16
31
-17
15
-47
35
53
-75
21
67
44
3
30
-10
-24
40
-30
-6
-49
13
11
-12
-59
1
-34
5
-56
49
-25
-5
1
-9
7
45
-4
-72
-26
-8
-41
25
5
44
33
-65
-88
42
-8
19
-1
14
-24
50
-64
-30
-9
-20
-1
-39
-62
22
9
-37
-3
-21
13
3
-28
-69
41
-62
3
36
-71
15
15
-123
-4
28
52
-32
-7
-106
-7
54
-22
-41
87
-28
-37
-2
-47
29
-62
3
16
75
-14
27
3
18
-51
-76
11
-35
14
30
11
1
21
-48
12
37
-22
10
8
81
18
4
16
-13
-81
-49
46
-68
-71
-99
-6
92
62
77
-40
86
20
-21
27
14
-13
62
68
-127
-54
19
48
-68
-67
18
-19
4
36
50
-10
82
10
-51
39
-7
73
23
5
-37
37
-52
6
8
-108
48
32
-11
39
44
90
-64
-77
85
6
-22
33
1
-4
-50
-35
31
-57
18
-114
-20
29
-61
75
17
-39
127
24
-7
51
-43
-53
-8
-56
9
6
-45
-10
17
-64
-11
4
-24
29
-77
-23
-12
25
-59
0
11
6
28
-24
85
15
-30
-45
1
16
46
60
10
-14
2
-12
20
26
15
23
34
-51
7
-48
-13
-11
-32
34
25
-59
-17
52
-107
62
-15
23
-7
71
29
-37
-32
68
-89
-1
51
-50
55
-11
-39
-4
61
46
-26
15
-57
49
46
-29
-95
8
35
27
30
108
-66
-16
-54
-49
-44
-28
17
29
-37
-27
7
-9
-3
12
41
-13
-48
-38
-106
74
-30
106
7
19
103
59
-25
70
51
32
-30
-7
48
-29
18
-15
-17
19
6
10
-105
-43
23
14
62
-72
64
30
17
9
34
-1
-20
8
25
-5
37
-19
-40
-16
-77
-20
11
-41
40
-22
-18
-37
35
-50
1
-28
4
-9
-47
40
32
-22
-46
-43
-11
-47
9
48
73
43
2
22
-33
-24
-22
20
42
-43
-13
41
2
-15
-11
-59
-5
-59
-20
-64
-45
-9
50
34
44
31
-24
88
23
20
-35
73
-82
64
-7
4
30
46
-43
-12
78
-20
9
-32
-38
-42
27
-12
-26
-9
-16
-8
52
31
-8
29
54
63
127
-26
0
-19
34
-13
39
-7
-59
-34
25
-4
53
26
-8
-42
-17
55
52
34
-48
-37
-108
-22
-30
-11
-11
26
10
16
32
-12
-35
-16
28
-31
39
-39
12
10
-17
-42
67
17
35
2
-20
-1
9
10
-95
27
-16
58
-30
-13
26
47
-16
-27
-6
-17
45
-63
36
-11
32
-4
-67
-16
37
-4
-20
-19
-45
13
7
-45
-13
-27
-4
29
-25
11
33
-24
-24
47
38
-64
19
-36
19
19
60
9
29
5
-9
-2
-104
-16
24
-5
-43
15
-54
-13
64
11
-16
18
-19
-37
-6
29
49
-17
-49
17
29
13
33
52
23
-23
-34
-13
-5
30
4
26
0
21
4
-29
9
-15
31
-5
-21
28
22
44
-7
81
47
-13
27
83
-76
-62
-7
28
-49
-40
26
-51
-47
-39
67
6
-40
-52
9
13
-34
17
61
6
31
-30
-59
-47
30
-11
55
9
63
2
-33
-11
12
-20
-5
-8
91
-5
56
12
-6
-26
53
-38
-41
24
58
32
-127
-22
36
74
-101
-80
-30
16
35
2
44
-8
17
-24
26
-43
68
-11
-21
21
-3
43
-10
-53
-127
2
26
65
12
32
-10
-38
-46
-23
44
53
41
-92
18
-16
27
-126
19
14
-36
50
53
0
29
-80
11
26
-33
65
32
-46
120
-45
25
-8
-42
36
-5
-20
-10
66
-20
-5
-22
-24
-56
-1
-19
6
-20
26
-73
33
51
13
12
-65
-15
-75
-33
-32
-6
11
25
-27
-16
-25
57
21
-60
27
33
-33
-39
40
-86
12
35
-2
7
50
20
10
-33
10
29
-25
43
-51
-26
-17
1
3
52
68
21
21
-23
-60
12
-59
-37
3
-42
-27
-29
-75
-61
39
19
34
23
14
39
-6
61
37
-26
53
27
-90
-4
-17
121
-49
55
-3
1
57
-57
9
-10
127
23
-13
-74
-10
-42
-1
37
84
101
24
67
-90
-9
-43
-3
-19
-40
-64
-23
-4
29
3
-25
-45
-64
-49
10
-55
-3
8
-11
30
-29
10
-16
8
47
-23
-63
-68
99
9
30
3
-47
14
-24
-70
-85
16
-36
-11
28
-46
18
-17
-27
56
37
-48
87
-70
15
-36
11
71
22
4
10
-56
-7
-75
7
35
54
38
14
52
71
21
-3
33
-21
3
28
-52
-34
18
10
4
0
45
50
68
36
17
-44
7
54
-87
-20
36
-62
75
-3
57
-52
19
-3
-38
1
-10
7
6
-40
-47
-32
15
-43
-60
-37
34
1
-23
-8
7
-70
70
24
19
4
-8
-35
-43
8
46
88
-2
72
21
-32
-116
-83
-77
64
3
-7
12
-4
-18
123
31
-8
69
-63
-14
-51
-5
-12
9
16
27
-15
-13
-4
52
-8
-88
38
-17
37
-26
-65
33
-49
-4
-52
-113
-19
94
49
-69
41
14
-4
15
18
-67
-112
10
-55
22
-73
10
-58
53
52
-8
51
-23
-58
-22
19
107
116
107
1
2
-13
12
-100
24
2
-3
66
24
-26
-21
98
33
5
-17
10
-12
26
31
-4
-52
-52
-72
-44
-8
127
-16
-18
-8
31
45
49
24
17
-56
30
28
-3
10
57
-73
-12
10
-83
1
3
-102
-30
20
20
-9
-64
-29
56
-22
-21
30
19
-8
-101
-53
80
3
2
-60
85
14
13
61
-43
-42
35
-41
27
-40
-33
21
79
-42
30
-7
12
-59
-32
38
-27
-39
-27
38
1
-14
38
-79
-86
7
13
-4
-59
46
-26
27
75
16
21
-44
16
-21
36
28
-6
104
16
1
28
-52
60
20
-30
-5
-23
-37
29
-59
-18
26
-11
20
47
-44
-7
47
-17
29
-25
24
32
-1
-119
-13
19
-30
14
-39
-26
20
5
2
-29
-75
-18
-54
-17
2
-24
-57
44
21
28
-41
1
-13
-37
-3
70
-22
26
-49
-29
-59
69
39
-25
33
31
22
127
-60
35
-57
-27
17
-88
62
9
-45
-72
-26
-35
-67
105
-53
-56
42
71
-25
37
1
-21
-92
23
-24
14
-66
-34
43
-56
-2
-6
-38
11
-32
7
-45
4
-5
26
33
-55
40
21
-12
6
-10
-38
-2
13
-29
2
16
29
31
40
22
13
-34
-5
-29
22
-46
3
17
5
47
24
16
23
62
12
17
26
24
-11
-42
-70
1
-1
-17
15
30
24
-24
-20
33
68
-25
-10
29
19
2
53
45
-11
-65
-46
27
-14
24
-38
15
-12
11
-34
-22
32
-27
26
-25
-60
16
24
-5
-7
45
5
18
-28
11
-27
-34
28
-18
0
-13
69
-26
-36
19
4
-18
-29
-13
16
-12
21
17
-27
-5
-36
-7
-2
30
9
11
-67
-84
-21
13
18
12
31
48
-13
-30
-14
0
48
15
-19
-16
12
16
-22
9
43
1
-44
-1
43
127
14
9
-1
-21
-51
1
-33
-39
34
-16
64
31
-28
0
36
-71
-17
-26
-114
61
0
5
-59
13
-15
-33
-3
9
-36
-10
15
25
-48
-45
0
-4
0
62
54
38
-31
7
-24
-33
51
64
-46
17
-3
63
-21
-17
-12
-17
41
-26
-31
-43
11
-88
11
-11
-28
8
-15
37
-1
33
56
-12
-32
22
-5
-44
-7
54
-75
-13
-68
25
-34
6
59
31
22
-5
-13
-87
18
17
-40
-97
13
21
-29
3
-32
-4
7
9
-49
73
-73
-5
-9
-16
0
19
16
16
-17
30
19
29
40
-55
20
36
10
43
-1
-27
73
-51
-112
5
43
-52
25
-51
20
38
-85
37
127
20
2
16
-26
5
-8
11
37
2
11
-45
14
-1
-21
-8
-23
72
-11
21
26
47
42
64
9
37
23
42
37
54
-17
-82
-25
31
17
23
51
47
32
56
63
-34
59
30
5
1
5
64
95
-20
43
-2
-7
-8
58
37
62
-2
41
-5
25
21
2
-17
4
2
-20
-38
57
-10
7
25
-10
-26
25
-6
-29
-32
-83
66
-6
19
-8
-53
10
40
-127
-8
34
-33
37
-15
-25
42
10
18
-7
-47
63
1
-5
24
-67
4
-5
28
33
4
23
3
59
27
-15
15
-38
48
16
6
56
0
-41
39
33
-39
21
22
-15
42
-26
12
21
14
-6
-37
-33
99
-5
32
42
-7
17
-54
-24
-72
-57
-48
4
3
-3
34
16
7
28
46
-21
-3
-66
95
-19
25
-20
27
31
