-95
21
-34
-106
10
68
0
-17
2
87
-16
-91
-38
84
55
-127
27
90
-101
43
4
62
34
79
99
-48
39
-71
67
-17
-20
-6
-90
0
-42
-36
70
-87
-33
44
-58
-29
-53
-31
5
44
-7
-34
7
-26
43
48
-96
-115
-13
-38
2
-63
6
-11
30
-1
-82
-61
100
-114
-87
-57
-10
63
47
-61
53
-20
-26
-12
9
-7
-10
-42
13
45
-9
10
16
8
-4
-57
-104
17
89
44
92
-70
23
12
-13
100
48
-39
-96
70
3
-84
19
-51
-73
49
-42
-33
62
29
0
28
40
-21
34
2
-90
3
20
16
-9
7
-23
11
-44
-8
71
52
127
-48
98
33
-22
-18
-49
-42
116
92
51
15
23
1
-44
-91
55
-79
-24
80
-5
25
-100
-38
86
15
-1
-40
9
-27
-41
22
-26
-35
-25
23
84
-121
-99
19
-60
-106
-105
-39
-59
-31
75
68
14
41
-108
-63
-56
-72
86
21
-85
-45
-29
21
-74
-46
-91
43
101
-101
-22
47
-18
35
-28
89
59
43
-21
58
101
-27
17
-127
45
-53
-35
18
-121
-45
35
-31
26
-57
82
-9
-27
47
53
-54
-45
-46
40
39
-29
-14
-65
-49
-53
-8
46
-43
-39
7
-2
-43
18
83
-3
25
63
39
-102
-14
53
-3
48
-28
-17
-75
-15
25
76
18
-66
69
127
16
-56
-36
-27
13
49
13
-7
24
3
-40
29
4
-19
31
13
14
23
-67
-28
-32
37
-19
-25
35
-1
-55
-10
-13
7
34
104
91
0
-21
71
-64
9
-66
-95
-11
28
-127
-55
-79
-40
-46
-8
-34
-54
8
-42
-72
15
89
-17
0
69
10
-70
67
48
46
-28
-62
27
24
4
42
56
62
-117
-69
72
90
56
-57
-21
3
-16
-70
8
2
19
10
-30
19
99
-37
46
-125
76
-35
24
-25
72
-92
41
22
-61
55
-4
-35
-12
-26
-82
23
0
-12
-27
-86
13
5
17
-119
127
-26
14
-40
13
-22
-1
31
-90
-20
52
-24
-30
-5
84
38
-8
-1
0
2
-12
25
28
32
13
-47
-35
-33
-13
45
-35
-51
-9
23
-21
93
29
111
-67
-50
-32
77
-57
10
-14
11
-125
40
-9
-22
-23
-3
-24
50
41
45
22
0
4
2
-17
51
22
-27
56
-54
1
-39
-22
33
-9
-127
8
-32
39
-24
41
34
-41
0
-28
37
47
-20
44
23
-9
-24
-31
26
34
-103
-40
3
1
-28
-2
-4
19
-13
-49
54
-12
-13
-13
-3
8
-17
19
9
10
-17
38
32
-5
-60
-21
-6
37
11
51
22
-15
17
35
6
12
46
-4
-1
-46
-11
-61
-45
-22
25
-25
56
1
34
-92
31
20
57
48
-41
75
11
-4
-47
-47
15
-73
-31
35
-6
-59
-41
14
-25
8
-75
24
-2
-16
81
31
61
64
47
127
-16
1
-59
32
-21
-92
40
69
70
37
-34
18
-39
9
-67
34
-7
3
51
79
6
61
-84
-3
-12
39
-35
-41
47
-89
11
127
44
-43
32
-54
-1
7
-118
-54
40
119
-71
68
-57
-26
13
3
-49
-29
21
-3
-37
12
22
48
-6
45
-11
-8
12
-15
51
7
-27
-91
70
-22
-26
19
96
-96
44
50
13
-44
-27
-58
86
-17
-75
-32
-90
13
15
-23
-45
10
-31
-26
14
14
9
-32
109
61
15
31
22
55
-35
0
-22
-20
-31
52
-127
-41
-12
-103
-35
-38
-59
21
-9
56
37
13
-5
53
76
53
-75
-39
-68
57
5
65
9
38
11
27
97
-48
25
-2
24
-2
-54
27
-7
-32
-9
-62
-29
5
-32
-35
35
-47
-25
65
-49
33
-88
59
5
-2
-6
22
-51
5
1
-50
-11
5
-43
-40
126
24
-19
17
-31
65
-13
-10
-87
38
12
39
41
40
2
-13
-109
40
-35
0
103
-21
24
86
-18
-41
-16
-20
127
62
-4
-29
45
4
-39
25
6
4
14
-24
26
-10
-27
22
-9
-37
58
-5
8
6
42
-11
15
40
-35
-20
7
15
22
47
12
33
19
8
43
38
-43
0
-68
72
-27
111
-5
47
-1
60
-35
-126
-17
-112
-60
75
-124
-9
-9
98
-1
111
68
15
-30
64
-54
108
26
47
68
108
-39
79
-41
-63
53
-87
-56
0
2
6
17
-64
-23
-103
-61
18
-79
35
-112
23
51
-1
-26
-33
95
-9
-2
-5
0
-97
95
83
-19
28
2
-38
0
43
13
102
-68
12
13
-40
-5
0
-12
127
-75
-4
-6
34
-48
34
5
-46
-9
-64
-32
-14
124
44
44
-66
55
-25
99
38
-49
25
59
65
-2
-17
49
68
-64
-36
33
-10
-70
-98
2
1
-63
42
54
39
36
116
-17
100
-50
91
-24
-127
66
3
-88
107
-55
-58
50
-41
43
63
-19
55
36
49
26
55
-64
73
-70
28
-23
100
-13
-76
-17
25
12
-107
-8
15
3
-21
-127
-32
-4
-51
-16
-28
5
31
79
47
-119
70
26
21
-62
19
45
1
-42
3
-84
32
4
-35
9
-77
36
-50
-83
-18
0
34
-108
26
35
-53
34
25
2
-97
-11
16
-64
-107
-29
-5
-15
22
-39
-58
-3
-27
-51
-47
32
-16
16
-26
24
-44
-17
-2
-30
-40
-19
-10
-18
20
18
0
86
-52
-57
59
-38
-20
-65
-73
-42
9
22
-9
47
-62
23
-21
-2
127
-19
2
38
7
-83
64
-9
25
-5
21
-8
33
-7
-76
-48
21
-77
15
-22
-29
1
25
11
-107
39
77
-33
-27
15
-72
-55
-48
-61
-93
-18
-12
30
62
33
27
-33
35
-92
-22
49
-37
8
-39
-24
29
-95
-38
-33
-66
38
65
74
44
-16
-87
55
0
45
50
46
19
-54
-19
-31
-11
78
47
-35
-24
-72
-38
-56
-67
-49
-23
25
37
-53
7
59
21
43
-57
1
19
-127
1
9
-60
-10
121
-60
5
-17
68
68
12
-4
94
-41
27
11
-26
-92
-60
-49
-7
84
61
-36
-26
-67
-31
-38
-53
-1
28
44
114
-11
-56
56
-26
35
9
-19
-98
39
32
90
-37
12
-4
-18
0
25
-43
15
4
53
-16
-77
41
-77
1
45
58
19
68
12
-8
63
-64
-33
-3
2
12
11
19
-33
1
12
-37
-11
-12
44
25
-38
17
22
-25
-48
-22
71
59
24
47
-36
127
28
0
5
-9
60
-60
5
-19
30
-25
-25
37
107
-8
-16
-19
-27
-15
29
15
17
36
42
-17
40
-20
-15
-6
18
-20
56
-36
-57
33
-69
74
93
69
12
-6
-29
16
-92
85
51
-73
1
96
-45
1
37
9
-29
-7
-18
49
-121
31
85
-13
-15
31
127
-33
68
-45
-105
7
13
-25
-22
58
-2
2
71
-36
-40
-31
-11
-28
17
30
25
77
25
65
-25
-45
-75
37
-39
35
46
-15
-127
-15
44
76
-39
23
73
64
37
50
-11
16
1
15
-66
-85
18
-2
-7
13
43
-87
-48
-71
20
-10
34
39
16
-18
15
-35
22
18
124
-87
-63
-5
-51
41
89
-41
78
-9
-11
-59
15
-46
72
58
85
-15
-6
25
28
44
-47
2
26
-48
16
-1
45
60
30
54
-91
-27
39
-45
-30
-50
19
11
-20
-66
-37
90
-29
61
-7
-60
34
24
-10
50
-1
39
9
33
-67
-7
-51
9
-41
-8
-23
-62
12
-40
-41
31
-89
-35
-69
-122
-33
25
90
31
25
44
29
-127
-15
-27
-57
7
89
-38
-56
-16
-29
-56
-7
70
-75
-89
38
57
-58
52
-67
-36
-26
56
-127
9
-118
43
-21
-37
-53
-74
18
32
-22
-16
67
73
36
-95
71
20
-37
-38
21
7
55
-17
-63
-17
-6
36
30
69
-71
-59
-7
-29
7
38
-28
-70
6
10
12
-52
16
-56
-20
-33
-52
-23
27
8
86
-35
29
-75
5
3
-13
8
-35
0
-46
-38
44
92
5
-48
-21
-84
96
-93
20
13
51
8
45
-28
126
-17
-9
35
-26
42
-5
-32
-65
32
-56
57
5
13
61
0
1
47
3
-27
-6
32
-13
26
-32
-16
17
68
73
26
67
-82
34
41
-5
-29
-16
127
7
-19
30
28
41
30
-20
4
54
-94
44
52
31
0
-4
-65
-92
-16
71
-57
-70
42
2
77
64
-6
-10
-12
71
-53
-127
-49
-10
-83
-47
-7
-8
-8
-17
-25
74
88
-77
50
6
-77
1
51
3
-17
-6
-35
-18
-4
15
-20
59
0
-5
-4
-15
-9
14
14
33
34
52
19
14
-6
31
26
17
-29
-25
39
36
7
1
42
-36
-68
-10
-25
35
-19
11
-5
34
-84
-4
-65
-25
-8
6
-77
-40
82
34
69
-94
-12
-38
7
48
1
-6
-29
1
-66
-44
-45
-7
-2
61
37
-65
-59
-96
-8
-36
-55
-65
41
-8
46
40
-18
5
-40
13
25
7
-90
29
-113
-49
-13
-70
-72
18
23
-100
24
50
-32
-43
74
-9
95
1
-6
5
-32
17
-18
9
7
13
-81
1
33
-14
-127
7
23
-55
16
-61
-66
-19
19
-50
-19
85
8
26
-64
43
7
-75
-51
34
4
-5
-17
-50
33
-99
29
-127
52
47
24
35
-42
-43
68
14
-11
69
-68
2
-50
-1
-7
-18
-30
-49
1
24
78
10
35
26
37
-16
-62
38
-4
62
53
-59
9
-8
11
-23
53
-49
-80
15
-34
-11
21
60
57
-83
-45
-82
-1
-30
12
39
-83
-3
17
-48
73
-15
-81
-55
-38
-11
65
1
-30
56
-7
-71
73
-11
-19
-65
-4
14
-36
-37
22
7
-20
-78
-25
127
-77
35
10
29
-53
89
79
-57
-60
-30
96
33
18
89
-28
29
86
-21
94
-14
95
-27
-46
-42
-53
-57
-18
-60
-105
-94
-6
-20
-14
63
-11
5
-46
-52
-55
7
-38
28
-15
-46
-25
85
-16
43
19
2
44
-23
-21
-32
-31
48
-49
9
51
78
-56
20
-57
3
-121
-9
-3
-40
0
57
127
91
-91
37
27
42
70
-11
-51
-109
-64
-21
54
23
50
30
33
30
45
-10
23
-24
74
-125
13
-5
62
-8
49
14
-29
-24
-87
-74
58
105
47
81
18
-20
99
-32
0
-75
52
-19
-2
21
-69
-27
52
73
-38
30
20
-54
-6
-24
16
23
-2
32
-29
6
10
-29
-26
-5
-14
-70
-23
38
-29
50
-83
-69
-69
-12
-42
-39
4
-15
-29
-2
32
61
-15
54
-47
18
-30
-27
-66
-15
-18
-29
37
-69
-25
3
-59
-68
44
11
-2
3
-21
-127
-1
3
-23
0
19
-14
-100
0
19
55
43
-41
-48
125
40
-100
-76
-99
-72
-63
63
-20
-14
63
64
-55
-2
95
65
127
0
11
-52
22
25
-125
-18
46
-17
122
-16
22
52
70
-40
-5
-96
-56
-5
-15
-107
-62
111
77
115
24
56
-86
-74
-51
66
28
-9
-51
40
-46
35
-14
-92
8
20
-8
59
102
-31
-21
24
28
-9
-17
-12
-49
-47
-29
-67
-43
-61
14
1
14
11
40
26
21
-4
0
-27
-33
-66
28
-61
19
8
-10
-40
43
19
-15
-16
16
-11
-18
42
-57
-54
-3
42
29
-27
20
-27
23
-4
12
-8
-83
24
-24
-127
-24
64
43
21
-1
-45
5
-31
16
-67
-73
6
6
25
38
-18
-41
14
-25
-43
-36
-26
12
-99
24
0
19
49
7
-21
26
34
-67
15
-44
-25
-14
-16
-11
18
31
9
9
15
8
-26
-7
61
26
-7
6
25
-48
-18
-21
-4
-8
-12
-14
-51
-30
0
-59
31
-22
19
94
23
75
-4
66
-38
-32
2
0
-29
3
10
-127
-12
-25
-24
22
-57
17
-1
5
-36
45
34
-12
20
-66
86
-25
-81
-41
79
42
40
78
-15
-48
9
35
-3
40
98
43
-21
-94
82
-37
11
-44
-28
-11
27
-96
1
34
20
-127
-88
2
-30
-65
54
-73
-49
11
27
-88
31
-2
92
27
9
27
50
-9
50
-29
68
-50
58
3
-25
15
61
52
-98
-22
7
16
-82
-11
-21
-56
33
-30
3
57
-36
-14
6
45
9
22
35
29
20
-127
-37
32
11
-71
37
21
60
5
-1
2
-10
10
-15
53
-19
-18
-10
-10
4
-26
0
-5
-13
-63
36
38
-22
-39
-16
5
11
-22
46
10
-24
21
-6
24
-19
44
-30
10
-36
33
9
1
-46
14
64
36
57
11
-22
-29
-16
18
15
-5
19
-7
15
2
34
29
76
30
56
-93
-42
-33
-6
-97
90
33
49
-38
-36
-11
-34
58
39
54
-57
30
85
9
47
-10
24
27
31
-17
-15
36
38
-18
8
17
11
-4
20
-16
-44
7
58
-48
6
10
44
-25
-85
-2
-56
81
-17
44
-26
34
-26
-32
-28
42
12
11
55
24
39
-30
12
-44
127
-34
21
9
83
-21
-13
-48
-10
15
-6
79
28
8
-87
24
9
46
65
-43
-6
-88
38
-18
-26
17
-29
78
-110
48
19
-27
22
57
-10
-12
75
58
8
-17
-23
42
-53
51
18
-16
-96
42
28
94
-89
-19
50
51
-86
15
99
-48
3
-106
18
-6
9
78
36
-17
-69
38
-127
-57
37
41
-30
73
23
43
59
68
-5
-42
78
23
61
-93
36
-34
76
-21
30
66
-39
-39
42
-22
26
-41
-55
-22
-35
3
45
38
-1
100
-86
15
-35
-87
-100
-69
-17
32
-36
6
61
20
-24
40
2
35
-7
-83
-56
-45
-24
22
14
-42
44
-13
13
15
-62
28
15
-35
32
34
8
-35
-27
49
-50
16
25
-49
16
-127
5
-13
-16
-27
-47
-37
0
-63
-99
-20
34
-73
78
-49
-4
-18
34
55
18
11
28
-18
-36
-55
7
-60
-51
73
-57
43
73
-73
-93
127
-45
-44
14
5
-16
-17
-6
-36
-34
32
28
35
17
-11
8
-9
-89
-46
-6
-71
18
-1
7
17
-36
35
4
-77
30
19
41
-14
24
33
-29
-40
-11
-27
-42
-6
105
-11
56
43
91
-64
9
-35
-6
-113
-64
26
91
5
-58
-13
122
-40
48
-15
14
-18
13
3
-59
-10
52
-76
43
-8
58
48
-53
-62
-25
34
26
-31
-33
-38
39
5
22
28
-26
10
-20
95
-78
-40
7
-61
78
-118
-49
-107
19
52
37
-63
76
-43
-15
-17
-127
27
33
69
48
28
85
89
-20
6
2
-48
66
-31
-49
-104
22
9
-65
-12
-38
-111
-45
0
-51
-47
55
-34
-105
1
54
-13
-23
-5
-31
-78
-33
-60
-43
-6
47
-100
-16
28
-7
-107
-33
44
37
2
-65
-32
29
33
-114
-18
-36
-24
-43
-83
-9
-15
-20
-41
-47
34
2
27
127
-74
41
-14
70
-36
0
-44
-38
25
-70
-39
15
50
-21
46
-100
-68
-29
-26
-8
-37
-27
-62
-54
34
60
3
32
-35
127
55
-16
62
-20
0
-13
0
-14
0
76
-27
-46
-11
0
-4
20
-22
30
45
-35
-30
7
61
-9
-86
-9
-26
-27
48
20
-81
-55
21
-11
49
32
-9
-4
-1
34
12
18
42
-1
-31
-87
-36
8
-15
25
35
-31
-95
-78
-46
70
13
100
-8
26
47
-49
39
0
-72
107
19
127
84
34
64
38
-25
-75
91
-60
-58
38
-39
-111
-41
78
-44
-22
-17
-20
86
51
15
-36
-4
25
20
23
-26
-7
122
67
122
-121
-37
62
16
98
2
24
-44
-111
-76
5
112
6
42
-19
-90
32
-55
-62
-36
5
8
-61
-26
15
14
95
5
39
11
-62
-50
10
-76
18
-23
50
-7
-23
-50
-54
56
51
39
30
6
-22
-18
-3
40
-27
-64
-5
-29
-93
16
-13
76
37
-64
-19
94
-77
-127
-122
6
-59
77
-33
72
37
16
-77
-71
-45
107
47
45
15
-60
-48
-101
23
72
7
-38
19
29
25
-17
-43
-22
3
23
10
28
10
-17
4
-24
-17
25
-27
26
-108
65
5
-15
127
-28
96
98
-68
-25
-49
-4
41
40
-89
88
-57
45
56
11
-69
-33
76
0
-3
68
51
32
-45
-61
-47
-73
12
50
23
49
-26
-2
30
74
31
-9
-19
54
-71
-12
3
-71
73
-27
-105
-45
0
11
9
90
14
0
29
-23
-48
8
81
58
32
-17
-10
-127
-15
-39
-76
85
-26
-103
99
84
38
-13
48
-15
-41
63
-14
23
-42
22
51
1
44
8
-55
32
12
-69
-81
-17
-51
45
-18
-21
-34
20
-29
-7
18
-39
-49
-14
-23
107
54
-1
-80
-51
-102
92
2
-99
-27
-50
-55
-45
65
6
-28
-62
85
-97
78
42
111
-35
37
36
-21
36
-51
-38
46
-33
25
69
23
118
76
93
-117
-11
42
-8
4
-88
-30
102
-15
-19
-45
-5
26
26
-80
-5
-127
16
-20
38
45
-3
-33
19
4
17
-19
44
-108
58
34
-77
-24
28
-72
2
8
4
127
13
-19
55
-17
-74
31
34
-32
-24
47
35
-22
-7
-15
44
-121
47
76
34
20
12
67
25
10
4
-33
-46
16
41
-40
-116
-43
-46
-2
62
35
12
-127
-10
102
9
5
45
60
17
-80
46
-19
-2
-76
-2
30
-1
-67
13
-8
-40
4
54
59
-32
15
-95
-32
63
-38
-72
30
74
53
64
-12
-60
-64
-21
32
-54
-12
-36
23
16
-35
-13
8
24
5
18
-5
-69
-97
43
9
18
64
25
12
-23
-69
-103
-106
22
72
27
58
91
-119
-15
-28
43
16
-1
-87
-46
-84
13
-34
-24
-44
1
-3
-82
-30
-39
21
-78
55
127
-42
-43
86
-93
-26
21
11
72
14
71
-11
-33
59
39
-25
9
15
-58
-1
16
18
2
-88
-13
69
-88
-21
11
-41
-120
8
49
63
-56
5
-88
-56
7
118
15
-25
68
-32
46
-21
-21
49
82
19
127
-108
16
46
-13
98
39
-46
-11
-45
75
10
-73
-24
4
-22
-49
-12
11
-102
-28
-12
5
-57
26
55
-28
25
100
66
41
33
10
-84
67
110
-21
25
52
66
-93
-20
-37
-29
104
-77
-20
62
-26
41
-25
69
-81
-108
43
-55
-31
118
1
-12
-49
-37
-113
23
5
17
33
58
-54
0
-63
12
-73
72
-29
-41
-56
-19
7
-80
-60
20
-69
-11
-48
49
80
43
42
-79
-29
-15
-21
-81
5
34
17
-27
8
-55
38
88
-76
-70
2
25
-38
-45
-16
-25
-31
-127
77
108
1
71
64
-10
-29
-98
-27
-78
-55
-52
-42
36
18
-19
37
-48
-54
35
-24
-51
-10
104
-60
16
15
-23
-10
-23
82
-110
64
-49
-33
-62
-9
-81
42
5
34
19
-64
14
-19
92
31
53
5
-63
-47
76
3
55
-41
-21
-3
-1
-3
-10
15
60
-25
-85
-8
80
-33
9
-22
23
-37
127
31
-9
6
-23
-2
-2
4
6
30
43
-24
23
-74
-43
13
-10
30
26
-25
11
-21
19
68
-14
-37
3
23
-49
2
7
37
24
12
-87
-71
91
-31
18
-12
34
-33
-4
-49
-49
-39
-50
-10
-33
-27
-65
-5
-10
-34
-1
-53
41
112
-8
-28
-89
-2
37
16
-2
-44
-106
127
5
49
-36
21
21
58
8
33
77
1
33
-94
-27
45
-15
6
-19
15
-25
-41
-43
-29
9
12
-14
3
-24
38
55
-35
-12
-58
-4
-49
-49
-22
4
-85
30
-56
-12
-56
-44
31
-60
-106
42
-38
80
19
3
-34
12
-47
-69
15
20
75
61
37
-24
54
-16
-68
40
127
34
18
-58
-53
20
22
9
-6
3
15
29
9
85
32
0
-73
-30
32
-3
26
-17
17
-16
-88
17
109
27
-19
-49
40
50
9
-60
22
-44
24
39
-8
33
-100
-29
22
-32
-27
-12
21
3
-37
-18
-4
-5
108
-12
-3
67
19
-36
104
40
42
37
4
3
23
37
-25
-49
-42
51
32
106
-39
63
80
62
5
31
32
-16
-77
39
-65
0
2
29
-51
-48
-44
-42
127
79
71
28
-7
28
24
12
-27
91
62
25
80
-4
-12
28
21
-27
27
-21
0
21
16
28
-62
54
42
127
-102
-27
124
41
67
82
8
2
98
36
-49
-57
72
45
-84
-1
29
65
-21
-36
51
-65
33
7
-4
55
-45
58
21
33
-16
26
18
12
9
-38
67
-12
-53
88
22
-67
12
0
1
49
29
18
-42
-32
-38
-18
-17
-5
14
-18
-3
63
-19
53
-52
-114
-48
18
56
-118
-7
78
44
-20
-112
-47
-11
-46
-81
-53
-32
-59
79
-29
127
-3
107
77
13
2
-83
-102
-73
32
-7
-108
24
124
-14
-31
17
-2
33
-56
9
-38
-98
68
-26
33
31
-34
80
-82
55
33
-17
-46
-19
-69
-10
-107
-57
-2
-24
33
88
-31
-1
-78
-84
-73
-18
26
34
-49
-11
55
-13
-67
79
62
41
31
-54
-127
-69
48
38
21
-67
-56
-6
-25
48
0
38
-93
22
50
10
-54
-40
-71
36
-43
26
-25
10
39
-26
10
23
-2
20
41
-27
-7
-7
-19
72
-24
16
-27
-50
29
-36
-14
-22
113
38
-17
-9
16
18
-39
-1
-11
-46
52
-80
-45
-54
-33
6
-22
-77
-12
-2
26
-7
-37
127
64
13
-26
9
53
17
-62
5
11
-15
57
11
-27
-3
-15
48
121
64
28
-50
-32
-79
22
-84
-39
-4
-4
-14
-12
-19
-39
83
-24
76
-26
-9
16
-17
69
-64
66
29
29
82
24
3
28
-18
28
51
53
-50
-16
21
-25
70
56
-29
-17
-26
-28
74
-64
-73
-29
67
5
18
28
43
-79
-33
25
-44
15
120
1
-95
6
62
-12
9
35
-53
-36
72
39
2
-77
-90
28
35
-33
71
-118
50
-23
6
25
-47
2
-24
70
-22
-8
65
-20
92
-67
-3
54
28
36
-26
-99
-10
-20
12
25
88
7
-37
31
-21
-33
59
127
3
110
-36
-44
35
66
10
115
114
119
68
26
98
79
41
12
44
-19
-1
-21
-47
-1
13
20
-26
-27
-10
40
-16
-11
52
52
18
-21
-14
-34
-18
65
57
10
-7
30
20
-2
-44
-31
-32
27
12
30
3
45
2
-22
59
10
-30
4
-127
-34
-78
-21
93
47
-18
22
-5
-49
52
-7
26
-36
28
47
71
-50
-9
-26
13
-52
22
-60
-36
-11
26
-11
27
-65
-56
45
0
-56
-12
59
-99
0
40
48
66
53
-7
4
-121
-8
-50
1
52
-65
44
32
45
62
41
-35
34
-31
12
82
-8
127
42
1
3
-37
10
21
-78
12
-40
-8
-9
12
51
-65
-9
52
11
-1
-36
-44
47
-47
54
72
-20
95
-10
-44
-5
46
40
-42
76
4
53
-46
7
54
-40
16
8
15
-17
-79
-38
14
-49
26
-14
-25
2
7
-8
-9
29
37
-7
-1
-49
-12
-11
12
-21
-20
4
45
25
14
-5
-10
28
37
-27
21
47
-11
-5
-54
-6
12
-4
-4
3
-25
-43
-127
48
9
27
52
11
46
20
15
6
-41
24
11
-3
7
-3
35
-2
-62
15
14
-22
15
50
27
-3
118
6
80
30
14
75
31
7
69
-61
-94
-77
-54
-94
-107
5
-1
-91
-45
-127
22
24
-22
27
-21
0
-3
-1
68
0
15
-28
55
37
-11
-18
42
28
-61
27
124
-39
27
10
-108
-63
-6
120
5
-59
-69
-18
-10
80
82
-1
-18
-13
89
-18
-6
-18
-95
85
28
-22
7
-34
-78
-48
31
-26
-47
6
14
22
25
-74
0
127
3
37
72
-45
41
8
15
9
77
38
65
0
5
34
14
-50
95
99
-103
51
48
-19
19
21
-9
48
37
-59
-17
-41
107
3
-8
29
5
19
29
41
7
-61
3
-5
-3
52
-61
33
5
-55
-20
65
17
60
13
42
41
-28
-51
25
5
-38
73
-53
-18
1
11
-70
-65
-19
-17
0
8
-50
-19
-58
-5
0
-34
0
-9
-18
-22
-99
-50
25
-45
97
17
26
15
-102
22
14
-22
-75
1
50
1
17
60
-8
-39
-15
3
30
10
-16
39
26
18
-7
-38
-14
31
-7
-25
23
-9
24
34
19
35
0
-1
-52
35
80
41
8
4
4
-57
70
-11
-10
-127
-11
36
1
87
-31
-51
47
32
127
-7
19
-44
-14
-47
-102
9
-43
34
52
-105
47
81
28
-21
10
-31
105
-47
24
35
3
-18
-13
28
-52
-72
-36
94
-40
-53
38
-6
32
30
29
-69
-54
78
27
40
-50
27
-85
-40
33
66
45
26
111
-22
35
35
-15
18
82
98
-4
52
84
-46
-12
39
-13
11
-34
34
20
-2
-3
-70
-13
58
-57
101
4
-28
-4
-28
48
-14
29
35
18
27
-61
40
-82
-10
96
60
-1
-39
-49
-31
-24
-65
-42
-6
18
-74
40
-60
-4
-4
-75
-12
-20
-24
9
38
70
-44
-37
34
-71
-16
72
56
26
-57
2
-38
-106
20
111
13
-12
13
-32
-57
-80
127
11
36
-32
121
-59
97
56
34
86
47
-117
-3
9
-63
-16
7
17
36
33
96
-56
-84
6
-17
-40
3
16
41
-127
108
-46
9
102
-10
32
3
-9
-38
125
72
27
-21
-87
-92
72
-7
77
-21
44
25
-117
88
9
30
-45
103
-36
-2
-77
108
-47
-39
41
-19
-43
-42
6
9
45
85
26
4
51
-17
51
12
-10
60
-43
2
-40
0
-77
5
50
-15
6
-19
-68
10
26
27
15
7
46
0
0
-7
12
4
-10
24
39
-15
28
-36
-1
-3
41
-31
-30
0
53
19
14
-41
-22
-39
-23
20
-58
18
34
-82
-68
39
-50
-42
8
12
26
-127
89
-35
42
47
-60
0
49
-67
-68
-22
-45
25
86
-12
22
-47
-10
-53
3
2
2
0
-42
-23
-6
69
-56
20
-4
-54
16
0
-7
-26
-45
-6
-53
28
-64
-27
-36
30
-51
11
-10
33
38
5
-42
-21
84
40
7
-64
7
5
-38
-3
-42
-17
33
-8
-17
-38
53
127
-11
-4
24
-1
-12
-2
0
61
23
-32
38
28
-41
76
-36
13
65
43
13
63
-29
90
-124
43
16
57
-27
27
-81
83
-86
-42
95
3
26
10
-13
85
32
0
-3
-94
-68
-40
-104
-45
-38
23
-25
-48
26
-88
-42
-8
-48
-14
-113
-15
2
51
-42
-30
-30
-117
100
27
-57
-36
-127
38
6
-42
-85
18
-5
21
-93
16
89
-124
3
100
-7
82
111
15
-49
-80
94
36
-19
-116
-95
54
20
9
-92
-8
-38
18
68
-27
67
-73
55
17
-1
86
-26
-32
-28
47
51
-15
-47
-40
45
74
-79
10
-30
13
-11
-28
-11
24
-51
-127
-36
-39
-68
21
34
-21
13
-17
48
33
50
6
57
24
-26
41
-78
27
-24
23
32
-23
48
-25
-28
60
-2
-3
-74
-27
-73
-45
57
39
22
-56
9
46
-12
7
27
29
74
27
28
9
-127
48
-91
-15
19
72
29
60
62
-52
-7
0
-56
43
-60
57
-9
99
-13
30
48
81
-7
-11
35
79
-91
-44
41
-23
31
68
11
-80
50
32
31
-79
-90
-79
21
-35
62
-20
56
65
-49
17
46
20
10
15
-15
-24
26
65
-8
-118
45
33
-61
57
12
