-8
-31
-84
-76
-7
15
31
57
1
7
95
-70
17
27
-52
8
-70
5
89
-14
-21
-44
40
-61
62
35
-3
36
-7
41
-55
67
28
-59
-52
-5
35
-61
-59
-18
-49
-42
26
3
-4
55
-38
127
-96
34
8
-6
-62
25
53
-41
64
-54
45
-76
13
-70
-127
-5
5
16
32
-16
-38
92
70
69
3
51
-93
14
35
-27
-39
57
49
3
-49
58
-30
-15
95
-62
-39
38
54
9
110
33
-40
93
-4
-9
29
-50
25
-125
28
-18
-26
41
-53
-8
-10
13
-9
34
-78
87
32
-67
-110
-36
-63
75
52
-49
1
9
-59
35
5
-44
127
70
-11
4
11
45
-2
-48
62
9
27
-35
6
44
-22
16
42
-59
65
-32
25
6
-11
78
-20
-19
-31
78
-40
92
-10
17
-9
-42
-111
-81
-31
127
30
24
60
-21
-48
81
-22
58
51
-60
69
65
-101
28
-68
39
-79
3
14
70
-62
97
-57
-78
-53
55
-100
-52
16
-55
15
18
80
44
-83
-5
6
-7
-14
-114
-7
-87
15
102
-41
48
-53
16
-86
67
-38
70
17
58
-44
13
-112
89
8
127
26
85
43
-15
80
-73
17
8
49
53
-6
117
-45
-56
-2
33
1
-78
29
4
30
58
-63
53
89
17
114
23
50
48
-34
-63
-4
24
8
61
0
58
-31
27
-2
-64
-3
43
41
-29
62
-26
-53
-53
50
22
15
-39
-19
42
-127
27
-72
-40
-105
120
-40
30
4
52
33
1
-56
-18
5
4
-1
42
8
36
-13
-7
36
-36
-90
-41
73
47
68
-21
-69
-6
-17
-5
-41
62
69
-127
-13
11
-39
-54
-3
36
31
27
-36
17
-70
34
-61
-50
17
-25
6
6
-27
-6
4
-77
23
-14
33
8
-15
-35
-36
39
9
21
52
-40
28
-93
-46
-20
11
-37
-56
27
8
-13
-3
73
-48
55
39
-3
17
-15
-30
96
21
-17
-102
51
40
52
127
84
-16
44
62
-83
-5
-25
4
-28
-12
43
26
12
51
-3
4
14
-3
-79
-23
58
5
27
40
0
-84
49
110
1
-36
-42
52
-50
41
16
-58
49
56
-70
99
-49
-60
71
-1
6
23
127
-39
-99
-15
-35
-14
46
5
-82
14
-87
-6
-62
-57
71
13
-32
63
-88
-47
71
39
31
-71
53
-108
-126
-74
-12
12
-98
1
-26
-20
42
62
-106
127
-22
-51
-32
-1
20
-96
45
31
27
-40
34
31
32
-83
59
74
-3
28
-60
-26
-67
-32
31
-80
-4
-85
-17
44
-80
36
-44
92
20
77
44
5
-96
-97
33
32
-15
27
51
98
-47
26
-42
-76
-5
16
92
47
-86
-71
78
20
8
-19
-127
75
-18
-76
24
65
21
60
-9
21
-34
-3
19
95
-13
99
-38
22
32
-18
-17
74
54
-13
11
-34
-81
-60
28
33
-26
23
127
87
-87
-32
35
-34
-40
18
-35
-15
-97
-33
4
40
96
65
37
109
4
45
41
-25
-127
-85
-15
-23
22
45
11
-33
5
6
60
19
-30
-8
-57
34
1
14
-4
13
-54
32
-16
23
-43
-13
-41
-47
70
57
-31
44
18
-1
63
-33
68
-35
-19
72
-78
-71
36
-99
-4
20
18
-29
79
-51
-36
-17
47
-6
38
-25
-3
56
-127
22
98
52
19
-55
-64
21
67
38
72
54
-25
3
13
-119
-20
-15
-37
18
-45
-36
-16
-50
-48
31
-3
6
4
17
-1
-38
20
-96
-81
19
-24
-109
9
0
0
-7
35
-33
77
-35
-56
-37
23
53
-5
-31
-72
7
-37
72
12
30
-25
100
-40
-93
22
55
26
-7
1
-70
-5
-11
53
-20
81
-116
-48
-1
27
46
6
-19
-14
94
127
2
104
0
30
57
20
-12
-52
-25
-37
11
15
57
1
-16
-25
-99
32
123
28
-83
-45
-63
-80
-79
78
-34
-49
45
95
62
-55
99
-25
9
-4
-5
-47
-64
35
-79
26
32
127
43
30
23
8
-30
-45
-10
-13
4
30
-6
65
-11
9
20
-115
-38
-52
-29
-39
-8
-117
33
-93
34
-29
127
-98
-4
-81
-43
8
-47
-30
104
47
26
110
-51
-115
-19
-10
-47
-73
-84
73
-97
65
22
87
110
50
-4
33
21
-102
-49
7
-40
18
48
25
56
-57
-50
17
-33
14
-14
-51
21
72
31
15
-26
-53
-46
-59
127
50
54
34
2
49
-10
20
20
-3
-2
-24
35
-39
24
-16
5
-10
54
51
-63
26
3
-8
23
-2
6
42
-42
-21
-38
63
57
58
12
-45
-66
-106
-38
-114
-39
-3
-43
1
50
69
-62
104
66
4
-127
-41
115
-91
-42
91
24
87
-32
-2
98
-17
-46
43
-45
9
-52
39
18
7
-111
2
-51
-52
36
-25
26
-12
36
-55
-52
16
-96
64
19
-7
21
34
28
58
54
-23
-127
-17
30
-5
10
-2
9
8
-39
22
49
-23
33
15
-1
28
-1
64
-21
-24
121
16
-62
3
-39
53
0
-40
3
-115
-27
76
-88
60
15
47
35
-96
-19
12
-89
-39
-14
22
42
0
31
-5
72
57
-33
-27
51
-7
-52
-81
-1
38
-29
127
-53
-43
22
22
7
-12
28
-90
-57
18
86
-27
12
19
27
-23
-30
-96
43
-36
71
10
25
31
-36
-61
56
102
-2
-42
-30
-97
-20
-13
-127
-66
-26
22
-14
62
62
18
-24
55
-12
5
26
39
-5
-16
-64
14
-41
-78
-14
27
124
122
-67
5
-67
33
-51
70
-1
9
8
93
-49
6
-2
-127
-63
-98
-47
-123
-37
-29
-66
16
-67
7
49
32
43
-9
48
33
58
-24
-23
-39
66
61
-22
30
-13
-38
15
42
-85
-3
-71
-27
-1
-31
29
-93
8
-44
27
-17
-8
40
-10
33
-8
58
41
26
5
-7
-127
15
-40
-88
-17
38
18
91
97
86
87
70
19
75
42
-63
1
-73
70
-83
-26
-2
-71
-18
-54
12
52
-19
52
-92
16
-46
-102
-28
52
-55
-33
-33
-22
16
52
52
55
-38
-31
72
52
21
43
-62
-32
12
-12
-66
-8
-57
-116
41
-31
0
26
38
49
43
-87
-2
0
-48
-11
-67
-12
20
41
10
19
-11
-45
40
-6
127
15
92
-16
66
-46
-56
52
24
87
33
39
-123
-19
-11
32
54
-3
-31
-66
9
21
71
-8
-4
38
-12
-66
-12
-59
97
68
-88
-5
10
24
-2
-38
-15
127
9
32
-33
82
46
-51
-48
58
22
-17
40
43
-15
-44
-62
69
118
38
-30
48
-35
5
64
51
24
55
-14
27
-17
-46
71
34
1
9
-17
17
38
-21
19
8
-35
-12
66
9
-87
-15
-31
-68
-26
-4
-85
-72
-35
-38
32
48
-30
23
-45
103
-69
127
-9
-69
-22
-36
-34
-33
18
62
-20
-16
9
-24
-14
-69
-127
-20
-35
-13
57
86
5
-76
12
2
-11
51
-60
0
-13
7
4
-55
76
6
4
-40
111
-47
-14
56
-46
48
-29
-44
-26
11
40
-80
-12
-91
-22
4
-87
1
-82
52
66
28
82
-22
71
44
-73
23
-43
119
10
-41
-25
-60
-35
-117
-6
-60
20
1
10
-21
36
106
-58
94
59
-50
20
13
127
-20
10
42
-63
7
49
-56
22
-45
9
-5
-17
52
-35
-78
-60
61
-100
0
-50
78
-94
-18
-74
-12
109
14
-67
17
-32
-89
-9
-104
85
87
-14
-127
120
51
-18
64
30
52
-5
0
-54
65
2
-53
-2
1
-1
65
37
40
-35
-83
-23
-12
19
-43
48
-55
53
127
91
-48
-92
10
-93
-35
-50
5
54
-20
-6
6
90
-39
29
8
-9
-28
-2
-38
-31
61
0
-19
-10
-68
7
-85
-97
17
0
5
17
-8
34
-21
39
-50
-36
-71
-19
92
-19
29
-38
-32
-2
33
20
4
9
35
-1
-7
15
31
46
-35
21
-88
-20
-25
-47
-16
-7
6
44
7
35
-21
18
0
-24
35
1
49
0
3
-35
-14
-68
43
11
38
83
-127
44
-32
35
-127
-38
43
15
45
50
-115
-2
-38
30
66
54
102
-40
-108
16
127
14
-11
22
-3
-85
66
-82
-45
-14
13
18
35
-43
46
15
-109
84
-12
-91
-22
98
49
-4
37
37
17
26
47
7
21
35
14
97
38
44
-13
2
62
42
-5
-127
-67
-89
-18
-70
-67
-61
-28
-27
-36
-10
44
2
-3
-22
51
-30
-88
-26
8
-2
20
-26
-52
24
39
8
-71
-67
-19
-28
-35
-2
120
31
-11
-7
-32
1
-120
74
-24
-61
3
31
106
60
-39
15
45
-71
-7
-39
-56
49
-36
30
-61
27
-82
-44
-24
-17
-40
27
32
13
-21
-7
-108
30
0
17
15
-127
2
40
5
-61
30
45
-47
-94
-1
117
-75
111
-10
32
-19
-7
-21
-29
38
37
-32
17
30
-69
19
0
38
-20
-12
-89
-22
33
-2
5
13
-53
-71
-87
-46
-12
58
20
7
13
-4
-92
-127
-77
35
13
-4
67
-10
83
-31
114
35
7
-103
20
-104
61
68
-49
-8
37
-24
-53
51
-7
36
-18
-2
-46
-127
-26
59
-16
-81
27
-55
-16
43
-44
-35
19
-28
68
12
-2
4
37
83
67
34
-88
-96
67
-31
-50
-50
21
17
14
58
54
14
67
24
10
-32
-47
84
15
-63
8
63
21
100
-52
7
127
-20
-22
83
10
22
-18
-14
-35
42
64
-51
3
48
98
5
-10
-19
31
-1
-35
40
6
-56
-78
-20
51
85
24
2
63
30
22
94
-2
-16
20
-1
58
-85
56
18
41
2
-5
-56
-42
-24
-79
48
-15
64
-29
51
59
40
-21
41
-96
-98
-73
-16
-13
-7
50
60
64
-7
23
-51
11
-3
25
47
57
-127
30
14
0
29
39
-18
-5
-79
-83
-45
101
-96
-19
-55
74
87
-40
-4
-55
-24
-36
-35
-94
-49
24
45
119
43
-31
15
4
-29
26
51
14
-18
89
-67
-35
53
18
-23
65
118
4
7
-35
-30
13
28
69
-120
-25
-127
-88
-83
-35
-80
-9
-66
-24
73
-5
70
68
-25
94
22
38
21
-28
94
-32
51
10
-122
4
-16
-10
-6
51
54
3
-56
127
75
-33
73
117
12
55
-33
88
16
-25
46
-100
-6
-10
-88
56
15
-84
-24
-42
6
-81
38
35
72
67
-70
-24
104
6
43
4
-11
14
-77
-17
5
-45
-43
63
47
-13
76
6
-34
-13
-35
89
53
-71
18
2
-82
-46
-25
-35
20
22
5
-36
-127
23
-84
14
-32
42
-91
24
-52
-106
-37
16
56
1
-47
-47
56
5
59
-33
-24
55
10
24
-74
61
-68
-41
-9
-63
-88
52
37
46
-16
73
-127
4
32
26
-37
9
6
3
43
-24
50
28
-12
-1
62
27
-85
95
49
-46
32
26
-69
-51
20
-4
65
-1
-89
43
36
-1
-62
-15
75
18
-26
-12
-34
12
-20
8
92
-42
23
86
-5
34
127
-28
3
52
-16
68
-52
29
-18
-15
38
-17
35
52
-10
-19
39
-57
10
-51
61
48
52
-64
53
24
16
-17
8
-32
-104
62
-32
46
-14
30
21
-74
-40
-37
-56
86
127
-55
-41
16
43
14
32
-13
71
3
17
-52
64
23
-84
31
25
64
63
6
-7
-30
27
-93
-78
4
-31
-46
-12
4
29
35
-48
-12
7
-20
-16
-56
-1
-91
10
-99
30
-40
-63
21
46
3
-78
-4
-38
-9
66
57
25
-22
-54
5
-127
23
1
-8
51
89
12
10
-19
9
38
-59
-58
9
-28
127
124
14
85
-66
-43
42
-41
-57
-107
-111
-8
-61
-69
-38
-33
2
30
-20
-18
58
-52
54
18
-70
-26
8
15
-89
40
-107
-56
50
35
-6
-67
-36
28
-11
-4
-19
48
-37
58
-11
-38
-36
-25
41
41
69
-71
6
-27
-53
-6
20
-50
-101
-52
-1
68
-23
33
115
85
95
63
-77
11
-60
26
35
-39
0
58
1
18
74
81
104
47
37
120
4
-127
-82
-36
-62
45
-3
69
-42
-48
-23
-63
-11
-77
-27
18
127
5
36
-16
14
33
0
65
-54
-26
-6
-17
-5
37
38
33
-3
-6
-24
-85
0
62
39
-41
8
-48
40
-127
25
12
-20
-38
24
29
-17
-27
-25
-92
-36
-37
-18
34
-40
-69
9
-37
3
-85
127
59
87
28
-5
-2
17
-27
15
-3
-30
111
104
22
89
-47
49
-4
-20
-17
-7
27
110
19
17
-62
54
-36
52
-49
20
-88
-44
-45
-29
47
-7
-9
65
62
9
64
-113
45
-33
46
-41
-49
-17
51
32
-92
57
6
-2
30
-8
64
-44
39
-12
-4
-35
-51
25
-36
48
-41
-51
53
-23
-1
-36
23
19
4
39
-76
14
71
-17
-14
30
29
56
-41
-31
-3
7
-127
41
-3
-18
-71
-4
-1
-59
93
36
-57
76
-40
15
62
-8
79
65
29
29
52
-27
-18
-11
-49
53
-40
-49
61
-34
-47
50
95
-43
45
127
-1
67
65
67
63
-38
12
-16
-41
-26
-85
-6
-21
16
4
14
-17
34
-4
-59
30
-2
9
33
-33
-16
36
5
-7
43
-26
90
5
-21
-43
-90
91
-83
68
36
49
34
-126
41
-50
-110
33
-33
68
19
-3
-27
-31
-91
127
4
55
-31
-44
75
50
23
-68
-59
4
-1
-2
-6
75
-23
6
-3
68
-15
-28
6
-45
67
-13
33
-51
43
-111
-21
127
-67
-26
26
16
44
-26
89
-98
-12
70
-17
6
-63
-70
-20
-14
-77
101
28
-62
-18
15
72
-53
71
-66
-3
-16
79
14
97
6
86
20
-127
-3
-25
-49
-32
-38
-70
-4
-10
-73
68
106
41
9
-76
15
86
-48
8
49
-24
-71
63
-75
-46
20
-25
-27
-122
81
-67
-90
86
14
97
-56
98
27
-7
-22
-76
-31
22
43
-5
-92
-86
61
5
-12
55
-7
-86
-101
-15
72
28
-127
-10
71
19
52
-47
11
63
-13
-32
-9
10
6
-23
33
-52
-13
-13
-48
-8
59
-30
-10
-2
-16
76
-40
50
-10
60
39
11
-3
-29
51
20
21
-55
127
6
40
-62
-10
94
45
-1
1
125
77
7
-74
-42
70
-70
36
38
84
45
13
19
-87
-5
53
-43
92
6
14
-40
-27
3
-52
10
-4
68
7
14
37
-27
-76
-84
-70
45
-63
-40
58
75
118
-40
-79
-20
-56
-49
-76
-44
33
-4
48
-13
-19
91
43
-10
12
51
42
-9
35
127
-59
71
88
26
-45
11
-62
44
47
-37
-16
-47
2
57
-90
53
-32
-40
-1
-2
-21
54
-107
66
-29
18
-127
15
-66
-3
-8
19
86
74
10
-23
-50
18
30
67
39
58
45
-45
-52
18
32
5
43
-42
38
8
-61
-33
-53
28
-91
-39
-6
7
-41
59
32
-91
-74
-66
28
117
66
19
49
9
-48
-25
1
-77
56
-52
-18
117
-66
-31
23
-15
-114
-10
5
1
32
-42
28
20
25
76
44
57
81
-39
37
-67
34
-54
-67
-28
-127
-28
-34
44
77
31
20
-22
-27
45
-120
-42
-30
45
-5
-78
30
24
23
19
-35
-20
-57
-19
-30
-37
122
-31
12
-30
-66
34
-54
31
-25
-24
0
-52
15
4
56
-8
34
72
-6
36
-22
127
-8
4
-43
-24
18
-30
83
34
-37
-46
-90
8
17
76
-89
-110
-48
-24
-87
-73
-62
-43
-60
-102
-117
-11
-17
-60
21
0
6
49
-101
31
-74
-103
-124
-73
87
127
84
-23
39
-65
-54
31
-60
-27
58
64
-107
95
-9
82
-1
-34
-123
-25
-28
-20
22
-34
127
-23
-24
-8
3
58
23
50
-10
-9
-62
17
-78
-13
15
-17
-6
44
26
23
0
9
-7
-47
-30
12
-61
-33
-25
5
-2
-21
-27
33
7
-23
54
-14
-25
-42
27
14
14
13
19
5
69
41
69
-27
27
-7
22
77
20
-11
-127
-26
13
46
-23
57
43
-46
-72
-62
-74
38
70
-54
-31
7
23
-33
-14
23
24
25
35
24
60
22
-32
-14
-35
24
59
-41
34
28
-4
-72
-98
98
60
-23
19
29
-81
-24
37
22
-72
-49
83
-51
-82
72
51
10
-46
65
-13
-21
-11
-70
-68
71
44
55
-18
-4
-76
37
77
-4
-3
-60
20
-33
-89
-127
-74
125
3
74
93
74
-20
80
2
24
-9
33
-92
3
15
-42
-48
-66
-97
-56
11
-79
15
-5
86
-20
3
99
0
-34
3
-29
-10
-117
-40
-26
127
8
60
-12
16
-66
-23
27
-3
-40
-84
3
14
6
-37
-4
23
-38
-46
57
-67
-81
-50
-25
-55
66
91
22
-50
1
89
-50
95
41
116
-39
-23
-60
24
5
-98
-10
-17
-33
59
6
-29
31
-38
-2
36
-66
-10
-6
-85
-79
23
-62
-17
6
66
-9
-127
-39
-105
-54
-79
88
-24
-10
-8
-66
51
-85
6
35
-28
127
5
51
34
-5
16
-41
-15
-4
-72
-16
-41
-76
-98
35
-9
-13
50
42
-58
44
-63
-41
31
92
7
-39
28
90
-94
-13
28
12
-70
18
9
-11
-27
-29
-16
-3
33
11
58
-57
-60
-18
-45
66
13
32
43
52
92
-67
-115
39
-8
9
-30
-101
12
-72
34
-66
127
86
-1
-45
8
32
15
52
47
-40
52
15
-44
-34
89
27
-53
-44
-1
40
1
97
-9
-29
-69
49
-110
-2
69
33
-72
24
-51
-18
23
12
63
22
48
20
8
-14
-36
66
7
52
53
-12
32
-66
-45
85
80
2
18
71
-113
-7
67
35
66
-36
-4
25
-53
52
-57
-5
-127
33
-27
-13
-30
-15
-13
44
127
20
-16
-3
22
-48
-49
-97
37
59
21
92
11
66
-9
-14
-5
4
-13
31
-29
-5
20
-29
-98
40
37
21
27
-50
39
-23
32
-56
5
-9
-13
-1
-35
43
-72
13
64
48
-10
9
-54
-3
6
0
43
35
-82
-92
32
-5
79
89
-12
58
50
127
19
-45
-49
-52
16
-33
33
-20
33
59
-16
-2
90
44
-36
16
117
-11
-25
-93
-19
-29
14
20
20
-10
-105
59
-24
8
29
-33
-10
8
-48
14
12
-73
-54
19
-75
-5
40
-127
62
-99
-19
-54
33
98
-1
-13
46
-78
-46
-23
66
-9
46
-1
-68
10
-70
54
-44
-3
-33
86
-77
50
1
8
21
-113
7
-60
-10
-63
10
127
1
-10
-40
18
16
-37
5
-62
-24
35
-66
1
64
-7
41
51
-32
-52
77
-32
65
64
-45
14
-13
-30
12
-65
-11
37
8
37
36
-59
-20
-17
64
97
101
22
28
16
-29
-66
-68
93
64
15
-15
39
42
89
7
-120
33
-85
16
60
-20
16
17
1
21
64
-17
35
65
34
-28
-3
21
84
66
-57
1
20
1
11
26
-34
-53
-127
58
5
77
25
30
41
0
61
0
-55
127
-77
-9
37
-51
33
-65
-18
78
2
21
26
-56
56
62
-11
18
25
28
33
18
-3
18
-42
69
39
-10
20
47
-74
-45
48
-52
-94
-22
33
58
-41
-24
55
-36
37
14
-1
-2
-2
-9
-31
101
19
36
-16
42
32
-39
27
44
31
-92
-31
14
-25
22
-52
-56
64
-21
18
17
70
-58
92
44
19
42
2
-31
-71
-68
-48
-91
-29
115
7
-3
-127
-53
-20
62
25
-44
0
-63
9
-12
8
-51
17
-4
-50
30
27
92
127
-48
12
-35
-17
31
-2
-27
26
-21
-34
2
25
25
4
42
-1
-56
-12
42
-42
-35
84
-38
3
-10
4
-43
-20
-24
-2
17
0
8
-17
-2
-45
-42
55
-9
44
26
54
57
30
99
-14
-30
-14
53
-14
9
-6
3
45
-85
-38
27
80
-72
25
49
-4
70
-29
-1
26
-32
73
-5
-53
-1
31
-2
8
66
26
-85
-88
-14
-75
28
84
122
127
61
56
56
13
-49
29
66
-10
13
-8
34
-81
43
-19
-13
-87
-54
-33
21
-39
-39
-18
24
102
-70
29
-38
-2
10
-90
-105
-16
127
-17
-50
57
104
-15
17
-6
70
5
-66
-43
-52
41
12
118
56
33
-99
-13
74
-16
2
28
-29
-7
-11
46
-9
18
-26
51
24
-20
82
-23
-27
12
-44
9
44
-50
-34
19
6
21
24
-25
23
-34
-46
25
-13
-44
17
1
127
12
-10
51
-18
68
0
-20
-14
15
-35
45
90
80
127
16
20
-12
25
49
33
6
-21
36
-27
0
-17
10
-23
56
-26
-95
7
27
-74
34
81
-30
-19
13
70
-97
11
113
-25
3
51
17
-57
-69
-28
-10
-33
-37
43
-57
52
-52
40
5
-14
50
25
17
27
-71
-13
-70
-12
31
22
-57
-12
-57
-43
82
110
53
-13
13
-66
-127
-62
33
-10
45
-33
73
14
-88
8
-58
78
-4
31
-71
62
47
-61
20
62
81
22
-26
58
-22
-54
14
-3
25
-48
-57
42
118
-18
36
21
-18
60
-10
1
-20
11
-22
48
-58
-28
84
2
17
-6
38
25
25
-36
15
66
-76
-7
-1
-79
-52
-56
-127
-35
-50
-34
-2
-60
-43
-61
41
14
-82
54
-16
66
-11
31
-20
-38
2
73
18
-52
-2
-2
6
18
-36
14
65
-3
31
-3
61
6
24
-36
49
-13
5
-44
-74
30
55
30
-88
50
-8
-74
3
59
-33
-30
-30
8
-25
-35
-42
-48
-22
-127
93
-26
32
19
48
27
-79
-50
-57
-26
31
71
-44
33
-35
-4
-36
72
-30
51
31
-47
22
-95
-12
-101
-27
-88
-51
127
-29
86
-23
10
24
-1
-39
-35
86
22
66
-122
43
94
20
122
-46
-25
16
35
-1
28
17
34
-69
-72
32
127
-4
14
-33
-42
36
-82
-43
-19
-8
-49
13
26
-25
36
-3
46
55
18
7
-29
14
-39
-32
27
2
69
-9
-15
-22
-30
21
-11
47
77
95
-26
44
40
-56
53
-48
-11
25
-94
-35
-8
-18
-29
39
-8
31
-9
-24
76
-94
7
22
15
54
7
-31
-49
40
19
-35
29
-43
20
-24
37
58
35
40
-17
43
53
6
-38
12
-6
19
4
-1
-53
41
-127
69
0
40
-28
-67
-32
-17
53
88
-64
16
32
-69
64
-19
78
-9
-13
6
41
120
2
-54
-57
8
-24
17
20
-74
25
-62
-57
15
-39
77
-30
19
127
17
-27
-10
-24
-29
-32
-16
-23
-23
-65
-1
34
94
118
30
-1
-21
12
32
-64
29
37
-63
35
36
-59
14
66
-29
-18
-5
0
-2
-104
74
-18
-77
-61
23
117
-127
99
-20
11
58
27
39
-50
26
-104
39
2
52
106
-34
74
-10
-65
10
62
24
40
-123
26
-42
58
-45
-11
6
-17
-73
25
-69
51
34
29
-18
-16
28
-127
7
-30
25
-6
-61
-87
-30
71
-18
113
-85
27
-91
-16
28
-2
9
-12
13
-24
-34
-31
-73
73
22
35
14
-15
-58
0
-37
-36
9
-6
6
-127
-5
-38
57
26
-54
18
-94
-50
-14
-57
9
6
-18
-81
51
-48
-42
11
-3
2
3
64
75
-84
-1
-55
39
10
-39
48
-2
7
-12
-47
-14
-43
31
-61
-21
49
-12
61
-64
-14
-1
-2
25
-35
38
0
-15
-6
14
19
-15
-67
110
-104
10
-62
-13
45
32
73
3
-25
63
-20
-4
-31
-37
24
65
100
32
-2
-71
-65
30
127
-9
-80
79
-60
-27
10
-31
-105
-89
-100
-9
10
-5
37
27
-10
-101
91
59
-98
-112
-47
-12
63
-77
-57
27
1
38
1
-42
1
-5
-84
27
104
-5
-50
74
-87
-21
-107
-24
-15
-13
82
127
-83
12
-36
5
5
-22
-28
-48
-14
-6
-26
8
15
-107
-54
-54
53
20
5
-127
-52
25
20
-16
-14
14
-10
122
-51
-65
56
-27
-5
37
-63
0
-4
63
-55
-93
88
7
71
-32
68
-28
-40
-87
87
120
15
120
-53
109
-60
-46
30
37
-8
10
-47
-24
34
-16
-18
-41
-93
-78
46
5
66
62
-21
127
48
15
0
-32
-18
-86
-2
-1
41
72
12
36
-43
3
15
98
14
29
78
30
-59
-20
58
28
-18
-2
18
-2
-65
23
