-55
-87
43
104
73
21
30
-99
49
22
35
127
-25
-4
127
-45
-89
-31
20
-127
-80
47
-73
-48
-72
26
-67
95
-29
-31
67
-127
-5
37
-67
3
-127
14
-8
48
49
-2
0
-70
-26
29
-27
-48
127
57
-94
-80
-81
-38
-43
-84
96
66
-11
-127
-61
-126
-127
-37
-92
-127
2
-21
45
2
-45
-63
-17
-67
-64
-81
-17
-65
60
-92
-15
-107
-93
-83
-91
-28
-105
61
49
-80
-63
-71
-29
22
-127
-28
-9
-36
21
11
-22
43
103
-15
-8
-4
20
-62
127
-109
-85
-32
-55
-36
-76
0
-3
-84
-5
-127
50
77
55
-94
19
-11
-22
48
-38
-53
-16
-61
-127
-93
-127
71
-1
-36
-62
-127
-13
10
1
-59
-23
23
-8
-26
16
-83
63
-53
-13
2
-43
-127
-79
-89
27
-43
-85
-102
-89
-22
-10
20
-28
12
-16
-33
-27
-8
-1
-27
114
-26
-11
111
-58
-87
-11
-127
-31
-127
-34
-45
-82
-86
-36
-52
-127
-94
-48
49
16
-14
34
-89
22
45
7
2
-45
-45
-25
-106
-86
55
-62
-93
-36
122
-87
39
-127
27
-46
-45
-3
-127
102
-32
-56
69
97
-14
-127
2
-91
-30
36
-12
9
4
-7
24
-44
-32
-28
55
20
-21
-34
42
-49
15
42
-62
-71
-4
-49
-30
-52
-70
-32
-86
-2
5
83
-1
27
-127
-12
-7
-94
93
51
8
-98
1
-127
1
-127
-127
-52
127
60
32
-36
-14
-9
-75
56
3
-68
-25
-67
-96
27
-49
112
-127
50
-55
50
-60
44
-127
57
-29
-19
5
83
37
-67
-127
-1
-37
-65
45
-116
-85
18
-47
-95
87
-122
-95
-127
50
-16
0
60
-32
-70
-13
21
89
-13
54
57
-79
-19
-62
19
-53
67
84
101
-46
-114
-13
-127
38
-127
32
7
-65
-2
-109
79
-89
-86
-31
-69
-23
-34
-50
26
-48
73
-127
32
-62
39
-127
18
37
-69
-120
-127
-85
48
-127
-126
-5
2
48
27
-104
-10
-37
-74
-96
-52
-102
100
-35
15
-127
-29
-127
110
-6
56
-40
61
-8
71
-48
-53
-23
-42
-105
12
-44
7
-118
33
-37
-117
-79
109
10
57
-41
-72
23
19
-11
-46
-60
1
72
-15
-42
-88
71
-4
-126
-28
-33
33
-1
-30
-92
13
-9
-62
-46
-74
-31
-67
-50
-87
-93
-1
23
13
-27
-82
10
11
-64
-13
31
-45
-17
-43
-1
36
-24
104
-16
-49
-127
23
-118
12
66
-38
-2
16
-127
16
-17
-30
-60
23
-97
-113
-98
-24
-2
103
-91
-13
26
13
-40
-82
-82
46
24
-122
-48
-84
37
45
-114
-65
45
50
-127
-52
-25
87
0
47
-63
-7
127
57
-85
93
26
-127
-92
-37
-97
-36
-5
8
-12
1
-11
-102
54
-73
-30
81
127
-77
-13
20
-53
-33
5
13
43
-127
-20
-37
-115
-31
-49
-109
-25
-19
-55
14
-66
53
74
56
-1
13
48
-14
-37
-57
3
101
30
43
14
-51
-85
-127
-20
-31
-77
-10
-82
-34
-7
-27
-60
-107
-33
27
-127
127
-127
18
-93
-12
-19
127
-63
122
81
-127
-8
33
-24
-46
-99
-61
-85
-127
-108
-127
6
-127
45
7
-97
-97
-127
-74
127
-45
-83
41
43
-71
62
40
-45
-16
-127
33
-95
-61
76
-57
-44
-84
-34
90
-127
-42
-15
-117
63
-94
-127
10
-127
-42
27
-31
-66
-98
-97
-108
-127
-83
-24
-8
-2
47
115
-127
127
-45
-127
-38
-73
102
-39
-127
-103
-30
-61
-127
-127
26
-45
25
-124
-41
-100
-22
-70
17
12
-79
50
-31
-9
-8
-127
-123
61
-127
14
8
-56
-8
-127
74
-36
12
-112
59
-91
-107
13
127
-12
86
-58
-123
-127
30
7
80
49
40
102
47
-94
-42
-118
-47
-127
-33
-127
77
-127
-48
-12
-29
60
-111
-86
-49
-27
21
-106
-127
-127
-127
-94
106
-114
-127
-21
-113
-124
-6
-72
-9
-120
-127
-127
-13
-9
51
-105
-125
-48
-78
-78
-100
-1
-127
31
-48
-121
12
127
-28
8
-44
-96
-29
-20
-127
-47
50
-36
-17
127
-90
45
-127
-20
-127
50
-90
-127
62
20
34
31
30
60
6
-53
52
-14
112
38
64
-127
-115
-93
35
43
-91
-113
-66
-127
-127
57
-34
-34
-127
-46
-43
127
-100
69
-127
41
127
-76
-127
-82
53
120
29
-127
-14
-127
69
-89
-66
-120
-127
-28
-17
-127
-109
-87
-6
3
-48
33
-2
-127
67
-45
-49
-43
4
-96
35
-25
-16
-72
-127
6
-55
-54
-114
22
-127
-12
64
103
-44
-118
73
-77
-65
-113
7
-4
-63
-75
-2
23
-25
105
-108
-4
20
-23
20
-28
-116
52
-40
-61
-28
43
-43
71
28
-127
116
-79
25
-29
-5
-91
-36
34
-10
11
36
14
15
-100
-108
-106
3
35
113
-123
-127
72
-63
33
71
-32
43
-38
-4
-121
-65
-61
-87
-101
-127
-61
-19
2
52
73
27
-7
35
-104
11
-73
-45
-58
64
-44
-97
23
-45
-83
-55
-78
-46
25
127
79
-66
-91
11
-111
-104
-127
26
-67
-120
-93
6
60
126
27
112
6
51
23
97
-21
-86
-23
-118
-67
-78
-44
40
-70
-16
0
-19
21
56
-127
3
-127
-11
47
-64
-29
5
-14
-43
-127
-93
67
-105
-27
-65
-87
-14
49
29
-26
-7
71
-30
-68
-46
8
-54
13
-85
-103
45
28
42
-80
27
-36
-45
-58
-80
-127
35
61
-36
54
-38
-34
-60
-52
-3
4
117
-127
-43
22
-54
-42
-52
-68
47
-102
-44
-29
-100
33
-47
3
-26
-30
-127
11
-33
-13
-127
-81
20
-21
-4
-24
-50
-127
-45
-48
41
33
-127
-59
-74
55
-100
-61
-103
45
-127
-39
127
-54
16
-34
-127
-93
63
-22
-38
17
-67
-10
75
-127
48
42
-9
67
-38
-52
-115
33
65
-74
39
-33
-5
-44
-47
45
-29
21
-78
-55
-59
-25
11
-41
-67
-91
78
-26
59
-84
9
-63
-106
-92
41
-1
-88
-4
-51
18
-116
-35
-127
-26
-91
124
-25
-24
-41
-127
-6
-127
9
-12
-49
-127
21
-72
-80
-63
-53
-85
88
-30
-51
-102
35
1
-104
55
-78
-2
7
46
55
-19
-50
39
-37
64
-55
-127
32
-46
5
4
-127
-28
-27
-69
83
50
-85
-57
7
34
-28
-35
-60
-85
-46
73
-9
13
-7
-127
84
-18
19
35
-73
96
-10
-72
36
-92
7
-54
-33
-30
-57
-44
23
-37
-23
-19
41
22
127
-7
41
24
-51
51
5
-70
-81
50
-45
-81
-89
-9
-51
34
-65
-51
42
13
120
24
-48
-95
-22
6
-127
-6
87
84
-70
-27
127
-16
50
-2
15
30
124
-108
-61
-114
15
16
-11
-52
-2
-28
12
-46
13
-110
43
21
-21
-42
-119
22
-26
-4
-10
7
31
106
-67
14
-15
113
30
-66
30
21
-53
-22
-99
14
-9
-81
-97
28
60
-84
-83
6
-37
-107
-4
20
-127
-37
-58
22
-37
-27
-127
-91
-36
-16
67
-32
-45
5
61
13
-113
-87
44
-36
13
28
-17
-47
-113
-41
23
97
-98
39
-38
-91
-70
-83
-64
28
-59
-31
22
-39
29
-127
-46
27
16
3
-126
-31
33
-25
-25
-110
-49
-106
15
45
30
-18
121
-66
127
-63
35
-64
127
-95
58
17
-107
-55
-44
30
66
38
10
-30
75
124
-102
127
54
-99
22
11
-15
-25
-24
-127
-74
48
-127
2
39
-38
25
-30
-1
-31
-59
-6
-60
22
-16
66
45
-127
75
-50
5
43
40
127
-38
49
46
-53
-115
-37
-54
-127
-33
-44
-88
88
32
-61
1
-50
-127
37
-73
-39
-92
-94
48
-39
-48
8
-127
-22
122
-44
-97
49
-28
114
51
20
-83
-127
127
-33
-27
-89
-34
-75
-73
21
-8
-40
127
-101
30
-37
-80
-127
-51
46
-109
-64
-62
-123
-62
106
-102
24
-118
1
-115
-56
64
20
-86
-124
15
-54
-103
-123
-60
-58
-62
-55
-34
42
-127
-50
-103
-127
43
24
88
54
-99
49
-115
-94
-91
-80
126
40
-47
-69
11
69
-63
-91
-75
-127
-69
-8
119
127
11
-23
-29
30
-118
39
-115
-48
-49
102
45
-10
-43
-17
14
94
-56
-60
-127
-98
34
-67
127
-6
-127
15
26
-127
-37
20
75
86
26
30
-41
-58
51
-45
47
38
45
9
-56
-116
-108
-53
-66
-17
-47
-107
-127
-116
-126
-16
30
-127
-85
-55
112
120
-101
-75
23
-64
-87
-116
-19
-68
-29
108
-71
33
9
-87
-127
-62
42
66
-127
97
19
-69
-111
61
-38
-107
59
10
-36
-31
-7
13
45
85
-50
33
-115
-127
-81
23
-48
-65
-29
-119
-95
1
18
-124
-22
36
-68
89
-127
-73
68
19
24
43
-98
101
63
-65
39
7
-59
1
-39
-125
-75
-109
104
127
-34
-105
-89
-53
-108
10
-127
-91
-93
27
-15
77
-111
73
38
-127
54
46
-39
69
-50
-109
13
-21
-98
-112
17
-127
34
-92
-49
105
5
-31
-127
-99
127
29
-83
-125
2
-74
51
-34
2
80
98
16
-1
-56
-127
-127
-24
127
-21
26
-91
32
56
-1
36
57
-76
-127
-127
-64
70
12
-103
62
-127
-116
-48
26
-26
52
-16
-70
49
33
-63
-52
-49
51
-14
-127
-52
-82
61
-85
-68
-87
95
-43
6
38
-44
2
50
21
-64
-127
-68
-127
-127
-89
-36
34
-65
-88
83
-33
-54
-94
-127
54
72
-53
62
-125
8
-112
-103
-81
-110
103
-75
-68
-66
-127
1
34
-122
-50
-115
60
107
93
-127
2
37
-61
-73
-104
-50
-127
56
6
90
-127
58
-69
-60
-66
-110
-115
-103
-43
62
-127
-73
36
-81
-43
127
30
-32
-3
44
13
-18
23
-120
-74
70
-15
-127
-84
-17
94
-93
18
-80
-8
-33
-82
27
-25
-94
-7
-127
-65
-40
-59
-84
-120
-127
127
-108
-125
-127
-126
-127
-74
4
-74
-121
0
102
-22
-21
53
-127
-41
-127
-127
-75
-44
48
95
17
-12
55
106
-88
-72
-2
-127
-12
-91
-39
-68
-106
-36
-71
-16
87
-91
-127
-74
-127
-82
-127
4
6
113
-54
-103
-51
96
127
-102
-86
-28
-80
34
-78
-127
33
-127
-127
-11
-52
104
86
-45
-68
35
-79
35
-81
-127
-127
54
-45
-84
-123
-14
-7
-5
99
-102
22
-21
-50
-69
113
-51
-124
24
75
-76
50
81
-67
-18
-95
82
-25
-28
-127
74
-109
81
63
73
-4
-127
-62
84
99
15
-102
-91
-21
-101
-65
11
-39
-127
27
-39
52
-97
-38
-77
-127
-114
-53
-107
-127
-127
-109
24
-76
-104
-117
33
-58
74
-37
-30
-28
-114
-112
-33
-16
-94
-83
-115
-32
-26
-105
19
35
31
-71
30
-101
-52
-64
-20
-20
-16
-84
-127
28
47
-127
-41
-127
52
9
7
-91
-62
31
-127
53
-90
-76
-6
63
-53
-21
-109
104
28
-104
-15
-72
-77
-32
-110
64
5
-127
-39
-15
-85
19
-127
50
39
-25
35
-64
-127
-2
-101
0
-55
-1
45
-51
-79
65
-65
-127
38
-127
33
85
61
-55
-29
-95
-16
-9
-77
-127
-100
-22
-90
70
29
-87
-3
21
-49
-14
-44
-127
-86
-102
-10
-42
35
-94
83
-68
67
-31
-23
44
-7
-19
-10
110
127
-53
-93
12
15
-47
99
9
-12
-119
44
-113
-96
-121
-28
45
57
-44
-127
-67
27
-37
-1
-62
-17
-1
-21
-73
-109
-9
56
17
-83
127
55
-114
-6
127
29
44
48
-36
-24
42
-78
42
-9
111
113
38
38
-70
127
-61
-16
-64
2
-2
-127
19
-127
72
42
-86
38
-6
-44
-95
-34
-40
-127
17
-44
5
-8
32
-87
-127
-2
88
-72
-25
20
-104
-127
-39
-49
-121
-48
3
-8
54
-92
91
66
7
-10
-76
-26
-78
1
-4
-127
-68
-127
-29
-2
96
34
-41
-96
44
-62
33
1
83
-15
73
20
4
-83
-61
48
-95
6
-97
-24
127
65
-127
44
-111
92
-86
-12
31
-124
-115
58
-93
80
-50
54
-48
-47
-41
60
15
-115
-127
-51
-97
-33
24
-7
40
-9
-28
-45
-47
98
10
7
-38
35
-20
26
28
-37
34
-39
-39
-28
-93
15
-27
-127
-127
-82
-123
55
0
-36
127
12
-32
-16
-53
54
-79
-15
35
-127
-122
-121
12
98
-59
88
-72
-119
-26
68
-40
-123
32
-39
120
89
46
-72
51
-22
-127
-96
26
-106
-127
9
-127
-113
22
-127
-127
-96
-73
-127
-20
-64
-79
93
66
127
-109
-85
-63
47
-127
-64
-127
9
31
-13
40
13
-57
-66
-77
-65
-4
7
68
-72
-127
-127
-23
-76
-61
-83
-92
-70
-39
-61
127
90
104
42
-28
81
-106
-52
-122
33
-57
75
-127
62
-70
127
-127
70
-71
103
39
127
-127
-34
107
-63
-63
-127
7
127
94
117
27
-127
-107
68
-127
-68
-127
11
7
-22
-127
-38
2
75
127
127
-38
63
27
-29
-127
-127
-116
-95
-42
-2
13
-92
-29
-111
103
127
127
-74
-74
-127
7
6
127
123
59
64
-101
-127
-121
-29
-68
18
-127
-103
64
-97
93
-80
107
86
-75
127
-127
-48
-103
-2
32
-105
105
-58
-94
-79
127
-15
-108
-48
67
-127
-56
39
49
-7
-41
-97
-24
-89
-12
25
127
-117
66
126
-75
-127
-122
-84
-109
30
59
36
-127
-69
50
-29
-31
127
-1
26
-53
-59
-67
-31
115
119
-47
-127
64
-72
-91
-78
-73
-127
25
-127
113
-20
61
81
-117
19
-38
26
64
-101
-127
-70
-127
-12
46
-105
75
-72
-127
127
73
-44
39
55
-83
-64
-8
-127
-91
29
-127
-94
49
95
-69
8
-27
-68
-58
20
105
-124
114
-87
-62
90
-127
-122
-6
-51
-48
48
