16
18
-6
-29
-2
-34
-15
0
32
49
15
-21
2
-39
-2
-53
-13
-37
-3
-20
9
-92
127
-13
-45
45
19
25
-3
-1
57
-53
-119
28
9
-74
-12
-4
18
-55
39
30
7
2
-51
30
43
-58
91
-39
17
46
-2
-8
-31
12
53
-48
71
25
-43
6
42
71
29
-8
-98
16
-21
-67
31
-50
-8
16
-6
63
90
-10
-2
44
-6
-29
47
67
28
20
-84
28
-10
-31
-37
40
27
-20
69
-30
14
54
53
-62
-105
88
-17
-6
11
43
5
109
42
-68
-11
-18
-40
-38
-51
-21
-1
50
71
-14
61
-50
-11
17
39
-10
47
57
-44
-26
91
-46
-46
15
-3
31
-127
-4
-4
-29
-82
11
39
-34
58
29
18
56
-68
57
-48
42
35
-121
118
-23
-1
-72
-36
10
19
51
-10
44
1
-21
-69
106
13
-3
43
32
-19
-121
57
-53
10
-36
-97
101
110
41
-7
37
-31
-44
-112
28
-6
-100
29
-12
-20
-26
60
-5
38
-10
33
31
58
8
127
-93
-104
33
-69
89
-14
-127
-32
-103
-78
85
42
-16
14
12
-4
32
-40
-60
-44
14
24
-27
26
-8
18
4
-85
5
-3
-3
23
-10
23
9
-6
-5
-22
16
9
-18
-27
-16
-47
61
-65
19
-38
24
31
40
-5
-127
18
-4
-3
-27
-19
-10
5
-1
-28
2
51
-61
-29
34
-22
-15
22
-23
-54
-57
17
2
13
-2
2
-3
-58
13
-36
34
37
-52
40
59
-22
4
24
2
2
35
3
28
-6
-27
65
0
14
-66
-19
-3
29
-19
-9
8
38
-20
66
22
16
0
-38
-5
-2
-78
-13
35
127
-28
-8
-67
-32
40
-7
-2
-4
17
-9
-38
11
22
30
16
29
-28
-56
21
-40
6
24
-4
-7
63
-7
-17
30
-37
-3
-19
-24
-8
-26
-27
-44
-18
21
-31
5
84
-86
53
31
-27
17
13
40
-76
-33
9
-22
-25
-23
-59
93
-74
-78
-29
14
41
48
127
-59
-29
-35
-26
-40
49
-97
18
-114
30
77
82
67
-69
64
-1
11
-22
32
45
-7
18
-88
-29
35
14
-42
-52
20
10
118
-8
-40
-111
-18
-56
-9
-48
1
-40
12
-41
-78
26
39
20
45
6
6
17
53
-25
-13
6
-52
-33
-48
-55
-14
-23
-53
14
-9
-17
-76
-15
-39
-43
59
37
-44
-7
-20
-35
36
68
24
-2
-36
37
28
30
-28
-12
-2
127
7
33
-18
62
90
-31
-73
-26
-7
55
-28
67
67
5
63
35
-15
-12
-24
32
-10
11
77
-19
-45
-18
-17
22
-50
-22
-20
53
14
14
-29
20
127
-23
-52
-17
34
7
-69
2
-3
18
3
-66
-7
26
-17
3
-37
37
-22
-30
-7
-16
24
-21
-32
-11
-2
27
41
23
9
39
59
-11
-36
37
-6
40
12
39
14
-49
21
27
31
1
8
-7
-10
-1
52
53
9
23
34
-42
55
-39
37
-18
43
36
-51
42
-31
-6
-24
-14
-26
75
-7
36
74
-11
19
-8
20
-3
-18
-25
28
-69
-5
16
-23
-14
69
-3
-75
-50
27
4
63
-39
58
-6
16
-34
65
31
-10
26
77
-68
-66
29
16
21
25
-23
32
38
12
15
64
25
-2
93
10
-42
-70
-74
53
-14
39
-7
-12
4
-10
127
-33
19
27
-16
-20
-102
-2
-79
-10
61
124
-1
-46
65
19
-37
16
-40
-117
72
32
-84
-10
7
-85
-19
-32
-5
-68
29
-27
4
35
61
23
9
-91
-56
-8
-10
35
25
76
-4
15
7
77
-66
-35
80
-30
62
-103
36
0
-77
27
37
18
4
-27
34
26
-8
3
79
-4
32
42
-64
101
-11
127
-12
34
-44
-78
76
21
-43
-28
-18
-47
5
-7
-91
-2
-32
-22
-61
-71
-20
19
34
66
37
55
51
-28
8
96
-49
94
-17
-74
-16
-127
92
-62
71
10
21
6
-8
-25
-16
-72
74
31
-91
-62
-79
-57
-1
3
-20
-9
14
20
-105
-19
2
9
-28
26
53
-49
30
-19
-14
53
20
-7
38
-73
12
-28
65
3
31
10
54
8
-2
51
34
-41
3
-67
-85
0
-49
-11
-88
-48
44
-73
27
-67
2
79
-81
-4
12
20
-56
-10
68
17
-54
61
-34
-24
49
74
-63
89
93
-13
92
-10
19
-85
32
-49
-27
-42
-48
19
-26
127
-56
92
53
72
-34
53
-55
56
125
-9
39
124
-33
65
75
-15
-85
-87
53
-4
-77
-66
-75
48
46
-14
45
17
-70
-40
14
-16
-28
1
79
22
-13
5
15
72
-6
-10
22
29
-46
43
-127
40
40
7
-11
-14
45
50
-26
-8
-53
-82
9
12
-3
-7
5
35
-44
42
77
21
-19
12
47
6
-1
21
9
19
34
6
-10
52
14
62
15
20
53
-4
-53
-30
16
-21
6
-38
-6
-21
41
-61
-47
67
-2
-10
-30
-47
7
-60
-42
79
27
-22
19
-55
39
35
-4
48
-13
27
83
74
-73
3
28
27
-38
4
39
33
-21
-105
-24
21
-10
-27
57
-4
-4
-22
1
-89
3
-47
-28
-43
-14
30
-44
-34
-68
44
6
5
-20
16
-5
40
12
33
-22
-50
127
-20
-14
-16
46
-51
-27
59
43
-28
-26
47
11
-33
11
11
8
60
18
-25
-63
-16
50
-26
-8
-25
-13
-6
19
-30
127
62
24
17
25
5
-59
-39
-10
-5
-7
28
-25
50
77
-25
-32
6
-14
-37
22
-47
16
-95
-25
42
-33
-37
-38
59
75
-57
52
-21
-24
57
105
-33
32
47
-30
68
90
18
-56
-30
6
-3
37
11
-41
11
-51
58
-45
27
9
8
61
-4
78
23
50
-57
37
30
-20
114
40
-94
-45
15
16
-53
1
-4
-5
55
-42
37
55
29
-8
-73
-13
-73
-3
40
-7
-57
-46
51
-41
86
71
79
-52
110
-68
-20
65
84
-8
127
10
-25
-60
67
10
7
2
-44
5
85
-74
-48
58
-72
22
-58
-11
27
-45
31
-85
31
-78
-19
-13
-7
-6
-59
0
1
46
41
12
7
44
20
37
-11
19
31
105
-48
-20
-55
18
-2
-41
39
-21
-118
-25
-20
49
10
127
-28
47
-6
-20
-56
11
-57
-19
-11
-70
-39
-21
11
-29
20
-36
68
6
-42
49
-30
-31
2
13
32
30
30
72
9
25
10
41
-82
3
-41
49
-22
-24
57
61
14
41
48
0
-84
-64
46
-16
-23
33
-37
4
45
13
-4
24
19
-34
14
3
13
18
56
-18
-57
9
62
1
-35
-36
-17
-14
63
15
44
-15
13
-11
-1
18
36
20
-12
16
23
-33
-5
10
46
-13
-8
-127
7
40
6
29
-10
-11
12
0
9
40
9
28
-37
24
-24
-10
17
-30
12
-72
41
-34
30
-9
1
-5
31
-45
31
-23
-33
-11
-40
-19
24
-99
17
40
-56
-8
13
22
70
127
-22
-6
4
-12
20
1
-4
-24
43
52
54
-34
9
-59
14
35
-43
7
25
15
78
34
-3
14
98
78
-56
-55
112
33
-65
3
36
27
36
-3
-60
-77
29
-32
1
-50
25
9
-18
31
-78
-53
-21
18
48
13
-106
-23
5
4
-53
-23
60
107
24
72
17
-5
14
-67
14
-16
51
23
3
8
83
-27
-13
8
-49
38
22
-84
93
11
-42
47
-69
34
34
-46
-47
-2
62
-86
97
12
23
-6
34
127
-50
-29
13
17
-69
-67
49
-80
13
6
-66
-29
-58
85
15
-9
-9
90
-77
103
-7
-48
68
46
34
43
-36
74
-11
24
88
25
-13
48
3
34
8
-106
-17
11
34
46
88
-26
-36
22
-67
-26
-35
49
31
31
53
6
-35
23
58
22
-8
-10
85
7
-51
127
18
70
-9
-2
-96
53
23
-16
-22
-31
49
26
-21
-82
-92
3
60
-37
6
-67
46
26
48
19
19
86
-3
96
15
-58
28
1
-25
-59
24
-4
10
-10
76
-71
85
10
-14
16
118
-25
24
-118
-8
24
22
45
-13
31
43
-53
-69
71
-53
23
76
-117
-2
50
-3
-13
8
34
-51
-70
-11
16
87
12
56
27
91
-53
-87
60
56
-103
-60
119
-3
-127
-10
-51
-11
-63
-84
-33
-53
-104
53
34
2
53
125
0
-4
-7
54
-28
-3
-27
6
14
-64
18
5
-55
69
51
21
8
-28
26
14
-69
2
13
49
-16
-43
-35
-19
19
40
-32
0
43
15
-120
66
35
16
-11
65
-127
-16
-43
-42
45
-14
-11
36
28
39
34
16
8
-5
33
28
-16
23
-31
-36
-51
-12
49
-28
-19
-18
-32
-17
20
21
-21
63
-4
40
74
0
-49
14
-21
44
-41
7
-67
-55
19
50
-28
-44
-10
14
-11
-1
37
-50
-49
-33
-32
23
-10
-22
-59
40
-41
-47
87
-42
-9
5
-7
-43
-27
9
43
6
-51
9
-31
11
-51
96
-20
50
14
127
73
-15
-44
-37
-64
-17
2
14
24
66
54
27
-42
51
-17
-49
-19
-20
-15
-4
51
-82
11
-36
-58
58
21
30
-75
127
0
38
51
98
1
45
-58
-42
-8
-2
-21
5
19
34
-55
54
-75
26
-81
-48
25
-47
-20
-86
27
82
-33
-18
-13
1
39
2
-112
86
32
58
17
10
22
31
-35
90
14
7
-81
23
41
-35
-3
-40
110
-36
-6
-39
13
0
5
-21
-46
-112
-9
-60
-100
22
-32
62
5
-46
-46
-25
-36
-11
13
7
12
35
57
11
11
-4
-28
-88
64
-7
-66
-127
-34
-15
-13
-15
5
20
-37
-10
4
-14
63
-20
31
-64
-74
-68
-13
-39
-28
-60
-55
-9
-27
1
-20
39
-8
-8
113
48
-2
4
-18
74
23
67
26
24
115
15
-46
1
-12
-15
-48
-2
-16
27
-64
-7
-50
14
37
28
68
-17
-2
-19
-5
-1
-22
-41
96
-5
7
-80
-55
49
3
-69
-14
10
90
10
-38
29
-59
-65
-58
1
67
-69
20
-37
42
127
24
-26
-84
-58
15
54
-20
28
-10
-4
-2
6
32
48
103
20
-29
-7
31
53
-16
38
-108
-9
4
-28
-9
11
-16
-42
-19
-50
-7
7
42
127
33
-1
-2
36
-33
-69
-75
28
-9
-26
6
14
33
4
32
-49
11
10
36
-33
5
-3
-6
33
3
6
36
-1
21
15
-27
-36
35
-35
48
-13
-63
-5
-56
20
32
23
-59
-25
12
21
-23
48
8
-11
57
35
-54
-21
-30
38
20
-34
4
-19
16
18
-9
-42
104
-1
25
50
-23
-19
3
-27
8
45
-86
-64
-42
39
-42
29
-72
-49
18
-17
11
78
-8
34
-6
10
7
77
25
-25
45
1
24
-17
-29
81
-35
-18
48
-13
-28
-50
119
0
-22
2
-38
-4
-12
6
-33
-1
69
-28
-51
8
-39
54
6
56
-6
-90
127
-17
-50
-15
-31
-10
38
-47
-36
8
-88
-46
67
52
11
12
-12
61
-88
79
-32
41
-59
36
-32
8
61
-33
83
-63
81
42
-9
28
10
64
-58
62
8
-30
-10
60
-1
43
127
-75
-110
12
-18
94
60
73
-52
-29
-18
67
-87
20
-90
28
34
97
-25
-66
-19
50
11
-33
-15
70
-32
-9
-26
-7
-14
-40
64
6
80
-93
94
-21
-22
-21
75
-75
37
94
12
45
14
58
-14
77
58
14
-16
-36
20
4
48
127
7
52
-37
-12
-12
-14
13
69
13
52
0
18
-41
69
-32
-11
2
18
-107
-22
-30
44
5
9
-68
-59
30
-83
-70
22
37
60
-55
-30
-63
80
-14
26
-17
40
-11
21
34
-27
56
106
17
55
23
48
26
46
97
11
14
20
26
24
62
31
-8
13
11
73
-24
-20
-9
-64
-24
13
4
84
2
11
-29
32
-17
100
-30
-57
-30
80
-74
-55
41
119
-47
-106
-30
20
7
-117
-18
14
-11
-28
20
17
-9
23
-119
-7
-54
70
-89
-32
-17
-26
-30
35
19
-9
32
31
-127
26
-31
96
2
41
-55
22
0
-56
-18
-74
32
-17
-4
-26
-58
23
37
-11
58
66
43
26
9
-39
-1
16
-38
-3
-14
10
-22
-61
-58
7
10
-61
-10
-8
47
29
58
27
-8
13
-28
18
60
-127
17
-42
-38
35
5
-65
-79
-14
9
-18
-23
-39
-20
21
64
-11
-6
73
32
-18
-63
90
9
81
8
95
-29
-49
-53
-4
-34
27
-9
-82
43
-4
-10
24
58
43
76
-70
-27
9
39
-50
-7
100
-3
112
4
29
17
-11
9
-37
-69
82
-19
-7
-14
-56
-32
-27
-55
-84
-73
-75
-31
45
-26
79
98
39
-35
-59
-19
-127
42
-34
26
7
-35
-15
48
15
-11
-52
-60
2
11
-91
44
1
-26
-11
-13
92
44
102
84
-22
-43
24
81
8
-11
51
-41
-107
-13
-1
-13
-29
-98
33
-46
-107
-21
-30
-15
-75
-77
-17
59
-8
-39
3
-52
-33
-38
24
-2
44
96
6
-79
9
-39
88
59
83
17
-11
-58
45
39
-26
-33
127
48
28
24
20
81
69
41
17
-13
27
35
-24
16
-13
3
-83
-80
-92
21
24
21
4
24
-68
72
-7
93
26
49
-20
-36
40
22
-27
-19
22
-26
-21
19
-19
-12
-38
-4
-37
9
-11
5
-27
-63
-13
62
5
-2
23
-42
27
12
-127
10
49
-9
33
18
-11
-31
-40
-31
-22
56
30
-9
-1
-12
-22
-21
-8
14
-32
-24
-7
-14
17
-38
-51
-18
84
58
31
12
-4
15
19
-28
12
-4
3
1
9
75
-13
26
2
24
-26
-55
-39
16
20
-3
87
25
60
26
118
84
30
-24
-23
14
-84
82
-36
11
52
-35
25
40
42
-79
-61
17
48
-25
-53
18
41
-20
9
-4
-3
24
-24
5
-51
-28
54
-39
-5
0
53
9
103
13
-31
-11
-6
-24
-2
31
4
19
-105
19
26
48
-19
-12
36
-27
-127
-16
-28
8
7
-48
-52
-22
-2
16
59
-36
-37
61
58
-14
127
-42
-75
-14
71
15
-19
39
29
54
-65
13
66
58
-22
-49
-11
-31
67
41
17
5
44
-32
-63
59
20
12
73
-13
22
46
0
-74
61
-74
-40
123
-19
43
26
-30
-55
-61
62
-25
-51
70
-42
-56
40
-56
-121
12
29
46
7
-8
-18
11
-14
-61
42
59
18
11
31
-12
24
-111
-50
-27
-41
-10
14
23
-43
-59
62
-24
-15
-21
10
-52
-55
-16
-8
32
-106
43
15
78
-19
25
9
26
76
-15
25
30
9
-36
47
-127
5
-9
-42
54
-2
12
52
-15
-55
-35
96
-54
-95
-49
19
5
-36
-53
12
7
72
-3
0
8
3
47
49
0
-18
-24
49
-3
69
58
-23
36
-11
30
34
-25
1
15
46
-1
-73
63
16
15
63
-20
3
-30
7
-8
85
-43
-10
10
-37
-22
56
34
-13
-41
127
-70
-37
59
10
42
105
28
-40
-12
-9
43
31
46
107
-1
30
12
-81
-13
71
-31
7
43
48
-5
18
-4
-39
-20
19
-12
-2
-42
-10
44
-25
49
12
-106
68
28
-4
-50
21
-53
-85
-26
51
-44
-49
31
-54
28
-127
97
-42
45
6
-16
-72
-60
-41
32
87
-8
91
-10
-57
2
-47
-56
-16
-4
67
-12
33
-30
-53
-9
-21
-9
56
-20
11
62
86
-4
15
-25
77
15
-49
-69
-19
-65
-24
-42
56
56
-7
-47
57
5
-67
-84
-51
4
35
23
36
-37
20
5
41
2
18
61
70
-8
27
-52
3
13
28
-6
-9
17
-47
0
-52
64
-12
88
-31
36
127
14
-23
-18
86
9
-29
-99
25
-38
-49
-62
40
-21
-70
102
42
-56
-40
-82
-21
10
9
-61
20
30
-36
-5
37
-117
47
6
-46
31
-5
-34
0
-28
65
14
36
-85
-13
60
26
-73
-100
34
56
-17
26
-53
22
-48
-27
-37
-56
-5
21
31
12
-5
-23
17
99
18
-23
28
52
-3
35
-36
-3
7
28
-13
10
-14
12
-56
-127
-28
-72
-58
47
-47
44
-31
-24
9
15
-23
-56
60
-33
-25
70
-51
-14
-20
59
8
-52
39
-27
15
21
-33
-52
-46
-16
-32
-18
55
1
7
19
-9
-34
108
35
-25
-46
82
127
27
31
21
4
-2
95
-19
-40
33
19
40
-51
-22
-23
-28
-15
23
42
-19
116
52
-95
-5
11
45
-17
10
-3
-19
-12
-85
91
3
45
-11
55
-79
-5
0
-8
36
-16
-22
-63
35
42
-30
-32
22
42
-24
-34
-53
-26
-49
39
-17
58
-3
29
-1
40
49
9
69
49
22
-4
14
65
32
35
78
56
-127
27
25
3
-44
31
-80
106
1
-66
25
-28
5
17
63
-5
32
-26
-65
-36
-48
53
-73
22
19
-24
16
-17
-52
28
3
-114
43
-48
-88
35
-24
5
19
9
-3
23
-48
-42
45
4
-14
24
-54
-42
-44
15
44
62
75
44
82
63
-22
-63
82
110
83
-100
-10
113
50
-13
-51
-27
-4
-88
-68
1
10
-101
46
-2
8
37
-3
-14
-15
-127
53
34
-50
-3
-27
55
-15
21
47
-13
35
-21
0
26
38
-26
-39
38
-83
-71
-60
-41
-5
34
-5
-31
34
87
-58
44
-27
39
35
-82
-48
-25
78
-41
-57
87
-26
1
-17
-9
-61
-19
17
21
16
87
-48
-40
38
-23
30
49
-80
48
-34
-103
18
-38
7
-11
19
-49
-28
12
-44
34
87
-8
25
-28
-5
20
78
-61
58
22
27
-27
26
-94
-10
-9
7
-4
23
35
15
37
-127
-10
-63
-31
1
7
-26
30
4
-42
-47
-5
-4
-32
-22
8
-45
6
-11
11
34
0
-18
-39
36
-76
13
0
14
-33
23
101
-89
114
56
-2
-11
37
-5
-47
-47
-86
-39
58
33
-1
29
29
-17
-1
-84
-27
-31
4
-21
-98
-60
-3
-97
32
74
-126
-32
-47
25
15
114
34
-4
-23
-1
29
24
41
-23
75
10
-59
-38
42
-47
47
-96
-13
-42
-86
27
-19
-74
-59
-127
30
48
87
8
107
-23
-81
55
-8
-23
93
32
-27
20
32
19
17
22
57
69
29
9
41
-26
68
-42
20
45
1
-11
-9
42
11
67
-82
27
59
55
-20
-127
-22
-5
58
7
14
6
-43
-34
24
-34
54
36
52
-16
-79
-70
9
54
-46
7
-31
-40
-30
-20
66
-32
-62
-35
84
25
-38
-75
-13
-39
17
-10
-72
-32
-33
-50
-23
43
39
90
19
54
127
6
-11
-4
4
17
-14
-8
-67
-12
-58
-16
-38
-37
-62
-21
15
-15
12
-3
78
19
-3
72
-20
5
-42
-7
41
55
45
21
30
-12
18
-13
-3
-52
-3
-33
-88
-70
-20
40
20
-57
-5
-46
30
84
-9
27
78
-28
54
-22
-10
41
-11
-37
38
-17
-38
5
31
43
-12
51
74
48
43
58
-79
21
97
-35
-102
25
-16
-14
-28
23
60
-44
-22
-22
-27
-27
-27
-36
21
-13
-33
49
-22
80
-58
13
13
21
76
-52
-37
10
48
-36
28
-13
-20
48
-33
23
50
59
-65
-22
-2
36
12
-15
-103
-36
-66
48
-57
-49
45
-46
39
17
24
-7
79
-42
-38
-127
88
-15
36
3
37
-59
55
53
7
11
64
-36
-55
-28
15
6
23
-1
62
-16
-12
-2
-3
-38
82
-20
4
-16
46
18
55
-72
-47
41
-64
27
6
18
-31
23
46
-34
-61
8
-9
50
24
73
-7
-69
-33
-2
-3
74
-6
-20
11
2
-18
-8
41
5
-27
20
-24
-127
1
-14
21
-43
-22
-74
39
4
-1
-8
22
-34
24
-29
-3
4
-31
18
76
32
16
32
2
8
-77
-12
-10
5
68
-22
-23
-8
-113
21
-10
-45
17
76
24
-13
24
22
74
-9
-27
-16
6
30
65
12
19
-8
8
15
-12
39
5
23
83
64
-89
19
81
-17
-13
34
-39
-61
46
7
6
-66
-77
-25
-42
25
40
34
-47
28
33
127
30
-7
38
25
81
4
-29
19
65
-18
8
-2
-1
-73
-53
-6
43
9
5
25
57
-31
-5
-10
9
-11
-10
16
47
34
-127
-28
37
-60
-8
112
8
3
46
25
-38
78
-20
-16
-54
-58
-2
29
77
-11
-13
-4
70
32
23
63
-14
-31
121
33
0
-43
101
-3
35
22
-60
-5
-45
77
2
36
62
9
71
-21
-9
53
-32
-7
-30
16
8
93
-61
93
26
-36
-34
12
2
-63
29
-16
58
59
-49
20
11
56
27
81
-45
-3
-3
69
83
-30
3
-84
93
-15
-29
-83
72
-55
-1
14
-66
93
126
-18
-104
-51
64
-10
3
51
-51
-110
70
-42
-32
-18
-14
90
-34
-60
-14
51
-78
57
51
4
1
10
-54
127
-23
52
51
44
-72
59
-83
-6
7
63
47
29
-30
-8
-1
-68
-81
-53
27
82
-37
-27
53
23
-58
-63
-31
-6
34
-54
-8
-10
-108
29
24
18
50
12
-79
-64
3
56
2
17
-127
7
-83
16
-44
-40
20
48
36
55
71
19
-6
26
53
-15
101
3
61
39
11
10
-23
-16
-26
1
9
76
46
-22
-17
38
-6
1
42
-17
-5
-104
-22
51
12
-18
22
19
-52
52
-13
41
-12
54
10
9
-47
-127
-25
-17
-27
46
-59
-8
33
30
-21
41
25
-16
21
62
-39
31
-18
-56
-41
-2
-64
14
6
9
-101
8
-22
-22
-4
76
-30
-2
7
-83
-9
-10
60
33
1
14
-34
4
-31
-8
-79
50
-84
29
-6
-29
90
-26
-19
16
41
-8
57
-93
-41
-105
52
-93
21
-44
-108
-66
-91
7
-13
111
-13
10
-29
-12
-20
98
-4
47
58
-114
-9
-44
112
29
64
-65
117
58
51
121
22
127
54
29
-61
38
86
-121
-35
8
-10
47
-4
-35
-66
-109
13
31
30
65
-79
48
63
42
-5
87
-24
89
-15
47
-11
-26
3
19
37
29
4
33
47
-36
86
-26
127
32
13
16
27
-27
57
9
12
36
23
64
-2
-7
82
-5
-25
-73
40
25
-49
-49
-112
13
46
-12
-21
-50
-106
62
-7
7
-3
-52
29
47
-57
-70
-33
-4
6
-95
16
27
34
29
-1
-101
-89
51
53
56
49
17
-19
14
23
7
-19
-23
2
66
-15
-4
98
20
19
6
53
-5
-33
25
-59
86
26
24
33
6
31
0
98
104
-24
-31
-71
-102
61
-24
59
71
28
-28
-80
35
7
64
13
80
-127
117
10
-42
-11
46
15
68
-1
127
56
45
41
-41
0
66
48
38
3
-16
15
6
-68
19
70
124
-40
11
-11
8
43
-77
-70
-44
69
-127
-108
42
-24
-65
36
58
66
-3
2
-18
113
-6
-23
35
-5
-34
50
-2
-92
32
68
-36
-111
69
43
-71
-41
15
37
63
80
59
0
14
3
-6
33
94
-3
15
92
1
24
79
-77
-5
-80
60
-27
-62
-8
-9
85
20
-25
-7
4
-50
-49
-97
102
13
33
35
20
-6
1
-33
-82
1
70
-32
-24
87
-12
63
-62
40
-9
3
37
39
49
-37
53
-19
74
10
-19
29
122
-98
27
-7
29
77
27
-32
-18
-19
-54
-102
-13
26
24
84
66
-18
-46
-49
58
73
-10
49
44
14
-23
-13
44
-3
-67
23
-30
-37
0
-13
30
-21
-19
-76
-58
-127
-1
-35
0
44
-29
44
65
-37
37
61
76
-56
-35
-28
70
-89
32
-90
-2
9
70
13
49
-17
-59
12
-17
54
-10
2
-111
2
-78
15
-53
94
-21
-27
38
36
-99
45
0
127
33
3
28
-48
-12
-99
-9
-42
45
-107
-26
-22
108
0
101
76
8
-31
-2
46
-26
-53
-75
8
94
29
-31
19
32
-47
-79
-65
-65
-39
4
-20
120
3
79
65
-97
-10
-2
-45
27
6
-48
4
-77
-66
-49
-38
91
-34
59
-76
-61
-43
55
-58
-104
57
-12
48
-22
-15
55
60
-65
-29
-42
-45
23
60
127
-69
24
-21
-71
27
-17
-76
-44
5
-54
-21
-12
45
-3
97
18
-43
57
-38
16
-79
90
-36
76
58
95
-39
-26
-17
-31
54
42
1
15
13
1
-3
-71
10
21
3
-65
-32
3
29
-8
-57
2
-79
-3
19
9
36
19
-16
45
28
13
-54
7
-22
64
-31
32
-20
0
-16
-76
48
-17
-17
32
59
-72
-53
-109
-16
-65
-4
27
-5
66
-12
-127
13
16
29
-57
-43
-4
-11
13
23
-78
73
-12
-62
42
-50
-54
7
-39
-98
-15
19
2
54
75
-6
88
-47
28
-92
27
-52
-99
45
49
114
12
47
-7
-63
8
8
20
-13
56
-17
66
-33
69
3
-127
-10
-40
56
30
-24
42
59
5
-77
-78
-53
-47
-9
40
78
33
-27
14
5
64
-10
13
39
11
-34
-87
-42
3
-3
19
-5
-15
73
69
113
45
-8
-7
5
-31
37
48
-37
7
11
-36
-38
36
-20
-36
-50
6
32
32
51
22
-27
3
78
-17
-32
-14
83
61
27
-60
-22
-13
27
-40
13
13
-53
10
18
5
-26
-14
16
-34
-56
-32
-8
-10
19
-28
-9
21
47
25
-13
18
12
0
-51
-2
45
31
14
41
-3
22
55
-37
13
-7
9
37
-14
3
41
7
-2
127
-7
-19
-79
81
-127
-44
-29
-19
6
33
59
-10
29
-82
39
41
-15
11
10
22
43
-28
-32
-8
16
-29
-13
22
35
-28
-51
-119
43
9
-15
-26
58
-36
26
-42
-37
-16
-4
15
-24
-67
2
53
0
25
-74
38
41
-53
18
-94
-16
49
-13
28
33
-17
18
-31
-50
-30
-44
-37
0
-15
4
50
-35
54
-3
59
-71
30
-58
-83
18
1
13
-56
-23
1
32
43
46
35
91
-35
17
11
-43
-24
26
-2
-74
42
126
1
-80
-127
5
-21
-54
60
109
9
20
-42
-31
-59
19
-82
9
-22
4
53
39
51
-86
5
15
-18
-4
-29
-28
92
24
27
3
-48
81
-20
31
-1
31
-63
-30
14
60
36
-76
-10
62
-74
-45
30
52
77
-33
-49
14
-95
54
69
-38
-28
19
-117
18
29
-7
116
-30
25
-32
-23
-40
47
-22
-57
78
5
-41
26
42
25
-18
-22
73
-40
30
10
-81
3
-77
-22
-57
-9
-12
-10
6
127
-65
32
78
10
-49
17
93
80
56
29
-19
26
57
26
39
-40
-15
49
19
5
-28
91
32
-28
37
29
-4
18
-4
-73
59
15
54
9
-21
4
-25
21
30
16
-40
-58
-44
36
32
-42
82
25
13
-16
1
69
12
-12
2
13
-48
-8
-41
-19
-6
-4
89
23
63
-9
-44
10
58
68
56
38
-41
29
28
-29
8
-10
-2
3
26
20
-127
38
19
3
34
-12
61
71
17
3
-18
-3
10
23
42
41
-23
79
90
-65
16
127
-76
78
14
99
54
12
-16
40
-16
-41
69
47
-27
45
99
86
53
-35
23
9
-28
49
47
-48
7
17
111
71
-102
55
0
-10
28
-85
24
-20
-48
17
-49
-1
-27
-68
55
-42
-44
-55
-34
-34
-17
15
101
-36
-38
-56
64
68
-21
57
-33
-28
74
-49
48
42
96
-51
11
-34
-64
-108
-98
-46
-50
6
11
-56
-32
65
-34
8
38
21
0
26
-100
93
74
-71
10
47
18
55
-33
-11
18
3
71
19
-73
13
-33
31
5
-12
84
48
18
-14
4
-9
-53
-46
-36
115
63
127
-59
-34
26
-44
2
34
-42
25
82
95
25
-59
67
-23
-43
-43
-34
95
0
-46
-110
0
-23
-9
-45
26
21
-21
1
1
46
88
-50
47
41
-35
31
31
78
-48
-30
43
13
-9
-6
37
-28
-71
6
48
0
110
19
-2
-41
-44
-27
-21
-25
19
-21
-10
45
-78
-35
-70
-127
49
73
60
-48
-43
7
-15
-18
13
28
-11
4
-40
2
-21
-28
-57
13
58
18
-11
37
-62
-34
80
12
-74
-71
7
-38
-14
-88
-90
-17
-27
52
-22
-9
125
-29
-41
0
10
66
-35
61
31
-87
-33
-72
45
44
-47
76
-114
-57
85
80
79
82
127
11
-116
-9
3
19
3
54
-8
40
98
10
41
62
0
-6
-29
5
15
-33
-81
39
-16
25
12
-21
53
25
-90
20
50
31
31
-63
6
47
62
-34
-21
-11
14
-44
-73
29
-7
33
127
14
-72
13
-25
-15
53
85
59
78
-72
-46
-35
29
-127
-29
-14
-13
14
74
-6
14
49
101
-37
-41
-58
-57
-4
-73
-106
0
-56
-96
-3
-56
-52
-25
-10
-4
-74
-19
-47
29
-88
36
2
33
60
-39
-10
-30
41
-20
15
29
90
14
9
-33
-27
-74
45
20
-15
-17
15
-24
-3
-5
-1
95
-20
10
-29
54
50
-127
-4
-20
7
10
81
-1
26
3
59
14
-28
14
20
-35
-36
0
-30
-30
-24
29
17
-42
76
57
-23
92
39
-30
-8
-36
5
37
1
-4
-36
97
-6
-17
39
3
-12
-37
-21
-27
66
24
-39
-16
9
-3
-1
-31
46
-35
14
35
13
51
-19
46
44
-43
-27
-107
-2
6
-29
30
26
-46
-5
-43
23
52
-42
-59
-49
50
25
0
-31
20
-45
-61
-17
101
-127
-33
-73
40
18
-20
-102
-61
-21
35
7
16
-41
-7
-69
-49
-28
-34
69
40
-15
-46
10
10
86
-27
14
-65
39
-76
-41
-4
-48
-27
38
-34
45
-7
42
34
93
-30
85
64
-25
21
4
-97
-21
-93
1
-80
-104
-19
-21
-84
13
43
-127
11
-1
44
-25
-10
104
81
29
12
-55
49
35
-64
-61
-12
-32
-48
-37
-55
-31
48
38
118
44
59
-101
-38
16
7
15
-28
-15
28
19
-55
16
54
-12
8
-26
-37
1
-102
15
-118
7
-34
3
33
101
-75
33
19
-23
13
111
-25
24
7
29
-66
75
-28
-49
-46
-18
25
50
-24
13
40
26
-50
15
53
-38
-9
45
16
-3
-1
8
-29
-20
64
-77
-14
-8
13
38
-6
2
-17
6
-17
24
-2
85
-31
9
-74
21
20
0
56
21
-11
23
-20
-44
-11
-9
11
79
-127
1
11
26
-60
-48
33
-36
59
-78
13
-19
127
107
-2
-49
-10
-28
-18
28
39
57
116
80
33
4
-18
14
-19
-66
8
80
58
-29
56
-5
88
7
-34
-61
-63
-61
98
116
-120
-51
-52
61
-10
47
18
-66
4
-37
16
-3
49
35
-30
-6
8
61
-45
-26
-42
38
60
34
-85
-37
-24
-6
8
4
-66
11
-14
29
-37
9
9
74
-22
10
-95
20
49
125
-53
-65
-12
38
-51
-123
66
15
78
12
-126
-43
-69
2
-35
-15
50
33
10
-21
-98
-32
7
-41
-28
15
19
-16
39
-8
-50
45
-52
-15
-39
71
84
31
-28
32
-102
109
40
-67
-68
23
-26
-23
-8
40
-127
-79
-21
6
-100
-21
-81
34
16
-44
82
-69
8
-39
-58
-54
24
-13
-41
39
-6
-5
78
53
-74
52
67
17
52
-13
39
123
108
-59
118
5
33
20
-18
8
34
19
73
-15
-10
-40
-60
23
22
-27
30
-37
-25
-56
-44
-127
8
-14
-63
-29
-12
-2
-19
-88
-91
-29
-37
6
29
62
31
46
26
52
18
43
35
-45
9
-14
4
-45
-76
83
-38
46
74
-21
-36
23
-19
-20
60
94
56
7
21
-68
18
77
-35
10
34
-10
0
-73
-58
-75
-9
47
18
107
-39
98
52
-61
-21
64
36
66
-47
15
-18
-76
-79
12
7
54
51
56
-87
24
-24
-18
54
-10
27
-28
7
-13
96
-1
-3
40
38
41
-69
-7
-7
78
3
12
-6
14
-52
127
41
-19
19
-25
21
58
57
7
-40
-3
-40
-47
-92
-31
-13
21
20
21
-4
4
60
-12
-32
-62
-33
39
-25
-59
17
-79
-40
-49
21
27
-35
18
-17
-3
-22
-31
23
18
-17
16
-29
-31
24
127
-30
-9
11
24
60
-3
-68
-9
54
19
-2
-54
-1
-13
4
10
-36
-31
15
1
20
-40
-1
-30
17
39
-3
8
19
75
-45
-60
-17
-25
-26
-65
-25
26
-15
-80
-36
-12
47
57
71
32
-16
10
2
-52
-1
-12
47
-7
-14
-17
-25
21
8
-59
-44
1
11
127
-24
11
-29
-22
-92
-56
7
9
29
-10
-23
85
47
-10
-61
69
37
-29
-110
11
15
-27
27
40
18
-7
18
-79
-3
-50
34
-41
-4
-25
23
-33
32
54
52
111
-82
97
18
-74
72
-54
46
-57
-76
-19
-78
0
-74
24
93
-17
77
79
-25
-8
-63
-96
95
-26
68
-3
-1
52
1
38
-12
21
42
-49
-10
33
46
-127
62
-50
22
-112
102
-55
-30
-4
-24
-85
-44
36
66
15
-55
-98
-9
51
82
-68
12
-45
9
4
-82
-72
-2
77
1
-16
-12
-28
20
-24
-58
-62
14
36
-32
13
43
25
-6
74
14
-35
18
36
-47
-6
-11
70
4
-27
-72
1
-21
14
29
8
-48
1
-41
-6
-14
32
53
74
-16
17
46
31
-58
39
70
-41
62
-5
-50
-45
-35
74
9
-24
1
-127
22
-91
-63
-5
-14
-4
10
-36
-105
8
-51
-63
36
-61
-3
-28
47
49
23
36
-7
-13
-39
32
15
59
-70
-83
-9
40
-36
14
40
-28
-38
23
19
-41
1
71
32
10
-41
-5
-18
9
59
42
-29
-1
-40
1
5
-9
11
127
87
-4
41
83
3
36
76
-2
-1
53
-4
-54
-50
-47
36
26
13
19
-26
65
-18
-4
24
59
24
-4
18
-42
48
-36
-42
60
57
-72
37
91
42
21
7
23
55
-7
-39
-16
-16
-33
-5
49
27
-39
-16
24
-105
62
2
-23
105
-127
4
17
-40
30
-33
46
51
36
-112
-35
-68
35
-41
90
-8
-14
26
-59
-53
1
-6
-16
-4
-6
28
61
-69
-44
12
13
34
-59
15
-50
-94
38
25
-28
-16
-89
-30
-33
-49
-27
39
37
12
-8
76
-54
80
18
-54
-18
26
36
67
10
7
86
2
21
25
-35
-74
-127
-13
-36
-9
-1
56
24
45
69
-64
3
30
-72
-35
33
-26
-47
-31
-59
50
-19
-5
6
-50
-84
8
-21
-2
-16
-4
34
54
-32
-58
-45
14
-49
-60
-36
65
45
-44
-8
-76
-18
-39
24
98
66
-4
12
24
107
-40
32
-19
-39
-3
-2
-84
-40
-28
-35
-16
38
-83
-1
-16
-23
-3
-11
27
-58
28
4
13
-18
55
-84
30
28
-20
35
-23
48
124
-42
-38
56
26
-16
-35
-64
17
-127
64
-60
-5
-28
25
-18
32
21
19
-36
41
9
53
-61
-5
-44
16
38
-12
28
-54
44
-28
-1
-16
-15
56
-36
17
-14
8
22
72
-68
58
38
13
9
-58
-127
14
-32
63
53
48
-31
24
-20
-9
-46
-10
-59
1
26
-42
-10
87
13
-18
6
-62
-10
53
31
-11
-59
35
48
-22
-8
-15
-7
17
-66
-2
42
40
-6
42
2
2
-21
20
29
28
47
0
96
-10
-28
-40
-9
45
37
72
60
-12
-27
12
-5
-48
16
-27
-127
-13
40
30
14
-104
41
42
-24
64
82
11
10
42
-30
-43
11
10
-73
-4
-39
23
-57
38
-34
5
29
-1
-17
107
25
-50
-16
40
75
20
10
113
28
-35
-108
57
-53
25
121
54
-18
-44
70
-17
-10
29
-43
-10
41
0
-55
-27
-25
8
1
-7
19
-29
-82
11
-14
-14
-46
-31
-71
1
26
39
-119
68
96
-61
24
103
98
23
-3
-6
58
81
17
-62
-70
-85
-5
31
31
-108
76
-48
-110
-11
16
54
27
52
100
-9
-122
7
-64
8
73
19
1
-71
-77
-108
38
-88
-71
10
-58
-20
53
83
50
-127
18
24
31
113
-48
-5
-12
35
26
49
16
63
27
38
-93
54
-28
65
24
16
29
27
19
13
13
15
-15
-86
0
71
-17
47
20
5
-1
47
13
22
-32
-20
-1
-116
-41
38
37
57
5
43
-28
21
-119
-60
-88
-10
127
85
-25
-43
-48
-15
-40
-45
22
-22
75
-56
73
97
81
-27
16
6
63
-46
-20
-32
83
34
46
39
-76
107
16
44
-48
-1
-47
-10
-31
99
32
-44
13
29
16
-25
-33
-67
44
52
75
2
73
15
73
48
-3
-39
63
-2
-19
-38
-46
-18
-71
40
-7
127
47
-20
-69
56
-21
-26
7
-6
60
21
57
-22
-7
-21
-25
-107
50
23
91
-38
34
0
67
-70
-63
-18
55
-52
-92
12
63
-22
-20
0
-83
-52
-14
55
25
-26
34
39
30
43
85
-76
-28
-53
33
-121
21
-9
-35
-20
30
122
49
29
-75
8
39
-68
25
51
60
70
-16
-24
-15
-21
13
-62
-68
83
-13
-67
-95
52
-65
22
-19
65
-57
-66
55
-33
127
28
-29
-87
41
-18
-26
32
-64
-18
38
70
-33
-22
-30
53
88
9
6
32
24
-66
-68
-3
76
53
-24
40
-46
7
19
-26
72
3
57
-71
44
-1
-33
-2
46
-43
83
49
-15
31
47
19
-21
-22
-90
-36
57
-28
10
-127
5
-115
-108
-6
-64
5
28
-75
14
94
-33
22
-46
-66
9
-6
-42
25
74
32
-65
99
1
8
-3
8
-10
56
-42
15
-6
-69
7
-10
-12
28
-43
56
26
2
-49
35
-12
-17
38
36
64
-53
44
127
44
49
71
-5
4
-61
-67
-60
-5
-34
23
61
4
57
4
-24
21
16
64
4
-55
62
-12
40
-114
70
42
-40
119
20
67
-35
32
0
-38
38
-51
4
-54
-51
-69
-57
54
-27
-14
-28
90
7
-14
-39
41
-107
52
-25
-9
63
-6
-51
31
26
-93
33
5
115
85
-6
113
25
-33
53
49
-26
25
-88
-19
3
-83
19
-40
-24
-41
55
-4
-13
-45
42
0
79
3
49
-54
-41
12
127
-8
7
67
63
1
-69
-109
15
65
-47
58
105
-18
21
1
-19
-51
-56
-12
24
-19
66
25
-38
-15
-126
50
-31
-66
5
-46
1
112
-61
53
54
38
53
-70
-19
15
-21
-30
47
-94
1
74
-112
26
6
12
1
19
-64
-13
32
-30
41
55
2
14
7
-4
-42
-59
6
-65
-28
-73
7
-2
-12
16
-26
29
-11
24
101
82
16
-11
6
99
-66
54
17
77
35
-35
54
8
53
102
22
-16
-81
37
-19
18
127
26
12
69
-14
-73
-7
-26
-26
25
-11
34
-28
-37
45
-28
-12
-111
29
-20
-27
-12
-22
1
-4
16
5
3
-3
-44
-66
-29
-64
-44
55
7
-30
-32
49
63
95
23
-13
36
-26
4
32
18
26
34
-66
94
39
-28
-12
-75
-16
19
-15
42
19
-1
53
9
-66
18
7
-19
5
42
-36
76
14
-38
53
46
30
-2
-3
-18
2
74
46
8
-31
-40
-6
27
-10
-16
-7
-127
48
-20
46
29
-51
120
24
5
68
-48
57
38
-24
7
43
106
85
-1
21
-58
-70
8
-73
52
98
35
-14
-53
-1
20
57
41
-25
-20
-71
66
3
-13
3
25
-78
-99
81
91
107
71
56
-2
16
44
26
-29
101
-69
-70
51
5
-36
-64
48
42
-31
-98
-40
56
-29
9
37
13
32
108
-127
8
31
-11
31
-9
3
-21
7
17
-6
1
66
41
18
30
-5
16
127
46
-69
-9
75
11
4
-33
-11
24
-14
-21
48
36
33
-20
5
-29
-16
-11
-55
45
17
71
-45
-24
-33
-7
29
109
18
-70
12
-5
-65
-26
79
-18
23
-42
26
-26
12
-5
-19
3
-18
54
-41
20
57
19
40
-31
18
-13
-25
-12
73
9
-26
-87
-8
5
-43
41
5
39
46
-8
-6
68
17
50
11
-110
-80
55
9
-27
-116
102
30
6
-48
16
-43
75
93
-87
-22
-9
-37
115
45
-11
61
-127
-104
-54
-65
46
-27
-8
-1
-11
46
-46
-125
122
-87
-69
-58
-42
-34
23
77
124
-41
-58
14
49
26
-14
13
-8
50
-75
-80
41
47
-103
61
-35
-73
113
-90
27
-64
-85
39
62
-19
4
20
-61
4
-44
-46
-4
-3
36
-28
-60
24
59
38
-11
10
60
-82
-43
37
24
62
9
0
41
-52
88
-33
35
85
84
-28
20
107
-20
-71
-4
17
35
-51
-28
-43
-10
-65
18
-13
4
-21
-10
-30
78
-16
127
-24
27
26
0
29
9
-59
-18
-31
4
-8
-33
25
38
10
-41
-9
52
30
-31
3
74
53
51
-31
-74
-127
22
20
24
-17
37
-31
-12
-40
54
-14
63
48
40
27
-61
-44
-67
-32
51
15
-27
-4
2
-20
-72
-17
-82
59
24
44
-83
-15
-27
2
19
-3
16
-27
-4
12
-1
-16
31
39
-5
32
13
-56
79
35
-60
-38
-17
-5
77
4
-19
62
-13
-7
46
-17
43
59
35
-56
-53
42
127
-14
-11
106
11
-35
-54
-41
44
68
-1
-13
-35
-38
-18
69
113
-5
16
-54
-4
-2
0
-66
40
0
65
42
-51
47
2
-32
-17
-52
-75
67
47
-23
10
35
36
-69
-38
-7
-30
-97
18
81
-23
51
-57
-76
-4
93
34
-108
-9
67
-8
69
-2
-93
46
-9
-40
-113
33
65
16
-3
-42
-60
-64
-1
-18
82
-42
59
45
-22
-4
88
-24
6
-30
85
17
-49
11
102
28
-47
-42
51
14
13
88
-16
41
-49
51
36
127
-69
115
22
-63
49
14
76
-74
-102
94
36
62
59
97
-31
-5
-32
105
18
-23
58
6
-60
13
33
13
-29
60
-77
-39
-18
-21
18
-3
-67
-36
37
-104
-14
-78
23
16
-39
30
-19
17
65
-56
-16
0
61
-59
74
35
-26
-25
7
-61
15
-30
4
-64
-3
88
-5
10
-4
50
-4
6
-41
1
15
52
-71
36
127
-30
90
37
37
-6
48
3
22
-4
27
8
-17
-30
-4
13
-67
-4
8
-15
39
-33
25
-12
-25
26
-25
-37
53
-2
4
5
8
42
77
35
-9
-83
-24
35
11
27
-92
105
-20
-20
-61
34
-55
-22
39
-30
-22
36
-16
16
87
-34
-44
24
-34
59
42
40
36
20
-1
-28
-49
-22
27
-27
-66
7
24
-127
33
-48
-42
-15
-29
-43
-25
2
35
62
-28
40
57
2
-31
24
54
71
19
-32
-24
-28
13
-23
-109
-103
-50
13
30
-29
5
-17
13
95
-91
31
11
127
-35
-82
6
0
57
-4
4
66
22
-78
18
44
21
44
-7
13
-14
59
-46
90
109
-66
63
-32
93
25
33
-6
-37
21
108
61
-45
-20
1
-83
127
12
-91
-45
2
42
-30
58
-27
54
-51
33
18
-55
-1
30
0
48
-68
26
37
-16
61
17
-71
27
-96
-81
-17
-37
16
9
100
53
19
5
27
-21
-32
-90
-35
31
30
78
-28
-52
22
-110
-9
-100
-77
56
-58
29
127
-55
27
-3
43
109
-108
-30
20
34
76
-29
-58
18
-37
-2
-68
10
-10
-49
53
-23
-81
68
-49
6
85
75
-50
9
-4
14
-16
-96
-11
12
0
-63
-2
-66
68
-54
42
-35
15
73
119
66
-39
12
-82
84
62
-3
-5
83
-49
1
-66
44
-33
-29
-31
-49
58
18
-42
-45
-62
-2
11
0
-48
-90
57
81
86
-15
5
-22
-51
-2
38
-71
-85
19
-34
-127
39
10
28
-10
-68
-65
-72
-116
-9
42
-19
-94
22
72
42
-8
20
-43
7
-52
-39
-44
-5
17
47
-6
-127
17
-14
40
-2
28
-35
42
17
-44
-20
-38
47
-11
13
14
9
0
-5
33
-23
-31
-30
103
12
-8
-26
-58
-50
22
-39
-10
-24
43
-26
-26
42
-65
-4
18
29
51
-48
-16
-14
43
-9
15
-39
14
-2
-5
-1
-1
46
8
41
33
86
5
-8
-8
51
-93
34
44
-45
27
5
46
-67
-42
10
90
-8
8
-5
-33
-82
-75
4
-39
70
57
-10
-49
47
36
92
12
-30
-13
-19
-20
34
41
97
40
62
-36
0
31
70
127
8
-3
-14
85
51
34
-87
69
3
16
-3
16
10
2
64
12
-28
-58
33
63
-12
28
-36
61
-56
65
-33
54
14
-25
-43
-77
-76
-51
6
-18
40
-14
-25
41
-4
104
127
-4
1
-2
26
17
-52
27
39
-25
39
-25
58
33
26
-22
-46
26
-7
37
42
2
-15
24
-20
0
21
14
-1
14
-22
37
-25
-74
38
-12
-6
-25
0
18
14
30
-22
3
-16
38
46
32
-65
0
-45
8
7
30
29
15
-30
12
1
-5
-36
-86
33
-45
-127
21
-46
-4
11
39
-34
41
-16
-13
23
28
-21
8
10
41
26
-18
-14
37
18
-10
-12
4
-111
79
76
-41
23
60
-85
41
38
-110
-1
-36
20
29
-47
23
50
48
-92
-48
60
32
-39
54
-31
-67
5
-65
16
81
10
-20
-80
-73
-23
83
4
5
-46
53
28
-11
23
12
3
8
51
-20
-28
21
6
7
-14
4
31
12
70
9
-31
50
37
28
25
-20
-12
-1
-35
93
5
13
-89
-50
-36
69
-8
15
23
26
9
4
-40
-7
-17
42
-64
14
12
-95
123
30
35
-4
27
-1
19
87
-28
20
-50
-35
49
-20
127
-28
0
-32
-67
-31
48
36
72
-2
-54
-17
-72
39
56
-48
-37
79
43
55
102
53
95
30
18
45
-93
-43
-10
-19
71
-44
-27
71
29
4
-15
15
-115
-6
120
-127
-28
-24
-21
18
-1
-13
56
13
54
-29
-10
-57
49
-23
24
10
-32
2
44
-27
-93
-38
-24
-108
-93
-67
-92
-46
18
25
-43
-61
-81
-68
72
-50
16
38
52
-10
-20
10
-37
64
-15
10
0
0
85
23
96
-107
88
54
21
-1
32
43
-63
-31
-1
-20
-18
22
-33
41
79
-79
2
39
-15
4
31
-7
58
39
-3
15
-54
46
-66
-25
18
71
-74
53
36
29
-10
-65
-8
98
-14
15
-127
-30
81
-72
-27
21
17
31
18
3
12
-87
-16
45
66
-92
5
-34
15
-14
127
-2
-21
35
42
-103
-35
-35
24
93
-49
81
-100
7
15
38
-10
-2
-15
-12
53
-78
-100
-69
34
60
-54
-51
-34
-100
13
73
46
66
35
-118
-89
44
-39
46
-26
-13
48
-67
-34
-122
43
-31
12
10
-21
80
-30
18
-6
19
6
-4
-7
6
17
-19
-47
-31
13
37
-23
-21
60
20
-106
-70
1
74
52
83
-49
-73
-43
46
-118
-34
15
-62
28
55
-77
-110
65
24
16
68
34
52
96
1
-8
-9
38
24
13
54
39
2
31
-33
-105
44
13
93
48
100
-71
62
-117
122
58
-12
-68
-125
80
65
51
-12
-30
39
-10
71
47
-5
29
-18
-17
-41
89
-29
-127
-64
58
20
32
-23
82
-37
3
2
33
26
34
127
17
-59
-1
-57
6
-15
-10
66
43
107
27
-50
43
16
55
-21
77
48
-15
-35
-46
85
36
-54
-6
-55
-20
-39
62
77
66
28
76
-25
-18
-12
22
61
-32
45
17
-50
22
-54
-93
-37
34
-67
22
95
12
32
0
-6
-35
-4
-42
30
-76
29
-17
65
86
-42
9
23
30
-47
48
74
36
31
-16
-22
75
-8
-33
18
-8
5
39
11
31
-38
28
58
33
-28
68
-20
89
110
82
11
127
81
-14
-42
14
13
-77
-12
28
-101
31
49
34
76
-1
95
37
13
-35
-24
-7
-19
-16
-13
105
1
72
2
-88
54
74
-69
-85
-80
12
42
-14
5
75
37
85
-13
21
99
66
-4
58
48
75
33
-27
-3
10
-24
26
-44
2
-6
-41
-20
-24
83
3
-11
-33
19
41
-35
-39
-37
-11
-4
66
-46
31
-43
-46
70
15
18
6
-73
40
87
1
-21
36
60
-22
1
-5
-18
53
-15
-58
127
69
-11
33
17
-18
-12
-10
-5
-33
12
26
16
-33
-29
-19
70
44
8
-67
-7
-3
-71
-8
-45
-18
11
30
-22
6
-35
7
49
-10
10
58
36
-8
-7
-32
40
127
49
-7
84
29
14
59
-25
43
-44
-61
-10
0
26
-3
38
28
0
-9
13
40
-3
-48
48
-14
17
38
-39
50
-20
33
38
36
16
-50
59
-127
-36
-33
-5
76
31
-63
-43
-11
-23
-66
91
-41
-6
4
10
29
43
21
37
49
94
-7
21
-110
18
12
-65
-29
40
-56
-8
-20
-87
-59
-20
42
22
17
-17
90
78
-20
-102
-23
10
47
-28
14
21
-78
-75
6
-37
-23
78
48
-36
-48
59
-25
9
-33
5
-28
97
-92
6
5
-16
39
10
-21
59
19
-15
33
-62
126
10
26
-68
127
-10
56
-12
-20
35
-16
-10
14
-36
-46
-10
-48
-24
-19
-65
-31
23
-59
-8
-3
-6
12
3
7
-11
-12
43
16
-9
8
38
-6
53
14
-35
17
22
11
-48
-6
1
27
25
44
-4
-29
11
-42
19
-36
127
-50
0
-9
-62
5
12
22
-33
-48
58
-19
-39
-35
0
-47
-40
-49
-42
104
-23
-63
38
-61
-14
57
-33
-12
-32
-4
-9
-6
26
25
51
83
-66
-83
-13
-6
6
39
25
-45
26
-18
41
-70
-48
-32
48
-9
-17
-71
-27
27
-19
-15
-48
-41
68
45
-17
35
-13
56
-3
-54
127
-47
-87
43
69
-28
-39
57
-49
-41
-23
-38
-84
-40
-15
60
-12
52
-51
-51
-15
99
-34
60
52
-5
110
85
19
14
48
15
-27
-31
-32
32
-8
-41
-7
53
9
-18
61
-127
10
1
-46
23
25
-66
84
43
-57
3
-15
51
-12
-62
20
-8
15
11
17
6
-53
-10
-14
41
25
-41
-1
-39
58
12
-12
7
33
60
-42
-36
-58
11
-3
-4
-36
-23
6
-47
-7
-32
-31
-52
24
7
-32
15
25
-33
-1
44
18
11
31
51
-42
-89
38
68
15
69
69
-28
-21
-44
19
54
12
31
-11
-28
15
-46
38
53
-21
-24
106
12
52
14
-32
12
-56
-7
7
70
61
3
-16
-9
28
72
98
-57
55
-127
35
25
50
-54
-16
53
5
63
50
26
28
-14
29
-8
-11
-43
-67
17
-32
30
-80
2
36
50
68
25
-1
-71
15
39
0
23
37
62
12
9
12
-31
-110
-1
-38
-47
29
-72
-52
-19
46
68
74
9
11
-8
-43
19
-39
48
30
-17
-52
127
58
-27
30
-27
43
100
-1
39
-44
-30
11
35
-63
66
-10
-40
-31
38
-17
58
30
-58
63
23
44
35
-9
-37
3
-68
72
26
-8
-20
-57
38
-64
-10
-57
-96
16
4
41
-13
42
53
-13
-3
38
29
-32
26
6
9
30
3
14
11
-21
-4
56
-22
-8
95
-19
-46
21
62
-55
-80
16
7
-18
-56
-15
-59
-1
44
53
-28
-43
-39
-59
5
-32
-13
33
-46
10
127
-21
4
-2
104
1
0
-16
-63
-40
5
-47
53
-10
41
88
-35
-56
-45
-11
-30
2
-5
1
61
127
44
21
67
45
36
-52
13
-109
21
53
54
25
16
-38
-42
18
25
102
90
-4
-12
18
29
-48
4
48
13
-7
56
-9
3
2
5
35
51
15
-66
75
-46
-106
-31
5
43
-8
26
-55
76
32
23
5
45
30
37
36
-46
50
39
-13
-7
-78
2
-38
18
34
41
23
-18
-53
-9
1
-31
11
17
-29
4
7
-19
-43
-29
23
45
38
-52
5
-36
12
52
60
-13
34
-19
48
5
-34
27
-30
-39
-31
-49
-65
17
44
28
-6
-26
-16
21
12
-9
6
-32
127
-59
11
29
80
83
-104
-27
-25
-5
15
-42
-78
14
53
-12
-14
39
-82
95
41
-36
-114
8
35
66
84
20
-68
7
34
51
-43
-41
13
-19
-34
-4
73
-11
-12
4
40
-24
46
-22
11
64
109
32
-99
69
-45
82
-4
-26
88
-38
-16
-55
42
24
-23
-5
-27
-28
28
73
5
-23
62
-56
-35
-20
2
-27
16
24
24
91
-32
13
47
21
35
-90
53
-57
-127
-43
2
-17
-9
8
8
-9
-63
-8
15
55
8
-26
-50
-5
6
18
-34
-15
-10
-17
8
17
16
81
44
7
-8
30
61
61
53
23
26
-39
27
50
14
-20
35
-60
-17
-31
10
-50
46
23
-28
-5
32
-10
26
-27
29
22
32
-53
76
-5
36
96
-70
46
-58
-112
26
11
-64
-103
-21
-23
-93
10
-79
32
14
-43
-55
6
-2
37
127
-9
-15
30
-78
-72
68
31
47
-39
26
-32
89
-1
6
25
39
44
-59
4
-114
-127
-5
16
29
-36
-52
53
34
-49
-28
7
-36
-16
-20
23
-48
-110
49
-7
-13
60
37
-59
-75
16
-20
-13
-51
-89
28
-72
6
-83
-27
33
13
66
63
50
-19
36
30
28
2
39
53
48
36
48
25
-11
28
-24
42
-9
31
-27
52
18
9
-47
6
-15
-3
27
27
-8
105
27
0
15
29
-9
-50
59
-43
3
-93
-22
16
-22
-4
26
24
62
3
9
-127
-38
20
-41
-20
-21
49
19
-7
63
9
-19
-31
-18
-5
18
-66
17
39
4
44
43
7
39
-63
43
22
10
48
-4
-9
-12
11
32
16
12
23
22
10
18
-66
-54
11
31
19
16
-13
9
45
-15
-15
24
34
-28
24
20
-60
11
10
76
3
-2
-57
38
6
-33
-24
12
127
-36
-6
-29
29
-44
-87
30
57
6
71
-11
-61
-23
-33
-18
29
-14
10
42
7
27
-11
41
7
-33
33
45
-29
10
-16
36
-10
-43
0
-71
-22
-1
-17
20
15
-36
61
90
-56
13
-5
70
11
29
-127
-5
-53
-4
-99
-25
38
-18
-16
-11
126
-9
-76
20
-120
-27
-14
67
-28
-40
-20
-15
-49
-20
16
78
24
55
38
25
51
22
-66
76
-75
-7
27
-56
-14
9
13
-61
17
-19
60
-4
-22
-49
47
13
-84
19
31
-81
22
-44
116
-33
122
-43
65
49
-61
-1
11
67
-15
-36
-57
35
38
34
-14
-23
24
50
-84
39
-37
-59
47
1
-23
19
-82
45
45
-11
81
-32
-7
10
71
43
-38
-77
-127
3
40
-22
-16
14
84
29
29
-32
-27
-55
0
-80
26
41
-59
-38
19
-27
-34
5
3
-25
8
33
22
-121
-15
-46
-44
-8
-21
85
-11
45
-69
-5
-65
-20
106
26
53
-31
48
11
25
12
-35
-30
-55
3
-25
79
-24
37
24
5
9
-44
-23
11
-32
9
-18
13
-99
15
-35
-14
-47
24
2
77
-23
-38
10
45
46
-67
-45
-49
8
11
-75
12
-37
-19
-26
0
70
-37
-2
37
127
-11
21
12
-35
6
-46
28
39
-100
15
82
-6
-24
-26
-13
-49
7
-27
-50
-15
62
48
-69
47
2
-19
28
37
10
-43
27
-13
0
-11
-9
48
-54
-115
-64
22
-127
-9
-28
85
1
-66
22
-24
-68
-18
-29
-49
15
-8
10
-31
27
-17
-12
-14
-39
27
-29
-94
-43
6
-34
17
3
0
-65
-18
-98
-80
17
-51
61
-1
30
-95
111
7
1
-74
-115
35
-5
-6
93
25
-34
51
59
39
-31
-63
78
-31
-40
-7
-48
-16
29
63
13
-12
44
-69
34
-9
-29
-46
10
-30
2
-75
-30
-21
-2
69
-47
-39
6
7
11
76
-33
-22
-2
11
49
51
11
-23
-5
20
-35
-13
57
-7
23
-22
7
2
-71
27
-7
-5
-35
-127
50
25
112
-49
67
-71
4
-13
25
29
23
33
-16
38
57
-127
19
-9
-41
-59
15
-39
9
23
41
28
-16
53
2
43
-26
-59
-36
65
13
-60
-74
-4
-1
-64
-12
24
27
-7
-3
33
-19
37
-17
35
-96
38
-5
28
-65
29
25
-17
-39
-1
-33
-57
-5
16
30
-4
43
96
-50
-51
-32
8
-98
10
-18
27
-20
-6
8
72
-36
-79
-19
11
56
-31
50
73
-60
31
-20
-49
51
8
62
-113
-26
121
67
49
-37
46
-54
-43
-25
44
-21
-60
31
-11
51
-47
-87
-14
127
38
-41
-37
28
-48
27
-58
52
-7
-50
-25
-59
19
123
30
-70
73
109
15
-5
-75
10
37
-24
-72
-16
-27
-61
-57
-61
4
-54
82
-77
-3
-48
11
13
42
88
77
-49
-11
45
-29
-18
-23
-87
-94
31
-38
-22
41
-4
100
-43
-27
23
40
-5
80
-101
15
52
-105
-32
22
52
127
-74
42
64
54
0
40
5
-7
-65
-86
-56
5
-53
62
27
-28
6
-39
-106
21
31
-38
56
19
-19
61
32
9
-88
-68
38
-77
-94
126
46
-51
-10
-24
58
77
-65
18
98
-49
24
-8
42
9
-48
-95
-28
-73
-106
-3
53
72
-74
34
22
9
42
-15
28
24
-38
11
36
-60
-32
15
-33
18
-14
12
12
-99
-127
31
54
-31
-37
15
-5
8
-22
-84
-38
-1
6
-52
-58
-5
33
42
-28
-54
72
38
-33
-13
-31
-50
26
-52
38
14
-16
57
-24
-16
-28
46
-42
-10
12
61
-12
-22
-7
-40
-29
27
78
55
-84
-27
58
-71
-61
-83
-50
72
39
13
-43
-11
92
-100
4
127
36
61
-68
100
91
-34
-25
-34
-3
80
15
-6
31
26
87
6
-93
-65
-68
15
-36
15
73
-100
25
26
71
-45
77
47
8
35
-48
75
-67
-30
-7
-30
66
7
-61
11
-59
106
-39
11
-67
17
-94
35
42
-11
83
33
93
-21
-36
-35
40
-89
-78
41
-104
0
-95
31
18
-47
-36
44
15
-101
-46
52
-31
-106
26
98
19
1
9
51
39
-19
-8
39
55
38
22
90
-75
65
-11
49
57
17
-8
5
124
-17
-12
41
-42
19
78
-101
48
-66
-59
48
30
78
-26
7
30
88
26
25
42
127
0
-64
26
90
23
-64
-119
-50
20
-38
79
127
24
-49
37
-11
-37
-74
-42
-28
-53
95
-2
-20
-86
-51
35
-83
2
15
106
-43
49
-66
64
72
71
53
-71
-29
-110
-30
10
15
-17
9
19
-52
17
-76
30
-5
-26
2
-8
-30
-68
87
61
33
45
-10
17
51
10
-95
66
1
18
69
-22
-16
-58
-21
28
44
-34
61
-7
0
-6
11
-49
-46
-52
62
-116
-3
-16
29
19
-85
-44
69
-127
14
-21
38
25
-12
-23
-4
-75
-20
22
1
101
-10
-97
-65
-2
90
-2
76
-5
22
110
-44
2
25
-44
70
-29
-15
-38
-89
5
-63
18
-15
56
-36
-24
38
24
82
-23
-56
38
9
28
-44
0
-15
51
41
-22
-7
64
-16
96
35
-97
-40
127
-5
-57
-61
-2
90
26
45
-33
45
68
-28
-63
33
66
-62
-17
-32
76
-16
23
34
-20
26
-55
-12
42
-49
5
-2
-83
-110
107
0
-16
-44
73
-110
109
26
28
9
95
6
-10
55
-39
33
-101
-23
-11
-73
84
33
-17
-44
-88
-32
5
37
-19
100
-90
45
37
-68
-107
-29
42
-127
-25
-21
9
-46
-105
-61
35
81
-18
-29
37
-6
-41
1
-31
-52
-68
-19
25
-12
-2
-58
-101
72
-28
-44
58
7
49
-17
-19
-77
-3
-82
66
54
58
-19
10
-1
-78
35
8
-87
-22
-91
-56
-16
-85
-83
-65
-28
-76
11
73
26
2
31
-52
121
-9
77
41
34
-93
19
-6
11
-22
-21
53
58
30
57
-21
-50
29
29
-5
-63
-22
22
-25
-18
38
50
-1
-55
29
-42
77
-69
-127
35
16
43
22
-38
24
-10
-92
-15
64
12
76
60
7
-66
-17
-38
2
31
-21
-32
-14
-24
-18
2
-29
-74
2
4
-7
-19
-20
8
-19
18
26
-77
4
15
-36
25
71
5
-73
33
-53
8
-2
-76
-34
53
38
-119
-34
-88
0
29
-13
39
-14
-21
-9
-29
-51
47
12
-33
27
23
39
-127
39
-46
65
11
19
-37
-66
-39
-22
17
-38
-82
-10
-10
-74
10
-29
26
-5
4
31
36
41
41
-33
107
2
-119
-32
86
8
79
-27
0
-45
-21
10
25
-36
-55
-64
-16
-26
-49
-72
1
-53
43
-30
-31
-5
6
-25
28
-3
-103
-2
-19
-84
-11
13
-24
-4
-35
-25
45
-92
-18
-57
92
118
26
17
-64
-34
-10
23
111
-22
63
-123
-38
63
-24
-46
-1
-48
63
-78
-53
-20
-51
-23
-38
-29
3
-59
13
-73
-8
4
-63
75
19
116
-35
41
-114
-12
-127
1
54
-10
-78
-17
-27
-33
40
47
-12
49
27
23
-20
3
-35
10
13
9
58
-15
7
-39
73
-27
20
-97
11
17
82
-59
35
23
57
75
-62
32
-76
45
52
71
12
16
18
-48
-6
-68
-56
-30
86
-67
73
27
18
-127
4
-45
42
23
48
-15
9
9
62
71
22
39
54
-19
-59
79
68
-3
0
24
-45
52
-8
-35
-6
40
4
-105
-91
125
9
98
71
23
-28
-17
14
-17
-48
26
-55
14
-73
-53
-28
-92
72
70
-79
27
-40
-124
-79
29
55
47
-89
100
49
-127
42
-17
-49
19
-33
-9
8
45
-102
-6
76
39
79
-23
56
-48
-10
-2
33
90
-4
-42
-31
31
1
26
118
45
-33
9
-76
-27
-63
-9
-50
100
26
-8
17
43
20
-12
-42
11
-23
84
38
15
1
-127
6
48
-54
-35
32
50
-41
30
-25
66
-67
-49
31
-16
27
78
-19
-20
-6
-24
-58
-48
102
11
52
12
-5
12
-16
-48
-10
-27
36
10
-43
-19
-26
0
-9
-43
76
-20
-38
-101
-46
-23
80
-13
-20
-22
-23
3
-50
24
-11
-41
-6
121
-49
-70
96
-39
80
-18
-17
-6
-89
12
-88
48
38
58
83
-4
-25
43
12
-38
53
-23
-78
47
-19
0
-10
-31
11
-31
-43
-11
67
-18
-55
-78
35
108
17
-13
12
-75
-2
-127
38
13
10
-27
-43
91
-32
-52
-37
-14
-13
38
25
-59
-84
21
-122
-81
-77
-2
74
-9
45
-90
-7
-36
16
-35
50
-78
-4
12
40
41
51
-10
3
59
-68
4
-28
-11
4
-22
-96
-27
-40
2
-5
-6
-54
-39
53
83
-24
33
-9
-35
-8
-32
91
-118
30
-22
3
127
-11
-72
-66
-11
27
28
-38
9
0
-44
33
-3
41
1
33
-12
14
19
8
67
-40
-65
-106
-3
2
0
-28
-32
14
54
16
-16
88
-44
74
-31
-56
45
57
-3
31
-6
-25
25
-30
9
43
49
-53
9
-15
-75
7
28
-35
4
-2
-28
10
-26
-12
-7
-82
16
-33
25
24
-127
-71
-1
70
22
-39
-45
12
0
-82
-60
-24
-39
15
-31
-5
43
-9
21
71
14
-10
6
10
-35
-20
-18
29
-1
-78
23
4
16
9
-79
30
39
9
-64
-10
-31
0
-14
-58
37
-47
5
-45
61
9
-85
9
-21
30
-85
-9
-67
-14
-28
76
-2
9
3
8
75
23
-39
-25
-56
41
-8
27
8
-44
14
-8
-5
-19
-26
10
-36
-13
35
1
22
-12
24
65
-32
8
37
50
-82
-15
-3
-61
-7
50
-13
12
-42
-51
78
-69
59
78
-86
-127
-9
4
-52
10
76
-109
-12
-111
-36
-79
-104
10
103
35
-91
27
5
38
3
22
-24
-5
-31
74
-54
-46
-30
41
7
5
54
8
26
-78
-127
-27
94
25
-16
64
-61
-45
-46
12
-53
53
-5
15
-57
-8
29
27
-59
-97
40
83
-4
-23
-49
-49
53
-63
32
50
6
123
-37
33
-37
-33
-84
2
-29
81
22
-16
-13
-13
-11
-27
22
7
-69
-3
28
8
-44
64
-11
73
-18
-2
-45
22
-36
15
-2
13
18
-23
25
-51
-9
-69
-27
50
-29
73
-13
-38
1
-127
25
-23
-23
-33
4
-68
69
10
7
-38
79
124
-77
6
39
21
-22
-14
-43
-63
-6
11
-45
-17
-85
-45
-10
-12
-5
61
-53
-37
-2
40
-30
-10
-52
-46
116
-64
4
9
-84
19
-16
38
6
51
-127
10
16
-88
44
46
15
25
19
-40
34
-4
-121
-19
-28
106
-22
24
-87
5
-6
-45
-5
56
18
18
-60
-24
52
-107
-18
39
-35
9
49
-34
14
-82
-56
13
12
56
-71
28
-49
-80
1
27
-29
-20
-38
59
-23
-87
17
21
12
-54
84
-115
-10
-64
-32
26
-17
-50
-46
-63
66
43
1
19
-77
37
4
44
-23
13
25
37
22
-106
-10
34
-3
27
-37
-13
8
40
-22
122
-12
53
-24
55
-88
28
-56
7
-21
127
-29
-115
27
-7
-43
-114
-27
-98
48
14
-12
64
-67
-57
6
-91
22
3
-9
37
-92
-74
-5
-37
-14
-18
-15
-18
105
8
33
-43
77
-65
-45
-56
-127
-120
38
-10
27
-60
61
-68
-17
-6
41
-25
25
-33
5
2
35
35
-49
19
30
84
24
21
37
24
-94
14
85
32
-42
-75
-36
-84
36
-39
-116
62
95
-99
34
-15
-69
13
59
-32
33
18
41
59
-2
-21
-12
18
53
-33
-52
23
-10
-22
-82
65
-26
32
-9
15
-11
9
-9
-64
39
-22
-46
33
24
16
-60
-9
5
-25
17
-4
17
60
5
42
-3
-32
6
13
-31
19
-22
38
-2
-27
-127
17
19
-22
-24
13
-3
34
-32
-77
-41
-25
30
4
-19
5
38
35
-73
-44
45
36
-23
-12
-31
-59
-8
-36
19
43
-21
-8
-52
-24
-17
34
-28
16
-24
45
45
-29
71
-57
-12
-23
-24
-62
-64
-50
-1
80
-15
17
-34
-4
2
28
-24
48
-73
73
-46
-38
-55
69
-12
8
-48
12
-5
-35
-38
7
15
48
50
-17
-92
-51
67
-9
-51
14
21
-8
-12
-57
24
31
-21
-65
42
27
3
-19
-10
-85
-43
-1
-53
30
-40
-11
-56
37
15
43
-127
-8
-25
-35
48
24
-70
55
-46
9
84
14
49
-61
41
-64
-105
-61
31
42
6
82
39
-40
-26
-2
-4
-85
-28
45
-38
-75
-37
59
15
-81
1
5
27
-127
-10
44
23
13
32
-18
-30
58
70
21
43
56
-17
74
-12
-25
-48
-22
19
-66
-16
-53
70
-69
-36
14
-27
-27
-70
76
-12
35
44
30
52
85
36
58
-39
-29
-23
26
17
47
45
30
-16
-6
127
-41
4
-67
-31
21
50
-8
-22
-42
2
45
-4
-37
1
35
-41
-16
-37
57
-41
67
-2
-20
0
2
-34
-3
48
29
7
-16
-16
9
-18
21
14
-26
-51
32
21
-37
-22
12
42
-14
-28
-40
-76
-69
23
37
13
-88
78
-42
1
56
8
47
50
30
32
0
-19
-127
1
-63
-109
-6
-14
-47
-36
4
-28
24
7
-15
37
34
-39
44
19
-17
-34
13
66
56
14
1
56
-56
-116
0
-14
-10
12
35
-64
-25
17
-89
-34
23
-15
-9
-23
22
67
-43
24
-66
55
55
-55
4
-51
-24
35
-12
62
10
-20
45
-33
-30
-20
32
-45
-21
-30
50
14
-13
21
4
45
-22
49
-22
27
53
0
18
-19
-55
-68
26
-47
-79
35
25
-36
3
28
-9
-12
41
-82
-34
-127
10
95
15
-6
62
-40
-70
16
102
-2
-54
63
52
-21
28
-46
-37
117
55
-27
0
59
38
-5
-38
-21
60
48
89
66
-58
-34
-52
-16
55
51
-13
66
-29
-58
47
-4
-35
50
-16
39
23
69
15
32
42
21
39
1
-27
66
-41
15
-34
-62
-24
33
-9
30
40
-29
15
60
7
-37
11
-36
71
-41
-26
17
63
-4
-127
-16
-100
39
13
119
-85
-4
-6
9
111
4
16
99
25
-2
48
52
0
-70
-35
44
-21
-60
15
-17
11
26
-76
-48
7
-22
-35
1
-55
33
52
49
-8
9
25
35
-70
18
-57
-37
17
-25
33
67
-36
47
31
62
77
109
-16
29
-71
-29
-39
23
-13
-101
14
-106
-52
-115
67
-54
70
4
-4
-7
33
6
-48
-30
-48
-70
-68
-33
33
13
25
86
-18
0
-44
-86
-10
77
-12
-82
51
76
-95
62
-113
-26
-28
34
43
-60
-15
-25
78
57
109
127
-25
73
21
-15
37
-64
35
14
-48
21
-84
-79
33
2
56
18
30
-20
42
-35
19
9
5
-21
15
29
16
19
94
63
61
-58
-72
101
-29
-3
5
87
22
-29
10
22
-27
22
7
-5
63
56
-21
67
-127
-36
35
-34
-59
-7
31
-21
-71
-70
13
-8
19
10
-45
-115
27
74
16
-27
-23
-40
10
3
-49
67
-35
5
35
24
-6
-37
85
-20
-58
-35
-45
-8
47
16
35
-10
50
-45
32
34
-13
-19
30
-23
15
127
-3
10
-41
-39
34
23
26
-23
74
22
27
53
43
-89
28
-49
-11
-29
-14
-45
-18
-33
-5
15
74
-4
-19
-8
-12
-22
24
-60
2
17
35
-26
-47
17
-3
-25
-19
-57
22
-44
-43
-34
-54
-68
50
-8
-10
118
28
44
45
75
-25
54
-13
-27
28
6
-21
79
-106
13
-17
73
8
-7
-14
-17
46
-26
30
-57
49
82
-47
-37
-76
-53
-7
-11
19
46
-102
17
34
8
7
13
-9
127
46
-30
-40
-60
59
-18
-85
16
38
-26
-58
19
27
23
35
-15
-29
-7
22
-92
-41
-29
10
-16
13
-42
-54
21
-80
-4
-11
76
59
-11
69
30
93
-50
-29
38
9
-25
57
-67
-1
90
44
-84
78
5
42
-74
-19
36
47
46
8
-49
18
-120
10
61
-39
-42
38
-107
-16
12
-51
-4
-51
-2
-55
-44
-30
-65
-119
-47
35
-53
27
38
36
-19
76
13
127
23
-55
62
-60
-5
2
-48
34
60
-4
-11
-38
-59
-35
1
-10
-29
51
16
22
-45
54
-3
33
-30
-14
39
-56
74
-81
51
22
-43
-34
-25
99
5
48
33
-62
65
-26
53
-33
4
-38
-35
34
-4
51
10
-58
127
86
-42
-25
40
21
-4
11
-46
-53
1
85
1
-5
13
-21
16
-37
-15
84
-106
-31
54
-38
-8
-36
-41
-5
92
26
-125
-3
46
16
18
10
84
54
25
5
-93
-88
34
123
83
28
105
54
11
1
-7
15
-45
86
42
-5
-40
2
-21
-29
13
-86
40
-25
-71
127
-99
-3
-89
23
-22
33
43
-83
42
-11
-28
65
70
41
-38
-49
-27
-36
-18
39
-34
-47
7
34
11
-77
57
-25
5
13
16
-41
21
-42
37
28
-46
-14
7
-24
-39
58
-21
-49
-47
-25
-24
11
46
11
25
-19
-15
-7
3
-10
75
-2
-1
-24
-3
10
-68
4
-4
8
11
-32
40
83
-27
54
49
4
42
44
-15
-127
26
-13
-16
-10
-34
-26
-14
64
20
-57
-14
82
-50
11
18
58
-7
-65
5
-80
-30
-17
-51
27
1
1
21
4
20
76
-37
99
-24
66
60
72
-8
-41
-31
104
63
-28
-34
-38
-73
63
28
-34
34
-55
-36
-38
5
29
-14
56
-29
19
110
-99
-10
-11
31
22
100
127
-12
43
30
-35
32
69
90
-5
40
-84
62
-7
-63
-16
17
46
-15
-57
39
-104
-22
27
6
-102
1
-41
17
21
-19
36
104
-99
65
69
0
-10
7
-62
-67
0
35
-11
-53
67
17
-65
-34
61
-28
-3
-41
55
-50
-38
52
-59
42
-41
-113
-73
5
-26
-19
33
-6
12
-6
-35
-38
-83
-9
12
41
79
127
-12
-76
26
-18
79
-39
-25
-10
13
0
-35
-58
-43
17
-37
-4
-6
-19
-31
18
0
43
20
-34
57
75
-36
-1
24
55
36
11
-19
-12
79
-74
-90
-110
-5
76
-2
13
53
5
-104
-25
-34
-79
12
75
35
-81
-33
2
-18
-5
-55
39
-65
25
-127
52
46
-17
25
-25
-31
-47
58
11
-15
48
21
10
-22
-79
41
93
-23
-37
50
71
-48
-27
8
21
11
-50
1
-41
-8
44
49
32
-17
-17
106
11
38
-106
-1
-26
100
-44
-14
-15
-96
-56
-84
88
-125
31
-31
90
24
-47
8
-107
-69
-55
-6
-78
-127
34
-19
24
-56
63
-34
4
23
19
-15
-99
-40
112
9
27
-97
-27
-75
-39
-3
121
-22
-13
68
-105
44
15
-122
49
-37
12
17
60
69
47
72
108
44
-56
16
-13
27
16
-59
-57
-62
1
-1
-93
37
-49
-44
60
9
29
27
25
-17
31
39
7
-45
34
37
-91
83
3
-10
60
-25
4
4
33
17
-2
-23
-51
-86
23
56
32
11
-58
-30
42
-17
-2
25
-51
35
-14
-13
77
34
88
-39
78
11
-12
-12
63
41
5
22
-9
16
19
61
-38
48
-21
-60
11
-46
-26
12
-127
3
-54
-12
-63
-2
27
-8
3
-52
7
14
-21
-3
-111
51
74
-103
-91
41
-11
-40
15
-62
-16
-10
3
-18
81
-94
53
91
-2
-127
60
64
63
9
26
-53
-12
-60
49
-5
37
-68
10
-40
45
22
116
5
-51
9
1
31
-20
46
11
-16
19
9
-10
32
42
-65
33
-5
68
23
72
2
58
0
-46
-16
19
107
-39
75
-56
124
-17
31
50
64
-54
-34
14
21
-69
69
2
-14
-54
10
-38
107
-11
30
-37
-14
127
0
-33
18
-4
33
-51
49
-13
41
-16
55
5
84
-46
-8
22
-1
-23
-37
-60
-73
-8
40
79
-35
-49
-32
-37
-74
63
-28
13
20
-57
-11
-13
13
43
-37
-91
41
17
-70
3
-59
-40
-18
69
1
-29
-39
11
-38
-79
8
30
27
28
25
-37
30
40
30
-17
7
-1
40
44
-6
-39
10
7
40
12
12
29
-94
-127
4
44
21
-20
47
-14
6
-22
-74
-33
31
22
-11
-12
-12
2
33
-7
-80
81
29
-28
30
-32
-47
18
-51
12
18
-14
28
-28
-34
-39
29
-11
38
18
56
14
32
22
-37
14
-58
-4
-23
-62
5
24
-23
-20
27
-50
12
12
51
-9
36
-26
31
-17
17
-28
14
39
-22
43
46
51
-10
-127
35
41
20
4
27
-76
-1
-3
19
13
13
20
-22
-58
16
27
26
6
-76
48
54
-17
-21
-37
-6
9
-22
11
41
1
33
-34
-13
-46
32
-52
-11
-23
16
65
10
26
-29
-61
-45
-127
-24
-1
-48
-31
-42
-68
27
-38
90
-5
-36
42
-65
-52
-39
17
127
-24
72
-25
-44
-28
33
62
82
-1
-80
12
71
79
28
-61
-6
21
-49
-62
108
-36
-58
-6
126
-40
61
-12
-22
-12
6
-32
30
89
-8
72
20
73
73
76
-28
-30
-10
-98
-51
6
56
4
-4
26
-38
-3
-21
40
-47
-34
14
-65
-46
-38
77
63
39
-34
32
51
13
56
-6
21
0
-4
-3
-16
20
1
-15
-127
-1
-6
-63
-82
40
-27
-2
37
77
-34
-1
2
-23
24
77
-63
52
21
6
67
-15
-49
-10
-24
67
28
-27
27
22
-22
-87
33
-30
52
-19
-29
28
-2
-7
-21
48
-44
49
4
44
21
14
32
-6
-20
75
-26
-92
13
41
44
2
6
5
-67
-84
-69
-31
14
20
-18
-4
-13
12
13
-90
-38
-94
57
-10
5
-2
59
35
81
-84
-13
-41
-104
-52
72
90
52
-7
22
-73
-4
3
-33
48
-19
73
-45
-29
43
-35
-26
127
61
-24
83
46
76
-115
18
8
41
-33
64
12
-38
118
42
16
-12
29
-19
125
-27
-3
-51
29
-12
76
63
31
22
-42
39
43
64
44
24
-41
125
-96
45
-94
29
-50
-28
-12
24
-27
-48
-63
59
44
-14
-127
-59
-71
21
-21
52
20
10
-11
-23
-54
18
35
1
56
21
41
9
-27
-14
23
0
-20
-19
104
16
69
23
-11
-85
-47
52
27
-34
25
104
-1
-14
1
4
17
-42
-22
56
-10
-72
64
-32
78
64
41
51
49
-53
21
-7
38
-4
-22
53
-38
-25
40
57
20
-6
-49
51
-80
47
-33
14
45
-45
8
13
55
33
17
-38
101
83
0
24
-74
11
15
24
-127
0
27
-40
-5
-23
21
-73
39
3
-13
-43
25
-10
0
-24
-35
-27
10
13
-127
2
-18
-16
-2
50
9
75
-12
2
-12
-4
36
62
89
16
-28
-11
33
-96
-4
11
-40
34
-46
60
-14
48
-8
-38
-9
5
-17
8
42
20
-17
17
-31
-19
12
-60
-70
-36
118
20
-103
15
1
12
-3
-48
-23
4
33
-68
-38
-10
-47
-35
26
-53
32
-16
-36
23
-5
-9
55
44
2
-34
-36
61
49
-26
-58
43
8
-1
77
-25
30
-6
26
-4
36
20
44
-1
-13
3
27
64
25
28
119
-127
-29
-17
15
-37
5
40
-23
-30
28
26
-1
60
3
-86
28
-14
-28
16
62
-33
-58
59
-8
20
-31
-7
10
-17
-59
-5
13
-47
14
-87
54
-28
5
75
65
-34
-19
-15
-33
73
-22
-53
46
-48
-79
-9
-43
-94
-47
-25
-73
1
-18
49
26
-41
-23
13
34
-22
42
-16
-66
27
4
17
68
-24
76
-77
127
-45
17
-4
9
-42
41
17
-71
-67
-43
21
61
11
-19
-32
-53
-19
21
38
-75
102
47
38
-17
-69
14
-31
-85
30
44
56
-97
18
-40
28
41
16
9
-16
6
73
117
26
65
-48
24
-72
16
42
-19
27
-26
-20
-38
-19
-15
-81
-74
42
-10
-55
-27
-38
43
21
-13
33
24
53
-41
40
7
127
-65
-38
-37
62
-56
4
60
54
18
-44
-1
9
-38
-49
50
-63
-50
-11
32
50
7
34
30
110
19
26
-11
94
-34
6
76
70
-36
74
9
-57
-90
11
-40
24
110
1
27
9
23
38
45
23
-69
-2
-127
44
-78
19
34
102
-22
-29
-52
44
55
-31
77
-58
58
70
-37
-10
-29
-24
-73
-79
41
-73
-31
-53
-31
94
-45
-34
-32
-73
18
1
-24
39
17
-91
-47
60
8
104
46
-109
-20
-19
48
100
-67
9
-93
31
-54
-37
-34
-89
79
31
43
-59
61
-40
67
-6
-51
101
-119
15
33
-52
-9
48
25
-5
-13
-38
15
13
10
-14
10
62
56
42
4
3
-34
-64
27
63
34
15
-87
-52
15
-36
-3
-10
123
-50
12
29
-39
-80
-31
-9
43
-27
20
24
-23
-25
-58
14
52
-29
6
-53
-2
-16
-5
3
3
-62
-14
-32
18
39
-64
-85
-13
-41
-34
127
-29
-1
-23
55
-17
-60
64
16
-14
-30
51
-28
-47
-42
-33
19
-29
43
2
-21
-51
46
114
-44
2
30
-40
16
-3
127
-31
28
-37
88
-2
17
-23
-73
37
40
74
-5
29
-80
59
2
-29
5
-14
-59
30
-20
6
-98
-13
7
-26
40
33
76
50
20
-30
24
-95
37
10
30
52
6
-64
-7
-71
70
118
9
36
-28
-24
63
-79
-18
-91
36
45
5
-11
73
-73
4
-5
-39
11
-1
2
-55
-32
-66
61
-26
-2
-20
-8
-81
63
35
42
-63
44
127
3
1
40
-51
-41
45
-2
72
62
-12
-17
25
-74
17
-13
-40
-53
14
-25
-48
-87
-8
-26
52
34
12
-6
90
-1
-90
28
-28
5
-26
37
92
-18
3
-40
9
4
-32
11
-25
-23
-13
-63
78
-26
16
-65
-13
106
40
-23
17
-96
-59
23
23
-7
-76
9
-17
-46
32
49
-111
127
-4
39
-44
-64
5
-25
-69
43
51
14
-3
-57
23
-12
7
19
88
34
25
18
56
30
-49
-12
-4
82
-12
-24
-24
-39
-21
6
-44
-13
31
27
-80
-12
80
-27
28
-23
22
-43
-17
-14
64
-95
4
13
19
50
59
44
-1
41
-44
-33
-11
9
-79
-12
63
-29
-36
49
-20
5
3
42
-47
127
31
51
-32
-48
46
-37
-66
-2
23
40
57
-85
-17
41
-29
-4
70
-29
31
9
24
0
7
10
-13
55
21
3
-47
36
71
26
25
-21
16
-23
37
-11
37
25
10
35
24
26
9
-15
24
-34
-127
70
-34
-78
-3
8
-34
-74
-71
9
-17
26
34
34
56
-30
29
48
8
-54
-15
-9
-81
-16
73
-12
76
-17
52
-59
33
22
-16
-35
-60
50
-53
-1
1
6
73
38
-25
-68
23
16
10
14
14
10
48
2
-3
12
17
85
-43
-12
20
-34
45
49
-54
-87
-51
13
51
-14
-53
35
48
44
12
-40
15
80
-4
100
-33
127
-2
21
76
-11
70
31
21
80
1
-20
5
38
-32
34
57
-59
58
-29
-10
37
-122
67
-35
9
-96
-6
4
20
10
20
-23
20
-105
11
109
24
-44
-58
-51
78
17
-67
-15
-3
3
48
1
63
14
127
7
87
-67
15
1
-46
-12
-4
78
-27
-8
12
50
32
-10
-98
-59
32
74
-39
3
14
17
-67
80
68
-28
-14
39
47
51
82
47
-11
12
37
0
2
9
57
-31
-12
59
3
-47
82
-7
6
22
29
29
44
62
-89
51
127
-14
-8
-12
-10
-85
15
25
34
-11
-39
32
-36
-31
-44
-3
-4
-86
71
28
-53
-25
9
-14
-23
65
-20
-8
35
55
87
35
26
-63
-12
127
-41
6
20
112
35
0
-96
60
-63
23
56
-25
-11
8
-100
24
-1
-32
77
-47
-16
-41
37
93
-79
106
-89
14
-18
-62
15
-7
-76
3
-15
49
-80
-75
-27
-15
-36
-11
-39
-32
60
-66
-19
-108
-39
-1
28
-17
-7
-15
-3
-47
-25
46
-54
-11
19
13
70
3
75
52
0
127
-65
24
-47
-34
-26
-13
29
18
-64
-19
42
28
-19
-29
27
31
-24
15
19
28
-7
-1
28
35
-19
103
-90
65
-38
35
66
-4
25
-35
32
-47
-26
-35
43
-14
-8
-30
-25
13
8
43
-19
5
-47
18
1
48
42
47
-121
-42
94
60
1
45
-24
-57
38
9
68
68
-14
41
-78
-48
-56
107
-5
-43
19
36
-6
-34
6
31
-82
44
56
59
-102
-1
-3
-12
-2
51
108
78
-2
-16
-74
-13
-56
-24
28
3
-102
46
-33
118
13
-6
55
70
27
-7
-42
-39
8
-26
-3
-19
-7
-58
14
-52
-51
-51
42
-20
42
10
41
127
33
-7
17
9
66
-1
-54
27
-11
-32
0
11
59
96
74
-127
15
-9
45
29
-30
29
37
-4
61
-45
-9
-2
17
35
-48
-11
-13
-37
-3
-70
71
5
-11
17
-54
8
11
-22
-11
34
10
89
0
40
-20
-5
59
8
-22
39
27
-52
-45
-22
-56
5
5
-92
50
-14
-87
-52
-26
24
17
-33
-17
21
69
-24
27
32
-5
115
82
-68
-39
5
-104
65
-5
-1
59
-34
-18
12
-12
63
-17
16
61
-12
-42
45
57
19
67
18
-43
7
59
50
-12
-15
28
53
-22
19
-34
12
64
5
41
-30
78
4
-60
22
-127
-99
-65
-19
-59
48
26
60
-25
-6
-14
-1
2
-53
7
10
22
-19
-34
59
34
23
-28
-23
28
33
4
-1
52
-36
-20
50
-28
43
-42
77
21
-98
-68
53
-50
-28
-11
-30
123
-10
-12
-32
25
-17
61
34
-11
12
-40
127
-75
-15
48
-43
0
-37
80
-104
29
4
30
-39
-11
-41
-10
-45
-35
68
-30
-25
-89
-9
61
7
7
-39
-2
-4
40
-35
5
17
0
20
-41
22
-107
7
-57
-3
-5
2
-5
-18
17
-68
0
15
-14
43
-79
-22
-27
62
34
-33
-73
-90
36
118
101
-26
-21
6
-61
94
32
-31
-21
-16
3
-52
-17
-44
61
82
127
12
-113
-126
61
9
-70
-11
-110
29
-47
34
-88
64
14
19
-2
-27
1
-55
-33
3
55
17
90
36
44
90
0
9
32
61
-51
-47
-63
55
13
12
-64
-29
-11
38
22
15
-34
7
-14
38
-74
41
-38
12
-63
48
71
-23
-19
-22
5
-110
61
-80
-41
38
-38
-26
-91
-10
16
-28
29
53
12
3
-13
-27
-1
-59
-10
-5
5
116
-49
-15
34
51
-6
27
96
35
-53
62
108
-13
56
45
-59
72
-20
-127
-51
-87
-39
28
46
-29
5
-17
-15
32
17
-53
107
2
31
83
27
23
2
24
-57
34
-16
11
-102
5
-80
-62
16
-6
75
26
51
111
42
63
-93
9
11
53
8
29
-5
-90
-69
-23
9
41
20
-26
-42
-23
36
12
-57
-127
74
-20
77
-46
3
-15
-30
82
27
65
-11
20
0
-23
-22
62
26
-31
-61
75
-17
-12
-33
-57
51
52
-46
-43
-5
-83
73
48
-101
-81
-58
51
26
127
59
59
-38
20
21
19
-43
92
53
-58
8
-72
85
40
-81
49
-1
8
-42
-30
59
-31
51
28
5
34
-84
-54
-30
58
-72
-21
-11
-44
-63
23
78
54
62
71
-18
57
10
-31
19
27
-70
22
21
-80
-5
18
25
-64
11
-59
-3
-84
-17
37
1
16
8
21
28
-10
-26
-89
-10
-44
-7
-12
33
-20
75
-6
-46
-17
13
-127
-18
74
41
3
2
-21
-35
-10
-9
17
-1
-3
-30
41
50
10
20
19
-8
4
53
-7
5
23
-42
66
59
77
-50
-15
38
-45
-73
50
-18
8
-9
48
-30
50
-33
3
-27
-71
1
-33
9
5
-54
-26
11
9
-11
16
24
-10
-44
-22
15
28
21
82
32
-38
-18
44
1
-28
-1
-38
26
-19
-127
6
2
-14
10
3
-17
11
-14
-24
-3
-8
17
-22
25
0
3
-27
-23
18
3
-4
-28
-2
53
-27
-26
15
-35
48
22
-13
28
23
14
81
-8
31
-10
12
-2
-16
14
6
-8
29
-37
31
78
-17
-53
-90
127
27
124
36
43
-46
74
-9
-4
15
-14
-18
56
42
-95
-107
-102
-72
31
-24
-61
50
76
-77
-6
66
-60
-81
11
-32
-60
-67
-85
-78
69
9
20
-58
-68
-6
8
-1
-5
-41
42
-87
25
-28
-5
-8
-6
60
-20
-13
27
28
64
53
-69
94
23
12
89
-13
21
-15
-42
5
-6
6
125
-15
76
-47
114
-33
-20
-8
107
-20
-86
112
-41
-21
-22
-22
-23
-38
-56
19
-53
-21
23
3
9
59
16
-38
39
-74
50
-4
69
5
8
-82
-17
78
3
36
-39
12
8
-25
-7
-3
10
-53
42
65
51
-16
3
-62
-10
76
3
8
17
-19
-127
2
17
-9
-72
-54
43
22
-65
-4
-8
-26
1
-45
-29
60
-38
-126
38
28
22
-121
41
30
33
5
-62
-36
-68
10
-69
6
5
-79
-37
67
16
95
-19
90
57
92
-10
-30
26
-57
-24
-13
95
52
104
-6
-28
-4
-85
-50
40
71
42
1
16
1
62
-23
11
34
1
20
-16
44
2
28
-32
9
59
-44
-83
127
-39
-3
-26
-79
-29
121
-38
71
-28
-48
8
-37
-90
-7
-58
-91
39
29
43
9
71
36
8
50
101
-17
-19
8
35
66
-27
-45
100
-12
-30
-71
31
-47
31
-25
-48
-23
-40
20
127
-46
50
-21
-99
-24
26
37
-23
106
31
32
-80
-57
3
49
64
38
47
-31
25
-75
-82
32
40
113
0
-65
-34
81
80
74
32
-1
-52
97
74
-15
-60
98
32
-56
-47
32
-1
-77
-71
-53
-1
17
14
-104
-59
-15
22
18
83
32
-127
16
-10
-111
9
-17
23
47
-102
19
12
86
62
46
39
57
-64
-49
-3
3
5
-47
-19
45
79
1
-12
11
-65
10
17
-12
-34
10
-18
41
-5
40
62
59
107
30
-73
-18
15
89
-24
-43
17
83
1
33
-17
58
-80
-23
-108
32
-8
-69
7
-11
68
29
92
-83
-11
-104
-18
89
-87
-89
-17
16
-6
-36
18
-6
13
-31
49
90
61
14
59
21
-55
-41
-127
-14
-75
28
-61
48
9
3
13
60
-50
-48
33
-20
33
-63
-11
19
-39
1
75
8
81
-3
17
-76
84
65
-17
60
61
82
37
-50
-12
-49
10
-24
-48
-20
-42
85
-42
33
43
-45
-1
29
-16
-38
-48
-61
70
44
-39
-30
127
-60
-1
70
65
109
-46
11
-92
7
9
-2
16
-22
27
-7
3
75
67
1
-24
30
33
-61
46
27
44
27
-57
-48
-39
99
37
-36
14
-23
11
64
38
-23
8
-57
81
-8
-50
42
30
-87
-24
-51
14
47
6
12
55
24
21
3
3
20
-9
-46
-23
25
18
11
-127
-18
1
-15
9
26
44
47
-35
7
45
-40
1
-7
-71
28
-37
1
40
-5
57
-26
-9
9
39
1
13
-26
32
6
33
1
-19
28
-36
-62
-54
-46
21
20
12
9
14
6
47
-26
0
-53
-57
-1
-32
55
-15
25
38
36
-34
56
-19
23
111
-7
111
-41
-13
-58
55
-34
-21
-66
59
14
4
-6
-29
-54
12
80
37
-69
-64
-37
48
-44
-49
-26
-57
49
-106
54
-26
-22
114
73
101
-61
-5
71
-4
7
74
29
22
15
-27
-1
-44
19
-42
-35
15
46
-38
66
-19
-30
-26
41
52
-66
-127
-9
-37
5
-9
40
45
5
-44
-66
33
16
42
6
-6
33
-82
33
8
80
13
-14
57
-19
25
-10
-19
73
3
36
-1
-9
-85
17
-86
-41
-14
13
12
-11
49
2
98
-15
-16
0
39
-52
-53
4
-86
35
60
-32
-105
26
42
66
9
-4
-25
-40
88
-13
-86
127
-94
-6
11
52
-28
-21
82
-42
27
-8
-32
17
-39
66
-31
-8
63
106
29
-75
-15
50
25
78
-15
22
57
18
76
-85
-101
-29
24
-19
56
34
103
65
-26
-38
-19
-7
-24
27
85
16
1
-3
101
42
24
-81
-5
3
-20
2
117
28
-43
31
-61
84
127
113
-2
-54
1
10
78
59
37
-12
-71
-6
-11
-7
-50
-7
-6
-27
-15
76
20
108
-90
-26
-102
41
0
6
5
40
-1
25
3
-44
16
-9
97
17
68
-83
2
18
-76
-17
-91
-5
-5
-26
-93
62
5
127
-93
-38
10
-4
41
5
107
-31
35
-11
-60
49
0
79
46
93
36
-19
-16
78
73
-2
-65
0
0
-72
-22
73
-56
-18
59
-66
21
10
53
-4
60
13
43
-25
-46
-12
-22
-29
-6
-9
12
66
-76
-6
74
-55
15
45
-39
75
18
-13
37
9
-59
-38
-84
-117
-10
16
34
-43
5
-60
-47
-62
35
45
25
-29
-52
-14
19
47
62
82
-16
-8
-98
-53
127
23
30
-35
-24
-33
0
-17
-67
15
35
16
29
70
-63
-54
16
21
-16
45
-36
12
0
-7
-8
-62
50
9
-28
111
34
-96
9
16
67
12
-91
123
-93
4
11
-87
-29
47
78
-5
-19
-26
12
24
-15
87
-5
11
-33
47
43
41
-7
13
-24
6
-60
20
28
117
40
-8
26
6
-46
-4
46
32
39
63
-72
75
3
-1
11
15
-11
127
17
22
42
38
-69
7
12
-124
-75
-50
28
-32
48
65
23
50
-20
52
81
127
-56
-24
-25
-33
-4
-48
-36
-35
60
-89
83
2
-13
-4
-30
-103
47
39
113
34
-86
-79
52
-91
-73
-21
42
6
48
50
-55
-82
4
102
-50
110
11
-98
-52
-50
-38
-65
18
70
-46
24
1
48
24
25
27
23
-31
-35
-127
-58
-24
-65
-18
-39
-9
66
-19
-35
19
-23
8
85
95
62
54
-46
13
9
-20
-27
-79
-13
6
-59
32
-30
-45
-15
41
8
95
-74
6
-38
5
-55
22
62
61
-26
-1
-40
23
73
31
-1
30
-1
-114
-32
-104
-98
-7
-88
17
7
-66
-82
63
74
-87
43
22
7
32
44
-58
-11
-6
59
23
94
33
8
-7
-39
-16
-47
54
9
10
127
12
17
5
47
-30
-34
-23
-46
-11
-42
5
40
17
-64
-1
-45
5
7
3
13
38
25
6
-35
17
-12
17
10
-20
57
33
51
-56
-62
9
12
-3
-5
40
-31
-23
-39
8
-110
55
13
51
5
-20
35
-6
47
-127
79
58
-42
-3
-17
39
-68
-56
15
-17
-32
30
-60
-58
-18
1
-87
38
-15
-16
31
-40
-22
4
-21
5
127
1
41
-19
-25
4
36
-4
106
10
-15
6
7
-15
-7
-50
-14
12
4
-15
26
36
-5
-36
-13
-51
-16
-11
12
48
1
-22
6
-23
9
-20
-3
-75
-58
-6
-10
13
-35
8
28
-26
-2
24
6
-44
13
-18
-22
49
31
24
-10
16
-86
-7
75
12
15
50
61
29
-32
-12
-1
45
81
-27
-34
-73
39
-26
-55
-50
-16
28
-80
-57
34
-13
37
20
-29
59
21
-15
6
8
-21
75
-107
-31
34
73
-30
-17
16
-116
-85
101
6
17
75
-23
-15
-72
-38
17
8
45
-57
-17
17
9
-3
-3
82
-11
-55
71
-13
-39
-59
-9
-41
-2
15
-61
64
-127
-23
55
7
-62
60
-2
10
75
3
-76
22
11
-23
-86
-52
-60
-7
76
-25
46
-15
14
23
-79
-102
29
71
3
-73
-46
-45
-22
24
40
-14
-38
-4
12
31
-61
-49
34
14
38
52
-11
24
-127
-15
48
-38
26
16
14
-38
-14
79
-40
31
51
59
-59
-39
-60
-67
-40
36
54
-15
-87
61
-43
-66
-19
24
-13
19
48
8
-59
9
-2
33
37
74
82
-2
35
-18
63
21
-50
-31
34
-56
-119
-3
-17
-6
44
1
32
-68
36
0
-3
-16
101
-60
-30
-69
-23
-28
81
-5
7
-4
36
-16
34
-87
16
89
-55
29
-4
-23
74
41
49
45
6
-25
6
-80
-7
5
-9
56
-77
-54
-57
38
-37
-43
-41
-127
-35
76
-25
2
-9
-29
-8
50
51
-37
39
10
63
91
69
127
-24
81
88
23
-3
0
-76
-3
-50
25
66
29
-70
-45
3
-11
-34
-45
-81
76
-54
-71
65
108
39
45
-30
-27
-63
-37
54
-52
-35
-12
21
-82
24
-40
-61
51
-32
-62
22
-20
4
38
-79
-103
105
-60
97
51
-42
69
8
24
-5
20
84
-65
60
95
3
-17
-4
-67
-67
-34
-21
-6
26
115
67
59
7
-39
-11
8
48
68
-29
6
56
2
-53
47
-41
83
-19
81
84
-59
-13
74
24
1
35
-61
22
-60
-108
37
23
68
22
-27
4
-13
57
-54
99
33
43
78
28
-25
41
-74
127
-31
-26
16
10
-1
6
-44
58
22
-19
-34
50
31
-26
28
64
-87
-9
-24
-27
107
-11
-17
-9
10
10
-27
-14
-25
-48
32
-25
-12
10
62
-30
-22
-51
21
26
25
28
14
26
53
-31
19
43
39
57
116
-11
36
-15
7
-20
93
47
74
11
15
-16
3
-72
-66
8
55
127
2
1
-13
-99
-28
17
10
-27
10
79
36
22
0
-16
-18
-38
-126
24
95
66
73
27
23
127
-18
38
45
42
92
39
16
-1
28
67
33
-24
18
31
113
-114
-56
17
-30
74
-6
54
45
-55
0
-95
6
-77
26
113
112
-70
-39
46
-21
102
-12
112
27
-41
78
20
69
-66
-77
98
96
78
-25
-17
-35
-59
81
-42
19
-22
39
21
45
2
-3
76
7
-33
58
-33
116
1
2
-119
13
-86
5
5
64
-63
-18
33
19
-17
127
-8
0
49
-66
96
-34
22
-101
-13
-55
-8
-20
-3
-14
119
17
-26
33
-5
-12
-18
-14
11
-69
7
-25
83
44
-3
17
-13
-10
-26
-53
48
-24
-46
13
12
-65
-89
-30
23
127
-38
-27
-32
-21
-65
-17
37
-4
52
-11
13
-24
23
38
27
-15
-127
-9
-40
7
0
-33
-38
41
23
-36
-41
21
-47
18
-29
-36
-79
-85
59
-48
-36
38
-23
22
-25
19
7
-28
-12
57
37
-16
-8
-18
-31
-2
5
-31
-33
115
-92
-20
49
15
10
-24
7
2
-30
62
-34
28
36
-54
41
0
-84
25
49
39
16
-15
3
28
118
43
-18
7
97
-94
-55
-24
36
-40
29
-73
-44
-39
-43
95
-73
-50
-63
43
55
-114
56
-127
-23
-4
122
26
-55
9
-53
29
-2
68
-50
-43
1
-56
33
47
-52
33
102
-98
-2
-80
7
47
7
-114
69
7
40
-87
-30
-39
-34
54
-26
23
29
93
-70
27
-80
-13
-9
-54
27
37
69
-66
-32
42
78
81
45
22
-44
50
10
-44
-31
-41
-29
44
34
5
-17
57
-56
9
-67
-13
-33
-4
7
-25
-73
-12
-36
14
51
-53
-30
5
-8
16
66
13
-22
-24
24
17
25
23
-42
18
39
-50
-13
0
41
31
-54
0
-4
-83
6
-35
-25
-10
-127
49
-1
59
-3
37
-28
-69
-16
-3
-37
44
-1
17
32
115
38
15
-52
105
-56
-7
-71
-20
-25
6
32
64
-25
8
-23
-12
-90
-93
-33
19
-43
-70
-49
17
-46
-32
27
-72
-15
6
2
-38
90
-52
10
113
-29
62
-13
28
-21
68
34
-36
-119
20
-3
45
-15
47
-11
-58
14
-73
-7
-71
-34
13
-19
34
-27
78
21
-10
67
-20
-70
-7
-28
-43
127
43
35
-29
-33
0
100
45
-14
-56
-1
96
-41
34
10
30
-30
-77
12
72
-32
-22
-17
13
-32
3
-57
31
6
121
-51
-38
-19
-67
12
60
78
20
17
-19
-31
-27
-127
53
11
67
21
-46
63
9
-7
11
119
38
-6
18
-13
46
42
73
-26
8
33
-31
-49
71
10
-85
3
-35
17
-40
-32
-1
22
-26
-28
-20
-40
9
28
76
37
5
26
11
60
2
-111
40
42
10
42
-18
51
68
-28
-60
97
-26
-42
56
-67
-52
127
43
-42
21
-13
-51
57
17
45
42
40
-35
17
102
24
28
-58
-24
53
-6
-51
-16
-32
51
57
40
-81
51
-113
-12
-75
-56
30
13
27
-69
46
7
-73
14
-6
-32
23
-32
77
2
13
6
47
-16
23
-22
41
-57
23
14
-84
-84
-27
-60
51
-18
-15
35
-8
36
66
103
-35
-61
40
40
-43
-45
-60
-127
48
97
-62
-25
47
-104
-56
-90
-65
-31
10
-66
-59
66
-1
32
42
88
60
50
5
27
-7
46
-34
9
23
27
33
34
1
-18
-20
-11
38
-16
4
1
-10
66
-40
-50
21
12
-59
-34
-44
43
-13
-18
-42
15
-19
21
-17
-32
30
31
-24
26
4
-7
32
-74
12
66
-5
1
-36
7
-74
-93
70
53
48
5
30
-16
-7
-39
-18
-1
50
-2
60
-56
-56
-7
-14
44
36
-92
36
-20
-127
-30
-4
-44
44
-11
-74
39
-44
0
-16
16
-74
-27
26
19
13
-35
30
-27
62
-52
30
16
-44
25
20
-26
-49
-72
19
-8
8
86
20
46
26
75
-54
23
-52
-82
-35
34
54
-11
26
-26
1
74
4
3
2
-23
-26
20
-126
55
-35
-42
35
49
-58
-30
8
-15
-33
4
-127
-37
-14
23
29
-42
-4
26
27
-2
-50
29
-27
-79
17
65
19
-16
-18
-109
32
8
-42
-1
25
64
29
-81
21
-38
66
12
39
73
11
26
11
117
7
113
-26
70
-66
-84
-19
-2
-29
-74
4
9
-65
-15
46
-17
-32
-22
11
-65
69
-82
-18
-83
-75
-18
15
48
-104
45
13
-1
-83
-47
-2
-6
-14
-45
12
53
92
99
6
-12
22
-70
86
-33
-39
-2
32
-127
-54
-3
-48
24
-40
27
-35
-44
-15
31
-29
9
33
-10
1
9
57
-34
-52
14
26
-17
-52
-13
36
-56
16
12
47
-7
-28
-13
7
31
-2
15
41
4
29
12
-19
-37
-20
-127
10
-13
24
-43
-3
3
-54
1
-2
-3
12
14
-18
70
-40
17
37
1
54
-15
35
-25
-22
-20
-12
-29
104
20
-77
51
16
84
-64
38
-14
-69
-57
3
-10
19
111
-49
43
60
-49
-11
-8
-51
33
34
-55
-79
-27
-33
-25
34
43
7
-16
-23
15
8
-7
-1
61
-9
5
-69
25
41
-13
25
-45
-19
8
27
-86
-42
-127
48
7
63
-20
-23
56
10
-74
10
-1
-44
17
-53
-56
-9
-23
-10
-22
18
31
55
-11
-56
56
6
16
33
-48
7
-25
15
-62
-14
-14
0
-44
-13
-4
11
-56
-40
-9
-66
-4
11
127
-30
24
43
-55
-13
-32
8
-5
7
-1
-4
22
-36
40
10
-10
-26
24
-3
1
-39
-5
-52
3
-49
-6
-27
-10
-6
-44
14
1
27
10
13
8
41
-12
-25
-22
7
50
28
-27
0
-15
43
31
48
-103
-10
25
-36
-31
-43
-55
111
14
-14
40
-27
14
31
46
-91
63
35
-18
-33
-19
99
-73
-26
84
-72
-24
42
-27
-11
-29
-3
108
-28
51
71
-54
-74
-102
50
-70
51
5
-102
-79
-42
-28
11
-6
-127
26
-35
77
-54
19
45
12
-69
-102
6
63
37
-18
-82
59
9
23
-17
9
-22
3
6
-20
35
95
14
-11
-47
-54
31
21
107
-41
-8
52
1
5
-48
-26
44
-23
58
-37
36
8
13
27
-111
-27
68
12
79
48
20
6
41
127
39
11
46
-30
45
-38
-83
47
90
-51
9
-121
-12
23
59
-74
-50
43
55
93
-45
-82
2
-56
3
105
24
-40
41
41
25
-46
-8
101
45
1
14
-14
9
-16
-43
19
-82
-4
1
80
-16
17
-46
45
20
31
19
70
-16
6
30
10
-15
-17
-15
4
-38
62
10
-29
-127
-22
35
-49
-9
22
2
15
-9
-32
-41
10
71
-11
-67
-10
75
26
4
-94
28
45
25
-26
-41
-18
57
-12
-18
28
-2
-22
-37
-30
-39
21
-59
-20
-19
47
17
-35
-24
-18
85
5
33
4
19
-33
46
-29
-67
-12
-25
55
43
-25
98
59
68
-42
-5
30
39
-22
28
-31
68
6
-21
-36
13
88
-83
-26
14
1
-99
61
42
-53
-42
-27
-2
45
110
-33
-40
-66
58
78
-94
36
57
-22
33
-40
-53
-53
83
-23
77
14
-40
127
52
-51
-40
-73
-12
47
11
5
-16
42
4
55
26
-25
-9
-53
-1
-21
16
4
14
16
-23
66
-5
-17
-57
43
-24
35
-35
34
59
12
55
-3
-13
-10
-7
-3
14
29
28
-18
8
71
18
-29
-10
-14
-12
-16
12
36
-13
20
82
-33
34
-5
-87
-17
127
35
49
62
-69
1
12
-5
-27
11
1
60
-26
-6
33
4
-14
-19
83
49
-47
-29
47
40
-85
54
53
81
16
-54
127
24
114
68
-9
106
-16
-81
35
-89
10
-22
40
52
-30
40
-35
-18
-35
-44
-56
48
32
5
14
-29
89
-71
31
-87
43
7
-36
2
-51
-29
79
23
29
18
20
-24
-73
-3
-23
-6
-8
-43
-55
15
0
99
30
71
-10
19
-69
-9
39
-44
-3
-38
43
-3
40
-25
-72
127
-31
53
38
35
25
21
64
3
-89
-64
-54
23
43
-61
108
7
106
33
-46
-48
-126
80
39
79
-46
112
-86
-3
-58
-59
-91
-33
49
44
1
88
48
-44
9
-33
-5
11
11
-32
-72
32
13
38
79
-86
-61
67
37
109
63
-114
-80
-31
-98
-1
-75
-66
27
26
26
10
18
8
-37
-100
3
-62
68
1
49
23
-5
104
-12
-44
2
18
-19
-52
24
50
35
-68
-79
89
-16
-20
-19
-33
-6
89
90
-68
0
-6
7
16
4
34
28
18
-71
-52
50
17
69
-17
-3
-15
5
15
-15
-49
13
2
-25
-127
-26
-47
-8
-46
15
26
-31
-58
9
-41
28
-13
14
-9
-35
-12
-17
21
82
-1
94
-17
43
72
47
-40
-18
3
-8
-12
-81
-120
-54
7
-30
31
30
-11
54
-40
-12
-17
-1
53
-35
58
41
-51
-30
-44
5
3
76
15
84
15
-54
53
84
3
-43
42
-27
124
-32
-67
-49
-21
-16
84
-11
-23
-96
-25
-12
-127
24
25
83
-28
89
48
9
34
21
107
-2
48
-60
-10
75
-13
33
-40
-70
55
8
52
72
-21
-11
11
-4
-41
73
-42
62
-84
20
78
14
-48
21
-30
44
-19
44
47
71
-14
62
1
-36
-64
38
-94
-7
15
-12
-40
80
37
13
-8
4
103
63
30
-127
-58
76
22
96
27
26
28
-4
1
0
51
-1
109
64
-54
61
13
25
48
21
-69
1
68
-1
-70
-9
-31
-6
-125
-11
-21
-53
7
-49
33
-8
-27
-11
-7
-66
40
-27
-35
58
4
1
21
-12
84
0
20
4
85
18
19
78
-19
-28
-103
30
122
91
6
-40
14
-30
-14
46
5
15
-16
-35
81
-1
45
41
46
-28
-63
127
61
24
-83
-49
35
-42
-13
-29
14
7
-9
92
85
5
31
27
-68
-30
-1
-92
-15
45
35
-22
-25
44
36
1
-36
-73
-42
-50
10
-45
-35
-36
29
-55
23
-29
49
-27
-12
4
-4
-46
15
-45
37
48
6
-38
-21
-27
-4
-38
-18
19
-28
12
1
16
-45
-63
-15
16
-12
-25
-80
25
-14
13
-47
58
30
8
22
12
5
57
-12
127
5
52
-53
44
21
13
38
-5
10
14
25
50
72
50
-36
12
52
1
96
31
71
-1
86
65
-62
29
60
13
-46
30
54
3
-1
-58
30
53
59
51
16
-29
-4
29
-103
-13
3
-3
17
-10
-127
27
57
-10
75
70
44
34
58
-76
-12
-18
41
41
27
-17
22
-4
-28
-56
-42
-3
32
-22
36
-24
-74
45
-1
-57
49
-31
60
88
33
-8
-2
24
52
3
58
-19
57
58
-11
34
-22
24
-12
51
35
-58
-26
-12
33
-64
-21
-48
44
2
12
28
-18
-28
0
-11
84
-3
-52
11
23
10
60
-32
-37
11
80
-41
6
-60
-49
68
51
-24
37
-15
-72
44
-25
54
127
-20
-35
19
9
-19
-22
8
-82
0
4
-36
22
-127
12
-21
47
63
-68
-47
77
30
83
-40
-61
-29
-26
-30
-86
3
71
-11
-58
-26
39
-62
26
-45
-58
-28
-10
-4
-62
64
-31
5
-31
-13
5
-37
-74
-13
-24
76
54
-2
-85
40
46
-49
-42
-99
-48
97
-26
33
-27
22
-21
73
-22
86
13
2
-2
-3
76
-44
-50
39
40
22
50
62
-4
-9
-3
10
1
60
-53
74
-12
-16
-40
-9
-10
30
-17
11
81
77
-66
51
-4
29
-85
-33
57
92
6
13
-16
-25
-13
75
-31
31
-21
59
-10
12
43
35
72
-30
-50
-24
-27
-39
53
12
23
18
33
-18
6
-32
-25
-24
30
127
15
47
-10
63
31
4
-5
-106
38
-54
-48
24
-39
48
20
-61
-19
-23
-1
-10
-65
-27
46
14
6
40
69
-43
-71
-24
85
28
-32
-40
-26
91
73
39
-24
-7
6
42
-26
31
62
1
104
2
-2
126
-3
-47
90
48
-17
102
-58
42
-24
5
83
5
-13
22
0
-51
-54
101
-50
27
26
-59
-127
-31
-3
38
34
28
-8
21
50
35
-28
-5
-79
-29
-56
-87
-2
29
27
-49
23
-4
44
45
24
19
35
-38
12
2
-28
-17
3
4
4
4
36
8
-74
-127
23
24
-22
6
37
-35
7
-33
-39
-38
-9
9
-18
-62
21
46
5
20
-56
25
40
-4
-9
-58
-29
67
-17
16
-1
-14
62
-52
1
-38
15
-37
-19
-6
39
-4
-54
88
-18
-46
-21
-4
-50
-18
-41
27
-31
21
-7
11
58
23
-25
2
-10
-76
8
-65
81
-58
-53
-18
53
-54
38
-19
43
1
-49
48
24
82
40
-6
-63
4
-78
-35
25
38
-63
4
35
43
11
14
-21
73
107
-64
-31
4
19
75
-74
17
7
16
4
-2
-119
-127
28
69
-16
17
43
0
-6
82
57
-23
10
-84
38
11
-47
3
-74
48
11
-5
34
38
39
-11
-33
67
-40
-18
-13
12
-25
35
-127
-15
29
14
-46
80
-24
-48
50
56
-10
1
36
-12
-20
-30
12
77
11
-35
6
41
-54
6
12
15
47
-59
-48
47
73
-24
-65
78
-10
29
6
-30
21
-12
-16
-38
27
80
32
-20
-1
36
24
5
77
36
69
47
-7
-73
19
44
-23
-10
-40
3
-40
13
2
33
-6
30
97
48
-31
69
58
-7
-90
13
34
16
-17
51
4
-37
-45
10
-7
42
55
44
-49
-22
54
51
4
-54
-5
-12
21
-127
-31
-16
-20
25
-69
-16
13
-60
8
11
51
84
25
13
-56
57
70
63
-23
-49
34
79
51
-121
59
-20
-19
35
31
47
32
33
-21
-1
-32
-30
-21
46
38
-127
7
46
53
-103
54
56
22
10
-54
61
45
9
2
84
66
9
-38
30
12
-26
38
17
52
-17
-78
13
30
-64
34
-38
85
12
-13
30
-9
66
40
18
-11
-5
31
37
14
-8
-56
4
46
2
-27
18
29
-93
53
-23
-34
29
-37
21
-34
-34
-78
52
-35
-9
-18
-47
127
83
-21
55
11
2
-28
-40
17
-41
3
26
53
-20
53
-46
-18
-42
47
2
38
78
-17
-30
5
-13
-72
-5
-77
-2
44
104
-81
9
-17
-48
-59
41
-20
-47
-68
35
-35
0
21
-32
-27
54
-9
-46
44
72
-34
-13
-40
38
60
-13
57
