30
-68
-11
127
-31
18
52
-88
-44
-47
-94
127
-49
-109
-49
38
31
-127
52
23
17
-36
-7
-45
127
21
-51
-20
-103
-89
-1
-88
127
-127
-63
-100
-2
15
-20
127
-24
-39
6
-52
49
8
-28
13
4
26
-10
-97
-29
-17
-110
0
-127
-118
-96
20
-103
-53
5
40
-106
97
-81
-50
-87
-127
-127
-127
127
-29
-23
-83
36
8
62
21
6
-57
65
-29
-52
-79
47
-127
28
-2
63
-72
-5
55
-78
65
70
88
-22
-1
-120
-69
50
20
-1
20
-58
-124
-28
54
-26
-45
12
-75
-35
100
-37
-6
20
-125
66
-98
-19
34
13
11
-112
-54
-82
-50
-116
80
-2
-127
14
-55
61
91
31
60
-78
-44
-77
24
38
127
-23
-45
-39
-61
-6
47
-28
-15
-1
-20
28
-118
25
-57
25
-63
-78
-118
14
-77
-91
-127
20
-49
127
40
-127
-123
-82
-127
-87
58
65
-14
5
76
-127
-37
-112
-66
-127
127
120
0
-110
-103
-127
-43
-26
-41
127
33
-59
-41
30
-126
-73
42
-99
-109
6
-124
-25
-61
-21
116
98
-62
-90
98
-73
-22
-12
3
-83
127
111
51
-40
-73
-34
107
-42
-59
124
105
61
-56
-48
-92
84
43
-8
47
110
-67
-58
-65
-1
66
-47
-53
-32
-55
45
-68
3
-31
31
75
-127
-8
9
-23
127
6
24
-64
5
-47
22
-127
13
-20
37
24
-45
-8
24
-40
127
28
33
26
-111
-39
-4
-47
-31
-22
-42
-86
3
67
19
-52
5
40
-43
47
9
-75
-18
20
-127
16
3
-97
117
10
13
-44
25
-26
-36
-98
21
-62
12
-18
10
40
24
118
74
44
15
66
2
9
-33
-2
45
46
-11
-27
-42
3
13
-110
-40
37
35
2
-3
7
-127
5
87
21
109
7
5
16
55
57
46
-101
25
-48
-80
-65
-77
40
-65
117
-56
-9
10
-111
-41
-68
28
127
-127
-46
117
-109
-66
-117
42
-1
-124
-59
-22
-73
-10
-35
-50
-127
20
127
-67
-29
-48
-37
-45
-59
127
-44
-127
-52
9
-59
-105
43
-104
-102
-34
-17
-88
-8
-94
44
63
-89
-61
-28
1
-127
-71
-6
127
127
-104
-26
127
-86
-19
-127
-43
27
127
45
1
72
22
44
127
-43
-40
101
-60
127
-65
-6
-52
114
-73
52
127
-70
-88
-76
-90
-125
127
112
61
22
43
18
-4
-28
63
-119
-41
-13
49
-64
-95
-54
118
-101
-51
25
-27
127
11
-21
32
56
-8
55
22
-50
-127
-85
-35
-127
52
26
54
127
-80
-3
97
-87
-34
78
-127
-98
-127
-127
-43
-31
-68
-69
-64
50
-72
-31
4
29
-33
118
-9
28
-39
90
-65
9
60
-91
12
2
-127
127
44
-127
53
-31
55
-121
-86
-32
5
-127
-4
2
118
37
1
-127
6
-86
88
37
-80
-76
21
-107
-35
127
4
-127
-73
-16
-67
-68
-22
-65
-50
54
125
-99
8
-27
8
-71
-2
81
20
40
22
-83
-24
72
9
-15
-34
-84
-51
-43
127
-85
127
-36
127
-68
-5
103
-100
-127
79
-41
127
47
-104
-47
-1
-52
127
-78
114
-55
-100
10
-3
-27
-127
73
40
-49
9
-74
53
-127
11
5
-66
-117
-65
-4
71
14
-127
-105
-123
-127
-116
3
-77
-89
-24
-35
-107
-37
-79
97
92
3
5
-127
71
-44
-56
-19
-34
-5
125
82
