28
-12
-22
-30
-47
-51
-5
21
13
-67
-11
13
-34
75
-32
-36
29
-58
-8
-66
-48
8
15
49
18
97
-96
76
55
-67
84
75
-22
70
15
-7
21
-51
-11
1
27
-42
84
5
-53
28
27
-30
13
27
10
40
45
108
-127
38
-9
-97
14
-121
-5
-50
71
-10
116
-112
-57
-83
-54
-73
9
56
18
-68
-35
58
-70
30
-31
40
16
-40
-122
112
-19
-31
16
-10
17
-51
-41
1
7
34
-8
10
-54
-78
-13
85
-18
56
-17
-4
-20
-78
16
91
86
-4
-91
20
0
1
21
56
-53
80
16
37
-21
117
-33
56
81
-67
-32
102
-46
38
52
-33
-38
82
-75
27
108
-48
30
45
54
-14
6
-2
-34
-36
-39
-10
95
69
-127
40
75
-64
73
-21
-36
-26
44
-34
20
35
18
-101
20
-14
-95
36
10
2
-64
17
-39
91
-25
-41
72
-5
-100
89
10
-33
-1
-32
36
25
-95
33
34
58
-81
42
29
29
-23
-31
-25
-51
-9
37
-57
-5
44
-25
-49
7
-21
62
-15
1
-6
0
-14
57
-11
29
-23
59
28
10
-49
-38
46
8
8
87
23
39
31
12
97
-7
-1
-18
49
-12
-22
-1
2
21
18
30
-23
-12
64
18
-2
-3
-9
-10
7
127
20
26
-28
-33
51
5
3
-25
-5
-29
50
47
-29
54
7
17
3
-16
47
96
-36
-28
41
7
-38
34
107
-60
35
57
19
4
-22
63
-28
62
54
19
32
62
4
22
25
86
-101
-26
-4
61
59
-91
33
54
33
30
-32
-13
-18
-16
-78
-18
-28
18
70
-8
104
14
-21
57
16
-16
-80
-91
-46
-12
-26
-40
-47
10
-59
33
15
2
20
39
-66
34
-8
34
40
-13
91
-56
-35
59
-22
127
-24
-1
12
28
-36
6
10
-5
-9
63
19
46
17
47
55
23
-85
32
7
-11
26
83
39
-29
-16
7
33
-53
-52
14
-13
-53
-13
54
36
52
-11
35
-20
-86
-11
-26
-50
-27
-44
68
-7
-58
-17
-53
-22
-3
-15
21
10
27
28
-21
-45
-8
-13
-4
-1
-1
-8
-43
51
7
-119
0
15
11
18
14
-14
-2
15
0
59
-60
-45
16
-44
62
-26
-109
-2
-106
36
-21
-60
48
29
-43
-121
-4
19
24
-21
-25
55
27
34
-47
-15
-84
51
-1
-54
-87
61
-43
43
-47
-3
16
-127
-28
16
17
12
-108
-7
-68
10
-34
-26
-83
28
17
20
6
23
47
-59
9
3
-6
127
-31
4
-55
-31
-63
20
-23
-24
-57
-18
-19
-21
-27
-3
-44
26
-7
39
-92
-43
1
-22
8
-75
-8
29
3
20
-22
-26
9
-17
5
-62
22
37
-4
-11
17
-14
4
37
-35
-66
27
-4
44
39
-52
-32
-26
-48
22
36
51
74
33
8
52
-24
-13
-6
-55
-38
-19
2
37
27
33
15
-7
47
49
84
62
-54
8
7
-59
-37
-26
-51
12
-29
-6
-11
-53
-34
-60
-20
72
-5
-11
120
-23
23
-51
53
115
16
-66
66
-87
-32
-88
3
-59
39
63
61
-16
-9
-46
-4
-102
38
4
24
127
-32
-45
-51
-86
-36
-46
-86
35
-64
18
26
-36
-58
46
-46
1
-62
-17
-38
40
7
57
-29
-48
54
54
32
105
-38
-66
-29
51
62
73
-81
-63
-12
-2
-30
23
-91
6
12
-102
-5
-22
-22
45
30
-83
34
-12
-9
-45
73
-61
-79
74
-111
28
1
71
-52
-45
49
-112
56
-63
76
38
67
32
-9
31
-11
-39
-13
-7
54
7
70
48
24
16
14
-69
31
1
6
-126
17
26
-21
-127
-31
-28
-87
-84
76
-31
25
68
5
-15
-20
6
0
62
-63
50
87
-36
13
44
-4
66
43
-71
44
-65
10
-22
-37
-3
6
-22
51
0
23
32
0
68
2
-54
47
-3
-28
-72
-20
-13
44
38
-27
-28
91
-26
38
-17
26
17
44
-20
-37
25
-39
-39
-14
-31
-14
-33
32
-7
-67
-48
88
42
93
32
-24
-35
-16
-21
25
-84
127
-18
20
-47
-6
47
2
-12
52
-46
23
-58
42
-64
39
-44
-9
-10
-56
-107
-19
26
23
49
-57
113
-88
43
109
9
-124
81
62
-20
-54
52
-41
-24
38
55
3
-109
-35
37
85
16
24
-33
13
23
20
-1
-56
-10
-90
-39
49
16
-44
-121
75
1
-55
-123
-11
26
6
-48
13
-42
0
-25
31
2
13
41
51
-13
-27
-11
-59
-45
11
-72
14
16
9
30
50
44
-21
-9
-77
-36
40
105
39
39
6
1
34
-97
35
-73
-54
-8
14
-34
46
42
-57
-6
54
-45
-83
24
87
-67
59
-80
65
-49
-89
-19
-50
-34
49
50
10
-49
79
56
28
65
18
76
-71
30
-30
8
-24
19
77
-69
-11
-32
2
-11
-69
27
-20
-72
-60
-61
-50
45
38
48
-3
63
-127
-52
-6
-14
78
17
-51
-3
62
25
-72
69
8
36
16
81
20
44
-85
12
-40
0
29
-71
50
34
-36
-10
0
85
6
-30
-77
-22
65
63
-6
2
-51
-29
8
-26
-15
1
11
-29
-22
-6
-59
48
29
-11
-20
59
4
-34
-9
-21
28
11
-68
58
9
-69
13
-43
-32
-11
-43
-30
127
-32
-72
10
-21
-16
-21
14
-18
-47
39
13
-18
77
-10
5
12
64
0
70
-15
14
-44
-77
69
-15
42
-12
90
-60
-74
-12
71
-40
26
28
-37
90
-21
60
75
21
3
-12
66
17
83
-12
127
-48
56
50
-76
58
-32
-14
44
28
8
20
-38
62
39
-60
31
-36
1
-26
13
-38
-22
43
12
-40
-9
-2
16
-29
-21
33
53
69
1
7
9
11
1
-30
-17
-14
-12
27
18
22
23
91
48
-6
6
30
-69
-24
-7
3
1
-61
24
-27
0
13
-1
15
-32
-60
-5
-38
-15
-31
-9
-2
-41
15
-60
11
2
-27
-15
-28
-7
45
56
-36
15
64
57
39
-51
6
-37
50
-5
-5
-35
-23
74
-9
29
49
-39
-64
-7
14
37
-28
26
-35
12
5
-34
-7
-53
2
34
1
-26
-84
19
-9
74
-25
-22
52
-23
-29
63
-72
28
8
-7
-30
25
28
39
54
-13
-24
-21
-52
-13
-4
40
55
27
-23
-61
-36
-32
80
88
15
-54
-127
64
7
3
36
-52
26
31
-34
60
-17
-91
-36
-49
-11
8
61
-8
13
-47
-35
-20
-77
18
-24
39
-64
-60
24
-3
34
9
33
24
-69
53
-73
67
-17
-43
94
17
69
-5
6
-74
-58
89
34
23
59
22
-31
46
-54
-74
-8
-22
-23
0
-13
-29
32
-106
-4
29
-1
68
-11
65
-12
85
57
0
22
15
-24
30
82
72
-19
36
-54
10
-127
51
44
46
15
-35
11
50
18
8
-9
61
21
-38
-21
52
6
52
6
56
-59
-27
38
-42
-47
0
-56
-18
49
-72
6
31
-3
89
-89
-28
-10
71
-98
43
-28
-3
38
-56
-41
-17
-18
-11
-18
-4
-38
-72
-21
-66
-92
-1
2
18
8
0
66
-36
15
-59
19
-19
39
-28
-4
-14
11
58
81
-35
61
62
-12
-7
25
-29
11
60
72
-32
26
28
70
56
6
68
-46
15
33
66
-65
5
18
62
7
-1
-47
-15
-93
76
-40
-39
0
-5
84
-28
-39
3
-46
18
-15
-20
50
77
16
21
20
-49
97
-66
-30
23
-78
-74
54
-45
17
68
46
-51
66
127
-12
96
16
12
18
1
35
-63
5
-13
-9
-40
1
54
-50
34
18
127
1
-6
75
3
-14
-78
-66
104
-21
-11
-49
-3
15
52
33
4
-80
-15
-24
18
19
-76
43
21
67
36
32
5
-61
-20
7
-13
1
20
-54
67
118
-9
44
1
78
-6
123
-32
70
-18
30
-97
-52
20
10
-23
29
50
-39
28
-19
-9
-55
-1
-34
-88
-55
44
100
-56
-57
77
10
-43
20
-96
-14
-77
65
-3
-51
66
40
24
1
12
-1
22
10
-36
-48
-87
5
-26
-60
-25
-62
-25
-42
60
-7
-17
64
109
-16
-7
-46
19
10
-46
-21
37
64
58
-63
33
7
-52
20
46
15
-88
109
-64
5
-17
1
-15
46
33
7
127
-49
-49
18
19
39
-31
83
68
-82
-125
4
46
-6
-64
36
5
27
-65
15
22
17
58
-73
-69
-13
23
2
-17
-60
-34
39
-34
-39
-34
-47
84
-11
-45
41
36
-5
-12
16
-82
-48
-23
-1
8
-37
11
17
43
34
-67
-1
12
-12
14
15
53
83
12
-46
5
10
71
-38
30
29
15
-12
-7
35
-18
-63
41
-3
38
-13
48
1
-39
-4
-23
22
-20
-17
70
38
45
15
-1
21
51
12
-28
56
48
0
22
-47
-36
-96
127
6
37
18
-48
24
-60
16
3
0
41
33
61
23
88
-13
-18
82
57
-7
18
6
-58
21
5
-66
-41
-46
-21
12
-26
-21
25
7
56
30
60
7
-39
45
15
59
-32
56
11
-34
-45
-23
-28
-73
2
-71
14
-125
0
-26
90
-29
-106
17
65
8
-2
-58
76
37
-11
-105
67
35
-26
51
12
1
-57
-6
68
-19
-22
31
66
38
-32
25
6
7
55
-6
90
-41
-44
44
19
45
-56
-11
44
57
-39
127
39
43
4
9
-37
-14
16
43
3
-46
-28
-105
-91
-31
-51
22
59
-36
-51
-5
3
-7
-96
-63
-54
11
-51
18
-46
38
2
16
-77
-6
25
109
21
13
37
94
13
43
1
-34
10
-36
-91
-39
-61
-98
4
-29
-2
10
-91
-66
4
-17
87
-46
4
7
-20
-18
-36
12
-15
19
44
-13
-13
39
23
26
51
8
1
94
-58
26
-8
71
27
33
17
9
0
30
-22
-13
-127
-6
-13
-46
30
14
49
-18
-35
27
9
-22
19
-8
-45
-42
-30
-6
13
-124
-4
38
-13
32
53
44
-44
-57
30
-66
-60
-46
1
29
-113
-37
24
10
-36
62
6
-32
2
-17
39
-29
-25
-1
32
47
9
12
-1
-4
-8
-32
12
-27
-32
57
60
-25
-2
5
-67
-21
-46
19
-55
-28
50
-67
16
3
-36
-28
-1
109
86
10
58
-69
1
-11
61
15
16
-38
102
10
-90
89
34
-32
25
-62
36
-31
89
-22
102
22
-127
-57
49
-45
-79
116
-36
49
-59
-29
37
-5
1
24
60
28
-26
42
56
-15
15
-10
68
-56
-22
-1
8
25
-42
76
89
-34
62
-36
-48
28
22
-4
55
-5
-75
-58
-14
27
-42
33
-35
-62
-30
-24
4
25
-58
14
-112
-64
11
-19
40
-18
7
23
-54
30
-31
19
-30
-17
-30
38
-13
15
58
36
-19
6
5
-39
-49
-53
-20
-60
16
59
-65
13
19
14
10
-22
45
31
-17
0
49
19
-42
-3
127
3
-58
24
-2
44
-14
-23
-19
55
0
-114
60
19
80
78
-20
50
-4
-84
51
48
-42
-22
70
-4
-51
57
31
-15
36
43
35
48
-4
20
52
82
56
25
31
32
-107
-43
-40
6
23
-36
48
-18
59
-34
-11
-5
74
-37
-6
10
-13
4
-3
18
33
-13
-37
-25
71
24
26
21
32
46
9
22
10
44
-127
-23
-127
45
-42
-5
85
-3
-40
20
21
-28
-55
-43
4
-29
18
-13
56
-14
10
-15
48
27
-17
23
-83
32
35
30
-38
-50
57
50
-5
45
14
27
-29
49
-14
33
20
-62
42
15
11
65
-17
14
25
-55
-17
22
-13
44
43
73
-26
-34
-13
-68
116
63
23
73
97
42
75
-76
46
-7
-24
-97
-35
12
-28
38
-17
-7
75
98
35
-65
14
22
102
-16
-17
-91
-46
2
-39
-5
6
-103
19
-6
-12
-94
-53
-11
-18
2
-50
45
-30
1
-15
-29
2
-31
-39
73
5
-43
-11
8
24
-31
12
6
46
78
8
81
8
50
-127
17
-38
10
-94
-116
34
42
44
59
-40
3
59
-21
91
96
36
-38
34
-38
-37
-8
-48
58
-13
-86
-46
-101
76
-86
42
25
18
20
60
39
34
104
-25
33
46
-24
-16
-26
20
-2
41
-23
16
8
6
-41
-19
-38
1
-34
21
0
-58
37
-6
-69
81
64
4
13
23
79
22
-16
-50
8
31
-20
33
-25
-31
-20
11
26
38
-3
18
-40
-14
23
22
40
48
-22
-53
17
-31
13
19
46
13
-1
28
127
-58
-22
29
71
-32
-39
-18
52
11
-22
25
-32
38
-17
50
87
12
14
-28
59
16
-17
-28
-29
15
-30
24
-10
-105
12
-21
9
-10
-24
-18
-31
56
-66
32
4
-11
-63
-7
-60
-31
-12
-5
23
13
-28
-41
-39
4
17
-25
3
49
-55
-24
22
-51
39
-48
-2
33
32
32
35
11
-65
38
-52
-45
-14
41
-72
30
-50
-6
-27
81
2
6
-12
-1
-25
-48
54
-12
18
-12
-18
127
-61
25
3
9
27
8
-61
27
-36
17
-56
-11
48
31
-13
-56
-24
17
-58
-7
-65
81
-3
-2
11
32
-47
-27
-11
4
58
16
-67
45
-40
14
0
59
-37
81
-5
-7
32
-73
2
21
-10
-12
-20
-16
-67
35
64
-26
-57
54
58
-22
-17
17
9
46
64
-19
27
-21
35
52
31
3
-9
-25
25
37
14
-87
26
127
-12
-15
64
26
-8
10
-82
7
-19
35
-17
-7
20
-82
-50
-60
50
-62
-35
-12
-38
60
31
17
47
-38
-51
18
3
-12
33
-2
8
-3
54
-38
67
45
10
126
65
-56
102
-23
36
-68
-37
101
89
43
20
86
19
-41
42
17
48
9
-63
-63
-74
6
18
-18
4
31
-28
6
-27
-19
5
106
-47
76
-57
-59
15
6
-65
70
19
43
-14
33
-5
-15
-23
-67
-49
27
28
-41
69
-36
97
-127
27
-34
-7
-48
59
-46
33
44
-39
-5
-42
24
19
-42
-25
36
0
-68
-1
15
-27
-51
-5
7
117
-17
-22
19
34
0
5
-59
36
-21
31
-6
39
10
19
-69
19
54
-34
24
14
2
-5
15
127
-28
-39
-30
73
28
-81
78
24
67
16
-65
42
-58
2
-63
10
33
1
-89
-55
52
82
-55
-47
-42
-44
-115
44
62
-38
19
-81
63
40
24
-20
-39
-69
-66
-10
45
-89
23
49
-24
-73
64
9
-108
-47
56
41
48
47
49
-82
-10
-82
58
10
-73
36
91
76
-9
-34
32
-79
37
-2
-31
60
-6
83
35
-5
-36
46
88
16
-80
12
-71
8
20
-58
29
-55
-37
-89
-48
-20
-15
-50
21
25
-121
127
-12
5
48
50
-41
-117
29
14
35
14
-15
-61
7
-68
-25
110
-48
70
-40
3
-9
47
-45
-15
24
10
-12
67
11
1
-51
-28
53
49
-36
-16
17
-64
66
12
64
74
11
-21
-43
14
-69
65
15
69
2
44
75
-18
34
20
-49
4
19
8
45
25
48
-73
20
41
-118
14
34
41
-81
34
-42
109
-19
40
125
-69
-44
2
12
-51
16
-83
-16
6
-84
8
37
-5
-65
2
11
56
-32
-75
-48
-127
-58
-17
100
25
-32
46
38
23
-29
-32
-2
-28
47
-13
5
8
34
-51
23
-48
-43
50
55
51
-84
20
-19
-107
-59
21
46
-49
14
62
2
-27
-29
-18
-2
31
14
75
50
18
-83
-18
7
-63
-67
35
-49
36
-49
-102
-65
-59
34
5
1
-55
22
20
-82
-19
10
9
8
-28
36
-11
48
-58
-56
5
-43
-31
0
-55
-103
46
-89
-16
25
-117
22
-4
-5
-1
19
49
7
5
27
49
57
-24
-40
-5
11
-28
17
-40
59
15
-19
-52
77
-32
-19
-3
23
-6
-61
8
77
-15
-4
-4
4
-55
98
-5
-40
50
20
37
-31
102
10
-11
41
-41
-4
127
-25
52
-50
-1
-22
-40
-23
119
112
3
-56
1
-15
-7
53
-49
-64
48
-27
-42
-34
-15
-51
-77
-47
-35
22
20
53
60
-35
-60
-86
27
-17
12
-17
-55
-23
46
-3
-38
63
-32
27
30
-69
38
-52
59
-57
18
-54
-2
4
11
25
-36
43
-34
-32
-34
-43
-127
40
-41
33
-23
-21
-10
-8
57
13
24
-17
-24
-7
-29
-16
14
24
-16
-34
-2
-52
-71
-47
-6
-24
-33
-8
-5
30
-22
-44
36
-21
19
3
-20
-39
-43
20
29
-32
-49
39
-6
22
47
-32
15
14
4
32
38
-45
-6
-4
11
5
17
-35
-50
17
-27
55
-17
-43
21
48
-38
18
22
-1
-15
49
-70
-58
-14
-35
-39
12
-19
16
-61
77
-54
24
33
12
89
9
38
-11
-34
5
-73
36
57
63
45
-29
19
-32
-31
-17
-11
23
-15
88
-19
-1
29
-35
-1
33
9
6
7
-11
-19
-2
16
11
-23
10
-64
50
10
-15
40
54
-28
15
-18
26
31
-20
11
-2
-35
-25
14
13
-4
21
-25
5
7
0
43
-17
50
16
-36
-48
-30
43
-8
-19
-14
32
68
21
-26
37
10
127
-10
-13
-4
6
-67
-16
-54
-18
15
-25
-38
-24
-2
-9
-7
51
-5
45
92
59
-33
3
11
-26
-51
-17
-71
-11
-87
11
34
8
53
-59
-93
6
-26
-127
-88
-10
-72
6
56
92
-116
78
-125
111
-31
-4
9
-14
-57
-12
-91
-83
64
5
41
64
-40
25
-32
-96
-13
25
-11
-41
-29
-19
-36
-12
76
88
-23
-68
-35
13
8
30
20
-36
-17
-23
52
-2
-32
10
28
55
43
-90
33
63
-41
8
-2
64
-63
59
38
-1
-34
-87
-13
-60
-65
-51
-27
26
-21
58
12
40
34
89
-76
-11
36
9
-11
63
112
46
-84
-52
126
11
-3
-5
48
20
55
6
1
-21
51
-75
30
24
-73
66
70
-61
-52
-99
10
-60
53
-15
-81
80
-32
-67
36
22
37
-2
31
-45
-22
-112
-5
66
-17
49
-59
-72
56
17
127
6
57
-32
2
-31
58
1
27
-63
-44
55
80
55
-92
21
20
44
31
67
-30
58
8
23
-12
-101
54
17
-43
1
-34
-76
14
20
94
-18
-31
-18
77
-49
42
12
67
32
9
-12
37
12
46
-58
17
-84
9
-83
55
-64
69
-3
-27
19
106
-52
32
57
-8
-31
35
31
-35
11
-46
54
-88
9
19
-8
12
-81
38
17
-70
1
41
54
-57
-56
33
-3
-20
-76
36
52
19
-3
-28
-22
-30
48
31
-39
-4
50
24
4
21
82
-23
53
19
6
127
-45
52
66
86
-57
17
8
39
-3
-30
36
40
64
-42
-35
59
31
-40
68
21
7
-24
-5
-15
-32
127
15
72
-38
44
-21
7
64
21
35
-2
-6
-64
19
3
-57
-11
-7
-21
10
-19
-34
17
20
-46
7
54
56
-40
4
53
24
7
-10
9
-16
13
30
69
3
54
78
22
-85
-36
-33
41
26
27
-11
-12
29
45
-3
-14
13
-40
0
14
-16
20
-17
-4
77
-73
41
101
3
40
-12
-75
-46
-42
42
19
-31
13
47
-43
-47
-4
1
-96
9
48
7
72
-71
-4
36
-5
-38
16
-58
-98
81
-98
43
-41
-91
-43
124
115
-12
-5
49
-7
21
127
-18
23
114
-8
-12
55
-44
-39
71
28
30
-102
-86
81
-11
-15
-37
-58
-122
-43
-35
46
-80
99
53
-38
-64
-28
-2
-3
48
103
-23
13
38
-9
66
-10
-43
32
61
24
34
-32
-6
13
11
80
-52
-45
-1
9
35
-34
-33
39
-7
78
-27
55
35
-111
5
-50
-85
16
12
-27
-48
49
6
100
78
25
87
118
-36
87
18
13
-19
-21
16
40
-14
56
-64
20
-127
-39
38
71
46
15
-22
48
1
-35
-54
55
-69
21
54
-59
36
107
-52
32
57
3
56
123
-109
94
-23
-64
-92
36
-95
6
113
42
-14
-12
-59
-26
-14
54
-35
11
56
56
29
-5
-31
28
32
-54
-23
-62
5
29
20
20
-34
-76
21
-53
-62
17
57
71
-40
-41
-14
58
-54
22
40
-63
8
-26
2
32
72
-73
-4
-29
55
53
-47
47
80
72
-45
105
-5
-16
21
106
13
-10
29
-12
51
11
-6
-25
-72
-20
38
45
-4
72
-11
-45
-43
19
4
16
127
-36
-88
-37
4
11
-23
57
32
-37
92
-49
39
48
-16
-16
-22
50
63
18
-26
22
-10
6
-41
-87
-46
-14
-4
33
-80
52
-18
-83
8
9
25
65
26
-8
21
65
-56
15
-11
-79
-8
23
50
-28
57
-31
46
-62
55
5
-13
19
-56
24
-57
36
-44
-37
-120
-46
67
-81
64
-9
85
-79
-4
8
-2
-31
36
-12
65
-86
15
14
-8
-36
29
35
28
-20
8
0
-31
-55
17
-56
38
50
11
-37
-57
2
16
-22
26
24
54
21
81
-7
-23
85
5
-68
58
32
35
59
2
-58
-17
-127
62
-77
47
64
-2
2
19
-72
-24
68
12
46
-27
21
42
33
-63
-3
-48
12
-86
11
-31
-55
15
-13
77
1
-68
9
98
-40
60
38
8
-15
91
-36
6
15
-40
6
50
-10
-98
-118
-1
-84
-5
-12
0
-28
-42
38
28
-80
15
-24
-7
17
-8
14
-27
-8
-45
-5
51
-89
-63
51
23
41
-4
-29
-5
0
-1
-15
-19
28
-37
14
63
-47
2
-116
-62
2
11
-57
12
-67
-35
-17
20
4
-84
96
25
-28
-52
25
-25
15
-18
-93
44
-55
34
-78
41
-106
26
-94
-17
-32
-31
-6
-28
27
13
0
-9
46
-44
-19
-127
-57
-8
37
-16
-52
-21
21
-58
44
-37
-73
66
-59
13
-19
-10
15
-4
63
-19
-48
46
32
61
48
12
-35
-8
6
-62
0
35
49
22
-35
-9
8
-21
-62
-6
12
-72
26
-57
-2
-14
22
-3
42
-55
46
49
-17
42
12
-19
-45
-105
22
19
-88
16
63
-5
44
-16
53
14
-21
23
78
3
24
-7
-60
-66
-1
120
-15
58
31
-9
33
22
-12
42
-14
-66
12
58
-127
28
-41
-18
37
13
0
8
-82
32
41
-8
2
32
51
-25
45
-18
44
23
38
27
-6
23
3
36
-26
36
-24
35
15
39
18
22
-45
4
-21
-9
13
-8
10
-9
-62
58
-53
-31
-13
66
-22
31
6
7
58
17
-33
-20
-34
-69
34
-25
45
60
10
-2
13
-60
38
55
1
40
-50
-31
49
34
14
-64
-32
-41
9
7
91
22
-127
15
-53
19
4
-50
-5
-12
13
-9
72
-7
-2
-15
52
-26
46
-33
31
-39
23
-17
-20
52
-38
21
32
-47
-7
3
-4
28
-38
-48
-28
72
-24
10
0
-31
-45
-68
-80
50
-27
-51
12
-96
-46
-3
-6
-22
-40
10
19
-3
-42
21
15
5
-2
38
30
-60
48
102
-5
27
7
-66
-67
-25
-24
24
45
18
25
-8
-31
-25
-6
37
-7
11
5
4
-39
-5
11
14
-44
19
-29
-7
-42
-53
-2
-7
-40
30
-61
-33
-66
-2
34
-42
-49
45
3
-24
-51
-4
4
-39
-59
15
37
0
37
18
22
-20
7
-56
-18
14
-127
44
-18
8
11
-2
10
-26
40
-35
50
-72
-32
38
-25
20
38
-22
-18
-63
-48
-22
-20
-86
54
61
22
28
51
-29
41
56
29
18
61
55
-23
-56
70
-1
-27
-11
-51
53
-126
-73
-52
13
19
78
-18
-31
52
-12
-27
-54
-68
-88
-22
5
19
-108
50
24
-22
-29
28
-36
-44
110
-85
102
19
-40
5
-32
15
-46
16
-19
-9
44
7
54
56
-77
-7
35
22
22
-19
-48
-25
-127
-74
-78
-42
-11
-69
19
-32
18
68
-7
-30
13
73
106
89
41
15
37
-20
28
68
89
5
-33
-49
41
-27
23
89
18
-51
31
-10
17
-98
-59
-61
-38
-3
-9
0
-117
-77
-95
34
-32
-106
-119
-78
21
58
-127
-17
75
55
-11
37
-47
-33
17
-87
7
-115
25
-27
-3
49
5
-13
-22
80
-27
22
-56
100
45
14
-5
73
-26
-53
81
58
35
19
80
-11
-76
-66
25
-4
17
-55
75
-82
9
14
55
-50
-51
-58
-51
-12
16
-59
-75
-56
-12
21
12
64
-105
-48
4
83
60
50
51
41
4
-50
-55
-17
-54
119
37
-8
90
6
51
-66
52
57
-21
66
-87
9
56
32
11
-9
1
39
113
79
2
31
72
69
3
-45
-34
-30
121
-46
-2
-1
-78
15
-33
127
58
49
-7
2
8
-19
7
8
47
88
37
28
66
-1
-81
-12
37
-24
-40
-73
-19
78
-81
-3
-70
-34
-15
13
29
12
45
14
67
38
55
98
31
-57
-1
-25
26
32
36
-59
-22
-23
-1
11
-40
2
31
99
60
88
-43
-11
48
-76
0
-17
6
-93
61
85
-80
-38
84
35
-34
4
33
26
-74
22
-43
8
-64
-28
-13
-14
42
-49
-36
33
-76
24
40
-7
73
40
-30
44
15
-67
11
-30
-58
72
23
-26
-88
-47
-68
2
0
2
-55
-10
-104
36
67
-72
20
60
-19
35
-53
-14
-127
-55
-88
10
-1
55
26
-46
32
-32
79
-36
-28
-53
-93
-16
-29
-47
-62
-57
8
-29
22
-9
-55
-45
4
127
-53
19
56
8
18
-12
-37
-26
20
46
18
-9
-38
17
51
10
10
-15
33
87
-25
25
-88
-43
-38
-17
-21
-31
-20
55
-15
22
-14
56
-54
41
-11
-21
2
74
69
29
-62
-3
36
59
-8
66
6
80
41
6
-6
27
-57
-92
-11
82
14
60
10
-22
-37
-17
-36
-37
-35
39
-22
-16
-86
-9
54
-61
47
-27
2
31
-34
13
57
27
10
-22
83
9
17
25
-12
-15
77
-35
-15
13
27
-86
-10
-49
35
0
-46
-14
57
-86
30
22
-2
-49
36
66
-5
-58
-12
-46
-20
-41
55
1
-85
19
-47
32
-24
52
-43
-44
73
-120
-87
58
10
45
-1
27
-127
3
-71
64
49
-25
7
-72
-10
-30
26
-95
-4
-22
-57
-56
-56
-37
-48
-49
-19
-56
-7
-45
62
29
-38
-11
-10
10
-13
-5
65
-22
-51
-15
-24
74
-14
-23
15
-38
-37
-74
-6
30
-10
-58
-9
24
-72
-41
24
-10
56
89
35
-30
-16
-67
-11
-6
-21
-54
46
-53
32
127
19
11
11
34
80
48
-73
56
10
9
-28
26
-86
3
-106
21
13
12
-41
-38
-45
-16
15
-85
80
97
-32
18
-35
-53
-30
21
-6
5
-40
-19
-11
35
23
-29
-28
14
-45
15
70
23
25
-51
99
75
-57
33
24
-22
-32
-11
-3
82
12
16
22
-30
-42
26
24
-46
-53
-1
40
-11
4
-19
32
23
-75
-24
-17
-55
-24
53
17
4
-11
-37
3
4
-6
-59
25
22
5
-93
-44
11
6
-31
19
13
41
-57
55
-37
1
-36
-34
20
-38
-55
-1
-45
-6
41
-1
-8
40
45
1
34
-46
10
108
-29
-23
12
-16
-17
22
-39
-42
-13
-12
29
38
-45
15
-127
30
14
26
-7
-51
-45
45
14
55
-38
-23
-5
-26
-48
-18
-20
40
-22
9
47
-5
-67
11
-43
37
-29
-92
-4
-15
-50
53
-34
47
-45
22
-39
-13
31
-48
8
-32
13
55
38
-16
-12
-27
-127
-27
-40
29
11
-17
33
-17
-3
-18
4
-52
5
47
-17
7
-13
-9
-2
-14
-2
16
44
30
-26
55
42
20
4
-79
-1
57
-40
15
34
-58
-1
-24
-58
-37
26
-21
47
11
-2
36
-31
-49
29
29
24
-33
-37
14
-17
8
-5
69
-7
-2
36
-25
31
-14
-5
28
25
64
-3
37
58
20
-5
32
-17
9
-9
-43
37
-19
-42
48
-16
-33
-16
-43
29
-93
-55
27
-41
-1
39
-35
-34
-9
127
-6
-84
-17
-56
67
-53
-8
38
-19
40
33
-20
-87
-7
-1
31
52
71
-103
27
39
7
-21
-66
10
35
39
-23
12
-15
-9
-56
42
-37
13
11
28
-12
-3
-15
7
4
66
40
-50
15
-37
34
-40
-11
69
35
9
45
50
11
4
54
-21
31
40
-40
-7
1
-7
-16
-62
-28
62
-37
-28
14
-27
22
25
18
-16
-22
-6
83
14
56
-30
-6
127
32
-47
85
20
29
-20
58
101
-17
89
52
-13
45
-54
35
31
-33
45
53
-21
-26
-29
49
-11
43
43
-18
-83
33
-41
-9
89
21
78
62
97
13
5
-7
-7
20
36
-46
-49
78
34
17
57
81
-40
1
38
28
-63
-16
15
-38
51
-58
-16
29
-28
47
72
70
-53
-35
-40
-2
-46
26
17
108
-63
35
71
57
-3
18
-4
-18
19
42
-28
65
18
-70
4
44
-73
-38
-25
48
-39
37
14
25
29
7
-35
-44
-85
-17
33
-80
-13
-27
60
-1
38
38
50
-46
-31
18
-14
20
31
-7
-21
-4
-18
10
30
-27
35
4
-9
47
-20
85
-15
20
116
-20
73
-12
-60
101
-7
-24
-52
38
38
-49
-39
4
127
-28
-81
36
-3
-29
6
-50
-18
4
-28
40
-2
-41
21
-13
-38
-16
88
-14
-44
-41
29
53
47
-63
34
19
30
-101
-43
65
-93
-13
13
-87
-18
22
-53
3
-3
32
11
-9
46
55
-12
26
-20
-7
15
17
-38
1
10
14
-34
-58
36
-14
22
37
-8
-32
4
13
0
-28
2
77
-42
25
46
2
-23
33
22
32
37
-21
23
36
6
-56
16
36
19
37
-13
-22
-48
-23
-11
-23
-4
-12
31
-6
35
11
-41
-5
-24
31
13
-15
45
-6
20
-35
-20
-9
-53
3
18
46
-37
-52
13
16
-12
-16
48
17
60
0
-15
25
-11
-30
-12
-14
-127
-2
-12
-16
-6
8
-1
28
-11
-6
-85
-25
-66
-78
27
15
57
20
-66
-8
-39
-27
-17
-16
4
-51
24
3
-22
-3
-4
44
19
11
51
19
51
37
20
23
-36
-4
-79
2
3
-5
-27
24
-7
-34
-23
9
-15
60
-8
39
-43
-13
-49
36
5
23
2
-4
-13
-12
-13
-53
-25
-17
-34
3
9
-127
-35
11
-27
4
21
31
-42
44
4
-11
28
-30
-22
40
-75
25
-52
3
-10
-35
-17
-14
-4
-24
-21
-20
17
13
-15
61
-27
9
58
-68
-14
-50
-84
-5
-58
78
-66
-9
77
-29
21
-37
21
37
41
67
23
-39
-20
-63
-4
-104
-17
-13
16
48
-108
-48
-4
-91
14
-22
38
35
30
60
-18
-81
-43
60
-65
17
-48
42
29
-56
-33
-35
12
-101
-20
57
9
71
-95
77
-83
-27
28
17
-31
30
-50
112
40
23
23
-53
21
-50
-19
-96
-29
2
-110
-60
-86
40
90
-15
-21
86
-66
26
12
-127
5
57
-44
3
95
3
-63
-22
-41
-80
-117
-86
-25
81
20
22
-41
41
-8
-36
58
-21
5
18
35
-24
-13
71
-121
19
5
38
29
53
30
20
-27
58
34
99
11
-18
45
60
51
51
43
-101
47
34
-44
-17
10
49
-16
0
18
19
44
103
-71
2
8
3
34
34
-127
-112
-42
25
52
-90
3
37
5
56
14
103
-33
-66
0
-29
-45
-14
26
30
-37
-46
-10
-26
-44
62
-20
11
-32
-7
15
87
-15
63
-33
90
106
-47
93
67
28
106
-33
-48
-58
-9
66
23
15
79
-16
67
-53
21
-57
-41
42
-34
25
-31
25
10
-47
-24
-17
-99
8
-6
41
-69
21
4
5
-127
49
-5
8
126
64
-30
-29
-96
35
-67
122
-3
55
-5
-98
-40
-12
-29
-9
50
67
5
30
37
52
16
-28
65
4
-70
-29
-37
7
-37
15
57
42
48
-67
-18
-35
-38
45
34
11
-14
64
-57
-44
-17
78
12
16
-71
1
-49
26
-61
-41
-4
-71
49
-64
8
-4
-49
-117
-28
-53
55
58
17
24
8
-79
51
-50
18
-20
42
-8
24
-13
122
-47
37
82
-10
-24
43
-4
77
4
-56
19
88
-61
-6
120
-47
14
48
-84
-51
-69
-88
-31
-38
4
61
31
-21
18
18
84
-1
6
127
4
-70
15
-56
-58
-124
-68
44
-12
-23
-20
2
-71
-16
-99
12
0
16
-12
-59
58
-21
38
52
21
-37
34
-43
-82
9
-26
-41
-18
-24
19
-3
