4
51
-36
56
92
-30
-65
44
6
66
14
13
-42
-32
19
-5
-18
-41
-62
-2
82
50
-37
-76
-43
41
1
9
108
-32
51
5
63
-84
-42
-49
-77
47
-127
2
29
-126
63
26
-63
-34
37
34
115
-54
84
-48
-5
-26
-61
43
53
13
-109
3
-8
38
-6
8
-42
86
2
28
47
53
41
-68
39
-69
-79
-7
5
-19
-51
127
-89
19
-30
68
-49
32
8
5
-22
40
89
49
-4
-69
29
-73
-14
23
-40
-30
68
4
30
-16
-22
123
81
33
70
50
-23
-10
-4
109
-44
63
15
44
2
-33
22
9
107
-87
5
-10
37
-56
40
-21
12
19
-35
-43
124
76
80
-18
-85
-28
-54
8
60
66
-58
-2
24
-61
35
26
-2
-85
32
52
59
42
-25
-3
-58
18
-23
-45
-2
-37
51
-41
65
60
-9
-17
-60
6
26
-55
-22
20
80
-52
-53
-22
-122
51
35
-93
26
-32
-127
10
48
40
14
57
-22
16
20
-1
49
-7
-34
1
-37
-33
35
-37
20
93
83
-31
50
-8
-20
26
127
-15
66
19
62
24
-36
-45
54
-47
56
-38
-3
11
20
14
-23
10
-24
98
3
-14
-48
122
27
-10
15
-48
57
65
-35
-47
-46
31
-57
-15
10
100
-33
37
50
-8
-42
-35
107
43
70
-11
-19
-112
15
-4
-11
-54
37
-40
-6
9
56
-7
-5
-103
70
-62
43
32
29
48
-48
4
81
50
-9
33
-26
-11
-44
55
0
-27
53
0
-37
-39
127
42
0
36
50
-55
-37
17
-30
25
-57
19
-42
44
-24
29
-6
6
15
1
-24
8
15
12
-17
46
-56
82
95
-100
73
20
-34
20
20
44
54
-127
-25
-12
45
68
-35
-19
-5
47
18
-58
-86
-4
-30
44
-27
56
-67
-88
-9
-23
13
-60
-56
-61
-55
-29
45
23
-38
-81
-13
-66
78
-98
-25
56
-11
6
-23
-32
52
24
-27
-1
62
-9
-96
-31
7
-12
53
28
-46
-11
-25
-88
113
1
23
-63
3
27
-53
49
12
20
-59
-66
-90
-43
9
-33
46
-52
7
-70
-9
-19
34
48
-15
34
12
6
-10
66
0
108
-54
-5
91
23
68
18
28
84
-9
-11
13
1
-66
20
-14
-124
79
6
-127
-18
-19
-115
80
66
-24
97
-34
-39
99
6
-23
52
-112
-7
12
76
44
-30
7
-63
23
22
89
2
-71
-97
-112
117
33
-31
77
-29
-5
-76
63
85
43
47
-49
-68
10
2
-20
-56
50
-89
-23
127
-18
-41
48
-28
102
-90
42
-63
-2
-67
-49
21
-10
-30
61
-43
74
-89
20
31
-65
-53
-23
-94
28
-25
-106
6
2
-71
34
3
-93
23
30
15
12
-55
16
23
-14
-69
88
-49
26
-1
22
-52
-5
59
-84
-78
12
47
53
35
34
-62
16
-42
74
-17
9
-4
81
-30
44
46
-83
51
31
-61
18
-56
64
7
-15
127
-14
65
74
121
-6
-3
23
43
29
-13
46
-27
-43
-57
14
-74
0
-82
-29
16
-52
-6
70
-26
-24
21
16
-37
64
-4
-23
44
-54
-11
-37
34
31
-11
-17
-30
18
14
84
30
17
1
26
13
55
64
-24
36
-22
51
-27
86
43
30
13
-29
17
9
-6
-44
127
-33
31
-18
-5
12
12
-69
-1
20
21
39
-53
15
22
36
16
9
-59
-1
18
-60
117
-14
17
22
-58
13
39
-99
-19
-14
35
-83
19
-53
-43
-98
110
-26
89
12
11
50
34
-20
23
54
3
-32
-32
33
19
12
-52
-127
3
50
77
-33
49
-30
-35
-48
53
29
-34
50
15
-26
-34
-80
32
-1
-52
-127
12
-55
18
-29
-26
-5
67
-13
64
72
2
-57
87
-89
15
-32
31
-12
89
-87
-3
-19
-2
-27
-12
84
-40
60
49
-83
-95
-41
59
-30
-35
53
-38
8
-85
29
-52
29
-14
-14
-32
-47
7
33
28
-59
37
26
-29
26
13
69
-63
51
-44
38
-18
-44
-50
-9
-84
51
-28
-27
10
29
12
-1
63
18
-46
-48
5
48
-119
-80
-61
-44
-60
10
-24
-8
-70
-27
-86
3
24
-71
-28
-27
-67
-46
-4
-23
50
-35
-34
74
-39
-127
-66
56
-43
83
-127
-35
-29
-60
-16
-46
10
0
37
-32
61
32
-29
31
25
55
-49
22
-51
-10
27
-15
-60
-10
-8
-19
3
90
60
53
-9
-30
29
46
3
-78
37
-11
-95
94
21
-11
54
-39
12
19
19
-14
-69
5
17
11
-3
-10
26
-16
-5
-32
68
42
39
-45
-13
8
-17
-81
-19
48
28
-13
-4
17
-122
-18
8
-42
2
-15
20
127
25
-87
29
-117
-17
-114
-14
59
113
-5
-127
60
-83
-6
-59
-48
-21
-12
-12
-62
-63
58
0
54
-27
-34
-57
-19
-63
51
11
15
-11
-38
18
27
-10
16
-110
-16
21
-106
-9
-6
-69
-56
-9
-118
73
15
-94
-55
-83
-107
24
-42
-55
-56
-86
-25
37
6
-8
63
68
27
-45
11
51
-62
10
19
-75
-20
-4
56
-40
-27
26
-45
32
-100
26
-62
-7
67
39
-37
-55
59
48
39
58
53
-38
-33
-127
-49
35
-19
-21
1
-38
-48
40
-20
-2
44
13
-27
-37
15
78
-36
11
-9
-65
-29
2
-65
28
4
52
-7
-6
-46
-13
-8
-52
45
1
40
-46
45
42
-13
-2
31
30
-23
13
13
26
-21
21
-22
-15
4
18
-31
12
46
80
47
54
23
-7
-33
-58
4
-43
-62
4
-21
2
22
26
15
-44
-25
-62
19
-4
14
17
-70
19
-20
-9
-58
-34
42
-74
-20
-127
24
-33
23
29
3
-109
20
25
12
29
27
2
17
-22
34
20
-30
-13
-9
-12
-29
12
5
-6
0
22
-27
25
-16
-26
-14
35
-25
-28
8
-17
18
7
-10
-23
-1
22
-10
-55
8
-19
0
-10
30
49
-41
-6
81
127
59
21
-31
11
-21
-20
-23
39
29
62
-1
-26
-21
9
52
25
4
-34
41
77
7
28
5
-7
41
26
46
-127
12
70
16
-39
2
-6
5
-22
34
14
32
-3
-23
41
-4
37
5
9
-7
-8
-26
-66
-80
15
-15
-34
14
-18
38
-38
64
-3
16
23
-27
110
-28
87
-36
-25
8
-32
-23
-49
1
-106
47
-25
-16
-48
2
-66
18
22
22
-38
-27
49
-64
14
60
-9
37
-56
75
54
30
-68
-127
38
-17
-4
74
14
-2
70
-65
-61
59
9
52
-72
-8
-76
-79
15
-27
27
-89
-7
-2
-36
-39
27
77
68
-59
18
-7
127
-18
-35
5
18
-3
-33
-26
74
-56
-83
-14
-23
46
-46
50
-20
-55
-20
-34
-31
32
-72
-113
-65
30
-91
7
40
-1
-17
-50
68
-9
-39
-11
16
-116
59
6
-74
-20
-16
-71
45
-67
-59
1
15
62
6
30
9
-12
-31
60
-100
23
40
44
17
127
7
-27
57
81
54
-114
-106
-30
-42
2
76
25
-44
16
98
32
-41
-16
-12
15
-32
68
-89
9
27
-70
36
99
-5
52
-33
122
-43
-9
9
-7
9
-124
-13
-4
-59
-43
-23
-47
22
-54
53
-57
25
14
79
-4
-34
-5
2
-6
51
13
-11
-84
-12
-27
44
5
20
26
-65
18
4
-127
-42
-50
25
-36
2
-12
-10
-12
-60
-58
-5
30
-48
27
97
-61
114
5
60
31
-24
-11
-73
-83
-113
-64
56
53
-61
17
22
89
32
23
65
28
-34
27
29
27
-64
49
45
89
-45
-95
-110
-28
22
40
-98
-12
34
30
11
65
85
-7
-9
-57
108
37
73
-77
-52
-22
0
11
-65
-26
-124
127
-16
14
56
-48
-10
17
-3
-116
55
-7
15
-72
-19
36
44
-24
84
16
32
80
-4
28
20
22
45
26
40
100
-95
83
-22
11
-16
-95
19
-10
41
10
92
-32
33
-33
8
-76
11
-58
11
15
-49
-14
36
-127
9
-74
-45
62
-88
24
-13
64
18
-48
-54
-22
-66
-26
13
-21
-5
8
-41
6
32
-32
-1
-50
-22
27
11
-15
-48
-17
-40
6
-97
33
75
75
5
21
5
-127
23
26
-8
-34
3
-25
88
-59
52
-33
-88
-3
-20
49
39
-99
-4
13
-9
12
-4
78
-45
-15
18
3
-11
-100
40
81
33
28
-37
18
41
20
30
72
22
-86
72
123
-39
7
-11
-13
-4
-25
-39
19
71
-21
-112
-30
-25
6
-38
83
12
36
40
-18
37
-61
80
41
-28
68
-14
-5
31
50
87
-53
21
-92
-6
-16
14
32
-127
2
32
45
-18
-23
33
-33
123
-48
24
-47
39
50
14
26
52
14
45
26
54
9
30
15
43
23
-11
-69
-21
-13
31
-73
46
29
9
55
127
66
-66
10
-93
-48
51
13
92
-61
-65
-63
57
5
-66
46
7
25
-45
30
-63
46
-40
9
127
119
41
-19
51
55
73
-33
28
28
-89
-10
-32
-44
18
75
14
-92
50
-63
0
67
22
16
14
56
70
-49
6
55
12
-2
-41
-1
33
45
-40
-37
-29
35
24
3
16
-31
15
-8
-44
-28
15
70
37
29
5
28
-14
84
-20
60
-57
-30
82
-39
44
30
-58
-4
-13
27
-3
45
18
-25
60
41
127
19
-1
-53
55
-50
47
0
51
-27
-35
34
-7
-1
-22
-28
30
16
69
-1
-7
-52
-27
-22
2
-2
-17
81
-14
-59
30
-10
-31
-2
-40
5
-30
45
-24
6
-101
3
29
29
-74
-21
-55
-37
-56
-71
49
-33
66
15
43
33
-27
20
14
18
-7
3
61
-27
38
78
35
61
3
81
38
-11
-20
4
5
51
-23
8
-127
-23
-22
12
-8
-99
50
1
14
25
-16
34
-39
-54
-96
-44
-77
-70
-55
80
-48
37
-25
-68
-84
-8
17
8
-36
31
-5
-25
-12
3
-10
-15
-55
-5
35
19
28
21
-45
-99
90
24
49
23
84
29
0
3
-43
55
36
-19
-28
6
29
3
100
-64
19
-64
127
6
53
-73
-15
-64
65
-92
-32
19
-71
23
-1
-33
-24
-71
78
-66
5
48
41
-6
-5
-25
5
-9
13
15
-22
-68
97
-18
-98
51
33
54
9
32
-13
8
-21
13
-31
7
59
40
-57
-69
127
29
76
-8
-61
77
26
52
8
-43
-69
-37
-16
-54
-17
-1
-7
-24
25
-12
5
-92
-38
-94
47
32
40
20
-83
5
80
29
-15
52
17
-6
-94
-1
98
73
48
2
78
109
9
29
-24
93
127
-92
50
-3
-29
-5
-20
-46
100
-11
11
49
79
4
-37
-38
-33
50
-9
-117
54
12
78
54
-23
28
-55
7
60
15
-17
-55
11
76
-29
-25
-63
-24
-102
56
1
-19
11
-88
38
39
14
122
70
40
2
12
-4
-22
-2
-77
75
29
49
17
-28
-24
-38
-1
32
-127
53
43
10
34
-35
-12
13
-4
87
50
-82
-66
63
21
19
16
27
75
-43
98
27
43
-56
112
32
26
54
-29
-54
-45
-61
-49
33
0
37
17
26
106
-55
43
-66
-24
127
19
65
-60
-27
-68
-36
-12
102
3
6
70
57
-75
80
-89
6
-47
-33
-20
39
2
85
-54
12
-5
5
-33
-15
-100
73
-2
-58
-68
57
-63
-107
-7
-49
88
23
101
-18
-55
-42
17
-8
42
11
78
30
-16
-23
68
-74
61
42
32
6
-5
51
-11
-73
51
-5
-36
-55
-3
-96
-58
-82
59
6
-31
-43
3
21
3
-59
37
4
-6
-58
-127
22
-42
68
27
-32
11
37
56
39
14
-2
-69
85
-102
-2
35
35
-4
23
21
-122
59
-68
-61
33
-28
98
45
-79
30
-16
-19
51
66
-6
-13
-67
-29
-102
-15
-83
40
-50
81
-25
46
52
-14
-102
29
-57
7
30
-11
32
8
-17
-24
-4
-75
15
113
-16
122
-58
20
63
-19
14
91
62
-95
-88
-78
21
65
-40
-61
-51
-95
-23
-44
-104
48
-13
44
-29
-70
-88
30
-46
36
127
26
-109
-21
-24
12
10
14
-107
73
-100
-19
-70
-20
-11
33
-80
-16
46
5
49
7
-1
-21
12
23
-14
-8
30
-31
-9
-27
-42
65
-14
29
15
-82
-36
28
87
26
42
-85
-22
-2
60
62
-15
-5
-14
-19
-49
7
-21
-15
-63
-27
30
20
41
59
60
61
67
55
80
87
-4
-46
127
6
-27
-36
-57
17
-127
58
41
7
-13
27
-5
-34
29
-23
4
3
-20
34
35
-19
-3
-67
3
1
-73
-6
-2
-71
-1
-5
21
-40
96
19
31
40
-71
70
78
5
37
-38
-1
-49
-38
44
-20
49
-72
3
-45
67
-44
45
82
37
61
12
-17
-49
-4
-13
23
-31
-64
31
103
-22
-36
89
-19
20
17
80
77
-42
57
17
-87
96
119
71
-109
-9
1
-71
49
3
96
-41
38
9
-17
49
-73
111
-16
-5
-41
28
-13
-20
-69
84
61
-73
-40
-41
41
-46
60
36
39
48
12
-52
86
-29
-36
42
101
123
121
-15
-44
-57
127
47
-80
47
-116
35
27
87
2
-45
27
-84
-72
74
-66
50
-30
104
-15
-43
-41
22
-23
28
-57
-4
23
50
-127
119
-28
-10
7
-110
40
28
26
68
66
9
59
-12
-2
25
26
28
53
35
-111
84
17
74
-25
-31
-95
3
19
72
-36
63
-86
-61
-16
45
-15
2
-11
39
-8
-46
16
-19
9
-10
-17
118
-15
-41
66
-67
-56
-11
6
-23
19
114
65
-30
108
8
-2
27
22
-59
-57
-57
25
36
-75
13
70
14
66
37
6
-27
-21
41
53
93
-22
45
-9
1
36
20
53
111
-60
70
18
-7
99
19
127
-22
-55
10
71
6
23
-25
65
3
30
40
61
20
127
27
53
-33
102
-16
-46
54
49
-38
18
10
21
-28
-39
2
69
53
-33
115
-80
8
-19
8
72
-29
-14
27
10
-69
33
-18
0
2
13
-47
-47
-18
42
-21
20
-65
20
28
-2
-30
-28
47
-75
-9
43
20
-63
42
65
60
-19
-18
-10
35
-40
-4
24
-54
-60
-20
-5
-113
47
-62
36
72
29
-33
-6
85
-13
-11
-41
43
-15
-40
-14
-11
-21
-41
22
-2
11
-25
-49
-58
-13
-65
8
-78
-64
-4
-63
41
-21
19
-53
-37
65
-41
-32
51
-18
127
15
6
-48
100
-8
2
69
4
-68
-15
62
16
-65
1
-2
-21
-50
-1
114
9
-11
-58
112
-127
26
4
59
-61
9
70
27
-11
93
-25
14
63
-25
27
65
19
66
-49
57
40
40
-37
86
-25
-83
-58
78
29
22
26
-61
68
-62
-53
11
61
11
19
-37
18
-12
87
-28
-7
-94
57
-7
59
30
-29
-109
21
-41
-22
-56
-6
28
30
8
-48
-40
42
16
23
28
80
6
13
-4
3
-9
11
-12
8
-48
127
-4
-1
-24
-14
20
-9
4
81
49
22
44
14
-23
-30
38
-62
-11
31
87
20
12
-57
-35
91
30
-102
-68
-54
-17
-30
64
-68
-12
-80
53
-54
48
73
-7
46
-26
-66
45
-127
59
-14
27
-87
-17
-40
-41
60
-14
11
-105
-32
-7
-25
41
23
-43
-39
104
43
13
24
-32
53
-73
-14
26
85
0
-32
11
38
53
9
20
-24
34
-25
23
-22
31
16
-76
-30
-84
8
75
-15
-19
-46
-7
64
80
-65
51
-74
20
86
83
-78
-34
71
38
-42
13
-62
12
-79
-5
38
-72
-11
-12
26
-59
26
-4
-6
8
-55
37
3
26
8
46
-63
11
90
-6
49
61
-78
-29
29
-84
11
70
48
-13
-20
-10
48
7
9
-63
3
-49
70
-47
-17
-57
41
56
56
-63
-87
-2
45
127
11
30
-74
-19
78
24
28
45
21
54
94
0
20
-97
-30
58
-8
74
-80
58
-124
-38
38
63
75
-21
-10
-5
80
-13
-54
-35
13
-62
43
-13
8
38
48
-27
-30
-78
31
-107
-2
-67
-16
37
-13
71
-92
-1
-46
-102
-52
63
44
-33
-80
-101
87
127
-39
-48
-2
9
67
80
-16
77
6
37
59
103
-26
-127
75
60
-45
-31
-32
81
43
59
42
-41
-17
8
6
-89
57
-30
0
-15
-24
85
-41
-36
-105
-19
30
-28
-113
2
57
-69
45
74
-94
-11
22
9
52
56
17
38
15
-5
-100
43
60
-2
10
37
38
-35
-16
-63
-56
31
7
37
117
32
22
53
-24
-24
-113
-54
44
-22
48
-36
67
8
3
-9
35
65
-49
-36
-106
22
46
-50
84
-17
22
55
2
127
-58
9
6
-17
27
-19
74
33
-45
-3
-37
102
-3
-20
62
-76
-7
2
103
49
-11
-37
2
65
73
-103
18
6
41
49
-6
34
37
-31
-44
12
21
-41
-30
76
-52
57
39
-47
42
-48
34
2
18
-35
-81
127
-16
0
-17
-1
-71
-27
-21
-11
3
40
10
-10
-34
-20
17
36
127
-21
70
-28
23
-39
38
55
0
108
-3
-25
-30
-3
-21
9
13
1
37
-10
-53
91
-15
-7
-1
63
37
61
-3
-11
-4
77
-19
-42
-11
-96
-6
-9
-15
-26
13
-22
-127
-43
-78
33
27
3
22
45
-97
-100
-14
-1
-2
-59
68
-41
30
64
-10
5
-5
1
24
24
-2
-28
-113
64
-61
-22
-5
54
52
-23
-63
-37
-8
-43
-40
38
-21
-8
8
78
34
-32
-8
46
10
-42
-21
-18
47
-106
-44
1
19
35
15
-57
21
-42
-26
42
-20
-37
-61
-36
-23
5
22
21
-46
-1
4
-4
4
-14
60
-36
-127
38
-16
30
25
41
-97
36
-20
-95
32
-63
68
-1
5
-12
-35
10
-20
64
50
42
-16
-5
-91
-45
-56
93
93
-41
1
46
53
-51
-89
4
-26
-21
-5
-18
-25
39
-28
-1
124
0
53
49
0
-10
31
-31
2
-24
19
-40
-47
53
-25
-6
5
89
-14
59
14
9
-3
39
-15
-40
8
-21
14
7
-23
32
10
50
-36
30
-10
-111
123
10
127
43
-76
52
-48
-17
46
-78
34
32
-28
-114
100
80
-9
33
34
13
3
-58
-23
14
6
2
-10
-5
-3
-25
-10
-47
22
-19
31
-13
11
12
-22
49
-1
22
37
-17
22
-15
-2
-5
8
15
-61
38
-33
-33
-34
21
28
8
-36
-20
7
-73
7
-68
-8
-23
47
-1
18
46
-91
-2
52
31
-31
127
21
10
52
63
-1
-97
-2
4
-7
-17
47
13
-63
-85
18
12
15
-33
28
4
31
40
-29
17
-40
-50
-10
53
19
-27
38
-21
-58
-9
-11
-12
-8
-32
-36
29
-20
15
24
9
-18
-27
-26
58
-50
-27
20
-87
-30
-47
-20
50
-20
4
-123
-7
-8
-17
43
47
76
27
-12
-15
-2
-127
-92
-36
-105
66
-7
31
-27
-29
-32
50
-6
-46
35
38
-15
-16
-44
-20
66
-55
-68
89
26
-7
41
1
25
-9
42
27
-15
-30
-2
58
-89
13
-31
8
55
-60
9
68
1
-53
-30
3
-44
-9
-56
-59
125
-82
70
4
10
-58
-13
34
-20
-33
-3
-5
44
127
41
37
127
-62
-5
2
7
50
-10
41
-3
-47
-42
-23
-49
-29
23
39
-34
33
-32
-9
-13
-54
-88
46
-42
20
-17
-6
-6
-47
-46
-93
-38
-27
-26
-14
-58
29
-4
-44
13
21
-10
-7
64
45
50
-14
21
14
28
-48
13
81
-49
22
-20
46
-1
-20
-17
15
-7
-19
-61
55
-105
-22
-6
10
4
6
3
-63
4
-54
26
38
12
-25
27
41
18
15
-14
33
-27
17
45
-45
-13
7
2
34
29
40
-46
-25
-72
10
-45
-16
-16
-17
-9
33
-29
-41
-22
-9
-41
-16
5
-15
17
-37
-57
-19
46
16
-5
40
-47
-49
-11
127
-30
-21
47
-53
-63
-12
-7
-99
43
-95
-8
31
-88
-15
-26
-114
16
-49
38
61
13
-20
4
-17
-7
-18
8
-57
73
-30
26
27
-34
-58
18
-35
-19
-47
-52
3
-34
-10
71
100
88
81
11
-15
67
4
-97
57
127
-62
-28
38
1
-1
-76
36
-50
-56
-52
126
71
73
-2
-62
-25
75
36
-4
29
0
20
-84
-52
-17
-2
26
56
46
26
-3
1
16
10
-127
-15
73
19
35
-39
14
79
14
7
23
-8
-58
1
-14
43
-25
-14
-37
-77
3
37
-26
-82
-21
11
-4
-39
87
51
-33
1
17
0
-36
-28
-46
0
63
-24
38
45
127
-70
1
-87
49
-37
29
-9
-81
30
9
-17
-57
18
-43
80
6
26
-51
17
-21
-9
-40
25
-10
-65
34
41
100
80
-69
-37
1
-34
-41
6
103
84
0
-93
63
51
-38
32
-2
96
-22
82
-88
-96
21
-39
30
4
-68
-80
-88
31
-5
-49
-3
-50
-34
13
-56
20
0
47
-38
39
4
-36
-14
1
-36
17
47
118
46
8
-12
127
12
4
52
1
70
77
9
-31
62
10
89
13
17
0
13
-23
35
0
13
22
-17
-27
59
29
78
35
-24
18
8
81
-38
-12
-30
72
29
7
-56
15
23
-15
45
4
37
33
22
-9
91
-42
-1
37
41
-78
-15
117
-41
-7
20
-38
54
-12
-18
-74
-5
17
72
62
40
37
47
36
28
46
-98
21
-80
-36
93
-99
-24
14
47
87
-66
55
-15
-2
23
58
68
46
73
-91
122
-19
127
-106
3
-34
-96
10
0
-35
-47
-28
-95
-76
110
8
-5
3
-89
45
39
26
5
-23
7
11
-112
59
-39
72
17
-20
21
-24
-51
5
-23
37
96
-51
99
-15
-7
59
-5
112
-78
-19
23
75
-83
127
22
22
35
89
-10
63
58
32
97
-64
-9
65
-4
95
13
15
16
-40
54
35
-56
124
47
11
31
-15
-32
-35
90
84
-81
-46
117
-7
-14
79
20
-46
1
-86
-77
29
17
61
37
-83
-127
62
89
51
-18
-40
-80
71
50
32
11
-117
37
26
-5
27
-9
-67
-59
-89
49
16
52
-31
-59
-10
-113
-102
-80
51
-73
-17
-65
4
-5
57
-3
74
-31
15
19
40
-9
-23
-2
103
-9
48
5
65
74
-22
35
-28
108
27
18
-91
-66
-114
48
14
-10
-16
75
-39
-35
-57
7
-34
26
-9
-23
7
-39
111
-20
15
27
-28
-21
29
19
89
55
-39
29
73
37
-13
-61
3
73
-4
-23
-127
-43
117
-30
4
44
0
-42
-120
24
-85
42
20
28
-3
-46
-68
-56
-5
-15
-22
23
-54
-10
53
-11
26
53
39
-13
23
-22
-7
9
6
-42
-8
-42
18
2
89
-80
10
-15
25
47
-127
-8
57
51
26
50
-18
-39
-59
-40
-2
-43
10
-40
-38
72
-27
31
65
-11
35
-9
-17
23
15
5
9
22
5
9
15
17
35
33
-60
-26
95
-21
-6
19
-111
-58
-55
-73
62
-11
-42
54
-33
-99
-63
101
-106
83
-38
87
-48
52
-21
-23
24
113
-34
-40
-54
-72
1
10
74
-41
5
-127
-21
-28
40
126
11
17
-29
87
-87
-51
-5
71
-13
38
-13
20
103
47
33
-48
74
25
-116
48
5
-17
-25
-20
-34
10
51
-21
108
56
25
-62
63
2
-8
63
-90
30
36
44
-105
-41
-68
-25
61
-25
12
38
32
62
-29
-127
-3
-10
-26
21
-30
67
-52
-1
5
19
41
-26
-56
50
11
45
-34
-71
4
2
39
49
-69
10
27
-26
53
-8
75
19
68
-12
59
38
-73
-24
-14
3
40
99
12
-73
18
-85
106
30
31
-61
-70
-119
68
-27
-25
-8
-7
-37
118
-13
49
29
69
37
3
-26
55
-54
65
7
-34
-29
64
-5
-21
0
107
-48
-71
13
18
-110
-43
-33
50
95
-25
-13
63
60
83
5
124
-38
16
-110
-3
127
13
25
57
37
9
48
60
-54
-84
57
46
51
-25
-13
-32
89
44
56
-7
-56
35
-24
28
19
28
35
31
-95
-54
70
14
10
-19
-24
-5
84
-56
127
-14
-8
-85
-6
-25
19
42
-11
-33
30
-92
75
-95
-7
-42
-39
62
99
27
32
13
-84
6
-97
-4
-22
38
24
96
