-24
0
57
-3
5
-59
97
85
-122
16
-36
108
-7
89
25
45
-6
-57
-25
-57
-3
63
-68
-39
-127
-127
28
10
74
-56
-100
116
-127
-39
11
-101
-41
-21
0
8
82
87
-66
49
-49
10
111
14
-29
-52
-127
-48
3
-42
12
64
56
5
47
-21
-75
-93
1
-99
-24
-13
-28
4
4
79
-80
-106
-91
91
21
40
-31
-106
44
-56
-127
32
-127
15
-4
-127
-66
-50
-20
34
-28
-91
7
23
-55
-62
-54
33
-19
0
-13
-15
9
-14
82
10
-35
84
-32
-22
-109
31
-99
56
-21
68
33
-64
-22
-7
36
111
17
-2
24
70
-44
-7
2
-100
23
-99
72
-106
92
-47
9
22
26
-73
24
26
-98
-111
-120
111
32
-127
3
-64
-114
-105
56
29
-34
28
7
-22
-62
-67
26
71
127
-127
-32
60
-4
-87
-9
78
-109
12
-81
25
11
91
113
-73
-90
-127
12
66
-108
127
-127
93
-51
51
-127
-11
-43
-61
-127
-85
-15
-21
5
127
-27
87
-57
64
-127
127
-60
-87
127
80
87
-115
54
127
127
-39
-127
-127
72
3
11
57
-41
85
98
62
-19
-9
45
127
-18
-74
-10
34
30
-13
-32
93
-122
-9
-54
4
-10
-52
112
20
85
-127
-112
105
96
-1
52
-123
0
-19
37
0
-16
-60
-94
-40
-19
81
127
-12
-125
-120
-101
-15
4
5
-46
1
56
-25
26
5
-106
-47
-72
73
24
50
28
-94
-8
-56
-82
-60
-37
86
-14
77
-10
-17
-13
69
-26
-47
-4
-83
16
48
49
-21
-85
2
-40
-40
-9
-2
-64
-30
82
-54
-9
14
-6
-17
21
36
-80
26
-40
56
-64
-2
-45
46
-5
-36
53
-44
-57
-25
-41
31
-14
37
32
-29
6
-17
-20
-7
38
-109
25
29
-5
17
-50
22
-31
-88
-28
12
2
29
-46
44
-117
64
-93
-113
127
51
-61
39
53
-118
-72
-4
21
-14
-127
-127
-43
-49
-26
-69
127
96
-127
-31
71
46
-102
127
-53
102
123
-13
-82
-113
-127
-109
112
127
74
127
-24
-90
-2
-42
-16
-9
17
71
-73
18
-2
-69
-7
-28
36
68
3
-52
-12
104
-121
-99
-21
64
-67
-127
70
-3
1
-33
-104
4
-14
-127
-127
89
-60
-127
-80
127
69
110
31
86
-127
-49
-15
32
127
70
-49
-110
21
-105
80
-37
-74
-36
25
36
127
-95
-57
127
-111
0
20
-36
-8
-16
-70
45
89
-42
-67
-16
-42
127
121
-52
-86
-113
-114
-127
20
13
-45
-127
-65
-127
-60
46
-79
26
41
-9
-77
-103
-60
-33
-14
-63
-13
63
-127
27
-87
-44
-26
-122
-127
-23
51
58
26
-70
-56
-5
45
-51
-29
78
7
-40
-9
-52
90
59
75
-112
-47
-5
-22
-2
10
49
-12
-56
22
27
-21
-5
-127
1
-26
-22
101
49
-11
52
-12
93
126
76
4
-99
30
29
96
-47
-91
-12
9
44
-65
-21
8
59
-80
-113
-36
-24
-14
-53
-23
74
-119
-12
-102
-114
44
-120
77
0
-39
127
-44
-40
-79
-70
-25
-34
-59
127
-12
-125
-66
-127
121
127
40
-3
-127
-100
14
35
127
-33
9
-127
-85
102
127
26
-71
53
37
-127
-127
127
-40
-27
-72
127
-117
127
23
-39
127
-19
127
93
-127
-93
104
19
-127
-127
-120
127
-127
-30
-127
54
-13
-127
-35
34
