-1
97
39
58
5
-31
77
-22
-42
74
8
28
56
-114
15
24
-22
-40
85
12
69
21
86
-75
29
5
21
14
-62
81
-15
-33
87
17
77
82
16
75
-47
51
61
19
-35
59
96
-91
58
127
28
27
-57
-107
34
91
42
91
22
3
35
-1
78
-113
103
-32
-10
103
-19
80
-6
21
1
57
-68
47
38
33
-5
-102
9
3
-51
-43
74
-6
35
81
5
-70
-5
16
7
56
-58
35
-54
-8
3
35
-17
120
66
63
-13
-87
33
55
20
58
66
-69
63
90
20
48
-14
71
43
69
25
37
0
39
10
16
-5
-78
96
30
-21
67
70
-4
-6
-11
92
-12
9
26
67
21
-37
-118
25
-106
-2
37
30
-15
-84
-6
74
-115
60
-11
127
77
-34
-9
91
8
-90
78
-97
70
82
-40
-62
-40
-17
104
39
127
67
-28
-38
18
96
33
85
61
-28
75
-33
47
-126
42
-106
-28
17
-35
39
91
-2
89
37
51
11
60
95
15
95
71
-11
58
66
27
20
-32
73
-75
20
26
79
28
37
37
93
23
10
48
-123
69
-2
-14
92
58
58
94
36
127
-54
38
50
38
-43
74
90
-74
-20
62
20
127
-3
-24
28
32
-67
23
58
-64
28
46
1
12
76
-100
-53
56
12
66
-5
-6
47
41
49
65
-8
77
37
-33
14
-53
-40
-21
62
17
50
74
26
-32
91
5
-27
45
-26
68
60
22
12
94
-15
127
76
86
-44
3
55
107
25
12
105
-94
-30
54
103
98
8
76
9
97
27
29
26
-38
41
13
-68
7
40
7
-37
55
34
-44
4
-4
75
-10
1
68
127
50
18
81
33
3
5
78
-3
-2
-92
-52
127
-57
70
-53
67
118
-58
-6
127
-49
-87
72
-113
66
65
-14
-109
19
54
127
81
26
73
-52
-120
71
114
43
93
16
-25
106
62
41
-53
78
-34
-52
-57
-41
52
61
-12
80
-6
53
-21
91
93
42
109
8
-12
74
17
8
25
-32
-9
-10
-8
25
39
-34
-63
61
127
-32
22
11
-49
49
45
-11
48
76
34
24
72
79
-64
9
14
50
-25
41
67
-106
33
-13
72
102
-33
24
8
34
-37
18
79
-48
17
46
-12
-3
29
-77
-34
57
-18
39
-14
32
54
36
-2
37
-7
77
-39
-37
-38
-4
-59
18
-8
4
18
33
23
16
112
-35
10
13
-12
7
70
-66
-5
113
26
69
73
92
-35
33
38
76
18
66
127
-65
-2
35
90
99
-13
50
-1
57
-72
30
60
42
98
-20
-51
-56
23
-30
-78
61
-4
-16
16
107
76
-20
-114
35
100
31
24
27
6
-38
17
64
6
-19
-66
-32
17
-69
26
-74
34
54
-57
-52
114
-42
-43
35
-21
18
47
-5
-109
9
12
108
-8
58
68
-58
-79
63
125
45
53
30
-24
70
-93
56
-7
65
38
-54
-46
-124
36
-33
-77
127
29
116
21
-73
-30
-44
-19
93
5
101
-64
-74
2
6
-22
-79
70
80
54
71
-28
-95
-16
89
30
-75
84
115
45
107
116
-12
127
74
-103
95
30
79
127
-67
37
19
71
-43
71
103
-61
-1
-60
-127
100
28
-39
127
127
-89
47
-96
52
-107
127
-88
-22
112
27
116
10
0
-47
-56
-10
37
41
87
-34
-41
-3
16
-105
-60
79
39
-19
-21
54
-73
19
48
-30
-100
17
51
-81
59
70
45
15
103
-46
110
-18
10
104
-12
43
12
70
-57
33
66
-25
25
-40
81
52
81
20
58
40
-27
-50
-42
-25
-3
127
-22
-28
67
73
73
32
-61
82
-111
92
9
82
34
-61
-111
10
65
28
-21
24
59
-61
-125
65
-89
-11
57
-1
-9
61
28
8
-7
24
103
20
108
23
64
-51
23
44
70
53
120
66
-79
-46
-34
97
33
127
117
-6
90
-77
46
-11
95
-20
-79
-61
-61
19
-2
-112
118
48
114
-33
-44
-4
-63
123
106
2
127
-14
-46
26
-83
-10
-127
62
90
56
-51
-38
-30
-28
127
11
-67
127
127
-54
118
107
55
87
59
-127
73
4
55
104
-15
4
-5
98
-92
122
93
41
38
20
-28
94
66
104
67
113
-83
9
-44
115
-127
75
-127
-40
122
16
127
-51
47
21
-52
127
71
56
99
12
36
2
-2
-22
-54
18
54
-37
-127
-73
-71
-15
100
2
-127
75
82
-121
30
79
88
29
77
-49
80
-31
15
126
82
50
-15
91
-88
40
70
13
62
54
50
63
82
99
38
77
-52
14
-37
-127
-15
88
-33
-120
125
127
51
127
-127
81
-32
104
62
111
68
-13
31
127
97
-20
39
84
89
-103
-117
-42
-96
72
0
17
41
22
3
13
-55
25
98
51
119
24
91
-107
39
121
111
127
54
118
-127
-41
77
98
58
106
8
13
105
127
33
49
87
29
-127
-93
-63
64
-69
-127
51
14
69
2
102
-8
-7
111
47
-23
55
-106
127
52
-41
118
-63
52
67
42
-6
-7
5
85
88
-5
0
107
82
-34
59
127
26
98
52
-57
40
-27
59
68
5
-17
46
99
-79
105
-10
48
44
-30
9
57
-2
22
42
109
11
-28
-40
-70
-14
98
-116
-73
121
30
45
-15
56
61
4
50
22
61
59
-62
42
-5
-32
-20
2
31
67
-4
-113
3
-54
108
34
-26
-63
40
30
-63
-2
42
82
87
33
-3
-12
-29
38
86
93
34
31
82
-59
4
48
104
44
44
54
24
-8
33
60
83
23
14
-49
-92
-55
30
-74
-65
122
89
54
78
92
92
-46
-31
18
102
49
-95
82
7
34
4
30
79
50
-127
-100
99
-80
102
-55
65
8
-45
-13
108
-115
27
70
87
47
23
31
-127
25
39
93
63
97
97
-80
-116
122
60
50
56
-9
-14
127
79
83
17
121
127
-97
-96
19
0
-76
-104
45
-79
30
-20
8
-65
-12
-38
84
24
37
-30
-120
9
1
105
-42
60
81
65
90
17
23
-54
40
-23
-60
31
79
20
67
0
-83
7
86
-80
52
34
35
69
-63
5
-14
16
0
127
36
11
-58
-54
-59
96
7
-86
67
64
25
-40
-37
97
-51
119
-39
-40
57
-121
76
5
-29
-110
-6
-44
22
39
26
10
36
41
-18
77
-59
25
62
6
-15
16
-15
-43
31
21
-88
-22
35
-48
102
10
-15
-9
93
-46
61
32
80
54
10
-6
-70
6
-5
110
4
-62
-22
-66
-8
74
4
-29
9
60
53
-104
13
-36
-36
56
-17
-44
2
10
58
58
-52
17
-89
46
36
-5
32
48
26
34
-43
-39
-40
63
88
-81
-1
36
-85
-6
57
34
-15
73
-6
52
88
39
127
15
60
-62
51
-25
103
-25
46
14
14
35
-32
39
-72
127
-5
65
40
26
-19
-80
42
87
84
-15
-44
28
-28
-24
-43
-111
89
-30
4
-9
-67
-79
2
75
127
-6
95
17
-70
48
4
58
-80
52
90
37
12
-8
-23
-79
91
-10
-20
27
77
-51
127
-9
-79
3
67
-82
28
24
85
87
-24
24
-30
44
-5
110
62
47
-42
-49
-21
127
11
39
86
81
22
48
-72
75
-87
103
-6
-32
53
-82
65
2
-8
-87
2
65
71
29
81
43
4
67
53
-3
-59
76
74
-45
60
30
-104
-61
74
15
-63
-48
38
-35
104
10
-41
54
72
-62
30
9
74
63
18
21
-88
33
-21
108
44
-12
-27
-60
31
79
4
59
33
83
49
87
6
-61
23
84
-43
-106
54
57
31
102
-97
31
-127
75
90
86
50
77
-92
98
72
55
7
127
127
-81
-20
122
-124
-25
15
-12
-18
-51
-3
105
60
105
123
85
50
-100
58
-52
127
19
73
39
-28
47
-67
59
-53
124
5
113
-16
75
53
95
48
107
110
15
-90
-45
-53
10
-48
-99
76
-17
19
-28
5
-77
25
82
104
-6
79
-127
88
-40
23
127
-55
54
75
7
30
-5
-33
-48
75
-29
33
70
65
-23
83
17
-26
-12
28
-47
48
2
18
62
-8
10
-38
27
-43
89
14
50
-26
-50
-1
122
14
-32
62
65
24
-7
-54
104
-64
80
-42
-73
48
-32
22
-16
2
-127
6
11
64
-9
95
-34
12
46
127
-81
-11
86
79
-3
78
-57
-46
-14
39
-29
-14
9
14
-55
33
46
20
78
35
-67
-5
11
34
54
10
-38
-42
59
4
100
44
92
-13
-7
5
102
9
-44
50
99
59
81
-1
27
14
60
-40
-109
35
38
5
99
6
-11
-124
-60
52
95
40
14
113
58
14
1
-10
107
62
-80
-28
4
-127
-59
36
-17
22
-51
-6
38
-11
73
75
87
47
-75
23
-57
80
-2
40
38
44
44
-33
91
28
72
-8
115
-51
51
21
19
67
109
127
24
-96
-87
-36
5
-58
