-40
-89
-127
65
-127
-15
-15
-78
-26
3
-52
-63
-27
21
64
-62
59
25
14
58
127
1
-61
-40
-113
-127
99
15
-22
-14
-123
-29
-26
-127
-106
-58
16
-76
127
79
-66
-54
-3
0
42
42
-37
-29
-61
-108
-127
-4
-23
46
69
-28
-74
127
-63
-41
69
-85
-39
41
-76
99
83
-65
127
107
-12
70
34
-44
12
-69
-7
16
-5
-56
-60
-127
-67
-127
-52
-17
49
-127
-31
-60
-17
-23
-39
-62
-40
-53
113
-64
39
111
-10
17
38
-127
29
19
41
39
-72
-15
-26
-50
23
-127
28
33
-127
-64
-52
-83
60
-96
25
60
-110
-126
-4
-113
40
100
47
13
-54
-50
-125
-127
-110
-127
-69
-13
72
39
-2
13
-59
-15
36
15
-47
-33
-127
-30
2
-35
-46
37
-68
70
36
61
31
-113
-100
-125
-55
46
70
73
23
-127
18
-64
-86
-7
27
-32
0
-94
81
-2
-57
-127
-5
-32
24
43
34
28
-53
-105
13
4
28
-35
-12
26
-58
54
27
-127
-127
61
-84
-44
33
-58
88
-104
-12
-117
54
127
121
16
-9
-26
-30
73
109
36
-82
66
-55
56
-127
3
127
44
-92
-68
28
46
-35
26
-44
-7
-36
81
-119
-3
-5
-2
122
-6
6
127
40
-24
43
60
49
62
-102
-127
-127
79
-85
-69
44
-66
42
-127
-90
-39
-23
15
-43
20
14
-45
-44
-44
-19
-11
53
20
-23
-44
20
100
-37
8
52
-16
-50
-12
-119
3
74
12
-47
44
43
52
-57
-22
-100
19
120
11
-101
58
14
-76
-34
6
29
62
-81
63
-37
-39
2
-127
-127
111
-68
127
75
-111
92
-5
12
38
-7
-80
-122
-66
-38
52
13
-21
49
24
5
25
50
-54
13
-84
38
-124
-7
-40
47
110
-13
23
-84
99
-127
-74
109
-87
-108
10
-127
-36
-86
26
-55
41
46
-55
-127
-67
-75
-34
6
-103
-122
13
-20
-70
-12
16
-46
-75
-118
-63
-83
-121
123
21
-59
23
43
-78
62
53
-103
-72
-78
6
-127
-127
-104
-94
33
-94
-100
-127
-67
-32
-28
-3
83
15
57
105
-63
31
-77
-77
-113
127
-44
-42
67
31
-59
-127
50
-49
-125
-43
-31
-14
-85
-19
21
35
-1
117
-89
127
91
60
-127
-127
-19
-95
105
-110
-126
-79
-55
-127
-127
-82
47
107
59
-103
-20
-51
-12
2
-4
-24
47
76
15
49
-67
105
52
-10
32
24
-127
56
79
-3
2
23
82
62
-84
37
-127
-12
46
111
127
-82
-86
13
6
-127
-99
-93
-122
-58
4
109
-127
-66
-14
-70
-14
-127
127
-127
127
-85
-113
-83
56
-82
-1
-4
15
127
-65
-87
59
-85
127
53
-127
-96
-127
69
24
-123
63
-127
2
-19
-127
-94
-52
127
-12
-56
38
-127
-65
-127
-102
10
-56
18
-11
-68
-12
39
-76
18
-127
127
-127
-45
-83
-127
-7
-127
-38
49
58
-11
-72
-20
-8
-91
-35
116
-47
-63
-43
-54
-62
-114
101
-127
-18
-127
-33
127
-91
-127
-49
6
11
-18
-116
-90
7
12
127
-127
-98
-50
-37
-127
-70
-1
-34
2
-127
-9
127
-58
-73
-87
-47
76
78
-16
49
-36
29
43
8
36
-51
35
-39
-15
-54
-108
-68
-63
-112
45
-45
20
-29
-47
26
-22
-100
69
-64
-48
-78
51
23
113
54
-127
-33
-10
87
77
19
60
-60
105
81
-104
127
-65
-9
-18
-13
60
-56
40
-16
-44
-56
-38
-74
11
-18
-112
-13
-86
-127
-43
17
58
86
-34
-52
-27
-127
-76
-35
-58
54
-85
-21
89
-6
4
-23
92
-127
50
40
28
8
-57
37
77
92
-61
-7
12
2
-92
-3
12
-55
-13
83
13
-81
-23
-3
28
8
11
24
-90
-50
-61
-20
-54
16
-39
127
-94
21
10
53
-102
-114
7
-46
127
30
-26
-23
40
-35
-127
5
16
-48
-55
-51
-36
-24
-51
-92
-23
-96
56
18
-33
-34
33
-36
1
79
-48
-80
42
49
-44
-73
47
-65
-57
53
-103
21
-7
78
-90
-71
-28
11
-127
27
-46
127
-52
25
-4
-62
-123
126
-2
-58
-127
3
-84
-60
-15
36
-127
-127
-54
96
95
-12
-43
54
127
-47
34
-114
-8
68
10
113
-120
46
-4
-88
-54
-127
-33
60
-25
-127
-3
6
-2
-63
33
-19
-127
-29
35
72
19
-104
-39
-84
-95
21
31
-13
-127
-127
93
28
-87
-2
36
-66
-21
38
4
-127
54
72
-53
-9
106
-10
38
-127
95
-127
-14
70
50
-58
-32
-47
54
-41
-98
53
47
-103
64
37
127
-96
-127
127
-28
63
117
-10
127
-40
40
-20
-110
-34
-114
114
4
127
-81
-71
-76
60
-109
110
50
127
-50
-101
-4
-35
78
-75
127
-79
-28
-52
9
-57
-127
33
47
-112
20
-14
-23
38
36
-52
39
-13
-15
53
78
-33
127
27
-75
-84
-23
-24
-49
3
112
34
23
-40
59
-80
-83
127
-80
18
127
74
-107
95
48
-41
86
-32
-78
-15
94
-4
32
9
27
-4
-119
-90
-28
-127
21
-104
-14
-10
-20
-48
-62
-110
-122
-25
94
-127
33
-73
-43
-30
-39
95
25
-68
43
67
1
-54
-98
-35
-43
-25
81
53
-58
125
112
-44
127
71
92
-49
22
-75
-127
121
6
-71
24
-6
77
-22
74
121
-12
40
4
-31
-98
-58
97
-53
-33
-127
25
82
125
-120
-56
-116
39
-8
-48
63
-39
-127
20
28
40
-35
31
15
127
49
56
42
-127
-19
-14
-92
10
-119
127
-79
-118
127
112
-49
27
-84
-18
-127
-60
29
-109
99
-116
20
127
75
45
22
-52
56
-61
16
-6
-38
68
34
-70
-81
34
22
-127
76
-95
-127
-16
57
-11
116
-60
-13
-114
14
117
-41
-22
-10
78
-127
-96
48
-127
-118
38
-62
58
-49
-27
-127
-110
22
72
-33
-32
-85
48
127
9
-57
18
15
-67
-60
-125
-127
100
5
-109
127
51
-85
127
-43
9
12
-52
57
-7
-65
127
-78
-58
-110
-127
-127
118
-127
-24
-60
-91
27
2
38
-8
40
-41
-13
50
-127
-44
102
27
-38
-76
90
-18
70
56
-127
49
2
38
-43
-11
11
-107
-127
-77
46
-38
101
-109
-5
-103
-99
-96
-127
-14
-127
-11
-127
72
-127
126
-20
-94
-16
-14
122
62
-50
-32
-127
16
26
-26
-127
30
-61
-111
-24
41
-59
88
38
109
27
14
26
-67
-127
16
47
127
-30
127
123
-127
35
-15
-94
-18
-17
119
-127
-9
-2
-127
-67
23
111
37
38
-35
19
127
-57
-127
-106
-98
40
-44
31
-85
127
77
-25
-37
-77
108
-41
56
-72
38
12
-43
105
10
27
-9
-117
-82
-127
-100
-127
55
-86
7
46
-34
52
36
-5
47
16
-19
-127
-6
-127
-30
6
13
0
27
-27
-21
-82
17
127
16
5
33
-127
-50
11
17
-31
-39
63
78
-98
-3
74
50
-74
9
16
47
54
109
39
2
-107
-83
-11
-11
-13
2
-108
-127
118
-8
63
66
5
24
2
-39
14
-36
14
6
-118
-123
117
31
59
36
54
64
3
-108
18
-2
-76
97
67
-24
88
97
17
-72
87
-37
-55
21
119
-127
-8
-80
18
-13
48
9
-127
-42
-36
-97
-116
-51
56
-127
7
-75
-109
113
51
64
-29
-27
-71
116
12
-25
-24
-52
127
-58
-28
-33
-30
-15
-93
-5
-91
127
-45
-6
127
26
-121
-87
-13
68
-2
-13
-91
-62
86
-6
28
-11
-111
-7
-54
35
-13
102
58
-31
24
127
-1
-60
-19
-127
-59
29
-123
-58
-111
23
-28
-28
127
72
-58
-78
14
-35
79
1
-72
17
88
-58
-55
-8
-46
-13
-91
-110
69
-112
-45
-12
-44
28
-87
-5
40
-127
-81
8
102
3
8
12
62
-70
25
-123
-72
15
49
12
-69
17
52
-12
-21
72
25
50
-98
1
11
127
-127
-78
58
52
0
127
-50
44
-26
85
-21
20
67
36
-98
-18
9
29
-40
3
127
49
-122
-41
67
52
-68
127
127
48
-76
-101
-32
79
-36
-39
28
-83
78
127
12
-59
-37
58
-25
-127
-110
-110
127
27
-49
-79
0
-27
-1
-127
-107
92
41
44
-46
-15
-23
-101
-101
61
-86
-80
-83
-41
49
-127
-65
-47
-47
69
-20
127
-115
40
3
-127
-58
-41
-22
55
98
-6
-13
123
-30
-49
117
-12
5
-73
-94
74
-80
-11
-104
20
-96
-93
-64
-127
-40
-127
1
-110
-35
-26
127
-99
-94
-77
-127
-112
34
-59
15
8
-30
-13
-14
39
54
11
-45
-9
-24
48
-70
42
-86
-7
-54
-93
12
-25
-16
-19
9
31
72
13
24
-10
-73
-14
-19
-93
-74
-21
-10
-127
-29
-126
-51
16
-121
43
59
127
15
-116
-122
72
71
-114
-13
15
-34
-127
125
-29
-112
-5
52
-56
16
23
5
127
14
-65
-31
-95
61
11
-36
-49
-32
-113
-58
62
-14
-68
-96
0
-37
-45
-19
13
70
-125
26
-127
7
-52
-127
-7
54
26
-127
-69
127
45
-127
-1
-55
1
-63
-72
