-7
-21
-18
-88
-62
-87
88
-127
-7
19
-18
-8
-127
9
21
-11
-7
25
-113
63
-7
79
22
-73
35
-59
-25
-15
65
57
37
3
-68
-127
100
-42
-56
-127
68
-19
55
-127
47
127
0
-36
30
-13
-66
-64
24
24
20
34
-119
-6
92
1
85
-37
-11
-36
15
103
59
-78
-20
84
31
38
12
4
110
-127
127
-14
-18
11
37
34
127
-16
-15
-127
-22
42
5
-11
-78
97
2
107
127
-1
-86
-47
84
27
-90
96
122
-33
-29
-13
35
127
27
-99
23
-31
5
-24
46
0
-87
-73
9
66
127
-127
16
13
-127
37
-62
-84
-127
76
-103
-58
55
1
-105
35
-45
37
127
-14
-40
-111
-97
-24
55
-85
12
2
2
-100
4
-35
127
-61
-22
19
53
103
-65
7
-33
-28
-47
22
127
-116
127
-127
34
-127
2
-35
17
-11
-61
-88
-86
-124
-18
-43
-127
-15
7
107
23
5
92
-80
-2
10
-119
-39
-63
21
120
-127
-35
-28
-72
116
37
-106
50
-40
-14
127
-111
-56
-119
111
-48
64
-50
127
-31
-43
-60
12
127
-127
-127
127
-73
30
0
35
-20
-127
84
-74
-127
-43
-22
-127
42
-62
-15
-8
26
-55
-101
6
33
-57
36
-8
-76
58
127
-107
-6
-3
31
-82
-127
127
88
-49
-127
-40
-22
-111
-56
21
45
46
-12
-91
-38
92
44
-104
-13
-55
-89
113
29
-34
-58
71
-54
-116
-7
62
-34
-60
-127
-29
43
40
-52
22
100
-72
-10
-39
-73
119
-73
9
9
-127
-114
18
-51
83
-74
-59
-118
-46
-22
92
-20
-83
71
100
88
95
3
-126
-127
9
60
-75
-54
33
96
9
94
114
127
-48
96
32
45
-99
-43
-50
-52
-18
-20
15
-58
11
-102
-59
18
41
-89
-47
67
-127
4
-23
93
-38
-41
-41
127
-82
-127
-56
127
-127
-65
-101
-127
30
6
103
-44
20
-60
0
-100
71
14
-62
-7
6
71
-68
-29
127
-119
-72
-46
-15
-127
38
-37
5
-127
-33
70
67
31
51
62
-98
-68
-9
-46
-30
58
-91
87
-127
58
-52
35
100
16
-125
-51
-79
-122
75
92
13
-124
127
-7
-44
55
0
18
-54
-22
-106
19
-81
-38
37
-10
-11
127
42
-33
127
117
48
-54
-11
45
-127
56
-23
-66
68
-20
95
31
-9
65
113
-42
114
-37
-66
-90
13
45
80
-86
-35
-18
26
-35
13
7
-5
60
-68
22
-107
127
-127
-127
-5
127
17
7
-106
11
66
-65
-90
127
-99
-9
90
64
-57
-44
-18
-127
-6
-5
24
-10
53
-86
69
91
-3
20
127
117
-32
-28
-99
12
12
-103
-49
-98
-107
67
-93
127
-85
127
-71
-24
49
3
-21
41
103
28
-42
-25
64
55
-46
12
52
84
-127
28
-109
75
-32
127
-46
-73
-18
-15
-54
16
-127
127
-9
127
-91
120
-38
125
-90
-49
-7
-19
-36
61
-5
-127
2
-62
-17
-51
-54
-10
127
85
-45
-127
-21
-107
66
-42
-127
8
-27
65
-5
106
-6
-127
-12
127
-37
-116
-77
-5
-127
127
-44
-3
-74
121
46
80
-25
-84
85
112
-89
-59
-101
-41
-84
-120
-108
87
-39
-127
22
-122
85
-16
6
8
-20
-127
51
-16
-44
5
-28
14
74
65
-32
-1
-61
-91
-19
-61
16
81
4
48
33
-45
-62
35
40
75
-70
-52
91
116
-7
-34
-93
-37
15
-32
-127
-18
25
24
-27
36
1
74
-110
-47
-14
30
105
-38
7
-51
-93
-115
127
-115
-112
21
17
7
2
22
-65
-11
111
65
-79
52
44
-28
7
23
-113
8
-28
-6
-106
7
53
-127
-127
-12
-88
77
-83
-123
-127
26
-22
7
-48
-18
-127
21
-127
-77
76
-47
65
-98
-12
-1
-37
15
60
-25
-72
64
67
-7
-35
-71
-41
-34
-77
-47
-91
103
-127
41
5
-107
-47
4
22
-69
-64
110
-3
127
10
80
-49
66
-35
36
41
-29
-26
-19
8
22
-127
-75
92
-48
-127
64
62
-60
49
59
-31
-104
-9
-65
0
60
-48
-46
127
-127
18
-127
-56
-108
-61
21
72
113
10
127
36
7
100
-26
23
-127
127
28
12
-127
69
118
-62
99
24
-95
-6
15
-124
110
-37
-127
-41
-108
56
21
-57
-73
7
-37
-99
44
0
-29
-10
29
-38
-45
80
127
104
-93
-75
-14
-53
-98
-16
15
-93
-59
53
19
-23
-32
2
-23
-127
-68
-55
127
-53
49
15
-88
-78
-76
-62
-118
-55
-52
-94
19
1
-58
-65
-14
42
118
-81
92
8
58
74
127
-2
43
40
21
13
-53
-127
16
-99
-81
-108
40
-14
-76
-65
30
81
-127
-54
-2
-27
-127
-60
-16
-26
-32
-43
30
-127
35
22
-28
-97
78
-62
-3
-127
122
56
-3
38
-113
107
25
-77
30
-96
-53
11
-43
10
-127
127
-127
79
13
24
13
-39
-40
-75
6
31
-35
55
-127
-67
-52
-65
10
65
3
-73
-123
74
20
-127
6
-93
-8
63
56
-74
-27
90
-44
-37
38
-65
-11
-96
-2
-65
-114
28
-123
17
-12
-5
-2
-16
33
-56
-44
52
2
-52
82
-19
-3
68
-114
39
-3
-64
16
-86
-52
4
-48
11
25
-110
-15
75
-56
-44
1
-63
-26
15
-103
-50
-30
-82
-4
45
26
-70
61
46
69
-23
-14
48
-20
-41
-22
8
16
40
-114
13
96
-25
4
-86
-125
-49
-24
64
14
0
12
-16
22
104
-26
-81
13
95
-8
18
78
-51
50
37
-35
-36
76
-98
-127
85
-86
-11
-113
-91
21
39
-119
12
19
-52
12
-103
90
-95
-25
-55
-37
8
63
-54
26
-68
-2
-49
-73
-127
-126
-53
-45
44
127
-124
-124
37
-52
-29
-15
-52
3
-50
-127
-17
-93
-23
9
-62
-13
53
1
26
-88
-90
4
-127
-78
-51
35
-27
-120
-25
23
-40
-45
2
-58
-78
16
-7
-35
-105
-127
-19
-40
-76
-16
14
-7
-114
-62
-17
-122
8
-41
5
7
-127
-41
30
31
50
-15
-46
-35
-98
-52
3
21
-127
-25
48
64
-26
-30
14
46
5
-117
-76
-93
-53
-99
-12
3
-127
-7
-109
-1
92
57
-36
-66
50
3
-85
-96
-72
39
-40
-5
51
-50
-1
-1
29
-44
41
-34
-5
-88
86
-14
-127
-46
21
83
-116
-11
116
-29
-53
-6
-8
20
-95
-89
15
-50
-6
27
35
-18
13
65
-127
127
-88
127
60
76
-127
-93
26
115
94
-41
16
-30
-70
-14
-60
-5
-63
0
10
2
19
90
-14
-7
-80
-82
7
-93
-20
-66
-127
73
-23
-44
-18
45
-2
-25
10
-13
94
109
44
-21
14
19
-19
4
-108
22
14
-31
66
-104
-7
-90
70
-41
-127
16
75
-61
51
-4
7
-19
-127
-7
73
6
-1
-124
-9
17
-62
-127
107
16
-69
19
-1
-13
82
-55
-109
-100
21
-99
-49
-62
-127
-21
44
-73
-48
-38
56
-53
-35
6
-97
-2
54
-29
36
-58
-4
-63
-63
5
-58
-99
-3
41
66
-127
28
-127
-119
-102
13
6
-127
23
-41
73
-12
-74
-127
-85
0
-31
-47
34
105
-54
-96
6
11
-7
-23
114
91
-118
-9
15
18
-21
-52
119
-58
-28
-17
-61
13
-19
-46
121
-31
-114
-81
-127
-80
24
84
-127
-90
-127
9
65
-13
-32
-74
50
-127
75
-30
-6
59
-21
11
15
-86
-106
19
-90
-30
127
68
-12
-37
1
-22
6
45
-78
-77
30
-127
-35
-18
-27
-38
1
-33
7
0
30
17
23
-125
86
-30
-120
45
35
-74
-107
-76
-11
-55
57
-56
8
20
21
-9
100
-40
-113
19
-34
72
2
-127
-75
83
96
-75
98
-48
42
-64
-127
-46
-121
63
-81
-105
127
-127
-45
-107
34
64
48
123
108
34
-49
-14
29
125
-79
64
-117
36
8
7
-127
-76
-19
-102
112
-76
119
127
121
-90
-65
-127
-42
66
50
23
-3
-37
12
-24
-125
-4
5
-102
57
-36
-13
66
125
99
-18
-28
6
-102
-127
60
73
78
69
-62
-126
18
54
101
1
-59
17
-20
37
-55
-24
99
-39
-19
-109
-127
0
-78
-41
-7
-3
-53
-127
-39
-13
-89
127
-28
77
66
-66
-15
23
53
-127
33
-114
-127
-88
-80
57
7
-60
127
16
-74
-85
-5
86
-127
-6
28
3
127
62
63
-25
-96
-25
25
-98
-79
-127
51
112
122
-67
38
61
127
-34
-22
17
-43
21
127
64
13
14
-60
-40
-127
22
-91
-42
73
48
32
65
-32
127
-76
-127
-4
-127
127
68
31
118
-66
58
-24
-56
104
2
127
-22
26
-2
21
-46
-15
-78
-100
127
127
127
-48
-20
50
66
87
-23
-52
-80
80
-71
-121
8
-10
46
-74
-53
-48
31
-39
108
3
-48
70
-24
43
113
33
-115
-28
-127
28
-89
-26
-127
-76
-117
-90
15
-105
13
-127
-15
47
-4
-93
63
-86
127
-40
127
127
127
-20
-2
-67
-12
-18
-41
-95
92
-6
-106
-59
127
-17
-38
-112
6
-62
-17
-91
-24
16
30
127
-87
49
127
35
-104
-119
92
33
-120
112
124
24
-80
-77
127
-15
64
127
31
-127
-103
15
-44
127
17
127
-32
69
63
13
15
-102
-50
31
-127
-121
43
-42
-19
127
59
60
-31
-14
-121
8
127
-127
-10
-72
95
51
-117
69
-119
-15
-127
106
16
45
-127
-99
-94
-55
-43
48
15
63
-127
-28
113
-127
76
-83
50
-93
-56
-10
-57
-63
21
119
32
-99
-127
-19
-108
-127
43
-48
-23
-73
-121
119
47
-39
-101
-49
-106
13
-1
-15
17
-30
-74
23
-12
5
-6
-32
51
-89
53
85
73
-5
-52
-87
127
4
117
-127
37
127
-123
-37
-40
103
-80
-27
32
127
-69
-9
-39
-81
116
97
127
41
25
104
-47
0
-2
85
60
-87
78
107
-70
0
17
-4
2
-49
29
-76
43
-9
112
52
-56
33
68
-53
9
105
41
-84
-12
127
-42
79
14
95
-117
-114
-11
7
-127
37
61
56
-114
98
127
-3
124
-70
21
38
121
-61
88
17
13
30
-21
-127
-123
-55
-66
127
43
-5
-108
-127
87
-93
-24
127
61
-103
-116
60
127
13
48
-10
127
127
-33
-127
-69
92
-33
-50
-13
58
-46
1
-103
12
120
-102
48
60
-48
-19
-127
127
-7
127
-49
127
127
-11
29
-119
-21
62
81
-85
127
-22
105
-107
-42
19
-127
-44
22
-4
-11
-9
44
-43
35
-70
127
-127
-46
-1
-5
-1
109
-35
-25
-51
-114
-102
-40
-120
61
122
87
-63
9
-18
19
104
-27
-77
30
-61
127
-50
127
-11
-55
-1
-110
-100
-98
-59
116
35
-8
4
13
-4
-16
12
53
41
-28
29
75
-12
-76
50
-32
-22
-114
25
127
-40
40
-59
-54
62
-90
-96
-38
-80
-46
17
-11
127
12
47
34
102
-66
-48
-13
-2
-46
-56
-15
-127
57
127
-127
91
17
53
-2
59
127
-28
-42
98
108
7
-47
-51
-29
-27
-21
39
2
54
36
0
16
-51
39
-53
-40
22
-7
51
-77
127
-127
-55
-80
-20
-48
-96
-127
-58
127
-40
-15
-44
19
56
111
-123
16
3
-15
32
4
-62
53
127
35
24
-4
79
14
-15
5
112
127
-50
-48
-53
-56
-17
-105
-78
35
9
-12
-28
-5
127
-125
-74
-29
74
60
-17
-42
108
-100
-37
-81
58
127
-56
-2
-50
-127
12
-74
94
14
-65
53
-2
-8
-21
-9
48
-86
-33
-127
-26
54
-127
-127
-127
107
-27
-49
-64
68
13
5
-103
-87
34
-83
-22
-23
-51
-4
52
-72
0
127
5
-43
-37
-102
123
41
43
35
-37
44
62
31
7
-7
44
-65
94
127
98
52
124
-70
87
-54
36
78
127
-28
36
-97
119
124
-110
127
19
-60
18
-35
-11
22
91
29
21
-6
127
-46
-52
87
23
-58
60
5
80
44
55
-80
45
31
127
35
127
127
-22
33
-41
33
-13
-8
-14
60
-52
-7
-127
-5
-65
127
-16
18
-42
41
16
127
23
1
-127
-74
34
-39
-50
-13
-122
-45
16
-31
22
12
-67
84
39
127
-4
-69
-94
46
-32
31
62
28
127
12
-40
57
112
-88
32
38
5
-10
23
-10
127
48
-78
-24
-98
27
-12
6
4
-26
23
122
110
9
127
-51
-106
-2
-1
97
-3
48
-66
-48
-4
-127
-19
-98
-69
-127
1
127
-11
5
8
-20
80
-60
71
22
26
127
-127
-65
64
1
92
26
71
8
-17
15
48
-39
127
24
81
69
127
-26
0
-97
9
1
127
-4
-11
-80
46
-114
-127
111
5
-127
-120
-4
22
-109
-24
41
-5
-53
-80
10
90
-127
39
127
-97
57
-127
127
11
71
39
20
-86
-127
46
-100
-64
-35
-116
127
-33
-55
-127
73
-25
-38
18
-68
-127
-9
-20
127
82
12
32
70
-127
81
-13
12
-42
123
-127
76
-106
-27
-25
-27
-34
57
100
-65
-87
72
-127
11
-53
5
-127
34
34
-14
31
-50
-54
53
-121
-72
16
-7
90
-63
36
-69
-4
73
24
12
81
-25
-77
-70
-90
-127
-36
32
-127
63
-92
-30
-127
-17
-39
22
-61
96
-94
-29
-127
-29
-52
75
62
-3
-114
-24
-127
-46
-2
-102
-127
-66
-127
50
-59
12
-73
-99
-36
-38
-90
127
-66
-3
-68
-83
1
-17
-47
-127
74
-11
88
-75
-127
127
-123
-25
5
-71
8
-79
68
120
-90
33
-52
50
-109
14
-81
111
37
45
-42
-18
112
51
49
-14
39
-61
16
-127
-71
60
-27
-77
-11
-58
-19
107
-16
127
84
-62
53
-47
-46
23
100
-59
-70
105
-24
-127
24
105
81
-7
-85
79
1
-16
-40
-127
53
-127
-61
18
-98
74
-56
-20
-78
127
-127
62
-126
-52
-32
22
68
127
-33
-127
91
-91
-111
-27
82
68
-127
-78
37
29
-52
-112
-127
124
45
-11
-127
-21
11
-87
57
-88
-77
37
-57
-22
-20
24
77
0
-103
63
2
-57
-127
20
-83
-40
-48
8
-49
51
-70
127
-82
103
-80
-31
-80
9
67
-43
-11
-67
-57
37
-127
127
-127
18
12
-32
-64
2
-127
-105
2
-27
2
-32
12
-23
50
-101
-30
-37
30
64
86
-8
74
59
-127
127
70
-33
49
-32
-60
-92
34
127
-9
-21
-103
2
127
-67
-6
-27
-118
26
-39
18
17
2
-127
-96
127
-49
-66
76
13
-87
-64
-119
-119
73
69
-54
18
8
35
-77
40
59
-60
-127
-108
-127
-111
-54
-23
127
-127
38
35
-46
-1
-29
-29
92
-75
90
-95
-127
-127
-51
58
-101
-127
-127
127
14
74
103
-48
-43
-113
23
-4
-54
17
2
-88
-43
107
58
-5
-127
22
98
70
127
43
-106
-65
4
-10
60
6
-8
71
-108
-25
39
14
-41
-118
127
48
-88
70
-43
-31
-3
-127
-18
-119
107
47
71
-50
-57
5
48
17
-85
-93
-105
-32
-67
7
-127
-127
1
-7
-102
-35
48
16
25
8
44
-72
-56
-69
-127
116
-34
-26
45
-127
-81
50
9
61
-96
59
-91
-10
-1
-36
106
35
-50
-94
-106
127
-22
-38
127
71
65
28
28
15
-14
33
17
-74
70
109
-96
2
-20
-87
75
-40
-13
-45
52
1
-100
-40
-60
-8
21
23
-127
79
102
-78
8
26
30
-34
-42
10
-83
-29
127
-52
-106
117
-38
1
-88
-58
5
-99
-90
101
74
57
127
-58
-36
64
-34
-127
-6
-37
-19
32
6
-33
-30
-72
8
12
-118
20
32
-105
62
127
-47
127
45
13
-17
-127
15
-127
-87
-109
-118
-108
71
-91
4
20
2
-54
13
-31
-11
-23
-93
-56
-94
-36
-33
21
65
-53
-32
-100
55
-51
-35
-15
-89
-127
-33
-54
-57
1
-47
-108
-127
5
110
-47
125
0
106
62
-120
-100
17
-18
73
-59
14
-2
66
37
-99
-76
-42
17
-76
-21
127
83
-94
-105
-57
-98
-127
-127
31
-71
19
73
-33
13
99
47
61
-101
-71
-47
-40
57
62
127
46
-33
-64
-27
27
51
-42
65
-115
127
-19
127
94
35
16
112
-106
-53
23
-71
-122
-82
50
-18
-91
107
1
-39
-35
-22
48
-93
-127
60
127
-127
-54
43
58
8
-89
72
-26
18
4
-30
-109
99
-24
-90
-75
-84
-72
-90
27
32
24
68
61
-9
43
18
-127
-45
-8
-37
-113
52
-100
-11
67
-88
-28
9
-70
-127
-127
-114
4
-47
-28
94
-74
-127
-91
-127
32
-18
-22
102
109
-40
51
10
-38
-83
-63
-10
10
27
-22
-15
90
5
-28
-127
-127
-49
29
-78
94
101
52
125
-127
-30
33
-57
55
108
-38
-96
-55
56
127
-63
-127
-94
-6
-4
-31
52
-49
-24
41
-49
-62
-16
7
-43
-112
92
2
2
-18
-127
-25
-45
43
-53
44
-48
44
-37
105
-127
-70
-21
-106
-4
-15
99
-20
92
63
-31
-127
29
-79
-80
125
10
-109
-12
-60
-127
-127
52
127
-56
9
5
78
-9
-110
51
25
-52
73
-73
-16
-27
73
-90
49
14
-9
13
-101
-127
-79
-83
12
44
-127
3
-27
73
-77
21
-59
-39
20
12
-8
36
-22
-107
-86
-59
9
-19
75
73
-32
-127
-127
126
127
-112
-72
-85
68
-8
-19
-60
-127
-97
-127
-22
-22
17
-106
-47
-113
54
-9
-73
127
127
27
127
49
40
-46
26
-100
33
-4
95
90
50
54
123
-75
-13
-2
-54
-30
-127
-80
126
-15
-70
-41
-44
7
-37
-121
-47
-42
127
21
-24
127
106
-127
-11
-80
80
2
118
85
49
-87
6
127
-20
127
44
91
-15
-6
45
8
-27
43
13
-127
-89
127
-76
79
102
27
-34
127
106
-114
-27
-85
-57
-9
127
127
124
70
-6
3
-62
71
-19
-76
-7
112
-2
22
31
35
-11
-25
33
65
88
-66
-25
115
-105
98
-33
127
9
88
-109
34
-61
-43
64
-127
56
62
-100
27
9
-13
-61
111
-72
29
-29
54
-9
-34
37
-99
9
88
8
-85
-81
-76
-33
-84
10
43
-82
-127
11
-52
-1
127
44
-97
12
-48
-6
67
-127
-125
-31
49
-127
-42
-57
127
82
-88
-40
-123
-39
57
27
80
-68
-39
-36
45
-54
-127
-127
29
17
-18
-17
3
-33
1
-55
63
2
-45
-27
65
31
-78
117
-5
-57
-49
-47
23
-127
-41
-127
-63
72
19
-64
16
-61
-49
-41
-60
102
-92
70
104
127
-127
-93
55
1
-17
61
-42
-117
74
78
77
-127
27
46
-37
60
53
-67
-127
115
76
26
9
-10
25
11
3
-27
-16
127
98
-28
-17
57
-8
-16
28
127
32
100
-104
-64
-88
23
-78
-6
-127
34
6
-60
68
4
-109
-23
-18
127
123
0
13
35
59
-9
91
-4
-1
94
-24
11
-117
-38
-118
-43
34
39
103
-3
-109
32
-5
-127
-114
-21
10
-47
-119
27
48
102
127
60
-65
-42
127
-127
4
-48
126
-18
95
-26
45
-40
-29
-97
-46
-7
-43
44
32
-6
118
1
-37
22
-97
-84
16
68
-74
-63
29
36
105
-80
35
-49
42
-54
-49
14
-9
-58
-65
68
-18
-49
-111
1
34
-9
5
0
40
127
-127
-4
29
6
44
25
22
-7
76
37
14
-59
-127
-70
-68
34
84
33
-83
127
-73
-89
82
-78
-65
124
-50
-11
-11
108
58
-16
27
-74
-38
93
-127
-27
64
-38
13
-127
127
123
-66
-19
71
-53
38
127
-82
76
-12
34
84
61
-38
127
16
-9
84
109
-67
25
-27
44
32
-23
-23
-127
-62
0
52
-53
11
36
-105
-46
20
-49
25
-49
118
47
-30
14
-17
-88
12
-4
70
52
-7
-54
-89
-120
97
43
95
-8
-127
97
-49
53
-99
-127
-57
-13
-86
17
-96
36
112
-98
-13
-92
17
-112
44
6
6
-127
-117
-95
9
1
12
-80
-106
29
22
-94
-31
122
-127
-117
-11
-79
24
-20
48
-127
127
-3
-16
-10
127
-35
-119
-30
52
-127
-33
16
10
6
47
127
-65
-29
60
45
-21
-123
-1
109
70
54
-22
-88
127
-18
-31
94
29
-99
85
123
-2
8
-56
-55
-60
34
-17
-49
-43
17
33
35
-18
66
66
14
12
38
-127
-127
127
-16
-30
0
49
50
-85
53
-110
-127
15
7
-53
6
8
97
11
32
-34
127
52
-38
7
-33
-76
26
-102
-64
-19
69
-32
-36
-77
-75
59
-7
39
48
-20
-47
15
-76
52
-127
-127
-23
91
24
-22
82
3
65
127
-2
-48
127
-127
-80
-20
-94
-19
-115
27
19
-102
18
-70
-65
-30
-65
59
7
-113
82
-127
57
55
-66
-127
-80
-41
-39
-5
127
7
-127
-76
-26
-8
-127
-6
22
37
-84
10
4
-77
-79
-10
-37
127
-64
-26
-61
-16
-3
0
-9
-99
-127
17
-24
-35
-23
49
-111
-38
-47
-2
-12
-104
-12
56
-125
-4
54
28
127
2
-127
-30
108
-127
71
-59
26
-29
85
80
-81
-16
-89
-106
119
54
-95
-127
58
-27
45
-77
-40
-69
-63
-23
-83
-69
-1
3
3
-127
-127
127
-22
127
-75
-71
37
-85
-19
127
-95
-113
-91
22
-8
-12
127
-31
-12
-36
44
127
-12
-22
-29
-30
1
-107
-127
-70
94
115
45
-95
-97
55
-2
-40
-72
-85
46
-82
-80
10
-73
-12
-7
59
-120
69
-102
4
-91
127
5
-71
-10
-49
-34
-99
-103
-112
-127
-127
69
-120
-23
-44
83
-24
-10
120
-60
25
13
-5
81
-12
-67
-72
-38
121
59
-52
-7
105
-55
8
-51
-88
-69
22
-127
-8
-24
-90
-52
-121
-7
11
-10
-40
-127
-109
-50
-84
-127
127
-127
-127
-44
-53
-41
-107
-31
55
-33
-68
-29
33
-32
-89
-92
-92
-106
-92
-13
32
-17
32
69
-11
73
8
127
-127
-80
-65
64
99
-106
127
105
72
116
44
68
4
127
1
57
85
6
-93
-6
27
-30
62
33
-60
10
-1
54
60
39
26
-73
-120
-14
8
51
-127
-127
28
-123
109
-57
-102
40
-15
55
8
35
46
61
-12
127
-18
-37
-53
-97
51
40
-59
-125
10
60
-81
-7
-64
82
40
-127
-62
-94
35
-90
-110
-78
1
53
104
17
26
-89
-127
-127
22
-127
-23
-11
-63
-127
-19
126
6
99
-51
-7
21
23
96
126
66
-59
52
47
5
-127
-127
25
52
42
-127
-27
-40
125
44
121
55
-3
13
24
-19
3
-47
78
-69
-127
18
-65
91
-63
20
-19
-117
4
-38
-34
-104
-70
-12
-60
-100
-113
24
-41
16
-32
-16
-11
-20
64
-60
-20
-59
-127
-103
127
59
-120
-33
-105
-91
-17
49
127
-68
58
-109
2
36
-30
84
27
-27
-127
