-74
-10
47
-17
27
22
-51
-53
-90
-20
14
-1
-104
-14
-10
22
55
-8
-68
64
-20
82
-100
-48
-6
-68
-126
33
12
-100
-19
12
7
17
6
-16
34
-40
-75
4
-91
-127
-94
2
41
-2
-46
8
-48
25
44
14
2
2
-27
-80
-14
-88
-126
106
11
-3
-5
-40
-52
-15
-44
-127
-19
60
-20
-127
25
-16
9
-121
-127
58
25
-1
33
-127
37
70
-1
-16
-110
-1
127
15
-127
-54
28
-35
-55
94
-36
34
105
-12
87
81
0
-64
-114
-36
107
79
-60
9
-23
62
97
38
-55
57
-32
94
-127
-117
-53
-75
-102
127
-9
-108
22
20
-45
78
-23
-36
-19
-80
-31
64
61
-60
-23
-67
-103
47
-43
-7
-36
45
35
-12
-32
-8
27
-28
-8
-87
-34
115
-7
-96
20
-107
-30
-74
-13
-48
46
52
-47
-18
-41
-60
52
-63
18
6
27
34
94
-6
99
66
53
-3
-64
114
103
123
-28
-93
81
-64
-41
67
-62
1
62
-98
17
89
116
27
14
2
79
127
-51
53
-55
92
127
14
11
3
-68
14
-64
-1
-84
-69
41
73
-24
-121
79
37
-19
67
-26
-77
-70
-26
-36
127
108
30
-48
-31
42
86
-54
-124
-127
-15
41
-50
-48
12
2
95
-23
-24
-127
66
13
-27
-21
25
65
-36
25
-14
-7
49
-7
-90
79
-22
39
76
57
-68
-35
87
53
17
127
48
-73
-110
-45
55
31
62
23
-127
16
-8
-20
-25
-13
-83
14
-32
56
81
-72
-127
-112
-54
-27
-12
-114
7
34
56
15
61
-26
71
-5
114
26
1
-77
-127
59
73
-52
-127
1
9
-41
114
-93
-17
33
-127
-55
64
-29
-114
-73
10
19
0
-73
17
82
39
7
-52
6
2
30
23
-9
-127
7
127
16
-68
-78
-57
-127
23
-73
-21
127
85
-20
-64
120
-79
45
-94
-106
-108
28
-16
124
-92
14
81
70
14
64
-104
76
54
-14
-37
12
-77
59
127
-84
-84
127
45
43
127
18
-71
41
-127
102
56
-16
18
124
127
70
127
-122
11
-76
123
126
-127
-110
-62
-56
102
-53
-108
127
77
-86
111
-104
-67
-64
-57
-127
120
127
-31
-127
-127
127
104
-127
-20
74
127
84
-117
-24
-52
127
92
-97
-118
14
86
11
-106
32
-127
-20
-85
-91
30
121
127
-74
-116
109
-104
127
-47
29
-127
28
101
127
78
-9
127
7
6
119
67
-42
114
-41
-79
127
-102
-13
119
-26
-89
111
-127
-21
101
127
75
97
-81
127
115
21
36
85
100
56
76
21
-64
-127
-41
94
-53
-127
-50
-127
31
-3
-95
122
127
-69
-5
-25
-127
-127
26
-61
114
94
108
-68
4
119
63
-33
-127
81
9
118
-127
-109
-42
119
118
-67
-4
40
32
18
-79
127
31
99
-127
-89
60
51
50
-90
-78
60
-127
102
127
79
-91
-127
127
9
100
-51
112
-127
127
127
127
-97
-6
34
-113
61
-81
-22
32
-35
-127
23
-54
33
79
-123
-56
32
-36
-75
-120
74
-112
46
113
-76
47
-18
22
29
40
60
72
-6
8
46
40
-33
15
57
-17
-63
127
-127
-5
-6
-20
-1
11
-45
-64
-12
-25
55
53
-111
20
120
24
45
15
82
-23
39
81
2
-82
76
-54
-85
-124
38
-29
-113
68
-103
-28
120
37
-23
59
-5
-105
69
-79
-21
-1
28
-12
44
-21
-44
66
31
51
16
-104
13
16
-113
4
11
-127
4
120
-127
-119
81
101
-18
58
8
-41
127
-36
45
-77
127
-127
111
73
9
106
-127
-80
20
-30
-39
-11
38
-64
74
42
-127
-16
113
39
-127
119
-18
-56
-108
19
-1
11
67
8
-56
-67
20
127
-109
-36
113
61
-127
-87
0
-127
80
127
-47
-51
97
-102
-127
-127
83
-96
27
-20
-127
-33
124
86
-78
69
112
-99
72
-20
40
43
10
49
-40
81
-107
114
-94
-21
-35
78
-58
-87
65
24
76
-53
-127
123
-14
-106
85
-77
-127
24
92
17
105
-85
89
26
71
-107
127
-19
-77
47
-18
-127
-109
-127
-69
-116
-17
-81
-9
-30
-28
-124
50
52
-81
-81
20
-9
-113
107
-4
57
79
116
-77
-6
-80
98
-63
-127
39
15
-92
-101
-127
-47
124
38
-127
-18
51
-112
-98
-65
93
14
64
-57
-62
3
73
-45
-127
72
127
-84
7
124
62
40
-117
31
-72
59
-110
111
-41
117
-96
96
-81
-127
48
23
66
-113
-73
41
