-1046
-2293
-1661
-2178
63
-105
-350
-999
-64
1315
-652
67
-1697
122
-2444
-1445
-1532
380
-118
-3334
-969
684
765
-91
222
-749
-2668
-1712
-1494
-3872
113
-3018
-2380
-4870
319
-806
-1075
-1492
-630
-399
685
788
-40
-293
-349
-1841
-380
-609
-1508
-732
-1352
-922
-866
-2578
-268
-360
-3877
272
-3243
-1756
-325
-2991
-557
-1517
-599
-306
-3089
-779
-1984
-305
-60
-1093
-2368
-3186
-1135
-154
-2828
1330
-452
-1166
138
-2307
-3838
-1584
4180
-986
442
-285
-599
-1566
-1774
807
-936
199
797
-4659
-1477
-1573
-358
-544
-443
-1237
510
-747
127
-393
1554
315
-338
131
-558
-2376
-380
-925
-329
-1163
-1329
-5052
-1714
-1109
-5673
-375
-777
-2045
874
-88
-347
-1589
-1676
-1689
-3117
-3398
-1340
-1406
981
-1022
-25
-1306
218
-459
-751
-1888
1480
224
-385
739
-725
-1006
-2013
-1100
236
-609
-292
1021
-1465
-645
-1258
-823
-2228
-1459
-2187
1479
-1305
-64
304
-891
-3266
-518
439
-2
-875
-1871
-22
-1500
1859
-639
-980
1016
234
-755
-1396
196
140
-400
861
370
-1332
-270
-800
-310
-511
853
-626
-2413
160
-1342
-230
304
3508
-303
98
-1082
-353
-476
1744
-79
-575
-605
-1494
488
-1923
-556
26
-529
562
581
-650
918
638
20
-1202
538
703
-1412
105
-22
-766
-1236
1179
-1125
-583
-1152
-1342
-4032
-1399
-702
27
554
-99
238
-910
574
-800
-2262
-1550
-566
1624
358
-629
-3079
-2898
-2586
-4957
628
-5829
385
538
-1407
-682
839
-916
380
75
-1188
686
-144
135
-1078
-671
-2077
-113
-438
468
-547
-1872
-785
-2019
396
-1925
-2563
-1236
-2126
-2256
-557
909
-432
-366
423
