-497
-728
153
-723
1104
224
-420
940
-1774
-353
-2827
-1613
-1724
-859
-4488
427
4660
2192
-1289
1770
-769
-2940
-2439
-739
315
-3772
-4277
-674
-2967
-2626
-637
-590
-3902
-3114
653
-5088
-103
-146
-5229
-644
1463
-267
-3888
914
-3104
-1731
-781
-1045
-736
-3425
-1213
-149
-524
277
-4293
-245
2344
747
-3738
2168
-243
557
-3418
-452
-1217
-4518
224
-549
-2648
-483
-917
3970
-1618
-1967
1163
590
-27
1089
1912
-6741
-1810
-453
-1741
-1113
2114
-336
1095
293
358
-2175
1299
-755
-1285
-1105
-447
-724
-2285
2513
-1272
-2183
867
-404
-339
2291
1076
1694
-707
-381
-411
-871
-2265
480
-4107
-1220
-271
-4273
-1379
2864
904
-3266
206
-4175
2531
-1338
-316
634
-682
-4526
886
-680
2249
-2237
457
-984
-1974
-1339
-66
1702
-218
-2945
2381
-4725
7293
-491
-1392
2038
381
-1796
-2491
-848
-2028
178
-565
-601
1457
171
-1310
-1283
-2509
132
1375
-446
-3436
-1743
-3211
-702
-607
-2983
675
769
-11599
-7190
-4536
-1511
-1479
-792
-679
1002
-1214
-1403
2325
-1558
573
717
503
590
1239
-2015
516
2487
-4990
3007
-984
-3468
-9
513
-59
177
-488
-1070
-1511
-3154
-1312
-1212
1071
-2621
-3678
-2004
3162
-3616
-2488
-3369
-3094
-2279
-2007
3738
-5156
-775
-1080
-505
-212
-403
-2829
-1425
-1124
693
3165
1159
-374
-2622
-3536
-447
1403
22
-1713
218
1451
-126
-217
-2091
-3444
-3900
-2101
445
-3176
1638
-3397
7
1496
-6
-2035
998
1988
1183
178
301
-721
-3492
-82
-49
-1007
-373
-12900
-321
-11620
15
-1829
-1069
4222
-1547
-1976
236
-300
2804
-383
-526
-5930
-682
-656
-2043
-601
-2968
755
-3484
204
-537
-269
-1267
-850
-11012
-6910
-2306
-842
-1366
-67
-5466
-922
-419
2241
-48
-2288
-1441
2902
-884
-2021
657
-1211
-7
1391
-4436
-1386
-2596
-1231
-1833
-533
772
-1289
-1546
-236
-33
-217
-589
-2010
-1052
2325
355
-1285
-479
-2679
171
-272
1288
-3691
-3484
-376
-1579
1299
-1922
-1974
1379
56
-1589
906
-1341
2037
1338
-397
176
-4014
918
14
1136
5209
137
62
244
827
-2789
1451
842
199
-811
862
-2576
1893
-7177
-2026
44
-8762
12932
457
-3544
-1779
2962
1454
1828
-31
-1167
-155
-830
-1344
-228
-3420
512
427
2035
-205
-3100
-1235
-679
1070
-5263
-981
-1466
-687
-1888
436
215
-2783
135
-1227
-2749
-2798
69
-2027
-474
-2643
-949
-243
-893
1696
-2223
-1495
-1440
1794
1364
1134
173
-10542
2309
23
1095
285
493
821
-4436
-6360
-636
900
1414
-1353
-1036
1211
326
232
1195
-1446
-2264
-2779
-1343
600
-2798
-1389
-194
3033
447
-934
-14472
-2972
-18
-1462
1196
-2046
648
-2205
-2504
-1874
-319
-2191
-261
342
781
-3287
-1252
-1479
1137
4910
-349
362
-2781
-3748
-774
-624
-1256
-2732
6515
-3261
494
143
1798
