-125
-127
-3
-120
-13
36
-30
46
-20
-6
-127
22
-70
-121
-17
-9
-55
-112
-32
-11
6
87
-38
-46
-127
-66
-40
-5
-25
-22
-31
-73
-74
-42
-94
-127
127
21
127
-90
-2
-69
-44
97
-38
-52
-16
127
-72
53
-22
47
-127
49
-67
55
-127
87
85
-80
-46
-16
127
-84
-127
-91
-18
18
-40
37
-13
-9
7
1
-60
74
46
127
119
46
8
115
127
4
4
-32
-8
-29
-64
-36
9
-108
51
-3
19
-127
10
-115
-33
-111
-18
110
-41
-30
-18
-127
-45
-41
-15
-106
-41
61
36
127
31
30
-17
-47
-37
-3
54
-28
-63
-121
-75
12
46
-22
40
18
57
-39
31
-34
-38
127
-24
-91
-13
122
-26
-75
-56
38
-77
51
-118
127
-126
53
-81
43
-72
127
43
-34
43
127
-103
65
-97
28
-14
65
-20
125
-115
5
-51
-127
41
-68
8
56
80
-37
-21
37
-29
-31
-28
-18
0
65
-127
-46
74
16
-50
-53
104
19
-6
47
8
-48
71
43
-92
-27
7
12
32
-100
-104
-66
-26
23
27
124
-59
61
4
-6
15
25
4
-38
-127
-110
-84
-42
67
-35
-53
-112
38
-72
27
-41
-13
37
-46
-2
-116
-27
-67
-70
-2
121
-127
-27
-41
5
-44
30
112
65
-60
21
67
-66
40
60
36
54
-93
-23
38
64
35
-127
-127
-127
-103
-47
-99
-22
-60
-113
-70
-88
-97
127
93
-27
-20
-25
119
27
-57
-73
-77
127
-80
-16
53
89
113
35
46
-117
-44
-16
44
-127
-55
-28
43
127
-17
-127
77
-76
-127
-37
-99
-9
-127
127
-56
34
-23
-33
-124
-1
0
-119
-79
127
53
-9
-127
7
113
79
108
-6
37
-127
-18
-90
-70
-127
71
-17
-3
-108
-96
9
60
89
-47
-103
-12
44
-67
-15
4
-21
-115
-100
4
-66
-120
-45
21
-23
65
69
12
52
-10
28
48
-2
23
-30
-86
-96
-33
127
127
-127
-87
89
-14
-127
41
-66
-27
-59
-54
-69
127
-64
-80
-53
-30
-63
61
-41
121
-58
114
-5
89
-40
-7
37
-50
61
-7
14
-85
-41
-12
65
-9
21
44
44
69
61
-6
-5
127
-101
25
-49
-5
-34
5
37
38
-9
8
57
-93
18
48
-38
44
125
79
124
-29
24
-95
-127
56
9
-52
122
49
42
-91
11
-71
101
-48
44
119
-119
-27
60
-10
-7
127
127
-12
44
-92
7
26
43
-3
-100
12
48
-59
-9
55
8
43
-123
6
-63
-99
-93
70
120
-34
-127
127
1
53
-47
-93
-33
31
-126
-28
8
-32
36
67
-32
46
-47
-81
-102
47
-95
17
43
2
-66
-127
-86
37
-72
-61
23
-17
6
35
-127
-24
-69
127
83
52
-5
-20
81
37
22
18
32
52
58
-83
3
127
-61
-85
-46
92
59
21
11
-6
91
-38
-79
-9
-110
55
-59
10
-62
-127
29
-67
53
-127
13
-127
-14
-6
41
52
-93
-47
4
127
-127
-1
-60
-105
44
15
21
-127
-61
-12
-3
121
-28
-76
-40
10
75
-103
58
-54
83
-127
42
64
-127
-89
8
-103
98
79
23
-127
127
1
67
9
-125
-24
-72
-127
-27
-40
-52
-108
40
-59
-23
57
49
-64
2
-41
-108
-94
-74
-111
-21
-9
-127
-11
51
10
-127
33
-55
40
19
-127
22
-105
111
-79
-27
22
-70
-127
-124
-127
-41
-27
57
13
78
-93
-108
7
-75
-118
-101
-127
-29
42
-1
35
-22
-39
17
-8
-34
-24
18
-37
12
-57
-13
-16
84
-69
-61
35
-127
127
49
-127
48
-44
40
-59
84
-86
-84
-63
-37
92
-75
124
73
-70
-78
-22
127
84
107
4
-65
-65
-107
14
61
40
8
16
-80
-40
51
-93
16
-47
31
-111
37
-127
-21
-24
-32
37
48
109
3
23
-10
72
35
60
101
-19
1
-49
-127
-23
40
-65
-35
-49
98
-81
72
-55
-12
-57
-59
-107
-26
-106
-106
-102
-25
56
-3
-76
-11
-100
35
-12
70
-127
7
-84
-127
-48
-102
-20
34
-127
-46
82
-62
58
13
-44
17
-48
-67
-40
68
-127
-24
-1
-87
127
-127
106
-82
-80
-59
55
-79
38
127
-17
-127
-6
47
-70
127
59
-22
-22
-68
4
-26
-6
48
-127
-127
-127
52
-51
-105
74
-64
-127
-103
19
-101
-94
32
-32
5
114
127
-127
81
-3
-43
49
-127
-91
-127
14
56
47
-20
-60
68
-21
78
-82
95
-103
-127
3
1
45
-29
-40
11
-60
78
25
-53
-44
-100
127
-49
-28
3
