24
12
-127
90
-101
-9
-63
-99
25
-28
23
-19
-56
-99
44
-66
40
-94
-25
63
-127
-107
-57
-21
-65
-127
81
127
-53
127
-63
-45
127
-109
-100
-20
-5
-13
14
33
-82
-127
35
-5
33
127
-9
-72
50
12
127
-3
-40
-4
64
-2
52
14
-32
-63
-51
50
-112
-30
-22
-34
-53
-29
15
1
-127
-6
-9
-18
77
-50
93
62
-127
-63
-23
-2
-93
-11
1
12
-62
70
127
24
71
52
-125
-39
-47
-46
-113
-53
124
-65
-51
40
-17
84
105
123
37
-72
24
-61
-35
-18
39
127
-101
-32
-69
-63
-32
-37
-31
-93
-26
90
-99
-27
65
6
127
-18
-42
-72
89
13
-101
-38
-27
6
-51
23
-127
0
-70
-127
26
-84
-12
65
-62
-17
12
42
22
-57
-47
-72
-68
23
55
-30
22
17
123
-61
-23
-94
39
119
-62
65
-93
33
-59
-25
-61
-26
75
-14
69
23
118
-66
59
8
38
-127
-109
61
-127
-44
-69
-89
26
-26
28
-17
-72
-63
24
76
-2
-56
-24
-80
-39
-71
-89
42
75
-36
44
96
69
-110
-49
-1
-74
-127
56
-48
-1
-115
19
29
91
-4
-71
-64
-78
72
21
-26
70
71
-26
68
25
27
48
-28
-58
37
-116
23
-127
-127
32
-39
119
127
-127
127
-127
-127
-87
-9
-82
-38
15
-64
-61
-120
-127
-79
98
-9
-127
-1
21
-95
103
77
-5
-39
5
-54
39
21
86
-127
-1
15
-127
-26
-90
5
-40
-97
-8
-127
6
5
19
-68
-49
-83
31
42
-127
-127
-70
14
6
-69
76
-103
-37
72
49
-98
-32
-127
-19
-25
127
96
-83
127
-111
-71
120
106
-127
-45
72
-64
85
-14
-127
15
22
-127
-82
26
-11
34
0
24
63
66
-40
2
-102
-127
12
-17
-82
-69
64
101
-127
-27
-75
59
27
-57
98
7
-89
-49
-60
60
-11
-62
-20
3
69
-87
-37
13
-10
-54
54
-1
-95
127
36
-16
29
48
20
-55
-43
84
60
-52
-19
-41
-14
-52
18
-82
-59
121
-11
-58
4
-84
40
-46
13
-32
-55
50
-125
33
-3
17
26
52
46
13
-34
-109
-127
-7
20
51
37
59
49
8
5
-2
1
-127
-2
-67
-33
32
-96
-3
18
-41
-39
84
-25
73
-21
-127
15
-70
37
3
52
34
6
48
-7
-70
-127
44
-13
-5
127
-68
17
85
-79
-66
-78
-91
-43
25
33
-21
-12
21
-24
-127
54
-111
-127
113
-82
-42
15
57
18
-26
41
-109
23
-6
-77
61
-127
-30
-22
-55
-84
-97
-62
-28
-1
40
-45
7
-41
53
98
70
-69
-64
10
-17
-59
-20
64
73
-127
68
-7
46
-43
-117
-127
126
-46
0
-104
64
-89
-125
-67
-77
-46
-23
11
-127
-9
-41
49
21
-95
-91
-2
-116
-32
93
-31
23
103
-38
-53
-12
-25
-84
-41
65
41
10
25
-8
-81
-12
16
71
25
-48
-100
15
54
-117
25
-76
-127
47
15
-71
-80
31
-12
-30
1
-127
-8
103
-18
-127
64
106
51
-25
-94
-74
36
-42
-127
-55
-63
-32
93
-50
-127
-48
90
4
-93
-68
17
-80
75
-37
15
58
127
77
-71
127
0
-75
48
-89
-127
91
-111
18
15
-77
-127
4
-90
-42
36
-30
82
21
5
3
-97
-4
105
-15
-127
77
-35
13
-120
30
-43
33
91
8
-127
29
-45
11
-88
82
-18
2
-16
-93
-34
31
-111
-35
43
35
-81
-7
-41
-77
-51
-57
-31
-79
7
-127
-64
44
-119
127
-34
60
-91
79
-127
76
-127
90
-73
-7
48
-66
-127
68
-111
-26
62
-27
-23
23
-14
67
62
13
-39
-97
23
-76
-41
-45
45
-21
73
50
50
127
-111
-57
9
23
-127
-127
-69
-83
-45
22
-63
-84
23
-42
47
-127
-75
-2
-127
-47
-47
-91
-79
3
124
-115
114
73
-55
-59
-18
70
117
-41
13
30
31
-60
40
44
77
54
32
-42
-34
-78
41
-29
42
58
22
65
2
-43
-83
-48
3
-12
-26
-44
70
30
-127
-127
98
-7
-6
-3
-9
-60
-27
49
-127
-127
-50
-75
61
-88
-110
-127
-127
-36
-63
-29
-22
45
-95
-127
-65
27
-42
118
-127
88
37
86
-84
-90
61
-26
-70
74
-71
-80
-25
69
70
6
-20
35
41
25
-124
9
-39
-27
-28
57
-45
29
-34
-127
-127
127
-54
-99
-21
-84
-33
-20
10
-118
-68
-77
18
45
-14
-83
-96
-28
124
59
-24
-127
-60
103
24
50
80
40
-99
15
-26
-108
51
87
-116
-75
15
5
32
-52
-59
-84
-8
-13
-13
36
0
-69
-57
-18
-36
26
78
-73
-84
-43
-90
-44
4
92
-80
70
-81
-8
82
103
-83
59
127
-45
78
30
-51
-102
-44
42
6
-57
-127
103
-39
53
-20
-11
17
-5
33
-74
120
-13
69
54
-26
37
-78
-19
55
98
-14
-19
41
-127
-101
82
-127
-93
78
-20
103
-23
-42
-71
44
107
-39
127
-95
-58
-59
-8
11
26
-127
-9
-127
8
-11
-23
-35
-67
-31
-127
-111
84
-118
114
100
127
24
-15
-4
22
-94
-29
69
-53
25
127
24
30
-20
-5
48
-127
-8
8
-39
106
-37
127
32
-23
17
-42
-68
-17
69
127
-18
-12
11
-109
1
-105
-23
36
-16
-63
-43
35
-15
-127
-80
38
15
-29
-127
-38
85
0
-26
80
127
1
-15
-29
-95
-127
-38
-124
-54
79
-56
-21
-127
-12
19
27
-6
20
-108
-60
-127
-106
-63
-48
-109
-107
7
47
31
-96
-117
-18
-40
39
102
-64
-66
-17
76
-127
-12
7
69
-127
-107
-45
40
17
-28
-127
-100
-64
-127
-124
-66
-8
23
-22
-12
66
40
-14
-72
48
-122
119
57
-85
-60
51
112
59
-28
37
-25
58
-8
-127
70
53
9
-106
22
-76
-19
-50
25
-26
27
-50
-122
59
40
-77
37
-23
47
-31
11
-21
-108
-119
125
-34
-41
-36
-10
-61
29
-67
-109
-127
-1
36
5
-127
-98
32
-31
-109
86
-37
-121
-5
52
-34
2
-108
54
-15
108
-83
-47
-85
-9
38
-124
-21
43
29
-88
127
-9
12
9
41
-20
106
107
19
-101
-63
-127
7
-101
28
-127
126
-12
-13
44
118
-111
55
68
-84
-93
-15
-64
10
127
-92
30
-64
-76
61
108
8
-66
127
13
127
-73
-126
72
127
113
91
-55
127
-71
-22
77
56
82
9
75
30
-49
30
123
13
127
127
127
-127
5
-26
70
-127
-12
-7
-116
-127
-122
71
-2
51
64
23
-73
9
23
68
126
-88
45
-33
-107
-85
-83
56
6
57
-8
-127
70
4
-79
-66
23
-100
112
-25
-9
127
-127
38
90
14
-76
79
-65
-33
10
9
96
127
-96
62
127
21
127
-42
12
-73
-91
-107
-30
71
-32
-55
-127
-96
-113
14
-63
-31
-91
-85
56
-61
-71
61
127
70
43
108
48
-112
-71
39
-95
32
49
-37
-15
41
16
-18
-85
-76
94
16
-17
-71
-127
10
-125
-4
-12
-12
-7
44
13
71
-50
-127
115
-110
-54
122
93
-127
37
-33
-81
-66
-77
76
-62
-4
-107
-12
113
93
-51
-127
-87
-127
-50
-36
-50
-31
-127
-78
59
127
67
18
43
82
-125
-8
-20
-127
33
124
-104
-57
-127
-24
-40
-127
-82
-127
40
-75
-61
-36
65
60
79
33
-116
-127
119
-71
-84
38
62
71
-30
-55
33
83
38
-51
23
99
54
37
-19
20
-59
-65
71
-35
16
42
-115
7
127
48
-102
-47
-41
34
122
-114
-115
68
88
74
13
-111
55
-77
25
5
-17
49
37
-73
17
52
65
8
-75
27
126
98
-7
60
5
55
85
94
-70
44
-14
110
-55
84
38
40
61
127
-69
121
25
-90
49
22
-49
-12
-32
91
-48
92
13
-43
-74
26
105
-22
-127
66
-41
7
-110
-95
-127
-108
122
30
-127
71
-107
-80
94
-60
6
-127
-37
-66
122
14
-47
3
-16
-64
-3
25
73
37
-11
32
100
-17
-127
-33
-34
-68
-17
127
55
-69
-82
-19
-54
9
127
-16
127
39
-103
70
-74
-67
-120
-62
15
36
118
-39
-25
30
-127
70
127
-53
-47
-65
99
76
50
63
-53
-111
-50
-83
-6
-24
86
-8
127
88
96
62
-110
-19
33
29
-98
-112
-1
-121
-11
-2
-25
13
64
-127
32
122
-127
-116
-33
-28
-102
-17
-60
127
127
-110
95
-10
94
-127
-33
57
99
127
-127
28
-127
43
71
127
70
37
-105
-127
-111
-70
-57
-88
-19
127
13
22
-81
-127
-30
-47
127
-95
-127
70
-127
41
-21
-83
25
54
60
127
-11
78
-24
127
-20
-69
-127
-127
-44
-63
-67
27
22
-84
-65
-12
-63
-61
-127
-70
-9
-18
-127
-32
13
0
-28
31
-75
-32
1
-127
-99
-123
-49
-95
14
-115
-96
18
-16
43
84
16
-83
72
-17
52
-109
105
49
7
-10
-62
69
117
59
-93
63
90
10
63
-98
-127
41
-127
-46
67
127
-65
-69
-42
-9
16
17
-108
-50
87
-127
24
-29
-127
-40
9
127
-124
-127
125
-34
-66
-73
-127
-54
-127
-56
-20
-94
-19
-59
80
9
108
69
-127
-24
40
76
-127
-127
-35
-80
69
-31
47
-87
-40
-65
73
30
81
-28
-32
81
-127
111
-127
-69
-41
-107
102
54
-96
-51
110
-127
-74
-80
27
-35
-7
-72
-5
69
95
-7
127
-4
33
-47
44
38
45
-52
-41
-62
30
-56
30
-76
53
103
52
42
67
39
-80
-127
76
-6
15
-45
16
-98
-106
-71
70
67
-76
-85
127
-127
-51
-74
-6
-16
-83
127
-115
-65
112
26
25
-32
-69
-16
12
-23
-3
26
-12
12
76
-127
-93
-47
127
59
52
-58
107
27
127
15
88
-102
22
-124
-127
-14
6
40
97
-13
-67
-121
-120
-52
-127
-66
-68
-65
-71
-42
6
17
-79
-52
9
9
20
-70
127
94
22
-42
-50
17
-92
-34
-56
-127
-52
-19
9
-82
43
-67
52
27
43
-30
-12
-22
22
-14
-127
-40
65
-88
-54
-12
-120
-5
15
-52
-32
-106
-56
-68
127
12
-29
70
44
66
-127
-18
80
3
-60
-120
-2
83
-32
-124
-8
-81
-53
-64
-82
-105
-19
-39
19
39
21
77
-98
-70
127
-63
27
19
-69
-36
22
22
-127
-83
17
-75
-7
-81
-87
127
-117
-8
-110
102
-21
-107
-7
-20
-110
-2
0
26
45
47
-49
51
-62
32
29
-127
-86
-48
-123
-49
-127
41
-54
-33
3
-15
19
-101
7
-40
-75
122
44
127
-82
-33
-79
64
-19
-117
-51
70
127
115
53
-92
-56
118
79
56
-5
-127
-82
-127
-127
82
-69
-72
104
-127
127
-69
19
-56
45
106
127
-20
-88
-121
-30
18
86
-63
16
-106
47
121
16
-116
-127
68
-8
25
-6
-89
-25
-95
-43
35
-19
-56
127
-123
-127
-35
42
127
15
-60
-21
101
-39
-53
-24
-99
-47
-19
-77
127
-127
-2
68
81
41
78
127
100
-127
80
-55
93
-57
37
-127
-61
25
76
-25
-62
62
-57
-47
78
-125
39
-42
-41
81
26
11
-31
-48
110
1
103
-101
-18
127
69
-64
127
-106
-33
-38
-64
-93
-22
31
4
-73
-65
118
-35
68
34
-76
-93
62
127
-72
98
24
-31
4
-97
74
77
75
59
49
52
-61
-9
-45
-26
30
-127
-9
-84
-127
-127
-55
-78
13
-78
-117
-33
127
-1
-30
68
28
112
127
63
-127
92
85
-70
34
3
116
-56
-28
48
127
22
53
108
-127
-127
26
79
46
106
-121
-127
59
67
66
100
-120
-61
70
43
-127
-83
124
-8
-105
22
-121
-109
-73
127
89
-121
29
-76
99
90
14
-61
15
-127
-117
-123
56
31
-65
-61
127
7
-127
84
120
55
9
33
127
-68
-27
-118
127
-127
-22
-65
73
55
68
-127
-8
70
-28
-84
53
81
-25
120
7
-127
76
-78
-12
59
41
41
51
-33
-32
38
46
-110
-127
127
39
-42
17
17
-16
-66
89
-127
-97
101
-48
-127
-127
88
7
-13
-92
-65
75
-30
-127
-75
30
30
121
64
-116
-102
-79
76
-58
127
50
-19
-68
-126
58
-7
-20
-10
50
80
-50
-127
46
-84
127
86
36
8
36
-11
62
-74
73
18
51
74
-6
123
-32
10
90
21
59
-116
-94
-24
42
22
30
-46
-47
14
113
16
13
83
-124
-11
-39
-127
2
-108
-45
-1
102
-99
15
-39
-127
-35
-14
-127
-48
29
-94
-61
4
39
-56
-7
-6
-57
24
-107
9
-80
-6
127
1
-42
-110
-127
26
43
-42
-97
-127
5
-33
-91
127
33
-82
58
41
60
127
-12
-120
-98
104
20
-1
127
-127
119
127
-77
22
58
-2
42
84
33
68
-127
-33
-127
-127
-6
-125
-33
-19
84
7
69
24
-75
26
-115
-101
127
43
29
-36
-94
30
-32
19
24
-73
23
-77
-127
-73
-114
111
7
17
-33
-16
44
-100
47
-17
69
55
3
-25
-64
73
35
20
-33
127
-83
-41
-86
62
-127
-2
-71
-80
-93
-76
85
-126
-98
80
-87
61
-127
-78
-93
78
99
-100
-47
-9
-30
67
13
16
-58
-116
26
50
127
73
-127
100
-91
-98
85
-54
-64
-44
-91
112
-6
-127
84
-71
-127
-114
-77
1
-78
-46
-86
94
-30
112
-35
67
-51
40
-119
46
-127
-19
-89
6
21
-127
-127
5
-127
-127
9
65
-25
110
-127
53
79
-15
-4
11
-127
-38
23
29
-91
-106
-74
127
65
30
-127
5
2
-103
-5
127
-62
-70
-4
-79
-100
-79
9
-93
77
33
-33
42
-80
-69
-127
-29
-74
-49
