-25
33
104
27
23
-80
-62
-39
-16
7
43
-19
84
-64
-47
67
26
75
-64
-17
44
-52
13
10
30
-117
-6
-79
0
-82
-2
2
121
10
-7
-74
53
-62
26
-66
-11
49
26
92
-9
-2
15
91
35
26
37
-41
25
16
-21
76
1
-76
23
-20
-34
-52
-36
-16
65
-46
51
65
30
37
17
-82
42
-45
-6
73
-16
36
26
-34
48
13
-3
-22
10
2
-79
-3
-14
-1
-77
41
-10
-35
101
47
-76
44
-109
-59
-28
16
-13
-35
19
14
-46
-77
17
-45
-16
16
-71
27
-19
-85
-13
37
-110
-10
37
-8
33
12
-49
19
53
7
33
114
0
-12
63
33
-43
-21
16
35
46
41
22
-36
68
-97
-16
1
48
-29
81
16
15
25
-26
-38
27
14
-49
127
13
2
-40
20
42
21
-82
-34
-26
50
-45
-69
5
35
-46
-14
-8
-65
77
13
-18
-81
-52
-10
12
21
-38
-29
126
30
5
-73
28
-66
-7
57
12
7
76
-51
-46
-51
-27
13
16
66
-30
-6
-22
38
47
74
61
0
13
11
-51
43
-50
58
-54
-1
32
7
28
-22
-60
-33
42
-14
2
-84
-77
1
52
-38
46
-4
-6
-23
43
29
26
-81
-17
-51
73
-4
0
11
81
69
75
55
31
46
-5
-24
42
10
-11
40
-11
9
-1
31
-4
-35
85
33
-28
-15
-50
36
-56
-16
-77
24
50
-28
-80
-1
-41
8
61
-2
21
43
-27
42
30
-18
-82
53
-9
84
27
-18
7
-26
54
8
-68
-15
0
41
-29
-11
-46
-73
-34
37
9
62
16
36
-45
-12
69
-8
-30
57
30
24
39
13
18
36
36
20
0
-40
16
-51
-33
-110
45
2
-60
-26
-37
14
-37
-40
21
-90
-30
-57
-47
-61
-5
-40
-61
-16
-76
-82
45
95
-16
80
78
-2
-11
1
3
31
30
-21
16
-38
1
3
-64
-23
51
34
-9
-66
-13
8
-23
-7
66
-83
-3
23
-28
12
-11
-74
-68
-36
-32
-57
29
46
51
0
62
19
16
6
-6
-70
-36
-5
-37
70
2
-6
50
4
52
-61
-32
-4
64
15
13
0
-30
108
-57
-70
-39
-39
-14
-30
1
77
30
63
-60
-66
30
-48
3
-4
0
43
-1
21
-7
-24
34
-29
14
-55
-12
23
-17
-74
50
73
-78
-49
-5
-33
-10
-83
33
-92
-73
59
-8
-80
55
6
-99
-46
39
-1
-13
63
-40
-5
22
-12
-31
-76
113
36
100
-15
-9
-45
8
-32
2
14
-31
27
79
-9
-69
16
9
-105
-9
-13
-6
39
-16
-50
13
-83
-66
-3
-23
-127
-58
-79
-1
9
-35
-40
-42
-17
-59
-12
-20
-29
-41
-44
50
104
29
14
54
-40
-19
1
23
-80
8
7
20
15
-53
36
-2
-68
-56
-16
8
15
46
43
-44
68
-27
-9
42
-49
73
3
6
2
28
-105
-2
-17
-15
-39
31
-58
18
-42
-92
-34
-21
10
-93
18
-51
-41
-80
-5
-2
6
32
21
35
28
-102
-62
6
30
-22
-38
42
-23
22
31
-9
-25
21
-106
-31
34
4
50
45
74
5
-10
-30
5
10
4
61
-25
29
-40
40
24
16
61
23
-70
24
-44
33
-46
-36
5
14
28
-24
-14
-17
3
-36
89
1
4
-44
-23
-44
9
-77
-6
-123
26
45
-60
3
51
-24
25
-21
-25
60
26
-24
107
41
50
-19
-15
0
-43
3
-32
12
29
13
22
5
-40
-28
-9
5
54
-55
4
47
20
-14
36
43
57
27
36
-53
-74
-11
2
12
-32
86
-45
38
18
13
-17
-7
15
3
-48
9
11
-44
-15
89
8
19
-3
-55
127
9
-3
-38
74
22
64
37
-14
44
54
-53
-22
-28
15
-61
57
54
-20
69
114
24
-13
18
-6
-89
15
41
66
-60
-12
35
-32
-12
-35
49
-8
17
-59
32
-52
67
79
47
-32
-19
-2
-8
-16
-2
-26
65
2
-42
36
35
23
81
-20
-29
80
-82
12
-28
-49
15
-8
1
-52
-2
104
-16
28
12
69
-7
20
8
-64
-18
-23
-81
4
-4
-19
92
39
-25
-112
-41
-37
56
-16
-26
-53
43
13
83
-24
12
4
-1
-16
-14
13
-23
-42
10
25
-1
-12
37
-55
17
-22
36
-65
11
-50
-33
31
-108
19
-13
-47
40
-3
-73
40
13
-14
28
-60
-34
66
35
7
-33
19
17
-32
15
87
56
-17
43
15
22
7
-74
20
-26
39
-2
-121
-78
12
41
-40
-5
-46
-7
119
-24
63
-29
-26
42
20
-72
33
-28
56
13
36
8
-61
-46
22
-102
-42
38
60
-13
-33
31
12
-73
-36
-7
-38
16
25
-10
-14
3
61
-56
-68
-4
-33
-57
4
-23
-22
-63
-1
18
36
-39
-50
71
3
3
105
-84
21
-58
47
-49
23
-31
-54
56
-45
-1
-44
-22
63
7
0
-16
12
53
23
-4
-27
-62
33
-127
32
-13
-82
-13
34
30
-24
7
37
-105
-49
13
-7
-9
4
-1
-11
-75
-55
-62
35
-27
50
-9
42
-11
-31
66
-57
-14
-22
5
64
0
-22
97
22
-2
-5
33
-29
32
16
-46
5
12
-23
19
-34
31
81
-74
-49
12
-5
-4
-51
-25
29
5
-38
63
-60
-42
-63
67
-78
-34
0
29
14
103
-20
12
-48
-44
4
-22
-8
-26
9
73
52
-68
-18
-10
-17
-34
-71
-33
57
4
9
2
-34
-19
-4
-52
-77
-35
-9
45
29
38
25
1
-36
94
31
21
-62
-19
64
9
42
6
59
91
-12
-21
37
-9
32
-7
-15
14
-79
-4
21
-31
10
-90
27
-36
-79
-10
-63
-23
-6
-15
27
11
43
-4
-9
18
2
63
-77
-72
6
-6
95
80
-42
-6
24
-47
-16
16
7
43
-36
23
3
-28
-70
-4
-46
-22
21
-14
18
31
-6
16
17
-27
-68
-25
15
-116
9
-69
-17
-45
2
57
-84
32
-31
90
43
-65
-49
17
7
77
57
31
-32
-37
-50
-76
-29
-36
26
-79
15
-10
-5
13
-6
35
-11
-78
-71
-99
8
-43
24
-29
-8
-66
17
-24
-33
60
-43
-60
11
9
37
35
-44
16
56
52
-8
27
44
-41
-6
-48
-54
-3
69
-25
72
-33
-4
-16
36
31
-62
69
-19
-76
4
29
-10
-12
66
81
36
76
-39
100
-41
-22
48
28
-10
-7
-45
-96
-7
-16
-9
-10
56
-11
-2
-58
61
39
-57
48
21
-67
-44
13
20
-9
-60
-16
-26
29
-19
18
-16
28
-35
63
-11
28
-35
25
-3
-2
22
-5
32
55
25
-9
-8
63
-59
24
5
-33
-101
-102
-11
34
-23
0
36
25
-49
17
-83
48
2
-10
4
-19
-43
-42
47
-3
2
-18
-24
-57
53
-20
30
-36
24
42
80
-7
37
-2
58
-55
-7
47
-10
0
13
-45
8
10
-23
-46
-127
6
-28
11
102
33
-40
-20
-47
17
-58
-16
-52
-17
-6
7
40
-22
-16
-27
-26
-6
46
-68
-1
9
-25
-45
62
1
-5
40
16
66
58
9
-28
-69
21
13
-63
6
-57
44
-28
12
58
-1
35
-8
2
-11
-77
36
30
19
52
-52
29
-64
96
-97
22
-22
11
57
48
28
-11
58
-9
-24
24
9
1
3
-20
-43
32
-118
-17
-6
-10
3
-59
-28
-103
-24
-25
13
20
93
-8
19
16
-13
-34
30
-7
-39
26
-63
86
6
-23
-25
24
44
40
-90
30
9
-21
-50
-21
-23
-15
-35
-34
7
-20
91
13
28
-10
-16
-25
-24
38
34
-60
29
29
51
2
-35
-33
38
-35
52
-26
-4
-34
18
0
-127
39
39
22
-38
-83
-17
-9
64
-14
9
-16
11
42
118
2
-4
26
-50
2
70
56
42
26
8
20
56
-16
-8
-70
-27
42
1
43
-16
28
-8
-28
28
-16
50
-17
11
0
-28
62
28
58
-14
43
-16
-48
-6
-9
24
-4
-16
-21
27
40
33
-18
80
-51
78
35
90
17
17
14
-31
-123
81
8
-13
-3
-9
12
56
10
44
55
38
-6
22
-40
18
-58
53
25
13
60
47
-18
10
-53
-27
-31
-70
-12
6
47
27
-22
-13
-54
43
51
-23
-14
43
98
6
-43
30
36
-33
39
-24
45
14
42
43
14
3
-8
12
44
-28
68
70
80
-21
-26
-62
1
-4
-28
18
43
-26
54
54
-36
-9
5
25
9
7
-11
-19
20
18
-58
45
-18
-31
65
-25
7
66
57
105
10
2
-33
-73
43
11
72
-78
69
10
27
-21
-37
21
-39
3
5
-58
-4
88
-35
-19
-5
-26
9
-10
43
-27
4
-58
-2
9
-12
6
67
15
23
-5
44
-27
62
-27
2
30
-27
-29
-7
-35
31
14
-2
-46
-15
-99
-7
-13
-4
29
-8
-3
-37
-7
-52
-42
18
12
33
15
-3
-60
-11
11
-23
-8
-54
-47
-10
21
-25
71
-6
39
-47
54
15
25
-13
-31
69
40
45
-7
26
-8
30
-16
-4
-37
3
37
-53
25
90
-12
62
-45
27
5
11
2
106
15
53
83
-82
-7
-3
-41
15
-34
26
114
-47
8
-42
-1
91
15
-104
19
100
29
109
-49
25
29
-22
-7
-3
-70
-18
-95
-85
50
-22
11
36
-34
33
-22
39
27
19
100
-83
-32
20
-16
7
32
-61
-9
-71
62
-38
18
-71
76
-59
-45
46
29
-5
-127
-43
-36
57
-78
48
-111
16
32
-61
-34
95
-9
-4
17
45
-119
83
58
54
12
0
107
-44
14
19
-18
19
5
58
0
-15
-27
-63
-10
-24
72
-40
-13
-29
-26
88
-84
25
-9
-8
28
-51
-39
-124
-28
-76
13
-6
-41
18
15
20
10
-3
40
-4
36
19
-40
10
91
-17
63
-6
-33
-43
84
-8
-80
53
21
94
3
103
-68
61
25
32
-41
14
6
62
91
-66
-4
-50
25
-32
57
-30
14
7
47
37
-74
90
123
15
49
-13
-31
19
21
29
94
40
-31
0
3
-16
-71
-88
15
-38
-28
17
16
40
-33
-51
9
4
-22
41
-2
56
23
40
0
-62
-31
-16
49
-3
-25
93
-71
-102
-23
-8
23
4
12
-40
63
78
35
5
-43
-41
-3
-1
3
56
-23
22
43
-9
65
21
25
-14
-13
61
51
-123
-52
63
-23
58
40
0
-27
20
-39
-54
4
-39
9
40
4
-72
40
43
-18
-26
64
35
-19
-36
22
-48
51
20
-43
67
22
80
-73
9
4
39
-47
-35
41
-1
7
16
7
50
96
25
-3
-63
-21
-24
9
-17
-22
47
15
-33
-24
-36
35
-48
23
-38
1
-33
-13
-12
56
1
-27
29
-14
-6
36
-1
-6
-8
-41
-30
-14
34
-14
-45
43
1
-3
3
-29
45
-33
-19
-22
9
-18
-33
20
-41
15
9
11
-35
-39
-38
-85
20
7
-11
-8
27
-19
-56
-22
-52
-5
-29
76
52
-1
46
-7
-22
25
2
27
40
-61
21
-30
25
-18
-12
34
-17
-4
4
12
-1
0
-27
16
-74
31
-59
-25
0
-20
60
20
65
3
45
33
-18
-52
-36
-31
1
-38
-22
54
54
40
2
0
17
-6
-29
-4
-3
-44
-93
-6
-8
-52
23
58
20
8
-10
-13
92
8
-69
-55
-49
-4
75
-22
127
-62
44
-56
-23
-16
-2
37
40
-25
8
7
5
-15
17
-24
-20
-18
59
-28
69
-23
0
30
-21
-18
-45
-56
7
48
60
4
-5
-27
23
-57
-6
13
42
20
2
20
7
11
-1
-17
20
-62
4
5
-10
-42
39
-2
47
-30
36
-22
-53
-44
16
-80
38
46
-11
-9
-35
-30
72
-8
25
1
-28
-43
24
-30
-7
105
-2
-15
-20
-29
15
-76
52
31
22
-29
42
30
7
-18
-20
46
4
-14
15
53
5
-11
8
4
-13
-7
-4
-24
20
-62
-3
56
24
37
82
-10
-32
-20
44
9
13
20
-9
-12
-5
16
-41
29
25
60
-12
-4
-35
-14
57
-8
26
-31
45
51
14
-25
16
35
-11
7
-17
-26
60
12
-41
51
52
-29
18
8
61
127
62
98
0
36
9
58
-10
-7
80
92
-29
-3
23
85
38
-38
20
43
78
30
-1
11
21
-49
-17
-84
-30
23
-45
-92
78
39
-29
-12
60
-104
-17
-44
1
25
8
6
25
-17
17
-10
29
-20
-14
-32
16
-9
-4
14
52
58
19
-61
-28
50
23
-3
-22
14
-37
-31
-13
10
-35
33
15
-13
59
-28
-90
75
11
18
38
36
-30
50
117
-48
78
61
-37
73
-44
43
26
63
-3
41
77
-44
31
-13
-24
33
71
-41
9
69
-39
-54
-36
56
8
-32
-5
-44
-3
5
-14
-18
1
104
-49
23
-5
-11
75
-33
39
-1
-9
-8
-60
31
-53
-2
25
71
10
-80
67
30
16
10
17
64
-12
-23
-57
13
-5
10
-6
71
64
-19
-63
-60
-4
23
-41
-42
46
6
60
-45
8
52
-5
-57
61
42
42
113
0
47
119
9
-14
4
16
-37
11
63
-8
-80
-59
88
51
33
-57
37
2
75
6
9
-24
37
-23
-67
21
-47
-38
18
50
-14
-4
102
-31
57
-61
-35
-20
-3
-7
83
8
6
48
37
-37
-18
-19
-56
29
-12
-45
-20
0
28
-22
-9
-28
-36
-44
-38
-82
48
-18
-5
59
94
75
-30
9
38
55
3
-40
89
59
-29
38
54
34
-8
83
14
29
23
13
48
98
32
-32
-35
41
40
1
33
-25
89
3
-56
81
66
-13
61
40
4
-21
-56
-1
40
-32
19
7
-38
28
90
36
21
-86
29
-48
21
16
74
62
37
-33
26
-37
-6
27
26
-10
51
-33
114
-60
54
-60
-37
-20
83
-25
-112
-42
30
-16
17
64
20
7
20
-10
-2
-33
33
-66
13
-6
-78
90
-28
-16
-54
-1
-37
-36
-74
-47
-44
22
42
-22
49
4
-49
-23
42
-9
-82
34
-46
69
-100
2
-20
-80
-55
39
-74
19
18
-118
-39
52
82
32
58
-91
17
24
-14
30
47
-123
-92
50
19
-80
11
-25
80
-68
-8
21
-75
-40
92
-17
-19
-51
-4
54
9
-80
66
4
-22
23
61
74
-51
-37
-5
-74
48
26
-20
50
16
6
8
-23
-29
-20
-52
-34
-35
-43
-4
69
28
41
-78
19
10
-13
-55
12
58
33
-113
-38
-46
-72
-31
-1
-19
93
-74
53
-21
12
41
19
-44
50
-30
18
38
-28
-75
-45
26
57
44
12
88
37
95
25
41
-20
75
-26
3
-44
24
9
-73
8
-1
52
-44
-49
39
10
5
-43
-47
4
-59
-45
-88
28
36
-30
34
35
26
77
112
-107
5
-91
-10
-62
-42
-4
22
29
-45
1
23
-31
-24
-20
-64
-28
46
42
-19
-40
18
-13
-24
113
80
11
-79
-73
38
-60
86
17
71
39
7
60
-20
33
-27
-38
61
10
-12
56
-40
-36
39
-7
54
73
-7
-24
125
1
72
-26
-34
-38
-38
88
-38
-34
-45
-85
28
-13
127
-106
-42
62
7
6
-11
104
-18
-67
54
-28
-23
20
17
29
-14
6
-12
40
25
-14
15
-13
7
22
11
3
64
127
90
-15
-57
17
65
21
-63
-97
-77
-34
7
-12
59
53
-22
-80
-7
39
-25
1
13
18
26
9
-19
-67
-30
-22
-89
41
19
28
-7
29
-43
-6
-77
52
-54
24
-1
28
-70
-26
32
45
16
-3
-51
66
-36
11
-4
-68
1
-122
14
27
27
-72
-9
-35
26
-35
14
-31
11
58
-65
25
14
4
4
19
21
34
8
-43
-20
-21
-40
23
18
-72
-46
-69
-29
37
2
4
-22
-10
-43
-36
-17
-8
-42
18
15
-34
-50
-13
-11
6
-17
-13
-41
81
38
6
-36
79
-11
2
-4
0
-18
25
10
-9
-39
-84
5
9
-3
6
15
-50
12
-34
-33
72
58
-23
-27
24
-42
-19
-2
-28
-3
9
33
-15
18
-56
34
24
-41
2
-45
27
-19
22
-3
80
-28
22
1
12
-5
5
35
23
34
68
-31
52
-6
75
83
3
12
44
-46
-94
-2
-1
25
7
-29
16
-50
33
-6
23
-11
18
-40
-54
-26
-17
-23
-27
82
-11
56
-25
-15
-77
43
-96
-11
-61
21
14
22
36
-5
-10
-72
36
12
17
-28
-10
-7
28
27
6
24
-58
22
29
-30
49
-14
-35
26
-42
-15
-29
-37
34
-74
-44
-12
-22
34
2
-13
28
0
-76
-41
-7
35
-31
-40
-13
-22
-26
23
-22
20
-4
26
-9
40
-57
-5
66
-6
33
4
6
10
-43
26
38
-17
35
-4
40
13
-15
-39
-35
65
39
32
23
-53
23
-16
107
14
2
17
-29
30
-11
70
-18
-10
56
2
-38
47
55
18
89
-55
3
-9
5
51
-71
16
44
-54
31
-60
-43
-11
74
-45
-16
53
-16
0
-24
19
-32
-16
19
0
14
30
26
48
41
68
24
-44
-1
-40
0
18
-53
-27
-37
-12
-33
11
-1
-5
-76
-17
-108
-53
25
4
-75
9
-36
-21
4
20
20
-4
-10
-27
-52
56
50
-20
-40
-5
-23
5
-31
-95
9
-16
-1
-38
-29
40
12
-52
-7
-36
0
-29
32
9
10
76
13
32
-16
63
-17
-31
-83
26
66
-30
-61
3
11
19
-9
-58
-59
-20
-23
-85
3
-22
29
-55
54
69
-88
62
-17
-85
-22
1
77
3
-10
6
-3
-27
42
19
22
-35
6
38
29
-1
37
8
40
-18
-10
-8
-62
13
41
30
-6
45
-8
-3
-9
-11
-2
51
-24
-39
46
80
31
48
13
11
-125
76
48
49
25
-4
-5
21
-93
-54
-42
1
-57
119
3
11
-16
66
1
17
0
-56
-9
-14
-30
14
-8
-25
5
63
14
47
30
-1
59
55
2
-52
-16
-7
3
0
44
22
-5
-3
7
8
18
17
-14
55
25
27
34
-12
13
18
18
109
14
66
46
-29
56
56
33
49
21
-28
18
-63
8
-4
18
34
127
-8
15
-33
10
19
-9
-25
1
37
-6
4
75
56
-16
8
20
-30
-28
50
-5
-15
-28
65
-25
29
110
1
14
-31
-12
16
63
127
67
51
-25
24
-61
-38
13
-54
29
-42
-46
23
-68
26
36
-60
-45
-6
-64
59
26
-6
58
-22
-45
-3
-30
55
25
122
-65
-29
2
30
49
-10
30
18
-35
25
79
-56
-2
21
-59
-13
13
15
-21
-10
78
-28
-26
9
51
-14
10
16
-29
92
-6
8
14
39
102
-14
53
34
-61
66
-11
-11
22
-114
91
-92
-23
4
58
-19
-23
-36
-16
-15
-26
-1
44
-20
-50
18
55
-52
-96
62
23
5
9
-21
34
40
17
-90
7
-8
-1
-52
-61
35
21
91
-60
-53
28
-32
-15
-20
98
7
-37
35
13
-79
111
49
45
80
-57
37
-18
6
41
-31
72
-17
19
12
107
-70
-44
-29
-65
52
-58
21
-7
-5
24
-52
-12
-27
-16
-2
1
-93
-3
-15
44
59
46
-37
12
-9
14
54
91
14
50
105
5
-92
-16
4
38
16
9
-70
-81
-51
67
-68
57
-28
-54
-100
36
0
19
-26
-4
47
-1
-91
-85
5
-26
-20
-46
7
1
84
33
32
66
-29
-74
-10
38
-65
-107
67
-9
79
-36
-56
-11
67
68
-49
-51
-33
-35
-85
-35
17
3
-2
-67
56
-40
41
81
-27
-49
-4
-3
16
-46
-18
17
-21
-42
28
-77
-46
-68
-20
-16
66
-29
96
39
22
65
-54
5
-55
-29
27
18
32
7
36
99
-59
-18
11
-26
56
-22
-36
-9
73
60
-3
-63
4
25
-39
-44
-76
35
17
14
37
18
-6
-42
14
-67
-5
1
13
-17
2
28
-3
60
-15
-33
5
-7
37
5
6
-3
28
-50
-1
30
82
-11
-20
-48
21
-36
39
64
41
24
55
-8
16
-10
-49
-31
-9
-71
24
50
64
-15
25
-37
-31
-89
-40
-121
16
41
-25
20
-24
39
-12
-25
17
15
2
27
-18
14
31
13
5
37
42
-22
-3
89
-39
4
1
7
6
-4
-35
59
-10
2
-32
58
-23
-22
-97
46
-35
-35
-41
-22
-76
13
58
29
-127
-71
-90
-11
2
-6
25
21
69
-17
-4
-5
-28
5
-61
33
28
-22
-55
-46
-28
87
-27
38
92
4
-9
125
-7
-23
-14
0
63
-19
-20
-2
-17
-43
7
-60
13
25
-1
5
45
-38
-13
41
-8
25
11
72
-48
-43
-24
-27
-20
-56
-56
-10
9
6
87
-54
-26
-50
-54
28
-3
-52
86
-22
14
6
-32
36
2
-4
27
29
15
-12
-3
90
-15
57
-77
-25
-29
-9
-23
46
9
26
8
47
-112
-5
-26
36
-12
28
-24
34
2
26
108
14
-37
9
55
-36
-41
-53
109
-54
65
42
-50
-27
61
51
51
1
-5
-73
32
-48
2
96
-42
-19
38
-21
-54
-5
4
-87
82
68
62
63
-19
-55
-82
-102
-30
-60
-18
-33
-30
-21
-33
41
54
23
-53
52
-28
-58
-1
13
30
11
51
-12
20
22
-46
16
-63
-21
-11
12
54
-59
18
31
31
14
-73
-48
47
-9
62
0
-3
23
-46
-2
-4
29
44
-22
5
-31
-49
36
-92
1
47
-2
-38
-18
-46
18
66
-31
0
-52
-38
37
44
87
-13
41
-57
19
1
-6
7
-5
38
-13
23
-67
30
-65
-6
18
-2
19
13
-42
-49
23
54
-41
93
47
106
22
-7
57
12
-6
2
11
-20
7
7
12
-6
-40
-37
0
27
2
41
79
68
-54
18
68
41
33
-61
17
-23
7
-23
24
-29
-39
28
-28
38
38
-5
-24
-26
-30
19
31
41
47
-5
-9
53
89
-43
-17
27
25
-35
-18
-39
-6
-47
-53
-3
51
49
8
-37
39
-42
0
57
-102
-47
-52
-33
-21
-65
-15
13
40
73
-39
-91
101
29
38
15
-12
-99
4
-10
-29
30
-41
-32
-49
77
45
6
-28
28
-5
90
-30
58
31
32
25
13
-5
-11
-22
-4
0
-67
53
-29
59
-20
94
62
-16
-7
-5
-3
34
-26
36
-82
-12
-81
0
0
5
-12
-13
-7
-70
-22
22
-1
24
-12
-21
26
-47
-8
30
45
17
-8
3
63
-44
-11
-58
-9
13
7
38
-36
35
3
31
-43
42
-4
-23
-11
5
-47
-39
-33
-70
-26
-73
-35
3
-31
-9
-45
-35
-20
-7
-40
-24
-57
53
-34
-20
20
-127
0
-20
-83
39
-72
-104
2
-44
62
72
42
20
13
0
37
-27
-1
-42
-3
-59
-20
17
-96
-65
-11
-7
-11
-10
66
-69
-6
24
-83
66
122
57
8
-37
53
-10
1
-59
110
66
23
53
34
37
-10
-18
-13
49
28
14
-14
-40
-52
6
-107
-42
-37
-27
-2
-29
53
-63
-40
-75
30
57
13
-13
-42
2
11
-67
-43
34
3
-61
84
-27
1
32
-11
-22
65
-4
19
-30
-49
30
-61
-99
65
18
10
12
100
49
63
19
46
3
-3
-32
5
27
-33
55
24
-87
20
-33
-6
-14
12
-82
-14
16
35
19
39
65
-76
-19
-33
-5
59
105
0
-35
-7
-63
-29
-46
48
10
8
-72
13
11
73
-35
46
20
-81
30
-49
-5
-127
-13
-17
81
-34
-117
5
-18
8
12
-23
8
-31
17
-5
65
-53
-18
73
31
32
-30
-31
53
-1
-6
64
-53
55
42
21
-24
35
-14
32
59
53
-42
-17
-69
-34
-38
30
42
35
-98
12
5
51
64
18
8
-9
18
39
-4
-102
25
26
-27
-24
18
53
53
24
33
12
5
96
48
49
3
-7
-12
-5
33
-64
-24
26
34
70
-29
23
-35
22
-24
-33
-8
-22
-11
50
1
-11
-31
5
19
67
71
28
-15
79
39
-60
-6
-25
-24
20
-4
-2
-21
12
-9
54
-45
-75
21
1
82
-37
-37
-22
28
-46
24
47
-67
-36
-17
-90
30
54
49
21
67
-20
3
23
-24
-7
-26
-17
6
10
30
31
-73
-59
-48
-8
-45
29
-66
-25
-11
-58
-21
-32
45
25
-22
9
59
25
88
-54
-37
25
-34
29
-52
11
14
33
31
48
-1
-13
-14
-68
-48
32
97
-80
-24
64
-28
-27
-63
10
-13
48
-87
51
-26
-12
74
-91
-72
62
7
-13
97
-6
-1
-48
-3
-18
67
-56
-57
40
-5
42
17
-31
-66
-23
-24
-40
21
64
3
29
5
-21
39
0
-13
-23
-40
3
-80
19
48
11
19
13
22
-13
-10
38
27
17
-35
76
116
-67
-17
-1
-17
36
5
-1
-24
22
-69
33
-10
-24
17
25
38
40
45
-4
2
-47
-9
10
-9
-54
29
32
-25
7
-63
14
-12
-15
15
-16
-17
26
67
-44
46
-44
-42
19
-9
58
54
74
-10
12
-59
32
9
-79
52
-25
83
-5
-28
8
11
-57
22
-5
-42
49
54
-25
-26
-11
8
-11
55
26
49
9
-58
34
-4
26
-72
61
45
-58
-17
68
-31
-12
-4
95
19
67
80
27
56
-46
-29
14
10
28
45
-3
74
-31
3
1
72
0
-1
17
-33
10
-38
-8
8
8
-18
-36
31
24
-30
47
58
-4
-20
-74
-28
40
56
-2
24
-6
61
60
-5
-17
-13
-42
16
-23
43
-38
21
40
-15
-25
-4
-27
43
20
5
-87
6
102
3
66
-56
-87
-8
9
36
0
38
-16
64
-8
22
44
-13
-30
25
-13
50
-36
-38
44
10
63
127
52
-43
-10
-9
-33
37
27
-19
-33
-30
24
0
-3
50
64
-41
44
-75
46
-11
16
-20
-78
0
38
82
-5
52
-37
10
59
0
1
-65
-79
37
-23
-9
32
-9
-18
-46
-45
-6
-55
77
-13
3
14
-7
12
-4
-10
-28
9
55
-54
-1
4
6
-26
-11
-11
-22
-1
-103
60
-12
-13
50
44
10
-19
-51
44
64
-10
40
-22
-52
26
22
-45
-33
-15
17
-1
5
23
-7
46
-21
83
-70
-3
22
-16
-43
29
-17
36
-51
33
60
-26
7
-30
-3
-7
-50
-10
10
-4
19
1
-18
7
-6
56
20
71
0
61
26
-15
63
-47
44
-58
-16
0
-3
6
-34
19
-46
26
5
127
15
-19
-25
-110
-46
-62
-15
70
-4
-44
40
-3
10
-27
2
-29
-35
-65
6
29
-18
41
-1
-57
-7
24
78
-28
-15
-5
-29
-73
38
17
28
-82
-33
5
-13
-22
-46
34
43
11
10
-11
-25
4
44
34
33
8
9
-57
-3
29
-60
3
10
19
-29
-52
17
52
28
12
8
-39
20
7
34
-14
12
-45
7
22
-49
-24
-46
1
22
-2
-1
23
66
-21
37
-14
44
24
-44
18
21
-51
-46
-77
-19
-13
17
-46
37
1
44
-39
14
25
35
-6
16
-2
-4
18
7
-32
-73
71
-28
-73
-10
-53
-13
-16
27
6
-2
-5
-88
-20
19
26
-46
-34
-10
2
14
-18
-89
57
62
46
-118
0
17
-10
1
-106
-59
-10
57
45
11
71
-45
48
14
-37
1
-52
-41
20
25
2
28
-59
88
-11
22
4
-30
1
-37
-7
17
-29
19
50
-20
-13
-65
18
-3
-59
-12
-62
2
15
52
-35
-35
-125
-20
15
-50
5
40
9
-13
-31
-27
29
-5
-13
-30
-35
-41
-21
34
-47
-7
12
-90
4
11
-8
9
23
-127
50
14
74
35
-40
-83
-91
-57
18
5
-21
84
-36
49
14
-29
32
-26
-88
31
50
-15
8
13
24
-4
-70
17
74
-53
83
15
40
10
37
40
-15
-70
-19
-54
-14
93
-22
-39
-13
34
22
61
-38
16
58
-82
78
-18
-21
-9
-17
87
-68
35
33
-6
-36
51
-1
28
-39
2
30
-20
-39
-42
-13
-58
57
-67
-24
-63
67
0
-45
48
-39
-63
11
-91
-95
2
-89
60
27
-15
-21
70
-4
-17
-81
41
27
-51
-12
23
-109
10
46
17
-49
43
97
-16
-45
-67
-38
46
-30
70
50
22
-44
8
-8
60
-33
-6
-29
49
30
-33
-39
-33
-35
44
22
-46
68
-42
43
83
-21
-8
21
-9
-6
7
17
13
4
7
27
21
3
25
24
-17
-27
3
-83
46
37
91
-89
-3
-20
8
-26
-10
25
19
-29
-47
-91
88
16
-91
-54
19
3
5
-62
7
-15
-54
3
-6
32
-55
59
13
-9
-14
43
-24
-75
-22
13
66
17
29
-68
28
13
23
-20
6
-17
-29
-96
-15
-55
-21
-6
15
-65
-19
-43
40
12
27
-38
10
-17
-19
30
27
86
24
-58
2
50
-22
70
-10
24
-87
-27
55
10
3
22
28
-33
-6
-63
56
63
-4
-62
53
-23
-50
11
41
-11
-26
-5
41
18
-47
34
-11
-67
-24
-5
68
56
-2
-66
12
73
31
-51
-16
27
-124
-110
-18
-38
27
-33
-7
79
29
65
-22
92
9
116
47
19
-104
-122
-54
-68
39
-17
21
59
43
24
-92
9
34
40
25
-12
-63
-78
92
-41
-63
63
-24
-7
-52
-16
76
41
-25
25
22
35
85
-56
27
-15
-20
47
-16
2
63
24
15
-81
-60
-36
72
-6
-46
61
40
-24
-79
-5
20
-30
-9
61
-38
-22
-3
-76
-94
-112
-28
79
-20
-22
33
-11
-113
-74
62
-113
-6
12
52
-35
-106
-13
-12
-23
-54
23
45
3
14
60
75
-55
-19
-83
2
79
19
-72
44
-42
-79
127
-15
-105
-40
3
-30
-60
-27
16
59
-14
-65
-66
40
79
-15
9
8
-28
-123
-67
-90
50
31
-82
-63
121
8
-85
18
-39
-8
-41
-51
22
-27
53
38
-7
-30
-110
7
21
2
-42
79
-78
-60
-11
49
68
-30
3
-20
21
14
-6
-4
-60
11
-45
-25
16
-17
-34
-28
-1
11
16
2
-12
-16
-17
-43
45
-26
-18
13
30
-48
9
-49
29
9
-33
-65
11
-18
-3
-12
0
-37
-23
-18
-37
62
-30
59
-28
-23
-59
28
-26
-18
-52
84
78
41
0
-20
-20
-55
71
-1
-113
28
42
-4
-34
-6
-22
-96
13
21
20
88
-69
-33
30
-18
30
26
-77
-44
-4
8
26
-18
43
-22
-35
-96
-18
61
-42
-67
-57
-54
76
-55
1
-2
14
-22
-59
-15
14
-50
11
-57
51
-35
-36
43
40
16
5
-17
-3
23
21
-22
-65
110
11
-65
-31
29
-7
38
19
-18
-6
31
75
80
38
47
20
-84
-68
-33
34
-26
-7
-14
-47
-44
15
6
-40
22
-36
43
10
56
1
47
43
25
-18
-7
-17
-84
49
57
8
-28
-41
-8
-6
-77
-63
24
-30
18
-35
5
-41
-58
-55
-12
-6
31
52
35
19
-27
-45
9
-13
-24
-68
-41
27
75
15
-16
-3
-19
9
18
95
-10
12
-9
-9
100
36
30
56
-29
-22
-36
-1
5
-127
-37
17
4
-21
24
26
37
35
-14
74
-2
43
-2
42
38
22
-27
-24
10
3
58
103
60
0
43
16
-55
-45
0
-18
-36
-17
-47
-1
45
20
40
61
65
87
45
-73
19
-8
58
-3
17
-25
-25
-7
-27
-17
83
-27
-54
13
33
19
-18
-103
66
5
88
37
-59
-9
44
62
3
51
16
5
-17
-3
52
-2
19
32
48
-42
76
-50
-71
75
-3
-14
75
-56
47
25
-16
83
-20
-52
40
64
-53
73
72
-4
-61
26
6
-15
1
8
2
20
-28
16
-58
97
-3
31
83
5
79
48
88
6
55
-42
47
43
2
-36
97
43
21
71
-101
-19
7
-6
57
45
-34
-83
-5
67
-15
-28
-2
12
27
-4
23
18
65
14
-29
35
44
8
1
-53
-31
20
4
40
52
-15
-18
11
21
-68
56
19
11
90
7
-44
8
24
48
81
54
40
5
17
-9
65
20
51
-4
-5
41
22
20
-75
56
28
23
-5
8
-16
3
-54
-38
-69
13
40
27
-33
18
66
12
8
32
-21
22
27
-26
60
-10
19
12
50
-15
18
-5
-39
2
-30
90
-6
20
16
-127
-45
3
-25
-3
90
-7
61
-47
-16
50
-2
18
31
16
-15
36
-10
-9
-4
-21
5
49
46
45
-29
-29
0
-4
10
-19
-36
37
-29
-8
-25
-5
51
-27
34
-5
33
6
29
56
-29
1
12
-44
-10
21
10
44
-21
89
-3
-12
-46
15
3
47
-29
-36
36
31
10
-24
52
-70
16
13
70
18
-7
-51
-24
17
22
-24
-28
29
17
-38
15
16
-25
53
18
-16
57
-35
-21
66
31
36
14
-5
3
-27
-10
31
0
50
12
40
3
42
25
-21
20
23
43
1
-14
-10
28
30
15
-53
22
4
52
-77
64
20
15
3
6
13
21
-31
-45
24
29
31
-38
-2
17
-17
39
8
-28
-11
-4
-16
13
-35
-18
46
45
-18
28
-22
-20
-11
-22
1
11
-14
19
-1
-2
3
-21
39
5
25
7
3
32
80
-2
-34
1
25
6
-33
20
-42
24
2
53
34
10
-16
23
14
5
-21
26
19
-1
-5
8
-28
-15
-62
64
-54
-61
-64
-19
63
-19
-14
24
-64
19
49
-34
-26
-31
-19
-7
23
-41
-24
-35
26
30
23
3
34
52
-33
27
-30
22
16
-5
39
-29
25
1
-6
-11
-18
29
40
-55
15
-19
-30
4
1
-45
82
-61
42
45
-24
-8
0
24
-39
-31
33
12
28
-14
44
33
10
-2
-66
36
30
57
-41
29
4
22
-32
-37
44
-44
28
-1
-37
1
-30
46
70
66
-44
-38
28
-66
-31
2
-26
98
-14
-57
67
22
88
33
-27
15
-58
-47
-88
-6
7
-41
-88
-27
18
-18
-20
27
-59
-68
10
-6
48
1
6
34
-45
-12
-29
-32
62
16
37
-69
-14
-44
-2
-59
59
-57
-40
3
-3
-62
109
19
-16
6
-5
-12
51
-18
-41
66
-9
-11
-17
-22
-27
-74
-50
-40
-94
3
-30
-70
-29
-40
13
-8
21
-36
-15
-34
-58
13
90
32
-81
56
-28
-19
-15
-7
-34
-36
6
18
-9
-25
-34
-47
-19
-25
2
-50
19
11
-12
29
-46
1
-20
19
-47
-40
51
-53
-15
59
-13
32
-21
68
-33
8
35
68
-46
-58
-15
-49
-5
6
-35
-7
10
79
8
31
-5
-55
127
3
94
57
22
-62
-24
-26
-6
-40
-28
-19
-9
-45
-30
33
-29
54
19
36
-65
25
3
-47
-61
-18
26
15
20
83
7
-88
-57
9
-42
-36
-77
56
20
90
-47
4
28
70
52
25
14
-8
-34
39
-41
15
24
-43
20
40
-23
-30
18
-4
8
-25
-54
-18
66
-70
-55
4
24
-2
34
-30
-26
1
1
-6
-13
29
29
-74
44
-9
102
6
-14
-10
44
24
62
-8
68
51
37
-44
-6
20
34
-6
-69
-26
-3
-7
-15
-43
-36
-42
-73
-1
-105
-26
-60
-87
-77
38
-114
38
-15
-91
-25
-53
-73
-16
20
-13
10
-26
96
-47
28
24
36
-72
-14
-36
-49
27
-73
20
50
-15
78
-5
-11
-56
-68
116
-17
-1
-56
-68
0
22
-40
-30
-46
10
-41
19
-56
-44
58
-15
48
-9
74
-8
-56
20
-87
54
-70
52
-30
-25
19
-5
-29
-82
14
-53
16
59
-23
-19
-34
-30
-36
-9
-15
38
-53
-37
3
-34
-15
8
-27
-42
19
41
-43
55
-1
70
105
80
19
-89
-4
-33
14
71
60
75
2
-24
-52
-14
-31
19
-12
35
-15
19
15
-20
36
-15
-6
-7
-34
51
99
-37
44
-46
49
-25
32
-23
-127
-54
46
3
-53
9
-64
65
38
5
-24
52
64
58
-4
-11
10
-48
-60
-10
-69
-42
14
-50
48
-11
36
43
34
61
-26
-28
-15
-23
26
-40
-61
22
-43
-90
36
0
-35
-9
17
-14
40
-44
-17
-21
-41
-24
-30
3
110
-29
-13
33
-10
5
-42
-57
32
30
-54
24
50
47
3
-81
-46
-8
-9
34
9
61
-74
-26
96
-3
-54
73
-28
-66
-23
-10
56
-104
-7
-41
14
-38
27
44
58
-16
53
-42
84
-28
32
-2
27
-57
-4
59
33
-32
-40
20
52
-40
-17
-13
-10
47
54
-40
18
28
12
-6
16
32
-30
-9
3
-44
-49
49
-35
-7
0
-25
-4
14
7
-76
-21
-69
26
-5
-55
-1
-86
-10
-47
-12
-23
-28
62
-10
24
70
4
20
-56
-39
-18
4
-13
38
23
0
-39
32
-5
32
-84
-8
3
42
-40
37
-5
52
87
-19
-20
48
-5
-47
21
-46
-51
-38
-34
44
39
-9
15
-12
-54
12
-1
-6
-14
20
-32
-27
20
41
8
-48
-2
-12
-32
19
39
56
-8
83
-18
-36
-25
29
6
20
-63
-57
23
-62
7
-40
-42
-63
11
-47
29
23
30
50
-17
-31
14
16
-21
4
-20
46
-34
56
42
-35
84
11
-19
-18
-3
8
-38
8
10
78
-3
-11
-59
21
21
-28
38
21
-26
-4
-45
4
-22
-27
24
-33
-3
-38
60
-26
-3
19
40
11
-12
-24
-64
-30
-59
21
0
57
34
18
44
26
-8
-92
0
17
127
-11
23
-38
-14
-6
-2
-41
-5
7
50
27
-12
-58
30
-2
-3
-16
-47
32
-1
37
4
-3
59
50
-31
40
-6
-15
-37
-29
-26
37
-6
35
40
24
-73
-44
23
-53
-63
12
21
-80
-5
-38
5
74
-24
-9
-51
24
29
-35
-11
-87
-31
32
24
36
24
54
-22
-8
-57
-15
-29
43
-41
33
-29
-5
11
1
25
-7
-6
30
-6
5
-29
6
29
2
22
-5
-31
4
-51
-14
-27
-6
-40
22
56
-22
48
-70
-8
-14
22
-24
-39
-5
-7
37
11
-5
5
-84
31
12
-17
70
36
-88
-37
70
36
34
-27
-47
-30
7
69
-67
61
-64
0
-44
3
-3
-13
42
19
-12
-8
-67
31
43
-61
51
8
-39
-11
-13
-19
-8
60
-47
24
124
6
18
-30
77
-7
40
-43
31
-77
-65
15
-7
41
25
-25
-12
62
68
-7
-22
-25
-12
39
22
-8
28
-19
-24
-24
1
-35
29
46
-11
54
19
-6
20
47
14
11
12
-46
-22
26
32
-99
7
43
-24
24
-76
23
-42
-21
-11
-36
48
21
97
67
-4
-30
46
10
-55
-19
58
-51
28
16
-42
-103
38
22
-12
-28
38
49
-32
-9
22
36
-25
-3
-82
21
16
19
-33
-7
-55
5
17
1
67
-23
15
23
19
-30
-20
39
66
-6
41
71
26
28
-31
-11
52
-51
-26
11
-12
-103
-48
-92
50
40
9
-8
14
18
34
47
8
-18
32
-14
-7
9
52
-31
22
-64
29
-14
13
-105
57
62
-25
-26
77
20
101
12
69
49
7
45
35
49
8
-59
-9
-20
-26
23
46
102
-34
-44
-15
55
4
-83
23
46
25
40
76
-97
58
-2
-21
42
-28
18
20
-2
-1
43
16
-10
47
42
-4
-9
12
31
-18
-5
-91
-70
43
-29
5
-46
-29
-16
10
-43
-39
46
-10
9
-16
-3
-14
-5
-6
-57
16
55
-7
-15
-41
36
70
37
-23
57
-20
76
-68
57
-23
26
33
-23
1
6
52
13
18
97
41
-44
30
38
-41
-24
58
1
-53
30
-2
0
-33
29
46
-51
-31
1
77
-35
22
-60
5
1
46
-10
-22
7
-127
12
24
-8
0
-46
-47
-18
16
123
46
51
31
-20
-82
31
31
59
-15
41
35
20
-19
-41
-35
-15
15
6
8
-40
35
56
-37
27
34
23
-67
-20
12
19
-60
42
3
27
6
11
113
-59
52
0
6
-23
4
-27
-57
80
7
24
33
26
-25
-10
17
4
26
-4
111
-41
-10
38
-11
30
-39
106
-24
-40
8
53
18
53
80
-4
-35
16
25
27
26
-40
-32
-62
-14
-25
3
65
21
-31
3
11
96
-18
45
12
36
-72
4
-45
37
-24
20
7
50
-14
10
20
-5
-64
18
55
11
31
-32
40
40
20
31
85
107
57
43
1
69
-38
14
-22
-89
31
20
38
3
5
0
-13
8
-10
-42
6
39
7
4
80
22
23
-29
29
53
-15
-47
-127
4
-4
35
-77
90
58
-48
-54
48
14
38
53
75
-53
2
37
0
3
-49
-37
-16
-10
-10
15
-32
74
-33
-1
16
3
-14
-73
31
0
-110
-2
36
23
24
-75
-68
-24
91
-6
23
17
-19
-18
-2
-5
29
66
38
-8
-1
33
-10
-34
-4
-7
56
-26
-7
4
-2
66
-81
-12
-66
-30
-27
38
-47
-28
-69
-14
-17
-22
-3
-44
22
-39
-2
-45
31
5
27
67
33
-47
32
-31
-3
3
2
24
-37
-31
68
59
-3
77
19
39
-4
-70
-8
40
60
38
-26
-31
-15
6
-15
-9
-27
8
25
-10
69
-11
44
-15
-10
-6
-31
66
96
-36
-3
65
48
24
0
-4
-59
28
-30
1
-63
-65
-27
-9
40
14
-2
99
50
59
-33
13
-30
16
78
72
45
-48
-25
-12
-52
51
12
-78
-48
64
-43
19
-4
38
60
4
-28
7
9
26
-63
31
64
-13
-37
9
-66
-32
-18
32
72
7
42
14
-4
3
6
-77
6
0
-1
44
-59
13
45
4
-11
-32
-63
56
40
-28
-99
-69
-12
13
-29
55
-4
-17
47
-12
15
42
-45
-28
59
45
-44
-56
29
-9
52
52
-6
56
-60
17
2
-26
18
44
6
-44
-45
-38
-91
12
11
50
106
1
-33
20
53
-33
-1
-23
34
-17
-34
-26
31
-31
17
36
-21
-15
32
-37
-85
42
-12
-30
-2
-53
24
2
57
-19
-27
1
14
-38
14
-44
23
127
7
22
-56
49
41
-36
-40
37
-39
13
78
-61
9
-54
3
-56
-10
-16
62
10
-31
43
-32
-8
-6
46
5
-43
28
41
43
77
-1
9
45
18
-11
-35
40
-23
-23
-7
17
27
-23
36
-73
53
72
-38
22
70
-76
17
-18
-12
34
-24
-8
3
-23
6
-22
1
-22
-18
18
32
44
-16
18
15
0
-96
28
0
-6
29
-1
-19
-1
36
58
-17
-4
-36
-6
-33
14
39
50
5
23
-79
19
-34
-87
21
-54
17
28
-17
58
-11
12
-46
-5
-102
-23
-35
15
-88
56
21
-40
-1
3
-51
-20
16
-21
-7
-22
-4
-1
100
-5
-74
-26
-14
63
42
-59
35
17
-15
-11
29
2
76
-28
14
-6
17
55
26
-12
-10
24
86
15
5
-34
0
6
18
-3
51
-32
-15
7
-12
87
48
26
-27
17
-40
-23
-3
-49
-25
-49
3
-33
-23
16
72
-6
6
-38
26
-41
-34
-36
-3
-4
88
-23
-25
-45
9
-14
-41
-6
-6
24
10
-14
-34
-11
30
-34
16
-4
12
-22
5
18
52
-7
-16
18
29
-7
68
30
27
7
58
0
17
24
-30
-16
-63
6
30
-26
-6
-2
118
-55
-10
-15
14
-30
-61
38
-45
26
47
26
-46
7
9
12
-29
-20
-8
100
21
-20
-30
-21
-21
2
44
-12
24
-32
15
-12
8
35
-58
-1
-13
13
5
-47
26
-44
49
16
-17
28
13
-44
19
0
-32
-47
45
-27
-27
-1
29
0
3
48
-41
41
-24
-20
-20
33
18
-21
-48
-19
-9
33
-15
38
18
7
-3
-31
-12
-50
14
4
-26
-54
-16
-30
-31
25
27
8
17
44
38
-62
12
5
-2
45
17
13
2
5
-31
23
46
19
15
-1
-15
56
-21
-12
73
24
-51
25
42
44
-27
39
88
32
67
25
75
44
-1
-4
45
30
-14
-14
-52
19
-24
25
53
-22
3
-7
32
33
19
-24
-46
-87
-6
-42
70
20
48
41
25
26
-17
-22
0
68
-1
26
-14
39
-13
5
-104
49
0
36
30
20
-53
16
-2
-18
-12
-7
-53
-127
38
16
13
16
-17
-4
2
3
-46
-31
80
9
-23
68
-30
14
-19
17
-12
-25
58
9
17
-11
75
-57
27
-23
-19
33
44
15
-30
9
6
55
-9
-4
61
-83
54
-22
2
-23
-76
36
47
11
-22
-28
-29
10
-109
11
-3
50
-51
-6
-1
7
-7
30
-25
51
65
8
40
-26
46
-60
59
11
55
51
-27
-29
-40
-46
19
-76
-12
44
-7
19
13
-20
59
50
29
-53
-29
-19
44
29
65
37
-63
-16
-2
27
-29
21
23
1
-84
-29
20
-10
-48
-55
-33
-35
100
-65
-16
-27
-55
-46
-38
-20
-56
47
-22
-34
3
-18
-46
-85
38
6
67
20
-84
8
-15
-20
-42
-21
-12
-49
-18
-19
-8
37
-19
12
12
55
-19
-27
-54
40
8
0
-1
15
24
-35
20
-19
5
15
-44
7
-8
-40
-23
-27
12
39
28
76
25
7
54
9
21
-14
-4
-1
88
-3
-12
1
20
-43
-13
13
-9
-25
76
-19
-80
20
43
27
-70
-10
58
71
-31
22
41
-24
-38
31
49
55
-25
58
5
25
-4
-8
-20
31
8
37
18
97
7
-16
-21
-15
-25
4
15
-127
18
-16
-13
14
56
67
-67
9
-17
-53
10
-30
20
-55
10
55
45
6
46
-93
-25
1
8
62
-55
10
9
79
-20
-49
49
24
2
-7
-9
-2
-51
-29
10
78
107
2
55
-11
17
15
-10
101
22
34
15
-5
46
-1
-2
25
22
-17
18
-52
55
-40
10
-42
16
-37
44
-43
2
80
-62
46
55
56
-34
-65
72
47
20
38
6
18
-5
15
19
-22
-1
-13
-27
-27
-54
-8
39
-24
-80
51
5
37
-55
22
50
14
-50
68
-11
41
-12
-3
61
24
-31
47
127
0
37
-62
-18
65
8
-1
4
-43
15
-5
-77
-24
-29
59
-3
-27
-32
27
-69
-40
19
69
7
3
-67
11
16
-30
19
-16
-31
28
-6
-12
-14
-62
-71
43
-23
-9
-63
-14
25
0
36
-75
73
26
47
38
46
-33
-47
-14
26
-24
-65
31
25
-34
52
-45
-39
44
36
30
42
-28
33
-13
77
-19
81
-3
69
-20
-11
92
-38
54
13
42
-38
1
3
16
51
13
-44
-54
12
-35
24
-6
-1
-27
-6
-30
-30
-22
-8
-36
-86
-58
-1
-1
-39
-50
-63
64
39
17
38
-30
-55
-46
79
-51
-50
12
4
-40
-51
-44
-28
-26
5
-10
-40
-65
-21
-36
-35
-10
55
16
33
21
-20
-67
-57
-56
-58
36
-46
-79
-43
-7
39
5
20
0
-20
33
6
-19
-31
37
-12
3
29
-84
-19
-3
-16
-13
-6
7
-35
6
49
-2
94
45
26
-2
-44
32
-2
-23
-42
87
-53
-56
-3
-45
25
-12
37
-20
58
0
-65
-17
6
-32
-47
31
-4
-15
-39
-18
-13
-16
31
32
13
-40
22
21
-5
-46
-40
-29
-31
-23
-34
-18
-32
-5
2
42
45
8
20
-61
-34
-101
79
2
9
46
28
18
24
-34
14
-36
-28
1
-5
69
68
-11
-74
-19
-20
-46
2
-45
-14
-20
19
-37
-117
13
21
17
-25
40
40
-10
9
42
28
48
-4
18
43
1
24
-46
35
29
25
54
100
28
20
-24
14
5
37
6
79
6
3
-31
-26
-27
17
-39
-42
-27
-53
-30
-29
15
82
15
31
-69
63
12
79
-48
-54
-15
72
18
68
41
19
76
44
27
-18
-15
-11
11
-10
37
56
-22
88
-32
-94
-18
53
-29
-12
-43
-44
78
-14
62
-29
-24
-52
-9
3
-61
45
65
38
-8
3
16
-31
74
32
25
-51
-22
-5
10
51
59
4
5
-27
-26
-31
-16
33
-35
19
-36
-9
-30
52
15
-57
53
-27
-4
6
70
6
14
10
-2
-47
-38
-5
-2
73
11
61
-14
-6
97
-4
-33
23
10
41
-44
-11
10
45
-34
19
49
-44
-46
90
-20
30
10
35
-41
-9
77
-60
88
-18
42
74
65
-12
49
57
50
8
-82
65
42
73
75
0
-12
28
50
127
34
25
17
51
36
8
-33
-48
35
27
3
75
39
-23
4
-22
-39
-16
15
23
-22
11
58
0
-16
-44
34
-28
67
26
-54
-19
-66
-61
-54
52
99
68
-22
-16
28
17
40
-29
-14
-48
15
26
60
-9
-10
23
30
70
-10
9
-14
-31
-26
42
5
-24
-38
16
-27
47
47
-51
0
-27
24
-27
-32
-9
-24
28
-21
-22
67
47
-18
-23
-5
11
-62
46
11
-79
34
-23
9
33
-35
19
7
29
28
15
-44
50
76
-6
-41
60
-22
-23
34
54
30
52
7
53
-16
7
-66
16
38
42
-99
42
104
37
25
7
-12
15
4
-58
29
19
52
-45
-48
-11
52
26
-19
-30
23
34
-10
-3
-10
21
8
60
-22
-67
-34
-48
46
-4
-21
18
-20
66
26
74
-8
9
-4
0
64
79
-31
-21
3
7
-4
9
-71
77
-95
88
-39
-37
20
34
95
41
33
39
-29
21
-81
27
32
29
11
-45
-8
-23
37
67
-58
-40
-9
18
49
97
-54
38
61
-16
-2
-4
44
4
-17
49
-23
17
-64
13
-35
26
-1
89
39
21
12
-53
-25
29
54
59
-26
0
13
26
59
-68
-1
-26
5
19
-21
-38
38
28
18
-72
-1
-42
-20
-66
88
-25
29
25
35
-21
-35
30
12
34
-36
-127
-52
17
-62
-71
122
54
-48
-15
89
5
103
3
46
12
-27
-16
-8
67
-26
26
3
-20
-5
-24
-81
83
-17
-6
40
30
45
9
-52
49
-57
19
56
17
25
-74
-35
0
102
9
-27
-96
2
-34
80
29
29
30
81
-30
-53
88
-12
-18
36
-35
14
-17
-10
-100
55
44
-2
11
-103
17
-3
-17
-16
18
-44
32
-82
1
-80
-3
-36
23
-2
23
10
-37
-31
-33
22
18
3
20
53
-32
-16
36
-28
-31
65
82
-28
0
-4
-35
46
9
47
-17
71
34
-10
64
-10
-21
-36
-7
-86
84
-5
-42
24
-29
42
-40
-44
-4
-5
26
13
-21
-61
-30
46
12
-6
-29
-38
9
5
25
52
127
44
0
52
-27
-16
-111
-7
16
52
8
26
13
36
-56
41
-4
19
-79
-60
6
20
51
22
-17
-34
1
-7
-18
-34
21
-14
-79
20
-27
16
-31
5
58
-50
35
23
-13
28
27
-23
27
50
12
-24
15
-33
9
56
28
38
-32
-41
91
-18
-2
12
16
-44
-11
-9
14
8
33
31
0
-29
16
28
-25
-48
58
-10
14
-7
67
-74
-65
-26
71
4
-6
-15
24
-5
8
12
20
-25
3
-10
-24
-65
-1
-6
9
39
-7
71
10
-1
-26
10
16
-9
6
-7
62
-4
11
114
66
-46
36
14
-32
2
63
-34
-4
75
-26
-39
36
-75
-35
-38
-32
-2
14
50
-1
5
46
13
10
-46
-17
14
4
-27
28
-62
-17
47
-33
46
62
-36
9
9
119
49
12
74
51
45
-3
49
-33
37
17
9
13
-13
-41
22
10
11
-34
24
41
-56
-32
73
-32
-3
10
-26
-58
-2
-51
-15
-52
-75
-21
-118
-45
16
-17
41
-21
24
7
28
59
-49
62
-7
12
53
34
32
-32
-19
-1
-74
-21
50
13
-8
1
10
20
-80
59
72
-44
-25
-23
-13
-12
45
-36
-19
34
-10
-7
0
-70
-58
34
-47
57
30
7
-18
40
19
-79
47
44
-29
8
-14
-6
21
35
3
6
-36
-56
-62
21
-12
34
-18
-33
71
-47
27
-26
21
-76
40
36
-42
9
-81
-85
-55
6
10
-4
-9
4
17
16
-7
-86
34
92
-66
-61
-42
-5
-14
12
-71
-44
-12
-77
12
11
-76
-9
92
-25
-16
4
-21
-67
-34
0
41
-25
19
-4
-26
24
-19
0
11
14
-2
-2
9
-33
31
-27
-39
57
-25
-46
17
0
35
-71
48
-43
-68
14
-38
-13
1
-58
39
-19
-37
-37
-19
-16
56
-22
6
-50
22
7
37
-16
9
-40
-17
12
28
-33
27
65
-30
-51
4
12
-40
-39
-6
25
-45
-9
-31
-42
28
-38
31
-78
-38
-40
-62
51
-17
95
75
-64
10
3
-17
-5
68
13
13
-40
11
35
-2
-17
10
-63
9
-22
-116
-127
96
36
-9
24
35
6
0
99
-28
56
9
-39
-7
7
-17
50
5
29
-21
30
-7
6
-8
72
3
0
-5
-18
12
34
21
-16
18
16
-65
-54
-40
45
-17
-65
-57
25
-10
-24
63
-11
34
-37
-21
-1
86
38
34
-53
34
3
-22
-11
-31
34
-23
-21
34
-17
-16
-12
0
-62
-73
1
77
-27
-49
76
-29
4
5
35
-21
37
-2
6
-25
9
-4
-23
46
0
6
-36
-12
29
-5
-41
-48
-32
30
19
31
30
21
-47
-12
-21
-7
14
46
8
-23
-28
-11
56
36
-4
-61
1
4
14
-8
18
-7
-56
1
44
-7
-65
-40
25
37
-40
-13
-9
-28
-15
-66
-29
-6
-41
2
-57
-31
76
17
-3
57
-12
-20
-59
-12
13
-1
74
-2
37
-26
9
62
17
7
26
-1
-12
10
2
-39
-10
-16
13
-51
-33
44
-55
29
25
-37
36
44
-127
-9
-51
5
-34
-5
22
12
26
-53
41
-36
-29
32
64
19
22
89
50
32
-3
21
126
-19
-19
-57
-68
-3
-4
36
11
-13
-30
20
-27
-86
-19
-115
15
39
8
-24
-12
-17
7
-44
-6
38
15
61
72
-90
51
-19
1
11
-9
27
-104
-7
28
2
-20
46
-40
23
31
-45
57
-21
-7
-63
-33
-35
35
-69
57
-72
-83
-84
6
88
-87
-7
68
10
-14
33
-41
51
98
12
9
-31
-37
-38
103
-2
19
-25
46
-117
18
104
-90
56
-37
30
71
13
-22
116
26
-31
2
-10
-60
97
26
-11
-21
-16
-2
89
-76
-56
24
-23
-60
-15
24
-41
99
27
11
-37
30
64
-31
13
-59
79
-82
-64
-118
19
50
103
24
66
-23
-41
-18
-27
-43
-1
36
-42
56
-81
-1
30
80
6
-110
-30
52
31
11
16
-19
10
-6
3
-46
-125
-80
6
-40
68
-33
-8
-119
36
-79
45
-39
78
53
-2
82
-1
18
69
-50
-81
-43
20
-56
-14
1
88
-32
53
-4
62
0
-96
-29
-3
-55
67
2
33
-12
60
40
50
15
12
115
4
2
-14
-31
24
37
14
34
96
29
55
-44
2
12
79
53
0
-102
44
-7
55
70
1
-68
22
-10
-12
-3
30
15
38
82
15
-3
43
77
-51
15
13
-1
90
87
10
-40
41
-45
70
63
-14
-42
43
36
97
79
26
14
-32
7
-59
-89
-19
94
-21
-15
-33
26
-53
-85
-21
-96
-60
-88
-1
-111
-13
-44
21
32
14
16
-4
-11
34
-81
-6
72
-28
94
34
69
-16
62
-31
-24
-85
21
-34
-1
21
11
9
-19
-18
-2
31
-21
52
-15
-49
-53
10
-5
82
-33
44
-61
-5
49
14
45
50
20
55
62
-13
13
-68
-30
40
-94
-52
-100
6
-8
-30
-11
-34
8
-60
18
51
-60
-31
-14
-60
-43
23
-4
49
-42
-2
-80
40
-66
69
73
43
23
-62
-36
-16
-47
68
24
60
33
13
-5
12
0
62
86
10
41
-21
-32
-41
-4
-45
-32
90
-35
-51
-4
-42
-66
-8
28
33
-20
85
29
-63
3
-54
-31
-38
3
-27
-15
-49
-8
-14
-31
8
36
75
93
-20
34
0
43
4
53
-94
8
-48
-92
-12
-2
-16
-17
-127
17
-44
-17
111
28
39
30
-11
37
-23
-44
-27
-18
25
-96
11
-38
8
48
-36
-9
-45
39
-81
-17
-3
-22
-22
-30
3
48
48
30
32
7
23
7
-59
-49
37
-13
-12
0
113
-44
46
-1
-61
13
16
65
33
-106
2
36
2
-16
0
-7
-3
99
19
64
-84
-25
-38
40
-10
18
-23
0
-2
71
-32
6
35
21
40
44
-119
-5
2
36
23
48
25
-76
-10
-17
52
0
78
44
-24
30
8
17
52
11
-52
6
-64
-20
37
18
38
20
35
23
-83
47
-55
-5
-15
-10
13
-1
17
-37
30
-44
6
61
-35
-59
-17
54
1
35
-5
-2
-5
-70
9
-81
-47
18
10
-36
17
31
20
-31
44
-32
-53
-13
-15
-8
38
-96
-2
42
-45
-38
77
-79
-61
-127
-82
-13
73
-12
-8
24
-26
12
14
14
-38
7
-9
-76
52
-5
9
8
-28
1
47
-20
-36
-24
6
-23
47
-17
97
-8
3
-54
63
-55
-29
41
-31
48
-14
-80
-18
2
-20
27
-52
62
-45
93
-25
-56
38
75
2
-50
-21
-12
25
-40
-5
8
-39
24
-3
24
-40
-2
-8
-71
37
-44
-24
-30
-12
26
-91
-37
-3
35
22
29
49
-34
-3
16
-92
15
44
-61
-10
23
55
-3
64
39
66
-11
71
4
-10
14
7
-7
26
-14
-2
45
5
-31
-72
-25
54
4
11
70
3
9
13
-90
-34
15
0
49
36
37
-52
26
1
-23
21
-25
28
3
33
2
-56
30
86
49
32
20
-48
-13
-20
-26
-22
34
53
21
-57
-33
-29
-13
48
-6
-65
-64
-55
-7
17
27
24
-17
-42
43
-12
42
18
45
-3
-41
-63
-3
-20
17
38
39
-53
-3
-66
-1
14
-42
-35
-38
11
29
-2
52
-18
14
-9
-21
-90
-6
-6
44
15
-57
15
-36
-27
3
-51
41
-33
-28
22
5
24
14
-9
78
-41
11
23
41
36
-22
10
35
-11
52
30
-3
46
29
48
56
-30
-78
103
-44
36
-58
-30
-30
-5
23
-51
28
-73
-22
12
-53
-31
-10
8
8
-8
-50
-37
89
57
-31
32
-19
68
34
31
36
3
-34
-19
-17
27
73
9
47
0
8
45
38
5
75
2
-1
28
52
-13
-32
-21
-14
-35
-19
27
-25
53
-9
-35
26
-13
1
-1
-10
39
89
33
-24
-29
-56
-40
54
-55
54
15
-7
-7
40
-14
37
58
41
17
87
-83
1
-23
-4
2
33
-52
-17
-40
65
-9
-51
17
12
-30
-5
42
-38
68
-79
-54
2
-29
-11
-18
34
12
34
-11
-41
11
23
3
19
39
-58
-21
1
-52
6
-50
-11
68
-64
-35
-38
71
29
-44
13
-19
-28
-83
96
-79
40
58
4
0
23
15
33
-21
-17
-49
-2
30
-38
35
62
14
89
7
19
99
14
3
-33
-8
-26
2
-12
48
-105
-75
39
17
-78
-10
-40
-19
44
51
58
51
31
-34
30
5
-98
55
79
-36
14
11
-29
24
0
-69
-20
-25
43
2
-60
-41
29
37
29
-52
-19
-27
14
36
30
15
-30
31
-26
-15
-26
66
-34
-24
3
-36
24
9
2
45
-30
54
-21
-39
4
-27
-36
63
71
-88
-127
37
-15
13
8
26
37
19
-33
14
-111
18
-63
47
-35
-15
41
-15
18
4
-32
-24
71
98
28
18
-4
34
36
-38
38
-56
-27
65
91
26
32
-34
33
37
-13
-28
-17
19
14
27
13
4
55
35
-23
-35
68
-52
-35
-90
12
2
28
70
-76
7
-72
-18
-18
-10
25
-39
7
-10
-6
-97
-9
34
41
48
-66
-44
24
65
-18
-4
0
-56
33
45
52
-8
39
9
20
27
18
44
10
34
-15
24
20
40
8
-59
35
-55
-41
-57
-38
-54
-17
-3
-21
-16
34
46
13
-26
8
-13
-27
-61
-27
28
-3
-45
-17
46
4
0
4
9
-12
-18
-23
-50
-21
33
-62
-65
10
-24
30
-42
21
8
25
-26
11
76
35
64
-5
36
83
40
9
46
-13
-8
-36
-7
-67
64
31
51
40
20
80
-2
-1
30
36
0
9
72
-51
-15
37
22
10
44
22
-12
-64
-54
-41
100
2
0
45
-9
-27
-51
59
-30
54
21
44
8
15
-73
21
37
-5
-34
-52
-12
12
6
13
-52
12
28
48
23
-37
-36
1
-38
47
40
-69
-11
29
-8
14
63
-17
-11
35
-34
-56
26
-34
20
-60
34
-33
12
-9
84
19
18
22
-15
70
-66
-15
-67
7
8
19
-33
48
9
3
14
18
10
5
-4
0
11
-36
54
32
16
32
-22
-40
40
-27
86
-26
-4
30
-25
-58
-1
12
35
39
18
27
1
-46
-28
5
-20
12
30
18
71
-5
20
9
42
-40
-4
-5
-11
-21
25
8
-22
13
86
17
-55
-14
34
23
7
-14
-7
-1
-9
13
12
-3
34
-18
69
17
55
-51
-41
2
-6
107
55
-65
2
-9
-64
0
41
-52
27
12
-35
-33
17
30
-8
16
-51
-6
8
10
30
-37
38
2
-14
127
31
57
-48
18
70
-44
62
-33
16
12
-14
0
-35
37
-49
-36
10
-19
47
31
-50
12
-10
-32
3
-72
-43
-76
-27
-85
-12
-29
14
51
-111
37
42
46
-14
-2
-14
56
-34
48
-72
38
-14
-27
11
-7
-16
22
86
35
-14
-48
-9
127
109
-25
118
59
-24
23
74
75
-9
56
-8
-70
68
48
-19
-6
19
36
-89
-72
40
68
76
-30
-22
-81
23
12
-23
-44
12
25
-8
31
68
-49
6
4
-22
56
-29
29
67
67
-13
-6
31
-10
-12
65
-10
-41
-34
-56
-57
-27
-39
45
-20
4
-51
12
15
76
7
13
-71
11
69
6
-18
25
-87
-32
-42
5
-85
-26
-7
0
22
-52
27
-72
-47
-4
35
-93
38
-23
73
-19
-52
33
-19
1
41
-19
29
20
-29
-33
-120
28
-29
-101
29
33
-68
-45
33
28
9
-5
98
-7
30
25
-73
-43
-48
10
-30
37
40
13
5
21
-33
-64
-69
8
30
-39
74
64
-59
-1
40
-39
-88
-48
42
71
59
25
-13
-25
59
13
36
25
60
54
7
7
-4
66
27
12
-83
-53
-15
43
-113
-86
-47
-2
-6
-40
7
70
38
97
-28
41
5
-19
-16
-50
-63
-11
-22
-83
23
-45
-9
40
30
-78
2
28
25
91
38
29
-54
1
-82
15
3
64
62
17
40
-25
63
-41
-69
16
40
-3
-5
6
82
-2
-63
41
103
-39
0
23
23
-18
76
-23
20
56
66
-53
29
-13
-41
-3
19
-41
22
-57
27
-26
89
9
-13
8
-82
14
-5
46
-66
38
-13
-20
-90
23
-96
-28
32
7
-33
-44
19
-34
-42
-19
-14
14
-76
94
-48
-28
9
127
-10
29
-92
-45
11
72
57
-25
-25
50
24
-16
24
32
-36
-9
45
-43
-5
-13
-63
-15
38
-82
61
-48
29
33
-11
40
-28
-26
-102
-5
-60
-43
-12
-35
18
18
15
-32
9
34
-41
54
21
-45
-33
33
21
124
-54
46
32
-74
-31
-72
117
45
-13
18
-63
-49
-18
-21
26
37
12
-9
11
20
-61
102
16
71
58
27
5
-12
58
13
9
-23
55
-4
-28
11
83
30
75
4
31
-33
73
75
26
-57
-63
-70
68
-42
61
6
-61
-31
43
-25
-32
-22
49
73
-32
-44
-7
-68
-41
44
5
8
-4
4
21
13
40
-65
-14
-22
-37
88
-33
-7
-67
29
-70
7
-73
-21
75
18
-12
-14
40
57
-16
-21
-32
-45
-32
-35
-14
-44
-27
33
-6
-71
-10
28
9
-70
-7
16
12
82
-105
80
-47
97
40
53
10
-16
34
40
-14
-27
-32
-23
69
-20
-34
31
-3
6
-47
-51
-40
-9
48
7
10
84
10
95
-3
42
-43
46
21
14
-45
-42
4
40
24
56
79
18
-1
126
46
-15
7
-27
-38
47
15
24
40
79
-22
2
-32
-37
75
25
40
-10
-25
1
27
-53
-26
65
-17
-39
-17
19
53
-12
31
-35
0
13
-47
-42
66
-31
21
18
-23
-50
11
25
0
18
-13
64
36
16
-43
69
8
59
-12
-30
-26
-32
71
101
-32
60
12
-18
34
-54
49
34
-1
51
2
-26
33
30
-54
26
29
-4
1
-23
2
30
21
42
-36
-44
19
-12
-23
5
-6
24
-127
70
11
50
1
-22
-68
21
-55
-31
31
-59
-4
57
8
-3
17
2
0
-9
10
25
19
32
-40
29
92
91
-37
18
-31
-10
43
-65
-5
-38
-27
6
20
73
18
16
42
-1
-15
11
32
76
17
-20
32
-55
-10
56
-18
33
-28
-7
-105
-56
-57
-26
91
39
-25
34
-30
8
-67
47
1
30
33
75
7
-26
-6
6
28
-19
34
7
-3
47
-9
-27
-27
-86
-11
-74
-11
2
52
-70
-25
92
31
-60
-102
19
18
28
-26
-109
-21
11
7
-100
30
25
35
-53
62
70
7
44
123
-77
53
48
-8
34
-54
-25
2
44
44
-61
-20
23
-31
53
-22
43
25
-22
30
-41
-57
-73
1
-48
31
-71
-2
-16
32
-9
3
-118
22
-4
-64
68
16
77
59
-26
-42
63
-35
-38
-28
-43
40
49
-19
10
85
-7
7
-2
-35
-91
3
83
-77
-11
55
27
-6
-50
61
81
30
9
33
-41
-46
3
-4
-36
109
42
1
-3
-39
-40
10
10
-83
-41
46
42
20
57
23
-44
28
-10
-68
7
19
-69
-30
20
-39
-12
1
17
16
-1
-34
15
17
-77
23
-53
3
-12
-24
20
30
2
57
8
30
38
-16
45
-49
14
30
58
-52
-41
-83
-13
12
-35
50
39
-1
-47
-48
-73
-22
24
-18
18
-30
40
-40
-32
30
-41
59
-63
-34
17
78
25
49
-33
21
29
-4
-6
-26
32
24
18
-67
-18
-36
47
0
51
38
-13
16
19
-31
-30
5
-5
-25
28
50
-9
-21
-19
28
-39
70
24
121
62
0
-16
9
25
-51
-84
20
53
-26
19
-17
-5
-25
-30
-55
86
63
-6
-44
58
-48
5
-13
-38
-11
-32
-11
-5
43
-10
-46
18
-6
12
63
-54
42
19
22
-30
69
45
18
-21
44
-9
1
21
34
-51
2
-33
-79
-14
-54
51
10
69
-28
-22
96
-20
-23
-38
46
-18
9
-35
-51
-5
27
29
-46
33
5
48
-44
65
-39
15
-46
-54
40
127
-43
61
-40
17
-24
-43
60
-10
54
-17
-2
-40
19
22
32
-18
-43
34
-2
61
30
-19
17
-15
37
-61
16
-61
-13
86
1
18
-19
29
-16
-23
-15
-34
-50
15
12
-32
-31
-1
-43
20
-7
-10
84
31
-77
-1
-33
-19
49
-24
32
-44
24
-75
11
20
22
-9
38
-12
25
-54
-53
-5
2
-4
-16
13
-43
-10
-125
-9
-20
30
-32
62
-1
12
21
-21
-34
-11
-32
55
-34
-43
-25
44
-63
-34
-10
21
-35
-35
-10
27
-44
-47
-5
28
57
33
23
-6
24
-14
-28
-4
-25
83
58
-16
-13
0
-22
22
39
64
-71
-36
37
-48
-18
17
-65
-35
-30
4
27
-24
16
9
-35
26
-28
33
-76
-36
53
-26
25
40
-105
23
20
-29
6
-19
43
-10
-27
28
-43
-99
-12
-15
1
-52
-27
-80
21
-34
-78
-64
18
37
94
-42
-17
9
39
-9
-15
21
77
-100
38
41
-26
-45
34
-47
44
1
62
30
37
-23
16
51
-64
-64
10
-20
55
31
-62
34
101
76
-40
-52
1
-42
76
-40
61
-82
-3
60
-13
-83
-15
-8
99
-48
72
40
-28
-30
-54
-48
-3
20
-102
-40
-80
25
-70
21
26
21
-70
-40
10
-61
34
-13
-61
-35
-71
-10
74
-22
-21
45
16
-17
-5
4
-76
-21
30
-4
15
-3
85
-31
-28
65
-7
-8
-12
-10
59
-62
17
127
-8
33
-38
18
26
-69
16
57
17
-39
-27
71
-37
-33
88
9
28
3
63
-11
-61
20
24
-99
-18
77
22
0
-17
56
68
-10
11
-34
48
25
-17
70
-27
-29
-14
1
-13
-14
-14
-11
-43
25
65
27
12
8
-14
71
39
-8
-42
29
3
72
0
15
-15
-5
-18
-67
-59
-78
7
-7
-57
-75
-37
-56
17
34
1
-28
-82
28
-10
-11
83
-29
-17
-32
12
46
-45
62
34
44
-37
-97
5
-24
-3
-48
-36
-16
-59
112
8
-107
24
93
6
-52
-36
-64
9
76
-35
47
23
13
63
14
-43
-52
61
58
3
-10
-11
-52
104
-32
25
23
17
20
40
6
76
13
-38
27
-19
91
39
55
-45
31
-99
-11
-3
29
77
30
-12
53
77
-1
26
-26
-46
31
-32
31
81
19
-20
72
38
1
-2
83
23
36
54
17
-33
71
21
-58
53
60
14
21
-34
-127
3
12
-24
-70
-24
5
52
31
11
102
35
-7
-41
34
24
2
-35
-3
-23
14
-49
-4
-10
34
3
52
-35
-33
-46
25
-61
-43
-28
56
-45
88
23
28
19
3
-6
33
68
-22
0
0
5
-4
-14
21
-5
42
28
-14
63
3
90
5
31
-21
25
117
-60
117
21
-49
93
-21
86
27
18
55
-2
-17
-45
45
-101
-47
39
43
31
-77
47
4
4
26
32
52
-51
11
-24
-49
-43
-12
-27
-7
69
-23
-43
3
4
2
61
6
-10
-54
-91
-37
-11
6
-16
89
0
-39
49
16
78
40
-13
-8
10
-15
5
-34
45
-53
52
-72
18
9
69
-17
-29
-65
20
56
-59
88
-5
33
35
-47
-60
-31
-88
104
66
33
-2
-14
66
35
-20
35
-3
-18
-13
58
52
18
-89
-9
56
43
51
-55
-60
-27
19
-47
-19
-12
40
5
27
44
-78
-76
-71
11
10
51
47
-31
122
-19
-92
-14
-43
43
-5
8
-10
-78
-6
-26
-50
15
-47
42
59
-47
-36
-80
4
-9
-60
2
33
18
12
1
16
-89
51
6
-20
-14
-27
34
-6
28
-27
-69
4
10
-28
74
30
-34
1
-1
23
4
8
-24
-19
46
20
30
-10
-26
-50
-77
44
-43
9
-10
-13
-21
32
-45
31
2
-11
22
-27
72
-4
11
-80
37
-50
12
-9
-12
98
9
-1
-94
16
9
-113
-10
79
-14
-41
84
-86
2
-65
-77
22
40
24
-46
-59
44
34
-70
35
-54
-8
-49
-9
12
114
10
-110
26
43
10
71
-74
7
23
-68
-29
-64
-40
19
61
-101
45
49
0
-40
-90
54
-36
33
-64
81
-4
20
-7
71
85
-22
41
10
3
38
-50
9
-11
17
-15
14
-10
28
13
-73
2
38
-39
2
-26
20
-28
25
-47
68
-46
-84
23
28
-62
75
16
-10
-42
75
-29
35
-126
-97
28
12
-19
30
64
74
28
6
-2
-61
-69
46
31
-1
-7
20
-27
-20
-13
55
18
68
-63
95
86
-10
-28
14
78
-96
43
8
-3
-4
60
-17
-76
44
-10
107
22
12
43
59
-44
-14
-53
-23
54
93
55
-9
27
73
-77
30
46
-13
32
-18
34
26
-73
20
-30
9
55
-112
2
-27
-47
-21
-16
97
-23
-26
38
23
-103
8
-60
-63
6
-7
-30
18
22
-44
-51
127
-78
-13
10
-9
24
10
-43
29
-50
-48
-83
-19
20
-31
-38
-16
-11
-11
-85
-59
20
-22
62
-81
-50
-61
68
-45
13
39
11
71
48
1
-5
54
36
-4
13
-57
52
-27
-13
-47
41
13
-67
-65
21
-87
49
-43
19
13
40
-61
44
-67
70
-43
-69
29
-44
12
28
39
4
-31
-27
9
-25
-5
-56
-14
43
-66
-8
68
46
92
-30
-21
-52
-35
4
-1
-36
-35
66
13
-9
35
-14
71
57
-16
-22
-4
102
40
32
7
37
28
10
60
71
51
-57
-46
93
-8
72
36
16
10
27
-33
-127
-6
8
-17
-40
72
22
18
-33
-13
8
42
23
0
-62
12
84
-70
-45
85
38
20
74
-16
-25
14
-13
0
-24
29
50
48
-20
-66
19
-84
-19
-62
66
14
35
-32
72
-30
55
12
51
9
65
88
52
29
-36
27
55
81
-81
92
-16
5
41
-49
40
-70
8
59
8
39
37
-83
72
-48
61
-72
-4
-58
-59
-99
-74
57
-24
10
-15
-17
-29
-81
51
-6
57
31
56
-96
-47
-5
28
-23
-31
23
-87
4
46
-30
55
35
58
-17
-24
-29
-34
9
65
5
76
73
-64
-18
-36
-43
110
38
4
-10
26
36
-23
-5
-7
64
-18
-8
32
113
-21
3
12
73
1
-9
-2
16
-20
-30
-49
-47
35
-8
47
29
-50
62
86
19
54
-11
54
8
55
34
6
87
-36
-14
24
-34
-5
37
53
-36
10
-40
-10
-1
-11
29
64
11
-7
-121
-32
-73
44
-9
-19
10
9
-24
15
-33
57
73
15
-14
-26
-9
38
55
-19
13
-33
12
67
-39
-15
-30
35
-42
-52
-55
17
21
30
42
2
-35
-87
23
53
40
3
-19
-24
54
13
-3
-63
-43
-47
22
-21
64
0
-14
13
-22
-41
20
-40
10
47
75
52
-15
-90
-66
-50
56
12
-29
6
8
-34
-3
-34
-13
55
-32
74
31
-2
28
92
