1472
132
-1083
570
-444
-419
1197
1852
4093
892
-105
809
1703
-1445
-12
-611
-24
1210
2440
-860
-1629
-522
1963
1574
3205
-658
821
-1444
1583
-625
805
-135
-1330
-641
2570
-819
-1722
666
-633
190
2620
-217
-751
-874
-122
884
2399
-2120
-706
432
568
-801
-667
-423
1722
2425
-160
-439
-1039
-584
1242
-1240
2054
395
-1139
-217
-300
165
-534
-166
901
-1197
191
296
-1741
356
-2047
664
-701
874
1400
-873
-735
-879
2563
1076
4614
-258
-840
-397
-38
938
1656
-1061
389
-529
-55
199
-1814
767
1588
976
2771
-1378
-143
-2240
-1224
1717
-2194
2446
985
413
-121
281
-1642
-448
1692
-523
862
-1852
-362
-104
970
-438
-54
290
-340
-601
-1523
-640
392
-416
-1472
-1203
-792
-369
-1136
532
2276
2503
1785
295
1848
316
2861
2716
1375
238
865
-275
2657
1085
666
112
1506
4
-2074
-1171
-1404
-1284
-2485
1465
-648
-1020
3530
-960
-605
-670
1942
-1752
540
-34
683
88
-925
143
547
1218
1692
763
275
2215
2975
-1039
1152
1079
336
482
1610
659
-1855
3021
1270
-1482
-1403
1443
417
999
1850
1870
-167
-2138
137
-238
3061
-1876
-732
-869
1522
3558
1198
2629
3064
534
2389
1906
1466
-48
56
1222
-841
-564
1627
-768
3648
-3531
123
284
1540
-2785
2141
838
2172
-409
1961
242
2452
2732
-2048
2238
949
1573
-1103
73
138
-538
1886
731
-127
63
972
-1247
-296
760
-114
2274
411
-1401
853
3211
176
-29
-1092
-9
113
1263
1082
196
84
-142
-159
446
2563
1077
-1265
296
-433
2104
732
-290
-19
1252
1289
323
550
-1728
-804
3481
