-43
82
-127
-14
51
-28
-33
3
-16
-5
-25
-107
-42
-80
-75
110
56
44
-26
-65
-31
-26
-63
-8
-88
103
-60
-74
127
-24
65
-95
-126
63
-18
42
-119
-127
-38
-30
-29
-13
-24
-5
-112
-37
-55
11
12
5
-17
-78
-127
-127
-50
74
-32
-4
-127
-78
10
-87
48
71
31
-69
84
-55
-79
46
-117
-9
-84
-32
47
66
-3
-127
77
37
-51
-1
-127
-119
-32
-20
32
-4
-45
51
71
57
68
43
38
2
-43
4
-20
-33
127
-24
-11
-94
105
-59
41
127
-3
37
-24
-19
22
-33
-31
-27
22
18
-44
-77
20
107
19
-87
-12
-113
43
68
-127
107
-5
80
-22
-53
-127
-127
66
-93
-64
-120
24
-5
-71
-67
-21
58
12
94
-11
17
-127
-25
8
40
-104
55
11
-37
-101
-2
-20
-96
127
-44
8
51
-127
-63
-53
-21
-127
-37
-78
-78
1
104
-78
2
-59
-38
-16
3
52
53
-115
9
110
1
-127
46
19
-105
-27
82
-28
40
23
-98
-10
-127
-127
-127
65
22
61
-26
-36
72
-56
-127
-127
-54
26
94
48
-13
54
-35
-62
-9
-57
-32
127
20
-65
127
-127
89
58
-38
-95
9
-40
-127
0
122
54
-25
-119
-25
-16
14
-69
52
34
23
13
-119
59
127
-51
17
-5
-93
-27
-94
-102
-10
78
-121
127
-72
13
41
35
22
-112
-90
-127
41
11
-42
-75
30
-74
-36
45
-85
6
-1
-111
-127
26
-23
97
-19
127
-32
-40
68
-37
11
45
2
-87
73
-50
-102
-127
-70
-126
86
31
103
-49
55
6
18
-62
38
-57
-5
-127
97
-7
-127
-50
-19
22
121
-69
53
59
-84
-24
7
52
-61
-2
118
8
-127
69
-81
-118
12
-5
0
27
47
-38
-73
-35
-35
-88
-62
29
127
9
10
22
34
119
-85
-43
-25
-85
-19
97
-89
-121
127
7
-1
-44
-74
111
59
66
-48
-36
26
127
-54
-63
-11
-55
-89
-28
75
-121
11
-26
-42
-26
41
-75
-102
43
36
75
-105
-24
-37
-21
-54
-127
65
61
61
-8
27
-47
60
-127
24
47
19
-92
-107
74
-4
-63
-117
-61
-53
41
-8
-64
-127
-31
55
-27
53
29
101
46
77
116
65
-5
31
34
42
75
112
-66
46
-21
48
127
-112
14
-121
-27
-63
-54
2
45
43
-41
-116
-46
101
-108
-13
34
32
83
102
-27
17
-39
-14
51
36
-24
-37
-82
119
-80
85
32
-60
-39
-63
-9
-12
30
-5
-127
-5
104
-127
26
-127
-23
-89
50
48
14
-95
114
-76
-7
127
-127
-126
-114
30
79
1
58
36
-58
-127
-127
49
-63
-17
-48
-82
-52
-87
-78
-119
127
21
-41
-48
73
127
127
89
127
1
38
34
80
57
1
35
-107
51
-6
42
121
70
70
-89
-15
-127
-127
-75
18
-127
25
3
-21
127
-17
97
49
19
-89
64
-79
-86
24
-80
-113
62
17
127
-45
-100
-89
25
22
-80
-105
35
-90
57
34
127
14
-72
5
44
-30
45
-106
42
64
-8
-86
23
-126
-5
-16
99
-61
10
32
-127
97
127
48
126
-114
-19
-69
38
-22
127
-30
-127
54
5
42
106
-101
-44
6
-112
-25
15
97
-3
24
-127
79
-42
10
-127
-78
40
124
30
-4
-127
-110
-23
-78
-98
127
29
7
-70
15
2
-5
-86
8
41
-28
-49
-127
107
-24
-127
7
36
-94
22
127
-77
-31
-15
-19
-60
-5
25
-52
-103
-63
-44
-44
-127
-102
33
-24
-127
-39
84
-78
95
-127
-39
-84
23
-40
92
-97
-60
-68
-116
-61
17
-17
-57
60
-11
127
-59
40
-36
-36
14
28
-30
-75
44
-13
-13
-63
-13
-74
18
26
-12
10
109
101
36
5
-64
127
-63
-15
31
-127
-88
66
30
75
-119
-9
-42
-39
-33
49
-7
-22
47
90
110
-30
-30
8
87
-106
64
-12
68
-61
1
67
-49
-96
127
44
-29
-62
18
-92
27
-24
-15
-127
28
-93
-89
-108
-40
-102
33
-24
-54
111
13
-5
-44
5
-74
-117
10
-50
76
2
-127
-127
110
-110
-74
-75
-85
-73
-101
43
-127
-74
-127
-2
57
-11
95
-31
-31
-38
1
-29
-96
73
-65
103
-25
127
107
32
-125
85
-6
91
-127
127
56
-124
-127
-25
41
68
-5
-96
82
-53
53
3
-65
-60
127
-127
-71
13
-127
0
35
35
127
12
98
-88
99
-58
11
-127
-56
-41
-127
-50
29
-58
-127
-127
-127
31
-80
-127
-127
-54
-12
-79
64
