-69
-56
-54
-46
-88
-5
-127
29
68
-55
24
25
79
127
77
10
4
-52
27
-10
-38
-27
23
-24
76
57
-90
127
-44
127
-30
98
-23
-54
-9
127
-53
-77
-55
-17
8
30
-62
71
118
-39
73
7
103
-4
30
-50
-125
-61
25
52
-9
48
1
1
41
-118
-28
-97
-40
-5
8
-10
-4
34
36
-31
-17
2
127
6
-30
-124
70
57
-20
32
-31
-16
23
-12
53
69
-73
54
81
84
76
-2
63
-8
15
20
-30
-10
-77
127
-38
-61
90
38
93
35
-12
-8
79
-59
-40
-127
-96
68
-32
-37
-47
-41
-70
26
28
-27
53
109
31
-48
-26
-91
112
-7
22
68
50
-69
113
127
-57
-17
16
110
-45
-19
-2
-35
-26
55
17
-77
-3
-45
124
-101
-2
-127
-41
8
0
-31
-103
-73
-66
42
36
-7
-93
-63
-127
-8
-72
-98
79
-69
-113
-127
-114
-74
-76
30
21
-94
69
-6
-28
-97
-20
58
-54
61
40
44
43
-17
-70
81
-78
-32
-81
1
-126
61
-117
84
4
-54
87
27
-59
45
-127
-6
-46
-104
5
19
14
-46
-6
27
-61
85
-56
92
50
-92
58
-6
15
-15
65
27
-46
-125
-78
-127
-127
6
12
2
-127
-8
-127
-56
0
-116
62
-127
12
-92
-63
3
12
-31
11
-55
-65
-34
-65
-43
46
19
-127
81
-127
52
-36
-83
-56
-107
-69
2
31
67
58
-57
-7
29
67
-127
67
-127
-127
6
-40
-42
-62
-111
127
-6
62
-65
1
32
36
-44
-25
-118
-12
-94
-81
36
31
24
100
-90
-38
1
-127
-79
127
-46
-84
33
-71
-55
70
33
-19
75
-107
-6
4
-127
18
2
-16
-127
23
46
-79
-3
-104
-5
-12
-100
-85
9
-127
21
121
-104
-74
-105
127
61
9
-82
-102
26
-127
-127
-72
65
-69
44
125
-55
-31
-83
-72
57
-127
-119
-102
-127
-11
22
-127
-6
-51
19
27
72
-21
-35
-12
65
-127
12
19
-45
99
-34
-36
-127
-15
-1
-127
38
-35
18
4
93
0
127
-59
63
25
99
27
43
-70
24
22
-3
-100
-11
-13
-68
27
-99
-127
-32
81
-11
-4
13
63
-48
63
-97
67
-88
49
33
-8
16
-1
20
-127
25
-90
123
-63
127
-3
68
32
16
-41
-40
47
-31
-40
37
-30
-79
101
-51
-65
6
-2
106
-114
127
-95
-127
-93
0
-127
15
56
58
-127
-12
-127
-90
-20
127
62
-84
-88
-94
-5
-74
8
46
-31
-127
-53
-99
-59
29
-11
65
-63
-118
-49
-43
92
38
127
-18
96
-52
-3
-54
79
109
-75
15
6
8
78
33
-127
48
127
61
-127
28
-127
-69
127
-49
12
-18
-60
-54
-17
-82
5
-127
-29
-54
27
-99
-25
40
-29
97
-127
-127
-4
25
9
-92
-33
-108
-127
127
-115
52
87
-84
-46
-48
27
-109
-37
-37
45
54
-83
52
-98
-28
-22
2
-19
-127
-41
-43
11
46
-55
-127
-9
-49
-63
93
46
-65
-112
-127
-118
92
-26
-127
-8
59
-103
57
-127
-11
59
-5
127
-99
66
-33
-32
79
51
0
-58
-85
37
-67
-33
46
-101
-114
21
-35
-45
-106
-118
0
-44
3
-73
127
-31
-127
25
12
-118
-44
-79
100
-124
41
59
56
-107
23
0
-5
-61
-17
-26
-127
-127
19
-125
-20
40
-54
-45
-118
49
21
11
-32
-46
-50
-42
76
3
-78
24
-51
35
47
63
-35
-21
19
8
-14
-127
-52
-36
-61
-126
52
-30
29
-28
-63
-109
58
-59
-59
-5
-99
127
127
127
-6
-62
-38
10
-64
-64
-127
-17
-34
-21
-76
38
-38
-127
2
-124
-1
7
-72
-44
-23
-62
-93
93
-33
93
-55
-101
-2
-5
-40
113
19
-92
22
127
-116
1
14
-14
39
56
42
-51
-66
39
-52
124
-125
-45
25
-57
1
-78
-3
25
-102
-125
-71
-34
-9
127
1
-73
-127
33
31
-69
11
127
-8
30
9
127
-73
-28
0
9
-15
-77
-67
10
-74
-127
33
39
6
-50
12
18
44
6
34
3
-127
29
-67
-11
36
68
-96
86
-14
39
20
44
66
47
0
-40
-127
25
-39
-54
-2
38
12
-53
59
1
29
30
-48
-121
95
-26
32
-104
-122
-33
20
103
-24
61
-46
-16
117
36
-1
-52
-43
-8
23
23
62
-75
127
-109
-7
71
71
65
-22
-127
-66
63
71
67
-56
-6
-18
53
127
-68
46
-54
-13
64
-80
-36
-52
-19
47
-65
48
-3
-61
65
8
-49
-57
-127
-62
-5
71
100
-39
127
-94
45
-55
-24
27
-15
-78
-25
34
13
53
-127
0
36
-86
-30
-94
-64
-42
-4
3
-50
23
61
-127
70
46
-52
-32
-71
44
77
114
14
29
-16
-122
-77
-124
-50
23
-119
-88
61
33
81
-5
119
-19
89
-18
6
-60
-127
25
20
24
0
58
96
-96
-127
19
-38
59
-27
36
-28
-2
-77
2
-127
32
-64
26
-126
10
-30
-75
11
-23
-12
-25
-127
-127
-10
-59
-120
-59
67
-20
127
11
-127
37
-55
85
-115
-30
-122
127
4
13
-23
-74
127
83
19
13
4
-66
5
-127
-66
-21
17
-127
-42
-66
0
-119
67
-110
-49
127
127
-20
-95
-51
60
63
127
84
-66
38
50
22
78
-127
-70
3
-12
71
-16
-127
-4
-46
-89
-91
95
10
-68
124
-44
25
-80
13
-25
11
-92
-104
34
-35
-61
56
-1
-9
54
-26
-127
-50
53
-127
-84
-11
127
-16
-51
-93
-124
-37
-53
-4
127
-81
54
115
-33
-127
43
-71
-6
-67
76
-111
-44
66
-127
-127
-40
115
-81
-56
-100
22
-86
-62
69
127
-21
30
122
70
64
-111
2
28
-59
-113
103
127
-68
-89
-100
127
-127
24
-39
-23
-49
-18
-47
45
-55
-119
-23
-16
52
-103
126
-18
-39
78
49
-6
71
55
-96
29
60
-20
-127
49
-85
2
13
16
-42
-74
43
-93
-16
-55
-108
-24
-122
-47
-13
-49
6
-72
-35
-66
67
99
100
-113
-56
109
-26
81
-93
-9
3
-107
-23
-16
-38
-108
25
21
-10
-112
-127
54
-80
98
33
37
-127
41
-87
-5
36
-15
-68
-1
3
-38
127
53
46
-10
21
102
-123
-30
-46
-117
34
34
-59
-104
33
9
-113
-65
22
29
-36
46
-59
-127
109
-8
-89
64
-127
18
18
-58
-30
-48
63
127
-17
15
-127
-127
27
44
-98
24
-122
-82
19
1
2
31
-35
-127
-21
-77
-52
-36
48
-125
-29
23
-14
-39
33
83
62
-127
-69
-127
32
25
-37
45
-30
-92
8
-32
-92
38
127
-127
74
-60
-22
-127
-93
-74
-70
8
-127
82
31
-43
-121
15
11
22
-21
-26
-21
-5
-13
-127
67
-8
-18
-16
-55
-104
104
-79
96
-43
-66
-29
-3
-81
-19
-1
-68
-75
-71
127
66
16
41
43
-36
-127
18
10
32
17
-16
-85
-3
2
50
-17
-127
-90
46
94
-87
3
-116
-55
-97
28
90
-1
-14
36
38
127
127
-64
17
-32
-56
34
-41
-107
-104
-127
119
-53
-25
9
-71
-57
-90
-18
-52
-14
-50
27
-38
-24
-106
-52
45
-16
-37
127
90
-127
-127
-29
-127
25
15
124
28
28
96
-11
127
8
-127
107
4
-4
127
-30
-127
-62
-24
-127
127
-26
-59
46
-97
34
-63
-93
-21
-60
-55
-75
-107
60
-127
-3
17
-15
114
114
127
43
-78
-86
-97
127
-127
-127
-36
-56
-20
-10
22
73
-82
-111
20
-127
64
-13
9
127
-4
-12
64
37
-127
86
-12
-11
88
42
-68
41
37
44
-127
-127
-47
-23
27
19
54
-41
54
40
26
-82
-127
-24
-37
-46
-59
-21
-37
-42
-16
-127
-72
-9
-23
-127
21
-9
76
-33
94
82
51
126
-121
-67
73
4
-7
-91
-127
-56
32
-127
84
-127
-87
-87
64
113
35
114
108
-3
-122
-65
33
-50
52
85
-83
-22
-111
31
-39
-26
27
-127
-54
127
59
-9
-105
-127
-32
14
-54
-3
-47
-96
57
-4
-47
127
-127
16
-5
-102
-20
127
-44
-33
89
-55
8
-45
-89
-13
-118
-127
-69
52
51
-51
-80
-22
8
10
-71
-127
117
8
25
52
-42
-110
-27
-118
127
13
-81
68
1
0
34
-127
-96
-25
74
-8
-24
-3
8
26
-36
96
43
41
-123
-127
2
26
-11
-8
41
66
127
-27
-70
66
2
95
95
-7
127
0
-12
127
-83
13
-76
-82
-46
-46
115
-27
-64
-9
111
27
33
101
73
1
-79
19
-32
80
-86
-19
-6
-54
-68
-3
106
-6
42
43
105
-102
93
20
-36
-43
12
-37
110
-89
-26
23
23
36
-68
20
-48
-80
-18
16
-5
-127
-31
58
79
-102
-127
-127
78
29
-41
-5
-59
-49
-29
76
-29
12
-127
33
1
-6
-127
-38
123
29
6
-77
-127
-78
-127
-127
5
106
-112
85
127
-127
-55
45
-78
-52
-108
2
29
-80
8
-127
10
127
54
-29
90
-2
-31
9
-40
-6
-13
79
-3
61
-81
13
17
-115
24
-57
-1
-125
2
116
-5
-19
63
46
-127
-85
