50
-18
-24
5
19
-86
-65
-1
-36
-30
-89
-18
-2
-18
-20
-67
21
-34
38
80
78
51
-8
45
-73
51
11
35
1
2
81
-61
32
-12
-17
118
-20
-29
-25
127
-89
-8
1
41
-35
2
-2
22
-34
45
0
-14
70
36
-39
40
95
49
-4
-56
25
37
24
89
-14
2
-23
33
44
-59
-22
-9
-11
5
24
-47
26
-30
-8
-39
43
-47
-97
65
30
19
-44
-57
-66
-46
15
-17
-32
-3
9
1
-32
42
-57
-42
5
40
-81
-41
67
-23
26
-69
47
-57
-80
89
-45
79
26
-1
19
-12
28
8
67
56
-15
-21
-5
40
67
-44
0
36
70
-6
3
15
-16
-10
-36
-15
-89
5
9
-55
42
-87
63
-6
-5
67
39
9
5
-68
27
15
-50
42
34
39
19
6
-118
-42
123
-4
-88
-72
-4
23
5
61
-56
7
-53
76
-39
-113
-127
-113
4
46
72
29
49
-30
50
23
-46
43
-115
12
-3
-108
9
-28
44
-50
6
100
-34
28
-5
13
127
54
-71
-104
58
-34
36
-42
59
-65
83
-14
-54
85
-33
-26
39
33
72
89
-76
49
53
-19
13
36
40
16
-30
25
95
77
57
8
-79
-67
-64
17
-15
-61
19
-25
8
-9
-65
28
-14
-1
-18
-78
74
14
13
70
54
-5
-14
34
60
-34
44
7
-54
-30
62
127
22
-63
-4
-65
-2
-30
-43
-7
-29
-31
-63
94
-6
-112
-90
-11
-115
17
-34
83
42
-23
13
72
9
6
5
-4
-25
-35
2
-2
-11
31
-26
76
-4
71
8
-10
-8
85
36
33
51
28
-15
-26
45
49
127
-16
-21
30
19
34
25
-6
7
-2
44
59
-51
-18
14
19
-5
48
-3
29
51
50
28
53
-12
10
25
7
-26
-22
48
74
-25
15
-56
39
42
30
-35
-55
19
18
-32
80
-28
-33
13
14
78
-27
-5
50
49
87
62
-33
45
-39
32
67
13
12
57
31
37
-27
68
-22
44
-32
35
-73
41
-22
-52
-2
-11
34
22
18
20
-3
-27
-24
12
27
38
22
-16
-79
50
-1
52
-39
11
-68
-8
3
35
5
-119
-51
-44
-5
71
-12
45
-10
34
-21
-16
8
19
-36
14
9
35
43
-23
22
13
38
-21
127
29
10
43
-99
22
27
3
73
-28
-22
61
-2
-13
28
-15
17
6
31
-5
33
-24
16
68
-2
9
7
-22
-5
10
19
-2
18
31
6
63
-57
-54
-20
53
-14
102
-37
20
30
-45
32
11
-13
-4
67
16
59
-60
-42
46
-9
120
-19
-13
35
-51
-6
55
37
-45
-96
32
12
38
16
5
12
-4
49
-89
15
106
54
121
41
-28
31
8
75
-11
-71
30
-4
-46
-36
-103
61
20
33
22
57
37
56
10
10
94
39
60
-48
6
-34
41
-124
-59
18
-68
36
-127
50
-11
85
-76
23
-14
-54
-12
-44
-67
48
35
79
-46
-45
7
5
-37
-12
92
-10
30
13
-15
32
-40
57
35
42
3
2
-66
16
-1
19
43
-32
-11
42
-101
-28
7
-46
-8
-7
7
38
-56
80
-81
-58
26
-42
-75
47
57
-16
-16
7
-71
-50
3
12
-55
-18
7
-56
-48
-13
-95
6
-35
-5
-31
-72
40
20
-20
-28
-19
-127
-37
33
13
-66
88
32
-68
4
-67
-3
-32
-44
39
-63
21
46
30
28
-6
-37
12
45
0
127
27
-9
13
15
31
39
28
-58
28
-52
-5
31
53
103
-25
64
-35
11
-36
-59
-75
54
-19
13
-38
-37
-64
-12
-22
-46
-29
-1
127
-119
-2
61
24
104
25
-18
-38
29
-50
46
-7
37
44
-20
23
24
40
-46
-45
-40
100
-22
21
6
37
52
-25
56
0
79
32
69
-41
52
35
12
-7
-55
-27
27
-68
-53
-44
58
33
-49
-27
-36
40
33
80
10
-50
-77
-81
-9
26
-22
7
82
-15
-77
-9
-31
-25
4
-3
-36
-10
36
95
20
24
-7
-24
-44
18
-31
-55
-39
-24
43
37
-72
-17
2
-57
-33
-43
-35
-7
-5
-45
-77
-5
-5
23
-64
-58
46
-28
-118
-31
3
62
11
-74
32
10
-1
-79
-14
-68
-32
-21
-48
-2
-53
1
-81
-11
-83
-65
9
-6
-73
-6
17
8
-59
-64
-72
-18
10
-61
1
-28
-33
-6
-127
75
87
0
-45
-36
82
-37
-30
10
-69
14
-44
-91
-94
-58
-46
41
5
-92
37
13
-57
-46
-5
12
-10
22
-44
14
-81
-45
-10
25
27
8
52
1
-4
-68
-14
-19
-31
-15
8
-8
13
17
8
12
31
-21
-74
-16
3
23
-59
21
36
2
21
38
-16
9
-79
-36
53
-37
-127
-10
-13
-13
21
-66
-13
-35
17
22
35
77
-10
36
-4
-25
-1
-21
-27
5
-12
-36
42
-26
14
9
-18
-39
36
3
-14
-12
-9
-3
-31
-62
44
4
-48
-61
13
-53
-1
-21
7
-35
17
51
0
-18
1
-70
-42
34
11
-53
24
31
2
7
19
22
-28
81
-3
-35
75
6
-32
25
60
101
6
28
18
109
-33
45
89
-2
48
63
-52
-17
-97
-29
82
-52
-59
56
-7
88
-48
-123
29
83
-76
-76
21
-17
-49
-19
-100
-10
-11
6
23
96
46
-29
5
-45
-31
64
48
-67
9
-27
85
98
-90
-10
-5
41
-13
-67
72
-16
-62
14
-33
14
16
6
-100
-27
11
-1
-11
26
23
-20
118
47
-72
74
-80
-45
-2
-43
-127
80
-70
27
-50
-11
-32
18
-73
-127
105
4
34
-42
-104
-78
34
27
19
45
40
59
53
73
-31
-61
9
31
-1
-18
53
-9
14
12
1
0
-18
59
-16
2
-42
-91
68
8
-49
-32
50
-9
83
21
-50
55
-102
80
-63
20
-9
23
53
8
-59
7
0
-33
34
-28
52
91
62
13
-31
60
9
8
-46
-62
-33
52
4
92
11
39
47
-32
-85
-56
46
27
56
31
27
24
30
-54
-36
2
22
50
-32
-21
-52
62
32
127
-64
19
-14
56
-39
20
0
61
8
58
12
-29
-21
19
-73
66
13
79
-11
-34
40
10
43
-38
63
-33
-51
40
93
-47
40
-44
-2
-43
57
3
48
32
-118
-3
38
15
61
-50
-90
10
-47
-47
-30
39
-61
7
-22
-75
52
42
2
-97
31
-69
45
-37
-12
-81
32
-50
-79
-75
49
47
17
-30
-8
46
-9
-49
-25
-11
28
20
-17
12
6
31
-72
-81
-3
-36
2
47
-5
78
87
61
28
85
-32
-49
-29
-37
-1
-7
42
119
-36
29
-2
6
32
67
59
-93
-48
23
-38
32
30
-127
-57
-47
-103
-53
-89
28
2
5
73
-58
48
-32
-100
-102
51
89
-1
-38
-95
-5
-17
-91
10
14
123
5
-62
-10
14
36
51
-97
-27
-31
-54
61
-79
39
-27
-126
-96
-38
13
18
-80
39
13
-22
-2
-8
51
25
-110
-37
47
-23
15
-30
52
24
-49
33
6
-59
17
-46
-117
100
-12
15
6
20
-3
39
-18
-5
84
32
-7
-92
11
45
-61
-17
56
-77
-7
-9
-99
-26
62
49
-36
35
10
20
-9
69
-31
-7
-8
-83
-30
-18
-71
-42
25
-80
-78
-34
53
32
-3
-49
-66
10
-22
107
-40
14
-14
57
-127
17
84
-52
-29
52
-44
-69
-6
10
-6
-49
-53
-11
-59
-6
39
76
-23
-11
-61
34
-108
4
30
-38
4
0
-33
-14
10
109
82
47
66
90
63
49
15
-32
58
42
-9
42
-49
67
36
-66
-34
-8
5
42
-5
-25
-41
-27
18
28
52
-25
14
0
53
108
27
25
33
72
0
-92
50
-9
14
59
-12
-68
46
118
-57
6
34
88
-18
-83
-127
-20
1
-10
71
-52
-56
14
-1
-10
-39
72
-48
41
78
8
11
-2
-23
-55
39
124
2
-48
53
61
-41
3
80
-41
77
30
-30
44
8
-56
-12
47
-2
0
43
44
41
-8
-105
-54
24
38
35
2
-6
-36
-45
-15
3
-25
49
