-49
-72
-7
-93
30
97
-28
20
-14
89
-22
-17
-29
-31
-86
-22
-6
49
-1
-68
20
0
-20
0
35
34
6
30
-65
28
17
51
16
-34
21
82
-116
106
-36
50
3
-29
80
-59
31
47
-21
7
-16
75
-4
37
-19
-74
66
45
-28
-82
-27
-49
-30
67
-6
-57
4
-26
-66
-10
72
-29
-3
-83
76
-127
4
-23
-30
-5
-42
33
43
25
77
-8
114
-26
37
38
0
79
10
34
46
49
18
-7
-12
-27
-36
-49
1
-17
31
-72
-6
-3
-14
-39
-13
-59
-60
-65
-84
-32
16
108
41
74
-60
-60
-3
-16
39
-38
70
-46
-95
40
71
-53
34
99
-27
-61
6
113
47
2
-127
-78
-33
-9
108
22
-66
33
23
63
32
-70
89
-36
19
19
11
34
-49
-12
-44
38
53
-72
1
-7
23
40
-103
93
36
68
-83
-32
106
-46
-16
34
-38
45
1
23
69
66
-28
53
50
-1
62
-30
17
40
-3
42
56
30
-39
-55
-44
35
-6
1
48
91
43
100
-79
7
112
-67
-40
-40
-28
-26
51
98
-127
-62
74
90
-12
-20
8
-11
22
-104
-43
26
2
-33
-40
-37
60
94
1
65
-103
18
21
2
26
56
4
4
-99
35
-35
-64
83
26
35
72
69
58
76
-83
-56
46
11
-34
-63
79
119
86
-39
13
43
7
-110
-30
-87
42
44
69
-60
1
36
1
-20
10
21
46
-2
-3
87
-33
23
-40
29
25
80
-100
65
66
41
-75
-33
43
22
-37
-112
-97
66
-74
32
-86
-19
-10
-5
-6
-20
32
4
-24
-98
-48
40
37
50
-42
-6
69
40
-8
23
-22
-100
-37
58
-125
32
55
37
-15
-60
5
-50
45
107
-24
-41
-7
-58
78
-53
-12
8
91
-3
12
-12
4
-64
51
48
-33
-53
11
-88
-5
6
55
39
-89
13
127
-75
-107
22
-9
-68
61
-15
43
54
-12
-36
-34
-5
-65
14
29
40
-109
37
88
-17
-46
14
16
24
40
-26
-67
-19
-61
8
-26
-18
31
-95
14
84
57
43
-9
28
-120
-6
30
-13
-47
-53
-56
12
-13
22
25
-42
-22
36
40
-68
23
35
63
-127
-35
-33
19
-55
13
-38
25
64
-35
19
37
-45
-107
49
-16
-72
16
37
56
15
79
24
85
-6
48
32
17
-30
86
-61
-12
-35
-102
40
-3
6
-55
-29
71
71
94
39
3
29
24
-73
35
19
-121
-47
22
-37
26
-11
-53
-19
-1
-4
-64
44
76
-65
13
33
27
-57
-26
3
29
-17
107
-17
38
-58
-42
70
-54
-46
2
31
-55
19
60
20
-29
-50
14
30
111
-31
94
12
-71
84
-97
46
-67
-17
-9
-76
5
-8
65
98
36
35
-14
49
-2
10
-52
7
-11
-17
-55
-43
-83
-45
-12
127
105
20
-25
14
41
-33
-8
48
18
-26
-1
27
-69
2
2
-3
0
22
3
27
-72
26
87
-75
101
49
7
-63
-52
-13
-26
-50
28
-51
17
-26
-39
56
48
19
-64
-27
-22
48
-45
-7
12
-8
-18
-11
11
-29
-91
-1
18
14
70
-16
-7
-63
41
-74
49
18
-13
30
-11
-12
-42
45
-34
28
-9
-34
-49
-43
-11
7
-54
-43
38
15
34
21
-32
-18
-17
-127
46
5
19
-65
-8
-44
-68
-20
-7
-37
-25
-12
-18
26
3
7
20
41
6
3
-42
19
-53
-23
-61
45
39
-3
26
18
31
-35
-62
-26
25
4
70
53
-14
66
2
-65
-60
35
2
55
-4
-50
-19
-15
59
56
-54
2
-55
7
9
-48
11
9
-15
45
-94
31
11
-41
11
35
33
9
13
7
50
49
-12
25
-2
-50
61
32
-16
-44
53
40
85
-59
2
-9
-15
68
-32
46
-50
23
127
-7
-30
20
1
-27
-44
-4
2
-3
76
-9
32
-1
4
9
44
56
-28
27
4
48
-7
40
25
-22
3
-37
-34
-6
-42
10
-58
-65
39
-76
-42
73
41
-17
30
-26
-73
70
-11
-19
5
-57
-42
-48
78
-13
-82
18
24
35
10
43
-53
14
46
-1
23
9
-4
-42
-85
-7
41
-81
-27
-39
-32
-17
12
-32
-13
54
77
47
-79
-49
73
83
79
-66
-19
-4
-17
50
4
-11
-14
53
43
-44
-2
-29
24
39
12
64
127
-68
20
66
36
-60
5
-54
67
-37
37
-77
-3
89
57
-27
-32
-38
-23
-26
32
-90
42
15
57
14
46
92
-30
29
97
41
-50
13
107
-1
-55
-61
68
15
12
-36
52
-121
-59
-22
9
4
-12
-16
-19
-60
4
127
12
69
-21
-15
-1
-8
-93
-32
57
20
-38
-83
50
0
-14
6
-23
17
77
26
-40
71
3
60
20
-90
-2
13
-17
49
-69
-17
-71
43
-8
-48
-13
31
-52
14
43
13
41
-64
16
-78
43
-23
45
-64
-22
-74
29
-107
1
-22
-6
32
23
-25
-38
-28
-64
-17
40
23
17
0
30
17
-33
-46
42
-2
10
83
-6
-51
3
14
36
76
79
-127
-9
32
8
-75
21
6
17
31
-14
-23
-48
32
39
23
-18
86
-100
95
53
26
-78
-70
6
73
-30
73
48
-101
5
22
2
20
76
-77
29
19
-52
50
61
-73
-8
-14
-53
61
-20
39
-13
-29
64
37
15
20
4
68
41
-23
35
57
46
43
3
-13
15
1
69
38
16
4
108
-77
52
23
26
-71
-86
-97
72
-19
-75
32
-100
-31
-24
-76
31
-93
-14
-76
50
-35
9
17
12
20
-25
17
-112
-23
-52
-3
2
38
-14
35
14
-6
-1
-74
-12
39
-42
-38
-55
21
7
2
-11
33
5
-56
-36
1
43
18
-41
-41
-112
60
-3
-23
-33
-22
18
44
13
-23
52
19
36
12
4
-45
17
12
-36
-40
-39
10
12
0
-127
-24
51
-18
58
-7
32
6
41
-76
26
8
56
13
-5
-13
-1
78
30
82
21
9
10
-19
-23
37
11
-8
-41
-53
-42
28
-34
-13
-70
38
-42
-48
-86
36
-13
-42
-54
-50
-76
21
17
104
-54
-53
40
4
-43
-2
0
64
76
-61
120
-77
34
-22
-11
-3
7
-10
26
-28
10
45
118
-61
16
5
-60
-17
18
42
-5
-46
-24
-36
-17
-50
9
-102
59
-60
48
-127
40
-73
10
-27
-71
1
44
30
-53
-50
-47
6
-48
-21
-64
28
-8
-69
31
-43
-7
-56
-6
-52
-25
28
-24
45
22
70
52
-26
-47
-4
-62
4
-81
61
-4
-35
-33
11
82
-65
-15
-45
-79
-44
39
74
-87
23
5
-33
-33
-40
-36
50
27
48
31
-68
-6
43
8
-66
32
-57
-85
25
56
-60
-70
-4
7
-5
-7
-93
48
44
-33
61
-55
-29
1
9
-11
41
99
21
-59
-5
54
72
72
-74
-58
-46
-39
-81
-32
97
127
31
55
-48
32
48
-26
27
29
110
27
-34
32
-3
-71
4
21
-54
-25
-26
-90
34
-60
-28
-20
-72
19
22
56
-39
-109
-45
12
-39
-93
-3
75
3
15
13
-60
-27
33
70
-36
15
-59
-28
94
60
64
53
86
21
47
16
14
68
-57
-34
27
-38
13
-51
-10
-15
-65
19
71
4
-68
39
-43
20
-67
24
61
50
-53
72
-19
45
-25
-12
-62
-14
73
-79
90
-28
7
-61
96
95
127
43
-51
8
48
44
-4
-59
100
95
-58
-68
-20
26
16
103
-41
5
-100
21
31
-38
21
-17
9
14
54
54
3
-55
15
-14
-40
-35
-37
9
34
17
-1
28
-30
-61
-6
4
-6
-43
-93
-39
51
20
-24
18
-33
-53
13
19
4
-24
28
18
-25
-84
-14
2
-15
17
-16
-2
69
31
-20
-23
15
51
-42
-65
-26
15
-27
65
-27
-89
-72
6
23
-14
-127
-40
-22
-23
22
9
1
91
-38
-53
21
-90
32
-18
8
16
-45
22
-22
-64
10
21
66
-26
-9
7
-55
-75
19
-36
13
-56
-32
-58
-36
-86
-21
30
31
-70
-25
62
-18
-32
6
-78
33
6
127
-21
-15
2
-18
37
-70
72
45
-5
-27
40
-38
-24
22
51
29
-20
-40
-9
8
23
66
45
44
33
-33
-18
22
-8
5
-21
5
-20
14
-36
7
-3
-19
28
8
32
18
21
-8
22
-7
6
0
-31
13
-25
22
15
-1
12
41
-37
13
32
28
9
-5
-41
-14
21
-43
14
25
95
7
-3
-28
8
10
65
8
-12
11
5
-6
-12
48
1
-81
33
48
-7
25
-59
16
-53
34
-11
11
-42
16
8
-51
31
60
9
71
-38
76
-7
-21
4
35
59
39
0
127
68
8
5
18
27
-41
71
-9
29
56
-15
27
-7
33
9
74
70
-58
-108
64
104
37
58
29
-19
-2
-21
5
7
20
52
-24
32
53
-81
-7
39
-13
32
59
-35
-12
-86
21
-51
47
-73
68
-61
116
-1
24
74
-28
68
-31
-2
32
-2
-94
-5
14
-77
-16
-47
-51
55
4
30
28
-99
79
-29
-122
8
106
23
-52
-19
-28
-36
38
-57
-43
49
-43
-34
-52
-5
19
40
7
2
16
29
-19
-21
-6
24
-67
-69
8
-33
36
9
49
-36
14
-44
-20
3
18
41
-30
-9
-7
-57
-7
-127
10
-45
-8
-16
10
-24
1
-50
16
2
17
-43
-29
-46
-18
-32
6
4
13
62
26
-32
53
-7
11
-35
12
-20
38
-14
31
-47
-10
20
-34
7
-18
-18
18
24
-72
30
-57
-106
-4
4
11
-32
-59
-38
-30
3
95
23
11
43
9
-52
-15
69
14
-77
34
-36
58
-60
-104
16
-41
90
77
-53
-88
61
11
40
118
-120
-50
110
-51
-121
3
-5
-127
-106
-6
23
109
-121
-48
-17
64
-30
8
32
59
-13
94
-7
56
-55
1
-34
10
33
121
102
-11
61
40
-93
22
-60
69
-46
120
-33
2
31
25
-40
111
-13
81
-16
91
11
-71
98
-5
35
-91
-29
-30
-42
-51
2
27
16
-7
-8
47
-44
-54
23
15
43
-51
17
25
-73
106
-13
59
71
-73
45
8
-55
8
15
-74
27
-16
-62
11
71
-12
67
10
60
25
-59
59
10
-14
-6
73
-45
-10
-80
-52
-42
5
-18
-8
16
14
35
-56
-71
37
-33
97
26
25
-9
-26
38
22
20
0
-11
-79
-29
-54
-64
-48
-29
-127
69
53
-5
56
86
-3
83
-78
-14
-6
21
14
-33
40
29
-13
47
-79
-59
-2
-17
31
90
87
28
-10
50
-5
75
-22
-11
-18
13
-10
59
25
-59
13
110
25
-3
-72
39
41
-44
-80
-67
18
16
-37
65
-13
-70
-38
29
16
77
38
5
-40
28
-14
-127
17
118
-59
-35
21
88
4
-8
9
-48
-4
36
61
92
32
7
57
-42
12
33
81
-15
-58
-73
43
2
-17
65
-49
126
17
-1
63
-35
51
4
55
26
1
-43
18
11
-55
-69
46
-7
58
26
-33
83
82
-27
-3
84
6
-33
-53
19
27
23
-9
-31
123
36
-52
-71
-119
-90
10
-48
68
45
127
-51
-8
32
65
26
-67
59
8
-53
2
56
10
52
5
54
61
-57
-81
-88
-33
-21
48
-8
6
-7
37
37
-10
-24
19
27
-98
-53
78
18
31
26
33
48
22
47
-36
45
-12
22
-4
-29
34
-39
-12
79
58
-9
45
-15
34
-27
-7
-17
4
29
-63
-83
41
53
-94
40
49
39
-30
-14
18
53
18
-24
-69
27
-11
-16
-30
-58
-37
28
-57
-1
-68
-24
88
-51
60
24
16
50
56
-11
-5
-46
19
-11
60
115
-98
-82
-75
8
0
59
-31
-90
-70
27
-83
45
5
-11
29
-68
65
-80
-45
56
-6
-25
-23
-2
13
36
-18
1
20
-11
67
5
-35
-28
-3
102
-1
-57
1
-109
-64
-31
127
27
-71
14
19
-46
46
13
88
4
72
-49
-63
-72
42
-51
65
-27
0
101
-40
8
-37
54
-2
20
-2
21
-96
22
-32
-18
62
-4
-4
-4
-65
30
-66
-44
-24
20
-81
-11
-12
-69
6
7
23
45
-51
-6
65
48
-4
127
47
12
-18
-17
-77
90
89
5
-5
39
-4
-54
-7
-16
3
-35
45
-124
-24
85
10
-88
-36
-124
-44
16
73
-14
52
-32
8
8
-35
16
-62
44
-14
-70
48
3
13
34
50
66
7
83
68
-35
32
32
76
-12
45
62
-72
-39
46
33
11
18
-5
42
-26
4
-13
8
16
-61
1
-45
5
-15
31
-77
8
104
-7
43
23
101
33
-14
99
-23
-8
-75
127
23
16
19
53
39
60
85
24
-62
-55
97
87
39
-55
17
-34
-29
-19
-32
29
23
37
-72
27
-27
100
30
72
25
-7
2
-28
18
58
-9
-14
-73
2
-56
42
21
-55
115
76
-52
1
-33
5
-5
23
51
30
66
-28
18
41
2
0
-80
5
-9
-19
49
14
-9
10
-16
35
80
-17
20
-44
-35
33
-24
-6
-37
0
28
-35
0
-12
-51
-31
0
-2
-20
46
-33
17
12
-51
-15
28
48
-6
-3
14
-44
-12
13
19
-43
-9
-13
-15
-45
9
-4
58
-15
-74
-7
-42
-61
-73
12
32
61
14
0
30
33
-36
-62
-25
-16
21
-17
-114
5
-27
40
-63
5
-6
-16
3
34
-72
-82
-61
-3
-26
39
-62
29
-42
5
36
-76
-53
-7
-15
35
-79
24
7
14
25
45
-6
-30
47
51
17
-13
88
31
65
-23
-81
-5
-14
55
7
-45
1
21
-46
-22
20
45
-76
2
127
74
-38
40
-29
2
-41
-9
17
-6
41
32
32
38
-44
33
-23
2
-56
-6
18
22
36
-10
42
-9
-2
67
37
-13
40
-36
10
-22
85
127
61
47
-26
23
15
8
-40
50
-3
-1
-5
35
-50
-74
28
40
13
60
5
48
18
2
-21
-14
-1
-33
-19
32
11
-11
27
40
11
19
46
36
-6
-52
-14
-5
-40
17
31
15
21
61
25
19
-39
15
-17
-15
21
5
31
63
-43
-16
-26
2
-6
82
10
6
1
101
71
53
-15
-64
-62
-8
-18
-1
49
60
108
27
106
-71
71
18
14
-20
-73
80
6
-118
-13
91
-43
-24
-10
-25
-74
-14
-37
8
11
-111
-5
9
1
-14
36
124
3
10
52
84
-52
90
-49
-18
61
31
48
-12
53
79
12
127
-97
-60
-55
-68
-96
-63
-49
-59
-9
67
-58
12
-94
49
-8
67
13
-64
-29
106
71
15
-21
-53
-33
27
16
-70
-102
-22
-101
-50
-27
38
-24
-25
89
-59
92
29
82
126
-48
-14
9
86
20
-28
115
49
39
5
-5
-2
-62
-57
-68
88
55
-76
44
-55
2
47
26
-109
-76
28
106
-14
20
5
-4
8
23
-46
61
47
43
73
55
12
91
-49
-23
-45
-64
6
-18
-44
57
11
22
22
30
52
23
-5
33
-23
77
64
62
-1
30
-32
-7
-47
72
95
-29
-23
4
-61
30
-127
-14
-45
-58
-1
-12
41
-53
57
-61
5
-57
28
-53
-17
65
-12
-15
43
57
-60
-92
-62
-43
-36
74
31
27
-15
-12
-52
-22
43
-18
-89
-5
-39
-42
5
11
42
-11
-35
51
112
45
47
-28
-6
76
-115
20
43
-27
78
-127
-32
23
31
-44
-25
-17
-27
-18
34
-31
-69
-72
39
45
-34
52
-62
30
23
15
-12
-67
19
-51
-84
1
51
-65
11
31
32
-74
-20
41
-40
-55
-20
-30
-2
-37
19
5
-30
-49
-44
75
17
-14
-69
44
22
-75
40
-62
-88
15
-9
-34
-45
-40
-80
-10
-4
-7
47
28
-68
-27
-17
-21
31
8
-24
-84
126
-19
76
58
-45
71
-37
-12
30
-87
61
50
12
29
15
10
31
-75
-104
25
-39
10
70
18
67
54
49
-3
72
22
-20
105
26
66
3
26
-29
-52
3
-100
11
0
38
-56
44
11
127
-22
-45
-41
-82
94
27
29
62
2
-83
-40
-15
50
-9
23
-30
46
31
36
52
-30
18
13
-3
20
30
60
18
35
-83
-58
-13
-82
54
-58
