139
-1567
382
495
-6312
-1260
-5175
3888
203
-681
164
-348
185
740
277
-227
277
26
-142
2611
-1465
-2366
-1350
-912
-1092
-2908
-244
-3090
-3709
-240
-365
1349
7212
513
7300
-668
-803
-1797
-1989
-372
-3141
-884
516
1255
-4506
-821
1070
-241
172
-1496
405
-2717
-1804
-724
-5192
-322
-1402
-6088
95
-1442
334
-1758
1254
-2481
-600
-1122
-1038
-3758
-2734
-4982
-552
-1121
-1908
-426
-7040
-3744
-242
-306
-4974
-6523
-243
-908
-403
-2
583
902
-3758
841
681
-2925
494
-1633
1424
230
-1532
-623
-614
-861
-260
-1813
1559
-137
-200
-5958
-4706
-77
-353
-2592
-339
1969
-4
2307
-1791
-522
-5189
-674
-1951
-44
-1146
504
-1132
-232
-753
-2466
185
3121
-3735
-46
-2065
-242
-3787
1864
-3808
-857
-5023
-1089
-3514
-398
-124
-1126
-3453
-1611
-3531
-546
-121
-1663
475
361
-1810
-2283
-2587
-2212
-246
-1939
-6219
-3814
-122
-2640
-82
-415
-264
-3113
216
-613
1673
218
482
1737
889
263
1580
-1364
190
-326
-2677
-3197
-540
392
-14906
1772
-1175
-1377
289
-2419
-84
496
-3579
1888
-811
-477
3346
-217
-711
-774
2361
-2272
-1808
-540
-1438
-1495
-2660
-5834
-4455
-1557
-700
-1206
1809
-419
-228
-951
-201
-352
-1763
-371
-558
317
-3153
-454
-3638
-2343
-125
-1709
1642
-2525
762
889
2072
652
-132
2337
-670
-3678
769
-2955
-2172
1702
-1050
1492
-1992
-2706
-5212
429
491
-2062
-1540
-239
-92
-14548
-969
538
-698
-5028
-1158
-6510
1069
1547
758
-1667
-1394
-119
10
-26
1756
882
-1146
-2902
-2185
-2535
1407
-701
561
-488
-1477
-1789
-944
-4475
-2038
1018
-384
-14015
-9146
-3754
-309
-1952
422
-1511
3827
-1269
-3244
916
-4183
-995
1718
245
-159
77
1220
-159
-461
-3241
770
-7767
2817
-7127
-670
256
1226
-1530
-829
1250
74
-1701
-1231
-1568
408
-2116
954
-531
1258
-594
638
-1899
-791
3007
-2328
-1283
-1748
-1496
-4711
809
-1185
-2255
-1376
-899
-2972
-3286
-1301
-787
-6088
1890
628
673
-137
-55
-350
4238
575
-2222
-37
-1004
-1054
-4604
-1958
-3917
-3607
1365
1821
4451
-2418
-1352
708
1559
-3781
7
-1711
384
-3878
-7
-3289
-720
-2884
-1104
-2531
-1613
-1701
2981
-484
-4474
-2973
-1737
778
-60
-1684
-5944
524
1354
-1454
-4868
107
-1154
-3395
-1405
310
-621
206
-572
-5822
-3478
-2207
381
694
21
-321
-1833
-2031
-665
2020
-1459
1446
-1036
3062
-1936
-6305
380
-1536
-1179
1935
1514
-761
-621
-4378
-1696
-498
-1781
-239
-1879
2012
-875
-2176
-478
-1550
-3644
98
-1540
-678
780
-997
483
-976
-1546
169
1476
-6443
-2508
-750
-263
189
-230
-1474
-733
285
-1692
-605
2140
-3641
-1108
-2550
-1039
-894
-19
-699
-187
-900
-3235
-256
-3813
-71
-746
234
212
-7307
-4962
-1010
-3634
-879
-2529
-4472
-638
-488
-2118
