-81
62
70
42
-92
2
-33
12
-4
-6
-52
-127
56
-81
6
-5
48
-15
79
-62
-22
-58
19
-127
-71
-69
13
-26
6
-111
-101
-64
-30
45
-124
127
127
-42
-127
-127
-39
2
22
-97
60
8
-8
41
-4
-127
38
-127
43
101
-97
-22
98
27
-35
31
19
-114
51
-59
-32
-46
-71
-18
-84
16
-30
91
-25
-59
60
127
52
127
-127
-23
52
-5
-26
-122
20
127
-112
120
-127
-50
-44
-127
91
39
41
106
19
-12
-127
-8
-15
-5
62
-4
-71
-97
-108
-62
82
84
-113
-45
39
-42
1
-13
-127
-127
1
45
52
-25
14
-58
-49
-85
-29
127
-37
23
-58
101
-64
35
-62
17
-16
-2
-73
-50
65
-8
-88
19
-34
-7
127
-10
-84
-5
46
-127
13
-20
8
4
-121
-127
-30
-13
-87
6
22
-63
47
18
127
53
-32
17
-29
-61
63
-127
6
-80
-21
102
-122
29
-110
119
112
-127
102
109
-49
63
-32
-60
-91
32
-100
-20
-68
-32
-6
127
-34
-14
-25
-1
104
60
44
26
-64
-11
-111
115
72
-112
-3
28
69
2
-81
-94
-119
-49
34
-41
71
48
0
-62
10
27
64
9
41
-6
-39
-38
46
-127
-26
-24
12
38
-42
-28
5
-47
23
51
41
40
-62
-79
-32
-26
-1
-7
-16
21
-40
-59
-40
54
-104
-28
-50
-55
-114
1
-16
-33
-17
12
-106
-101
-127
-97
-59
-90
50
111
-76
111
-27
-93
40
-120
68
-87
-78
-76
26
14
-12
-42
-73
-18
-44
-4
11
-67
67
-10
-127
-49
17
-127
-34
52
-102
23
-24
-45
42
-61
60
-67
-3
-91
-12
74
-32
92
-41
-87
127
-48
48
27
3
-82
-15
-7
-6
-3
-40
-12
-55
47
-4
-1
31
51
-46
21
21
-35
12
24
-13
12
-2
-69
-4
-53
-127
93
-127
-19
126
53
-26
127
-5
20
15
-59
127
-23
-24
6
-2
-39
-111
120
-43
17
30
36
-59
21
-32
-73
127
-1
4
-29
-35
-125
-38
-51
63
76
-9
28
-18
18
-127
-40
127
103
127
-12
87
7
-40
63
-81
80
40
61
21
17
-127
48
-26
-83
-103
5
12
-127
39
-37
71
-56
-36
82
-67
29
29
-58
18
-68
-33
5
30
-18
-127
-21
-89
-108
0
-69
-127
-19
69
127
-68
58
-58
-14
-120
-127
5
-71
56
-10
-20
-127
-60
-65
40
-8
-64
-92
118
-7
-105
43
-31
-3
-44
-37
100
6
100
-127
-54
-36
-127
-39
105
-124
-127
-113
-5
-127
39
-68
-48
-58
38
-127
21
8
-63
102
21
2
-8
-16
-27
-57
-66
-50
91
-127
-82
13
127
-86
-34
127
-2
-26
-33
76
30
-15
-38
64
-47
-56
-11
-76
127
41
-113
127
-41
10
105
3
-82
-35
-23
-77
-65
-44
127
-15
-75
-65
-43
75
27
23
-109
-92
-53
-88
-59
33
-35
-78
104
62
35
-42
86
93
-21
-1
57
-116
-116
-85
-33
-124
-12
-54
67
30
-2
-93
32
-1
13
37
-74
-127
58
22
13
-67
40
45
127
64
-72
-97
51
85
75
-46
-72
87
-41
57
127
127
-9
-53
94
5
-3
-93
127
127
-105
-84
-37
82
-37
-15
-27
-22
-80
-58
79
-56
-127
85
-44
22
-58
-30
-6
-26
53
-2
41
-81
-71
11
-88
-11
-39
-24
19
-95
127
120
-111
102
15
76
-43
-11
-33
41
-79
21
-127
-27
84
-52
-82
-47
36
-60
17
-40
0
-8
-101
-106
-79
-22
-127
-15
49
-26
-43
70
-60
-44
-94
43
58
-82
13
-28
-39
23
-20
46
-65
127
-49
111
-46
53
-54
-103
-48
11
14
-8
22
14
8
33
29
-29
-6
41
-9
63
-58
-96
62
-57
-45
-50
-11
50
-35
65
44
-3
-29
34
84
-25
43
-42
2
127
-124
15
-3
-40
-7
-28
-69
-75
7
82
15
-25
-76
-59
21
-55
57
-8
-72
80
-7
54
-1
-24
-127
-12
28
-37
16
103
-37
-105
-39
71
-62
122
10
-9
-43
8
127
61
-5
-73
-75
-60
-60
1
13
-45
8
114
31
6
21
-127
-6
-11
-127
73
-68
48
52
-87
-106
-92
-84
-49
-93
111
19
15
-6
84
127
-60
-127
0
-83
66
29
20
-127
90
-121
-82
127
-17
36
-81
-41
86
24
-18
8
83
27
127
-115
-36
127
-30
-33
-89
-21
-8
-2
-86
-73
127
-67
127
-22
-24
-35
127
36
-53
-127
-31
-34
127
-75
127
6
-127
30
-13
-28
-55
-23
-37
-26
17
44
-31
-107
36
78
0
-121
17
-5
44
-127
127
127
-28
-44
-5
-13
-36
-127
21
-98
-11
49
-69
-48
-53
125
-13
-36
127
68
-37
15
-56
127
-57
-65
-119
14
-104
-21
127
127
-127
127
-23
-39
-59
119
25
42
16
127
110
-73
120
127
-44
26
70
-37
127
-44
-127
-72
53
127
-22
-24
-38
12
12
62
8
-17
7
120
33
-45
-89
-56
-51
71
-62
73
64
13
60
127
82
33
-55
-77
-127
127
-65
-127
127
-40
-32
-47
-64
-127
56
-90
60
-127
-94
-34
-104
-126
-106
87
-102
5
127
124
-127
-127
-94
-39
-34
-95
-47
-127
29
-23
-96
74
-49
-95
-7
-27
31
-20
-23
-61
-29
-1
-66
-106
127
-103
-113
-38
127
-127
-93
-114
42
-87
-79
97
-49
-106
-47
99
127
-52
79
-32
39
-66
-1
70
-76
-124
10
8
6
-39
1
123
39
120
-9
-102
13
36
-7
-64
29
24
10
38
-82
127
24
79
-44
-61
-32
-27
-127
127
-52
-126
32
-91
-59
-127
-127
-47
-125
-58
37
-17
-127
93
10
-58
-16
-64
-25
25
-127
-23
41
33
-39
-127
73
82
-127
-4
-125
-33
-28
-127
-127
10
-127
31
22
-103
-101
-3
100
-65
-114
127
6
-93
-31
-108
25
-90
-79
-79
-124
2
21
-16
-37
-30
-74
127
-43
98
29
-40
-92
105
-115
-127
71
22
-5
13
-38
-127
-127
-117
107
-59
127
-36
-97
-37
14
-45
-58
127
-105
2
-53
26
-127
-69
-77
-10
-127
-127
-46
56
8
-127
-113
-56
-2
89
-127
-47
-88
-99
-115
-85
-21
79
93
93
-14
42
1
44
-50
83
-78
-102
-67
-4
125
-87
-127
-29
-3
-72
-60
-25
-66
-60
-40
118
-95
-43
47
-74
38
-25
-20
-8
23
51
-8
-12
-127
-127
41
-18
-34
92
-127
77
-127
38
55
-31
-35
-127
-21
94
-36
90
-3
-72
-28
57
-20
86
11
14
51
-69
38
127
63
127
-123
-41
-76
-22
-40
-90
7
2
96
118
17
20
2
45
-74
97
-58
121
-7
23
13
6
25
29
28
-46
65
2
-73
-127
-49
-123
-110
127
-9
17
1
21
126
-29
41
-97
-42
52
77
16
-50
53
-6
-59
-19
-17
-56
-11
4
-33
-15
-19
-127
-54
127
-17
-1
-6
-20
-46
97
-59
57
-127
47
-51
-55
-65
-127
27
-24
83
-120
62
-127
-111
-30
-99
-127
75
79
-104
-119
85
-24
127
127
-127
-127
-70
-127
9
114
-18
-24
36
-83
-38
-59
12
23
0
-109
-114
-52
-2
-46
-18
-127
86
-98
-64
-72
-21
-1
-42
-35
-4
36
-28
-127
-109
-58
-1
-34
-46
71
-22
94
36
99
-127
-46
-38
35
11
0
6
32
16
-98
-25
6
3
-39
-76
-11
-124
127
4
23
98
63
-38
-17
72
15
-126
3
6
-52
-17
-64
-113
-52
-127
-9
-120
1
-74
-3
41
-7
-28
17
109
-91
33
47
-19
23
-37
20
-7
55
31
-110
-40
-127
-45
-104
39
31
77
13
-119
127
56
-13
21
-39
46
-34
70
12
1
-76
-127
-34
122
-38
-52
43
-127
82
63
20
-58
69
-100
83
-83
11
51
9
-6
89
-19
-67
-108
35
11
-47
-127
-34
5
-55
12
-5
-17
-6
27
-5
5
-87
-82
-27
-62
-41
22
15
127
19
-49
21
9
58
78
-50
-74
93
24
46
23
126
12
-62
16
-1
38
-79
71
-90
-31
-2
-15
-48
29
-81
79
-98
-44
-63
-43
-102
92
-15
75
-7
-109
-47
24
-96
-45
52
-111
127
86
-1
26
47
-47
125
-116
34
102
36
-55
44
-126
-27
82
21
-107
-15
-127
-29
-55
127
80
127
10
-103
27
-84
-87
4
67
55
8
-127
-44
44
-49
102
-41
-87
-39
12
-50
-75
-127
122
-81
74
127
-80
-33
-17
34
32
-123
-58
-127
25
-6
-127
-64
-63
-72
-31
-127
-77
-127
97
-127
42
14
-15
-84
14
53
1
50
80
-66
-12
-22
-25
67
37
-106
-19
4
85
27
29
-6
90
42
127
83
28
-91
-96
10
-90
-45
12
-65
-4
-38
-17
-75
7
31
-127
-21
-64
-17
-71
-90
0
5
41
38
-51
127
111
-21
58
48
68
-71
-58
21
2
-26
-53
-14
-127
-81
127
-46
-44
-127
-103
-68
-82
-53
-127
-15
-25
24
-46
-62
7
43
-36
87
1
40
-71
-3
-127
4
127
31
-58
-19
-90
-127
-62
41
-31
-90
-57
29
-26
-36
-23
43
-54
12
24
22
6
-127
-71
-26
-5
52
-13
54
-8
