107
-6
25
73
-27
-78
127
5
37
-47
-76
-36
-98
51
-119
15
-94
-127
31
-127
-86
-4
11
9
81
38
22
25
45
-33
41
-15
-15
22
-8
4
48
-16
81
-18
-80
-18
11
52
-15
-70
13
-42
53
-52
-1
10
47
108
60
37
41
44
-89
54
-86
-16
111
-90
102
-72
-46
3
-114
1
-13
-127
-38
3
89
-45
57
69
63
3
5
28
79
-63
31
6
-37
16
-11
-90
21
13
100
-4
30
102
-68
-34
28
23
39
-53
-6
-60
-68
-33
60
-46
85
-42
-21
-15
29
-45
14
-10
-18
-50
28
47
44
-60
17
43
77
-18
-55
50
12
77
38
15
83
-56
36
50
61
-44
58
-127
-52
10
109
30
127
71
55
67
-49
-15
58
86
4
-64
-74
-27
-57
85
-39
26
-6
-80
23
61
5
42
-3
-77
45
74
58
-41
-8
-33
-81
6
-2
-75
-17
69
-30
-41
-12
-70
112
-56
50
-76
-25
-32
98
23
18
4
-12
-83
75
-38
52
-29
127
38
-61
29
-10
17
-87
-113
-2
1
12
89
67
55
94
-73
6
-31
-18
5
46
-103
113
49
-14
-50
-86
10
18
-48
50
-9
-80
1
38
103
-23
-60
35
12
-64
85
-4
-23
80
12
28
48
37
6
-27
7
70
-53
105
62
-60
82
127
15
60
48
18
-20
-23
3
-1
67
2
-62
1
-19
-17
-123
37
57
-32
-62
-8
97
-75
-103
-33
42
21
7
63
67
-39
-36
0
-18
-25
-28
76
10
-18
-61
-37
-43
60
38
7
-10
-23
49
18
19
34
48
16
46
-49
14
-124
53
12
0
-32
-31
15
127
-67
68
-41
-33
113
-38
-92
57
-15
48
-93
-1
58
11
-1
-126
10
-80
-126
32
39
-52
37
-47
-66
91
72
49
-89
-21
3
-74
79
-51
1
-17
60
-47
23
-28
-47
31
-55
-75
54
61
11
-127
36
22
3
1
-63
-24
62
40
-51
92
-103
-65
-12
-85
-41
26
-71
-29
-67
-74
108
14
0
-116
-2
47
-56
-107
72
35
108
47
1
-36
52
1
15
-63
102
-5
-54
34
2
-22
-6
41
22
-1
127
-65
49
73
53
-17
-48
-96
3
-6
-3
-75
-2
40
-102
61
31
37
39
49
37
4
70
-69
25
102
-16
52
-18
12
22
-47
23
-37
-74
11
56
-11
-11
-15
-7
29
-13
-3
25
-18
-67
46
1
-127
-12
-25
-17
59
-12
-9
36
-21
39
-24
18
-17
-17
9
-22
-19
27
78
49
44
-35
-41
127
68
28
42
-12
25
-10
86
45
64
70
16
-18
45
-9
0
-69
25
85
29
-8
-24
14
76
22
41
52
16
31
-46
-13
73
52
-22
-32
59
-1
37
-24
87
-118
-51
75
-75
-26
56
-13
-6
53
20
22
-46
47
-88
-36
90
112
-127
52
4
64
-45
-22
-51
-58
-123
-3
-39
-56
25
-63
-11
105
-61
56
8
-64
-14
-20
15
2
-31
-63
10
83
-40
-127
-56
-76
12
41
86
-21
4
-109
-33
-45
42
-8
-53
53
13
-1
95
-5
24
-28
55
-30
18
-24
-9
-51
24
26
-46
8
-85
44
-29
47
-75
32
18
-31
33
-18
37
-40
18
20
-64
-44
-7
41
-82
120
38
51
33
60
-13
19
-44
-4
77
-3
127
34
17
-28
35
-76
-52
-76
47
-6
-44
16
44
-40
48
33
-1
42
-12
0
-26
-30
-103
47
-43
50
-38
-76
103
-22
-42
10
-9
7
-56
-15
-22
2
-14
-23
-34
-8
22
-43
-18
29
11
-13
-2
-40
-26
36
-127
39
-8
83
-9
-21
67
81
-20
16
-4
50
-11
-7
40
-48
-20
46
65
-6
-10
-22
-50
-29
-39
-62
-22
23
-51
30
-12
-67
-101
-45
-127
69
89
40
3
-60
35
-15
51
12
63
-60
106
-34
-29
-41
54
79
34
11
56
10
38
32
-16
11
-9
78
-37
-83
-112
34
6
47
61
17
26
-80
113
-63
-20
-19
34
-26
-55
9
-71
44
-21
25
-2
48
31
3
-4
60
23
-3
-4
12
-1
-16
19
-26
-127
17
50
40
-18
31
23
0
-119
34
-1
-56
-22
-54
61
-33
-13
12
-15
-21
-13
-122
-85
4
78
-19
49
13
-64
-56
1
-47
17
37
-17
-12
34
-76
40
-87
-3
38
-2
4
127
-56
13
66
68
-6
56
-113
43
-73
31
-5
56
59
22
17
27
-55
19
-34
-36
-61
35
13
-16
5
-62
8
34
-4
23
-45
-61
-58
118
-12
-67
44
-26
-30
-40
-109
-47
-55
36
-8
-61
-42
67
41
108
-14
-121
99
-108
74
-12
116
-65
-33
-46
-24
-16
-46
-79
-79
105
-15
29
65
-100
77
-12
48
107
68
-9
-91
-127
-106
19
15
-64
16
-26
-12
-20
15
-55
-14
-20
19
29
7
-29
-127
4
-44
-17
-33
-29
-31
-30
22
31
-5
25
6
-29
42
-24
40
-67
38
23
15
-21
-23
-12
17
-42
-11
-15
-45
44
-13
47
-60
-28
-13
84
-86
111
31
-70
-48
77
84
81
21
70
76
-88
-33
-59
17
18
67
-103
124
17
11
-33
-26
-107
-96
-44
6
-40
25
-24
63
39
84
17
-1
-73
60
26
-47
-61
-10
78
-55
84
-127
-46
43
-22
9
11
50
47
-40
-24
55
49
-18
-127
-56
-32
4
-43
45
-78
32
40
5
9
39
-24
23
-27
-37
0
1
33
-9
42
-10
44
-14
35
66
-32
17
28
1
36
68
-3
15
-43
40
57
-63
-115
54
52
-40
50
-40
-127
-103
-121
14
-44
58
27
32
-57
-25
11
36
29
15
-26
-42
-35
-41
-7
22
-48
3
4
48
-74
-14
-38
10
-15
-24
14
-14
24
52
7
-6
-51
-65
-16
2
19
-8
25
43
10
14
26
5
-22
96
-66
-13
35
-16
127
35
-22
9
-38
7
-30
31
40
-34
-60
-89
20
-101
52
38
54
31
-14
92
13
-19
27
-27
82
45
0
-69
-71
12
50
16
-9
20
7
-112
-122
-101
11
12
-26
-52
-115
-4
15
-51
-28
-101
25
29
12
-27
-97
12
-11
-118
63
44
81
28
37
52
-85
-52
108
47
59
84
-14
10
-121
41
-35
-85
-2
-15
20
-11
127
51
67
77
-50
-73
70
20
-67
-24
-11
77
-82
-34
-8
25
-24
19
-57
-59
30
12
53
15
43
12
127
-59
-62
107
31
45
-7
11
-44
45
-37
35
-53
72
-32
-10
76
62
-11
-8
6
-64
-5
51
-104
14
10
-29
122
-3
59
72
-94
-13
-48
-6
-127
66
24
-63
44
25
50
-48
21
-62
60
67
53
-116
23
5
-96
-43
-32
45
-118
42
-72
-60
1
36
-8
103
-59
24
19
23
-40
-4
-39
-12
-40
-36
-14
-79
-34
-45
47
48
73
-23
4
73
-2
-4
-34
25
-64
113
63
80
-11
43
69
-71
23
-46
22
9
-16
115
127
-67
-3
-65
-14
105
37
62
51
-26
-71
-102
62
90
100
16
46
4
114
72
-73
-9
-61
-18
-25
39
-9
7
-127
26
69
44
31
66
11
14
36
-13
36
32
-8
63
-17
6
-11
15
-11
-32
61
15
-19
-2
59
-76
-41
57
-22
6
6
-11
48
-37
10
-89
60
-8
2
-72
-67
28
-48
-62
-43
-45
60
-47
-15
-18
86
-69
-127
-40
-69
84
-101
-19
-12
12
-87
13
17
39
-82
33
-37
-35
35
-79
64
71
-20
49
3
7
-16
101
-58
-15
65
53
47
33
-43
13
-62
33
115
-88
63
-50
-127
50
-79
-15
92
-14
-97
-88
40
61
70
-63
-42
-91
57
-19
82
112
-64
38
54
-5
-11
-74
56
-28
-22
66
-39
-73
21
5
78
48
-29
48
-1
1
89
14
-42
-85
-31
-23
-84
-49
77
-45
32
58
-116
44
-66
-14
-127
-98
-56
109
1
-63
18
-78
-12
0
-51
4
44
-55
89
80
-42
-41
51
36
-67
30
51
47
81
17
-17
8
14
39
-9
-60
8
24
85
-64
59
68
-18
-27
-72
-90
-103
-45
114
7
34
-43
3
-34
-50
79
12
58
5
-50
127
51
90
-24
-40
-19
-42
-22
-79
21
-33
0
-31
24
-43
-52
50
69
33
11
-19
-8
78
74
36
38
123
-4
45
-18
34
68
-93
47
61
102
12
116
-36
-60
-36
-22
-75
45
27
-127
53
-4
20
59
-41
36
-74
-68
98
122
82
-17
109
103
52
-78
105
33
69
114
14
-57
-36
96
-63
-63
-50
-18
-34
15
-14
39
-46
-26
22
18
-10
43
20
-30
24
70
61
25
27
-17
80
35
74
55
-21
-2
-56
28
-95
-94
66
-11
6
6
16
-37
127
16
42
17
-43
-72
-47
20
17
-56
-67
76
57
-58
22
46
21
34
6
-76
36
38
127
58
66
-49
19
-34
-70
-108
22
-61
-48
62
84
115
-12
-57
37
70
91
81
-82
84
-109
51
22
-53
47
11
39
-89
-2
25
52
34
-59
-74
-47
-14
-55
82
-69
-1
-74
50
13
-21
-74
27
-11
103
91
-1
47
-18
-43
-57
-16
-70
-44
67
-40
1
105
-60
-14
-49
36
104
1
-7
-22
-6
-20
61
68
30
18
47
22
-1
-73
49
-127
59
-27
17
0
3
59
-2
-23
-45
13
21
-48
-15
-31
-119
-56
84
70
32
-9
-58
-70
9
-78
-16
5
86
46
7
-70
96
-63
-67
59
70
-91
79
66
-94
-41
44
47
-21
-26
78
105
-48
38
-20
-36
-127
-82
26
-84
-6
-14
97
5
83
-89
43
127
-79
19
-25
-43
31
-12
17
-1
-62
34
-113
-21
-3
-103
5
-77
-87
-42
-18
67
-81
98
24
31
77
-32
-76
-52
-77
-36
-6
116
17
9
-33
-95
-24
-73
35
56
-34
49
-24
-18
-7
-16
103
15
45
-36
-57
-62
33
21
-17
9
127
59
-28
43
6
18
-10
54
-32
-32
0
10
-26
17
44
5
-15
-22
-19
57
-49
8
-49
-27
-31
16
-48
1
33
-35
-25
71
-30
-23
-57
-24
4
-79
99
120
62
-25
-26
54
13
38
-81
26
30
-8
35
-48
-24
-7
-127
-109
-16
84
-72
-7
120
66
-10
-81
31
-59
17
-85
-57
70
-111
-57
44
-42
59
-72
62
-62
5
-19
43
-41
103
-18
-34
64
-25
-41
20
27
53
-9
-18
13
-25
42
-70
45
19
76
119
-52
36
-57
-39
112
-124
10
25
42
25
127
10
-59
-52
-35
-15
75
57
-38
70
29
44
18
5
1
22
-62
24
-41
-25
-11
-28
9
-59
70
-108
-43
21
-20
-76
33
93
48
23
36
-23
-51
-95
-60
85
40
28
-127
-92
50
-62
29
-9
26
-28
59
-95
15
18
-56
26
19
24
-74
1
-4
82
114
5
-3
-9
84
-19
42
-9
88
-127
7
-13
-41
55
89
-9
-93
-26
-22
-75
13
-33
-16
-64
-47
-35
-41
-21
66
3
-45
-25
-66
42
-43
37
-3
-43
-52
-27
-27
43
-70
41
-27
40
-84
-16
-71
-8
-44
-20
-90
8
1
48
51
10
-6
-61
21
45
32
-35
72
-36
-98
-55
-49
-26
17
34
41
87
-127
7
-42
10
-48
4
-99
-63
33
54
-40
-53
47
38
59
49
57
-41
-71
85
-8
-86
62
110
-88
-84
-98
-28
57
-5
-14
-54
-53
40
77
-9
-20
-119
-53
-7
-8
-28
2
50
-9
-32
46
78
42
-20
-17
21
-14
-50
57
-37
-71
-11
21
-14
-58
127
-3
-35
81
25
-56
-6
-31
41
92
27
102
61
-58
17
-10
-127
74
-125
25
11
-54
-14
23
-28
-99
69
80
31
81
5
98
15
-111
109
-43
-79
-14
-68
60
-72
59
-82
-24
10
98
-13
-12
-59
-90
53
-124
44
53
-21
70
-4
-25
-13
-13
12
-34
-12
-3
79
23
86
-52
-114
-2
53
22
-89
-56
105
6
59
22
8
73
94
52
74
-68
7
7
-125
-21
-30
53
29
8
-42
-48
-3
-49
-25
73
24
80
-27
-65
27
24
25
-39
-7
-127
-40
89
-26
118
-73
59
-50
-19
-2
-16
-74
-29
64
39
-21
-57
-59
-43
72
-62
-52
-3
-18
42
59
-31
-23
50
-53
-42
-38
-10
-1
-57
83
9
-111
-23
15
40
127
-40
-55
10
-34
3
-67
30
5
-15
10
-55
0
-52
14
-12
-45
103
-110
52
127
113
-104
9
-118
48
8
-72
7
83
-6
-64
16
92
65
-106
-124
74
33
-76
-21
53
83
20
85
42
6
-5
-43
81
-88
-34
14
-43
75
2
75
87
-46
-31
38
-39
-25
-14
47
-23
-4
-46
-38
41
7
-100
-80
-6
-19
68
23
-40
-14
10
17
74
22
-36
57
-17
90
-59
-51
127
-1
-12
-28
56
49
107
10
0
41
-18
-22
81
72
-55
8
47
86
0
-75
-77
69
-23
-30
-58
81
-89
-99
7
28
-29
105
-70
27
53
-16
64
13
30
53
-44
-36
58
127
50
-23
-27
-6
-26
51
-30
6
15
61
111
-55
-56
-27
-5
39
-14
-31
31
4
55
-42
80
-72
5
-88
19
30
-78
-43
-12
-78
65
-116
79
74
-61
-95
75
-80
72
-23
-37
17
15
-127
111
68
7
-14
1
-84
-6
-35
-106
-108
-27
-16
-55
3
-40
-26
23
23
-62
-29
6
-84
49
-111
43
31
-1
12
-14
-82
27
-23
22
-1
-50
54
-43
-81
-29
33
-52
-32
-5
6
21
25
-38
-34
-23
-14
42
-15
-59
-61
-45
66
-17
-38
-32
31
55
52
-31
-98
-38
81
127
-37
-13
5
-33
-29
-30
-101
-10
-43
26
18
55
-33
-38
15
-32
-51
118
-49
70
32
24
-21
18
-39
-12
-62
28
56
0
-36
26
-49
30
40
59
31
-65
-61
-28
-32
-127
-5
75
45
4
-102
43
-20
-60
36
-44
-46
22
-21
41
-4
-36
13
-38
-16
-12
127
-39
-1
-22
-61
-72
13
-41
33
-85
-26
44
34
73
24
-104
-13
-94
-63
-60
37
-78
48
58
4
-47
-9
28
38
-101
63
47
94
-40
70
2
-105
-13
42
16
-104
23
-22
-67
100
-38
-36
-49
-44
47
50
11
17
-93
74
120
-48
-28
24
10
-26
-53
-20
15
-20
-52
118
-17
-30
45
-57
-18
68
51
-3
32
28
-74
-33
53
101
-35
61
22
127
103
-28
-57
-19
-77
-127
89
74
-101
-32
64
-62
28
-31
70
4
-111
-58
79
-28
-63
56
14
23
-127
-64
47
94
-99
99
17
23
30
-64
-11
-44
-11
2
16
30
-35
45
-99
-51
56
46
-50
12
-15
62
-100
-43
9
-46
-35
27
20
-7
-44
-49
-10
13
-9
-16
38
-81
-31
94
-54
127
-4
30
-23
21
44
-68
-4
-13
-32
1
64
67
105
-127
-53
30
-55
58
26
-56
23
64
75
-76
8
-86
17
20
-3
-17
24
110
19
-25
6
24
-27
-51
26
21
-22
8
26
4
109
127
-27
-28
-55
58
29
-28
-23
45
4
-14
30
81
34
-70
-10
-1
-41
48
0
4
-23
-63
9
19
31
41
-76
78
61
-40
22
36
-52
-104
122
-65
-64
103
-43
40
-5
50
-7
-91
-32
85
-42
19
39
-14
-72
-52
-16
60
23
46
103
-19
-8
4
-127
49
11
-32
81
32
92
47
-39
-6
-84
-34
-41
-22
-2
55
-66
30
-4
49
-12
54
-32
113
22
-103
-12
71
88
-12
-59
-34
-50
48
78
-31
58
-77
10
-4
-68
73
-11
16
75
-63
-71
123
95
81
-2
-76
-90
1
11
71
-23
-16
44
-77
-19
52
24
51
-3
20
127
-60
-16
-36
-77
83
-12
81
53
-29
-68
-76
16
-8
-62
-22
-20
35
2
29
-8
-36
-58
29
39
80
72
4
108
127
57
57
-80
-20
12
89
-94
4
89
-8
-72
-26
-60
-37
-8
106
-12
-67
-18
-1
-24
-77
-26
-110
-94
68
109
-55
-12
81
19
-18
15
-80
-127
-50
40
41
1
-61
-86
67
-36
-17
-58
-9
-58
-64
-6
-50
36
-14
26
46
-44
43
-26
37
-6
-70
-29
29
7
-42
-58
-4
-51
8
29
-58
26
-107
-32
7
102
-127
-75
-40
-56
-47
75
20
-33
22
104
-64
-5
-32
51
100
-70
43
-49
46
-39
-65
36
-93
-42
-21
-71
0
-67
12
-67
-66
49
53
-43
89
19
-41
-125
-11
-22
-9
63
-55
-3
28
-43
101
-79
26
-127
41
111
5
-71
-26
-96
-82
56
74
83
38
26
-36
-69
-46
30
43
76
90
-24
103
28
2
-101
48
-66
41
5
91
-47
-26
28
-6
44
21
-47
44
49
-127
0
-17
107
69
-5
-12
-85
-56
20
-12
41
-48
-47
-18
-98
-28
14
-84
-40
1
-42
-71
105
-115
5
-6
-119
-60
51
-54
-16
31
8
46
-113
75
-66
-113
-54
-13
50
-68
-33
74
-53
-5
-108
72
-24
89
-59
22
82
63
-2
115
56
76
29
74
-55
-16
13
63
-10
16
-21
-39
4
122
-5
67
9
1
6
57
-29
127
27
-85
1
-50
-11
76
-89
32
-59
79
-85
43
-14
-71
65
29
-6
6
15
-81
-7
-71
-22
-5
-95
29
24
65
65
-119
-57
49
-13
-23
-3
110
73
-18
74
-34
-17
-25
35
13
123
-68
55
-77
114
-110
44
49
-64
113
-18
-16
-6
32
-11
-76
65
-37
-62
-127
-38
8
30
-49
9
73
2
-56
42
127
51
-22
-41
-69
-32
-15
-63
18
-13
-44
-35
2
1
121
21
-1
-21
-11
3
-30
4
83
44
-20
-39
-13
-78
97
-24
21
56
-49
-13
7
16
-3
-16
44
49
24
-88
122
-49
33
-26
86
-44
-98
56
88
13
46
-73
17
47
-8
2
-16
-32
112
12
69
-9
20
59
40
26
16
8
-34
65
-127
3
-25
-49
32
-34
-44
-3
-38
-76
-68
-50
-37
-46
-3
-12
34
-9
17
105
72
-12
-46
9
29
-1
-27
-127
7
34
-9
27
-85
-31
-51
-64
-10
-56
-15
26
-29
10
-90
-6
59
32
1
-76
35
49
-78
60
2
-80
51
92
40
46
17
54
11
88
-2
17
56
-53
-116
-31
-31
81
-60
86
-2
83
10
64
-71
-23
-2
54
34
-23
-62
-46
-18
32
88
-5
18
-21
13
-127
-13
12
-52
-50
-14
31
-42
31
78
-17
18
29
-82
-23
-14
24
58
36
-42
33
-104
-29
-49
-15
32
127
-93
-64
-57
-3
-9
38
-44
-12
70
-78
-20
67
-3
-11
-9
-67
8
-22
-66
28
34
-53
-27
48
11
-8
-25
-7
-16
-45
-5
11
-18
68
7
11
-10
49
28
21
-3
49
36
-112
-6
63
-127
-36
4
43
-74
6
-63
-12
-7
43
-76
82
59
-38
-97
-12
-85
-56
77
-101
67
-48
25
-18
-25
-52
-28
45
60
-64
-67
38
-74
-31
9
34
-8
-1
63
-45
-61
2
9
118
-11
30
0
-42
-72
-69
-15
42
-80
-14
12
12
-6
-11
-93
18
-14
-47
-51
-127
5
43
120
-17
103
-65
-16
-126
-13
-32
-69
-25
-28
-49
-11
60
57
-28
-43
-1
-68
-63
35
-6
25
4
33
25
-94
-19
-51
0
40
88
-27
-87
-26
20
-73
-73
-49
-127
102
-25
-2
16
93
-72
76
-39
-28
93
-54
15
8
-70
-90
-23
54
66
35
89
33
29
119
-71
-85
16
110
66
-49
-18
-96
-89
64
-89
-36
-56
-24
-74
82
51
-19
-103
17
-92
-26
-127
-74
87
85
12
15
-33
-36
33
-3
-52
-23
48
-50
-9
-67
20
57
1
-53
70
35
-2
-74
36
82
-36
2
35
-70
48
-15
28
-76
12
105
-14
62
-68
79
127
-91
-26
24
7
41
-31
94
27
-45
70
16
-73
0
-24
53
-6
-37
34
-33
-6
-24
25
-71
-72
57
-82
25
56
63
93
88
-11
81
-22
-27
-5
-68
71
34
-73
-27
12
45
-79
-5
44
14
29
-5
102
-21
27
-8
-22
-20
-57
38
10
105
9
-42
25
-27
91
-55
-31
1
83
-127
56
49
-92
-87
58
101
12
102
18
-12
-63
-48
-37
-72
127
24
1
-99
11
21
53
11
17
-36
66
-26
-29
82
37
73
15
106
-67
13
0
-77
57
-12
40
5
-16
34
45
127
-59
38
23
-24
-35
-55
31
-7
-25
71
-3
11
-34
66
-50
-37
-30
65
21
-33
-35
-96
5
-28
-37
48
-100
-98
32
-69
-53
-51
7
-13
-50
2
-4
-15
83
17
-10
50
1
61
70
54
34
66
25
18
19
32
-127
-32
69
-14
23
-61
30
-46
-19
3
-44
17
6
-7
-4
-48
18
-45
-31
-43
-27
-31
24
27
110
-42
-34
4
-96
45
98
45
-77
8
79
13
-43
5
28
-8
2
41
-56
16
-8
-2
-5
-67
97
-127
-42
66
34
18
-30
59
-37
77
13
9
14
9
-15
-66
-99
69
123
49
-24
-25
-20
-41
-21
-89
-37
-95
12
74
13
-43
-8
28
37
-66
-41
35
-36
19
79
-30
84
-50
-47
-112
50
-6
15
-28
-64
-49
44
58
7
13
-44
80
-10
8
74
-34
-28
78
-50
-4
12
-46
127
-17
-9
-4
-127
-96
-48
91
-1
-24
-108
38
-20
-31
36
77
87
66
15
19
79
-18
29
-97
-44
-35
42
-24
-61
-44
-36
91
-54
-19
-18
4
-32
-49
-40
105
66
-25
107
8
24
-39
30
-4
23
79
-30
72
-30
-94
47
-68
78
2
-127
-65
-15
-1
48
-62
24
-38
95
24
1
-29
-71
34
-109
24
43
13
-61
-30
20
51
11
7
-17
19
53
-120
35
-79
-56
101
-5
-114
18
18
31
-12
25
-61
-13
-36
-82
8
9
-15
-60
37
-43
-10
-100
62
-31
20
-83
-27
-27
47
0
12
1
24
27
63
65
127
-31
13
-63
23
29
-16
13
-83
76
85
18
-35
-90
32
32
26
46
50
6
13
-34
-6
46
-9
104
-33
34
-45
-65
120
92
-80
36
-6
60
25
61
-22
-87
-117
40
-63
42
-60
61
127
-118
8
-73
-90
-14
57
-54
1
-87
68
-33
5
-68
-12
28
54
-45
44
54
65
46
-12
-2
46
42
-1
-30
-127
-42
5
-2
26
15
-109
8
-69
22
-15
-7
-51
47
-52
47
48
-24
58
68
-2
62
-16
-43
-15
-67
15
-26
-27
-69
-59
-59
-26
-40
58
-13
-54
25
-44
-9
18
-4
31
14
59
15
-6
28
-60
64
-15
24
25
-20
-59
7
-10
1
-67
3
38
90
42
10
-22
127
30
44
0
60
44
-5
-5
56
-68
16
45
-120
-27
-17
87
26
4
37
-60
46
53
-5
13
-27
-31
94
25
5
27
-1
31
35
-7
37
31
7
44
55
112
28
-27
-126
-63
-127
-66
101
-57
-101
33
-62
97
19
-51
-64
-65
-60
28
-108
99
12
22
-23
53
28
57
4
-39
-11
33
51
-1
21
-2
48
-3
-14
-17
-56
-46
26
-43
-16
-23
27
-51
-40
44
-70
-16
-1
-27
-30
-6
-51
-13
-46
-31
-103
28
-50
-57
-34
-45
31
-23
-36
63
-30
-11
-127
-38
7
-49
-66
-69
67
67
-47
-26
50
7
-27
13
2
54
-28
-34
60
-69
36
33
-15
-9
15
-68
16
-127
23
45
-18
88
56
53
-12
-3
-76
67
-39
32
16
-7
49
-3
-68
28
27
-100
38
-30
-77
67
106
-19
-4
-122
19
24
-19
74
-10
87
26
-116
23
-16
-52
-127
-126
-122
18
-50
-125
32
0
-108
-78
60
14
-9
-4
115
22
-67
-73
-67
-70
-28
-94
-76
11
12
43
28
-50
53
-24
99
28
-35
-27
-68
111
45
-20
7
54
-87
-4
-33
-21
-127
88
5
49
-58
42
44
62
-10
-74
-105
8
-11
7
-120
-44
-54
65
-71
-33
-43
69
-45
68
-34
-8
-31
35
2
64
-77
-96
-3
16
93
-114
32
9
3
9
-6
-29
-7
84
-3
-9
-22
-24
6
-11
-37
124
-26
42
-24
79
-4
75
5
-20
-127
-25
-36
-1
13
31
-27
-10
1
20
-9
28
-55
11
25
-62
-45
11
-40
14
-8
-5
1
-5
-12
-35
-26
-17
-35
-28
55
-26
21
36
2
-17
71
95
86
78
4
-61
44
95
-37
-117
65
47
-56
65
9
-34
-22
35
-40
61
9
-84
-8
18
-93
-43
12
-19
56
-73
-99
-127
-109
-19
-1
-22
-29
2
-57
-11
-93
-27
27
-46
-86
-49
-25
-35
26
-92
-26
-15
-4
-32
12
80
-17
38
51
51
92
-38
-21
25
11
-12
56
-55
19
44
23
94
17
0
61
-4
-22
27
-41
-29
22
68
-29
-49
-127
-55
30
16
17
-48
-17
28
54
5
10
-43
-46
95
-11
11
44
-12
81
106
-13
-48
76
105
18
7
8
-10
54
23
127
17
-1
18
2
41
-10
-96
-61
-74
60
23
37
-63
-36
65
94
-14
11
86
4
-1
3
64
-37
5
32
13
-5
28
82
-127
-47
-10
-102
-13
6
-48
-10
10
43
45
-21
-100
-42
-62
78
0
49
17
-73
-111
-124
-55
60
5
50
45
44
-35
84
42
56
8
68
60
-58
24
-23
66
24
39
-37
-60
20
44
-27
83
-81
-16
-57
-35
41
5
-3
35
-1
-50
-4
13
-9
38
24
26
14
7
-4
78
69
-96
-53
18
-63
-24
67
110
1
25
-94
127
-92
26
-51
18
64
-40
-2
6
-55
69
4
33
-2
-30
21
5
-50
4
86
73
30
31
62
-44
-44
-74
-39
62
-37
39
-13
-54
-48
-2
86
-51
-79
20
-4
-69
2
127
3
4
81
125
44
-39
-27
18
-54
-90
38
-16
51
39
-27
-39
4
31
101
5
-48
-24
26
39
-16
80
-32
-51
4
46
-55
-29
-37
46
-66
-1
42
12
97
18
4
-25
-56
117
127
-7
83
33
3
4
-50
47
30
31
45
67
-8
7
-73
-10
-17
15
-27
-2
37
-18
-54
-9
39
42
-44
16
-35
13
-11
-44
-50
-47
-36
-10
-4
-19
-37
5
-52
-58
-16
-79
66
-31
-127
-36
26
-18
-58
-50
7
17
6
27
-17
-39
11
8
9
-49
-8
37
-41
100
54
102
19
24
9
-37
9
47
10
-29
-33
-74
41
-35
71
45
2
83
-7
-101
12
17
16
65
-17
17
-14
-127
62
41
-48
62
-37
-44
-2
-40
29
13
12
-86
55
-3
0
23
-6
81
31
33
-78
-4
28
90
-21
64
45
37
-22
35
35
22
49
-28
19
29
-68
-37
-35
-28
-24
-113
-26
-3
-49
27
23
18
35
-44
-22
-30
9
-47
-22
127
-22
-48
11
-69
82
32
67
39
-27
-86
37
-9
-57
5
-37
-29
-14
-6
-8
-18
34
3
-42
127
-78
32
32
-44
105
4
-10
66
-38
-59
-65
-98
-23
38
-74
30
-9
-79
34
25
16
36
-73
-71
41
-28
11
28
-46
17
85
80
23
-64
7
-91
-10
39
19
-1
-65
3
59
-15
-81
-72
70
-34
-45
-56
46
-1
-100
-82
-43
111
127
122
-54
79
-8
-5
-48
-97
-9
-24
-12
61
58
11
17
-17
23
-72
-72
46
-94
-18
23
-58
-25
-27
-37
-113
-40
-4
-89
78
-59
8
-29
18
3
19
-25
45
66
-4
68
-55
-30
-127
56
-9
9
5
8
-52
33
35
-60
-6
-17
-47
-114
-15
9
79
-21
-46
27
-105
74
-48
13
38
14
7
115
28
-6
1
-37
-84
-32
-102
-45
93
76
17
-21
45
56
-26
49
-31
84
80
-22
-38
11
54
-79
-73
-6
17
-14
46
51
-99
-55
23
24
-44
101
-44
-9
27
4
22
-30
-26
27
22
127
17
-24
47
53
-102
-77
-65
28
-6
-1
19
-40
-10
-127
-9
67
8
36
-38
53
-17
8
2
121
4
-41
22
17
5
53
43
-29
-78
-26
-56
-12
-21
41
23
-70
7
84
-102
-22
10
-49
-76
109
-65
51
-47
-59
14
-16
-91
16
-73
-14
48
53
36
55
-41
66
86
81
-1
-8
67
127
44
1
10
3
-32
-121
65
-13
-35
11
-5
88
105
17
-43
59
-65
50
-44
11
-47
-80
81
85
54
-24
39
-49
-17
54
-56
9
-45
70
103
-21
-4
-69
-44
-14
-26
26
41
19
125
-18
51
71
45
-38
-52
-67
64
79
-43
-34
92
-36
-4
-112
77
120
-16
-47
78
-34
-30
-46
12
56
50
18
40
-14
-88
50
-127
-37
-16
9
66
74
20
2
47
-6
-53
-73
-63
-40
100
-72
-5
-76
-4
31
26
-43
0
-95
42
-60
-118
34
-43
-25
10
-62
9
-32
2
-2
-3
89
-97
65
-39
42
79
-37
-73
42
24
-20
-39
-127
-19
-39
31
1
105
15
85
-119
8
11
68
1
77
0
91
-27
-56
4
53
-81
12
-12
-39
73
-109
79
43
32
-127
63
-39
-8
-39
-64
-43
-91
-36
-46
-83
97
69
25
-72
73
-31
89
36
-72
64
-3
-16
29
-48
39
-25
50
87
-30
-19
36
16
-19
-3
-15
-52
65
4
-38
-52
56
6
40
-127
-6
50
12
61
-18
-11
0
-46
9
-5
54
33
-16
-27
-13
46
-39
-12
27
47
-26
-23
-124
24
-53
-13
-1
25
-4
-31
6
95
-127
79
32
-45
-54
8
-64
-8
14
-39
5
20
-79
19
20
-5
-115
34
46
26
18
51
29
45
42
-26
-22
36
29
-10
-9
-40
-69
-95
76
-125
63
29
26
-56
-70
55
-94
1
0
-56
-25
0
-8
88
-29
-97
72
38
-48
84
68
-35
51
-87
10
127
82
37
37
9
-27
-3
9
30
-29
14
-78
-37
-77
55
-10
-31
-42
8
-31
48
-66
-23
109
-7
-6
-15
-31
124
110
-24
-88
-58
-4
-48
-27
-36
-78
35
-45
-2
-21
-66
-45
-52
-21
-11
-80
-7
22
-68
-7
42
36
-15
17
29
-11
6
-15
0
20
-65
81
30
-38
-21
-16
-82
127
-28
35
71
-47
-32
48
-48
0
-8
48
-44
34
9
-34
16
-54
-9
-80
-15
84
13
-57
-48
11
61
40
-37
-100
-34
-50
21
43
-52
-16
-12
-24
127
15
-40
29
7
2
-27
-58
-61
-28
17
87
7
31
-47
-8
-46
-48
-5
-78
-38
31
-2
10
-25
-127
-51
-20
-25
-23
-5
-58
-70
-72
-55
-72
2
9
27
20
-7
-74
52
-7
-32
-7
-63
-23
-73
-84
34
-14
14
52
20
-20
-40
-10
-71
8
-13
-26
-4
-93
43
47
-2
20
84
-23
-30
-73
44
-111
-15
87
-82
-39
-7
-113
50
-47
12
14
38
40
-123
-22
21
-89
11
-96
16
-57
103
91
69
127
0
59
-17
33
-50
48
23
7
24
59
-10
-30
79
-114
58
-59
-41
-30
3
-54
-51
57
-83
-103
15
8
-33
1
12
-65
-48
-41
-74
-52
23
-73
62
28
45
5
9
-6
32
-63
-63
-19
87
-124
51
-61
77
-87
125
-75
6
-43
44
-30
-59
70
111
-45
19
-6
59
1
127
6
-47
2
-83
-54
-33
30
19
-15
-24
-26
-66
0
-89
122
-10
30
25
27
-11
-60
-79
91
114
-8
-57
-45
38
-85
21
-61
-33
28
-10
-20
-26
1
-21
-11
127
-13
23
12
80
83
102
-12
-79
-57
-8
63
-3
-29
49
-15
19
-54
-118
0
70
8
-14
48
39
-61
127
-86
-18
-40
-88
10
-39
4
34
31
-82
67
44
100
-45
-43
51
-121
44
-17
-72
-40
84
-7
55
19
-102
68
-68
57
58
-79
-51
-21
61
-73
-16
60
77
-15
-13
53
55
-46
-50
43
-28
-7
58
11
6
3
46
5
-2
-19
7
-19
-3
28
-37
49
-54
-78
-14
8
30
5
70
21
-25
-37
-127
-1
-19
77
-6
-6
-4
23
13
55
4
-89
-41
-38
-19
-103
-99
22
46
-15
-115
69
94
-77
80
-28
-110
-39
36
125
-1
-22
-32
72
-52
48
-124
-66
-60
-46
-32
48
80
-53
3
-25
-33
13
2
-53
-12
1
-22
20
-9
-127
-17
-79
-21
11
42
3
-28
12
43
-71
-19
-18
-22
69
40
19
2
20
-74
15
39
-38
38
-42
0
13
62
-59
91
66
-37
-44
71
24
-18
-16
54
-17
-35
24
-42
-27
26
47
127
38
-6
46
41
-11
-54
36
16
-36
-53
56
-71
18
6
50
-10
-36
-32
53
-7
52
4
49
-23
1
25
127
-36
6
48
43
-15
-77
-47
46
-55
50
104
8
108
12
81
36
-31
23
-27
-71
-24
42
-9
-110
-16
87
25
82
51
-28
-61
9
-59
27
73
8
-121
-3
-1
63
-36
-28
-27
-49
-81
68
-90
127
-98
45
-14
86
32
76
48
-9
-39
-22
75
-101
58
10
-3
-21
-98
-10
21
-91
-44
68
-86
-32
-34
-11
12
-16
-19
19
44
4
42
-55
-63
127
51
-108
-37
-90
-18
-23
76
-68
102
59
-74
-38
17
-6
61
-10
7
-75
-22
-16
-20
62
16
-24
88
-47
47
38
-26
-57
-37
-78
-45
-38
-20
31
62
119
41
25
41
-79
-82
18
47
3
-4
12
11
61
27
-62
-51
93
-73
-15
16
127
-71
-22
-88
58
-7
-11
6
-23
-45
16
90
3
61
-15
-29
57
-58
19
86
3
74
-52
4
17
-66
64
-44
14
104
25
2
-19
90
-56
3
3
-97
63
-87
-78
-11
-60
-25
-117
25
68
-20
-55
-28
43
-20
11
39
-35
57
30
79
-62
42
-22
42
-87
-1
86
-62
-38
25
95
-14
-104
1
10
111
-52
-35
-17
-127
26
43
-50
-64
7
-42
73
-86
-24
24
-4
-23
-102
-14
-33
7
54
45
-23
-37
-101
54
-15
-84
49
41
43
31
9
73
-58
-36
-67
-101
93
-4
3
90
73
-81
-31
-104
127
30
0
-42
77
105
-110
85
-55
-16
-2
79
-61
1
33
-52
36
58
-44
-1
88
-78
-62
-60
76
7
-70
1
-64
-34
4
41
10
-35
-43
30
39
7
-40
71
-6
-63
86
-33
-76
71
64
127
-10
-16
10
1
-40
41
0
-9
-51
4
-54
-20
57
-37
-44
-37
10
16
58
21
-41
-50
22
4
31
23
1
-27
46
33
46
-10
22
-9
9
-28
22
-6
-24
20
-56
0
15
7
29
53
31
127
41
50
-41
-16
-22
11
7
-101
43
-13
-11
59
-14
36
48
25
-21
-40
17
-127
-9
-60
-5
-16
18
-36
57
-30
64
3
-6
-70
-8
-58
-20
-18
48
-103
26
12
10
10
5
56
17
43
-40
0
-8
-51
-3
54
-71
64
33
61
-10
79
62
-45
30
59
-27
-24
37
-1
-65
-58
-52
-50
-8
15
-16
24
68
75
82
12
32
-21
32
8
-3
-27
-85
-28
-48
-103
127
-34
21
25
-3
-49
20
-32
16
4
26
-33
-60
33
-69
57
62
-22
42
47
-31
47
50
40
-36
33
46
15
37
36
-41
28
88
-35
76
40
114
46
41
38
-59
22
16
49
-8
54
36
-21
52
5
114
57
19
6
44
-25
-51
127
-29
-60
-8
39
-75
45
-99
-4
10
-24
72
32
-114
35
-37
-3
44
-21
-36
127
2
-28
74
-18
-49
-63
-109
72
49
40
-7
20
-44
-2
-78
-67
-13
-28
41
-9
-98
-15
24
-18
67
-49
-19
-29
79
107
78
20
-124
-37
-68
-74
70
43
20
-4
-88
-48
-54
67
-94
-18
-50
85
2
15
-2
-77
13
-14
127
33
31
-65
-52
-24
63
91
48
-35
25
55
-31
-26
-25
-43
40
34
-46
87
58
100
31
-106
-4
-64
31
-35
-50
35
52
-18
1
-5
-91
31
-64
56
59
48
-106
127
33
-121
-73
-22
35
-22
32
24
-19
2
-3
-35
-70
82
-10
-38
-84
17
37
-63
4
-116
-5
-12
-7
106
-86
2
65
-50
4
-121
25
91
-95
34
-60
-5
110
71
30
57
5
-14
-13
55
6
20
-78
46
15
20
-50
93
55
-11
24
-100
-53
6
87
-82
26
-127
-49
38
-14
-44
24
34
51
18
63
-30
79
2
-66
-37
-10
71
-32
-116
15
-37
-50
-39
127
-107
6
-21
-59
26
125
-70
-105
-8
59
-15
33
35
30
-38
-57
110
87
127
-22
9
52
-12
92
46
21
18
-43
6
36
-29
8
-63
-64
-30
-51
124
-49
-21
8
-20
11
127
47
13
62
4
-8
76
-58
-73
4
18
55
105
-43
-44
-50
31
-116
92
-87
48
5
4
15
20
84
-43
-30
-43
-76
-59
-28
78
-81
26
13
76
33
-23
108
114
84
-37
-52
82
43
-70
-46
-104
-3
-74
19
53
-8
-47
-33
43
-51
4
86
10
11
25
68
60
56
-7
8
-32
60
-29
-10
-20
-58
53
40
41
22
60
-55
0
26
31
13
6
-9
17
-99
23
50
127
-108
1
-9
66
-30
-12
-127
-16
39
-37
122
36
68
-23
-51
-48
-14
-90
11
26
-24
-5
94
-46
77
65
-42
-48
-55
-31
-54
46
-71
-50
-13
-17
-52
12
107
15
47
77
62
-55
-73
-95
98
-88
-85
-15
18
-21
-108
-47
4
-92
-20
66
-6
-40
-100
-61
5
-57
-28
-65
105
-48
25
80
-127
-21
7
-25
-60
-8
65
54
-55
-40
56
29
-4
-37
-60
0
-15
24
59
-16
21
-31
2
85
-19
17
-58
-30
-12
-98
22
116
47
46
86
37
35
55
57
44
51
-23
40
-31
-43
-39
3
8
52
-7
68
0
78
-6
-7
-57
-57
-65
-25
31
18
36
44
-55
43
-10
-11
-101
28
-101
-33
-56
-24
43
-127
10
-81
-52
67
-44
53
-58
-37
-30
48
-16
-8
-70
103
72
-57
-18
-27
-20
8
38
62
-30
102
-78
-47
-27
-20
6
18
63
-79
57
57
36
27
-80
52
-1
38
33
47
-127
-13
-8
-75
-101
-70
47
42
25
1
-45
16
-70
-14
8
-14
-19
-10
-45
95
5
75
13
10
-4
80
-62
6
11
-21
-127
-91
58
-15
32
91
-1
-29
19
22
20
11
34
30
32
-17
7
-41
-22
46
88
23
-59
2
29
54
47
63
32
27
108
-112
-34
-41
-13
48
25
15
65
2
17
-78
-127
-71
62
26
42
-30
-14
34
-29
-20
-66
-50
-65
88
3
59
-43
-60
-22
55
40
20
21
-55
-51
-10
30
20
-13
-73
8
61
-24
-36
59
47
127
-4
17
-8
-32
61
55
-59
-18
-51
-1
33
32
13
-8
27
-107
-32
-25
-60
49
-47
84
16
-43
-15
5
83
-18
-78
105
-22
-41
-9
-90
37
52
38
-6
-14
-19
5
32
56
58
6
-127
-108
54
-51
-24
31
76
-59
-114
-96
38
45
53
-47
44
-62
35
-82
-121
-54
27
-20
-52
-38
-98
-7
-126
-89
-14
-66
-35
65
-108
63
-68
-41
4
-61
-53
-33
-78
0
-21
115
96
55
-76
-71
-68
70
-3
5
-17
-54
-23
11
-6
67
-45
42
-11
42
-49
78
29
-46
29
-44
-85
-83
38
-35
52
74
29
-39
-13
-16
-38
4
18
-57
-50
7
-30
-127
24
-30
16
-7
-26
46
42
-52
-36
-109
-57
-25
-1
69
-18
-15
-121
14
26
8
38
-58
-116
119
38
-107
-22
39
102
-50
-127
-53
84
-6
54
76
72
21
15
-57
-80
13
21
-1
-55
-18
70
-78
65
14
47
-3
-118
72
-116
-31
29
29
51
-30
43
61
37
-20
-52
-10
-43
78
10
65
8
34
-127
-23
3
-31
11
-127
-18
-12
18
-31
57
58
-59
-51
1
-19
-4
-24
56
-8
-30
83
-62
-67
37
18
97
-92
8
-32
-28
-48
11
-85
-98
47
80
17
84
60
-59
-29
83
5
-102
-98
7
63
101
-68
15
45
11
-19
-38
-71
-57
-127
-25
-47
21
-46
52
87
-18
-12
-9
-12
-39
52
-60
13
90
-13
-44
-114
40
-86
37
-27
73
2
-37
-94
-110
60
22
13
-32
-21
10
-3
47
31
-9
-48
36
110
44
69
24
-7
42
11
28
16
-92
23
127
-50
1
-7
38
13
3
64
-35
-2
-20
63
76
77
21
15
51
-102
34
-65
-10
-127
-11
40
-48
98
91
-28
-107
62
-9
4
-7
-102
-57
112
-95
-55
85
6
-57
-73
-33
55
-13
-49
-60
59
-48
-43
76
1
-20
-78
75
-47
-70
96
-1
-29
114
53
64
17
24
41
37
46
-9
32
87
56
-34
127
-27
9
8
-83
-66
1
6
67
101
-40
72
-44
13
5
19
-64
71
92
-7
-74
-13
-15
69
-4
69
33
-29
-14
43
35
-6
47
9
91
65
41
84
53
35
21
13
-40
-97
-85
-39
-42
-29
-37
101
-12
-36
-5
11
-20
2
-43
-23
26
-21
-31
51
59
17
-32
-49
-17
76
-115
29
-41
-22
-55
76
-34
-22
38
-13
59
-127
24
66
1
70
2
56
6
95
68
-10
-35
-77
-103
1
-3
66
68
48
-38
65
88
0
-26
-116
-18
-106
-25
-83
-58
115
-66
-59
64
66
33
-9
63
26
-75
39
40
47
-58
-72
-23
2
96
-3
45
-49
-51
50
-4
-58
-44
108
-5
-11
-127
16
11
7
29
-10
8
-31
64
73
109
-43
5
18
91
-10
-55
-63
11
-34
-34
-26
65
36
27
-1
-1
-16
-63
-117
17
-70
70
-55
-67
48
31
20
6
-66
-27
-50
-48
-42
-2
-5
-127
-36
-101
-26
-18
-18
-99
6
-94
-1
127
-109
46
-74
-24
68
42
-83
-1
33
12
109
-97
78
-73
-49
-5
58
22
-103
15
57
-16
5
-50
-37
10
121
71
19
22
-73
10
1
-94
-107
-8
39
-103
-38
1
6
16
-3
-125
6
57
-9
65
51
-90
6
-90
-30
19
-40
-127
15
-38
-40
-81
36
47
-1
-97
104
-4
-127
-68
-6
-52
-13
39
-42
-68
16
20
2
-7
-61
34
-36
67
103
-37
72
26
22
-24
-63
-15
-13
-114
-117
74
43
-54
-4
101
-25
-37
-77
-62
90
69
-18
31
43
17
54
-38
-2
48
-19
83
-81
0
-115
127
11
21
3
-27
12
-71
7
77
126
62
34
-70
67
123
-74
-68
1
94
58
-74
-5
-62
35
17
30
38
-15
3
-67
-10
-22
-10
23
-26
99
51
-23
23
-123
-16
48
20
14
-60
1
-91
6
11
-20
124
-62
7
-53
30
-47
29
31
63
111
-6
34
42
33
-67
17
127
-20
-31
13
-34
16
2
26
40
-43
-32
-25
-18
34
25
-36
38
18
-91
28
-18
-38
-55
5
56
59
-30
-32
0
-43
-49
-1
33
-34
-19
127
-41
-9
14
-46
-24
16
-46
34
-34
59
50
-21
-33
-67
14
27
-47
-20
-59
42
6
-43
28
-65
9
-57
-79
3
43
-37
8
-19
-104
3
-23
-54
71
76
19
-70
-67
-59
59
3
69
-127
30
-118
-59
60
94
-66
60
-12
19
0
-37
112
-91
-96
6
4
17
-40
44
-46
-14
-83
70
-66
-13
-22
45
33
4
-42
-75
-84
48
-42
17
25
58
0
15
-34
84
-4
-7
-28
-27
34
55
95
75
-28
127
-15
-45
31
-12
-3
16
36
-19
20
46
6
49
-60
-17
127
-1
51
-27
-73
56
66
-23
17
23
35
35
11
-3
19
0
-32
-43
42
-66
-69
-36
-75
-14
-1
63
87
31
-69
-10
-5
5
13
-61
-31
-58
-71
-47
48
104
-30
-22
-111
-22
-35
-92
-46
-39
20
62
-45
58
7
-46
13
-66
57
-33
-65
2
-2
-22
51
-6
2
-80
4
-39
11
-2
31
12
35
127
-79
-6
-3
32
-38
-12
95
-2
13
-58
-58
-46
-66
48
-10
-13
-3
114
41
37
-14
-48
21
28
106
-58
-127
12
-71
34
16
84
83
15
31
-40
-98
1
-80
-60
-79
-26
-47
5
-17
-69
-53
-60
-117
31
-70
-11
-33
1
69
14
-77
59
-60
-107
21
-6
-111
2
-66
-45
-108
21
46
9
-15
-73
-4
-68
20
40
49
-40
-18
-53
-73
9
38
-47
-53
-52
51
-127
-13
63
-65
-16
-81
-39
8
-23
-18
13
-94
-4
-25
59
-82
45
-1
-56
30
-47
15
-58
7
41
74
-9
-43
-11
8
-5
99
46
27
81
20
-19
35
47
34
32
-25
-16
-42
11
-32
-74
58
19
-63
-35
-25
23
48
19
32
-76
-88
34
4
-2
23
9
-21
4
32
21
83
18
2
-127
5
69
0
5
15
3
-20
-76
-127
-10
30
-39
-31
-11
4
-76
-75
-71
63
16
-27
-64
26
77
-16
12
-2
21
-23
23
-22
2
67
-31
21
-62
49
-25
27
-92
-17
40
-26
12
34
1
121
-63
15
47
92
-17
18
-41
33
-50
-48
-11
5
35
-13
21
-33
85
53
-92
-90
45
-29
-90
-69
15
-79
-46
25
45
37
-46
81
61
127
-39
81
6
-101
48
38
-54
30
13
62
55
-58
56
37
-42
-20
42
91
-42
-54
30
15
-63
-39
-22
-19
21
-30
24
-26
-33
-34
-4
112
-7
-4
53
-72
74
-8
79
35
-127
123
-12
-42
33
16
36
-21
-21
23
15
-38
14
-68
-13
-96
82
41
10
-25
76
-49
-24
-33
69
-73
-7
41
1
-13
19
2
10
0
-17
-41
-47
22
63
58
-70
-35
-21
6
-38
31
41
-23
16
127
116
34
70
-57
-35
-27
30
20
59
-47
87
-31
75
-13
-8
20
50
-44
6
-59
-8
43
-38
7
20
34
55
-46
64
-23
-22
8
-89
63
-72
48
-19
-12
-23
109
-32
-83
11
-5
66
60
7
-57
21
-127
34
-61
-33
7
22
-68
-8
100
49
-101
26
92
11
-32
-107
-71
1
-108
-14
-9
39
47
-88
69
7
48
54
3
40
-16
113
19
8
15
-54
67
-13
-16
-95
65
-49
-24
65
50
67
52
13
31
-24
59
-77
44
41
38
-15
-43
63
-15
40
-20
10
69
127
-75
31
-65
37
-23
-30
-61
78
-83
9
7
102
127
50
-17
-38
66
7
-94
23
6
34
-61
-108
6
34
35
-20
-72
57
17
120
-9
24
7
-50
69
-62
-102
-101
-41
-27
28
-58
65
-119
-69
55
67
-105
15
8
81
62
-1
-58
-60
64
-127
39
-36
-34
12
-30
-47
12
-20
-71
29
4
3
-39
44
-36
-41
-21
-70
-25
-111
73
-40
-23
-5
-2
79
26
76
-6
0
15
56
-60
-9
-46
36
1
-19
-68
60
0
5
71
-14
15
52
1
-67
27
119
-113
-22
7
33
0
16
3
8
-56
-63
-40
-127
2
-7
2
30
-59
-51
-3
0
0
-10
37
-10
28
-67
-35
-54
-3
0
57
1
68
-39
-38
-5
-13
18
-6
-43
59
-19
42
-41
50
-4
-87
77
40
-35
17
-74
-33
-46
-4
127
-45
-74
-3
59
-57
-28
75
23
63
-46
-48
18
-20
-64
88
-18
56
72
8
-3
2
-21
-27
-31
-66
18
10
11
29
-39
-24
-48
73
30
82
-55
-47
10
-93
34
15
56
-41
-16
14
5
-2
2
-127
-12
44
19
-64
30
76
30
30
-52
-1
-30
-79
-54
-13
-4
-60
68
-1
-48
22
-63
45
-6
-23
19
13
45
-14
16
20
-5
10
-23
57
-4
-11
-37
65
-124
86
-11
75
98
-91
-57
-52
-64
40
86
-62
8
18
65
-58
-127
39
-15
35
-42
-16
13
-103
24
51
62
-20
-76
-119
0
-55
48
106
-34
82
61
-26
-59
6
29
4
-42
-34
-90
-52
39
-9
-75
43
-73
9
-9
68
-60
5
-35
70
69
19
6
11
79
30
-42
-3
18
4
44
37
5
-16
-14
20
-28
7
13
16
56
-38
60
83
36
35
12
-22
30
35
-11
-127
-28
38
-44
20
3
-58
-5
83
-65
-15
29
-37
3
-10
55
20
64
-13
-17
26
-10
59
-21
-88
-91
-24
23
-66
-66
-18
69
127
31
16
42
-59
59
16
-64
47
93
41
32
-98
81
62
35
63
21
-10
5
0
77
-23
-56
54
4
71
-88
63
-84
-6
-11
8
54
10
52
-41
16
15
32
-21
-80
-37
-5
48
21
-26
12
125
-53
29
12
-28
-23
-52
103
39
79
16
70
7
18
-36
-127
-71
2
104
-42
-14
-68
-39
1
-29
127
-14
38
-54
-17
-68
15
69
-39
29
-72
-1
58
39
-17
-30
-44
14
20
-45
26
-41
16
-15
12
-9
-13
0
70
41
70
41
-5
5
40
-2
64
43
-8
8
4
-84
-23
-106
39
-27
-8
46
-30
-77
-57
-99
-49
-39
8
-98
25
-49
10
-23
-33
16
19
4
-50
47
12
-77
65
-9
21
-53
55
-21
127
-104
-82
49
-69
99
-32
-40
19
-29
111
-22
80
27
-52
49
-73
36
-36
54
127
-2
-8
5
17
61
12
-16
-82
-80
-24
-103
-40
14
22
18
-2
-51
69
-78
48
-61
101
-20
1
-3
46
-28
-25
14
107
-31
-18
22
-113
-39
-27
32
14
39
91
-47
56
-15
20
53
9
-34
22
-31
-7
13
-4
-101
-11
49
-24
25
-45
47
18
-46
-84
-50
-12
-85
114
-6
32
127
-27
79
-68
-13
-60
-16
32
18
52
-86
-5
-73
-46
-35
-65
57
-43
70
-98
-44
-7
-48
59
-41
17
-28
82
52
1
-52
-51
107
-54
-69
12
45
-6
10
-24
12
-16
58
-65
-58
36
95
-110
-116
-11
-77
111
-31
64
-48
4
-52
-31
53
-127
125
9
24
16
-71
20
-2
-24
28
28
104
-32
74
-8
-13
60
16
-26
18
-4
-73
-1
-2
-42
8
-1
-1
-39
81
-35
-9
-127
-21
-31
41
30
8
-34
-7
33
-45
51
-71
-14
-53
126
0
100
46
-56
22
10
-49
-52
-9
-13
-80
-40
47
-42
54
-40
-66
-22
-29
-14
100
-46
30
-55
-78
-10
7
-78
-36
-26
30
-31
-24
-81
-99
62
18
2
-75
25
-86
89
-32
-46
125
-75
13
20
-10
1
5
19
127
109
-121
-32
24
82
-24
78
33
7
-55
-22
49
-39
65
-35
-9
71
-23
26
61
58
-59
-96
-32
47
-31
53
91
57
34
44
-4
26
64
-13
9
8
-22
77
-3
-82
66
-91
127
-48
-12
47
56
-36
4
-45
2
7
-37
48
-5
75
-14
-75
-48
-68
41
64
60
25
-12
50
-3
8
92
-73
-94
-4
25
-21
-20
4
125
-33
4
27
55
24
-16
35
20
68
34
48
-13
-42
8
0
-12
41
60
42
-127
-40
10
20
-71
71
-66
-38
30
-102
-40
41
-6
41
-29
-78
99
-19
-45
-127
-52
-14
55
-32
72
-99
-32
55
-91
19
38
36
-94
71
-31
-84
19
70
4
80
62
37
-2
-23
-37
-70
-46
10
82
52
22
50
-42
11
-4
126
-93
-85
-17
-95
90
-30
-13
5
-55
17
-11
-52
-67
-23
3
-23
-25
-14
-22
-82
-36
48
52
-44
35
-14
-28
-44
61
16
20
-44
27
-33
-48
-127
15
-53
47
31
-52
72
-25
40
38
-34
-24
-19
27
102
-1
37
40
-99
-33
93
-60
86
-55
-37
-39
8
-20
44
26
59
11
41
-92
117
83
-14
-19
-16
-37
-4
74
-16
91
-127
-14
58
28
-21
26
115
38
-60
-43
-33
103
-2
-17
32
-3
56
44
-11
15
31
-16
-29
-126
64
-46
49
-16
-56
-49
-30
-61
54
38
-102
-63
70
5
60
-35
-81
-7
59
99
-32
53
102
-127
77
-26
-96
69
33
121
-56
-120
1
37
-9
-6
40
13
68
-26
-20
127
-43
81
91
39
-20
-17
21
42
0
48
93
-68
-23
-18
29
3
-79
-57
72
-25
62
-57
-2
34
9
50
27
-54
-47
-53
-39
-37
89
72
114
44
58
-13
-90
32
51
16
14
29
-41
-41
16
59
40
-8
-22
30
16
5
-35
-37
-103
42
-2
87
37
45
30
43
-99
-37
-57
21
-23
-23
-23
-47
82
-127
-36
79
2
9
-22
13
22
-27
-9
75
59
53
77
-21
-16
80
-62
-82
70
23
-33
-27
101
30
6
13
-109
-1
-23
-30
-59
-57
28
-64
0
-59
42
-58
-49
-82
17
-4
69
-64
-15
44
6
-7
39
-33
-65
67
-67
-99
31
8
39
63
-71
91
28
-2
65
-36
-99
-31
-22
127
-16
-3
-38
-62
9
14
-28
-25
76
24
51
-23
-17
32
81
-127
-22
61
-24
-37
-93
-54
27
-9
-18
-5
44
42
-107
-37
5
-20
38
-1
30
42
13
-61
70
-37
-69
-31
47
9
-38
-40
58
2
-63
53
-70
-81
25
-18
-12
51
2
-90
-60
22
17
-95
-65
17
-4
127
-3
42
34
21
-33
-96
35
-16
-6
56
28
-37
-33
67
26
-39
18
59
-22
11
72
12
-2
65
59
-46
-70
-39
36
28
111
-108
-11
-27
-96
4
-39
-5
-20
-106
43
46
80
100
-83
-15
-35
-50
5
50
50
96
28
-75
35
-42
73
17
86
-9
-57
87
55
-71
-60
28
-127
99
-23
-36
-54
31
2
-72
-55
-29
24
-109
16
32
-7
62
-25
-23
32
-11
83
-54
6
30
51
-23
-25
20
38
-3
73
-50
24
41
-88
-56
120
-27
51
97
6
19
102
-127
31
14
30
-88
7
-22
55
67
-30
19
-12
-5
52
-21
3
-5
28
-57
20
6
-34
11
-22
14
-116
-51
-36
-53
69
-44
-10
-38
54
17
88
-113
-106
27
73
82
-36
127
39
55
27
52
-67
65
8
-60
23
52
6
-14
62
6
-25
9
16
-20
50
55
-20
-2
-31
68
9
-40
4
-127
-35
4
16
-13
37
35
50
-41
-32
-49
19
29
36
3
-50
40
15
8
-12
50
-80
100
-51
-110
49
-13
21
-69
-64
73
27
-71
43
-37
-19
-24
-43
53
-53
-9
15
45
45
-84
55
3
20
43
122
19
44
-79
-87
-35
1
-14
15
76
-40
-52
29
-5
-24
-37
-17
-50
-10
-27
47
27
-8
20
-13
-39
-42
56
-127
13
-76
67
-12
-8
42
37
52
-23
-39
0
-73
-28
27
-72
-14
1
-1
61
-38
78
-67
20
-49
38
12
36
59
-36
7
-15
78
59
-70
127
-119
-66
63
9
28
-5
-31
-36
-5
92
50
-19
113
27
24
44
-12
-57
25
-52
98
-96
-4
-68
30
107
-11
-36
15
67
-37
-39
-44
-29
-16
-4
-21
18
9
72
-99
-59
-101
-41
59
-59
18
34
27
127
21
61
-90
-120
-65
88
-18
96
-61
51
-14
66
51
-6
-40
-15
-31
73
-25
23
40
-2
11
-7
22
116
-101
-39
-18
-34
-36
79
-45
-67
73
52
0
41
-65
-50
-94
-44
57
10
25
-62
-52
-104
-43
-7
42
39
27
-10
59
-127
-20
-9
-3
11
12
-71
62
-19
-52
-9
-13
57
-56
-28
-7
-83
57
-98
77
-4
-56
-2
19
21
35
7
-95
-37
-37
-42
-43
-127
-49
3
-17
-74
5
4
7
65
-47
3
-113
-77
-39
5
-66
99
-36
-4
-52
53
-65
-1
69
-43
-58
-47
101
12
62
-42
-11
-11
-3
4
-5
108
-27
51
11
59
29
36
4
66
-65
127
62
-111
-42
-41
-17
37
67
-2
40
3
-33
10
21
45
88
92
9
62
92
46
20
-114
-16
28
-71
52
-26
-1
9
-16
41
-77
-12
51
-76
36
-73
-91
-68
25
7
-15
-15
-66
4
-41
41
65
-16
-13
15
41
2
-75
-51
-42
40
29
-32
66
-102
-7
-84
74
-8
40
-103
-23
43
-20
47
-40
57
35
28
-24
28
127
53
-15
48
110
17
26
34
61
-73
53
56
36
-49
-9
-83
1
11
52
87
-102
46
-54
-28
59
-95
43
-68
66
30
24
-8
-34
60
70
32
-76
24
-58
60
-15
-23
5
-11
63
42
-127
78
-43
42
-46
-22
-127
-54
51
-26
-31
5
-51
75
-61
43
23
2
13
-52
-9
-51
-16
-16
-42
-37
29
13
43
-127
-78
26
1
21
-5
85
-22
-6
-4
-66
-34
75
-53
41
2
29
-58
-7
-58
-22
70
-53
41
45
32
108
-44
-20
-91
-65
-14
-63
31
-103
-70
44
-54
87
-5
1
-43
14
-25
62
102
6
6
42
-23
37
39
6
-42
127
22
42
23
-1
-58
-47
-30
-73
0
36
30
-10
-64
51
-49
2
-107
30
-32
-50
-44
-1
20
-63
16
41
81
11
-35
-26
-28
1
101
33
48
-24
-8
-43
6
50
6
8
41
-49
-71
-45
-106
-65
47
-103
116
-13
15
-9
-33
57
-21
37
-38
90
21
1
-10
127
-70
69
20
25
-67
61
49
-18
35
-12
50
-8
-23
-55
52
-38
-72
6
-102
41
-26
25
-39
-5
0
-41
22
65
78
-53
-85
12
14
-53
-47
61
-36
-125
-14
15
125
44
11
11
16
-16
-76
-83
-127
-68
92
-39
-41
45
-10
-21
-11
-64
20
-79
-19
-19
-21
-32
24
-10
41
59
15
71
35
20
109
75
-32
26
-51
-72
-47
55
68
49
-31
-31
-18
-38
-7
21
49
36
127
51
-73
12
-14
1
-67
2
13
-3
6
24
-33
31
-45
36
-42
-10
-46
-9
-108
20
-52
16
75
-98
-121
52
7
22
-89
5
-53
54
-84
33
41
54
-104
57
6
-73
32
-12
-11
-111
49
26
-106
66
-46
127
-62
20
-5
-4
-34
-99
5
-32
-53
-17
-75
36
51
44
23
18
-69
-6
-73
-123
70
-75
19
-15
-26
-62
70
38
77
-29
30
-39
49
-49
8
44
8
-47
-38
-44
92
7
11
-27
34
-47
-48
-17
85
26
50
-34
100
127
80
-30
16
-50
-65
-64
59
-94
-39
31
-16
-102
-58
6
-30
-56
-4
63
-50
-51
-55
125
12
-127
5
-12
54
23
22
-34
-110
-14
28
-84
-74
-22
28
4
50
-55
30
-114
51
31
-61
-60
-62
4
-32
-32
58
12
-9
-7
-22
33
40
35
-23
-35
3
20
-31
19
-52
-9
59
-57
49
-44
-50
-11
-32
-45
-23
109
-17
-5
-4
28
-45
-66
35
-25
17
-25
9
71
-9
13
-60
45
-40
38
-127
88
-35
-3
71
17
-29
56
77
43
20
6
-7
-22
-53
-16
16
-26
19
-100
-36
-107
-52
73
-19
-36
-29
-21
-30
-20
2
-127
-48
-11
54
53
31
18
13
-49
-23
-12
-33
48
-6
-22
25
-51
-20
-89
-43
3
-114
-22
104
-44
-26
39
63
-42
-17
70
-45
-16
25
36
97
69
96
61
-49
-35
3
88
-47
-81
-85
-64
44
-49
127
11
-33
117
19
-8
47
18
-46
32
-92
114
92
37
-111
35
9
8
-15
-12
11
24
65
-71
-3
-24
37
3
-79
-26
-47
-20
34
-28
42
1
46
-80
45
35
-42
13
36
92
21
27
16
3
45
-5
-8
45
52
-72
48
-13
-11
-15
-10
-20
9
19
17
-8
127
29
2
-33
-60
-69
103
32
33
-27
23
37
33
31
127
62
-54
68
-8
16
120
58
75
-39
-57
-16
-43
51
21
-27
22
47
30
25
23
20
2
83
-81
-4
7
-49
-66
8
54
46
-71
28
56
-74
-11
-79
-43
-69
67
-51
-10
-61
-69
-81
2
65
10
41
-39
-87
-8
-42
65
48
-56
-29
21
-81
-53
-5
-30
-70
127
58
42
41
45
-106
73
30
-25
-42
44
-53
-27
4
-55
64
19
-26
8
-22
-10
-28
-39
-14
-35
65
-19
14
-29
37
10
-21
44
-27
52
-53
-43
63
-6
-75
84
-35
44
83
29
-82
-35
-30
17
-53
56
-29
11
35
127
16
90
43
46
9
7
-17
55
48
-40
-18
57
93
-32
33
87
-32
68
23
-54
-41
13
70
-24
14
54
58
-6
108
-100
-12
-48
0
-26
-48
-38
-18
57
-16
49
43
64
82
5
-12
11
39
-71
-117
-71
-56
-55
-12
-33
59
-127
27
-40
13
-114
-49
-78
-9
96
-10
-61
-32
72
89
-62
107
20
9
61
14
-42
56
-99
54
34
94
-13
63
-120
41
-29
-11
84
-9
2
-44
-72
-28
-28
-67
39
19
-63
-25
-68
16
-24
63
-49
127
-124
33
-66
37
30
39
-79
25
22
10
28
-19
57
-87
-52
-70
0
39
-49
-51
66
-13
-57
-30
-41
-24
94
30
3
-92
-127
-35
87
-97
65
-25
-24
49
-14
-75
96
97
-9
48
27
39
74
-53
-61
-24
5
-22
39
-65
36
1
-72
56
85
-67
-127
-105
28
-39
12
-21
-20
-17
-99
34
9
43
29
-2
-65
-32
46
-59
15
-62
-12
-63
-15
-44
-100
-58
13
-38
12
-48
-105
47
70
72
-67
22
43
35
-32
76
-5
-13
64
95
-5
-11
63
-49
65
29
-11
-23
36
-53
12
38
4
-95
-52
-65
-12
66
19
89
-46
-10
-67
-38
98
29
-71
-2
21
49
26
74
-4
67
-102
28
10
-13
69
38
34
127
3
-93
-17
-12
36
-32
68
4
-4
27
-52
27
18
38
40
-31
-44
23
-59
-1
-18
58
46
-35
35
-32
70
8
17
15
26
-35
-61
-7
19
13
-6
-31
-1
-33
-21
-95
14
-35
36
-127
8
-1
37
-24
65
-65
-96
38
18
-86
8
-36
-24
35
-90
-8
90
-69
-8
-29
-70
41
55
-100
44
-19
-88
-19
-24
-23
-110
-22
127
-93
-37
-43
-78
-24
63
14
15
-22
65
68
15
-3
14
65
-6
21
-24
-30
66
-2
-12
-20
-21
114
-42
-60
82
44
-97
7
49
94
75
27
20
59
-5
100
127
120
71
-17
39
20
-39
88
-13
-10
57
13
-15
10
89
18
20
121
81
34
-81
37
32
77
-58
-33
32
-4
2
34
30
18
79
-65
9
-36
-40
33
33
-109
-21
-21
-44
4
-38
66
1
-69
111
5
-40
30
60
-3
1
39
-14
20
-22
33
-48
13
87
48
-50
-115
39
-6
11
28
-23
-10
-127
-20
-25
10
57
18
29
8
-82
69
13
35
-20
71
-11
-39
-17
-11
-28
-127
-25
-77
-80
-90
-87
-37
54
67
59
-24
-70
-82
-9
53
115
-40
-16
-75
-92
81
115
-9
-2
-28
-40
1
89
42
-27
-4
123
109
-8
52
12
43
-22
-14
75
24
1
-96
-36
9
32
14
-5
-72
-51
9
16
44
92
-31
31
49
45
-33
-39
15
73
-8
90
-18
81
63
93
127
7
65
30
45
-32
-12
-13
89
-53
70
61
2
-6
-3
-27
-36
-61
104
-98
14
25
56
55
-2
93
11
-5
105
49
56
-49
127
16
-87
-51
85
-57
-18
89
-14
70
77
14
-7
32
-94
10
63
-73
-46
-82
53
102
-30
62
101
-45
109
-31
92
-45
-8
7
-87
43
17
-58
-21
-13
-33
-30
40
-4
-8
53
30
68
41
39
-67
-45
106
59
19
-15
-66
-26
-45
-36
26
-31
-3
26
-49
-14
-71
-40
127
63
-28
-60
-59
9
-17
-8
51
104
-45
-45
52
6
42
12
-39
75
-42
57
-43
-127
-20
26
11
-64
43
10
-22
3
-75
9
83
10
26
19
-13
32
59
-55
1
66
67
-41
63
51
-20
-11
-81
18
6
-67
23
18
66
-41
-49
17
-34
-10
31
25
46
40
55
27
-14
23
97
23
-89
-65
-67
-61
-16
66
59
12
-66
-49
22
60
43
-14
13
-54
-27
-75
58
69
-9
-57
26
29
-127
37
-53
-42
-25
-40
-69
51
40
3
-14
-3
56
-127
-34
-16
-37
84
72
-24
-64
-78
-25
-43
19
50
-39
52
77
-22
122
-23
-46
-50
62
-63
-3
9
-34
-31
71
3
69
-102
-31
-75
46
-73
-69
46
29
-67
23
-26
93
49
82
-9
37
20
-13
-56
2
-78
-69
13
39
-87
-120
-127
-123
-97
32
-62
64
-52
-65
-62
2
-14
20
-28
-27
29
-89
0
98
2
-97
31
-6
-50
-88
-70
112
-43
-53
-50
69
83
69
-102
35
-50
71
14
-90
-46
-54
-51
-30
34
-85
53
-27
-34
-63
-41
49
-1
-12
41
-127
9
21
-57
54
52
38
71
28
28
-47
103
-7
-57
27
-9
-23
16
-108
-33
50
46
-86
-22
-16
34
-20
4
-55
-36
-31
34
-102
6
-14
-64
90
44
24
-76
73
1
35
-27
-63
-18
-36
23
-54
39
38
-126
43
-46
-2
-71
56
29
6
46
-32
-89
-29
-32
-73
5
-65
45
46
-67
-35
-23
-15
46
61
89
41
72
110
-127
-54
-44
59
-13
-77
-30
4
-70
18
-30
64
-112
-127
-40
-30
3
17
-1
-47
3
84
25
-22
72
4
94
-118
112
-81
-67
25
-58
-107
-17
-6
-3
54
111
0
29
-4
-54
-77
-26
37
-16
-15
-30
-65
32
30
43
23
-64
11
2
4
66
6
-89
-37
38
16
44
-14
-23
47
35
-1
10
24
64
-69
-112
65
83
-31
0
114
-2
-14
-127
-77
-48
-16
-17
74
57
11
-54
7
-61
-51
85
-122
8
-42
12
65
70
-82
-21
14
119
53
-55
42
-73
14
56
-40
42
-73
-62
-50
-27
100
12
22
-54
21
114
-57
49
41
-42
-127
2
68
34
21
-7
42
12
-69
-49
-105
102
48
65
119
19
66
63
99
-30
-48
32
18
-81
-61
26
43
-34
-43
-59
-42
-60
11
25
37
117
-51
-12
32
-16
-16
47
-37
-43
29
-55
-23
-78
-1
127
-11
32
-45
17
-43
66
-20
22
12
27
51
34
53
-18
-6
-42
-75
21
29
-42
0
22
0
8
71
-18
18
-14
52
-8
-45
-127
-75
25
-13
-57
18
-41
-39
23
57
2
61
-2
-71
-36
-41
-8
36
23
-12
-53
66
5
28
9
19
6
-30
7
61
18
-4
-2
28
-6
-74
-65
-18
45
-20
112
-118
33
-81
-30
-45
5
-16
51
-9
-83
-12
-15
-101
127
-60
15
-16
32
77
-14
1
-39
7
37
-5
-17
53
109
8
39
57
22
-7
-75
6
-87
49
39
87
-42
51
70
-56
-75
55
-22
-127
57
-67
-49
52
-14
33
70
-16
6
-76
-33
-44
-51
70
71
-9
74
-41
115
63
73
-51
-40
39
59
-61
-3
-41
40
48
-25
22
-3
-63
-35
101
19
-31
-16
51
-38
-63
36
37
50
75
-103
95
-90
-119
96
-49
-106
3
-43
67
-67
4
-11
-10
64
35
27
-16
17
1
-43
67
-19
-41
19
-40
-15
-77
102
-105
-38
-46
127
-56
92
50
71
-23
-4
26
-25
44
19
-28
66
39
-6
86
28
68
2
69
-47
44
-25
21
-6
-9
56
-21
-37
57
73
84
1
18
-58
2
92
-19
-43
12
-6
-61
-17
-36
62
-49
-43
127
-53
-52
16
6
-30
15
-40
82
27
67
-41
-30
-1
-18
29
-60
-45
35
67
3
-7
69
100
101
-14
42
-32
-4
46
56
-66
-14
15
-29
69
-39
9
65
-108
-24
-96
60
104
95
106
-32
-31
-71
59
-27
-47
109
-26
87
-52
-127
-7
-21
-78
54
19
5
-45
-4
-122
-25
-17
-56
65
-4
-127
-5
-40
74
-33
63
-33
66
54
-46
27
-31
21
8
44
64
-36
12
-31
6
-70
-52
-6
-52
-41
53
-41
-52
50
-26
54
42
-11
28
-41
-57
-55
-100
36
-7
68
80
-76
-23
125
-112
20
4
-59
33
44
24
64
-106
-127
6
-39
78
41
18
118
-42
40
60
26
-26
68
-84
-11
-13
25
2
-43
-86
63
-19
-56
-73
69
-45
60
10
-49
72
-52
-92
-71
-44
-30
-87
7
-36
11
22
-94
-40
-112
15
-60
-73
59
-68
-40
-84
36
-24
-63
-4
49
29
91
-106
71
-7
118
-89
-23
-3
-12
42
-71
25
-29
42
-50
-30
-65
-35
-16
127
62
-38
-25
-47
-38
-48
54
-30
-43
-19
53
-30
89
3
25
11
-9
-82
48
20
49
33
79
117
92
115
-42
46
-36
-61
22
-127
6
-26
51
56
-67
41
-28
19
28
73
-89
9
74
72
37
63
44
20
-34
90
49
107
21
-84
17
-9
30
27
34
-59
-6
25
17
19
40
21
-108
-5
-7
-42
-84
-83
26
29
65
-3
127
13
-41
1
62
-27
77
29
-32
66
44
-47
-76
-31
3
-25
-49
-20
55
91
-11
-60
-4
18
-4
103
-84
-70
-44
52
14
24
36
33
-101
-30
36
12
77
-38
-20
-29
-37
55
61
84
-105
46
-65
75
-62
62
127
-122
110
93
-52
-107
-43
-2
53
52
-100
50
34
12
-1
-6
-23
45
125
-107
-19
-6
127
89
58
-15
31
-14
-21
-35
37
34
13
7
-47
0
-30
-43
-21
-8
-5
78
17
72
-38
21
21
73
10
29
83
-2
40
61
34
30
-33
-12
-1
-35
-43
39
-54
-16
44
-44
109
-2
1
34
-28
-79
6
5
17
16
-6
-21
-35
10
-15
66
9
-98
-9
62
28
-54
60
-3
44
-51
12
-66
-77
61
16
-9
53
78
-28
-3
-25
-27
54
-17
-23
37
-40
-44
-21
-4
-127
-33
33
-30
59
-12
37
12
52
37
-36
26
-24
82
-24
-107
-27
54
-26
50
83
-16
-79
7
24
22
3
-84
26
-53
-28
19
47
41
-87
107
-7
-48
28
29
-26
127
-50
-78
46
-16
88
-23
-47
2
32
35
-50
72
-28
22
59
-73
21
-13
-127
-47
-51
-29
61
5
-42
13
-22
-86
1
-67
21
34
-30
62
13
-5
-118
59
122
-2
-2
-57
20
7
0
20
60
-8
6
10
32
11
-2
33
-26
18
41
23
65
25
26
-70
-53
-27
37
43
-73
42
49
-12
-25
-115
-24
57
-2
-57
34
38
109
22
-36
-1
29
-104
51
67
-52
62
69
27
-19
46
10
127
-16
-26
-34
24
3
45
-9
-50
42
-5
41
71
-66
83
-78
-34
83
-127
6
-86
34
-44
11
58
74
35
-26
17
-66
109
-37
14
107
73
-112
75
34
-1
-101
17
3
-43
61
-10
-8
-16
76
-68
-19
12
35
-64
-48
31
-7
52
-36
-55
-60
12
21
37
-8
79
-33
-12
28
46
29
-18
-20
-38
-1
28
15
37
-75
73
-38
-65
-29
-28
-16
28
-28
-52
-63
12
-4
-96
3
-39
-15
-58
56
-2
62
61
70
-31
1
-18
-23
38
-7
-127
-58
24
-68
64
83
-13
-11
-86
-38
25
-127
-3
80
-33
-3
-105
-89
3
-22
4
-11
-24
4
5
22
32
-45
-27
-40
71
-28
76
37
-126
-5
27
72
-75
-117
-33
-17
39
14
-6
9
27
25
-10
-46
-10
-80
55
-51
56
119
41
-28
27
-13
77
17
-87
-93
28
45
113
-21
6
97
26
-15
112
24
23
7
-7
26
41
20
11
-44
-67
105
-61
127
-85
36
1
-48
-75
-34
-61
-62
52
117
60
117
-14
-40
29
84
105
27
-51
-66
-125
-76
-18
48
-64
-20
21
-90
7
-4
-6
-127
4
-64
-69
-38
92
-48
74
29
91
-71
94
61
-43
-75
-13
-94
10
-70
54
-38
1
-52
-4
30
-49
-42
2
84
-107
-36
-46
-17
-30
91
50
-53
-54
-23
18
-28
122
-69
123
-10
-6
-34
-21
11
-67
-95
-2
-61
-50
-14
-8
75
60
-23
87
-9
-6
-35
-40
-108
-127
-54
-39
37
-19
-115
28
-54
-13
26
66
-73
-59
22
-34
26
83
-48
4
40
-10
-16
-1
-31
35
-47
7
-26
-12
-25
62
-41
-20
16
-80
67
57
-72
49
-10
-127
3
70
-64
-1
-19
-44
50
39
15
-12
-72
-106
-37
-15
-61
70
26
20
-38
-39
-55
-101
-56
58
16
48
-52
-28
1
-12
50
51
-110
-96
45
58
-37
11
-2
-43
-28
-8
-65
-21
43
70
44
62
-28
118
14
70
-10
53
-54
-84
41
73
-109
127
-35
-57
-59
-41
59
-53
-87
27
-3
-16
-31
3
-13
-4
76
-48
64
-127
-34
1
98
-23
-84
-33
32
-108
-57
2
4
48
-25
-34
24
-26
-2
0
-3
-87
81
-38
-2
-57
-21
-13
-12
-2
47
-9
-28
-11
-4
13
-61
13
-23
-43
16
62
-35
-10
-22
-14
21
-54
-20
-11
41
61
-7
-22
-27
-77
13
40
84
-41
-41
-1
-92
-1
-127
1
-28
-74
109
-15
-17
5
65
-51
60
20
-9
12
-8
64
-36
32
13
48
26
21
-62
35
-64
-61
-73
-52
-23
-62
-3
-81
49
12
-1
76
-96
-28
-38
-40
-21
52
113
35
-64
7
-15
-127
70
-29
85
55
-28
-38
16
-38
16
-33
69
-55
-17
-20
67
41
-65
-60
-32
54
68
-65
31
15
-42
-38
22
-16
-18
48
-33
-52
-38
-71
8
-11
-34
-87
-10
-50
-19
-17
-48
81
38
16
24
41
-63
-39
35
1
-35
17
39
-36
-2
-51
-22
18
47
-54
-87
60
30
-13
-72
127
-54
17
-55
-8
