65
-26
46
61
11
40
-96
58
-32
-20
-15
-98
20
12
-36
45
33
-33
-5
35
-54
47
30
-58
-58
-23
-7
79
-55
3
-15
0
-12
6
47
15
-11
-20
12
-85
36
-62
66
-67
-92
-7
-45
-56
-38
-127
-61
-34
57
-9
-13
22
-127
39
1
-2
-87
6
56
-52
-90
-16
15
-5
-62
-5
-72
12
-7
-16
-28
86
-4
38
19
-13
23
46
-69
-52
16
-119
-63
-22
33
35
120
127
51
-122
9
71
94
-31
87
38
-65
79
-127
9
-93
55
-5
-127
0
92
-3
39
-5
2
28
22
-60
127
32
6
34
-44
-5
127
39
-30
-33
87
-106
6
-47
7
-5
-15
53
-127
38
15
85
-2
-127
-34
-34
-22
-127
-30
-52
-107
68
127
-72
-57
-113
38
3
-21
-76
-8
0
-24
-2
8
17
26
-127
88
-125
-53
-123
34
10
14
63
-127
42
-48
28
40
-127
-127
14
-92
-75
127
127
-7
83
27
-8
-100
51
-29
52
-6
77
-32
-95
18
-91
-68
20
-5
2
-12
-84
49
25
119
34
3
-58
-127
97
41
5
-23
91
-17
25
115
78
-13
53
0
-3
9
-109
-9
-27
-77
75
-105
127
-3
88
-68
-43
-22
-43
61
-112
-72
-88
-52
-16
106
-100
6
-38
27
111
-11
33
-63
-127
18
-21
41
3
6
11
33
-124
-64
-5
36
-8
-72
75
-120
-51
-54
-38
-62
-102
-5
-40
-57
78
82
44
127
45
-69
-45
-97
121
-55
97
-71
78
-36
-66
63
43
45
-39
34
-127
-72
-15
80
-32
32
-60
-8
10
35
-35
118
98
-41
-58
-51
14
19
-39
2
-40
-30
57
-107
38
37
-49
-41
2
36
91
64
7
-11
-81
-38
-93
-73
39
-101
-84
-56
61
17
-89
35
-108
-44
-96
5
-127
3
27
-34
-114
-23
-59
26
-109
31
-81
-55
-109
60
45
89
32
-10
39
-19
-14
12
-25
-24
14
60
-41
9
-28
-25
36
111
127
-53
-13
127
127
-127
127
-64
-6
127
-12
-22
-127
127
-103
-83
-78
127
-42
64
-127
-35
52
99
80
126
127
-62
91
-51
59
41
83
-53
-127
127
127
-115
2
77
104
-22
116
-92
98
127
-49
33
-127
-2
-101
-39
114
-73
-16
-120
127
96
-63
-28
-85
-51
-34
48
-127
-22
-62
30
31
78
-17
24
-95
127
-120
80
-127
104
127
54
52
-110
-51
-127
-3
87
-16
-15
127
127
-29
94
42
31
120
-70
100
-127
-21
26
66
-78
116
-52
60
12
-88
-62
-3
-15
-67
-88
-42
-40
11
127
-13
-28
-84
-11
104
-1
84
-108
127
-100
87
33
127
-127
2
39
-20
-52
-127
68
15
-127
127
-117
116
-10
-106
-3
-67
63
-127
127
58
5
32
-105
45
56
-127
-87
-98
-14
127
46
102
-127
-123
90
127
127
47
30
-19
13
-127
7
46
127
46
-73
127
-79
127
9
35
97
-43
88
16
113
127
123
-57
114
127
-29
64
-70
67
-85
-20
-36
-55
-127
8
44
7
-14
5
52
-68
51
16
11
-106
12
-93
-34
0
-11
127
104
126
57
65
22
48
21
-34
25
-29
-61
68
67
47
12
65
-5
-6
-45
54
94
-49
44
-61
39
30
-25
-11
11
-127
-48
44
59
-1
43
-22
-80
36
-107
-45
-5
19
-127
-83
9
-35
-85
-4
-33
15
-127
-55
4
-20
5
24
-2
-9
-33
-50
-7
33
16
-21
-57
54
-110
-20
-16
33
-39
32
15
15
79
36
-82
-8
-73
72
56
33
-59
-81
56
-93
-97
127
60
-127
53
-86
-127
34
-14
118
62
71
127
116
-37
114
-52
95
4
-114
87
-7
8
53
127
127
-21
-53
-23
112
101
-127
127
-50
127
-74
-74
76
97
34
-83
106
8
31
23
-54
-127
-18
-127
-79
5
63
-41
34
47
66
-121
-103
-13
-14
86
-125
88
27
-48
64
-107
-31
-78
-37
105
98
33
107
-75
9
-112
48
52
114
-66
56
19
-49
-23
-2
-51
-1
-12
127
-50
-7
-127
17
-30
-56
-55
46
-23
-53
84
18
-73
-127
-5
61
-51
113
59
42
-127
127
65
43
-42
-40
-18
-18
127
-56
67
36
-110
11
-64
-4
-116
-77
12
-49
62
-60
-32
69
113
55
-127
23
53
-75
-127
-86
-36
-90
-94
81
-104
62
0
87
62
127
-127
-38
-42
-44
69
74
118
58
-127
79
-72
58
-27
127
127
43
122
41
28
7
-35
12
98
46
-28
84
-24
-127
-99
