-110
127
-41
-126
101
15
-64
-72
29
-3
-97
-22
46
-84
-103
-98
107
-40
20
31
26
31
127
-75
-6
8
-32
-44
51
25
33
-106
-78
-79
15
-7
-41
14
-61
-5
-21
-73
-37
-110
127
31
38
71
5
21
127
-38
-14
21
-34
-76
16
88
15
-66
10
-9
61
-5
-38
-61
-36
-21
127
-20
5
60
22
-32
86
-26
0
110
5
1
35
-37
38
43
-42
17
45
-13
-23
-34
-47
27
-31
72
-55
-127
-56
37
-93
-63
-48
28
16
-97
-98
53
-15
45
-127
23
-108
113
31
-24
10
-48
-7
-94
16
84
64
-93
-71
-48
59
-127
-62
68
8
50
-56
-127
-95
-12
33
46
89
70
-13
62
8
-49
-54
-93
-53
49
-93
4
-33
32
-31
-45
92
-2
50
51
-83
-50
34
127
108
-44
64
-20
60
9
-49
-127
26
117
20
12
-58
-46
33
-22
-56
-78
110
-42
-127
-30
-61
85
-80
101
-29
-15
117
32
84
-60
-25
46
9
127
97
-44
-77
-110
-121
3
-13
34
-75
-36
81
82
-36
4
-104
43
127
-31
-100
-5
-5
67
38
-34
-103
42
-105
-29
65
2
51
20
-68
13
-39
-10
75
127
79
27
15
0
-11
-38
118
36
11
-64
-39
7
37
63
49
-28
-3
-87
-60
-58
127
-33
-17
2
-87
18
88
-41
122
97
-52
-127
-40
-78
-28
24
-14
74
47
73
0
-18
35
-122
99
-11
-34
127
108
13
41
20
-110
45
-20
-125
72
46
81
31
127
3
35
15
-5
-37
-61
-27
44
-75
-119
-13
127
-103
66
-57
5
11
-109
-118
61
-95
70
103
-99
-28
-45
3
-107
-96
54
-47
44
103
49
-76
127
30
79
32
45
25
-84
-31
-8
8
-57
-1
30
89
44
8
-36
41
127
87
-29
36
77
-55
-48
-16
-56
-19
-44
-72
14
127
-18
18
-8
-11
-24
-113
44
6
-3
1
-66
26
32
-34
-2
-127
-92
-26
27
-36
-71
-31
-30
-61
-127
93
-69
-75
5
-114
13
-117
3
36
73
47
-92
26
-17
51
89
88
-50
70
126
-79
95
-45
-100
-27
65
127
-21
47
112
37
21
-69
-98
-60
37
16
-74
127
17
18
-79
78
4
44
53
51
-23
7
-36
-2
-35
25
46
127
10
96
-24
-48
-36
-119
77
46
-19
-95
-31
55
38
-47
7
46
-39
63
109
-104
7
127
14
17
-62
-22
-45
-64
127
126
68
-93
6
60
-41
38
-28
120
-105
11
-85
37
89
-85
41
-19
-107
-127
79
0
-88
-48
-63
-33
48
69
-92
14
95
119
50
-88
-26
-67
-111
100
-49
-127
-25
9
72
45
88
-13
127
121
-100
21
77
-29
-55
69
97
-48
-43
50
-12
65
107
-95
67
28
-112
-53
-6
127
2
-52
43
58
35
-66
-3
70
63
-33
1
4
93
114
70
80
-16
-127
-58
-68
94
-55
20
66
-66
42
-12
-23
-28
12
-88
55
-77
-36
-1
-127
59
10
74
-9
2
-37
-127
-17
-73
51
96
46
-6
-29
-29
-3
107
-2
-28
-23
-70
-2
-93
-12
71
-44
127
-77
-15
-31
13
-55
-36
2
-3
-95
78
-43
36
-9
-15
39
-127
53
60
-17
13
-58
25
-96
-34
25
17
-60
-127
-36
15
-71
56
1
-88
-1
-8
-57
-119
31
127
-34
-9
18
-2
-34
122
-28
-37
-48
72
69
-42
53
11
8
-65
-10
-100
-6
68
-65
-127
-66
-73
24
12
-10
-5
-50
-34
29
-54
-39
-127
-12
15
12
-67
37
-25
-73
55
-23
-39
80
-4
29
-31
-33
-100
22
63
-23
-118
127
90
-35
-44
-21
52
62
6
19
100
0
-42
-32
1
-64
-17
64
41
35
-20
-1
-41
-127
6
43
-127
-32
-27
40
19
-5
17
100
41
-30
27
6
-41
49
124
37
-49
-127
-27
19
-6
7
26
27
11
43
60
24
77
69
-64
-18
-53
24
-32
124
36
94
-17
-14
-26
42
-127
-42
8
82
-7
68
41
-7
32
-24
-77
-100
-19
-63
1
52
64
64
21
-67
-127
-112
-96
-57
16
34
79
-25
72
17
83
-71
76
-20
127
-107
-50
93
4
-46
14
42
18
-21
-38
-5
92
-91
44
-89
19
14
-127
25
55
-65
-56
103
71
127
-22
45
-120
10
-87
-63
-104
-113
-36
18
-63
66
40
-35
-65
29
-47
75
-18
24
-127
-14
-6
-10
79
-6
60
9
6
-24
-61
8
127
-13
28
-24
-46
-22
20
-37
-29
-49
23
75
-95
64
-33
-15
63
-52
65
68
127
39
63
-47
76
-97
63
-19
30
46
-41
2
67
-47
38
127
-71
67
-15
18
26
-44
33
-52
-48
85
-1
97
18
-120
-95
-35
101
127
-30
92
-35
-33
115
116
-65
24
-105
80
-70
-127
31
104
81
100
-23
-61
20
-85
-70
2
-56
-1
112
127
-50
1
-65
-93
26
-31
-67
43
91
-7
8
120
92
109
-104
42
39
35
93
113
77
127
-44
52
5
-8
-4
-65
38
-24
93
-60
3
-48
-25
-86
89
-80
127
-23
-111
4
8
-50
-127
-17
88
16
17
-43
36
-1
-34
-101
-4
-10
-102
-65
-83
53
-38
70
-75
26
127
42
29
-32
-118
34
29
-46
-97
-32
6
-127
94
-92
-40
-10
11
-19
-55
-39
-41
65
16
-35
-31
89
102
-49
29
4
-127
-36
-74
-71
47
-25
-45
13
-23
-39
-63
65
-64
-127
40
15
99
-102
12
23
-125
25
104
-6
-68
-33
-82
49
-44
-81
48
-36
3
-7
-11
-97
-45
75
127
-51
67
51
-87
72
53
-127
-88
-14
100
23
33
-33
27
25
29
-28
79
120
-32
-119
108
-3
66
-1
50
127
-42
88
-19
-98
-110
34
5
-76
-43
-117
-104
-127
60
44
53
-46
-38
51
12
63
-45
-9
65
23
46
-19
-2
-8
-38
-127
-101
-25
48
72
21
-62
3
-47
58
-40
36
98
-41
6
51
-71
32
84
-81
-66
44
127
122
3
30
-30
-59
-5
6
-88
68
-127
-50
6
-51
-73
-11
-33
-56
-96
12
122
42
-85
40
-17
100
-4
23
-127
92
-102
-71
27
32
14
30
-23
-7
-71
-48
-127
23
90
39
95
-4
56
-29
-47
-47
54
14
93
12
-52
18
49
-97
-11
127
69
-37
-45
68
115
83
68
-43
-104
-50
88
-8
-127
53
-56
88
1
-68
-56
57
-15
-1
-48
125
108
-55
-28
-18
-95
-21
-85
20
-127
-74
-41
25
-2
94
-27
41
-44
10
31
-74
28
-109
3
51
-127
65
112
16
-105
43
28
-60
51
16
-53
-27
-13
-47
97
102
-13
38
-120
41
54
-127
22
-29
-77
93
-63
-81
62
49
38
-51
-16
-13
-127
-2
41
-66
17
63
83
73
-52
-12
-6
-29
-20
6
-65
109
127
62
-111
74
72
-7
-92
47
2
49
2
100
-25
-63
-53
3
-71
27
13
-3
66
-127
25
-72
24
28
34
-38
-14
6
-5
-31
34
-38
20
19
-17
-84
-127
-28
40
-81
-45
62
-1
-62
-67
127
70
31
-16
27
101
-49
-83
-65
33
80
20
-120
-28
66
-127
92
30
75
-91
22
-82
-9
39
23
-41
-61
73
72
31
20
-36
-3
-72
8
127
61
-78
-1
100
18
-62
95
-76
7
107
51
-29
-57
74
127
-81
52
-53
120
35
-88
-35
86
-52
-104
84
-35
-2
115
-61
-39
-56
-5
-91
-27
51
-72
127
-30
-29
11
-20
30
23
-56
31
-127
12
30
40
17
-37
42
19
112
-6
-65
59
72
68
64
55
-67
-12
1
12
33
127
6
-83
-121
-21
127
-42
-12
-31
-5
-12
-63
-24
-3
30
-36
86
-26
-9
-91
-14
-37
-3
37
-100
21
41
-9
127
32
20
-86
21
112
36
-56
51
-113
50
-4
49
62
-97
58
33
108
-38
127
-24
15
6
96
-27
73
-45
61
18
19
-29
-50
40
-20
55
-71
127
40
67
-75
43
88
71
-38
73
-52
-17
1
-3
40
-127
40
43
17
-72
