-432
1879
-456
823
989
-694
-389
-64
1302
0
-1902
-673
-224
173
1294
-2266
-1027
-240
-1195
-158
-539
421
664
-802
1522
-160
682
1589
1599
-702
1557
2230
1344
-358
-931
-626
-509
-1496
-388
1195
837
1989
1077
-418
1058
-282
850
-1865
-925
-115
49
-28
772
776
-315
1036
981
-452
-317
11
1529
-1678
2300
-1585
-267
1606
224
-921
-787
-387
-1184
462
607
-1090
873
-72
-1018
2221
544
1076
1144
-401
-161
232
-2060
2591
1279
1888
364
1287
2060
-788
-666
2099
-209
970
-647
-155
535
798
-834
-780
2029
800
502
-493
-28
106
3118
1849
-352
2020
801
88
-961
-110
501
-435
-2191
732
-991
1578
-3638
1636
161
-385
1793
1055
1432
-4382
-751
2476
-52
-15
4507
1270
-762
1036
1138
-1859
599
683
313
-735
-391
-422
389
1920
-756
-1066
1498
3026
-1344
-217
-773
1618
-884
-535
-138
-94
-1282
759
-890
-1559
1626
-1577
2333
2553
36
-486
1351
830
2875
77
135
-26
-1391
-1036
-208
-5
2062
905
1508
-33
355
103
-825
145
1342
1064
-336
698
-411
1723
1493
17
1211
-484
-15
-1955
-666
1480
1013
88
1162
1062
-1310
-887
-1257
-88
-1204
245
-1561
1046
2722
-78
-71
2405
1798
-1113
357
-490
22
-12
-590
1767
2415
-442
1502
1135
1207
2561
1387
1389
1135
-881
-1264
1207
-407
-385
993
1030
-492
-592
-2990
373
-277
-883
48
-874
-290
328
-50
1906
-898
-243
-1087
-587
686
733
1717
388
500
-574
2557
-291
322
855
-1582
46
1086
934
835
1740
605
-667
-450
285
-711
606
-1338
-695
752
958
1129
-407
-1491
452
