23
43
116
52
105
48
-19
32
15
127
28
62
-48
59
10
16
-25
47
127
-21
-29
98
26
-26
-51
41
50
67
76
-101
0
-4
-22
17
24
78
-100
117
-30
13
58
-37
32
-21
82
29
87
127
-97
-21
-36
-127
-81
-23
-100
-82
5
55
51
-96
-43
79
21
-13
-11
-94
127
12
-37
-70
-49
63
5
-70
37
76
-70
-21
53
-50
14
41
82
-31
45
59
16
19
-36
38
-17
89
56
-127
-66
35
-112
-40
5
45
10
-90
66
49
-38
-15
-79
38
-127
100
-126
-9
57
95
28
60
14
-33
30
49
-33
127
-81
71
12
15
17
55
-30
73
20
18
-31
-33
46
23
66
99
-99
-35
-45
-62
-127
-11
-66
41
-37
-115
63
-70
-29
51
-39
65
25
23
89
19
127
64
-41
-61
34
-57
29
-127
40
8
79
-3
-55
10
-74
35
1
52
-21
-57
-51
-114
-28
-68
40
-3
27
-77
37
-127
41
3
33
-100
110
-118
-127
65
-100
45
-18
78
49
-122
80
47
-15
56
68
-14
5
-20
71
-59
29
-32
-46
-86
56
-127
90
-72
0
-19
-48
96
-13
41
127
40
-56
43
22
8
-64
71
38
-40
-28
-45
91
68
-3
-103
-75
30
-29
-104
46
-32
11
121
65
76
-106
97
7
-127
-13
-56
-98
-21
-7
17
40
40
26
-5
-99
-52
61
-62
127
0
-127
45
57
41
-65
6
42
82
-72
60
54
-100
28
106
-25
-6
-69
-32
-27
-23
34
-107
-14
-64
-74
85
17
-3
-127
-17
86
110
86
-62
-127
-67
-18
31
52
-95
45
-42
-72
-47
61
-26
-96
-1
6
-19
18
102
15
-5
8
54
-67
-95
127
-51
28
-19
19
118
100
7
-71
-89
-20
-11
17
-60
45
98
-127
-89
28
14
-12
-70
6
-93
-99
83
18
26
53
-38
-92
-107
19
127
-97
-48
-110
-81
-18
113
-8
-76
25
22
-127
-99
-4
-48
24
-49
-62
-97
20
-127
127
34
44
-58
-116
33
12
-106
-83
91
73
85
-38
-48
74
-15
20
-56
-66
14
58
62
-90
42
95
-127
-92
45
121
53
44
48
-19
44
52
-80
-1
20
10
-18
-127
31
18
-10
-63
54
-27
47
71
87
23
-10
42
21
27
-1
-69
-10
-127
64
-6
103
67
98
22
-27
53
44
-115
-111
-15
69
-82
-16
47
127
44
-67
83
12
63
-79
-54
20
-55
48
-16
-17
-127
-9
-65
-118
89
74
54
-124
-6
-104
-127
-27
40
24
56
48
-6
-25
66
1
14
-120
-12
-41
-36
29
-127
54
-92
-20
105
83
-31
85
22
-6
-90
-97
-15
-83
-39
-83
-2
-74
-79
6
123
127
-11
-38
-9
-85
13
-38
94
-5
108
59
58
-37
-65
99
-122
-14
-127
-46
80
-87
107
-8
-78
33
-81
95
-17
-61
-6
126
11
-60
-40
-53
-39
46
127
-23
-102
108
88
-43
-67
21
-58
-62
6
65
-127
67
29
-40
-5
-119
-40
44
-59
89
25
50
-127
53
-5
-5
-105
100
29
-119
-67
68
13
-107
-42
43
32
77
29
-21
-28
17
-3
102
-50
-67
26
105
3
-127
-59
-19
-115
12
44
21
-127
62
88
51
58
-30
55
-42
-18
60
-48
-31
-44
-104
-127
63
127
-14
82
-40
-67
-78
22
107
102
16
5
-98
-14
2
6
-38
3
-2
-110
6
26
29
49
-23
37
-127
36
-127
28
37
-18
-35
77
-27
-93
13
71
-37
9
-9
72
70
-22
40
57
-74
-75
99
-58
-64
46
35
-52
-97
98
-38
127
-11
-87
-25
-33
-84
-56
127
63
116
-32
-77
-23
8
83
42
-35
7
9
125
38
-16
1
-3
-69
-127
-6
60
0
-71
-31
-74
-57
70
-114
127
51
11
-78
-9
-4
35
-26
-74
79
-86
13
-60
15
39
-76
127
96
116
-35
-46
54
3
-18
23
6
51
23
-38
-48
3
4
-19
2
110
54
23
-41
90
45
48
-51
107
34
-127
-2
38
-17
-26
17
127
-63
19
37
-12
8
88
75
77
27
-81
12
67
92
-46
-28
36
-116
-36
66
33
-64
12
127
51
-40
22
39
37
-28
4
-8
6
9
35
63
-34
54
1
86
63
-13
-127
46
-65
-45
-18
12
28
-48
55
42
-21
61
-5
-46
11
62
-107
127
-64
127
56
81
-52
-41
34
25
-65
34
26
21
-61
50
-9
-61
-89
21
-4
127
58
67
107
39
32
-100
18
119
121
106
-45
-105
-76
42
-21
-29
-16
-10
-1
-24
40
-72
-127
98
-97
28
77
120
56
127
-90
50
-13
114
50
101
38
71
-23
-54
62
10
-69
-18
3
-75
-48
-43
-9
21
-55
-102
76
-31
30
-22
-31
48
-127
-90
-10
106
-66
110
127
-97
104
95
80
-73
89
-17
49
47
-104
111
40
81
18
38
-13
-2
34
-28
39
-36
-4
-65
42
-7
-127
13
-6
50
-25
-16
-21
-54
-15
-50
40
20
46
60
-38
-127
-33
76
105
57
48
30
12
8
20
30
55
58
-48
-14
-127
37
-51
20
-3
8
-39
-62
-127
-2
2
15
13
45
16
-17
-116
11
29
27
-29
82
-20
-37
45
78
127
84
48
25
-56
-91
-11
117
17
89
-11
-64
-117
70
82
9
-13
127
-118
37
59
117
54
-76
-26
-55
62
-76
-52
-55
19
62
79
43
-89
-53
-7
-27
43
127
-9
68
-66
-26
-30
25
-53
-34
21
88
93
-107
-99
29
-52
69
127
69
-64
127
45
-73
74
100
56
-50
-12
37
90
-59
-91
29
30
-56
62
-69
-22
-111
-97
20
-37
-13
127
57
45
-14
57
-21
16
93
46
-127
-18
-37
34
15
-65
-16
-47
-41
84
37
-107
-90
26
-54
-24
-30
-35
1
-30
-53
-16
0
-26
13
127
-64
-39
22
-26
87
-75
-19
-127
-116
-15
117
84
-37
18
50
-33
-102
40
-44
21
-30
28
-10
49
-83
49
49
55
23
59
81
40
57
46
4
-30
121
127
-12
96
61
-12
-92
100
122
85
9
-127
-58
-13
11
24
-30
46
-35
-127
-26
-78
-28
-92
15
59
-56
-93
44
-40
33
6
86
-90
11
-8
7
-79
-59
2
-27
89
31
-87
127
-42
70
-32
-41
-112
-50
-33
72
-59
49
-106
85
-65
-31
-19
-22
63
-127
45
-9
11
-8
-2
-59
6
-55
36
-60
-118
-59
75
-97
13
127
-88
-42
-42
-53
24
-4
17
-15
-27
-127
45
37
-68
-16
-56
51
28
4
2
-110
-95
111
-63
-28
83
-110
72
68
-63
7
-127
-107
-11
35
-119
-62
53
-49
20
25
34
71
-75
39
70
-73
83
-37
-10
-127
-50
-41
-6
-54
-11
-17
-21
127
16
118
-37
-101
-41
107
-60
-55
4
17
-23
-46
-127
-17
7
8
34
69
-95
-79
-74
13
-25
-10
2
125
-17
-121
-45
-127
58
46
75
-38
50
-108
127
-112
-26
-78
-105
39
-44
27
78
-125
-7
-58
95
-34
-38
-5
66
-59
-12
127
121
-48
0
55
41
-19
-11
127
36
59
41
-7
86
-1
-13
-52
37
-36
40
51
51
-127
-40
50
-4
-127
-44
67
-29
-30
53
-101
-2
127
53
-31
39
6
-7
-31
-18
-12
-47
-45
-42
-1
-51
37
-27
11
27
-127
-83
-24
36
-16
99
46
-37
73
-35
7
12
25
-1
73
-57
48
85
40
39
-48
-48
-127
36
29
-97
66
-18
60
-26
6
20
-21
-40
-20
45
26
61
-42
83
-127
-69
7
-54
23
0
119
-29
-8
8
-53
-52
21
-49
-126
24
70
-16
-94
-127
28
126
-98
84
-127
69
77
23
-63
-7
64
-53
-9
110
-72
-15
88
40
-40
-12
-25
-61
20
73
-67
7
-16
89
39
6
33
14
127
-67
0
127
-9
26
9
62
29
62
-6
4
-122
-42
33
35
31
-35
45
-13
-47
8
68
61
3
-120
11
127
-18
72
-25
0
42
7
-6
127
74
-49
-76
75
15
0
26
29
52
18
46
17
-59
84
