-3
-15
-34
-11
-5
-57
-38
7
20
35
-39
-7
127
28
9
-76
-122
-37
11
-69
-87
-114
-25
-123
27
-89
79
24
11
-15
-46
12
-46
42
-62
-58
13
-20
103
-3
55
-31
-127
-23
-17
55
41
10
70
11
40
55
73
-41
33
11
-95
49
-21
44
-32
-15
1
104
-73
-20
77
-48
-62
-42
25
-78
20
-21
-111
3
-40
-54
72
-51
-69
-35
-58
-127
-52
-1
-32
4
-85
-102
-50
18
92
24
-5
41
67
37
120
19
75
65
48
-58
-11
43
94
-64
48
-62
3
85
-17
-29
-89
-110
-55
-1
-42
-88
78
-18
-28
-127
-12
-104
93
53
-16
-10
31
-16
42
61
-29
-20
42
127
-29
27
-63
41
57
50
16
-28
17
-22
51
12
90
-9
-15
-115
27
68
-11
28
-44
14
15
13
-17
22
127
-21
-13
58
-110
-70
79
-8
63
27
-93
-14
4
36
27
-53
-100
-21
-15
-18
10
33
1
-15
-2
-55
-45
63
-122
71
-59
-48
17
50
123
-75
-43
-127
56
-84
-39
-88
-11
-81
59
-54
40
105
62
-30
-56
30
-103
-2
-33
-17
-8
54
-68
79
-61
108
37
-117
65
72
71
58
55
-48
-96
35
47
65
-38
11
41
48
-36
37
-48
-11
-72
66
-127
-62
0
62
-28
41
43
-19
2
38
-73
94
-22
13
12
-7
-4
29
-16
16
-18
-52
-7
-19
-4
20
-63
68
46
17
41
-58
127
-81
-26
-35
39
-61
-48
-22
26
-60
-108
-6
33
-33
-3
-70
-73
-30
-24
41
85
-43
-81
-19
104
13
55
-127
93
-2
-37
-24
22
-24
-15
-81
45
22
101
-25
29
-109
65
-5
-31
-83
-13
60
86
-55
48
-9
-3
16
-98
-59
-45
-1
15
-67
31
36
-30
-28
73
35
31
127
33
-114
100
-17
-13
53
-36
-127
-48
-15
2
24
23
8
-38
-7
-45
0
71
-53
51
26
-63
67
-35
-29
-80
52
-80
9
50
30
-30
-53
-27
40
72
29
-90
119
28
55
-5
-85
83
-99
-2
-127
-47
55
-78
54
-31
85
11
-19
-93
69
26
-49
11
64
33
64
-27
-97
33
-95
14
34
-60
46
-46
96
30
11
-10
1
5
122
-62
15
-4
-95
-40
127
82
92
-109
-35
97
36
47
69
-91
59
12
90
-20
67
-12
127
108
-47
70
-54
21
-81
-10
-59
8
63
115
51
-21
-36
27
-118
2
100
15
-108
-90
-27
-5
-105
-45
25
112
-32
71
76
7
85
-12
30
50
87
-104
-28
22
4
-47
-35
-62
-91
79
-24
27
62
-88
80
70
-82
-57
-102
18
96
-23
31
34
127
15
-61
23
9
55
28
-88
27
7
-43
-21
-29
-38
-19
-59
-71
-40
104
18
33
30
47
-8
-40
-24
-127
-59
8
26
-8
19
-60
-1
6
2
55
-108
89
-89
-64
13
-15
-66
13
26
-37
-66
23
28
-88
72
-21
7
126
19
-15
49
36
-3
-60
31
14
127
-44
48
98
127
-79
-33
53
51
80
68
92
-86
-71
-32
-38
41
-76
-84
46
-73
80
41
9
-65
52
44
48
60
11
-36
-20
-18
75
92
2
4
80
5
17
57
-24
-127
-94
48
-1
112
-25
94
-20
-76
-87
-63
68
75
-68
-102
4
-10
85
-73
-71
87
118
-64
118
75
85
123
-25
-79
-31
-56
21
119
-6
-122
-127
44
-71
109
95
-124
-50
-48
-64
-8
106
-12
50
8
18
114
76
-8
64
-87
-43
69
-31
-37
-15
31
127
-49
-115
-87
-27
79
-1
-74
94
-8
20
-80
-6
-108
4
27
13
-69
54
-32
-82
89
-106
-82
46
4
-88
-75
-20
-81
-83
-127
-8
-19
-15
-40
-56
-124
48
51
26
-4
34
-91
30
43
-60
-89
-23
79
35
41
69
10
-29
127
-42
1
-75
32
36
-82
-37
-31
-17
-56
36
-18
21
-63
35
-21
4
-34
60
-15
96
91
96
-61
-32
-14
8
40
-20
20
38
-21
48
31
127
-28
4
-36
37
75
55
-97
85
-41
5
-16
-36
-9
17
28
-110
35
-14
11
-14
-66
-108
-43
-35
-77
-127
7
21
31
-69
-34
25
19
-16
31
-127
7
-25
-78
-45
-55
65
-17
-6
31
-71
-42
34
13
7
33
121
-49
1
-73
12
35
-66
-39
-2
14
-19
27
37
-21
71
-22
71
-108
-127
69
-55
24
52
-45
2
2
25
47
-68
88
-39
-17
82
70
-20
-66
10
-97
33
72
1
-39
-24
40
-119
-49
126
65
-62
65
-16
0
7
42
41
-28
-127
55
-65
68
-63
-5
27
-26
-48
112
-1
-55
-44
47
66
66
-46
60
73
-22
4
-100
8
48
-80
-45
52
18
-32
-33
39
-15
-2
32
92
127
55
56
-48
-24
-22
-41
61
-37
1
3
-22
-51
4
51
26
-106
-83
-67
48
-3
-16
-40
-35
53
103
28
33
54
18
-55
40
-53
-99
50
-53
40
-127
7
58
63
43
-58
29
-15
24
-55
77
35
21
-60
1
3
106
-76
9
-3
56
39
-20
63
118
-25
22
127
77
-34
56
17
-65
46
-22
-28
11
-2
-29
19
-53
-51
68
-55
5
102
-105
5
62
-9
37
47
-29
18
79
-9
48
-29
-1
127
-60
-14
40
1
-57
15
59
44
52
-47
-24
33
-39
-47
45
26
-68
55
-33
22
-10
39
-33
20
-29
10
81
-91
-108
54
127
-79
0
91
-66
-83
58
-54
-68
19
29
28
10
-56
58
55
17
47
-47
0
-37
6
-53
-35
54
71
31
5
42
27
22
56
1
-27
39
32
-26
-117
4
7
20
127
-35
-20
45
104
0
-62
-10
-46
33
82
-42
114
-114
122
-79
81
-64
97
104
-78
-60
-15
20
93
-122
71
-127
-38
63
-118
-86
-87
61
-17
-123
96
65
42
-40
27
-31
90
13
60
1
-34
40
-118
102
46
-127
-52
53
-57
40
-117
-120
49
-44
44
24
-64
45
-8
31
43
-25
-13
125
27
-23
24
91
-47
-39
75
-3
-37
73
43
-47
-33
-35
65
-35
40
6
127
-44
26
87
-65
0
15
-53
-58
-5
-51
-51
22
8
-1
14
70
-10
60
3
-44
-62
17
23
88
8
66
21
60
-6
21
11
-68
2
-127
37
-64
-35
4
21
82
71
54
2
15
-42
-85
-56
-44
67
-25
-16
-75
67
-39
82
22
-52
-45
12
-7
113
-14
46
16
14
-127
59
-86
53
-40
-3
-23
7
29
4
-89
-50
4
-37
65
42
12
-14
-30
-16
-7
36
69
105
21
60
-22
61
5
-29
-38
-127
-33
114
-79
-32
-20
-42
-17
-53
72
-34
-89
-33
-11
-15
76
88
53
-3
59
52
-34
-74
61
91
-117
-122
-19
-36
44
90
-42
68
-26
45
16
-1
-122
-60
-40
23
-99
-96
-19
31
36
-7
21
72
-127
-20
-61
0
34
127
-37
-57
-36
14
18
92
22
-79
-106
39
-58
112
-19
44
60
7
40
-64
36
-35
-57
-80
-25
-124
-12
-21
-23
-4
24
22
-58
-19
-45
39
7
-80
28
-96
28
-2
-14
31
-72
15
72
3
-35
-52
127
-10
-55
-22
-14
3
17
-40
-3
7
76
-43
3
20
-14
-67
40
28
53
-69
25
70
-50
46
-45
35
127
-34
36
38
-23
-21
-41
45
-26
32
-35
0
50
-4
-18
13
46
19
67
16
-41
82
1
80
-30
91
-78
127
117
116
-109
51
-67
25
-85
44
-50
74
67
11
83
-65
-107
8
-67
26
59
-9
-62
-60
-86
-127
45
17
-36
-49
22
-53
98
3
-6
73
28
-51
126
-20
27
32
7
1
-46
-100
41
-15
-31
39
16
2
-5
-34
-60
-118
-28
-72
-67
-83
12
76
-40
-13
-54
-127
-63
59
-19
29
63
70
-10
11
55
-52
-40
-49
12
-83
-69
2
-15
-22
96
-81
-108
100
-63
43
-64
85
-64
4
34
-12
-71
-57
-44
-29
-14
-127
-65
20
96
-38
-34
-29
92
-48
-40
-3
54
71
-23
-31
40
127
-63
-50
-67
37
-79
109
-47
3
-80
-127
21
49
-58
-46
27
-29
31
-26
-34
21
-28
-82
76
-19
27
-80
-77
-87
50
-107
-87
63
-25
-45
-39
-44
-26
106
-15
44
-2
-98
-10
97
36
22
6
-14
79
-58
-10
2
-28
-85
49
127
71
-16
-72
-31
102
-54
16
-3
31
-34
-68
43
85
33
-68
-14
50
6
16
-6
-117
127
-32
-42
2
-19
38
-41
9
-38
70
88
-92
62
-82
-5
28
125
20
24
-79
45
47
-89
6
-32
11
31
8
57
-5
-108
-5
50
22
124
46
8
-64
-41
109
-7
77
53
-28
10
-35
10
63
-35
-127
52
-76
-82
-118
40
24
32
-127
81
81
4
-65
-93
-97
18
-29
27
100
-10
-42
6
50
-9
44
-66
-15
-46
-50
26
23
15
-23
-72
-14
-21
99
-55
-19
-80
58
-49
-12
-72
-45
-127
-57
-127
122
-41
11
-50
7
68
42
16
32
-12
6
-34
-31
42
-116
-14
33
-38
9
74
-62
-26
15
3
-13
-4
55
1
127
39
-63
-49
5
-18
64
-2
36
41
-29
88
61
31
-36
-14
-94
80
9
-52
101
49
-40
-28
-73
-45
-61
-97
-72
17
5
35
21
91
51
-24
-47
-59
50
35
-6
60
-59
32
-95
31
-19
-33
-74
-36
3
67
127
13
20
38
97
-127
18
-19
-71
-25
17
-15
-80
25
-16
-96
34
-16
-98
43
5
28
93
-29
-98
-41
31
21
-22
55
-62
60
27
-39
22
70
-60
-37
-8
50
51
80
-58
12
-51
3
17
59
56
50
-22
67
-5
127
-26
86
93
36
-116
-71
25
20
-57
6
12
-19
33
37
-26
-38
8
-81
108
116
-63
4
17
-28
-1
13
-59
-63
-13
-61
-24
18
-34
51
32
-54
-4
-36
127
-114
61
66
5
103
60
-23
-20
4
-93
-54
-6
31
-91
10
61
40
3
-18
-45
-106
127
-73
-19
-52
30
34
-46
80
-30
80
-35
9
74
52
-31
-22
15
-34
80
121
-64
21
37
-19
127
-68
70
-29
-112
-8
34
-74
59
-61
61
82
37
-56
125
-44
-35
-12
-113
-7
-6
-30
102
56
25
-70
42
47
49
-3
-55
-35
90
85
23
-40
-92
46
54
4
9
-51
41
-72
74
85
31
12
-15
-79
-127
-39
42
-23
-32
24
-28
-16
25
17
-1
-56
22
127
-63
-30
-19
-74
52
-17
10
-8
10
-74
-1
-22
-10
20
9
-33
-49
-21
-2
9
-8
66
-28
9
-28
45
-10
-122
-127
120
-41
74
33
48
-56
28
-46
-8
32
-51
10
13
5
44
-75
107
-14
-16
2
-50
-36
13
-5
-39
-17
-20
100
-91
49
-2
-45
15
-37
-12
-63
30
74
-43
-54
-28
-86
-71
-17
-127
-23
-10
-50
22
67
8
-92
52
-10
-46
65
59
-24
48
-58
42
-84
-35
69
-80
-20
87
63
20
-113
5
93
96
-14
47
-64
47
57
49
-8
29
127
-16
-3
-79
105
-61
-69
-55
-81
-122
-53
69
61
78
-63
-66
66
0
-72
16
-18
127
65
26
-26
-14
36
-53
-122
48
-88
-47
-74
101
-11
48
125
-58
-47
-31
9
78
-80
-58
7
-44
-55
1
22
30
47
-14
67
11
-98
-97
-51
-3
95
-63
15
102
-88
-26
31
-127
-80
-20
-87
39
38
-61
-7
105
78
-40
-4
24
-35
-67
-25
-46
-55
1
-47
-20
-15
-11
108
45
1
0
-17
-81
-14
53
-127
59
-67
58
-63
-81
40
54
-21
-14
-6
11
46
-1
43
-69
49
-46
-8
-57
-43
-81
-14
28
-12
-15
-43
66
127
-27
25
-10
11
-49
85
-15
37
101
56
64
-8
56
-9
-22
-32
50
-36
-15
24
24
48
35
43
-96
-31
-31
-22
-127
-2
10
-13
-80
-47
-56
102
-47
38
-51
-70
37
-87
20
-24
46
61
-40
4
127
-65
-6
-1
103
-35
20
-83
-35
0
45
-4
79
-3
-6
26
-39
-18
92
78
45
-66
-78
15
9
-21
-35
40
-7
-34
-7
56
-1
-57
22
-58
89
-68
-127
-21
7
-75
-53
-69
126
36
5
47
126
-10
-9
-37
23
34
-15
81
53
-26
48
57
0
-43
47
6
-52
66
55
50
-63
108
-3
-98
-115
11
0
64
3
-127
42
58
-31
30
32
25
-49
102
-17
-30
41
87
-31
82
14
-16
-28
-73
30
-6
-59
-60
3
19
-39
-110
-20
-21
59
40
-69
-32
-44
47
-52
127
-73
44
7
44
-85
-14
-67
-71
23
124
-47
5
52
-81
112
-24
24
-17
17
58
-119
-42
93
-11
24
-42
-23
-40
-88
-31
-51
-127
-119
-21
68
39
-53
-2
-1
26
-119
101
15
-43
93
39
18
-44
-64
-31
-38
35
69
41
61
-10
-8
26
127
-46
-97
30
89
72
50
-78
-1
-63
28
-63
-14
-14
-8
33
60
4
-53
72
-53
-37
68
-91
-73
127
32
89
-48
21
69
60
-86
-102
77
-97
29
96
16
-119
17
9
-88
-15
-81
80
113
69
6
-41
-7
72
-4
-13
21
19
-35
2
-31
14
-19
32
-32
38
-54
-14
-28
-70
22
-46
-31
-71
-99
86
-127
-56
39
-50
11
1
-66
18
-40
-18
127
71
104
17
3
94
18
71
13
54
-1
35
4
-23
73
8
-13
20
67
-21
34
27
-65
-72
17
-7
46
-68
7
22
31
54
112
-53
-7
37
13
-127
13
35
-14
39
-60
24
3
32
-102
33
-18
-71
-44
19
43
-97
-49
15
-50
-119
-5
-24
-54
38
82
-25
2
35
23
57
17
40
-53
-77
-70
77
26
2
14
-19
25
-47
55
-3
-41
65
-52
55
-127
13
-79
-104
56
56
-23
-80
120
-27
-19
-22
81
-39
-7
-49
-105
-23
-55
-26
-68
1
50
39
75
17
-49
-127
66
46
46
-43
-27
50
-49
43
34
15
-44
-58
46
102
30
-73
-81
37
-56
127
7
89
-42
65
94
-39
61
108
-20
-73
-60
97
65
60
8
119
-40
36
28
-43
103
-4
18
-99
13
59
-55
7
127
-98
-79
-46
-53
-45
-92
3
70
78
-77
-110
-3
-105
-15
92
-24
20
84
-82
73
-39
53
7
-83
62
62
106
83
-45
76
78
127
47
1
65
11
0
64
5
118
-80
61
-79
71
-53
-9
105
-2
-31
-10
39
49
-57
-91
-106
82
-41
55
77
-43
7
78
-96
33
83
-21
39
-62
-28
61
85
127
21
56
-112
-23
-76
-45
52
58
-116
-19
32
5
71
50
52
-125
-90
114
-90
45
9
-10
-116
65
50
-35
65
-18
43
58
-127
18
-23
-92
77
40
81
22
-65
-72
-66
29
83
22
21
-63
-23
-95
67
44
7
89
-31
-36
-12
68
-60
80
-53
2
-5
15
-38
-39
87
84
0
-10
11
127
-48
-32
-17
3
40
18
-39
7
-9
47
1
-11
37
50
0
44
25
13
-10
-44
-67
-5
-73
-17
68
-34
108
-50
69
-8
-127
-42
25
-20
-46
72
-4
-69
63
-85
-50
45
58
24
11
9
70
59
21
-127
4
80
-21
18
47
-48
-35
-46
17
-45
15
69
107
-101
-79
24
-64
10
-78
-47
17
-120
-2
-18
13
-98
-5
-8
-50
-23
2
49
-95
-127
-58
-20
-19
-89
16
-30
120
53
11
43
-66
-77
-2
-11
51
-72
-64
-18
-60
32
18
5
49
-95
49
15
-16
-24
19
-15
-85
74
63
-9
-12
43
82
108
9
47
8
-45
-26
-29
-28
10
98
127
38
40
-7
23
32
40
38
33
1
-64
113
-90
59
-10
38
-32
47
5
-127
-48
-63
1
4
20
-62
4
51
-19
-70
-38
-39
-69
30
55
3
53
-35
-47
-93
13
14
-80
27
14
62
-9
-80
-52
-25
76
-106
-56
-83
68
25
-127
7
-38
28
-1
113
42
-32
56
61
-35
-72
-103
-3
28
30
-91
-74
-96
80
24
9
-49
62
44
13
30
64
54
5
-56
-21
-49
48
-46
-27
4
-1
13
-25
100
-62
42
-35
2
95
56
-71
60
-127
2
-56
-96
37
-10
-25
-71
60
-31
-95
95
127
-7
81
-46
29
-46
-81
12
-54
74
-68
-70
31
20
91
-35
100
70
-1
16
41
-110
-119
-14
9
76
-58
13
26
-23
-52
-123
-71
58
-15
35
98
76
-85
-45
90
-61
-3
-13
-67
-35
-44
57
86
-26
53
-127
-71
-36
-9
0
-25
50
-48
-23
-43
-37
-20
-33
25
16
34
48
3
64
81
-46
63
15
-47
32
57
-41
-15
118
41
-127
92
43
-2
-51
27
127
65
-101
-31
61
-52
-34
-15
-28
101
33
-70
46
-61
-69
103
-56
9
-59
-70
-109
19
-18
-84
-83
54
-3
-85
83
-52
-58
-10
79
-127
-109
-73
89
14
56
56
5
72
-69
50
-43
49
-38
64
-18
82
-63
-106
17
30
6
-54
-48
26
-64
-108
27
9
54
-127
27
75
-21
64
2
29
81
9
42
105
38
-80
-22
37
-33
49
-5
24
-43
62
-10
65
47
28
-37
2
-12
-20
30
-65
-33
22
3
-29
-33
-44
-83
13
-31
62
-64
-18
-50
47
127
-33
-51
-6
-40
41
51
-32
-26
80
-83
-3
17
36
54
41
34
-11
61
-7
33
-46
-15
6
-23
-13
-73
-13
-9
13
-61
-12
48
-15
12
38
-40
46
63
-27
127
84
73
-9
-78
-69
58
4
42
-126
-9
-43
-3
60
89
-12
-11
12
13
60
102
29
58
36
25
86
-69
83
12
31
49
-21
111
70
-58
-35
-45
7
-25
-37
28
-64
127
-14
98
-53
-86
-58
-15
-15
37
-15
58
35
105
21
-81
127
27
-44
-3
-20
-5
-4
80
8
-89
-46
-7
-2
54
-97
-21
-58
111
-19
98
59
45
81
15
24
-60
-43
-13
-51
14
48
51
-4
-34
-21
-17
73
48
-49
41
-56
56
-15
127
20
30
8
-16
100
-127
-97
-21
-34
14
-33
-76
-1
-23
13
101
-84
52
72
-51
-50
-127
69
-100
-63
-109
45
51
11
101
-16
0
-46
100
28
-87
12
93
14
29
-122
-86
32
20
-42
-36
-91
-6
-69
22
73
-71
54
54
-2
-53
10
8
-57
63
-26
66
-127
14
18
28
110
59
-69
38
31
30
-30
53
127
77
65
-80
-83
20
-60
78
100
8
-58
-46
-54
-23
12
59
-24
6
2
40
-15
-45
-16
42
-13
53
-66
44
57
23
75
-11
2
5
-10
19
-58
-11
-52
-6
71
19
0
-23
4
-23
-40
-3
-77
45
-6
42
-19
127
-26
28
16
7
28
-71
127
-24
18
-23
53
52
-22
-19
-74
2
65
54
44
6
-32
62
-54
23
5
-43
-29
-73
68
14
9
-33
-6
-10
-68
87
5
43
-81
109
-70
-127
-28
-19
-24
30
74
0
20
-59
46
0
-25
-38
67
-7
5
3
-64
-55
7
45
-76
37
75
-29
-71
-55
-90
16
35
31
78
-43
-118
-17
-66
63
45
4
28
-67
-9
-63
10
127
-93
-26
26
5
0
48
-3
9
53
14
-105
2
8
-78
114
-84
-48
85
-85
-28
49
-18
65
80
-1
82
-1
77
-33
-30
54
16
79
-43
6
-26
-10
64
-18
-10
-45
-44
112
24
-7
-48
-127
65
-5
51
-32
-19
-3
64
-90
47
71
-28
-101
-90
40
-4
-96
-18
28
-46
-82
33
10
-10
-33
-60
-84
-30
-29
32
-42
-2
-127
10
-3
33
1
-115
51
63
-67
-46
-12
21
-59
58
-34
127
-45
-71
97
-45
26
3
-34
3
-126
76
-19
-45
-48
78
46
-36
-22
-53
-63
83
14
2
88
-37
-16
127
-50
58
44
-29
-15
62
43
-10
-97
86
69
57
9
-52
-79
-36
14
34
-23
-6
-50
-21
106
103
58
58
-59
99
-20
53
-28
1
-115
-111
-8
-29
46
51
48
-107
30
-44
53
114
-36
59
-24
-3
-127
-43
-108
-77
2
42
-20
15
118
-85
32
27
-2
78
5
-64
-24
40
12
90
-43
-127
-43
76
-119
7
-63
-24
37
-42
-5
-60
4
28
-7
-106
-55
44
-1
49
40
-58
-5
1
-26
109
15
88
13
33
26
16
36
62
41
45
-3
-10
-52
2
14
112
-56
61
-127
-23
26
35
-68
41
64
4
-41
-27
-69
-43
60
-24
3
-37
5
-78
-57
-30
11
-33
-37
-26
5
53
35
-115
16
-2
16
-127
-12
-83
-57
69
-11
-2
38
-34
40
80
-28
24
-13
59
55
32
46
-36
-91
15
-30
-68
6
10
-22
-13
9
-11
-7
-85
16
15
-127
44
35
-23
20
-17
20
1
40
-9
-30
-116
85
79
25
-36
-85
2
-15
-8
-71
45
90
-25
82
24
-40
-54
34
41
-81
-123
82
-66
39
88
9
-20
-127
-38
72
119
-50
98
115
-65
52
-127
-72
46
-36
-2
-29
11
-40
29
-54
-79
-44
-20
-27
-19
23
14
-32
47
-55
9
120
-41
42
-6
-111
-82
-28
-28
-127
48
-56
51
14
-30
77
118
-68
-5
-11
-36
21
-8
48
-14
-79
-32
-72
-36
-39
-13
70
-34
82
-6
20
26
48
35
5
-91
-70
38
6
-30
98
-20
-80
-61
-18
34
88
22
-89
52
93
-18
-127
19
-33
13
70
64
21
117
-3
16
55
58
-54
11
-37
-101
-54
-44
99
101
24
53
-41
-116
-62
69
44
-6
10
-7
-49
-46
-110
-6
-127
48
-35
-4
-69
27
-123
36
-58
14
-29
-69
74
-51
19
19
-26
7
-89
34
17
-34
-13
6
-75
29
-18
89
23
-7
-8
-67
-34
18
51
-2
29
23
-1
0
127
57
60
-71
50
-67
-31
8
-4
67
2
-127
-15
77
-60
-120
-92
-66
61
9
71
-103
-12
63
-31
-72
-40
-77
32
55
-94
-82
-93
121
-57
16
-7
50
15
-10
-7
11
-49
61
89
18
-83
10
0
-64
-36
-41
-16
-89
-60
41
11
-127
21
-31
6
-19
-7
26
-1
96
127
10
-14
-36
46
-20
97
-4
48
-19
-42
20
30
70
-5
-114
21
4
-34
27
-24
-45
5
-6
46
92
19
-35
-8
-51
25
-31
25
-5
53
32
42
123
16
-82
73
30
85
-87
-22
-81
86
-56
127
-68
-36
51
-1
-98
-52
-30
-5
-86
-16
-39
7
-73
-40
-13
75
110
-85
14
-84
-89
99
-38
77
30
77
-10
28
16
31
-18
-85
15
120
112
8
114
-111
28
4
53
127
124
-40
-45
35
37
-57
52
16
18
-58
-44
75
-29
-57
-31
48
1
-14
-38
-42
-36
-10
103
77
18
-28
83
-2
127
-13
40
-74
0
-28
118
-17
-39
-31
-96
-32
37
99
61
-40
-16
3
63
-28
81
-3
115
-60
-14
64
108
-127
-47
-69
-24
43
6
106
16
-24
6
22
33
-18
30
5
-41
86
19
12
-65
-45
-3
-7
-83
-6
16
-67
-7
90
38
61
52
2
28
-43
58
127
77
43
11
-41
-16
40
-24
48
3
-56
-37
41
-38
-7
-20
11
37
73
8
58
31
-51
10
20
-44
1
4
-43
-19
14
-54
4
-67
51
-6
127
4
38
65
-4
-24
-105
72
15
-5
-127
59
-10
-68
-13
-84
-64
57
57
-101
-3
116
-76
97
54
-16
82
-17
14
-69
-25
-40
14
-2
-26
-13
25
80
6
67
-84
47
-102
21
-9
7
-124
-48
-2
46
24
-2
-59
42
26
21
127
-80
92
21
-43
7
1
5
44
6
-51
24
33
-69
69
97
18
-108
-1
72
-26
-55
-87
-52
-109
39
42
47
18
8
102
50
61
127
65
25
-28
-45
19
108
-10
83
-58
17
-72
-36
-29
3
-12
-38
-53
49
123
-67
-78
11
106
117
-75
-41
-58
-127
93
58
-107
124
-1
-71
-123
-84
69
45
43
49
15
2
-24
-118
14
-89
54
-28
-15
-62
-3
127
-22
67
27
8
42
118
-76
65
14
82
-80
-82
-39
-11
-80
-40
-102
-6
-50
6
-60
43
-4
52
45
5
-108
60
-44
-17
70
22
-55
1
91
-35
-50
-120
-32
65
58
37
21
-64
41
-127
19
57
-58
-72
60
-99
42
6
112
43
22
-18
-10
-29
-38
127
-1
-18
25
47
-24
58
82
-16
21
61
-63
24
-81
54
15
46
-21
-35
-122
-81
-86
-89
-82
-5
21
-4
69
-82
-90
69
-18
-83
-22
20
-42
-82
95
40
19
-80
-108
-30
51
-3
53
18
-42
111
10
-52
-60
-127
72
-76
36
23
-40
108
78
-59
-33
-16
48
127
-25
-46
94
69
-33
61
-31
38
61
33
87
32
64
-72
-102
24
109
-88
-44
72
-22
-93
121
44
-13
1
-28
53
102
12
-18
9
52
-22
25
-20
34
22
-113
0
83
27
-46
27
14
-59
-96
-13
78
-72
-26
53
-31
-54
58
-127
-77
59
52
-85
6
50
11
-32
-56
27
-47
-74
127
3
19
-91
34
-77
62
61
92
46
86
30
22
76
4
-41
-66
-9
-15
-60
30
119
69
-13
-35
-11
85
17
47
-77
-48
102
117
53
-22
-18
66
78
-106
-30
33
-80
-127
-94
53
-85
-45
30
40
42
21
-108
66
31
107
32
-50
-52
60
-46
-78
-83
69
-53
53
59
20
38
121
-9
-114
-69
23
62
62
6
-71
-74
-56
47
-83
-125
38
-91
127
-93
-28
-96
3
85
-68
27
24
127
23
13
-35
101
-1
77
-49
-106
59
-41
97
109
-19
25
-59
-46
-46
43
-74
17
-3
-1
1
-35
58
66
-38
1
32
57
-95
57
-35
-28
43
28
-37
-69
26
84
50
-18
-77
70
11
13
-75
-63
-44
39
-127
-59
68
56
-80
5
-67
-48
16
97
-29
-63
15
41
-13
-25
127
18
-62
-24
71
-80
62
26
-53
60
36
-14
33
1
-45
-14
-39
-16
86
-84
76
88
-67
53
-12
-63
35
11
84
52
40
-20
1
59
78
39
81
-29
64
-47
39
127
-39
-83
-103
-11
-46
12
100
71
23
-112
8
68
27
56
70
-2
31
72
62
44
-51
17
40
92
-48
-17
-118
3
16
-42
62
-37
38
46
92
29
-7
46
-101
0
36
57
127
-14
-77
11
55
36
-4
58
-29
-47
6
-67
-3
47
4
-62
0
-110
-48
-62
-124
25
-3
91
-40
62
4
-117
126
-85
23
127
90
-69
-76
58
-82
-52
127
-18
-49
-11
50
90
71
-5
-39
-10
-73
68
41
29
31
-14
-82
-4
36
-9
6
104
5
-18
32
-61
-43
102
-35
1
24
58
-41
-69
-24
-85
83
-74
-68
-30
-83
-104
127
-49
-10
-61
58
37
18
-30
85
74
97
7
-46
83
-70
39
-79
43
-4
-43
43
16
31
-14
15
-123
73
-127
1
67
-25
91
99
-71
43
84
63
-66
-19
65
63
-77
79
43
36
-49
68
65
-80
-97
-79
48
1
6
14
16
14
-27
48
25
42
127
-39
-24
48
-31
-53
84
-28
30
-25
28
53
-101
30
-21
-95
101
-109
-19
4
12
-19
-69
2
74
15
-7
87
-35
-18
-30
9
54
127
47
64
60
19
-29
42
-88
-2
18
-44
-127
-59
-2
41
-125
-84
-99
-117
37
-126
107
-36
27
127
116
80
-13
46
-92
-100
105
36
39
-54
98
-48
-94
-90
46
-18
52
-24
-44
-60
-105
93
-38
76
53
-41
44
66
-2
-32
-81
1
-28
83
51
23
-50
78
32
77
-53
6
-72
26
62
17
11
30
-25
37
-60
79
46
-30
103
72
-38
-105
127
57
-99
-34
-27
11
93
9
67
-113
-17
65
-9
-59
-15
-55
-73
10
45
-41
11
-39
-59
43
-92
24
27
84
106
-27
127
62
75
-88
-44
-127
-26
21
16
56
1
5
23
16
21
-6
-22
26
-66
40
72
-12
-41
-12
-2
-26
-52
-26
8
41
26
-14
-23
42
47
13
-67
-121
59
29
114
91
127
-60
65
48
68
-26
-55
-79
51
-29
-59
-26
-23
41
-24
-10
-11
-2
-2
40
104
-74
1
44
-78
-43
127
64
34
-64
94
31
112
88
-34
111
106
-55
-50
-36
-35
1
-45
113
16
43
-4
51
-99
-68
-125
-3
-28
-31
-5
6
114
16
36
-16
-36
-57
98
-61
32
-45
1
-76
25
85
40
7
-13
40
98
-91
7
55
109
-127
106
-58
14
-50
108
-52
-63
-106
71
65
-27
-12
17
-48
3
66
-113
27
-23
-83
42
-19
19
75
127
28
9
54
-29
55
-51
47
-90
-71
45
-27
-24
-46
83
-33
-4
36
-38
25
50
-127
-25
11
64
69
-57
-39
-26
18
-1
-23
36
17
-22
43
42
7
50
60
-51
37
-35
-10
-11
69
36
92
29
90
-45
56
-122
-32
-89
21
27
39
30
-127
10
55
97
16
22
56
55
62
-21
-60
-47
71
-68
31
40
23
63
28
76
-8
-1
-30
55
-44
66
-21
90
77
-64
-55
26
-44
-6
91
34
-26
56
-39
97
-38
-127
43
57
82
34
14
29
68
41
12
74
37
25
11
54
69
7
-27
19
64
-127
69
61
-91
17
-25
110
31
-68
97
-23
-42
-10
70
44
95
-49
-50
-24
34
9
42
36
-109
-85
-26
-53
-26
-81
-63
-27
-54
-53
8
24
60
-35
43
93
-103
80
43
70
21
-127
-120
-56
55
25
-55
-20
-29
11
103
2
-30
1
83
127
63
-16
-42
-2
-108
-11
-1
7
34
-18
-51
-34
-14
-73
42
120
-84
93
70
27
-125
-75
-55
-108
42
-16
-17
99
-93
-60
-13
-16
35
-20
3
68
-79
-25
57
31
-67
62
-3
20
-88
-61
-127
-23
58
75
-75
28
26
-75
-43
70
-8
57
11
-79
28
-61
22
9
22
63
-105
-41
38
4
53
-6
-39
-43
-9
-78
-52
-30
-42
-76
12
18
-61
-73
18
-25
-50
74
-42
127
2
14
67
14
-29
16
-127
-17
-56
53
35
66
-20
15
-61
63
26
-12
-37
-1
-64
43
53
72
76
15
-16
13
-96
11
2
32
-83
93
-37
114
-29
54
-25
-12
-84
84
72
-35
107
61
32
-57
15
-105
109
5
66
-30
-31
47
5
-92
44
-78
-127
93
-22
-78
21
65
13
-24
-51
-51
-85
110
50
-3
-5
-76
-7
33
4
44
-59
-72
-127
28
-29
30
19
53
-11
-6
-65
-43
-36
-14
58
104
-26
-45
101
-91
-55
-38
72
-42
-15
18
-84
21
-79
34
-31
85
-25
50
69
48
-99
103
47
4
-60
28
95
127
73
7
20
64
4
99
-35
-23
121
-2
-127
-70
69
-40
-32
-13
-71
98
50
34
-7
-53
-88
2
50
77
-91
-23
-18
19
-74
113
-2
117
-73
-35
42
-3
-69
67
-75
103
-74
19
34
-58
-29
-25
-18
-117
-6
25
34
-40
127
3
-52
61
98
73
7
13
-120
-10
76
-15
33
-46
46
42
43
-28
57
-32
37
-57
-13
14
35
-120
-22
1
5
65
-101
-23
-2
74
35
31
6
44
-9
4
-43
-84
76
-127
-63
76
59
-23
-59
-6
64
-47
30
-30
36
66
18
-127
51
44
-33
23
57
-62
13
77
-79
59
53
-65
-63
-1
51
24
93
8
-75
104
72
-62
-24
54
-84
7
-47
34
13
18
3
78
-59
17
-42
48
21
-12
-13
-101
16
5
41
127
22
32
-75
-91
-53
55
-21
-78
-17
-4
100
78
51
101
18
-41
-27
10
-1
-33
33
-55
-41
38
23
-59
30
36
42
9
-11
72
53
27
2
-127
-72
81
-20
-12
18
59
13
60
-41
87
40
-5
4
14
32
-41
-83
-70
104
63
-4
-2
-107
76
-69
-3
-115
-127
-51
-72
-4
-33
-111
-47
10
40
-71
-105
71
74
-21
-32
13
22
46
-6
2
38
30
17
88
75
1
26
127
32
-103
-22
35
41
99
-21
37
-92
64
-48
53
51
-127
6
19
38
69
-82
-36
70
18
42
68
58
-35
42
-32
20
90
30
-4
36
-8
-28
-50
-42
-90
11
-121
-26
-67
-42
30
-22
-88
-94
75
-127
34
-45
-10
127
14
-23
-63
-115
18
57
-52
6
-51
-92
12
-7
-31
46
7
-19
49
32
-19
57
-99
-15
8
-8
-77
75
23
7
