-28
-28
16
40
-34
12
-34
49
-21
-69
29
-14
23
21
-6
5
53
-49
14
-41
-29
5
-18
61
-47
-87
-25
3
-5
31
8
16
41
43
-35
70
-35
22
2
0
-26
-39
-54
-61
-30
32
23
-44
-16
6
-11
-56
-41
-9
55
7
-53
36
46
9
-36
-4
-45
-9
10
4
-21
74
-41
-54
-15
-11
-32
65
-34
-11
-51
-10
-46
-47
-20
-27
-29
-3
50
64
11
-2
10
-22
-58
-54
110
-48
56
49
31
-49
23
57
-35
-22
-65
-9
-52
-10
15
-20
-38
29
13
62
19
-30
-83
40
68
51
-80
61
-12
-13
23
32
-66
-11
39
18
45
-8
-83
86
-72
2
81
13
-50
-17
-7
82
-1
14
63
62
-3
-51
-47
-19
-13
-42
29
54
-2
-29
79
5
36
-41
-22
-61
-28
-29
-16
-23
2
15
-31
93
33
-50
-53
32
-4
-19
-34
-3
58
127
-18
-40
-42
-44
-33
-45
-88
14
28
-17
30
-18
9
0
-90
-38
-32
-74
16
-20
14
-35
-37
-30
3
40
-71
-27
-49
-77
-5
-12
-30
-69
-5
-22
22
-11
-35
63
-49
-61
68
-36
11
-42
-18
41
16
22
-54
-39
-15
28
-24
29
7
-14
-43
-48
53
34
45
35
7
-23
-39
-26
-36
15
-10
-9
-33
20
29
-45
-6
76
15
-12
70
12
-15
-52
9
5
23
-70
1
-4
-44
56
-24
-2
-38
-91
-15
-2
-25
112
-28
-10
-3
26
-38
-30
-43
-49
-72
-37
17
29
-23
-20
-60
-16
53
-36
-80
-21
-4
59
-3
-53
19
30
-11
3
27
107
-30
-84
-46
-1
-46
-63
-11
76
34
-3
86
-42
-34
60
-10
-15
-116
-25
-26
-53
-15
-28
73
47
-16
24
-4
30
16
-27
-29
26
-2
4
-54
-2
-22
-55
7
-5
50
6
-30
-41
-58
-37
-4
-12
-50
-9
-17
110
-26
36
40
-19
-51
-8
-11
-55
-26
-16
-42
4
-1
46
-41
-57
42
8
29
-5
19
-9
68
7
19
70
24
-16
42
33
-44
-22
-49
-17
-11
-68
-10
16
-51
6
1
-24
24
81
10
-4
3
-38
35
-33
18
22
-32
-52
69
72
-40
-30
-13
36
77
-18
-50
-45
-32
22
2
-40
-27
-27
-66
-30
-30
-16
-30
17
106
47
-47
-15
-13
34
-10
-23
-34
-28
-51
13
14
-74
27
-14
28
-35
-58
-22
-103
-29
-5
-57
-1
-42
63
80
-24
-42
114
-42
-50
-54
18
-37
-104
32
43
1
-36
-16
-19
-37
-7
-13
2
37
-63
-25
6
0
-6
-47
-16
4
-45
4
-22
-14
29
-50
2
-41
-45
12
-45
40
12
37
-38
-23
-14
8
49
-60
8
46
-42
20
-17
-12
1
-26
-49
5
-58
-27
-53
-5
-44
-46
17
-47
20
-50
-61
19
52
-35
-39
-14
-35
8
-81
-25
-19
-1
-50
-33
4
21
-30
-14
-58
16
12
20
-58
9
-65
-2
-11
-25
8
-54
-30
13
-15
-11
-19
-1
2
-27
-56
21
35
7
32
13
-17
-15
-19
21
-53
17
-51
-13
-51
7
-10
5
-26
-44
6
40
-97
-32
-33
19
14
29
-7
-15
-9
-25
9
13
-2
9
28
-33
47
41
-18
-10
-15
31
-40
20
8
-36
-31
-10
35
-21
22
11
-24
-55
-66
-11
-64
-50
-9
101
5
-35
22
8
29
-18
-7
-72
28
26
-37
-37
-40
23
-57
15
-3
-26
-6
-18
-1
-17
-21
1
73
-24
-35
-39
-18
-38
-3
-26
-13
38
13
-17
20
-32
-43
-68
3
29
-33
-5
19
-13
14
7
16
25
-7
35
-19
-67
-77
-8
-35
-23
-52
33
17
-51
4
-42
25
29
7
-50
-16
65
-3
1
-61
7
-36
28
-39
12
-24
1
-34
-41
23
-17
1
-27
-4
50
5
-16
3
-9
1
-12
-13
-20
-14
-22
-74
28
-1
3
-21
-35
17
-45
-40
32
-18
-45
-50
-18
15
11
-44
-14
32
38
-63
12
-5
11
-59
44
-13
65
43
-36
26
-9
2
-32
-35
-40
35
20
-19
1
-18
-29
-34
-66
-26
-21
-12
-127
-54
31
-2
-9
-11
-10
-18
10
3
-38
13
-34
-69
-104
-46
-15
-4
-61
23
29
-21
-58
-54
-43
-1
-53
-27
9
-41
-63
-18
-39
-70
8
11
15
8
24
27
-59
-24
-3
-49
35
26
-50
3
-46
-3
-59
8
-4
-33
-70
-19
-55
-25
-45
3
55
-72
-44
4
41
-10
6
32
22
17
6
-60
25
3
-33
33
-34
-61
-5
10
11
7
-33
-12
-28
47
46
0
-7
-18
-11
46
-54
46
20
-26
13
-18
-12
-4
-11
-18
-70
-26
-100
10
19
-49
-19
-12
0
-50
-8
19
-15
-14
-52
30
-24
-16
-22
13
55
38
-19
-55
-33
-29
-14
11
-48
-13
3
11
-35
-48
-5
-57
-59
8
54
11
27
-35
56
1
-1
-43
15
4
-19
33
-9
-35
-37
-20
-9
-79
-28
-45
-15
15
-30
-8
-25
12
-2
-69
-7
80
-56
-57
-10
21
-42
-47
11
-29
32
-25
-79
-16
-33
17
120
-37
27
62
4
11
1
31
53
-81
10
42
-10
48
-36
-6
42
-13
29
49
-74
27
-25
-9
72
78
-19
-36
-1
-23
21
58
-4
79
45
-7
5
1
-2
56
53
57
47
-5
34
26
16
-32
31
11
69
48
-72
-35
-9
18
-19
-37
-24
51
-11
32
-20
30
69
-24
-11
46
0
-33
46
45
-11
75
-45
37
44
-29
-71
16
24
16
23
7
39
60
45
19
-64
23
20
-18
-19
10
57
9
60
-42
-41
12
37
33
-48
30
38
-16
29
-52
-40
-23
-14
-1
-88
4
-19
8
-45
-11
25
31
10
26
-70
4
5
-26
29
-9
61
40
34
41
-36
3
4
2
18
-81
11
39
16
-60
-18
17
12
-39
29
10
55
67
-28
-39
-127
2
44
43
-7
8
18
0
1
-8
-30
11
4
52
16
7
47
13
-10
3
-35
50
-11
17
16
16
0
-18
22
-9
-19
29
-3
-37
-11
22
9
51
10
15
26
-24
-21
-13
59
73
89
36
16
15
25
9
58
58
-67
-14
51
23
52
-34
23
-9
-4
-3
5
-23
79
-35
-53
-30
-5
61
36
50
-17
23
3
-14
-38
46
44
-55
-11
24
61
30
-47
-35
-53
-18
45
30
23
-3
31
9
-44
31
24
-10
-33
-39
47
7
39
-87
14
41
-83
62
-91
-19
-2
-17
3
-103
-42
72
8
53
67
25
-18
3
60
-19
-40
63
-9
71
38
54
25
48
9
44
-48
17
26
59
26
-51
51
53
7
2
2
-26
0
21
-6
-7
-7
12
-5
-2
-38
86
-15
33
38
14
6
-60
-48
-11
23
52
19
-26
75
0
20
73
23
-5
17
-75
-2
29
-9
26
-17
-5
18
8
-2
-9
-24
80
30
-54
-2
-37
20
10
16
-25
14
9
0
9
25
-32
70
32
11
47
-21
1
27
46
-12
-91
25
6
13
10
22
52
11
57
-3
11
5
-40
103
-41
7
-23
25
19
-80
-4
78
-20
-43
110
28
57
34
-34
-6
2
30
41
40
-5
16
-56
-2
19
3
-83
2
-37
35
-18
17
-8
58
-2
-4
25
100
29
27
9
32
6
4
30
9
-75
34
-7
-5
0
83
34
23
11
36
-15
22
62
15
10
98
-20
65
50
-42
26
-63
70
54
4
-15
-56
-15
43
-24
-91
35
42
52
21
-3
53
0
-4
-4
7
69
-26
48
-25
50
-3
-16
9
18
-39
40
43
19
9
70
-10
24
24
16
8
45
-40
45
-28
22
23
-1
-20
-45
-88
29
-24
23
-26
43
42
22
25
-8
73
-31
24
27
-3
3
25
-10
8
-26
-18
36
53
12
57
9
6
48
50
31
0
56
-39
49
34
80
52
12
-20
76
25
4
51
-52
65
-127
52
-19
-14
-14
8
-7
31
-34
-2
-3
27
43
-7
20
67
8
62
-37
37
32
62
2
3
-9
39
-25
-51
64
14
62
63
29
-5
10
37
32
34
2
2
25
76
-48
106
4
-3
20
-29
-32
15
-24
28
-44
-25
46
1
-8
35
-5
67
-24
28
28
15
29
-15
-21
-5
9
-30
-15
34
17
11
16
17
32
-29
-24
-24
12
7
-21
32
27
-24
59
21
53
65
8
-39
-108
34
-46
-15
22
27
21
-7
-9
81
4
-39
-50
50
43
4
49
64
-20
17
-16
13
-16
45
33
51
49
-23
-18
8
7
33
8
-49
37
-22
11
9
-8
37
10
58
-31
-41
37
1
42
-27
-30
-31
5
-20
46
58
-13
3
21
54
1
-50
7
14
29
-8
-13
-2
26
34
-9
17
2
107
-2
16
-24
-14
-10
-3
-29
-22
62
25
-8
-19
64
-59
-10
-13
-5
36
-12
-55
36
-69
-25
13
-10
14
-29
13
64
17
0
-9
28
-33
4
14
50
29
-30
-31
13
19
10
22
-54
46
-4
-15
33
42
47
-32
52
-9
-32
-43
19
34
0
-8
36
60
-11
63
-16
-43
16
43
0
-28
13
56
41
28
10
9
63
13
26
20
41
-36
17
13
25
98
37
50
30
-21
2
-65
-7
-43
60
5
-10
52
63
70
-2
72
11
6
21
-63
-11
46
-8
17
-19
27
51
-18
10
-7
13
-29
3
24
49
15
17
6
-70
5
27
40
15
2
-26
5
24
3
23
37
-22
-6
-50
37
16
9
-11
16
8
9
-7
-21
-6
68
34
10
26
-50
27
-23
-40
-34
-72
25
-33
-22
23
27
49
-3
-7
56
11
5
10
15
-45
34
48
55
57
-14
-18
61
-8
25
-17
-30
57
5
-6
-56
51
-21
-34
24
-9
-22
-51
42
-76
51
26
10
-27
-8
28
48
11
10
8
22
26
34
34
-40
-27
32
23
-1
27
65
28
78
-4
9
-23
11
45
-16
26
64
56
68
-11
-14
26
14
30
11
-2
-12
-56
40
30
42
66
25
-7
-19
56
-9
-6
36
17
26
66
53
4
-5
-96
-7
-10
-4
8
1
-15
32
-38
-26
32
-30
11
-44
25
30
-22
-6
31
9
38
-34
17
6
58
-9
51
-15
2
-39
44
22
1
20
-21
15
13
3
-3
-36
57
-55
-7
-32
-39
-10
-38
44
24
17
-43
-11
-38
55
16
-30
-18
-55
5
2
19
-61
3
76
15
28
-20
-58
-49
-1
-19
-74
-16
-36
10
-67
28
-13
-40
-40
-51
-73
16
-22
15
5
-18
-14
-47
-38
-81
19
2
-10
28
-18
-37
-19
15
-36
9
-18
-45
-41
-32
-41
-26
-23
49
43
10
-54
-21
6
38
20
-18
-65
25
-89
9
9
-2
16
12
36
-46
-6
-34
-52
-1
-26
6
-58
30
10
-73
24
36
-17
33
-23
20
-3
-52
-57
34
-36
-43
15
58
73
4
-24
44
-29
-22
-76
-26
24
45
-57
-29
3
19
-45
-50
13
-15
-83
26
-23
-21
-17
-16
8
-39
-37
-53
-39
-36
14
-46
-26
0
56
-55
47
-48
-17
-38
-62
67
-12
23
50
-47
-16
-27
-16
26
13
8
1
-25
-32
-67
-26
-69
4
17
12
-2
36
-50
-13
-29
-5
-30
15
55
65
-49
-18
-39
-48
27
-23
21
45
42
4
35
2
-70
-15
17
66
-8
-27
13
-10
-14
-81
20
1
-35
-30
0
7
53
9
-24
10
-14
34
-34
19
45
-80
23
-75
-63
63
8
-17
12
28
9
-73
11
12
-7
-39
-28
127
56
-6
-29
39
14
46
-38
-6
-49
37
-37
11
11
-2
15
-28
-60
6
-34
-51
-22
-1
59
50
17
-18
-6
-12
9
3
-24
-13
-69
-80
23
-36
-23
-37
8
59
34
-33
-24
-42
43
-55
-9
-8
-32
-55
-30
53
9
-13
-53
-66
51
32
-6
-1
-33
13
-26
-53
52
32
-57
29
-21
17
8
59
73
0
-42
-61
-20
-79
3
-24
8
-22
66
-63
25
-42
-4
26
-22
-30
-3
-9
38
-20
15
26
-35
22
20
68
-34
-12
-54
37
2
79
28
43
32
-11
-46
16
-33
63
12
-56
5
-31
9
-3
-40
-63
-38
-42
7
-52
27
-30
-8
13
4
-73
-22
28
71
99
-52
52
41
-29
-105
33
18
-6
-60
-4
-10
-50
37
-4
-13
30
-65
4
-55
36
-12
-20
10
41
-4
-22
8
27
3
-44
17
-31
23
44
-39
36
-84
-12
-31
10
-82
-52
24
-12
-74
11
-75
-65
5
-25
8
-15
2
69
-2
-55
-4
60
-66
-2
8
54
35
19
-4
-66
-79
0
17
14
-7
26
2
4
11
-3
49
-30
18
0
-3
21
0
14
55
0
18
-49
-40
29
10
-12
19
23
-17
-14
4
-2
0
25
0
-9
-1
45
12
12
11
40
2
14
22
44
2
15
15
15
1
-19
22
45
-1
22
13
17
-38
38
-38
49
-6
-7
4
-26
-24
28
17
10
14
8
55
-18
46
20
-36
46
1
9
16
-37
35
37
5
35
-20
50
16
-3
-15
37
-18
83
-19
-2
6
12
-1
15
-16
-12
83
35
10
60
-11
-16
38
-3
-1
-11
-10
38
-32
3
25
-12
-25
14
-23
17
-46
53
-25
-8
19
8
11
-22
42
-12
-43
24
-13
-2
-45
-12
34
17
-26
10
17
-11
7
-12
17
-10
24
-4
53
-34
127
2
1
2
-12
-29
-1
-4
44
-1
-7
25
17
3
-24
39
31
-12
29
54
0
-5
51
62
-26
48
17
19
44
-19
-1
-1
31
3
2
-4
6
21
44
0
29
-4
-9
28
20
6
55
11
3
23
-7
-6
0
32
29
42
-44
-14
40
10
-23
-11
5
-39
21
-33
40
-3
6
34
-52
11
9
54
59
-11
-9
14
20
62
27
-43
30
-34
-3
-31
50
-15
-13
-40
-17
-18
75
35
-23
-7
12
-43
-57
8
42
-8
-24
-18
-31
3
28
-49
-2
21
-64
19
0
-16
4
79
21
-32
21
31
13
-13
15
13
25
-27
91
49
-7
40
65
-19
64
8
40
-75
20
-3
-48
-42
47
23
20
-9
-9
67
-3
17
9
27
-38
21
-18
-12
-27
-41
-11
42
47
64
14
20
20
42
-43
11
31
-20
37
-15
-10
-8
51
14
14
46
10
12
-6
0
-6
15
44
-2
2
33
62
22
-37
-13
10
-13
16
-8
32
-2
-34
-8
12
33
66
-9
10
2
11
18
-12
-2
4
-2
-33
-28
-5
27
29
42
-32
6
10
-51
6
-30
-13
30
-6
6
-10
-1
29
-30
6
-27
-26
5
-13
33
7
5
-44
41
-32
4
-37
-24
14
-29
41
22
2
-46
30
-14
-23
2
20
12
3
-19
-44
-12
-3
-21
56
-3
-22
-14
-13
-8
21
13
5
20
32
22
17
-6
40
-21
34
-8
13
8
6
22
-11
2
38
-12
8
13
55
-5
19
21
-9
-12
-21
-2
0
1
35
10
26
25
-47
6
6
12
4
-11
36
19
-20
17
-4
50
15
60
-2
-18
29
-69
2
11
-17
9
43
-5
21
-21
-36
-30
0
30
18
-13
-13
70
-50
-20
-4
-35
13
-9
25
7
-34
-6
20
11
2
-34
-42
-7
-8
-32
25
-10
-24
15
-9
-2
-15
48
-47
-3
40
-17
19
-20
-30
-81
-13
-10
-15
-21
-30
31
-49
-43
-25
-63
-30
-2
-11
-20
-11
-58
42
-20
14
-30
-22
27
14
10
-26
-49
28
-13
4
-38
5
5
3
-17
23
-8
12
-8
-54
-95
-42
-40
-4
25
1
-39
-9
-14
-22
-61
-30
7
-50
-6
-30
-4
9
-3
15
-44
13
-55
32
5
28
40
-1
1
-40
-26
3
4
24
-21
10
-17
-19
-39
0
-4
-6
22
12
36
-41
-24
-37
16
23
-39
-23
-17
24
-16
-92
1
19
-34
-2
9
-13
14
-52
-18
-28
-32
-22
-11
24
4
46
30
-10
0
-5
-61
-42
-4
14
-50
-32
53
-42
-32
-48
-12
-29
-66
-5
-30
1
13
-36
-50
7
-29
-34
49
-3
-30
-36
-44
-6
-32
-66
9
-32
23
-57
14
33
-18
16
-19
-36
14
-36
-16
-2
21
22
18
-36
-28
29
-3
-75
8
16
32
-33
32
-42
11
21
-28
3
14
-22
51
-64
-61
-17
-6
55
-18
-12
26
-20
-7
-14
-10
14
15
-54
-4
-8
4
-26
-72
-4
15
-19
23
-6
-13
36
-36
3
4
-13
18
-22
-24
-43
46
3
-44
-20
-51
57
-16
-7
-17
-6
-17
23
-25
5
-27
-20
-28
-44
38
70
-38
22
34
14
1
3
21
-25
-30
-30
-32
10
-25
17
-15
-41
-5
7
-38
-22
-32
6
-40
-10
-44
-40
24
-43
16
1
23
-46
-28
-20
-12
-41
16
-21
-10
-12
30
-62
10
22
3
-48
-4
-44
-37
46
94
-28
107
18
5
35
13
-19
-47
-62
5
-23
-28
-30
-78
-60
22
-23
0
9
-40
8
28
-43
16
-14
-76
-7
-28
-22
-11
-1
-64
-9
-54
-32
-5
1
-37
5
-40
3
-42
-7
-64
20
-18
7
-16
-9
14
-127
-30
46
-22
-31
-35
-18
-21
5
59
-30
-61
-44
-53
13
15
16
-32
8
-6
-26
-31
-73
-4
-11
18
-10
17
35
-7
5
13
-29
19
-51
-1
12
-9
-15
-7
6
-78
-2
29
-41
-57
-9
-8
-48
-15
-38
-10
-40
-21
1
5
23
-30
27
-2
-15
3
-20
-5
-16
-36
-22
5
-7
-20
19
9
-53
1
-72
-68
-24
22
-30
-2
-5
-41
-32
-12
6
-61
3
13
-20
-96
-19
19
-58
10
7
-5
19
-6
-39
-37
30
-3
-9
9
-59
7
16
-2
16
-28
-20
-53
-55
-47
7
8
-29
-57
2
6
1
13
-68
-37
-21
-69
-9
-79
-23
-14
-46
-8
1
5
-36
-36
-25
-28
-22
2
6
-17
97
24
-86
-42
-36
53
-35
-53
-15
-10
-73
-42
-20
-23
19
-3
2
28
8
-37
-29
-94
8
-5
8
-43
-17
-13
15
22
-17
-77
18
-24
-46
-79
-45
27
-6
-54
4
4
1
-9
18
-8
41
8
-18
0
-71
-36
-30
18
-34
-17
-56
-46
-14
-12
9
-45
-68
-49
-72
-4
-21
47
23
12
28
-3
27
-48
-75
-34
-55
-59
36
-34
-40
55
-27
-127
24
13
43
-62
63
-25
19
-110
-38
12
-28
-33
20
-34
-16
-8
-21
-37
3
-20
-9
-30
29
1
-3
-32
57
-45
-34
9
40
-37
-11
-60
22
14
-5
-34
17
-53
2
-79
-1
49
-30
-35
-58
-13
22
7
-3
58
-15
7
1
-18
-24
-24
-41
-82
-36
1
-13
-30
26
10
-21
-47
14
31
-88
-10
16
45
-38
-59
7
-14
-25
-33
-22
-16
-27
5
24
0
-14
-13
13
-36
1
-45
-17
-39
-78
26
-74
-47
-28
-84
-5
21
-18
9
4
50
-17
-54
46
-27
-19
-40
-2
40
31
-31
-22
-27
14
26
-13
-65
59
6
-6
-55
9
-1
22
3
18
-6
4
-58
-25
-17
-39
51
-48
57
-20
-16
-25
29
-42
-28
-25
2
-48
1
-2
32
44
-72
-43
-11
1
-63
-4
16
-2
-81
-43
1
-23
0
-17
-21
16
-41
44
28
12
33
-17
-44
-36
-8
25
45
-39
-50
-64
-51
-52
-62
18
-31
-57
10
-16
-84
-73
-61
-28
40
12
-9
-9
-86
-54
-17
-76
-69
-52
-23
-15
-71
-10
30
-3
54
-30
-15
0
-9
-32
-9
9
-10
-29
-22
19
-2
-35
16
-28
-87
34
-13
7
-42
-71
6
4
-47
-40
17
6
2
-4
-63
-69
-2
27
-9
-17
-2
-11
-25
-11
-8
39
4
15
-1
-18
-4
-14
21
-118
-11
-14
-47
-17
25
-29
-67
-45
-45
15
-70
-12
-27
-9
-46
-48
-54
-2
-8
-10
-46
15
-25
-125
0
-8
-26
-28
11
-63
-57
8
16
-33
45
26
-16
1
-30
8
-20
-14
-44
41
-29
44
23
-6
-24
-61
54
17
-25
-67
-36
46
-27
41
-35
-37
-62
-61
26
-87
16
-29
-26
-11
-22
19
-55
44
-38
-31
-14
16
-30
-47
-19
39
38
-20
44
-50
-13
-23
-30
34
13
52
-27
-12
-45
27
55
83
41
58
14
18
27
0
-85
71
64
-11
33
11
94
-24
-11
90
13
38
19
-7
69
-78
20
13
100
-14
-69
92
29
-42
-26
-29
-9
-7
54
8
20
13
105
50
13
32
-10
64
16
55
-31
3
-37
85
50
52
-65
45
114
-60
26
-24
59
30
49
28
-90
10
-26
26
32
79
26
56
30
-24
27
60
0
-33
51
32
94
23
25
12
12
-52
-21
-17
21
45
64
50
-32
31
-85
60
104
35
-6
-2
46
5
55
40
95
12
28
-11
98
-48
-43
23
18
-13
-17
-29
-30
-60
52
-26
101
-42
-1
7
-4
-24
-123
27
-29
87
44
-38
-24
-21
-8
15
40
21
26
-31
-26
14
-45
-15
-36
50
72
81
39
61
4
-96
-40
37
-69
31
-1
19
35
45
-23
43
126
-12
-13
-1
40
-63
-16
27
25
-21
2
55
27
-36
27
-30
25
7
-14
73
8
7
44
-9
-13
9
-48
24
22
99
67
-25
53
-21
-78
79
58
-15
-5
-13
-3
-28
58
33
75
18
12
51
35
40
14
1
2
122
61
-105
-57
72
-55
-8
-127
59
40
-6
16
-43
71
-22
30
35
-36
-65
-6
41
4
46
3
81
-82
47
-32
36
-49
39
-92
-2
49
-23
64
-9
-56
42
17
-20
20
88
-82
44
43
-45
49
-30
-67
13
69
67
6
-12
60
52
42
26
96
11
-20
-98
37
-16
72
-28
14
47
70
76
-7
88
29
15
79
17
47
117
-11
14
-1
105
49
-51
36
-40
-25
18
33
-53
27
-54
-15
33
68
14
-10
31
84
-5
-43
-60
-25
39
59
-47
37
39
25
35
29
15
-78
18
-19
-3
26
-19
-8
-46
32
26
-36
-62
119
-28
29
40
3
71
-95
-24
-99
1
48
71
-10
-5
66
45
30
0
-10
-99
54
-106
51
1
-21
-16
22
-17
40
2
30
-10
-14
6
54
89
-10
21
3
73
33
44
-118
-24
26
-17
28
89
-9
-5
70
-6
93
21
32
63
-48
-70
37
14
-14
41
2
-92
-24
22
-8
-24
69
75
-36
-31
-59
43
-109
-51
60
7
-31
-2
-29
80
16
66
22
33
25
9
78
50
-8
71
57
41
52
36
-56
-73
43
-4
-2
-14
112
-19
31
9
52
29
-71
4
26
54
16
116
53
49
2
-41
-5
72
77
28
-49
-8
17
-28
-88
103
41
57
-15
59
16
-16
-57
40
54
21
57
60
-22
-10
-6
51
-44
-91
-34
-21
-94
-78
60
37
-26
13
-44
-57
-36
-64
-58
-31
31
31
-84
44
11
-4
-50
15
-10
11
-5
-74
-16
-9
-45
-57
7
-4
-11
28
-37
-24
-40
-2
3
12
-48
-42
16
-11
-20
-19
-72
62
3
-36
-65
36
12
-29
-43
-114
-73
-48
-63
-35
34
-17
-62
-1
5
13
13
8
-46
27
-35
29
74
-15
-1
-80
-93
24
59
17
48
36
5
69
10
12
-65
55
21
18
-24
-47
10
22
23
34
-79
16
-49
8
30
-33
29
19
23
22
-77
5
-24
-19
-4
33
5
-42
-11
-22
-54
38
-72
-63
-19
-42
11
15
15
-26
-61
54
-8
-9
-36
-78
-14
5
-12
-30
67
-39
47
-65
46
-32
-85
-54
-4
-59
-52
13
-8
-39
27
16
-48
-103
-16
-28
-34
-37
-4
39
-44
18
-11
-77
-71
-52
-5
19
58
29
-110
-28
-4
-80
-75
-42
-8
-98
-34
0
5
-58
-17
-52
-67
-10
-15
-43
13
9
6
-127
-11
0
19
-20
8
0
46
-58
-28
81
-23
-125
-13
-22
4
-67
42
-108
3
-82
-5
-55
-32
20
-17
-29
-66
-5
35
-55
-28
17
-38
34
-22
-29
11
-51
-25
-26
-27
-28
5
9
-45
19
34
-19
-7
0
-48
61
-37
7
27
19
-38
27
-16
1
-30
-18
-9
21
-84
21
26
2
-46
22
73
-29
-48
-64
26
3
-14
49
32
-85
30
-22
-43
-52
-31
-19
-36
-17
-22
-62
-74
21
-13
-11
-81
4
10
-87
-23
20
10
-35
27
-47
-17
-21
24
89
11
5
28
-5
-36
-37
-42
-54
-19
-26
-39
55
-12
-69
32
-16
93
-41
-13
-82
-29
41
5
-28
-14
12
-19
-25
17
-38
-74
-105
40
-70
7
33
24
-83
37
-69
-26
15
-77
-44
19
-62
2
-36
18
-4
11
3
-47
-37
-45
-23
-3
-18
-39
2
26
-5
-44
-126
34
1
-24
0
-4
66
9
-11
23
-73
-13
19
-37
24
13
-22
-51
-29
61
47
67
-28
-47
-29
-6
-7
19
3
-16
-33
3
-103
42
5
-3
-28
3
62
75
18
19
-13
-18
-23
-76
14
-17
-49
-68
42
-12
-11
5
-52
-91
2
-7
-75
0
37
-20
-98
-36
17
-1
-21
-43
-34
7
-59
-16
-64
15
-9
-40
34
0
44
-78
-23
-18
-28
72
-23
-85
-81
81
-42
6
-56
2
-29
35
-63
-49
-26
-72
-45
-64
-48
-14
-52
-62
-4
-43
16
105
-48
-37
10
60
-51
-49
31
-47
-79
-45
33
10
-57
2
46
41
47
-25
83
31
-48
-18
11
-47
33
-54
56
-47
24
-15
79
-32
-28
-8
12
-5
-3
-1
6
17
42
-47
4
-8
11
-28
-38
41
53
-51
-16
21
-24
9
21
-39
-25
79
-5
-62
-116
-19
-37
-10
106
-18
11
9
3
29
45
0
-3
-35
32
-11
21
66
-17
30
-72
-9
65
-18
-92
-37
41
13
-11
25
-67
-2
-11
42
4
11
-7
-13
32
1
0
43
101
-61
-69
-37
34
-53
15
24
15
-1
15
38
22
5
-14
-9
101
14
39
-14
-13
11
-31
29
35
-1
38
26
-20
4
-76
-81
-46
-30
15
9
61
-23
-34
127
-26
-26
32
105
14
-7
-48
7
84
-90
-56
31
62
16
73
-18
-14
-22
0
-16
-34
-19
6
-37
-11
19
-51
-23
45
-98
-53
-7
81
8
-8
12
-33
113
-13
29
-75
2
8
-5
18
24
76
44
-82
62
-63
22
-32
-16
19
-45
-13
-25
-75
-19
97
36
-16
18
70
18
-6
-17
-6
-56
-39
-15
38
-12
-38
8
-71
-24
-3
-14
18
-4
110
89
-13
-15
38
-7
-30
-21
11
67
55
-2
-31
92
6
29
-43
14
-5
43
60
-46
73
53
2
28
-114
-66
37
-1
40
19
24
-20
-105
62
-25
91
41
7
26
-33
-14
-10
-29
23
51
13
29
26
-24
-12
-61
-48
-43
-4
19
16
14
-10
-44
-2
22
-62
-22
-18
15
-46
72
-14
-29
-10
-42
126
-12
-16
76
-77
72
70
24
-41
-22
-22
21
10
62
33
-14
-24
-5
28
6
-8
98
73
81
14
-18
11
21
-33
-40
5
-22
-23
40
32
-56
32
-2
12
-18
-19
13
-58
-21
-31
-5
-34
16
-104
-69
32
-51
32
-58
12
-17
29
-36
0
6
-8
16
35
-68
-16
17
-37
39
27
-35
-61
5
5
69
5
-88
-42
12
25
-15
-34
-56
13
9
-10
-29
-5
21
49
34
-29
113
7
21
-26
36
-39
-20
-19
6
-30
-91
62
4
5
-11
-40
-31
15
-1
-13
-10
-15
-40
49
38
-25
-18
-20
21
59
63
25
-17
59
-4
40
-71
-23
-86
-64
46
-12
-8
51
-70
-5
-18
-16
-22
-21
-16
52
-76
13
-40
-1
-39
-5
-94
-38
-13
67
87
-18
14
-32
-55
29
-68
-30
-51
-52
21
42
4
-25
-2
16
1
9
-18
-36
-10
-69
36
-50
-4
-1
16
84
53
41
-17
1
16
74
-90
-12
-54
-7
11
5
0
17
73
5
53
66
-2
8
3
-7
79
14
16
-56
53
92
-42
-15
40
77
2
10
-9
2
88
-10
17
38
-63
21
-1
-6
17
62
66
15
37
17
-1
1
89
-54
49
40
9
83
28
-1
19
-13
-18
47
-6
75
40
97
-41
-17
31
24
36
5
-17
10
20
16
58
4
-6
22
-33
47
57
-14
2
47
30
-5
3
1
14
8
20
14
4
10
58
-26
47
73
23
41
4
21
20
66
13
69
-11
7
5
5
34
-17
35
61
-6
-26
25
19
-68
-4
-22
30
48
-17
12
24
41
30
53
-9
47
-13
20
24
30
-5
10
13
52
31
-6
-2
-37
-8
12
-16
77
-36
34
24
49
-27
25
-13
34
31
-12
-5
8
25
69
11
-20
80
12
-26
10
41
35
-11
71
19
46
32
42
14
-16
30
10
17
60
28
26
51
4
22
25
-20
11
24
55
25
9
15
43
50
7
14
76
-39
2
44
1
10
-31
-15
57
11
25
27
38
26
17
31
-17
18
52
26
0
34
62
52
85
45
52
52
-31
-54
25
16
7
32
38
7
3
64
-4
23
48
-61
20
46
24
62
8
-34
-1
15
-59
35
-23
53
32
9
19
30
-3
54
40
6
-37
26
127
1
2
6
-16
41
57
43
46
48
16
-74
-23
77
-21
-35
9
33
-7
9
20
35
26
-4
19
37
5
51
-5
-1
-55
78
-3
27
65
-24
13
-3
-13
11
60
-8
75
2
-4
-28
-47
-3
6
38
54
38
40
21
5
21
18
-5
58
4
-26
-14
53
31
13
35
-9
21
27
-45
-27
21
3
-8
-13
-14
84
0
31
-11
86
22
45
37
45
-28
-29
35
12
7
70
9
40
13
10
-1
-34
48
14
16
10
-5
8
5
4
-26
-21
18
14
-20
-10
27
-10
74
-24
19
-28
-21
35
52
-16
8
-79
-25
-26
-37
5
18
19
-39
23
44
14
15
0
-3
-54
3
74
-1
97
-16
16
31
27
-40
14
-66
2
12
38
22
32
-45
27
4
22
-16
-29
24
-10
-15
101
27
-15
49
51
25
-6
4
9
69
-39
13
-34
-16
-49
-44
-19
-7
14
20
-48
27
7
33
47
-5
15
-61
-18
76
53
88
14
-7
-15
12
15
15
113
-73
24
20
12
28
91
66
49
-10
52
87
16
22
27
-39
97
18
2
24
10
25
50
19
1
32
-70
-9
20
-15
-29
-52
-9
16
-40
46
65
21
-20
5
-33
38
44
-28
-87
65
1
-2
-23
-5
35
92
-16
4
-9
-11
-4
-11
11
41
8
-19
81
-32
-38
-11
55
28
10
-3
53
11
-1
13
-3
94
15
74
37
0
35
32
30
24
-5
-9
24
28
-28
50
-37
28
-9
35
-27
40
47
-18
-38
50
22
41
13
-29
32
-1
29
14
22
-4
9
91
-33
-10
14
42
41
-30
-24
58
39
30
3
59
46
-50
-1
-38
-30
23
-27
60
5
-6
-35
-60
38
84
-26
65
-2
55
-8
38
8
-17
19
-2
12
-43
-9
28
-20
-9
-15
13
8
-12
15
-18
11
2
17
11
1
6
-7
12
41
17
85
61
-81
-18
54
-63
14
21
51
-49
-4
42
-8
2
2
35
-36
46
43
43
-46
34
17
-11
14
18
-39
-62
4
27
22
7
-44
47
-23
-7
0
17
8
9
47
23
-12
-27
-21
5
36
12
-55
-8
-27
-2
12
-85
34
29
-66
15
52
-41
44
-18
-9
10
92
8
43
-1
59
38
-32
-51
-8
25
27
21
-11
-23
26
30
20
49
91
1
-21
32
26
26
5
-105
-19
-3
56
-7
19
-4
26
-34
8
29
18
-37
17
-47
-15
58
22
-11
6
27
-111
25
-20
47
29
-30
-8
-40
60
98
2
-13
57
94
-5
29
127
-13
-61
45
81
5
-11
3
36
-103
47
18
8
-13
-15
35
40
-50
47
19
-73
32
41
71
-34
28
38
18
-27
-29
-72
-35
19
84
5
75
42
-3
17
-5
-1
20
31
-41
25
-12
50
86
2
46
-15
-11
35
48
5
54
6
33
-4
34
30
-8
-1
18
-6
-11
-5
-13
21
-28
25
52
-24
-7
33
23
23
-14
31
29
-50
-41
64
54
-43
25
-20
5
5
-21
-25
21
-25
-7
8
-85
-28
19
0
12
-17
-36
11
18
37
20
-37
53
17
35
-9
-80
-30
-58
6
57
8
9
30
-16
15
48
46
-35
-9
-35
-30
15
12
5
-44
-15
22
43
26
34
67
4
24
-24
-6
54
-3
71
21
43
38
21
-11
-34
-5
-47
29
35
37
-14
34
76
-6
20
43
61
45
15
48
-4
-30
-20
-27
-6
-32
55
74
27
34
-17
61
79
-8
-24
-2
37
20
-9
73
-17
38
16
-13
93
79
35
20
77
65
-42
-25
-12
-31
17
50
54
-10
-23
48
6
28
17
11
14
34
-46
71
23
-8
45
-14
-38
-26
23
52
15
43
-5
56
72
-38
31
-23
67
-52
-3
16
-23
86
-92
-29
-47
-8
-26
-33
-16
-63
54
-13
-7
32
-68
-3
-13
62
11
37
58
52
38
26
14
-1
18
-21
79
-37
12
-19
51
9
-36
29
-64
39
17
-30
-27
10
38
9
63
-16
42
-28
-16
-31
9
31
8
20
47
0
-39
0
-4
47
-8
48
-6
40
-52
68
82
-8
62
-26
26
-47
41
-47
50
22
2
-31
7
-61
-43
27
46
-108
-1
-25
27
7
24
-16
47
-39
-3
22
19
-21
-22
8
-4
-45
18
-1
-21
51
-3
49
-28
26
19
-13
12
-43
2
-42
-29
49
11
34
56
70
15
-104
17
-14
-46
28
-35
-1
14
76
8
30
35
-3
-21
34
45
52
12
72
61
-22
-28
12
-12
-30
35
-20
2
70
5
38
40
34
58
0
-39
69
21
32
8
68
9
1
12
-25
-33
23
0
-74
-19
-3
34
-3
-23
75
31
26
24
14
2
-20
-11
-9
19
60
-14
-51
-13
21
-127
17
-20
39
68
-59
-14
-35
1
-29
4
-26
-1
6
46
36
25
75
-24
-2
-50
43
61
-12
-43
51
-25
-18
22
9
32
-16
-42
-65
-33
4
16
-14
-30
-37
26
45
-22
11
38
-36
-29
-12
99
-3
51
3
-108
8
60
-17
7
-104
-18
-16
3
-66
-22
27
9
53
30
-8
77
14
-21
-36
56
23
-36
-3
-45
33
-14
3
25
4
35
5
-14
-21
-26
-76
-72
17
50
39
19
23
27
16
0
14
-13
59
-36
43
-16
48
48
52
37
-13
-58
17
-16
2
20
8
1
-11
12
89
-52
1
-13
23
24
25
24
60
-43
-1
12
25
47
76
7
12
17
2
21
-35
14
1
22
-36
7
-22
45
-53
20
-17
61
-7
-45
4
10
0
72
-8
17
-10
-24
-39
40
-2
7
-2
-5
-10
-3
43
23
72
-51
21
48
-6
42
-29
27
-30
-2
52
-17
84
-17
-61
16
14
19
-64
3
20
-20
-32
27
31
-47
-9
-9
9
3
15
42
-6
1
62
46
-10
-4
20
62
-35
15
-15
51
-17
20
21
-6
-83
-15
65
-19
-80
32
-61
45
-8
-19
-20
-43
-1
1
73
7
23
67
-30
0
-1
-41
19
6
53
-68
-11
5
-6
-89
49
70
83
-18
22
85
-9
36
-9
41
79
3
-35
-5
-43
33
35
-21
-17
-11
-50
-4
-113
34
10
-3
15
-86
31
40
-60
-25
-55
55
29
-57
55
-20
-65
-39
0
48
-30
34
-46
48
32
-25
7
-25
16
46
-42
-46
-6
-88
-127
42
-38
24
-39
51
14
-22
-70
-48
16
51
16
-41
30
-11
119
-8
35
-71
30
71
-43
14
-17
-70
3
-10
-50
-44
-23
-31
-30
-20
-5
21
41
-105
-56
-74
50
-30
-20
48
-10
-46
31
-95
-85
31
10
1
11
-31
-53
-33
23
14
7
-28
48
-76
-62
-11
-40
-52
-20
-9
6
-50
28
-29
56
29
22
-82
-5
-79
17
-23
10
-43
-13
15
3
40
40
-51
28
-79
-9
-15
-36
-30
-65
-16
10
27
62
8
40
13
-47
34
-8
12
-26
-2
55
-2
5
75
-12
37
-7
-30
-37
17
-67
-7
-45
-110
-24
-34
-70
33
-54
-17
2
-49
-64
-59
-2
-20
26
20
-15
14
-28
-7
-11
-18
18
29
9
48
-41
3
-44
-34
-34
-13
-16
41
-17
-20
-9
-2
2
23
-22
-94
-19
-102
14
-28
-79
24
23
-21
8
-3
-21
-11
8
29
-119
38
47
-51
-55
-60
77
9
-6
9
-26
-66
9
11
-35
-10
-30
-12
-54
18
-10
11
4
-18
-45
2
-44
-3
-32
-18
-18
-26
1
-8
48
9
-26
-36
-20
88
38
-35
-14
-39
-8
-42
-11
17
-47
7
-12
-33
21
-6
-47
-3
-49
21
42
-10
-11
-14
24
-33
18
-29
-42
35
-38
-2
-6
15
36
-54
-59
-9
-39
2
-90
-28
29
13
22
-37
-89
30
17
64
32
48
-14
-6
-30
-17
-77
-33
7
42
70
15
-66
-4
-8
15
-65
-75
-48
-87
-75
-38
36
86
-23
-30
48
3
35
-57
-92
-23
20
32
13
9
-58
14
-108
14
8
-58
-8
18
-107
-77
-9
-53
-20
-30
18
25
-29
-60
71
6
44
-5
26
22
-43
-40
-6
7
-32
-29
-9
-23
-12
-13
20
9
-38
27
-70
28
-2
-9
33
-3
-18
-19
-7
-79
7
-73
4
18
26
-30
-40
5
-57
29
-9
42
91
-52
-10
30
-23
41
-22
14
17
7
-34
0
34
-1
-35
-10
-3
-18
16
-26
-10
-49
-1
12
-21
-35
-8
-40
-35
28
-27
-22
-35
-26
71
-28
-23
42
9
-51
-4
-62
6
9
57
-11
-66
3
-91
-24
-51
-69
14
-12
-77
47
-36
-16
-87
13
32
-1
-22
74
-5
-32
-43
-9
-35
13
-16
8
5
-63
-76
-66
78
3
-26
24
-17
-28
-47
10
-68
-63
-6
24
-27
-30
5
-4
-25
-36
-1
-20
-1
19
-32
12
20
-9
55
7
12
27
26
12
-7
-85
-6
-17
-26
28
-48
-29
61
-7
27
0
20
-20
-27
-41
25
2
-52
-23
24
-2
68
-16
0
-6
-41
-21
-39
-3
-4
29
55
-61
-17
-25
-37
16
28
16
16
13
-48
41
46
9
-29
12
-20
15
16
36
28
1
-33
-8
-67
-60
-3
39
52
-35
13
-87
-17
32
25
10
-19
-15
-29
17
33
23
29
15
-27
8
-33
6
12
27
-9
17
-20
-7
-1
9
-62
32
-5
-8
-51
9
-20
-66
-5
10
13
-17
-33
10
-11
-48
28
52
37
-83
-29
-13
-27
-22
-9
-10
31
39
-23
-18
3
-50
-63
19
10
-86
20
-14
25
10
-3
-3
15
34
9
28
31
20
-58
-12
-12
-9
-51
-33
49
-25
-32
-62
-70
0
7
40
19
-13
40
49
-32
-1
-29
-8
5
-17
50
68
-26
31
3
-28
-4
12
-16
-27
50
6
4
14
-12
8
28
-12
-9
-2
75
-7
-12
-3
4
50
-43
-14
35
-116
-38
-43
59
3
-30
19
-47
-2
-11
4
10
-32
-6
9
11
8
11
7
-6
-69
-39
19
29
1
30
-27
15
33
45
18
-13
-29
42
24
-45
-23
14
-71
-21
4
-63
-26
60
-19
-10
0
28
40
-46
6
3
-8
20
4
-23
-12
-98
24
-10
-4
-21
-22
16
34
-5
-45
33
-45
49
22
-34
15
41
-15
-10
-19
31
-2
-16
68
-14
11
-15
-5
6
-9
-69
0
45
10
-10
49
14
24
-48
-47
-11
-43
13
-11
-9
-8
-15
32
-13
10
-2
-63
-38
-7
-18
-1
-16
-33
-28
-2
13
-20
-40
-63
-14
13
22
-8
16
-14
21
-23
1
-34
36
-4
10
20
-17
34
-13
-6
-64
6
-73
17
21
-27
-14
-9
34
45
-55
13
-37
53
-28
-41
27
-5
7
28
-17
-37
6
-71
-32
-26
-98
-23
4
-48
18
94
13
26
0
21
17
-9
3
43
22
-43
-9
20
-36
-13
-1
-60
34
36
-8
-41
-12
-4
-12
-25
-127
39
-33
1
-9
-28
42
5
-49
26
3
27
23
15
17
-6
7
-49
-22
42
9
-3
31
27
-30
15
-25
28
-37
9
18
32
0
-34
23
-12
28
-8
13
-4
16
30
23
10
14
19
8
10
-64
20
-23
-84
4
-26
-4
6
-6
-6
-81
-27
-16
-6
-21
23
13
4
8
11
29
1
16
-6
-34
-14
82
-16
3
-13
-23
33
10
-12
12
-15
65
50
18
55
-117
-13
78
22
-26
15
55
3
38
-20
-35
-4
-51
13
-59
87
4
39
83
80
10
-18
19
65
7
-32
92
26
77
54
-31
-34
20
11
-30
30
-69
69
1
42
43
-31
3
1
22
3
21
-3
19
-9
-30
97
-1
41
-38
-18
15
27
2
26
-1
-1
17
15
3
17
6
50
-15
-44
35
-63
63
-39
46
-1
-8
-9
-22
83
-19
87
32
10
9
79
-2
1
22
54
6
-11
-17
-12
-54
-29
-30
21
-8
17
15
53
1
-37
41
-23
7
-20
-11
53
-46
-56
19
49
45
5
-3
9
11
-53
-63
18
52
2
52
40
33
4
-112
-18
39
-71
33
-57
-4
48
62
47
10
0
8
-23
11
42
2
-9
80
40
-33
-32
32
8
-41
-12
-52
10
41
16
-2
41
25
12
-2
12
45
-60
21
-2
35
39
29
-41
-13
-56
46
34
61
-21
9
-2
-6
22
20
63
8
35
52
-30
20
5
2
8
57
19
-77
-13
15
-74
-40
-5
16
91
-38
-6
-25
8
-18
47
0
41
-46
16
33
4
47
-9
57
-32
27
46
11
-23
6
5
-34
55
-37
19
-14
17
0
12
-3
-58
25
-2
-19
25
37
5
-30
7
-28
-11
-5
29
-8
25
39
-4
29
50
-26
-16
-77
-14
46
-61
-24
-12
16
17
20
13
45
90
17
47
24
59
22
5
-35
-19
26
40
-52
21
35
33
-22
15
-67
-67
-64
-42
-35
67
85
29
51
-28
-12
-34
-21
-50
45
44
-42
-13
95
32
46
67
14
-33
-18
-52
26
32
-28
0
1
22
43
-2
-36
61
11
50
53
41
30
-44
34
-4
4
49
32
2
64
61
-15
41
-37
37
-19
12
-43
0
-3
44
6
-55
33
42
27
1
6
26
-30
35
18
5
11
-19
64
-23
-6
-51
-51
-32
-72
-4
36
-7
10
10
24
34
-15
-30
35
12
6
27
-1
11
127
-24
-103
9
43
-53
9
-25
1
2
-26
-7
48
-31
-59
0
40
-25
-31
-55
12
-45
12
63
42
-46
30
20
-28
-21
37
75
-15
0
27
3
-37
1
56
5
-8
-11
24
78
5
-18
-12
-24
-14
-1
40
23
-3
38
51
30
16
29
8
46
11
-55
-41
56
14
-87
46
44
47
24
38
66
-26
0
13
3
79
56
-11
-42
-87
23
-26
74
-9
-23
35
16
-21
16
27
47
23
-48
40
26
1
27
-57
-35
30
-15
5
39
3
-80
59
14
-38
-27
-16
-46
13
44
-8
-9
17
-49
-18
-33
-8
-20
-57
61
-18
-26
20
28
4
-65
-93
-10
-3
-32
38
-18
-81
-4
99
22
112
-53
-83
50
6
-13
39
-37
0
58
-15
-102
40
-84
6
-62
41
-42
57
-56
-40
-44
19
-23
-10
39
36
-24
-33
-101
-81
-53
-10
-67
26
-39
-88
13
-5
9
-9
-25
69
-51
-101
17
-8
7
6
36
-40
-29
4
4
37
3
-75
-36
1
-96
-7
10
-4
-57
-1
64
-23
80
-89
-54
39
-32
-12
2
0
-75
18
28
37
47
52
-4
-34
5
7
14
4
7
14
-42
-34
24
39
-60
-88
35
-6
-123
-20
-5
-37
8
3
-24
-17
-74
60
-23
-1
-34
97
-23
-7
-12
6
46
-35
-24
-3
1
15
-3
16
-46
36
33
-19
-41
16
-9
-11
-42
-3
-22
8
82
-32
-58
-20
8
1
-26
-45
3
0
-10
-7
40
-30
53
-127
8
25
-48
-53
-16
5
2
-55
20
51
-10
-9
-36
50
-39
44
13
58
23
-3
-74
13
9
-44
-79
-12
5
-56
38
-53
-27
12
21
-51
57
-58
-18
-15
-56
40
-33
-42
35
-36
65
-1
46
20
-14
-25
-48
-18
-19
-12
-31
-75
26
39
-55
53
8
-64
-26
6
48
-55
-40
-11
51
6
-4
16
-7
-8
-22
-17
38
-78
7
-23
-2
-18
16
-9
-2
-6
-91
-46
9
-31
2
-36
-6
-8
65
-66
2
18
-80
23
-48
-59
42
-10
53
-40
2
-25
-68
14
15
9
-28
-2
-81
-100
-76
33
-21
-12
-120
-9
71
15
-9
-18
23
73
-19
3
-6
-20
-5
-80
38
20
-25
9
51
-26
-98
-5
-30
-9
18
38
23
15
-63
-18
-37
19
-21
-95
14
-61
3
6
0
11
-2
-63
-21
-43
-22
31
57
-24
18
67
-18
-58
1
-7
-46
-35
-64
-43
-77
-17
-63
3
35
-49
-45
-45
-18
19
38
-21
-14
52
58
19
19
-23
6
-47
21
16
36
-65
-30
6
-59
-115
14
-7
12
1
42
-27
-1
-20
-11
-13
-16
-66
3
-24
-3
13
22
61
16
-86
-57
-26
1
-55
-49
-13
-33
-23
-15
31
9
-50
-46
-31
-10
-52
-71
-15
49
-19
24
-68
-19
-45
-36
13
40
-11
30
-30
13
18
-21
-59
14
-16
54
-15
-61
-48
-86
18
22
-53
21
48
-20
-8
-12
-94
-14
-36
27
-14
2
43
25
-29
-23
-17
20
-35
37
-25
-34
-20
-55
15
-19
51
12
-28
-7
-46
-1
-3
-36
-6
-3
-3
-15
35
-11
-8
-33
22
-52
-8
8
-45
14
-18
-31
29
-41
-40
37
-3
-4
-25
-13
0
12
-38
-13
25
-33
27
4
-9
-59
7
7
21
-20
-65
-23
-33
-11
0
-19
-58
-24
-26
-38
-22
-49
-17
-15
20
-2
-11
11
-14
-14
-72
-26
6
-64
-2
-10
31
1
22
-8
-2
-35
-27
-17
-27
-6
11
22
-7
21
55
36
-25
5
9
-21
15
-22
-7
-19
-22
-19
-42
-49
-18
-13
10
-33
-9
-16
-67
-34
-47
-6
-25
-82
14
-49
22
-15
18
14
25
2
-47
-13
-36
-13
-22
-7
27
-7
40
-53
-7
-40
-46
-8
11
-41
-27
-13
-6
-16
-33
10
-2
0
-84
-29
-16
-64
8
-35
-19
-38
-21
16
-43
-23
-76
-39
-33
10
-43
-1
-19
7
13
-57
1
-61
-21
-20
-34
-8
24
-46
-26
0
-2
-51
-46
-15
-57
0
-6
-39
20
-6
-49
2
-8
-40
-9
-33
-24
-32
-79
-13
17
-15
35
-17
-18
-5
16
8
27
16
-20
-33
-31
-78
-40
31
30
-38
-6
-43
23
0
4
-39
23
11
2
-24
36
-1
19
-63
29
-35
39
-35
21
-17
-119
-27
-27
13
-1
44
-3
-28
33
11
-28
12
-17
-13
-37
35
-16
-7
-29
-9
-17
-31
22
-8
-63
-127
-67
-33
12
-8
-41
-3
-4
-13
-49
-58
-33
56
2
3
-63
-17
2
-10
-52
-9
-85
10
24
-4
7
12
-17
-67
-6
-87
7
55
-46
3
30
-8
-39
-22
-53
-22
14
43
-8
45
-7
-13
8
9
19
21
-38
18
-27
6
-11
-17
-11
-13
-73
-20
71
49
-2
-15
-40
36
52
18
9
-32
-44
-19
16
19
-10
22
17
12
10
-56
-43
16
-7
-26
-4
-19
19
-1
18
24
-12
28
-13
-18
8
-6
-20
-14
-81
-13
-11
-60
-52
46
2
6
-30
19
3
-14
8
8
3
14
3
-1
-21
-21
12
-78
-25
66
-7
12
14
34
2
1
-51
-32
-19
-19
6
-24
-19
-32
-43
-13
3
-13
-27
-73
6
3
-3
9
-37
-3
-29
39
19
9
0
-44
-35
-62
20
11
-1
-4
-9
-19
-26
24
2
-44
-40
-20
19
-17
13
12
-27
35
-27
0
-3
-54
-33
-45
-23
-63
2
3
-33
-58
2
-70
-22
-56
-39
-6
31
16
-35
15
20
-31
4
-6
20
-58
-34
-19
-23
2
1
6
-17
-20
-39
3
-28
28
-57
8
-18
24
98
-28
23
-32
-9
-16
-31
-31
34
-36
33
15
-11
-59
-75
-4
55
-30
1
9
-19
33
-13
40
-16
70
17
-12
19
18
-26
14
36
10
47
11
-30
15
8
53
17
41
-34
-52
-20
-6
15
29
-7
-6
-6
23
28
2
25
17
-27
-35
-29
-5
15
-2
25
12
29
-3
-7
-109
74
63
-13
-1
2
12
23
-36
-15
-15
22
-9
-23
-18
-38
23
51
-11
10
43
31
9
-16
17
-65
34
30
26
27
-1
-21
-17
-16
25
-82
35
-37
120
-4
-23
17
8
-19
-52
-35
11
-51
-1
-83
15
13
-9
-28
-14
-23
-31
6
10
-45
14
-15
-44
-22
114
-16
-70
-60
1
11
-37
-16
52
85
25
13
-21
-31
-11
23
-22
-5
-6
52
-39
37
-34
-30
2
-13
9
22
-4
8
-13
-17
54
1
-8
-9
-63
37
-81
11
30
-20
-32
-53
9
-14
56
-38
80
-11
-45
45
35
-54
3
-73
8
-40
8
-45
-35
-38
81
-15
25
93
-17
-27
-17
-16
22
12
-43
-2
-63
13
-29
-35
-27
-44
-20
-1
16
-55
65
2
12
-44
35
29
-33
41
-20
-13
-21
7
-4
-43
-19
28
-52
-1
-41
-25
3
92
-30
-5
24
20
-25
-30
50
61
-18
-50
12
-5
-45
12
51
-82
4
37
8
-54
0
-36
-32
-54
127
-51
-9
-21
20
-52
-3
-3
9
-44
28
-32
11
11
-114
30
1
17
23
85
16
44
12
1
5
13
22
-15
-9
5
-5
28
40
4
-24
12
17
-26
31
-46
-14
2
-3
-2
-23
-15
-13
8
12
-9
-20
-27
63
-8
-12
8
65
-12
-21
-39
26
12
-27
-17
-17
-9
50
-6
-6
0
-56
124
-24
-32
-14
80
-7
2
-3
7
47
-13
-12
18
89
-38
107
42
-1
-29
-18
-34
47
-78
-28
19
10
17
-5
29
6
-38
60
17
103
-42
-3
-12
3
-16
12
28
23
29
-35
-26
-22
35
21
-31
3
49
-36
12
11
28
44
-4
6
-6
-40
-49
5
-21
-89
31
12
-41
-26
-17
14
-23
57
-15
0
-66
-36
-13
11
13
-38
-74
-9
60
-13
-77
-56
58
-35
39
-6
-42
-5
45
26
-19
-8
-2
-36
-25
35
17
-18
-46
-16
-12
70
57
-9
7
-34
-7
-15
-29
-9
-29
55
15
-21
-16
37
-26
-27
2
-43
-11
11
-18
19
39
-13
-20
43
78
-3
20
3
-25
2
14
25
52
15
26
-16
-15
41
32
28
-2
49
38
33
15
9
81
5
1
1
25
-6
2
4
5
27
-43
27
18
14
9
60
42
-2
42
-49
29
50
-18
-4
-31
9
23
19
1
26
18
53
21
24
16
-2
-1
17
43
22
7
-20
0
7
25
4
9
-31
0
-10
38
19
-62
-19
-9
41
26
1
-69
29
15
35
-31
-13
29
40
46
-41
-23
-3
20
60
16
48
-4
16
8
30
37
3
-10
27
35
7
32
22
31
-21
11
9
3
-10
-40
-3
10
16
44
3
-45
-22
-1
20
-39
-26
-18
-16
71
-15
13
15
2
-4
33
-1
42
-14
-39
28
61
-30
24
-35
4
29
16
3
-15
12
60
52
0
9
14
-5
3
17
-15
-21
90
9
-11
-22
27
33
6
-15
44
-16
41
49
20
44
-11
16
-31
55
3
-4
45
-15
106
19
18
-2
1
8
28
-32
0
-9
3
-12
-6
49
37
33
-1
41
23
-11
-7
-19
-12
15
64
7
61
-9
32
21
-39
24
41
59
33
-15
36
10
-8
18
9
23
-5
-31
6
-10
59
8
-10
-17
-25
42
12
23
-2
12
11
2
-31
43
7
21
-32
-1
23
-38
28
-17
1
63
-15
-7
8
-53
-13
41
8
-38
44
1
0
-18
-30
52
-27
29
10
-4
17
27
24
-27
79
-2
31
-57
44
46
-8
15
18
71
7
-8
-51
-48
24
-10
6
-21
-14
-9
12
13
-20
4
-7
27
10
17
84
27
51
24
-41
-13
-30
11
63
-13
30
6
79
20
33
29
22
50
5
43
-12
-9
4
28
-1
-5
92
5
-49
42
-25
20
29
-8
60
51
0
12
30
23
51
11
16
39
31
-13
-3
53
31
16
-3
-38
29
6
-1
-42
-9
44
34
-9
-14
-28
15
42
1
-19
-5
3
13
-6
-27
4
8
-7
-39
-22
-38
31
-41
-19
3
29
-41
-34
18
-31
41
-4
41
-8
127
-10
-2
38
35
-16
43
-6
-17
-7
29
-1
19
45
-47
-34
-34
-23
27
-40
32
9
36
89
-17
10
57
-46
-14
-12
-4
39
-11
2
-18
16
90
-2
8
13
24
-40
-1
3
-29
6
-23
-5
3
-24
12
-27
9
51
-2
-14
-12
8
14
12
29
16
-5
55
7
-10
47
51
72
-3
27
-26
22
-13
-35
-12
100
43
28
5
48
-13
80
41
-1
7
-55
106
45
33
4
-42
-41
62
70
-7
1
-16
-39
29
-22
22
26
70
55
50
60
24
9
21
-20
19
31
-30
45
-24
-21
-14
37
21
-57
114
2
25
6
10
70
-20
1
-10
64
33
-28
29
11
-2
14
-30
-11
0
49
37
37
27
16
-21
26
70
-5
-22
-9
39
-72
50
6
29
-28
-9
-26
30
55
43
15
-18
29
-49
-33
10
14
26
61
-46
42
13
-15
-25
33
-17
-45
67
-5
51
39
65
17
0
25
-17
-2
-10
-10
16
44
-18
-18
-38
-14
9
4
69
22
49
-29
52
1
-43
36
30
94
16
-24
51
29
-12
-11
42
58
87
4
5
-4
-38
17
0
9
69
-23
22
27
-11
-57
0
-12
-46
50
38
8
86
35
-6
7
13
16
-17
-11
58
-90
3
23
34
4
31
50
17
63
5
21
20
-5
37
-5
-27
83
46
7
1
26
-11
10
-26
19
84
15
-8
-1
-24
8
27
41
-39
1
8
72
23
27
86
3
-9
52
-34
79
-14
35
-24
-12
36
4
43
38
-6
32
-80
57
100
58
21
32
-22
-10
-25
25
63
9
-40
25
38
23
-6
-13
-26
-54
64
64
14
19
108
40
-13
36
42
-25
-5
-14
19
8
-101
37
61
31
-9
39
44
-29
-13
23
21
-25
-29
-58
31
-31
127
89
11
67
-25
-57
42
-30
22
-25
73
59
21
16
102
127
9
27
43
61
43
109
-19
-29
44
23
40
39
-10
-3
-4
-42
-6
56
24
94
-9
28
42
21
-10
55
-93
31
94
33
-16
13
-31
-14
-6
44
16
58
71
50
-4
39
-27
21
42
8
17
-2
2
-6
-16
-42
94
-18
59
34
-12
31
52
-9
38
35
-26
47
44
-25
-3
90
17
9
0
47
46
-21
-1
28
49
37
40
11
59
39
75
0
48
13
29
76
-52
-31
-6
73
10
-41
-11
43
-8
40
25
8
23
0
71
7
28
31
-33
1
58
19
22
3
37
75
-15
11
43
-24
27
76
36
30
-2
-20
-19
52
-4
49
64
2
17
5
-65
-37
20
3
62
-19
-28
35
32
83
1
53
-4
-17
-9
10
-25
61
68
-25
94
7
-28
117
65
-35
-4
38
-3
67
13
45
-44
25
6
21
-1
0
67
13
87
-30
57
-10
55
-4
-50
4
15
110
51
15
9
-19
-32
4
-17
12
51
-24
19
-17
5
-8
6
-36
-1
-26
-56
-7
-17
20
-58
1
14
-63
-14
1
55
-7
11
-23
14
-12
-55
46
-4
16
-7
-2
19
-37
-9
-35
-44
-4
-9
-46
91
-20
-18
-55
-10
-55
-62
-44
-51
24
16
-21
-47
-11
-15
-14
25
-13
11
-54
-26
7
-14
-7
10
6
10
-4
22
-27
17
21
-20
14
-2
-28
3
-31
-9
19
-40
-31
-80
22
-16
23
-31
7
8
13
35
-57
19
-16
-36
-1
9
-8
-31
-19
-10
-13
27
-12
10
-17
11
19
-56
-18
34
1
-11
-33
30
33
72
12
16
-3
-30
22
3
75
7
15
14
43
-43
-8
12
-28
54
-19
6
-56
-43
-55
-27
7
-115
0
-37
88
-1
37
-9
6
6
-63
15
1
24
-44
20
40
-94
69
-24
12
-26
-13
17
26
-47
11
-53
77
0
-10
-17
14
-20
-48
-4
-50
-79
4
-64
-14
-59
-2
29
-71
0
20
4
19
6
6
43
11
11
59
-25
2
-55
43
25
-22
27
-9
-41
-10
-6
-22
-45
4
-3
-98
3
18
-86
36
85
-21
38
-13
-25
-7
-9
-58
-48
-61
39
46
-14
2
-14
-76
11
24
-15
11
40
-11
17
59
24
-12
103
-2
-13
33
-47
58
-3
22
-55
-18
-3
-1
-27
60
-6
-49
-21
13
25
-19
-57
38
-6
-61
-14
-28
1
17
-9
-23
-62
54
-29
8
-46
-26
-7
-62
101
-79
32
-50
-75
-20
-12
-15
33
18
-65
0
24
36
26
18
-10
2
-21
-40
-2
-65
-44
3
6
-103
8
-74
9
-51
65
-127
-14
-23
-22
-8
-51
-13
-9
-6
-99
34
29
-4
16
50
12
-18
-3
-14
11
-32
-19
3
-18
-10
16
42
8
-15
19
-12
11
-47
-34
13
-29
36
5
9
-5
13
-43
27
5
3
-30
3
21
5
16
-63
-14
-57
5
-68
-34
-3
-9
-55
-18
37
21
-10
-33
-73
29
-14
-11
-12
34
4
12
2
-3
-68
-54
2
-25
-104
-29
-12
-24
-56
57
56
-13
-55
-13
-23
14
-35
-38
-18
-20
8
-3
-31
-63
-37
-53
-88
25
-69
25
26
59
-16
2
-58
-5
15
-16
-26
-13
3
-58
-4
10
-31
5
1
-50
-85
60
-32
-13
11
-21
12
-24
-79
-26
29
-90
-58
-60
-46
41
-25
2
4
-7
-30
-31
28
6
1
-14
51
-10
9
-28
6
-23
4
-6
18
8
41
-94
-15
10
8
54
-36
-13
19
-67
1
-40
-4
-31
-45
-36
-16
36
8
-124
10
3
-107
92
-60
-18
13
-27
-6
-26
82
9
-39
-42
-23
9
-6
-57
-75
-105
-39
-78
-23
-3
-26
85
-68
-29
41
-34
18
14
5
7
14
-93
42
18
-9
37
8
-3
-70
-16
-47
50
-36
-100
63
11
42
-65
8
-16
25
-66
19
-42
-11
-9
-11
2
-43
-16
19
-114
2
-14
-22
-45
55
-70
-65
33
65
-11
-14
13
-16
-2
-56
-49
-127
18
-2
-32
6
-27
14
-1
-66
30
-44
3
45
-40
-29
-47
45
-80
-15
37
-22
1
17
23
22
-34
-32
-16
-20
34
34
-30
-38
-20
61
21
-36
19
25
-33
27
32
44
62
35
-24
-3
-9
-17
75
-6
73
-54
45
-45
36
39
-34
19
-57
-13
13
-101
-32
-9
25
-6
108
39
-29
-15
19
-56
-37
7
-12
20
-59
-24
-80
-50
-52
-38
-58
16
-12
38
15
-37
-42
-15
18
-44
21
-25
-69
-14
-64
24
2
-6
-9
9
-11
-81
-5
-5
30
-1
-4
5
-9
49
38
43
-28
38
12
-91
-2
14
-85
-22
-5
94
-9
11
-46
-17
77
-27
-52
-30
-19
15
50
-16
-92
-28
-13
47
-2
-32
-15
28
-18
-88
-15
75
62
-86
-63
17
33
-57
-32
-76
-19
-30
71
-47
0
-33
-48
26
1
44
80
2
33
-1
36
2
-19
83
-2
61
-15
-9
13
-29
12
-51
-57
26
-78
20
-58
-38
-78
39
-22
-6
25
11
-1
-100
12
-97
29
26
-17
17
39
52
-27
-62
5
5
-93
-63
-23
4
-27
32
30
4
24
-22
30
-75
-49
-5
-74
-120
-25
-49
-25
-41
37
-10
-4
-57
32
-58
6
-74
-85
-68
-34
22
50
-111
-44
70
-43
-11
-56
-19
34
-29
-24
23
50
-34
42
3
9
-41
-14
-43
-26
20
-38
-62
39
-50
34
43
-48
22
-36
-78
-16
80
-51
20
17
44
-6
7
-55
72
-11
-57
-10
-29
-71
7
-59
-48
26
26
2
-33
-41
-16
-47
-109
-43
21
19
-22
-94
7
-23
9
-6
-24
53
-8
-18
-35
40
-72
15
11
-50
-26
-113
-46
1
7
-17
-26
-63
20
-32
-32
35
-9
-15
-29
6
34
-82
-7
-22
0
6
-40
-52
0
-13
23
-18
-66
-62
-3
-52
74
-6
23
84
-5
-8
21
9
-50
-22
-21
-6
-26
43
-17
20
-53
-51
87
51
-54
-2
-3
-37
-74
-3
38
-31
8
4
-49
-28
-12
49
-59
44
26
0
-12
-57
-43
23
23
-17
-71
-3
-48
-54
-14
-18
-28
48
-81
-4
10
-15
33
-59
25
27
-34
0
-64
-53
19
-71
44
11
-52
-77
35
-15
-35
-7
20
92
74
5
7
-54
6
-22
36
-83
-39
-23
-53
17
-7
-31
-95
16
-21
-21
-90
-98
8
12
-22
-56
12
-32
18
-45
8
-95
17
59
-24
46
-6
-67
-12
-14
-42
-37
27
-106
7
-82
17
5
-5
-18
-52
-69
-15
8
-7
45
13
1
4
-46
-34
69
-26
2
-19
1
-92
-26
38
-5
34
-93
2
-127
-33
26
-9
-25
57
48
6
12
-29
-25
52
31
33
-37
6
-42
1
19
38
-108
-55
16
-38
3
14
19
19
-43
17
28
-5
-9
-74
-38
50
-26
36
87
28
2
-22
-28
-48
-47
-95
-7
92
6
-7
75
-6
22
-36
-66
-44
-26
-10
-59
-52
19
22
-79
10
-21
-75
-60
-7
-1
-100
-34
25
-11
50
-29
-73
-44
-15
-15
2
-72
35
25
-82
12
-47
-32
-6
-54
-26
-31
-8
35
-64
-41
-21
-17
40
-2
-16
-1
-72
-98
13
-24
-64
-11
-76
-30
3
19
-52
-18
46
-16
-47
27
29
34
-58
-81
30
36
23
-7
27
-18
-38
21
31
-10
-36
-46
-67
4
11
53
1
-21
-22
31
-31
32
-31
13
0
-31
31
25
23
22
-7
-8
-37
20
42
-3
-72
2
16
54
11
-19
-1
-51
9
-59
6
-13
-54
-46
18
-6
104
9
-42
-1
49
-8
-69
-46
-60
-56
-66
-31
-26
-5
-6
-39
-62
26
-14
-46
-26
-18
21
-3
35
-18
1
26
-24
16
-19
34
-51
-96
-35
-34
-47
-62
-30
34
44
32
-99
-14
17
-11
-46
-79
-23
-86
-15
-7
-23
24
8
-62
-3
-31
-13
-29
-55
20
47
-53
8
-60
-37
6
-51
29
7
10
23
-25
-116
-61
12
-8
7
-43
1
-44
21
-56
59
0
15
-44
0
25
-28
-43
18
-10
-22
13
-20
-38
-12
-11
-38
55
-29
-17
8
25
0
17
30
-12
-6
40
-5
-57
-12
-68
6
5
-69
-11
35
-46
-56
9
-82
-1
77
-15
24
26
3
-32
-29
32
38
18
-39
20
33
-40
-8
10
-20
19
-36
12
-3
-49
-24
-8
-12
-23
-13
-26
-66
15
12
-61
-2
-3
102
-37
-65
4
73
-28
-11
-79
11
-1
9
1
-79
-32
-28
50
-5
-61
-1
-47
-13
-1
-63
-59
0
34
6
-51
-15
91
-49
-32
-58
-1
-20
-66
20
49
-14
-42
-67
-87
12
2
81
-21
-24
-67
-31
14
-62
19
-21
-10
-6
-62
24
8
-9
24
-19
15
-8
-60
4
-20
-30
10
12
-58
-5
28
-1
10
-87
59
-11
-92
45
-10
16
26
-63
-29
-18
-79
-22
-115
62
-32
-8
5
-46
5
-43
-25
-41
5
-10
13
96
30
-43
-40
-97
-65
-8
55
17
-75
-2
-3
-29
-63
79
28
15
-17
-17
-15
52
-9
-81
-15
-49
-50
-65
21
9
21
-2
10
-3
35
-35
107
3
87
-23
-1
-52
34
84
-30
17
-52
22
-19
50
-29
8
-62
-17
6
6
-1
-5
15
26
49
-12
-24
65
29
-59
2
-15
-37
35
-15
-27
12
60
2
43
-44
-32
15
-11
-78
-10
8
9
30
29
40
51
33
19
-80
-127
-63
-26
37
74
31
-77
83
15
37
-2
6
-42
20
16
-108
-47
-21
-39
-29
63
-14
-40
-69
-78
22
19
51
16
8
85
-39
-17
-103
10
-33
-57
-15
28
3
17
32
22
-69
-19
-33
28
-56
36
14
-80
47
-58
-23
0
-35
-31
-5
-78
-43
-22
-37
-32
-95
4
-24
-69
-13
-20
-34
26
-25
-54
58
-36
64
-44
-89
-6
20
-17
-23
27
-11
20
41
-63
25
-6
-4
-71
61
25
25
10
-73
1
5
-14
-9
-6
-34
-58
25
49
9
-85
0
68
-68
0
-101
5
0
-12
20
-17
-22
20
27
22
-96
64
-9
-65
-65
22
-2
46
-7
91
-22
1
-20
37
25
3
-43
1
-15
-118
6
-68
-30
23
-45
8
-8
-35
-28
-122
-27
30
-108
-35
9
11
-29
-52
-62
29
-8
-61
12
-61
-27
21
-16
34
7
-11
109
-44
-10
92
-7
-61
-46
-80
5
48
24
-51
7
-5
39
34
-12
47
53
-31
47
-78
-20
5
-6
8
35
19
-21
52
90
11
-31
-42
6
-3
21
25
-16
-57
-16
49
6
15
-24
-62
9
-8
9
46
-34
46
-60
25
-20
100
-52
-10
90
-53
-35
-46
49
-9
30
13
-48
91
29
28
74
-56
-62
-9
-60
20
-5
-29
-8
60
1
-20
6
-52
-77
1
-21
-35
-11
12
36
-9
15
5
-2
-15
37
55
-17
-4
14
-36
57
-9
-49
-21
-3
-26
-52
-22
14
27
20
-34
-22
-27
-37
-122
59
36
-50
26
-80
71
14
53
-36
-40
-26
-112
57
-41
-22
-37
7
-25
-24
-27
-52
-41
-79
14
-32
-67
92
73
-54
-16
58
-40
7
-62
29
-43
-76
-10
-72
-34
-35
-40
-30
-33
62
21
-21
31
-58
-47
56
-5
31
-25
37
11
-14
24
29
28
-18
-21
-28
-50
-21
-7
-17
38
-33
-9
-10
3
26
20
-4
-12
66
-5
43
6
-16
11
-48
30
-25
39
9
55
25
22
-71
7
-51
-54
-1
-5
-19
30
6
-9
38
13
-2
-77
-60
-29
4
4
-19
11
6
-30
21
34
22
44
26
33
19
44
23
-1
-2
-19
78
-60
-11
-8
53
-1
9
-40
-26
1
31
10
29
-12
-10
-64
12
39
-35
5
19
70
-15
-5
-31
48
39
-15
-76
-14
-10
42
-27
78
-13
32
-3
1
43
-42
28
21
-20
20
24
21
27
-11
-36
87
19
52
3
14
3
13
64
-40
-1
-22
-7
52
83
-3
1
-12
-6
-13
-68
-28
-13
82
-50
41
2
2
-58
-13
19
-44
-39
0
28
12
41
35
-14
43
-5
-42
4
14
-60
38
8
23
9
0
7
-40
48
5
-24
-10
46
-4
-31
-52
-8
-44
-9
18
64
-3
10
49
0
-13
-13
20
30
-5
3
43
36
-31
-5
31
-46
1
34
16
-13
27
5
-22
112
30
8
12
44
28
-43
16
-51
70
54
85
-10
7
-26
-19
66
-38
31
51
-27
-57
-32
35
47
-38
-46
32
0
19
-10
23
9
-16
-20
13
21
5
73
11
-6
-13
21
-6
-37
-56
-12
72
1
-3
-23
-26
-9
-58
18
2
20
88
2
1
-96
95
37
15
-22
49
-13
-54
5
-22
17
45
-92
2
30
-32
-38
-34
-21
38
4
-36
13
-14
-31
46
-10
7
27
-10
-52
39
64
33
0
-65
41
-10
-22
-11
-28
20
-35
-38
-17
1
31
-60
-13
10
0
29
-10
-39
36
37
19
-16
-29
9
-49
-33
-12
21
-23
23
13
-32
19
27
19
7
-30
-42
-100
-23
25
-23
-9
-16
41
-11
-46
-36
52
-7
43
-4
-49
-14
59
43
-25
8
42
10
29
10
-38
33
-16
40
-3
5
37
-5
-11
-4
-29
15
-16
-14
-41
8
85
29
2
19
-12
-21
8
-42
17
-6
-27
-38
39
1
11
-30
-44
-27
21
15
-3
28
-101
-25
4
33
56
16
3
-20
-13
26
8
-33
-25
-28
60
-28
-14
-1
9
15
-55
-30
25
-4
-45
113
28
11
11
105
59
-64
-3
14
9
24
-12
44
14
-30
-3
34
-20
45
-57
-20
70
24
4
23
30
-14
-46
-26
127
3
-59
-29
-4
-40
-87
26
18
40
-3
-13
61
47
-37
-49
14
-10
-34
-16
-15
6
23
-82
27
51
-33
-4
-55
24
72
-61
-25
2
26
-18
-94
71
-3
-28
-70
54
-2
27
7
-12
11
4
8
28
36
24
-24
8
-32
-53
-49
32
58
51
34
-115
68
-22
-6
-28
-95
-5
-8
-1
-45
5
-2
14
-74
-41
-91
-20
70
11
36
14
-63
21
21
30
-31
-25
16
2
-27
9
-21
52
13
-86
-72
-28
49
-5
17
-68
-18
-26
12
-32
65
-51
-5
-29
13
-6
-10
84
-66
10
-127
49
-102
3
46
-26
5
46
1
34
-50
27
40
16
27
-24
-61
21
-51
-55
-5
-7
-40
8
-10
-23
17
-95
-50
47
-43
5
-22
8
13
-68
19
12
-19
-19
61
16
14
-28
22
-36
-77
-70
-14
-23
45
37
-11
-28
-3
-9
-6
-52
30
36
20
-40
16
-42
-49
84
-4
-93
-86
46
-34
12
27
-21
18
48
-22
-48
37
-23
-10
-35
-55
24
45
-41
3
-39
-7
-5
-41
-7
-36
44
10
-38
-3
5
-4
-9
22
14
78
-75
-67
-6
-27
-66
56
-38
-21
-24
-24
-58
-14
19
-22
3
38
-41
-2
-74
-106
29
-26
-18
-6
7
98
26
-25
6
-50
-26
-70
-56
57
-7
24
41
-50
-13
36
-16
32
-1
-16
44
-44
49
76
-37
9
-41
16
-11
11
6
-15
-61
-18
5
-33
-25
-24
-32
-86
46
-20
-7
6
-38
8
-37
38
-5
25
86
31
-29
-80
-11
-16
-70
-80
-19
-39
-9
-10
25
-87
-72
76
-67
-94
21
8
-27
-8
-53
-4
-16
0
-9
-13
8
33
-9
-41
-60
43
-43
43
29
48
-34
3
-80
-24
50
-18
-53
-57
-11
-49
48
-15
-96
62
22
-1
26
2
37
24
-46
36
-74
-27
-73
-27
-41
-38
-24
38
21
10
-12
37
-75
2
-15
72
76
31
19
-20
7
-1
-7
14
26
-8
25
-14
34
-49
-16
-47
14
-15
18
-77
20
51
33
22
-104
3
27
-28
8
20
40
-18
-15
-52
-32
-16
-49
-61
1
-43
6
-22
34
2
-47
-13
-97
-33
-20
-5
2
-43
2
42
-9
-19
-30
24
26
27
2
-8
-43
26
38
-48
47
-17
-42
-103
39
5
-51
-55
-62
11
-71
-45
-30
4
0
-14
62
18
36
13
-58
-2
-39
-86
-35
-16
-26
-15
-41
13
-26
-29
-50
-53
-5
-18
-24
7
-27
-50
0
27
20
-65
0
-16
-23
-75
-126
-30
-16
-51
32
2
-19
7
-47
-22
0
-62
63
-27
5
127
67
-11
-5
23
48
9
-54
-35
-6
-27
20
13
29
58
11
56
9
12
9
22
-89
20
3
30
-18
-46
14
-7
6
-51
2
6
-52
54
-38
3
-38
44
-57
-44
-118
60
9
-5
79
21
5
35
-44
23
47
-11
43
-8
-3
60
-19
0
-24
18
45
-3
16
-19
42
30
-64
-63
-59
-34
-49
-16
56
-29
-35
-93
45
31
-1
-60
72
7
40
-2
-49
-23
-7
-65
-23
0
60
-32
-16
-28
-53
48
4
56
-81
22
-53
-42
24
54
-35
-3
-83
-40
30
42
-25
-37
2
-32
48
-13
-26
6
9
-68
-11
-22
24
2
-70
27
-28
-38
-21
31
-86
-78
3
-28
24
65
42
-45
-2
13
45
30
6
49
66
-47
-57
-1
-51
39
-2
-5
17
-45
51
60
-1
-22
-5
37
49
11
-43
57
16
72
-79
-44
0
-20
53
-63
16
12
34
-1
19
12
-1
-7
-54
-3
34
19
15
19
60
-22
43
-42
14
11
10
-9
-67
-57
13
-20
0
6
8
51
-22
54
32
-6
-66
5
17
-21
20
-65
-32
-7
-16
-30
-92
-31
20
36
7
-19
-9
9
41
-6
-27
16
48
2
-29
-21
53
68
-20
7
26
8
-24
34
-11
-17
54
15
-8
5
-20
16
-101
-53
64
-42
37
-17
-7
22
0
42
-16
0
28
-23
-62
-4
-69
7
65
71
3
5
-41
106
-15
-42
2
-9
-17
-58
26
10
2
1
-1
70
-16
27
77
18
18
-62
-37
70
8
39
-13
-6
-46
27
-26
46
34
-43
-2
-23
-28
2
61
-51
-14
-46
-37
-34
-10
-60
15
69
56
-3
38
-1
40
6
-43
5
90
10
18
-37
30
101
64
17
41
16
-35
52
-45
52
36
3
-4
41
43
4
21
41
38
-98
-20
19
40
-36
50
42
21
-31
-13
-1
7
20
-27
-56
-57
55
68
11
-4
-1
41
28
-16
69
-12
3
27
-18
-17
47
-14
-7
-26
36
18
-17
-20
41
29
3
-20
-1
15
-12
65
-62
-24
15
54
-19
-12
-3
39
94
78
52
-42
23
-48
48
6
35
34
-72
32
29
28
-73
49
28
13
19
53
-15
7
-43
-42
34
-8
85
57
4
9
14
-19
-13
5
-11
-7
-23
93
20
-21
-49
-49
-37
-65
10
8
-20
-12
19
2
32
65
-30
-35
8
32
41
-43
50
-22
-32
27
35
47
-28
29
48
21
-23
-9
-1
35
-16
-71
12
-5
-2
23
-35
32
31
15
-21
58
-16
-21
2
-15
94
21
29
30
27
-42
18
10
32
-75
-15
22
70
7
-3
26
10
101
-60
-5
114
46
-53
-2
48
10
18
27
87
-10
5
0
-34
77
-70
52
-28
-2
34
-9
-61
44
31
-13
-71
32
-8
64
106
39
-14
39
-57
58
27
35
11
1
9
19
3
54
-16
-22
-58
-3
-5
44
31
59
-47
24
-47
18
39
-18
14
24
-21
-26
-14
25
28
45
-11
-35
-3
-44
65
-10
8
-21
-12
-10
-33
-21
-54
-14
14
48
-42
31
-25
-46
11
-1
78
19
36
-6
10
12
-29
55
3
69
-51
37
62
19
62
-17
4
77
-6
19
41
57
-27
-31
19
124
33
-10
77
49
-57
-99
23
21
-82
6
-19
5
9
60
54
-10
3
81
22
8
2
-24
21
32
39
41
-1
-52
-112
-46
116
-65
17
23
81
77
44
74
31
12
63
16
-47
65
10
-2
46
40
-26
-52
-3
57
24
-23
-16
-42
-13
-50
-36
64
0
64
41
76
11
-32
11
10
-59
-7
65
-35
-43
29
-58
-5
-57
120
56
2
-1
20
49
-5
-41
-54
8
-9
-4
30
-22
24
-17
91
57
20
106
-16
-62
54
42
5
21
-19
61
-39
0
-16
16
7
-8
62
64
3
52
50
5
-36
-23
-10
-39
-5
25
-10
34
56
-22
-35
24
-11
-14
-127
-53
-9
13
-34
-9
-1
26
21
76
113
88
15
42
-30
65
24
-12
11
-4
30
-19
-45
-31
-6
50
21
-27
-42
8
-71
-29
22
3
75
17
18
-38
-37
-16
-25
-4
37
-30
-37
35
67
10
97
4
-64
-70
46
-73
-6
-6
-80
36
31
39
81
3
99
55
-35
32
90
-12
25
72
-11
19
48
-95
22
-32
14
69
4
-2
21
4
-22
-19
20
24
15
-27
-22
-97
27
19
14
16
-2
86
-10
34
-15
20
-13
36
111
49
29
31
-11
-61
-49
21
-20
-26
-40
10
61
34
60
24
-7
-15
-72
1
37
-14
79
26
36
-18
38
-40
0
-32
32
-6
46
28
51
3
4
-20
-26
19
-41
-5
16
-35
29
103
38
-44
83
34
35
2
71
38
-52
27
2
36
-35
-49
17
-46
-37
-1
-30
86
-87
72
35
10
-25
-23
15
-45
1
71
64
-3
27
42
48
60
54
-17
72
85
37
-99
37
68
126
20
95
123
0
33
5
-113
75
-8
33
23
-31
79
62
-59
-27
-19
-63
2
-76
50
-15
-48
46
-26
-20
72
-63
-22
-107
-19
49
-92
6
-26
-97
-72
-8
-27
10
38
-36
38
11
-38
19
-25
28
-22
18
-100
-68
-4
-73
-38
19
-82
-109
48
-47
-35
-72
-67
60
52
-38
-39
14
2
76
-85
31
-89
7
-5
-50
4
24
-10
-23
-58
-14
-24
9
-50
28
-110
-32
1
-37
33
-25
-60
14
35
4
-32
-30
-9
46
-62
-67
40
3
18
-47
-27
-61
18
59
5
-40
-101
44
-61
-26
5
1
-60
26
-8
74
-45
32
-25
20
42
41
-63
14
-40
-1
-37
37
-33
-6
16
10
40
22
26
35
-43
33
26
16
43
-24
-26
17
-19
59
99
57
10
-37
30
-31
-4
-69
-22
70
49
17
116
37
36
-32
3
-53
-20
13
-45
-20
-10
26
-83
-27
-11
-61
-52
-47
33
-41
-44
26
-10
-8
-12
-13
-45
1
-61
-31
-75
31
33
-39
59
-38
-14
-50
-53
-19
-28
-36
15
-51
-34
-25
-39
31
27
-3
-105
-76
-78
-6
-55
-30
-80
32
21
-47
9
-17
52
4
-3
-37
62
22
-4
-35
-69
24
19
-6
-41
-12
-23
6
-2
-34
26
-18
4
-64
-2
7
-14
-24
-48
-13
-24
21
22
-34
-21
16
-40
41
10
20
32
17
74
-2
56
28
11
-64
-49
23
17
-43
-26
-25
-81
51
-62
-64
-10
-36
-42
39
-12
64
-8
-44
-35
17
-38
-36
-68
-43
-55
-23
-52
22
25
-54
-63
-10
31
-19
-64
-127
-4
44
32
-62
-22
-17
18
16
62
-33
-15
-36
-71
-32
-91
-60
-54
19
14
49
30
-29
-45
-9
-8
-73
-95
-83
-47
-101
-55
-85
56
64
-74
-23
-24
1
1
-46
11
15
51
59
-48
11
27
-97
-35
19
12
32
-46
-36
-29
-75
-2
7
-18
-34
-45
26
-52
10
58
-28
-47
-16
13
-4
-5
-70
14
-1
-44
-19
-68
-1
28
3
46
3
51
-12
41
29
-17
46
-26
16
-35
-29
-50
11
-95
47
18
-65
-18
-54
-10
-44
20
-97
1
33
-48
9
5
-33
73
-14
48
52
19
-25
16
15
-24
-14
75
-10
78
2
-72
-8
-64
0
1
-48
-11
40
-17
-1
8
14
-69
-73
73
44
1
6
-33
51
-9
-30
-70
-15
-42
32
5
-83
11
-31
29
-26
-62
46
-61
7
8
-37
31
-56
5
35
-42
-4
98
-62
-21
-65
48
-66
-85
22
2
2
-57
-34
-19
-4
14
30
-29
58
1
9
10
21
-37
24
21
-40
1
-5
-7
-5
10
-23
12
-6
-27
10
-19
25
-20
-43
2
-10
1
4
28
17
-24
-23
20
43
12
-12
6
45
8
-18
-2
17
-2
0
-6
7
19
0
-22
27
-13
16
15
35
31
-61
11
-40
0
8
12
30
-54
-5
5
43
26
10
71
4
8
12
127
-5
3
-10
-7
-17
9
20
-43
37
6
28
-21
-28
-26
47
26
28
2
-40
-64
0
25
37
21
-21
52
-5
22
-10
15
61
-53
4
8
-26
-24
-11
-18
-32
2
-35
-58
61
13
-16
-12
-27
14
25
98
-21
-8
-32
-15
45
-16
-39
22
-23
0
28
62
-34
15
24
20
21
-3
-27
-25
-8
28
86
12
-17
62
19
18
-25
32
80
-81
26
52
-19
-2
9
15
-45
-33
-53
26
-31
16
22
6
3
45
-42
-23
-24
29
-98
21
51
27
5
-5
-3
20
-11
-20
27
-18
-22
-5
-24
54
-8
31
6
-76
42
22
-2
-7
17
-4
67
-91
3
14
17
-5
-2
47
97
-18
46
-1
14
7
45
3
42
-42
-70
10
-9
24
24
-70
-53
51
-10
51
-9
-25
58
16
76
75
-2
-22
-38
-49
14
4
29
-39
-13
20
-58
38
19
-7
-37
-40
14
-45
-80
109
-30
31
-10
5
-87
21
37
11
57
-40
5
-1
-72
17
50
-11
38
2
41
-26
41
-1
-6
-5
13
42
40
12
8
-76
70
9
42
1
14
-9
21
-35
18
-25
37
31
-10
72
-71
-32
5
1
-59
-55
-36
-28
15
16
-23
22
22
10
76
-17
-18
-37
14
32
-31
19
17
44
7
27
-27
-79
-14
66
0
15
18
-10
-2
-9
22
-47
37
-18
-14
-65
6
21
59
-14
36
18
-19
59
18
64
-6
-10
-9
48
-52
10
0
-2
-57
26
-13
25
3
67
48
-12
-63
-34
17
-116
11
4
73
-15
16
-10
-36
-26
-28
17
28
-20
48
-8
12
-88
8
-93
-54
12
44
15
20
45
27
39
-10
24
-12
3
-105
29
29
126
-61
54
3
-8
-27
-9
19
17
8
36
41
-18
92
41
-48
54
-7
7
49
-7
-10
-30
13
50
51
-5
16
16
16
16
53
63
32
9
-15
40
-23
-14
11
34
46
-9
33
57
32
-37
0
-6
-22
20
47
24
60
-2
25
-64
-44
-16
14
6
-22
-29
20
2
-13
-24
-28
27
-52
-4
5
30
-21
26
-59
-10
-77
-62
-63
-35
81
-23
-92
-19
34
4
38
-41
-49
-76
-62
-14
86
21
1
-75
-110
-42
86
-62
14
-6
-47
-90
-75
41
11
-46
-28
57
7
16
-37
-57
14
-75
-105
-33
24
35
-93
-68
-42
49
-70
-41
-48
-2
-18
-27
11
-92
-13
-16
-6
-116
-59
16
-9
45
-38
-66
-27
7
27
-79
62
-7
-8
-66
-53
24
40
-15
-67
-96
44
-2
3
100
15
-66
-26
-6
-108
-83
70
-18
-43
-64
-44
42
22
-83
75
-73
-53
-84
-34
-19
1
50
32
39
13
-80
48
5
44
38
-59
-37
-18
-71
-19
25
-2
-17
26
94
-25
-27
-17
35
-26
-74
-7
-10
-17
-62
-94
-13
-18
27
31
33
-26
39
-28
-2
-28
-55
-42
3
-79
-71
62
-28
-71
3
-28
-60
-68
64
-28
-35
-49
16
51
-33
102
-9
-89
-78
9
-41
55
45
-10
-30
2
16
-93
-50
-39
-20
2
-27
11
15
-42
-31
-36
7
-65
-23
79
31
-13
62
-65
32
-79
43
-22
23
-93
72
-40
-23
7
-32
-74
28
-66
27
-44
45
-45
-26
-46
38
-63
15
11
-9
-62
-91
-39
16
-21
-17
22
-14
-3
12
14
58
-35
-65
-84
-6
-12
50
45
-60
19
93
-79
-50
26
10
41
-68
59
54
-94
-6
22
-25
-35
-33
-15
-42
125
-115
-28
42
-42
-17
43
86
-65
-30
-34
55
-69
-56
5
-59
-109
-3
28
-72
-76
-24
-40
-28
-84
77
-91
-122
-82
-78
27
-61
-6
48
-88
-40
-27
-24
-22
-2
36
-45
-76
56
24
-14
31
65
-21
-36
-3
-21
-62
-33
4
-72
33
-37
-89
12
4
15
-73
-75
-46
-50
-20
-17
-28
-28
-2
3
-70
-31
-1
-5
-86
15
-49
-33
-1
96
-63
-7
-80
-62
60
-23
-16
-21
-40
-62
-24
-9
-34
-61
2
9
46
-47
28
-17
-34
2
-30
-48
25
-60
5
-7
11
15
9
-37
24
-49
13
32
-82
30
28
10
37
31
-14
-18
-79
-6
2
91
13
-101
-49
-31
30
-44
15
-17
-58
-30
-68
-36
-19
-90
-44
-31
5
-3
-47
-30
-39
-95
-76
-14
-34
-36
-54
-26
-86
2
24
-80
-106
-51
8
78
-17
21
-83
26
-12
-55
-73
-46
-3
-28
-126
-43
-51
5
-58
-33
-3
-8
40
31
-5
32
-118
0
-16
13
-122
-92
-67
127
-10
-43
-31
-7
-62
-11
-56
-49
-16
-60
-73
-101
-33
-51
-103
107
7
33
74
30
-68
-58
28
12
-18
20
-4
-46
-66
44
17
24
-67
0
10
11
10
4
12
-24
-15
-63
-72
-13
-36
-31
45
18
46
-10
61
-23
-50
-17
-33
51
52
21
18
-5
35
-39
-15
-19
48
-19
-19
32
6
-44
-25
23
-42
46
-37
-77
-1
-17
15
18
28
59
50
-13
20
-53
21
59
10
2
-16
-37
-33
36
-39
-12
31
-107
7
-22
9
-3
30
31
-49
-27
16
-47
-30
-12
-38
27
69
-4
-30
14
41
41
-40
-24
-32
-5
30
-10
-16
-71
49
-37
-42
1
-9
-46
43
14
32
22
7
8
-1
-62
-28
23
-1
12
31
59
-29
-91
16
64
5
43
4
6
16
-50
31
26
5
-15
-46
53
15
-29
-29
3
24
2
-18
-20
19
-38
-64
-52
83
60
-33
-26
-127
75
11
-39
-38
-22
-21
34
-3
27
22
16
31
44
-94
-20
79
36
-44
35
7
26
-33
-21
-49
-26
-1
-48
-9
-44
33
21
-36
-25
-63
-10
-80
-10
29
-17
17
53
-9
-32
-46
0
-14
36
-74
26
-9
-29
27
-28
-12
39
-55
-21
8
-32
-69
-4
-5
8
-27
79
113
0
-42
-61
10
37
-8
-13
29
-15
7
9
3
-15
-125
-13
-43
0
-17
55
-11
-30
-2
-7
-30
53
14
-29
31
-18
15
13
32
60
-4
-21
-23
0
-15
-19
-24
-8
-49
4
14
-7
-5
-37
-7
13
-28
34
56
-13
3
0
78
-31
-53
-24
3
-7
-43
12
-40
72
-49
-80
-31
18
-31
-70
-15
36
69
59
-56
14
31
-46
41
-37
9
35
71
38
40
-30
51
-15
-37
15
-52
-1
40
66
-33
-32
-26
-49
-36
-41
-69
1
-39
-22
-41
18
45
18
-1
-57
-44
-11
-14
-11
-59
-1
26
8
30
-11
-47
25
-20
21
5
40
-40
-80
-26
-9
-43
-36
6
-57
23
-9
33
-8
50
18
-23
10
-32
22
-15
-51
-33
91
22
-9
-54
-39
-5
-7
26
-10
15
35
34
28
6
40
92
-3
14
4
4
34
-43
-43
13
26
4
-38
-35
-7
31
19
-78
-15
32
23
-38
-6
31
-11
7
11
27
2
-34
23
36
-4
13
45
-66
101
-66
26
-19
-80
-38
-1
-17
52
11
-21
-19
-53
-20
65
-22
11
-13
39
5
53
29
-1
34
-46
-15
7
-40
18
-26
2
-78
14
62
-9
25
-52
12
28
-52
-35
-28
76
-10
-34
-5
116
-42
-13
-62
-6
-5
-52
-36
5
51
-15
-66
7
18
-27
35
42
18
-16
31
-51
25
40
13
-15
10
21
25
35
6
-6
-4
45
-14
-10
-31
-6
47
2
-41
-18
-6
39
-49
-33
-27
79
105
-27
66
10
2
-61
-23
-43
-3
21
-79
8
-37
8
-17
-38
10
-15
-28
11
6
-2
-19
-64
37
-40
25
-18
-1
-33
-18
-8
5
38
3
4
-4
-14
-12
-46
37
-38
-8
-13
34
-12
32
-92
35
-25
35
66
35
12
39
-5
-43
-80
-82
-7
-19
25
8
22
-39
55
4
37
-9
-9
13
-28
-68
20
-6
-95
-10
42
64
-13
57
-37
26
46
-1
-67
-12
-40
64
33
-31
-58
24
-6
17
28
10
108
19
0
47
72
-17
-83
-6
-62
-39
48
-5
29
42
-18
34
4
-18
48
12
-51
34
-43
62
64
-3
47
-19
-49
6
-38
-35
-40
26
-14
11
-13
49
-35
-21
17
9
-25
1
19
28
-19
16
21
-7
7
-4
25
94
-20
38
36
56
3
18
-2
5
-64
-20
-39
-22
28
15
8
-105
55
-28
-24
11
28
-2
23
30
5
-13
-43
-66
21
30
23
-25
-42
86
9
-76
67
15
38
44
15
47
37
59
-31
24
-72
2
-60
13
-18
44
8
26
-8
-5
61
4
80
-6
75
-6
-15
-8
12
-10
0
11
-20
-83
-19
96
-4
48
14
63
-1
9
-8
22
-29
0
7
-60
-74
42
-81
-43
-31
-29
-69
28
-61
11
20
-10
-8
-10
-45
10
33
-51
49
55
-17
-42
-9
11
10
30
52
-127
49
-26
-41
12
16
-29
19
-67
13
45
65
32
8
-8
-10
-3
-43
-8
-2
-67
-76
7
41
-19
3
-3
6
15
-36
-10
-19
-49
-15
31
-5
8
-46
1
2
9
4
22
6
-17
29
-23
4
16
-54
1
37
-19
-22
11
7
4
-116
-27
-7
59
-15
30
8
-81
-103
82
22
30
-25
13
29
-57
8
59
66
1
21
41
6
-17
-31
74
65
29
45
-67
28
66
-7
-2
-16
-57
28
-56
-16
97
-40
-28
-37
-46
-11
19
-21
-5
26
24
40
75
-58
0
-2
-36
18
-61
47
40
-59
-12
33
-16
-36
-32
27
-25
-8
36
-15
-33
39
21
14
22
-38
22
5
-32
-22
39
-13
-5
-16
22
-54
-6
-46
29
-76
-30
7
-2
-29
21
6
-82
32
38
-20
-36
-16
-30
-8
-43
-39
4
-7
-22
69
0
35
8
42
-22
-12
57
-9
29
-3
53
-11
24
-19
0
-86
20
26
12
-29
36
28
67
33
2
26
56
-18
18
13
-21
6
54
-14
52
2
15
-31
10
65
2
42
10
55
-28
-27
13
-3
35
36
-9
29
-19
-7
12
45
18
42
-35
2
23
13
-26
-70
48
-75
72
35
35
84
14
-2
32
12
-13
38
-22
22
-52
40
-5
-68
36
-29
23
-12
16
-1
19
14
7
-26
-4
10
8
59
-23
11
52
54
12
11
-5
-30
17
61
54
17
55
-2
26
31
25
52
32
-1
-8
-8
10
67
-11
61
-20
-3
40
24
-2
-9
-9
-23
-6
9
12
-12
10
49
-36
35
11
12
-10
-37
-14
27
22
40
5
-5
-87
-7
45
-31
-6
22
56
127
-27
47
-3
26
11
1
1
-12
-6
34
38
16
58
-32
-18
11
35
41
-9
-1
52
-27
8
21
24
0
12
6
-12
-29
25
80
17
33
16
25
38
8
26
-4
26
-6
-19
41
15
15
20
1
44
-5
43
8
-44
4
-8
53
-7
0
41
-11
34
20
2
-7
31
82
49
8
-10
50
10
-14
4
34
6
-12
4
43
-49
12
20
20
55
31
-5
69
-3
1
33
32
21
-17
30
18
26
21
-12
21
21
-41
18
-9
-4
17
-39
-14
4
46
-23
-18
-31
37
-33
-1
61
21
-3
12
15
-28
-29
38
54
21
-35
-23
28
12
29
33
7
8
25
33
1
38
20
-14
17
7
4
-17
-4
47
14
-16
17
54
-48
58
-2
-7
10
83
11
9
50
45
25
-19
5
-27
37
18
70
-6
42
14
2
-3
30
38
17
12
0
9
-19
27
35
10
70
80
-19
48
60
26
15
12
32
50
20
-70
0
17
-17
1
4
-1
31
7
7
22
3
48
18
23
-9
31
-36
-10
-8
14
7
7
20
10
30
10
34
51
-32
29
4
-20
-37
-13
0
25
1
12
36
19
-20
8
-29
64
8
-57
-36
-15
6
3
42
8
63
-65
39
-7
5
67
-19
22
3
55
20
3
4
15
-45
10
-7
-24
65
18
-2
41
-24
32
6
-16
61
18
-3
-65
81
-13
-9
5
48
-45
-5
16
-12
37
70
41
-20
-7
36
26
43
18
31
33
-37
14
-12
-23
-60
-16
-7
30
-1
5
-7
26
-7
15
-10
18
25
-26
32
11
73
41
36
30
51
0
22
-1
68
14
5
28
-5
-41
47
73
23
39
65
-28
8
22
-18
-20
60
7
22
-44
27
-21
29
13
-29
-39
-2
-30
-19
45
15
5
36
-42
-27
-65
-74
7
-13
32
-23
-19
-13
-20
-12
-23
6
47
20
-22
-42
-64
-2
-46
-36
-16
-12
10
-2
-42
-117
-2
-36
2
32
0
-63
12
20
-27
-15
-53
-24
17
-3
-52
9
-81
42
-16
-1
-23
1
-16
-11
0
7
46
-29
-6
16
-17
-5
58
27
-28
38
-21
1
-5
9
-86
30
37
-21
37
20
-17
5
-10
-63
-82
1
47
2
-41
-15
20
16
-20
12
-45
16
-47
-14
-12
-23
18
-13
8
5
-113
24
-7
24
47
2
-37
54
-29
-13
-44
-7
37
-1
15
-17
41
-106
2
22
23
39
11
17
18
-80
-29
-27
-17
26
15
17
8
2
35
-18
-22
-60
69
-52
-11
48
1
-53
51
-11
32
-90
30
-28
-10
0
-18
-27
-35
84
-17
0
-69
12
-10
-5
-25
11
-14
41
-28
-50
-1
-15
-52
-11
-32
4
13
-35
10
-88
-8
-46
-29
20
-37
15
23
-55
-3
-26
-4
-28
16
25
39
-68
11
-13
-44
-26
52
19
-13
11
-15
-8
-19
-68
10
-24
49
16
-4
27
-36
42
52
6
-4
11
2
-33
60
-3
21
3
-12
-43
-12
-29
28
5
-66
28
53
9
-45
29
-50
22
-18
72
49
-52
42
53
-25
27
42
29
-56
31
-48
-5
5
-14
20
-6
35
-1
-39
4
39
25
-59
-16
19
-51
-3
-33
-45
-29
-24
46
31
-39
21
43
-33
-26
31
33
-15
8
22
-110
-43
11
8
-3
-15
-50
-17
-100
27
56
42
70
15
-32
-38
23
-23
-13
-15
61
-13
38
39
-31
24
41
-21
12
-42
-35
-27
-27
-31
-44
39
-21
-11
6
-26
5
-15
-39
44
-52
43
-8
7
11
28
-5
14
37
-77
31
56
-27
40
-36
2
8
27
24
-7
-14
-20
-53
-3
-25
14
1
-16
2
11
-17
13
-11
-39
33
-30
37
-1
29
12
14
0
27
-21
29
-24
10
-26
-46
-2
16
36
13
-43
-28
-11
-17
27
24
22
-44
27
-21
-33
43
-27
-1
30
6
33
-36
-3
13
-3
-62
-16
22
29
-83
8
29
-11
-6
9
-44
-12
42
26
-5
30
-8
14
-30
9
1
-21
-13
-59
-60
6
19
-36
-47
-15
20
18
30
-7
-1
-32
0
0
11
-4
-71
-85
-2
64
-43
13
-13
39
-86
-2
26
28
-53
-57
-36
-127
-1
-34
-65
-14
-5
-34
15
62
-70
-28
6
-8
11
38
16
9
-28
-33
5
12
-20
34
14
32
27
-61
26
54
-32
-48
-7
-29
37
-28
-18
-10
-23
-78
14
-15
21
-38
-30
10
-7
-11
28
9
64
-41
-35
-83
-28
-35
-65
10
21
-38
-59
57
-27
-24
-107
-56
-30
62
0
-68
2
-55
80
-5
68
-43
-3
1
-24
12
19
0
-41
-67
-33
-53
29
-53
-40
-82
3
-67
43
-45
-30
-48
34
-9
10
32
-5
-1
18
-52
-127
28
42
9
-1
-50
-75
23
22
-7
30
-55
28
-59
1
-15
22
-38
-52
29
-16
-45
-6
-35
40
23
20
-94
29
-61
-18
14
11
-17
22
20
-10
4
-34
-22
-24
-35
4
30
22
-44
-39
28
41
17
36
83
-18
18
-7
-19
6
-34
-27
27
98
55
27
49
15
-16
10
1
-17
-17
-7
29
9
-20
-44
-32
34
7
-15
-77
29
-8
-37
15
6
61
9
10
-38
-45
-62
-40
-37
-73
41
13
-23
58
-27
8
-40
-49
31
-9
-23
28
-70
-37
-46
14
43
29
19
-84
-75
-24
-32
-23
-4
-25
-38
-31
-13
11
-47
-34
-3
35
-80
79
45
33
9
-46
11
7
-6
-10
24
-9
58
0
-21
31
5
0
-23
20
-42
-14
41
-29
-5
-23
-22
26
-22
-39
-7
-78
56
49
-27
-57
-24
77
1
77
45
-57
-10
-49
-11
16
-22
-54
-36
-7
15
-78
-10
-25
-80
-28
-37
51
29
3
-37
-10
26
-21
-4
-46
-29
-40
-35
-8
3
-35
-24
-17
8
-11
-52
-46
-24
-60
45
81
9
-25
-41
30
-51
31
8
-18
-95
-100
-17
-64
-73
-49
63
46
71
-3
-63
-33
28
6
-29
-83
-41
-78
-60
-10
-45
56
-9
-62
47
3
51
-4
-37
12
-17
12
39
-51
3
22
-62
-7
-10
-4
-20
29
-5
-80
-72
-40
-4
-14
-3
3
19
-44
-35
2
-34
-12
-68
2
6
8
15
-56
9
-113
0
-32
-29
23
36
4
7
48
-26
12
3
-24
67
-8
-40
1
12
-83
-18
-51
-16
-37
-29
-13
10
-28
-49
-12
-63
-4
24
-23
18
35
-28
26
-38
25
44
70
-70
17
52
-38
-51
27
17
48
-42
-6
-62
-26
0
-36
-7
22
-39
-24
-25
8
-19
-93
-35
30
-72
5
-44
19
33
-39
10
-19
12
-18
36
-4
-106
15
-21
44
-75
-38
-23
-18
-19
54
-46
8
-12
-34
13
14
31
61
-63
-16
-16
-31
-54
-8
40
15
51
10
-51
-69
23
-28
-14
-38
-10
75
36
-18
53
-7
39
-8
-5
38
-27
1
-27
13
4
11
-18
40
-56
50
21
57
58
37
44
-7
18
-18
49
-6
-26
20
38
5
38
4
-55
4
-31
-53
0
3
-66
15
60
-30
45
-15
6
76
-10
-33
-10
-2
24
30
26
13
27
51
26
66
-1
-43
29
-10
33
18
-70
9
-10
13
41
7
37
17
39
-22
37
25
-28
-127
-18
-47
22
19
-8
-35
8
-71
8
17
39
42
-20
19
-45
41
-47
58
-25
7
-5
-16
21
9
17
-17
-34
19
20
39
-7
-20
-85
8
21
-4
-1
29
-46
11
19
36
-18
30
-73
-7
-13
14
21
3
-4
16
33
94
44
-3
-6
0
10
-30
42
11
12
12
31
-5
-99
-35
7
-62
5
55
11
-14
33
18
-42
18
13
21
26
19
-72
11
56
24
44
4
-29
-17
3
32
-3
27
17
25
19
46
2
43
-39
-5
46
14
18
25
-4
5
31
22
-38
4
-9
-33
-64
-73
-39
27
-32
-18
44
13
27
56
-26
31
-74
-31
1
0
4
-20
-13
12
19
40
94
-26
-16
39
-34
-27
-14
-20
12
-35
-6
6
41
-14
-26
-51
42
32
-20
-5
30
27
-24
30
-22
6
12
-11
32
6
-25
-38
22
38
-3
-44
11
52
-51
14
43
8
-25
-25
-12
-12
-34
-41
-25
12
-13
27
-3
34
-50
17
-56
-96
-50
-9
6
9
17
20
27
74
-8
24
-5
37
-10
54
23
-69
10
37
-20
32
6
-28
38
-22
11
-40
94
33
29
-4
1
17
92
36
12
21
60
18
-49
43
37
-26
46
34
45
31
29
-9
-2
6
65
46
-6
10
13
28
19
-18
37
-25
8
16
-68
-13
1
-14
13
34
48
31
-7
59
29
6
54
-27
-18
-33
16
43
42
-17
70
-27
-45
-29
-14
-64
-26
3
20
18
21
32
-6
53
-34
-29
-30
2
-33
14
5
37
36
35
35
15
-1
48
8
-10
-35
42
-14
17
6
-15
16
12
42
-3
84
-20
55
37
15
66
14
-2
20
0
-19
-9
4
17
14
-17
-19
-16
21
30
-20
25
39
48
6
22
9
17
-34
-44
-8
27
19
22
16
8
-69
11
26
13
-54
-34
0
7
-29
-15
-24
8
16
-11
19
-31
9
25
28
-4
-11
-40
4
-31
7
30
-1
46
-3
-72
32
34
50
12
3
15
-1
2
-1
14
45
9
-9
-16
5
-5
-84
60
19
34
33
-26
15
-44
-52
-12
-35
-28
-26
1
58
39
63
-16
1
31
-74
-9
47
40
-69
0
17
32
105
-3
-33
15
-56
37
-37
23
24
96
101
6
71
-4
3
37
17
18
5
10
44
25
22
-40
-6
48
-32
67
-20
45
-41
21
-10
-8
-11
38
11
-9
-2
74
-6
9
-17
59
-21
42
12
25
29
45
-9
45
-100
70
7
-8
12
22
-26
41
5
36
-1
-23
22
54
2
-5
-46
21
25
4
-17
76
-1
5
-4
46
4
16
52
127
-41
-31
-56
-16
-27
71
2
11
-24
28
-48
38
23
11
-8
-61
22
-23
-41
33
-1
9
-35
16
15
30
4
-8
-99
-13
-69
-3
5
-64
37
-15
36
12
-16
4
11
10
49
-35
35
-9
40
44
1
32
0
24
6
32
44
-6
20
13
-2
-7
108
43
-70
27
-24
-19
9
-16
24
109
-23
26
-29
36
-38
13
46
-36
71
16
-21
62
-46
-11
20
18
19
63
-21
-3
-12
79
34
-3
14
35
5
0
9
53
3
14
21
16
1
-21
47
-72
-52
-1
-9
30
-52
6
-1
-1
-25
70
-14
-114
62
8
26
29
62
40
-10
-50
8
-14
21
-1
20
-49
-54
7
27
-3
-17
-38
-21
-35
2
61
49
-101
-41
44
-23
29
11
21
-23
20
62
15
-27
62
19
-67
5
21
-8
52
-23
21
14
49
-8
-87
34
2
40
-85
-21
42
-13
10
-48
-14
9
5
9
32
45
-8
-3
93
-22
17
70
-2
-39
-50
-15
-2
23
86
-20
87
-16
96
-49
-32
-39
-28
31
32
-2
-14
-33
106
11
-4
6
8
21
-46
28
37
32
10
3
71
30
-38
8
-62
46
-35
18
-7
15
-4
-8
-26
-33
91
99
22
90
59
-12
87
28
9
3
50
-35
-22
26
-37
28
0
-24
2
8
-63
-15
-51
-14
72
-4
13
-11
9
-38
-14
29
-40
-34
1
-66
13
-26
3
30
7
-5
35
-25
26
49
-39
21
30
115
-2
-9
-29
-26
112
26
-28
-25
-7
-9
18
-21
29
68
-30
-70
9
8
3
32
17
29
42
39
1
45
-2
-16
-30
6
-16
-14
-19
52
54
-18
-27
-59
31
2
-9
-15
19
-61
16
-5
-25
-28
12
77
22
14
12
57
22
-34
7
44
-61
21
-21
67
-22
-36
-20
-2
-56
26
3
-29
-59
83
-11
-21
40
-9
64
43
14
3
-2
88
37
-28
3
-26
39
6
-76
40
-16
-16
-1
-28
21
-39
-54
6
23
11
55
12
50
33
2
-1
61
-43
42
-1
18
-43
-27
-16
-50
-9
-56
-59
86
-4
50
-33
32
10
-33
-49
-6
0
-70
4
-8
63
30
34
24
26
68
17
21
-63
26
-101
5
29
-66
-41
-23
26
50
24
-6
-30
60
-55
-5
21
71
-35
22
-19
10
45
-11
-24
-43
4
67
2
7
23
33
28
-7
-4
-28
12
7
37
-26
5
30
22
37
-83
66
-12
-27
-12
27
-27
-25
-9
31
14
-21
-38
-27
12
22
-48
47
-10
34
-30
61
-14
-31
35
-45
17
23
-71
37
-24
-22
-41
38
17
-103
-14
-10
66
-27
18
11
50
32
-11
45
21
70
-26
-41
-10
-13
43
-39
-35
44
31
14
-28
45
-9
-70
12
35
-29
-1
24
47
-101
-39
-27
-9
25
-25
-18
16
46
33
16
-22
-48
-2
-42
-61
60
19
27
-19
-7
32
-50
7
-44
1
24
22
-17
-36
8
-5
-33
-127
30
57
-20
18
30
-49
31
-19
4
-25
-12
4
-5
28
-4
-4
12
-27
6
49
20
27
-35
-24
-11
-38
-39
30
46
-20
-2
28
14
-19
1
-21
20
18
28
-8
-12
-92
-21
-7
-28
-7
-6
-1
59
-16
-9
32
30
-61
-14
21
-45
27
-3
54
15
54
-5
16
-78
58
17
11
21
37
26
-17
-18
17
-36
-2
-15
3
6
19
28
-35
-5
34
16
38
10
0
76
-33
31
19
-69
21
-10
36
-9
-10
0
-3
-16
-59
-63
23
2
76
6
24
4
24
-19
-123
54
-44
43
19
-42
-8
12
29
-2
46
24
-57
12
19
8
67
-15
-7
-14
50
-18
-19
-14
34
-21
49
31
36
43
-55
20
-5
-51
16
33
25
-25
27
-15
-30
-31
-1
-45
53
-37
-5
29
15
3
3
-32
-6
-39
39
-2
-4
21
31
77
37
0
-22
14
-15
-13
-22
3
21
-93
21
62
-29
7
23
-9
27
-11
23
-14
-8
-6
50
21
7
-14
46
-59
-9
-18
3
14
16
3
15
-30
-8
2
-28
-58
19
54
-5
-12
-6
13
8
0
11
3
9
-18
-64
-12
23
34
8
29
27
-1
-33
-20
32
16
-68
-39
6
44
-2
8
18
14
-33
8
0
34
-26
57
42
32
81
41
-35
13
19
-8
-19
-39
17
5
-80
23
43
21
40
22
37
-41
-70
-23
-13
13
65
10
-6
-62
29
-15
-18
3
-22
3
-22
-34
-9
106
5
9
-3
17
-19
-95
-29
-5
38
28
-25
23
-29
61
-53
30
-3
42
1
-44
22
-15
-15
-13
58
-10
57
-56
-48
26
-6
-38
29
-3
64
1
-43
-6
20
-57
-56
-31
-19
-15
-63
7
-68
33
-3
-14
-43
-25
21
62
14
7
-48
-30
-47
12
-76
-20
4
0
-59
14
-24
-12
-34
-6
-19
-21
28
-5
-26
-17
35
-49
-6
-27
-78
46
-13
-2
-55
-23
-31
25
-39
-6
-36
13
-81
-18
17
14
29
25
-15
12
-33
-62
20
73
68
-85
-51
12
-18
-13
-56
20
-49
2
12
-9
20
7
-21
56
-15
-2
-29
18
-19
6
42
17
-18
-7
14
14
-6
22
-58
-41
21
-58
-19
-74
16
-20
-81
-22
55
-1
-65
-73
45
-19
-79
26
1
43
-30
0
-22
7
-65
27
20
15
1
4
-51
31
4
-16
-29
-61
-33
-33
3
24
0
-15
2
-29
51
-35
-41
82
-17
24
13
-20
-15
27
49
-3
-40
-39
70
-47
-23
10
2
-49
28
-24
-6
13
13
-77
-13
-96
-12
-45
-53
28
-47
2
-33
-50
-37
0
-17
-12
0
-23
22
-33
41
-12
-55
-65
-20
9
23
2
-35
-35
-19
-16
36
11
43
25
-52
32
27
-4
19
53
-127
4
-17
2
5
118
-71
-36
-30
3
-4
-5
67
17
-30
-15
38
-44
-77
-28
0
-82
-11
20
12
-78
31
-64
-19
-7
80
-2
-8
-25
43
-41
3
-72
41
-26
-39
13
-27
25
-73
47
6
-27
-8
21
42
2
18
-62
-59
-8
-16
-24
-23
-11
27
16
5
-12
37
59
-47
-21
-48
-63
-51
-26
-15
-47
-84
-25
-77
-31
-30
-6
15
-59
-19
12
-39
-17
102
36
20
-24
24
18
-19
6
-43
-27
-74
-56
51
43
-29
76
-24
11
-45
21
-4
8
18
2
-30
3
4
-8
11
-13
78
-26
-40
-2
5
6
19
-7
31
-21
-14
7
-4
-1
-55
-28
31
35
81
30
-32
-32
6
3
18
-20
-58
-32
11
-1
-33
67
30
-4
-25
-1
-27
-27
8
1
12
-60
-29
-15
-52
-10
-20
-30
-16
41
-67
-54
-9
-24
-15
-12
28
-17
-6
-66
-17
-10
-62
11
-9
-13
-57
21
59
-51
-7
-14
23
-8
-15
-36
-47
-83
-63
-74
-2
-106
-89
10
-3
-36
-12
-79
-10
-64
4
48
16
-16
-59
-79
-75
-18
50
-66
66
-23
-7
20
-25
-44
-72
-38
24
-1
-7
-34
-13
27
31
9
41
-31
-16
-10
-41
-42
-4
-1
-22
-20
12
52
-21
-8
9
-29
-36
7
-44
-32
-12
-19
34
5
-27
10
43
-70
46
-25
-27
-32
-42
35
-35
-2
-3
-9
-44
-22
-57
-32
-55
-68
-39
-14
-11
-23
0
-1
-24
-39
-61
23
-24
-22
-13
-1
6
-26
-14
41
-57
-10
-5
26
-12
26
-51
17
0
6
1
23
-6
17
-54
-23
30
-20
25
3
4
-16
-56
-36
-8
10
34
-32
-34
1
-3
16
-27
-43
-56
12
4
13
-25
-27
6
-11
-44
22
4
-33
-12
-36
-33
-69
-15
3
-12
-16
-38
26
18
-34
-48
30
41
12
-40
-21
-35
-7
-5
11
-24
-5
44
-9
-15
1
-15
-36
-35
-31
10
-27
-34
2
-77
-20
-34
49
-76
-1
-48
1
7
5
5
16
-1
-19
-46
-54
10
-9
-48
-9
-70
41
-20
-13
18
-22
-6
-58
19
9
-6
4
6
-16
13
-33
-70
22
15
-41
30
-2
48
-13
-13
32
44
-35
17
18
-32
29
28
-49
-43
38
-45
-4
41
-27
27
0
-4
-10
67
-43
-42
4
1
44
-26
-50
-57
-49
-15
10
-11
-8
11
9
-14
-65
4
34
36
-41
-25
37
-34
-49
-36
-47
-5
-38
1
-18
10
-22
7
-21
-25
5
33
-24
-14
-41
-37
1
-33
19
8
27
-11
12
-38
58
20
-29
-24
14
-26
12
-23
-18
4
22
18
-3
81
31
34
-31
49
15
8
14
-29
-18
-11
-12
-9
10
-45
53
-22
23
-32
-9
-6
36
-12
1
-14
-63
-49
-113
-5
-16
-76
-64
-28
-6
66
-69
-20
-75
-34
-24
27
-15
69
-26
-45
5
-14
-10
16
-33
-29
-29
-10
2
-12
13
16
-26
-28
-4
-38
-43
-2
-13
-31
-13
0
8
-55
40
-3
-50
-37
-18
-54
-18
16
6
17
-127
4
-56
-33
9
30
5
-9
22
-28
52
0
-14
-30
-15
-54
-40
-36
-12
-11
-73
-28
9
-69
23
-70
-65
4
35
53
-21
-52
20
-22
15
-21
33
-14
-35
-18
-27
-49
-30
-5
-9
-16
-12
-58
-20
-10
14
4
-42
-23
-55
-19
-20
-11
40
-19
27
-25
61
-28
17
-16
-75
8
15
-20
-24
-11
23
-21
-11
-41
0
-58
9
1
-23
-9
34
24
-5
-16
-28
54
-21
0
-40
-18
-31
-46
-21
-22
47
50
6
-39
-19
-36
19
-29
-16
-14
34
-8
-11
2
-26
0
-56
-13
-13
-17
8
-29
-58
9
-6
-15
28
-23
17
74
32
-6
27
-27
97
-41
-39
15
-29
48
20
27
68
-13
-23
2
-44
44
65
18
65
60
-21
-46
13
-20
26
-42
-29
-30
-19
19
-13
-28
-13
40
19
69
13
-4
-100
-67
44
41
50
8
13
82
-13
45
42
-6
-23
29
17
59
47
47
-11
56
-15
20
33
28
3
18
-37
-34
25
10
-40
58
13
-4
20
-58
55
21
57
-59
9
-4
4
5
-3
-5
-22
28
17
-8
104
-25
13
-31
-59
12
-5
32
-33
81
-17
-48
40
25
-12
-34
-70
-31
-71
-11
-14
-20
-6
-21
11
-19
17
69
-45
8
47
-1
38
8
24
-29
-40
52
-11
3
-37
-49
84
-3
37
13
41
-18
-5
-17
73
-15
29
4
78
-30
51
32
-43
-20
44
-31
20
23
87
24
-22
40
30
-57
34
43
-25
49
107
53
-62
-17
15
-55
-34
29
-43
2
81
24
6
9
-8
7
37
-40
24
70
64
36
8
-21
-62
1
-17
59
40
-53
8
-55
-28
-3
38
-74
94
65
-107
16
77
-23
34
-30
23
7
33
-101
1
33
10
13
66
-29
51
80
27
-64
-43
17
-6
29
54
7
54
-30
16
28
56
-3
-43
-37
-14
13
4
-47
41
-36
-15
-42
-29
12
-10
-42
-26
-98
-52
75
52
12
-18
70
-32
47
-63
32
30
-24
-34
37
13
40
38
25
4
27
-27
69
42
12
-48
55
26
-28
34
36
59
4
51
84
-33
-3
7
49
10
-64
-20
77
-40
13
4
45
-42
50
-25
-24
39
-5
-15
6
6
68
41
9
11
-14
-3
14
49
8
50
-20
51
-4
127
41
26
46
-51
-25
23
-2
1
79
84
24
-37
8
44
13
9
-15
5
31
83
23
1
12
-47
7
-6
42
68
-44
-1
24
-39
9
29
56
31
-10
-53
5
-54
25
-77
0
-55
31
-44
22
31
41
16
71
-22
67
42
-42
83
58
-35
33
10
20
-7
4
6
-49
-3
50
5
55
-75
-7
7
-33
2
-16
-22
-62
62
-45
10
30
38
57
1
-40
-32
-2
19
63
27
-29
51
-44
74
32
70
31
-9
-10
42
57
25
-12
50
-30
-62
27
80
56
19
4
37
-14
15
16
12
-16
13
-59
-12
23
-5
1
-31
5
-24
-15
18
-2
26
35
-77
51
14
24
48
43
34
-26
12
31
-16
41
47
53
47
35
64
-35
-2
-32
21
-4
71
21
-19
-37
51
-1
-63
8
50
-6
-9
47
58
-68
30
4
-14
-41
3
-14
31
-4
21
-44
12
62
28
-1
-33
28
-43
-8
9
-17
39
8
21
11
-16
25
-39
55
27
26
-2
12
7
-7
0
34
42
-17
-5
-46
-7
67
-8
-11
4
-9
-50
3
-72
25
7
44
-44
1
-3
14
5
27
-13
-24
2
4
-10
8
-32
30
-35
17
-11
-6
76
78
-23
13
-23
30
-6
1
-50
-9
29
81
-34
-37
38
86
5
30
-21
-11
-8
58
-41
38
-22
12
-26
53
-30
43
-24
48
-68
-10
40
24
43
15
-18
16
-18
23
6
19
-14
-43
11
-39
-30
15
-68
1
-18
6
-13
-23
61
-56
14
-1
15
-19
-17
28
-1
5
45
33
15
24
45
-48
-13
54
2
-63
5
13
46
51
-16
19
27
-10
-37
-4
-1
-28
39
38
-2
13
-15
32
-82
-64
-8
0
65
19
-6
14
-12
32
-20
-1
38
-13
35
-6
17
17
-89
79
-39
-15
47
-38
53
20
7
-21
34
6
48
33
-11
60
5
-21
15
12
63
-14
69
-16
74
-43
14
-79
-87
127
-36
36
-16
6
65
-4
-20
15
-15
-30
38
0
4
47
71
-28
10
-59
33
46
-30
-3
-9
-34
-79
2
-32
51
-28
-43
3
-22
-9
40
25
4
-29
61
-53
19
23
7
-5
37
9
-39
-32
22
41
-65
-7
48
5
-66
72
-1
29
19
23
-59
33
15
70
-76
-18
55
-27
-53
20
55
17
-2
30
-39
30
-32
-31
62
14
42
17
-23
-44
-17
-6
20
7
33
38
-14
50
57
26
-72
-22
-15
41
39
-2
-12
26
34
-7
48
55
64
-8
22
24
22
18
-8
-28
15
39
-5
15
-40
-28
-71
33
0
34
9
-22
53
20
27
54
10
38
32
-3
22
11
30
48
6
-8
-35
13
-10
3
-63
-2
-3
27
-73
4
-1
-10
51
-26
-12
-10
1
-2
-53
-25
16
-38
3
-13
-17
32
0
8
-60
4
12
22
-5
23
-12
26
6
26
-2
59
-18
-39
30
30
-31
-16
-20
-29
-22
-24
-54
28
-7
-8
-4
16
-43
45
-38
-1
5
21
54
46
3
5
-61
-15
-5
6
10
-15
-14
41
-3
40
-18
-40
4
13
11
-41
-1
-11
2
-11
9
23
29
24
32
-4
74
-25
58
30
-38
33
-7
24
-43
-69
26
10
-12
31
65
12
-19
61
51
-5
71
-38
-11
25
-4
31
21
4
36
84
51
43
53
-30
24
17
-15
48
-111
-40
35
44
22
67
20
6
30
18
57
49
22
-81
25
-40
20
43
57
50
68
-14
-59
47
-40
-114
103
99
99
-45
73
31
-9
-25
39
36
-60
-4
-26
50
61
30
-8
127
54
-16
56
-22
53
79
19
24
24
-20
6
84
40
-8
119
0
-11
-39
11
17
39
-41
52
-44
21
24
37
18
46
14
42
31
-45
-39
-13
9
102
-87
-15
33
-40
30
-55
-18
42
23
25
-88
53
-33
-10
39
49
45
4
1
14
33
48
-73
7
76
57
5
11
51
44
11
-2
-58
27
61
49
-42
-27
-8
53
-20
-37
-44
68
3
27
58
16
81
-38
15
19
-3
47
-50
22
6
42
89
-62
19
67
79
-32
-28
38
30
-4
-7
82
-20
23
18
7
-20
-35
31
43
-40
5
-12
-37
33
-113
-5
-6
22
34
-16
79
-31
-7
-30
-37
-4
-5
22
10
59
43
-90
-18
10
-32
34
3
118
5
-8
16
74
-22
19
12
-59
19
84
-43
51
1
23
-3
1
78
22
-18
29
-10
-92
4
12
72
87
21
-33
16
10
-52
24
45
80
-19
39
65
47
-6
51
-99
15
3
76
-11
15
-49
31
-11
-23
34
17
-27
16
26
-4
64
54
118
-34
44
-106
43
12
-4
50
-6
36
-22
-41
53
62
102
32
52
4
11
78
59
-55
4
71
7
26
23
-2
-100
73
37
25
55
61
17
20
-4
18
89
-9
59
-22
122
0
-10
8
8
-18
26
-37
34
34
29
24
37
60
-9
-38
-31
-39
-28
47
59
-22
-12
25
82
48
12
-1
-21
68
0
47
17
16
16
-58
37
9
-13
13
51
-3
62
-2
53
-8
-22
-12
6
24
-34
11
-13
17
29
32
53
-9
-30
23
54
-37
32
77
-33
54
8
-72
29
-32
-6
-21
42
-70
56
29
-7
62
-11
80
-11
9
-37
-10
43
-40
4
57
-84
-3
49
10
37
-8
-1
52
11
-40
-20
16
48
24
30
-32
29
-3
65
14
-16
15
-30
31
-30
19
-24
-12
10
61
-13
87
-34
-29
58
67
-11
-13
25
18
-10
18
81
0
58
-19
94
-20
1
80
45
-19
-52
34
8
-54
13
-43
-14
25
-9
21
-21
18
51
75
20
40
4
3
98
9
3
56
-62
-9
22
-11
-19
45
32
79
5
45
-20
13
35
7
-76
35
34
-31
20
41
-28
-26
45
16
9
20
58
36
-88
10
-9
-57
-9
60
9
90
2
96
-62
-98
2
25
19
-18
44
-54
14
10
-2
68
93
11
18
-58
21
10
-35
29
15
-37
-24
53
70
-43
-38
35
15
15
-7
69
22
31
23
-16
-21
27
65
-12
84
-6
2
13
6
-14
34
-11
18
50
1
-23
43
64
41
-3
69
-10
40
35
1
-22
38
-9
24
3
86
-4
7
9
45
72
33
-6
17
1
64
23
-22
-30
-3
21
32
6
51
40
5
77
27
-33
3
-1
38
51
-15
-38
-37
53
-13
-57
16
13
48
-79
-14
-11
1
0
-17
-9
62
-98
-10
3
24
2
-24
14
25
-15
6
-24
28
9
21
-13
-2
-5
-7
23
-21
127
-48
51
68
39
39
34
17
89
-53
-9
51
-12
-16
-1
51
8
-41
14
63
10
-38
6
91
11
-51
-5
38
46
74
6
17
63
55
-2
-27
24
9
10
6
4
15
-61
24
53
-10
59
-24
13
45
19
-21
43
57
21
46
27
33
6
-31
7
9
40
10
40
-13
101
17
38
92
15
26
-24
54
77
45
2
-9
-14
-24
33
-13
43
-22
44
38
31
-40
-5
-29
-11
-15
7
67
-20
6
11
24
-12
3
-6
-36
34
60
-95
17
-31
13
-56
20
-16
37
21
-6
7
-8
35
-42
-25
72
-25
16
58
81
-1
-49
116
23
4
38
76
3
58
16
7
11
60
11
12
-51
11
14
13
-67
16
69
65
20
64
89
15
-4
41
3
20
-27
6
48
8
57
15
45
50
74
-22
0
7
-45
49
18
-59
3
59
23
11
80
86
36
14
45
68
-15
86
-2
-3
-35
56
12
-79
-26
-12
-8
-27
17
60
-32
-33
-10
-25
73
101
9
71
-40
-37
59
21
41
-29
43
24
-44
-27
11
41
28
37
17
-4
49
7
-95
6
42
20
-30
-7
-12
-39
-29
-39
-56
15
-55
37
57
0
53
6
-56
-4
52
-42
-16
29
14
16
52
26
-40
1
19
-25
55
1
68
68
-14
26
2
-8
-18
78
-18
7
43
109
-49
54
-13
27
26
77
20
-27
12
29
-2
28
6
24
6
16
14
7
-92
46
51
-26
51
77
-18
-43
55
18
10
15
-39
33
42
29
-12
112
84
-11
89
33
28
84
12
86
57
-65
29
31
84
14
102
35
19
43
-18
-34
-18
0
57
44
26
36
-6
39
4
-50
-1
-33
13
57
-79
-5
-33
-3
53
50
33
-36
-102
-58
-24
-14
66
-49
-25
-3
29
46
-36
-29
-32
-9
-43
-64
47
5
-2
12
27
2
-113
14
-36
65
41
-42
46
-56
-29
-87
16
-18
16
18
-35
-11
-65
-29
-17
4
-36
45
-15
57
-40
24
-52
-11
23
5
-26
1
-9
-31
-6
58
-70
-7
-22
-16
-29
72
8
-24
-23
34
-66
-42
64
23
14
3
1
-6
-86
1
11
-1
-38
-28
-29
-17
-8
28
-24
0
-51
-63
-21
40
4
3
33
-14
-26
47
-22
-85
-18
-40
-32
12
-34
13
28
-15
-66
14
24
-19
6
6
96
11
1
-29
11
-9
43
-38
-70
-2
-41
18
59
-16
2
-9
-22
-10
-78
-8
-25
-23
-29
0
-91
-73
39
33
-14
-53
-15
-63
-9
0
32
16
-3
13
81
-48
-18
25
8
-17
9
9
-22
-26
36
13
-13
-34
-20
-24
-82
11
-17
-35
7
-17
60
-108
-43
-28
3
-26
20
-9
-33
39
25
54
-38
-2
0
-25
12
14
-2
-16
18
-48
-51
1
-12
-53
22
-21
18
-66
60
127
39
-19
-17
-12
34
-23
-13
-5
-65
-34
33
53
-49
-26
-61
-36
-19
22
86
22
13
-11
67
9
-85
43
-80
8
-33
6
40
31
15
1
7
-5
79
3
-12
-7
15
-4
71
-35
40
-54
-49
-25
-24
-15
95
61
-70
-74
42
-6
-10
-10
-9
-12
-12
36
76
-63
102
15
-59
10
66
-7
-14
9
0
-17
43
18
36
-30
-102
45
9
-80
-2
56
23
16
33
-27
-3
-75
-46
-44
36
-1
-49
-43
10
-33
17
29
23
-10
-74
7
-15
-35
-77
13
19
23
-84
-3
-27
17
-26
-14
39
34
-41
18
-60
10
3
-34
-18
-15
-80
-10
5
-20
-53
-40
-37
-52
-24
31
-57
-20
-41
10
0
-17
-60
-14
6
-55
-59
-82
112
19
12
4
-28
-2
-31
38
41
13
3
12
-42
-7
81
3
11
9
19
6
46
-19
-3
-25
-27
-18
6
1
-72
-42
8
-64
27
13
-43
-58
-42
60
-18
-53
12
39
32
34
-54
-4
-6
23
24
-9
54
19
24
-38
-59
26
-10
-34
31
-96
-33
24
-27
24
-25
44
-42
-36
73
-13
-26
-2
-44
-14
-25
22
24
10
14
-59
10
-36
6
25
-21
24
17
58
19
-42
17
-18
-7
-40
-41
-3
22
-59
-43
10
-25
-5
14
-8
-19
50
17
-21
-40
23
-14
-8
24
-15
-20
-22
-10
35
-46
-38
4
36
-15
30
-59
-4
3
-48
-8
4
63
25
-69
-59
-25
12
-45
-10
-32
23
1
-40
-39
-18
-20
19
1
-46
127
-29
-23
7
-8
-21
49
6
11
-77
-14
-9
36
-82
-62
-17
27
17
-10
-41
-23
-27
-72
-33
-72
-34
20
-41
9
-26
-3
-11
15
6
-27
-6
11
-32
-33
21
5
42
-36
-55
-61
9
34
-6
-12
10
-17
-22
-4
-47
-38
53
-55
35
-27
-56
4
9
12
-43
-65
-5
-58
-5
-12
-5
57
37
29
-5
-46
-26
-16
4
-1
-54
-37
-5
-70
-2
-2
41
30
-43
35
4
-15
-38
3
-24
-35
-26
-15
4
10
-39
15
-1
11
0
-10
-34
12
-37
3
66
-19
-69
27
-92
-24
-4
-19
-11
-12
-36
-6
-52
54
-19
-20
-30
-44
-11
-83
40
-5
-26
-41
26
-13
-27
-4
-16
0
-25
28
-44
-72
-22
-5
-47
-46
2
2
-26
62
-41
21
-5
-64
-22
-9
-20
-7
-71
-2
-4
20
-14
27
-16
-6
-40
-27
-4
-7
-28
49
14
18
1
22
-60
-18
-85
30
-56
-95
-62
-4
-10
-61
-68
-44
-43
14
4
26
-26
-14
-11
-15
2
-17
-9
-13
4
46
58
-28
7
-5
-4
22
-9
31
-8
-47
-7
28
13
14
-2
-8
1
-11
20
-30
40
1
-47
26
13
-21
-15
67
-65
-42
9
-55
-29
-48
3
38
-126
35
13
-3
-50
-13
16
38
-33
29
-43
-25
-2
45
56
-46
-4
29
-76
15
6
1
1
26
1
-28
-39
27
6
-15
-11
-16
-22
-54
-49
-2
-41
12
26
-19
56
-11
-58
20
33
4
-42
7
-6
-44
0
-57
-26
-54
-37
-10
13
23
-5
-18
-42
-19
-1
14
6
33
-43
2
-59
-21
35
-3
13
6
-47
-20
-28
-17
9
-8
-3
-13
-49
-54
20
6
-6
-13
-16
-15
30
-40
-39
-16
-20
13
-41
-26
-4
21
-10
9
4
-33
-15
-4
-53
-16
-68
-16
-3
-59
29
31
-1
-48
-51
-30
40
3
-22
-16
-29
47
-32
-16
-42
-29
44
-25
-8
13
-31
-31
-44
-18
-36
-51
-28
-9
-21
12
-10
-37
24
0
-23
-60
40
11
-56
6
-10
4
-53
14
18
-30
3
10
-93
-25
-45
4
-74
4
6
-34
20
17
30
-24
-12
-28
-23
7
-47
-68
20
33
12
-42
-17
-9
-27
-75
-32
-60
5
-89
-62
-93
-42
-5
-48
55
16
22
28
52
-69
-56
-32
23
52
-28
39
16
5
-73
96
81
34
-20
30
-11
-31
45
37
58
20
-5
-3
-15
-26
-17
27
-64
-11
14
45
17
38
4
8
35
-2
0
21
1
-15
-56
-10
17
55
83
-8
52
13
-63
2
-30
17
-78
6
-5
19
7
17
-13
0
-22
-25
19
111
3
3
56
-7
-19
29
80
61
-44
-23
-38
87
38
16
5
-81
6
42
26
53
25
78
52
41
36
1
10
-23
44
-29
13
-38
7
22
18
11
-10
27
7
27
8
-32
20
-26
21
-11
-16
32
27
15
-51
56
-97
34
-8
-43
-35
17
18
32
62
-14
0
34
50
105
-29
27
19
1
93
6
37
29
5
46
10
47
-37
63
10
44
26
80
-25
71
-20
-24
5
22
-44
66
-8
60
10
-19
69
24
45
-8
24
93
-16
-20
-21
46
-29
28
3
39
-17
8
41
9
22
35
37
2
28
6
19
98
12
60
-5
34
26
27
4
13
58
-20
25
-39
-21
41
1
32
52
-50
1
32
-10
8
90
-26
-41
77
10
21
6
25
18
63
26
41
33
-3
47
56
-12
58
33
91
23
-13
-10
-51
19
30
-21
32
31
31
53
16
10
7
10
24
30
47
20
16
8
20
-9
-21
32
24
-2
-11
13
-11
29
82
127
3
37
-22
32
6
30
-36
-34
23
-27
32
38
9
-67
-17
39
-6
5
-29
47
-4
72
-7
-15
49
68
46
-21
78
-38
18
-2
40
28
52
-9
-1
11
70
-6
49
59
-21
49
-110
60
-17
-16
61
8
-17
8
10
-17
47
70
21
9
4
29
-5
37
70
27
57
-35
25
46
-7
-50
-50
4
-5
22
44
-23
11
53
16
-12
5
66
10
2
61
-14
42
2
-4
27
-23
15
8
-26
-6
45
43
47
-31
48
34
16
8
24
14
-69
48
-13
-9
30
5
-14
-10
-42
17
-22
-4
36
9
11
117
43
-20
51
52
-37
55
15
-3
-85
-8
-25
84
25
-8
-37
-13
-18
52
12
-27
-52
52
13
9
-21
34
-4
6
10
-43
-30
7
-4
7
65
61
19
23
12
26
-23
18
-37
-42
50
37
-40
55
-30
-77
-32
20
32
-27
-44
3
21
-49
33
-55
-33
-2
29
-17
40
-44
0
19
50
-48
41
60
14
1
59
-13
-27
23
40
49
75
13
59
-5
70
16
24
22
21
57
-60
4
-6
6
44
31
-31
18
39
37
35
10
11
20
-71
-22
29
-46
-37
-74
55
-17
-60
2
39
5
30
-42
-18
-70
-73
20
-58
109
29
-42
-43
6
32
11
-33
-92
36
9
23
-24
-73
9
-6
-9
-43
-10
-60
-28
-19
-17
-44
-22
-6
-33
53
-97
-76
-4
53
-17
-2
35
-42
-33
-66
-74
-31
18
9
-31
-21
-64
-57
18
-9
-12
-64
-19
-80
-25
-73
19
40
-90
-51
-43
-12
104
-23
-36
22
8
-44
47
-17
-90
35
17
22
4
20
-59
-27
36
43
62
-40
5
-81
-23
0
-16
-47
-52
-18
9
-66
16
5
76
18
-11
-35
-56
-33
44
17
-26
-30
-45
-28
52
57
88
-62
-127
-58
18
-15
-65
-49
-43
-59
-6
3
83
84
50
33
-21
55
-15
-44
-22
15
85
-50
22
33
-31
-22
-21
27
-60
-7
-26
-44
-32
36
58
-50
-37
-67
-100
-61
-77
29
-57
-89
39
6
-31
-1
-40
-59
43
-18
-12
-14
-24
-17
-12
0
-10
-64
-18
-20
3
26
43
60
-83
-52
13
-10
77
30
-39
-54
0
-80
34
-23
-45
-26
-18
2
-28
12
-49
-43
-10
16
-79
6
78
-51
9
-68
28
-37
16
9
39
-45
0
25
-53
-6
-39
-60
-46
-1
21
44
-15
-1
-23
-13
0
12
-10
-46
-15
-51
-1
46
35
11
-96
49
-35
-59
41
-37
-98
-37
-44
-79
35
-3
28
-10
-10
-54
-45
21
-1
-34
46
-9
84
62
-4
-26
20
35
-39
-92
-48
78
-53
-29
-68
-64
-46
-48
-24
3
-13
76
-103
-48
14
34
-14
-22
-12
-9
49
58
-19
103
-33
-60
-99
7
-56
-58
-43
-11
118
-49
-64
21
-69
39
-97
-26
-45
-51
-3
-28
4
30
12
-6
54
-35
8
-43
-40
-26
21
25
-3
55
-2
28
-25
16
-59
-15
1
-32
-71
-40
-31
-31
31
2
32
-63
-2
-20
74
7
0
-16
-35
21
-9
-53
-53
-7
-43
25
-12
-55
29
-41
40
12
44
59
66
6
11
-14
35
-14
-35
-2
-24
34
34
-100
57
65
10
-80
-91
-6
-96
-58
-81
-14
-25
-54
-37
2
-49
37
33
13
61
-10
-27
7
-25
-55
31
-64
-34
27
23
-21
-11
-39
-3
26
-66
-21
12
7
-79
-51
20
-33
-36
-41
73
-112
-78
-20
2
0
15
-47
13
62
40
-56
-40
1
-85
-19
-2
-41
-28
-30
-57
-4
10
3
-11
25
5
-65
-30
56
-42
-26
-72
24
-41
-8
16
-42
7
-48
-71
-62
76
1
40
-33
88
31
1
-5
17
-21
45
41
-8
-3
-24
17
-31
-7
33
-2
-31
-12
-20
57
54
27
10
24
-19
-23
29
69
22
15
-36
-17
12
7
-23
16
13
23
13
42
62
5
-13
-70
50
-9
-6
5
76
50
24
7
-10
30
2
46
-43
50
4
41
2
-17
-1
-42
127
89
25
25
-18
79
42
42
29
22
-27
18
-42
34
36
29
12
-8
20
-50
5
9
26
38
88
69
-35
1
78
53
37
-28
-33
25
-12
36
-43
24
21
-1
-8
5
-16
-17
-9
-12
0
-7
-36
-59
38
33
-7
48
-37
42
43
50
-16
0
0
11
52
-52
-4
76
11
11
-10
80
38
52
11
-17
29
-3
6
-43
39
44
65
26
40
9
58
-34
-20
1
43
19
30
79
57
-36
-7
63
-7
-50
1
52
-43
10
31
76
5
40
-13
-44
-22
99
-14
23
34
57
45
20
0
67
14
-7
17
-18
49
7
54
68
-54
35
-37
-25
47
36
68
4
-2
0
95
-37
45
25
7
-14
44
5
64
-56
13
22
59
40
52
-6
80
-17
52
-60
1
48
61
31
-80
20
0
-40
27
-1
57
-5
19
65
26
25
16
-20
-10
33
27
-53
28
7
35
-12
22
31
-27
-36
-7
-1
-65
45
39
54
-16
49
-58
61
-4
-20
0
-2
-27
-31
-15
36
-8
40
59
39
-5
7
79
5
4
52
23
4
19
-15
37
17
77
11
57
20
-3
50
32
-40
63
67
15
54
13
69
-57
8
30
-15
-12
7
1
-29
28
52
13
12
54
-9
81
39
-7
3
72
14
-12
22
37
17
41
67
-21
-55
4
11
38
46
6
-44
-25
50
34
-13
35
18
-23
-22
5
-46
68
5
-4
4
-26
15
20
66
-10
5
21
53
-12
23
15
69
-51
51
57
-14
54
76
11
4
-72
10
-7
-3
-40
50
52
-22
-10
-92
41
29
-18
-7
39
76
59
3
57
-40
14
10
-22
80
43
-15
35
9
-38
27
-19
-20
27
9
-23
52
2
82
-6
20
46
-28
-26
7
79
4
54
30
93
-21
81
73
2
68
51
19
19
13
38
-9
23
13
43
47
7
59
-3
-11
66
101
54
-11
76
38
-22
25
-18
35
18
-5
67
21
4
-38
78
38
37
-72
42
47
38
45
54
9
27
50
-21
37
24
74
68
14
75
-81
-24
0
-31
7
43
75
-17
-44
63
-20
41
15
-1
-12
-56
-51
-15
-17
-55
21
-27
-5
-22
-1
42
4
-33
45
-15
1
-48
7
-22
3
15
38
14
47
-24
-38
-20
-60
21
-13
-28
39
1
-20
-36
-23
-40
-49
-68
-21
25
-40
-10
-58
-15
27
-11
1
-18
31
15
-1
-58
2
-20
7
-11
27
1
-51
-49
26
69
-6
-50
13
-65
7
-36
8
-67
10
-32
-19
38
16
-34
-110
6
-75
15
14
42
-7
44
-59
-5
-33
-31
25
-6
27
-49
59
-103
37
-18
28
30
-21
-39
43
-63
-22
-68
12
16
-4
-78
-37
65
-12
-35
42
20
14
21
-1
4
-55
-13
-18
9
-18
-55
-41
-40
-31
-49
42
7
-42
16
-11
-5
-101
-49
-3
21
21
43
27
30
3
-115
-61
4
2
71
-50
13
7
30
47
-3
11
-2
-25
-8
31
-120
33
-17
-21
-99
14
41
-71
-20
-33
0
1
22
2
18
-4
-12
38
-48
-46
54
3
-6
17
36
49
-12
66
-27
-86
6
4
-62
-106
-17
-33
-13
-110
13
-6
2
-20
-14
-22
73
26
-33
10
11
-32
-62
-52
-18
-43
-24
-8
-22
-7
-78
-24
-68
-6
-30
0
21
33
-25
-12
63
65
24
-18
-1
-79
32
34
-39
-42
18
-33
3
65
27
13
-59
-85
54
-13
-16
26
-15
-37
-54
36
9
36
25
19
-17
38
-19
20
-39
-17
1
-82
-2
7
-21
1
-30
-58
-35
-37
-24
42
40
-6
35
-72
-37
8
65
47
-2
-8
63
-126
45
-40
22
19
-16
32
-17
7
-33
-30
-17
-17
-54
-80
2
6
14
5
35
-11
67
-81
-35
18
9
50
8
42
-25
37
-2
-6
-6
17
-1
75
12
18
-22
11
14
-21
19
-4
-38
31
-25
-44
-1
18
5
-6
53
21
10
25
17
25
3
-14
-16
-42
-74
14
-24
27
-11
-12
-57
-31
-35
-122
10
8
-51
-87
-7
-58
-10
2
-4
-11
-20
-32
4
-54
-47
-3
-28
-80
-98
-22
42
-53
-1
-21
29
18
-19
17
44
51
3
0
-19
4
25
7
-80
-10
8
-57
-29
64
-10
-52
-42
-58
-2
29
-21
17
44
45
3
0
-16
-31
31
2
-8
-30
22
-4
24
9
35
39
-2
-5
-40
28
-46
-37
-9
-40
-45
-11
-9
-14
-22
-26
-15
5
40
-14
42
-45
0
7
59
25
14
-66
14
-8
10
-47
-44
5
-2
-127
3
32
13
55
8
5
-39
-62
-36
-49
-6
13
-3
-32
63
3
26
-48
11
-3
-40
-21
30
26
-41
8
-6
15
-4
2
0
-3
9
-6
-11
17
-12
-38
-43
21
-39
49
-39
2
13
17
-1
-39
2
-24
-52
-33
26
6
-11
10
31
-24
-14
6
33
15
-18
-14
63
36
14
0
20
5
12
8
-3
-9
-9
17
17
-35
-4
-10
-49
38
-14
-19
-14
47
-21
53
21
68
-63
8
-1
17
17
22
-20
-29
-36
14
-26
-36
58
15
50
7
-30
0
-69
3
67
2
8
23
-1
23
8
30
57
13
21
-8
-38
-15
-27
12
-22
17
-25
0
98
10
10
56
8
-22
37
127
-29
-76
16
-16
20
-4
0
74
-5
28
-4
44
-2
-20
-8
12
-1
-13
-34
-19
-7
28
-26
4
-9
44
20
26
-17
50
15
-55
17
62
44
-3
-7
7
6
17
-44
46
-30
9
34
14
-69
8
5
-14
-34
-87
-8
23
45
19
29
-63
15
32
-21
-31
2
-1
-34
23
34
90
-60
35
-23
-57
59
-9
43
-6
1
7
21
-91
9
61
37
-9
2
16
91
-10
7
8
74
-20
23
-10
18
-47
-30
-10
15
43
-8
-23
32
7
-26
25
-11
-1
33
-10
7
71
12
-11
-42
24
-11
10
-22
-35
0
-40
-1
12
7
75
-36
-18
27
-26
24
46
-38
46
-7
-26
-8
-10
69
-3
2
-19
-30
8
-4
64
31
-30
-8
31
-25
-20
61
3
18
-8
33
-35
-10
41
40
-11
61
3
44
-35
59
8
25
-25
61
-40
27
27
-30
6
-10
7
-29
17
-60
-13
-17
8
-5
65
-16
18
42
-32
34
-20
-4
10
23
7
-2
-35
43
36
4
62
44
47
-24
74
1
82
-14
-32
3
-28
46
-1
54
-11
-2
-53
1
5
47
-41
2
6
-9
-42
31
83
-2
-38
-30
-1
-20
17
10
46
-24
28
12
-2
32
-4
48
14
-3
2
4
-40
72
-21
34
2
5
-27
11
-14
-6
4
-5
13
-20
7
44
-58
62
-73
18
41
22
47
-11
10
26
-6
-8
12
16
12
-66
-35
-29
-30
-29
25
-22
-72
-15
-36
53
-32
-9
50
50
-5
22
4
-3
-35
7
13
-12
0
12
-22
-56
7
78
-7
-29
-24
29
-16
86
32
35
-4
10
47
-16
-5
38
-29
16
-34
43
73
11
0
-17
65
-35
21
20
33
74
18
30
-24
26
13
-1
58
46
40
-2
-42
20
71
18
2
-28
5
49
87
27
13
-12
-5
-9
-5
3
17
-28
-17
18
-9
-9
48
-3
11
1
28
12
-11
16
25
2
26
-54
-29
14
45
8
25
23
-9
19
-74
-19
-6
-6
56
21
8
7
16
-7
25
24
25
18
24
22
23
14
-3
31
27
25
9
-32
3
-4
24
-18
8
-17
40
-16
-41
23
-1
-16
-2
7
-19
-10
18
-30
6
-17
7
-36
20
53
28
27
24
-4
13
6
-38
-38
26
24
15
48
-45
13
-14
21
44
30
27
-7
8
-2
44
43
28
33
6
9
54
15
-33
-11
15
-3
-11
-12
-1
6
10
-7
16
21
-37
-17
8
30
-36
7
-24
-24
20
-18
10
26
16
9
4
17
26
-2
-27
-53
-18
-7
-31
29
-3
6
29
13
-46
-94
32
24
-43
4
-8
-3
9
12
3
29
18
17
-6
19
15
-36
0
43
9
27
-6
51
28
-28
-37
-23
20
30
5
20
-12
25
34
20
-4
21
21
8
23
10
32
33
52
15
-55
28
-31
1
3
14
20
-40
-1
23
21
55
24
22
30
-13
15
20
20
38
-4
-8
3
4
-14
-5
-10
27
25
-46
-24
-29
18
-54
42
-19
-1
-21
22
22
35
-4
-6
-33
26
4
8
-14
23
13
30
-13
35
29
15
-1
-22
23
-9
7
-42
36
-12
-4
18
127
-25
65
-23
-22
8
0
64
46
41
-7
-25
-3
22
-23
-8
-110
31
34
-32
-39
8
-10
9
34
15
1
9
42
21
-3
28
9
16
23
-64
60
-18
-20
-19
4
14
15
-10
-9
-10
-18
-10
23
18
26
12
43
20
6
49
22
-14
25
-2
-16
31
6
17
-9
15
20
-5
-11
23
-3
34
-19
-5
5
14
44
-5
9
0
21
24
29
3
29
-6
-15
7
7
32
29
38
12
6
21
-1
3
20
-13
22
-3
-6
-39
-16
-10
0
-4
16
-22
-24
-12
-13
6
-12
-2
36
-20
10
-11
18
-19
2
-13
-46
3
0
28
54
24
-33
-10
47
12
41
4
-5
19
34
17
4
48
10
-31
25
-22
-29
7
10
36
-21
-41
31
19
3
-4
11
17
-19
-27
-39
22
-11
33
29
15
-4
24
8
4
-24
6
-6
13
-7
20
33
-44
-6
-10
28
-40
14
-21
31
-10
-2
20
-7
21
-9
6
-7
12
41
18
59
5
-4
23
17
25
-19
16
50
-8
-72
18
32
-1
-10
-5
91
-15
3
-2
30
30
34
18
-59
14
-2
-62
18
46
-11
10
29
27
-20
-3
12
-8
-9
12
7
21
11
-8
39
-31
-3
-19
26
-52
-3
10
-51
-17
-15
-1
36
30
-55
75
6
6
66
-23
-7
4
3
-20
-28
-9
49
-11
34
43
41
-37
29
-61
-22
-11
-17
4
27
59
35
5
10
-82
37
41
7
21
-19
-35
-29
-48
-53
9
-40
-35
-56
48
-42
23
-26
32
-7
-40
4
28
-40
3
19
-73
-82
-31
-27
52
60
17
-37
-8
40
-53
-28
-28
31
12
7
-52
-51
1
-5
28
-1
5
26
-40
-7
-50
11
-63
-10
18
-22
15
37
-47
-41
-8
21
0
65
-39
127
50
-8
24
34
4
-53
56
46
-4
51
-51
-40
8
-9
40
-39
-57
36
20
-65
-87
17
-59
17
-28
83
-39
-26
17
54
-37
-34
41
-39
51
-5
13
28
2
26
21
30
21
-30
49
-56
16
26
14
-37
7
6
44
-19
-11
24
50
22
56
66
35
-30
-7
-16
-45
13
-8
-4
-58
17
9
-8
-10
29
19
11
-12
43
17
-36
-18
37
61
-16
-19
-56
20
33
-48
11
-1
-11
14
28
-46
28
30
17
32
-76
7
-26
36
-25
-6
23
9
36
-5
-6
-13
49
-74
46
-7
30
28
-1
35
-14
-14
-26
-61
-42
90
-47
15
-55
-11
35
67
33
-28
17
8
-44
-81
8
23
-36
33
75
-11
5
19
57
-85
-28
-23
26
-35
-9
7
23
-12
68
-40
87
-40
11
38
7
20
0
-41
71
-7
-4
-33
-49
-36
22
-24
-12
17
26
29
-75
-12
-13
22
-52
-34
27
-18
29
3
18
-6
32
54
-17
33
-18
10
-6
-80
-58
54
-23
-21
-41
24
11
4
39
21
-4
21
12
13
61
24
-22
-6
-9
29
-11
-1
-4
10
-67
-27
15
10
-39
50
5
-20
-49
27
-25
-18
48
1
20
-21
6
35
43
17
48
10
28
-68
5
2
21
27
-5
-42
27
12
8
24
-20
4
39
-17
29
29
-16
-32
-26
-17
-35
18
-40
28
32
49
-41
24
11
11
-2
24
8
-19
-7
-8
32
6
6
0
-59
5
-8
5
54
25
12
7
11
4
-77
42
24
-28
-5
29
18
31
-23
16
15
-2
-57
21
19
-8
-59
68
36
-9
-51
-30
7
-36
2
39
-58
-47
-15
-9
-34
-19
-101
-31
-3
-31
6
44
21
4
-51
-21
16
2
18
1
24
-1
29
-18
13
32
-47
-78
-9
-6
-17
3
-18
-92
-7
-16
-115
-53
-29
1
-19
59
-31
-70
-38
-6
22
45
-52
34
-36
-92
-23
0
-13
-53
-17
-29
-16
-33
-46
-15
-9
-40
-32
1
11
-25
-12
-17
21
-21
-20
26
-4
-33
66
-44
52
-1
-41
13
0
-12
-19
-26
8
1
-31
-30
-46
-6
-103
-13
18
-4
-29
-59
37
20
-4
7
-8
-43
-10
42
-2
-2
15
-41
-13
-32
51
-6
23
-26
-12
49
30
-14
-42
69
0
-24
-55
-25
0
92
-53
-18
-31
43
-18
17
-20
-24
20
3
58
58
48
41
6
-16
-18
46
-1
12
-20
3
-17
4
-4
11
20
1
10
-13
28
-7
20
21
-8
57
-25
-43
-14
-36
-42
-18
29
-33
32
1
0
-83
-52
-17
27
-78
18
24
-55
-42
12
8
-8
-46
-66
1
-5
-11
30
4
14
76
-23
-54
8
17
-22
-86
23
-11
-33
-61
-18
-56
-26
-52
-2
-21
7
47
-15
-45
-21
-32
-35
-47
-6
-8
-125
3
21
-75
41
10
29
15
-12
-18
5
-36
-26
5
-32
0
-41
56
22
-29
-13
-48
-4
-54
26
-15
-41
-46
31
36
-46
-39
3
-34
-30
32
-58
14
-13
-5
76
-26
5
-31
-35
55
38
30
-66
55
7
19
-36
-15
28
-26
-25
5
56
4
-44
9
-2
37
-39
14
-12
110
-13
9
36
-15
-30
29
37
-14
-19
-20
-30
-2
-25
-2
10
-112
30
20
-29
-87
-81
-71
56
-11
-11
-60
-109
56
-29
-79
-47
-25
70
-49
-7
-2
-31
-40
-10
6
-5
6
-9
-43
-4
16
-25
-19
1
-69
-15
-23
-65
-25
-32
3
-42
-35
6
-33
-16
-52
-7
-49
-35
-32
2
-15
-64
-7
-25
-46
-16
-14
-19
-46
-23
-22
-13
78
-28
-22
-1
-41
-51
-21
-25
-27
-7
-36
-14
-19
-2
-31
3
-24
-40
-35
-15
4
1
-3
6
18
29
55
-27
-56
12
0
-30
-18
-23
5
14
-27
6
6
34
2
-45
2
-10
33
-21
-61
38
57
-19
0
-38
-21
-7
-24
3
-8
25
0
32
-65
10
-4
-13
8
7
-13
43
25
17
-22
-9
-18
-30
-56
5
17
-45
11
-45
-34
-16
-89
-23
7
-5
-10
51
-14
-1
-10
-35
-3
28
24
-24
-127
-2
-32
-24
-98
0
-50
-12
50
0
38
-6
5
-24
-18
55
-1
-43
-52
28
15
42
-4
26
-10
-66
-30
-47
29
-125
-11
-39
13
-35
10
66
11
-21
39
79
-44
-18
-21
-5
26
19
-26
-3
-32
-110
33
-30
-16
43
1
33
100
-43
-22
-26
14
-40
22
-34
38
-14
-11
-2
104
-37
-3
15
-30
-18
41
-127
-16
-51
-17
-29
-1
-90
29
-3
-20
-46
-12
33
87
-8
-96
49
-6
32
13
-47
57
-15
13
-14
-36
16
14
-43
-48
-15
24
-100
-2
50
-46
-46
-64
5
84
5
-10
15
34
0
19
24
56
1
-53
-50
-42
27
-5
13
52
-32
84
-29
9
-7
37
8
-8
-16
1
19
40
67
-59
-41
-10
-32
28
54
-17
-13
51
78
67
-6
6
-61
23
20
38
-3
40
-46
-48
-24
93
18
-18
1
-112
-19
-47
11
32
-29
46
23
48
5
-20
-5
-61
-14
-24
46
-50
-9
-22
55
22
-35
-20
44
-40
65
7
38
21
-15
-6
-37
-49
-62
17
-18
-6
-53
-16
-7
77
26
-45
7
32
20
-34
34
-20
33
47
-14
-36
-64
-67
48
-7
-41
2
-24
-20
-27
-30
-42
-66
15
-14
-19
-61
33
-56
-11
-2
19
15
22
-5
-63
-26
-53
-56
18
-52
5
60
-40
-25
-20
-12
37
18
-11
35
1
-52
63
-41
-21
-48
19
-44
-22
49
45
62
-59
-5
-4
-46
-30
36
-26
-43
52
28
-49
19
4
44
31
-71
52
-11
-69
29
46
40
54
17
19
8
-1
50
-8
-25
-32
-21
-13
-31
28
-32
38
32
-54
-59
10
9
-41
5
-16
-80
-32
-48
-40
-64
-15
6
-25
-104
-6
-67
-23
52
22
-37
-11
-26
108
-114
-30
44
-44
7
-41
36
0
30
-67
5
9
24
-27
57
8
8
-14
-20
-36
9
16
-61
26
-12
-47
-21
-28
2
31
-28
-51
9
-64
6
18
-44
-63
-18
14
8
-20
-35
-32
-19
-115
69
-31
-59
9
-73
-27
-7
-28
-23
-21
-31
44
30
-20
-42
-45
-34
19
-59
-38
23
26
36
7
-13
11
-6
-36
21
15
-11
32
-16
12
11
33
26
2
-91
15
-58
-3
21
46
-25
-39
-13
-41
57
61
-55
9
-25
14
-112
41
42
10
-7
40
-74
55
-14
-7
54
-10
15
68
-10
41
-26
3
-4
-66
-30
49
-64
15
-11
69
-51
5
-18
-42
6
81
-50
52
11
-28
-32
-11
25
-14
-19
-5
-64
43
36
21
-40
55
-19
-21
39
-53
35
-11
-2
45
-31
93
-6
-94
33
-38
-17
58
-43
-24
40
-20
20
-29
64
-26
-16
-77
-7
-91
-10
-41
72
18
70
50
-48
-28
16
-60
-17
-41
-2
90
84
-11
-56
47
76
-47
-39
28
-36
1
23
18
50
31
-2
-34
-18
55
81
48
-9
47
14
30
13
-56
15
33
8
-49
27
40
-14
-37
9
-2
-48
5
-52
-43
-82
-20
58
63
94
9
-21
83
-26
19
0
-12
43
65
42
61
-40
39
7
16
60
-2
27
0
-5
22
-54
-23
-32
-30
-45
34
48
15
-46
-44
65
68
-42
-98
40
-10
-17
-16
-54
-48
-26
58
-37
28
43
-3
-7
18
-58
45
-9
71
-46
37
-19
-78
-10
-14
-77
-31
-55
7
-25
-11
29
4
77
-36
-13
-2
-9
32
-35
-54
6
-70
28
23
23
14
-43
-1
-15
-6
-38
-35
93
19
-3
6
-33
20
-4
-57
20
-8
-1
61
63
-35
122
57
-21
8
5
10
11
0
94
-50
9
-45
29
-2
-5
31
-127
47
33
56
-33
36
69
-16
48
18
-39
-18
67
-33
-33
2
51
43
-17
12
74
30
93
36
59
-13
41
-7
22
34
39
-32
-84
-40
-16
32
7
-43
73
11
-57
52
38
-60
-12
8
51
1
4
-82
93
25
17
1
-2
41
-5
29
25
-34
-3
29
38
57
68
9
43
-19
-21
-13
64
19
-111
-45
-9
54
13
-55
12
37
22
-17
-51
38
-7
-53
36
-55
-6
2
30
-31
11
89
-74
70
-3
3
20
-26
-18
-18
35
-31
15
-52
-6
24
63
51
107
-19
-25
30
58
26
-16
-26
58
-56
-15
112
-39
-21
38
41
-12
-58
-18
61
14
-38
55
16
-42
45
1
-23
44
23
-47
-2
29
4
93
16
39
-1
-10
36
7
43
52
-37
-6
22
47
33
-15
15
-71
63
58
6
-13
12
45
28
-19
-13
82
33
18
-10
21
-22
48
19
17
21
4
18
-23
1
36
-44
76
38
1
-5
2
25
12
-20
58
9
-60
15
-57
50
-34
85
65
-38
6
-8
7
30
-30
5
-78
-36
-22
-21
-30
80
-7
19
51
33
1
4
-36
16
5
13
-49
-29
-26
-49
-5
-20
14
-32
103
-50
28
30
31
33
15
-47
-20
40
67
38
49
-14
9
-41
-42
44
-30
47
-69
-2
32
99
-8
-34
101
-43
112
36
24
55
36
-7
-12
40
57
-8
41
58
51
-97
50
62
-8
-35
-40
26
7
-24
28
-38
-12
23
-41
-11
-50
-16
-5
-10
3
25
-7
72
1
94
52
71
6
68
47
-100
-23
-14
-57
3
39
-26
-39
15
21
-9
30
23
-27
-19
-39
22
-39
2
11
5
0
-65
50
-8
7
26
-26
-6
31
3
48
11
-10
-14
-14
5
14
9
11
-74
19
15
5
51
-10
2
2
-12
-77
-46
-10
84
42
-30
8
-7
-18
-6
-6
-11
50
32
-19
9
-23
17
-80
11
-124
-1
-30
-127
15
-6
-3
-43
14
29
49
16
-35
10
-27
12
4
-3
3
-8
-47
-24
18
39
-6
17
-36
-29
-23
-27
37
19
-46
-113
10
-26
-21
-5
33
-4
-2
-8
-31
-22
-8
5
-6
32
10
16
11
-11
-48
21
38
-7
4
5
-23
4
-8
-15
37
-25
-34
-31
-21
-45
32
-21
-41
-50
-12
-36
13
21
-51
-7
-38
-33
-3
-30
-47
26
-77
24
83
7
-5
-28
-31
19
-13
-27
2
-94
-9
-32
-33
18
53
21
-9
-40
56
2
19
34
-41
-7
3
-50
48
1
2
-55
-34
18
-68
-11
-7
-30
-21
7
6
-22
-9
-19
-44
3
51
14
-33
-19
-36
-32
-10
8
-10
-2
29
-11
-19
-25
8
-36
-21
-19
-60
13
2
6
44
9
-2
4
-59
4
-33
-114
-103
-13
-60
-34
-31
-32
-6
19
5
64
15
3
6
-49
-23
-32
-1
-35
-13
4
9
-37
27
11
-4
60
-50
60
2
1
-29
-28
39
-6
-33
-52
-9
-98
7
-20
-56
-2
33
7
-18
-29
-30
58
-36
-25
-6
13
20
-3
33
-82
-51
40
15
-72
-79
-18
12
-45
-13
-73
-22
-70
24
15
-38
-17
-33
52
-20
-43
-8
-11
-2
77
-24
-56
23
1
-1
-77
-17
46
16
4
-4
-4
-18
-3
-25
1
66
-58
-13
-17
-66
21
-36
9
-51
-9
20
-21
36
4
10
9
-22
18
-40
-32
-50
-32
17
-16
-1
-15
-85
5
-38
11
-24
-36
0
-18
-21
11
13
-50
33
-30
5
2
-27
6
-8
21
16
0
-27
23
9
29
-35
-69
-4
41
-54
-11
13
8
35
22
-24
-52
-40
-15
-51
12
-46
-7
27
-42
12
59
0
-9
-21
-21
8
47
35
26
26
31
-19
38
-70
20
10
-17
2
36
-10
-11
-57
-66
-50
3
-54
26
12
-18
1
-72
-18
18
-38
-64
-8
26
-22
-39
67
-29
-2
-9
19
33
45
-3
64
-23
-30
78
-11
14
-13
-27
11
28
22
-56
38
-26
-33
6
-3
-6
15
-19
22
6
-5
-33
-6
-5
-52
-26
-36
-52
6
-18
-44
-14
-18
-47
-2
42
-23
31
-31
-4
-14
-4
-8
19
42
-24
-60
-19
-7
-26
-39
41
27
-67
10
-14
-8
-4
-60
-14
3
-57
40
-55
-15
-30
47
-37
-6
-6
15
57
-71
-52
26
-47
-4
-4
-18
33
-55
-66
-23
-42
-39
-38
45
-27
-3
25
-26
1
-1
-57
14
39
9
-39
-14
-97
-25
-44
20
-11
-24
-66
-42
39
16
-17
-55
-58
42
-2
29
-33
-18
0
30
-14
-16
-25
-24
-51
56
13
-7
17
-40
-26
32
-25
2
2
31
-37
56
-68
-5
-21
27
-44
33
0
18
-25
15
-14
-3
-25
-55
36
7
-54
-30
-5
28
19
-3
-41
-40
-11
-47
-16
51
20
-7
10
-30
-4
63
-45
14
-36
32
-13
6
-11
-61
-13
-39
21
2
5
8
10
-24
8
26
-33
-15
-23
16
30
3
-5
-32
-20
33
-25
-80
36
15
-29
-7
-79
-6
-5
55
-44
-25
-3
-3
-4
-16
-23
-21
64
-10
-15
-28
-54
-69
-47
-31
10
22
18
-15
8
-71
-69
-99
-38
54
-89
12
29
-61
13
27
-1
4
-26
25
-61
-52
-16
22
-83
-68
-39
51
-41
-21
2
-78
-12
-23
7
-39
-79
32
-51
8
-25
-36
-40
-38
-43
15
21
5
11
-64
55
-24
-36
-34
-48
26
31
19
-45
40
-36
4
-5
-50
-12
-16
-59
74
15
-64
-53
-42
-12
13
14
50
-45
18
-84
-28
-6
1
23
12
56
1
-29
-26
10
22
-85
35
-37
-41
20
-40
-9
-48
13
-24
-20
-2
47
5
-65
-41
-41
-48
-26
1
-10
-32
-10
-42
-57
18
-14
-3
-19
-63
-3
36
-28
-6
19
-5
-25
-19
-33
-12
-56
-26
9
40
-21
-33
-53
12
-36
-68
-11
-24
-22
-52
-51
5
-106
-22
-17
-22
-4
0
8
-42
-26
-17
-30
39
41
-11
27
-81
1
-33
-9
9
-18
-35
-25
-52
1
-22
3
20
-59
25
-33
4
-16
7
73
22
18
-13
-28
-8
35
-31
24
-4
-60
-22
40
25
-25
13
18
-23
18
-1
-6
-4
-20
-21
-9
33
54
22
-36
-18
-13
-51
19
-7
25
-41
-19
-77
34
22
-50
-22
-27
-7
27
-19
52
-3
15
-31
5
1
25
-54
9
23
22
-67
-50
-72
-37
-27
-19
-37
39
-1
8
-35
-82
0
-54
15
40
-62
-13
-10
0
-3
-8
16
-12
33
2
-20
21
6
-22
-13
62
-63
-68
-49
-1
-49
47
-38
20
-112
5
0
-40
0
-17
-46
-127
29
-8
-53
21
12
9
39
-8
-73
-53
-37
-17
-16
10
99
25
36
51
-77
-7
-32
79
-49
25
2
-24
4
46
2
59
-43
51
-9
-55
81
22
12
-78
-17
-3
25
28
-33
-2
5
-62
33
4
-14
-26
-1
15
-43
-51
-45
-30
-45
-10
-55
58
23
30
-12
-67
-11
35
11
45
62
-24
54
-34
38
-35
32
3
10
7
46
-60
-18
50
-30
-6
-81
-38
-20
-11
13
10
11
-19
-60
-43
8
-10
68
-12
45
-2
-3
-32
-10
-67
63
21
8
-79
-49
-2
-7
12
2
-44
13
-59
-26
-24
-4
34
7
-5
14
-117
5
43
-37
51
55
9
15
-65
3
-34
10
20
-52
5
-12
71
54
1
3
4
32
1
-29
-3
-55
74
14
90
29
-18
70
1
-54
21
-36
-6
-14
21
-66
32
6
20
114
44
-22
-20
-36
47
-29
-36
-51
-78
18
5
-41
7
-43
-20
-27
15
-8
-65
105
-71
-1
-24
-38
-22
-73
49
-44
-57
-19
13
6
73
-35
24
-48
-57
55
-81
29
32
-38
12
-54
-47
-4
1
86
-21
-24
-68
-24
23
-62
-20
52
-16
-44
-5
-29
-48
-62
51
-59
-40
18
-38
-22
-55
13
-22
32
39
43
-23
39
15
-1
-9
24
3
0
64
-6
3
3
-68
-57
7
-12
39
44
8
11
-79
47
-12
-10
-34
40
-30
-54
47
24
-40
-1
-6
-14
11
70
-47
-96
38
1
-81
-19
87
18
-20
77
92
-28
36
-62
63
-10
16
-16
-59
-71
62
-33
-6
25
38
18
-31
-43
-52
-105
17
-51
20
65
0
-61
-10
-43
17
32
39
-13
50
6
-24
0
-21
-40
-39
39
33
71
56
-42
10
39
11
-12
-11
25
-80
-22
-13
3
24
1
-72
92
40
39
9
-50
25
-96
52
-30
127
-28
21
-65
-11
-2
12
43
33
-71
1
9
-40
34
1
69
3
9
-15
51
44
23
60
28
94
-34
-85
12
38
21
15
18
-8
49
38
-7
11
-22
4
-85
34
27
34
64
2
-17
0
12
90
-47
-44
-61
22
14
13
36
-26
-50
8
-86
63
-9
-11
18
78
39
53
-18
34
-7
59
-18
5
21
4
-22
-31
92
-42
37
36
-19
-21
22
63
-66
2
58
88
-59
-4
33
22
-9
50
-14
30
54
60
-48
-64
96
-81
51
-5
15
-2
-4
64
-56
1
-38
-102
4
18
-15
29
-37
7
-25
55
18
-81
-5
-35
-20
-73
47
41
-41
-5
17
-78
-15
-4
-31
-57
-20
-17
-29
23
-45
-9
4
-10
-27
27
-58
18
8
-34
-3
-3
26
47
-89
-37
-40
-36
-7
-62
-54
-20
-16
-50
-19
20
-12
-21
-82
-15
28
-10
46
-32
-13
-23
-31
-23
-3
-49
-46
-13
18
22
-75
63
-17
23
-71
-64
64
4
20
-25
-8
-28
41
-42
25
-79
-19
-6
-14
20
32
-26
-33
-57
-15
-26
-20
-32
7
-68
6
-34
-13
23
-61
-64
39
83
21
18
5
-14
-19
-6
-38
41
36
1
11
6
-50
-16
67
-34
-2
-60
44
-86
-8
27
-5
-25
16
-11
47
-24
-29
-29
52
23
19
-8
15
-11
21
58
-12
-35
-46
24
2
50
25
24
15
-27
83
-1
30
-20
-34
18
-8
20
-51
46
-21
0
4
3
-55
3
-49
-13
-16
34
-5
41
-27
66
1
-29
-81
-16
9
-9
-11
12
-8
-91
41
-22
-72
-37
23
-41
-77
30
-1
1
22
-33
-26
-43
0
-39
-18
-90
35
34
-8
12
-44
-44
-23
-52
-4
-127
-60
7
-59
10
-43
31
11
10
-26
37
-47
-82
25
-25
-64
-31
-23
-30
-24
35
-66
-16
48
7
-8
-16
-59
-9
-26
-63
5
25
-16
-32
-10
-65
6
-35
9
43
-14
8
-76
-5
-4
35
-11
4
-1
20
-34
26
-16
29
-33
-39
10
32
-54
-3
-23
-33
-4
38
11
-27
34
-11
35
-15
-32
-34
27
-11
24
-67
-19
-21
-56
-57
98
18
-51
-14
20
27
-44
-55
-32
-20
-70
-1
-61
-31
-24
-4
4
-57
12
36
-110
-18
-72
15
2
4
14
-7
16
-9
41
-7
79
11
-54
-77
-67
-18
-52
-42
-47
2
44
-12
-67
-37
-39
-26
-43
-28
-48
-67
13
-30
-50
-1
48
-75
18
-25
9
4
-9
-40
5
43
-24
27
3
3
-55
-10
-16
15
-10
39
-63
-47
-26
25
20
-33
77
-34
27
-50
108
-4
26
21
28
51
12
-35
43
-2
-24
3
30
-60
16
6
24
40
-48
-14
18
25
23
7
68
-9
-32
33
29
-24
-35
-82
4
-14
-26
-17
20
4
-46
50
-16
42
-9
-38
14
59
-2
23
-9
19
3
2
-77
-21
12
-12
-49
-23
-6
-9
-34
8
-64
-57
3
-21
-24
55
59
-34
-95
-11
23
-27
-35
14
28
-30
0
