47
-20
102
47
103
-127
68
-126
-125
21
127
-54
20
-29
60
50
-77
-40
-127
-127
-1
13
105
-127
26
115
-127
48
-44
-40
-127
58
70
30
59
-95
54
-66
-127
-113
-50
111
66
-45
11
-112
122
-13
-14
-97
22
6
-83
69
19
34
-79
-127
-83
39
-14
-76
20
-66
44
-44
-127
-5
-127
-95
-127
-58
97
72
-127
-20
-45
-127
124
25
-81
-113
-48
-80
108
23
127
-127
-21
-113
-61
-109
-36
82
-80
127
-64
-74
-49
99
-62
-19
107
-67
-106
-4
127
-113
31
95
-119
-18
-116
-33
98
120
-4
-127
-113
45
-78
92
31
-35
29
20
-127
-123
79
7
-4
63
73
-126
28
74
116
40
-44
12
-120
-44
-19
127
69
-17
22
-108
-14
124
40
-127
121
-103
-47
-127
105
-4
-103
65
127
-113
28
48
-21
-27
-55
54
127
-75
-2
115
-100
9
44
-110
-77
-38
48
2
23
-39
-119
-49
82
-31
79
-58
-30
23
-127
9
66
32
70
-76
110
-31
-8
-43
-127
65
-30
-75
-111
127
-24
-88
127
19
4
-49
34
-17
127
-63
114
-46
-69
84
66
-90
24
-53
-35
49
-6
92
-127
-64
-29
-104
-84
127
-5
-52
12
-127
95
-71
4
-92
-127
32
8
-41
-21
-125
5
9
-127
127
78
-79
-29
99
43
-108
-67
76
-79
-98
-35
-87
31
-46
-94
-123
-112
-25
54
-36
27
45
-24
-31
39
-127
10
3
0
-123
-23
-52
50
80
103
15
-61
-47
-52
-68
-43
74
-34
-113
23
-127
58
-8
-1
43
-127
3
-123
104
-36
-57
-126
-57
-119
127
-37
-41
-74
101
-127
90
30
46
127
6
-84
-122
-92
-87
-98
-74
10
24
-49
48
-30
32
-70
33
97
-101
-127
-93
-101
-127
-80
64
98
-13
67
-68
44
-74
1
-46
113
-92
21
8
-64
-127
91
-10
14
-51
18
-53
-37
3
60
-49
-2
-32
33
-20
-127
14
-9
-116
-25
-77
7
-18
37
25
-63
21
83
53
127
0
21
20
-17
125
-71
97
-43
-81
-80
-3
119
41
-103
-65
-99
-83
-61
5
-46
125
40
-4
-117
55
0
91
-50
40
-108
54
33
88
-15
116
-15
-98
7
56
-16
-127
28
-52
22
-65
-124
-7
-124
-63
-30
-63
-127
-88
-15
39
114
27
-127
120
-55
-104
-127
-63
-11
-74
5
22
-26
-44
-127
-101
44
-88
110
-69
-31
-101
-53
-20
60
96
66
-85
3
-14
-15
-1
73
-127
-42
82
64
39
-12
-127
-127
38
-92
3
-127
-11
-24
-43
-49
-98
19
18
101
-25
113
81
-61
-85
61
65
-73
22
-124
66
39
-66
-61
127
-14
-64
31
-27
-127
-127
-68
-60
-127
-127
26
-16
-127
-14
-32
-77
-1
49
43
-108
14
-80
-64
-56
-31
117
51
23
40
-63
127
-127
66
-55
10
-74
-127
-22
-73
26
45
-10
14
47
-71
-66
93
87
24
127
3
-47
5
-55
-4
-127
-37
127
-81
-127
127
79
127
127
-18
70
-86
-127
45
-98
-51
50
-126
-20
-23
68
83
13
127
-10
-27
-78
-118
127
-53
-18
-14
109
105
-50
50
-121
25
-46
127
127
-4
116
-68
-10
-118
42
8
-7
71
-101
24
-69
-22
-93
16
32
-50
127
-32
84
-91
-30
-127
-39
-26
15
58
-8
-18
-7
-52
-58
-127
-75
-22
-5
18
-80
29
96
4
-39
-72
15
-64
36
127
-11
17
-32
19
-118
19
-127
-38
-25
64
-14
-52
-7
-98
24
26
53
-127
-75
-41
-18
25
14
-62
-66
42
-7
-64
-59
24
-30
127
1
91
5
-1
127
-28
-50
7
10
37
29
-76
-38
-5
-66
-13
92
-121
-97
102
-48
-69
-53
127
-41
-21
-69
127
87
2
-12
43
-69
-37
53
127
15
-26
-7
46
38
-18
104
-127
-90
38
-95
-51
55
42
5
110
-127
73
-44
72
-29
82
61
-41
-99
-30
114
-22
127
92
3
-127
-3
13
-41
19
97
-77
-12
-31
-62
30
69
-29
-90
-77
11
-32
56
-32
-38
23
-86
-8
-18
53
123
-20
14
10
-4
-45
-16
-34
18
21
72
-127
11
49
-13
76
-75
62
-8
8
-63
-112
38
-28
-117
-47
58
-61
-33
60
66
-60
41
-127
-89
77
-71
-21
70
127
-56
49
-127
-72
1
-45
58
-53
-34
13
88
83
-112
38
-15
80
-6
-36
3
-16
-63
-9
42
24
127
-10
46
-92
74
-26
-16
-127
-38
-27
3
-29
70
127
49
7
4
-127
-19
-127
-11
85
-77
-39
51
30
-63
7
27
-43
-20
-127
35
-3
24
87
34
55
15
-20
-74
25
-127
-97
-4
69
10
-51
-19
-2
-51
10
28
-104
12
-99
-127
-107
-11
-56
26
-30
49
-53
-23
33
-76
21
8
-34
50
-67
3
-35
61
15
27
68
4
-57
-25
27
-27
-121
-3
28
-6
-9
19
105
47
44
-32
-72
127
-23
50
37
-24
64
79
-18
-72
28
127
-37
-6
-102
-106
-82
23
37
-80
44
-127
-86
36
-68
50
40
41
23
51
-13
-19
127
-14
-29
38
-90
-127
-33
1
46
-49
12
90
92
-95
-11
-54
2
57
92
55
-61
127
-21
51
-53
-127
50
114
-37
-127
-40
127
98
32
2
-107
53
-44
71
-32
59
-112
-28
-18
-1
27
126
-25
-118
-76
-127
-63
54
34
-91
100
68
127
28
-66
97
-6
-40
-127
-15
-71
-96
17
59
-99
-94
-98
-36
-60
-28
-31
62
68
21
44
57
108
-59
28
92
-113
17
127
5
-29
127
79
43
-36
80
8
-117
-51
110
-82
-23
48
-120
-61
71
-39
-95
-77
-60
-81
-127
-30
-34
-35
63
104
-89
-60
-41
51
16
-22
-84
-87
-48
20
3
-127
-28
-29
-91
-127
83
48
-19
111
-127
28
-112
-24
56
-3
-71
8
-59
9
-77
-23
-127
-54
-44
79
-62
-127
106
-124
-28
96
11
-50
-127
-79
-49
64
33
14
33
-65
127
-49
8
-9
-45
-8
-26
-43
119
14
127
16
-34
-44
-123
-87
66
82
-5
45
42
-127
39
111
42
127
-46
-127
-54
-41
88
-122
127
-26
65
-88
-54
2
-77
-84
-58
-75
94
-38
18
-75
40
15
111
-73
56
-6
-66
27
-79
37
65
-68
-40
126
-25
13
94
-98
-127
98
21
-26
-83
49
-45
-127
0
-112
32
43
-21
28
-89
-107
-112
-75
-111
127
60
-127
67
62
56
23
-109
65
-90
-93
5
11
90
-127
-18
-127
30
-34
-36
42
-6
69
-8
18
-41
50
17
22
49
14
6
23
-27
-66
-61
-127
-76
17
96
-50
-8
38
-17
-86
-65
-1
127
-60
28
-53
61
-6
-61
-40
-34
-71
-127
23
67
14
-31
-104
-13
70
66
-72
52
-7
-62
38
75
31
43
-80
32
18
122
-5
-29
127
58
-116
60
-103
-127
-47
-80
-50
-30
-83
-98
19
127
30
75
-49
2
-49
-127
-51
-95
1
-39
-102
-127
-127
38
17
81
-42
-115
1
-11
1
58
-38
-127
62
35
-85
-9
31
-27
-29
14
127
87
-25
-55
-93
26
-65
-10
14
31
74
-5
21
30
-57
-27
-8
0
19
-91
-123
-32
-127
-37
9
-52
-127
-76
-88
8
13
-43
-82
14
-127
21
-97
-44
5
-52
-10
-80
-77
-1
40
127
93
20
-9
99
61
-62
83
-108
-120
-35
127
95
10
2
37
-98
113
-17
-85
-98
58
-118
-84
-91
-124
-44
-127
-47
80
-32
-127
-38
84
127
-96
56
9
27
-118
-127
102
78
-33
21
127
0
13
32
-18
-2
-13
-15
-19
-96
-127
-127
64
-55
-74
49
-27
64
22
-83
-127
-120
10
16
-9
-125
-110
25
51
-119
45
-127
-22
71
-127
-68
32
7
-69
-2
-84
17
28
-40
15
-82
-34
-27
2
-17
6
12
55
-35
43
26
6
-16
-11
127
18
10
65
-12
-32
30
-25
22
-22
-15
41
-13
38
93
-11
-88
-67
29
15
-32
24
-84
-100
43
63
-10
-71
-4
-13
-2
2
-80
-13
-52
43
-73
-47
-5
-20
7
-3
26
-4
127
45
-49
38
-127
-109
27
-57
-63
-46
18
36
60
23
28
127
-75
0
8
-27
-79
50
79
-14
-127
-41
-48
-7
11
-64
22
-60
127
-99
127
32
-32
-93
-37
127
-127
3
69
104
117
-100
56
-22
55
127
-1
-92
-11
98
-15
13
108
91
8
-94
99
-127
-69
-77
28
-62
2
-30
-43
21
-116
25
-48
7
76
-63
-99
16
13
-46
48
41
-127
-23
15
122
-2
16
127
-18
23
-1
8
62
-75
2
69
-65
-34
-70
72
-2
5
-127
23
-1
14
127
-29
26
-31
127
-72
-68
-127
-105
120
19
-127
47
-60
-127
-72
-24
-1
47
-79
-127
-94
-124
26
-88
14
-63
-126
13
122
5
-117
-127
127
127
21
23
123
-101
-56
-127
63
-61
2
-9
38
-127
17
-49
8
-18
32
-101
-36
-8
-3
-127
-86
-61
-20
26
-55
-127
-98
-89
127
31
-24
-70
97
9
127
127
-12
1
-120
-104
-83
-33
43
-19
-28
-25
93
-26
