-68
114
34
-35
34
-105
-2
-102
-56
-65
29
-34
-23
-22
11
52
-34
-104
-19
11
-61
-15
57
29
69
30
-25
21
-78
54
-60
-62
73
0
-60
-87
-6
-65
61
-12
29
-37
-77
-45
-38
-127
37
-103
49
-69
23
-69
1
107
92
28
-69
-1
-39
-69
22
17
4
-6
106
-69
60
-83
-32
81
60
-74
44
6
22
9
-24
-5
-13
100
42
-65
96
-22
-127
-18
-46
42
4
2
3
-41
62
-10
6
-22
40
39
-75
-61
52
127
-22
72
54
120
-53
88
-6
-6
-17
7
-78
-39
-9
43
-42
26
125
-20
-52
-66
-73
-76
49
69
46
-48
25
-88
69
6
56
0
-33
16
33
-44
-100
100
23
-41
-20
23
86
83
33
9
-68
-61
82
-87
-93
72
-18
101
-85
-62
23
-9
-92
-63
10
61
-56
-5
-121
-46
79
-9
90
101
-53
-23
-54
74
-127
122
-68
67
15
-15
9
-71
38
70
78
14
16
-62
-95
32
25
-14
127
52
-31
45
76
-78
-62
15
26
-9
-77
-6
-94
-10
-80
18
103
-32
-52
40
2
-7
-11
-58
-50
-23
26
31
64
10
-5
-6
55
-48
-10
-109
29
-34
16
-52
-88
32
-5
-61
35
-13
60
-15
77
-54
27
0
-36
67
-11
-20
79
21
32
59
27
127
25
-26
33
-98
-6
-26
14
29
29
-22
-17
45
48
61
-30
-8
6
-45
20
62
-43
-69
-23
36
-40
-38
-4
-56
22
-7
-4
54
77
28
36
1
-27
30
-52
-65
-51
10
50
-21
59
42
-27
28
-81
-96
98
60
34
-22
46
106
-116
63
-127
50
64
78
30
75
48
-30
-21
-20
70
-38
99
60
49
33
42
5
-73
1
27
-19
31
39
112
-34
62
47
15
39
79
-14
-10
-48
54
78
78
-46
8
47
-12
3
-127
12
-8
-23
-39
-27
-56
68
20
82
46
7
56
-33
-16
-66
16
-61
-49
-4
78
-14
-59
-1
34
68
9
-4
7
-67
-12
-17
56
20
-63
-75
-8
-5
14
-88
36
42
90
-11
-27
-37
-2
92
-47
-44
27
-25
-96
-22
-96
105
-23
77
127
-27
46
21
-36
-54
-19
-82
-12
112
63
41
-46
4
-98
33
-93
108
-52
38
19
24
5
86
72
10
-52
67
15
-16
79
-1
12
38
-68
74
15
9
127
-17
24
12
-21
89
-29
79
27
89
-14
33
-89
24
5
-37
-66
3
73
88
-113
-32
-46
28
4
13
33
49
-4
-47
-127
-24
-8
20
-3
-11
23
58
38
1
-19
48
-28
37
28
7
42
24
-1
-71
-29
-80
-32
-74
26
19
52
61
-59
-67
-44
-26
98
21
-37
68
-4
-25
-89
43
-4
-1
55
-19
58
13
-37
60
-10
38
35
24
50
78
100
32
-16
64
21
-47
25
99
38
19
127
-60
-20
-45
-110
33
-68
-8
-18
25
-32
68
43
89
30
16
-2
-43
-20
22
19
-113
54
-37
48
-33
67
82
77
107
23
-46
-78
38
26
-63
-61
39
-55
-10
-8
-44
-127
5
1
-49
31
34
-65
-43
13
81
52
-3
-36
70
26
-89
-15
37
41
-6
41
102
-61
-30
-14
-43
42
-3
-24
61
28
-47
-106
-77
-30
-10
18
74
27
-67
37
-66
30
30
-77
79
-6
35
-79
103
-104
19
48
-9
70
90
-127
14
6
-67
-5
-39
-40
0
-8
39
8
-44
21
-18
52
74
-14
9
1
-72
-41
18
123
-59
-28
16
26
23
-90
76
80
-33
65
88
27
52
-59
9
0
-75
-20
-51
-20
-25
43
127
4
-33
51
7
-16
85
-37
-65
13
-12
60
-66
43
38
-91
-15
88
-106
31
-31
36
66
-66
-29
-6
60
-47
-69
65
-46
4
10
-17
59
23
53
-57
-73
-25
-41
-80
-90
20
127
53
-116
-78
24
37
-54
-68
-41
58
44
-100
17
27
-29
-13
-98
-20
26
83
-7
-71
-58
-10
-48
-30
103
1
85
-45
91
-52
44
21
123
18
111
-12
118
-64
-50
44
22
-95
29
127
83
2
31
-12
14
-23
75
-55
-77
-90
-36
-43
-86
-11
-37
-68
59
122
-105
13
-6
-23
-21
4
-93
92
51
-91
54
94
40
-5
-80
-8
-103
-46
-57
-99
-34
45
95
-68
-3
35
-33
-39
56
53
1
35
16
16
3
50
-74
-30
87
-19
45
17
6
-61
-17
13
48
20
-18
38
-48
-23
-52
68
69
-14
-127
-24
-37
-29
-27
19
-73
53
16
-27
67
-12
45
-69
66
-87
-19
-40
-8
-72
-47
36
45
-110
117
-89
-17
33
-11
-73
-30
4
113
59
43
50
73
88
-9
47
-43
-51
37
30
77
5
7
-30
37
52
-24
53
-1
93
19
-127
-20
-35
-42
18
-4
-66
-35
-27
39
-2
-17
-53
-22
5
45
-44
105
28
5
109
0
40
-1
63
29
-19
-88
0
24
-23
-40
34
32
-70
116
-6
-59
77
9
36
-11
-77
-44
49
12
7
50
14
-127
2
54
57
-44
28
13
24
14
14
-88
-46
-127
-65
82
-17
-22
53
-44
-32
19
46
-79
79
41
-62
-16
-34
60
12
-8
-51
24
-5
-11
63
49
-85
-24
-66
4
11
10
42
56
-80
-7
11
18
-23
-31
-19
-29
28
-45
-36
-76
-38
39
-127
28
-15
46
-64
57
-2
-33
-53
-39
28
-8
6
105
17
-51
69
9
64
-41
25
-6
-121
-47
-30
17
-10
65
-34
-13
14
-41
-63
-30
60
-126
-8
-57
-36
14
4
-61
-44
-3
8
65
61
-47
67
37
38
44
45
-82
-4
-85
21
-5
-4
19
-12
40
-94
29
2
65
-2
-4
25
21
-49
50
87
5
-24
47
54
112
-72
9
127
-9
7
-34
11
-25
72
-22
22
-72
-28
-126
-28
3
9
-62
-53
-8
60
35
16
-68
23
29
96
-98
117
-74
-50
-56
-5
25
48
118
-106
65
-23
-9
-42
127
3
97
83
-88
26
24
26
113
9
-58
11
45
11
6
92
-4
-61
-66
62
81
11
-23
1
54
-48
42
13
-14
-33
1
10
45
80
-120
47
-34
37
33
9
112
16
21
2
-25
-51
85
-104
1
69
-32
39
19
25
-87
-49
-72
-29
26
47
4
67
46
127
-60
75
9
19
0
15
-39
-66
-31
21
-87
75
-38
67
-14
44
32
22
80
60
-46
27
-91
80
-29
-6
40
16
24
-127
11
-51
-42
-8
32
-39
-77
-19
-48
57
-56
-44
-105
-56
-59
93
-91
47
25
42
2
-69
-127
-54
-26
13
-16
-2
-22
30
-46
71
-60
47
0
-65
-54
58
22
-74
14
-79
-67
54
-37
-39
-29
-34
-55
26
45
22
58
-57
9
-13
37
-43
21
87
15
42
64
-83
55
7
40
-31
4
87
12
19
77
89
93
15
21
57
-62
58
-79
92
-86
-79
52
7
46
51
17
-28
-104
3
-81
-62
-121
50
75
40
-36
28
-50
-86
-54
-73
-23
-94
-122
27
-70
-63
-58
-18
127
86
36
23
18
-55
-95
14
54
-46
-28
36
34
-43
71
-36
74
-67
-69
-15
-38
40
31
23
45
46
52
-17
24
-44
2
-9
37
50
83
9
-30
-25
-6
97
-15
27
-20
-32
79
-57
95
-59
-127
-43
-66
-49
50
-2
-56
45
14
-26
24
8
45
-52
-89
-15
0
51
26
43
-2
52
-52
-96
-7
30
56
48
42
-47
-46
20
28
-16
-57
-44
84
85
-127
-1
41
-9
-1
17
1
52
-15
30
-3
60
-1
21
127
45
-41
-16
-19
19
5
64
24
44
28
50
105
74
-49
-29
-67
16
49
17
53
-2
15
19
64
-49
19
80
-3
-34
25
-71
71
-47
63
-50
73
92
-101
-58
7
88
10
-47
-69
-18
82
20
99
113
17
46
54
-8
15
-51
-53
46
-21
-30
-19
-32
-59
-53
-55
-35
-43
-57
-14
49
44
-62
-64
-27
-27
-33
44
27
-15
-24
-28
127
-23
-25
-41
-41
-61
-63
56
-6
3
-34
15
12
-40
38
-76
47
-52
127
26
-10
37
-32
45
-52
92
19
28
-63
61
0
-43
-32
-67
-47
68
-16
-18
81
13
-63
21
20
76
-5
-18
-31
34
-6
28
-1
13
-6
-66
10
-33
23
75
66
-91
-77
-24
16
72
12
127
59
37
46
63
-93
-47
-116
-116
-31
-24
-45
-60
-22
-87
-19
-10
-22
-15
83
-62
-22
54
37
21
43
-52
47
-41
75
-5
31
-19
-75
-6
48
78
58
98
45
39
10
-40
-44
-1
-6
-127
-30
-92
47
88
70
-5
6
-35
-1
35
85
18
-56
95
-15
-37
19
20
82
-26
-14
-14
-21
52
-117
-4
8
-12
2
64
11
93
-23
-53
31
29
59
8
28
58
-5
7
-43
-23
-30
89
-16
-32
53
45
-72
-15
28
-47
-4
25
-21
-5
32
-74
32
83
-10
-61
-39
-81
41
15
-74
-92
10
-66
-18
59
127
-90
18
36
-47
31
57
-75
-75
-90
-64
47
-51
0
109
-54
-82
-26
13
26
-42
120
36
5
61
73
-50
84
-84
101
19
-71
-25
-111
62
-10
-22
-25
71
13
-73
19
-37
-7
62
-113
-64
29
21
-83
36
-127
-87
-18
125
12
9
72
-86
44
13
21
3
21
15
34
23
-40
90
77
106
-13
-79
-42
35
-23
-47
45
107
-28
29
-73
-31
-127
50
124
45
7
-79
-59
0
27
47
-15
34
-44
-62
21
-22
-76
21
-107
98
-33
-68
39
-100
-39
68
47
-37
-41
86
-61
30
38
43
68
-107
40
41
-7
-13
67
13
-15
-34
73
-56
56
-46
80
13
90
40
-57
-34
-50
-36
61
-48
-50
-93
36
-22
19
29
-126
-105
-127
-62
-20
-52
15
-23
-66
-97
2
-18
22
60
71
-1
-4
-76
-92
32
12
-41
-36
-50
33
43
10
-67
-10
-39
-53
-20
-15
-127
15
29
7
27
3
67
-36
51
-104
-42
25
-25
17
37
-4
-41
4
10
39
-31
-28
53
-50
18
51
-37
3
-42
-41
-3
-54
-44
-19
-10
-23
127
-25
27
-16
21
10
-33
-16
5
46
-30
-3
-67
12
29
-58
35
68
35
-5
-32
-87
-38
39
-36
5
-34
28
-54
-2
-15
-2
3
-45
16
-76
-36
22
23
21
-91
-22
22
-36
68
14
-54
6
12
53
9
51
-35
-9
32
56
50
37
37
127
49
15
52
-47
20
-48
13
-84
-23
-60
-67
-5
65
29
-38
24
-38
-12
6
-36
-86
-23
-4
-63
-19
-62
29
57
55
-37
20
66
-38
16
8
-24
70
-34
-25
8
-67
-127
-4
-35
23
45
-37
42
-56
-62
-48
-33
-15
27
-80
65
11
36
-92
18
-27
33
-40
-68
8
-9
-7
-17
23
42
35
4
-5
-5
-72
25
-27
-27
90
16
-52
-39
41
28
-28
32
-53
32
-43
38
-12
89
46
15
121
73
25
-109
83
-2
90
32
103
-52
40
45
42
60
-29
-6
-105
53
-75
-27
96
17
-127
-116
-66
-82
110
-93
-6
-73
75
-41
48
42
37
-59
-17
90
-39
-79
47
23
20
-58
-15
-38
28
31
-75
-61
-60
-127
-90
0
112
43
-38
-51
55
5
65
-62
54
-13
28
9
33
8
-77
98
-20
16
39
44
-50
-8
3
-81
49
-12
-68
-21
-127
-25
126
59
104
-26
67
50
27
-12
-58
-11
28
7
5
18
-84
35
24
-19
26
79
-36
-3
60
-28
54
15
-4
-40
-53
-43
-60
-2
103
40
-42
-57
-31
-32
-3
5
-75
0
-69
-44
-55
2
52
35
-20
-14
-68
48
-98
-29
-9
-63
5
-127
67
71
64
-32
-68
26
-14
43
-79
23
36
44
-104
-12
-34
85
2
6
5
-16
60
46
-77
-15
-21
14
-42
-24
10
-30
54
4
-68
110
-13
66
93
59
77
-85
14
71
-27
84
-72
-75
29
-59
40
-4
-36
-127
-95
106
66
-31
69
-55
56
-5
-17
27
31
-12
-33
0
29
11
-1
-7
-34
-28
-3
96
86
42
23
-32
-62
-36
14
-44
-33
92
25
-34
56
-57
13
127
23
49
35
25
11
-65
43
57
84
32
0
32
76
-4
4
-40
-16
33
-9
69
12
24
-14
-7
13
36
-16
22
43
-50
-1
46
1
-44
15
10
23
-27
-19
57
71
41
-25
25
19
70
63
-41
30
-2
8
26
-70
-28
100
76
8
-21
-19
-67
14
58
-51
7
2
-65
-49
-64
-55
127
-73
53
23
-58
-7
56
69
0
-86
-52
-82
-65
9
26
44
76
38
36
-15
-9
-7
27
37
-51
6
41
48
-43
-28
-109
-15
-20
-50
71
-35
-20
6
-2
2
-76
-27
22
76
24
67
-23
49
-44
-127
-35
38
98
35
-2
14
-93
9
-64
53
-38
39
-55
-16
17
-72
-70
19
36
-71
-13
50
-7
2
19
-18
99
-54
-51
-12
-60
77
-1
-18
-3
54
-21
33
-4
10
7
104
-9
-33
80
-23
42
1
-58
-32
17
22
-23
-2
-10
-48
-63
-15
83
12
29
-3
127
-25
-3
24
11
47
-36
-54
-65
-71
11
65
-78
-95
-72
70
-60
75
52
-15
87
78
104
114
-24
-19
-29
55
-6
-4
14
-33
-40
15
-32
102
43
9
-72
-27
-92
7
-1
42
-8
-7
-127
-71
-37
35
-11
13
-45
-22
31
-107
-10
-20
-6
14
38
-28
3
-40
40
49
-86
31
39
4
17
66
111
-8
-57
20
23
-62
55
-21
-26
-14
-2
32
-51
30
-74
114
13
33
127
35
-11
-56
-15
-60
15
69
1
110
-32
13
-56
12
-48
-17
26
-62
60
-67
-33
8
23
43
67
-62
81
87
71
121
-120
103
-65
68
50
-46
-127
-16
-67
-4
-45
-41
43
-89
0
-18
-43
-87
-70
27
-16
-49
10
-52
35
48
-68
-48
48
28
-28
-9
-31
-19
-22
58
-47
38
0
62
9
6
10
-19
-9
-92
-61
-19
-45
7
-49
-28
59
13
-41
-127
-4
27
52
-21
-13
-49
5
-73
14
-3
-30
125
10
-63
-36
49
44
-55
-25
43
5
52
-97
-73
-95
16
100
44
-29
5
-11
73
-39
79
-7
31
-57
26
-13
74
-52
50
-12
20
31
69
-22
-127
54
83
-98
-41
30
7
-62
-5
-90
87
1
68
53
-29
-93
-80
-23
43
26
-89
17
-41
-47
21
-18
100
83
-21
5
-23
1
-51
-110
-16
-49
-2
-45
-46
107
12
-19
-41
-57
-2
112
-26
8
-16
-32
87
-76
31
-22
-27
44
27
-34
59
-127
47
95
44
-16
-70
78
-9
-3
55
39
50
51
10
-83
56
80
-17
98
53
-19
-13
-83
48
34
99
-55
-41
48
54
34
-13
56
6
19
116
-18
29
10
45
-72
1
37
71
-59
-40
38
127
-16
17
-106
31
-4
3
-33
-70
71
-35
100
-32
-4
58
-48
-38
-17
18
11
-42
-29
-69
-32
26
42
-54
-4
-6
15
72
-46
27
84
41
39
28
-44
-39
-22
-73
-127
31
6
-12
12
89
15
53
10
-72
16
-77
-3
-81
51
11
-67
-41
5
39
53
-13
-37
10
29
30
64
61
-34
47
-79
12
-28
-7
8
13
-57
5
3
66
27
-48
39
10
-36
4
19
-20
6
-19
14
-39
-29
25
98
-30
127
-20
-63
-71
-35
-10
29
-24
-12
85
30
14
-16
5
63
36
25
34
24
-17
-95
-21
-8
12
18
32
-89
5
-78
-99
-29
127
16
103
16
-61
30
-27
-31
31
-69
9
36
7
-49
44
76
45
87
-62
-38
-1
-1
23
16
-53
-44
115
-79
45
-47
-16
-9
34
67
24
-40
82
41
4
46
-23
-22
-86
-78
-118
23
45
-66
-9
-29
-4
21
34
-68
-10
0
-6
5
33
32
-34
7
7
76
-3
16
-56
-23
-7
-55
-37
108
-127
-64
-42
-73
11
4
30
74
8
-70
38
14
67
-13
-20
-41
-16
-41
13
-91
0
32
30
74
13
-9
-14
-16
-19
7
40
50
56
-21
-53
-31
127
-101
-37
86
-99
-67
42
-23
15
-4
39
-52
20
5
92
38
71
-4
15
47
23
-54
44
21
-4
14
50
-13
105
72
-127
-15
-3
-72
82
-43
-62
-34
1
-11
-119
39
-25
112
7
50
-11
-58
31
62
65
-21
-33
42
45
77
40
59
82
50
-11
89
1
68
-2
39
17
-3
51
-4
-3
0
-14
-20
-82
-49
98
73
-26
-90
15
40
12
-61
-65
22
-22
-29
16
127
7
-59
-14
13
-31
25
54
-14
12
-9
-20
-34
-32
66
-15
75
9
81
77
48
-6
0
50
-34
-1
-101
2
127
31
26
26
36
-99
-61
31
-54
60
93
11
88
86
-4
-89
-41
-8
24
54
22
-53
1
-75
103
-108
-58
-7
-68
71
-82
-61
60
-100
-118
-8
-17
-41
13
87
73
21
101
-70
-13
31
11
29
15
-20
-5
74
-19
-47
-74
47
79
78
20
-25
-1
73
-1
-13
11
-56
-60
72
17
-61
34
-113
-77
48
90
14
67
68
-18
15
41
60
-42
-51
-77
48
-12
-127
-29
62
-17
-54
-15
-8
5
-57
-26
26
-45
-13
-41
16
16
33
2
39
-69
-61
70
-10
84
-35
42
34
-99
127
-46
-101
17
-48
-96
38
31
-13
17
-19
-9
-48
113
-9
0
-53
-5
27
57
-33
-53
14
-54
-5
42
-17
93
47
9
-14
-92
78
-53
6
53
-34
-92
3
49
-12
-58
31
-53
34
52
39
-44
-32
26
63
-67
19
15
-6
18
-3
-31
42
39
55
13
-92
-9
-13
-8
-31
6
127
6
66
-1
-47
-33
-28
-15
59
18
-37
0
-54
-17
-47
0
3
90
112
-7
-1
5
-52
39
-2
55
42
-11
-3
44
-34
17
-12
-20
0
-35
41
49
17
32
-10
-127
21
8
-1
83
78
-41
20
44
-31
47
-18
-61
116
-76
28
40
-81
-78
-21
76
34
-44
29
-37
-95
-90
36
-13
-34
20
-127
67
65
-48
-24
59
46
-42
23
40
51
-34
33
-68
51
-7
-4
0
-31
78
8
-26
-15
70
7
-25
-46
57
-1
-40
-18
-38
-37
-3
-6
21
-3
-4
127
-7
35
66
50
20
27
95
17
-47
-37
28
23
54
-39
-85
-78
-37
68
5
36
-50
-45
-28
-8
-76
-34
-30
12
32
48
-79
-4
-89
35
11
-31
23
-127
27
-18
-12
47
48
-3
42
16
-70
-29
-7
-53
-19
-60
14
102
-43
25
-48
-31
11
58
10
8
10
72
53
-26
-16
-2
55
29
12
-49
-21
15
-54
48
95
84
70
-15
53
12
-65
-30
-34
61
1
-43
0
-45
-34
-37
85
-56
-22
11
-3
-49
127
-42
-14
-26
63
99
-39
-78
-45
102
-62
-10
-52
25
-85
-19
-4
-60
14
-54
-1
80
-25
-26
22
21
-98
44
-1
50
-27
5
-76
34
-1
-21
61
47
2
98
73
7
16
-32
-3
-62
27
46
84
22
-34
64
-13
55
35
-127
-12
-31
-17
-61
73
30
-16
100
70
20
-5
-19
8
38
-14
-19
-55
-102
15
-9
15
-1
41
54
-3
-24
8
28
-91
18
-82
-13
11
72
57
54
103
69
-13
-44
34
25
-32
34
44
-23
-36
35
-41
21
-68
30
33
75
-127
-35
88
32
80
30
36
-61
-36
-97
-62
-31
63
-65
-10
-2
-87
-53
15
70
-19
14
49
117
43
6
-39
87
38
1
16
127
50
-1
-62
53
-5
7
60
18
-4
-65
2
-10
27
44
-68
-20
35
-8
-6
-42
-59
-23
-5
83
17
-25
-11
-26
-68
-37
-21
77
-57
81
-1
88
-41
50
-5
13
-7
41
-84
-27
94
22
-6
-13
-9
-23
40
-33
33
-27
27
-34
-127
18
25
74
-79
1
-106
13
-127
9
7
59
-36
-52
37
18
-42
37
-22
-82
-15
-1
2
-58
53
6
-11
77
-94
34
-40
87
-80
2
-5
78
24
28
-9
47
-88
95
-9
-61
-40
-1
-20
17
43
6
-29
-77
12
-15
-49
66
25
-32
33
35
2
21
36
-85
72
-52
22
9
32
4
61
89
-32
-81
127
116
79
30
65
16
37
28
-93
11
9
-41
42
-12
46
127
72
-104
56
-48
-65
-101
-20
-31
-53
-101
17
-33
94
14
52
65
57
-19
-111
-85
0
64
39
-10
-17
-15
-73
68
84
-93
-5
0
-107
-31
-96
26
19
-77
-11
-31
-4
40
73
-51
-69
-56
-11
-9
16
3
38
-34
8
-58
-31
31
0
-76
-18
-75
43
16
47
72
-29
0
-36
52
-127
34
3
35
-5
-21
53
69
26
4
61
52
1
24
-41
-45
-14
-75
47
36
40
-91
4
-60
46
-31
-30
-25
-53
57
103
-39
37
87
66
-14
-23
13
76
28
12
-32
17
-1
14
-19
-120
-69
-2
72
-21
4
20
-30
-68
-42
36
-94
80
127
-6
-39
9
34
22
-32
-59
14
77
-65
-27
-14
-53
54
-60
16
21
-2
35
-19
14
18
-43
23
-2
-41
-47
-4
-127
-49
-74
83
-66
17
-20
-18
-50
-45
-44
-22
-124
120
3
-29
-3
1
-53
-21
-29
-79
33
27
-84
-7
-20
65
-7
14
-53
44
127
-82
-50
62
-24
-53
12
-73
81
27
-15
-51
-57
-106
58
86
-68
-123
14
-34
67
19
-49
-62
32
52
29
44
-30
-18
-52
23
29
-94
61
74
-20
37
-7
-24
101
-83
-118
-14
103
39
45
16
102
-27
-84
11
-27
127
26
-16
-95
-63
91
-20
-11
12
-86
9
-60
-9
-2
-49
-78
94
20
-62
61
-15
22
-33
16
-48
-23
54
-19
53
44
-16
59
58
92
8
-8
58
24
-113
-11
-79
97
-127
-33
9
49
-59
-52
14
-11
-54
4
13
67
-2
-16
-1
48
-68
-35
-10
-25
-44
-15
14
-52
-75
88
-61
35
-32
-62
85
38
10
-13
-48
-3
-16
51
45
74
-84
105
24
-12
45
26
100
-55
-41
-30
-2
0
-20
82
71
-55
99
25
74
-29
10
-50
10
-57
79
106
9
34
100
-42
-7
99
-18
69
24
-84
17
72
127
15
122
-15
34
59
-107
-56
-45
-42
42
21
24
-31
-5
-18
31
-71
8
4
14
-63
58
-40
4
-36
41
114
114
-110
-49
17
-115
48
-22
-37
-2
50
-127
65
-39
-38
20
-37
54
-58
19
97
50
-10
22
21
-68
4
75
-18
47
93
-32
88
-7
21
-58
25
1
-127
-22
-65
18
6
-33
-59
-25
16
-7
4
51
-2
-100
9
-89
23
-13
-1
10
-15
10
-25
47
-47
28
5
2
-59
23
4
47
35
56
-39
43
-17
-98
-2
39
58
-48
10
-13
9
70
68
24
54
-11
-127
-77
-65
54
45
66
-56
32
18
-45
-44
43
-26
-20
-100
-15
55
65
-2
-57
-67
-6
98
85
24
12
-66
-88
-30
22
34
8
53
75
45
-83
-31
-9
-93
46
-38
109
31
-78
-20
51
1
48
18
-33
29
56
103
-127
-45
-14
14
20
-73
74
-1
14
15
-52
1
-57
47
-102
38
11
49
25
-7
22
34
-26
-34
0
-83
-3
50
-101
7
99
-75
-30
-33
-54
-24
127
64
6
35
84
-31
55
-40
-21
-57
-47
-62
18
-12
67
-31
-99
-6
-48
-34
71
26
-68
82
4
-19
-103
32
-20
39
-6
74
-80
-88
-16
-81
89
110
38
-27
-30
-58
-67
-83
-53
40
77
12
-52
-23
15
-57
2
9
-53
-46
-43
91
19
-75
-7
127
-70
-15
77
50
-17
-56
109
-13
36
7
-92
21
52
22
58
-30
3
42
75
64
-47
-33
-60
-42
46
-20
-82
94
-13
-77
-106
1
-9
13
-10
114
-70
-17
105
51
67
-33
-48
-114
-40
60
-56
-127
-91
-35
-83
-37
-3
-48
10
16
-3
-58
-86
-94
-72
-11
104
-58
-64
-38
-26
-7
55
111
-17
-81
2
11
-23
-75
-92
30
85
72
-117
-109
-21
-75
62
44
121
-111
0
-29
61
-18
44
24
-38
-13
-100
54
-28
-10
58
-12
127
-63
-55
-53
-121
55
60
19
-47
29
-117
-123
-6
-48
-69
75
42
63
-48
-39
16
6
3
6
-33
-5
-34
-17
8
-31
67
-25
10
-42
-28
-66
127
16
3
-29
19
105
-34
-15
51
-56
11
-37
50
-56
-75
-87
29
-58
16
9
-83
21
-73
5
9
-105
-55
-39
-14
29
25
-114
-67
-127
110
-48
-6
83
-29
64
109
-4
34
-75
61
-60
-1
-85
-27
-3
-8
20
14
123
-66
32
-70
7
63
-49
26
-48
53
-69
-64
127
-105
-27
17
-58
-97
-54
-39
-18
35
11
16
80
-7
-61
-21
-90
-22
-82
-102
31
-47
-42
-35
60
80
52
-4
-65
-78
-73
4
-17
-113
-3
89
-127
0
83
34
-5
62
-40
-33
-23
10
58
-9
-6
84
-35
3
65
52
-64
-8
-32
-18
-39
72
-40
-11
12
10
-15
48
-38
79
-60
-22
34
12
-61
56
16
26
68
-41
8
14
-88
-5
-34
-14
-47
-11
7
96
103
-6
-25
-75
-18
-7
-42
-55
125
10
-11
95
31
22
-44
42
88
-30
74
24
1
-66
70
-34
60
-30
127
43
89
95
-8
-36
-108
57
34
81
-11
1
-52
-127
-59
-6
-10
-50
8
69
1
-58
-10
-2
48
-109
1
76
-26
22
-26
-42
5
-27
13
31
64
-61
43
-26
-8
-19
-37
103
-40
64
79
-30
0
14
-42
21
104
74
57
127
-57
10
-8
-59
-2
-48
18
-49
3
-36
5
-13
89
52
15
-44
-47
-15
97
-14
-60
17
-53
32
-20
48
-21
-37
112
5
-37
60
7
-74
-104
-53
-34
-38
40
78
73
62
-115
3
-6
6
3
21
3
-10
7
53
47
18
-8
-3
-12
-24
-23
-66
-25
1
21
32
-72
-56
40
-18
-28
-53
-19
29
127
21
-23
20
-25
35
6
26
29
40
-1
-34
21
-53
35
2
33
27
37
-2
72
-41
26
76
93
56
112
-33
61
7
22
3
-65
34
2
37
39
8
-51
-26
25
75
38
-32
-3
-16
34
101
-57
-50
-98
-41
-56
91
-18
34
10
-29
28
-47
-29
9
34
127
21
26
-47
8
-12
6
-49
-57
-34
6
34
-88
-59
45
-54
49
108
-48
68
67
-19
35
-110
-40
-63
-27
-22
-37
-50
-57
-41
15
23
-127
54
-59
-5
14
16
-64
-27
22
-47
-49
33
41
-25
31
-65
-3
-18
60
-38
23
-11
44
-107
56
-6
54
13
-20
87
38
7
-127
-21
-64
71
-25
-42
-7
-7
-9
-35
-6
-18
-24
18
-5
-26
-15
-39
-45
23
65
0
-46
6
-14
2
-12
-30
-23
-29
20
-41
-35
-45
61
25
16
11
74
-82
-16
1
-14
13
-62
22
-4
-23
-1
-8
-23
-62
52
-32
-39
-21
42
38
-36
-23
-127
31
-4
53
28
-37
-42
3
64
-38
34
-81
-6
-57
-92
69
-6
38
-38
-43
-29
-90
-3
-62
24
38
44
-55
75
38
29
-42
82
63
16
-6
-46
0
-26
-29
13
77
32
-15
-3
116
30
0
17
-111
100
47
-70
29
-51
62
-86
39
46
-64
20
-16
26
-25
-58
43
-52
16
127
-43
-65
87
-70
-56
-23
104
-43
-18
-56
-51
-39
9
68
9
29
-12
55
62
-46
7
-40
66
94
113
-32
26
-30
39
-45
-127
63
35
-116
-16
125
39
86
-54
-17
-39
-9
48
15
27
60
-24
82
-78
79
13
11
-29
29
-51
-86
7
-28
-17
-21
84
-38
-73
98
88
20
42
-16
13
86
30
12
-59
-22
14
-42
76
81
-15
18
-60
-32
9
34
113
18
-15
-12
0
-127
-8
32
-83
63
33
-58
12
-19
41
-52
1
-80
-10
70
-85
-65
57
-17
-27
-9
61
-72
-32
2
-36
-27
-51
34
82
-26
7
56
-126
127
-44
-97
-95
-44
58
-59
6
32
9
55
92
33
-94
31
-100
-68
-42
-86
-50
-23
-57
29
-28
29
-127
48
38
27
-51
-34
18
16
28
-40
-17
93
14
-53
-69
19
0
83
2
-28
-51
7
28
-36
32
11
-3
-10
93
-49
108
45
16
34
24
-5
-70
42
6
46
-9
-23
-70
-106
72
13
60
-50
47
-10
23
-48
-58
-76
-127
-76
-46
113
-29
-119
47
19
0
-20
22
-18
18
29
-24
-93
45
48
22
-61
-95
34
65
7
-80
-107
1
-39
-113
24
24
52
82
64
65
-54
17
30
34
-23
-33
-10
-51
26
42
-53
50
-69
-88
-26
-4
52
65
18
42
-43
127
39
8
-49
55
-19
-9
15
36
-54
-55
-13
1
93
-72
-26
-23
-66
-87
68
-55
53
-98
-16
15
-67
45
21
84
86
-2
9
-83
-9
-16
35
35
-53
-37
-52
-71
4
-47
25
-37
127
55
-75
81
18
57
-59
10
-20
14
-43
-5
-70
5
-18
75
9
-104
-51
-4
-89
-57
22
87
-27
-40
-64
60
-10
52
88
11
4
36
-77
-67
37
-83
111
127
-36
-34
-45
7
-49
-33
59
60
58
-9
84
103
32
-17
-110
104
-26
90
48
57
-76
50
44
15
-17
-56
-52
-9
-9
-27
42
-96
47
55
-9
0
16
40
74
81
-33
4
1
0
-70
-1
-51
-106
-57
28
-25
-45
101
-52
-127
37
-39
-30
17
4
-92
-23
-18
108
33
32
51
-2
-8
-85
-46
12
40
20
108
69
-21
78
5
41
58
-71
119
76
19
-36
-4
-105
-96
-21
-127
21
-52
-63
-39
-24
46
-39
-38
16
22
31
27
114
11
-108
-5
84
21
49
27
43
62
-112
77
28
-98
-12
51
-81
19
124
-4
-71
44
13
-82
-3
-9
67
-61
67
38
60
-23
-65
-70
51
-21
32
75
19
54
-78
-13
51
-100
0
37
25
65
-10
-22
99
83
-70
89
-31
56
15
-11
120
-14
48
-26
-37
-8
32
-13
50
-68
27
40
-86
47
-50
61
48
-16
-127
-51
-15
18
-38
14
-18
127
14
-117
-87
47
9
-108
-23
2
71
-47
-15
-21
-15
86
-15
-6
66
87
-37
29
-57
-59
79
10
76
-48
-60
-5
-4
-33
-72
-35
-69
-42
7
32
27
46
-100
-37
35
-101
55
40
-12
49
90
-120
100
-85
-6
75
50
58
-102
-87
-96
-36
12
-2
-60
-22
15
-7
32
127
91
93
62
-29
6
16
102
21
-28
47
-18
-53
10
62
-93
68
-58
68
2
-108
-43
-43
4
-43
66
-70
-70
26
-19
-13
36
-12
-7
-15
-45
-34
-37
-12
-17
85
31
10
-53
94
-36
-75
54
-58
60
40
-13
116
-127
12
-59
-1
-33
103
73
-45
-4
70
29
-61
51
13
81
-5
-49
-16
85
55
36
17
67
-106
71
73
-27
78
99
-57
-33
-16
-11
-76
39
-50
8
8
17
-60
-61
29
41
-19
-63
49
-69
62
69
-96
67
-40
-53
3
73
5
-66
-88
51
38
16
43
60
-34
-39
-127
78
-96
33
58
-93
-53
-24
56
-86
34
-27
75
72
127
-18
-59
31
14
41
25
-21
-27
-54
52
-17
109
74
65
41
3
-42
54
33
22
77
3
19
-21
-17
80
-21
-60
-71
31
24
-67
-83
-48
-24
-75
-59
72
22
-94
10
-81
82
-44
-73
-21
34
88
-30
-34
-39
10
-127
-74
-38
-51
-72
42
39
110
23
-18
72
-43
24
61
-47
-104
18
-75
-52
59
73
-37
-61
64
2
-21
31
-63
13
-110
-28
-23
125
-53
-97
-4
-31
-2
-23
73
48
-21
4
-62
-31
-127
24
40
17
-22
-35
-8
-50
-41
-21
-1
62
-30
23
7
24
-42
30
35
4
55
-19
4
-67
32
64
18
69
-22
5
67
39
11
31
-43
-9
34
41
2
26
-39
-40
127
59
62
53
24
-40
-14
-18
33
-88
31
15
36
-61
6
-10
68
78
12
50
-9
-73
39
0
-43
22
19
-30
-39
99
16
-2
7
-35
-96
-36
-51
-108
-46
-104
-22
41
-102
23
-39
31
35
-10
-33
-10
21
-10
18
64
-77
-11
37
-3
38
101
-50
15
5
13
63
-4
-49
18
27
-76
1
-3
-12
8
-3
-14
-127
-26
-32
-75
24
24
-44
-8
-14
-58
-14
-21
62
-7
58
-78
24
32
60
-5
84
-67
57
58
82
54
5
-12
-19
-69
63
-18
3
-34
9
-71
-17
-73
113
52
-34
6
-11
9
46
30
-39
5
-1
25
-9
40
44
14
-33
89
-40
-83
2
-86
-86
20
-11
17
127
-21
-11
-28
-127
-15
22
-53
29
44
13
-41
-35
46
-83
-108
-21
-35
-18
-107
61
64
32
-124
-61
73
-62
-51
37
60
4
79
19
80
-13
-68
20
60
43
49
7
-48
-22
17
25
39
-84
84
33
-38
127
13
12
55
-35
20
-50
-25
-75
50
-20
-35
17
38
-39
-65
-44
-25
-80
-59
41
-41
-60
6
1
-19
-15
-69
-33
-9
-59
-19
-67
32
15
29
-36
97
10
-40
9
47
-83
-6
6
-5
80
-31
-45
-47
18
-43
8
119
0
2
-52
-1
-5
-78
-59
63
52
-34
21
39
74
-2
-52
17
-23
60
-54
47
50
60
44
6
-7
30
22
-12
-4
-64
24
-108
-32
55
21
119
38
57
127
-14
-16
-4
-37
127
-44
39
30
-44
76
-13
-121
-29
1
-49
-115
10
47
-47
-10
108
96
121
-43
92
85
77
29
-57
-9
66
-127
51
6
-61
25
17
25
-55
98
25
94
-40
-89
32
67
-4
42
-54
96
67
49
112
13
-70
25
57
-64
35
-127
-50
31
-75
5
77
-73
72
51
-91
-80
-122
-7
40
81
31
-20
-59
-100
32
-41
-74
30
66
-100
35
83
-62
9
56
-104
-70
-52
82
0
122
31
-78
-20
-101
78
26
-24
-37
-40
-42
-29
11
-72
-50
10
-25
94
34
-33
82
-61
-15
-6
-127
-69
-37
-11
-26
-6
17
-12
-100
42
33
-44
-30
-5
26
32
-22
-12
-52
92
30
-57
-57
-15
12
32
19
-3
-54
27
56
60
73
-72
-2
-4
108
-108
-50
-7
-29
-118
55
67
-6
-56
-24
-7
71
-57
-68
127
-81
60
15
17
-32
39
-49
-5
-51
59
19
-15
71
-43
-41
0
-48
-46
9
75
-64
-18
64
44
87
-19
15
51
4
13
-9
26
22
12
1
127
45
20
2
-60
8
19
28
39
20
-34
-23
49
-30
-12
22
1
-30
44
-18
34
7
19
-18
-17
-62
55
-11
9
-21
41
-5
-56
-23
42
49
40
-6
-71
-19
-38
-46
55
-33
38
30
2
-63
22
-38
53
-15
22
41
23
58
14
-57
58
12
36
52
-13
-43
15
-120
-12
48
8
17
16
-2
-62
-127
6
-58
-9
-33
24
-62
-62
43
0
-5
102
23
56
-57
30
-8
-63
-9
35
-60
58
-35
41
42
-75
-59
-70
-127
31
22
47
-63
55
-48
-56
-59
5
11
74
-35
9
57
51
32
76
6
44
-3
-7
-18
-15
-52
-10
53
32
23
-31
49
2
9
56
-13
45
49
74
7
-44
-25
-74
-43
-43
-82
-49
75
41
19
-87
-11
-73
68
22
113
11
6
-63
41
7
80
15
10
127
-43
-31
60
36
-28
-17
-93
-19
0
3
37
37
52
-44
45
-54
26
22
17
-53
91
-127
-125
-82
75
-63
7
73
78
-27
-29
-18
4
45
-47
64
-16
-25
-38
36
17
-56
-16
-7
-1
-53
50
-99
14
-20
-41
60
108
-35
45
-15
36
-55
-4
51
-30
61
52
-7
81
87
83
93
106
-126
-97
43
-13
-80
-49
-117
-126
-12
75
60
-53
-38
-31
-62
22
100
0
23
82
7
93
-4
-16
-56
-5
61
-73
27
10
-68
127
-17
68
10
-16
-60
-16
66
33
-15
14
73
47
-22
-61
-28
-31
-34
49
68
-22
-21
-39
-12
-2
50
-18
46
-7
15
-37
82
69
-56
-13
34
-44
127
-12
-17
17
-15
-69
36
87
-33
51
33
-62
84
28
-14
-21
-5
-85
27
-46
22
-27
57
4
-55
-72
-11
-22
36
-62
88
38
14
22
11
-81
41
-49
101
68
16
-31
-30
-78
10
127
-1
-84
78
-29
77
-53
17
-16
-4
-18
49
61
5
-39
-24
-7
40
39
6
-77
14
-61
-25
38
84
-6
-31
58
113
-23
127
-12
38
-31
50
-122
-44
-63
80
82
14
-57
-55
64
-35
-30
-79
123
-46
13
-31
-73
-3
81
46
39
-87
36
-6
-104
-21
1
65
-109
29
31
23
39
-57
84
108
-51
78
-102
11
-32
-12
71
44
25
97
-37
-58
-19
-26
64
-33
-19
-47
-41
-47
-23
25
-47
20
67
43
-55
69
-38
-105
-13
38
-51
16
84
-8
17
88
-46
60
-25
67
15
4
-90
-39
-14
-14
-127
-49
-96
-1
7
-43
-84
75
-9
-98
-53
-124
-51
60
-3
-12
84
-19
60
-3
-53
110
78
65
-19
49
93
11
70
-127
-38
16
117
-101
38
-31
60
29
3
58
1
124
43
-56
7
-1
-48
-2
-43
57
-19
79
28
-14
-51
44
32
29
127
85
81
-27
-52
-1
-15
101
48
-21
-37
29
-70
-13
-13
-50
-87
27
-3
18
-41
67
-12
32
-20
-8
94
22
-2
-43
18
-29
57
6
-106
54
64
-55
-34
63
52
-77
40
-48
-75
33
25
42
7
-33
27
9
-96
48
110
-25
55
77
-5
-45
43
-86
61
78
77
-8
-13
22
73
-72
-9
-11
83
-27
88
58
-81
-38
-25
47
-35
-27
25
84
85
-127
-80
-53
-81
6
-68
-31
37
-8
-14
85
-71
-33
-90
21
87
-57
15
29
31
52
22
68
-48
-1
-88
-66
47
5
-83
-110
-104
127
-40
46
83
-32
25
106
59
6
67
88
100
-43
-53
-26
-45
42
-64
80
-65
-63
-23
65
68
127
-18
27
-30
-2
8
54
82
-40
-60
-2
9
-41
-16
63
-6
-15
54
-23
-14
0
-10
-73
74
55
4
3
-4
22
-21
48
3
82
13
-2
-42
14
-39
4
52
-33
-35
10
-4
-34
-20
-25
24
40
20
-18
18
-76
-54
-56
-22
4
22
6
-16
-50
7
-58
16
3
116
74
15
-70
44
5
-48
-4
-127
-7
-51
18
-3
-17
14
32
-11
97
34
-57
-35
1
-45
0
11
18
-8
3
-17
33
8
4
127
-29
56
12
107
34
38
13
11
-18
-38
42
-10
102
-29
-50
98
-16
-33
-13
64
52
117
8
5
-29
-32
-7
31
-51
-62
-114
61
-74
28
-74
-54
68
-5
-40
54
-38
-1
-4
-86
54
6
-51
4
18
-22
-21
-40
49
-123
-23
94
34
-13
4
52
39
-60
-20
62
-94
118
26
-112
-30
4
-36
-40
3
-61
-127
44
62
3
-27
-83
-14
17
-98
-65
-96
39
-41
-77
6
42
12
-62
-69
12
-75
-51
3
17
-46
-16
42
74
-96
-3
4
-7
0
41
-54
-67
23
127
-6
-51
7
-27
63
-91
-15
-22
-118
-47
36
-10
-8
73
-105
-67
50
-10
-58
-90
-3
-22
1
-60
63
-41
16
-49
-74
-3
-54
45
24
73
-95
38
-23
-89
32
-11
35
-2
25
-56
-30
44
-52
81
60
6
-72
-64
56
-92
31
-127
34
90
104
49
19
11
-71
-108
105
15
-31
-5
-18
70
-26
-42
81
62
-71
-44
103
20
78
-84
-23
59
-70
27
-1
-16
-13
63
-127
52
-39
19
-39
18
52
-30
52
58
48
27
22
-90
48
97
-34
33
-41
-45
31
-36
-12
-8
-78
-36
-69
18
17
-48
2
-21
-8
-37
-9
27
-20
31
28
-43
-24
18
-127
32
45
-18
15
-86
61
20
22
62
-13
-36
30
-54
-42
31
46
-44
-40
-30
39
-73
-53
31
42
-29
3
-19
18
-11
34
50
1
46
-2
74
17
-47
40
11
0
-3
-57
-106
76
64
33
49
-3
89
-31
-46
-51
-73
27
76
-118
24
113
108
-40
55
-51
72
-93
-110
41
-14
-87
127
-116
-71
-99
-34
-44
-70
62
108
-103
-30
-82
49
-26
32
30
93
38
80
-127
6
84
43
56
-52
-26
94
-3
-33
46
-34
11
-33
-18
-3
-72
-76
-31
30
28
-66
4
25
-13
-64
-81
-26
53
22
-37
8
5
6
-28
-24
59
-10
18
14
-25
-2
-9
18
-22
22
34
-22
-22
-124
-71
-95
92
53
11
-27
11
88
-23
-33
-71
-43
-96
73
27
44
98
27
15
73
-60
18
6
56
93
-34
-3
-46
-21
-37
43
105
5
2
81
-122
41
-38
115
87
-78
-47
-5
-127
-103
127
11
-64
-19
-43
-37
31
16
-49
-66
27
23
25
-59
-5
79
37
-54
-66
-51
44
13
56
-69
-59
-2
-65
109
127
-37
-6
36
-32
16
91
-32
26
-10
-107
18
-13
36
-6
-11
-90
-30
33
-62
-47
37
16
-18
0
-53
18
8
-52
58
-39
-17
-20
49
83
-13
-35
50
86
-25
-16
25
-8
-27
-62
-40
-13
-28
8
-80
34
17
30
3
-38
-46
76
-127
17
-100
5
-11
-14
30
-14
11
38
-11
86
18
6
113
-43
-97
-21
55
78
-52
-55
-34
-127
-6
109
-19
5
0
-2
-38
-69
-78
5
60
5
-24
-21
-38
11
-18
-34
-56
-113
-29
53
48
12
-31
66
-32
26
-6
7
-13
-50
-35
-82
-62
-35
-52
-113
72
24
-76
-7
22
-20
47
50
127
118
-40
37
-30
-37
-3
53
98
-11
17
-30
79
55
-32
-56
-36
-72
-14
83
60
37
-17
113
-60
-2
-39
-62
68
-27
-19
8
11
-34
-22
-7
-94
32
53
-113
33
11
-25
5
72
-15
86
61
82
25
127
-2
-65
33
-10
24
59
35
-6
-30
-41
27
-11
-86
-121
-8
-2
-49
14
38
-114
60
-31
-23
85
28
5
-6
7
26
-40
14
-122
55
-95
30
-62
21
14
-127
99
-16
36
126
-1
33
14
-14
44
26
-23
-10
-83
-79
58
-70
116
11
51
-18
-57
-74
-7
-1
22
58
-32
37
-23
-83
41
-41
0
-41
-74
-115
48
15
82
96
5
-82
42
-30
-96
-1
47
-63
83
17
93
63
22
-47
14
-65
-18
-22
-62
-50
55
-92
-24
13
88
43
-55
105
14
3
-31
74
-127
-53
-12
103
-89
-35
81
110
5
80
-6
-64
-23
20
23
-22
-8
35
37
-30
20
24
-37
-45
11
14
-26
-11
6
0
-37
-25
-7
29
47
48
-30
-20
-13
-12
-127
49
27
-12
-13
1
-1
-46
20
-26
60
-81
69
12
-30
-16
-46
47
-29
-20
9
-2
29
-6
-8
48
-4
-8
76
116
67
-37
16
8
17
23
-106
45
45
7
37
5
2
-1
11
-26
11
-8
17
17
-8
-84
-59
-65
-13
60
28
25
-33
0
-64
-19
127
38
-24
24
-23
-16
-123
-35
62
78
75
-8
77
-61
-66
67
-28
-15
-9
-38
-20
-6
-2
-43
27
20
-62
43
-75
23
16
18
-29
36
22
-39
30
13
31
96
-71
7
35
47
-64
83
-77
-60
-50
-64
77
43
-18
53
-8
58
-19
28
18
-31
-127
47
-47
-30
-13
-43
22
124
35
12
21
-74
-93
-23
-26
94
71
10
-70
-21
6
-48
-67
-2
-4
-46
-40
-53
2
-40
-97
51
35
60
-1
-33
-50
-66
-22
-74
-99
16
127
-9
-24
40
-36
18
-30
35
61
79
56
-8
-48
-71
-55
36
-54
-14
-30
84
-52
-40
-63
19
22
86
66
59
-47
-110
103
13
-48
-11
-1
-32
-127
31
-51
-10
-77
-11
110
18
-3
32
24
-67
50
-110
-86
-22
32
-28
105
-65
1
63
40
9
10
-11
-6
37
-63
38
-14
-83
-55
114
-121
42
54
-43
-115
-75
78
-46
81
37
-24
47
-55
10
-70
-124
64
17
-127
-80
-44
-70
-41
-49
56
-24
-6
53
-94
73
-36
-119
50
-96
-42
5
62
-3
-56
-25
-10
-23
-22
21
60
-35
-10
-36
32
-9
-79
-35
-105
49
-81
57
-21
37
-9
-56
34
52
-33
-90
127
-113
-36
57
56
-67
47
-73
-12
-23
38
43
-23
34
12
1
-28
-11
-5
56
43
-74
37
14
57
-40
69
-6
-60
-104
5
20
4
42
-75
2
22
-93
-23
-127
0
24
-25
-67
-105
21
1
-25
-23
-41
-48
32
-16
-120
37
14
20
-17
-35
-57
-82
62
-48
-44
82
-24
13
18
-86
-20
-32
-32
2
16
-43
-73
-83
34
-72
19
-127
-16
30
13
-94
-59
-57
-77
0
-3
-31
-77
28
-8
-30
-6
31
-29
-2
-29
46
-71
-43
36
-56
-35
95
79
3
42
4
-86
-74
-40
44
38
71
-60
9
76
-48
-26
-69
95
98
38
-89
-29
-20
94
96
-27
85
-72
109
-25
-73
39
-32
-80
4
99
-99
-52
-85
11
-127
-61
52
68
5
-25
-27
60
-92
-63
44
3
-14
-24
44
16
-4
85
67
12
-25
97
-20
-111
15
-40
-13
-68
31
-46
96
-6
11
20
27
67
-21
70
20
13
74
118
-9
40
-16
-57
-18
44
127
-4
-1
-48
56
21
13
73
11
26
50
37
-62
38
27
109
89
-94
37
2
63
-72
-47
-12
-80
6
-36
78
-42
12
39
-70
2
48
26
-39
6
36
53
-114
28
-27
6
-31
-16
-32
20
-27
39
-4
43
27
-74
55
127
25
-100
-54
32
11
-3
19
104
-84
19
20
-23
-12
35
74
-62
22
-20
24
-40
-112
80
-57
65
-28
-24
9
-34
49
-74
-60
79
84
24
-8
34
-127
-19
-77
50
56
54
64
14
0
-4
34
-79
-96
31
-52
-6
55
-48
51
11
66
21
74
-4
80
47
-127
-85
-37
56
92
-112
2
51
57
-125
16
-72
-33
-78
-83
-56
-11
-33
-20
6
80
-53
-23
-95
89
21
-49
12
32
-28
52
-70
-36
-66
-33
29
71
-5
78
27
36
-36
-87
56
-46
127
69
-88
-58
61
7
68
-22
118
-9
18
-15
-73
-27
-66
31
33
-50
-54
-27
-3
-11
19
-19
-87
66
-11
22
37
-53
-50
33
91
-53
87
-69
-42
-38
-38
-52
-121
-6
-2
-64
-117
3
-12
89
-35
13
-16
-2
52
71
-53
45
88
53
-19
23
36
-87
77
94
-19
88
-26
-92
35
-102
-49
-26
-11
-82
-32
12
-122
-72
-64
-38
119
-64
29
127
12
-29
-87
-68
63
97
31
-89
76
21
-38
16
81
-35
48
7
-37
17
-3
12
-42
55
-41
-127
6
7
-16
17
-25
6
29
-81
19
-84
-37
113
-16
47
66
33
-70
-44
112
-83
-17
38
-37
91
-109
101
-12
-46
20
35
-22
87
95
42
51
34
-44
105
49
78
-114
-40
-77
-43
-92
40
-66
-79
57
74
-29
-16
-75
6
5
73
89
-26
-47
-55
59
16
49
49
95
-99
127
-58
1
84
24
6
19
-56
-44
-76
-24
-62
70
61
111
-98
-104
0
-58
5
-2
-82
-30
-64
22
13
53
52
116
0
60
57
50
66
77
100
38
8
82
33
43
-31
-25
50
52
11
-56
123
-56
23
65
-75
31
70
-11
-35
-44
87
-27
90
-31
-103
-127
-74
-54
-91
-5
-100
-73
65
98
-96
-68
26
-59
-69
77
49
19
-6
121
70
81
-99
-14
-9
-41
-27
-28
-78
9
127
-18
-22
38
-21
-38
-22
-22
-7
-15
-48
-35
21
31
-10
12
-32
-23
77
-96
-9
-111
-56
-79
-17
18
74
69
-22
-22
21
2
26
-31
-5
83
54
22
14
80
70
34
66
-17
-13
42
67
17
-28
53
31
-15
92
68
-8
14
-23
35
127
8
-56
47
57
26
-21
36
-5
6
-39
73
59
0
-85
-29
41
33
22
37
70
-22
-27
73
80
19
73
-127
-92
-57
16
38
-1
106
2
-52
-71
-99
-98
19
54
-14
99
21
-38
-40
-49
-24
-93
20
-127
-24
10
-95
32
-39
70
-42
12
78
-18
31
-48
111
-41
-47
-36
-19
-70
64
95
16
-86
-34
-58
-46
-64
32
-90
-102
-60
-104
72
-23
-49
-6
2
101
-90
80
-127
-23
-7
1
15
-25
-1
46
50
-7
-11
-23
-55
55
99
-62
41
-9
-99
10
39
-10
22
-52
-74
-42
-19
49
13
-58
17
-32
10
-87
29
-26
-40
-127
-22
39
43
-3
-65
-51
-65
18
39
62
-33
-78
60
35
-22
26
-12
-11
-26
-90
24
-44
4
-13
5
-72
-51
31
-67
-127
27
11
30
21
-21
98
40
-63
-16
87
8
-28
68
-12
-9
76
-26
-101
9
-14
-9
-56
29
-74
96
65
40
51
-50
-26
-59
-32
9
-15
-24
-76
31
28
-33
32
3
-33
7
21
15
58
87
26
-15
0
43
101
54
-76
-26
-77
-30
42
56
7
47
-65
-23
49
49
-71
-8
-59
49
-40
-51
-65
-9
49
-106
-63
-58
20
55
-52
36
13
49
127
-54
-45
-33
56
-18
14
-50
18
86
19
45
-36
-65
94
24
34
63
51
34
22
45
-85
-46
74
36
-84
-27
11
-55
-79
35
31
-36
54
-92
-109
-84
100
-37
-28
-48
-33
-69
86
14
86
1
68
-3
-84
-57
-19
127
14
58
-4
42
-72
-32
29
-24
2
27
51
12
19
-28
30
-5
39
-37
8
78
-10
-29
74
-24
16
-57
43
85
5
67
-1
-94
-43
56
19
10
21
34
-10
-127
31
-20
36
15
-2
-49
-41
32
78
22
29
1
-59
-44
76
67
17
-20
48
8
-66
65
-74
24
61
69
-14
106
-29
-106
-21
46
117
-55
73
-110
14
-96
-8
83
10
20
-56
-71
-85
70
-8
-3
-58
-33
45
-127
18
32
62
-34
-7
-95
-26
64
-17
-14
-96
66
-56
-51
91
42
20
-44
18
-15
-33
5
-29
-57
-1
-79
-69
-93
-41
10
-51
108
58
12
29
-29
-5
7
-10
-36
-125
46
52
81
15
76
20
50
-59
65
-38
-2
-4
-127
19
-42
20
-18
-9
88
3
-13
-77
-38
13
58
-42
-37
-81
-39
-37
-104
-71
3
-47
39
9
38
-11
62
-111
62
-127
-95
-10
28
58
-88
27
8
115
74
-53
25
-5
-64
11
86
-57
32
26
-13
31
-15
-97
29
-18
17
-14
28
45
74
120
87
-22
12
47
-24
-40
-12
29
-45
-34
32
15
47
41
-23
1
-62
-53
40
-127
8
9
0
-56
45
-28
-2
-7
12
-34
-61
-47
-40
28
6
-95
-66
-87
40
93
-45
-55
-13
13
23
-9
37
-105
8
0
-55
-119
-53
-29
24
15
-29
61
28
5
87
-11
31
127
-50
78
16
-44
-32
-46
-26
-67
-4
-48
5
15
92
21
-65
36
-34
-1
-75
-48
18
91
-15
4
-6
-82
124
-22
6
-43
-78
-51
-96
-50
-35
78
122
67
-16
72
-7
41
-111
57
46
18
-82
-96
3
-60
34
-54
9
-113
65
-10
-70
15
-37
-30
66
-9
62
-34
127
58
-46
-9
-72
73
-29
84
-18
-27
24
-70
-122
-5
-53
-62
60
33
55
-49
34
-46
-1
-14
40
-44
-7
-30
19
-26
32
112
-40
63
-55
-108
26
-118
-26
-127
34
-43
14
-93
85
-24
-2
33
-41
70
-20
-22
-106
-34
25
106
-49
-86
-14
46
-72
18
27
-108
-14
-43
-4
12
99
-62
9
-48
113
-98
-57
30
75
-56
-68
-19
-13
53
16
44
-127
35
-115
-43
46
39
-29
-35
18
115
-9
-15
-14
-17
33
-32
-57
23
40
-34
-3
54
-5
122
-21
28
-110
-28
-105
42
41
4
-23
-111
-112
-55
-89
101
111
-30
89
4
-121
78
46
-127
108
87
29
44
50
-28
-72
36
-112
13
42
17
-112
-125
-35
-63
32
13
-85
-111
3
3
33
19
-90
-34
-42
103
32
20
57
119
-32
-41
-82
-73
-5
-84
41
126
39
-49
-55
-14
35
13
-90
-40
66
-28
48
127
-17
-103
-117
47
30
90
42
-20
-17
42
-45
-80
11
43
95
-62
78
-22
73
-17
-73
-8
87
-66
-32
-70
-37
-38
-73
84
23
-17
-71
-72
11
-35
13
-49
9
58
52
-54
43
-54
48
62
-127
73
-64
-28
-1
39
71
-45
-8
-12
16
55
-5
-37
-5
-76
63
46
9
5
-51
86
27
18
-21
12
-12
7
-47
-20
-127
81
90
-1
-81
-40
-8
-20
-3
60
42
62
-32
-26
28
13
-23
-2
-57
3
39
-13
-69
23
-38
47
96
-34
-27
-25
96
18
17
-25
-26
60
26
52
-55
62
-5
67
-6
-64
-127
12
-20
6
-66
101
35
-45
103
9
-24
33
-1
-80
15
-49
-78
-63
-75
-38
91
24
102
5
-54
20
26
-12
-58
22
1
-114
39
41
15
52
42
-33
102
-38
37
37
24
-27
-9
30
-13
20
29
-21
-40
59
52
57
53
-44
111
5
-23
19
-31
-41
-80
25
-12
45
-24
-7
12
37
17
-5
19
-14
-21
-2
-4
-14
-32
72
23
-31
-127
15
61
-1
16
-24
43
-53
29
28
6
-28
-3
-59
40
-21
-21
127
5
62
67
-40
16
4
64
96
27
17
-83
113
-2
1
-32
-28
-24
-13
-44
-70
62
13
34
35
5
15
-124
1
-4
48
-50
-57
-39
13
-53
-92
41
-62
64
75
-4
117
-33
32
34
36
-27
22
127
13
-19
5
-67
-117
-21
-1
-107
-43
24
31
32
-19
-99
-52
49
-26
-33
-22
-24
-35
-89
81
11
99
-13
15
-32
-69
-12
-50
4
20
-38
-33
-24
-36
-40
-127
22
3
47
58
-41
-35
-32
10
-44
4
36
78
27
38
78
26
25
-33
50
-82
0
67
4
-11
16
-9
-23
-42
34
6
5
25
-2
23
33
61
-29
87
-48
115
-8
-49
-78
65
-89
-31
-81
-22
9
-51
76
-8
27
22
-5
38
-43
64
-39
59
-12
42
-1
47
5
-60
-5
3
-29
-26
-63
-49
-31
-94
27
-37
-55
-82
-41
15
-12
61
70
-127
-37
74
21
-65
-55
115
70
61
-23
-23
53
-3
99
-28
-73
-51
-85
-67
-6
33
53
-14
-57
7
-72
29
86
14
127
45
10
-77
30
-37
42
25
85
5
-7
34
-55
47
-30
65
70
0
-33
42
-22
12
52
21
-45
14
0
-21
44
4
-42
-32
-49
11
-34
127
-7
70
7
3
19
53
-12
-70
32
1
4
-15
-18
21
38
3
-11
76
-29
48
63
-4
7
-2
26
-6
4
-2
-8
-40
5
-39
-49
51
-38
57
59
-14
-13
26
-27
11
43
16
80
24
92
-36
-66
-64
-75
-42
-47
66
-13
-51
35
26
26
43
-23
-127
21
25
-28
-22
56
64
59
44
25
-7
-38
63
-23
-17
-124
76
-50
-4
59
22
32
-31
-7
59
5
-66
2
12
44
9
-34
-82
23
29
-37
-4
-74
-58
-21
36
54
-37
0
-10
-54
-57
55
-31
86
75
-50
9
-19
-86
-63
-69
-21
53
74
-78
-11
13
-19
-23
76
19
39
-48
-73
-51
93
-52
-127
5
-38
1
-49
53
-11
-54
14
4
31
12
45
32
48
66
22
44
-17
-116
-107
-84
38
36
5
-86
-51
19
31
-9
-31
30
-70
-91
-30
20
31
47
78
-72
7
19
-127
-52
67
-6
-54
-46
35
35
-4
-1
127
-53
52
20
93
-74
-78
35
-6
19
62
91
63
55
43
-7
32
88
21
-91
-61
-71
-37
-31
24
-94
64
22
86
40
-10
38
-72
13
58
17
69
-111
-30
16
-22
87
81
45
71
-2
-3
-28
43
21
-32
-17
-21
-5
-10
31
-34
89
60
-4
31
-33
-1
4
20
122
26
-25
8
-29
-54
-13
42
-42
127
33
-17
40
5
49
-108
46
12
27
-37
-28
-39
13
-7
9
-45
-29
51
7
42
27
126
95
39
-50
88
81
-29
-31
10
103
-1
96
-84
39
4
-27
76
53
-33
-88
-127
-25
6
98
102
-114
123
-105
-111
26
-59
-111
107
35
-123
-19
67
-86
55
79
103
-17
-82
-24
14
-39
42
-16
82
-29
46
-30
-24
-47
23
-60
8
23
-10
23
35
72
7
-60
124
-7
127
-32
-16
26
-42
5
37
18
12
-7
-18
49
-23
-6
-1
-21
-13
32
-45
30
-31
-59
23
-2
23
12
32
-35
43
56
-93
-12
-53
-14
-70
27
52
-60
22
-49
-79
-83
127
-79
-20
25
-9
54
69
-32
-30
-24
-60
82
-55
80
-29
-9
10
-32
-108
26
-21
-53
-63
31
78
-72
-94
-13
-64
58
-115
-18
-29
-21
80
-20
27
64
75
-61
-26
24
40
-89
-36
57
68
-70
41
-2
-64
-51
26
-50
63
106
113
-64
-30
59
23
38
-1
50
6
63
51
-26
50
-42
98
37
-82
76
-17
35
-77
94
-127
-25
9
-51
-77
19
-43
74
39
23
-25
-35
-118
4
-127
-65
-23
-22
19
-75
20
45
-14
67
-82
-2
32
-57
-42
5
57
19
40
-60
-21
7
67
-7
-32
-51
40
-57
26
-50
-50
34
38
-10
68
-65
-7
2
-33
106
-127
-22
-28
32
12
10
55
-27
-67
-22
-23
-11
74
-40
-107
-121
85
-117
11
-6
81
76
-106
77
-90
-32
-87
-44
-2
90
-50
-39
64
-107
-14
-49
100
11
-100
28
26
124
-95
-86
112
2
26
19
82
9
28
-31
60
32
-16
34
-46
13
4
-4
-50
-68
-127
-7
96
-30
22
-66
-80
56
-16
-44
-4
17
-81
-19
27
14
7
-37
-40
31
-55
-57
71
-28
-111
-51
45
-22
29
24
5
35
44
1
-53
-35
12
-10
53
67
-28
-15
-48
-6
-43
45
-41
16
51
-51
117
-42
-30
-32
-2
-45
52
-34
66
40
32
-31
9
75
45
44
-20
-127
9
-19
-22
24
2
41
24
-39
81
53
52
-51
71
44
-68
-45
-36
64
8
3
9
-81
-83
-65
11
-24
-47
60
-10
-11
68
22
-85
-15
38
-67
-81
82
-35
-12
-77
5
65
61
-51
11
127
-35
-90
39
52
-15
-23
62
0
-17
9
-12
-104
-60
-23
-39
-11
-21
7
65
-17
51
94
-18
40
39
5
-70
30
-45
-79
-75
54
-127
-32
11
-20
-18
59
62
6
38
-37
23
-15
31
-110
-75
60
9
-57
64
-56
-40
17
12
98
-71
-28
8
5
4
-108
50
-11
-57
56
-40
45
6
-10
-61
83
14
-35
48
-12
-31
88
83
-75
-3
-42
5
-86
95
19
-86
24
-19
72
-109
54
23
-46
-11
-109
-127
10
-26
-29
23
42
-36
-24
27
-67
40
27
-41
112
26
-127
-63
-15
-40
102
93
13
-57
33
-36
5
51
-33
-55
66
3
16
29
-89
112
-69
44
71
27
-68
-78
-22
83
30
-48
33
-49
-84
-16
-75
18
8
48
75
-74
22
-47
-45
-10
16
-27
67
-39
16
-18
81
60
-24
127
-66
6
-104
-41
4
77
11
-42
1
10
101
-50
-48
-9
62
6
-8
7
24
-10
-12
-10
-101
10
-8
0
-109
8
32
16
63
-61
-18
-12
-72
-114
66
-58
46
59
-11
102
-113
63
-39
4
28
-23
25
-74
58
98
55
-25
-71
23
75
-1
-62
29
-1
-6
60
50
-127
84
11
-16
45
10
60
-32
88
-49
-31
-21
93
-113
-1
21
-23
-29
-29
54
39
-65
42
-31
51
-41
-15
38
5
18
-36
19
-2
-18
-46
-27
-9
-30
8
-127
-51
-25
-41
-32
-20
13
-9
46
27
-49
-25
-35
15
-12
-27
42
29
2
-74
40
46
-20
-97
-22
-49
-32
3
-103
18
23
-40
36
-26
-45
-45
-74
-37
-63
-37
-27
74
-110
-9
-17
-3
63
74
63
69
11
29
-11
9
-114
18
85
-53
-12
-52
-91
-88
35
-52
-13
-19
-34
104
16
-71
-10
127
88
-45
-53
-36
57
9
-62
-66
27
35
-9
115
-47
-43
68
22
37
39
53
-10
-22
50
4
32
17
3
-97
-69
41
-17
-77
-21
-40
-43
-72
3
-127
-33
8
39
-33
-3
-59
1
40
19
24
69
49
29
-10
19
47
-13
1
60
78
-19
51
39
35
15
-3
56
17
43
-91
25
4
-19
17
-57
24
21
7
77
20
55
13
-2
36
51
42
-46
-22
-33
-30
-7
127
-8
-44
84
17
-40
71
-29
0
-51
3
11
12
-33
-55
9
-58
5
31
110
12
55
-45
-10
-66
30
32
62
41
70
49
-9
23
31
3
-68
48
-47
-4
-91
46
-43
-74
4
-54
-4
-13
-37
-47
-53
-5
13
-51
103
-74
1
-16
79
-8
17
4
45
-28
-21
27
127
69
-57
25
-56
72
61
43
107
64
19
-42
0
-33
56
-32
35
-86
-92
-60
-92
-31
127
34
-83
111
-28
17
-73
39
82
-77
61
46
23
9
-99
5
6
-2
-66
51
9
3
46
-93
-26
5
-61
-66
-109
32
112
63
4
-14
-32
51
0
9
-12
-12
-101
41
-89
-102
43
-127
13
87
21
-33
25
-1
67
-14
-80
49
-14
-16
11
5
34
-18
35
61
-96
22
-72
23
-33
-102
-71
84
-55
34
-17
-63
54
66
87
45
-16
33
9
-1
33
2
-21
90
-50
69
-76
-22
-19
-88
74
39
27
7
-58
-5
-57
-38
-43
17
-71
92
-48
-11
14
51
40
36
-20
-127
-52
-15
70
-16
-72
-96
-49
-88
27
-62
19
43
11
-5
44
-5
-89
17
-69
106
-7
-23
37
8
-37
101
-9
30
-77
-127
-108
68
-119
-52
53
30
66
38
-28
77
62
18
119
-29
-90
-5
-44
51
95
106
54
35
5
-26
-29
26
7
-92
80
55
94
109
-2
21
-104
16
22
-89
67
-117
-27
-16
-125
-72
45
70
125
-12
53
39
-55
-29
58
17
48
46
-45
92
-73
111
-49
0
120
-37
50
-78
-35
-53
65
-51
66
-2
127
-1
-100
46
-26
127
-44
17
-48
-6
-6
3
67
-69
-66
4
-96
-11
-40
-64
-58
-51
55
4
60
68
37
-3
12
40
-16
29
-65
84
-69
32
73
6
74
-22
22
8
36
-29
48
23
-31
-24
79
17
16
-53
25
20
29
22
-20
-26
40
-12
27
54
50
-72
-5
44
-38
-30
29
8
127
-11
86
51
-67
56
13
-37
3
-12
-12
42
-5
15
21
-28
1
11
-9
3
5
-10
11
72
-27
-37
-24
-37
-32
17
-69
-49
11
-19
81
-76
-68
-20
-45
-19
-105
112
61
45
-16
-68
121
49
8
-100
41
-5
-82
-72
34
-1
96
-10
-54
36
-73
29
22
-61
-75
-122
-47
-82
92
32
127
55
61
69
-34
-48
53
-15
17
13
45
7
-25
-57
-17
-35
61
20
21
18
45
-127
21
35
-40
30
-32
-58
-11
23
0
31
60
-5
15
-35
-24
4
-21
63
-92
-33
5
-11
14
4
62
33
-20
-45
-13
8
11
18
-35
1
16
52
1
77
81
11
10
-47
-75
-28
66
-44
-19
-105
-66
-22
29
-44
-41
42
-14
-86
-30
-36
-87
67
-40
-33
-19
13
30
-29
18
16
-47
48
57
-51
-127
40
-47
-55
34
42
34
68
-104
25
16
-49
-106
122
4
69
-12
-15
-10
106
-3
-14
104
-73
-64
-127
1
-2
-46
44
29
-32
-35
37
-100
-43
-93
10
-35
-14
-1
-28
-13
-19
-40
-42
30
114
-34
-35
-78
15
-69
-119
26
49
-69
-26
69
34
8
23
-37
13
108
-68
-60
-70
-64
-17
127
-49
-45
9
-3
99
0
-10
28
26
-9
-51
-12
39
-7
51
29
-74
-34
46
25
10
17
-5
90
-9
-37
-55
83
100
38
-1
39
5
56
-88
43
-34
-54
59
-18
91
-28
-22
-50
-84
-64
10
-79
20
-5
-5
-2
66
6
44
-59
-84
74
34
-79
-48
91
78
-127
24
-31
-26
-97
103
-10
79
-25
-65
25
-48
41
-22
24
-66
-63
-26
-29
75
-37
-72
-9
39
-23
-76
-61
-59
67
-60
37
14
-80
-39
60
-60
127
-94
49
-86
-15
-32
-6
58
-22
54
-20
-35
46
47
-13
-36
47
5
44
-61
35
-100
-37
-31
-45
-9
33
76
53
66
-107
-4
-83
81
17
3
6
-52
-4
-92
-57
63
-26
54
42
-32
105
99
29
-5
46
25
-33
-64
127
-27
-23
15
-57
59
-42
69
-48
24
-12
36
-21
63
33
-70
-27
62
46
-104
-52
33
-39
-30
49
49
-50
-80
-95
-17
81
-57
33
17
39
-81
-86
-37
73
74
24
-87
52
-9
88
11
23
10
52
-66
-4
-59
-71
-63
66
63
-81
14
12
-91
-53
-17
1
-58
-98
-65
32
4
-62
-105
85
-6
127
7
3
2
81
-30
11
-62
2
-60
36
17
77
-48
36
10
-17
89
-43
-33
47
83
-1
-47
36
-56
77
39
4
40
54
-27
-66
29
-39
-23
-23
-40
46
-6
9
-20
67
30
-68
60
-61
-127
-30
125
-40
-44
-41
61
58
34
7
-46
-90
-55
-108
58
70
-66
45
-85
-73
-81
-127
60
26
-97
-8
-37
12
9
4
61
-49
-48
-18
-88
32
31
29
61
-24
-34
-107
53
64
-56
-36
42
-78
57
-50
-7
-3
-8
-19
36
-40
-19
-104
22
-40
-3
0
-1
-3
-42
64
-62
-33
-14
-53
-26
-76
6
23
-64
-21
24
83
-62
-32
-94
-2
-11
14
-46
-104
-6
-61
105
16
70
-44
-127
27
-22
-56
-59
-8
-72
-105
-79
54
-31
-73
38
-39
-51
-56
-31
56
27
-57
70
37
-16
-22
51
111
-51
107
48
-19
73
39
9
86
89
-33
-22
78
57
41
13
-31
3
77
-21
-12
-40
-60
-37
-2
127
-44
-50
-88
-9
-51
-127
10
82
-106
26
-8
60
-72
-18
83
-37
-115
41
-48
-71
25
9
-26
-53
-50
46
50
-35
-115
48
-27
89
76
47
25
4
10
14
127
-13
-1
-41
-29
-78
-47
40
-1
-117
96
-44
-69
84
-74
11
61
-11
-4
-104
30
-99
3
-39
97
18
-103
81
-87
-114
38
-65
-47
-69
24
31
-13
3
-20
27
-26
27
88
-26
-110
78
64
85
37
-123
-65
106
-44
-127
49
35
85
61
76
38
-61
-2
-26
-27
3
103
-38
127
19
-29
-76
61
-25
-27
89
-55
23
-73
23
72
-107
-19
-23
23
88
-57
-53
-48
-83
101
2
-121
52
39
-14
-40
17
46
12
64
47
-105
-4
34
69
-20
-30
43
-8
-22
-39
39
-101
36
79
-4
64
-20
-46
15
-81
21
90
-22
-18
11
12
74
-1
34
-24
-1
49
-13
27
32
127
36
79
-27
32
-26
43
69
-21
-65
-77
-77
-69
55
104
44
-36
108
29
-83
60
-9
77
72
62
-102
-61
20
82
84
54
80
-19
-16
-20
-63
-127
20
61
-11
10
43
-11
24
-59
-77
30
-26
-5
-49
-46
55
8
-47
12
55
-7
-74
-57
24
61
-58
-1
95
-14
-57
72
-71
21
-11
-85
-33
26
-18
-7
-85
17
-63
-25
-78
0
-2
27
71
-3
5
-11
-6
-50
-7
52
47
-96
35
-10
37
0
-6
-11
-73
-19
47
-21
4
17
-127
-16
67
20
19
11
-6
2
31
13
-10
18
39
5
-18
16
-12
2
48
10
-15
-8
30
17
-26
62
-18
-35
-44
29
29
-11
23
7
-8
-20
-5
15
-38
-16
-66
65
13
-6
-65
69
-42
-54
21
127
-9
9
-58
9
46
-77
-6
-87
50
62
65
-2
116
-43
16
-20
9
-49
1
-19
-6
38
47
-9
-80
-18
-48
42
-41
-46
-27
-29
19
-39
127
-11
36
-54
42
-34
-35
-16
7
26
-38
-60
55
17
-73
-88
31
-88
16
-18
22
-65
-3
-2
16
-44
-50
-10
13
127
-28
-92
-72
-56
5
-30
47
31
44
10
-49
101
112
8
-2
-49
-13
44
-41
-48
-48
21
9
-39
44
42
9
11
-28
-22
63
38
-46
32
79
24
-52
-48
-30
-10
-7
70
-39
-26
117
-28
28
92
11
58
-15
46
32
-41
36
50
-7
-127
-37
28
-9
52
120
-35
83
-45
8
4
-23
-68
-26
2
89
52
-62
32
17
-30
4
45
-15
16
-34
-35
-68
-16
56
-14
29
76
68
31
47
-18
35
127
-34
-15
58
-7
19
-33
-8
43
-80
-61
52
-32
-6
-110
-126
72
-71
-2
-48
84
100
64
-30
13
-65
-59
99
15
-45
-36
-89
44
-76
96
7
-40
0
46
55
69
-95
-110
-10
28
26
11
57
-55
-37
63
-77
46
-30
-80
-9
42
33
24
-10
-79
-52
47
12
28
-66
-30
127
-75
-4
56
-35
6
21
-59
17
29
-36
39
-79
-6
102
-73
-50
68
62
-59
-55
-23
-13
21
8
20
44
-102
34
26
-43
49
-100
-42
-115
-62
81
31
67
-80
-35
127
-56
59
-5
34
76
55
22
-6
-114
27
50
24
100
50
-102
99
7
-36
71
-67
65
-70
-49
66
-37
53
-59
-61
-65
-12
-55
-112
-12
-4
16
30
30
25
-64
-8
82
1
-92
-11
11
30
46
-88
83
-15
-19
25
127
36
82
17
-44
-65
-3
-28
20
88
17
-56
61
0
-21
-49
3
-24
-50
-23
-57
24
-67
-34
20
-59
-19
9
64
-74
-3
42
-78
66
33
64
84
16
10
-3
93
-72
-56
-5
127
68
65
26
46
59
93
-111
-92
56
-64
37
-14
-60
-38
-31
-32
17
70
127
2
-45
22
14
-57
40
47
32
-33
43
-14
-61
-108
-60
-20
-8
87
19
-52
56
-62
-64
-78
-39
-4
-43
19
-75
-74
-67
43
15
-28
37
33
-14
36
-90
-97
-22
-32
8
-31
42
-52
127
63
9
90
-69
96
-1
72
13
60
59
96
-107
29
89
-32
-7
99
-19
44
50
29
40
-64
32
-10
-11
-66
56
-20
81
-11
-26
36
42
22
-127
26
-9
-35
74
-91
20
3
-13
-24
-57
-67
40
-36
-54
-116
9
18
-66
17
65
11
-16
-44
51
37
36
82
19
21
31
33
86
25
-8
40
-2
114
-15
-73
44
-73
9
-12
2
22
12
117
-9
15
-46
-6
30
-60
5
38
79
0
-70
-64
-127
60
-95
42
-99
-56
-34
-117
74
7
-6
-34
-11
1
56
-10
-27
73
54
-9
-31
4
-71
-61
-79
54
110
127
36
-27
42
32
52
23
95
24
-22
-86
69
-37
-15
-9
-26
43
24
17
37
-10
14
-66
-84
-41
12
-12
-10
-6
29
25
59
-29
72
31
-56
-57
-84
77
9
79
-18
-45
30
1
11
96
-11
2
-35
-88
63
68
-38
27
-22
91
-106
-49
-127
-122
83
97
-55
-39
35
-80
-101
44
-44
24
22
9
80
-120
-12
7
30
-2
26
-20
-58
-6
47
6
35
-9
1
-28
-15
-60
-72
-72
-22
-1
17
38
-46
-18
-36
24
-57
-15
8
70
-82
-97
127
-1
-35
41
3
-16
-41
87
-37
68
34
35
-56
-84
23
55
11
13
47
-9
-22
-5
-40
30
-28
-36
-123
21
97
39
58
-37
-28
54
68
-65
77
-38
68
83
-66
124
73
-69
-5
50
56
-53
79
-76
22
15
40
43
127
16
38
10
-40
48
22
68
41
69
15
-12
56
-50
-19
-25
38
76
22
-24
-127
66
22
-2
-3
-20
-69
18
-7
48
7
-7
80
3
-15
-4
56
8
-99
-34
73
-53
-62
-90
-31
79
-10
-31
6
-73
-26
10
-65
120
70
85
-10
-33
19
-105
-48
7
-39
46
19
-74
33
-29
-70
45
-77
1
-30
63
26
30
36
99
121
125
-34
-41
94
41
16
23
111
-10
-69
36
8
4
-40
-69
60
7
88
16
127
-14
-9
-71
23
-57
-89
58
23
18
45
-2
56
39
0
67
-52
30
-58
48
94
-38
26
-86
-9
50
73
20
89
-72
-7
38
-82
2
-74
25
63
-116
-65
28
45
-2
27
78
56
-3
-127
-5
-86
70
47
-100
46
38
-2
-35
-4
18
-116
72
12
-27
69
73
11
-29
4
28
-109
23
-102
-84
-52
46
72
-90
-57
4
-89
25
-74
25
55
-17
-27
-42
79
127
-33
76
-2
24
-22
-7
2
44
-68
46
55
63
75
-87
-60
84
-22
48
-52
-3
-10
-23
-61
3
-44
89
32
-1
-83
0
30
-20
-1
15
40
-24
31
-127
-29
5
-32
21
-68
6
54
-4
19
38
24
-23
2
-14
10
20
-29
-31
0
8
-7
-38
-30
-2
-9
-53
9
21
33
20
6
44
15
106
81
2
20
-35
-57
-77
-27
-5
-27
-50
61
26
49
-43
33
-61
-16
21
127
-7
63
-18
-80
-7
10
-110
74
-106
43
5
-40
-52
-103
71
62
-2
-37
-1
66
11
-48
74
95
-39
-35
55
62
