-40
-60
-13
-3
46
-49
-36
14
-63
46
4
-16
83
-62
25
-59
2
-53
25
21
33
-59
-19
-50
-46
-51
68
-6
15
-18
20
-40
13
-58
49
9
10
-38
19
-37
-72
-1
-16
-51
1
25
-9
33
3
-127
1
26
61
-60
-65
-51
-39
-87
71
17
82
-10
52
-71
41
-109
29
54
49
-86
-61
-108
-49
90
58
-24
9
31
44
-34
51
-79
104
56
28
-46
-8
-97
-68
74
-12
-78
-101
72
20
28
57
-69
-4
17
14
-34
-68
-54
8
-123
52
43
78
-25
26
-22
67
-59
22
65
27
-36
-37
-50
-3
-20
46
-40
56
17
50
9
67
-22
77
48
4
-21
-10
-127
-1
-13
-17
-105
-109
18
-1
44
-122
-50
-25
43
90
-89
-56
27
-103
27
82
-1
111
-127
76
-78
-65
-31
28
57
68
-98
-55
0
-75
49
95
-64
35
-83
50
-59
-53
-84
75
26
31
-74
1
-27
-122
-17
-10
-86
-60
-6
-14
-28
-106
-53
-2
80
127
-120
-127
-46
-127
-24
108
15
115
-77
127
-124
-53
-94
61
127
90
-127
-111
-119
-87
54
127
-60
7
-28
88
-109
29
-90
127
62
64
-127
-40
-59
-101
110
65
-127
-104
61
5
-66
17
-102
29
86
66
-60
-86
-114
-78
0
73
9
84
-70
92
-127
62
-83
91
92
51
-61
-70
-107
-54
15
87
-28
-23
-34
61
-99
95
-65
119
47
38
-59
-48
-99
-57
127
8
-125
-127
2
3
-49
-70
7
-23
39
64
-45
-29
-63
-31
-125
75
-2
87
-91
48
-27
-77
-14
55
43
39
-61
-29
-80
-41
109
44
-17
9
-69
22
-17
-86
29
52
12
14
-88
23
44
-55
-74
11
-85
-72
-56
-30
-11
-127
-16
-9
64
83
-72
-79
-58
-47
-106
119
-30
91
-89
87
-60
-87
-34
86
72
67
-73
-85
-94
-80
-52
67
-36
-33
-53
30
-61
-84
8
98
28
61
-96
-24
-3
-76
42
9
-122
-108
16
-20
-22
-46
-60
13
42
31
-30
-64
-89
-36
66
99
-11
30
-101
66
-69
3
-31
39
49
58
-34
-52
-36
-44
29
40
-53
27
-37
36
-70
14
-42
16
11
54
-46
-21
-75
-69
8
4
-110
-104
7
8
-38
